
/* Species #1 : (Size 11) (AF 8.04676) (Age 24)  */


/* Organism #0 Fitness: 9 Error: 1 */
genomestart 0
trait 1 0.1 0 0 0 0 0 0 0 
trait 2 0.0859375 0 0 0 0.114847 0 0 0.240508 
trait 3 0.301225 0.00174672 0.00256482 0 0.00136833 0.00160476 0 0 
node 1 3 1 3
node 2 1 1 1
node 3 3 1 1
node 4 2 0 2
node 12 1 0 0
gene 3 1 4 -1.82349 0 1 -1.82349 1
gene 1 2 4 7.97523 0 2 7.97523 1
gene 3 3 4 -4.62976 0 3 -4.62976 1
gene 3 3 12 5.12473 0 18 5.12473 1
gene 3 12 4 -8 0 19 -8 1
gene 3 2 12 -2.53185 0 99 -2.53185 1
genomeend 0

/* Organism #1 Fitness: 9 Error: 1 */
genomestart 1
trait 1 0.1 0 0 0 0 0 0 0 
trait 2 0.0964844 0 0 0 0.104228 0 0 0.21827 
trait 3 0.301642 0.00234219 0.00343918 0 0.00183481 0.00215184 0 0 
node 1 3 1 3
node 2 1 1 1
node 3 3 1 1
node 4 2 0 2
node 12 1 0 0
gene 3 1 4 -2.15474 0 1 -2.15474 1
gene 1 2 4 7.81108 0 2 7.81108 1
gene 3 3 4 -5.05182 0 3 -5.05182 1
gene 3 3 12 3.20162 0 18 3.20162 1
gene 3 12 4 -7.76554 0 19 -7.76554 1
gene 3 2 12 -1.18544 0 99 -1.18544 1
genomeend 1

/* Organism #2 Fitness: 9 Error: 1 */
genomestart 2
trait 1 0.1 0 0 0 0 0 0 0 
trait 2 0.0894531 0 0 0 0.111307 0 0 0.233096 
trait 3 0.301364 0.00194521 0.00285627 0 0.00152382 0.00178712 0 0 
node 1 3 1 3
node 2 1 1 1
node 3 3 1 1
node 4 2 0 2
node 12 1 0 0
gene 3 1 4 -0.0676494 0 1 -0.0676494 1
gene 1 2 4 6.88145 0 2 6.88145 1
gene 3 3 4 -5.97252 0 3 -5.97252 1
gene 3 3 12 4.67475 0 18 4.67475 1
gene 3 12 4 -6.62819 0 19 -6.62819 1
gene 1 2 12 -3.23022 0 99 -3.23022 1
genomeend 2

/* Organism #3 Fitness: 9 Error: 1 */
genomestart 3
trait 1 0.0732653 0 0.468509 0 0 0 0 0 
trait 2 0.0964844 0 0 0 0.104228 0 0 0.21827 
trait 3 0.301642 0.00234219 0.00343918 0 0.00183481 0.00215184 0 0 
node 1 3 1 3
node 2 1 1 1
node 3 3 1 1
node 4 2 0 2
node 12 1 0 0
gene 3 1 4 -1.88969 0 1 -1.88969 1
gene 1 2 4 8 0 2 8 1
gene 3 3 4 -2.85037 0 3 -2.85037 1
gene 3 3 12 4.39788 0 18 4.39788 1
gene 3 12 4 -8 0 19 -8 1
gene 3 2 12 -2.82033 0 99 -2.82033 1
genomeend 3

/* Organism #4 Fitness: 9 Error: 1 */
genomestart 4
trait 1 0.1 0 0 0 0 0 0 0 
trait 2 0.1 0 0 0 0.100688 0 0 0.210857 
trait 3 0.301781 0.00254068 0.00373064 0 0.0019903 0.0023342 0 0 
node 1 3 1 3
node 2 1 1 1
node 3 3 1 1
node 4 2 0 2
node 12 1 0 0
gene 3 1 4 -2.15474 0 1 -2.15474 1
gene 1 2 4 7.81108 0 2 7.81108 1
gene 3 3 4 -5.05182 0 3 -5.05182 1
gene 3 3 12 3.20162 0 18 3.20162 1
gene 3 12 4 -7.76554 0 19 -7.76554 1
gene 3 2 12 -1.18544 0 99 -1.18544 1
genomeend 4

/* Organism #5 Fitness: 9 Error: 1 */
genomestart 5
trait 1 0.1 0 0 0 0 0 0 0 
trait 2 0.0929688 0 0 0 0.107767 0 0 0.225683 
trait 3 0.301503 0.0021437 0.00314773 0 0.00167931 0.00196948 0 0 
node 1 3 1 3
node 2 1 1 1
node 3 3 1 1
node 4 2 0 2
node 12 1 0 0
gene 3 1 4 -3.28014 0 1 -3.28014 1
gene 1 2 4 6.46453 0 2 6.46453 1
gene 3 3 4 -3.15005 0 3 -3.15005 1
gene 3 3 12 4.11084 0 18 4.11084 1
gene 3 12 4 -8 0 19 -8 1
gene 3 2 12 -4.09175 0 99 -4.09175 1
genomeend 5

/* Organism #6 Fitness: 9 Error: 1 */
genomestart 6
trait 1 0.1 0 0 0 0 0 0 0 
trait 2 0.1 0 0 0 0.100688 0 0 0.210857 
trait 3 0.301781 0.00254068 0.00373064 0 0.0019903 0.0023342 0 0 
node 1 3 1 3
node 2 1 1 1
node 3 3 1 1
node 4 2 0 2
node 12 1 0 0
gene 3 1 4 -1.87209 0 1 -1.87209 1
gene 1 2 4 5.3799 0 2 5.3799 1
gene 3 3 4 -6.08802 0 3 -6.08802 1
gene 3 3 12 1.09219 0 18 1.09219 1
gene 3 12 4 -6.82779 0 19 -6.82779 1
gene 3 2 12 -1.18897 0 99 -1.18897 1
genomeend 6

/* Organism #7 Fitness: 9 Error: 1 */
genomestart 7
trait 1 0.1 0 0 0 0 0 0 0 
trait 2 0.0929688 0 0 0 0.107767 0 0 0.225683 
trait 3 0.301503 0.0021437 0.00314773 0 0.00167931 0.00196948 0 0 
node 1 3 1 3
node 2 1 1 1
node 3 3 1 1
node 4 2 0 2
node 12 1 0 0
gene 3 1 4 -3.37633 0 1 -3.37633 1
gene 1 2 4 6.87747 0 2 6.87747 1
gene 3 3 4 -6.86024 0 3 -6.86024 1
gene 3 3 12 4.98815 0 18 4.98815 1
gene 3 12 4 -7.6595 0 19 -7.6595 1
gene 3 2 12 -2.90527 0 99 -2.90527 1
genomeend 7

/* Organism #8 Fitness: 3.99993 Error: 2.00002 */
genomestart 8
trait 1 0.1 0 0 0 0 0 0 0 
trait 2 0.0859375 0 0 0 0.114847 0 0 0.240508 
trait 3 0.301225 0.00174672 0.00256482 0 0.00136833 0.00160476 0 0 
node 1 3 1 3
node 2 1 1 1
node 3 3 1 1
node 4 2 0 2
node 12 1 0 0
gene 3 1 4 -1.82349 0 1 -1.82349 1
gene 1 2 4 8 0 2 8 1
gene 3 3 4 -3.41738 0 3 -3.41738 1
gene 3 3 12 -0.498898 0 18 -0.498898 1
gene 3 12 4 -0.769082 0 19 -0.769082 1
gene 3 2 12 -1.17397 0 99 -1.17397 1
genomeend 8

/* Organism #9 Fitness: 8.51141 Error: 1.08257 */
genomestart 9
trait 1 0.1 0 0 0 0 0 0 0 
trait 2 0.0929688 0 0 0 0.107767 0 0 0.225683 
trait 3 0.301503 0.0021437 0.00314773 0 0.00167931 0.00196948 0 0 
node 1 3 1 3
node 2 1 1 1
node 3 3 1 1
node 4 2 0 2
node 12 1 0 0
gene 3 1 4 -2.62982 0 1 -2.62982 1
gene 1 2 4 7.13364 0 2 7.13364 1
gene 3 3 4 -4.90125 0 3 -4.90125 1
gene 3 3 12 5.36941 0 18 5.36941 1
gene 3 12 4 -0.0915735 0 19 -0.0915735 1
gene 3 2 12 -0.62141 0 99 -0.62141 1
genomeend 9

/* Organism #10 Fitness: 4.00306 Error: 1.99924 */
genomestart 10
trait 1 0.1 0 0 0 0 0 0 0 
trait 2 0.0929688 0 0 0 0.107767 0 0 0.225683 
trait 3 0.301503 0.0021437 0.00314773 0 0.00167931 0.00196948 0 0 
node 1 3 1 3
node 2 1 1 1
node 3 3 1 1
node 4 2 0 2
node 12 1 0 0
gene 3 1 4 -0.524767 0 1 -0.524767 1
gene 1 2 4 6.418 0 2 6.418 1
gene 3 3 4 -4.62976 0 3 -4.62976 1
gene 3 3 12 -2.47026 0 18 -2.47026 1
gene 3 12 4 -1.67497 0 19 -1.67497 1
gene 3 2 12 0.651245 0 99 0.651245 1
genomeend 10

/* Species #2 : (Size 13) (AF 7.81956) (Age 20)  */


/* Organism #11 Fitness: 9 Error: 1 */
genomestart 11
trait 1 0.1 0 0 0 0 0 0 0 
trait 2 0.2 0 0 0 0 0 0 0 
trait 3 0.290999 0.0406509 0 0 0 0.0402971 0 0.0349556 
node 1 3 1 3
node 2 1 1 1
node 3 3 1 1
node 4 3 0 2
node 10 1 0 0
gene 2 1 4 -1.69606 0 1 -1.69606 1
gene 1 2 4 6.60119 0 2 6.60119 1
gene 3 3 4 6.36097 0 3 6.36097 1
gene 2 3 10 -4.73808 0 14 -4.73808 1
gene 2 10 4 -3.67633 0 15 -3.67633 1
gene 1 2 10 -0.19431 0 158 -0.19431 1
genomeend 11

/* Organism #12 Fitness: 8.99964 Error: 1.00006 */
genomestart 12
trait 1 0.1 0 0 0 0 0 0 0 
trait 2 0.2 0 0 0 0 0 0 0 
trait 3 0.290999 0.0406509 0 0 0 0.0402971 0 0.0349556 
node 1 3 1 3
node 2 1 1 1
node 3 3 1 1
node 4 3 0 2
node 10 1 0 0
node 70 1 0 0
gene 2 1 4 -1.69606 0 1 -1.69606 1
gene 1 2 4 6.60119 0 2 6.60119 1
gene 3 3 4 6.36097 0 3 6.36097 1
gene 2 3 10 -4.73808 0 14 -4.73808 1
gene 2 10 4 -3.67633 0 15 -3.67633 0
gene 1 2 10 -0.19431 0 158 -0.19431 1
gene 2 10 70 1 0 208 0 1
gene 2 70 4 -3.67633 0 209 0 1
genomeend 12

/* Organism #13 Fitness: 8.99996 Error: 1.00001 */
genomestart 13
trait 1 0.1 0 0 0 0 0 0 0 
trait 2 0.2 0 0 0 0 0 0 0 
trait 3 0.290999 0.0406509 0 0 0 0.0402971 0 0.0349556 
node 1 3 1 3
node 2 1 1 1
node 3 3 1 1
node 4 3 0 2
node 10 1 0 0
gene 2 1 4 -2.75518 0 1 -2.75518 1
gene 1 2 4 8 0 2 8 1
gene 3 3 4 5.18594 0 3 5.18594 1
gene 2 3 10 -3.04738 0 14 -3.04738 1
gene 2 10 4 -5.35358 0 15 -5.35358 1
gene 1 2 10 -1.224 0 158 -1.224 1
genomeend 13

/* Organism #14 Fitness: 8.99994 Error: 1.00001 */
genomestart 14
trait 1 0.1 0 0 0 0 0 0 0 
trait 2 0.2 0 0 0 0 0 0 0 
trait 3 0.232606 0.0625599 0 0.293835 0 0.377372 0.50518 0.0349556 
node 1 3 1 3
node 2 1 1 1
node 3 3 1 1
node 4 3 0 2
node 10 1 0 0
gene 2 1 4 -0.0903494 0 1 -0.0903494 1
gene 2 2 4 5.38081 0 2 5.38081 1
gene 3 3 4 7.22123 0 3 7.22123 1
gene 2 3 10 -3.81004 0 14 -3.81004 1
gene 2 10 4 -4.50047 0 15 -4.50047 1
gene 1 2 10 -0.721456 0 158 -0.721456 1
genomeend 14

/* Organism #15 Fitness: 9 Error: 1 */
genomestart 15
trait 1 0.1 0 0 0 0 0 0 0 
trait 2 0.2 0 0 0 0 0 0 0 
trait 3 0.290999 0.0406509 0 0 0 0.0402971 0 0.0349556 
node 1 3 1 3
node 2 1 1 1
node 3 3 1 1
node 4 3 0 2
node 10 1 0 0
gene 2 1 4 -0.893206 0 1 -0.893206 1
gene 2 2 4 5.991 0 2 5.991 1
gene 3 3 4 6.7911 0 3 6.7911 1
gene 2 3 10 -4.27406 0 14 -4.27406 1
gene 2 10 4 -4.0884 0 15 -4.0884 1
gene 1 2 10 -0.457883 0 158 -0.457883 1
genomeend 15

/* Organism #16 Fitness: 8.99999 Error: 1 */
genomestart 16
trait 1 0.1 0 0 0 0 0 0 0 
trait 2 0.2 0 0 0 0 0 0 0 
trait 3 0.290999 0.0406509 0 0 0 0.0402971 0 0.0349556 
node 1 3 1 3
node 2 1 1 1
node 3 3 1 1
node 4 3 0 2
node 10 1 0 0
gene 2 1 4 -0.0309099 0 1 -0.0309099 1
gene 2 2 4 5.12082 0 2 5.12082 1
gene 3 3 4 3.52401 0 3 3.52401 1
gene 2 3 10 -5.99255 0 14 -5.99255 1
gene 2 10 4 -5.19303 0 15 -5.19303 1
gene 1 2 10 -0.456379 0 158 -0.456379 1
genomeend 16

/* Organism #17 Fitness: 4.02691 Error: 1.99328 */
genomestart 17
trait 1 0.1 0 0 0 0 0 0 0 
trait 2 0.2 0 0 0 0 0 0 0 
trait 3 0.290999 0.0406509 0 0 0 0.0402971 0 0.0349556 
node 1 3 1 3
node 2 1 1 1
node 3 3 1 1
node 4 3 0 2
node 10 1 0 0
gene 2 1 4 2.00596 0 1 2.00596 1
gene 2 2 4 6.64398 0 2 6.64398 1
gene 3 3 4 8 0 3 8 1
gene 2 3 10 -3.83004 0 14 -3.83004 1
gene 2 10 4 -1.98264 0 15 -1.98264 1
gene 1 2 10 -0.461288 0 158 -0.461288 1
genomeend 17

/* Organism #18 Fitness: 8.99999 Error: 1 */
genomestart 18
trait 1 0.1 0 0 0.525689 0 0.945414 0.663338 0 
trait 2 0.2 0 0 0 0 0 0 0 
trait 3 0.290999 0.0406509 0 0 0 0.0402971 0 0.0349556 
node 1 3 1 3
node 2 1 1 1
node 3 3 1 1
node 4 3 0 2
node 10 1 0 0
gene 2 1 4 -0.0903494 0 1 -0.0903494 1
gene 2 2 4 4.8487 0 2 4.8487 1
gene 3 3 4 6.02752 0 3 6.02752 1
gene 2 3 10 -3.71906 0 14 -3.71906 1
gene 2 10 4 -5.35109 0 15 -5.35109 1
gene 1 2 10 -0.60456 0 158 -0.60456 1
genomeend 18

/* Organism #19 Fitness: 4.33201 Error: 1.91865 */
genomestart 19
trait 1 0.1 0 0 0 0 0 0 0 
trait 2 0.2 0 0 0 0 0 0 0 
trait 3 0.290999 0.0406509 0 0 0 0.0402971 0.616195 0 
node 1 3 1 3
node 2 1 1 1
node 3 3 1 1
node 4 3 0 2
node 10 1 0 0
gene 2 1 4 2.47085 0 1 2.47085 1
gene 1 2 4 6.81727 0 2 6.81727 1
gene 3 3 4 4.53217 0 3 4.53217 1
gene 2 3 10 -0.754205 0 14 -0.754205 1
gene 2 10 4 -3.95712 0 15 -3.95712 1
gene 1 2 10 1.92007 0 158 1.92007 1
genomeend 19

/* Organism #20 Fitness: 9 Error: 1 */
genomestart 20
trait 1 0.1 0 0 0 0 0 0 0 
trait 2 0.2 0 0 0 0 0 0 0 
trait 3 0.290999 0.0406509 0 0 0 0.0402971 0 0.0349556 
node 1 3 1 3
node 2 1 1 1
node 3 3 1 1
node 4 3 0 2
node 10 1 0 0
gene 2 1 4 -0.847836 0 1 -0.847836 1
gene 1 2 4 5.8621 0 2 5.8621 1
gene 3 3 4 5.87522 0 3 5.87522 1
gene 2 3 10 -4.503 0 14 -4.503 1
gene 2 10 4 -4.2288 0 15 -4.2288 1
gene 1 2 10 -1.68945 0 158 -1.68945 1
genomeend 20

/* Organism #21 Fitness: 8.99994 Error: 1.00001 */
genomestart 21
trait 1 0.1 0 0 0 0 0 0 0 
trait 2 0.2 0 0 0 0 0 0 0 
trait 3 0.290999 0.0406509 0 0 0 0.0402971 0 0.0349556 
node 1 3 1 3
node 2 1 1 1
node 3 3 1 1
node 4 3 0 2
node 10 1 0 0
gene 2 1 4 -0.0903494 0 1 -0.0903494 1
gene 2 2 4 5.38081 0 2 5.38081 1
gene 3 3 4 7.22123 0 3 7.22123 1
gene 2 3 10 -3.81004 0 14 -3.81004 1
gene 2 10 4 -4.50047 0 15 -4.50047 1
gene 1 2 10 -0.721456 0 158 -0.721456 1
genomeend 21

/* Organism #22 Fitness: 8.99845 Error: 1.00026 */
genomestart 22
trait 1 0.1 0 0 0 0 0 0 0 
trait 2 0.2 0 0 0 0 0 0 0 
trait 3 0.290999 0.0406509 0 0 0 0.0402971 0 0.0349556 
node 1 3 1 3
node 2 1 1 1
node 3 3 1 1
node 4 3 0 2
node 10 1 0 0
gene 2 1 4 -1.60532 0 1 -1.60532 1
gene 1 2 4 6.3434 0 2 6.3434 1
gene 3 3 4 4.5292 0 3 4.5292 1
gene 2 3 10 -5.19596 0 14 -5.19596 1
gene 2 10 4 -3.95712 0 15 -3.95712 1
gene 1 2 10 -2.65745 0 158 -2.65745 1
gene 2 1 10 -0.809462 0 210 -0.809462 1
genomeend 22

/* Organism #23 Fitness: 3.29746 Error: 2.18411 */
genomestart 23
trait 1 0.1 0 0 0 0 0 0 0 
trait 2 0.2 0 0 0 0 0 0 0 
trait 3 0.290999 0.0406509 0 0 0 0.0402971 0 0.0349556 
node 1 3 1 3
node 2 1 1 1
node 3 3 1 1
node 4 3 0 2
node 10 1 0 0
gene 2 1 4 -3.67999 0 1 -3.67999 1
gene 1 2 4 1.33946 0 2 1.33946 1
gene 3 3 4 4.33839 0 3 4.33839 1
gene 2 3 10 -0.415035 0 14 -0.415035 1
gene 2 10 4 -3.1055 0 15 -3.1055 1
gene 1 2 10 -3.27784 0 158 -3.27784 1
genomeend 23

/* Species #3 : (Size 10) (AF 7.48442) (Age 20)  */


/* Organism #24 Fitness: 9 Error: 1 */
genomestart 24
trait 1 0.1 0 0 0 0 0 0 0 
trait 2 0.2 0 0 0 0 0 0 0 
trait 3 0.3 0 0 0 0 0 0 0 
node 1 3 1 3
node 2 2 1 1
node 3 3 1 1
node 4 3 0 2
gene 1 1 4 -4.13014 0 1 -4.13014 1
gene 1 2 4 8 0 2 8 1
gene 3 3 4 -8 0 3 -8 1
genomeend 24

/* Organism #25 Fitness: 8.99995 Error: 1.00001 */
genomestart 25
trait 1 0.106814 0 0 0.00441203 0 0 0 0 
trait 2 0.2 0 0 0 0 0 0 0 
trait 3 0.3 0 0 0 0 0 0 0 
node 1 3 1 3
node 2 2 1 1
node 3 3 1 1
node 4 3 0 2
gene 1 1 4 -5.61908 0 1 -5.61908 1
gene 1 2 4 8 0 2 8 1
gene 3 3 4 -5.98094 0 3 -5.98094 1
genomeend 25

/* Organism #26 Fitness: 8.9996 Error: 1.00007 */
genomestart 26
trait 1 0.1 0 0 0 0 0 0 0 
trait 2 0.2 0 0 0 0 0 0 0 
trait 3 0.3 0 0 0 0 0 0 0 
node 1 1 1 3
node 2 2 1 1
node 3 3 1 1
node 4 3 0 2
gene 1 1 4 -6.04683 0 1 -6.04683 1
gene 1 2 4 8 0 2 8 1
gene 3 3 4 -7.66423 0 3 -7.66423 1
genomeend 26

/* Organism #27 Fitness: 4.04711 Error: 1.98826 */
genomestart 27
trait 1 0.106814 0 0 0.00441203 0 0 0 0 
trait 2 0.2 0 0 0 0 0 0 0 
trait 3 0.3 0 0 0 0 0 0 0 
node 1 3 1 3
node 2 2 1 1
node 3 3 1 1
node 4 3 0 2
gene 1 1 4 -1.80869 0 1 -1.80869 1
gene 1 2 4 0.910879 0 2 0.910879 1
gene 3 3 4 -6.04861 0 3 -6.04861 1
genomeend 27

/* Organism #28 Fitness: 8.99997 Error: 1.00001 */
genomestart 28
trait 1 0.1 0 0 0 0 0 0 0 
trait 2 0.2 0 0 0 0 0 0 0 
trait 3 0.3 0 0 0 0 0 0 0 
node 1 3 1 3
node 2 2 1 1
node 3 3 1 1
node 4 3 0 2
gene 1 1 4 -4.44783 0 1 -4.44783 1
gene 1 2 4 6.90859 0 2 6.90859 1
gene 3 3 4 -8 0 3 -8 1
genomeend 28

/* Organism #29 Fitness: 8.99998 Error: 1 */
genomestart 29
trait 1 0.1 0 0 0 0 0 0 0 
trait 2 0.2 0 0 0 0 0 0 0 
trait 3 0.3 0 0 0 0 0 0 0 
node 1 3 1 3
node 2 2 1 1
node 3 3 1 1
node 4 3 0 2
gene 1 1 4 -2.59009 0 1 -2.59009 1
gene 1 2 4 7.75274 0 2 7.75274 1
gene 3 3 4 -8 0 3 -8 1
genomeend 29

/* Organism #30 Fitness: 4.00001 Error: 2 */
genomestart 30
trait 1 0.113628 0 0 0.00882406 0 0 0 0 
trait 2 0.2 0 0 0 0 0 0 0 
trait 3 0.3 0 0 0 0 0 0 0 
node 1 3 1 3
node 2 2 1 1
node 3 3 1 1
node 4 3 0 2
gene 1 1 4 -3.4407 0 1 -3.4407 1
gene 1 2 4 7.93628 0 2 7.93628 1
gene 3 3 4 -1.92659 0 3 -1.92659 1
genomeend 30

/* Organism #31 Fitness: 8.99971 Error: 1.00005 */
genomestart 31
trait 1 0.106814 0 0 0.00441203 0 0 0 0 
trait 2 0.2 0 0 0 0 0 0 0 
trait 3 0.3 0 0 0 0 0 0 0 
node 1 3 1 3
node 2 2 1 1
node 3 3 1 1
node 4 3 0 2
gene 1 1 4 -2.15744 0 1 -2.15744 1
gene 1 2 4 8 0 2 8 1
gene 3 3 4 -8 0 3 -8 1
genomeend 31

/* Organism #32 Fitness: 3.80331 Error: 2.04979 */
genomestart 32
trait 1 0.113628 0 0 0.00882406 0 0 0 0 
trait 2 0.2 0 0 0 0 0 0 0 
trait 3 0.3 0 0 0 0 0 0 0 
node 1 3 1 3
node 2 2 1 1
node 3 3 1 1
node 4 3 0 2
gene 1 1 4 -5.3661 0 1 -5.3661 1
gene 1 2 4 5.83326 0 2 5.83326 1
gene 3 3 4 0.171477 0 3 0.171477 1
genomeend 32

/* Organism #33 Fitness: 8.9946 Error: 1.0009 */
genomestart 33
trait 1 0.113628 0 0 0.00882406 0 0 0 0 
trait 2 0.2 0 0 0 0 0 0 0 
trait 3 0.3 0 0 0 0 0 0 0 
node 1 3 1 3
node 2 2 1 1
node 3 3 1 1
node 4 3 0 2
gene 1 1 4 -4.35198 0 1 -4.35198 1
gene 1 2 4 5.77589 0 2 5.77589 1
gene 3 3 4 -7.51355 0 3 -7.51355 1
genomeend 33

/* Species #6 : (Size 10) (AF 6.00047) (Age 17)  */


/* Organism #34 Fitness: 8.99997 Error: 1.00001 */
genomestart 34
trait 1 0.1 0 0.162558 0 0 0 0.100181 0.284998 
trait 2 0.2 0 0 0.12965 0.127604 0 0 0 
trait 3 0.395282 0.279426 0 0 0.376756 0.00884999 0 0.201648 
node 1 2 1 3
node 2 1 1 1
node 3 3 1 1
node 4 3 0 2
node 10 1 0 0
node 13 1 0 0
gene 3 1 4 -1.68035 0 1 -1.68035 1
gene 1 2 4 -2.59363 0 2 -2.59363 0
gene 2 3 4 -2.06959 0 3 -2.06959 0
gene 2 3 10 8 0 14 8 1
gene 2 10 4 -6.55838 0 15 -6.55838 1
gene 2 2 13 4.05322 0 20 4.05322 1
gene 2 13 4 4.165 0 21 4.165 1
gene 1 2 10 -5.76604 0 52 -5.76604 1
genomeend 34

/* Organism #35 Fitness: 4.00918 Error: 1.99771 */
genomestart 35
trait 1 0.1 0 0.162558 0 0 0 0.100181 0.284998 
trait 2 0.2 0 0 0.12965 0.127604 0 0 0 
trait 3 0.395282 0.279426 0 0 0.376756 0.00884999 0 0.201648 
node 1 2 1 3
node 2 1 1 1
node 3 3 1 1
node 4 3 0 2
node 10 1 0 0
node 13 1 0 0
gene 3 1 4 -1.48236 0 1 -1.48236 1
gene 1 2 4 0.734521 0 2 0.734521 0
gene 2 3 4 -2.45491 0 3 -2.45491 0
gene 2 3 10 7.21649 0 14 7.21649 1
gene 2 10 4 -2.32433 0 15 -2.32433 1
gene 2 2 13 2.22025 0 20 2.22025 1
gene 2 13 4 0.249001 0 21 0.249001 1
gene 1 2 10 -4.14842 0 52 -4.14842 1
genomeend 35

/* Organism #36 Fitness: 8.99741 Error: 1.00043 */
genomestart 36
trait 1 0.1 0 0.162558 0 0 0 0.100181 0.284998 
trait 2 0.2 0 0 0.0648251 0.0638022 0 0 0 
trait 3 0.39913 0.284601 0 0 0.376756 0.00884999 0 0.203441 
node 1 2 1 3
node 2 1 1 1
node 3 3 1 1
node 4 3 0 2
node 10 1 0 0
node 13 1 0 0
gene 3 1 4 -3.22505 0 1 -3.22505 1
gene 1 2 4 -1.88075 0 2 -1.88075 0
gene 2 3 4 -3.65965 0 3 -3.65965 0
gene 2 3 10 4.71447 0 14 4.71447 1
gene 2 10 4 -7.13519 0 15 -7.13519 1
gene 2 2 13 2.01527 0 20 2.01527 1
gene 2 13 4 4.80464 0 21 4.80464 1
gene 1 2 10 -1.43162 0 52 -1.43162 1
genomeend 36

/* Organism #37 Fitness: 4 Error: 2 */
genomestart 37
trait 1 0.1 0 0.162558 0 0 0 0.100181 0.284998 
trait 2 0.2 0 0 0 0 0 0 0 
trait 3 0.402978 0.289776 0 0 0.376756 0.00884999 0 0.205233 
node 1 2 1 3
node 2 1 1 1
node 3 3 1 1
node 4 2 0 2
node 10 1 0 0
node 13 1 0 0
gene 3 1 4 -1.71195 0 1 -1.71195 1
gene 1 2 4 -3.48581 0 2 -3.48581 1
gene 2 3 4 0.457226 0 3 0.457226 1
gene 2 3 10 4.13699 0 14 4.13699 1
gene 2 10 4 -4.69046 0 15 -4.69046 1
gene 2 2 13 0.60145 0 20 0.60145 1
gene 2 13 4 -0.277769 0 21 -0.277769 1
gene 1 2 10 -2.3401 0 52 -2.3401 1
genomeend 37

/* Organism #38 Fitness: 4.00003 Error: 1.99999 */
genomestart 38
trait 1 0.1 0 0.162558 0 0 0 0.100181 0.284998 
trait 2 0.2 0 0 0.12965 0.127604 0 0 0 
trait 3 0.395282 0.279426 0 0 0.376756 0.00884999 0 0.201648 
node 1 2 1 3
node 2 1 1 1
node 3 3 1 1
node 4 3 0 2
node 10 1 0 0
node 13 1 0 0
gene 3 1 4 -1.68035 0 1 -1.68035 1
gene 1 2 4 -1.35336 0 2 -1.35336 0
gene 2 3 4 -2.06959 0 3 -2.06959 0
gene 2 3 10 4.94287 0 14 4.94287 1
gene 2 10 4 -6.55838 0 15 -6.55838 1
gene 2 2 13 2.16165 0 20 2.16165 1
gene 2 13 4 3.99399 0 21 3.99399 1
gene 1 2 10 -5.76604 0 52 -5.76604 1
genomeend 38

/* Organism #39 Fitness: 8.99998 Error: 1 */
genomestart 39
trait 1 0.1 0 0.162558 0 0 0 0.100181 0.284998 
trait 2 0.2 0 0 0.0648251 0.0638022 0 0 0 
trait 3 0.39913 0.284601 0 0 0.376756 0.00884999 0 0.203441 
node 1 2 1 3
node 2 1 1 1
node 3 3 1 1
node 4 3 0 2
node 10 1 0 0
node 13 1 0 0
gene 3 1 4 -1.81291 0 1 -1.81291 1
gene 1 2 4 -4.37787 0 2 -4.37787 0
gene 2 3 4 -2.87902 0 3 -2.87902 1
gene 2 3 10 4.03631 0 14 4.03631 1
gene 2 10 4 -8 0 15 -8 1
gene 2 2 13 2.78676 0 20 2.78676 1
gene 2 13 4 6.53522 0 21 6.53522 1
gene 1 2 10 -0.530548 0 52 -0.530548 1
genomeend 39

/* Organism #40 Fitness: 8.99993 Error: 1.00001 */
genomestart 40
trait 1 0.1 0 0.162558 0 0 0 0.100181 0.284998 
trait 2 0.2 0 0 0.0648251 0.0638022 0 0 0 
trait 3 0.39913 0.284601 0 0 0.376756 0.00884999 0 0.203441 
node 1 2 1 3
node 2 1 1 1
node 3 3 1 1
node 4 3 0 2
node 10 1 0 0
node 13 1 0 0
gene 3 1 4 -1.68035 0 1 -1.68035 1
gene 1 2 4 -2.59363 0 2 -2.59363 0
gene 2 3 4 -1.26137 0 3 -1.26137 0
gene 2 3 10 4.94287 0 14 4.94287 1
gene 2 10 4 -6.55838 0 15 -6.55838 1
gene 2 2 13 2.16165 0 20 2.16165 1
gene 2 13 4 3.99399 0 21 3.99399 1
gene 1 2 10 -3.8463 0 52 -3.8463 1
genomeend 40

/* Organism #41 Fitness: 4 Error: 2 */
genomestart 41
trait 1 0.1 0 0.162558 0 0 0 0.100181 0.284998 
trait 2 0.2 0 0 0.12965 0.127604 0 0 0 
trait 3 0.395282 0.279426 0 0 0.376756 0.00884999 0 0.201648 
node 1 2 1 3
node 2 1 1 1
node 3 3 1 1
node 4 3 0 2
node 10 1 0 0
node 13 1 0 0
gene 3 1 4 -0.779916 0 1 -0.779916 1
gene 1 2 4 -0.47114 0 2 -0.47114 0
gene 2 3 4 -2.10273 0 3 -2.10273 0
gene 2 3 10 0.796357 0 14 0.796357 1
gene 2 10 4 -8 0 15 -8 1
gene 2 2 13 3.87825 0 20 3.87825 1
gene 2 13 4 3.67179 0 21 3.67179 1
gene 1 2 10 0.818057 0 52 0.818057 1
genomeend 41

/* Organism #42 Fitness: 4 Error: 2 */
genomestart 42
trait 1 0.1 0 0.162558 0 0 0 0.100181 0.284998 
trait 2 0.2 0 0 0.0648251 0.0638022 0 0 0 
trait 3 0.39913 0.284601 0 0 0.376756 0.00884999 0 0.203441 
node 1 2 1 3
node 2 1 1 1
node 3 3 1 1
node 4 3 0 2
node 10 1 0 0
node 13 1 0 0
gene 3 1 4 -2.78083 0 1 -2.78083 1
gene 1 2 4 -4.27942 0 2 -4.27942 0
gene 2 3 4 -0.869918 0 3 -0.869918 0
gene 2 3 10 3.40302 0 14 3.40302 1
gene 2 10 4 -7.37913 0 15 -7.37913 1
gene 2 2 13 1.02843 0 20 1.02843 1
gene 2 13 4 6.08311 0 21 6.08311 1
gene 1 2 10 -5.1116 0 52 -5.1116 1
genomeend 42

/* Organism #43 Fitness: 3.99817 Error: 2.00046 */
genomestart 43
trait 1 0.1 0 0.162558 0 0 0 0.100181 0.284998 
trait 2 0.2 0 0 0 0 0 0 0 
trait 3 0.402978 0.289776 0 0 0.376756 0.00884999 0 0.205233 
node 1 2 1 3
node 2 1 1 1
node 3 3 1 1
node 4 3 0 2
node 10 1 0 0
node 13 1 0 0
gene 3 1 4 -1.31478 0 1 -1.31478 1
gene 1 2 4 -3.30825 0 2 -3.30825 0
gene 2 3 4 -3.33389 0 3 -3.33389 0
gene 2 3 10 3.53332 0 14 3.53332 1
gene 2 10 4 -5.06792 0 15 -5.06792 1
gene 2 2 13 4.48674 0 20 4.48674 1
gene 2 13 4 4.57499 0 21 4.57499 1
gene 1 2 10 -5.41929 0 52 -5.41929 1
genomeend 43

/* Species #7 : (Size 10) (AF 5.30694) (Age 17)  */


/* Organism #44 Fitness: 8.99977 Error: 1.00004 */
genomestart 44
trait 1 0.1 0 0 0 0 0 0 0 
trait 2 0.2 0 0 0 0 0 0 0 
trait 3 0.3 0 0 0 0 0 0 0 
node 1 3 1 3
node 2 1 1 1
node 3 3 1 1
node 4 3 0 2
node 12 1 0 0
node 15 1 0 0
gene 3 1 4 -1.40469 0 1 -1.40469 1
gene 1 2 4 2.40926 0 2 2.40926 0
gene 3 3 4 -3.14268 0 3 -3.14268 1
gene 3 3 12 6.54501 0 18 6.54501 1
gene 3 12 4 -8 0 19 -8 1
gene 1 2 15 5.05974 0 27 5.05974 1
gene 1 15 4 7.52413 0 28 7.52413 1
gene 3 1 15 -0.0793689 0 163 0 1
genomeend 44

/* Organism #45 Fitness: 4 Error: 2 */
genomestart 45
trait 1 0.1 0 0 0 0 0 0 0 
trait 2 0.2 0 0 0 0 0 0 0 
trait 3 0.3 0 0 0 0 0 0 0 
node 1 3 1 3
node 2 1 1 1
node 3 3 1 1
node 4 3 0 2
node 12 1 0 0
node 15 1 0 0
gene 3 1 4 -1.04501 0 1 -1.04501 1
gene 1 2 4 -0.540698 0 2 -0.540698 0
gene 3 3 4 -1.25973 0 3 -1.25973 1
gene 3 3 12 3.80277 0 18 3.80277 1
gene 3 12 4 -8 0 19 -8 1
gene 1 2 15 6.64424 0 27 6.64424 1
gene 1 15 4 8 0 28 8 1
gene 3 1 15 2.05904 0 163 2.05904 1
genomeend 45

/* Organism #46 Fitness: 4.00001 Error: 2 */
genomestart 46
trait 1 1 0 0 0.0698236 0 0 0.863709 0 
trait 2 0.2 0 0 0 0 0 0 0 
trait 3 0.3 0 0 0 0 0 0 0 
node 1 3 1 3
node 2 1 1 1
node 3 3 1 1
node 4 3 0 2
node 12 1 0 0
node 15 1 0 0
gene 3 1 4 -3.60231 0 1 -3.60231 1
gene 1 2 4 0.79881 0 2 0.79881 0
gene 3 3 4 -1.55801 0 3 -1.55801 0
gene 3 3 12 -0.918219 0 18 -0.918219 1
gene 3 12 4 -7.2506 0 19 -7.2506 1
gene 1 2 15 6.95653 0 27 6.95653 1
gene 1 15 4 5.51539 0 28 5.51539 1
gene 3 1 15 1.35875 0 163 1.35875 1
genomeend 46

/* Organism #47 Fitness: 4.30243 Error: 1.92577 */
genomestart 47
trait 1 0.1 0 0 0 0 0 0 0 
trait 2 0.2 0 0 0 0 0 0 0 
trait 3 0.3 0 0 0 0 0 0 0 
node 1 3 1 3
node 2 1 1 1
node 3 3 1 1
node 4 3 0 2
node 12 1 0 0
node 15 1 0 0
gene 3 1 4 -2.36066 0 1 -2.36066 1
gene 1 2 4 0.104694 0 2 0.104694 0
gene 3 3 4 -2.20121 0 3 -2.20121 0
gene 3 3 12 0.48983 0 18 0.48983 1
gene 3 12 4 -8 0 19 -8 1
gene 1 2 15 2.62743 0 27 2.62743 1
gene 1 15 4 5.84823 0 28 5.84823 1
gene 3 1 15 -0.0793689 0 163 -0.0793689 1
genomeend 47

/* Organism #48 Fitness: 4 Error: 2 */
genomestart 48
trait 1 0.1 0 0 0 0 0 0 0 
trait 2 0.2 0 0 0 0 0 0 0 
trait 3 0.3 0 0 0 0 0 0 0 
node 1 3 1 3
node 2 1 1 1
node 3 3 1 1
node 4 3 0 2
node 12 1 0 0
node 15 1 0 0
gene 3 1 4 -0.0794878 0 1 -0.0794878 1
gene 1 2 4 4.13419 0 2 4.13419 0
gene 3 3 4 -5.39022 0 3 -5.39022 1
gene 3 3 12 8 0 18 8 1
gene 3 12 4 -7.40328 0 19 -7.40328 1
gene 1 2 15 0.19962 0 27 0.19962 1
gene 1 15 4 8 0 28 8 1
gene 3 1 15 -0.895374 0 163 -0.895374 1
genomeend 48

/* Organism #49 Fitness: 4.00122 Error: 1.99969 */
genomestart 49
trait 1 0.1 0 0 0 0 0 0 0 
trait 2 0.2 0 0 0 0 0 0 0 
trait 3 0.3 0 0 0 0 0 0 0 
node 1 3 1 3
node 2 1 1 1
node 3 3 1 1
node 4 3 0 2
node 12 1 0 0
node 15 1 0 0
gene 3 1 4 -1.40469 0 1 -1.40469 1
gene 1 2 4 1.53125 0 2 1.53125 0
gene 3 3 4 -2.20121 0 3 -2.20121 0
gene 3 3 12 6.21067 0 18 6.21067 1
gene 3 12 4 -8 0 19 -8 1
gene 1 2 15 4.89763 0 27 4.89763 1
gene 1 15 4 7.6431 0 28 7.6431 1
gene 3 1 15 -0.0793689 0 163 0 1
gene 1 15 12 0.735707 0 211 0.735707 1
genomeend 49

/* Organism #50 Fitness: 3.99988 Error: 2.00003 */
genomestart 50
trait 1 0.1 0 0 0 0.287017 0 0 0.062028 
trait 2 0.2 0 0 0 0 0 0 0 
trait 3 0.3 0 0 0 0 0 0 0 
node 1 3 1 3
node 2 1 1 1
node 3 3 1 1
node 4 3 0 2
node 12 1 0 0
node 15 1 0 0
gene 3 1 4 1.06566 0 1 1.06566 1
gene 1 2 4 0.483189 0 2 0.483189 0
gene 3 3 4 -2.22513 0 3 -2.22513 1
gene 3 3 12 5.7349 0 18 5.7349 1
gene 3 12 4 -8 0 19 -8 1
gene 1 2 15 7.39268 0 27 7.39268 1
gene 1 15 4 8 0 28 8 1
gene 3 1 15 1.7028 0 163 1.7028 1
genomeend 50

/* Organism #51 Fitness: 8.99987 Error: 1.00002 */
genomestart 51
trait 1 0.1 0 0 0 0 0 0 0 
trait 2 0.2 0 0 0 0 0 0 0 
trait 3 0.3 0 0 0 0 0 0 0 
node 1 3 1 3
node 2 1 1 1
node 3 3 1 1
node 4 3 0 2
node 12 1 0 0
node 15 1 0 0
gene 3 1 4 -2.48097 0 1 -2.48097 1
gene 1 2 4 3.47263 0 2 3.47263 0
gene 3 3 4 -3.8707 0 3 -3.8707 1
gene 3 3 12 5.35705 0 18 5.35705 1
gene 3 12 4 -6.1902 0 19 -6.1902 1
gene 1 2 15 7.05243 0 27 7.05243 1
gene 1 15 4 7.74954 0 28 7.74954 1
gene 3 1 15 -0.651502 0 163 -0.651502 1
genomeend 51

/* Organism #52 Fitness: 6.76545 Error: 1.39895 */
genomestart 52
trait 1 0.1 0 0 0 0 0 0 0 
trait 2 0.2 0 0 0 0 0 0 0 
trait 3 0.3 0 0 0 0 0 0 0 
node 1 3 1 3
node 2 1 1 1
node 3 3 1 1
node 4 3 0 2
node 12 1 0 0
node 15 1 0 0
gene 3 1 4 -3.51761 0 1 -3.51761 1
gene 1 2 4 -1.12123 0 2 -1.12123 0
gene 3 3 4 -0.96222 0 3 -0.96222 0
gene 3 3 12 6.72308 0 18 6.72308 1
gene 3 12 4 -8 0 19 -8 1
gene 1 2 15 6.70584 0 27 6.70584 1
gene 1 15 4 7.60084 0 28 7.60084 1
gene 3 1 15 -1.39322 0 163 -1.39322 1
genomeend 52

/* Organism #53 Fitness: 4.00076 Error: 1.99981 */
genomestart 53
trait 1 0.1 0 0 0 0 0 0 0 
trait 2 0.2 0 0 0 0 0 0 0 
trait 3 0.3 0 0 0 0 0 0 0 
node 1 1 1 3
node 2 1 1 1
node 3 3 1 1
node 4 3 0 2
node 12 1 0 0
node 15 1 0 0
gene 3 1 4 -2.90841 0 1 -2.90841 1
gene 1 2 4 0.3714 0 2 0.3714 0
gene 3 3 4 -0.709938 0 3 -0.709938 0
gene 3 3 12 6.65564 0 18 6.65564 1
gene 3 12 4 -8 0 19 -8 1
gene 1 2 15 6.35472 0 27 6.35472 1
gene 1 15 4 5.26351 0 28 5.26351 1
gene 3 1 15 0.655201 0 163 0.655201 1
genomeend 53

/* Species #8 : (Size 7) (AF 4.71392) (Age 17)  */


/* Organism #54 Fitness: 9 Error: 1 */
genomestart 54
trait 1 0.1 0 0 0 0 0 0 0 
trait 2 0.2 0 0 0 0 0 0 0 
trait 3 0.3 0 0 0 0 0 0 0 
node 1 3 1 3
node 2 1 1 1
node 3 3 1 1
node 4 3 0 2
node 12 1 0 0
node 15 1 0 0
node 18 1 0 0
node 21 1 0 0
gene 3 1 4 -2.25647 0 1 -2.25647 1
gene 1 2 4 3.73038 0 2 3.73038 0
gene 3 3 4 -6.84201 0 3 -6.84201 0
gene 3 3 12 2.00097 0 18 2.00097 0
gene 2 12 4 -8 0 19 -8 1
gene 1 2 15 -0.584029 0 27 -0.584029 0
gene 1 15 4 6.88098 0 28 6.88098 1
gene 3 3 18 -0.55493 0 36 -0.55493 1
gene 3 18 12 2.68939 0 37 2.68939 1
gene 1 2 21 2.07708 0 42 2.07708 1
gene 1 21 15 0.343681 0 43 0.343681 1
gene 2 21 12 -2.33106 0 53 -2.33106 1
gene 3 1 18 0.0101571 0 113 0.0101571 1
gene 2 3 21 0.867448 0 179 0.867448 1
genomeend 54

/* Organism #55 Fitness: 3.99741 Error: 2.00065 */
genomestart 55
trait 1 0.1 0 0 0 0 0 0 0 
trait 2 0.2 0 0 0 0 0 0 0 
trait 3 0.3 0 0 0 0 0 0 0 
node 1 3 1 3
node 2 1 1 1
node 3 3 1 1
node 4 3 0 2
node 12 1 0 0
node 15 1 0 0
node 18 1 0 0
node 21 1 0 0
gene 3 1 4 -0.848775 0 1 -0.848775 1
gene 1 2 4 5.12417 0 2 5.12417 0
gene 3 3 4 -6.55958 0 3 -6.55958 0
gene 3 3 12 0.57012 0 18 0.57012 0
gene 2 12 4 -8 0 19 -8 1
gene 1 2 15 -2.97116 0 27 -2.97116 0
gene 1 15 4 4.57371 0 28 4.57371 1
gene 3 3 18 -0.965871 0 36 -0.965871 1
gene 3 18 12 2.2763 0 37 2.2763 1
gene 1 2 21 -0.447614 0 42 -0.447614 1
gene 1 21 15 2.55278 0 43 2.55278 1
gene 2 21 12 0.221371 0 53 0.221371 1
gene 3 1 18 -1.3708 0 113 -1.3708 1
gene 2 3 21 3.16824 0 179 3.16824 1
genomeend 55

/* Organism #56 Fitness: 4.00004 Error: 1.99999 */
genomestart 56
trait 1 0.1 0 0 0 0 0 0 0 
trait 2 0.2 0 0 0 0 0 0 0 
trait 3 0.3 0 0 0 0 0 0 0 
node 1 3 1 3
node 2 1 1 1
node 3 3 1 1
node 4 3 0 2
node 12 1 0 0
node 15 1 0 0
node 18 1 0 0
node 21 1 0 0
gene 3 1 4 -2.25647 0 1 -2.25647 1
gene 1 2 4 4.85786 0 2 4.85786 0
gene 3 3 4 -6.84201 0 3 -6.84201 0
gene 3 3 12 2.95751 0 18 2.95751 0
gene 2 12 4 -8 0 19 -8 1
gene 1 2 15 -1.54439 0 27 -1.54439 0
gene 1 15 4 5.21036 0 28 5.21036 1
gene 3 3 18 -0.55493 0 36 -0.55493 1
gene 3 18 12 2.68939 0 37 2.68939 1
gene 1 2 21 -0.31832 0 42 -0.31832 1
gene 1 21 15 0.343681 0 43 0.343681 1
gene 2 21 12 -2.33106 0 53 -2.33106 1
gene 3 1 18 0.0101571 0 113 0.0101571 1
gene 2 3 21 0.867448 0 179 0.867448 1
genomeend 56

/* Organism #57 Fitness: 4 Error: 2 */
genomestart 57
trait 1 0.1 0 0 0 0 0 0 0 
trait 2 0.2 0 0 0 0 0 0 0 
trait 3 0.3 0 0 0 0 0 0 0 
node 1 3 1 3
node 2 1 1 1
node 3 3 1 1
node 4 3 0 2
node 12 1 0 0
node 15 1 0 0
node 18 1 0 0
node 21 1 0 0
gene 3 1 4 -1.28835 0 1 -1.28835 1
gene 1 2 4 2.30064 0 2 2.30064 0
gene 3 3 4 -8 0 3 -8 0
gene 3 3 12 4.42591 0 18 4.42591 0
gene 2 12 4 -8 0 19 -8 1
gene 1 2 15 0.38104 0 27 0.38104 0
gene 1 15 4 6.29746 0 28 6.29746 1
gene 3 3 18 1.55746 0 36 1.55746 1
gene 3 18 12 4.32973 0 37 4.32973 1
gene 1 2 21 2.79232 0 42 2.79232 1
gene 1 21 15 2.66586 0 43 2.66586 1
gene 2 21 12 -2.58452 0 53 -2.58452 1
gene 3 1 18 -2.22538 0 113 -2.22538 1
gene 2 3 21 0.867448 0 179 0.867448 1
genomeend 57

/* Organism #58 Fitness: 4 Error: 2 */
genomestart 58
trait 1 0.1 0 0 0 0 0 0 0 
trait 2 0.2 0 0 0 0 0 0 0 
trait 3 0.3 0 0 0 0 0 0 0 
node 1 3 1 3
node 2 1 1 1
node 3 3 1 1
node 4 3 0 2
node 12 1 0 0
node 15 1 0 0
node 18 1 0 0
node 21 1 0 0
gene 3 1 4 -2.38189 0 1 -2.38189 1
gene 1 2 4 4.29412 0 2 4.29412 0
gene 3 3 4 -7.39701 0 3 -7.39701 1
gene 3 3 12 2.47924 0 18 2.47924 0
gene 2 12 4 -8 0 19 -8 1
gene 1 2 15 -1.06421 0 27 -1.06421 0
gene 1 15 4 6.04567 0 28 6.04567 1
gene 3 3 18 -1.20855 0 36 -1.20855 1
gene 3 18 12 2.7017 0 37 2.7017 1
gene 1 2 21 0.879382 0 42 0.879382 1
gene 1 21 15 0.441181 0 43 0.441181 1
gene 2 21 12 -1.71592 0 53 -1.71592 1
gene 3 1 18 0.738173 0 113 0.738173 1
gene 2 3 21 0.867448 0 179 0.867448 1
genomeend 58

/* Organism #59 Fitness: 4.00001 Error: 2 */
genomestart 59
trait 1 0.1 0 0 0 0 0 0 0 
trait 2 0.2 0 0 0 0 0 0 0 
trait 3 0.3 0 0 0 0 0 0 0 
node 1 3 1 3
node 2 1 1 1
node 3 3 1 1
node 4 3 0 2
node 12 1 0 0
node 15 1 0 0
node 18 1 0 0
node 21 1 0 0
gene 3 1 4 -3.97692 0 1 -3.97692 1
gene 1 2 4 -1.52819 0 2 -1.52819 0
gene 3 3 4 -7.80709 0 3 -7.80709 0
gene 3 3 12 1.09931 0 18 1.09931 0
gene 2 12 4 -8 0 19 -8 1
gene 1 2 15 1.14756 0 27 1.14756 0
gene 1 15 4 6.57951 0 28 6.57951 1
gene 3 3 18 0.625895 0 36 0.625895 1
gene 3 18 12 0.733696 0 37 0.733696 1
gene 1 2 21 2.2121 0 42 2.2121 1
gene 1 21 15 2.3256 0 43 2.3256 1
gene 2 21 12 -3.26054 0 53 -3.26054 1
gene 3 1 18 0.738173 0 113 0.738173 1
gene 2 3 21 2.49391 0 179 2.49391 1
genomeend 59

/* Organism #60 Fitness: 4 Error: 2 */
genomestart 60
trait 1 0.1 0 0 0 0 0 0 0 
trait 2 0.2 0 0 0 0 0 0 0 
trait 3 0.3 0 0 0 0 0 0 0 
node 1 3 1 3
node 2 1 1 1
node 3 3 1 1
node 4 3 0 2
node 12 1 0 0
node 15 1 0 0
node 18 1 0 0
node 21 1 0 0
gene 3 1 4 -0.69438 0 1 -0.69438 1
gene 1 2 4 4.91777 0 2 4.91777 0
gene 3 3 4 -6.76003 0 3 -6.76003 0
gene 3 3 12 2.08411 0 18 2.08411 0
gene 2 12 4 -8 0 19 -8 1
gene 1 2 15 -0.275274 0 27 -0.275274 0
gene 1 15 4 8 0 28 8 1
gene 3 3 18 -0.763987 0 36 -0.763987 1
gene 3 18 12 0.815897 0 37 0.815897 1
gene 1 2 21 2.97748 0 42 2.97748 1
gene 1 21 15 1.09149 0 43 1.09149 1
gene 2 21 12 -4.76623 0 53 -4.76623 1
gene 3 1 18 0.234537 0 113 0.234537 1
gene 2 3 21 2.50153 0 179 2.50153 1
genomeend 60

/* Species #10 : (Size 10) (AF 7.70691) (Age 15)  */


/* Organism #61 Fitness: 9 Error: 1 */
genomestart 61
trait 1 0.1 0 0 0 0 0 0 0 
trait 2 0.2 0 0 0.246443 0 0 0.39419 0 
trait 3 0.3 0 0 0 0 0 0 0 
node 1 3 1 3
node 2 1 1 1
node 3 3 1 1
node 4 3 0 2
node 12 1 0 0
node 22 1 0 0
gene 3 1 4 -0.251832 0 1 -0.251832 1
gene 1 2 4 8 0 2 8 1
gene 3 3 4 -4.21537 0 3 -4.21537 1
gene 3 3 12 5.12825 0 18 5.12825 1
gene 3 12 4 -6.33147 0 19 -6.33147 0
gene 3 1 12 -0.735401 0 32 -0.735401 1
gene 3 12 22 1.05841 0 44 1.05841 1
gene 3 22 4 -7.36669 0 45 -7.36669 1
genomeend 61

/* Organism #62 Fitness: 4.00005 Error: 1.99999 */
genomestart 62
trait 1 0.1 0 0 0 0 0 0 0 
trait 2 0.2 0 0 0.123221 0.270216 0 0.325262 0 
trait 3 0.3 0 0 0 0 0 0 0 
node 1 3 1 3
node 2 1 1 1
node 3 3 1 1
node 4 3 0 2
node 12 1 0 0
node 22 3 0 0
gene 3 1 4 -1.03509 0 1 -1.03509 1
gene 1 2 4 8 0 2 8 1
gene 3 3 4 1.36836 0 3 1.36836 1
gene 3 3 12 4.99771 0 18 4.99771 1
gene 3 12 4 -5.95107 0 19 -5.95107 1
gene 3 1 12 -0.0901919 0 32 -0.0901919 1
gene 3 12 22 -0.509229 0 44 -0.509229 1
gene 3 22 4 -1.22258 0 45 -1.22258 1
genomeend 62

/* Organism #63 Fitness: 6.47222 Error: 1.45594 */
genomestart 63
trait 1 0.1 0 0 0 0 0 0 0 
trait 2 0.2 0 0 0.123221 0.270216 0 0.325262 0 
trait 3 0.3 0 0 0 0 0 0 0 
node 1 3 1 3
node 2 1 1 1
node 3 3 1 1
node 4 3 0 2
node 12 1 0 0
node 22 1 0 0
gene 3 1 4 -1.03509 0 1 -1.03509 1
gene 1 2 4 8 0 2 8 1
gene 3 3 4 -2.21914 0 3 -2.21914 1
gene 3 3 12 8 0 18 8 1
gene 3 12 4 -7.62469 0 19 -7.62469 0
gene 3 1 12 -4.87474 0 32 -4.87474 1
gene 3 12 22 1.05841 0 44 1.05841 1
gene 3 22 4 -4.80772 0 45 -4.80772 1
genomeend 63

/* Organism #64 Fitness: 8.99928 Error: 1.00012 */
genomestart 64
trait 1 0.1 0 0 0 0 0 0 0 
trait 2 0.2 0 0 0.123221 0.270216 0 0.325262 0 
trait 3 0.3 0 0 0 0 0 0 0 
node 1 3 1 3
node 2 1 1 1
node 3 3 1 1
node 4 3 0 2
node 12 1 0 0
node 22 1 0 0
gene 3 1 4 0.702589 0 1 0.702589 1
gene 1 2 4 8 0 2 8 1
gene 3 3 4 -3.72782 0 3 -3.72782 1
gene 3 3 12 6.67024 0 18 6.67024 1
gene 3 12 4 -8 0 19 -8 1
gene 3 1 12 -3.17004 0 32 -3.17004 1
gene 3 12 22 2.1765 0 44 2.1765 1
gene 3 22 4 -5.06965 0 45 -5.06965 1
genomeend 64

/* Organism #65 Fitness: 8.99998 Error: 1 */
genomestart 65
trait 1 0.1 0 0 0 0 0 0 0 
trait 2 0.2 0 0 0.123221 0.270216 0 0.325262 0 
trait 3 0.3 0 0 0 0 0 0 0 
node 1 3 1 3
node 2 1 1 1
node 3 3 1 1
node 4 3 0 2
node 12 1 0 0
node 22 1 0 0
gene 3 1 4 -1.2916 0 1 -1.2916 1
gene 1 2 4 6.45532 0 2 6.45532 1
gene 3 3 4 -3.73784 0 3 -3.73784 1
gene 3 3 12 7.62887 0 18 7.62887 1
gene 3 12 4 -6.5626 0 19 -6.5626 1
gene 3 1 12 -1.44858 0 32 -1.44858 1
gene 3 12 22 2.72282 0 44 2.72282 1
gene 3 22 4 -2.54631 0 45 -2.54631 1
genomeend 65

/* Organism #66 Fitness: 9 Error: 1 */
genomestart 66
trait 1 0.1 0 0 0 0 0 0 0 
trait 2 0.2 0 0 0.246443 0 0 0.39419 0 
trait 3 0.3 0 0 0 0 0 0 0 
node 1 3 1 3
node 2 1 1 1
node 3 3 1 1
node 4 3 0 2
node 12 3 0 0
node 22 1 0 0
gene 3 1 4 -0.251832 0 1 -0.251832 1
gene 1 2 4 8 0 2 8 1
gene 3 3 4 -4.21537 0 3 -4.21537 1
gene 3 3 12 5.12825 0 18 5.12825 1
gene 3 12 4 -6.33147 0 19 -6.33147 0
gene 3 1 12 -0.735401 0 32 -0.735401 1
gene 3 12 22 1.05841 0 44 1.05841 1
gene 3 22 4 -7.36669 0 45 -7.36669 1
genomeend 66

/* Organism #67 Fitness: 4.36291 Error: 1.91124 */
genomestart 67
trait 1 0.1 0 0 0 0 0 0 0 
trait 2 0.2 0 0 0.246443 0 0 0.39419 0 
trait 3 0.3 0 0 0 0 0 0 0 
node 1 3 1 3
node 2 1 1 1
node 3 3 1 1
node 4 3 0 2
node 12 1 0 0
node 22 1 0 0
gene 3 1 4 -0.971629 0 1 -0.971629 1
gene 1 2 4 8 0 2 8 1
gene 3 3 4 -1.22222 0 3 -1.22222 1
gene 3 3 12 6.11152 0 18 6.11152 1
gene 3 12 4 -5.33369 0 19 -5.33369 1
gene 3 1 12 1.23234 0 32 1.23234 1
gene 3 12 22 -2.25072 0 44 -2.25072 1
gene 3 22 4 -5.67038 0 45 -5.67038 1
genomeend 67

/* Organism #68 Fitness: 8.99999 Error: 1 */
genomestart 68
trait 1 0.1 0 0 0 0 0 0 0 
trait 2 0.2 0 0.414665 0.123221 0.638925 0.146881 0.325262 0 
trait 3 0.3 0 0 0 0 0 0 0 
node 1 3 1 3
node 2 1 1 1
node 3 3 1 1
node 4 3 0 2
node 12 1 0 0
node 22 1 0 0
gene 3 1 4 -0.756764 0 1 -0.756764 1
gene 1 2 4 7.73813 0 2 7.73813 1
gene 3 3 4 -4.44204 0 3 -4.44204 1
gene 3 3 12 7.9235 0 18 7.9235 1
gene 3 12 4 -7.81234 0 19 -7.81234 1
gene 3 1 12 -2.70504 0 32 -2.70504 1
gene 3 12 22 0.49294 0 44 0.49294 1
gene 3 22 4 -4.1514 0 45 -4.1514 1
genomeend 68

/* Organism #69 Fitness: 8.99617 Error: 1.00064 */
genomestart 69
trait 1 0.1 0 0 0 0 0 0 0 
trait 2 0.2 0 0.414665 0.123221 0.638925 0.146881 0.325262 0 
trait 3 0.3 0 0 0 0 0 0 0 
node 1 3 1 3
node 2 1 1 1
node 3 3 1 1
node 4 3 0 2
node 12 1 0 0
node 22 1 0 0
gene 3 1 4 1.20922 0 1 1.20922 1
gene 1 2 4 8 0 2 8 1
gene 3 3 4 -3.90961 0 3 -3.90961 1
gene 3 3 12 6.40353 0 18 6.40353 1
gene 3 12 4 -7.10659 0 19 -7.10659 1
gene 3 1 12 -3.07517 0 32 -3.07517 1
gene 3 12 22 0.373497 0 44 0.373497 1
gene 3 22 4 -5.40579 0 45 -5.40579 1
genomeend 69

/* Organism #70 Fitness: 8.23849 Error: 1.12972 */
genomestart 70
trait 1 0.1 0 0 0 0 0 0 0 
trait 2 0.2 0 0 0.123221 0.270216 0 0.325262 0 
trait 3 0.3 0 0 0 0 0 0 0 
node 1 3 1 3
node 2 1 1 1
node 3 3 1 1
node 4 3 0 2
node 12 1 0 0
node 22 1 0 0
gene 3 1 4 -0.643461 0 1 -0.643461 1
gene 1 2 4 8 0 2 8 1
gene 3 3 4 -3.21725 0 3 -3.21725 1
gene 3 3 12 6.56413 0 18 6.56413 1
gene 3 12 4 -6.97808 0 19 -6.97808 0
gene 3 1 12 -2.80507 0 32 -2.80507 1
gene 3 12 22 0.216119 0 44 0.216119 1
gene 3 22 4 -6.0872 0 45 -6.0872 1
genomeend 70

/* Species #11 : (Size 9) (AF 8.47034) (Age 15)  */


/* Organism #71 Fitness: 9 Error: 1 */
genomestart 71
trait 1 0.1 0 0 0 0 0 0 0 
trait 2 0.2 0 0 0 0 0 0 0 
trait 3 0.3 0 0 0 0 0 0 0 
node 1 3 1 3
node 2 1 1 1
node 3 3 1 1
node 4 3 0 2
node 11 1 0 0
gene 3 1 4 -3.94549 0 1 -3.94549 1
gene 1 2 4 6.04936 0 2 6.04936 1
gene 3 3 4 3.68594 0 3 3.68594 1
gene 2 2 11 0.842179 0 16 0.842179 1
gene 2 11 4 4.64484 0 17 4.64484 1
gene 1 3 11 2.87678 0 47 2.87678 1
gene 1 1 11 -0.67616 0 84 -0.67616 1
genomeend 71

/* Organism #72 Fitness: 8.9997 Error: 1.00005 */
genomestart 72
trait 1 0.1 0 0 0 0 0 0 0 
trait 2 0.2 0 0 0 0 0 0 0 
trait 3 0.3 0 0 0 0 0 0 0 
node 1 3 1 3
node 2 1 1 1
node 3 3 1 1
node 4 3 0 2
node 11 1 0 0
gene 3 1 4 -2.01176 0 1 -2.01176 1
gene 1 2 4 5.93655 0 2 5.93655 1
gene 3 3 4 1.19403 0 3 1.19403 1
gene 2 2 11 2.45187 0 16 2.45187 1
gene 2 11 4 5.0246 0 17 5.0246 1
gene 1 3 11 4.08065 0 47 4.08065 1
gene 1 1 11 -2.04311 0 84 -2.04311 1
genomeend 72

/* Organism #73 Fitness: 8.88288 Error: 1.01958 */
genomestart 73
trait 1 0.1 0 0 0 0 0 0 0 
trait 2 0.2 0 0 0 0 0 0 0 
trait 3 0.3 0 0 0 0 0 0 0 
node 1 3 1 3
node 2 1 1 1
node 3 3 1 1
node 4 1 0 2
node 11 1 0 0
gene 3 1 4 -6.11912 0 1 -6.11912 1
gene 1 2 4 6.91702 0 2 6.91702 1
gene 3 3 4 -2.47735 0 3 -2.47735 1
gene 2 2 11 1.1993 0 16 1.1993 1
gene 2 11 4 -1.56099 0 17 -1.56099 1
gene 1 3 11 1.77268 0 47 1.77268 1
gene 1 1 11 -2.45513 0 84 -2.45513 1
genomeend 73

/* Organism #74 Fitness: 8.99171 Error: 1.00138 */
genomestart 74
trait 1 0.1 0 0 0 0 0 0 0 
trait 2 0.2 0 0 0 0 0 0 0 
trait 3 0.3 0 0 0 0 0 0 0 
node 1 3 1 3
node 2 1 1 1
node 3 3 1 1
node 4 3 0 2
node 11 1 0 0
gene 3 1 4 -6.1881 0 1 -6.1881 1
gene 1 2 4 4.96409 0 2 4.96409 1
gene 3 3 4 3.65813 0 3 3.65813 1
gene 2 2 11 2.4244 0 16 2.4244 1
gene 2 11 4 3.86863 0 17 3.86863 1
gene 1 3 11 4.38154 0 47 4.38154 1
gene 1 1 11 1.39777 0 84 1.39777 1
genomeend 74

/* Organism #75 Fitness: 8.99319 Error: 1.00114 */
genomestart 75
trait 1 0.1 0 0 0 0 0 0 0 
trait 2 0.2 0 0 0 0 0 0 0 
trait 3 0.3 0 0 0 0 0 0 0 
node 1 3 1 3
node 2 1 1 1
node 3 3 1 1
node 4 3 0 2
node 11 1 0 0
gene 3 1 4 -1.44576 0 1 -1.44576 1
gene 1 2 4 7.71057 0 2 7.71057 1
gene 3 3 4 6.16904 0 3 6.16904 1
gene 2 2 11 2.28225 0 16 2.28225 1
gene 2 11 4 6.4688 0 17 6.4688 1
gene 1 3 11 3.65465 0 47 3.65465 1
gene 1 1 11 -0.919766 0 84 -0.919766 1
genomeend 75

/* Organism #76 Fitness: 4.49478 Error: 1.87991 */
genomestart 76
trait 1 0.1 0 0 0 0 0 0 0 
trait 2 0.2 0 0 0 0 0 0 0 
trait 3 0.3 0 0 0 0 0 0 0 
node 1 3 1 3
node 2 1 1 1
node 3 3 1 1
node 4 3 0 2
node 11 1 0 0
gene 3 1 4 -3.4849 0 1 -3.4849 1
gene 1 2 4 -0.388245 0 2 -0.388245 1
gene 3 3 4 3.05409 0 3 3.05409 1
gene 2 2 11 -0.0966036 0 16 -0.0966036 1
gene 2 11 4 0.0695574 0 17 0.0695574 1
gene 1 3 11 2.87678 0 47 2.87678 1
gene 1 1 11 1.04249 0 84 1.04249 1
genomeend 76

/* Organism #77 Fitness: 8.87183 Error: 1.02144 */
genomestart 77
trait 1 0.1 0 0 0 0 0 0 0 
trait 2 0.2 0 0 0 0 0 0 0 
trait 3 0.3 0 0 0 0 0 0 0 
node 1 3 1 3
node 2 1 1 1
node 3 3 1 1
node 4 3 0 2
node 11 1 0 0
gene 3 1 4 -1.58148 0 1 -1.58148 1
gene 1 2 4 6.17421 0 2 6.17421 1
gene 3 3 4 2.36148 0 3 2.36148 1
gene 2 2 11 0.935812 0 16 0.935812 1
gene 2 11 4 2.41512 0 17 2.41512 1
gene 1 3 11 -1.08446 0 47 -1.08446 1
gene 1 1 11 -3.16883 0 84 -3.16883 1
genomeend 77

/* Organism #78 Fitness: 9 Error: 1 */
genomestart 78
trait 1 0.1 0 0 0 0 0 0 0 
trait 2 0.2 0 0 0 0 0 0 0 
trait 3 0.3 0 0 0 0 0 0 0 
node 1 3 1 3
node 2 1 1 1
node 3 3 1 1
node 4 3 0 2
node 11 1 0 0
gene 3 1 4 -3.94549 0 1 -3.94549 1
gene 1 2 4 6.04936 0 2 6.04936 1
gene 3 3 4 3.68594 0 3 3.68594 1
gene 2 2 11 0.842179 0 16 0.842179 1
gene 2 11 4 4.64484 0 17 4.64484 1
gene 1 3 11 2.87678 0 47 2.87678 1
gene 1 1 11 -0.67616 0 84 -0.67616 1
genomeend 78

/* Organism #79 Fitness: 8.99897 Error: 1.00017 */
genomestart 79
trait 1 0.1 0 0 0 0 0 0 0 
trait 2 0.2 0 0 0 0 0 0 0 
trait 3 0.3 0 0 0 0 0 0 0 
node 1 3 1 3
node 2 1 1 1
node 3 3 1 1
node 4 3 0 2
node 11 1 0 0
gene 3 1 4 -3.46829 0 1 -3.46829 1
gene 1 2 4 4.71602 0 2 4.71602 1
gene 3 3 4 2.40573 0 3 2.40573 1
gene 2 2 11 3.05198 0 16 3.05198 1
gene 2 11 4 2.82244 0 17 2.82244 1
gene 1 3 11 3.40822 0 47 3.40822 1
gene 1 1 11 -1.00683 0 84 -1.00683 1
genomeend 79

/* Species #12 : (Size 4) (AF 3.70632) (Age 15)  */


/* Organism #80 Fitness: 3.98354 Error: 2.00412 */
genomestart 80
trait 1 0.1 0 0.0541859 0 0 0 0.0333936 0.0949994 
trait 2 0.2 0 0 0 0 0 0 0 
trait 3 0.2625 0 0 0 0 0.00295 0 0.0349556 
node 1 3 1 3
node 2 1 1 1
node 3 3 1 1
node 4 3 0 2
node 23 1 0 0
node 68 1 0 0
gene 2 1 4 3.03531 0 1 3.03531 1
gene 2 2 4 1.46521 0 2 1.46521 0
gene 3 3 4 -4.93132 0 3 -4.93132 1
gene 2 2 23 2.00758 0 48 2.00758 0
gene 2 23 4 1.6309 0 49 1.6309 1
gene 2 2 68 -1.4866 0 204 -1.4866 1
gene 2 68 23 -0.416976 0 205 -0.416976 1
genomeend 80

/* Organism #81 Fitness: 3.9943 Error: 2.00143 */
genomestart 81
trait 1 0.1 0 0.0541859 0 0 0 0.0333936 0.0949994 
trait 2 0.2 0 0 0 0 0 0 0 
trait 3 0.2625 0 0 0 0 0.00295 0 0.0349556 
node 1 3 1 3
node 2 1 1 1
node 3 3 1 1
node 4 3 0 2
node 23 1 0 0
node 68 1 0 0
gene 2 1 4 0.735278 0 1 0.735278 1
gene 2 2 4 2.89744 0 2 2.89744 0
gene 3 3 4 -3.19922 0 3 -3.19922 1
gene 2 2 23 -0.0777824 0 48 -0.0777824 0
gene 2 23 4 0.753637 0 49 0.753637 1
gene 2 2 68 -0.356479 0 204 -0.356479 1
gene 2 68 23 0.666393 0 205 0.666393 1
genomeend 81

/* Organism #82 Fitness: 2.83946 Error: 2.31493 */
genomestart 82
trait 1 0.1 0 0.0541859 0 0 0 0.0333936 0.0949994 
trait 2 0.2 0 0 0 0 0 0 0 
trait 3 0.2625 0 0 0 0 0.00295 0 0.0349556 
node 1 3 1 3
node 2 1 1 1
node 3 3 1 1
node 4 3 0 2
node 23 1 0 0
node 71 1 0 0
gene 2 1 4 0.20882 0 1 0.20882 1
gene 2 2 4 2.29313 0 2 2.29313 0
gene 3 3 4 -1.40669 0 3 -1.40669 0
gene 2 2 23 -0.896679 0 48 -0.896679 1
gene 2 23 4 2.49373 0 49 2.49373 1
gene 3 3 71 1 0 212 0 1
gene 3 71 4 -1.40669 0 213 0 1
genomeend 82

/* Organism #83 Fitness: 4.00798 Error: 1.99801 */
genomestart 83
trait 1 0.1 0 0.0541859 0 0 0 0.0333936 0.0949994 
trait 2 0.2 0 0 0 0 0 0 0 
trait 3 0.2625 0 0 0 0 0.00295 0 0.0349556 
node 1 3 1 3
node 2 1 1 1
node 3 3 1 1
node 4 3 0 2
node 23 1 0 0
node 68 1 0 0
gene 2 1 4 1.6442 0 1 1.6442 1
gene 2 2 4 1.24158 0 2 1.24158 0
gene 3 3 4 -1.60341 0 3 -1.60341 1
gene 2 2 23 3.04167 0 48 3.04167 0
gene 2 23 4 -0.33026 0 49 -0.33026 1
gene 2 2 68 2.55526 0 204 2.55526 1
gene 2 68 23 1.96007 0 205 1.96007 1
genomeend 83

/* Species #14 : (Size 11) (AF 7.63353) (Age 14)  */


/* Organism #84 Fitness: 8.99993 Error: 1.00001 */
genomestart 84
trait 1 0 0 0 0.32203 0 0 0 0 
trait 2 0.2 0 0.0271925 0 0 0 0 0 
trait 3 0.075 0 0 0 0 0 0 0 
node 1 3 1 3
node 2 1 1 1
node 3 3 1 1
node 4 3 0 2
node 12 1 0 0
node 15 1 0 0
node 18 1 0 0
gene 3 1 4 3.5162 0 1 3.5162 1
gene 1 2 4 4.29709 0 2 4.29709 1
gene 1 3 4 2.98284 0 3 2.98284 0
gene 3 3 12 -3.25601 0 18 -3.25601 1
gene 3 12 4 -8 0 19 -8 1
gene 1 2 15 2.99169 0 27 2.99169 1
gene 1 15 4 4.32421 0 28 4.32421 1
gene 3 3 18 -5.48511 0 36 -5.48511 1
gene 3 18 12 4.91857 0 37 4.91857 1
genomeend 84

/* Organism #85 Fitness: 8.99988 Error: 1.00002 */
genomestart 85
trait 1 0 0 0 0.32203 0 0 0 0 
trait 2 0.2 0 0 0 0 0 0 0 
trait 3 0 0 0 0 0 0 0 0 
node 1 3 1 3
node 2 1 1 1
node 3 3 1 1
node 4 3 0 2
node 12 1 0 0
node 15 1 0 0
node 18 1 0 0
gene 3 1 4 3.45398 0 1 3.45398 1
gene 1 2 4 3.58642 0 2 3.58642 1
gene 1 3 4 4.50926 0 3 4.50926 0
gene 3 3 12 -1.92001 0 18 -1.92001 1
gene 3 12 4 -7.41984 0 19 -7.41984 1
gene 1 2 15 2.98002 0 27 2.98002 1
gene 1 15 4 2.49698 0 28 2.49698 1
gene 3 3 18 -2.94126 0 36 -2.94126 1
gene 3 18 12 0.704348 0 37 0.704348 1
gene 2 15 18 0.57342 0 195 0.57342 1
genomeend 85

/* Organism #86 Fitness: 3.99979 Error: 2.00005 */
genomestart 86
trait 1 0 0 0 0.32203 0 0 0 0.880213 
trait 2 0.2 0 0 0 0 0 0 0 
trait 3 0 0 0 0 0 0 0 0 
node 1 3 1 3
node 2 1 1 1
node 3 3 1 1
node 4 3 0 2
node 12 1 0 0
node 15 1 0 0
node 18 1 0 0
gene 3 1 4 1.87603 0 1 1.87603 1
gene 2 2 4 3.27058 0 2 3.27058 1
gene 1 3 4 -2.48257 0 3 -2.48257 0
gene 3 3 12 -3.34369 0 18 -3.34369 1
gene 3 12 4 0.341553 0 19 0.341553 1
gene 1 2 15 -0.769613 0 27 -0.769613 1
gene 1 15 4 0.104841 0 28 0.104841 1
gene 3 3 18 -2.4601 0 36 -2.4601 1
gene 3 18 12 2.28027 0 37 2.28027 1
gene 2 15 18 -1.02561 0 195 -1.02561 1
genomeend 86

/* Organism #87 Fitness: 8.96956 Error: 1.00508 */
genomestart 87
trait 1 0 0 0 0.32203 0 0 0 0 
trait 2 0.2 0 0.0271925 0 0 0 0 0 
trait 3 0.075 0 0 0 0 0 0 0 
node 1 3 1 3
node 2 1 1 1
node 3 3 1 1
node 4 3 0 2
node 12 1 0 0
node 15 1 0 0
node 18 1 0 0
gene 3 1 4 3.4979 0 1 3.4979 1
gene 1 2 4 3.99597 0 2 3.99597 1
gene 1 3 4 4.38748 0 3 4.38748 0
gene 3 3 12 -2.1119 0 18 -2.1119 1
gene 3 12 4 -7.2782 0 19 -7.2782 1
gene 1 2 15 4.0496 0 27 4.0496 1
gene 1 15 4 5.41696 0 28 5.41696 1
gene 3 3 18 -7.63664 0 36 -7.63664 1
gene 3 18 12 6.19187 0 37 6.19187 1
genomeend 87

/* Organism #88 Fitness: 4.00005 Error: 1.99999 */
genomestart 88
trait 1 0 0 0 0.32203 0 0 0 0 
trait 2 0.2 0 0.0135963 0 0 0 0 0 
trait 3 0.0375 0 0 0 0 0 0 0 
node 1 3 1 3
node 2 1 1 1
node 3 3 1 1
node 4 3 0 2
node 12 1 0 0
node 15 1 0 0
node 18 1 0 0
gene 3 1 4 3.06253 0 1 3.06253 1
gene 1 2 4 3.81172 0 2 3.81172 1
gene 1 3 4 3.93 0 3 3.93 0
gene 3 3 12 2.34776 0 18 2.34776 1
gene 3 12 4 -6.43342 0 19 -6.43342 1
gene 1 2 15 4.18621 0 27 4.18621 1
gene 1 15 4 5.86846 0 28 5.86846 1
gene 3 3 18 -3.61407 0 36 -3.61407 1
gene 3 18 12 4.9298 0 37 4.9298 1
genomeend 88

/* Organism #89 Fitness: 9 Error: 1 */
genomestart 89
trait 1 0 0 0 0.32203 0 0 0 0 
trait 2 0.2 0 0.0135963 0 0 0 0 0 
trait 3 0.0375 0 0 0 0 0 0 0 
node 1 3 1 3
node 2 1 1 1
node 3 3 1 1
node 4 3 0 2
node 12 1 0 0
node 15 1 0 0
node 18 1 0 0
gene 3 1 4 2.98964 0 1 2.98964 1
gene 1 2 4 4.99077 0 2 4.99077 1
gene 1 3 4 4.16411 0 3 4.16411 1
gene 3 3 12 -2.22295 0 18 -2.22295 1
gene 3 12 4 -8 0 19 -8 1
gene 1 2 15 2.75576 0 27 2.75576 1
gene 1 15 4 3.17897 0 28 3.17897 1
gene 3 3 18 -4.43131 0 36 -4.43131 1
gene 3 18 12 3.59942 0 37 3.59942 1
genomeend 89

/* Organism #90 Fitness: 8.99987 Error: 1.00002 */
genomestart 90
trait 1 0 0 0 0.32203 0 0 0 0 
trait 2 0.2 0 0 0 0 0 0.137273 0 
trait 3 0 0 0 0 0 0 0 0 
node 1 3 1 3
node 2 1 1 1
node 3 3 1 1
node 4 3 0 2
node 12 1 0 0
node 15 1 0 0
node 18 1 0 0
gene 3 1 4 2.46308 0 1 2.46308 1
gene 1 2 4 5.68446 0 2 5.68446 1
gene 1 3 4 5.34538 0 3 5.34538 0
gene 3 3 12 -1.18989 0 18 -1.18989 1
gene 3 12 4 -8 0 19 -8 1
gene 1 2 15 2.51983 0 27 2.51983 1
gene 1 15 4 2.03373 0 28 2.03373 1
gene 3 3 18 -3.37751 0 36 -3.37751 1
gene 3 18 12 2.28027 0 37 2.28027 1
gene 2 15 18 0.78495 0 195 0.78495 1
genomeend 90

/* Organism #91 Fitness: 9 Error: 1 */
genomestart 91
trait 1 0 0 0 0.32203 0 0 0 0 
trait 2 0.2 0 0.0271925 0 0 0 0 0 
trait 3 0.075 0 0 0 0 0 0 0 
node 1 3 1 3
node 2 1 1 1
node 3 3 1 1
node 4 3 0 2
node 12 1 0 0
node 15 1 0 0
node 18 1 0 0
gene 3 1 4 1.42163 0 1 1.42163 1
gene 1 2 4 3.88386 0 2 3.88386 1
gene 2 3 4 4.62577 0 3 4.62577 0
gene 3 3 12 -5.5571 0 18 -5.5571 1
gene 3 12 4 -7.9253 0 19 -7.9253 1
gene 1 2 15 3.80894 0 27 3.80894 1
gene 1 15 4 6.74349 0 28 6.74349 1
gene 3 3 18 -7.18233 0 36 -7.18233 1
gene 3 18 12 2.97485 0 37 2.97485 1
genomeend 91

/* Organism #92 Fitness: 8.99987 Error: 1.00002 */
genomestart 92
trait 1 0 0 0 0.32203 0 0 0 0 
trait 2 0.2 0 0.0135963 0 0 0 0 0 
trait 3 0.0375 0 0 0 0 0 0 0 
node 1 3 1 3
node 2 1 1 1
node 3 3 1 1
node 4 3 0 2
node 12 1 0 0
node 15 1 0 0
node 18 1 0 0
gene 3 1 4 2.46308 0 1 2.46308 1
gene 1 2 4 5.68446 0 2 5.68446 1
gene 1 3 4 2.98284 0 3 2.98284 0
gene 3 3 12 -1.18989 0 18 -1.18989 1
gene 3 12 4 -8 0 19 -8 1
gene 1 2 15 2.51983 0 27 2.51983 1
gene 1 15 4 2.03373 0 28 2.03373 1
gene 3 3 18 -3.37751 0 36 -3.37751 1
gene 3 18 12 4.91857 0 37 4.91857 1
genomeend 92

/* Organism #93 Fitness: 9 Error: 1 */
genomestart 93
trait 1 0 0 0 0.32203 0 0 0 0 
trait 2 0.2 0 0.0135963 0 0 0 0 0 
trait 3 0.0375 0 0 0 0 0 0 0 
node 1 3 1 3
node 2 1 1 1
node 3 3 1 1
node 4 3 0 2
node 12 1 0 0
node 15 1 0 0
node 18 1 0 0
gene 3 1 4 3.5162 0 1 3.5162 1
gene 1 2 4 5.68446 0 2 5.68446 1
gene 1 3 4 2.98284 0 3 2.98284 0
gene 3 3 12 -1.18989 0 18 -1.18989 1
gene 3 12 4 -8 0 19 -8 1
gene 1 2 15 2.51983 0 27 2.51983 1
gene 1 15 4 2.03373 0 28 2.03373 1
gene 3 3 18 -5.48511 0 36 -5.48511 1
gene 3 18 12 2.28027 0 37 2.28027 1
genomeend 93

/* Organism #94 Fitness: 3.99982 Error: 2.00004 */
genomestart 94
trait 1 0 0 0 0.32203 0 0 0 0 
trait 2 0.2 0 0 0 0 0 0 0 
trait 3 0 0 0 0 0 0 0 0 
node 1 3 1 3
node 2 1 1 1
node 3 3 1 1
node 4 3 0 2
node 12 1 0 0
node 15 1 0 0
node 18 1 0 0
gene 3 1 4 0.649839 0 1 0.649839 1
gene 1 2 4 7.14827 0 2 7.14827 1
gene 1 3 4 5.34538 0 3 5.34538 0
gene 3 3 12 2.11424 0 18 2.11424 1
gene 3 12 4 -5.7992 0 19 -5.7992 1
gene 1 2 15 -1.04203 0 27 -1.04203 1
gene 1 15 4 0.686284 0 28 0.686284 1
gene 3 3 18 -1.12304 0 36 -1.12304 1
gene 3 18 12 2.56837 0 37 2.56837 1
gene 2 15 18 -2.05247 0 195 -2.05247 1
genomeend 94

/* Species #15 : (Size 9) (AF 4.81065) (Age 11)  */


/* Organism #95 Fitness: 8.98597 Error: 1.00234 */
genomestart 95
trait 1 0.05 0.302765 0.49144 0 0 0 0 0 
trait 2 0.2 0 0 0 0 0 0 0 
trait 3 0.3 0 0 0 0 0 0 0 
node 1 3 1 3
node 2 1 1 1
node 3 3 1 1
node 4 3 0 2
node 11 1 0 0
node 33 1 0 0
node 53 1 0 0
gene 3 1 4 -5.72681 0 1 -5.72681 1
gene 1 2 4 0.0277913 0 2 0.0277913 1
gene 3 3 4 0.249847 0 3 0.249847 0
gene 2 2 11 1.2648 0 16 1.2648 1
gene 2 11 4 5.59884 0 17 5.59884 1
gene 1 3 11 -3.4835 0 47 -3.4835 1
gene 3 3 33 -0.457649 0 82 -0.457649 0
gene 3 33 4 1.48654 0 83 1.48654 1
gene 3 3 53 1.13486 0 154 1.13486 1
gene 3 53 33 1.09363 0 155 1.09363 1
genomeend 95

/* Organism #96 Fitness: 3.91919 Error: 2.0203 */
genomestart 96
trait 1 0.05 0.302765 0.49144 0 0 0 0 0 
trait 2 0.2 0 0 0 0 0 0 0 
trait 3 0.3 0 0 0 0 0 0 0 
node 1 3 1 3
node 2 1 1 1
node 3 3 1 1
node 4 3 0 2
node 11 1 0 0
node 33 1 0 0
node 53 1 0 0
gene 3 1 4 -5.72681 0 1 -5.72681 1
gene 1 2 4 -1.28238 0 2 -1.28238 1
gene 3 3 4 0.790936 0 3 0.790936 0
gene 2 2 11 -0.938608 0 16 -0.938608 1
gene 2 11 4 6.90937 0 17 6.90937 1
gene 1 3 11 -3.4835 0 47 -3.4835 1
gene 3 3 33 1.87742 0 82 1.87742 0
gene 3 33 4 1.48654 0 83 1.48654 1
gene 3 3 53 -1.35268 0 154 -1.35268 1
gene 3 53 33 2.77 0 155 2.77 1
genomeend 96

/* Organism #97 Fitness: 4.00009 Error: 1.99998 */
genomestart 97
trait 1 0.075 0.151382 0.24572 0 0 0 0 0 
trait 2 0.2 0 0 0 0 0 0 0 
trait 3 0.3 0 0 0 0 0 0 0 
node 1 3 1 3
node 2 1 1 1
node 3 3 1 1
node 4 3 0 2
node 11 1 0 0
node 33 1 0 0
node 53 1 0 0
gene 3 1 4 2.44021 0 1 2.44021 1
gene 1 2 4 0.986558 0 2 0.986558 1
gene 3 3 4 0.184441 0 3 0.184441 0
gene 2 2 11 -0.292912 0 16 -0.292912 1
gene 2 11 4 -2.19078 0 17 -2.19078 1
gene 1 3 11 -5.36304 0 47 -5.36304 1
gene 3 3 33 0.0746235 0 82 0.0746235 0
gene 3 33 4 3.37145 0 83 3.37145 1
gene 3 3 53 3.51488 0 154 3.51488 1
gene 3 53 33 -0.467872 0 155 -0.467872 1
genomeend 97

/* Organism #98 Fitness: 1.39507 Error: 2.81887 */
genomestart 98
trait 1 0.1 0 0 0 0 0 0 0 
trait 2 0.2 0 0 0 0 0 0 0 
trait 3 0.3 0 0 0.661118 0.375678 0 0 0 
node 1 3 1 3
node 2 1 1 1
node 3 3 1 1
node 4 3 0 2
node 11 1 0 0
node 33 1 0 0
node 53 1 0 0
gene 3 1 4 -2.21526 0 1 -2.21526 1
gene 1 2 4 1.09927 0 2 1.09927 1
gene 3 3 4 1.19761 0 3 1.19761 0
gene 2 2 11 -0.0576873 0 16 -0.0576873 1
gene 2 11 4 5.57244 0 17 5.57244 1
gene 1 3 11 -0.392354 0 47 -0.392354 1
gene 3 3 33 0.0801627 0 82 0.0801627 0
gene 3 33 4 2.14492 0 83 2.14492 1
gene 3 3 53 -1.40228 0 154 -1.40228 1
gene 3 53 33 0.955464 0 155 0.955464 1
genomeend 98

/* Organism #99 Fitness: 8.98801 Error: 1.002 */
genomestart 99
trait 1 0.05 0.302765 0.49144 0 0 0 0 0 
trait 2 0.2 0 0 0 0 0 0 0 
trait 3 0.3 0 0 0 0 0 0 0 
node 1 3 1 3
node 2 1 1 1
node 3 3 1 1
node 4 3 0 2
node 11 1 0 0
node 33 1 0 0
node 53 1 0 0
node 72 1 0 0
gene 3 1 4 -5.72681 0 1 -5.72681 1
gene 1 2 4 0.0277913 0 2 0.0277913 1
gene 3 3 4 0.249847 0 3 0.249847 0
gene 2 2 11 1.2648 0 16 1.2648 1
gene 2 11 4 5.59884 0 17 5.59884 1
gene 1 3 11 -3.4835 0 47 -3.4835 1
gene 3 3 33 -0.457649 0 82 -0.457649 0
gene 3 33 4 1.48654 0 83 1.48654 0
gene 3 3 53 1.13486 0 154 1.13486 1
gene 3 53 33 1.09363 0 155 1.09363 1
gene 3 33 72 1 0 214 0 1
gene 3 72 4 1.48654 0 215 0 1
genomeend 99

/* Organism #100 Fitness: 3.99995 Error: 2.00001 */
genomestart 100
trait 1 0.1 0 0 0 0 0 0 0 
trait 2 0.2 0 0 0 0 0 0 0 
trait 3 0.3 0 0 0 0 0 0 0 
node 1 3 1 3
node 2 1 1 1
node 3 3 1 1
node 4 3 0 2
node 11 1 0 0
node 33 1 0 0
node 53 1 0 0
gene 3 1 4 1.43549 0 1 1.43549 1
gene 1 2 4 2.47902 0 2 2.47902 1
gene 3 3 4 2.55472 0 3 2.55472 0
gene 2 2 11 1.03923 0 16 1.03923 1
gene 2 11 4 4.181 0 17 4.181 1
gene 1 3 11 -3.93537 0 47 -3.93537 1
gene 3 3 33 -0.0873024 0 82 -0.0873024 0
gene 3 33 4 1.18654 0 83 1.18654 1
gene 3 3 53 -0.52687 0 154 -0.52687 1
gene 3 53 33 2.74643 0 155 2.74643 1
genomeend 100

/* Organism #101 Fitness: 4.00004 Error: 1.99999 */
genomestart 101
trait 1 0.075 0.151382 0.24572 0 0 0 0 0 
trait 2 0.2 0 0 0 0 0 0 0 
trait 3 0.3 0 0 0 0 0 0 0 
node 1 3 1 3
node 2 1 1 1
node 3 3 1 1
node 4 3 0 2
node 11 1 0 0
node 33 1 0 0
node 53 1 0 0
gene 3 1 4 -6.11807 0 1 -6.11807 1
gene 1 2 4 -1.36397 0 2 -1.36397 1
gene 3 3 4 1.44387 0 3 1.44387 1
gene 2 2 11 3.13254 0 16 3.13254 1
gene 2 11 4 3.11426 0 17 3.11426 1
gene 1 3 11 -4.53839 0 47 -4.53839 1
gene 3 3 33 0.382032 0 82 0.382032 0
gene 3 33 4 2.28056 0 83 2.28056 1
gene 3 3 53 -0.440579 0 154 -0.440579 1
gene 3 53 33 1.04681 0 155 1.04681 1
genomeend 101

/* Organism #102 Fitness: 4 Error: 2 */
genomestart 102
trait 1 0.1 0 0 0 0 0 0 0 
trait 2 0.2 0 0 0 0 0 0 0 
trait 3 0.3 0 0 0 0 0 0 0 
node 1 3 1 3
node 2 1 1 1
node 3 3 1 1
node 4 3 0 2
node 11 1 0 0
node 33 1 0 0
node 53 1 0 0
gene 3 1 4 -6.41452 0 1 -6.41452 1
gene 1 2 4 -0.41029 0 2 -0.41029 1
gene 3 3 4 -0.882528 0 3 -0.882528 0
gene 2 2 11 -0.526295 0 16 -0.526295 1
gene 2 11 4 1.23146 0 17 1.23146 1
gene 1 3 11 -3.35605 0 47 -3.35605 1
gene 3 3 33 2.23156 0 82 2.23156 0
gene 3 33 4 2.44086 0 83 2.44086 1
gene 3 3 53 0.148124 0 154 0.148124 1
gene 3 53 33 -1.24872 0 155 -1.24872 1
genomeend 102

/* Organism #103 Fitness: 4.00751 Error: 1.99812 */
genomestart 103
trait 1 0.1 0 0 0 0 0 0 0 
trait 2 0.2 0 0 0 0 0 0 0 
trait 3 0.3 0 0 0 0 0 0 0 
node 1 3 1 3
node 2 1 1 1
node 3 3 1 1
node 4 3 0 2
node 11 1 0 0
node 33 1 0 0
node 53 1 0 0
gene 3 1 4 -2.0015 0 1 -2.0015 1
gene 1 2 4 0.121186 0 2 0.121186 1
gene 3 3 4 0.513616 0 3 0.513616 0
gene 2 2 11 1.55572 0 16 1.55572 1
gene 2 11 4 4.35671 0 17 4.35671 1
gene 1 3 11 0.134928 0 47 0.134928 1
gene 3 3 33 1 0 82 1 0
gene 3 33 4 1.18654 0 83 1.18654 1
gene 3 3 53 3.20035 0 154 3.20035 1
gene 3 53 33 1 0 155 1 1
genomeend 103

/* Species #16 : (Size 9) (AF 7.23789) (Age 9)  */


/* Organism #104 Fitness: 9 Error: 1 */
genomestart 104
trait 1 0.1 0 0 0 0 0.247593 0 0 
trait 2 0.2 0 0 0 0 0 0 0 
trait 3 0.303562 0.00508136 0.00746128 0 0.00398059 0.00466839 0 0 
node 1 1 1 3
node 2 2 1 1
node 3 3 1 1
node 4 3 0 2
node 12 1 0 0
node 39 1 0 0
gene 1 1 4 -4.23998 0 1 -4.23998 1
gene 1 2 4 3.78141 0 2 3.78141 1
gene 3 3 4 -8 0 3 -8 1
gene 3 3 12 3.41253 0 18 3.41253 1
gene 3 12 4 -3.41689 0 19 -3.41689 1
gene 1 2 39 1.50467 0 106 1.00467 1
gene 1 39 4 7.51463 0 107 3.51463 1
gene 1 1 39 -0.95596 0 170 -0.95596 1
genomeend 104

/* Organism #105 Fitness: 9 Error: 1 */
genomestart 105
trait 1 0.1 0 0 0 0 0.247593 0 0 
trait 2 0.2 0 0 0 0 0 0 0 
trait 3 0.303562 0.00508136 0.00746128 0 0.00398059 0.00466839 0 0 
node 1 1 1 3
node 2 2 1 1
node 3 3 1 1
node 4 3 0 2
node 12 1 0 0
node 39 1 0 0
gene 1 1 4 -1.38619 0 1 -1.38619 1
gene 1 2 4 5.0237 0 2 5.0237 1
gene 2 3 4 -6.37331 0 3 -6.37331 1
gene 3 3 12 1.12423 0 18 1.12423 1
gene 1 12 4 -4.97546 0 19 -4.97546 1
gene 1 2 39 1.1045 0 106 1.1045 1
gene 1 39 4 3.37635 0 107 3.37635 1
gene 1 1 39 -0.687524 0 170 -0.687524 1
genomeend 105

/* Organism #106 Fitness: 9 Error: 1 */
genomestart 106
trait 1 0.1 0 0 0 0 0.247593 0 0 
trait 2 0.2 0 0 0 0 0 0 0 
trait 3 0.303562 0.00508136 0.00746128 0 0.00398059 0.00466839 0 0 
node 1 1 1 3
node 2 2 1 1
node 3 3 1 1
node 4 3 0 2
node 12 1 0 0
node 39 1 0 0
gene 1 1 4 -1.38619 0 1 -1.38619 1
gene 1 2 4 5.0237 0 2 5.0237 1
gene 3 3 4 -8 0 3 -8 1
gene 3 3 12 1.12423 0 18 1.12423 1
gene 1 12 4 -4.97546 0 19 -4.97546 1
gene 1 2 39 1.50467 0 106 1.00467 1
gene 1 39 4 3.37635 0 107 3.37635 1
gene 1 1 39 -0.95596 0 170 -0.95596 1
genomeend 106

/* Organism #107 Fitness: 9 Error: 1 */
genomestart 107
trait 1 0.1 0 0 0 0 0.247593 0 0 
trait 2 0.2 0 0 0 0 0 0 0 
trait 3 0.303562 0.00508136 0.00746128 0 0.00398059 0.00466839 0 0 
node 1 1 1 3
node 2 2 1 1
node 3 3 1 1
node 4 3 0 2
node 12 1 0 0
node 39 1 0 0
gene 1 1 4 -1.38619 0 1 -1.38619 1
gene 1 2 4 5.0237 0 2 5.0237 1
gene 3 3 4 -6.37331 0 3 -6.37331 1
gene 3 3 12 3.41253 0 18 3.41253 1
gene 1 12 4 -4.97546 0 19 -4.97546 1
gene 1 2 39 1.1045 0 106 1.1045 1
gene 1 39 4 3.37635 0 107 3.37635 1
gene 1 1 39 -0.95596 0 170 -0.95596 1
genomeend 107

/* Organism #108 Fitness: 9 Error: 1 */
genomestart 108
trait 1 0.1 0 0 0 0 0.247593 0 0 
trait 2 0.2 0 0 0 0 0 0 0 
trait 3 0.303562 0.00508136 0.00746128 0 0.00398059 0.00466839 0 0 
node 1 1 1 3
node 2 2 1 1
node 3 3 1 1
node 4 3 0 2
node 12 1 0 0
node 39 1 0 0
gene 1 1 4 -4.43477 0 1 -4.43477 1
gene 1 2 4 6.01078 0 2 6.01078 1
gene 3 3 4 -8 0 3 -8 1
gene 3 3 12 3.04718 0 18 3.04718 1
gene 3 12 4 -4.74576 0 19 -4.74576 1
gene 1 2 39 2.78345 0 106 2.78345 1
gene 1 39 4 7.04162 0 107 7.04162 1
gene 1 1 39 -0.456436 0 170 -0.456436 1
genomeend 108

/* Organism #109 Fitness: 2.98231 Error: 2.27306 */
genomestart 109
trait 1 0.1 0 0 0 0 0.247593 0 0 
trait 2 0.2 0 0 0 0 0 0 0 
trait 3 0.303562 0.00508136 0.00746128 0 0.00398059 0.00466839 0 0 
node 1 1 1 3
node 2 2 1 1
node 3 3 1 1
node 4 3 0 2
node 12 1 0 0
node 39 1 0 0
gene 1 1 4 -0.925779 0 1 -0.925779 1
gene 1 2 4 5.99574 0 2 5.99574 1
gene 3 3 4 -4.41727 0 3 -4.41727 1
gene 3 3 12 2.19381 0 18 2.19381 1
gene 1 12 4 -5.5225 0 19 -5.5225 1
gene 1 2 39 1.61457 0 106 1.61457 1
gene 1 39 4 4.67994 0 107 4.67994 1
gene 1 1 39 0.981986 0 170 0.981986 1
genomeend 109

/* Organism #110 Fitness: 4.01937 Error: 1.99516 */
genomestart 110
trait 1 0.1 0 0 0 0 0.247593 0 0 
trait 2 0.2 0 0 0 0 0 0 0 
trait 3 0.303562 0.00508136 0.00746128 0 0.00398059 0.00466839 0 0 
node 1 1 1 3
node 2 2 1 1
node 3 3 1 1
node 4 3 0 2
node 12 1 0 0
node 39 1 0 0
gene 1 1 4 -2.7694 0 1 -2.7694 1
gene 1 2 4 6.27218 0 2 6.27218 1
gene 3 3 4 -8 0 3 -8 1
gene 3 3 12 1.20799 0 18 1.20799 1
gene 3 12 4 -3.94697 0 19 -3.94697 1
gene 1 2 39 2.23386 0 106 2.23386 1
gene 1 39 4 5.86369 0 107 5.86369 1
gene 1 1 39 1.01545 0 170 1.01545 1
genomeend 110

/* Organism #111 Fitness: 4.13933 Error: 1.96546 */
genomestart 111
trait 1 0.1 0 0 0 0 0.247593 0 0 
trait 2 0.2 0 0 0 0 0 0 0 
trait 3 0.303562 0.00508136 0.00746128 0 0.00398059 0.00466839 0 0 
node 1 1 1 3
node 2 2 1 1
node 3 3 1 1
node 4 3 0 2
node 12 1 0 0
node 39 1 0 0
gene 1 1 4 -4.96896 0 1 -4.96896 1
gene 1 2 4 2.9224 0 2 2.9224 1
gene 3 3 4 -8 0 3 -8 1
gene 3 3 12 2.12643 0 18 2.12643 1
gene 3 12 4 -6.56052 0 19 -6.56052 1
gene 1 2 39 2.11901 0 106 2.11901 1
gene 1 39 4 4.66216 0 107 4.66216 1
gene 1 1 39 -0.903736 0 170 -0.903736 1
genomeend 111

/* Organism #112 Fitness: 9 Error: 1 */
genomestart 112
trait 1 0.1 0 0 0 0 0.247593 0 0 
trait 2 0.2 0 0 0 0 0 0 0 
trait 3 0.303562 0.00508136 0.00746128 0 0.00398059 0.00466839 0 0 
node 1 1 1 3
node 2 2 1 1
node 3 3 1 1
node 4 3 0 2
node 12 1 0 0
node 39 1 0 0
gene 1 1 4 -4.86296 0 1 -4.86296 1
gene 1 2 4 3.09045 0 2 3.09045 1
gene 3 3 4 -8 0 3 -8 1
gene 3 3 12 3.53156 0 18 3.53156 1
gene 3 12 4 -4.93191 0 19 -4.93191 1
gene 1 2 39 3.853 0 106 3.853 1
gene 1 39 4 7.27266 0 107 7.27266 1
gene 1 1 39 -0.494458 0 170 -0.494458 1
genomeend 112

/* Species #17 : (Size 7) (AF 4.49226) (Age 6)  */


/* Organism #113 Fitness: 6.34337 Error: 1.48139 */
genomestart 113
trait 1 0.1 0 0.0541859 0 0 0 0.0333936 0.0949994 
trait 2 0.2 0 0 0 0 0 0 0 
trait 3 0.2625 0 0 0 0 0.00295 0 0.0349556 
node 1 3 1 3
node 2 1 1 1
node 3 3 1 1
node 4 3 0 2
node 23 1 0 0
node 48 1 0 0
gene 2 1 4 0.881385 0 1 0.881385 1
gene 2 2 4 -2.18564 0 2 -2.18564 0
gene 3 3 4 -3.56568 0 3 -3.56568 0
gene 2 2 23 2.92258 0 48 2.92258 1
gene 2 23 4 2.11374 0 49 2.11374 0
gene 2 23 48 3.88614 0 137 3.88614 1
gene 2 48 4 -1.703 0 138 -1.703 1
gene 2 3 23 -1.88836 0 151 -1.88836 1
genomeend 113

/* Organism #114 Fitness: 4 Error: 2 */
genomestart 114
trait 1 0.1 0 0.0541859 0 0 0 0.0333936 0.0949994 
trait 2 0.2 0 0 0 0 0 0 0 
trait 3 0.2625 0 0 0 0 0.00295 0 0.0349556 
node 1 3 1 3
node 2 1 1 1
node 3 3 1 1
node 4 3 0 2
node 23 1 0 0
node 48 1 0 0
gene 2 1 4 2.1899 0 1 2.1899 1
gene 2 2 4 -0.123653 0 2 -0.123653 0
gene 3 3 4 0.229401 0 3 0.229401 0
gene 2 2 23 1.40056 0 48 1.40056 1
gene 2 23 4 -1.13347 0 49 -1.13347 0
gene 1 23 48 1.15386 0 137 1.15386 1
gene 2 48 4 -0.106247 0 138 -0.106247 1
gene 2 3 23 0.282114 0 151 0.282114 1
genomeend 114

/* Organism #115 Fitness: 4.0969 Error: 1.97592 */
genomestart 115
trait 1 0.1 0 0.0541859 0 0 0 0.0333936 0.0949994 
trait 2 0.2 0 0 0 0 0 0 0 
trait 3 0.2625 0 0 0 0 0.00295 0 0.0349556 
node 1 3 1 3
node 2 1 1 1
node 3 3 1 1
node 4 3 0 2
node 23 1 0 0
node 48 1 0 0
gene 2 1 4 0.0273653 0 1 0.0273653 1
gene 2 2 4 -0.962459 0 2 -0.962459 0
gene 3 3 4 2.12653 0 3 2.12653 0
gene 2 2 23 3.43569 0 48 3.43569 1
gene 2 23 4 3.66748 0 49 3.66748 0
gene 2 23 48 0.490386 0 137 0.490386 1
gene 2 48 4 -1.49491 0 138 -1.49491 1
gene 2 3 23 -1.88836 0 151 -1.88836 1
genomeend 115

/* Organism #116 Fitness: 5.40893 Error: 1.67429 */
genomestart 116
trait 1 0.1 0 0.0541859 0 0 0 0.0333936 0.0949994 
trait 2 0.2 0 0 0 0 0 0 0 
trait 3 0.2625 0 0 0 0 0.00295 0 0.0349556 
node 1 3 1 3
node 2 1 1 1
node 3 3 1 1
node 4 3 0 2
node 23 1 0 0
node 48 1 0 0
gene 2 1 4 1.61094 0 1 1.61094 1
gene 2 2 4 -2.63707 0 2 -2.63707 0
gene 3 3 4 -4.15559 0 3 -4.15559 0
gene 2 2 23 2.20832 0 48 2.20832 1
gene 2 23 4 1.05373 0 49 1.05373 0
gene 2 23 48 5.81542 0 137 5.81542 1
gene 2 48 4 -3.36614 0 138 -3.36614 1
gene 2 3 23 -1.17019 0 151 -1.17019 1
genomeend 116

/* Organism #117 Fitness: 3.99838 Error: 2.0004 */
genomestart 117
trait 1 0.1 0 0.0541859 0 0 0 0.0333936 0.0949994 
trait 2 0.2 0 0 0 0 0 0 0 
trait 3 0.2625 0 0 0 0 0.00295 0 0.0349556 
node 1 3 1 3
node 2 1 1 1
node 3 3 1 1
node 4 3 0 2
node 23 1 0 0
node 48 1 0 0
gene 2 1 4 2.66754 0 1 2.66754 1
gene 2 2 4 -1.72731 0 2 -1.72731 0
gene 3 3 4 -1.08807 0 3 -1.08807 0
gene 2 2 23 4.89248 0 48 4.89248 1
gene 2 23 4 0.683871 0 49 0.683871 0
gene 2 23 48 2.20142 0 137 2.20142 1
gene 2 48 4 -3.73775 0 138 -3.73775 1
gene 2 3 23 0.233297 0 151 0.233297 1
genomeend 117

/* Organism #118 Fitness: 4.02504 Error: 1.99375 */
genomestart 118
trait 1 0.1 0 0.0541859 0 0 0 0.0333936 0.0949994 
trait 2 0.2 0 0 0 0 0 0 0 
trait 3 0.2625 0 0 0 0 0.00295 0 0.0349556 
node 1 3 1 3
node 2 1 1 1
node 3 3 1 1
node 4 3 0 2
node 23 1 0 0
node 48 1 0 0
gene 2 1 4 0.85073 0 1 0.85073 1
gene 2 2 4 -3.1308 0 2 -3.1308 0
gene 3 3 4 -5.85782 0 3 -5.85782 0
gene 2 2 23 4.52004 0 48 4.52004 1
gene 2 23 4 2.11374 0 49 2.11374 0
gene 2 23 48 -1.00692 0 137 -1.00692 1
gene 2 48 4 1.83702 0 138 1.83702 1
gene 2 3 23 -0.291364 0 151 -0.291364 1
genomeend 118

/* Organism #119 Fitness: 3.5732 Error: 2.10971 */
genomestart 119
trait 1 0.1 0 0.0541859 0 0 0 0.0333936 0.0949994 
trait 2 0.2 0 0 0 0 0 0 0 
trait 3 0.2625 0 0 0 0 0.00295 0 0.0349556 
node 1 3 1 3
node 2 1 1 1
node 3 3 1 1
node 4 3 0 2
node 23 1 0 0
node 48 1 0 0
gene 2 1 4 0.625627 0 1 0.625627 1
gene 2 2 4 -0.101871 0 2 -0.101871 1
gene 3 3 4 -1.05135 0 3 -1.05135 1
gene 2 2 23 0.126385 0 48 0.126385 1
gene 2 23 4 0.312036 0 49 0.312036 0
gene 2 23 48 2.96329 0 137 2.96329 1
gene 2 48 4 -0.670277 0 138 -0.670277 1
gene 2 3 23 -1.58437 0 151 -1.58437 1
genomeend 119

/* Species #18 : (Size 8) (AF 5.38933) (Age 5)  */


/* Organism #120 Fitness: 8.99746 Error: 1.00042 */
genomestart 120
trait 1 0.1 0 0 0 0 0 0 0 
trait 2 0.2 0 0 0 0 0 0 0 
trait 3 0.3 0 0 0 0 0 0 0 
node 1 3 1 3
node 2 1 1 1
node 3 3 1 1
node 4 3 0 2
node 11 1 0 0
node 33 1 0 0
node 61 1 0 0
gene 3 1 4 -2.12536 0 1 -2.12536 1
gene 1 2 4 -0.722727 0 2 -0.722727 1
gene 3 3 4 -2.46482 0 3 -2.46482 0
gene 2 2 11 -1.16243 0 16 -1.16243 1
gene 2 11 4 5.0837 0 17 5.0837 1
gene 1 3 11 -1.38042 0 47 -1.38042 1
gene 3 3 33 -2.06316 0 82 -2.06316 0
gene 3 33 4 1.18654 0 83 1.18654 1
gene 1 33 11 1.75173 0 169 1.75173 1
gene 3 3 61 1 0 183 1 1
gene 3 61 33 0.968689 0 184 0.968689 1
genomeend 120

/* Organism #121 Fitness: 2.42753 Error: 2.44195 */
genomestart 121
trait 1 0.1 0 0 0 0 0 0 0 
trait 2 0.2 0 0 0 0 0 0 0 
trait 3 0.3 0 0 0 0 0 0 0 
node 1 3 1 3
node 2 1 1 1
node 3 3 1 1
node 4 3 0 2
node 11 1 0 0
node 33 1 0 0
node 61 1 0 0
gene 3 1 4 -4.47018 0 1 -4.47018 1
gene 1 2 4 -2.37143 0 2 -2.37143 1
gene 3 3 4 -2.46482 0 3 -2.46482 0
gene 2 2 11 0.0578758 0 16 0.0578758 1
gene 2 11 4 7.45281 0 17 7.45281 1
gene 1 3 11 -2.66866 0 47 -2.66866 1
gene 3 3 33 -1.3094 0 82 -1.3094 0
gene 3 33 4 -0.574625 0 83 -0.574625 1
gene 1 33 11 1.9618 0 169 1.9618 1
gene 3 3 61 2.39022 0 183 2.39022 1
gene 3 61 33 1.59072 0 184 1.59072 1
genomeend 121

/* Organism #122 Fitness: 4.00105 Error: 1.99974 */
genomestart 122
trait 1 0.1 0 0 0 0 0 0 0 
trait 2 0.2 0 0 0 0 0 0 0 
trait 3 0.3 0 0 0 0 0 0 0 
node 1 3 1 3
node 2 1 1 1
node 3 3 1 1
node 4 3 0 2
node 11 1 0 0
node 33 1 0 0
node 61 1 0 0
gene 3 1 4 -4.64319 0 1 -4.64319 1
gene 1 2 4 1.15903 0 2 1.15903 1
gene 3 3 4 1.30965 0 3 1.30965 0
gene 2 2 11 2.26368 0 16 2.26368 1
gene 2 11 4 5.07463 0 17 5.07463 1
gene 1 3 11 -0.836771 0 47 -0.836771 1
gene 3 3 33 -1.08037 0 82 -1.08037 0
gene 3 33 4 -0.514407 0 83 -0.514407 1
gene 1 33 11 -2.50092 0 169 -2.50092 1
gene 3 3 61 1.08263 0 183 1.08263 1
gene 3 61 33 1 0 184 1 1
genomeend 122

/* Organism #123 Fitness: 4.06592 Error: 1.98359 */
genomestart 123
trait 1 0.1 0 0 0 0 0 0 0 
trait 2 0.2 0 0 0 0 0 0 0 
trait 3 0.3 0 0 0 0 0 0 0 
node 1 3 1 3
node 2 1 1 1
node 3 3 1 1
node 4 3 0 2
node 11 1 0 0
node 33 1 0 0
node 61 1 0 0
gene 3 1 4 -2.12536 0 1 -2.12536 1
gene 1 2 4 -0.722727 0 2 -0.722727 1
gene 3 3 4 0.513616 0 3 0.513616 0
gene 2 2 11 1.15186 0 16 1.15186 1
gene 2 11 4 5.0837 0 17 5.0837 1
gene 1 3 11 -1.96665 0 47 -1.96665 1
gene 3 3 33 -2.06316 0 82 -2.06316 0
gene 3 33 4 1.18654 0 83 0 1
gene 1 33 11 -0.0907707 0 169 -0.0907707 1
gene 3 3 61 1 0 183 0 1
gene 3 61 33 1 0 184 0 1
genomeend 123

/* Organism #124 Fitness: 5.52008 Error: 1.65051 */
genomestart 124
trait 1 0.1 0 0 0 0 0 0 0 
trait 2 0.2 0 0 0 0 0 0 0 
trait 3 0.3 0 0 0 0 0 0 0 
node 1 3 1 3
node 2 1 1 1
node 3 3 1 1
node 4 3 0 2
node 11 1 0 0
node 33 1 0 0
node 61 1 0 0
gene 1 1 4 -3.86654 0 1 -3.86654 1
gene 1 2 4 2.3516 0 2 2.3516 1
gene 3 3 4 -0.434014 0 3 -0.434014 0
gene 2 2 11 -0.720526 0 16 -0.720526 1
gene 2 11 4 1.21821 0 17 1.21821 1
gene 1 3 11 -3.78273 0 47 -3.78273 1
gene 3 3 33 2.71387 0 82 2.71387 0
gene 3 33 4 1.75962 0 83 1.75962 1
gene 1 33 11 -2.47762 0 169 -2.47762 1
gene 3 3 61 -0.251898 0 183 -0.251898 1
gene 3 61 33 1 0 184 1 1
genomeend 124

/* Organism #125 Fitness: 7.19465 Error: 1.31772 */
genomestart 125
trait 1 0.1 0 0 0 0 0 0 0 
trait 2 0.2 0 0 0 0 0 0 0 
trait 3 0.3 0 0 0 0 0 0 0 
node 1 3 1 3
node 2 1 1 1
node 3 3 1 1
node 4 3 0 2
node 11 1 0 0
node 33 1 0 0
node 61 1 0 0
gene 3 1 4 1.46031 0 1 1.46031 1
gene 1 2 4 -1.28414 0 2 -1.28414 1
gene 3 3 4 -0.93221 0 3 -0.93221 1
gene 2 2 11 -1.76232 0 16 -1.76232 1
gene 2 11 4 2.95201 0 17 2.95201 1
gene 1 3 11 -1.56002 0 47 -1.56002 1
gene 3 3 33 -0.105168 0 82 -0.105168 0
gene 3 33 4 -0.542471 0 83 -0.542471 1
gene 1 33 11 3.90339 0 169 3.90339 1
gene 3 3 61 -0.777547 0 183 -0.777547 1
gene 3 61 33 -1.44076 0 184 -1.44076 1
genomeend 125

/* Organism #126 Fitness: 7.33569 Error: 1.29155 */
genomestart 126
trait 1 0.1 0 0 0 0 0 0 0 
trait 2 0.2 0 0 0 0 0 0 0 
trait 3 0.3 0 0 0 0 0 0 0 
node 1 3 1 3
node 2 1 1 1
node 3 3 1 1
node 4 3 0 2
node 11 1 0 0
node 33 1 0 0
node 61 1 0 0
gene 3 1 4 -0.918024 0 1 -0.918024 1
gene 1 2 4 -1.60013 0 2 -1.60013 1
gene 3 3 4 -3.69003 0 3 -3.69003 0
gene 2 2 11 1.00617 0 16 1.00617 1
gene 2 11 4 3.23524 0 17 3.23524 1
gene 1 3 11 -3.27705 0 47 -3.27705 1
gene 3 3 33 -3.38586 0 82 -3.38586 0
gene 3 33 4 1.09939 0 83 1.09939 1
gene 1 33 11 1.71231 0 169 1.71231 1
gene 3 3 61 0.916824 0 183 0.916824 1
gene 3 61 33 2.19097 0 184 2.19097 1
genomeend 126

/* Organism #127 Fitness: 3.5723 Error: 2.10995 */
genomestart 127
trait 1 0.1 0 0 0 0 0 0 0 
trait 2 0.2 0 0 0 0 0 0 0 
trait 3 0.3 0 0 0 0 0 0 0 
node 1 3 1 3
node 2 1 1 1
node 3 3 1 1
node 4 3 0 2
node 11 1 0 0
node 33 1 0 0
node 61 1 0 0
gene 3 1 4 -1.3558 0 1 -1.3558 1
gene 1 2 4 1.37527 0 2 1.37527 1
gene 3 3 4 -2.76995 0 3 -2.76995 0
gene 2 2 11 -1.50698 0 16 -1.50698 1
gene 2 11 4 1.26138 0 17 1.26138 1
gene 1 3 11 2.48366 0 47 2.48366 1
gene 1 3 33 0.96354 0 82 0.96354 0
gene 3 33 4 -0.624784 0 83 -0.624784 1
gene 1 33 11 1.75173 0 169 1.75173 1
gene 3 3 61 2.66501 0 183 2.66501 1
gene 3 61 33 2.03287 0 184 2.03287 1
genomeend 127

/* Species #19 : (Size 6) (AF 5.04809) (Age 4)  */


/* Organism #128 Fitness: 4.80296 Error: 1.80844 */
genomestart 128
trait 1 0.1 0 0 0 0 0 0 0 
trait 2 0.2 0 0 0 0 0 0 0 
trait 3 0.3 0 0 0 0 0 0 0 
node 1 3 1 3
node 2 1 1 1
node 3 3 1 1
node 4 3 0 2
node 12 1 0 0
node 15 1 0 0
node 60 1 0 0
gene 3 1 4 -1.32317 0 1 -1.32317 1
gene 1 2 4 0.455845 0 2 0.455845 1
gene 3 3 4 2.78127 0 3 2.78127 0
gene 3 3 12 5.98838 0 18 5.98838 1
gene 3 12 4 -5.60598 0 19 -5.60598 1
gene 1 2 15 4.71789 0 27 4.71789 1
gene 3 15 4 8 0 28 8 0
gene 3 15 60 0.272435 0 177 0.272435 1
gene 3 60 4 6.67141 0 178 6.67141 1
genomeend 128

/* Organism #129 Fitness: 3.99995 Error: 2.00001 */
genomestart 129
trait 1 0.1 0 0 0 0 0 0 0 
trait 2 0.2 0 0 0 0 0 0 0 
trait 3 0.3 0 0 0 0 0 0 0 
node 1 3 1 3
node 2 1 1 1
node 3 3 1 1
node 4 3 0 2
node 12 1 0 0
node 15 1 0 0
node 60 1 0 0
gene 3 1 4 -0.360085 0 1 -0.360085 1
gene 1 2 4 0.307082 0 2 0.307082 1
gene 3 3 4 3.51733 0 3 3.51733 0
gene 3 3 12 5.99655 0 18 5.99655 1
gene 3 12 4 -5.34255 0 19 -5.34255 1
gene 1 2 15 5.3032 0 27 5.3032 1
gene 3 15 4 6.10028 0 28 6.10028 0
gene 3 15 60 2.06868 0 177 2.06868 1
gene 3 60 4 8 0 178 8 1
genomeend 129

/* Organism #130 Fitness: 5.41254 Error: 1.67351 */
genomestart 130
trait 1 0.1 0 0 0 0 0 0 0 
trait 2 0.2 0 0 0 0 0 0 0 
trait 3 0.3 0 0 0 0 0 0 0 
node 1 3 1 3
node 2 1 1 1
node 3 3 1 1
node 4 3 0 2
node 12 1 0 0
node 15 1 0 0
node 60 1 0 0
gene 3 1 4 -1.32317 0 1 -1.32317 1
gene 1 2 4 -0.344974 0 2 -0.344974 1
gene 3 3 4 2.78127 0 3 2.78127 0
gene 3 3 12 4.6816 0 18 4.6816 1
gene 3 12 4 -5.60598 0 19 -5.60598 1
gene 1 2 15 2.08038 0 27 2.08038 1
gene 3 15 4 8 0 28 8 0
gene 3 15 60 1.87707 0 177 1.87707 1
gene 3 60 4 7.11026 0 178 7.11026 1
genomeend 130

/* Organism #131 Fitness: 8.07311 Error: 1.15868 */
genomestart 131
trait 1 0.1 0 0 0 0 0 0 0 
trait 2 0.2 0 0 0 0 0 0 0 
trait 3 0.3 0 0 0 0 0 0 0 
node 1 3 1 3
node 2 1 1 1
node 3 3 1 1
node 4 3 0 2
node 12 1 0 0
node 15 1 0 0
node 60 1 0 0
gene 3 1 4 -1.93238 0 1 -1.93238 1
gene 1 2 4 0.455845 0 2 0.455845 0
gene 3 3 4 2.78127 0 3 2.78127 0
gene 3 3 12 5.98838 0 18 5.98838 1
gene 3 12 4 -8 0 19 -8 1
gene 1 2 15 4.4113 0 27 4.4113 1
gene 3 15 4 8 0 28 8 0
gene 3 15 60 0.272435 0 177 0.272435 1
gene 3 60 4 8 0 178 0 1
genomeend 131

/* Organism #132 Fitness: 3.99997 Error: 2.00001 */
genomestart 132
trait 1 0.1 0 0 0 0 0 0 0 
trait 2 0.2 0 0 0 0 0 0 0 
trait 3 0.3 0 0 0 0 0 0 0 
node 1 3 1 3
node 2 1 1 1
node 3 3 1 1
node 4 3 0 2
node 12 1 0 0
node 15 1 0 0
node 60 1 0 0
gene 3 1 4 1.00621 0 1 1.00621 1
gene 1 2 4 -1.01751 0 2 -1.01751 1
gene 3 3 4 2.58355 0 3 2.58355 0
gene 3 3 12 3.5598 0 18 3.5598 1
gene 3 12 4 -6.87004 0 19 -6.87004 1
gene 1 2 15 4.1795 0 27 4.1795 1
gene 3 15 4 6.26958 0 28 6.26958 0
gene 3 15 60 -1.86111 0 177 -1.86111 1
gene 3 60 4 6.16204 0 178 6.16204 1
genomeend 132

/* Organism #133 Fitness: 4 Error: 2 */
genomestart 133
trait 1 0.1 0 0 0 0 0 0 0 
trait 2 0.2 0 0 0 0 0 0 0 
trait 3 0.3 0 0 0 0 0 0 0 
node 1 3 1 3
node 2 1 1 1
node 3 3 1 1
node 4 3 0 2
node 12 1 0 0
node 15 1 0 0
node 60 1 0 0
node 71 1 0 0
gene 3 1 4 -1.62777 0 1 -1.62777 1
gene 1 2 4 -0.323469 0 2 -0.323469 0
gene 3 3 4 1.70225 0 3 1.70225 0
gene 3 3 12 5.59802 0 18 5.59802 1
gene 3 12 4 -6.80299 0 19 -6.80299 1
gene 1 2 15 4.56459 0 27 4.56459 1
gene 3 15 4 8 0 28 8 1
gene 3 15 60 0.636218 0 177 0.136218 1
gene 3 60 4 7.3357 0 178 3.3357 1
gene 3 3 71 1 0 212 0 1
gene 3 71 4 1.70225 0 213 0 1
genomeend 133

/* Species #20 : (Size 8) (AF 5.28374) (Age 4)  */


/* Organism #134 Fitness: 8.99996 Error: 1.00001 */
genomestart 134
trait 1 0.1 0 0 0 0 0.247593 0 0 
trait 2 0.2 0 0 0 0 0 0 0 
trait 3 0.303562 0.00508136 0.00746128 0 0.00398059 0.00466839 0 0 
node 1 1 1 3
node 2 2 1 1
node 3 3 1 1
node 4 3 0 2
node 12 1 0 0
node 39 1 0 0
node 58 1 0 0
gene 1 1 4 -3.37073 0 1 -3.37073 1
gene 1 2 4 3.44621 0 2 3.44621 1
gene 3 3 4 -5.6966 0 3 -5.6966 1
gene 3 3 12 5.33552 0 18 5.33552 1
gene 3 12 4 -1.57953 0 19 -1.57953 0
gene 1 2 39 4.85949 0 106 4.85949 1
gene 1 39 4 5.69103 0 107 5.69103 1
gene 3 12 58 5.72062 0 171 5.72062 1
gene 3 58 4 -2.50476 0 172 -2.50476 1
genomeend 134

/* Organism #135 Fitness: 4.01524 Error: 1.99619 */
genomestart 135
trait 1 0.1 0 0 0 0 0.247593 0 0 
trait 2 0.2 0 0 0 0 0 0 0 
trait 3 0.303562 0.00508136 0.00746128 0 0.00398059 0.00466839 0 0 
node 1 3 1 3
node 2 2 1 1
node 3 3 1 1
node 4 3 0 2
node 12 1 0 0
node 39 1 0 0
node 58 1 0 0
gene 1 1 4 -0.0704032 0 1 -0.0704032 1
gene 1 2 4 0.2541 0 2 0.2541 1
gene 3 3 4 2.30165 0 3 2.30165 1
gene 3 3 12 5.49459 0 18 5.49459 1
gene 3 12 4 1.8289 0 19 1.8289 0
gene 1 2 39 0.164929 0 106 0.164929 1
gene 1 39 4 7.99406 0 107 7.99406 1
gene 3 12 58 5.58415 0 171 5.58415 1
gene 3 58 4 -2.79611 0 172 -2.79611 1
genomeend 135

/* Organism #136 Fitness: 4.02507 Error: 1.99374 */
genomestart 136
trait 1 0.1 0 0 0 0 0.247593 0 0 
trait 2 0.2 0 0 0 0 0 0 0 
trait 3 0.303562 0.00508136 0.00746128 0 0.00398059 0.00466839 0 0 
node 1 1 1 3
node 2 2 1 1
node 3 3 1 1
node 4 3 0 2
node 12 1 0 0
node 39 1 0 0
node 58 1 0 0
gene 1 1 4 -0.606993 0 1 -0.606993 1
gene 1 2 4 3.14713 0 2 3.14713 1
gene 3 3 4 -7.2002 0 3 -7.2002 1
gene 3 3 12 4.78012 0 18 4.78012 1
gene 3 12 4 1.68079 0 19 1.68079 0
gene 1 2 39 0.157477 0 106 0.157477 1
gene 1 39 4 -0.672154 0 107 -0.672154 1
gene 3 12 58 0.742562 0 171 0.742562 1
gene 3 58 4 -3.60857 0 172 -3.60857 1
genomeend 136

/* Organism #137 Fitness: 4.30537 Error: 1.92506 */
genomestart 137
trait 1 0.1 0 0 0 0 0.247593 0 0 
trait 2 0.2 0 0 0 0 0 0 0 
trait 3 0.303562 0.00508136 0.00746128 0 0.00398059 0.00466839 0 0 
node 1 1 1 3
node 2 2 1 1
node 3 3 1 1
node 4 3 0 2
node 12 1 0 0
node 39 1 0 0
node 58 1 0 0
gene 1 1 4 -1.12032 0 1 -1.12032 1
gene 1 2 4 2.96252 0 2 2.96252 1
gene 3 3 4 0.553194 0 3 0.553194 1
gene 3 3 12 7.96325 0 18 7.96325 1
gene 3 12 4 -0.101459 0 19 -0.101459 0
gene 1 2 39 1.0997 0 106 1.0997 1
gene 1 39 4 7.36574 0 107 7.36574 1
gene 3 12 58 2.18856 0 171 2.18856 1
gene 3 58 4 -3.60857 0 172 -3.60857 1
genomeend 137

/* Organism #138 Fitness: 4 Error: 2 */
genomestart 138
trait 1 0.1 0 0 0 0 0.247593 0 0 
trait 2 0.2 0 0 0 0 0 0 0 
trait 3 0.303562 0.00508136 0.00746128 0 0.00398059 0.00466839 0 0 
node 1 1 1 3
node 2 2 1 1
node 3 3 1 1
node 4 3 0 2
node 12 1 0 0
node 39 1 0 0
node 58 1 0 0
gene 1 1 4 -4.93222 0 1 -4.93222 1
gene 1 2 4 3.46079 0 2 3.46079 1
gene 3 3 4 -5.08702 0 3 -5.08702 1
gene 3 3 12 1.17511 0 18 1.17511 1
gene 3 12 4 -4.00516 0 19 -4.00516 0
gene 1 2 39 4.65243 0 106 4.65243 1
gene 1 39 4 -0.254549 0 107 -0.254549 1
gene 3 12 58 4.98036 0 171 4.98036 1
gene 3 58 4 -4.91152 0 172 -4.91152 1
genomeend 138

/* Organism #139 Fitness: 3.98932 Error: 2.00267 */
genomestart 139
trait 1 0.1 0 0 0 0 0.247593 0 0 
trait 2 0.2 0 0 0 0 0 0 0 
trait 3 0.303562 0.00508136 0.00746128 0 0.00398059 0.00466839 0 0 
node 1 1 1 3
node 2 2 1 1
node 3 3 1 1
node 4 3 0 2
node 12 1 0 0
node 39 1 0 0
node 58 1 0 0
gene 1 1 4 -3.65275 0 1 -3.65275 1
gene 1 2 4 1.3023 0 2 1.3023 1
gene 3 3 4 -1.1836 0 3 -1.1836 1
gene 3 3 12 -0.600671 0 18 -0.600671 1
gene 3 12 4 -0.57881 0 19 -0.57881 0
gene 1 2 39 0.0731972 0 106 0.0731972 1
gene 1 39 4 8 0 107 8 1
gene 3 12 58 2.08102 0 171 2.08102 1
gene 3 58 4 -3.60857 0 172 -3.60857 1
genomeend 139

/* Organism #140 Fitness: 4 Error: 2 */
genomestart 140
trait 1 0.1 0 0 0 0 0.247593 0 0 
trait 2 0.2 0 0 0 0 0 0 0 
trait 3 0.303562 0.00508136 0.00746128 0 0.00398059 0.00466839 0 0 
node 1 1 1 3
node 2 2 1 1
node 3 3 1 1
node 4 3 0 2
node 12 1 0 0
node 39 1 0 0
node 58 1 0 0
gene 1 1 4 -4.7887 0 1 -4.7887 1
gene 1 2 4 -0.922645 0 2 -0.922645 1
gene 3 3 4 -6.16152 0 3 -6.16152 1
gene 3 3 12 5.18659 0 18 5.18659 1
gene 3 12 4 3.89755 0 19 3.89755 0
gene 1 2 39 0.104081 0 106 0.104081 1
gene 1 39 4 6.87618 0 107 6.87618 1
gene 3 12 58 1.04423 0 171 1.04423 1
gene 3 58 4 -4.97036 0 172 -4.97036 1
genomeend 140

/* Organism #141 Fitness: 8.93498 Error: 1.01086 */
genomestart 141
trait 1 0.1 0 0 0 0 0.247593 0 0 
trait 2 0.2 0 0 0 0 0 0 0 
trait 3 0.303562 0.00508136 0.00746128 0 0.00398059 0.00466839 0 0 
node 1 1 1 3
node 2 2 1 1
node 3 3 1 1
node 4 3 0 2
node 12 2 0 0
node 39 1 0 0
node 58 1 0 0
gene 1 1 4 -3.38937 0 1 -3.38937 1
gene 1 2 4 3.95956 0 2 3.95956 1
gene 3 3 4 -3.42073 0 3 -3.42073 1
gene 3 3 12 6.94785 0 18 6.94785 1
gene 3 12 4 0.811932 0 19 0.811932 0
gene 1 2 39 4.05547 0 106 4.05547 1
gene 1 39 4 3.6685 0 107 3.6685 1
gene 3 12 58 6.97181 0 171 6.97181 1
gene 3 58 4 -1.73435 0 172 -1.73435 1
genomeend 141

/* Species #21 : (Size 7) (AF 6.32131) (Age 3)  */


/* Organism #142 Fitness: 9.91232 Error: 0.851617 */
genomestart 142
trait 1 0.1 0 0 0 0 0 0 0 
trait 2 0.2 0 0 0 0 0 0 0 
trait 3 0.3 0 0 0 0 0 0 0 
node 1 3 1 3
node 2 1 1 1
node 3 3 1 1
node 4 3 0 2
node 11 1 0 0
node 33 1 0 0
node 62 1 0 0
gene 3 1 4 -3.10343 0 1 -3.10343 1
gene 1 2 4 -2.77319 0 2 -2.77319 1
gene 3 3 4 0.245396 0 3 0.245396 0
gene 2 2 11 5.79311 0 16 5.79311 1
gene 2 11 4 5.36847 0 17 5.36847 1
gene 1 3 11 -4.80032 0 47 -4.80032 1
gene 3 3 33 1.8003 0 82 1.8003 1
gene 3 33 4 1.63187 0 83 1.63187 0
gene 1 33 11 -4.82516 0 169 -4.82516 1
gene 3 33 62 1.26069 0 185 1.26069 1
gene 3 62 4 3.315 0 186 3.315 1
genomeend 142

/* Organism #143 Fitness: 12.8841 Error: 0.410561 */
/* ##------$ WINNER 143 SPECIES #21 $------## */
genomestart 143
trait 1 0.1 0 0 0 0 0 0 0 
trait 2 0.2 0 0 0 0 0 0 0 
trait 3 0.3 0 0 0 0 0 0 0 
node 1 3 1 3
node 2 1 1 1
node 3 3 1 1
node 4 3 0 2
node 11 1 0 0
node 33 1 0 0
node 62 1 0 0
gene 3 1 4 -3.10343 0 1 -3.10343 1
gene 1 2 4 -2.77319 0 2 -2.77319 1
gene 3 3 4 0.245396 0 3 0.245396 0
gene 2 2 11 5.79311 0 16 5.79311 1
gene 2 11 4 5.36847 0 17 5.36847 1
gene 1 3 11 -4.80032 0 47 -4.80032 1
gene 3 3 33 1.8003 0 82 1.8003 1
gene 3 33 4 1.63187 0 83 1.63187 0
gene 1 33 11 -4.82516 0 169 -4.82516 1
gene 3 33 62 1.26069 0 185 1.26069 1
gene 3 62 4 3.315 0 186 3.315 1
gene 2 1 62 -0.618844 0 216 -0.618844 1
genomeend 143

/* Organism #144 Fitness: 4.00002 Error: 2 */
genomestart 144
trait 1 0.1 0 0 0 0 0 0 0 
trait 2 0.2 0 0 0 0 0 0 0 
trait 3 0.3 0 0 0 0 0 0 0 
node 1 3 1 3
node 2 1 1 1
node 3 3 1 1
node 4 3 0 2
node 11 1 0 0
node 33 1 0 0
node 62 1 0 0
gene 3 1 4 -3.82731 0 1 -3.82731 1
gene 1 2 4 -2.44473 0 2 -2.44473 1
gene 3 3 4 -1.46966 0 3 -1.46966 0
gene 2 2 11 7.73657 0 16 7.73657 1
gene 2 11 4 2.87433 0 17 2.87433 1
gene 1 3 11 -5.26371 0 47 -5.26371 1
gene 3 3 33 1.36627 0 82 1.36627 1
gene 3 33 4 0.126562 0 83 0.126562 0
gene 1 33 11 -3.0594 0 169 -3.0594 1
gene 3 33 62 3.35491 0 185 3.35491 1
gene 3 62 4 0.879507 0 186 0.879507 1
genomeend 144

/* Organism #145 Fitness: 4.0004 Error: 1.9999 */
genomestart 145
trait 1 0.1 0 0 0 0 0 0 0 
trait 2 0.2 0 0 0 0 0 0 0 
trait 3 0.3 0 0 0 0 0 0 0 
node 1 3 1 3
node 2 1 1 1
node 3 3 1 1
node 4 3 0 2
node 11 1 0 0
node 33 1 0 0
node 62 1 0 0
gene 3 1 4 -3.76996 0 1 -3.76996 1
gene 1 2 4 -3.81216 0 2 -3.81216 1
gene 3 3 4 0.245396 0 3 0.245396 0
gene 2 2 11 3.59762 0 16 3.59762 1
gene 2 11 4 -1.09639 0 17 -1.09639 1
gene 1 3 11 -1.32416 0 47 -1.32416 1
gene 3 3 33 -1.8841 0 82 -1.8841 1
gene 3 33 4 1.62647 0 83 1.62647 0
gene 1 33 11 0.497977 0 169 0.497977 1
gene 3 33 62 -0.913373 0 185 -0.913373 1
gene 3 62 4 3.79897 0 186 3.79897 1
genomeend 145

/* Organism #146 Fitness: 4.0178 Error: 1.99556 */
genomestart 146
trait 1 0.1 0 0 0 0 0 0 0 
trait 2 0.2 0 0 0 0 0 0 0 
trait 3 0.3 0 0 0 0 0 0 0 
node 1 3 1 3
node 2 1 1 1
node 3 3 1 1
node 4 3 0 2
node 11 1 0 0
node 33 1 0 0
node 62 1 0 0
gene 3 1 4 -5.84102 0 1 -5.84102 1
gene 1 2 4 -2.77319 0 2 -2.77319 1
gene 3 3 4 -3.81318 0 3 -3.81318 0
gene 2 2 11 3.95596 0 16 3.95596 1
gene 2 11 4 4.34465 0 17 4.34465 1
gene 1 3 11 -4.30993 0 47 -4.30993 1
gene 3 3 33 1.8003 0 82 1.8003 1
gene 3 33 4 1.63187 0 83 1.63187 0
gene 1 33 11 -4.82516 0 169 -4.82516 1
gene 3 33 62 1.26069 0 185 1.26069 1
gene 3 62 4 3.315 0 186 3.315 1
genomeend 146

/* Organism #147 Fitness: 5.43456 Error: 1.66879 */
genomestart 147
trait 1 0.1 0 0 0 0 0 0 0 
trait 2 0.2 0 0 0 0 0 0 0 
trait 3 0.3 0 0 0 0 0 0 0 
node 1 3 1 3
node 2 1 1 1
node 3 3 1 1
node 4 3 0 2
node 11 1 0 0
node 33 1 0 0
node 62 1 0 0
gene 3 1 4 -3.10343 0 1 -3.10343 1
gene 1 2 4 0.099084 0 2 0.099084 1
gene 3 3 4 0.245396 0 3 0.245396 0
gene 2 2 11 5.79311 0 16 5.79311 1
gene 2 11 4 5.36847 0 17 5.36847 1
gene 1 3 11 -4.80032 0 47 -4.80032 1
gene 3 3 33 1.00933 0 82 1.00933 1
gene 3 33 4 1.63187 0 83 1.63187 0
gene 1 33 11 -4.82516 0 169 -4.82516 1
gene 3 33 62 1.26069 0 185 1.26069 1
gene 3 62 4 3.315 0 186 3.315 1
genomeend 147

/* Organism #148 Fitness: 4.00001 Error: 2 */
genomestart 148
trait 1 0.1 0 0 0 0 0 0 0 
trait 2 0.2 0 0 0 0 0 0 0 
trait 3 0.3 0 0 0 0 0 0 0 
node 1 3 1 3
node 2 1 1 1
node 3 3 1 1
node 4 3 0 2
node 11 1 0 0
node 33 1 0 0
node 62 1 0 0
gene 3 1 4 -0.67459 0 1 -0.67459 1
gene 1 2 4 -0.291513 0 2 -0.291513 1
gene 3 3 4 0.412229 0 3 0.412229 1
gene 2 2 11 6.89075 0 16 6.89075 1
gene 2 11 4 2.95445 0 17 2.95445 1
gene 1 3 11 -2.42566 0 47 -2.42566 1
gene 3 3 33 1.9105 0 82 1.9105 1
gene 3 33 4 -0.797385 0 83 -0.797385 0
gene 1 33 11 -4.82516 0 169 -4.82516 1
gene 3 33 62 0.815524 0 185 0.815524 1
gene 3 62 4 3.78195 0 186 3.78195 1
genomeend 148

/* Species #22 : (Size 1) (AF 4.1709) (Age 1)  */


/* Organism #149 Fitness: 4.1709 Error: 1.95772 */
genomestart 149
trait 1 0.1 0 0.0541859 0 0 0 0.0333936 0.0949994 
trait 2 0.2 0 0 0 0 0 0 0 
trait 3 0.2625 0 0 0 0 0.00295 0 0.0349556 
node 1 3 1 3
node 2 1 1 1
node 3 3 1 1
node 4 3 0 2
node 23 1 0 0
node 68 1 0 0
gene 2 1 4 -0.462884 0 1 -0.462884 1
gene 2 2 4 -2.04169 0 2 -2.04169 0
gene 3 3 4 -5.081 0 3 -5.081 1
gene 2 2 23 0.77463 0 48 0.77463 0
gene 2 23 4 -1.53664 0 49 -1.53664 1
gene 2 2 68 2.07549 0 204 2.07549 1
gene 2 68 23 -0.806172 0 205 -0.806172 1
genomeend 149
