
/* Species #1 : (Size 72) (AF 46.7778) (Age 7)  */


/* Organism #0 Fitness: 97 Error: 0 */
genomestart 0
trait 1 0.1 0 0 0 0 0 0 0 
trait 2 0.175 0.0574315 0 0.262494 0.00621589 0.232832 0.0662822 0.0456104 
trait 3 0.3 0 0 0 0 0 0 0 
node 1 1 1 3
node 2 1 1 1
node 3 3 1 1
node 4 3 1 1
node 5 3 1 1
node 6 1 0 2
node 7 2 0 2
gene 3 1 6 -0.0395359 0 1 -0.0395359 1
gene 2 2 6 1.78236 0 2 1.78236 1
gene 1 3 6 -0.413086 0 3 -0.413086 1
gene 2 4 6 -3.59273 0 4 -3.59273 1
gene 2 5 6 -2.27617 0 5 -2.27617 1
gene 3 1 7 -3.3588 0 6 -3.3588 1
gene 3 2 7 0.0614312 0 7 0.0614312 1
gene 2 3 7 1.32466 0 8 1.32466 1
gene 2 4 7 0.518646 0 9 0.518646 1
gene 2 5 7 4.07928 0 10 4.07928 1
genomeend 0

/* Organism #1 Fitness: 12 Error: 0 */
genomestart 1
trait 1 0.151191 0.00769914 0 0 0 0.0747064 0 0 
trait 2 0 0 0.390336 0.201667 0 0.241943 0 0 
trait 3 0.3 0 0 0 0 0 0 0 
node 1 2 1 3
node 2 1 1 1
node 3 3 1 1
node 4 1 1 1
node 5 3 1 1
node 6 3 0 2
node 7 1 0 2
gene 2 1 6 0.307934 0 1 0.307934 1
gene 2 2 6 -0.220051 0 2 -0.220051 1
gene 1 3 6 -1.326 0 3 -1.326 1
gene 2 4 6 -0.85521 0 4 -0.85521 1
gene 1 5 6 -6.69154 0 5 -6.69154 1
gene 3 1 7 1.22468 0 6 1.22468 1
gene 2 2 7 0.847602 0 7 0.847602 1
gene 3 3 7 0.399483 0 8 0.399483 1
gene 2 4 7 1.77395 0 9 1.77395 1
gene 2 5 7 2.68665 0 10 2.68665 1
genomeend 1

/* Organism #2 Fitness: 10 Error: 0 */
genomestart 2
trait 1 0.505161 0.0269392 0.218844 0 0.217804 0.305127 0.154805 0 
trait 2 0.19375 0.0143579 0 0.216874 0.00621589 0.232832 0.0662822 0.0114026 
trait 3 0.3 0 0 0 0 0 0 0 
node 1 1 1 3
node 2 1 1 1
node 3 3 1 1
node 4 3 1 1
node 5 3 1 1
node 6 2 0 2
node 7 3 0 2
gene 1 1 6 -0.494267 0 1 -0.494267 1
gene 1 2 6 2.84872 0 2 2.84872 1
gene 1 3 6 4.50601 0 3 4.50601 1
gene 3 4 6 3.66559 0 4 3.66559 1
gene 1 5 6 -1.53898 0 5 -1.53898 1
gene 2 1 7 -1.31518 0 6 -1.31518 1
gene 3 2 7 0.676566 0 7 0.676566 1
gene 3 3 7 2.75873 0 8 2.75873 1
gene 2 4 7 0.837765 0 9 0.837765 1
gene 3 5 7 4.2586 0 10 4.2586 1
genomeend 2

/* Organism #3 Fitness: 1363 Error: 0 */
genomestart 3
trait 1 0.125596 0.00384957 0 0 0 0.0373532 0 0 
trait 2 0.1875 0.0287158 0 0.131247 0.00310794 0.116416 0.0331411 0.0228052 
trait 3 0.3 0 0 0 0 0 0 0 
node 1 1 1 3
node 2 1 1 1
node 3 3 1 1
node 4 3 1 1
node 5 3 1 1
node 6 1 0 2
node 7 2 0 2
gene 3 1 6 -0.0395359 0 1 -0.0395359 1
gene 2 2 6 0.11162 0 2 0.11162 1
gene 3 3 6 -0.170735 0 3 -0.170735 1
gene 2 4 6 -0.95492 0 4 -0.95492 1
gene 2 5 6 -2.27617 0 5 -2.27617 1
gene 3 1 7 -3.3588 0 6 -3.3588 1
gene 2 2 7 -1.96694 0 7 -1.96694 1
gene 2 3 7 1.32466 0 8 1.32466 1
gene 2 4 7 0.518646 0 9 0.518646 1
gene 2 5 7 4.07928 0 10 4.07928 1
genomeend 3

/* Organism #4 Fitness: 9 Error: 0 */
genomestart 4
trait 1 0.138394 0.00577435 0 0 0 0.0560298 0 0 
trait 2 0.2 0 0 0.151251 0.00466192 0.174624 0.0497116 0 
trait 3 0.3 0 0 0 0 0 0 0 
node 1 1 1 3
node 2 2 1 1
node 3 1 1 1
node 4 2 1 1
node 5 1 1 1
node 6 2 0 2
node 7 1 0 2
gene 2 1 6 0.870852 0 1 0.870852 1
gene 2 2 6 4.08378 0 2 4.08378 1
gene 1 3 6 1.10507 0 3 1.10507 1
gene 2 4 6 0.519694 0 4 0.519694 1
gene 1 5 6 -5.27827 0 5 -5.27827 1
gene 3 1 7 -0.422307 0 6 -0.422307 1
gene 1 2 7 -0.980957 0 7 -0.980957 1
gene 3 3 7 -4.3404 0 8 -4.3404 1
gene 1 4 7 3.69455 0 9 3.69455 1
gene 2 5 7 -0.907352 0 10 -0.907352 1
genomeend 4

/* Organism #5 Fitness: 30 Error: 0 */
genomestart 5
trait 1 0.138394 0.00577435 0 0 0 0.0560298 0 0 
trait 2 0.2 0.139357 0 0.0504169 0.00155397 0.058208 0.0165705 0 
trait 3 0.3 0 0 0 0 0 0 0 
node 1 2 1 3
node 2 1 1 1
node 3 3 1 1
node 4 1 1 1
node 5 3 1 1
node 6 3 0 2
node 7 1 0 2
gene 3 1 6 1.94226 0 1 1.94226 1
gene 2 2 6 -1.84626 0 2 -1.84626 1
gene 3 3 6 4.40085 0 3 4.40085 1
gene 2 4 6 0.518316 0 4 0.518316 1
gene 1 5 6 -3.98269 0 5 -3.98269 1
gene 2 1 7 1.98461 0 6 1.98461 1
gene 2 2 7 -1.73826 0 7 -1.73826 1
gene 3 3 7 -1.44599 0 8 -1.44599 1
gene 3 4 7 0.833893 0 9 0.833893 1
gene 1 5 7 3.32388 0 10 3.32388 1
genomeend 5

/* Organism #6 Fitness: 106 Error: 0 */
genomestart 6
trait 1 0.1 0 0 0 0 0 0 0 
trait 2 0.1875 0.0287158 0 0.0304134 0 0 0 0.0228052 
trait 3 0.3 0 0 0 0 0 0 0 
node 1 3 1 3
node 2 3 1 1
node 3 1 1 1
node 4 3 1 1
node 5 1 1 1
node 6 1 0 2
node 7 1 0 2
gene 1 1 6 4.01088 0 1 4.01088 1
gene 3 2 6 -2.33728 0 2 -2.33728 1
gene 3 3 6 -1.57829 0 3 -1.57829 1
gene 3 4 6 -0.733475 0 4 -0.733475 1
gene 2 5 6 -6.35921 0 5 -6.35921 1
gene 1 1 7 0.731994 0 6 0.731994 1
gene 3 2 7 -1.8036 0 7 -1.8036 1
gene 1 3 7 -2.82786 0 8 -2.82786 1
gene 2 4 7 -0.77601 0 9 -0.77601 1
gene 3 5 7 1.2111 0 10 1.2111 1
gene 3 7 6 -2.35882 0 15 -2.35882 1
genomeend 6

/* Organism #7 Fitness: 14 Error: 0 */
genomestart 7
trait 1 0.112798 0.00192478 0 0 0 0.0186766 0 0 
trait 2 0.1875 0.168073 0 0.0808303 0.00155397 0.058208 0.0165705 0.0228052 
trait 3 0.3 0 0 0 0 0 0 0 
node 1 2 1 3
node 2 1 1 1
node 3 3 1 1
node 4 1 1 1
node 5 3 1 1
node 6 3 0 2
node 7 1 0 2
gene 3 1 6 1.49106 0 1 1.49106 1
gene 2 2 6 -1.43643 0 2 -1.43643 1
gene 1 3 6 5.74485 0 3 5.74485 1
gene 1 4 6 -2.0084 0 4 -2.0084 1
gene 2 5 6 0.733855 0 5 0.733855 0
gene 2 1 7 1.26599 0 6 1.26599 1
gene 2 2 7 -0.129758 0 7 -0.129758 1
gene 1 3 7 -0.853218 0 8 -0.853218 1
gene 1 4 7 2.10959 0 9 2.10959 1
gene 2 5 7 2.01182 0 10 2.01182 1
genomeend 7

/* Organism #8 Fitness: 10 Error: 0 */
genomestart 8
trait 1 0.530757 0.00384957 0.218844 0 0.207707 0.34248 0.154805 0 
trait 2 0.2 0 0 0.252084 0.00776986 0.29104 0.0828527 0 
trait 3 0.3 0 0 0 0 0 0 0 
node 1 1 1 3
node 2 1 1 1
node 3 3 1 1
node 4 3 1 1
node 5 3 1 1
node 6 2 0 2
node 7 3 0 2
gene 2 1 6 -2.38521 0 1 -2.38521 1
gene 2 2 6 6.29806 0 2 6.29806 1
gene 1 3 6 -0.97861 0 3 -0.97861 1
gene 2 4 6 3.46839 0 4 3.46839 1
gene 1 5 6 -1.3794 0 5 -1.3794 1
gene 3 1 7 -4.58609 0 6 -4.58609 1
gene 2 2 7 0.0723134 0 7 0.0723134 1
gene 3 3 7 -1.24312 0 8 -1.24312 1
gene 2 4 7 0.82409 0 9 0.82409 1
gene 3 5 7 0.135673 0 10 0.135673 1
genomeend 8

/* Organism #9 Fitness: 14 Error: 0 */
genomestart 9
trait 1 0.1 0 0 0 0 0 0 0 
trait 2 0.175 0.0574315 0 0.0608268 0 0 0 0.0456104 
trait 3 0.3 0 0 0 0 0 0 0 
node 1 2 1 3
node 2 2 1 1
node 3 3 1 1
node 4 2 1 1
node 5 1 1 1
node 6 3 0 2
node 7 2 0 2
node 13 1 0 0
gene 3 1 6 1.892 0 1 1.892 1
gene 2 2 6 -0.125656 0 2 -0.125656 1
gene 1 3 6 -1.00147 0 3 -1.00147 1
gene 1 4 6 -2.5046 0 4 -2.5046 1
gene 2 5 6 -1.67545 0 5 -1.67545 0
gene 2 1 7 -0.830858 0 6 -0.830858 1
gene 3 2 7 -1.81441 0 7 -1.81441 1
gene 1 3 7 -0.798154 0 8 -0.798154 1
gene 1 4 7 0.502829 0 9 0.502829 1
gene 2 5 7 0.917919 0 10 0.917919 1
gene 2 5 13 -4.95701 0 29 -4.95701 1
gene 2 13 6 0.0184206 0 30 0.0184206 1
genomeend 9

/* Organism #10 Fitness: 41 Error: 0 */
genomestart 10
trait 1 0.910323 0 0.437688 0 0.415413 0.610253 0.30961 0 
trait 2 0.2 0 0 0.302501 0.00932383 0.349248 0.0994233 0 
trait 3 0.3 0 0 0 0 0 0 0 
node 1 1 1 3
node 2 1 1 1
node 3 3 1 1
node 4 3 1 1
node 5 3 1 1
node 6 2 0 2
node 7 3 0 2
gene 2 1 6 -1.14664 0 1 -1.14664 1
gene 2 2 6 -0.164453 0 2 -0.164453 0
gene 1 3 6 4.05996 0 3 4.05996 1
gene 2 4 6 1.05469 0 4 1.05469 1
gene 1 5 6 -2.32127 0 5 -2.32127 1
gene 3 1 7 -3.00035 0 6 -3.00035 1
gene 1 2 7 4.46126 0 7 4.46126 1
gene 3 3 7 -1.40319 0 8 -1.40319 1
gene 2 4 7 0.620289 0 9 0.620289 1
gene 3 5 7 2.43542 0 10 2.43542 1
gene 3 7 6 -0.147579 0 46 -0.147579 1
genomeend 10

/* Organism #11 Fitness: 14 Error: 0 */
genomestart 11
trait 1 0.112798 0.028864 0 0 0.0100975 0.0186766 0 0 
trait 2 0.1875 0.0287158 0 0.131247 0.00310794 0.116416 0.0331411 0.0228052 
trait 3 0.3 0 0 0 0 0 0 0 
node 1 1 1 3
node 2 2 1 1
node 3 1 1 1
node 4 2 1 1
node 5 1 1 1
node 6 3 0 2
node 7 1 0 2
gene 2 1 6 0.449973 0 1 0.449973 1
gene 1 2 6 0.355408 0 2 0.355408 0
gene 1 3 6 1.63046 0 3 1.63046 1
gene 3 4 6 -0.484517 0 4 -0.484517 1
gene 2 5 6 -1.15826 0 5 -1.15826 1
gene 2 1 7 1.43987 0 6 1.43987 1
gene 3 2 7 4.04933 0 7 4.04933 1
gene 2 3 7 -1.70516 0 8 -1.70516 1
gene 3 4 7 0.440731 0 9 0.440731 1
gene 2 5 7 2.38207 0 10 2.38207 1
genomeend 11

/* Organism #12 Fitness: 42 Error: 0 */
genomestart 12
trait 1 0.125596 0.00384957 0 0 0 0.0373532 0 0 
trait 2 0.19375 0.0143579 0 0.0152067 0 0 0 0.0114026 
trait 3 0.3 0 0 0 0 0 0 0 
node 1 3 1 3
node 2 3 1 1
node 3 1 1 1
node 4 3 1 1
node 5 1 1 1
node 6 1 0 2
node 7 1 0 2
gene 3 1 6 3.22638 0 1 3.22638 1
gene 3 2 6 0.576576 0 2 0.576576 1
gene 3 3 6 1.65966 0 3 1.65966 1
gene 2 4 6 0.526831 0 4 0.526831 1
gene 2 5 6 -4.5466 0 5 -4.5466 1
gene 1 1 7 3.39574 0 6 3.39574 1
gene 2 2 7 0.325795 0 7 0.325795 1
gene 1 3 7 -1.04045 0 8 -1.04045 1
gene 2 4 7 1.97151 0 9 1.97151 1
gene 1 5 7 -1.66422 0 10 -1.66422 1
genomeend 12

/* Organism #13 Fitness: 9 Error: 0 */
genomestart 13
trait 1 0.125596 0.0307888 0 0 0.0100975 0.0373532 0 0 
trait 2 0.09375 0.0143579 0.195168 0.11604 0 0.120971 0 0.0114026 
trait 3 0.3 0 0 0 0 0 0 0 
node 1 2 1 3
node 2 1 1 1
node 3 3 1 1
node 4 3 1 1
node 5 3 1 1
node 6 1 0 2
node 7 2 0 2
gene 1 1 6 1.4993 0 1 1.4993 1
gene 1 2 6 4.25928 0 2 4.25928 1
gene 3 3 6 -0.697058 0 3 -0.697058 1
gene 3 4 6 -0.266434 0 4 -0.266434 1
gene 3 5 6 0.046215 0 5 0.046215 1
gene 1 1 7 -0.336354 0 6 -0.336354 1
gene 1 2 7 -0.263395 0 7 -0.263395 1
gene 2 3 7 -2.18041 0 8 -2.18041 1
gene 1 4 7 0.568024 0 9 0.568024 1
gene 2 5 7 2.61417 0 10 2.61417 1
genomeend 13

/* Organism #14 Fitness: 20 Error: 0 */
genomestart 14
trait 1 0.505161 0 0.218844 0 0.207707 0.305127 0.154805 0 
trait 2 0.19375 0.0143579 0 0.368125 0.0108778 0.407456 0.115994 0.0114026 
trait 3 0.3 0 0 0 0 0 0 0 
node 1 1 1 3
node 2 1 1 1
node 3 3 1 1
node 4 3 1 1
node 5 3 1 1
node 6 2 0 2
node 7 3 0 2
gene 2 1 6 -0.853259 0 1 -0.853259 1
gene 2 2 6 -2.36098 0 2 -2.36098 1
gene 1 3 6 0.859719 0 3 0.859719 1
gene 2 4 6 -1.39691 0 4 -1.39691 1
gene 2 5 6 0.0363216 0 5 0.0363216 1
gene 3 1 7 -3.22064 0 6 -3.22064 1
gene 1 2 7 1.53946 0 7 1.53946 1
gene 3 3 7 0.657864 0 8 0.657864 1
gene 2 4 7 1.4002 0 9 1.4002 1
gene 3 5 7 4.01406 0 10 4.01406 1
genomeend 14

/* Organism #15 Fitness: 74 Error: 0 */
genomestart 15
trait 1 0.112798 0.028864 0 0 0.0100975 0.0186766 0 0 
trait 2 0.1875 0.0287158 0 0.0808303 0.00155397 0.058208 0.0165705 0.0228052 
trait 3 0.3 0 0 0 0 0 0 0 
node 1 2 1 3
node 2 2 1 1
node 3 3 1 1
node 4 3 1 1
node 5 1 1 1
node 6 3 0 2
node 7 2 0 2
gene 2 1 6 1.28057 0 1 1.28057 1
gene 1 2 6 2.89953 0 2 2.89953 0
gene 3 3 6 -2.76313 0 3 -2.76313 1
gene 2 4 6 -1.16474 0 4 -1.16474 1
gene 3 5 6 -5.57147 0 5 -5.57147 1
gene 2 1 7 -3.64515 0 6 -3.64515 1
gene 1 2 7 0.955401 0 7 0.955401 1
gene 2 3 7 -1.76073 0 8 -1.76073 1
gene 3 4 7 1.34331 0 9 1.34331 1
gene 2 5 7 -2.52531 0 10 -2.52531 1
genomeend 15

/* Organism #16 Fitness: 18 Error: 0 */
genomestart 16
trait 1 0.505161 0 0.218844 0 0.207707 0.305127 0.154805 0 
trait 2 0.1875 0.0287158 0 0.282498 0.00776986 0.29104 0.0828527 0.0228052 
trait 3 0.3 0 0 0 0 0 0 0 
node 1 1 1 3
node 2 1 1 1
node 3 3 1 1
node 4 3 1 1
node 5 3 1 1
node 6 2 0 2
node 7 3 0 2
gene 3 1 6 -0.593088 0 1 -0.593088 1
gene 2 2 6 0.808952 0 2 0.808952 0
gene 1 3 6 1.82344 0 3 1.82344 1
gene 2 4 6 -1.26902 0 4 -1.26902 1
gene 2 5 6 -2.29872 0 5 -2.29872 1
gene 3 1 7 -3.17958 0 6 -3.17958 1
gene 3 2 7 2.26135 0 7 2.26135 1
gene 2 3 7 -0.0392668 0 8 -0.0392668 1
gene 2 4 7 0.569467 0 9 0.569467 1
gene 3 5 7 3.25735 0 10 3.25735 1
genomeend 16

/* Organism #17 Fitness: 3 Error: 0 */
genomestart 17
trait 1 0.125596 0.00384957 0 0 0 0.0373532 0 0 
trait 2 0.1875 0.0287158 0 0.131247 0.00310794 0.116416 0.0331411 0.0228052 
trait 3 0.3 0 0 0 0 0 0 0 
node 1 2 1 3
node 2 2 1 1
node 3 3 1 1
node 4 3 1 1
node 5 1 1 1
node 6 3 0 2
node 7 2 0 2
gene 2 1 6 -2.07993 0 1 -2.07993 1
gene 2 2 6 0.236576 0 2 0.236576 0
gene 1 3 6 -0.955913 0 3 -0.955913 1
gene 2 4 6 -0.993712 0 4 -0.993712 1
gene 2 5 6 1.44711 0 5 1.44711 1
gene 2 1 7 -0.198007 0 6 -0.198007 1
gene 3 2 7 2.60363 0 7 2.60363 1
gene 2 3 7 -1.84719 0 8 -1.84719 1
gene 3 4 7 -0.925088 0 9 -0.925088 1
gene 2 5 7 -0.316412 0 10 -0.316412 1
genomeend 17

/* Organism #18 Fitness: 7 Error: 0 */
genomestart 18
trait 1 0.151191 0.00769914 0 0 0 0.0747064 0 0 
trait 2 0.2 0 0 0 0 0 0 0 
trait 3 0.3 0 0 0 0 0 0 0 
node 1 3 1 3
node 2 2 1 1
node 3 1 1 1
node 4 2 1 1
node 5 1 1 1
node 6 3 0 2
node 7 2 0 2
gene 3 1 6 0.588848 0 1 0.588848 1
gene 2 2 6 1.32495 0 2 1.32495 1
gene 3 3 6 2.09674 0 3 2.09674 1
gene 2 4 6 -0.75496 0 4 -0.75496 1
gene 1 5 6 2.09805 0 5 2.09805 1
gene 3 1 7 0.21781 0 6 0.21781 1
gene 2 2 7 -3.83047 0 7 -3.83047 1
gene 3 3 7 -2.04363 0 8 -2.04363 1
gene 1 4 7 -0.340743 0 9 -0.340743 1
gene 1 5 7 1.23945 0 10 1.23945 1
genomeend 18

/* Organism #19 Fitness: 8 Error: 0 */
genomestart 19
trait 1 0.125596 0.00384957 0 0 0 0.0373532 0 0 
trait 2 0.19375 0.0143579 0 0.11604 0.00310794 0.116416 0.0331411 0.0114026 
trait 3 0.3 0 0 0 0 0 0 0 
node 1 2 1 3
node 2 2 1 1
node 3 3 1 1
node 4 3 1 1
node 5 1 1 1
node 6 3 0 2
node 7 2 0 2
gene 2 1 6 -2.34711 0 1 -2.34711 1
gene 2 2 6 1.15552 0 2 1.15552 0
gene 1 3 6 -2.48372 0 3 -2.48372 1
gene 2 4 6 0.621075 0 4 0.621075 1
gene 1 5 6 -3.17998 0 5 -3.17998 1
gene 2 1 7 -1.14426 0 6 -1.14426 1
gene 3 2 7 0.742429 0 7 0.742429 1
gene 3 3 7 -0.517314 0 8 -0.517314 1
gene 3 4 7 2.2302 0 9 2.2302 1
gene 2 5 7 2.56801 0 10 2.56801 1
genomeend 19

/* Organism #20 Fitness: 3 Error: 0 */
genomestart 20
trait 1 0.138394 0.00577435 0 0 0 0.0560298 0 0 
trait 2 0.19375 0.0143579 0 0.166457 0.00466192 0.174624 0.0497116 0.0114026 
trait 3 0.3 0 0 0 0 0 0 0 
node 1 2 1 3
node 2 1 1 1
node 3 3 1 1
node 4 1 1 1
node 5 3 1 1
node 6 3 0 2
node 7 1 0 2
gene 2 1 6 0.354473 0 1 0.354473 1
gene 2 2 6 2.58359 0 2 2.58359 0
gene 1 3 6 -1.0472 0 3 -1.0472 1
gene 2 4 6 -2.14538 0 4 -2.14538 1
gene 1 5 6 -6.23687 0 5 -6.23687 1
gene 3 1 7 -0.382192 0 6 -0.382192 1
gene 3 2 7 1.80183 0 7 1.80183 1
gene 2 3 7 -0.57425 0 8 -0.57425 1
gene 2 4 7 -1.41327 0 9 -1.41327 1
gene 2 5 7 0.706363 0 10 0.706363 1
genomeend 20

/* Organism #21 Fitness: 13 Error: 0 */
genomestart 21
trait 1 0.1 0 0 0 0 0 0 0 
trait 2 0.175 0.0574315 0 0.0608268 0 0 0 0.0456104 
trait 3 0.3 0 0 0 0 0 0 0 
node 1 2 1 3
node 2 2 1 1
node 3 3 1 1
node 4 3 1 1
node 5 1 1 1
node 6 3 0 2
node 7 2 0 2
node 13 1 0 0
gene 3 1 6 0.937207 0 1 0.937207 1
gene 2 2 6 -1.93061 0 2 -1.93061 1
gene 1 3 6 0.508364 0 3 0.508364 1
gene 1 4 6 -2.30733 0 4 -2.30733 1
gene 2 5 6 -1.2243 0 5 -1.2243 0
gene 2 1 7 -1.4204 0 6 -1.4204 1
gene 3 2 7 -1.31807 0 7 -1.31807 1
gene 1 3 7 -1.93662 0 8 -1.93662 1
gene 1 4 7 1.40173 0 9 1.40173 1
gene 2 5 7 -0.571831 0 10 -0.571831 1
gene 2 5 13 -0.572541 0 29 -0.572541 1
gene 2 13 6 1.50699 0 30 1.50699 1
genomeend 21

/* Organism #22 Fitness: 11 Error: 0 */
genomestart 22
trait 1 0.1 0.0269392 0 0 0.0100975 0 0 0 
trait 2 0.1875 0.0287158 0 0.232081 0.00621589 0.232832 0.0662822 0.0228052 
trait 3 0.3 0 0 0 0 0 0 0 
node 1 2 1 3
node 2 3 1 1
node 3 1 1 1
node 4 1 1 1
node 5 2 1 1
node 6 1 0 2
node 7 1 0 2
node 19 1 0 0
gene 1 1 6 -0.696135 0 1 -0.696135 1
gene 1 2 6 2.7692 0 2 2.7692 1
gene 3 3 6 -0.796082 0 3 -0.796082 1
gene 3 4 6 0.271391 0 4 0.271391 1
gene 2 5 6 -1.50236 0 5 -1.50236 1
gene 3 1 7 -3.3588 0 6 -3.3588 1
gene 3 2 7 0.0614312 0 7 0.0614312 1
gene 3 3 7 -0.935039 0 8 -0.935039 0
gene 1 4 7 4.7393 0 9 4.7393 1
gene 2 5 7 -0.331989 0 10 -0.331989 1
gene 3 3 19 1 0 47 0 1
gene 3 19 7 -0.935039 0 48 0 1
genomeend 22

/* Organism #23 Fitness: 30 Error: 0 */
genomestart 23
trait 1 0.112798 0.00192478 0 0 0 0.0186766 0 0 
trait 2 0.18125 0.0430736 0 0.096037 0.00155397 0.058208 0.0165705 0.0342078 
trait 3 0.3 0 0 0 0 0 0 0 
node 1 2 1 3
node 2 2 1 1
node 3 3 1 1
node 4 3 1 1
node 5 1 1 1
node 6 3 0 2
node 7 2 0 2
gene 2 1 6 0.226783 0 1 0.226783 1
gene 2 2 6 2.56649 0 2 2.56649 0
gene 1 3 6 0.401784 0 3 0.401784 1
gene 1 4 6 -2.0084 0 4 -2.0084 1
gene 2 5 6 -1.04466 0 5 -1.04466 0
gene 2 1 7 -0.81175 0 6 -0.81175 1
gene 3 2 7 -0.535883 0 7 -0.535883 1
gene 1 3 7 -0.853218 0 8 -0.853218 1
gene 1 4 7 2.10959 0 9 2.10959 1
gene 2 5 7 2.01182 0 10 2.01182 1
genomeend 23

/* Organism #24 Fitness: 10 Error: 0 */
genomestart 24
trait 1 0.125596 0.00384957 0 0 0 0.0373532 0 0 
trait 2 0.2 0 0 0.100834 0.00310794 0.116416 0.0331411 0 
trait 3 0.3 0 0 0 0 0 0 0 
node 1 1 1 3
node 2 2 1 1
node 3 1 1 1
node 4 2 1 1
node 5 1 1 1
node 6 2 0 2
node 7 1 0 2
gene 2 1 6 0.0310606 0 1 0.0310606 1
gene 2 2 6 2.74182 0 2 2.74182 1
gene 1 3 6 -0.47469 0 3 -0.47469 1
gene 3 4 6 -4.93106 0 4 -4.93106 1
gene 1 5 6 -1.38788 0 5 -1.38788 1
gene 2 1 7 -4.32005 0 6 -4.32005 1
gene 1 2 7 -1.13055 0 7 -1.13055 1
gene 3 3 7 -0.878534 0 8 -0.878534 1
gene 1 4 7 3.53227 0 9 3.53227 1
gene 2 5 7 -2.90248 0 10 -2.90248 1
genomeend 24

/* Organism #25 Fitness: 19 Error: 0 */
genomestart 25
trait 1 0.517959 0.00192478 0.218844 0 0.207707 0.323803 0.154805 0 
trait 2 0.19375 0.0143579 0 0.166457 0.00466192 0.174624 0.0497116 0.0114026 
trait 3 0.3 0 0 0 0 0.125342 0 0 
node 1 2 1 3
node 2 1 1 1
node 3 3 1 1
node 4 1 1 1
node 5 1 1 1
node 6 3 0 2
node 7 1 0 2
gene 2 1 6 -2.34642 0 1 -2.34642 1
gene 2 2 6 0.267412 0 2 0.267412 0
gene 1 3 6 -1.80679 0 3 -1.80679 1
gene 3 4 6 1.85435 0 4 1.85435 1
gene 1 5 6 -3.88472 0 5 -3.88472 1
gene 3 1 7 -2.16787 0 6 -2.16787 1
gene 2 2 7 2.56862 0 7 2.56862 1
gene 3 3 7 -0.657229 0 8 -0.657229 1
gene 2 4 7 1.88631 0 9 1.88631 1
gene 2 5 7 0.138251 0 10 0.138251 1
genomeend 25

/* Organism #26 Fitness: 2 Error: 0 */
genomestart 26
trait 1 0.118948 0.0307888 0.108801 0.878849 0 0.0373532 0 0 
trait 2 0.09375 0.0143579 0.195168 0.166457 0.00155397 0.179179 0.0165705 0.0114026 
trait 3 0.3 0 0 0 0 0 0 0 
node 1 2 1 3
node 2 2 1 1
node 3 3 1 1
node 4 3 1 1
node 5 1 1 1
node 6 3 0 2
node 7 2 0 2
gene 1 1 6 3.26119 0 1 3.26119 1
gene 2 2 6 0.7997 0 2 0.7997 1
gene 1 3 6 0.81862 0 3 0.81862 1
gene 3 4 6 0.300793 0 4 0.300793 1
gene 2 5 6 -4.14254 0 5 -4.14254 1
gene 3 1 7 -0.804277 0 6 -0.804277 1
gene 2 2 7 1.67681 0 7 1.67681 1
gene 3 3 7 -2.3164 0 8 -2.3164 1
gene 2 4 7 3.73429 0 9 3.73429 1
gene 2 5 7 -2.30357 0 10 -2.30357 1
genomeend 26

/* Organism #27 Fitness: 11 Error: 0 */
genomestart 27
trait 1 0.1 0.0538784 0 0 0.020195 0 0 0 
trait 2 0.1875 0.0287158 0 0.131247 0.00310794 0.116416 0.0331411 0.0228052 
trait 3 0.3 0 0 0 0 0 0 0 
node 1 1 1 3
node 2 2 1 1
node 3 1 1 1
node 4 2 1 1
node 5 1 1 1
node 6 3 0 2
node 7 1 0 2
gene 1 1 6 2.42056 0 1 2.42056 1
gene 1 2 6 1.10721 0 2 1.10721 1
gene 1 3 6 3.30995 0 3 3.30995 1
gene 3 4 6 3.5383 0 4 3.5383 1
gene 2 5 6 0.125275 0 5 0.125275 1
gene 2 1 7 1.22904 0 6 1.22904 1
gene 3 2 7 0.66342 0 7 0.66342 1
gene 2 3 7 -1.31165 0 8 -1.31165 1
gene 3 4 7 2.19073 0 9 2.19073 1
gene 2 5 7 0.638218 0 10 0.638218 1
genomeend 27

/* Organism #28 Fitness: 6 Error: 0 */
genomestart 28
trait 1 0.125596 0.00384957 0 0 0 0.0373532 0 0 
trait 2 0.1875 0.0287158 0 0.131247 0.00310794 0.116416 0.0331411 0.0228052 
trait 3 0.3 0 0 0 0 0 0 0 
node 1 2 1 3
node 2 2 1 1
node 3 3 1 1
node 4 3 1 1
node 5 1 1 1
node 6 3 0 2
node 7 2 0 2
gene 2 1 6 0.226783 0 1 0.226783 1
gene 2 2 6 0.441706 0 2 0.441706 0
gene 1 3 6 2.6446 0 3 2.6446 1
gene 2 4 6 0.663824 0 4 0.663824 1
gene 2 5 6 -2.66668 0 5 -2.66668 1
gene 2 1 7 -1.00965 0 6 -1.00965 1
gene 3 2 7 3.53312 0 7 3.53312 1
gene 2 3 7 -1.99186 0 8 -1.99186 1
gene 3 4 7 0.147291 0 9 0.147291 1
gene 2 5 7 3.02573 0 10 3.02573 1
genomeend 28

/* Organism #29 Fitness: 44 Error: 0 */
genomestart 29
trait 1 0.125596 0.00384957 0 0 0 0.0373532 0 0 
trait 2 0.19375 0.153715 0 0.0656236 0.00155397 0.058208 0.0165705 0.0114026 
trait 3 0.3 0 0 0 0 0.125342 0 0 
node 1 3 1 3
node 2 1 1 1
node 3 3 1 1
node 4 1 1 1
node 5 3 1 1
node 6 3 0 2
node 7 1 0 2
gene 2 1 6 0.611078 0 1 0.611078 1
gene 1 2 6 3.27819 0 2 3.27819 0
gene 1 3 6 3.516 0 3 3.516 1
gene 3 4 6 -1.71739 0 4 -1.71739 1
gene 1 5 6 -4.05032 0 5 -4.05032 1
gene 2 1 7 0.982173 0 6 0.982173 1
gene 2 2 7 -1.381 0 7 -1.381 1
gene 3 3 7 -1.44448 0 8 -1.44448 1
gene 1 4 7 1.66183 0 9 1.66183 1
gene 2 5 7 1.82192 0 10 1.82192 1
genomeend 29

/* Organism #30 Fitness: 9 Error: 0 */
genomestart 30
trait 1 0.125596 0.00384957 0 0 0 0.0373532 0 0 
trait 2 0.1875 0.0287158 0 0.232081 0.00621589 0.232832 0.0662822 0.0228052 
trait 3 0.3 0 0 0 0 0 0 0 
node 1 1 1 3
node 2 1 1 1
node 3 3 1 1
node 4 3 1 1
node 5 3 1 1
node 6 1 0 2
node 7 2 0 2
gene 3 1 6 -2.43521 0 1 -2.43521 1
gene 2 2 6 3.19001 0 2 3.19001 1
gene 1 3 6 -0.146652 0 3 -0.146652 1
gene 2 4 6 -2.08961 0 4 -2.08961 1
gene 1 5 6 -8 0 5 -8 1
gene 3 1 7 -1.8153 0 6 -1.8153 1
gene 2 2 7 -0.129758 0 7 -0.129758 1
gene 3 3 7 -1.39563 0 8 -1.39563 1
gene 2 4 7 0.662645 0 9 0.662645 1
gene 2 5 7 4.07928 0 10 4.07928 1
genomeend 30

/* Organism #31 Fitness: 5 Error: 0 */
genomestart 31
trait 1 0.151191 0.00769914 0 0 0 0.0747064 0 0 
trait 2 0 0 0.390336 0.201667 0 0.241943 0 0 
trait 3 0.3 0 0 0 0 0 0 0 
node 1 2 1 3
node 2 1 1 1
node 3 3 1 1
node 4 1 1 1
node 5 3 1 1
node 6 3 0 2
node 7 1 0 2
gene 2 1 6 -0.860117 0 1 -0.860117 1
gene 2 2 6 3.31932 0 2 3.31932 1
gene 1 3 6 0.688342 0 3 0.688342 1
gene 2 4 6 -0.85521 0 4 -0.85521 1
gene 1 5 6 -4.76377 0 5 -4.76377 1
gene 3 1 7 0.75884 0 6 0.75884 1
gene 2 2 7 -1.71267 0 7 -1.71267 1
gene 3 3 7 -3.02491 0 8 -3.02491 1
gene 2 4 7 -0.827558 0 9 -0.827558 1
gene 2 5 7 -0.219394 0 10 -0.219394 1
genomeend 31

/* Organism #32 Fitness: 59 Error: 0 */
genomestart 32
trait 1 0.138394 0.00577435 0 0 0 0.0560298 0 0 
trait 2 0.09375 0.0143579 0.195168 0.166457 0.00155397 0.179179 0.0165705 0.0114026 
trait 3 0.3 0 0 0 0 0 0 0 
node 1 2 1 3
node 2 2 1 1
node 3 3 1 1
node 4 3 1 1
node 5 1 1 1
node 6 3 0 2
node 7 2 0 2
gene 2 1 6 -0.764947 0 1 -0.764947 1
gene 2 2 6 1.17463 0 2 1.17463 0
gene 1 3 6 -1.32262 0 3 -1.32262 1
gene 2 4 6 -1.95681 0 4 -1.95681 1
gene 2 5 6 -2.55635 0 5 -2.55635 1
gene 3 1 7 -3.06962 0 6 -3.06962 1
gene 2 2 7 0.836034 0 7 0.836034 1
gene 2 3 7 -2.63314 0 8 -2.63314 1
gene 3 4 7 -2.04296 0 9 -2.04296 1
gene 2 5 7 0.0672092 0 10 0.0672092 1
genomeend 32

/* Organism #33 Fitness: 92 Error: 0 */
genomestart 33
trait 1 0.112798 0.00192478 0 0 0 0.0186766 0 0 
trait 2 0.19375 0.0143579 0 0.267291 0.00776986 0.29104 0.0828527 0.0114026 
trait 3 0.3 0 0 0 0 0 0 0 
node 1 2 1 3
node 2 3 1 1
node 3 1 1 1
node 4 1 1 1
node 5 2 1 1
node 6 1 0 2
node 7 1 0 2
node 20 1 0 0
gene 3 1 6 -0.590815 0 1 -0.590815 1
gene 2 2 6 3.06457 0 2 3.06457 1
gene 1 3 6 -1.48945 0 3 -1.48945 1
gene 3 4 6 -3.44353 0 4 -3.44353 1
gene 1 5 6 -2.33041 0 5 -2.33041 0
gene 2 1 7 -3.29405 0 6 -3.29405 1
gene 3 2 7 0.0153702 0 7 0.0153702 1
gene 3 3 7 -1.77385 0 8 -1.77385 1
gene 2 4 7 2.23644 0 9 2.23644 1
gene 3 5 7 0.0769373 0 10 0.0769373 1
gene 1 5 20 1 0 49 0 1
gene 1 20 6 -2.33041 0 50 0 1
genomeend 33

/* Organism #34 Fitness: 1 Error: 0 */
genomestart 34
trait 1 0.138394 0.00577435 0 0 0 0.0560298 0 0 
trait 2 0.2 0 0 0.151251 0.00466192 0.174624 0.0497116 0 
trait 3 0.3 0 0 0 0 0 0 0 
node 1 1 1 3
node 2 2 1 1
node 3 1 1 1
node 4 2 1 1
node 5 1 1 1
node 6 2 0 2
node 7 1 0 2
gene 2 1 6 1.06009 0 1 1.06009 1
gene 2 2 6 4.34679 0 2 4.34679 1
gene 1 3 6 -2.36218 0 3 -2.36218 1
gene 2 4 6 1.01824 0 4 1.01824 1
gene 1 5 6 -3.15845 0 5 -3.15845 1
gene 2 1 7 -3.2293 0 6 -3.2293 1
gene 2 2 7 -0.129758 0 7 -0.129758 1
gene 3 3 7 -2.61266 0 8 -2.61266 1
gene 1 4 7 4.27241 0 9 4.27241 1
gene 2 5 7 -0.557373 0 10 -0.557373 1
genomeend 34

/* Organism #35 Fitness: 131 Error: 0 */
genomestart 35
trait 1 0.1 0.0538784 0 0 0.020195 0 0 0 
trait 2 0.1875 0.0287158 0 0.0304134 0 0 0 0.0228052 
trait 3 0.3 0 0 0 0 0 0 0 
node 1 2 1 3
node 2 1 1 1
node 3 1 1 1
node 4 3 1 1
node 5 3 1 1
node 6 1 0 2
node 7 2 0 2
gene 1 1 6 -0.696135 0 1 -0.696135 1
gene 1 2 6 2.7692 0 2 2.7692 1
gene 3 3 6 -0.796082 0 3 -0.796082 1
gene 3 4 6 0.271391 0 4 0.271391 1
gene 3 5 6 -4.34714 0 5 -4.34714 1
gene 2 1 7 -3.46432 0 6 -3.46432 1
gene 1 2 7 -0.130067 0 7 -0.130067 1
gene 2 3 7 0.270433 0 8 0.270433 1
gene 1 4 7 4.7393 0 9 4.7393 1
gene 2 5 7 -0.331989 0 10 -0.331989 1
genomeend 35

/* Organism #36 Fitness: 8 Error: 0 */
genomestart 36
trait 1 0.1 0 0 0 0 0 0 0 
trait 2 0.18125 0.0430736 0 0.0456201 0 0 0 0.0342078 
trait 3 0.3 0 0 0 0 0 0 0 
node 1 3 1 3
node 2 3 1 1
node 3 1 1 1
node 4 3 1 1
node 5 1 1 1
node 6 1 0 2
node 7 1 0 2
node 13 1 0 0
gene 1 1 6 1.6367 0 1 1.6367 1
gene 2 2 6 -1.36277 0 2 -1.36277 1
gene 1 3 6 -1.91268 0 3 -1.91268 1
gene 1 4 6 -3.56163 0 4 -3.56163 1
gene 2 5 6 -0.987472 0 5 -0.987472 0
gene 1 1 7 1.8905 0 6 1.8905 1
gene 3 2 7 -0.535883 0 7 -0.535883 1
gene 1 3 7 1.64213 0 8 1.64213 1
gene 1 4 7 0.000610795 0 9 0.000610795 1
gene 3 5 7 1.30239 0 10 1.30239 1
gene 2 5 13 -3.19638 0 29 -3.19638 1
gene 2 13 6 -0.663265 0 30 -0.663265 1
genomeend 36

/* Organism #37 Fitness: 41 Error: 0 */
genomestart 37
trait 1 0.151191 0.00769914 0 0 0 0.0747064 0 0 
trait 2 0 0 0.390336 0.201667 0 0.241943 0 0 
trait 3 0.3 0 0 0 0 0 0 0 
node 1 2 1 3
node 2 1 1 1
node 3 3 1 1
node 4 1 1 1
node 5 3 1 1
node 6 3 0 2
node 7 1 0 2
gene 2 1 6 1.06009 0 1 1.06009 1
gene 2 2 6 4.4814 0 2 4.4814 1
gene 1 3 6 0.366212 0 3 0.366212 1
gene 2 4 6 -0.85521 0 4 -0.85521 1
gene 1 5 6 -5.28935 0 5 -5.28935 1
gene 3 1 7 -0.707837 0 6 -0.707837 1
gene 2 2 7 -0.129758 0 7 -0.129758 1
gene 3 3 7 -1.17058 0 8 -1.17058 1
gene 2 4 7 0.076088 0 9 0.076088 1
gene 2 5 7 0.706363 0 10 0.706363 1
genomeend 37

/* Organism #38 Fitness: 16 Error: 0 */
genomestart 38
trait 1 0.151191 0.00769914 0 0 0 0.0747064 0 0 
trait 2 0.2 0 0 0.201667 0.00621589 0.232832 0.0662822 0 
trait 3 0.3 0 0 0 0 0 0 0 
node 1 2 1 3
node 2 1 1 1
node 3 3 1 1
node 4 1 1 1
node 5 3 1 1
node 6 3 0 2
node 7 1 0 2
gene 2 1 6 1.87481 0 1 1.87481 1
gene 2 2 6 4.07914 0 2 4.07914 1
gene 1 3 6 2.39665 0 3 2.39665 1
gene 2 4 6 1.2146 0 4 1.2146 1
gene 1 5 6 -8 0 5 -8 1
gene 3 1 7 0.352829 0 6 0.352829 1
gene 2 2 7 -2.60277 0 7 -2.60277 1
gene 3 3 7 1.4186 0 8 1.4186 1
gene 2 4 7 -1.73077 0 9 -1.73077 1
gene 2 5 7 0.706363 0 10 0.706363 1
genomeend 38

/* Organism #39 Fitness: 70 Error: 0 */
genomestart 39
trait 1 0.1 0.0538784 0 0 0.020195 0 0 0 
trait 2 0.1875 0.0287158 0 0.131247 0.00310794 0.116416 0.0331411 0.0228052 
trait 3 0.3 0 0 0 0 0 0 0 
node 1 2 1 3
node 2 2 1 1
node 3 3 1 1
node 4 3 1 1
node 5 1 1 1
node 6 3 0 2
node 7 2 0 2
gene 1 1 6 0.998209 0 1 0.998209 1
gene 2 2 6 1.24302 0 2 1.24302 1
gene 1 3 6 1.27103 0 3 1.27103 1
gene 3 4 6 1.45679 0 4 1.45679 1
gene 2 5 6 -1.3024 0 5 -1.3024 1
gene 2 1 7 -0.900717 0 6 -0.900717 1
gene 3 2 7 2.58104 0 7 2.58104 1
gene 3 3 7 0.698653 0 8 0.698653 1
gene 2 4 7 2.40235 0 9 2.40235 1
gene 2 5 7 0.638218 0 10 0.638218 1
gene 3 7 6 -0.147579 0 46 0 1
genomeend 39

/* Organism #40 Fitness: 9 Error: 0 */
genomestart 40
trait 1 0.112798 0.00192478 0 0 0 0.0186766 0 0 
trait 2 0.1875 0.0287158 0 0.0304134 0 0 0 0.0228052 
trait 3 0.3 0 0 0 0 0.125342 0 0 
node 1 2 1 3
node 2 1 1 1
node 3 3 1 1
node 4 1 1 1
node 5 1 1 1
node 6 3 0 2
node 7 1 0 2
gene 2 1 6 -1.09989 0 1 -1.09989 1
gene 1 2 6 2.35699 0 2 2.35699 0
gene 3 3 6 0.748775 0 3 0.748775 1
gene 3 4 6 -1.54403 0 4 -1.54403 1
gene 1 5 6 -3.49595 0 5 -3.49595 1
gene 1 1 7 1.45977 0 6 1.45977 1
gene 3 2 7 0.0962096 0 7 0.0962096 1
gene 3 3 7 -3.54735 0 8 -3.54735 1
gene 2 4 7 0.0275138 0 9 0.0275138 1
gene 3 5 7 1.79851 0 10 1.79851 1
gene 3 7 6 -0.0439003 0 15 -0.0439003 1
genomeend 40

/* Organism #41 Fitness: 8 Error: 0 */
genomestart 41
trait 1 0.1 0.0538784 0 0 0.020195 0 0 0 
trait 2 0.1875 0.0287158 0 0.131247 0.00310794 0.116416 0.0331411 0.0228052 
trait 3 0.3 0 0 0 0 0 0 0 
node 1 2 1 3
node 2 2 1 1
node 3 3 1 1
node 4 3 1 1
node 5 1 1 1
node 6 3 0 2
node 7 2 0 2
gene 1 1 6 -0.940302 0 1 -0.940302 1
gene 1 2 6 -0.680168 0 2 -0.680168 1
gene 1 3 6 1.23864 0 3 1.23864 1
gene 3 4 6 3.22635 0 4 3.22635 1
gene 2 5 6 0.0185509 0 5 0.0185509 1
gene 2 1 7 -0.86604 0 6 -0.86604 1
gene 3 2 7 1.75607 0 7 1.75607 1
gene 2 3 7 -1.52426 0 8 -1.52426 1
gene 2 4 7 2.00808 0 9 2.00808 1
gene 2 5 7 -2.31746 0 10 -2.31746 1
genomeend 41

/* Organism #42 Fitness: 10 Error: 0 */
genomestart 42
trait 1 0.125596 0.00384957 0 0 0 0.0373532 0 0 
trait 2 0.2 0 0 0.100834 0.00310794 0.116416 0.0331411 0 
trait 3 0.3 0 0 0 0 0 0 0 
node 1 1 1 3
node 2 2 1 1
node 3 1 1 1
node 4 2 1 1
node 5 1 1 1
node 6 2 0 2
node 7 3 0 2
gene 2 1 6 1.19093 0 1 1.19093 1
gene 2 2 6 2.78386 0 2 2.78386 1
gene 1 3 6 -0.582909 0 3 -0.582909 1
gene 3 4 6 -1.10098 0 4 -1.10098 1
gene 1 5 6 -3.92303 0 5 -3.92303 1
gene 2 1 7 -4.23915 0 6 -4.23915 1
gene 1 2 7 -1.04771 0 7 -1.04771 1
gene 3 3 7 -3.91777 0 8 -3.91777 1
gene 1 4 7 3.87681 0 9 3.87681 1
gene 2 5 7 -2.5159 0 10 -2.5159 1
genomeend 42

/* Organism #43 Fitness: 6 Error: 0 */
genomestart 43
trait 1 0.1 0 0 0 0 0 0 0 
trait 2 0.1875 0.0287158 0 0.433748 0.0124318 0.465664 0.132564 0.0228052 
trait 3 0.3 0 0 0 0 0 0 0 
node 1 2 1 3
node 2 3 1 1
node 3 1 1 1
node 4 1 1 1
node 5 2 1 1
node 6 1 0 2
node 7 1 0 2
gene 3 1 6 -1.43921 0 1 -1.43921 1
gene 2 2 6 1.03805 0 2 1.03805 1
gene 3 3 6 0.274686 0 3 0.274686 1
gene 2 4 6 -3.69898 0 4 -3.69898 1
gene 2 5 6 -2.69128 0 5 -2.69128 1
gene 3 1 7 -1.41644 0 6 -1.41644 1
gene 3 2 7 0.0955255 0 7 0.0955255 1
gene 3 3 7 0.472242 0 8 0.472242 1
gene 2 4 7 -1.27483 0 9 -1.27483 1
gene 3 5 7 0.711247 0 10 0.711247 1
genomeend 43

/* Organism #44 Fitness: 125 Error: 0 */
genomestart 44
trait 1 0.125596 0.00384957 0 0 0 0.0373532 0 0 
trait 2 0.1875 0.0287158 0 0.232081 0.00621589 0.232832 0.0662822 0.0228052 
trait 3 0.3 0 0 0 0 0 0 0 
node 1 2 1 3
node 2 1 1 1
node 3 3 1 1
node 4 1 1 1
node 5 3 1 1
node 6 3 0 2
node 7 1 0 2
gene 3 1 6 0.510278 0 1 0.510278 1
gene 2 2 6 4.06913 0 2 4.06913 1
gene 1 3 6 -0.0542502 0 3 -0.0542502 1
gene 2 4 6 -1.28725 0 4 -1.28725 1
gene 2 5 6 -4.6494 0 5 -4.6494 1
gene 3 1 7 -1.55394 0 6 -1.55394 1
gene 2 2 7 -0.0341634 0 7 -0.0341634 1
gene 3 3 7 1.11253 0 8 1.11253 1
gene 2 4 7 -0.925635 0 9 -0.925635 1
gene 2 5 7 2.39282 0 10 2.39282 1
genomeend 44

/* Organism #45 Fitness: 6 Error: 0 */
genomestart 45
trait 1 0.125596 0.00384957 0 0 0 0.0373532 0 0 
trait 2 0.19375 0.0143579 0 0.11604 0.00310794 0.116416 0.0331411 0.0114026 
trait 3 0.3 0 0 0 0 0 0 0 
node 1 2 1 3
node 2 1 1 1
node 3 3 1 1
node 4 1 1 1
node 5 3 1 1
node 6 3 0 2
node 7 1 0 2
gene 1 1 6 2.56251 0 1 2.56251 1
gene 2 2 6 6.3559 0 2 6.3559 1
gene 3 3 6 0.915853 0 3 0.915853 1
gene 2 4 6 1.01824 0 4 1.01824 1
gene 1 5 6 -7.02264 0 5 -7.02264 1
gene 3 1 7 0.25092 0 6 0.25092 1
gene 2 2 7 -0.129758 0 7 -0.129758 1
gene 3 3 7 0.900394 0 8 0.900394 1
gene 2 4 7 -2.36992 0 9 -2.36992 1
gene 2 5 7 0.706363 0 10 0.706363 1
gene 3 7 6 -0.0439003 0 15 -0.0439003 1
genomeend 45

/* Organism #46 Fitness: 13 Error: 0 */
genomestart 46
trait 1 0.112798 0.028864 0.400722 0.136376 0 0.0186766 0.173938 0.465827 
trait 2 0.19375 0.0143579 0 0.0656236 0.00155397 0.058208 0.0165705 0.0114026 
trait 3 0.3 0 0 0 0 0 0 0 
node 1 2 1 3
node 2 1 1 1
node 3 3 1 1
node 4 3 1 1
node 5 3 1 1
node 6 1 0 2
node 7 2 0 2
gene 1 1 6 -0.481334 0 1 -0.481334 1
gene 2 2 6 5.23225 0 2 5.23225 1
gene 1 3 6 -1.74048 0 3 -1.74048 1
gene 3 4 6 -1.62462 0 4 -1.62462 1
gene 3 5 6 -2.63784 0 5 -2.63784 1
gene 2 1 7 -1.4559 0 6 -1.4559 1
gene 1 2 7 1.08568 0 7 1.08568 1
gene 2 3 7 -2.06087 0 8 -2.06087 1
gene 1 4 7 6.15964 0 9 6.15964 1
gene 2 5 7 -1.39911 0 10 -1.39911 1
genomeend 46

/* Organism #47 Fitness: 60 Error: 0 */
genomestart 47
trait 1 0.1 0.0538784 0 0 0.020195 0 0 0 
trait 2 0.1875 0.0287158 0 0.0304134 0 0 0 0.0228052 
trait 3 0.3 0 0 0 0 0 0 0 
node 1 2 1 3
node 2 1 1 1
node 3 3 1 1
node 4 3 1 1
node 5 3 1 1
node 6 1 0 2
node 7 2 0 2
gene 1 1 6 -1.71119 0 1 -1.71119 1
gene 1 2 6 0.452024 0 2 0.452024 1
gene 3 3 6 -0.388803 0 3 -0.388803 1
gene 3 4 6 -0.942148 0 4 -0.942148 1
gene 3 5 6 -1.8925 0 5 -1.8925 1
gene 2 1 7 -5.82463 0 6 -5.82463 1
gene 1 2 7 2.15956 0 7 2.15956 1
gene 2 3 7 0.427143 0 8 0.427143 1
gene 1 4 7 6.93735 0 9 6.93735 1
gene 2 5 7 0.647882 0 10 0.647882 1
genomeend 47

/* Organism #48 Fitness: 22 Error: 0 */
genomestart 48
trait 1 0.112798 0.00192478 0 0 0 0.0186766 0 0 
trait 2 0.18125 0.0430736 0 0.196871 0.00466192 0.174624 0.0497116 0.0342078 
trait 3 0.3 0 0 0 0 0 0 0 
node 1 2 1 3
node 2 2 1 1
node 3 3 1 1
node 4 3 1 1
node 5 1 1 1
node 6 3 0 2
node 7 2 0 2
gene 3 1 6 -1.35096 0 1 -1.35096 1
gene 2 2 6 2.16641 0 2 2.16641 0
gene 1 3 6 0.571262 0 3 0.571262 1
gene 2 4 6 -1.33539 0 4 -1.33539 1
gene 2 5 6 -2.09988 0 5 -2.09988 1
gene 3 1 7 -3.23603 0 6 -3.23603 1
gene 3 2 7 0.439854 0 7 0.439854 1
gene 2 3 7 -0.370162 0 8 -0.370162 1
gene 2 4 7 1.57173 0 9 1.57173 1
gene 2 5 7 2.74397 0 10 2.74397 1
genomeend 48

/* Organism #49 Fitness: 7 Error: 0 */
genomestart 49
trait 1 0.112798 0.00192478 0 0 0 0.0186766 0 0 
trait 2 0.1875 0.0287158 0 0.0808303 0.00155397 0.058208 0.0165705 0.0228052 
trait 3 0.3 0 0 0 0 0 0 0 
node 1 3 1 3
node 2 3 1 1
node 3 1 1 1
node 4 3 1 1
node 5 1 1 1
node 6 1 0 2
node 7 1 0 2
gene 1 1 6 4.66742 0 1 4.66742 1
gene 3 2 6 0.303377 0 2 0.303377 0
gene 1 3 6 -1.98007 0 3 -1.98007 1
gene 3 4 6 1.01669 0 4 1.01669 1
gene 2 5 6 -1.04466 0 5 -1.04466 1
gene 2 1 7 1.92882 0 6 1.92882 1
gene 3 2 7 -2.30958 0 7 -2.30958 1
gene 1 3 7 -3.07446 0 8 -3.07446 1
gene 3 4 7 0.892462 0 9 0.892462 1
gene 2 5 7 -1.94866 0 10 -1.94866 1
genomeend 49

/* Organism #50 Fitness: 11 Error: 0 */
genomestart 50
trait 1 0.151191 0.00769914 0 0 0 0.0747064 0 0 
trait 2 0.2 0 0 0.201667 0.00621589 0.232832 0.0662822 0 
trait 3 0.3 0 0 0 0 0 0 0 
node 1 2 1 3
node 2 1 1 1
node 3 3 1 1
node 4 1 1 1
node 5 3 1 1
node 6 3 0 2
node 7 1 0 2
gene 2 1 6 0.724277 0 1 0.724277 1
gene 2 2 6 6.81261 0 2 6.81261 1
gene 1 3 6 -0.756624 0 3 -0.756624 1
gene 2 4 6 -0.027437 0 4 -0.027437 1
gene 1 5 6 -7.02264 0 5 -7.02264 1
gene 3 1 7 1.87978 0 6 1.87978 1
gene 2 2 7 2.05956 0 7 2.05956 1
gene 3 3 7 2.99557 0 8 2.99557 1
gene 2 4 7 -1.28691 0 9 -1.28691 1
gene 2 5 7 3.04256 0 10 3.04256 1
genomeend 50

/* Organism #51 Fitness: 49 Error: 0 */
genomestart 51
trait 1 0.625848 0.108716 0 0.910385 0.0100975 0 0 0 
trait 2 0.1875 0.0287158 0 0.131247 0.00310794 0.116416 0.0331411 0.0228052 
trait 3 0.3 0 0 0 0 0 0 0 
node 1 2 1 3
node 2 2 1 1
node 3 3 1 1
node 4 3 1 1
node 5 1 1 1
node 6 3 0 2
node 7 2 0 2
gene 1 1 6 0.612496 0 1 0.612496 1
gene 2 2 6 1.90475 0 2 1.90475 1
gene 1 3 6 0.778155 0 3 0.778155 1
gene 2 4 6 0.546151 0 4 0.546151 1
gene 2 5 6 -1.17353 0 5 -1.17353 1
gene 2 1 7 -0.769546 0 6 -0.769546 1
gene 3 2 7 2.19143 0 7 2.19143 1
gene 2 3 7 -0.120368 0 8 -0.120368 1
gene 3 4 7 1.27345 0 9 1.27345 1
gene 2 5 7 0.842963 0 10 0.842963 1
genomeend 51

/* Organism #52 Fitness: 2 Error: 0 */
genomestart 52
trait 1 0.125596 0.00384957 0 0 0 0.0373532 0 0 
trait 2 0.1875 0.0287158 0 0.0304134 0 0 0 0.0228052 
trait 3 0.3 0 0 0 0 0.250685 0 0 
node 1 2 1 3
node 2 1 1 1
node 3 3 1 1
node 4 1 1 1
node 5 1 1 1
node 6 3 0 2
node 7 1 0 2
gene 2 1 6 -2.40205 0 1 -2.40205 1
gene 1 2 6 3.37433 0 2 3.37433 0
gene 3 3 6 -0.968356 0 3 -0.968356 1
gene 3 4 6 -3.12863 0 4 -3.12863 1
gene 1 5 6 -5.69316 0 5 -5.69316 1
gene 2 1 7 -2.9727 0 6 -2.9727 1
gene 2 2 7 -3.50905 0 7 -3.50905 1
gene 3 3 7 -5.28387 0 8 -5.28387 1
gene 1 4 7 2.30066 0 9 2.30066 1
gene 2 5 7 1.01411 0 10 1.01411 1
genomeend 52

/* Organism #53 Fitness: 5 Error: 0 */
genomestart 53
trait 1 0.112798 0.028864 0 0 0.0100975 0.0186766 0 0 
trait 2 0.19375 0.0143579 0 0.0656236 0.00155397 0.058208 0.0165705 0.0114026 
trait 3 0.3 0 0 0 0 0 0 0 
node 1 1 1 3
node 2 2 1 1
node 3 1 1 1
node 4 2 1 1
node 5 1 1 1
node 6 2 0 2
node 7 1 0 2
gene 1 1 6 -0.696135 0 1 -0.696135 1
gene 2 2 6 -0.488633 0 2 -0.488633 1
gene 3 3 6 -2.07347 0 3 -2.07347 1
gene 3 4 6 -0.357925 0 4 -0.357925 1
gene 3 5 6 -5.49195 0 5 -5.49195 1
gene 2 1 7 1.35752 0 6 1.35752 1
gene 1 2 7 -1.2375 0 7 -1.2375 1
gene 2 3 7 0.270433 0 8 0.270433 1
gene 1 4 7 6.00862 0 9 6.00862 1
gene 2 5 7 -0.467941 0 10 -0.467941 1
genomeend 53

/* Organism #54 Fitness: 4 Error: 0 */
genomestart 54
trait 1 0.125596 0.00384957 0 0 0 0.0373532 0 0 
trait 2 0.1875 0.0287158 0 0.131247 0.00310794 0.116416 0.0331411 0.0228052 
trait 3 0.3 0 0 0 0 0 0 0 
node 1 2 1 3
node 2 2 1 1
node 3 3 1 1
node 4 3 1 1
node 5 1 1 1
node 6 3 0 2
node 7 2 0 2
node 13 1 0 0
gene 2 1 6 -2.07095 0 1 -2.07095 1
gene 2 2 6 2.33014 0 2 2.33014 0
gene 3 3 6 2.10617 0 3 2.10617 1
gene 1 4 6 -1.41794 0 4 -1.41794 1
gene 2 5 6 -2.87056 0 5 -2.87056 0
gene 2 1 7 -3.40407 0 6 -3.40407 1
gene 1 2 7 0.508596 0 7 0.508596 1
gene 1 3 7 -1.78089 0 8 -1.78089 1
gene 3 4 7 -3.88174 0 9 -3.88174 1
gene 2 5 7 1.10153 0 10 1.10153 1
gene 2 5 13 -0.330621 0 29 -0.330621 1
gene 2 13 6 2.20558 0 30 2.20558 1
genomeend 54

/* Organism #55 Fitness: 9 Error: 0 */
genomestart 55
trait 1 0.119197 0.00288718 0 0 0 0.0280149 0 0 
trait 2 0.184375 0.0358947 0 0.0884336 0.00155397 0.058208 0.0165705 0.0285065 
trait 3 0.3 0 0 0 0 0.0626712 0 0 
node 1 2 1 3
node 2 2 1 1
node 3 3 1 1
node 4 3 1 1
node 5 1 1 1
node 6 3 0 2
node 7 2 0 2
node 13 1 0 0
gene 2 1 6 -1.94215 0 1 -1.94215 1
gene 1 2 6 -1.06981 0 2 -1.06981 0
gene 3 3 6 0.420536 0 3 0.420536 1
gene 3 4 6 -2.44165 0 4 -2.44165 1
gene 2 5 6 -1.45755 0 5 -1.45755 0
gene 2 1 7 -0.841745 0 6 -0.841745 1
gene 3 2 7 0.624992 0 7 0.624992 0
gene 3 3 7 -2.09644 0 8 -2.09644 1
gene 3 4 7 -3.12657 0 9 -3.12657 1
gene 2 5 7 -0.77628 0 10 -0.77628 1
gene 2 5 13 -4.90384 0 29 -4.90384 1
gene 2 13 6 0.0184206 0 30 0.0184206 1
genomeend 55

/* Organism #56 Fitness: 30 Error: 0 */
genomestart 56
trait 1 0.119197 0.00288718 0 0 0 0.0280149 0 0 
trait 2 0.134375 0.0358947 0.0975839 0.0884336 0 0.0604856 0 0.0285065 
trait 3 0.3 0 0 0 0 0.0626712 0 0 
node 1 2 1 3
node 2 2 1 1
node 3 3 1 1
node 4 3 1 1
node 5 1 1 1
node 6 3 0 2
node 7 2 0 2
node 13 1 0 0
gene 2 1 6 1.11258 0 1 1.11258 1
gene 2 2 6 -1.49382 0 2 -1.49382 0
gene 3 3 6 0.158053 0 3 0.158053 1
gene 3 4 6 -0.729847 0 4 -0.729847 1
gene 2 5 6 -0.148752 0 5 -0.148752 0
gene 2 1 7 -0.684175 0 6 -0.684175 1
gene 2 2 7 0.00359253 0 7 0.00359253 0
gene 1 3 7 -1.40967 0 8 -1.40967 1
gene 1 4 7 1.72009 0 9 1.72009 1
gene 2 5 7 0.0697769 0 10 0.0697769 1
gene 2 5 13 -2.45986 0 29 -2.45986 1
gene 2 13 6 -0.237089 0 30 -0.237089 1
genomeend 56

/* Organism #57 Fitness: 9 Error: 0 */
genomestart 57
trait 1 0.119197 0.00288718 0 0 0 0.0280149 0 0 
trait 2 0.184375 0.0358947 0 0.0884336 0.00155397 0.058208 0.0165705 0.0285065 
trait 3 0.3 0 0 0 0 0.0626712 0 0 
node 1 2 1 3
node 2 2 1 1
node 3 3 1 1
node 4 3 1 1
node 5 1 1 1
node 6 3 0 2
node 7 2 0 2
node 13 3 0 0
gene 2 1 6 0.103766 0 1 0.103766 1
gene 1 2 6 -0.799682 0 2 -0.799682 0
gene 3 3 6 -0.340396 0 3 -0.340396 1
gene 3 4 6 -0.215321 0 4 -0.215321 1
gene 2 5 6 -0.937826 0 5 -0.937826 0
gene 2 1 7 -4.06718 0 6 -4.06718 1
gene 1 2 7 -1.83128 0 7 -1.83128 0
gene 3 3 7 -3.33823 0 8 -3.33823 1
gene 1 4 7 0.418536 0 9 0.418536 1
gene 2 5 7 2.14025 0 10 2.14025 1
gene 2 5 13 -0.330621 0 29 -0.330621 1
gene 2 13 6 2.74094 0 30 2.74094 1
genomeend 57

/* Organism #58 Fitness: 5 Error: 0 */
genomestart 58
trait 1 0.1 0 0 0 0 0 0 0 
trait 2 0.1875 0.0287158 0 0.0304134 0 0 0 0.0228052 
trait 3 0.3 0 0 0 0 0 0 0 
node 1 2 1 3
node 2 2 1 1
node 3 3 1 1
node 4 1 1 1
node 5 3 1 1
node 6 3 0 2
node 7 1 0 2
node 15 1 0 0
gene 2 1 6 0.740536 0 1 0.740536 1
gene 1 2 6 -2.49338 0 2 -2.49338 1
gene 3 3 6 1.97216 0 3 1.97216 1
gene 3 4 6 0.784504 0 4 0.784504 1
gene 2 5 6 -4.82169 0 5 -4.82169 1
gene 1 1 7 -0.574787 0 6 -0.574787 1
gene 1 2 7 0.665709 0 7 0.665709 1
gene 2 3 7 0.51279 0 8 0.51279 0
gene 2 4 7 2.0279 0 9 2.0279 1
gene 3 5 7 -0.021633 0 10 -0.021633 1
gene 2 3 15 1 0 34 0 1
gene 2 15 7 0.51279 0 35 0 1
genomeend 58

/* Organism #59 Fitness: 6 Error: 0 */
genomestart 59
trait 1 0.1 0 0 0 0 0 0 0 
trait 2 0.1875 0.0287158 0 0.0304134 0 0 0 0.0228052 
trait 3 0.3 0 0 0 0 0 0 0 
node 1 2 1 3
node 2 2 1 1
node 3 3 1 1
node 4 1 1 1
node 5 3 1 1
node 6 3 0 2
node 7 1 0 2
node 15 1 0 0
gene 2 1 6 0.740536 0 1 0.740536 1
gene 1 2 6 -2.49338 0 2 -2.49338 1
gene 3 3 6 1.97216 0 3 1.97216 1
gene 3 4 6 0.784504 0 4 0.784504 1
gene 2 5 6 -4.82169 0 5 -4.82169 1
gene 1 1 7 -0.574787 0 6 -0.574787 1
gene 1 2 7 0.665709 0 7 0.665709 1
gene 2 3 7 0.51279 0 8 0.51279 0
gene 2 4 7 2.0279 0 9 2.0279 1
gene 3 5 7 -0.021633 0 10 -0.021633 1
gene 2 3 15 1 0 34 0 1
gene 2 15 7 0.51279 0 35 0 1
genomeend 59

/* Organism #60 Fitness: 30 Error: 0 */
genomestart 60
trait 1 0.1 0 0 0 0 0 0 0 
trait 2 0.1875 0.0287158 0 0.0304134 0 0 0 0.0228052 
trait 3 0.3 0 0 0 0 0 0 0 
node 1 2 1 3
node 2 2 1 1
node 3 3 1 1
node 4 1 1 1
node 5 3 1 1
node 6 3 0 2
node 7 1 0 2
node 15 1 0 0
gene 2 1 6 0.740536 0 1 0.740536 1
gene 1 2 6 -2.49338 0 2 -2.49338 1
gene 3 3 6 1.97216 0 3 1.97216 1
gene 3 4 6 0.784504 0 4 0.784504 1
gene 2 5 6 -4.82169 0 5 -4.82169 1
gene 1 1 7 -0.574787 0 6 -0.574787 1
gene 1 2 7 0.665709 0 7 0.665709 1
gene 2 3 7 0.51279 0 8 0.51279 0
gene 2 4 7 2.0279 0 9 2.0279 1
gene 3 5 7 -0.021633 0 10 -0.021633 1
gene 2 3 15 1 0 34 0 1
gene 2 15 7 0.51279 0 35 0 1
genomeend 60

/* Organism #61 Fitness: 96 Error: 0 */
genomestart 61
trait 1 0.1 0 0 0 0 0 0 0 
trait 2 0.1875 0.0287158 0 0.0304134 0 0 0 0.0228052 
trait 3 0.3 0 0 0 0 0 0 0 
node 1 2 1 3
node 2 2 1 1
node 3 3 1 1
node 4 1 1 1
node 5 3 1 1
node 6 3 0 2
node 7 1 0 2
node 15 1 0 0
gene 2 1 6 0.362726 0 1 0.362726 1
gene 1 2 6 -3.63329 0 2 -3.63329 1
gene 3 3 6 3.58117 0 3 3.58117 1
gene 3 4 6 -1.09383 0 4 -1.09383 1
gene 2 5 6 -6.43539 0 5 -6.43539 1
gene 1 1 7 -2.8468 0 6 -2.8468 1
gene 1 2 7 0.0891941 0 7 0.0891941 1
gene 2 3 7 1.47053 0 8 1.47053 0
gene 2 4 7 3.03119 0 9 3.03119 1
gene 3 5 7 1.35576 0 10 1.35576 1
gene 2 3 15 -0.486398 0 34 -0.486398 1
gene 2 15 7 0.51279 0 35 0.51279 1
genomeend 61

/* Organism #62 Fitness: 93 Error: 0 */
genomestart 62
trait 1 0.1 0 0 0 0 0 0 0 
trait 2 0.1875 0.0287158 0 0.0304134 0 0 0 0.0228052 
trait 3 0.3 0 0 0 0 0 0 0 
node 1 2 1 3
node 2 2 1 1
node 3 3 1 1
node 4 1 1 1
node 5 3 1 1
node 6 3 0 2
node 7 1 0 2
node 15 1 0 0
gene 2 1 6 1.96646 0 1 1.96646 1
gene 1 2 6 -1.89546 0 2 -1.89546 1
gene 3 3 6 3.38692 0 3 3.38692 1
gene 3 4 6 0.487636 0 4 0.487636 1
gene 2 5 6 -3.25242 0 5 -3.25242 1
gene 1 1 7 -1.90003 0 6 -1.90003 1
gene 1 2 7 1.89714 0 7 1.89714 1
gene 2 3 7 1.08071 0 8 1.08071 0
gene 2 4 7 1.04003 0 9 1.04003 1
gene 3 5 7 -0.362276 0 10 -0.362276 1
gene 2 3 15 1 0 34 1 1
gene 2 15 7 0.51279 0 35 0.51279 1
genomeend 62

/* Organism #63 Fitness: 172 Error: 0 */
genomestart 63
trait 1 0.1 0 0 0 0 0 0 0 
trait 2 0.1875 0.0287158 0 0.0304134 0 0 0 0.0228052 
trait 3 0.3 0 0 0 0 0 0 0 
node 1 2 1 3
node 2 2 1 1
node 3 3 1 1
node 4 1 1 1
node 5 3 1 1
node 6 3 0 2
node 7 1 0 2
node 15 1 0 0
gene 2 1 6 0.317361 0 1 0.317361 1
gene 1 2 6 -1.19111 0 2 -1.19111 1
gene 3 3 6 1.26625 0 3 1.26625 1
gene 3 4 6 1.87021 0 4 1.87021 1
gene 2 5 6 -5.21258 0 5 -5.21258 1
gene 1 1 7 -2.60405 0 6 -2.60405 1
gene 1 2 7 1.01537 0 7 1.01537 1
gene 2 3 7 0.319218 0 8 0.319218 0
gene 2 4 7 3.30184 0 9 3.30184 1
gene 3 5 7 0.0045603 0 10 0.0045603 1
gene 2 3 15 -1.17594 0 34 -1.17594 1
gene 2 15 7 0.313752 0 35 0.313752 1
genomeend 63

/* Organism #64 Fitness: 13 Error: 0 */
genomestart 64
trait 1 0.1 0 0 0 0 0 0 0 
trait 2 0.1875 0.0287158 0 0.0304134 0 0 0 0.0228052 
trait 3 0.3 0 0 0 0 0 0 0 
node 1 2 1 3
node 2 2 1 1
node 3 3 1 1
node 4 1 1 1
node 5 3 1 1
node 6 3 0 2
node 7 3 0 2
node 15 1 0 0
gene 2 1 6 -0.253651 0 1 -0.253651 1
gene 1 2 6 -1.86847 0 2 -1.86847 1
gene 3 3 6 3.79582 0 3 3.79582 1
gene 3 4 6 -1.41187 0 4 -1.41187 1
gene 2 5 6 -6.70539 0 5 -6.70539 1
gene 1 1 7 -1.97308 0 6 -1.97308 1
gene 1 2 7 0.665709 0 7 0.665709 1
gene 2 3 7 0.942365 0 8 0.942365 0
gene 2 4 7 1.66881 0 9 1.66881 1
gene 3 5 7 -0.824827 0 10 -0.824827 1
gene 2 3 15 0.0143721 0 34 0.0143721 1
gene 2 15 7 -1.71218 0 35 -1.71218 1
genomeend 64

/* Organism #65 Fitness: 31 Error: 0 */
genomestart 65
trait 1 0.1 0 0 0 0 0 0 0 
trait 2 0.1875 0.0287158 0 0.0304134 0 0 0 0.0228052 
trait 3 0.3 0 0 0 0 0 0 0 
node 1 2 1 3
node 2 2 1 1
node 3 3 1 1
node 4 1 1 1
node 5 3 1 1
node 6 3 0 2
node 7 1 0 2
node 15 1 0 0
gene 2 1 6 -0.0224715 0 1 -0.0224715 1
gene 1 2 6 1.53435 0 2 1.53435 1
gene 3 3 6 1.97216 0 3 1.97216 1
gene 3 4 6 -2.2395 0 4 -2.2395 1
gene 2 5 6 -5.08211 0 5 -5.08211 1
gene 1 1 7 -0.574787 0 6 -0.574787 1
gene 1 2 7 2.21945 0 7 2.21945 1
gene 2 3 7 -0.261743 0 8 -0.261743 0
gene 2 4 7 1.83604 0 9 1.83604 1
gene 3 5 7 0.155623 0 10 0.155623 1
gene 2 3 15 0.844704 0 34 0.844704 1
gene 2 15 7 -1.90064 0 35 -1.90064 1
genomeend 65

/* Organism #66 Fitness: 11 Error: 0 */
genomestart 66
trait 1 0.1 0 0 0 0 0 0 0 
trait 2 0.1875 0.0287158 0 0.0304134 0 0 0 0.0228052 
trait 3 0.3 0 0 0 0 0 0 0 
node 1 2 1 3
node 2 2 1 1
node 3 3 1 1
node 4 1 1 1
node 5 3 1 1
node 6 3 0 2
node 7 1 0 2
node 15 1 0 0
gene 2 1 6 -1.72872 0 1 -1.72872 1
gene 1 2 6 -1.89144 0 2 -1.89144 1
gene 3 3 6 1.37839 0 3 1.37839 1
gene 3 4 6 -0.321278 0 4 -0.321278 1
gene 2 5 6 -4.82169 0 5 -4.82169 1
gene 1 1 7 -0.574787 0 6 -0.574787 1
gene 1 2 7 0.206977 0 7 0.206977 1
gene 2 3 7 1.37008 0 8 1.37008 0
gene 2 4 7 0.0747517 0 9 0.0747517 1
gene 3 5 7 2.47305 0 10 2.47305 1
gene 2 3 15 2.49071 0 34 2.49071 1
gene 2 15 7 -1.1716 0 35 -1.1716 1
genomeend 66

/* Organism #67 Fitness: 4 Error: 0 */
genomestart 67
trait 1 0.1 0 0 0 0 0 0 0 
trait 2 0.1875 0.0287158 0 0.0304134 0 0 0 0.0228052 
trait 3 0.3 0 0 0 0 0 0 0 
node 1 2 1 3
node 2 2 1 1
node 3 3 1 1
node 4 1 1 1
node 5 3 1 1
node 6 3 0 2
node 7 1 0 2
node 15 1 0 0
gene 2 1 6 0.740536 0 1 0.740536 1
gene 1 2 6 -2.49338 0 2 -2.49338 1
gene 3 3 6 1.97216 0 3 1.97216 1
gene 3 4 6 0.784504 0 4 0.784504 1
gene 2 5 6 -4.82169 0 5 -4.82169 1
gene 1 1 7 -0.574787 0 6 -0.574787 1
gene 1 2 7 0.665709 0 7 0.665709 1
gene 2 3 7 0.51279 0 8 0.51279 0
gene 2 4 7 2.0279 0 9 2.0279 1
gene 3 5 7 -0.021633 0 10 -0.021633 1
gene 2 3 15 1 0 34 0 1
gene 2 15 7 0.51279 0 35 0 1
genomeend 67

/* Organism #68 Fitness: 4 Error: 0 */
genomestart 68
trait 1 0.1 0 0 0 0 0 0 0 
trait 2 0.1875 0.0287158 0 0.0304134 0 0 0 0.0228052 
trait 3 0.3 0 0 0 0 0 0 0 
node 1 2 1 3
node 2 2 1 1
node 3 3 1 1
node 4 1 1 1
node 5 3 1 1
node 6 3 0 2
node 7 1 0 2
node 15 1 0 0
gene 2 1 6 0.740536 0 1 0.740536 1
gene 1 2 6 -1.9 0 2 -1.9 1
gene 3 3 6 0.323322 0 3 0.323322 1
gene 3 4 6 2.91807 0 4 2.91807 1
gene 2 5 6 -0.62225 0 5 -0.62225 1
gene 1 1 7 0.825392 0 6 0.825392 1
gene 1 2 7 0.316833 0 7 0.316833 1
gene 2 3 7 0.518049 0 8 0.518049 0
gene 2 4 7 -0.448635 0 9 -0.448635 1
gene 3 5 7 -0.642917 0 10 -0.642917 1
gene 2 3 15 2.15711 0 34 2.15711 1
gene 2 15 7 -1.04835 0 35 -1.04835 1
genomeend 68

/* Organism #69 Fitness: 17 Error: 0 */
genomestart 69
trait 1 0.1 0 0 0 0 0 0 0 
trait 2 0.1875 0.0287158 0 0.0304134 0 0 0 0.0228052 
trait 3 0.3 0 0 0 0 0 0 0 
node 1 2 1 3
node 2 2 1 1
node 3 3 1 1
node 4 1 1 1
node 5 3 1 1
node 6 3 0 2
node 7 1 0 2
node 15 1 0 0
gene 2 1 6 0.711403 0 1 0.711403 1
gene 1 2 6 -2.45899 0 2 -2.45899 1
gene 3 3 6 1.98309 0 3 1.98309 1
gene 3 4 6 0.632212 0 4 0.632212 1
gene 2 5 6 -3.03236 0 5 -3.03236 1
gene 1 1 7 0.850463 0 6 0.850463 1
gene 1 2 7 0.458682 0 7 0.458682 1
gene 2 3 7 0.495567 0 8 0.495567 0
gene 2 4 7 1.91543 0 9 1.91543 1
gene 3 5 7 0.00156476 0 10 0.00156476 1
gene 2 3 15 3.16125 0 34 3.16125 1
gene 2 15 7 -0.312893 0 35 -0.312893 1
genomeend 69

/* Organism #70 Fitness: 7 Error: 0 */
genomestart 70
trait 1 0.1 0 0 0 0 0 0 0 
trait 2 0.1875 0.0287158 0 0.0304134 0 0 0 0.0228052 
trait 3 0.3 0 0 0 0 0 0 0 
node 1 2 1 3
node 2 2 1 1
node 3 3 1 1
node 4 1 1 1
node 5 3 1 1
node 6 1 0 2
node 7 1 0 2
node 15 1 0 0
gene 2 1 6 0.740536 0 1 0.740536 1
gene 1 2 6 -2.49338 0 2 -2.49338 1
gene 3 3 6 1.97216 0 3 1.97216 1
gene 3 4 6 0.784504 0 4 0.784504 1
gene 2 5 6 -4.82169 0 5 -4.82169 1
gene 1 1 7 -0.574787 0 6 -0.574787 1
gene 1 2 7 0.665709 0 7 0.665709 1
gene 2 3 7 0.51279 0 8 0.51279 0
gene 2 4 7 2.0279 0 9 2.0279 1
gene 3 5 7 -0.021633 0 10 -0.021633 1
gene 2 3 15 1 0 34 0 1
gene 2 15 7 0.51279 0 35 0 1
genomeend 70

/* Organism #71 Fitness: 12 Error: 0 */
genomestart 71
trait 1 0.1 0 0 0 0 0 0 0 
trait 2 0.1875 0.0287158 0 0.0304134 0 0 0 0.0228052 
trait 3 0.3 0 0 0 0 0 0 0 
node 1 2 1 3
node 2 2 1 1
node 3 3 1 1
node 4 1 1 1
node 5 3 1 1
node 6 3 0 2
node 7 1 0 2
node 15 1 0 0
gene 2 1 6 -1.3596 0 1 -1.3596 1
gene 1 2 6 -0.653275 0 2 -0.653275 1
gene 3 3 6 1.97216 0 3 1.97216 1
gene 3 4 6 -0.471985 0 4 -0.471985 1
gene 2 5 6 -4.13709 0 5 -4.13709 1
gene 1 1 7 -1.19466 0 6 -1.19466 1
gene 1 2 7 0.665709 0 7 0.665709 1
gene 2 3 7 -0.865907 0 8 -0.865907 0
gene 2 4 7 2.0279 0 9 2.0279 1
gene 3 5 7 -1.44067 0 10 -1.44067 1
gene 2 3 15 -0.1899 0 34 -0.1899 1
gene 2 15 7 0.522229 0 35 0.522229 1
genomeend 71

/* Species #2 : (Size 51) (AF 1974.22) (Age 3)  */


/* Organism #72 Fitness: 3 Error: 0 */
genomestart 72
trait 1 0.1 0 0 0 0 0 0 0 
trait 2 0.2 0 0 0 0 0 0 0 
trait 3 0.3 0 0 0 0 0 0 0 
node 1 2 1 3
node 2 3 1 1
node 3 1 1 1
node 4 1 1 1
node 5 2 1 1
node 6 1 0 2
node 7 1 0 2
node 14 1 0 0
gene 1 1 6 0.432454 0 1 0.432454 1
gene 2 2 6 2.13092 0 2 2.13092 0
gene 3 3 6 0.718686 0 3 0.718686 1
gene 3 4 6 -2.49626 0 4 -2.49626 1
gene 3 5 6 -1.39189 0 5 -1.39189 1
gene 2 1 7 -2.43985 0 6 -2.43985 1
gene 3 2 7 2.13018 0 7 2.13018 1
gene 2 3 7 0.630123 0 8 0.630123 1
gene 3 4 7 -1.81328 0 9 -1.81328 1
gene 2 5 7 0.104174 0 10 0.104174 1
gene 1 6 7 0.880476 0 18 0.880476 1
gene 2 2 14 -1.03013 0 31 -1.03013 1
gene 2 14 6 -2.05616 0 32 -2.05616 1
genomeend 72

/* Organism #73 Fitness: 9 Error: 0 */
genomestart 73
trait 1 0.1 0 0 0 0 0 0 0 
trait 2 0.2 0 0 0 0 0 0 0 
trait 3 0.3 0 0 0 0 0 0 0 
node 1 2 1 3
node 2 3 1 1
node 3 1 1 1
node 4 1 1 1
node 5 2 1 1
node 6 1 0 2
node 7 1 0 2
node 14 1 0 0
gene 1 1 6 0.488469 0 1 0.488469 1
gene 2 2 6 2.39922 0 2 2.39922 0
gene 3 3 6 2.08802 0 3 2.08802 1
gene 3 4 6 0.784159 0 4 0.784159 1
gene 3 5 6 -2.30442 0 5 -2.30442 1
gene 2 1 7 0.984008 0 6 0.984008 1
gene 3 2 7 0.783057 0 7 0.783057 1
gene 2 3 7 -1.1292 0 8 -1.1292 1
gene 3 4 7 0.0310133 0 9 0.0310133 1
gene 2 5 7 2.07371 0 10 2.07371 1
gene 1 6 7 5.75989 0 18 5.75989 1
gene 2 2 14 0.508221 0 31 0.508221 1
gene 2 14 6 0.625408 0 32 0.625408 1
genomeend 73

/* Organism #74 Fitness: 14 Error: 0 */
genomestart 74
trait 1 0.1 0 0 0 0 0 0 0 
trait 2 0.2 0 0 0 0 0 0 0 
trait 3 0.3 0 0 0 0 0 0 0 
node 1 2 1 3
node 2 3 1 1
node 3 1 1 1
node 4 1 1 1
node 5 2 1 1
node 6 1 0 2
node 7 1 0 2
node 14 1 0 0
gene 1 1 6 -1.93254 0 1 -1.93254 1
gene 2 2 6 3.74263 0 2 3.74263 0
gene 3 3 6 4.35384 0 3 4.35384 1
gene 3 4 6 -2.03127 0 4 -2.03127 1
gene 3 5 6 1.67374 0 5 1.67374 1
gene 2 1 7 0.192168 0 6 0.192168 1
gene 3 2 7 2.06791 0 7 2.06791 1
gene 2 3 7 1.63527 0 8 1.63527 1
gene 3 4 7 -0.607027 0 9 -0.607027 1
gene 2 5 7 2.09684 0 10 2.09684 1
gene 1 6 7 0.732804 0 18 0.732804 1
gene 2 2 14 -0.743727 0 31 -0.743727 1
gene 2 14 6 1.50785 0 32 1.50785 1
genomeend 74

/* Organism #75 Fitness: 13 Error: 0 */
genomestart 75
trait 1 0 0 0 0 0 0.21037 0 0 
trait 2 0.2 0 0 0 0 0 0 0 
trait 3 0.3 0 0 0 0 0 0 0 
node 1 2 1 3
node 2 3 1 1
node 3 1 1 1
node 4 1 1 1
node 5 2 1 1
node 6 1 0 2
node 7 1 0 2
node 14 1 0 0
gene 1 1 6 2.83587 0 1 2.83587 1
gene 2 2 6 3.33827 0 2 3.33827 0
gene 3 3 6 3.2756 0 3 3.2756 1
gene 3 4 6 3.23232 0 4 3.23232 1
gene 3 5 6 0.650836 0 5 0.650836 1
gene 2 1 7 -2.9492 0 6 -2.9492 1
gene 3 2 7 3.83509 0 7 3.83509 1
gene 2 3 7 0.00992895 0 8 0.00992895 1
gene 3 4 7 -0.408003 0 9 -0.408003 1
gene 2 5 7 0.86997 0 10 0.86997 1
gene 1 6 7 5.33477 0 18 5.33477 1
gene 2 2 14 -1.72831 0 31 -1.72831 1
gene 2 14 6 1.85124 0 32 1.85124 1
genomeend 75

/* Organism #76 Fitness: 8 Error: 0 */
genomestart 76
trait 1 0.1 0 0 0 0 0 0 0 
trait 2 0.2 0 0 0 0 0 0 0 
trait 3 0.3 0 0 0 0 0 0 0 
node 1 2 1 3
node 2 3 1 1
node 3 1 1 1
node 4 1 1 1
node 5 2 1 1
node 6 1 0 2
node 7 1 0 2
node 14 1 0 0
gene 1 1 6 -0.525439 0 1 -0.525439 1
gene 2 2 6 1.37554 0 2 1.37554 0
gene 3 3 6 2.46505 0 3 2.46505 1
gene 3 4 6 -0.405248 0 4 -0.405248 1
gene 3 5 6 -3.37439 0 5 -3.37439 1
gene 2 1 7 -0.830147 0 6 -0.830147 1
gene 3 2 7 3.48136 0 7 3.48136 1
gene 2 3 7 -0.161039 0 8 -0.161039 1
gene 3 4 7 -4.18631 0 9 -4.18631 1
gene 2 5 7 2.78751 0 10 2.78751 1
gene 1 6 7 0.311956 0 18 0.311956 1
gene 2 2 14 2.5844 0 31 2.5844 1
gene 2 14 6 -1.02346 0 32 -1.02346 1
genomeend 76

/* Organism #77 Fitness: 7 Error: 0 */
genomestart 77
trait 1 0.1 0 0 0 0 0 0 0 
trait 2 0.2 0 0 0 0 0 0 0 
trait 3 0.3 0 0 0 0 0 0 0 
node 1 2 1 3
node 2 3 1 1
node 3 1 1 1
node 4 1 1 1
node 5 2 1 1
node 6 1 0 2
node 7 1 0 2
node 14 1 0 0
gene 1 1 6 1.58939 0 1 1.58939 1
gene 2 2 6 -0.123784 0 2 -0.123784 0
gene 3 3 6 2.63476 0 3 2.63476 1
gene 3 4 6 0.0688993 0 4 0.0688993 1
gene 3 5 6 2.93731 0 5 2.93731 1
gene 2 1 7 -3.74536 0 6 -3.74536 1
gene 3 2 7 0.370878 0 7 0.370878 1
gene 2 3 7 -0.776198 0 8 -0.776198 1
gene 3 4 7 -1.26028 0 9 -1.26028 1
gene 2 5 7 1.35623 0 10 1.35623 1
gene 1 6 7 3.32224 0 18 3.32224 1
gene 2 2 14 3.74779 0 31 3.74779 1
gene 1 14 6 -2.27704 0 32 -2.27704 1
genomeend 77

/* Organism #78 Fitness: 34 Error: 0 */
genomestart 78
trait 1 0.1 0 0 0 0 0 0 0 
trait 2 0.2 0 0 0 0 0 0 0 
trait 3 0.3 0 0 0 0 0 0 0 
node 1 2 1 3
node 2 3 1 1
node 3 1 1 1
node 4 1 1 1
node 5 2 1 1
node 6 1 0 2
node 7 1 0 2
node 14 1 0 0
gene 1 1 6 0.375681 0 1 0.375681 1
gene 2 2 6 1.85124 0 2 1.85124 0
gene 3 3 6 2.14683 0 3 2.14683 1
gene 3 4 6 -0.193627 0 4 -0.193627 1
gene 3 5 6 -1.16012 0 5 -1.16012 1
gene 2 1 7 -1.26068 0 6 -1.26068 1
gene 3 2 7 0.410022 0 7 0.410022 1
gene 2 3 7 -0.999886 0 8 -0.999886 1
gene 3 4 7 -1.12824 0 9 -1.12824 1
gene 2 5 7 1.2366 0 10 1.2366 1
gene 1 6 7 2.10798 0 18 2.10798 1
gene 2 2 14 1 0 31 0 1
gene 2 14 6 1.85124 0 32 0 1
gene 3 5 14 -0.581236 0 39 0 1
genomeend 78

/* Organism #79 Fitness: 10 Error: 0 */
genomestart 79
trait 1 0.1 0 0 0 0 0 0 0 
trait 2 0.2 0 0 0 0 0 0 0 
trait 3 0.3 0 0 0 0 0 0 0 
node 1 2 1 3
node 2 3 1 1
node 3 1 1 1
node 4 1 1 1
node 5 2 1 1
node 6 1 0 2
node 7 1 0 2
node 14 1 0 0
gene 1 1 6 1.62809 0 1 1.62809 1
gene 2 2 6 2.57173 0 2 2.57173 0
gene 3 3 6 0.401361 0 3 0.401361 1
gene 3 4 6 -0.63867 0 4 -0.63867 1
gene 3 5 6 -3.31852 0 5 -3.31852 1
gene 2 1 7 2.5726 0 6 2.5726 1
gene 3 2 7 -2.2982 0 7 -2.2982 1
gene 2 3 7 -0.305091 0 8 -0.305091 1
gene 3 4 7 0.7268 0 9 0.7268 1
gene 2 5 7 -0.216656 0 10 -0.216656 1
gene 1 6 7 5.12465 0 18 5.12465 1
gene 2 2 14 1.37893 0 31 1.37893 1
gene 2 14 6 1.57242 0 32 1.57242 1
genomeend 79

/* Organism #80 Fitness: 8 Error: 0 */
genomestart 80
trait 1 0.1 0 0 0 0 0 0 0 
trait 2 0.2 0 0 0 0 0 0 0 
trait 3 0.3 0 0 0 0 0 0 0 
node 1 2 1 3
node 2 3 1 1
node 3 1 1 1
node 4 1 1 1
node 5 2 1 1
node 6 1 0 2
node 7 1 0 2
node 14 1 0 0
gene 1 1 6 2.20543 0 1 2.20543 1
gene 2 2 6 -0.549414 0 2 -0.549414 0
gene 3 3 6 1.64914 0 3 1.64914 1
gene 3 4 6 0.536919 0 4 0.536919 1
gene 3 5 6 -3.19736 0 5 -3.19736 1
gene 2 1 7 0.283025 0 6 0.283025 1
gene 3 2 7 -0.28363 0 7 -0.28363 1
gene 2 3 7 0.19084 0 8 0.19084 1
gene 3 4 7 1.65163 0 9 1.65163 1
gene 2 5 7 1.2366 0 10 1.2366 1
gene 1 6 7 2.10798 0 18 2.10798 1
gene 2 2 14 0.00175138 0 31 0.00175138 1
gene 2 14 6 -0.0498376 0 32 -0.0498376 1
genomeend 80

/* Organism #81 Fitness: 19 Error: 0 */
genomestart 81
trait 1 0 0.72269 0 0.698446 0.113451 0 0.271591 0.364964 
trait 2 0.2 0 0 0 0 0 0 0 
trait 3 0.3 0 0 0 0 0 0 0 
node 1 2 1 3
node 2 3 1 1
node 3 1 1 1
node 4 1 1 1
node 5 2 1 1
node 6 1 0 2
node 7 1 0 2
node 14 1 0 0
gene 1 1 6 0.404208 0 1 0.404208 1
gene 2 2 6 5.42466 0 2 5.42466 0
gene 3 3 6 4.41043 0 3 4.41043 1
gene 3 4 6 1.3767 0 4 1.3767 1
gene 3 5 6 -1.28793 0 5 -1.28793 1
gene 2 1 7 -1.26068 0 6 -1.26068 1
gene 3 2 7 1.84704 0 7 1.84704 1
gene 2 3 7 -2.86567 0 8 -2.86567 1
gene 3 4 7 -3.77176 0 9 -3.77176 1
gene 2 5 7 -1.59232 0 10 -1.59232 1
gene 1 6 7 6.1312 0 18 6.1312 1
gene 2 2 14 1.87652 0 31 1.87652 1
gene 2 14 6 0.625408 0 32 0.625408 1
genomeend 81

/* Organism #82 Fitness: 17 Error: 0 */
genomestart 82
trait 1 0.1 0 0 0 0 0 0 0 
trait 2 0.2 0 0 0 0 0 0 0 
trait 3 0.3 0 0 0 0 0 0 0 
node 1 2 1 3
node 2 3 1 1
node 3 1 1 1
node 4 1 1 1
node 5 2 1 1
node 6 1 0 2
node 7 1 0 2
node 14 1 0 0
node 22 1 0 0
gene 1 1 6 0.546541 0 1 0.546541 1
gene 2 2 6 0.820137 0 2 0.820137 0
gene 3 3 6 1.50411 0 3 1.50411 1
gene 3 4 6 -1.11629 0 4 -1.11629 1
gene 3 5 6 -1.36556 0 5 -1.36556 1
gene 2 1 7 -2.57058 0 6 -2.57058 1
gene 3 2 7 2.2176 0 7 2.2176 1
gene 2 3 7 -0.594137 0 8 -0.594137 1
gene 3 4 7 -2.18758 0 9 -2.18758 1
gene 2 5 7 1.13833 0 10 1.13833 1
gene 1 6 7 0.554414 0 18 0.554414 0
gene 2 2 14 1.1534 0 31 1.1534 1
gene 2 14 6 -0.0117884 0 32 -0.0117884 1
gene 1 6 22 1 0 54 0 1
gene 1 22 7 0.554414 0 55 0 1
genomeend 82

/* Organism #83 Fitness: 3 Error: 0 */
genomestart 83
trait 1 0.1 0 0 0 0 0 0 0 
trait 2 0.2 0 0 0 0 0 0 0 
trait 3 0.3 0 0 0 0 0 0 0 
node 1 2 1 3
node 2 3 1 1
node 3 1 1 1
node 4 1 1 1
node 5 2 1 1
node 6 1 0 2
node 7 1 0 2
node 14 1 0 0
gene 1 1 6 2.5878 0 1 2.5878 1
gene 2 2 6 -2.43088 0 2 -2.43088 0
gene 3 3 6 4.11955 0 3 4.11955 1
gene 3 4 6 -0.236826 0 4 -0.236826 1
gene 3 5 6 -1.09013 0 5 -1.09013 1
gene 2 1 7 -0.417899 0 6 -0.417899 1
gene 3 2 7 4.26159 0 7 4.26159 1
gene 2 3 7 -3.34403 0 8 -3.34403 1
gene 3 4 7 -0.275549 0 9 -0.275549 1
gene 2 5 7 0.124593 0 10 0.124593 1
gene 1 6 7 -0.384586 0 18 -0.384586 1
gene 2 2 14 1.98133 0 31 1.98133 1
gene 2 14 6 0.425653 0 32 0.425653 1
genomeend 83

/* Organism #84 Fitness: 21 Error: 0 */
genomestart 84
trait 1 0.1 0 0 0 0 0 0 0 
trait 2 0.2 0 0 0 0 0 0 0 
trait 3 0.3 0 0 0 0 0 0 0 
node 1 2 1 3
node 2 3 1 1
node 3 1 1 1
node 4 1 1 1
node 5 2 1 1
node 6 1 0 2
node 7 1 0 2
node 14 1 0 0
node 17 1 0 0
gene 1 1 6 -0.766118 0 1 -0.766118 1
gene 2 2 6 3.66545 0 2 3.66545 0
gene 3 3 6 0.506258 0 3 0.506258 1
gene 3 4 6 2.30297 0 4 2.30297 1
gene 3 5 6 -4.5699 0 5 -4.5699 1
gene 2 1 7 -0.217324 0 6 -0.217324 1
gene 3 2 7 -1.57185 0 7 -1.57185 1
gene 2 3 7 -3.42443 0 8 -3.42443 1
gene 3 4 7 -1.40124 0 9 -1.40124 1
gene 2 5 7 1.29339 0 10 1.29339 1
gene 1 6 7 -0.288815 0 18 -0.288815 1
gene 2 2 14 0.968874 0 31 0.968874 0
gene 2 14 6 2.14304 0 32 2.14304 1
gene 2 2 17 -0.335154 0 41 -0.335154 1
gene 2 17 14 3.21707 0 42 3.21707 1
genomeend 84

/* Organism #85 Fitness: 7 Error: 0 */
genomestart 85
trait 1 0.1 0 0 0 0 0 0 0 
trait 2 0.2 0 0 0 0 0 0 0 
trait 3 0.3 0 0 0 0 0 0 0 
node 1 2 1 3
node 2 3 1 1
node 3 1 1 1
node 4 1 1 1
node 5 2 1 1
node 6 1 0 2
node 7 1 0 2
node 14 3 0 0
gene 1 1 6 -0.302045 0 1 -0.302045 1
gene 2 2 6 3.02437 0 2 3.02437 0
gene 3 3 6 2.03266 0 3 2.03266 1
gene 3 4 6 -4.28754 0 4 -4.28754 1
gene 3 5 6 -1.39189 0 5 -1.39189 1
gene 2 1 7 1.9931 0 6 1.9931 1
gene 3 2 7 -1.91865 0 7 -1.91865 1
gene 2 3 7 1.08618 0 8 1.08618 1
gene 3 4 7 1.29034 0 9 1.29034 1
gene 2 5 7 1.59819 0 10 1.59819 1
gene 1 6 7 0.522427 0 18 0.522427 1
gene 2 2 14 -2.96458 0 31 -2.96458 0
gene 2 14 6 -0.455778 0 32 -0.455778 1
genomeend 85

/* Organism #86 Fitness: 116 Error: 0 */
genomestart 86
trait 1 0.1 0 0 0 0 0 0 0 
trait 2 0.2 0 0 0 0 0 0 0 
trait 3 0.3 0 0 0 0 0 0 0 
node 1 2 1 3
node 2 3 1 1
node 3 1 1 1
node 4 1 1 1
node 5 2 1 1
node 6 1 0 2
node 7 1 0 2
node 14 1 0 0
gene 1 1 6 0.610337 0 1 0.610337 1
gene 2 2 6 3.26532 0 2 3.26532 0
gene 3 3 6 -0.0294978 0 3 -0.0294978 1
gene 3 4 6 -2.4206 0 4 -2.4206 1
gene 3 5 6 0.745029 0 5 0.745029 1
gene 2 1 7 0.52727 0 6 0.52727 1
gene 3 2 7 -1.43493 0 7 -1.43493 1
gene 2 3 7 -1.3241 0 8 -1.3241 1
gene 3 4 7 1.12311 0 9 1.12311 1
gene 2 5 7 3.63863 0 10 3.63863 1
gene 1 6 7 0.522938 0 18 0.522938 1
gene 2 2 14 1 0 31 1 1
gene 2 14 6 2.76671 0 32 2.76671 1
genomeend 86

/* Organism #87 Fitness: 11 Error: 0 */
genomestart 87
trait 1 0.1 0 0 0 0 0 0 0 
trait 2 0.2 0 0 0 0 0 0 0 
trait 3 0.3 0 0 0 0 0 0 0 
node 1 2 1 3
node 2 3 1 1
node 3 1 1 1
node 4 1 1 1
node 5 2 1 1
node 6 1 0 2
node 7 1 0 2
node 14 1 0 0
gene 1 1 6 -0.0312643 0 1 -0.0312643 1
gene 2 2 6 0.025715 0 2 0.025715 0
gene 3 3 6 2.70098 0 3 2.70098 1
gene 3 4 6 0.219214 0 4 0.219214 1
gene 3 5 6 -1.42194 0 5 -1.42194 1
gene 2 1 7 1.67017 0 6 1.67017 1
gene 3 2 7 -0.371161 0 7 -0.371161 1
gene 2 3 7 -3.22586 0 8 -3.22586 1
gene 3 4 7 0.701268 0 9 0.701268 1
gene 2 5 7 -1.65886 0 10 -1.65886 1
gene 1 6 7 -0.166376 0 18 -0.166376 1
gene 2 2 14 -1.12607 0 31 -1.12607 1
gene 2 14 6 3.14583 0 32 3.14583 1
genomeend 87

/* Organism #88 Fitness: 11 Error: 0 */
genomestart 88
trait 1 0.1 0 0 0 0 0 0 0 
trait 2 0.2 0 0 0 0 0 0 0 
trait 3 0.3 0 0 0 0 0 0 0 
node 1 2 1 3
node 2 3 1 1
node 3 1 1 1
node 4 1 1 1
node 5 2 1 1
node 6 1 0 2
node 7 1 0 2
node 14 1 0 0
gene 1 1 6 0.375681 0 1 0.375681 1
gene 2 2 6 1.85124 0 2 1.85124 0
gene 3 3 6 2.14683 0 3 2.14683 1
gene 3 4 6 -0.193627 0 4 -0.193627 1
gene 3 5 6 -1.16012 0 5 -1.16012 1
gene 2 1 7 -1.26068 0 6 -1.26068 1
gene 3 2 7 0.410022 0 7 0.410022 1
gene 2 3 7 -0.999886 0 8 -0.999886 1
gene 3 4 7 -1.12824 0 9 -1.12824 1
gene 2 5 7 1.2366 0 10 1.2366 1
gene 1 6 7 2.10798 0 18 2.10798 1
gene 2 2 14 1 0 31 0 1
gene 2 14 6 1.85124 0 32 0 1
gene 2 3 14 -0.829281 0 56 -0.829281 1
genomeend 88

/* Organism #89 Fitness: 23 Error: 0 */
genomestart 89
trait 1 0.1 0 0 0 0 0 0 0 
trait 2 0.2 0 0 0 0 0 0 0 
trait 3 0.3 0 0 0 0 0 0 0 
node 1 2 1 3
node 2 3 1 1
node 3 1 1 1
node 4 1 1 1
node 5 2 1 1
node 6 1 0 2
node 7 1 0 2
node 14 1 0 0
gene 1 1 6 -1.25802 0 1 -1.25802 1
gene 2 2 6 -0.408986 0 2 -0.408986 0
gene 3 3 6 4.34311 0 3 4.34311 1
gene 3 4 6 1.64019 0 4 1.64019 1
gene 3 5 6 -2.28443 0 5 -2.28443 1
gene 2 1 7 0.922536 0 6 0.922536 1
gene 3 2 7 1.83865 0 7 1.83865 1
gene 2 3 7 -1.32502 0 8 -1.32502 1
gene 3 4 7 -2.2305 0 9 -2.2305 1
gene 2 5 7 -0.106896 0 10 -0.106896 1
gene 1 6 7 4.52526 0 18 4.52526 1
gene 2 2 14 -0.751096 0 31 -0.751096 1
gene 2 14 6 -0.108099 0 32 -0.108099 1
genomeend 89

/* Organism #90 Fitness: 15 Error: 0 */
genomestart 90
trait 1 0.1 0 0 0 0 0 0 0 
trait 2 0.2 0 0 0 0 0 0 0 
trait 3 0.3 0 0 0 0 0 0 0 
node 1 2 1 3
node 2 3 1 1
node 3 1 1 1
node 4 1 1 1
node 5 2 1 1
node 6 1 0 2
node 7 1 0 2
node 14 1 0 0
gene 1 1 6 -1.49377 0 1 -1.49377 1
gene 2 2 6 -1.2856 0 2 -1.2856 0
gene 3 3 6 1.37668 0 3 1.37668 1
gene 3 4 6 2.19065 0 4 2.19065 1
gene 3 5 6 -2.42379 0 5 -2.42379 1
gene 2 1 7 -1.51065 0 6 -1.51065 1
gene 3 2 7 -1.75954 0 7 -1.75954 1
gene 2 3 7 -2.79673 0 8 -2.79673 1
gene 3 4 7 0.21318 0 9 0.21318 1
gene 2 5 7 1.2366 0 10 1.2366 1
gene 1 6 7 3.64883 0 18 3.64883 1
gene 2 2 14 -0.869472 0 31 -0.869472 1
gene 2 14 6 0.396279 0 32 0.396279 1
genomeend 90

/* Organism #91 Fitness: 3 Error: 0 */
genomestart 91
trait 1 0.1 0 0 0 0 0 0 0 
trait 2 0.2 0 0 0 0 0 0 0 
trait 3 0.3 0 0 0 0 0 0 0 
node 1 2 1 3
node 2 3 1 1
node 3 1 1 1
node 4 1 1 1
node 5 2 1 1
node 6 1 0 2
node 7 1 0 2
node 14 1 0 0
node 17 1 0 0
gene 1 1 6 0.518154 0 1 0.518154 1
gene 2 2 6 0.680297 0 2 0.680297 1
gene 3 3 6 2.21819 0 3 2.21819 1
gene 3 4 6 0.035024 0 4 0.035024 1
gene 3 5 6 -1.24968 0 5 -1.24968 1
gene 2 1 7 -1.98099 0 6 -1.98099 1
gene 3 2 7 1.35752 0 7 1.35752 1
gene 2 3 7 -1.40914 0 8 -1.40914 1
gene 3 4 7 -1.84505 0 9 -1.84505 1
gene 2 5 7 1.70455 0 10 1.70455 1
gene 1 6 7 1.16817 0 18 1.16817 1
gene 2 2 14 2.16847 0 31 1.66847 1
gene 2 14 6 1.94191 0 32 1.01629 1
gene 2 2 17 1 0 41 0 1
gene 2 17 14 1 0 42 0 1
genomeend 91

/* Organism #92 Fitness: 3 Error: 0 */
genomestart 92
trait 1 0.1 0 0 0 0 0 0 0 
trait 2 0.2 0 0 0 0 0 0 0 
trait 3 0.3 0 0 0 0 0 0 0 
node 1 2 1 3
node 2 3 1 1
node 3 1 1 1
node 4 1 1 1
node 5 2 1 1
node 6 1 0 2
node 7 1 0 2
node 14 1 0 0
node 17 1 0 0
gene 1 1 6 2.8529 0 1 2.8529 1
gene 2 2 6 1.69818 0 2 1.69818 0
gene 3 3 6 0.282109 0 3 0.282109 1
gene 3 4 6 -0.867738 0 4 -0.867738 1
gene 3 5 6 -3.54597 0 5 -3.54597 1
gene 2 1 7 2.08814 0 6 2.08814 1
gene 3 2 7 2.3709 0 7 2.3709 1
gene 2 3 7 -0.999886 0 8 -0.999886 1
gene 3 4 7 -1.20887 0 9 -1.20887 1
gene 2 5 7 2.23182 0 10 2.23182 1
gene 1 6 7 2.25127 0 18 2.25127 1
gene 2 2 14 1.18255 0 31 1.18255 0
gene 2 14 6 3.06301 0 32 3.06301 1
gene 2 2 17 0.363278 0 41 0.363278 1
gene 2 17 14 2.97566 0 42 2.97566 1
genomeend 92

/* Organism #93 Fitness: 18 Error: 0 */
genomestart 93
trait 1 0.05 0 0 0 0 0.105185 0 0 
trait 2 0.2 0 0 0 0 0 0 0 
trait 3 0.3 0 0 0 0 0 0 0 
node 1 2 1 3
node 2 3 1 1
node 3 1 1 1
node 4 1 1 1
node 5 2 1 1
node 6 1 0 2
node 7 1 0 2
node 14 1 0 0
node 23 1 0 0
gene 1 1 6 0.58967 0 1 0.58967 1
gene 2 2 6 1.85124 0 2 1.85124 0
gene 3 3 6 1.00572 0 3 1.00572 0
gene 3 4 6 1.81629 0 4 1.81629 1
gene 3 5 6 -1.02022 0 5 -1.02022 1
gene 2 1 7 -2.64039 0 6 -2.64039 1
gene 3 2 7 2.80804 0 7 2.80804 1
gene 2 3 7 1.02583 0 8 1.02583 1
gene 3 4 7 0.570152 0 9 0.570152 1
gene 2 5 7 0.888418 0 10 0.888418 1
gene 1 6 7 2.69076 0 18 2.69076 1
gene 2 2 14 0.732443 0 31 0.732443 1
gene 2 14 6 3.70077 0 32 3.70077 1
gene 3 3 23 1 0 57 0 1
gene 3 23 6 1.00572 0 58 0 1
genomeend 93

/* Organism #94 Fitness: 4 Error: 0 */
genomestart 94
trait 1 0.1 0 0 0 0 0 0 0 
trait 2 0.2 0 0 0 0 0 0 0 
trait 3 0.3 0 0 0 0 0 0 0 
node 1 2 1 3
node 2 3 1 1
node 3 1 1 1
node 4 1 1 1
node 5 2 1 1
node 6 1 0 2
node 7 1 0 2
node 14 1 0 0
gene 1 1 6 0.93646 0 1 0.93646 1
gene 2 2 6 1.3104 0 2 1.3104 0
gene 3 3 6 1.1431 0 3 1.1431 1
gene 3 4 6 0.605585 0 4 0.605585 1
gene 3 5 6 -3.50861 0 5 -3.50861 1
gene 2 1 7 -1.05103 0 6 -1.05103 1
gene 3 2 7 1.09943 0 7 1.09943 1
gene 2 3 7 -1.38952 0 8 -1.38952 1
gene 3 4 7 -1.15461 0 9 -1.15461 1
gene 2 5 7 0.903018 0 10 0.903018 1
gene 1 6 7 2.18449 0 18 2.18449 1
gene 2 2 14 0.688776 0 31 0.688776 1
gene 2 14 6 2.49853 0 32 2.49853 1
gene 2 1 14 0.158879 0 59 0.158879 1
genomeend 94

/* Organism #95 Fitness: 32 Error: 0 */
genomestart 95
trait 1 0.1 0 0 0 0 0 0 0 
trait 2 0.2 0 0 0 0 0 0 0 
trait 3 0.3 0 0 0 0 0 0 0 
node 1 2 1 3
node 2 3 1 1
node 3 1 1 1
node 4 1 1 1
node 5 2 1 1
node 6 1 0 2
node 7 1 0 2
node 14 1 0 0
gene 1 1 6 0.772001 0 1 0.772001 1
gene 2 2 6 0.356368 0 2 0.356368 0
gene 3 3 6 4.32213 0 3 4.32213 1
gene 3 4 6 -1.20178 0 4 -1.20178 1
gene 3 5 6 -4.59793 0 5 -4.59793 1
gene 2 1 7 -1.81854 0 6 -1.81854 1
gene 3 2 7 -0.887417 0 7 -0.887417 1
gene 2 3 7 -0.649232 0 8 -0.649232 1
gene 3 4 7 -2.81203 0 9 -2.81203 1
gene 2 5 7 0.223508 0 10 0.223508 1
gene 1 6 7 1.96259 0 18 1.96259 1
gene 2 2 14 1.05451 0 31 1.05451 1
gene 2 14 6 -1.09024 0 32 -1.09024 1
genomeend 95

/* Organism #96 Fitness: 8 Error: 0 */
genomestart 96
trait 1 0.1 0 0 0 0 0 0 0 
trait 2 0.2 0.913765 0 0 0 0.727543 0.132779 0 
trait 3 0.3 0 0 0 0 0 0 0 
node 1 2 1 3
node 2 3 1 1
node 3 1 1 1
node 4 1 1 1
node 5 2 1 1
node 6 1 0 2
node 7 1 0 2
node 14 1 0 0
gene 1 1 6 -2.90864 0 1 -2.90864 1
gene 2 2 6 3.45613 0 2 3.45613 0
gene 3 3 6 0.642585 0 3 0.642585 1
gene 3 4 6 -0.692794 0 4 -0.692794 1
gene 3 5 6 -0.454485 0 5 -0.454485 1
gene 2 1 7 0.554217 0 6 0.554217 1
gene 3 2 7 0.373963 0 7 0.373963 1
gene 2 3 7 -2.06464 0 8 -2.06464 1
gene 3 4 7 -3.3723 0 9 -3.3723 1
gene 2 5 7 -1.43089 0 10 -1.43089 1
gene 1 6 7 2.26764 0 18 2.26764 1
gene 2 2 14 1.79414 0 31 1.79414 1
gene 2 14 6 3.79955 0 32 3.79955 1
genomeend 96

/* Organism #97 Fitness: 3 Error: 0 */
genomestart 97
trait 1 0.1 0 0 0 0 0 0 0 
trait 2 0.2 0 0 0 0 0 0 0 
trait 3 0.3 0 0 0 0 0 0 0 
node 1 2 1 3
node 2 3 1 1
node 3 1 1 1
node 4 1 1 1
node 5 2 1 1
node 6 1 0 2
node 7 1 0 2
node 14 1 0 0
gene 1 1 6 -3.64877 0 1 -3.64877 1
gene 2 2 6 1.51151 0 2 1.51151 0
gene 3 3 6 2.54874 0 3 2.54874 1
gene 3 4 6 -0.53578 0 4 -0.53578 1
gene 3 5 6 -1.43235 0 5 -1.43235 1
gene 2 1 7 -0.323864 0 6 -0.323864 1
gene 3 2 7 -2.84841 0 7 -2.84841 1
gene 2 3 7 -4.12157 0 8 -4.12157 1
gene 3 4 7 -5.63665 0 9 -5.63665 1
gene 2 5 7 -0.767074 0 10 -0.767074 1
gene 1 6 7 1.47433 0 18 1.47433 1
gene 2 2 14 1.50332 0 31 1.50332 1
gene 2 14 6 4.94332 0 32 4.94332 1
genomeend 97

/* Organism #98 Fitness: 9 Error: 0 */
genomestart 98
trait 1 0.1 0 0 0 0 0 0 0 
trait 2 0.2 0 0 0 0 0 0 0 
trait 3 0.3 0 0 0 0 0 0 0 
node 1 2 1 3
node 2 3 1 1
node 3 1 1 1
node 4 1 1 1
node 5 2 1 1
node 6 1 0 2
node 7 1 0 2
node 14 1 0 0
gene 1 1 6 2.87682 0 1 2.87682 1
gene 2 2 6 -0.873969 0 2 -0.873969 0
gene 3 3 6 3.24364 0 3 3.24364 1
gene 3 4 6 0.565739 0 4 0.565739 1
gene 3 5 6 2.6661 0 5 2.6661 1
gene 2 1 7 -3.00473 0 6 -3.00473 1
gene 3 2 7 2.61463 0 7 2.61463 1
gene 2 3 7 -2.04074 0 8 -2.04074 1
gene 3 4 7 0.332468 0 9 0.332468 1
gene 2 5 7 1.97186 0 10 1.97186 1
gene 1 6 7 0.166022 0 18 0.166022 1
gene 2 2 14 0.292531 0 31 0.292531 1
gene 2 14 6 1.16447 0 32 1.16447 1
genomeend 98

/* Organism #99 Fitness: 4 Error: 0 */
genomestart 99
trait 1 0.1 0 0 0 0 0 0 0 
trait 2 0.2 0 0 0 0 0 0 0 
trait 3 0.3 0 0 0 0 0 0 0 
node 1 2 1 3
node 2 3 1 1
node 3 1 1 1
node 4 1 1 1
node 5 2 1 1
node 6 1 0 2
node 7 1 0 2
node 14 1 0 0
gene 1 1 6 -0.348124 0 1 -0.348124 1
gene 2 2 6 1.05089 0 2 1.05089 0
gene 3 3 6 -1.42904 0 3 -1.42904 1
gene 3 4 6 -0.0180789 0 4 -0.0180789 1
gene 3 5 6 -1.16012 0 5 -1.16012 1
gene 2 1 7 -1.39076 0 6 -1.39076 1
gene 3 2 7 -1.56191 0 7 -1.56191 1
gene 2 3 7 -2.05877 0 8 -2.05877 1
gene 3 4 7 0.516202 0 9 0.516202 1
gene 2 5 7 1.48105 0 10 1.48105 1
gene 1 6 7 -2.04768 0 18 -2.04768 1
gene 2 2 14 -1.16112 0 31 -1.16112 1
gene 2 14 6 2.12765 0 32 2.12765 1
genomeend 99

/* Organism #100 Fitness: 4 Error: 0 */
genomestart 100
trait 1 0.1 0 0 0 0 0 0 0 
trait 2 0.2 0 0 0 0 0 0 0 
trait 3 0.3 0 0 0 0 0 0 0 
node 1 2 1 3
node 2 3 1 1
node 3 1 1 1
node 4 1 1 1
node 5 2 1 1
node 6 1 0 2
node 7 1 0 2
node 14 1 0 0
gene 1 1 6 0.90005 0 1 0.90005 1
gene 2 2 6 2.13092 0 2 2.13092 0
gene 3 3 6 1.43293 0 3 1.43293 1
gene 3 4 6 -1.42965 0 4 -1.42965 1
gene 3 5 6 0.758295 0 5 0.758295 1
gene 2 1 7 -3.61091 0 6 -3.61091 1
gene 3 2 7 0.509202 0 7 0.509202 1
gene 2 3 7 2.71909 0 8 2.71909 1
gene 3 4 7 -1.61599 0 9 -1.61599 1
gene 2 5 7 2.30055 0 10 2.30055 1
gene 1 6 7 1.63786 0 18 1.63786 1
gene 2 2 14 -0.652873 0 31 -0.652873 1
gene 2 14 6 -0.414574 0 32 -0.414574 1
genomeend 100

/* Organism #101 Fitness: 20 Error: 0 */
genomestart 101
trait 1 0.1 0 0 0 0 0 0 0 
trait 2 0.2 0 0 0 0 0 0 0 
trait 3 0.3 0 0 0 0 0 0 0 
node 1 2 1 3
node 2 3 1 1
node 3 1 1 1
node 4 1 1 1
node 5 2 1 1
node 6 1 0 2
node 7 1 0 2
node 14 1 0 0
gene 1 1 6 1.36396 0 1 1.36396 1
gene 2 2 6 4.08047 0 2 4.08047 0
gene 3 3 6 3.48265 0 3 3.48265 1
gene 3 4 6 0.0520194 0 4 0.0520194 1
gene 3 5 6 -3.36195 0 5 -3.36195 1
gene 2 1 7 -0.0390183 0 6 -0.0390183 1
gene 3 2 7 -0.521049 0 7 -0.521049 1
gene 2 3 7 -3.25287 0 8 -3.25287 1
gene 3 4 7 -2.29773 0 9 -2.29773 1
gene 2 5 7 1.29675 0 10 1.29675 1
gene 1 6 7 1.25197 0 18 1.25197 1
gene 2 2 14 1.10166 0 31 1.10166 1
gene 2 14 6 1.97992 0 32 1.97992 1
genomeend 101

/* Organism #102 Fitness: 11 Error: 0 */
genomestart 102
trait 1 0.1 0 0 0 0 0 0 0 
trait 2 0.2 0 0 0 0 0 0 0 
trait 3 0.3 0 0 0 0 0 0 0 
node 1 2 1 3
node 2 3 1 1
node 3 1 1 1
node 4 1 1 1
node 5 2 1 1
node 6 1 0 2
node 7 1 0 2
node 14 1 0 0
gene 1 1 6 1.31719 0 1 1.31719 1
gene 2 2 6 5.09389 0 2 5.09389 0
gene 3 3 6 1.89281 0 3 1.89281 1
gene 3 4 6 0.213999 0 4 0.213999 1
gene 3 5 6 -0.32457 0 5 -0.32457 1
gene 2 1 7 0.982779 0 6 0.982779 1
gene 3 2 7 0.818713 0 7 0.818713 1
gene 2 3 7 -0.452494 0 8 -0.452494 1
gene 3 4 7 3.45329 0 9 3.45329 1
gene 2 5 7 -0.421003 0 10 -0.421003 1
gene 1 6 7 2.10798 0 18 2.10798 1
gene 2 2 14 -1.0589 0 31 -1.0589 1
gene 2 14 6 -0.386081 0 32 -0.386081 1
genomeend 102

/* Organism #103 Fitness: 6 Error: 0 */
genomestart 103
trait 1 0.1 0 0 0 0 0 0 0 
trait 2 0.2 0 0 0 0 0 0 0 
trait 3 0.3 0 0 0 0 0 0 0 
node 1 2 1 3
node 2 3 1 1
node 3 1 1 1
node 4 1 1 1
node 5 2 1 1
node 6 1 0 2
node 7 1 0 2
node 14 1 0 0
gene 1 1 6 -2.09593 0 1 -2.09593 1
gene 2 2 6 0.943255 0 2 0.943255 0
gene 3 3 6 3.84738 0 3 3.84738 1
gene 3 4 6 -0.09581 0 4 -0.09581 1
gene 3 5 6 0.897288 0 5 0.897288 1
gene 1 1 7 -1.59763 0 6 -1.59763 1
gene 3 2 7 -1.8879 0 7 -1.8879 1
gene 2 3 7 -0.893291 0 8 -0.893291 1
gene 3 4 7 -0.728013 0 9 -0.728013 1
gene 2 5 7 2.23936 0 10 2.23936 1
gene 1 6 7 -0.338514 0 18 -0.338514 1
gene 2 2 14 1.04431 0 31 1.04431 1
gene 2 14 6 -0.627218 0 32 -0.627218 1
genomeend 103

/* Organism #104 Fitness: 1 Error: 0 */
genomestart 104
trait 1 0.1 0 0 0 0 0 0 0 
trait 2 0.2 0 0 0 0 0 0 0 
trait 3 0.573171 0 0 0 0 0 0.520402 0 
node 1 2 1 3
node 2 3 1 1
node 3 1 1 1
node 4 3 1 1
node 5 2 1 1
node 6 1 0 2
node 7 1 0 2
node 14 1 0 0
gene 1 1 6 1.43778 0 1 1.43778 1
gene 2 2 6 1.85124 0 2 1.85124 0
gene 3 3 6 2.14683 0 3 2.14683 1
gene 3 4 6 2.19065 0 4 2.19065 1
gene 3 5 6 -3.47953 0 5 -3.47953 1
gene 2 1 7 -2.02732 0 6 -2.02732 1
gene 3 2 7 0.347136 0 7 0.347136 1
gene 2 3 7 -0.999886 0 8 -0.999886 1
gene 3 4 7 -2.26749 0 9 -2.26749 1
gene 2 5 7 1.2366 0 10 1.2366 1
gene 1 6 7 2.10798 0 18 2.10798 1
gene 2 2 14 1 0 31 0 1
gene 2 14 6 1.85124 0 32 0 1
genomeend 104

/* Organism #105 Fitness: 42 Error: 0 */
genomestart 105
trait 1 0.1 0 0 0 0 0 0 0 
trait 2 0.2 0 0 0 0 0 0 0 
trait 3 0.3 0 0 0 0 0 0 0 
node 1 2 1 3
node 2 3 1 1
node 3 1 1 1
node 4 1 1 1
node 5 2 1 1
node 6 1 0 2
node 7 1 0 2
node 14 1 0 0
gene 1 1 6 1.37496 0 1 1.37496 1
gene 2 2 6 2.8994 0 2 2.8994 1
gene 3 3 6 1.59969 0 3 1.59969 1
gene 3 4 6 0.50652 0 4 0.50652 1
gene 3 5 6 -0.299855 0 5 -0.299855 1
gene 2 1 7 -4.06919 0 6 -4.06919 1
gene 3 2 7 0.481248 0 7 0.481248 1
gene 2 3 7 -1.22379 0 8 -1.22379 1
gene 3 4 7 2.23934 0 9 2.23934 1
gene 2 5 7 3.07412 0 10 3.07412 1
gene 1 6 7 2.33744 0 18 2.33744 1
gene 2 2 14 0.898704 0 31 0.898704 1
gene 2 14 6 1.88883 0 32 1.88883 1
genomeend 105

/* Organism #106 Fitness: 19 Error: 0 */
genomestart 106
trait 1 0.1 0 0 0 0 0 0 0 
trait 2 0.2 0 0 0 0 0 0 0 
trait 3 0.3 0 0 0 0 0 0 0 
node 1 2 1 3
node 2 3 1 1
node 3 1 1 1
node 4 1 1 1
node 5 2 1 1
node 6 1 0 2
node 7 1 0 2
node 14 1 0 0
gene 1 1 6 -1.2542 0 1 -1.2542 1
gene 2 2 6 1.19336 0 2 1.19336 0
gene 3 3 6 2.53247 0 3 2.53247 1
gene 3 4 6 -1.04387 0 4 -1.04387 1
gene 3 5 6 -4.75521 0 5 -4.75521 1
gene 2 1 7 -0.405211 0 6 -0.405211 1
gene 3 2 7 1.02334 0 7 1.02334 1
gene 2 3 7 -1.31819 0 8 -1.31819 1
gene 3 4 7 -0.520695 0 9 -0.520695 1
gene 2 5 7 0.404317 0 10 0.404317 1
gene 1 6 7 1.86049 0 18 1.86049 1
gene 2 2 14 1.93887 0 31 1.93887 1
gene 2 14 6 1.82196 0 32 1.82196 1
genomeend 106

/* Organism #107 Fitness: 7 Error: 0 */
genomestart 107
trait 1 0.1 0 0 0 0 0 0 0 
trait 2 0.2 0 0 0 0 0 0 0 
trait 3 0.3 0 0 0 0 0 0 0 
node 1 2 1 3
node 2 3 1 1
node 3 1 1 1
node 4 1 1 1
node 5 2 1 1
node 6 1 0 2
node 7 1 0 2
node 14 1 0 0
gene 1 1 6 1.59039 0 1 1.59039 1
gene 2 2 6 2.78059 0 2 2.78059 0
gene 3 3 6 -1.35487 0 3 -1.35487 1
gene 3 4 6 -1.55965 0 4 -1.55965 1
gene 3 5 6 -3.43316 0 5 -3.43316 1
gene 2 1 7 -0.166698 0 6 -0.166698 1
gene 3 2 7 0.410022 0 7 0.410022 1
gene 2 3 7 -1.31537 0 8 -1.31537 1
gene 3 4 7 -4.10994 0 9 -4.10994 1
gene 2 5 7 1.5179 0 10 1.5179 1
gene 1 6 7 4.49211 0 18 4.49211 1
gene 2 2 14 -0.638722 0 31 -0.638722 0
gene 2 14 6 2.9984 0 32 2.9984 1
genomeend 107

/* Organism #108 Fitness: 6 Error: 0 */
genomestart 108
trait 1 0.1 0 0 0 0 0 0 0 
trait 2 0.2 0 0 0 0 0 0 0 
trait 3 0.3 0 0 0 0 0 0 0 
node 1 2 1 3
node 2 3 1 1
node 3 1 1 1
node 4 1 1 1
node 5 2 1 1
node 6 1 0 2
node 7 1 0 2
node 14 1 0 0
gene 1 1 6 0.375681 0 1 0.375681 1
gene 2 2 6 1.85124 0 2 1.85124 0
gene 3 3 6 2.14683 0 3 2.14683 1
gene 3 4 6 -0.193627 0 4 -0.193627 1
gene 3 5 6 -1.16012 0 5 -1.16012 1
gene 2 1 7 -1.26068 0 6 -1.26068 1
gene 3 2 7 0.410022 0 7 0.410022 1
gene 2 3 7 -0.999886 0 8 -0.999886 1
gene 3 4 7 -1.12824 0 9 -1.12824 1
gene 2 5 7 1.2366 0 10 1.2366 1
gene 1 6 7 2.10798 0 18 2.10798 1
gene 2 2 14 1 0 31 0 1
gene 2 14 6 1.85124 0 32 0 1
gene 3 5 14 0.528668 0 60 0.528668 1
genomeend 108

/* Organism #109 Fitness: 12 Error: 0 */
genomestart 109
trait 1 0.1 0 0 0 0 0 0 0 
trait 2 0.2 0 0 0 0 0 0 0 
trait 3 0.3 0 0 0 0 0 0 0 
node 1 2 1 3
node 2 3 1 1
node 3 1 1 1
node 4 1 1 1
node 5 2 1 1
node 6 1 0 2
node 7 1 0 2
node 14 1 0 0
gene 1 1 6 -2.27161 0 1 -2.27161 1
gene 2 2 6 5.93366 0 2 5.93366 0
gene 3 3 6 2.10027 0 3 2.10027 1
gene 3 4 6 -1.60916 0 4 -1.60916 1
gene 3 5 6 -3.99297 0 5 -3.99297 1
gene 2 1 7 1.81836 0 6 1.81836 1
gene 3 2 7 1.5297 0 7 1.5297 1
gene 2 3 7 0.161646 0 8 0.161646 1
gene 3 4 7 -2.3908 0 9 -2.3908 1
gene 2 5 7 -0.700526 0 10 -0.700526 1
gene 1 6 7 3.94447 0 18 3.94447 1
gene 2 2 14 0.628561 0 31 0.628561 1
gene 2 14 6 -0.946896 0 32 -0.946896 1
genomeend 109

/* Organism #110 Fitness: 18 Error: 0 */
genomestart 110
trait 1 0.1 0 0 0 0 0 0 0 
trait 2 0.2 0 0 0 0 0 0 0 
trait 3 0.3 0 0 0 0 0 0 0 
node 1 2 1 3
node 2 3 1 1
node 3 1 1 1
node 4 1 1 1
node 5 2 1 1
node 6 2 0 2
node 7 1 0 2
node 14 1 0 0
gene 1 1 6 -0.948268 0 1 -0.948268 1
gene 2 2 6 3.8335 0 2 3.8335 0
gene 3 3 6 2.40311 0 3 2.40311 1
gene 3 4 6 -3.65307 0 4 -3.65307 1
gene 3 5 6 0.393488 0 5 0.393488 1
gene 2 1 7 -2.67212 0 6 -2.67212 1
gene 3 2 7 3.3475 0 7 3.3475 1
gene 2 3 7 0.221396 0 8 0.221396 1
gene 3 4 7 1.78209 0 9 1.78209 1
gene 2 5 7 1.82893 0 10 1.82893 1
gene 1 6 7 -0.348919 0 18 -0.348919 1
gene 2 2 14 1.48419 0 31 1.48419 1
gene 2 14 6 0.249528 0 32 0.249528 1
genomeend 110

/* Organism #111 Fitness: 7 Error: 0 */
genomestart 111
trait 1 0.1 0 0 0 0 0 0 0 
trait 2 0.2 0 0 0 0 0 0 0 
trait 3 0.3 0 0 0 0 0 0 0 
node 1 2 1 3
node 2 3 1 1
node 3 1 1 1
node 4 1 1 1
node 5 2 1 1
node 6 1 0 2
node 7 1 0 2
node 14 1 0 0
gene 1 1 6 -0.489719 0 1 -0.489719 1
gene 2 2 6 2.30823 0 2 2.30823 0
gene 3 3 6 1.70834 0 3 1.70834 1
gene 3 4 6 2.29795 0 4 2.29795 1
gene 3 5 6 -1.39189 0 5 -1.39189 1
gene 2 1 7 -4.48084 0 6 -4.48084 1
gene 3 2 7 -1.04496 0 7 -1.04496 1
gene 2 3 7 2.66526 0 8 2.66526 1
gene 3 4 7 -0.807158 0 9 -0.807158 1
gene 2 5 7 -0.458481 0 10 -0.458481 1
gene 1 6 7 -1.68342 0 18 -1.68342 1
gene 2 2 14 5.65899 0 31 5.65899 1
gene 2 14 6 -2.05616 0 32 -2.05616 1
genomeend 111

/* Organism #112 Fitness: 5 Error: 0 */
genomestart 112
trait 1 0.1 0 0 0 0 0 0 0 
trait 2 0.2 0 0 0 0 0 0 0 
trait 3 0.3 0 0 0 0 0 0 0 
node 1 2 1 3
node 2 3 1 1
node 3 1 1 1
node 4 1 1 1
node 5 2 1 1
node 6 1 0 2
node 7 1 0 2
node 14 1 0 0
gene 1 1 6 2.04815 0 1 2.04815 1
gene 2 2 6 1.33183 0 2 1.33183 0
gene 3 3 6 2.39421 0 3 2.39421 1
gene 3 4 6 1.11383 0 4 1.11383 1
gene 3 5 6 -0.579097 0 5 -0.579097 1
gene 2 1 7 -2.60912 0 6 -2.60912 1
gene 3 2 7 0.00924536 0 7 0.00924536 1
gene 2 3 7 -0.893926 0 8 -0.893926 1
gene 3 4 7 -0.0535725 0 9 -0.0535725 1
gene 2 5 7 -0.840124 0 10 -0.840124 1
gene 1 6 7 4.36138 0 18 4.36138 1
gene 2 2 14 -0.0608586 0 31 -0.0608586 1
gene 2 14 6 0.772224 0 32 0.772224 1
genomeend 112

/* Organism #113 Fitness: 9 Error: 0 */
genomestart 113
trait 1 0.1 0 0 0 0 0 0 0 
trait 2 0.2 0 0 0 0 0 0 0 
trait 3 0.3 0 0 0 0 0 0 0 
node 1 2 1 3
node 2 3 1 1
node 3 1 1 1
node 4 1 1 1
node 5 2 1 1
node 6 1 0 2
node 7 1 0 2
node 14 1 0 0
gene 1 1 6 1.44571 0 1 1.44571 1
gene 2 2 6 1.86104 0 2 1.86104 1
gene 3 3 6 4.52558 0 3 4.52558 1
gene 3 4 6 2.19989 0 4 2.19989 1
gene 3 5 6 -0.0115684 0 5 -0.0115684 1
gene 2 1 7 -1.651 0 6 -1.651 1
gene 3 2 7 1.98649 0 7 1.98649 1
gene 2 3 7 -1.36029 0 8 -1.36029 1
gene 3 4 7 -0.243513 0 9 -0.243513 1
gene 2 5 7 0.599507 0 10 0.599507 1
gene 1 6 7 2.75294 0 18 2.75294 1
gene 2 2 14 0.45525 0 31 0.45525 1
gene 2 14 6 3.53998 0 32 3.53998 1
genomeend 113

/* Organism #114 Fitness: 26 Error: 0 */
genomestart 114
trait 1 0.05 0 0 0 0 0.105185 0 0 
trait 2 0.2 0 0 0 0 0 0 0 
trait 3 0.3 0 0 0 0 0 0 0 
node 1 2 1 3
node 2 3 1 1
node 3 1 1 1
node 4 1 1 1
node 5 2 1 1
node 6 1 0 2
node 7 1 0 2
node 14 1 0 0
gene 1 1 6 -1.98644 0 1 -1.98644 1
gene 2 2 6 0.708549 0 2 0.708549 0
gene 3 3 6 2.66826 0 3 2.66826 1
gene 3 4 6 1.64801 0 4 1.64801 1
gene 3 5 6 -2.38336 0 5 -2.38336 1
gene 2 1 7 -3.43288 0 6 -3.43288 1
gene 3 2 7 3.18223 0 7 3.18223 1
gene 2 3 7 1.35155 0 8 1.35155 1
gene 3 4 7 4.10822 0 9 4.10822 1
gene 2 5 7 0.30085 0 10 0.30085 1
gene 1 6 7 2.83061 0 18 2.83061 1
gene 2 2 14 0.732443 0 31 0.732443 1
gene 2 14 6 2.18437 0 32 2.18437 1
genomeend 114

/* Organism #115 Fitness: 3 Error: 0 */
genomestart 115
trait 1 0.1 0 0 0 0 0 0 0 
trait 2 0.2 0 0 0 0 0 0 0 
trait 3 0.3 0 0 0 0 0 0 0 
node 1 2 1 3
node 2 3 1 1
node 3 1 1 1
node 4 1 1 1
node 5 2 1 1
node 6 1 0 2
node 7 1 0 2
node 14 1 0 0
gene 1 1 6 0.375681 0 1 0.375681 1
gene 2 2 6 1.85124 0 2 1.85124 1
gene 3 3 6 2.14683 0 3 2.14683 1
gene 3 4 6 -0.193627 0 4 -0.193627 1
gene 3 5 6 -1.16012 0 5 -1.16012 1
gene 2 1 7 -1.26068 0 6 -1.26068 1
gene 3 2 7 0.410022 0 7 0.410022 1
gene 2 3 7 -0.999886 0 8 -0.999886 1
gene 3 4 7 -1.12824 0 9 -1.12824 1
gene 2 5 7 1.2366 0 10 1.2366 1
gene 1 6 7 2.10798 0 18 2.10798 1
gene 2 2 14 1 0 31 0 1
gene 2 14 6 1.85124 0 32 0 1
genomeend 115

/* Organism #116 Fitness: 100001 Error: 0 */
/* ##------$ WINNER 116 SPECIES #2 $------## */
genomestart 116
trait 1 0.1 0 0 0 0 0 0 0 
trait 2 0.2 0 0 0 0 0 0 0 
trait 3 0.3 0 0 0 0 0 0 0 
node 1 2 1 3
node 2 3 1 1
node 3 1 1 1
node 4 1 1 1
node 5 2 1 1
node 6 1 0 2
node 7 1 0 2
node 14 1 0 0
node 17 1 0 0
gene 1 1 6 1.65289 0 1 1.65289 1
gene 2 2 6 2.16526 0 2 2.16526 0
gene 3 3 6 -2.24504 0 3 -2.24504 1
gene 3 4 6 -1.37519 0 4 -1.37519 1
gene 3 5 6 -1.55036 0 5 -1.55036 1
gene 2 1 7 -1.64309 0 6 -1.64309 1
gene 3 2 7 1.2636 0 7 1.2636 1
gene 2 3 7 -0.888237 0 8 -0.888237 1
gene 3 4 7 0.105233 0 9 0.105233 1
gene 2 5 7 3.50741 0 10 3.50741 1
gene 1 6 7 1.83468 0 18 1.83468 1
gene 2 2 14 0.43855 0 31 0.43855 0
gene 2 14 6 2.76179 0 32 2.76179 1
gene 2 2 17 2.02792 0 41 2.02792 1
gene 2 17 14 1.93614 0 42 1.93614 1
genomeend 116

/* Organism #117 Fitness: 8 Error: 0 */
genomestart 117
trait 1 0.05 0 0 0 0 0.105185 0 0 
trait 2 0.2 0 0 0 0 0 0 0 
trait 3 0.3 0 0 0 0 0 0 0 
node 1 2 1 3
node 2 3 1 1
node 3 1 1 1
node 4 1 1 1
node 5 2 1 1
node 6 1 0 2
node 7 1 0 2
node 14 1 0 0
gene 1 1 6 0.482675 0 1 0.482675 1
gene 2 2 6 1.85124 0 2 1.85124 0
gene 3 3 6 1.97823 0 3 1.97823 1
gene 3 4 6 0.81133 0 4 0.81133 1
gene 3 5 6 -1.09017 0 5 -1.09017 1
gene 2 1 7 -1.95053 0 6 -1.95053 1
gene 3 2 7 1.60903 0 7 1.60903 1
gene 2 3 7 0.0129722 0 8 0.0129722 1
gene 3 4 7 -0.279043 0 9 -0.279043 1
gene 2 5 7 1.22759 0 10 1.22759 1
gene 1 6 7 3.19902 0 18 3.19902 1
gene 2 2 14 0.866221 0 31 0.366221 1
gene 2 14 6 1.85124 0 32 0.92562 1
genomeend 117

/* Organism #118 Fitness: 8 Error: 0 */
genomestart 118
trait 1 0.1 0 0 0 0 0 0 0 
trait 2 0.2 0 0 0 0 0 0 0 
trait 3 0.3 0 0 0 0 0 0 0 
node 1 2 1 3
node 2 3 1 1
node 3 1 1 1
node 4 1 1 1
node 5 2 1 1
node 6 1 0 2
node 7 1 0 2
node 14 1 0 0
gene 1 1 6 2.7712 0 1 2.7712 1
gene 2 2 6 3.50867 0 2 3.50867 0
gene 3 3 6 0.590612 0 3 0.590612 1
gene 3 4 6 2.21032 0 4 2.21032 1
gene 3 5 6 -3.31979 0 5 -3.31979 1
gene 2 1 7 0.0382466 0 6 0.0382466 1
gene 3 2 7 3.51053 0 7 3.51053 1
gene 2 3 7 0.424591 0 8 0.424591 1
gene 3 4 7 -3.30105 0 9 -3.30105 1
gene 2 5 7 3.19998 0 10 3.19998 1
gene 1 6 7 2.98919 0 18 2.98919 1
gene 2 2 14 0.214838 0 31 0.214838 1
gene 2 14 6 0.0446125 0 32 0.0446125 1
genomeend 118

/* Organism #119 Fitness: 8 Error: 0 */
genomestart 119
trait 1 0 0 0 0 0 0.21037 0 0 
trait 2 0.2 0 0 0 0 0 0 0 
trait 3 0.3 0 0 0 0 0 0 0 
node 1 2 1 3
node 2 3 1 1
node 3 1 1 1
node 4 1 1 1
node 5 2 1 1
node 6 1 0 2
node 7 1 0 2
node 14 1 0 0
gene 1 1 6 2.56902 0 1 2.56902 1
gene 2 2 6 0.0296489 0 2 0.0296489 0
gene 3 3 6 0.953832 0 3 0.953832 1
gene 3 4 6 2.18014 0 4 2.18014 1
gene 3 5 6 0.359827 0 5 0.359827 1
gene 2 1 7 -0.301294 0 6 -0.301294 1
gene 3 2 7 4.95622 0 7 4.95622 1
gene 2 3 7 2.48411 0 8 2.48411 1
gene 3 4 7 -1.34899 0 9 -1.34899 1
gene 2 5 7 1.06274 0 10 1.06274 1
gene 1 6 7 3.05048 0 18 3.05048 1
gene 2 2 14 2.33587 0 31 2.33587 1
gene 2 14 6 -2.15547 0 32 -2.15547 1
genomeend 119

/* Organism #120 Fitness: 10 Error: 0 */
genomestart 120
trait 1 0.1 0 0 0 0 0 0 0 
trait 2 0.2 0 0 0 0 0 0 0 
trait 3 0.3 0 0 0 0 0 0 0 
node 1 2 1 3
node 2 3 1 1
node 3 1 1 1
node 4 1 1 1
node 5 2 1 1
node 6 1 0 2
node 7 1 0 2
node 14 1 0 0
gene 1 1 6 0.375681 0 1 0.375681 1
gene 2 2 6 1.85124 0 2 1.85124 0
gene 3 3 6 1.72096 0 3 1.72096 1
gene 3 4 6 -0.193627 0 4 -0.193627 1
gene 3 5 6 -3.53768 0 5 -3.53768 1
gene 2 1 7 -0.0747428 0 6 -0.0747428 1
gene 3 2 7 0.410022 0 7 0.410022 1
gene 2 3 7 -0.999886 0 8 -0.999886 1
gene 3 4 7 -1.12824 0 9 -1.12824 1
gene 2 5 7 1.2366 0 10 1.2366 1
gene 1 6 7 2.261 0 18 2.261 1
gene 2 2 14 1 0 31 0 1
gene 2 14 6 1.85124 0 32 0 1
genomeend 120

/* Organism #121 Fitness: 7 Error: 0 */
genomestart 121
trait 1 0.1 0 0 0 0 0 0 0 
trait 2 0.2 0 0 0 0 0 0 0 
trait 3 0.3 0 0 0 0 0 0 0 
node 1 2 1 3
node 2 3 1 1
node 3 1 1 1
node 4 1 1 1
node 5 2 1 1
node 6 1 0 2
node 7 1 0 2
node 14 1 0 0
gene 1 1 6 0.772001 0 1 0.772001 1
gene 2 2 6 1.85124 0 2 1.85124 0
gene 3 3 6 1.20484 0 3 1.20484 1
gene 3 4 6 -0.193627 0 4 -0.193627 1
gene 3 5 6 -2.54844 0 5 -2.54844 1
gene 2 1 7 0.23575 0 6 0.23575 1
gene 3 2 7 1.07239 0 7 1.07239 1
gene 2 3 7 -0.999886 0 8 -0.999886 1
gene 3 4 7 -3.00644 0 9 -3.00644 1
gene 2 5 7 3.65485 0 10 3.65485 1
gene 1 6 7 1.39309 0 18 1.39309 1
gene 2 2 14 1.86379 0 31 1.86379 1
gene 2 14 6 1.17697 0 32 1.17697 1
gene 2 3 14 -0.829281 0 56 0 1
genomeend 121

/* Organism #122 Fitness: 14 Error: 0 */
genomestart 122
trait 1 0.1 0 0 0 0 0 0 0 
trait 2 0.2 0 0 0 0 0 0 0 
trait 3 0.3 0 0 0 0 0 0 0 
node 1 2 1 3
node 2 3 1 1
node 3 1 1 1
node 4 1 1 1
node 5 2 1 1
node 6 1 0 2
node 7 1 0 2
node 14 1 0 0
gene 1 1 6 1.43778 0 1 1.43778 1
gene 2 2 6 -0.549414 0 2 -0.549414 0
gene 1 3 6 0.565232 0 3 0.565232 1
gene 3 4 6 2.19065 0 4 2.19065 1
gene 3 5 6 -3.19736 0 5 -3.19736 1
gene 2 1 7 0.283025 0 6 0.283025 1
gene 3 2 7 0.347136 0 7 0.347136 1
gene 2 3 7 0.154333 0 8 0.154333 1
gene 3 4 7 -2.71266 0 9 -2.71266 1
gene 2 5 7 2.78759 0 10 2.78759 1
gene 1 6 7 2.10798 0 18 2.10798 1
gene 2 2 14 0.00175138 0 31 0.00175138 1
gene 2 14 6 -0.0498376 0 32 -0.0498376 1
genomeend 122

/* Species #3 : (Size 5) (AF 50.4) (Age 2)  */


/* Organism #123 Fitness: 5 Error: 0 */
genomestart 123
trait 1 0.125596 0.00384957 0 0 0 0.0373532 0 0 
trait 2 0.0875 0.0287158 0.195168 0.131247 0 0.120971 0 0.0228052 
trait 3 0.3 0 0 0 0 0 0 0 
node 1 2 1 3
node 2 1 1 1
node 3 3 1 1
node 4 1 1 1
node 5 3 1 1
node 6 3 0 2
node 7 1 0 2
node 13 1 0 0
gene 2 1 6 2.02958 0 1 2.02958 1
gene 2 2 6 -3.45289 0 2 -3.45289 1
gene 1 3 6 -0.259173 0 3 -0.259173 1
gene 2 4 6 0.316519 0 4 0.316519 1
gene 2 5 6 1.08354 0 5 1.08354 0
gene 2 1 7 -0.416078 0 6 -0.416078 1
gene 2 2 7 0.911548 0 7 0.911548 1
gene 1 3 7 -0.61905 0 8 -0.61905 1
gene 1 4 7 1.25908 0 9 1.25908 1
gene 2 5 7 -1.37341 0 10 -1.37341 1
gene 2 5 13 -2.45986 0 29 -2.45986 1
gene 2 13 6 -0.492599 0 30 -0.492599 1
genomeend 123

/* Organism #124 Fitness: 69 Error: 0 */
genomestart 124
trait 1 0.112798 0.00192478 0 0 0 0.0186766 0 0 
trait 2 0.18125 0.0430736 0 0.0456201 0 0 0 0.0342078 
trait 3 0.3 0 0 0 0 0.125342 0 0 
node 1 2 1 3
node 2 2 1 1
node 3 3 1 1
node 4 3 1 1
node 5 1 1 1
node 6 3 0 2
node 7 2 0 2
node 13 1 0 0
node 21 1 0 0
gene 2 1 6 0.195584 0 1 0.195584 1
gene 1 2 6 0.465244 0 2 0.465244 0
gene 3 3 6 0.57528 0 3 0.57528 1
gene 3 4 6 -1.77621 0 4 -1.77621 1
gene 2 5 6 -1.38105 0 5 -1.38105 1
gene 2 1 7 -0.952272 0 6 -0.952272 1
gene 3 2 7 -0.904363 0 7 -0.904363 0
gene 3 3 7 -2.20028 0 8 -2.20028 1
gene 1 4 7 2.1811 0 9 2.1811 1
gene 2 5 7 1.51296 0 10 1.51296 1
gene 2 5 13 -2.45986 0 29 -2.45986 1
gene 2 13 6 0.0184206 0 30 0.0184206 1
gene 3 2 21 1 0 51 0 1
gene 3 21 7 -0.904363 0 52 0 1
genomeend 124

/* Organism #125 Fitness: 158 Error: 0 */
genomestart 125
trait 1 0.1 0 0 0 0 0 0 0 
trait 2 0.175 0.0574315 0 0.0608268 0 0 0 0.0456104 
trait 3 0.3 0 0 0 0 0 0 0 
node 1 2 1 3
node 2 2 1 1
node 3 3 1 1
node 4 3 1 1
node 5 1 1 1
node 6 3 0 2
node 7 2 0 2
node 13 1 0 0
gene 3 1 6 1.49106 0 1 1.49106 1
gene 2 2 6 -1.42651 0 2 -1.42651 1
gene 1 3 6 0.401784 0 3 0.401784 1
gene 1 4 6 -2.0084 0 4 -2.0084 1
gene 2 5 6 0.733855 0 5 0.733855 0
gene 2 1 7 -0.81175 0 6 -0.81175 1
gene 3 2 7 -0.535883 0 7 -0.535883 1
gene 1 3 7 -0.853218 0 8 -0.853218 1
gene 1 4 7 2.10959 0 9 2.10959 1
gene 2 5 7 2.01182 0 10 2.01182 1
gene 2 5 13 -2.45986 0 29 -2.45986 1
gene 2 13 6 0.0184206 0 30 0.0184206 1
gene 2 13 7 -0.207829 0 53 -0.207829 1
genomeend 125

/* Organism #126 Fitness: 12 Error: 0 */
genomestart 126
trait 1 0.125596 0.00384957 0 0 0 0.0373532 0 0 
trait 2 0.1375 0.0287158 0.0975839 0.131247 0.00155397 0.118694 0.0165705 0.0228052 
trait 3 0.3 0 0 0 0 0 0 0 
node 1 2 1 3
node 2 2 1 1
node 3 3 1 1
node 4 3 1 1
node 5 1 1 1
node 6 3 0 2
node 7 2 0 2
node 13 1 0 0
gene 2 1 6 -2.79087 0 1 -2.79087 1
gene 2 2 6 0.288173 0 2 0.288173 1
gene 1 3 6 -0.629602 0 3 -0.629602 1
gene 2 4 6 1.93551 0 4 1.93551 1
gene 2 5 6 2.98044 0 5 2.98044 0
gene 2 1 7 1.99499 0 6 1.99499 1
gene 2 2 7 1.74827 0 7 1.74827 1
gene 1 3 7 1.86392 0 8 1.86392 1
gene 1 4 7 -0.159387 0 9 -0.159387 1
gene 2 5 7 0.803587 0 10 0.803587 1
gene 2 5 13 1.21174 0 29 1.21174 1
gene 2 13 6 1.84279 0 30 1.84279 1
genomeend 126

/* Organism #127 Fitness: 8 Error: 0 */
genomestart 127
trait 1 0.112798 0.00192478 0 0 0 0.0186766 0 0 
trait 2 0.13125 0.0430736 0.0975839 0.096037 0 0.0604856 0 0.0342078 
trait 3 0.3 0 0 0 0 0 0 0 
node 1 2 1 3
node 2 1 1 1
node 3 3 1 1
node 4 1 1 1
node 5 3 1 1
node 6 3 0 2
node 7 1 0 2
node 13 1 0 0
gene 2 1 6 2.15892 0 1 2.15892 1
gene 2 2 6 -5.77238 0 2 -5.77238 1
gene 1 3 6 0.145865 0 3 0.145865 1
gene 1 4 6 -2.1785 0 4 -2.1785 1
gene 2 5 6 2.08725 0 5 2.08725 0
gene 2 1 7 1.43406 0 6 1.43406 1
gene 2 2 7 2.34125 0 7 2.34125 1
gene 1 3 7 -1.56235 0 8 -1.56235 1
gene 1 4 7 1.2847 0 9 1.2847 1
gene 2 5 7 0.128912 0 10 0.128912 1
gene 2 5 13 1.75824 0 29 1.75824 1
gene 2 13 6 2.31629 0 30 2.31629 1
genomeend 127

/* Species #4 : (Size 22) (AF 16.6364) (Age 2)  */


/* Organism #128 Fitness: 6 Error: 0 */
genomestart 128
trait 1 0.1 0 0 0 0 0 0 0 
trait 2 0.1875 0.0287158 0 0.0304134 0 0 0 0.0228052 
trait 3 0.3 0 0 0 0 0 0 0 
node 1 2 1 3
node 2 2 1 1
node 3 3 1 1
node 4 1 1 1
node 5 3 1 1
node 6 3 0 2
node 7 1 0 2
node 15 1 0 0
gene 2 1 6 2.41637 0 1 2.41637 1
gene 1 2 6 -2.49338 0 2 -2.49338 1
gene 3 3 6 0.434569 0 3 0.434569 1
gene 3 4 6 2.28633 0 4 2.28633 1
gene 2 5 6 0.493235 0 5 0.493235 1
gene 1 1 7 0.80152 0 6 0.80152 1
gene 1 2 7 2.07238 0 7 2.07238 1
gene 2 3 7 -1.59053 0 8 -1.59053 0
gene 2 4 7 1.82925 0 9 1.82925 1
gene 3 5 7 0.16863 0 10 0.16863 1
gene 2 3 15 -0.413312 0 34 -0.413312 1
gene 2 15 7 -0.868232 0 35 -0.868232 1
genomeend 128

/* Organism #129 Fitness: 32 Error: 0 */
genomestart 129
trait 1 0.1 0 0 0 0 0 0 0 
trait 2 0.1875 0.0287158 0 0.0304134 0 0 0 0.0228052 
trait 3 0.758694 0 0 0 0 0 0 0.6501 
node 1 2 1 3
node 2 2 1 1
node 3 3 1 1
node 4 1 1 1
node 5 3 1 1
node 6 3 0 2
node 7 1 0 2
node 15 1 0 0
gene 2 1 6 1.40679 0 1 1.40679 1
gene 1 2 6 -2.49338 0 2 -2.49338 1
gene 3 3 6 1.81601 0 3 1.81601 1
gene 3 4 6 -0.188194 0 4 -0.188194 1
gene 2 5 6 -4.82169 0 5 -4.82169 1
gene 1 1 7 -1.2862 0 6 -1.2862 1
gene 1 2 7 0.349046 0 7 0.349046 1
gene 2 3 7 0.51279 0 8 0.51279 0
gene 2 4 7 2.89055 0 9 2.89055 1
gene 3 5 7 -2.4105 0 10 -2.4105 1
gene 2 3 15 -1.36945 0 34 -1.36945 1
gene 2 15 7 -0.472123 0 35 -0.472123 1
genomeend 129

/* Organism #130 Fitness: 37 Error: 0 */
genomestart 130
trait 1 0.1 0 0 0 0 0 0 0 
trait 2 0.1875 0.0287158 0 0.0304134 0 0 0 0.0228052 
trait 3 0.3 0 0 0 0 0 0 0 
node 1 2 1 3
node 2 2 1 1
node 3 3 1 1
node 4 1 1 1
node 5 3 1 1
node 6 3 0 2
node 7 1 0 2
node 15 1 0 0
gene 2 1 6 0.740536 0 1 0.740536 1
gene 1 2 6 -2.49338 0 2 -2.49338 1
gene 3 3 6 1.97216 0 3 1.97216 1
gene 3 4 6 0.784504 0 4 0.784504 1
gene 2 5 6 -4.82169 0 5 -4.82169 1
gene 1 1 7 -0.574787 0 6 -0.574787 1
gene 1 2 7 0.665709 0 7 0.665709 1
gene 2 3 7 0.51279 0 8 0.51279 0
gene 2 4 7 2.0279 0 9 2.0279 1
gene 3 5 7 -0.021633 0 10 -0.021633 1
gene 2 3 15 1 0 34 0 1
gene 2 15 7 0.51279 0 35 0 1
gene 3 15 6 0.193354 0 61 0.193354 1
genomeend 130

/* Organism #131 Fitness: 14 Error: 0 */
genomestart 131
trait 1 0.1 0 0 0 0 0 0 0 
trait 2 0.1875 0.0287158 0 0.0304134 0 0 0 0.0228052 
trait 3 0.3 0 0 0 0 0 0 0 
node 1 2 1 3
node 2 2 1 1
node 3 3 1 1
node 4 1 1 1
node 5 3 1 1
node 6 3 0 2
node 7 1 0 2
node 15 1 0 0
gene 2 1 6 2.11192 0 1 2.11192 1
gene 1 2 6 -0.820585 0 2 -0.820585 1
gene 3 3 6 1.51215 0 3 1.51215 1
gene 3 4 6 2.59912 0 4 2.59912 1
gene 2 5 6 -6.64796 0 5 -6.64796 1
gene 1 1 7 -1.48995 0 6 -1.48995 1
gene 1 2 7 0.782728 0 7 0.782728 1
gene 2 3 7 -1.38296 0 8 -1.38296 0
gene 2 4 7 0.694244 0 9 0.694244 1
gene 3 5 7 1.64505 0 10 1.64505 1
gene 2 3 15 1 0 34 1 1
gene 2 15 7 0.127927 0 35 0.127927 1
genomeend 131

/* Organism #132 Fitness: 6 Error: 0 */
genomestart 132
trait 1 0.1 0 0 0 0 0 0 0 
trait 2 0.1875 0.0287158 0 0.0304134 0 0 0 0.0228052 
trait 3 0.3 0 0 0 0 0 0 0 
node 1 2 1 3
node 2 2 1 1
node 3 3 1 1
node 4 1 1 1
node 5 3 1 1
node 6 3 0 2
node 7 1 0 2
node 15 1 0 0
node 24 1 0 0
gene 2 1 6 0.740536 0 1 0.740536 1
gene 1 2 6 -2.49338 0 2 -2.49338 0
gene 3 3 6 1.97216 0 3 1.97216 1
gene 3 4 6 0.784504 0 4 0.784504 1
gene 2 5 6 -4.82169 0 5 -4.82169 1
gene 1 1 7 -0.574787 0 6 -0.574787 1
gene 1 2 7 0.665709 0 7 0.665709 1
gene 2 3 7 0.51279 0 8 0.51279 0
gene 2 4 7 2.0279 0 9 2.0279 1
gene 3 5 7 -0.021633 0 10 -0.021633 1
gene 2 3 15 1 0 34 0 1
gene 2 15 7 0.51279 0 35 0 1
gene 1 2 24 1 0 62 0 1
gene 1 24 6 -2.49338 0 63 0 1
genomeend 132

/* Organism #133 Fitness: 2 Error: 0 */
genomestart 133
trait 1 0.1 0 0 0 0 0 0 0 
trait 2 0.1875 0.0287158 0 0.0304134 0 0 0 0.0228052 
trait 3 0.3 0 0 0 0 0 0 0 
node 1 2 1 3
node 2 2 1 1
node 3 3 1 1
node 4 1 1 1
node 5 3 1 1
node 6 3 0 2
node 7 1 0 2
node 15 1 0 0
gene 2 1 6 3.22408 0 1 3.22408 1
gene 1 2 6 -1.78812 0 2 -1.78812 1
gene 3 3 6 2.70911 0 3 2.70911 1
gene 3 4 6 3.10087 0 4 3.10087 1
gene 2 5 6 -4.89984 0 5 -4.89984 1
gene 1 1 7 -0.0912686 0 6 -0.0912686 1
gene 1 2 7 -0.539564 0 7 -0.539564 1
gene 2 3 7 1.72433 0 8 1.72433 0
gene 2 4 7 1.97313 0 9 1.97313 1
gene 3 5 7 -1.58238 0 10 -1.58238 1
gene 2 3 15 -1.29769 0 34 -1.29769 1
gene 2 15 7 -2.01267 0 35 -2.01267 1
genomeend 133

/* Organism #134 Fitness: 47 Error: 0 */
genomestart 134
trait 1 0.1 0 0 0 0 0 0 0 
trait 2 0.1875 0.0287158 0 0.0304134 0 0 0 0.0228052 
trait 3 0.3 0 0 0 0 0 0 0 
node 1 2 1 3
node 2 2 1 1
node 3 3 1 1
node 4 1 1 1
node 5 3 1 1
node 6 3 0 2
node 7 1 0 2
node 15 1 0 0
gene 2 1 6 2.61148 0 1 2.61148 1
gene 1 2 6 -0.432805 0 2 -0.432805 1
gene 3 3 6 1.47293 0 3 1.47293 1
gene 3 4 6 0.645178 0 4 0.645178 1
gene 2 5 6 -7.20379 0 5 -7.20379 1
gene 1 1 7 -0.0432346 0 6 -0.0432346 1
gene 1 2 7 3.15224 0 7 3.15224 1
gene 2 3 7 -0.689741 0 8 -0.689741 0
gene 2 4 7 4.14438 0 9 4.14438 1
gene 3 5 7 -1.16516 0 10 -1.16516 1
gene 2 3 15 -0.642765 0 34 -0.642765 1
gene 2 15 7 -1.4269 0 35 -1.4269 1
genomeend 134

/* Organism #135 Fitness: 20 Error: 0 */
genomestart 135
trait 1 0.1 0 0 0 0 0 0 0 
trait 2 0.1875 0.0287158 0 0.0304134 0 0 0 0.0228052 
trait 3 0.3 0 0 0 0 0 0 0 
node 1 2 1 3
node 2 2 1 1
node 3 3 1 1
node 4 1 1 1
node 5 3 1 1
node 6 3 0 2
node 7 1 0 2
node 15 1 0 0
node 21 1 0 0
gene 2 1 6 0.740536 0 1 0.740536 1
gene 1 2 6 -2.49338 0 2 -2.49338 1
gene 3 3 6 1.97216 0 3 1.97216 1
gene 3 4 6 0.784504 0 4 0.784504 1
gene 2 5 6 -4.82169 0 5 -4.82169 1
gene 1 1 7 -0.574787 0 6 -0.574787 1
gene 1 2 7 0.665709 0 7 0.665709 0
gene 2 3 7 0.51279 0 8 0.51279 0
gene 2 4 7 2.0279 0 9 2.0279 1
gene 3 5 7 -0.021633 0 10 -0.021633 1
gene 2 3 15 1 0 34 0 1
gene 2 15 7 0.51279 0 35 0 1
gene 1 2 21 1 0 51 0 1
gene 1 21 7 0.665709 0 52 0 1
genomeend 135

/* Organism #136 Fitness: 1 Error: 0 */
genomestart 136
trait 1 0.1 0 0 0 0 0 0 0 
trait 2 0.1875 0.0287158 0 0.0304134 0 0 0 0.0228052 
trait 3 0.3 0 0 0 0 0 0 0 
node 1 2 1 3
node 2 2 1 1
node 3 3 1 1
node 4 1 1 1
node 5 3 1 1
node 6 3 0 2
node 7 1 0 2
node 15 1 0 0
gene 2 1 6 2.76466 0 1 2.76466 1
gene 1 2 6 -0.663628 0 2 -0.663628 1
gene 3 3 6 1.97216 0 3 1.97216 1
gene 3 4 6 2.36092 0 4 2.36092 1
gene 2 5 6 -6.37474 0 5 -6.37474 1
gene 1 1 7 -0.211921 0 6 -0.211921 1
gene 1 2 7 -1.78353 0 7 -1.78353 1
gene 2 3 7 0.51279 0 8 0.51279 0
gene 2 4 7 -0.10932 0 9 -0.10932 1
gene 3 5 7 0.173213 0 10 0.173213 1
gene 2 3 15 2.36225 0 34 2.36225 1
gene 2 15 7 2.74748 0 35 2.74748 1
genomeend 136

/* Organism #137 Fitness: 6 Error: 0 */
genomestart 137
trait 1 0.1 0 0 0 0 0 0 0 
trait 2 0.1875 0.0287158 0 0.0304134 0 0 0 0.0228052 
trait 3 0.3 0 0 0 0 0 0 0 
node 1 2 1 3
node 2 2 1 1
node 3 3 1 1
node 4 1 1 1
node 5 3 1 1
node 6 3 0 2
node 7 1 0 2
node 15 1 0 0
gene 2 1 6 0.0190321 0 1 0.0190321 1
gene 1 2 6 -2.51751 0 2 -2.51751 1
gene 3 3 6 3.05693 0 3 3.05693 1
gene 3 4 6 2.39636 0 4 2.39636 1
gene 2 5 6 -3.39645 0 5 -3.39645 1
gene 1 1 7 -0.378249 0 6 -0.378249 1
gene 1 2 7 -1.63673 0 7 -1.63673 1
gene 2 3 7 0.0641585 0 8 0.0641585 0
gene 2 4 7 3.37897 0 9 3.37897 1
gene 3 5 7 1.91452 0 10 1.91452 1
gene 2 3 15 0.479079 0 34 0.479079 1
gene 2 15 7 0.51279 0 35 0.51279 1
genomeend 137

/* Organism #138 Fitness: 2 Error: 0 */
genomestart 138
trait 1 0.1 0 0 0 0 0 0 0 
trait 2 0.1875 0.0287158 0 0.0304134 0 0 0 0.0228052 
trait 3 0.3 0 0 0 0 0 0 0 
node 1 2 1 3
node 2 2 1 1
node 3 3 1 1
node 4 1 1 1
node 5 3 1 1
node 6 3 0 2
node 7 1 0 2
node 15 1 0 0
gene 2 1 6 2.59969 0 1 2.59969 1
gene 1 2 6 -4.43005 0 2 -4.43005 1
gene 3 3 6 2.41274 0 3 2.41274 1
gene 3 4 6 0.301617 0 4 0.301617 1
gene 2 5 6 -6.22728 0 5 -6.22728 1
gene 3 1 7 -0.613743 0 6 -0.613743 1
gene 1 2 7 1.62019 0 7 1.62019 1
gene 2 3 7 -0.119891 0 8 -0.119891 0
gene 2 4 7 1.47338 0 9 1.47338 1
gene 3 5 7 0.807721 0 10 0.807721 1
gene 2 3 15 1 0 34 1 1
gene 2 15 7 1.8658 0 35 1.8658 1
genomeend 138

/* Organism #139 Fitness: 7 Error: 0 */
genomestart 139
trait 1 0.1 0 0 0 0 0 0 0 
trait 2 0.1875 0.0287158 0 0.0304134 0 0 0 0.0228052 
trait 3 0.3 0 0 0 0 0 0 0 
node 1 2 1 3
node 2 2 1 1
node 3 3 1 1
node 4 1 1 1
node 5 3 1 1
node 6 3 0 2
node 7 1 0 2
node 15 1 0 0
gene 2 1 6 1.564 0 1 1.564 1
gene 1 2 6 -4.87799 0 2 -4.87799 1
gene 3 3 6 3.71775 0 3 3.71775 1
gene 3 4 6 0.0982707 0 4 0.0982707 1
gene 2 5 6 -6.60338 0 5 -6.60338 1
gene 1 1 7 -0.574787 0 6 -0.574787 1
gene 1 2 7 0.665709 0 7 0.665709 1
gene 2 3 7 -1.26071 0 8 -1.26071 0
gene 2 4 7 2.0279 0 9 2.0279 1
gene 3 5 7 2.02727 0 10 2.02727 1
gene 2 3 15 1.6634 0 34 1.6634 1
gene 2 15 7 2.77106 0 35 2.77106 1
genomeend 139

/* Organism #140 Fitness: 8 Error: 0 */
genomestart 140
trait 1 0.1 0 0 0 0 0 0 0 
trait 2 0.1875 0.0287158 0 0.0304134 0 0 0 0.0228052 
trait 3 0.3 0 0 0 0 0 0 0 
node 1 2 1 3
node 2 2 1 1
node 3 3 1 1
node 4 1 1 1
node 5 3 1 1
node 6 3 0 2
node 7 1 0 2
node 15 1 0 0
gene 2 1 6 3.02978 0 1 3.02978 1
gene 1 2 6 -2.49338 0 2 -2.49338 1
gene 3 3 6 1.20039 0 3 1.20039 1
gene 3 4 6 0.50165 0 4 0.50165 1
gene 2 5 6 -4.14822 0 5 -4.14822 1
gene 1 1 7 1.8163 0 6 1.8163 1
gene 1 2 7 3.0339 0 7 3.0339 1
gene 2 3 7 -1.87862 0 8 -1.87862 0
gene 2 4 7 -0.158204 0 9 -0.158204 1
gene 3 5 7 -2.35305 0 10 -2.35305 1
gene 2 3 15 3.03044 0 34 3.03044 1
gene 2 15 7 2.92462 0 35 2.92462 1
genomeend 140

/* Organism #141 Fitness: 43 Error: 0 */
genomestart 141
trait 1 0.381419 0 0 0 0 0 0.158597 0 
trait 2 0.1875 0.0287158 0 0.0304134 0 0 0 0.0228052 
trait 3 0.3 0 0 0 0 0 0 0 
node 1 2 1 3
node 2 2 1 1
node 3 3 1 1
node 4 1 1 1
node 5 3 1 1
node 6 3 0 2
node 7 1 0 2
node 15 1 0 0
gene 2 1 6 2.73566 0 1 2.73566 1
gene 1 2 6 -4.49327 0 2 -4.49327 1
gene 3 3 6 1.28587 0 3 1.28587 1
gene 3 4 6 1.76191 0 4 1.76191 1
gene 2 5 6 -4.51347 0 5 -4.51347 1
gene 1 1 7 -0.0685821 0 6 -0.0685821 1
gene 1 2 7 -0.915505 0 7 -0.915505 1
gene 2 3 7 2.68869 0 8 2.68869 0
gene 2 4 7 -0.28204 0 9 -0.28204 1
gene 3 5 7 -1.50863 0 10 -1.50863 1
gene 2 3 15 1 0 34 1 1
gene 2 15 7 2.0689 0 35 2.0689 1
genomeend 141

/* Organism #142 Fitness: 5 Error: 0 */
genomestart 142
trait 1 0.1 0 0 0 0 0 0 0 
trait 2 0.1875 0.0287158 0 0.0304134 0 0 0 0.0228052 
trait 3 0.3 0 0 0 0 0 0 0 
node 1 2 1 3
node 2 2 1 1
node 3 3 1 1
node 4 1 1 1
node 5 3 1 1
node 6 3 0 2
node 7 1 0 2
node 15 1 0 0
gene 2 1 6 -1.73721 0 1 -1.73721 1
gene 1 2 6 -3.53936 0 2 -3.53936 1
gene 3 3 6 3.27465 0 3 3.27465 1
gene 3 4 6 -0.480513 0 4 -0.480513 1
gene 2 5 6 -7.31756 0 5 -7.31756 1
gene 1 1 7 -0.982097 0 6 -0.982097 1
gene 1 2 7 2.83276 0 7 2.83276 1
gene 2 3 7 1.18743 0 8 1.18743 0
gene 2 4 7 1.52437 0 9 1.52437 1
gene 3 5 7 -2.51611 0 10 -2.51611 1
gene 2 3 15 -1.29697 0 34 -1.29697 1
gene 2 15 7 1.49379 0 35 1.49379 1
genomeend 142

/* Organism #143 Fitness: 16 Error: 0 */
genomestart 143
trait 1 0.1 0 0 0 0 0 0 0 
trait 2 0.1875 0.0287158 0 0.0304134 0 0 0 0.0228052 
trait 3 0.3 0 0 0 0 0 0 0 
node 1 2 1 3
node 2 2 1 1
