
/* Species #1 : (Size 32) (AF 6.14563) (Age 10)  */


/* Organism #0 Fitness: 8.99997 Error: 1.00001 */
genomestart 0
trait 1 0.1 0 0 0 0 0 0 0 
trait 2 0.2 0 0 0 0 0 0 0 
trait 3 0.3 0 0 0 0 0 0 0 
node 1 3 1 3
node 2 2 1 1
node 3 3 1 1
node 4 3 0 2
gene 1 1 4 -2.9635 0 1 -2.9635 1
gene 1 2 4 5.77342 0 2 5.77342 1
gene 1 3 4 5.47567 0 3 5.47567 1
genomeend 0

/* Organism #1 Fitness: 8.99807 Error: 1.00032 */
genomestart 1
trait 1 0.1 0 0 0 0 0 0 0 
trait 2 0.2 0 0 0 0 0 0 0 
trait 3 0.3 0 0 0 0 0 0 0 
node 1 3 1 3
node 2 2 1 1
node 3 3 1 1
node 4 3 0 2
gene 1 1 4 -1.63669 0 1 -1.63669 1
gene 1 2 4 4.09245 0 2 4.09245 1
gene 1 3 4 4.65789 0 3 4.65789 1
genomeend 1

/* Organism #2 Fitness: 8.99933 Error: 1.00011 */
genomestart 2
trait 1 0.1 0 0 0 0 0 0 0 
trait 2 0.2 0 0 0 0 0 0 0 
trait 3 0.301749 0.00371359 0.00245114 0 0.000644971 0 0 0 
node 1 3 1 3
node 2 2 1 1
node 3 3 1 1
node 4 3 0 2
gene 1 1 4 -4.06845 0 1 -4.06845 1
gene 2 2 4 -4.18196 0 2 -4.18196 1
gene 1 3 4 5.93804 0 3 5.93804 1
genomeend 2

/* Organism #3 Fitness: 8.96059 Error: 1.00658 */
genomestart 3
trait 1 0.1 0 0 0 0 0 0 0 
trait 2 0.2 0 0 0 0 0 0 0 
trait 3 0.15 0.399655 0 0 0 0.119817 0 0 
node 1 3 1 3
node 2 2 1 1
node 3 3 1 1
node 4 2 0 2
gene 1 1 4 -1.02743 0 1 -1.02743 1
gene 1 2 4 2.69941 0 2 2.69941 1
gene 2 3 4 5.82822 0 3 5.82822 1
genomeend 3

/* Organism #4 Fitness: 3.99993 Error: 2.00002 */
genomestart 4
trait 1 0.1 0 0 0 0 0 0 0 
trait 2 0.2 0 0 0 0 0 0 0 
trait 3 0.301749 0.00371359 0.00245114 0 0.000644971 0 0 0 
node 1 3 1 3
node 2 2 1 1
node 3 3 1 1
node 4 3 0 2
gene 1 1 4 -3.51597 0 1 -3.51597 1
gene 2 2 4 0.795731 0 2 0.795731 1
gene 1 3 4 5.70685 0 3 5.70685 1
genomeend 4

/* Organism #5 Fitness: 5.24988 Error: 1.70874 */
genomestart 5
trait 1 0.1 0 0 0 0 0 0 0 
trait 2 0.2 0 0 0 0 0 0 0 
trait 3 0.15 0.399655 0 0 0 0.119817 0 0 
node 1 3 1 3
node 2 2 1 1
node 3 3 1 1
node 4 3 0 2
gene 1 1 4 -1.91983 0 1 -1.91983 1
gene 1 2 4 1.73932 0 2 1.73932 1
gene 2 3 4 4.63398 0 3 4.63398 1
genomeend 5

/* Organism #6 Fitness: 4.94428 Error: 1.77643 */
genomestart 6
trait 1 0.1 0 0 0 0 0 0 0 
trait 2 0.2 0 0 0 0 0 0 0 
trait 3 0.3 0 0 0 0 0 0 0 
node 1 3 1 3
node 2 2 1 1
node 3 3 1 1
node 4 3 0 2
gene 1 1 4 0.252821 0 1 0.252821 1
gene 2 2 4 6.33907 0 2 6.33907 1
gene 1 3 4 5.17173 0 3 5.17173 1
genomeend 6

/* Organism #7 Fitness: 8.24778 Error: 1.12811 */
genomestart 7
trait 1 0.1 0 0 0 0 0 0 0 
trait 2 0.2 0 0 0 0 0 0 0 
trait 3 0.225 0.199827 0 0 0 0.0599087 0 0 
node 1 3 1 3
node 2 2 1 1
node 3 3 1 1
node 4 3 0 2
gene 1 1 4 -2.22461 0 1 -2.22461 1
gene 1 2 4 2.61431 0 2 2.61431 1
gene 2 3 4 4.06401 0 3 4.06401 1
genomeend 7

/* Organism #8 Fitness: 8.9886 Error: 1.0019 */
genomestart 8
trait 1 0.1 0 0 0 0 0 0 0 
trait 2 0.2 0 0 0 0 0 0 0 
trait 3 0.3 0 0 0 0 0 0 0 
node 1 3 1 3
node 2 2 1 1
node 3 3 1 1
node 4 3 0 2
gene 1 1 4 -1.57378 0 1 -1.57378 1
gene 1 2 4 2.89811 0 2 2.89811 1
gene 1 3 4 5.95254 0 3 5.95254 1
genomeend 8

/* Organism #9 Fitness: 6.6018 Error: 1.4306 */
genomestart 9
trait 1 0.1 0 0 0 0 0 0 0 
trait 2 0.2 0 0 0 0 0 0 0 
trait 3 0.225 0.199827 0 0 0 0.0599087 0 0 
node 1 3 1 3
node 2 2 1 1
node 3 3 1 1
node 4 3 0 2
gene 1 1 4 -0.056738 0 1 -0.056738 1
gene 1 2 4 4.13006 0 2 4.13006 1
gene 1 3 4 3.60636 0 3 3.60636 1
genomeend 9

/* Organism #10 Fitness: 8.99921 Error: 1.00013 */
genomestart 10
trait 1 0.1 0 0 0 0 0 0 0 
trait 2 0.2 0 0 0 0 0 0 0 
trait 3 0.59822 0.933416 0 0.136649 0 0.0599087 0 0.073838 
node 1 3 1 3
node 2 2 1 1
node 3 3 1 1
node 4 2 0 2
gene 1 1 4 -2.96827 0 1 -2.96827 1
gene 1 2 4 6.31457 0 2 6.31457 1
gene 2 3 4 4.78442 0 3 4.78442 1
genomeend 10

/* Organism #11 Fitness: 8.98633 Error: 1.00228 */
genomestart 11
trait 1 0.1 0 0 0 0 0 0 0 
trait 2 0.2 0 0 0 0 0 0 0 
trait 3 0.303497 0.00742719 0.00490228 0 0.00128994 0 0 0 
node 1 3 1 3
node 2 2 1 1
node 3 3 1 1
node 4 3 0 2
gene 1 1 4 -5.10593 0 1 -5.10593 1
gene 2 2 4 -3.82032 0 2 -3.82032 1
gene 1 3 4 6.34125 0 3 6.34125 1
genomeend 11

/* Organism #12 Fitness: 3.99769 Error: 2.00058 */
genomestart 12
trait 1 0.1 0 0 0 0 0 0 0 
trait 2 0.2 0 0 0 0 0 0 0 
trait 3 0.15 0.399655 0 0 0 0.119817 0 0 
node 1 3 1 3
node 2 2 1 1
node 3 3 1 1
node 4 2 0 2
gene 1 1 4 1.58748 0 1 1.58748 1
gene 1 2 4 5.21743 0 2 5.21743 1
gene 2 3 4 -0.180949 0 3 -0.180949 1
genomeend 12

/* Organism #13 Fitness: 8.99979 Error: 1.00004 */
genomestart 13
trait 1 0.1 0 0 0 0 0 0 0 
trait 2 0.2 0 0 0 0 0 0 0 
trait 3 0.3 0 0 0 0 0 0 0 
node 1 3 1 3
node 2 2 1 1
node 3 3 1 1
node 4 3 0 2
gene 1 1 4 -2.43928 0 1 -2.43928 1
gene 1 2 4 7.35982 0 2 7.35982 1
gene 1 3 4 4.56139 0 3 4.56139 1
genomeend 13

/* Organism #14 Fitness: 8.70417 Error: 1.04972 */
genomestart 14
trait 1 0.1 0 0 0 0 0 0 0 
trait 2 0.2 0 0 0 0 0 0 0 
trait 3 0.303497 0.00742719 0.00490228 0 0.00128994 0 0 0 
node 1 3 1 3
node 2 2 1 1
node 3 3 1 1
node 4 3 0 2
gene 1 1 4 -4.06845 0 1 -4.06845 1
gene 2 2 4 -3.458 0 2 -3.458 1
gene 1 3 4 6.92729 0 3 6.92729 1
genomeend 14

/* Organism #15 Fitness: 7.95835 Error: 1.17895 */
genomestart 15
trait 1 0.1 0 0 0 0 0 0 0 
trait 2 0.2 0 0 0 0 0 0 0 
trait 3 0 0.799309 0 0 0 0.239635 0 0 
node 1 3 1 3
node 2 2 1 1
node 3 3 1 1
node 4 2 0 2
gene 1 1 4 -0.309391 0 1 -0.309391 1
gene 2 2 4 3.99315 0 2 3.99315 1
gene 2 3 4 2.86786 0 3 2.86786 1
genomeend 15

/* Organism #16 Fitness: 1.0101 Error: 2.99496 */
genomestart 16
trait 1 0.1 0 0 0 0 0 0 0 
trait 2 0.2 0 0 0 0 0 0 0 
trait 3 0.075 0.599482 0 0 0 0.179726 0 0 
node 1 3 1 3
node 2 2 1 1
node 3 3 1 1
node 4 2 0 2
gene 1 1 4 -4.59953 0 1 -4.59953 1
gene 2 2 4 2.59647 0 2 2.59647 1
gene 2 3 4 3.10667 0 3 3.10667 1
genomeend 16

/* Organism #17 Fitness: 4.16251 Error: 1.95978 */
genomestart 17
trait 1 0.1 0 0 0 0 0 0 0 
trait 2 0.2 0 0 0 0 0 0 0 
trait 3 0.075 0.599482 0 0 0 0.179726 0 0 
node 1 3 1 3
node 2 2 1 1
node 3 3 1 1
node 4 2 0 2
gene 1 1 4 0.644213 0 1 0.644213 1
gene 2 2 4 3.97519 0 2 3.97519 1
gene 2 3 4 3.99647 0 3 3.99647 1
genomeend 17

/* Organism #18 Fitness: 5.19647 Error: 1.72042 */
genomestart 18
trait 1 0.1 0 0 0 0 0 0 0 
trait 2 0.2 0 0 0 0 0 0 0 
trait 3 0.3 0 0 0 0 0 0 0 
node 1 3 1 3
node 2 2 1 1
node 3 3 1 1
node 4 3 0 2
node 21 1 0 0
gene 1 1 4 -1.5825 0 1 -1.5825 1
gene 1 2 4 3.99634 0 2 3.99634 1
gene 1 3 4 3.5493 0 3 3.5493 0
gene 1 3 21 1 0 57 0 1
gene 1 21 4 3.5493 0 58 0 1
genomeend 18

/* Organism #19 Fitness: 8.84289 Error: 1.0263 */
genomestart 19
trait 1 0.1 0 0 0 0 0 0 0 
trait 2 0.2 0 0 0 0 0 0 0 
trait 3 0.3 0 0 0 0 0 0 0 
node 1 3 1 3
node 2 2 1 1
node 3 3 1 1
node 4 3 0 2
node 21 1 0 0
gene 1 1 4 -3.37447 0 1 -3.37447 1
gene 1 2 4 2.2064 0 2 2.2064 1
gene 1 3 4 5.87166 0 3 5.87166 0
gene 1 3 21 1.05915 0 57 1.05915 1
gene 1 21 4 5.26869 0 58 5.26869 1
genomeend 19

/* Organism #20 Fitness: 5.19647 Error: 1.72042 */
genomestart 20
trait 1 0.1 0 0 0 0 0 0 0 
trait 2 0.2 0 0 0 0 0 0 0 
trait 3 0.3 0 0 0 0 0 0 0 
node 1 3 1 3
node 2 2 1 1
node 3 3 1 1
node 4 3 0 2
node 21 1 0 0
gene 1 1 4 -1.5825 0 1 -1.5825 1
gene 1 2 4 3.99634 0 2 3.99634 1
gene 1 3 4 3.5493 0 3 3.5493 0
gene 1 3 21 1 0 57 0 1
gene 1 21 4 3.5493 0 58 0 1
genomeend 20

/* Organism #21 Fitness: 3.94835 Error: 2.01295 */
genomestart 21
trait 1 0.1 0 0 0 0 0 0 0 
trait 2 0.2 0 0 0 0 0 0 0 
trait 3 0.3 0 0 0 0 0 0 0 
node 1 3 1 3
node 2 2 1 1
node 3 3 1 1
node 4 3 0 2
node 21 1 0 0
gene 1 1 4 -3.21233 0 1 -3.21233 1
gene 1 2 4 5.90416 0 2 5.90416 1
gene 1 3 4 3.26452 0 3 3.26452 0
gene 1 3 21 -0.824948 0 57 -0.824948 1
gene 3 21 4 4.66471 0 58 4.66471 1
genomeend 21

/* Organism #22 Fitness: 5.26408 Error: 1.70564 */
genomestart 22
trait 1 0.1 0 0 0 0 0 0 0 
trait 2 0.2 0 0 0 0 0 0 0 
trait 3 0.3 0 0 0 0 0 0 0 
node 1 3 1 3
node 2 2 1 1
node 3 3 1 1
node 4 3 0 2
node 21 1 0 0
gene 1 1 4 -1.5825 0 1 -1.5825 1
gene 1 2 4 0.378598 0 2 0.378598 1
gene 1 3 4 5.82934 0 3 5.82934 0
gene 1 3 21 -0.370134 0 57 -0.370134 1
gene 1 21 4 3.30586 0 58 3.30586 1
genomeend 22

/* Organism #23 Fitness: 4.01851 Error: 1.99538 */
genomestart 23
trait 1 0.1 0 0 0 0 0 0 0 
trait 2 0.2 0 0 0 0 0 0 0 
trait 3 0.3 0 0 0 0 0 0 0 
node 1 3 1 3
node 2 2 1 1
node 3 3 1 1
node 4 3 0 2
node 21 1 0 0
gene 1 1 4 0.464303 0 1 0.464303 1
gene 1 2 4 4.54026 0 2 4.54026 1
gene 1 3 4 3.84827 0 3 3.84827 0
gene 1 3 21 2.10374 0 57 2.10374 1
gene 1 21 4 1.23316 0 58 1.23316 1
genomeend 23

/* Organism #24 Fitness: 5.19647 Error: 1.72042 */
genomestart 24
trait 1 0.1 0 0 0.181956 0 0.486929 0 0 
trait 2 0.2 0 0 0 0 0 0 0 
trait 3 0.3 0 0 0 0 0 0 0 
node 1 3 1 3
node 2 2 1 1
node 3 3 1 1
node 4 3 0 2
node 21 1 0 0
gene 1 1 4 -1.5825 0 1 -1.5825 1
gene 1 2 4 3.99634 0 2 3.99634 1
gene 1 3 4 3.5493 0 3 3.5493 0
gene 1 3 21 1 0 57 0 1
gene 1 21 4 3.5493 0 58 0 1
genomeend 24

/* Organism #25 Fitness: 3.86826 Error: 2.03321 */
genomestart 25
trait 1 0.1 0 0 0 0 0 0 0 
trait 2 0.2 0 0 0 0 0 0 0 
trait 3 0.3 0 0 0 0 0 0 0 
node 1 3 1 3
node 2 2 1 1
node 3 3 1 1
node 4 3 0 2
node 21 1 0 0
gene 1 1 4 -2.9598 0 1 -2.9598 1
gene 1 2 4 4.96098 0 2 4.96098 1
gene 1 3 4 4.8184 0 3 4.8184 0
gene 1 3 21 -1.37212 0 57 -1.37212 1
gene 1 21 4 4.55106 0 58 4.55106 1
genomeend 25

/* Organism #26 Fitness: 1.03228 Error: 2.98399 */
genomestart 26
trait 1 0.1 0 0 0 0 0 0 0 
trait 2 0.2 0 0 0 0 0 0 0 
trait 3 0.3 0 0 0 0.725962 0 0 0 
node 1 3 1 3
node 2 2 1 1
node 3 3 1 1
node 4 3 0 2
node 21 1 0 0
gene 1 1 4 -1.27632 0 1 -1.27632 1
gene 1 2 4 4.78971 0 2 4.78971 1
gene 1 3 4 2.69522 0 3 2.69522 0
gene 1 3 21 -0.942819 0 57 -0.942819 1
gene 1 21 4 4.28846 0 58 4.28846 1
genomeend 26

/* Organism #27 Fitness: 4.06407 Error: 1.98405 */
genomestart 27
trait 1 0.1 0 0 0 0 0 0 0 
trait 2 0.2 0 0 0 0 0 0 0 
trait 3 0.3 0 0 0 0 0 0 0 
node 1 3 1 3
node 2 2 1 1
node 3 3 1 1
node 4 3 0 2
node 21 1 0 0
gene 1 1 4 -1.41625 0 1 -1.41625 1
gene 1 2 4 4.00592 0 2 4.00592 1
gene 1 3 4 2.94849 0 3 2.94849 0
gene 1 3 21 3.33778 0 57 3.33778 1
gene 1 21 4 4.50662 0 58 4.50662 1
genomeend 27

/* Organism #28 Fitness: 8.82801 Error: 1.0288 */
genomestart 28
trait 1 0.1 0 0 0 0 0 0 0 
trait 2 0.2 0 0 0 0 0 0 0 
trait 3 0.3 0 0 0 0 0 0 0 
node 1 3 1 3
node 2 2 1 1
node 3 3 1 1
node 4 3 0 2
node 21 1 0 0
gene 1 1 4 -3.17624 0 1 -3.17624 1
gene 1 2 4 5.40717 0 2 5.40717 1
gene 1 3 4 3.88881 0 3 3.88881 0
gene 1 3 21 2.01506 0 57 2.01506 1
gene 1 21 4 3.90931 0 58 3.90931 1
genomeend 28

/* Organism #29 Fitness: 4.00293 Error: 1.99927 */
genomestart 29
trait 1 0.1 0 0 0 0 0 0 0 
trait 2 0.2 0 0 0 0 0 0 0 
trait 3 0.3 0 0 0 0 0 0 0 
node 1 2 1 3
node 2 2 1 1
node 3 3 1 1
node 4 3 0 2
node 21 1 0 0
gene 1 1 4 0.885683 0 1 0.885683 1
gene 1 2 4 3.5875 0 2 3.5875 1
gene 1 3 4 4.38309 0 3 4.38309 0
gene 1 3 21 0.485024 0 57 0.485024 1
gene 1 21 4 1.11734 0 58 1.11734 1
genomeend 29

/* Organism #30 Fitness: 5.19647 Error: 1.72042 */
genomestart 30
trait 1 0.1 0 0 0 0 0 0 0 
trait 2 0.2 0 0 0 0 0 0 0 
trait 3 0.3 0 0 0 0 0 0 0 
node 1 3 1 3
node 2 2 1 1
node 3 3 1 1
node 4 3 0 2
node 21 1 0 0
gene 1 1 4 -1.5825 0 1 -1.5825 1
gene 1 2 4 3.99634 0 2 3.99634 1
gene 1 3 4 3.5493 0 3 3.5493 0
gene 1 3 21 1 0 57 0 1
gene 1 21 4 3.5493 0 58 0 1
genomeend 30

/* Organism #31 Fitness: 5.19647 Error: 1.72042 */
genomestart 31
trait 1 0.1 0 0 0 0 0 0 0 
trait 2 0.2 0 0 0 0 0 0 0 
trait 3 0.3 0 0 0 0 0 0 0 
node 1 3 1 3
node 2 2 1 1
node 3 3 1 1
node 4 3 0 2
node 21 1 0 0
gene 1 1 4 -1.5825 0 1 -1.5825 1
gene 1 2 4 3.99634 0 2 3.99634 1
gene 1 3 4 3.5493 0 3 3.5493 0
gene 1 3 21 1 0 57 0 1
gene 1 21 4 3.5493 0 58 0 1
genomeend 31

/* Species #2 : (Size 15) (AF 5.59579) (Age 8)  */


/* Organism #32 Fitness: 8.2756 Error: 1.12327 */
genomestart 32
trait 1 0.1 0 0 0 0 0 0 0 
trait 2 0.2 0 0 0 0 0 0 0 
trait 3 0.3 0 0 0 0 0 0 0 
node 1 2 1 3
node 2 3 1 1
node 3 2 1 1
node 4 1 0 2
node 7 1 0 0
node 12 1 0 0
gene 1 1 4 -2.38982 0 1 -2.38982 1
gene 1 2 4 1.62883 0 2 1.62883 0
gene 1 3 4 -3.73225 0 3 -3.73225 0
gene 1 2 7 -3.77489 0 8 -3.77489 1
gene 1 7 4 3.10974 0 9 3.10974 1
gene 2 3 7 0.899662 0 20 0.899662 1
gene 1 3 12 1.10298 0 23 1.10298 1
gene 1 12 4 -2.75371 0 24 -2.75371 1
gene 1 7 12 -1.58014 0 46 -1.58014 1
genomeend 32

/* Organism #33 Fitness: 3.99112 Error: 2.00222 */
genomestart 33
trait 1 0.1 0 0 0 0 0 0 0 
trait 2 0.2 0 0 0 0 0 0 0 
trait 3 0.3 0 0 0 0 0 0 0 
node 1 2 1 3
node 2 3 1 1
node 3 2 1 1
node 4 1 0 2
node 7 1 0 0
node 12 1 0 0
gene 1 1 4 -1.04881 0 1 -1.04881 1
gene 1 2 4 1.90838 0 2 1.90838 0
gene 1 3 4 -1.33727 0 3 -1.33727 0
gene 1 2 7 -0.161495 0 8 -0.161495 1
gene 1 7 4 2.53512 0 9 2.53512 1
gene 2 3 7 2.35096 0 20 2.35096 1
gene 1 3 12 2.93021 0 23 2.93021 1
gene 1 12 4 -1.05933 0 24 -1.05933 1
gene 1 12 7 -0.626228 0 67 -0.626228 1
genomeend 33

/* Organism #34 Fitness: 3.58949 Error: 2.1054 */
genomestart 34
trait 1 0.1 0 0 0 0 0 0 0 
trait 2 0.2 0 0 0 0 0 0 0 
trait 3 0.3 0 0 0 0 0 0 0 
node 1 2 1 3
node 2 3 1 1
node 3 2 1 1
node 4 1 0 2
node 7 2 0 0
node 12 1 0 0
gene 1 1 4 -1.04881 0 1 -1.04881 1
gene 1 2 4 2.32057 0 2 2.32057 0
gene 1 3 4 -0.581981 0 3 -0.581981 0
gene 1 2 7 -1.95501 0 8 -1.95501 1
gene 1 7 4 4.75542 0 9 4.75542 1
gene 2 3 7 4.24006 0 20 4.24006 1
gene 1 3 12 -0.943212 0 23 -0.943212 1
gene 1 12 4 -3.52638 0 24 -3.52638 1
genomeend 34

/* Organism #35 Fitness: 3.99992 Error: 2.00002 */
genomestart 35
trait 1 0.1 0 0 0 0 0 0 0 
trait 2 0.2 0 0 0 0 0 0 0 
trait 3 0.3 0 0 0 0 0 0 0 
node 1 2 1 3
node 2 3 1 1
node 3 2 1 1
node 4 1 0 2
node 7 1 0 0
node 12 1 0 0
gene 1 1 4 -4.39573 0 1 -4.39573 1
gene 1 2 4 -0.336302 0 2 -0.336302 0
gene 1 3 4 -4.47595 0 3 -4.47595 0
gene 1 2 7 -1.58524 0 8 -1.58524 1
gene 1 7 4 4.52186 0 9 4.52186 1
gene 2 3 7 -2.12127 0 20 -2.12127 1
gene 1 3 12 -0.37453 0 23 -0.37453 1
gene 1 12 4 -2.75371 0 24 -2.75371 1
gene 1 7 12 -1.58014 0 46 -1.58014 1
genomeend 35

/* Organism #36 Fitness: 4.83089 Error: 1.80207 */
genomestart 36
trait 1 0.1 0 0 0 0 0 0 0 
trait 2 0.2 0 0 0 0 0 0 0 
trait 3 0.3 0 0 0 0 0 0 0 
node 1 2 1 3
node 2 3 1 1
node 3 2 1 1
node 4 1 0 2
node 7 1 0 0
node 12 1 0 0
gene 1 1 4 -1.67406 0 1 -1.67406 1
gene 1 2 4 3.65762 0 2 3.65762 0
gene 1 3 4 1.08439 0 3 1.08439 0
gene 1 2 7 1.97064 0 8 1.97064 1
gene 1 7 4 3.30351 0 9 3.30351 1
gene 2 3 7 4.22009 0 20 4.22009 1
gene 1 3 12 4.71316 0 23 4.71316 1
gene 1 12 4 0.612746 0 24 0.612746 1
genomeend 36

/* Organism #37 Fitness: 4.00015 Error: 1.99996 */
genomestart 37
trait 1 0.1 0 0 0 0 0 0 0 
trait 2 0.2 0 0 0 0 0 0 0 
trait 3 0.3 0 0 0 0 0 0 0 
node 1 2 1 3
node 2 3 1 1
node 3 2 1 1
node 4 1 0 2
node 7 1 0 0
node 12 1 0 0
gene 1 1 4 0.184803 0 1 0.184803 1
gene 1 2 4 1.3427 0 2 1.3427 0
gene 1 3 4 0.583637 0 3 0.583637 0
gene 1 2 7 4.23572 0 8 4.23572 1
gene 1 7 4 3.95356 0 9 3.95356 1
gene 2 3 7 4.69735 0 20 4.69735 1
gene 1 3 12 1.58791 0 23 1.58791 1
gene 1 12 4 -0.182305 0 24 -0.182305 1
genomeend 37

/* Organism #38 Fitness: 7.38004 Error: 1.28338 */
genomestart 38
trait 1 0.1 0 0 0 0 0 0 0 
trait 2 0.2 0 0 0 0 0 0 0 
trait 3 0.3 0 0 0 0 0 0 0 
node 1 2 1 3
node 2 3 1 1
node 3 2 1 1
node 4 1 0 2
node 7 1 0 0
node 12 1 0 0
gene 1 1 4 -0.801517 0 1 -0.801517 1
gene 1 2 4 1.98183 0 2 1.98183 0
gene 1 3 4 -2.63813 0 3 -2.63813 0
gene 1 2 7 -2.29363 0 8 -2.29363 1
gene 1 7 4 3.00818 0 9 3.00818 1
gene 2 3 7 1.83115 0 20 1.83115 1
gene 1 3 12 2.57672 0 23 2.57672 1
gene 1 12 4 -1.14996 0 24 -1.14996 1
gene 1 7 12 0.51125 0 46 0.51125 1
genomeend 38

/* Organism #39 Fitness: 6.3189 Error: 1.48626 */
genomestart 39
trait 1 0.1 0 0 0 0 0 0 0 
trait 2 0.2 0 0 0 0 0 0 0 
trait 3 0.3 0 0 0 0 0 0 0 
node 1 2 1 3
node 2 3 1 1
node 3 2 1 1
node 4 1 0 2
node 7 2 0 0
node 12 1 0 0
gene 1 1 4 -1.2961 0 1 -1.2961 1
gene 1 2 4 1.83492 0 2 1.83492 0
gene 1 3 4 -0.0364054 0 3 -0.0364054 0
gene 1 2 7 1.97064 0 8 1.97064 1
gene 1 7 4 2.06205 0 9 2.06205 1
gene 2 3 7 2.87078 0 20 2.87078 1
gene 1 3 12 3.28371 0 23 3.28371 1
gene 1 12 4 -0.968705 0 24 -0.968705 1
gene 3 2 12 0.232479 0 68 0.232479 1
genomeend 39

/* Organism #40 Fitness: 4 Error: 2 */
genomestart 40
trait 1 0.1 0 0 0 0 0 0 0 
trait 2 0.2 0 0 0 0 0 0 0 
trait 3 0.3 0 0 0 0 0 0 0 
node 1 2 1 3
node 2 3 1 1
node 3 2 1 1
node 4 1 0 2
node 7 1 0 0
node 12 1 0 0
gene 1 1 4 -4.52023 0 1 -4.52023 1
gene 1 2 4 0.939281 0 2 0.939281 0
gene 1 3 4 -5.67699 0 3 -5.67699 0
gene 1 2 7 4.50512 0 8 4.50512 1
gene 1 7 4 2.38708 0 9 2.38708 1
gene 2 3 7 1.87537 0 20 1.87537 1
gene 1 3 12 1.79666 0 23 1.79666 1
gene 1 12 4 -2.05145 0 24 -2.05145 1
gene 1 7 12 0.227292 0 46 0.227292 1
genomeend 40

/* Organism #41 Fitness: 8.33194 Error: 1.11349 */
genomestart 41
trait 1 0.1 0 0 0 0 0 0 0 
trait 2 0.2 0 0 0 0 0 0 0 
trait 3 0.3 0 0 0 0 0 0 0 
node 1 2 1 3
node 2 3 1 1
node 3 2 1 1
node 4 1 0 2
node 7 1 0 0
node 12 1 0 0
gene 1 1 4 -0.801517 0 1 -0.801517 1
gene 1 2 4 1.98183 0 2 1.98183 0
gene 1 3 4 -2.63813 0 3 -2.63813 0
gene 1 2 7 -2.29363 0 8 -2.29363 1
gene 1 7 4 3.00818 0 9 3.00818 1
gene 2 3 7 1.83115 0 20 1.83115 1
gene 1 3 12 2.57672 0 23 2.57672 1
gene 1 12 4 -1.14996 0 24 -1.14996 1
gene 1 7 12 0.51125 0 46 0.51125 1
gene 3 1 12 0.582093 0 69 0.582093 1
genomeend 41

/* Organism #42 Fitness: 6.93305 Error: 1.36693 */
genomestart 42
trait 1 0.1 0 0 0 0 0 0 0 
trait 2 0.2 0 0 0 0 0 0 0 
trait 3 0.3 0 0 0 0 0 0 0 
node 1 2 1 3
node 2 3 1 1
node 3 2 1 1
node 4 1 0 2
node 7 1 0 0
node 12 1 0 0
gene 1 1 4 -0.830679 0 1 -0.830679 1
gene 1 2 4 1.81354 0 2 1.81354 0
gene 1 3 4 -2.73936 0 3 -2.73936 1
gene 1 2 7 0.739456 0 8 0.739456 1
gene 1 7 4 1.94805 0 9 1.94805 1
gene 2 3 7 2.69022 0 20 2.69022 1
gene 1 3 12 3.26904 0 23 3.26904 1
gene 1 12 4 -0.355262 0 24 -0.355262 1
gene 1 7 12 0.51125 0 46 0.51125 1
genomeend 42

/* Organism #43 Fitness: 7.70399 Error: 1.22439 */
genomestart 43
trait 1 0.1 0 0 0 0 0 0 0 
trait 2 0.2 0 0 0 0 0 0.789778 0.675906 
trait 3 0.3 0 0 0 0 0 0 0 
node 1 2 1 3
node 2 3 1 1
node 3 2 1 1
node 4 1 0 2
node 7 2 0 0
node 12 1 0 0
gene 1 1 4 -1.2961 0 1 -1.2961 1
gene 1 2 4 1.83492 0 2 1.83492 0
gene 1 3 4 -0.0364054 0 3 -0.0364054 0
gene 1 2 7 1.97064 0 8 1.97064 1
gene 1 7 4 2.06205 0 9 2.06205 1
gene 2 3 7 2.87078 0 20 2.87078 1
gene 1 3 12 3.28371 0 23 3.28371 1
gene 1 12 4 -0.968705 0 24 -0.968705 1
genomeend 43

/* Organism #44 Fitness: 2.87783 Error: 2.30358 */
genomestart 44
trait 1 0.1 0 0 0 0 0 0 0 
trait 2 0.2 0 0 0 0 0 0 0 
trait 3 0.3 0 0 0 0 0 0 0 
node 1 2 1 3
node 2 3 1 1
node 3 2 1 1
node 4 1 0 2
node 7 1 0 0
node 12 1 0 0
gene 1 1 4 -0.801517 0 1 -0.801517 1
gene 1 2 4 1.64525 0 2 1.64525 0
gene 1 3 4 -2.84058 0 3 -2.84058 0
gene 1 2 7 -2.29363 0 8 -2.29363 1
gene 1 7 4 3.00818 0 9 3.00818 1
gene 2 3 7 1.83115 0 20 1.83115 1
gene 1 3 12 3.96137 0 23 3.96137 1
gene 1 12 4 0.43944 0 24 0.43944 1
gene 1 7 12 0.51125 0 46 0.51125 1
gene 3 2 12 0.232479 0 68 0 1
genomeend 44

/* Organism #45 Fitness: 3.99998 Error: 2.00001 */
genomestart 45
trait 1 0.1 0 0 0 0 0 0 0 
trait 2 0.2 0 0 0 0 0 0 0 
trait 3 0.3 0 0 0 0 0 0 0 
node 1 2 1 3
node 2 3 1 1
node 3 2 1 1
node 4 1 0 2
node 7 1 0 0
node 12 1 0 0
gene 1 1 4 -0.137846 0 1 -0.137846 1
gene 1 2 4 2.52577 0 2 2.52577 0
gene 1 3 4 -2.08255 0 3 -2.08255 0
gene 1 2 7 -0.231544 0 8 -0.231544 1
gene 1 7 4 2.10373 0 9 2.10373 1
gene 2 3 7 -0.498617 0 20 -0.498617 1
gene 1 3 12 1.30463 0 23 1.30463 1
gene 1 12 4 2.54665 0 24 2.54665 1
gene 1 7 12 1.09027 0 46 1.09027 1
genomeend 45

/* Organism #46 Fitness: 7.70399 Error: 1.22439 */
genomestart 46
trait 1 0.1 0 0 0 0 0 0 0 
trait 2 0.2 0 0 0 0 0 0 0 
trait 3 0.3 0 0 0 0 0 0 0 
node 1 2 1 3
node 2 3 1 1
node 3 2 1 1
node 4 1 0 2
node 7 1 0 0
node 12 1 0 0
gene 1 1 4 -1.2961 0 1 -1.2961 1
gene 1 2 4 1.83492 0 2 1.83492 0
gene 1 3 4 -0.0364054 0 3 -0.0364054 0
gene 1 2 7 1.97064 0 8 1.97064 1
gene 1 7 4 2.06205 0 9 2.06205 1
gene 2 3 7 2.87078 0 20 2.87078 1
gene 1 3 12 3.28371 0 23 3.28371 1
gene 1 12 4 -0.968705 0 24 -0.968705 1
genomeend 46

/* Species #3 : (Size 16) (AF 5.53504) (Age 7)  */


/* Organism #47 Fitness: 8.08628 Error: 1.15636 */
genomestart 47
trait 1 0.1 0 0 0 0 0 0 0 
trait 2 0.2 0 0 0 0 0 0 0 
trait 3 0.597004 0.339956 0.00244225 0.914464 0 0 0 0 
node 1 1 1 3
node 2 1 1 1
node 3 3 1 1
node 4 2 0 2
node 9 1 0 0
gene 1 1 4 -1.00041 0 1 -1.00041 1
gene 2 2 4 2.65936 0 2 2.65936 1
gene 1 3 4 -2.96797 0 3 -2.96797 0
gene 3 3 9 1.42345 0 12 0.923453 1
gene 1 9 4 -2.60298 0 13 -2.60298 1
genomeend 47

/* Organism #48 Fitness: 5.87409 Error: 1.57635 */
genomestart 48
trait 1 0.1 0 0 0 0 0 0 0 
trait 2 0.2 0 0 0 0 0 0 0 
trait 3 0.597004 0.339956 0.00244225 0.914464 0 0 0 0 
node 1 2 1 3
node 2 1 1 1
node 3 3 1 1
node 4 2 0 2
node 9 1 0 0
gene 1 1 4 -0.0165831 0 1 -0.0165831 1
gene 2 2 4 2.47478 0 2 2.47478 1
gene 1 3 4 -2.69813 0 3 -2.69813 0
gene 3 3 9 -0.826924 0 12 -0.826924 1
gene 1 9 4 -1.43272 0 13 -1.43272 1
genomeend 48

/* Organism #49 Fitness: 6.84767 Error: 1.3832 */
genomestart 49
trait 1 0.1 0 0 0 0 0 0 0 
trait 2 0.2 0 0 0 0 0 0 0 
trait 3 0.597004 0.339956 0.00244225 0.914464 0 0 0 0 
node 1 1 1 3
node 2 1 1 1
node 3 3 1 1
node 4 2 0 2
node 9 1 0 0
gene 1 1 4 -1.21103 0 1 -1.21103 1
gene 2 2 4 2.15496 0 2 2.15496 1
gene 1 3 4 -3.09107 0 3 -3.09107 0
gene 3 3 9 1.33209 0 12 1.33209 1
gene 1 9 4 -1.63843 0 13 -1.45835 1
genomeend 49

/* Organism #50 Fitness: 7.55515 Error: 1.25134 */
genomestart 50
trait 1 0.1 0 0 0 0 0 0 0 
trait 2 0.2 0 0 0 0 0 0 0 
trait 3 0.597004 0.339956 0.00244225 0.914464 0 0 0 0 
node 1 1 1 3
node 2 1 1 1
node 3 3 1 1
node 4 2 0 2
node 9 1 0 0
gene 1 1 4 -1.10572 0 1 -1.10572 1
gene 2 2 4 2.40716 0 2 2.40716 1
gene 1 3 4 -2.96797 0 3 -2.96797 0
gene 3 3 9 1.42345 0 12 0.923453 1
gene 1 9 4 -2.12071 0 13 -2.03066 1
genomeend 50

/* Organism #51 Fitness: 3.08483 Error: 2.24363 */
genomestart 51
trait 1 0.1 0 0 0 0 0 0 0 
trait 2 0.2 0 0 0 0 0 0 0 
trait 3 0.597004 0.339956 0.00244225 0.914464 0 0 0 0 
node 1 1 1 3
node 2 1 1 1
node 3 3 1 1
node 4 2 0 2
node 9 1 0 0
gene 1 1 4 -0.264191 0 1 -0.264191 1
gene 2 2 4 1.70966 0 2 1.70966 1
gene 1 3 4 -3.20076 0 3 -3.20076 0
gene 3 3 9 -0.059697 0 12 -0.059697 1
gene 1 9 4 -3.58109 0 13 -3.58109 1
genomeend 51

/* Organism #52 Fitness: 4.42455 Error: 1.89654 */
genomestart 52
trait 1 0.1 0 0 0 0 0 0 0 
trait 2 0.2 0 0 0 0 0 0 0 
trait 3 0.597004 0.339956 0.00244225 0.914464 0 0 0 0 
node 1 1 1 3
node 2 1 1 1
node 3 3 1 1
node 4 2 0 2
node 9 1 0 0
gene 1 1 4 1.09069 0 1 1.09069 1
gene 2 2 4 0.0880373 0 2 0.0880373 1
gene 1 3 4 -1.04283 0 3 -1.04283 0
gene 3 3 9 -4.1461 0 12 -4.1461 1
gene 1 9 4 -2.4039 0 13 -2.4039 1
genomeend 52

/* Organism #53 Fitness: 3.99536 Error: 2.00116 */
genomestart 53
trait 1 0.1 0 0 0 0 0 0 0 
trait 2 0.2 0 0 0 0 0 0 0 
trait 3 0.597004 0.339956 0.00244225 0.914464 0 0 0 0 
node 1 1 1 3
node 2 1 1 1
node 3 3 1 1
node 4 2 0 2
node 9 1 0 0
gene 1 1 4 -0.542341 0 1 -0.542341 1
gene 2 2 4 2.99858 0 2 2.99858 1
gene 1 3 4 -1.35844 0 3 -1.35844 0
gene 3 3 9 -0.122069 0 12 -0.372069 1
gene 1 9 4 -2.45592 0 13 -2.36588 1
genomeend 53

/* Organism #54 Fitness: 8.59054 Error: 1.06904 */
genomestart 54
trait 1 0.1 0 0 0 0 0 0 0 
trait 2 0.2 0 0 0 0 0 0 0 
trait 3 0.597004 0.339956 0.00244225 0.914464 0 0 0 0 
node 1 1 1 3
node 2 1 1 1
node 3 1 1 1
node 4 2 0 2
node 9 1 0 0
gene 1 1 4 0.660329 0 1 0.660329 1
gene 2 2 4 3.14383 0 2 3.14383 1
gene 1 3 4 1.17046 0 3 1.17046 0
gene 3 3 9 -0.854825 0 12 -0.854825 1
gene 1 9 4 -2.83069 0 13 -2.83069 1
genomeend 54

/* Organism #55 Fitness: 4.3681 Error: 1.91 */
genomestart 55
trait 1 0.1 0 0 0 0 0 0 0 
trait 2 0.2 0 0 0 0 0 0 0 
trait 3 1 0.339956 0.00457679 0.914464 0.428649 0 0 0 
node 1 1 1 3
node 2 1 1 1
node 3 3 1 1
node 4 2 0 2
node 9 2 0 0
gene 1 1 4 -0.0319135 0 1 -0.0319135 1
gene 2 2 4 3.45521 0 2 3.45521 1
gene 1 3 4 -1.00457 0 3 -1.00457 0
gene 3 3 9 -0.948846 0 12 -0.948846 1
gene 1 9 4 -0.153994 0 13 -0.153994 1
genomeend 55

/* Organism #56 Fitness: 5.19994 Error: 1.71966 */
genomestart 56
trait 1 0.1 0 0 0 0 0 0 0 
trait 2 0.2 0 0 0 0 0 0 0 
trait 3 0.597004 0.339956 0.00244225 0.914464 0 0 0 0 
node 1 1 1 3
node 2 1 1 1
node 3 3 1 1
node 4 2 0 2
node 9 1 0 0
gene 1 1 4 -1.23231 0 1 -1.23231 1
gene 2 2 4 2.30256 0 2 2.30256 1
gene 1 3 4 -3.00635 0 3 -3.00635 0
gene 3 3 9 1.20605 0 12 1.20605 1
gene 1 9 4 -2.52177 0 13 -2.52177 1
genomeend 56

/* Organism #57 Fitness: 4.00071 Error: 1.99982 */
genomestart 57
trait 1 0.1 0 0 0 0 0 0 0 
trait 2 0.2 0 0 0 0 0 0 0 
trait 3 1 0.489678 0 0.164722 0 0.455089 0 0 
node 1 1 1 3
node 2 1 1 1
node 3 3 1 1
node 4 2 0 2
node 9 1 0 0
gene 1 1 4 -0.754025 0 1 -0.754025 1
gene 2 2 4 6.33231 0 2 6.33231 1
gene 1 3 4 -1.86228 0 3 -1.86228 0
gene 3 3 9 -0.208266 0 12 -0.208266 1
gene 1 9 4 -3.77536 0 13 -3.77536 1
genomeend 57

/* Organism #58 Fitness: 3.83095 Error: 2.04272 */
genomestart 58
trait 1 0.1 0 0 0 0 0 0 0 
trait 2 0.2 0 0 0 0 0 0 0 
trait 3 0.597004 0.339956 0.00244225 0.914464 0 0 0 0 
node 1 1 1 3
node 2 1 1 1
node 3 3 1 1
node 4 2 0 2
node 9 1 0 0
gene 1 1 4 -0.525464 0 1 -0.525464 1
gene 2 2 4 0.0529902 0 2 0.0529902 1
gene 1 3 4 -1.31821 0 3 -1.31821 0
gene 3 3 9 -0.167752 0 12 -0.167752 1
gene 1 9 4 2.10058 0 13 2.10058 1
genomeend 58

/* Organism #59 Fitness: 4.39925 Error: 1.90256 */
genomestart 59
trait 1 0.1 0 0 0 0 0 0 0 
trait 2 0.2 0 0 0 0 0 0 0 
trait 3 0.597004 0.339956 0.00244225 0.914464 0 0 0 0 
node 1 1 1 3
node 2 1 1 1
node 3 3 1 1
node 4 2 0 2
node 9 1 0 0
gene 1 1 4 2.3135 0 1 2.3135 1
gene 2 2 4 1.73008 0 2 1.73008 1
gene 1 3 4 0.0581811 0 3 0.0581811 0
gene 3 3 9 -1.92228 0 12 -1.92228 1
gene 1 9 4 -3.72305 0 13 -3.72305 1
genomeend 59

/* Organism #60 Fitness: 6.84834 Error: 1.38307 */
genomestart 60
trait 1 0.1 0 0 0 0 0 0 0 
trait 2 0.2 0 0 0 0 0 0 0 
trait 3 0.597004 0.339956 0.00244225 0.914464 0 0 0 0 
node 1 1 1 3
node 2 1 1 1
node 3 3 1 1
node 4 2 0 2
node 9 1 0 0
gene 1 1 4 -1.21103 0 1 -1.21103 1
gene 2 2 4 2.15496 0 2 2.15496 1
gene 1 3 4 -2.96797 0 3 -2.96797 0
gene 3 3 9 1.42345 0 12 0.923453 1
gene 1 9 4 -1.63843 0 13 -1.45835 1
genomeend 60

/* Organism #61 Fitness: 6.85887 Error: 1.38106 */
genomestart 61
trait 1 0.1 0 0 0 0 0 0 0 
trait 2 0.2 0 0 0 0 0 0 0 
trait 3 0.597004 0.339956 0.00244225 0.914464 0 0 0 0 
node 1 1 1 3
node 2 1 1 1
node 3 3 1 1
node 4 2 0 2
node 9 1 0 0
gene 1 1 4 -1.00041 0 1 -1.00041 1
gene 2 2 4 2.65936 0 2 2.65936 1
gene 1 3 4 -3.09107 0 3 -3.09107 0
gene 3 3 9 1.33209 0 12 1.33209 1
gene 1 9 4 1.76356 0 13 1.76356 1
genomeend 61

/* Organism #62 Fitness: 4.59605 Error: 1.85616 */
genomestart 62
trait 1 0.1 0 0 0 0 0 0 0 
trait 2 0.2 0 0 0 0 0 0 0 
trait 3 0.597004 0.339956 0.00244225 0.914464 0 0 0 0 
node 1 1 1 3
node 2 1 1 1
node 3 3 1 1
node 4 2 0 2
node 9 1 0 0
gene 1 1 4 -2.74645 0 1 -2.74645 1
gene 2 2 4 3.91179 0 2 3.91179 1
gene 1 3 4 -5.39586 0 3 -5.39586 0
gene 3 3 9 1.42345 0 12 1.42345 1
gene 1 9 4 -0.842402 0 13 -0.842402 1
genomeend 62

/* Species #4 : (Size 17) (AF 4.84461) (Age 7)  */


/* Organism #63 Fitness: 7.70801 Error: 1.22367 */
genomestart 63
trait 1 0.1 0 0 0 0 0 0 0 
trait 2 0.2 0 0 0 0 0 0 0 
trait 3 0.32798 0.0594175 0.0392182 0 0.0103195 0 0 0 
node 1 1 1 3
node 2 2 1 1
node 3 2 1 1
node 4 1 0 2
node 10 1 0 0
node 11 1 0 0
gene 2 1 4 -0.362529 0 1 -0.362529 1
gene 2 2 4 2.37282 0 2 2.37282 1
gene 1 3 4 -1.25242 0 3 -1.25242 1
gene 2 2 10 1.10492 0 14 1.10492 1
gene 2 10 4 0.799381 0 15 0.799381 1
gene 1 3 11 1.13894 0 18 1.13894 1
gene 1 11 4 -4.62756 0 19 -4.62756 1
gene 2 11 10 -1.87382 0 36 -1.87382 1
genomeend 63

/* Organism #64 Fitness: 7.70801 Error: 1.22367 */
genomestart 64
trait 1 0.1 0 0 0 0 0 0 0 
trait 2 0.2 0 0 0 0 0 0 0 
trait 3 0.32798 0.0594175 0.0392182 0 0.0103195 0 0 0 
node 1 1 1 3
node 2 2 1 1
node 3 2 1 1
node 4 1 0 2
node 10 1 0 0
node 11 1 0 0
gene 2 1 4 -0.362529 0 1 -0.362529 1
gene 2 2 4 2.37282 0 2 2.37282 1
gene 1 3 4 -1.25242 0 3 -1.25242 1
gene 2 2 10 1.10492 0 14 1.10492 1
gene 2 10 4 0.799381 0 15 0.799381 1
gene 1 3 11 1.13894 0 18 1.13894 1
gene 1 11 4 -4.62756 0 19 -4.62756 1
gene 2 11 10 -1.87382 0 36 -1.87382 1
genomeend 64

/* Organism #65 Fitness: 3.99995 Error: 2.00001 */
genomestart 65
trait 1 0.1 0 0 0 0 0 0 0 
trait 2 0.2 0 0 0 0 0 0 0 
trait 3 0.32798 0.0594175 0.0392182 0 0.0103195 0 0 0 
node 1 1 1 3
node 2 2 1 1
node 3 2 1 1
node 4 1 0 2
node 10 1 0 0
node 11 1 0 0
gene 2 1 4 -0.71603 0 1 -0.71603 1
gene 2 2 4 3.94371 0 2 3.94371 0
gene 1 3 4 -1.02259 0 3 -1.02259 0
gene 2 2 10 -1.31695 0 14 -1.31695 1
gene 2 10 4 0.180198 0 15 0.180198 1
gene 1 3 11 0.842866 0 18 0.842866 1
gene 1 11 4 -2.14548 0 19 -2.14548 1
gene 2 11 10 -0.898054 0 36 -0.898054 1
genomeend 65

/* Organism #66 Fitness: 6.21494 Error: 1.50702 */
genomestart 66
trait 1 0.1 0 0 0 0 0 0 0 
trait 2 0.2 0 0 0 0 0 0 0 
trait 3 0.32798 0.0594175 0.0392182 0 0.0103195 0 0 0 
node 1 1 1 3
node 2 2 1 1
node 3 2 1 1
node 4 1 0 2
node 10 1 0 0
node 11 1 0 0
gene 2 1 4 0.25826 0 1 0.25826 1
gene 2 2 4 1.25244 0 2 1.25244 0
gene 1 3 4 -4.48983 0 3 -4.48983 0
gene 2 2 10 2.21871 0 14 2.21871 1
gene 2 10 4 1.86961 0 15 1.86961 1
gene 1 3 11 0.410093 0 18 0.410093 1
gene 1 11 4 -2.74138 0 19 -2.74138 1
genomeend 66

/* Organism #67 Fitness: 4.02766 Error: 1.9931 */
genomestart 67
trait 1 0.05 0 0.338075 0 0 0 0.331883 0.0482438 
trait 2 0.2 0 0 0 0 0 0 0 
trait 3 0.32798 0.0594175 0.0392182 0 0.0103195 0 0 0 
node 1 1 1 3
node 2 2 1 1
node 3 2 1 1
node 4 1 0 2
node 10 1 0 0
node 11 1 0 0
gene 2 1 4 -1.14718 0 1 -1.14718 1
gene 2 2 4 2.02393 0 2 2.02393 1
gene 1 3 4 -3.08377 0 3 -3.08377 0
gene 2 2 10 -1.04008 0 14 -1.04008 1
gene 2 10 4 -0.784479 0 15 -0.784479 1
gene 1 3 11 1.41223 0 18 1.41223 1
gene 1 11 4 -0.131144 0 19 -0.131144 1
gene 2 11 10 -0.421323 0 36 -0.421323 1
genomeend 67

/* Organism #68 Fitness: 8.61284 Error: 1.06524 */
genomestart 68
trait 1 0.1 0 0 0 0 0 0 0 
trait 2 0.2 0 0 0 0 0 0 0 
trait 3 0.32798 0 0.915119 0 0 0 0.843917 0 
node 1 1 1 3
node 2 2 1 1
node 3 2 1 1
node 4 1 0 2
node 10 1 0 0
node 11 1 0 0
gene 2 1 4 -0.762835 0 1 -0.762835 1
gene 2 2 4 0.54217 0 2 0.54217 1
gene 1 3 4 -5.06881 0 3 -5.06881 1
gene 2 2 10 2.49219 0 14 2.49219 1
gene 2 10 4 2.60717 0 15 2.60717 1
gene 1 3 11 0.491046 0 18 0.491046 1
gene 1 11 4 -3.68051 0 19 -3.68051 1
genomeend 68

/* Organism #69 Fitness: 3.95988 Error: 2.01006 */
genomestart 69
trait 1 0.1 0 0 0 0 0 0 0 
trait 2 0.2 0 0 0 0 0 0 0 
trait 3 0.32798 0.0594175 0.0392182 0 0.0103195 0 0 0 
node 1 1 1 3
node 2 3 1 1
node 3 2 1 1
node 4 1 0 2
node 10 1 0 0
node 11 1 0 0
gene 2 1 4 0.890299 0 1 0.890299 1
gene 2 2 4 0.163502 0 2 0.163502 1
gene 1 3 4 -3.02431 0 3 -3.02431 1
gene 2 2 10 2.30717 0 14 2.30717 1
gene 2 10 4 -1.40282 0 15 -1.40282 1
gene 1 3 11 0.168557 0 18 0.168557 1
gene 1 11 4 -3.64112 0 19 -3.64112 1
gene 2 11 10 -4.01712 0 36 -4.01712 1
genomeend 69

/* Organism #70 Fitness: 2.97675 Error: 2.27467 */
genomestart 70
trait 1 0.1 0 0 0 0 0 0 0 
trait 2 0.2 0 0 0 0 0 0 0 
trait 3 0.32798 0.0594175 0.0392182 0 0.0103195 0 0 0 
node 1 1 1 3
node 2 2 1 1
node 3 2 1 1
node 4 1 0 2
node 10 1 0 0
node 11 1 0 0
gene 2 1 4 1.37829 0 1 1.37829 1
gene 2 2 4 1.26565 0 2 1.26565 0
gene 1 3 4 -1.23925 0 3 -1.23925 0
gene 2 2 10 0.148965 0 14 0.148965 1
gene 2 10 4 4.28699 0 15 4.28699 1
gene 1 3 11 3.92667 0 18 3.92667 1
gene 1 11 4 -3.33444 0 19 -3.33444 1
genomeend 70

/* Organism #71 Fitness: 4 Error: 2 */
genomestart 71
trait 1 0.05 0 0.338075 0 0 0 0.331883 0.0482438 
trait 2 0.2 0 0 0 0 0 0 0 
trait 3 0.32798 0.0594175 0.0392182 0 0.0103195 0 0 0 
node 1 1 1 3
node 2 2 1 1
node 3 2 1 1
node 4 1 0 2
node 10 1 0 0
node 11 1 0 0
node 24 1 0 0
gene 2 1 4 -1.48054 0 1 -1.48054 1
gene 2 2 4 2.37282 0 2 2.37282 0
gene 1 3 4 -1.25242 0 3 -1.25242 0
gene 2 2 10 0.531694 0 14 0.531694 1
gene 2 10 4 0.799381 0 15 0.799381 1
gene 1 3 11 1.13894 0 18 1.13894 1
gene 1 11 4 -4.62756 0 19 -4.62756 1
gene 2 11 10 -1.87382 0 36 -1.87382 0
gene 2 11 24 1 0 70 0 1
gene 2 24 10 -1.87382 0 71 0 1
genomeend 71

/* Organism #72 Fitness: 4.00637 Error: 1.99841 */
genomestart 72
trait 1 0.1 0 0 0 0 0 0 0 
trait 2 0.2 0 0 0 0 0 0 0 
trait 3 0.32798 0.0594175 0.0392182 0 0.0103195 0 0 0 
node 1 1 1 3
node 2 2 1 1
node 3 2 1 1
node 4 1 0 2
node 10 1 0 0
node 11 1 0 0
gene 2 1 4 1.59385 0 1 1.59385 1
gene 2 2 4 2.5841 0 2 2.5841 0
gene 1 3 4 -4.48521 0 3 -4.48521 0
gene 2 2 10 2.76628 0 14 2.76628 1
gene 2 10 4 1.67922 0 15 1.67922 1
gene 1 3 11 -0.841741 0 18 -0.841741 1
gene 1 11 4 -2.25943 0 19 -2.25943 1
genomeend 72

/* Organism #73 Fitness: 5.47125 Error: 1.66093 */
genomestart 73
trait 1 0.05 0 0 0 0 0 0.331883 0.77821 
trait 2 0.2 0 0 0 0 0 0 0 
trait 3 0.32798 0.0594175 0.0392182 0 0.0103195 0 0 0 
node 1 1 1 3
node 2 2 1 1
node 3 2 1 1
node 4 1 0 2
node 10 1 0 0
node 11 1 0 0
gene 2 1 4 -2.55461 0 1 -2.55461 1
gene 2 2 4 -0.289764 0 2 -0.289764 1
gene 1 3 4 -3.12509 0 3 -3.12509 0
gene 2 2 10 1.28656 0 14 1.28656 1
gene 2 10 4 5.01464 0 15 5.01464 1
gene 1 3 11 -0.613673 0 18 -0.613673 1
gene 1 11 4 -1.54803 0 19 -1.54803 1
genomeend 73

/* Organism #74 Fitness: 3.99879 Error: 2.0003 */
genomestart 74
trait 1 0.1 0 0 0 0 0 0 0 
trait 2 0.2 0 0 0 0 0 0 0 
trait 3 0.32798 0.0594175 0.0392182 0 0.0103195 0 0 0 
node 1 1 1 3
node 2 2 1 1
node 3 2 1 1
node 4 1 0 2
node 10 1 0 0
node 11 1 0 0
gene 2 1 4 0.866846 0 1 0.866846 1
gene 2 2 4 -1.19554 0 2 -1.19554 1
gene 1 3 4 2.06705 0 3 2.06705 1
gene 2 2 10 1.10492 0 14 1.10492 1
gene 2 10 4 0.799381 0 15 0.799381 1
gene 1 3 11 -0.831824 0 18 -0.831824 1
gene 1 11 4 -5.02022 0 19 -5.02022 1
gene 2 11 10 -1.60433 0 36 -1.60433 1
genomeend 74

/* Organism #75 Fitness: 4.04302 Error: 1.98927 */
genomestart 75
trait 1 0.05 0 0.338075 0 0 0 0.331883 0.0482438 
trait 2 0.2 0 0 0 0 0 0 0 
trait 3 0.32798 0.0594175 0.0392182 0 0.0103195 0 0 0 
node 1 1 1 3
node 2 2 1 1
node 3 2 1 1
node 4 1 0 2
node 10 1 0 0
node 11 1 0 0
gene 2 1 4 -0.924211 0 1 -0.924211 1
gene 2 2 4 3.26996 0 2 3.26996 0
gene 1 3 4 -7.30288 0 3 -7.30288 0
gene 2 2 10 2.42178 0 14 2.42178 1
gene 2 10 4 1.21977 0 15 1.21977 1
gene 1 3 11 1.86198 0 18 1.86198 1
gene 1 11 4 -2.41763 0 19 -2.41763 1
gene 2 11 10 -2.61154 0 36 -2.61154 1
genomeend 75

/* Organism #76 Fitness: 4 Error: 2 */
genomestart 76
trait 1 0.1 0 0 0 0 0 0 0 
trait 2 0.2 0 0 0 0 0 0 0 
trait 3 0.32798 0.0594175 0.0392182 0 0.0103195 0 0 0 
node 1 1 1 3
node 2 2 1 1
node 3 2 1 1
node 4 1 0 2
node 10 1 0 0
node 11 1 0 0
gene 2 1 4 -2.56551 0 1 -2.56551 1
gene 2 2 4 3.82952 0 2 3.82952 0
gene 1 3 4 0.959725 0 3 0.959725 0
gene 2 2 10 2.89679 0 14 2.89679 1
gene 2 10 4 -0.0970062 0 15 -0.0970062 1
gene 1 3 11 1.29825 0 18 1.29825 1
gene 1 11 4 -2.25773 0 19 -2.25773 1
gene 2 11 10 -0.0834305 0 36 -0.0834305 1
genomeend 76

/* Organism #77 Fitness: 5.34267 Error: 1.68858 */
genomestart 77
trait 1 0.05 0 0.338075 0 0 0 0.331883 0.0482438 
trait 2 0.2 0 0 0 0 0 0 0 
trait 3 0.32798 0.0594175 0.0392182 0 0.0103195 0 0 0 
node 1 1 1 3
node 2 2 1 1
node 3 2 1 1
node 4 1 0 2
node 10 1 0 0
node 11 1 0 0
gene 2 1 4 0.936408 0 1 0.936408 1
gene 2 2 4 3.54853 0 2 3.54853 0
gene 3 3 4 -6.63082 0 3 -6.63082 1
gene 2 2 10 2.66024 0 14 2.66024 1
gene 2 10 4 2.20059 0 15 2.20059 1
gene 1 3 11 -0.745607 0 18 -0.745607 1
gene 1 11 4 -3.75495 0 19 -3.75495 1
genomeend 77

/* Organism #78 Fitness: 3.84773 Error: 2.03844 */
genomestart 78
trait 1 0.1 0 0 0 0 0 0 0 
trait 2 0.2 0 0 0 0 0 0 0 
trait 3 0.32798 0.0594175 0.0392182 0 0.0103195 0 0 0 
node 1 1 1 3
node 2 2 1 1
node 3 2 1 1
node 4 1 0 2
node 10 3 0 0
node 11 1 0 0
gene 2 1 4 1.87183 0 1 1.87183 1
gene 2 2 4 2.04361 0 2 2.04361 0
gene 1 3 4 -3.59477 0 3 -3.59477 0
gene 2 2 10 -0.110418 0 14 -0.110418 1
gene 2 10 4 0.662128 0 15 0.662128 1
gene 1 3 11 4.50374 0 18 4.50374 1
gene 1 11 4 -5.21869 0 19 -5.21869 1
genomeend 78

/* Organism #79 Fitness: 2.44045 Error: 2.43781 */
genomestart 79
trait 1 0.1 0 0 0 0 0 0 0 
trait 2 0.2 0 0 0 0 0 0 0 
trait 3 0.32798 0.0594175 0.0392182 0 0.0103195 0 0 0 
node 1 1 1 3
node 2 2 1 1
node 3 2 1 1
node 4 1 0 2
node 10 1 0 0
node 11 1 0 0
gene 2 1 4 1.09624 0 1 1.09624 1
gene 2 2 4 2.33975 0 2 2.33975 0
gene 1 3 4 -0.3494 0 3 -0.3494 0
gene 2 2 10 2.14283 0 14 2.14283 1
gene 2 10 4 0.652762 0 15 0.652762 1
gene 1 3 11 3.48301 0 18 3.48301 1
gene 1 11 4 -1.31319 0 19 -1.31319 1
gene 2 11 10 -1.92689 0 36 -1.92689 1
genomeend 79

/* Species #5 : (Size 10) (AF 4.92275) (Age 6)  */


/* Organism #80 Fitness: 1.58464 Error: 2.74118 */
genomestart 80
trait 1 0.1 0 0 0 0 0 0 0 
trait 2 0.2 0 0 0 0 0 0 0 
trait 3 0.3 0 0 0 0 0 0 0 
node 1 2 1 3
node 2 2 1 1
node 3 3 1 1
node 4 3 0 2
node 11 1 0 0
gene 1 1 4 -2.7482 0 1 -2.7482 1
gene 2 2 4 -2.40073 0 2 -2.40073 1
gene 1 3 4 1.71709 0 3 1.71709 0
gene 1 3 11 3.6807 0 18 3.6807 1
gene 2 11 4 5.96252 0 19 5.96252 1
genomeend 80

/* Organism #81 Fitness: 8.72912 Error: 1.04549 */
genomestart 81
trait 1 0.1 0 0 0 0 0 0 0 
trait 2 0.2 0 0 0 0 0 0 0 
trait 3 0.3 0 0 0 0 0 0 0 
node 1 1 1 3
node 2 2 1 1
node 3 3 1 1
node 4 3 0 2
node 11 1 0 0
gene 1 1 4 -3.89108 0 1 -3.89108 1
gene 2 2 4 -4.48802 0 2 -4.48802 1
gene 1 3 4 2.78402 0 3 2.78402 0
gene 1 3 11 0.550227 0 18 0.550227 1
gene 1 11 4 4.81271 0 19 4.81271 1
gene 3 2 11 0.881321 0 61 0.881321 1
genomeend 81

/* Organism #82 Fitness: 3.42579 Error: 2.14911 */
genomestart 82
trait 1 0.1 0 0 0 0 0 0 0 
trait 2 0.2 0 0 0 0 0 0 0 
trait 3 0.3 0 0 0 0 0 0 0 
node 1 2 1 3
node 2 2 1 1
node 3 3 1 1
node 4 3 0 2
node 11 1 0 0
gene 1 1 4 -2.15708 0 1 -2.15708 1
gene 2 2 4 -1.59778 0 2 -1.59778 1
gene 1 3 4 1.08244 0 3 1.08244 0
gene 1 3 11 2.26517 0 18 2.26517 1
gene 2 11 4 4.82321 0 19 4.82321 1
gene 3 2 11 -2.03517 0 29 -2.03517 1
genomeend 82

/* Organism #83 Fitness: 3.99998 Error: 2.00001 */
genomestart 83
trait 1 0.1 0 0 0 0 0 0 0 
trait 2 0.2 0 0 0 0 0 0 0 
trait 3 0.3 0 0 0 0 0 0 0 
node 1 2 1 3
node 2 2 1 1
node 3 3 1 1
node 4 3 0 2
node 11 1 0 0
gene 1 1 4 2.4302 0 1 2.4302 1
gene 2 2 4 1.24034 0 2 1.24034 1
gene 1 3 4 -1.02181 0 3 -1.02181 0
gene 1 3 11 -1.20167 0 18 -1.20167 1
gene 2 11 4 5.96252 0 19 5.96252 1
gene 3 2 11 -1.09035 0 61 -1.09035 1
genomeend 83

/* Organism #84 Fitness: 4 Error: 2 */
genomestart 84
trait 1 0.1 0 0 0 0 0 0 0 
trait 2 0.2 0 0 0 0 0 0 0 
trait 3 0.3 0 0 0 0 0 0 0 
node 1 1 1 3
node 2 2 1 1
node 3 3 1 1
node 4 3 0 2
node 11 3 0 0
gene 1 1 4 -6.05035 0 1 -6.05035 1
gene 2 2 4 -5.74815 0 2 -5.74815 1
gene 1 3 4 3.94732 0 3 3.94732 0
gene 1 3 11 -1.37542 0 18 -1.37542 1
gene 1 11 4 3.51697 0 19 3.51697 1
gene 3 2 11 0.202474 0 61 0.202474 1
genomeend 84

/* Organism #85 Fitness: 6.49878 Error: 1.45073 */
genomestart 85
trait 1 0.1 0 0 0 0 0 0 0 
trait 2 0.2 0 0 0 0 0 0 0 
trait 3 0.3 0 0 0 0 0 0 0 
node 1 2 1 3
node 2 2 1 1
node 3 3 1 1
node 4 3 0 2
node 11 1 0 0
gene 1 1 4 -3.58831 0 1 -3.58831 1
gene 2 2 4 0.618503 0 2 0.618503 1
gene 1 3 4 -0.737015 0 3 -0.737015 0
gene 1 3 11 0.849645 0 18 0.849645 1
gene 1 11 4 3.68391 0 19 3.68391 1
gene 3 2 11 -1.68809 0 29 -1.68809 1
genomeend 85

/* Organism #86 Fitness: 4.00096 Error: 1.99976 */
genomestart 86
trait 1 0.1 0 0 0 0 0 0 0 
trait 2 0.2 0 0 0 0 0 0 0 
trait 3 0.3 0 0 0 0 0 0 0 
node 1 1 1 3
node 2 2 1 1
node 3 3 1 1
node 4 3 0 2
node 11 1 0 0
gene 1 1 4 -1.28938 0 1 -1.28938 1
gene 2 2 4 -1.24384 0 2 -1.24384 1
gene 1 3 4 1.2646 0 3 1.2646 0
gene 1 3 11 4.35378 0 18 4.35378 1
gene 2 11 4 5.96252 0 19 5.96252 1
gene 3 2 11 0.850189 0 29 0.850189 1
genomeend 86

/* Organism #87 Fitness: 8.88271 Error: 1.01961 */
genomestart 87
trait 1 0.1 0 0 0 0 0 0 0 
trait 2 0.2 0 0 0 0 0 0 0 
trait 3 0.3 0 0 0 0 0 0 0 
node 1 1 1 3
node 2 2 1 1
node 3 3 1 1
node 4 3 0 2
node 11 1 0 0
gene 1 1 4 -3.89108 0 1 -3.89108 1
gene 2 2 4 -4.48802 0 2 -4.48802 1
gene 1 3 4 2.78402 0 3 2.78402 1
gene 1 3 11 0.550227 0 18 0.550227 1
gene 1 11 4 4.81271 0 19 4.81271 1
gene 3 2 11 0.881321 0 61 0.881321 1
gene 3 1 11 -0.215484 0 76 -0.215484 1
genomeend 87

/* Organism #88 Fitness: 4.1055 Error: 1.9738 */
genomestart 88
trait 1 0.1 0 0 0 0 0 0 0 
trait 2 0.2 0 0 0 0 0 0 0 
trait 3 0.3 0 0 0 0 0 0 0 
node 1 1 1 3
node 2 2 1 1
node 3 3 1 1
node 4 3 0 2
node 11 1 0 0
gene 1 1 4 -2.08179 0 1 -2.08179 1
gene 2 2 4 -2.79382 0 2 -2.79382 1
gene 1 3 4 -0.460315 0 3 -0.460315 0
gene 1 3 11 0.234412 0 18 0.234412 1
gene 1 11 4 5.63162 0 19 5.63162 1
gene 3 2 11 -1.26738 0 29 -1.26738 1
genomeend 88

/* Organism #89 Fitness: 4 Error: 2 */
genomestart 89
trait 1 0.1 0 0 0 0 0 0 0 
trait 2 0.2 0 0 0 0 0 0 0 
trait 3 0.3 0 0 0 0 0 0 0 
node 1 1 1 3
node 2 2 1 1
node 3 3 1 1
node 4 3 0 2
node 11 1 0 0
gene 1 1 4 -5.06507 0 1 -5.06507 1
gene 2 2 4 -4.51645 0 2 -4.51645 1
gene 1 3 4 1.68922 0 3 1.68922 0
gene 1 3 11 -0.268953 0 18 -0.268953 1
gene 1 11 4 2.79316 0 19 2.79316 1
gene 3 2 11 -0.123625 0 61 -0.123625 1
genomeend 89

/* Species #7 : (Size 17) (AF 5.16136) (Age 5)  */


/* Organism #90 Fitness: 8.4893 Error: 1.08636 */
genomestart 90
trait 1 0.1 0 0 0 0 0 0 0 
trait 2 0.15 0 0 0 0 0 0 0 
trait 3 0.32798 0.0594175 0.0392182 0 0.0103195 0 0 0 
node 1 1 1 3
node 2 2 1 1
node 3 2 1 1
node 4 1 0 2
node 10 1 0 0
node 13 1 0 0
gene 2 1 4 0.287928 0 1 0.287928 1
gene 2 2 4 1.42528 0 2 1.42528 0
gene 1 3 4 -2.69913 0 3 -2.69913 1
gene 2 2 10 -0.951374 0 14 -0.951374 1
gene 2 10 4 3.54898 0 15 3.54898 0
gene 2 10 13 0.75936 0 26 0.75936 1
gene 2 13 4 3.51739 0 27 3.51739 1
genomeend 90

/* Organism #91 Fitness: 3.99965 Error: 2.00009 */
genomestart 91
trait 1 0.1 0 0 0 0 0 0 0 
trait 2 0.2 0 0 0 0 0 0 0 
trait 3 0.32798 0.0594175 0.0392182 0 0.0103195 0 0 0 
node 1 1 1 3
node 2 2 1 1
node 3 2 1 1
node 4 1 0 2
node 10 1 0 0
node 13 1 0 0
gene 2 1 4 1.40005 0 1 1.40005 1
gene 2 2 4 3.54727 0 2 3.54727 0
gene 1 3 4 -3.72388 0 3 -3.72388 1
gene 2 2 10 -2.77358 0 14 -2.77358 1
gene 2 10 4 4.09287 0 15 4.09287 0
gene 2 10 13 1.63289 0 26 1.63289 1
gene 2 13 4 0.540675 0 27 0.540675 1
genomeend 91

/* Organism #92 Fitness: 4.60638 Error: 1.85375 */
genomestart 92
trait 1 0.1 0 0 0 0 0 0 0 
trait 2 0.175 0 0 0 0 0 0 0 
trait 3 0.32798 0.0594175 0.0392182 0 0.0103195 0 0 0 
node 1 1 1 3
node 2 2 1 1
node 3 2 1 1
node 4 1 0 2
node 10 1 0 0
node 13 1 0 0
gene 2 1 4 0.428632 0 1 0.428632 1
gene 2 2 4 2.48627 0 2 2.48627 0
gene 1 3 4 -2.65128 0 3 -2.65128 1
gene 2 2 10 -1.15984 0 14 -1.15984 1
gene 2 10 4 3.93846 0 15 3.93846 0
gene 2 10 13 0.861192 0 26 0.861192 1
gene 2 13 4 3.27429 0 27 3.27429 1
gene 3 1 10 -0.473787 0 77 -0.473787 1
genomeend 92

/* Organism #93 Fitness: 3.99999 Error: 2 */
genomestart 93
trait 1 0.1 0 0 0 0 0 0 0 
trait 2 0.2 0 0 0 0 0 0 0 
trait 3 0.32798 0.0594175 0.0392182 0 0.0103195 0 0 0 
node 1 1 1 3
node 2 2 1 1
node 3 2 1 1
node 4 1 0 2
node 10 1 0 0
node 13 1 0 0
gene 2 1 4 -1.83087 0 1 -1.83087 1
gene 2 2 4 4.51278 0 2 4.51278 1
gene 1 3 4 -0.491818 0 3 -0.491818 1
gene 2 2 10 -2.94306 0 14 -2.94306 1
gene 2 10 4 -0.234287 0 15 -0.234287 0
gene 2 10 13 2.17301 0 26 2.17301 1
gene 2 13 4 4.96228 0 27 4.96228 1
genomeend 93

/* Organism #94 Fitness: 4 Error: 2 */
genomestart 94
trait 1 0.1 0 0 0 0 0 0 0 
trait 2 0.2 0 0 0 0 0 0 0 
trait 3 0.32798 0.0594175 0.0392182 0 0.0103195 0 0 0 
node 1 1 1 3
node 2 2 1 1
node 3 2 1 1
node 4 1 0 2
node 10 1 0 0
node 13 1 0 0
gene 2 1 4 1.55317 0 1 1.55317 1
gene 2 2 4 3.54727 0 2 3.54727 0
gene 1 3 4 -0.56827 0 3 -0.56827 1
gene 2 2 10 -1.96149 0 14 -1.96149 1
gene 2 10 4 4.32794 0 15 4.32794 0
gene 2 10 13 1.74305 0 26 1.74305 1
gene 2 13 4 5.41283 0 27 5.41283 1
genomeend 94

/* Organism #95 Fitness: 4.00014 Error: 1.99997 */
genomestart 95
trait 1 0.1 0 0 0 0 0 0 0 
trait 2 0.15 0 0 0 0 0 0 0 
trait 3 0.32798 0.0594175 0.0392182 0 0.0103195 0 0 0 
node 1 1 1 3
node 2 2 1 1
node 3 2 1 1
node 4 1 0 2
node 10 1 0 0
node 13 1 0 0
gene 2 1 4 2.05191 0 1 2.05191 1
gene 2 2 4 4.89764 0 2 4.89764 0
gene 1 3 4 -2.3265 0 3 -2.3265 1
gene 2 2 10 -3.29943 0 14 -3.29943 1
gene 2 10 4 3.50774 0 15 3.50774 0
gene 2 10 13 2.01019 0 26 2.01019 1
gene 2 13 4 4.72404 0 27 4.72404 1
genomeend 95

/* Organism #96 Fitness: 5.05246 Error: 1.75223 */
genomestart 96
trait 1 0.1 0 0 0 0 0 0 0 
trait 2 0.15 0 0 0 0 0 0 0 
trait 3 0.32798 0.0594175 0.0392182 0 0.0103195 0 0 0 
node 1 1 1 3
node 2 2 1 1
node 3 2 1 1
node 4 1 0 2
node 10 1 0 0
node 13 1 0 0
gene 2 1 4 -2.06435 0 1 -2.06435 1
gene 2 2 4 -1.02971 0 2 -1.02971 0
gene 1 3 4 -1.1776 0 3 -1.1776 1
gene 2 2 10 -1.5119 0 14 -1.5119 1
gene 2 10 4 5.56403 0 15 5.56403 0
gene 2 10 13 -0.87437 0 26 -0.87437 1
gene 2 13 4 3.68502 0 27 3.68502 1
genomeend 96

/* Organism #97 Fitness: 4 Error: 2 */
genomestart 97
trait 1 0.1 0 0 0 0 0 0 0 
trait 2 0.15 0 0 0 0 0 0 0 
trait 3 0.32798 0.0594175 0.0392182 0 0.0103195 0 0 0 
node 1 1 1 3
node 2 2 1 1
node 3 2 1 1
node 4 1 0 2
node 10 1 0 0
node 13 1 0 0
gene 2 1 4 2.82973 0 1 2.82973 1
gene 2 2 4 4.57415 0 2 4.57415 0
gene 1 3 4 -1.65516 0 3 -1.65516 1
gene 2 2 10 -2.17758 0 14 -2.17758 1
gene 2 10 4 5.31951 0 15 5.31951 0
gene 2 10 13 0.252837 0 26 0.252837 1
gene 2 13 4 4.19641 0 27 4.19641 1
genomeend 97

/* Organism #98 Fitness: 4.2642 Error: 1.93501 */
genomestart 98
trait 1 0.1 0 0 0 0 0 0 0 
trait 2 0.15 0 0 0 0 0 0 0 
trait 3 0.32798 0.0594175 0.0392182 0 0.0103195 0 0 0 
node 1 1 1 3
node 2 2 1 1
node 3 2 1 1
node 4 1 0 2
node 10 1 0 0
node 13 1 0 0
gene 2 1 4 0.650774 0 1 0.650774 1
gene 2 2 4 0.126992 0 2 0.126992 0
gene 1 3 4 -2.04079 0 3 -2.04079 1
gene 2 2 10 -0.169405 0 14 -0.169405 1
gene 2 10 4 4.63542 0 15 4.63542 1
gene 2 10 13 -1.44843 0 26 -1.44843 1
gene 2 13 4 4.9394 0 27 4.9394 1
genomeend 98

/* Organism #99 Fitness: 4.03067 Error: 1.99235 */
genomestart 99
trait 1 0.1 0 0 0 0 0 0 0 
trait 2 0.15 0 0 0 0 0 0 0 
trait 3 0.32798 0.0594175 0.0392182 0 0.0103195 0 0 0 
node 1 1 1 3
node 2 2 1 1
node 3 2 1 1
node 4 1 0 2
node 10 1 0 0
node 13 1 0 0
gene 2 1 4 0.0144767 0 1 0.0144767 1
gene 2 2 4 -0.731924 0 2 -0.731924 0
gene 1 3 4 -4.25462 0 3 -4.25462 1
gene 2 2 10 -2.1932 0 14 -2.1932 1
gene 2 10 4 3.08395 0 15 3.08395 1
gene 2 10 13 -0.0220454 0 26 -0.0220454 1
gene 2 13 4 3.52467 0 27 3.52467 1
genomeend 99

/* Organism #100 Fitness: 2.99121 Error: 2.27049 */
genomestart 100
trait 1 0.1 0 0 0 0 0 0 0 
trait 2 0.15 0 0 0 0 0 0 0 
trait 3 0.32798 0.0594175 0.0392182 0 0.0103195 0 0 0 
node 1 1 1 3
node 2 2 1 1
node 3 2 1 1
node 4 1 0 2
node 10 1 0 0
node 13 1 0 0
gene 2 1 4 2.77142 0 1 2.77142 1
gene 2 2 4 4.15182 0 2 4.15182 0
gene 1 3 4 -4.31614 0 3 -4.31614 1
gene 2 2 10 -2.95737 0 14 -2.95737 1
gene 2 10 4 2.77346 0 15 2.77346 0
gene 2 10 13 -0.70685 0 26 -0.70685 1
gene 2 13 4 2.69383 0 27 2.69383 1
genomeend 100

/* Organism #101 Fitness: 4.00035 Error: 1.99991 */
genomestart 101
trait 1 0.1 0 0 0 0 0 0 0 
trait 2 0.15 0 0 0 0 0 0 0 
trait 3 0.32798 0.0594175 0.0392182 0 0.0103195 0 0 0 
node 1 1 1 3
node 2 2 1 1
node 3 2 1 1
node 4 1 0 2
node 10 1 0 0
node 13 1 0 0
gene 2 1 4 0.569336 0 1 0.569336 1
gene 2 2 4 3.54727 0 2 3.54727 0
gene 1 3 4 -2.60342 0 3 -2.60342 1
gene 2 2 10 -3.43503 0 14 -3.43503 1
gene 2 10 4 2.61893 0 15 2.61893 0
gene 2 10 13 0.963023 0 26 0.963023 1
gene 2 13 4 3.53194 0 27 3.53194 1
gene 3 3 13 0.952516 0 78 0.952516 1
genomeend 101

/* Organism #102 Fitness: 3.66082 Error: 2.08667 */
genomestart 102
trait 1 0.1 0 0 0 0 0 0 0 
trait 2 0.15 0 0 0 0 0 0 0 
trait 3 0.32798 0.0594175 0.0392182 0 0.0103195 0 0 0 
node 1 1 1 3
node 2 2 1 1
node 3 2 1 1
node 4 1 0 2
node 10 1 0 0
node 13 1 0 0
gene 2 1 4 -0.353879 0 1 -0.353879 1
gene 2 2 4 -0.875528 0 2 -0.875528 0
gene 1 3 4 -0.911901 0 3 -0.911901 1
gene 2 2 10 0.160988 0 14 0.160988 1
gene 2 10 4 1.40789 0 15 1.40789 0
gene 2 10 13 -0.682925 0 26 -0.682925 1
gene 2 13 4 1.3286 0 27 1.3286 1
genomeend 102

/* Organism #103 Fitness: 8.4893 Error: 1.08636 */
genomestart 103
trait 1 0.1 0 0 0 0 0 0 0 
trait 2 0.15 0 0 0 0 0 0 0 
trait 3 0.32798 0.0594175 0.0392182 0 0.0103195 0 0 0 
node 1 1 1 3
node 2 2 1 1
node 3 2 1 1
node 4 1 0 2
node 10 1 0 0
node 13 1 0 0
gene 2 1 4 0.287928 0 1 0.287928 1
gene 2 2 4 1.42528 0 2 1.42528 0
gene 1 3 4 -2.69913 0 3 -2.69913 1
gene 2 2 10 -0.951374 0 14 -0.951374 1
gene 2 10 4 3.54898 0 15 3.54898 0
gene 2 10 13 0.75936 0 26 0.75936 1
gene 2 13 4 3.51739 0 27 3.51739 1
genomeend 103

/* Organism #104 Fitness: 8.32311 Error: 1.11502 */
genomestart 104
trait 1 0.1 0 0 0 0 0 0 0 
trait 2 0.15 0 0 0 0 0 0 0 
trait 3 0.32798 0.0594175 0.0392182 0 0.0103195 0 0 0 
node 1 1 1 3
node 2 2 1 1
node 3 2 1 1
node 4 1 0 2
node 10 1 0 0
node 13 1 0 0
gene 2 1 4 0.287928 0 1 0.287928 1
gene 2 2 4 1.42528 0 2 1.42528 0
gene 1 3 4 -2.60342 0 3 -2.60342 1
gene 2 2 10 -1.3683 0 14 -1.3683 1
gene 2 10 4 4.32794 0 15 4.32794 0
gene 2 10 13 0.963023 0 26 0.963023 1
gene 2 13 4 3.03119 0 27 3.03119 1
genomeend 104

/* Organism #105 Fitness: 5.34797 Error: 1.68743 */
genomestart 105
trait 1 0.1 0 0 0 0 0 0 0 
trait 2 0.2 0 0 0 0 0 0 0 
trait 3 0.32798 0.0594175 0.0392182 0 0.0103195 0 0 0 
node 1 1 1 3
node 2 2 1 1
node 3 2 1 1
node 4 1 0 2
node 10 1 0 0
node 13 1 0 0
gene 2 1 4 1.06963 0 1 1.06963 1
gene 2 2 4 3.0881 0 2 3.0881 0
gene 1 3 4 -4.24841 0 3 -4.24841 1
gene 2 2 10 -0.723631 0 14 -0.723631 1
gene 2 10 4 6.66743 0 15 6.66743 0
gene 2 10 13 0.963023 0 26 0.963023 1
gene 2 13 4 -1.07162 0 27 -1.07162 1
genomeend 105

/* Organism #106 Fitness: 8.48754 Error: 1.08666 */
genomestart 106
trait 1 0.1 0 0 0 0 0 0 0 
trait 2 0.15 0 0 0 0 0 0 0 
trait 3 0.32798 0.0594175 0.0392182 0 0.0103195 0 0 0 
node 1 1 1 3
node 2 2 1 1
node 3 2 1 1
node 4 1 0 2
node 10 1 0 0
node 13 2 0 0
gene 2 1 4 0.428632 0 1 0.428632 1
gene 2 2 4 2.48627 0 2 2.48627 0
gene 1 3 4 -2.65128 0 3 -2.65128 1
gene 2 2 10 -1.15984 0 14 -1.15984 1
gene 2 10 4 3.93846 0 15 3.93846 0
gene 2 10 13 0.861192 0 26 0.861192 1
gene 2 13 4 3.27429 0 27 3.27429 1
genomeend 106

/* Species #8 : (Size 18) (AF 5.37837) (Age 4)  */


/* Organism #107 Fitness: 8.3277 Error: 1.11422 */
genomestart 107
trait 1 0.05 0 0 0 0 0 0.0871727 0.0164558 
trait 2 0.2 0 0 0 0 0 0 0 
trait 3 0.32798 0.0594175 0.0392182 0 0.0103195 0 0 0 
node 1 1 1 3
node 2 2 1 1
node 3 2 1 1
node 4 1 0 2
node 10 1 0 0
node 15 1 0 0
gene 2 1 4 -1.62157 0 1 -1.62157 1
gene 2 2 4 1.0033 0 2 1.0033 0
gene 1 3 4 -1.12469 0 3 -1.12469 0
gene 2 2 10 1.92646 0 14 1.92646 1
gene 2 10 4 4.08135 0 15 4.08135 1
gene 1 3 15 1 0 32 0 1
gene 1 15 4 -4.08409 0 33 -4.08409 1
genomeend 107

/* Organism #108 Fitness: 7.92726 Error: 1.18446 */
genomestart 108
trait 1 0.05 0 0 0 0 0 0.0871727 0.0164558 
trait 2 0.2 0 0 0 0 0 0 0 
trait 3 0.32798 0.0594175 0.0392182 0 0.0103195 0 0 0 
node 1 1 1 3
node 2 2 1 1
node 3 2 1 1
node 4 1 0 2
node 10 2 0 0
node 15 1 0 0
gene 2 1 4 -1.16821 0 1 -1.16821 1
gene 2 2 4 0.344139 0 2 0.344139 0
gene 1 3 4 -1.45138 0 3 -1.45138 1
gene 2 2 10 1.68285 0 14 1.43285 1
gene 2 10 4 2.95001 0 15 2.46529 1
gene 1 3 15 -0.0326412 0 32 -0.532641 1
gene 1 15 4 -2.93108 0 33 -2.04204 1
genomeend 108

/* Organism #109 Fitness: 1.2464 Error: 2.88357 */
genomestart 109
trait 1 0.025 0 0 0 0 0 0.130759 0.0246837 
trait 2 0.2 0 0 0 0 0 0 0 
trait 3 0.32798 0.0594175 0.0392182 0 0.0103195 0 0 0 
node 1 1 1 3
node 2 2 1 1
node 3 2 1 1
node 4 1 0 2
node 10 1 0 0
node 15 1 0 0
gene 2 1 4 -1.68746 0 1 -1.68746 1
gene 2 2 4 0.736215 0 2 0.736215 0
gene 1 3 4 -0.529026 0 3 -0.529026 0
gene 2 2 10 4.06407 0 14 4.06407 1
gene 2 10 4 2.6597 0 15 2.6597 1
gene 1 3 15 -0.838026 0 32 -0.838026 1
gene 1 15 4 -5.05678 0 33 -5.05678 1
genomeend 109

/* Organism #110 Fitness: 3.97828 Error: 2.00544 */
genomestart 110
trait 1 0 0 0 0 0 0 0.174345 0.0329115 
trait 2 0.2 0 0 0 0 0 0 0 
trait 3 0.32798 0.0594175 0.0392182 0 0.0103195 0 0 0 
node 1 1 1 3
node 2 2 1 1
node 3 2 1 1
node 4 1 0 2
node 10 1 0 0
node 15 1 0 0
gene 2 1 4 -0.482224 0 1 -0.482224 1
gene 2 2 4 0.491233 0 2 0.491233 0
gene 1 3 4 -1.63114 0 3 -1.63114 0
gene 2 2 10 3.03739 0 14 3.03739 1
gene 2 10 4 5.26108 0 15 5.26108 1
gene 1 3 15 0.217793 0 32 0.217793 1
gene 1 15 4 -5.54152 0 33 -5.54152 1
genomeend 110

/* Organism #111 Fitness: 8.83256 Error: 1.02804 */
genomestart 111
trait 1 0 0 0 0 0 0 0.174345 0.0329115 
trait 2 0.2 0 0 0 0 0 0 0 
trait 3 0.32798 0.0594175 0.0392182 0 0.0103195 0 0 0 
node 1 1 1 3
node 2 2 1 1
node 3 2 1 1
node 4 1 0 2
node 10 1 0 0
node 15 1 0 0
gene 2 1 4 -1.62157 0 1 -1.62157 1
gene 2 2 4 -0.315023 0 2 -0.315023 0
gene 1 3 4 1.10342 0 3 1.10342 0
gene 2 2 10 -0.907843 0 14 -0.907843 1
gene 2 10 4 4.87219 0 15 4.87219 1
gene 1 3 15 -0.800102 0 32 -0.800102 1
gene 1 15 4 -4.44768 0 33 -4.44768 1
genomeend 111

/* Organism #112 Fitness: 8.9698 Error: 1.00504 */
genomestart 112
trait 1 0.025 0 0 0 0 0 0.130759 0.0246837 
trait 2 0.2 0 0 0 0 0 0 0 
trait 3 0.32798 0.0594175 0.0392182 0 0.0103195 0 0 0 
node 1 1 1 3
node 2 2 1 1
node 3 2 1 1
node 4 1 0 2
node 10 1 0 0
node 15 1 0 0
gene 2 1 4 -1.72147 0 1 -1.72147 1
gene 2 2 4 2.30086 0 2 2.30086 1
gene 1 3 4 1.26561 0 3 1.26561 0
gene 2 2 10 0.926939 0 14 0.926939 1
gene 2 10 4 5.60542 0 15 5.60542 1
gene 1 3 15 -1.99156 0 32 -1.99156 1
gene 1 15 4 -5.6583 0 33 -5.6583 1
genomeend 112

/* Organism #113 Fitness: 7.37275 Error: 1.28472 */
genomestart 113
trait 1 0.05 0 0 0 0.18106 0 0.0871727 0.0164558 
trait 2 0.2 0 0 0 0 0 0 0 
trait 3 0.32798 0.0594175 0.0392182 0 0.0103195 0 0 0 
node 1 1 1 3
node 2 2 1 1
node 3 2 1 1
node 4 1 0 2
node 10 1 0 0
node 15 1 0 0
gene 2 1 4 -1.39489 0 1 -1.39489 1
gene 2 2 4 0.0145579 0 2 0.0145579 0
gene 1 3 4 -1.61472 0 3 -1.61472 0
gene 2 2 10 1.80465 0 14 1.67965 1
gene 2 10 4 3.51568 0 15 3.27332 1
gene 1 3 15 -0.548962 0 32 -0.798962 1
gene 1 15 4 -2.35457 0 33 -1.02102 1
genomeend 113

/* Organism #114 Fitness: 6.57581 Error: 1.43567 */
genomestart 114
trait 1 0.025 0 0 0 0 0 0.130759 0.0246837 
trait 2 0.2 0 0 0 0 0 0 0 
trait 3 0.32798 0.0594175 0.0392182 0 0.0103195 0 0 0 
node 1 1 1 3
node 2 2 1 1
node 3 2 1 1
node 4 1 0 2
node 10 1 0 0
node 15 1 0 0
gene 2 1 4 -1.70589 0 1 -1.70589 1
gene 2 2 4 0.858545 0 2 0.858545 0
gene 1 3 4 -3.07739 0 3 -3.07739 0
gene 2 2 10 -0.258204 0 14 -0.258204 1
gene 2 10 4 6.4486 0 15 6.4486 1
gene 1 3 15 -1.05327 0 32 -1.05327 1
gene 1 15 4 -3.46451 0 33 -3.46451 1
genomeend 114

/* Organism #115 Fitness: 4.74729 Error: 1.82117 */
genomestart 115
trait 1 0.05 0 0 0 0 0 0.0871727 0.0164558 
trait 2 0.2 0 0 0 0 0 0 0 
trait 3 0.32798 0.0594175 0.0392182 0 0.0103195 0 0 0 
node 1 1 1 3
node 2 2 1 1
node 3 2 1 1
node 4 1 0 2
node 10 1 0 0
node 15 1 0 0
gene 2 1 4 -2.6171 0 1 -2.6171 1
gene 2 2 4 1.30478 0 2 1.30478 0
gene 1 3 4 -1.01761 0 3 -1.01761 0
gene 2 2 10 2.57818 0 14 2.57818 1
gene 2 10 4 5.58823 0 15 5.58823 1
gene 1 3 15 -0.287749 0 32 -0.287749 1
gene 1 15 4 -2.45246 0 33 -2.45246 1
genomeend 115

/* Organism #116 Fitness: 3.97002 Error: 2.00751 */
genomestart 116
trait 1 0.05 0 0 0 0.36212 0 0.0871727 0.0164558 
trait 2 0.2 0 0 0 0 0 0 0 
trait 3 0.32798 0.0594175 0.0392182 0 0.0103195 0 0 0 
node 1 1 1 3
node 2 2 1 1
node 3 2 1 1
node 4 1 0 2
node 10 1 0 0
node 15 1 0 0
gene 2 1 4 0.658433 0 1 0.658433 1
gene 2 2 4 -1.05676 0 2 -1.05676 0
gene 1 3 4 -3.26119 0 3 -3.26119 0
gene 2 2 10 0.490017 0 14 0.490017 1
gene 2 10 4 3.80945 0 15 3.80945 1
gene 1 3 15 0.513432 0 32 0.513432 1
gene 1 15 4 -1.7031 0 33 -1.7031 1
genomeend 116

/* Organism #117 Fitness: 4.06985 Error: 1.98261 */
genomestart 117
trait 1 0.05 0 0 0 0.18106 0 0.0871727 0.0164558 
trait 2 0.2 0 0 0 0 0 0 0 
trait 3 0.32798 0.0594175 0.0392182 0 0.0103195 0 0 0 
node 1 1 1 3
node 2 1 1 1
node 3 2 1 1
node 4 1 0 2
node 10 1 0 0
node 15 1 0 0
gene 2 1 4 -2.62828 0 1 -2.62828 1
gene 2 2 4 -1.19132 0 2 -1.19132 0
gene 1 3 4 -2.32919 0 3 -2.32919 1
gene 2 2 10 1.51028 0 14 1.51028 1
gene 2 10 4 2.09712 0 15 2.09712 1
gene 1 3 15 -1.79932 0 32 -1.79932 1
gene 1 15 4 -0.571354 0 33 -0.571354 1
genomeend 117

/* Organism #118 Fitness: 2.9503 Error: 2.28236 */
genomestart 118
trait 1 0.025 0 0 0 0.18106 0 0.130759 0.0246837 
trait 2 0.2 0 0 0 0 0 0 0 
trait 3 0.32798 0.0594175 0.0392182 0 0.0103195 0 0 0 
node 1 1 1 3
node 2 2 1 1
node 3 2 1 1
node 4 1 0 2
node 10 1 0 0
node 15 1 0 0
gene 2 1 4 -3.21478 0 1 -3.21478 1
gene 2 2 4 -2.79962 0 2 -2.79962 0
gene 1 3 4 -0.67602 0 3 -0.67602 0
gene 2 2 10 0.464843 0 14 0.464843 1
gene 2 10 4 6.46807 0 15 6.46807 1
gene 1 3 15 -1.37212 0 32 -1.37212 1
gene 1 15 4 -5.8731 0 33 -5.8731 1
genomeend 118

/* Organism #119 Fitness: 4.00479 Error: 1.9988 */
genomestart 119
trait 1 0.05 0 0 0 0.18106 0 0.0871727 0.0164558 
trait 2 0.2 0 0 0 0 0 0 0 
trait 3 0.32798 0.0594175 0.0392182 0 0.0103195 0 0 0 
node 1 1 1 3
node 2 2 1 1
node 3 2 1 1
node 4 1 0 2
node 10 1 0 0
node 15 1 0 0
gene 2 1 4 -1.62157 0 1 -1.62157 1
gene 2 2 4 -0.315023 0 2 -0.315023 0
gene 1 3 4 -1.77806 0 3 -1.77806 0
gene 2 2 10 1.68285 0 14 1.43285 1
gene 2 10 4 4.08135 0 15 4.08135 1
gene 1 3 15 -0.0326412 0 32 -0.532641 1
gene 1 15 4 -2.93108 0 33 -2.04204 1
genomeend 119

/* Organism #120 Fitness: 7.79674 Error: 1.20774 */
genomestart 120
trait 1 0.05 0 0 0 0.36212 0 0.0871727 0.0164558 
trait 2 0.2 0 0 0 0 0 0 0 
trait 3 0.32798 0.0594175 0.0392182 0 0.0103195 0 0 0 
node 1 1 1 3
node 2 2 1 1
node 3 2 1 1
node 4 1 0 2
node 10 1 0 0
node 15 1 0 0
gene 2 1 4 -1.62157 0 1 -1.62157 1
gene 2 2 4 -0.315023 0 2 -0.315023 0
gene 1 3 4 -1.77806 0 3 -1.77806 0
gene 2 2 10 1.92646 0 14 1.92646 1
gene 2 10 4 4.08135 0 15 4.08135 1
gene 1 3 15 -1.06528 0 32 -1.06528 1
gene 1 15 4 -1.77806 0 33 0 1
genomeend 120

/* Organism #121 Fitness: 4 Error: 2 */
genomestart 121
trait 1 0.05 0 0 0 0 0 0.0871727 0.0164558 
trait 2 0.2 0 0 0 0 0 0 0 
trait 3 0.32798 0.0594175 0.0392182 0 0.0103195 0 0 0 
node 1 1 1 3
node 2 2 1 1
node 3 2 1 1
node 4 1 0 2
node 10 1 0 0
node 15 1 0 0
gene 2 1 4 -2.8897 0 1 -2.8897 1
gene 2 2 4 2.03875 0 2 2.03875 0
gene 1 3 4 2.44815 0 3 2.44815 0
gene 2 2 10 -0.220065 0 14 -0.220065 1
gene 2 10 4 -0.70671 0 15 -0.70671 1
gene 1 3 15 2.18928 0 32 2.18928 1
gene 1 15 4 -4.92316 0 33 -4.92316 1
genomeend 121

/* Organism #122 Fitness: 4.00083 Error: 1.99979 */
genomestart 122
trait 1 0.05 0 0 0 0 0 0.0871727 0.0164558 
trait 2 0.2 0 0 0 0 0 0 0 
trait 3 0.32798 0.0594175 0.0392182 0 0.0103195 0 0 0 
node 1 1 1 3
node 2 2 1 1
node 3 2 1 1
node 4 1 0 2
node 10 1 0 0
node 15 1 0 0
gene 2 1 4 -2.54623 0 1 -2.54623 1
gene 2 2 4 -0.839436 0 2 -0.839436 0
gene 1 3 4 -1.46288 0 3 -1.46288 1
gene 2 2 10 3.42676 0 14 3.42676 1
gene 2 10 4 1.98554 0 15 1.98554 1
gene 1 3 15 -0.265543 0 32 -0.265543 1
gene 1 15 4 -2.31374 0 33 -2.31374 1
genomeend 122

/* Organism #123 Fitness: 4.0403 Error: 1.98995 */
genomestart 123
trait 1 0.05 0 0 0 0.36212 0 0.0871727 0.0164558 
trait 2 0.2 0 0 0 0 0 0 0 
trait 3 0.32798 0.0594175 0.0392182 0 0.0103195 0 0 0 
node 1 1 1 3
node 2 2 1 1
node 3 2 1 1
node 4 1 0 2
node 10 1 0 0
node 15 1 0 0
gene 2 1 4 1.59858 0 1 1.59858 1
gene 2 2 4 -0.0334782 0 2 -0.0334782 0
gene 1 3 4 0.664029 0 3 0.664029 0
gene 2 2 10 1.77493 0 14 1.77493 1
gene 1 10 4 2.46706 0 15 2.46706 1
gene 1 3 15 -1.17734 0 32 -1.17734 1
gene 1 15 4 -3.8009 0 33 -3.8009 1
genomeend 123

/* Organism #124 Fitness: 4 Error: 2 */
genomestart 124
trait 1 0.05 0 0 0 0.18106 0 0.0871727 0.0164558 
trait 2 0.2 0 0 0 0 0 0 0 
trait 3 0.32798 0.0594175 0.0392182 0 0.0103195 0 0 0 
node 1 1 1 3
node 2 2 1 1
node 3 2 1 1
node 4 1 0 2
node 10 1 0 0
node 15 1 0 0
gene 2 1 4 -1.62157 0 1 -1.62157 1
gene 2 2 4 2.35897 0 2 2.35897 0
gene 1 3 4 -3.60691 0 3 -3.60691 0
gene 2 2 10 2.91818 0 14 2.91818 1
gene 2 10 4 1.10774 0 15 1.10774 1
gene 1 3 15 0.492322 0 32 0.492322 1
gene 1 15 4 -4.53837 0 33 -4.53837 1
genomeend 124

/* Species #9 : (Size 4) (AF 5.82187) (Age 2)  */


/* Organism #125 Fitness: 8.99092 Error: 1.00151 */
genomestart 125
trait 1 0.1 0 0 0 0 0 0 0 
trait 2 0.2 0 0 0 0 0 0 0 
trait 3 0.3 0 0 0 0 0 0 0 
node 1 3 1 3
node 2 2 1 1
node 3 3 1 1
node 4 3 0 2
node 21 1 0 0
gene 1 1 4 -1.5825 0 1 -1.5825 1
gene 1 2 4 3.99634 0 2 3.99634 1
gene 1 3 4 3.5493 0 3 3.5493 0
gene 1 3 21 1 0 57 0 1
gene 1 21 4 3.5493 0 58 0 1
gene 1 1 21 -0.603198 0 79 -0.603198 1
genomeend 125

/* Organism #126 Fitness: 8.3878 Error: 1.10383 */
genomestart 126
trait 1 0.1 0 0 0 0 0 0 0 
trait 2 0.2 0 0 0 0 0 0 0 
trait 3 0.3 0 0 0 0 0 0 0 
node 1 3 1 3
node 2 2 1 1
node 3 3 1 1
node 4 3 0 2
node 21 1 0 0
gene 1 1 4 -2.41507 0 1 -2.41507 1
gene 1 2 4 1.64998 0 2 1.64998 1
gene 1 3 4 1.67308 0 3 1.67308 0
gene 1 3 21 2.63797 0 57 2.63797 1
gene 1 21 4 2.95636 0 58 2.95636 1
genomeend 126

/* Organism #127 Fitness: 4 Error: 2 */
genomestart 127
trait 1 0.1 0 0 0 0 0 0 0 
trait 2 0.2 0 0 0 0 0 0 0 
trait 3 0.3 0 0 0 0 0 0 0 
node 1 3 1 3
node 2 2 1 1
node 3 3 1 1
node 4 3 0 2
node 21 1 0 0
gene 1 1 4 0.673616 0 1 0.673616 1
gene 1 2 4 4.68031 0 2 4.68031 1
gene 2 3 4 1.15667 0 3 1.15667 0
gene 1 3 21 0.205854 0 57 0.205854 1
gene 1 21 4 4.26053 0 58 4.26053 1
genomeend 127

/* Organism #128 Fitness: 1.90877 Error: 2.61842 */
genomestart 128
trait 1 0.667097 0 0 0.988529 0.18679 0.427113 0 0.0764536 
trait 2 0.2 0 0 0 0 0 0 0 
trait 3 0.3 0 0 0 0 0 0 0 
node 1 3 1 3
node 2 2 1 1
node 3 3 1 1
node 4 3 0 2
node 21 1 0 0
gene 1 1 4 -3.4288 0 1 -3.4288 1
gene 1 2 4 2.542 0 2 2.542 1
gene 1 3 4 -0.326521 0 3 -0.326521 0
gene 1 3 21 0.718985 0 57 0.718985 1
gene 1 21 4 1.44934 0 58 1.44934 1
genomeend 128

/* Species #10 : (Size 14) (AF 4.69866) (Age 2)  */


/* Organism #129 Fitness: 6.53682 Error: 1.44328 */
genomestart 129
trait 1 0.1 0 0 0 0 0 0 0 
trait 2 0.2 0 0 0.430492 0 0.436086 0 0 
trait 3 0.3 0 0 0 0 0 0 0 
node 1 2 1 3
node 2 3 1 1
node 3 2 1 1
node 4 2 0 2
node 7 1 0 0
gene 3 1 4 -1.27014 0 1 -1.27014 1
gene 1 2 4 -1.20359 0 2 -1.20359 0
gene 1 3 4 -0.973668 0 3 -0.973668 1
gene 1 2 7 0.738312 0 8 0.738312 1
gene 1 7 4 2.01267 0 9 2.01267 1
genomeend 129

/* Organism #130 Fitness: 4.09533 Error: 1.97631 */
genomestart 130
trait 1 0.1 0 0 0 0 0 0 0 
trait 2 0.2 0 0 0.430492 0 0.436086 0 0 
trait 3 0.3 0 0 0 0 0 0 0 
node 1 2 1 3
node 2 3 1 1
node 3 2 1 1
node 4 2 0 2
node 7 1 0 0
gene 3 1 4 -2.55129 0 1 -2.55129 1
gene 1 2 4 -1.64388 0 2 -1.64388 0
gene 1 3 4 0.478238 0 3 0.478238 1
gene 1 2 7 0.41511 0 8 0.41511 1
gene 1 7 4 3.37627 0 9 3.37627 1
genomeend 130

/* Organism #131 Fitness: 3.96789 Error: 2.00804 */
genomestart 131
trait 1 0.1 0 0 0 0 0 0 0 
trait 2 0.2 0 0 0.430492 0 0.436086 0 0 
trait 3 0.3 0 0 0 0 0 0 0 
node 1 2 1 3
node 2 3 1 1
node 3 2 1 1
node 4 2 0 2
node 7 1 0 0
gene 3 1 4 -2.15701 0 1 -2.15701 1
gene 1 2 4 0.194585 0 2 0.194585 0
gene 1 3 4 -0.283045 0 3 -0.283045 1
gene 1 2 7 -1.81515 0 8 -1.81515 1
gene 1 7 4 2.47745 0 9 2.47745 1
genomeend 131

/* Organism #132 Fitness: 5.52158 Error: 1.6502 */
genomestart 132
trait 1 0.1 0 0 0 0 0 0 0 
trait 2 0.2 0 0 0 0 0 0 0 
trait 3 0.3 0 0 0 0 0 0 0 
node 1 2 1 3
node 2 3 1 1
node 3 2 1 1
node 4 1 0 2
node 7 3 0 0
gene 1 1 4 1.69356 0 1 1.69356 1
gene 1 2 4 0.560484 0 2 0.560484 0
gene 1 3 4 -1.56963 0 3 -1.56963 1
gene 1 2 7 -1.54983 0 8 -1.54983 1
gene 1 7 4 3.33797 0 9 3.33797 1
genomeend 132

/* Organism #133 Fitness: 4.24066 Error: 1.94071 */
genomestart 133
trait 1 0.1 0 0 0 0 0 0 0 
trait 2 0.2 0 0 0.215246 0 0.218043 0 0 
trait 3 0.3 0 0 0 0 0 0 0 
node 1 2 1 3
node 2 3 1 1
node 3 2 1 1
node 4 1 0 2
node 7 1 0 0
gene 1 1 4 2.34974 0 1 2.34974 1
gene 1 2 4 0.130308 0 2 0.130308 1
gene 1 3 4 -2.35991 0 3 -2.35991 1
gene 1 2 7 1.02217 0 8 1.02217 1
gene 1 7 4 -0.401709 0 9 -0.401709 1
genomeend 133

/* Organism #134 Fitness: 2.70577 Error: 2.35508 */
genomestart 134
trait 1 0.1 0 0 0 0 0 0 0 
trait 2 0.2 0 0 0.430492 0 0.436086 0 0 
trait 3 0.3 0 0 0 0 0 0 0 
node 1 2 1 3
node 2 3 1 1
node 3 2 1 1
node 4 2 0 2
node 7 1 0 0
gene 1 1 4 -0.387405 0 1 -0.387405 1
gene 1 2 4 -1.20359 0 2 -1.20359 0
gene 1 3 4 -0.497072 0 3 -0.497072 1
gene 1 2 7 0.783245 0 8 0.783245 1
gene 1 7 4 1.89674 0 9 1.89674 1
genomeend 134

/* Organism #135 Fitness: 3.46037 Error: 2.13979 */
genomestart 135
trait 1 0.1 0 0 0 0 0 0 0 
trait 2 0.2 0 0 0.430492 0 0.436086 0 0 
trait 3 0.3 0 0 0 0 0 0 0 
node 1 2 1 3
node 2 3 1 1
node 3 2 1 1
node 4 2 0 2
node 7 1 0 0
gene 3 1 4 0.315958 0 1 0.315958 1
gene 1 2 4 -2.87121 0 2 -2.87121 0
gene 1 3 4 -0.958291 0 3 -0.958291 1
gene 1 2 7 0.738312 0 8 0.738312 1
gene 1 7 4 2.01267 0 9 2.01267 1
genomeend 135

/* Organism #136 Fitness: 4.59544 Error: 1.8563 */
genomestart 136
trait 1 0.1 0 0 0 0 0 0 0 
trait 2 0.2 0 0 0.215246 0 0.218043 0 0 
trait 3 0.3 0 0 0 0 0 0 0 
node 1 2 1 3
node 2 3 1 1
node 3 2 1 1
node 4 2 0 2
node 7 1 0 0
gene 3 1 4 3.27557 0 1 3.27557 1
gene 1 2 4 -1.2047 0 2 -1.2047 0
gene 1 3 4 -2.94009 0 3 -2.94009 1
gene 1 2 7 -2.35175 0 8 -2.35175 1
gene 3 7 4 0.973579 0 9 0.973579 1
genomeend 136

/* Organism #137 Fitness: 3.98291 Error: 2.00428 */
genomestart 137
trait 1 0.1 0 0 0 0 0 0 0 
trait 2 0.2 0 0 0.430492 0 0.436086 0 0 
trait 3 0.3 0 0 0 0 0 0 0 
node 1 2 1 3
node 2 3 1 1
node 3 2 1 1
node 4 2 0 2
node 7 1 0 0
gene 3 1 4 -2.98882 0 1 -2.98882 1
gene 1 2 4 -3.18065 0 2 -3.18065 0
gene 1 3 4 -0.867772 0 3 -0.867772 1
gene 1 2 7 -1.74624 0 8 -1.74624 1
gene 1 7 4 3.76987 0 9 3.76987 1
genomeend 137

/* Organism #138 Fitness: 4.00001 Error: 2 */
genomestart 138
trait 1 0.1 0 0 0 0 0 0 0 
trait 2 0.730636 0.54483 0 0 0 0 0.527846 0 
trait 3 0.3 0 0 0 0 0 0 0 
node 1 2 1 3
node 2 3 1 1
node 3 2 1 1
node 4 1 0 2
node 7 3 0 0
gene 1 1 4 2.85966 0 1 2.85966 1
gene 1 2 4 2.38005 0 2 2.38005 0
gene 1 3 4 -0.236164 0 3 -0.236164 1
gene 1 2 7 -1.38826 0 8 -1.38826 1
gene 1 7 4 3.82772 0 9 3.82772 1
genomeend 138

/* Organism #139 Fitness: 6.17224 Error: 1.5156 */
genomestart 139
trait 1 0.1 0 0 0 0 0 0 0 
trait 2 0.2 0 0 0.430492 0 0.436086 0 0 
trait 3 0.3 0 0 0 0 0 0 0 
node 1 2 1 3
node 2 3 1 1
node 3 2 1 1
node 4 2 0 2
node 7 3 0 0
gene 3 1 4 -1.33201 0 1 -1.33201 1
gene 1 2 4 0.578404 0 2 0.578404 0
gene 1 3 4 -1.75621 0 3 -1.75621 1
gene 1 2 7 0.347988 0 8 0.347988 1
gene 1 7 4 1.62672 0 9 1.62672 1
genomeend 139

/* Organism #140 Fitness: 6.27768 Error: 1.49447 */
genomestart 140
trait 1 0.1 0 0 0 0 0 0 0 
trait 2 0.2 0 0 0.430492 0 0.436086 0 0 
trait 3 0.3 0 0 0 0 0 0 0 
node 1 2 1 3
node 2 3 1 1
node 3 2 1 1
node 4 2 0 2
node 7 1 0 0
node 27 1 0 0
gene 3 1 4 -1.27014 0 1 -1.27014 1
gene 1 2 4 -1.20359 0 2 -1.20359 0
gene 1 3 4 -0.973668 0 3 -0.973668 0
gene 1 2 7 0.738312 0 8 0.738312 1
gene 1 7 4 2.01267 0 9 2.01267 1
gene 1 3 27 1 0 80 0 1
gene 1 27 4 -0.973668 0 81 0 1
genomeend 140

/* Organism #141 Fitness: 3.99999 Error: 2 */
genomestart 141
trait 1 0.1 0 0 0 0 0 0 0 
trait 2 0.2 0 0 0.215246 0 0.218043 0 0 
trait 3 0.3 0 0 0 0 0 0 0 
node 1 2 1 3
node 2 3 1 1
node 3 2 1 1
node 4 2 0 2
node 7 3 0 0
gene 1 1 4 1.60735 0 1 1.60735 1
gene 1 2 4 0.411946 0 2 0.411946 0
gene 1 3 4 -0.345205 0 3 -0.345205 1
gene 1 2 7 0.321903 0 8 0.321903 1
gene 1 7 4 2.83935 0 9 2.83935 1
genomeend 141

/* Organism #142 Fitness: 6.22452 Error: 1.5051 */
genomestart 142
trait 1 0.1 0 0 0 0 0 0 0 
trait 2 0.2 0 0 0.430492 0 0.436086 0 0 
trait 3 0.3 0 0 0 0 0 0 0 
node 1 2 1 3
node 2 3 1 1
node 3 2 1 1
node 4 2 0 2
node 7 1 0 0
gene 3 1 4 -1.58315 0 1 -1.58315 1
gene 1 2 4 1.13504 0 2 1.13504 0
gene 1 3 4 -0.973668 0 3 -0.973668 1
gene 1 2 7 0.891121 0 8 0.891121 1
gene 1 7 4 1.62401 0 9 1.62401 1
genomeend 142

/* Species #11 : (Size 6) (AF 5.70717) (Age 1)  */


/* Organism #143 Fitness: 4.68848 Error: 1.83471 */
genomestart 143
trait 1 0.1 0 0 0 0 0 0 0 
trait 2 0.2 0 0 0 0 0 0 0 
trait 3 0.3 0 0 0 0 0 0 0 
node 1 1 1 3
node 2 2 1 1
node 3 3 1 1
node 4 3 0 2
node 11 1 0 0
gene 1 1 4 -3.40121 0 1 -3.40121 1
gene 2 2 4 0.876828 0 2 0.876828 1
gene 1 3 4 1.88477 0 3 1.88477 0
gene 1 3 11 2.35372 0 18 2.35372 1
gene 1 11 4 4.3741 0 19 4.3741 1
gene 3 2 11 -0.217119 0 29 -0.217119 1
gene 2 1 11 -2.14052 0 62 -2.14052 1
genomeend 143

/* Organism #144 Fitness: 3.99998 Error: 2 */
genomestart 144
trait 1 0.1 0 0 0 0 0 0 0 
trait 2 0.2 0 0 0 0 0 0 0 
trait 3 0.3 0 0 0 0 0 0 0 
node 1 1 1 3
node 2 2 1 1
node 3 3 1 1
node 4 3 0 2
node 11 1 0 0
gene 1 1 4 -2.05554 0 1 -2.05554 1
gene 2 2 4 -3.53065 0 2 -3.53065 1
gene 1 3 4 2.59422 0 3 2.59422 0
gene 1 3 11 -0.359751 0 18 -0.359751 1
gene 1 11 4 5.38296 0 19 5.38296 1
gene 3 2 11 -2.62635 0 29 -2.62635 1
gene 3 1 11 -1.11083 0 62 -1.11083 1
genomeend 144

/* Organism #145 Fitness: 3.96947 Error: 2.00765 */
genomestart 145
trait 1 0.1 0 0 0 0 0 0 0 
trait 2 0.2 0 0 0 0 0 0 0 
trait 3 0.3 0 0 0 0 0 0 0 
node 1 1 1 3
node 2 2 1 1
node 3 3 1 1
node 4 3 0 2
node 11 1 0 0
gene 1 1 4 -2.07945 0 1 -2.07945 1
gene 2 2 4 -4.55172 0 2 -4.55172 1
gene 1 3 4 0.579374 0 3 0.579374 0
gene 1 3 11 3.66584 0 18 3.66584 1
gene 1 11 4 5.64305 0 19 5.64305 1
gene 3 2 11 -1.70442 0 29 -1.70442 1
gene 2 1 11 0.698361 0 62 0.698361 1
genomeend 145

/* Organism #146 Fitness: 8.99896 Error: 1.00017 */
genomestart 146
trait 1 0.1 0 0 0 0 0 0 0 
trait 2 0.2 0 0 0 0 0 0 0 
trait 3 0.3 0 0 0 0 0 0 0 
node 1 1 1 3
node 2 2 1 1
node 3 3 1 1
node 4 3 0 2
node 11 1 0 0
node 26 1 0 0
gene 1 1 4 -2.52773 0 1 -2.52773 1
gene 2 2 4 -2.03678 0 2 -2.03678 1
gene 1 3 4 1.48463 0 3 1.48463 1
gene 1 3 11 1.19044 0 18 1.19044 1
gene 1 11 4 3.46417 0 19 3.46417 1
gene 3 2 11 -1.29582 0 29 -1.29582 0
gene 2 1 11 -0.011527 0 62 -0.011527 1
gene 3 2 26 1 0 74 0 1
gene 3 26 11 -1.29582 0 75 0 1
genomeend 146

/* Organism #147 Fitness: 8.58616 Error: 1.06978 */
genomestart 147
trait 1 0.1 0 0 0 0 0 0 0 
trait 2 0.2 0 0 0 0 0 0 0 
trait 3 0.3 0 0 0 0 0 0 0 
node 1 2 1 3
node 2 2 1 1
node 3 3 1 1
node 4 3 0 2
node 11 1 0 0
gene 1 1 4 -3.4895 0 1 -3.4895 1
gene 2 2 4 -3.27873 0 2 -3.27873 1
gene 1 3 4 2.52147 0 3 2.52147 0
gene 1 3 11 3.6807 0 18 3.6807 1
gene 2 11 4 5.96252 0 19 5.96252 1
gene 3 2 11 -0.556465 0 29 -0.556465 1
gene 2 1 11 -0.011527 0 62 -0.011527 1
genomeend 147

/* Organism #148 Fitness: 3.99994 Error: 2.00001 */
genomestart 148
trait 1 0.1 0 0 0 0 0 0 0 
trait 2 0.2 0 0 0 0 0 0 0 
trait 3 0.3 0 0 0 0 0 0 0 
node 1 1 1 3
node 2 1 1 1
node 3 3 1 1
node 4 3 0 2
node 11 1 0 0
gene 1 1 4 -1.56596 0 1 -1.56596 1
gene 2 2 4 -0.794821 0 2 -0.794821 1
gene 1 3 4 -2.31891 0 3 -2.31891 0
gene 1 3 11 0.835592 0 18 0.835592 1
gene 1 11 4 -1.39147 0 19 -1.39147 1
gene 3 2 11 0.0338829 0 29 0.0338829 1
genomeend 148

/* Species #12 : (Size 1) (AF 1.02081) (Age 1)  */


/* Organism #149 Fitness: 1.02081 Error: 2.98965 */
genomestart 149
trait 1 0.1 0 0 0 0 0 0 0 
trait 2 0.2 0 0 0 0 0 0 0 
trait 3 0.3 0 0 0 0 0 0 0 
node 1 1 1 3
node 2 2 1 1
node 3 3 1 1
node 4 3 0 2
node 11 1 0 0
node 25 1 0 0
gene 1 1 4 -2.15708 0 1 -2.15708 1
gene 2 2 4 -1.59778 0 2 -1.59778 1
gene 1 3 4 1.08244 0 3 1.08244 0
gene 1 3 11 2.26517 0 18 2.26517 1
gene 2 11 4 4.82321 0 19 4.82321 0
gene 3 2 11 -2.03517 0 29 -2.03517 1
gene 2 11 25 1 0 72 0 1
gene 2 25 4 4.82321 0 73 0 1
genomeend 149
