
/* Species #1 : (Size 13) (AF 8.1995) (Age 20)  */


/* Organism #0 Fitness: 9 Error: 1 */
genomestart 0
trait 1 0.1 0 0 0 0 0 0 0 
trait 2 0.1 0 0 0 0.100688 0 0 0.210857 
trait 3 0.301781 0.00254068 0.00373064 0 0.0019903 0.0023342 0 0 
node 1 3 1 3
node 2 1 1 1
node 3 3 1 1
node 4 2 0 2
node 12 1 0 0
gene 3 1 4 -2.15474 0 1 -2.15474 1
gene 1 2 4 7.81108 0 2 7.81108 1
gene 3 3 4 -5.05182 0 3 -5.05182 1
gene 3 3 12 3.20162 0 18 3.20162 1
gene 3 12 4 -7.76554 0 19 -7.76554 1
gene 3 2 12 -1.18544 0 99 -1.18544 1
genomeend 0

/* Organism #1 Fitness: 9 Error: 1 */
genomestart 1
trait 1 0.1 0 0 0 0 0 0 0 
trait 2 0.075 0 0 0 0.12586 0 0 0.263571 
trait 3 0.300445 0.00063517 0.00093266 0 0.000497574 0.000583549 0 0 
node 1 3 1 3
node 2 1 1 1
node 3 3 1 1
node 4 2 0 2
node 12 1 0 0
gene 3 1 4 -2.31211 0 1 -2.31211 1
gene 1 2 4 6.84721 0 2 6.84721 1
gene 3 3 4 -1.08881 0 3 -1.08881 1
gene 3 3 12 3.47975 0 18 3.47975 1
gene 3 12 4 -8 0 19 -8 1
gene 3 2 12 -0.539056 0 99 -0.539056 1
genomeend 1

/* Organism #2 Fitness: 9 Error: 1 */
genomestart 2
trait 1 0.1 0 0 0 0 0 0 0 
trait 2 0.075 0 0 0 0.12586 0 0 0.263571 
trait 3 0.300891 0.00127034 0.00186532 0 0.000995148 0.0011671 0 0 
node 1 3 1 3
node 2 1 1 1
node 3 3 1 1
node 4 2 0 2
node 12 1 0 0
gene 3 1 4 -2.15474 0 1 -2.15474 1
gene 1 2 4 7.9154 0 2 7.9154 1
gene 3 3 4 -5.05182 0 3 -5.05182 1
gene 3 3 12 3.20162 0 18 3.20162 1
gene 3 12 4 -7.76554 0 19 -7.76554 1
gene 3 2 12 -0.539056 0 99 -0.539056 1
genomeend 2

/* Organism #3 Fitness: 9 Error: 1 */
genomestart 3
trait 1 0.1 0 0 0 0 0 0 0 
trait 2 0.0875 0 0 0 0.113274 0 0 0.237214 
trait 3 0.300891 0.00127034 0.00186532 0 0.000995148 0.0011671 0 0 
node 1 3 1 3
node 2 1 1 1
node 3 3 1 1
node 4 2 0 2
node 12 1 0 0
gene 3 1 4 -3.75828 0 1 -3.75828 1
gene 1 2 4 8 0 2 8 1
gene 3 3 4 -4.61249 0 3 -4.61249 1
gene 3 3 12 2.36889 0 18 2.36889 1
gene 3 12 4 -5.15382 0 19 -5.15382 1
gene 3 2 12 -1.68005 0 99 -1.68005 1
genomeend 3

/* Organism #4 Fitness: 4.00001 Error: 2 */
genomestart 4
trait 1 0.1 0 0 0 0 0 0 0 
trait 2 0.075 0 0 0 0.12586 0 0 0.263571 
trait 3 0.3 0 0 0 0 0 0 0 
node 1 3 1 3
node 2 1 1 1
node 3 3 1 1
node 4 2 0 2
node 12 1 0 0
gene 3 1 4 -2.62768 0 1 -2.62768 1
gene 1 2 4 7.94623 0 2 7.94623 1
gene 3 3 4 -7.7008 0 3 -7.7008 1
gene 3 3 12 2.81397 0 18 2.81397 1
gene 3 12 4 -8 0 19 -8 1
gene 3 2 12 1.48933 0 99 1.48933 1
genomeend 4

/* Organism #5 Fitness: 9 Error: 1 */
genomestart 5
trait 1 0.1 0 0 0 0 0 0 0 
trait 2 0.06875 0 0 0 0.132153 0 0 0.276749 
trait 3 0.300445 0.00063517 0.00093266 0 0.000497574 0.000583549 0 0 
node 1 3 1 3
node 2 1 1 1
node 3 3 1 1
node 4 2 0 2
node 12 1 0 0
gene 3 1 4 -2.22494 0 1 -2.22494 1
gene 1 2 4 7.9154 0 2 7.9154 1
gene 3 3 4 -6.07011 0 3 -6.07011 1
gene 3 3 12 3.20162 0 18 3.20162 1
gene 3 12 4 -6.82922 0 19 -6.82922 1
gene 3 2 12 -0.694454 0 99 -0.694454 1
genomeend 5

/* Organism #6 Fitness: 9 Error: 1 */
genomestart 6
trait 1 0.1 0 0 0 0 0 0 0 
trait 2 0.0875 0 0 0 0.113274 0 0 0.237214 
trait 3 0.301336 0.00190551 0.00279798 0 0.00149272 0.00175065 0 0 
node 1 3 1 3
node 2 1 1 1
node 3 3 1 1
node 4 2 0 2
node 12 1 0 0
gene 3 1 4 -0.226389 0 1 -0.226389 1
gene 1 2 4 7.80301 0 2 7.80301 1
gene 3 3 4 -6.65292 0 3 -6.65292 1
gene 3 3 12 4.40661 0 18 4.40661 1
gene 3 12 4 -6.8858 0 19 -6.8858 1
gene 3 2 12 -0.811914 0 99 -0.811914 1
genomeend 6

/* Organism #7 Fitness: 9 Error: 1 */
genomestart 7
trait 1 0.1 0 0 0 0 0 0 0 
trait 2 0.075 0 0 0 0.12586 0 0 0.263571 
trait 3 0.3 0 0 0 0 0 0 0 
node 1 3 1 3
node 2 1 1 1
node 3 3 1 1
node 4 1 0 2
node 12 1 0 0
gene 3 1 4 -2.46948 0 1 -2.46948 1
gene 1 2 4 7.86124 0 2 7.86124 1
gene 3 3 4 -6.07011 0 3 -6.07011 1
gene 3 3 12 2.37895 0 18 2.37895 1
gene 3 12 4 -6.82922 0 19 -6.82922 1
gene 3 2 12 -0.539056 0 99 -0.539056 1
genomeend 7

/* Organism #8 Fitness: 8.59345 Error: 1.06854 */
genomestart 8
trait 1 0.1 0 0 0 0 0 0 0 
trait 2 0.075 0 0 0 0.12586 0 0 0.263571 
trait 3 0.3 0 0 0 0 0 0 0 
node 1 3 1 3
node 2 1 1 1
node 3 3 1 1
node 4 2 0 2
node 12 1 0 0
gene 3 1 4 -2.15531 0 1 -2.15531 1
gene 1 2 4 8 0 2 8 1
gene 3 3 4 -4.56359 0 3 -4.56359 1
gene 3 3 12 0.753818 0 18 0.753818 1
gene 3 12 4 -5.33647 0 19 -5.33647 1
gene 3 2 12 1.11735 0 99 1.11735 1
genomeend 8

/* Organism #9 Fitness: 8.99999 Error: 1 */
genomestart 9
trait 1 0.1 0 0 0 0 0 0 0 
trait 2 0.0625 0 0 0 0.138446 0 0 0.289928 
trait 3 0.3 0 0 0 0 0 0 0 
node 1 3 1 3
node 2 1 1 1
node 3 3 1 1
node 4 2 0 2
node 12 1 0 0
gene 3 1 4 -3.91441 0 1 -3.91441 1
gene 1 2 4 6.92473 0 2 6.92473 1
gene 3 3 4 -3.75205 0 3 -3.75205 1
gene 3 3 12 3.75681 0 18 3.75681 1
gene 3 12 4 -4.6119 0 19 -4.6119 1
gene 3 2 12 1.22498 0 99 1.22498 1
gene 1 1 12 -1.88243 0 140 -1.88243 1
genomeend 9

/* Organism #10 Fitness: 8.99998 Error: 1 */
genomestart 10
trait 1 0.1 0 0 0 0 0 0 0 
trait 2 0.06875 0 0 0 0.132153 0 0 0.276749 
trait 3 0.3 0 0 0 0 0 0 0 
node 1 3 1 3
node 2 1 1 1
node 3 3 1 1
node 4 2 0 2
node 12 1 0 0
gene 3 1 4 -2.34721 0 1 -2.34721 1
gene 1 2 4 8 0 2 8 1
gene 3 3 4 -8 0 3 -8 1
gene 3 3 12 3.96891 0 18 3.96891 1
gene 3 12 4 -6.54607 0 19 -6.54607 1
gene 3 2 12 0.279007 0 99 0.279007 1
gene 1 1 12 -0.67853 0 140 -0.67853 1
genomeend 10

/* Organism #11 Fitness: 4 Error: 2 */
genomestart 11
trait 1 0.1 0 0 0 0 0 0 0 
trait 2 0.075 0 0 0 0.12586 0 0 0.263571 
trait 3 0.300891 0.00127034 0.00186532 0 0.000995148 0.0011671 0 0 
node 1 3 1 3
node 2 1 1 1
node 3 3 1 1
node 4 2 0 2
node 12 1 0 0
gene 3 1 4 -2.80857 0 1 -2.80857 1
gene 1 2 4 7.79438 0 2 7.79438 1
gene 3 3 4 -5.1277 0 3 -5.1277 1
gene 3 3 12 4.8121 0 18 4.8121 1
gene 3 12 4 -8 0 19 -8 1
gene 3 2 12 1.28353 0 99 1.28353 1
genomeend 11

/* Organism #12 Fitness: 9 Error: 1 */
genomestart 12
trait 1 0.1 0 0 0 0 0 0 0 
trait 2 0.0875 0 0 0 0.113274 0 0 0.237214 
trait 3 0.300891 0.00127034 0.00186532 0 0.000995148 0.0011671 0 0 
node 1 3 1 3
node 2 1 1 1
node 3 3 1 1
node 4 2 0 2
node 12 1 0 0
gene 3 1 4 -4.58915 0 1 -4.58915 1
gene 1 2 4 8 0 2 8 1
gene 3 3 4 -5.39589 0 3 -5.39589 1
gene 3 3 12 2.07394 0 18 2.07394 1
gene 3 12 4 -8 0 19 -8 1
gene 3 2 12 -2.1339 0 99 -2.1339 1
genomeend 12

/* Species #2 : (Size 14) (AF 7.06202) (Age 16)  */


/* Organism #13 Fitness: 9 Error: 1 */
genomestart 13
trait 1 0.1 0 0 0 0 0 0 0 
trait 2 0.2 0 0 0 0 0 0 0 
trait 3 0.290999 0.0406509 0 0 0 0.0402971 0 0.0349556 
node 1 3 1 3
node 2 1 1 1
node 3 3 1 1
node 4 3 0 2
node 10 1 0 0
gene 2 1 4 -2.18852 0 1 -2.18852 1
gene 1 2 4 6.60119 0 2 6.60119 1
gene 3 3 4 5.17631 0 3 5.17631 1
gene 2 3 10 -4.45465 0 14 -4.45465 1
gene 2 10 4 -2.3789 0 15 -2.3789 1
genomeend 13

/* Organism #14 Fitness: 8.56941 Error: 1.07265 */
genomestart 14
trait 1 0.1 0 0 0 0 0 0 0 
trait 2 0.2 0 0 0 0 0 0 0 
trait 3 0.290999 0.0406509 0 0 0 0.0402971 0 0.0349556 
node 1 3 1 3
node 2 1 1 1
node 3 3 1 1
node 4 3 0 2
node 10 1 0 0
gene 2 1 4 0.0181441 0 1 0.0181441 1
gene 1 2 4 6.87733 0 2 6.87733 1
gene 3 3 4 0.527836 0 3 0.527836 1
gene 2 3 10 -2.99131 0 14 -2.99131 1
gene 2 10 4 -1.94612 0 15 -1.94612 1
genomeend 14

/* Organism #15 Fitness: 8.67197 Error: 1.05518 */
genomestart 15
trait 1 0.1 0 0 0 0 0 0 0 
trait 2 0.2 0 0 0 0 0 0 0 
trait 3 0.290999 0.0406509 0 0 0 0.0402971 0 0.0349556 
node 1 3 1 3
node 2 1 1 1
node 3 3 1 1
node 4 3 0 2
node 10 1 0 0
gene 2 1 4 1.00777 0 1 1.00777 1
gene 1 2 4 8 0 2 8 1
gene 3 3 4 1.79072 0 3 1.79072 1
gene 2 3 10 -2.91357 0 14 -2.91357 1
gene 2 10 4 -3.1692 0 15 -3.1692 1
genomeend 15

/* Organism #16 Fitness: 8.99997 Error: 1.00001 */
genomestart 16
trait 1 0.1 0 0 0 0 0 0 0 
trait 2 0.2 0 0 0 0 0 0 0 
trait 3 0.290999 0.0406509 0 0 0 0.0402971 0 0.0349556 
node 1 3 1 3
node 2 1 1 1
node 3 3 1 1
node 4 3 0 2
node 10 1 0 0
gene 2 1 4 -2.18852 0 1 -2.18852 1
gene 1 2 4 7.7306 0 2 7.7306 1
gene 3 3 4 4.78694 0 3 4.78694 1
gene 2 3 10 -4.45465 0 14 -4.45465 1
gene 2 10 4 -1.72542 0 15 -1.72542 1
gene 2 1 10 -0.21596 0 143 -0.21596 1
genomeend 16

/* Organism #17 Fitness: 8.99976 Error: 1.00004 */
genomestart 17
trait 1 0.1 0 0 0 0 0 0 0 
trait 2 0.2 0 0 0 0 0 0 0 
trait 3 0.290999 0.0406509 0 0 0 0.0402971 0 0.0349556 
node 1 3 1 3
node 2 1 1 1
node 3 3 1 1
node 4 3 0 2
node 10 1 0 0
gene 2 1 4 -2.65578 0 1 -2.65578 1
gene 3 2 4 8 0 2 8 1
gene 3 3 4 4.72814 0 3 4.72814 1
gene 2 3 10 -1.39441 0 14 -1.39441 1
gene 2 10 4 0.0445311 0 15 0.0445311 1
genomeend 17

/* Organism #18 Fitness: 4.43696 Error: 1.89359 */
genomestart 18
trait 1 0.1 0 0 0 0 0 0 0 
trait 2 0.2 0 0 0 0 0 0 0 
trait 3 0.290999 0.0406509 0 0 0 0.0402971 0 0.0349556 
node 1 3 1 3
node 2 1 1 1
node 3 3 1 1
node 4 3 0 2
node 10 1 0 0
node 54 1 0 0
gene 2 1 4 -1.60775 0 1 -1.60775 1
gene 1 2 4 7.1659 0 2 7.1659 0
gene 3 3 4 4.26119 0 3 4.26119 1
gene 2 3 10 -3.28931 0 14 -3.28931 1
gene 2 10 4 -3.08613 0 15 -3.08613 1
gene 1 2 54 1 0 156 0 1
gene 1 54 4 7.1659 0 157 0 1
genomeend 18

/* Organism #19 Fitness: 4.00071 Error: 1.99982 */
genomestart 19
trait 1 0.1 0 0 0 0 0 0 0 
trait 2 0.2 0 0 0 0 0 0 0 
trait 3 0.290999 0.0406509 0 0 0 0.0402971 0 0.0349556 
node 1 3 1 3
node 2 1 1 1
node 3 3 1 1
node 4 3 0 2
node 10 1 0 0
gene 2 1 4 -4.25982 0 1 -4.25982 1
gene 1 2 4 -0.290061 0 2 -0.290061 1
gene 3 3 4 6.24912 0 3 6.24912 1
gene 2 3 10 -5.58017 0 14 -5.58017 1
gene 2 10 4 -3.43784 0 15 -3.43784 1
genomeend 19

/* Organism #20 Fitness: 4.0155 Error: 1.99613 */
genomestart 20
trait 1 0.1 0 0 0 0 0 0 0 
trait 2 0.2 0 0 0 0 0 0 0 
trait 3 0.290999 0.0406509 0 0 0 0.0402971 0 0.0349556 
node 1 3 1 3
node 2 1 1 1
node 3 3 1 1
node 4 3 0 2
node 10 1 0 0
gene 2 1 4 -4.57443 0 1 -4.57443 1
gene 1 2 4 7.05099 0 2 7.05099 1
gene 3 3 4 3.44771 0 3 3.44771 1
gene 1 3 10 -1.98603 0 14 -1.98603 1
gene 2 10 4 -2.98654 0 15 -2.98654 1
gene 2 1 10 -0.787005 0 143 -0.787005 1
genomeend 20

/* Organism #21 Fitness: 8.99901 Error: 1.00016 */
genomestart 21
trait 1 0.1 0 0 0 0 0 0 0 
trait 2 0.2 0 0 0 0 0 0 0 
trait 3 0.290999 0.0406509 0 0 0 0.0402971 0 0.0349556 
node 1 3 1 3
node 2 1 1 1
node 3 3 1 1
node 4 3 0 2
node 10 1 0 0
gene 2 1 4 -0.743201 0 1 -0.743201 1
gene 1 2 4 8 0 2 8 1
gene 3 3 4 5.45687 0 3 5.45687 1
gene 2 3 10 -2.87618 0 14 -2.87618 1
gene 2 10 4 -2.05216 0 15 -2.05216 1
genomeend 21

/* Organism #22 Fitness: 9 Error: 1 */
genomestart 22
trait 1 0.1 0 0 0 0 0 0 0 
trait 2 0.2 0 0 0 0 0 0 0 
trait 3 0.290999 0.0406509 0 0 0 0.0402971 0 0.0349556 
node 1 3 1 3
node 2 1 1 1
node 3 3 1 1
node 4 3 0 2
node 10 1 0 0
gene 2 1 4 -2.18852 0 1 -2.18852 1
gene 1 2 4 6.60119 0 2 6.60119 1
gene 3 3 4 5.17631 0 3 5.17631 1
gene 2 3 10 -4.45465 0 14 -4.45465 1
gene 2 10 4 -2.3789 0 15 -2.3789 1
gene 1 2 10 -0.19431 0 158 -0.19431 1
genomeend 22

/* Organism #23 Fitness: 4.06087 Error: 1.98484 */
genomestart 23
trait 1 0.1 0 0 0 0 0 0 0 
trait 2 0.2 0 0 0 0 0 0 0 
trait 3 0.290999 0.0406509 0 0 0 0.0402971 0 0.0349556 
node 1 3 1 3
node 2 1 1 1
node 3 3 1 1
node 4 3 0 2
node 10 1 0 0
node 54 1 0 0
gene 2 1 4 -2.15498 0 1 -2.15498 1
gene 1 2 4 7.7306 0 2 7.7306 0
gene 3 3 4 4.78694 0 3 4.78694 1
gene 2 3 10 -3.28931 0 14 -3.28931 1
gene 2 10 4 -1.72542 0 15 -1.72542 1
gene 1 2 54 1 0 156 0 1
gene 1 54 4 7.7306 0 157 0 1
genomeend 23

/* Organism #24 Fitness: 8.20735 Error: 1.13515 */
genomestart 24
trait 1 0.1 0 0 0 0 0 0 0 
trait 2 0.2 0 0 0 0 0 0 0 
trait 3 0.290999 0.0406509 0 0 0 0.0402971 0 0.0349556 
node 1 3 1 3
node 2 1 1 1
node 3 3 1 1
node 4 3 0 2
node 10 1 0 0
gene 2 1 4 0.776559 0 1 0.776559 1
gene 1 2 4 6.91294 0 2 6.91294 1
gene 3 3 4 7.40704 0 3 7.40704 1
gene 2 3 10 -0.308013 0 14 -0.308013 1
gene 2 10 4 -2.30699 0 15 -2.30699 1
genomeend 24

/* Organism #25 Fitness: 7.88621 Error: 1.19176 */
genomestart 25
trait 1 0.1 0 0 0 0 0 0 0 
trait 2 0.2 0 0 0 0 0 0 0 
trait 3 0.290999 0.0406509 0 0 0 0.0402971 0 0.0349556 
node 1 3 1 3
node 2 1 1 1
node 3 3 1 1
node 4 3 0 2
node 10 1 0 0
gene 2 1 4 1.50715 0 1 1.50715 1
gene 1 2 4 7.1659 0 2 7.1659 1
gene 3 3 4 2.08295 0 3 2.08295 1
gene 2 3 10 -4.33291 0 14 -4.33291 1
gene 2 10 4 -3.59858 0 15 -3.59858 1
genomeend 25

/* Organism #26 Fitness: 4.02063 Error: 1.99485 */
genomestart 26
trait 1 0.148456 0 0 0.0313745 0 0.0309491 0 0 
trait 2 0.2 0 0 0 0 0 0 0 
trait 3 0.3 0 0 0 0 0 0 0 
node 1 3 1 3
node 2 2 1 1
node 3 3 1 1
node 4 3 0 2
gene 1 1 4 -2.19407 0 1 -2.19407 1
gene 3 2 4 8 0 2 8 1
gene 3 3 4 1.12603 0 3 1.12603 1
genomeend 26

/* Species #3 : (Size 13) (AF 8.49253) (Age 16)  */


/* Organism #27 Fitness: 9 Error: 1 */
genomestart 27
trait 1 0.1 0 0 0 0 0 0 0 
trait 2 0.2 0 0 0 0 0 0 0 
trait 3 0.3 0 0 0 0 0 0 0 
node 1 3 1 3
node 2 2 1 1
node 3 3 1 1
node 4 3 0 2
gene 1 1 4 -4.13014 0 1 -4.13014 1
gene 1 2 4 8 0 2 8 1
gene 3 3 4 -8 0 3 -8 1
genomeend 27

/* Organism #28 Fitness: 8.99998 Error: 1 */
genomestart 28
trait 1 0.172684 0 0 0.0470617 0 0 0 0 
trait 2 0.2 0 0 0 0 0 0 0 
trait 3 0.3 0 0 0 0 0 0 0 
node 1 3 1 3
node 2 2 1 1
node 3 3 1 1
node 4 3 0 2
gene 1 1 4 -2.55693 0 1 -2.55693 1
gene 1 2 4 6.21017 0 2 6.21017 1
gene 3 3 4 -6.71639 0 3 -6.71639 1
genomeend 28

/* Organism #29 Fitness: 7.89713 Error: 1.18982 */
genomestart 29
trait 1 0.148456 0 0 0.0313745 0 0.0309491 0 0 
trait 2 0.2 0 0 0 0 0 0 0 
trait 3 0.3 0 0 0 0 0 0 0 
node 1 3 1 3
node 2 2 1 1
node 3 3 1 1
node 4 3 0 2
node 55 1 0 0
gene 1 1 4 -3.51238 0 1 -3.51238 1
gene 1 2 4 7.80708 0 2 7.80708 1
gene 3 3 4 -8 0 3 -8 0
gene 3 3 55 1 0 159 0 1
gene 3 55 4 -8 0 160 0 1
genomeend 29

/* Organism #30 Fitness: 8.99998 Error: 1 */
genomestart 30
trait 1 0.172684 0 0 0.0470617 0 0.0154746 0 0 
trait 2 0.2 0 0 0 0 0 0 0 
trait 3 0.3 0 0 0 0 0 0 0 
node 1 3 1 3
node 2 2 1 1
node 3 3 1 1
node 4 3 0 2
gene 1 1 4 -2.72383 0 1 -2.72383 1
gene 1 2 4 5.52711 0 2 5.52711 1
gene 3 3 4 -5.82385 0 3 -5.82385 1
genomeend 30

/* Organism #31 Fitness: 8.99471 Error: 1.00088 */
genomestart 31
trait 1 0 0 0.638623 0.0313745 0.691228 0.0309491 0 0 
trait 2 0.2 0 0 0 0 0 0 0 
trait 3 0.3 0 0 0 0 0 0 0 
node 1 3 1 3
node 2 2 1 1
node 3 1 1 1
node 4 3 0 2
gene 1 1 4 -1.56895 0 1 -1.56895 1
gene 1 2 4 8 0 2 8 1
gene 3 3 4 -8 0 3 -8 1
genomeend 31

/* Organism #32 Fitness: 8.51484 Error: 1.08198 */
genomestart 32
trait 1 0.196913 0 0 0.0627489 0 0 0 0 
trait 2 0.2 0 0 0 0 0 0 0 
trait 3 0.3 0 0 0 0 0 0 0 
node 1 3 1 3
node 2 2 1 1
node 3 3 1 1
node 4 3 0 2
gene 1 1 4 -0.514648 0 1 -0.514648 1
gene 1 2 4 5.75743 0 2 5.75743 1
gene 3 3 4 -6.20951 0 3 -6.20951 1
genomeend 32

/* Organism #33 Fitness: 8.99974 Error: 1.00004 */
genomestart 33
trait 1 0.148456 0 0 0.0313745 0 0 0 0 
trait 2 0.2 0 0 0 0 0 0 0 
trait 3 0.3 0 0 0 0 0 0 0 
node 1 3 1 3
node 2 2 1 1
node 3 2 1 1
node 4 3 0 2
gene 1 1 4 -2.04423 0 1 -2.04423 1
gene 1 2 4 7.03284 0 2 7.03284 1
gene 3 3 4 -8 0 3 -8 1
genomeend 33

/* Organism #34 Fitness: 8.99994 Error: 1.00001 */
genomestart 34
trait 1 0.16057 0 0 0.0392181 0 0.0154746 0 0 
trait 2 0.2 0 0 0 0 0 0 0 
trait 3 0.3 0 0 0 0 0 0 0 
node 1 3 1 3
node 2 2 1 1
node 3 3 1 1
node 4 3 0 2
gene 1 1 4 -5.66053 0 1 -5.66053 1
gene 1 2 4 8 0 2 8 1
gene 3 3 4 -8 0 3 -8 1
genomeend 34

/* Organism #35 Fitness: 8.99978 Error: 1.00004 */
genomestart 35
trait 1 0.172684 0 0 0.0470617 0 0.0154746 0 0 
trait 2 0.2 0 0 0 0 0 0 0 
trait 3 0.3 0 0 0 0 0 0 0 
node 1 3 1 3
node 2 2 1 1
node 3 3 1 1
node 4 3 0 2
gene 1 1 4 -3.60961 0 1 -3.60961 1
gene 1 2 4 8 0 2 8 1
gene 3 3 4 -6.46665 0 3 -6.46665 1
genomeend 35

/* Organism #36 Fitness: 3.99912 Error: 2.00022 */
genomestart 36
trait 1 0.16057 0 0 0.0392181 0 0.0154746 0 0 
trait 2 0.2 0 0 0 0 0 0 0 
trait 3 0.3 0 0 0 0 0 0 0 
node 1 3 1 3
node 2 2 1 1
node 3 3 1 1
node 4 3 0 2
gene 1 1 4 -1.70815 0 1 -1.70815 1
gene 1 2 4 8 0 2 8 1
gene 3 3 4 -0.850665 0 3 -0.850665 1
genomeend 36

/* Organism #37 Fitness: 8.99982 Error: 1.00003 */
genomestart 37
trait 1 0.1 0 0 0 0 0 0 0 
trait 2 0.2 0 0 0 0 0 0 0 
trait 3 0.3 0 0 0 0 0 0 0 
node 1 3 1 3
node 2 2 1 1
node 3 3 1 1
node 4 3 0 2
gene 1 1 4 -2.25447 0 1 -2.25447 1
gene 1 2 4 8 0 2 8 1
gene 3 3 4 -8 0 3 -8 1
genomeend 37

/* Organism #38 Fitness: 8.99789 Error: 1.00035 */
genomestart 38
trait 1 0.172684 0 0 0.0470617 0 0 0 0 
trait 2 0.2 0 0 0 0 0 0 0 
trait 3 0.3 0 0 0 0 0 0 0 
node 1 3 1 3
node 2 2 1 1
node 3 3 1 1
node 4 3 0 2
gene 1 1 4 -1.7555 0 1 -1.7555 1
gene 1 2 4 8 0 2 8 1
gene 3 3 4 -8 0 3 -8 1
genomeend 38

/* Organism #39 Fitness: 9 Error: 1 */
genomestart 39
trait 1 0.136342 0 0 0.0235308 0 0 0 0 
trait 2 0.2 0 0 0 0 0 0 0 
trait 3 0.3 0 0 0 0 0 0 0 
node 1 3 1 3
node 2 2 1 1
node 3 3 1 1
node 4 3 0 2
gene 1 1 4 -4.13014 0 1 -4.13014 1
gene 1 2 4 8 0 2 8 1
gene 3 3 4 -8 0 3 -8 1
genomeend 39

/* Species #6 : (Size 12) (AF 6.17955) (Age 13)  */


/* Organism #40 Fitness: 8.99994 Error: 1.00001 */
genomestart 40
trait 1 0.1 0 0.162558 0 0 0 0.100181 0.284998 
trait 2 0.2 0 0 0 0 0 0 0 
trait 3 0.372196 0.248379 0 0 0.376756 0.00884999 0 0.190895 
node 1 2 1 3
node 2 1 1 1
node 3 3 1 1
node 4 3 0 2
node 10 1 0 0
node 13 1 0 0
gene 3 1 4 -1.53174 0 1 -1.53174 1
gene 1 2 4 -0.298574 0 2 -0.298574 0
gene 2 3 4 -1.26137 0 3 -1.26137 1
gene 2 3 10 5.81278 0 14 5.81278 1
gene 2 10 4 -5.98213 0 15 -5.98213 1
gene 2 2 13 3.55357 0 20 3.55357 1
gene 2 13 4 3.99399 0 21 3.99399 1
gene 1 2 10 -4.14842 0 52 -4.14842 1
genomeend 40

/* Organism #41 Fitness: 1.00396 Error: 2.99802 */
genomestart 41
trait 1 0.1 0 0.162558 0 0.223245 0 0.480754 0.284998 
trait 2 0.2 0 0 0 0 0 0 0 
trait 3 0.372196 0.248379 0 0 0.376756 0.00884999 0 0.190895 
node 1 2 1 3
node 2 1 1 1
node 3 3 1 1
node 4 3 0 2
node 10 1 0 0
node 13 2 0 0
gene 3 1 4 -2.77123 0 1 -2.77123 1
gene 1 2 4 0.748843 0 2 0.748843 0
gene 2 3 4 2.81307 0 3 2.81307 1
gene 2 3 10 2.66639 0 14 2.66639 1
gene 2 10 4 -4.43783 0 15 -4.43783 1
gene 2 2 13 1.27023 0 20 1.27023 1
gene 2 13 4 1.34229 0 21 1.34229 1
gene 1 2 10 -5.67531 0 52 -5.67531 1
genomeend 41

/* Organism #42 Fitness: 4.0002 Error: 1.99995 */
genomestart 42
trait 1 0.1 0 0.162558 0 0 0 0.100181 0.284998 
trait 2 0.2 0 0 0 0 0 0 0 
trait 3 0.372196 0.248379 0 0 0.376756 0.00884999 0 0.190895 
node 1 2 1 3
node 2 1 1 1
node 3 3 1 1
node 4 3 0 2
node 10 1 0 0
node 13 1 0 0
gene 3 1 4 -2.47685 0 1 -2.47685 1
gene 1 2 4 2.10534 0 2 2.10534 0
gene 2 3 4 -2.01884 0 3 -2.01884 1
gene 2 3 10 0.708306 0 14 0.708306 1
gene 2 10 4 -5.11694 0 15 -5.11694 1
gene 2 2 13 1.3417 0 20 1.3417 1
gene 2 13 4 0.465152 0 21 0.465152 1
gene 1 2 10 -1.76214 0 52 -1.76214 1
genomeend 42

/* Organism #43 Fitness: 4.00147 Error: 1.99963 */
genomestart 43
trait 1 0.1 0 0.162558 0 0 0 0.100181 0.284998 
trait 2 0.2 0 0 0 0 0 0 0 
trait 3 0.372196 0.248379 0 0 0.376756 0.00884999 0 0.190895 
node 1 2 1 3
node 2 1 1 1
node 3 3 1 1
node 4 3 0 2
node 10 1 0 0
node 13 2 0 0
gene 3 1 4 -2.38753 0 1 -2.38753 1
gene 1 2 4 -0.628716 0 2 -0.628716 0
gene 2 3 4 1.03272 0 3 1.03272 1
gene 2 3 10 4.01407 0 14 4.01407 1
gene 2 10 4 -4.98791 0 15 -4.98791 1
gene 2 2 13 1.39425 0 20 1.39425 1
gene 2 13 4 0.782965 0 21 0.782965 1
gene 1 2 10 -3.98825 0 52 -3.98825 1
genomeend 43

/* Organism #44 Fitness: 8.99997 Error: 1.00001 */
genomestart 44
trait 1 0.1 0 0.162558 0 0 0 0.100181 0.284998 
trait 2 0.2 0 0 0 0 0 0 0 
trait 3 0.402978 0.289776 0 0 0.376756 0.00884999 0 0.205233 
node 1 2 1 3
node 2 1 1 1
node 3 3 1 1
node 4 3 0 2
node 10 1 0 0
node 13 1 0 0
gene 3 1 4 -1.53174 0 1 -1.53174 1
gene 1 2 4 -2.40814 0 2 -2.40814 0
gene 2 3 4 -1.26137 0 3 -1.26137 0
gene 2 3 10 4.94287 0 14 4.94287 1
gene 2 10 4 -7.06009 0 15 -7.06009 1
gene 2 2 13 2.16165 0 20 2.16165 1
gene 2 13 4 3.99399 0 21 3.99399 1
gene 1 2 10 -3.8463 0 52 -3.8463 1
genomeend 44

/* Organism #45 Fitness: 8.99994 Error: 1.00001 */
genomestart 45
trait 1 0.1 0 0.162558 0 0 0 0.100181 0.284998 
trait 2 0.2 0 0 0 0 0 0 0 
trait 3 0.402978 0.289776 0 0 0.376756 0.00884999 0 0.205233 
node 1 2 1 3
node 2 1 1 1
node 3 3 1 1
node 4 3 0 2
node 10 1 0 0
node 13 1 0 0
gene 3 1 4 -1.53174 0 1 -1.53174 1
gene 1 2 4 -2.40814 0 2 -2.40814 0
gene 2 3 4 -1.26137 0 3 -1.26137 0
gene 2 3 10 5.81278 0 14 5.81278 1
gene 2 10 4 -5.98213 0 15 -5.98213 1
gene 2 2 13 3.55357 0 20 3.55357 1
gene 2 13 4 3.99399 0 21 3.99399 1
gene 1 2 10 -4.14842 0 52 -4.14842 1
genomeend 45

/* Organism #46 Fitness: 8.93806 Error: 1.01034 */
genomestart 46
trait 1 0.1 0 0.162558 0 0 0 0.100181 0.284998 
trait 2 0.2 0 0 0 0 0 0 0 
trait 3 0.402978 0.289776 0 0 0.376756 0.00884999 0 0.205233 
node 1 2 1 3
node 2 1 1 1
node 3 3 1 1
node 4 3 0 2
node 10 1 0 0
node 13 1 0 0
gene 3 1 4 0.918118 0 1 0.918118 1
gene 3 2 4 -4.7997 0 2 -4.7997 0
gene 2 3 4 2.10631 0 3 2.10631 0
gene 2 3 10 3.35169 0 14 3.35169 1
gene 2 10 4 -7.23812 0 15 -7.23812 1
gene 2 2 13 3.85533 0 20 3.85533 1
gene 2 13 4 3.54902 0 21 3.54902 1
gene 1 2 10 -2.7683 0 52 -2.7683 1
genomeend 46

/* Organism #47 Fitness: 8.99971 Error: 1.00005 */
genomestart 47
trait 1 0.1 0 0.162558 0 0 0 0.100181 0.284998 
trait 2 0.2 0 0 0 0 0 0 0 
trait 3 0.372196 0.248379 0 0 0.376756 0.00884999 0 0.190895 
node 1 2 1 3
node 2 1 1 1
node 3 3 1 1
node 4 3 0 2
node 10 1 0 0
node 13 2 0 0
gene 3 1 4 -0.382273 0 1 -0.382273 1
gene 1 2 4 -1.49327 0 2 -1.49327 0
gene 2 3 4 0.323851 0 3 0.323851 1
gene 2 3 10 4.43166 0 14 4.43166 1
gene 2 10 4 -6.58242 0 15 -6.58242 1
gene 2 2 13 1.10217 0 20 1.10217 1
gene 2 13 4 2.43505 0 21 2.43505 1
gene 1 2 10 -3.34959 0 52 -3.34959 1
gene 2 3 13 -0.263239 0 161 -0.263239 1
genomeend 47

/* Organism #48 Fitness: 3.99281 Error: 2.0018 */
genomestart 48
trait 1 0.1 0 0.162558 0 0 0 0.100181 0.284998 
trait 2 0.2 0 0 0 0 0 0 0 
trait 3 0.402978 0.289776 0 0 0.376756 0.00884999 0 0.205233 
node 1 2 1 3
node 2 1 1 1
node 3 3 1 1
node 4 3 0 2
node 10 1 0 0
node 13 1 0 0
gene 3 1 4 -0.801207 0 1 -0.801207 1
gene 1 2 4 -0.583689 0 2 -0.583689 0
gene 2 3 4 1.84816 0 3 1.84816 0
gene 2 3 10 3.31024 0 14 3.31024 1
gene 2 10 4 -0.426722 0 15 -0.426722 1
gene 2 2 13 1.51436 0 20 1.51436 1
gene 2 13 4 4.84678 0 21 4.84678 1
gene 1 2 10 -4.58926 0 52 -4.58926 1
genomeend 48

/* Organism #49 Fitness: 3.43503 Error: 2.14662 */
genomestart 49
trait 1 0.1 0 0.162558 0 0 0 0.100181 0.284998 
trait 2 0.2 0 0 0 0 0 0 0 
trait 3 0.372196 0.248379 0 0 0.376756 0.00884999 0 0.190895 
node 1 2 1 3
node 2 1 1 1
node 3 3 1 1
node 4 3 0 2
node 10 1 0 0
node 13 2 0 0
gene 3 1 4 -1.53174 0 1 -1.53174 1
gene 1 2 4 -0.298574 0 2 -0.298574 0
gene 2 3 4 0.323851 0 3 0.323851 1
gene 2 3 10 4.43166 0 14 4.43166 1
gene 2 10 4 -6.58242 0 15 -6.58242 1
gene 2 2 13 1.10217 0 20 1.10217 1
gene 2 13 4 2.43505 0 21 2.43505 1
gene 1 2 10 -4.14842 0 52 -4.14842 1
gene 2 1 10 -0.980412 0 162 -0.980412 1
genomeend 49

/* Organism #50 Fitness: 4.10195 Error: 1.97467 */
genomestart 50
trait 1 0.1 0 0.162558 0 0 0 0.100181 0.284998 
trait 2 0.2 0 0 0 0 0 0 0 
trait 3 0.372196 0.248379 0 0 0.376756 0.00884999 0 0.190895 
node 1 2 1 3
node 2 1 1 1
node 3 3 1 1
node 4 3 0 2
node 10 1 0 0
node 13 2 0 0
gene 3 1 4 -2.72704 0 1 -2.72704 1
gene 1 2 4 0.257214 0 2 0.257214 0
gene 2 3 4 2.12735 0 3 2.12735 1
gene 2 3 10 6.02208 0 14 6.02208 1
gene 2 10 4 -5.98213 0 15 -5.98213 1
gene 2 2 13 3.09896 0 20 3.09896 1
gene 2 13 4 3.04976 0 21 3.04976 1
gene 1 2 10 -0.310887 0 52 -0.310887 1
genomeend 50

/* Organism #51 Fitness: 8.68152 Error: 1.05356 */
genomestart 51
trait 1 0.1 0 0.162558 0 0 0 0.100181 0.284998 
trait 2 0.2 0 0 0 0 0 0 0 
trait 3 0.433761 0.331172 0 0 0.376756 0.00884999 0 0.219571 
node 1 2 1 3
node 2 1 1 1
node 3 3 1 1
node 4 3 0 2
node 10 1 0 0
node 13 1 0 0
gene 3 1 4 -0.400276 0 1 -0.400276 1
gene 1 2 4 -0.515807 0 2 -0.515807 0
gene 1 3 4 0.488657 0 3 0.488657 0
gene 2 3 10 6.80866 0 14 6.80866 1
gene 2 10 4 -6.568 0 15 -6.568 1
gene 2 2 13 4.21552 0 20 4.21552 1
gene 2 13 4 0.9835 0 21 0.9835 1
gene 1 2 10 -3.05534 0 52 -3.05534 1
genomeend 51

/* Species #7 : (Size 12) (AF 6.24677) (Age 13)  */


/* Organism #52 Fitness: 8.99889 Error: 1.00019 */
genomestart 52
trait 1 0.1 0 0 0 0 0 0 0 
trait 2 0.2 0 0 0 0 0 0 0 
trait 3 0.3 0 0 0 0 0 0 0 
node 1 3 1 3
node 2 1 1 1
node 3 3 1 1
node 4 3 0 2
node 12 1 0 0
node 15 1 0 0
gene 3 1 4 -1.93238 0 1 -1.93238 1
gene 1 2 4 -1.10278 0 2 -1.10278 0
gene 3 3 4 0.623226 0 3 0.623226 0
gene 3 3 12 5.20767 0 18 5.20767 1
gene 3 12 4 -8 0 19 -8 1
gene 1 2 15 4.4113 0 27 4.4113 1
gene 3 15 4 8 0 28 8 1
genomeend 52

/* Organism #53 Fitness: 8.9992 Error: 1.00013 */
genomestart 53
trait 1 0.1 0 0 0 0 0 0 0 
trait 2 0.2 0 0 0 0 0 0 0 
trait 3 0.3 0 0 0 0 0 0 0 
node 1 3 1 3
node 2 1 1 1
node 3 3 1 1
node 4 3 0 2
node 12 1 0 0
node 15 1 0 0
gene 3 1 4 -1.40469 0 1 -1.40469 1
gene 1 2 4 2.40926 0 2 2.40926 0
gene 3 3 4 -3.14268 0 3 -3.14268 0
gene 3 3 12 6.54501 0 18 6.54501 1
gene 3 12 4 -8 0 19 -8 1
gene 1 2 15 5.05974 0 27 5.05974 1
gene 1 15 4 7.52413 0 28 7.52413 1
gene 3 1 15 -0.0793689 0 163 -0.0793689 1
genomeend 53

/* Organism #54 Fitness: 8.98811 Error: 1.00198 */
genomestart 54
trait 1 0.1 0 0 0 0 0 0 0 
trait 2 0.2 0 0 0 0 0 0 0 
trait 3 0.3 0 0 0 0 0 0 0 
node 1 3 1 3
node 2 1 1 1
node 3 3 1 1
node 4 3 0 2
node 12 1 0 0
node 15 1 0 0
gene 3 1 4 -1.40469 0 1 -1.40469 1
gene 1 2 4 2.40926 0 2 2.40926 0
gene 3 3 4 0.623226 0 3 0.623226 0
gene 3 3 12 6.54501 0 18 6.54501 1
gene 3 12 4 -8 0 19 -8 1
gene 1 2 15 5.05974 0 27 5.05974 1
gene 3 15 4 8 0 28 8 1
genomeend 54

/* Organism #55 Fitness: 3.99989 Error: 2.00003 */
genomestart 55
trait 1 0.1 0 0 0 0 0 0 0 
trait 2 0.2 0 0 0 0 0 0 0 
trait 3 0.3 0 0 0 0 0 0 0 
node 1 3 1 3
node 2 1 1 1
node 3 3 1 1
node 4 3 0 2
node 12 1 0 0
node 15 1 0 0
gene 3 1 4 -2.88607 0 1 -2.88607 1
gene 1 2 4 0.00916732 0 2 0.00916732 0
gene 3 3 4 -0.1423 0 3 -0.1423 0
gene 3 3 12 4.32334 0 18 4.32334 1
gene 3 12 4 -6.47914 0 19 -6.47914 1
gene 1 2 15 -1.34522 0 27 -1.34522 1
gene 3 15 4 8 0 28 8 1
genomeend 55

/* Organism #56 Fitness: 1.0033 Error: 2.99835 */
genomestart 56
trait 1 0.1 0 0 0 0 0 0 0 
trait 2 0.2 0 0 0 0 0 0 0 
trait 3 0.3 0 0 0 0 0 0 0 
node 1 3 1 3
node 2 1 1 1
node 3 3 1 1
node 4 3 0 2
node 12 1 0 0
node 15 1 0 0
gene 3 1 4 0.932851 0 1 0.932851 1
gene 1 2 4 2.53223 0 2 2.53223 0
gene 3 3 4 -4.00084 0 3 -4.00084 0
gene 3 3 12 8 0 18 8 1
gene 3 12 4 -7.2065 0 19 -7.2065 1
gene 1 2 15 4.69918 0 27 4.69918 1
gene 1 15 4 8 0 28 8 1
genomeend 56

/* Organism #57 Fitness: 5.51315 Error: 1.65199 */
genomestart 57
trait 1 0.1 0 0 0 0 0 0 0 
trait 2 0.2 0 0 0 0 0 0 0 
trait 3 0.3 0 0 0 0 0 0 0 
node 1 3 1 3
node 2 1 1 1
node 3 3 1 1
node 4 3 0 2
node 12 1 0 0
node 15 1 0 0
gene 3 1 4 -1.93238 0 1 -1.93238 1
gene 1 2 4 -1.10278 0 2 -1.10278 0
gene 3 3 4 0.623226 0 3 0.623226 0
gene 3 3 12 5.20767 0 18 5.20767 1
gene 3 12 4 -8 0 19 -8 1
gene 1 2 15 4.4113 0 27 4.4113 1
gene 3 15 4 8 0 28 8 1
gene 3 2 12 0.250426 0 164 0.250426 1
genomeend 57

/* Organism #58 Fitness: 4.00173 Error: 1.99957 */
genomestart 58
trait 1 0.1 0 0 0 0 0 0 0 
trait 2 0.2 0 0 0 0 0 0 0 
trait 3 0.3 0 0 0 0 0 0 0 
node 1 3 1 3
node 2 1 1 1
node 3 3 1 1
node 4 3 0 2
node 12 1 0 0
node 15 1 0 0
node 56 1 0 0
gene 3 1 4 -1.40469 0 1 -1.40469 1
gene 1 2 4 2.40926 0 2 2.40926 0
gene 3 3 4 -3.14268 0 3 -3.14268 0
gene 3 3 12 6.54501 0 18 6.54501 1
gene 3 12 4 -8 0 19 -8 1
gene 1 2 15 5.05974 0 27 5.05974 1
gene 1 15 4 7.52413 0 28 7.52413 0
gene 1 15 56 1 0 165 0 1
gene 1 56 4 7.52413 0 166 0 1
genomeend 58

/* Organism #59 Fitness: 8.9882 Error: 1.00197 */
genomestart 59
trait 1 0.1 0 0 0 0 0 0 0 
trait 2 0.2 0 0 0 0 0 0 0 
trait 3 0.3 0 0 0 0 0 0 0 
node 1 3 1 3
node 2 1 1 1
node 3 3 1 1
node 4 3 0 2
node 12 1 0 0
node 15 1 0 0
gene 3 1 4 -0.658323 0 1 -0.658323 1
gene 1 2 4 4.68131 0 2 4.68131 0
gene 3 3 4 -5.06965 0 3 -5.06965 0
gene 3 3 12 8 0 18 8 1
gene 3 12 4 -8 0 19 -8 1
gene 1 2 15 4.38156 0 27 4.38156 1
gene 1 15 4 6.76116 0 28 6.76116 1
genomeend 59

/* Organism #60 Fitness: 4 Error: 2 */
genomestart 60
trait 1 0.1 0 0 0 0 0 0 0 
trait 2 0.2 0 0 0 0 0 0 0 
trait 3 0.3 0 0 0 0 0 0 0 
node 1 3 1 3
node 2 1 1 1
node 3 3 1 1
node 4 3 0 2
node 12 1 0 0
node 15 1 0 0
gene 3 1 4 -3.47323 0 1 -3.47323 1
gene 1 2 4 -0.258928 0 2 -0.258928 0
gene 3 3 4 -1.66153 0 3 -1.66153 0
gene 3 3 12 4.54594 0 18 4.54594 1
gene 3 12 4 -1.60083 0 19 -1.60083 1
gene 1 2 15 6.72327 0 27 6.72327 1
gene 3 15 4 -0.798574 0 28 -0.798574 1
genomeend 60

/* Organism #61 Fitness: 4 Error: 2 */
genomestart 61
trait 1 0.1 0 0 0 0 0 0 0 
trait 2 0.2 0 0 0 0 0 0 0 
trait 3 0.3 0 0 0 0 0 0 0 
node 1 3 1 3
node 2 1 1 1
node 3 3 1 1
node 4 3 0 2
node 12 1 0 0
node 15 1 0 0
gene 3 1 4 -1.47174 0 1 -1.47174 1
gene 1 2 4 -0.617525 0 2 -0.617525 0
gene 3 3 4 0.623226 0 3 0.623226 0
gene 3 3 12 7.22772 0 18 7.22772 1
gene 3 12 4 -7.91079 0 19 -7.91079 1
gene 1 2 15 5.28044 0 27 5.28044 1
gene 3 15 4 1.28681 0 28 1.28681 1
genomeend 61

/* Organism #62 Fitness: 8.99977 Error: 1.00004 */
genomestart 62
trait 1 0.1 0 0 0 0 0 0 0 
trait 2 0.2 0 0 0 0 0 0 0 
trait 3 0.3 0 0 0 0 0 0 0 
node 1 3 1 3
node 2 1 1 1
node 3 3 1 1
node 4 3 0 2
node 12 1 0 0
node 15 1 0 0
gene 3 1 4 -1.40469 0 1 -1.40469 1
gene 1 2 4 2.40926 0 2 2.40926 0
gene 3 3 4 -3.14268 0 3 -3.14268 1
gene 3 3 12 6.54501 0 18 6.54501 1
gene 3 12 4 -8 0 19 -8 1
gene 1 2 15 5.05974 0 27 5.05974 1
gene 1 15 4 7.52413 0 28 7.52413 1
gene 3 1 15 -0.0793689 0 163 0 1
genomeend 62

/* Organism #63 Fitness: 7.46902 Error: 1.26705 */
genomestart 63
trait 1 0.1 0 0 0 0 0 0 0 
trait 2 0.2 0 0 0 0 0 0 0 
trait 3 0.3 0 0 0 0 0 0 0 
node 1 3 1 3
node 2 1 1 1
node 3 3 1 1
node 4 3 0 2
node 12 1 0 0
node 15 1 0 0
gene 3 1 4 0.641686 0 1 0.641686 1
gene 1 2 4 -0.0488583 0 2 -0.0488583 0
gene 3 3 4 -3.94841 0 3 -3.94841 0
gene 3 3 12 4.94564 0 18 4.94564 1
gene 3 12 4 -8 0 19 -8 1
gene 1 2 15 6.81609 0 27 6.81609 1
gene 1 15 4 6.29548 0 28 6.29548 1
genomeend 63

/* Species #8 : (Size 11) (AF 5.82016) (Age 13)  */


/* Organism #64 Fitness: 9 Error: 1 */
genomestart 64
trait 1 0.1 0 0 0 0 0 0 0 
trait 2 0.2 0 0 0 0 0 0 0 
trait 3 0.3 0 0 0 0 0 0 0 
node 1 3 1 3
node 2 1 1 1
node 3 3 1 1
node 4 3 0 2
node 12 1 0 0
node 15 1 0 0
node 18 1 0 0
node 21 1 0 0
gene 3 1 4 -2.25647 0 1 -2.25647 1
gene 1 2 4 4.99676 0 2 4.99676 0
gene 3 3 4 -6.84201 0 3 -6.84201 1
gene 3 3 12 2.00097 0 18 2.00097 0
gene 3 12 4 -8 0 19 -8 1
gene 1 2 15 -0.584029 0 27 -0.584029 0
gene 1 15 4 6.88098 0 28 6.88098 1
gene 3 3 18 -0.55493 0 36 -0.55493 1
gene 3 18 12 2.68939 0 37 2.68939 1
gene 1 2 21 2.07708 0 42 2.07708 1
gene 1 21 15 0.343681 0 43 0.343681 1
gene 2 21 12 -2.33106 0 53 -2.33106 1
gene 3 1 18 0.0101571 0 113 0.0101571 1
genomeend 64

/* Organism #65 Fitness: 8.99944 Error: 1.00009 */
genomestart 65
trait 1 0.1 0 0 0 0 0 0 0 
trait 2 0.2 0 0 0 0 0 0 0 
trait 3 0.3 0 0 0 0 0 0 0 
node 1 3 1 3
node 2 1 1 1
node 3 3 1 1
node 4 3 0 2
node 12 1 0 0
node 15 1 0 0
node 18 1 0 0
node 21 1 0 0
gene 3 1 4 -1.84453 0 1 -1.84453 1
gene 1 2 4 3.84359 0 2 3.84359 0
gene 3 3 4 -6.37808 0 3 -6.37808 0
gene 3 3 12 2.43362 0 18 2.43362 0
gene 2 12 4 -8 0 19 -8 1
gene 1 2 15 -2.05783 0 27 -2.05783 1
gene 1 15 4 7.22536 0 28 7.22536 1
gene 3 3 18 -0.780506 0 36 -0.780506 1
gene 3 18 12 3.56675 0 37 3.56675 1
gene 1 2 21 1.50857 0 42 1.50857 1
gene 1 21 15 0.67184 0 43 0.67184 1
gene 2 21 12 -2.47246 0 53 -2.47246 1
gene 3 1 18 0.0101571 0 113 0.0101571 1
genomeend 65

/* Organism #66 Fitness: 3.99306 Error: 2.00174 */
genomestart 66
trait 1 0.1 0 0 0 0 0 0 0 
trait 2 0.2 0 0 0 0 0 0 0 
trait 3 0.3 0 0 0 0 0 0 0 
node 1 3 1 3
node 2 1 1 1
node 3 1 1 1
node 4 3 0 2
node 12 1 0 0
node 15 1 0 0
node 18 1 0 0
node 21 1 0 0
gene 3 1 4 -3.10695 0 1 -3.10695 1
gene 1 2 4 5.40003 0 2 5.40003 0
gene 3 3 4 -8 0 3 -8 1
gene 3 3 12 3.09712 0 18 3.09712 0
gene 3 12 4 -7.0181 0 19 -7.0181 1
gene 1 2 15 -0.647233 0 27 -0.647233 0
gene 1 15 4 6.59253 0 28 6.59253 1
gene 3 3 18 0.770485 0 36 0.770485 1
gene 3 18 12 3.59745 0 37 3.59745 1
gene 1 2 21 3.67568 0 42 3.67568 1
gene 1 21 15 -0.379966 0 43 -0.379966 1
gene 2 21 12 -2.40176 0 53 -2.40176 1
gene 3 1 18 -0.638278 0 113 -0.638278 1
genomeend 66

/* Organism #67 Fitness: 4 Error: 2 */
genomestart 67
trait 1 0.1 0 0 0 0 0 0 0 
trait 2 0.2 0 0 0 0 0 0 0 
trait 3 0.3 0 0 0 0 0 0 0 
node 1 3 1 3
node 2 1 1 1
node 3 3 1 1
node 4 3 0 2
node 12 1 0 0
node 15 1 0 0
node 18 1 0 0
node 21 1 0 0
node 57 1 0 0
gene 3 1 4 -1.43258 0 1 -1.43258 1
gene 1 2 4 3.9568 0 2 3.9568 0
gene 3 3 4 -5.91415 0 3 -5.91415 0
gene 3 3 12 2.00097 0 18 2.00097 0
gene 2 12 4 -8 0 19 -8 1
gene 1 2 15 -2.05783 0 27 -2.05783 0
gene 1 15 4 7.56973 0 28 7.56973 1
gene 3 3 18 -1.00608 0 36 -1.00608 1
gene 3 18 12 4.44412 0 37 4.44412 1
gene 1 2 21 2.07708 0 42 2.07708 0
gene 1 21 15 1 0 43 1 1
gene 2 21 12 -2.47246 0 53 -2.47246 1
gene 3 1 18 0.0101571 0 113 0.0101571 1
gene 1 2 57 1 0 167 0 1
gene 1 57 21 2.07708 0 168 0 1
genomeend 67

/* Organism #68 Fitness: 4 Error: 2 */
genomestart 68
trait 1 0.1 0 0 0 0 0 0 0 
trait 2 0.2 0 0 0 0 0 0 0 
trait 3 0.3 0 0 0 0 0 0 0 
node 1 3 1 3
node 2 1 1 1
node 3 3 1 1
node 4 3 0 2
node 12 1 0 0
node 15 1 0 0
node 18 1 0 0
node 21 1 0 0
gene 3 1 4 -0.579411 0 1 -0.579411 1
gene 1 2 4 3.73038 0 2 3.73038 0
gene 3 3 4 -8 0 3 -8 0
gene 3 3 12 3.2515 0 18 3.2515 0
gene 2 12 4 -8 0 19 -8 1
gene 1 2 15 -2.15673 0 27 -2.15673 0
gene 1 15 4 4.6962 0 28 4.6962 1
gene 3 3 18 -0.554591 0 36 -0.554591 1
gene 3 18 12 1.10408 0 37 1.10408 1
gene 1 2 21 2.34374 0 42 2.34374 1
gene 1 21 15 2.05506 0 43 2.05506 1
gene 2 21 12 -0.700605 0 53 -0.700605 1
gene 3 1 18 1.99907 0 113 1.99907 1
genomeend 68

/* Organism #69 Fitness: 8.99997 Error: 1 */
genomestart 69
trait 1 0.1 0 0 0 0 0 0 0 
trait 2 0.2 0 0 0 0 0 0 0 
trait 3 0.3 0 0 0 0 0 0 0 
node 1 3 1 3
node 2 1 1 1
node 3 3 1 1
node 4 3 0 2
node 12 1 0 0
node 15 1 0 0
node 18 1 0 0
node 21 1 0 0
gene 3 1 4 -2.25647 0 1 -2.25647 1
gene 1 2 4 3.73038 0 2 3.73038 0
gene 3 3 4 -6.84201 0 3 -6.84201 0
gene 3 3 12 2.00097 0 18 2.00097 0
gene 2 12 4 -8 0 19 -8 1
gene 1 2 15 -0.584029 0 27 -0.584029 0
gene 1 15 4 6.88098 0 28 6.88098 1
gene 3 3 18 -0.55493 0 36 -0.55493 1
gene 3 18 12 2.68939 0 37 2.68939 1
gene 1 2 21 2.07708 0 42 2.07708 1
gene 1 21 15 0.343681 0 43 0.343681 1
gene 2 21 12 -2.33106 0 53 -2.33106 1
gene 3 1 18 0.0101571 0 113 0.0101571 1
genomeend 69

/* Organism #70 Fitness: 4.02324 Error: 1.9942 */
genomestart 70
trait 1 0.1 0 0 0 0 0 0 0 
trait 2 0.2 0 0 0 0 0 0 0 
trait 3 0.3 0 0.952001 0 0 0 0 0.523401 
node 1 3 1 3
node 2 1 1 1
node 3 3 1 1
node 4 3 0 2
node 12 1 0 0
node 15 1 0 0
node 18 1 0 0
node 21 1 0 0
gene 3 1 4 -3.31625 0 1 -3.31625 1
gene 1 2 4 4.47511 0 2 4.47511 0
gene 3 3 4 -4.70096 0 3 -4.70096 0
gene 3 3 12 -0.309228 0 18 -0.309228 0
gene 2 12 4 -0.476482 0 19 -0.476482 1
gene 1 2 15 -1.20764 0 27 -1.20764 0
gene 1 15 4 6.88098 0 28 6.88098 1
gene 3 3 18 -2.25164 0 36 -2.25164 1
gene 3 18 12 2.68939 0 37 2.68939 1
gene 1 2 21 3.66336 0 42 3.66336 1
gene 1 21 15 0.343681 0 43 0.343681 1
gene 2 21 12 -2.59806 0 53 -2.59806 1
gene 3 1 18 0.577666 0 113 0.577666 1
genomeend 70

/* Organism #71 Fitness: 4.00617 Error: 1.99846 */
genomestart 71
trait 1 0.1 0 0 0 0 0 0 0 
trait 2 0.2 0 0 0 0 0 0 0 
trait 3 0.3 0 0 0 0 0 0 0 
node 1 3 1 3
node 2 1 1 1
node 3 3 1 1
node 4 3 0 2
node 12 1 0 0
node 15 1 0 0
node 18 1 0 0
node 21 1 0 0
gene 3 1 4 -1.83266 0 1 -1.83266 1
gene 1 2 4 5.76446 0 2 5.76446 0
gene 3 3 4 -5.81211 0 3 -5.81211 1
gene 3 3 12 3.27747 0 18 3.27747 0
gene 2 12 4 -0.81065 0 19 -0.81065 1
gene 1 2 15 -2.62732 0 27 -2.62732 0
gene 1 15 4 7.22536 0 28 7.22536 1
gene 3 3 18 0.0370043 0 36 0.0370043 1
gene 3 18 12 3.56675 0 37 3.56675 1
gene 1 2 21 -0.40521 0 42 -0.40521 1
gene 1 21 15 1.78974 0 43 1.78974 1
gene 2 21 12 -4.49135 0 53 -4.49135 1
gene 3 1 18 0.5569 0 113 0.5569 1
genomeend 71

/* Organism #72 Fitness: 3.99993 Error: 2.00002 */
genomestart 72
trait 1 0.1 0 0 0 0 0 0 0 
trait 2 0.2 0 0 0 0 0 0 0 
trait 3 0.3 0 0 0 0 0 0 0 
node 1 1 1 3
node 2 1 1 1
node 3 3 1 1
node 4 3 0 2
node 12 1 0 0
node 15 1 0 0
node 18 1 0 0
node 21 1 0 0
gene 3 1 4 -2.25647 0 1 -2.25647 1
gene 1 2 4 4.99676 0 2 4.99676 0
gene 3 3 4 -0.343862 0 3 -0.343862 1
gene 3 3 12 -2.1336 0 18 -2.1336 0
gene 3 12 4 -8 0 19 -8 1
gene 1 2 15 1.68591 0 27 1.68591 0
gene 1 15 4 6.88098 0 28 6.88098 1
gene 3 3 18 -1.77011 0 36 -1.77011 1
gene 3 18 12 2.67663 0 37 2.67663 1
gene 1 2 21 4.54669 0 42 4.54669 1
gene 1 21 15 0.343681 0 43 0.343681 1
gene 2 21 12 -2.33106 0 53 -2.33106 1
gene 3 1 18 -0.757513 0 113 -0.757513 1
genomeend 72

/* Organism #73 Fitness: 4 Error: 2 */
genomestart 73
trait 1 0.1 0 0 0 0 0 0 0 
trait 2 0.2 0 0 0 0 0 0 0 
trait 3 0.3 0 0 0 0 0 0 0 
node 1 3 1 3
node 2 1 1 1
node 3 3 1 1
node 4 3 0 2
node 12 1 0 0
node 15 1 0 0
node 18 1 0 0
node 21 1 0 0
gene 3 1 4 -3.55463 0 1 -3.55463 1
gene 1 2 4 3.76321 0 2 3.76321 0
gene 3 3 4 -8 0 3 -8 0
gene 3 3 12 3.29566 0 18 3.29566 0
gene 2 12 4 -8 0 19 -8 1
gene 1 2 15 -1.35362 0 27 -1.35362 0
gene 1 15 4 7.04428 0 28 7.04428 1
gene 3 3 18 -3.11068 0 36 -3.11068 1
gene 3 18 12 5.16572 0 37 5.16572 1
gene 1 2 21 2.36526 0 42 2.36526 1
gene 1 21 15 -0.872525 0 43 -0.872525 1
gene 2 21 12 2.30191 0 53 2.30191 1
gene 2 21 4 0.216246 0 135 0.216246 1
genomeend 73

/* Organism #74 Fitness: 9 Error: 1 */
genomestart 74
trait 1 0.1 0 0 0 0 0 0 0 
trait 2 0.2 0 0 0 0 0 0 0 
trait 3 0.3 0 0 0 0 0 0 0 
node 1 3 1 3
node 2 1 1 1
node 3 3 1 1
node 4 3 0 2
node 12 1 0 0
node 15 1 0 0
node 18 1 0 0
node 21 1 0 0
gene 3 1 4 -2.25647 0 1 -2.25647 1
gene 1 2 4 3.73038 0 2 3.73038 0
gene 3 3 4 -6.84201 0 3 -6.84201 1
gene 3 3 12 2.00097 0 18 2.00097 0
gene 3 12 4 -8 0 19 -8 1
gene 1 2 15 -2.05783 0 27 -2.05783 0
gene 1 15 4 6.88098 0 28 6.88098 1
gene 2 3 18 -0.55493 0 36 -0.55493 1
gene 3 18 12 2.68939 0 37 2.68939 1
gene 1 2 21 2.07708 0 42 2.07708 1
gene 1 21 15 0.343681 0 43 0.343681 1
gene 2 21 12 -2.33106 0 53 -2.33106 1
gene 3 1 18 0.0101571 0 113 0.0101571 1
genomeend 74

/* Species #10 : (Size 13) (AF 6.76331) (Age 11)  */


/* Organism #75 Fitness: 9 Error: 1 */
genomestart 75
trait 1 0.1 0 0 0 0 0 0 0 
trait 2 0.2 0 0 0.246443 0 0 0.39419 0 
trait 3 0.3 0 0 0 0 0 0 0 
node 1 3 1 3
node 2 1 1 1
node 3 3 1 1
node 4 3 0 2
node 12 1 0 0
node 22 1 0 0
gene 3 1 4 -0.251832 0 1 -0.251832 1
gene 1 2 4 8 0 2 8 1
gene 3 3 4 -4.21537 0 3 -4.21537 1
gene 3 3 12 5.12825 0 18 5.12825 1
gene 3 12 4 -6.33147 0 19 -6.33147 0
gene 3 1 12 -0.735401 0 32 -0.735401 1
gene 3 12 22 1.05841 0 44 1.05841 1
gene 3 22 4 -7.36669 0 45 -7.36669 1
genomeend 75

/* Organism #76 Fitness: 5.94919 Error: 1.5609 */
genomestart 76
trait 1 0.1 0 0 0 0 0 0 0 
trait 2 0.2 0 0 0.246443 0 0 0.39419 0 
trait 3 0.3 0 0 0 0 0 0 0 
node 1 3 1 3
node 2 1 1 1
node 3 3 1 1
node 4 3 0 2
node 12 1 0 0
node 22 1 0 0
gene 3 1 4 0.536374 0 1 0.536374 1
gene 1 2 4 8 0 2 8 1
gene 3 3 4 -5.23957 0 3 -5.23957 1
gene 3 3 12 1.60359 0 18 1.60359 1
gene 3 12 4 0.0537445 0 19 0.0537445 0
gene 3 1 12 0.243848 0 32 0.243848 1
gene 3 12 22 -0.0483371 0 44 -0.0483371 1
gene 3 22 4 -7.36669 0 45 -7.36669 1
genomeend 76

/* Organism #77 Fitness: 4.00001 Error: 2 */
genomestart 77
trait 1 0.1 0 0 0 0 0 0 0 
trait 2 0.2 0 0 0.246443 0 0 0.39419 0 
trait 3 0.3 0 0 0 0 0 0 0 
node 1 3 1 3
node 2 1 1 1
node 3 3 1 1
node 4 3 0 2
node 12 1 0 0
node 22 1 0 0
gene 3 1 4 1.83941 0 1 1.83941 1
gene 1 2 4 7.43209 0 2 7.43209 1
gene 3 3 4 -6.60946 0 3 -6.60946 1
gene 3 3 12 2.21246 0 18 2.21246 1
gene 3 12 4 -7.42801 0 19 -7.42801 0
gene 3 1 12 -0.735401 0 32 -0.735401 1
gene 3 12 22 -0.494803 0 44 -0.494803 1
gene 3 22 4 -8 0 45 -8 1
genomeend 77

/* Organism #78 Fitness: 8.97594 Error: 1.00401 */
genomestart 78
trait 1 0.1 0 0 0 0 0 0 0 
trait 2 0.2 0 0 0.246443 0 0 0.39419 0 
trait 3 0.3 0 0 0 0 0 0 0 
node 1 3 1 3
node 2 1 1 1
node 3 3 1 1
node 4 3 0 2
node 12 1 0 0
node 22 1 0 0
gene 3 1 4 0.305087 0 1 0.305087 1
gene 1 2 4 8 0 2 8 1
gene 3 3 4 -4.21537 0 3 -4.21537 1
gene 3 3 12 4.15333 0 18 4.15333 1
gene 3 12 4 -7.47999 0 19 -7.47999 0
gene 3 1 12 0.400794 0 32 0.400794 1
gene 3 12 22 3.38415 0 44 3.38415 1
gene 3 22 4 -7.18525 0 45 -7.18525 1
genomeend 78

/* Organism #79 Fitness: 4.01866 Error: 1.99534 */
genomestart 79
trait 1 0.1 0 0 0 0 0 0 0 
trait 2 0.2 0 0 0.246443 0 0 0.39419 0 
trait 3 0.3 0 0 0 0 0 0 0 
node 1 3 1 3
node 2 1 1 1
node 3 3 1 1
node 4 3 0 2
node 12 1 0 0
node 22 1 0 0
gene 3 1 4 2.12178 0 1 2.12178 1
gene 1 2 4 8 0 2 8 1
gene 3 3 4 -2.13738 0 3 -2.13738 1
gene 3 3 12 3.97102 0 18 3.97102 1
gene 3 12 4 -6.02662 0 19 -6.02662 0
gene 3 1 12 -2.90035 0 32 -2.90035 1
gene 3 12 22 2.19148 0 44 2.19148 1
gene 3 22 4 -6.94513 0 45 -6.94513 1
genomeend 79

/* Organism #80 Fitness: 4 Error: 2 */
genomestart 80
trait 1 0.1 0 0 0 0 0 0 0 
trait 2 0.2 0 0 0.246443 0 0 0.39419 0 
trait 3 0.3 0 0 0 0 0 0 0 
node 1 3 1 3
node 2 1 1 1
node 3 3 1 1
node 4 3 0 2
node 12 1 0 0
node 22 3 0 0
gene 3 1 4 -0.324361 0 1 -0.324361 1
gene 1 2 4 8 0 2 8 1
gene 3 3 4 -2.92969 0 3 -2.92969 1
gene 3 3 12 3.09714 0 18 3.09714 1
gene 3 12 4 -5.82353 0 19 -5.82353 0
gene 1 1 12 -0.678806 0 32 -0.678806 1
gene 3 12 22 -0.424949 0 44 -0.424949 1
gene 3 22 4 -8 0 45 -8 1
genomeend 80

/* Organism #81 Fitness: 8.46314 Error: 1.09085 */
genomestart 81
trait 1 0.1 0 0 0 0 0 0 0 
trait 2 0.2 0 0 0.246443 0 0 0.39419 0 
trait 3 0.3 0 0 0 0 0 0 0 
node 1 3 1 3
node 2 1 1 1
node 3 3 1 1
node 4 3 0 2
node 12 1 0 0
node 22 1 0 0
gene 3 1 4 0.467703 0 1 0.467703 1
gene 1 2 4 8 0 2 8 1
gene 3 3 4 -6.10598 0 3 -6.10598 1
gene 3 3 12 6.47711 0 18 6.47711 1
gene 3 12 4 -8 0 19 -8 0
gene 3 1 12 1.00365 0 32 1.00365 1
gene 3 12 22 2.52068 0 44 2.52068 1
gene 3 22 4 -8 0 45 -8 1
genomeend 81

/* Organism #82 Fitness: 8.97752 Error: 1.00375 */
genomestart 82
trait 1 0.1 0 0 0 0 0 0 0 
trait 2 0.2 0 0 0.246443 0 0 0.39419 0 
trait 3 0.3 0 0 0 0 0 0 0 
node 1 3 1 3
node 2 1 1 1
node 3 3 1 1
node 4 3 0 2
node 12 1 0 0
node 22 1 0 0
gene 3 1 4 0.802641 0 1 0.802641 1
gene 1 2 4 6.58832 0 2 6.58832 1
gene 3 3 4 -2.01749 0 3 -2.01749 1
gene 3 3 12 3.46432 0 18 3.46432 1
gene 3 12 4 -6.14537 0 19 -6.14537 0
gene 3 1 12 -2.53381 0 32 -2.53381 1
gene 3 12 22 0.302037 0 44 0.302037 1
gene 3 22 4 -8 0 45 -8 1
genomeend 82

/* Organism #83 Fitness: 4.00004 Error: 1.99999 */
genomestart 83
trait 1 0.1 0 0 0 0 0 0 0 
trait 2 0.2 0 0 0.246443 0 0 0.39419 0 
trait 3 0.3 0 0 0 0 0 0 0 
node 1 3 1 3
node 2 1 1 1
node 3 3 1 1
node 4 3 0 2
node 12 1 0 0
node 22 1 0 0
gene 3 1 4 -2.32712 0 1 -2.32712 1
gene 1 2 4 8 0 2 8 1
gene 3 3 4 -6.18702 0 3 -6.18702 1
gene 3 3 12 4.55492 0 18 4.55492 1
gene 3 12 4 -4.03643 0 19 -4.03643 0
gene 3 1 12 1.29771 0 32 1.29771 1
gene 3 12 22 3.38509 0 44 3.38509 1
gene 3 22 4 -8 0 45 -8 1
genomeend 83

/* Organism #84 Fitness: 3.53893 Error: 2.11879 */
genomestart 84
trait 1 0.1 0 0 0 0 0 0 0 
trait 2 0.2 0 0 0.246443 0 0 0.39419 0 
trait 3 0.3 0 0 0 0 0 0 0 
node 1 3 1 3
node 2 1 1 1
node 3 3 1 1
node 4 3 0 2
node 12 1 0 0
node 22 1 0 0
gene 3 1 4 1.15092 0 1 1.15092 1
gene 1 2 4 -1.38685 0 2 -1.38685 1
gene 3 3 4 -6.22798 0 3 -6.22798 1
gene 3 3 12 3.58254 0 18 3.58254 1
gene 3 12 4 -4.25955 0 19 -4.25955 0
gene 3 1 12 -0.735401 0 32 -0.735401 1
gene 3 12 22 -0.131653 0 44 -0.131653 1
gene 3 22 4 1.29613 0 45 1.29613 1
genomeend 84

/* Organism #85 Fitness: 9 Error: 1 */
genomestart 85
trait 1 0.1 0 0 0 0 0 0 0 
trait 2 0.2 0 0 0.246443 0 0 0.39419 0 
trait 3 0.3 0 0 0 0 0 0 0 
node 1 3 1 3
node 2 1 1 1
node 3 3 1 1
node 4 3 0 2
node 12 1 0 0
node 22 1 0 0
gene 3 1 4 -2.09849 0 1 -2.09849 1
gene 1 2 4 8 0 2 8 1
gene 3 3 4 -5.88574 0 3 -5.88574 1
gene 3 3 12 5.63988 0 18 5.63988 1
gene 3 12 4 -6.53072 0 19 -6.53072 0
gene 3 1 12 -1.13276 0 32 -1.13276 1
gene 3 12 22 1.05841 0 44 1.05841 1
gene 3 22 4 -5.89897 0 45 -5.89897 1
genomeend 85

/* Organism #86 Fitness: 8.99961 Error: 1.00007 */
genomestart 86
trait 1 0.1 0 0 0 0 0 0 0 
trait 2 0.2 0 0 0.246443 0 0 0.39419 0 
trait 3 0.3 0 0 0 0 0 0 0 
node 1 3 1 3
node 2 1 1 1
node 3 3 1 1
node 4 3 0 2
node 12 1 0 0
node 22 3 0 0
gene 3 1 4 -1.25174 0 1 -1.25174 1
gene 1 2 4 8 0 2 8 1
gene 3 3 4 -5.72708 0 3 -5.72708 1
gene 3 3 12 6.3094 0 18 6.3094 1
gene 3 12 4 -4.06528 0 19 -4.06528 1
gene 2 1 12 0.788269 0 32 0.788269 1
gene 3 12 22 1.05841 0 44 1.05841 1
gene 3 22 4 -0.81246 0 45 -0.81246 1
genomeend 86

/* Organism #87 Fitness: 8.99995 Error: 1.00001 */
genomestart 87
trait 1 0.1 0 0 0 0 0 0 0 
trait 2 0.2 0 0 0.246443 0 0 0.39419 0 
trait 3 0.3 0 0 0 0 0 0 0 
node 1 3 1 3
node 2 1 1 1
node 3 3 1 1
node 4 3 0 2
node 12 1 0 0
node 22 1 0 0
gene 3 1 4 -1.8125 0 1 -1.8125 1
gene 1 2 4 6.81853 0 2 6.81853 1
gene 3 3 4 -5.57479 0 3 -5.57479 1
gene 3 3 12 6.90084 0 18 6.90084 1
gene 3 12 4 -4.99275 0 19 -4.99275 0
gene 3 1 12 1.1847 0 32 1.1847 1
gene 3 12 22 -0.129937 0 44 -0.129937 1
gene 3 22 4 -7.54717 0 45 -7.54717 1
genomeend 87

/* Species #11 : (Size 15) (AF 6.66326) (Age 11)  */


/* Organism #88 Fitness: 9 Error: 1 */
genomestart 88
trait 1 0.1 0 0 0 0 0 0 0 
trait 2 0.2 0 0 0 0 0 0 0 
trait 3 0.3 0 0 0 0 0 0 0 
node 1 3 1 3
node 2 1 1 1
node 3 3 1 1
node 4 3 0 2
node 11 1 0 0
gene 3 1 4 -3.32253 0 1 -3.32253 1
gene 1 2 4 4.82995 0 2 4.82995 1
gene 3 3 4 3.68594 0 3 3.68594 1
gene 2 2 11 0.680632 0 16 0.680632 1
gene 2 11 4 5.76747 0 17 5.76747 1
gene 2 3 11 2.17277 0 47 2.17277 1
gene 1 1 11 -0.67616 0 84 -0.67616 1
genomeend 88

/* Organism #89 Fitness: 8.91885 Error: 1.01355 */
genomestart 89
trait 1 0.1 0 0 0 0 0 0 0 
trait 2 0.180281 0 0 0 0.187347 0 0 0 
trait 3 0.3 0 0 0 0 0 0 0 
node 1 3 1 3
node 2 1 1 1
node 3 3 1 1
node 4 3 0 2
node 11 1 0 0
gene 3 1 4 -2.03115 0 1 -2.03115 1
gene 1 2 4 0.819836 0 2 0.819836 1
gene 3 3 4 -2.37435 0 3 -2.37435 1
gene 2 2 11 -2.06598 0 16 -2.06598 1
gene 2 11 4 5.45352 0 17 5.45352 1
gene 1 3 11 3.69019 0 47 3.69019 1
gene 1 1 11 -3.03922 0 84 -3.03922 1
genomeend 89

/* Organism #90 Fitness: 9 Error: 1 */
genomestart 90
trait 1 0.1 0 0 0 0 0 0 0 
trait 2 0.2 0 0 0 0 0 0 0 
trait 3 0.3 0 0 0 0 0 0 0 
node 1 3 1 3
node 2 1 1 1
node 3 3 1 1
node 4 3 0 2
node 11 1 0 0
gene 3 1 4 -3.32253 0 1 -3.32253 1
gene 1 2 4 4.82995 0 2 4.82995 1
gene 3 3 4 3.68594 0 3 3.68594 1
gene 2 2 11 0.680632 0 16 0.680632 1
gene 2 11 4 5.76747 0 17 5.76747 1
gene 2 3 11 2.17277 0 47 2.17277 1
gene 1 1 11 -0.67616 0 84 -0.67616 1
genomeend 90

/* Organism #91 Fitness: 8.97542 Error: 1.0041 */
genomestart 91
trait 1 0.1 0 0 0 0 0 0 0 
trait 2 0.160561 0 0 0 0.374694 0 0 0 
trait 3 0.3 0 0 0 0 0 0 0 
node 1 3 1 3
node 2 3 1 1
node 3 3 1 1
node 4 3 0 2
node 11 1 0 0
gene 1 1 4 -1.11584 0 1 -1.11584 1
gene 1 2 4 3.49351 0 2 3.49351 1
gene 3 3 4 8 0 3 8 1
gene 2 2 11 -4.21462 0 16 -4.21462 1
gene 2 11 4 1.72159 0 17 1.72159 1
gene 1 3 11 1.24101 0 47 1.24101 1
gene 1 1 11 -2.52115 0 84 -2.52115 1
genomeend 91

/* Organism #92 Fitness: 4 Error: 2 */
genomestart 92
trait 1 0.1 0 0 0 0 0 0 0 
trait 2 0.2 0 0 0 0 0 0 0 
trait 3 0.3 0 0 0 0 0 0 0 
node 1 3 1 3
node 2 1 1 1
node 3 3 1 1
node 4 3 0 2
node 11 1 0 0
gene 3 1 4 -4.87615 0 1 -4.87615 1
gene 1 2 4 0.925133 0 2 0.925133 1
gene 3 3 4 3.03783 0 3 3.03783 1
gene 2 2 11 0.186026 0 16 0.186026 1
gene 2 11 4 -1.97018 0 17 -1.97018 1
gene 2 3 11 1.56919 0 47 1.56919 1
gene 1 1 11 2.29987 0 84 2.29987 1
genomeend 92

/* Organism #93 Fitness: 4.00488 Error: 1.99878 */
genomestart 93
trait 1 0.1 0 0 0 0 0 0.458498 0.221611 
trait 2 0.19014 0 0 0 0.0936736 0 0 0 
trait 3 0.3 0 0 0 0 0 0 0 
node 1 3 1 3
node 2 1 1 1
node 3 3 1 1
node 4 3 0 2
node 11 2 0 0
gene 3 1 4 -4.00738 0 1 -4.00738 1
gene 1 2 4 7.07456 0 2 7.07456 1
gene 3 3 4 2.13159 0 3 2.13159 1
gene 2 2 11 -0.329343 0 16 -0.329343 1
gene 2 11 4 2.62508 0 17 2.62508 1
gene 1 3 11 0.649762 0 47 0.649762 1
gene 1 1 11 -0.936934 0 84 -0.936934 1
genomeend 93

/* Organism #94 Fitness: 2.08245 Error: 2.55693 */
genomestart 94
trait 1 0.1 0 0 0 0 0 0 0 
trait 2 0.170421 0 0 0 0.281021 0 0 0 
trait 3 0.3 0 0 0 0 0 0 0 
node 1 3 1 3
node 2 3 1 1
node 3 3 1 1
node 4 3 0 2
node 11 1 0 0
gene 3 1 4 -5.88645 0 1 -5.88645 1
gene 1 2 4 5.3093 0 2 5.3093 1
gene 3 3 4 -0.483164 0 3 -0.483164 1
gene 2 2 11 -2.50221 0 16 -2.50221 1
gene 2 11 4 6.02686 0 17 6.02686 1
gene 1 3 11 2.38119 0 47 2.38119 1
gene 1 1 11 2.21723 0 84 2.21723 1
genomeend 94

/* Organism #95 Fitness: 8.15985 Error: 1.14345 */
genomestart 95
trait 1 0.1 0 0 0 0 0 0 0 
trait 2 0.180281 0 0 0 0.187347 0 0 0 
trait 3 0.3 0 0 0 0 0 0 0 
node 1 3 1 3
node 2 1 1 1
node 3 3 1 1
node 4 3 0 2
node 11 1 0 0
gene 3 1 4 -3.32253 0 1 -3.32253 1
gene 1 2 4 4.82995 0 2 4.82995 1
gene 3 3 4 3.68594 0 3 3.68594 1
gene 2 2 11 -2.50221 0 16 -2.50221 1
gene 2 11 4 4.06809 0 17 4.06809 1
gene 2 3 11 2.17277 0 47 2.17277 1
gene 1 1 11 -4.02269 0 84 -4.02269 1
genomeend 95

/* Organism #96 Fitness: 3.96596 Error: 2.00853 */
genomestart 96
trait 1 0.1 0 0 0 0 0 0 0 
trait 2 0.19014 0 0 0 0.0936736 0 0 0 
trait 3 0.3 0 0 0 0 0 0 0 
node 1 3 1 3
node 2 1 1 1
node 3 3 1 1
node 4 3 0 2
node 11 1 0 0
gene 3 1 4 -6.8309 0 1 -6.8309 1
gene 1 2 4 6.31802 0 2 6.31802 1
gene 3 3 4 5.46324 0 3 5.46324 1
gene 2 2 11 2.20581 0 16 2.20581 1
gene 2 11 4 1.67061 0 17 1.67061 1
gene 1 3 11 1.9141 0 47 1.9141 1
gene 1 1 11 -2.01883 0 84 -2.01883 1
genomeend 96

/* Organism #97 Fitness: 2.0623 Error: 2.56393 */
genomestart 97
trait 1 0.1 0 0 0 0 0 0 0 
trait 2 0.170421 0 0 0 0.281021 0 0 0 
trait 3 0.3 0 0 0 0 0 0 0 
node 1 3 1 3
node 2 3 1 1
node 3 3 1 1
node 4 3 0 2
node 11 1 0 0
gene 3 1 4 -5.81664 0 1 -5.81664 1
gene 1 2 4 4.89284 0 2 4.89284 1
gene 3 3 4 5.53266 0 3 5.53266 1
gene 2 2 11 -4.47102 0 16 -4.47102 1
gene 2 11 4 1.10285 0 17 1.10285 1
gene 1 3 11 2.71799 0 47 2.71799 1
gene 1 1 11 -2.99662 0 84 -2.99662 1
genomeend 97

/* Organism #98 Fitness: 9 Error: 1 */
genomestart 98
trait 1 0.1 0 0 0 0 0 0 0 
trait 2 0.19014 0 0 0 0.0936736 0 0 0 
trait 3 0.3 0 0 0 0 0 0 0 
node 1 3 1 3
node 2 1 1 1
node 3 3 1 1
node 4 3 0 2
node 11 1 0 0
gene 3 1 4 -3.32253 0 1 -3.32253 1
gene 1 2 4 7.37171 0 2 7.37171 1
gene 3 3 4 3.68594 0 3 3.68594 1
gene 2 2 11 -0.271521 0 16 -0.271521 1
gene 2 11 4 5.76747 0 17 5.76747 1
gene 2 3 11 2.17277 0 47 2.17277 1
gene 1 1 11 -0.67616 0 84 -0.67616 1
genomeend 98

/* Organism #99 Fitness: 9 Error: 1 */
genomestart 99
trait 1 0.1 0 0 0 0 0 0 0 
trait 2 0.180281 0 0 0 0.187347 0 0 0 
trait 3 0.3 0 0 0 0 0 0 0 
node 1 3 1 3
node 2 3 1 1
node 3 3 1 1
node 4 3 0 2
node 11 1 0 0
gene 3 1 4 -3.53094 0 1 -3.53094 1
gene 1 2 4 6.40793 0 2 6.40793 1
gene 3 3 4 4.87604 0 3 4.87604 1
gene 2 2 11 -0.74924 0 16 -0.74924 1
gene 2 11 4 3.79515 0 17 3.79515 1
gene 1 3 11 2.78762 0 47 2.78762 1
gene 1 1 11 -2.34942 0 84 -2.34942 1
genomeend 99

/* Organism #100 Fitness: 9 Error: 1 */
genomestart 100
trait 1 0.1 0 0 0 0 0 0 0 
trait 2 0.2 0 0 0 0 0 0 0 
trait 3 0.3 0 0 0 0 0 0 0 
node 1 3 1 3
node 2 1 1 1
node 3 3 1 1
node 4 3 0 2
node 11 1 0 0
gene 3 1 4 -3.94549 0 1 -3.94549 1
gene 1 2 4 6.04936 0 2 6.04936 1
gene 3 3 4 3.68594 0 3 3.68594 1
gene 2 2 11 0.842179 0 16 0.842179 1
gene 2 11 4 4.64484 0 17 4.64484 1
gene 1 3 11 2.87678 0 47 2.87678 1
gene 1 1 11 -0.67616 0 84 -0.67616 1
genomeend 100

/* Organism #101 Fitness: 8.71822 Error: 1.04734 */
genomestart 101
trait 1 0.1 0 0 0 0 0 0 0 
trait 2 0 0 0 0 0 0.678243 0 0.274347 
trait 3 0.3 0 0 0 0 0 0 0 
node 1 3 1 3
node 2 1 1 1
node 3 3 1 1
node 4 3 0 2
node 11 1 0 0
gene 3 1 4 -4.56753 0 1 -4.56753 1
gene 1 2 4 5.17771 0 2 5.17771 1
gene 3 3 4 1.59606 0 3 1.59606 1
gene 2 2 11 -0.0631991 0 16 -0.0631991 1
gene 2 11 4 4.79684 0 17 4.79684 1
gene 1 3 11 5.9638 0 47 5.9638 1
gene 1 1 11 -2.71332 0 84 -2.71332 1
genomeend 101

/* Organism #102 Fitness: 4.06097 Error: 1.98482 */
genomestart 102
trait 1 0.1 0 0 0 0 0 0 0 
trait 2 0.170421 0 0 0 0.281021 0 0 0 
trait 3 0.3 0 0 0 0 0 0 0 
node 1 3 1 3
node 2 1 1 1
node 3 3 1 1
node 4 3 0 2
node 11 1 0 0
gene 3 1 4 -1.97375 0 1 -1.97375 1
gene 1 2 4 -0.791808 0 2 -0.791808 1
gene 3 3 4 3.61031 0 3 3.61031 1
gene 2 2 11 -3.36233 0 16 -3.36233 1
gene 2 11 4 3.79515 0 17 3.79515 1
gene 1 3 11 2.84232 0 47 2.84232 1
gene 1 1 11 -3.4459 0 84 -3.4459 1
genomeend 102

/* Species #12 : (Size 7) (AF 4.19859) (Age 11)  */


/* Organism #103 Fitness: 4 Error: 2 */
genomestart 103
trait 1 0.1 0 0.0541859 0 0 0 0.0333936 0.0949994 
trait 2 0.2 0 0 0 0 0 0 0 
trait 3 0.2625 0 0 0 0 0.00295 0 0.0349556 
node 1 3 1 3
node 2 1 1 1
node 3 3 1 1
node 4 3 0 2
node 23 1 0 0
gene 2 1 4 0.564283 0 1 0.564283 1
gene 2 2 4 -1.46205 0 2 -1.46205 0
gene 3 3 4 -1.542 0 3 -1.542 0
gene 2 2 23 1 0 48 0 1
gene 2 23 4 -1.46205 0 49 0 1
genomeend 103

/* Organism #104 Fitness: 4 Error: 2 */
genomestart 104
trait 1 0.1 0 0.0541859 0 0 0 0.0333936 0.0949994 
trait 2 0.2 0 0 0 0 0 0 0 
trait 3 0.2625 0 0 0 0 0.00295 0 0.0349556 
node 1 3 1 3
node 2 1 1 1
node 3 3 1 1
node 4 3 0 2
node 23 1 0 0
gene 2 1 4 -1.8522 0 1 -1.8522 1
gene 2 2 4 1.78685 0 2 1.78685 0
gene 3 3 4 -2.56799 0 3 -2.56799 0
gene 2 2 23 0.666931 0 48 0.666931 1
gene 2 23 4 -2.35238 0 49 -2.35238 0
genomeend 104

/* Organism #105 Fitness: 4 Error: 2 */
genomestart 105
trait 1 0.1 0 0.0541859 0 0 0 0.0333936 0.0949994 
trait 2 0.2 0 0 0 0 0 0 0 
trait 3 0.2625 0 0 0 0 0.00295 0 0.0349556 
node 1 3 1 3
node 2 2 1 1
node 3 3 1 1
node 4 3 0 2
node 23 1 0 0
gene 2 1 4 -0.854911 0 1 -0.854911 1
gene 2 2 4 -0.126374 0 2 -0.126374 0
gene 3 3 4 -0.622527 0 3 -0.622527 0
gene 2 2 23 -0.648516 0 48 -0.648516 1
gene 2 23 4 0.853394 0 49 0.853394 1
genomeend 105

/* Organism #106 Fitness: 5.39015 Error: 1.67833 */
genomestart 106
trait 1 0.1 0 0.0541859 0 0 0 0.0333936 0.0949994 
trait 2 0.2 0 0 0 0 0 0 0 
trait 3 0.2625 0 0 0 0 0.00295 0 0.0349556 
node 1 3 1 3
node 2 1 1 1
node 3 3 1 1
node 4 3 0 2
node 23 1 0 0
gene 2 1 4 0.20882 0 1 0.20882 1
gene 2 2 4 2.29313 0 2 2.29313 0
gene 3 3 4 -1.40669 0 3 -1.40669 1
gene 2 2 23 -0.896679 0 48 -0.896679 1
gene 2 23 4 2.49373 0 49 2.49373 1
genomeend 106

/* Organism #107 Fitness: 4 Error: 2 */
genomestart 107
trait 1 0.1 0 0.0541859 0 0 0 0.0333936 0.0949994 
trait 2 0.2 0 0 0 0 0 0 0 
trait 3 0.2625 0 0 0 0 0.00295 0 0.0349556 
node 1 3 1 3
node 2 1 1 1
node 3 3 1 1
node 4 3 0 2
node 23 1 0 0
gene 2 1 4 -1.06082 0 1 -1.06082 1
gene 2 2 4 0.0282538 0 2 0.0282538 0
gene 3 3 4 -2.41637 0 3 -2.41637 0
gene 2 2 23 2.38574 0 48 2.38574 1
gene 2 23 4 -0.652903 0 49 -0.652903 1
genomeend 107

/* Organism #108 Fitness: 4 Error: 2 */
genomestart 108
trait 1 0.1 0 0.0541859 0 0 0 0.0333936 0.0949994 
trait 2 0.2 0 0 0 0 0 0 0 
trait 3 0.2625 0 0 0 0 0.00295 0 0.0349556 
node 1 3 1 3
node 2 1 1 1
node 3 3 1 1
node 4 3 0 2
node 23 1 0 0
gene 2 1 4 0.564283 0 1 0.564283 1
gene 2 2 4 -1.46205 0 2 -1.46205 0
gene 3 3 4 -1.542 0 3 -1.542 0
gene 2 2 23 1 0 48 0 1
gene 2 23 4 -1.46205 0 49 0 0
genomeend 108

/* Organism #109 Fitness: 4 Error: 2 */
genomestart 109
trait 1 0.1 0 0.0541859 0 0 0 0.0333936 0.0949994 
trait 2 0.2 0 0 0 0 0 0 0 
trait 3 0.2625 0 0 0 0 0.00295 0 0.0349556 
node 1 3 1 3
node 2 1 1 1
node 3 3 1 1
node 4 3 0 2
node 23 1 0 0
gene 2 1 4 -1.05057 0 1 -1.05057 1
gene 2 2 4 -1.46205 0 2 -1.46205 0
gene 3 3 4 -0.767774 0 3 -0.767774 0
gene 2 2 23 2.79833 0 48 2.79833 1
gene 2 23 4 -2.16027 0 49 -2.16027 0
genomeend 109

/* Species #14 : (Size 11) (AF 5.51123) (Age 10)  */


/* Organism #110 Fitness: 8.98183 Error: 1.00303 */
genomestart 110
trait 1 0 0 0 0.32203 0 0 0 0 
trait 2 0.2 0 0 0 0 0 0 0 
trait 3 0.3 0 0 0 0 0 0 0 
node 1 3 1 3
node 2 1 1 1
node 3 3 1 1
node 4 3 0 2
node 12 1 0 0
node 15 1 0 0
node 18 1 0 0
gene 3 1 4 2.61942 0 1 2.61942 1
gene 1 2 4 -0.0406589 0 2 -0.0406589 0
gene 3 3 4 -1.35345 0 3 -1.35345 1
gene 3 3 12 -4.31322 0 18 -4.31322 1
gene 3 12 4 -7.10851 0 19 -7.10851 1
gene 1 2 15 2.06829 0 27 2.06829 1
gene 1 15 4 5.66253 0 28 5.66253 1
gene 3 3 18 -3.14351 0 36 -3.14351 1
gene 3 18 12 2.26366 0 37 2.26366 1
genomeend 110

/* Organism #111 Fitness: 8.94781 Error: 1.00871 */
genomestart 111
trait 1 0 0 0 0.32203 0 0 0 0 
trait 2 0.2 0 0.10877 0 0 0 0 0 
trait 3 0.3 0 0 0 0 0 0 0 
node 1 3 1 3
node 2 1 1 1
node 3 3 1 1
node 4 3 0 2
node 12 1 0 0
node 15 1 0 0
node 18 1 0 0
gene 3 1 4 5.2616 0 1 5.2616 1
gene 1 2 4 1.48847 0 2 1.48847 1
gene 1 3 4 0.89663 0 3 0.89663 0
gene 3 3 12 -1.35335 0 18 -1.35335 1
gene 3 12 4 -8 0 19 -8 1
gene 1 2 15 2.43269 0 27 2.43269 1
gene 1 15 4 2.51792 0 28 2.51792 1
gene 3 3 18 -4.02131 0 36 -4.02131 1
gene 3 18 12 1.08762 0 37 1.08762 1
genomeend 111

/* Organism #112 Fitness: 8.99917 Error: 1.00014 */
genomestart 112
trait 1 0 0 0 0.32203 0 0 0 0 
trait 2 0.2 0 0 0 0 0 0 0 
trait 3 0 0 0 0 0 0 0 0 
node 1 3 1 3
node 2 1 1 1
node 3 3 1 1
node 4 3 0 2
node 12 1 0 0
node 15 1 0 0
node 18 1 0 0
gene 3 1 4 4.47945 0 1 4.47945 1
gene 1 2 4 4.29709 0 2 4.29709 1
gene 1 3 4 2.98284 0 3 2.98284 0
gene 3 3 12 -2.5327 0 18 -2.5327 1
gene 3 12 4 -8 0 19 -8 1
gene 1 2 15 2.99169 0 27 2.99169 1
gene 1 15 4 3.41502 0 28 3.41502 1
gene 3 3 18 -5.48511 0 36 -5.48511 1
gene 3 18 12 2.76027 0 37 2.76027 1
genomeend 112

/* Organism #113 Fitness: 4.01917 Error: 1.99521 */
genomestart 113
trait 1 0 0 0 0.32203 0 0 0 0 
trait 2 0.2 0 0 0 0 0 0 0 
trait 3 0.3 0 0 0 0 0 0 0 
node 1 3 1 3
node 2 1 1 1
node 3 3 1 1
node 4 3 0 2
node 12 1 0 0
node 15 1 0 0
node 18 1 0 0
gene 3 1 4 4.54954 0 1 4.54954 1
gene 1 2 4 -0.705192 0 2 -0.705192 0
gene 3 3 4 -1.48506 0 3 -1.48506 1
gene 3 3 12 -2.15006 0 18 -2.15006 1
gene 3 12 4 -5.85851 0 19 -5.85851 1
gene 1 2 15 3.86117 0 27 3.86117 1
gene 1 15 4 4.72222 0 28 4.72222 1
gene 3 3 18 -1.0761 0 36 -1.0761 1
gene 3 18 12 2.11716 0 37 2.11716 1
genomeend 113

/* Organism #114 Fitness: 4.50712 Error: 1.877 */
genomestart 114
trait 1 0 0 0 0.32203 0 0 0 0 
trait 2 0.2 0 0 0 0 0 0 0 
trait 3 0.3 0 0 0 0 0 0 0 
node 1 3 1 3
node 2 1 1 1
node 3 2 1 1
node 4 3 0 2
node 12 1 0 0
node 15 1 0 0
node 18 1 0 0
gene 3 1 4 2.10406 0 1 2.10406 1
gene 1 2 4 1.90824 0 2 1.90824 0
gene 3 3 4 0.509313 0 3 0.509313 1
gene 3 3 12 -3.78529 0 18 -3.78529 1
gene 3 12 4 -6.94821 0 19 -6.94821 1
gene 1 2 15 0.796239 0 27 0.796239 1
gene 1 15 4 3.25375 0 28 3.25375 1
gene 3 3 18 -1.86725 0 36 -1.86725 1
gene 3 18 12 0.614214 0 37 0.614214 1
genomeend 114

/* Organism #115 Fitness: 5.16793 Error: 1.72669 */
genomestart 115
trait 1 0 0 0 0.32203 0 0 0 0 
trait 2 0.2 0 0 0 0 0 0 0 
trait 3 0.3 0 0 0 0 0 0 0 
node 1 3 1 3
node 2 1 1 1
node 3 3 1 1
node 4 3 0 2
node 12 1 0 0
node 15 1 0 0
node 18 1 0 0
node 56 1 0 0
gene 3 1 4 5.2616 0 1 5.2616 1
gene 1 2 4 3.28189 0 2 3.28189 1
gene 1 3 4 0.89663 0 3 0.89663 0
gene 3 3 12 -0.497276 0 18 -0.497276 1
gene 3 12 4 -8 0 19 -8 1
gene 1 2 15 3.16028 0 27 3.16028 1
gene 1 15 4 2.62919 0 28 2.62919 0
gene 3 3 18 -4.02131 0 36 -4.02131 1
gene 3 18 12 1.08762 0 37 1.08762 1
gene 1 15 56 1 0 165 0 1
gene 1 56 4 2.62919 0 166 0 1
genomeend 115

/* Organism #116 Fitness: 4 Error: 2 */
genomestart 116
trait 1 0 0 0 0.32203 0 0 0 0 
trait 2 0.2 0 0 0 0 0 0 0 
trait 3 0.3 0 0 0 0 0 0 0 
node 1 3 1 3
node 2 1 1 1
node 3 3 1 1
node 4 3 0 2
node 12 1 0 0
node 15 1 0 0
node 18 1 0 0
gene 3 1 4 6.64839 0 1 6.64839 1
gene 1 2 4 4.89459 0 2 4.89459 1
gene 1 3 4 1.66059 0 3 1.66059 0
gene 3 3 12 -0.541086 0 18 -0.541086 1
gene 3 12 4 -8 0 19 -8 1
gene 1 2 15 0.938867 0 27 0.938867 1
gene 1 15 4 0.806627 0 28 0.806627 1
gene 3 3 18 -2.33655 0 36 -2.33655 1
gene 3 18 12 -0.651388 0 37 -0.651388 1
genomeend 116

/* Organism #117 Fitness: 4.00181 Error: 1.99955 */
genomestart 117
trait 1 0 0 0 0.32203 0 0 0 0 
trait 2 0.2 0 0 0 0 0 0 0 
trait 3 0.3 0 0 0 0 0 0 0 
node 1 3 1 3
node 2 1 1 1
node 3 3 1 1
node 4 3 0 2
node 12 1 0 0
node 15 1 0 0
node 18 1 0 0
gene 3 1 4 6.98038 0 1 6.98038 1
gene 1 2 4 5.48126 0 2 5.48126 1
gene 1 3 4 0.377557 0 3 0.377557 0
gene 3 3 12 -1.6403 0 18 -1.6403 1
gene 3 12 4 -8 0 19 -8 1
gene 1 2 15 3.6281 0 27 3.6281 1
gene 1 15 4 4.31595 0 28 4.31595 1
gene 3 3 18 -2.68156 0 36 -2.68156 1
gene 3 18 12 1.16916 0 37 1.16916 1
genomeend 117

/* Organism #118 Fitness: 4 Error: 2 */
genomestart 118
trait 1 0.527462 0.750879 0 0 0 0 0 0 
trait 2 0.2 0 0 0 0 0 0 0 
trait 3 0.3 0 0 0 0 0 0 0 
node 1 3 1 3
node 2 1 1 1
node 3 3 1 1
node 4 3 0 2
node 12 1 0 0
node 15 1 0 0
node 18 1 0 0
gene 3 1 4 6.84226 0 1 6.84226 1
gene 1 2 4 1.60126 0 2 1.60126 0
gene 3 3 4 -1.52298 0 3 -1.52298 0
gene 3 3 12 -2.0999 0 18 -2.0999 1
gene 3 12 4 -7.94218 0 19 -7.94218 1
gene 1 2 15 2.88899 0 27 2.88899 1
gene 1 15 4 7.14696 0 28 7.14696 1
gene 3 3 18 -2.95183 0 36 -2.95183 1
gene 3 18 12 -0.427668 0 37 -0.427668 1
genomeend 118

/* Organism #119 Fitness: 3.99865 Error: 2.00034 */
genomestart 119
trait 1 0 0 0 0.32203 0 0 0 0 
trait 2 0.2 0 0 0 0 0 0 0 
trait 3 0.3 0 0 0 0 0 0 0 
node 1 3 1 3
node 2 1 1 1
node 3 3 1 1
node 4 3 0 2
node 12 1 0 0
node 15 1 0 0
node 18 1 0 0
gene 3 1 4 0.346818 0 1 0.346818 1
gene 1 2 4 -2.01178 0 2 -2.01178 0
gene 1 3 4 1.45408 0 3 1.45408 0
gene 3 3 12 -2.4133 0 18 -2.4133 1
gene 3 12 4 -8 0 19 -8 1
gene 1 2 15 5.31003 0 27 5.31003 1
gene 1 15 4 2.55193 0 28 2.55193 1
gene 3 3 18 -2.5288 0 36 -2.5288 1
gene 3 18 12 0.723731 0 37 0.723731 1
genomeend 119

/* Organism #120 Fitness: 4 Error: 2 */
genomestart 120
trait 1 0 0 0 0.32203 0 0 0 0 
trait 2 0.2 0 0 0 0 0 0 0 
trait 3 0.3 0 0 0 0 0 0 0 
node 1 3 1 3
node 2 1 1 1
node 3 3 1 1
node 4 3 0 2
node 12 1 0 0
node 15 1 0 0
node 18 1 0 0
gene 3 1 4 3.94051 0 1 3.94051 1
gene 1 2 4 3.17122 0 2 3.17122 0
gene 1 3 4 -0.228412 0 3 -0.228412 0
gene 3 3 12 -1.18927 0 18 -1.18927 1
gene 3 12 4 -1.13713 0 19 -1.13713 1
gene 1 2 15 1.30327 0 27 1.30327 1
gene 1 15 4 1.5523 0 28 1.5523 1
gene 3 3 18 -0.731692 0 36 -0.731692 1
gene 3 18 12 -1.15505 0 37 -1.15505 1
genomeend 120

/* Species #15 : (Size 9) (AF 6.40741) (Age 7)  */


/* Organism #121 Fitness: 8.9852 Error: 1.00247 */
genomestart 121
trait 1 0.1 0 0 0 0 0 0 0 
trait 2 0.2 0 0 0 0 0 0 0 
trait 3 0.3 0 0 0 0 0 0 0 
node 1 3 1 3
node 2 1 1 1
node 3 3 1 1
node 4 3 0 2
node 11 1 0 0
node 33 1 0 0
node 53 1 0 0
gene 3 1 4 -4.19688 0 1 -4.19688 1
gene 1 2 4 0.986558 0 2 0.986558 1
gene 3 3 4 0.513616 0 3 0.513616 0
gene 2 2 11 1.15186 0 16 1.15186 1
gene 2 11 4 3.6529 0 17 3.6529 1
gene 1 3 11 -1.96665 0 47 -1.96665 1
gene 3 3 33 1 0 82 0 0
gene 3 33 4 1.18654 0 83 0 1
gene 3 3 53 1 0 154 0 1
gene 3 53 33 1 0 155 0 1
genomeend 121

/* Organism #122 Fitness: 8.76702 Error: 1.03908 */
genomestart 122
trait 1 0 0 0 0 0 0 0 0 
trait 2 0.2 0 0 0 0 0 0 0 
trait 3 0.3 0 0 0 0 0 0 0 
node 1 3 1 3
node 2 1 1 1
node 3 3 1 1
node 4 3 0 2
node 11 1 0 0
node 33 1 0 0
gene 3 1 4 -4.24492 0 1 -4.24492 1
gene 1 2 4 0.771045 0 2 0.771045 1
gene 2 3 4 1.05997 0 3 1.05997 0
gene 2 2 11 2.20522 0 16 2.20522 1
gene 2 11 4 3.6529 0 17 3.6529 1
gene 1 3 11 -2.31427 0 47 -2.31427 1
gene 3 3 33 2.1048 0 82 2.1048 1
gene 3 33 4 0.984257 0 83 0.984257 1
genomeend 122

/* Organism #123 Fitness: 8.20004 Error: 1.13643 */
genomestart 123
trait 1 0.1 0 0 0 0 0 0 0 
trait 2 0.0479849 0 0 0.0787415 0.386701 0 0 0.891851 
trait 3 0.3 0 0 0 0 0 0 0 
node 1 3 1 3
node 2 1 1 1
node 3 3 1 1
node 4 3 0 2
node 11 1 0 0
node 33 1 0 0
gene 3 1 4 -3.42305 0 1 -3.42305 1
gene 1 2 4 0.139947 0 2 0.139947 1
gene 3 3 4 1.20267 0 3 1.20267 1
gene 2 2 11 1.33875 0 16 1.33875 1
gene 2 11 4 4.02275 0 17 4.02275 1
gene 1 3 11 -1.3636 0 47 -1.3636 1
gene 3 3 33 2.99773 0 82 2.99773 1
gene 3 33 4 -0.295221 0 83 -0.295221 1
genomeend 123

/* Organism #124 Fitness: 5.53936 Error: 1.64641 */
genomestart 124
trait 1 0.1 0 0 0 0 0 0 0 
trait 2 0.2 0 0 0 0 0 0 0 
trait 3 0.3 0 0 0 0 0 0 0 
node 1 3 1 3
node 2 1 1 1
node 3 3 1 1
node 4 3 0 2
node 11 1 0 0
node 33 1 0 0
gene 3 1 4 -4.71223 0 1 -4.71223 1
gene 1 2 4 0.19646 0 2 0.19646 1
gene 3 3 4 0.513616 0 3 0.513616 0
gene 2 2 11 2.59779 0 16 2.59779 1
gene 2 11 4 4.23013 0 17 4.23013 1
gene 1 3 11 -2.40931 0 47 -2.40931 1
gene 3 3 33 1.27074 0 82 1.27074 1
gene 3 33 4 1.53711 0 83 1.53711 1
genomeend 124

/* Organism #125 Fitness: 8.9852 Error: 1.00247 */
genomestart 125
trait 1 0 0.605529 0.982881 0 0 0 0 0 
trait 2 0.2 0 0 0 0 0 0 0 
trait 3 0.3 0 0 0 0 0 0 0 
node 1 3 1 3
node 2 1 1 1
node 3 3 1 1
node 4 3 0 2
node 11 1 0 0
node 33 1 0 0
node 53 1 0 0
gene 3 1 4 -4.19688 0 1 -4.19688 1
gene 1 2 4 0.986558 0 2 0.986558 1
gene 3 3 4 0.513616 0 3 0.513616 0
gene 2 2 11 1.15186 0 16 1.15186 1
gene 2 11 4 3.6529 0 17 3.6529 1
gene 1 3 11 -1.96665 0 47 -1.96665 1
gene 3 3 33 1 0 82 0 0
gene 3 33 4 1.18654 0 83 0 1
gene 3 3 53 1 0 154 0 1
gene 3 53 33 1 0 155 0 1
genomeend 125

/* Organism #126 Fitness: 4 Error: 2 */
genomestart 126
trait 1 0.1 0 0 0 0 0 0 0 
trait 2 0.2 0 0 0 0 0 0 0 
trait 3 0.3 0 0 0 0 0 0 0 
node 1 3 1 3
node 2 1 1 1
node 3 3 1 1
node 4 3 0 2
node 11 1 0 0
node 33 1 0 0
gene 3 1 4 -5.02463 0 1 -5.02463 1
gene 1 2 4 -0.770123 0 2 -0.770123 1
gene 3 3 4 -0.943398 0 3 -0.943398 0
gene 2 2 11 3.48991 0 16 3.48991 1
gene 2 11 4 2.98236 0 17 2.98236 1
gene 1 3 11 -0.161614 0 47 -0.161614 1
gene 3 3 33 2.64861 0 82 2.64861 1
gene 3 33 4 -0.91009 0 83 -0.91009 1
genomeend 126

/* Organism #127 Fitness: 7.52899 Error: 1.2561 */
genomestart 127
trait 1 0.1 0 0 0 0 0 0 0 
trait 2 0.2 0 0 0 0 0 0 0 
trait 3 0.3 0 0 0 0 0 0 0 
node 1 3 1 3
node 2 1 1 1
node 3 3 1 1
node 4 3 0 2
node 11 1 0 0
node 33 1 0 0
gene 3 1 4 -4.19688 0 1 -4.19688 1
gene 1 2 4 0.986558 0 2 0.986558 1
gene 3 3 4 -0.112795 0 3 -0.112795 0
gene 2 2 11 1.12409 0 16 1.12409 1
gene 2 11 4 3.4615 0 17 3.4615 1
gene 1 3 11 -3.43733 0 47 -3.43733 1
gene 3 3 33 2.24478 0 82 2.24478 1
gene 3 33 4 -0.0420421 0 83 -0.0420421 1
genomeend 127

/* Organism #128 Fitness: 1.66089 Error: 2.71124 */
genomestart 128
trait 1 0.1 0 0 0 0 0 0 0 
trait 2 0.2 0 0 0 0 0 0 0 
trait 3 0.3 0 0 0 0 0 0 0 
node 1 3 1 3
node 2 1 1 1
node 3 3 1 1
node 4 3 0 2
node 11 1 0 0
node 33 1 0 0
node 53 1 0 0
gene 3 1 4 -2.45893 0 1 -2.45893 1
gene 1 2 4 2.43597 0 2 2.43597 1
gene 3 3 4 0.672368 0 3 0.672368 0
gene 2 2 11 0.926604 0 16 0.926604 1
gene 2 11 4 5.23776 0 17 5.23776 1
gene 1 3 11 -1.44062 0 47 -1.44062 1
gene 3 3 33 -0.180937 0 82 -0.180937 0
gene 3 33 4 2.26673 0 83 2.26673 1
gene 3 3 53 0.444305 0 154 0.444305 1
gene 3 53 33 -1.00511 0 155 -1.00511 1
genomeend 128

/* Organism #129 Fitness: 4 Error: 2 */
genomestart 129
trait 1 0.1 0 0.580739 0 0 0.869078 0 0 
trait 2 0.2 0 0 0 0 0 0 0 
trait 3 0.3 0 0 0 0 0 0 0 
node 1 3 1 3
node 2 1 1 1
node 3 3 1 1
node 4 3 0 2
node 11 1 0 0
node 33 1 0 0
node 53 1 0 0
gene 3 1 4 -6.24902 0 1 -6.24902 1
gene 1 2 4 -0.781589 0 2 -0.781589 1
gene 3 3 4 2.45942 0 3 2.45942 1
gene 2 2 11 2.72614 0 16 2.72614 1
gene 2 11 4 2.47291 0 17 2.47291 1
gene 1 3 11 0.314612 0 47 0.314612 1
gene 3 3 33 -1.41783 0 82 -1.41783 0
gene 3 33 4 -1.19603 0 83 -1.19603 1
gene 3 3 53 3.4024 0 154 3.4024 1
gene 3 53 33 1 0 155 1 1
genomeend 129

/* Species #16 : (Size 11) (AF 7.88039) (Age 5)  */


/* Organism #130 Fitness: 8.99988 Error: 1.00002 */
genomestart 130
trait 1 0.1 0 0 0 0 0.247593 0 0 
trait 2 0.2 0 0 0 0 0 0 0 
trait 3 0.303562 0.00508136 0.00746128 0 0.00398059 0.00466839 0 0 
node 1 1 1 3
node 2 2 1 1
node 3 3 1 1
node 4 3 0 2
node 12 1 0 0
node 39 1 0 0
gene 1 1 4 -4.23998 0 1 -4.23998 1
gene 1 2 4 3.78141 0 2 3.78141 1
gene 3 3 4 -8 0 3 -8 1
gene 3 3 12 3.41253 0 18 3.41253 1
gene 3 12 4 -3.41689 0 19 -3.41689 1
gene 1 2 39 1.50467 0 106 1.00467 1
gene 1 39 4 7.51463 0 107 3.51463 1
genomeend 130

/* Organism #131 Fitness: 8.98363 Error: 1.00273 */
genomestart 131
trait 1 0.1 0 0 0 0 0.247593 0 0 
trait 2 0.2 0 0 0 0 0 0 0 
trait 3 0.303562 0.00508136 0.00746128 0 0.00398059 0.00466839 0 0 
node 1 1 1 3
node 2 2 1 1
node 3 3 1 1
node 4 3 0 2
node 12 1 0 0
node 39 1 0 0
gene 1 1 4 -3.65138 0 1 -3.65138 1
gene 1 2 4 7.58147 0 2 7.58147 0
gene 3 3 4 -6.54082 0 3 -6.54082 1
gene 3 3 12 5.15672 0 18 5.15672 1
gene 3 12 4 -1.62976 0 19 -1.62976 1
gene 1 2 39 4.94069 0 106 4.94069 1
gene 1 39 4 6.53006 0 107 6.53006 1
genomeend 131

/* Organism #132 Fitness: 4 Error: 2 */
genomestart 132
trait 1 0.1 0 0 0 0 0.247593 0 0 
trait 2 0.2 0 0 0 0 0 0 0 
trait 3 0.303562 0.00508136 0.00746128 0 0.00398059 0.00466839 0 0 
node 1 1 1 3
node 2 2 1 1
node 3 3 1 1
node 4 3 0 2
node 12 1 0 0
node 39 1 0 0
gene 1 1 4 -5.95671 0 1 -5.95671 1
gene 1 2 4 3.78141 0 2 3.78141 0
gene 3 3 4 -8 0 3 -8 1
gene 3 3 12 1.11043 0 18 1.11043 1
gene 3 12 4 -3.56559 0 19 -3.56559 1
gene 1 2 39 0.228453 0 106 0.228453 1
gene 1 39 4 5.24716 0 107 5.24716 1
genomeend 132

/* Organism #133 Fitness: 9 Error: 1 */
genomestart 133
trait 1 0.1 0 0 0 0 0.247593 0 0 
trait 2 0.2 0 0 0 0 0 0 0 
trait 3 0.303562 0.00508136 0.00746128 0 0.00398059 0.00466839 0 0 
node 1 1 1 3
node 2 2 1 1
node 3 3 1 1
node 4 3 0 2
node 12 1 0 0
node 39 1 0 0
gene 1 1 4 -4.23998 0 1 -4.23998 1
gene 1 2 4 3.78141 0 2 3.78141 1
gene 3 3 4 -8 0 3 -8 1
gene 3 3 12 3.41253 0 18 3.41253 1
gene 3 12 4 -3.41689 0 19 -3.41689 1
gene 1 2 39 1.50467 0 106 1.00467 1
gene 1 39 4 7.51463 0 107 3.51463 1
gene 1 1 39 -0.95596 0 170 -0.95596 1
genomeend 133

/* Organism #134 Fitness: 6.69661 Error: 1.41222 */
genomestart 134
trait 1 0.1 0 0 0 0 0.247593 0 0 
trait 2 0.2 0 0 0 0 0 0 0 
trait 3 0.303562 0.00508136 0.00746128 0 0.00398059 0.00466839 0 0 
node 1 1 1 3
node 2 2 1 1
node 3 3 1 1
node 4 3 0 2
node 12 1 0 0
node 39 1 0 0
gene 1 1 4 -3.28617 0 1 -3.28617 1
gene 1 2 4 5.71649 0 2 5.71649 0
gene 3 3 4 -1.08105 0 3 -1.08105 1
gene 3 3 12 0.853194 0 18 0.853194 1
gene 3 12 4 -2.65391 0 19 -2.65391 1
gene 1 2 39 2.92567 0 106 2.92567 1
gene 1 39 4 6.90715 0 107 6.90715 1
genomeend 134

/* Organism #135 Fitness: 9 Error: 1 */
genomestart 135
trait 1 0.1 0 0 0 0 0.247593 0 0 
trait 2 0.2 0 0 0 0 0 0 0 
trait 3 0.303562 0.00508136 0.00746128 0 0.00398059 0.00466839 0 0 
node 1 1 1 3
node 2 2 1 1
node 3 3 1 1
node 4 3 0 2
node 12 1 0 0
node 39 1 0 0
node 58 1 0 0
gene 1 1 4 -4.23998 0 1 -4.23998 1
gene 1 2 4 3.78141 0 2 3.78141 1
gene 3 3 4 -8 0 3 -8 1
gene 3 3 12 3.41253 0 18 3.41253 1
gene 3 12 4 -3.41689 0 19 -3.41689 0
gene 1 2 39 1.50467 0 106 1.00467 1
gene 1 39 4 7.51463 0 107 3.51463 1
gene 3 12 58 1 0 171 0 1
gene 3 58 4 -3.41689 0 172 0 1
genomeend 135

/* Organism #136 Fitness: 9 Error: 1 */
genomestart 136
trait 1 0.1 0 0 0 0 0.247593 0 0 
trait 2 0.2 0 0 0 0 0 0 0 
trait 3 0.303562 0.00508136 0.00746128 0 0.00398059 0.00466839 0 0 
node 1 1 1 3
node 2 2 1 1
node 3 3 1 1
node 4 3 0 2
node 12 1 0 0
node 39 1 0 0
gene 1 1 4 -3.1842 0 1 -3.1842 1
gene 1 2 4 4.19269 0 2 4.19269 1
gene 3 3 4 -5.87639 0 3 -5.87639 1
gene 3 3 12 1.13199 0 18 1.13199 1
gene 3 12 4 -5.1098 0 19 -5.1098 1
gene 1 2 39 0.881992 0 106 0.881992 1
gene 1 39 4 5.26032 0 107 5.26032 1
genomeend 136

/* Organism #137 Fitness: 4.03724 Error: 1.99071 */
genomestart 137
trait 1 0.1 0 0 0 0 0.247593 0 0 
trait 2 0.2 0 0 0 0 0 0 0 
trait 3 0.303562 0.00508136 0.00746128 0 0.00398059 0.00466839 0 0 
node 1 1 1 3
node 2 2 1 1
node 3 3 1 1
node 4 3 0 2
node 12 1 0 0
node 39 1 0 0
gene 1 1 4 -2.38378 0 1 -2.38378 1
gene 1 2 4 8 0 2 8 0
gene 3 3 4 -6.2128 0 3 -6.2128 1
gene 3 3 12 3.18753 0 18 3.18753 1
gene 3 12 4 -1.33896 0 19 -1.33896 1
gene 1 2 39 1.61186 0 106 1.61186 1
gene 1 39 4 8 0 107 8 1
genomeend 137

/* Organism #138 Fitness: 8.98211 Error: 1.00298 */
genomestart 138
trait 1 0.1 0 0 0 0 0.247593 0 0 
trait 2 0.2 0 0 0 0 0 0 0 
trait 3 0.303562 0.00508136 0.00746128 0 0.00398059 0.00466839 0 0 
node 1 1 1 3
node 2 2 1 1
node 3 3 1 1
node 4 3 0 2
node 12 1 0 0
node 39 1 0 0
gene 1 1 4 -3.54943 0 1 -3.54943 1
gene 1 2 4 8 0 2 8 0
gene 3 3 4 -8 0 3 -8 1
gene 3 3 12 4.26199 0 18 4.26199 1
gene 3 12 4 -6.53522 0 19 -6.53522 1
gene 1 2 39 1.62788 0 106 1.62788 1
gene 1 39 4 8 0 107 8 1
genomeend 138

/* Organism #139 Fitness: 8.98478 Error: 1.00254 */
genomestart 139
trait 1 0.1 0 0 0 0 0.247593 0 0 
trait 2 0.2 0 0 0 0 0 0 0 
trait 3 0.303562 0.00508136 0.00746128 0 0.00398059 0.00466839 0 0 
node 1 1 1 3
node 2 2 1 1
node 3 3 1 1
node 4 3 0 2
node 12 1 0 0
node 39 1 0 0
gene 1 1 4 -2.36767 0 1 -2.36767 1
gene 1 2 4 1.29575 0 2 1.29575 1
gene 3 3 4 -8 0 3 -8 1
gene 3 3 12 1.98159 0 18 1.98159 1
gene 3 12 4 -5.69103 0 19 -5.69103 1
gene 1 2 39 3.38339 0 106 3.38339 1
gene 1 39 4 8 0 107 8 1
genomeend 139

/* Organism #140 Fitness: 9 Error: 1 */
genomestart 140
trait 1 0.1 0 0 0 0 0.247593 0 0 
trait 2 0.2 0 0 0 0 0 0 0 
trait 3 0.303562 0.00508136 0.00746128 0 0.00398059 0.00466839 0 0 
node 1 1 1 3
node 2 2 1 1
node 3 3 1 1
node 4 3 0 2
node 12 1 0 0
node 39 1 0 0
gene 1 1 4 -3.32621 0 1 -3.32621 1
gene 1 2 4 8 0 2 8 1
gene 3 3 4 -8 0 3 -8 1
gene 3 3 12 4.84818 0 18 4.84818 1
gene 3 12 4 -7.16894 0 19 -7.16894 1
gene 1 2 39 3.78369 0 106 3.78369 1
gene 1 39 4 7.07344 0 107 7.07344 1
genomeend 140

/* Species #17 : (Size 8) (AF 3.88121) (Age 2)  */


/* Organism #141 Fitness: 3.9675 Error: 2.00814 */
genomestart 141
trait 1 0.1 0 0.0541859 0 0 0 0.0333936 0.0949994 
trait 2 0.2 0 0 0 0 0 0 0 
trait 3 0.2625 0 0 0 0 0.00295 0 0.0349556 
node 1 3 1 3
node 2 1 1 1
node 3 3 1 1
node 4 3 0 2
node 23 1 0 0
node 48 1 0 0
gene 2 1 4 0.564283 0 1 0.564283 1
gene 2 2 4 -1.46205 0 2 -1.46205 0
gene 3 3 4 -1.542 0 3 -1.542 0
gene 2 2 23 1 0 48 0 1
gene 2 23 4 -1.46205 0 49 0 0
gene 2 23 48 1 0 137 0 1
gene 2 48 4 -1.46205 0 138 0 1
gene 2 3 23 0.816677 0 151 0.816677 1
genomeend 141

/* Organism #142 Fitness: 2.87024 Error: 2.30582 */
genomestart 142
trait 1 0.1 0 0.0541859 0 0 0 0.0333936 0.0949994 
trait 2 0.923335 0 0 0 0 0 0 0.685216 
trait 3 0.2625 0 0 0 0 0.00295 0 0.0349556 
node 1 3 1 3
node 2 1 1 1
node 3 3 1 1
node 4 3 0 2
node 23 1 0 0
node 48 1 0 0
gene 2 1 4 2.28837 0 1 2.28837 1
gene 2 2 4 -2.26257 0 2 -2.26257 0
gene 3 3 4 2.44649 0 3 2.44649 0
gene 2 2 23 2.71371 0 48 2.71371 1
gene 2 23 4 2.31951 0 49 2.31951 0
gene 2 23 48 0.559682 0 137 0.559682 1
gene 2 48 4 -2.99506 0 138 -2.99506 1
gene 2 3 23 2.21699 0 151 2.21699 1
genomeend 142

/* Organism #143 Fitness: 4.00085 Error: 1.99979 */
genomestart 143
trait 1 0.1 0 0.0541859 0 0 0 0.0333936 0.0949994 
trait 2 0.2 0 0 0 0 0 0 0 
trait 3 0.2625 0 0 0 0 0.00295 0 0.0349556 
node 1 3 1 3
node 2 1 1 1
node 3 3 1 1
node 4 3 0 2
node 23 1 0 0
node 48 1 0 0
gene 2 1 4 -1.84911 0 1 -1.84911 1
gene 2 2 4 0.399736 0 2 0.399736 0
gene 3 3 4 -3.37241 0 3 -3.37241 0
gene 2 2 23 1.00016 0 48 1.00016 1
gene 2 23 4 -0.471068 0 49 -0.471068 0
gene 2 23 48 0.045649 0 137 0.045649 1
gene 2 48 4 1.02518 0 138 1.02518 1
gene 2 3 23 -1.54391 0 151 -1.54391 1
genomeend 143

/* Organism #144 Fitness: 4 Error: 2 */
genomestart 144
trait 1 0.1 0 0.0541859 0 0 0 0.0333936 0.0949994 
trait 2 0.2 0 0 0 0 0 0 0 
trait 3 0.2625 0 0 0 0 0.00295 0 0.0349556 
node 1 3 1 3
node 2 1 1 1
node 3 3 1 1
node 4 3 0 2
node 23 1 0 0
node 48 1 0 0
gene 2 1 4 -0.279446 0 1 -0.279446 1
gene 2 2 4 -0.455047 0 2 -0.455047 0
gene 3 3 4 -3.04116 0 3 -3.04116 0
gene 2 2 23 -0.143494 0 48 -0.143494 1
gene 2 23 4 -2.08584 0 49 -2.08584 0
gene 2 23 48 3.04458 0 137 3.04458 1
gene 2 48 4 -2.63023 0 138 -2.63023 1
gene 2 3 23 1.72909 0 151 1.72909 1
genomeend 144

/* Organism #145 Fitness: 3.9675 Error: 2.00814 */
genomestart 145
trait 1 0.1 0 0.0541859 0 0 0 0.0333936 0.0949994 
trait 2 0.2 0 0 0 0 0 0 0 
trait 3 0.2625 0 0 0 0 0.00295 0 0.0349556 
node 1 3 1 3
node 2 1 1 1
node 3 3 1 1
node 4 3 0 2
node 23 1 0 0
node 48 1 0 0
gene 2 1 4 0.564283 0 1 0.564283 1
gene 2 2 4 -1.46205 0 2 -1.46205 0
gene 3 3 4 -1.542 0 3 -1.542 0
gene 2 2 23 1 0 48 0 1
gene 2 23 4 -1.46205 0 49 0 0
gene 2 23 48 1 0 137 0 1
gene 2 48 4 -1.46205 0 138 0 1
gene 2 3 23 0.816677 0 151 0.816677 1
genomeend 145

/* Organism #146 Fitness: 4.33176 Error: 1.91871 */
genomestart 146
trait 1 0.1 0 0.0541859 0 0 0 0.0333936 0.0949994 
trait 2 0.2 0 0 0 0 0 0 0 
trait 3 0.2625 0 0 0 0 0.00295 0 0.0349556 
node 1 3 1 3
node 2 1 1 1
node 3 3 1 1
node 4 3 0 2
node 23 1 0 0
node 48 1 0 0
gene 2 1 4 0.167388 0 1 0.167388 1
gene 2 2 4 -0.189435 0 2 -0.189435 0
gene 3 3 4 -0.989313 0 3 -0.989313 0
gene 2 2 23 -0.662589 0 48 -0.662589 1
gene 2 23 4 0.123128 0 49 0.123128 0
gene 2 23 48 1.544 0 137 1.544 1
gene 2 48 4 -1.04407 0 138 -1.04407 1
gene 2 3 23 -0.911449 0 151 -0.911449 1
genomeend 146

/* Organism #147 Fitness: 3.9675 Error: 2.00814 */
genomestart 147
trait 1 0.1 0 0.0541859 0 0 0 0.0333936 0.0949994 
trait 2 0.2 0 0 0 0 0 0 0 
trait 3 0.2625 0 0 0 0 0.00295 0 0.0349556 
node 1 3 1 3
node 2 1 1 1
node 3 3 1 1
node 4 3 0 2
node 23 1 0 0
node 48 1 0 0
gene 2 1 4 0.564283 0 1 0.564283 1
gene 2 2 4 -1.46205 0 2 -1.46205 0
gene 3 3 4 -1.542 0 3 -1.542 0
gene 2 2 23 1 0 48 0 1
gene 2 23 4 -1.46205 0 49 0 0
gene 2 23 48 1 0 137 0 1
gene 2 48 4 -1.46205 0 138 0 1
gene 2 3 23 0.816677 0 151 0.816677 1
genomeend 147

/* Organism #148 Fitness: 3.9443 Error: 2.01397 */
genomestart 148
trait 1 0.1 0 0.0541859 0 0 0 0.0333936 0.0949994 
trait 2 0.2 0 0 0 0 0 0 0 
trait 3 0.2625 0 0 0 0 0.00295 0 0.0349556 
node 1 3 1 3
node 2 1 1 1
node 3 3 1 1
node 4 3 0 2
node 23 1 0 0
node 48 1 0 0
gene 2 1 4 0.375777 0 1 0.375777 1
gene 2 2 4 -2.06854 0 2 -2.06854 0
gene 3 3 4 -1.39987 0 3 -1.39987 0
gene 2 2 23 1.48115 0 48 1.48115 1
gene 2 23 4 -1.1703 0 49 -1.1703 0
gene 2 23 48 -1.05496 0 137 -1.05496 1
gene 2 48 4 0.408795 0 138 0.408795 1
gene 2 3 23 0.654731 0 151 0.654731 1
genomeend 148

/* Species #18 : (Size 1) (AF 8.96014) (Age 1)  */


/* Organism #149 Fitness: 8.96014 Error: 1.00665 */
genomestart 149
trait 1 0.1 0 0 0 0 0 0 0 
trait 2 0.2 0 0 0 0 0 0 0 
trait 3 0.3 0 0 0 0 0 0 0 
node 1 3 1 3
node 2 1 1 1
node 3 3 1 1
node 4 3 0 2
node 11 1 0 0
node 33 1 0 0
gene 3 1 4 -4.19688 0 1 -4.19688 1
gene 1 2 4 0.986558 0 2 0.986558 1
gene 3 3 4 0.513616 0 3 0.513616 0
gene 2 2 11 1.15186 0 16 1.15186 1
gene 2 11 4 3.6529 0 17 3.6529 1
gene 1 3 11 -1.96665 0 47 -1.96665 1
gene 3 3 33 1 0 82 0 1
gene 3 33 4 1.18654 0 83 0 1
gene 1 33 11 -0.0907707 0 169 -0.0907707 1
genomeend 149
