
/* Species #1 : (Size 70) (AF 4.79897) (Age 5)  */


/* Organism #0 Fitness: 8.99797 Error: 1.00034 */
genomestart 0
trait 1 0.1 0 0 0 0 0 0 0 
trait 2 0.2 0 0 0 0 0 0 0 
trait 3 0.3 0 0 0 0 0 0 0 
node 1 3 1 3
node 2 2 1 1
node 3 3 1 1
node 4 3 0 2
gene 1 1 4 -1.77438 0 1 -1.77438 1
gene 1 2 4 3.99634 0 2 3.99634 1
gene 1 3 4 3.5493 0 3 3.5493 1
genomeend 0

/* Organism #1 Fitness: 4.01365 Error: 1.99659 */
genomestart 1
trait 1 0.1 0 0 0 0 0 0 0 
trait 2 0.2 0 0 0 0 0 0 0 
trait 3 0.3 0 0 0 0 0 0 0 
node 1 3 1 3
node 2 2 1 1
node 3 3 1 1
node 4 3 0 2
gene 1 1 4 -2.0895 0 1 -2.0895 1
gene 2 2 4 0.938545 0 2 0.938545 1
gene 1 3 4 6.58586 0 3 6.58586 1
genomeend 1

/* Organism #2 Fitness: 8.90331 Error: 1.01616 */
genomestart 2
trait 1 0.1 0 0 0 0 0 0 0 
trait 2 0.2 0 0 0 0 0 0 0 
trait 3 0.3 0 0 0 0 0 0 0 
node 1 3 1 3
node 2 1 1 1
node 3 3 1 1
node 4 2 0 2
gene 2 1 4 -0.861962 0 1 -0.861962 1
gene 2 2 4 2.12365 0 2 2.12365 1
gene 1 3 4 3.07156 0 3 3.07156 1
genomeend 2

/* Organism #3 Fitness: 1.96301 Error: 2.59893 */
genomestart 3
trait 1 0.1 0 0 0 0 0 0 0 
trait 2 0.2 0 0 0 0 0 0 0 
trait 3 0.3 0 0 0 0 0 0 0 
node 1 1 1 3
node 2 2 1 1
node 3 3 1 1
node 4 3 0 2
gene 1 1 4 -3.77532 0 1 -3.77532 1
gene 2 2 4 2.69025 0 2 2.69025 1
gene 2 3 4 1.17054 0 3 1.17054 1
genomeend 3

/* Organism #4 Fitness: 1.43464 Error: 2.80224 */
genomestart 4
trait 1 0.1 0 0 0 0 0 0 0 
trait 2 0.2 0 0 0 0 0 0 0 
trait 3 0.3 0 0 0 0 0 0 0 
node 1 2 1 3
node 2 1 1 1
node 3 1 1 1
node 4 2 0 2
gene 1 1 4 0.567118 0 1 0.567118 1
gene 2 2 4 -0.93569 0 2 -0.93569 1
gene 3 3 4 4.42808 0 3 4.42808 1
genomeend 4

/* Organism #5 Fitness: 4.00059 Error: 1.99985 */
genomestart 5
trait 1 0.1 0 0 0 0 0 0 0 
trait 2 0.2 0 0 0 0 0 0 0 
trait 3 0.3 0 0 0 0 0 0 0 
node 1 1 1 3
node 2 2 1 1
node 3 3 1 1
node 4 3 0 2
gene 1 1 4 -2.60479 0 1 -2.60479 1
gene 2 2 4 -6.95468 0 2 -6.95468 1
gene 1 3 4 0.81743 0 3 0.81743 1
genomeend 5

/* Organism #6 Fitness: 4.01088 Error: 1.99728 */
genomestart 6
trait 1 0.1 0 0 0 0 0 0 0 
trait 2 0.2 0 0 0 0 0 0 0 
trait 3 0.3 0 0 0 0 0 0 0 
node 1 1 1 3
node 2 2 1 1
node 3 3 1 1
node 4 3 0 2
gene 3 1 4 -2.40832 0 1 -2.40832 1
gene 2 2 4 4.85669 0 2 4.85669 1
gene 2 3 4 1.21019 0 3 1.21019 1
genomeend 6

/* Organism #7 Fitness: 6.37799 Error: 1.47453 */
genomestart 7
trait 1 0.1 0 0 0 0 0 0 0 
trait 2 0.2 0 0 0 0 0 0 0 
trait 3 0.3 0 0 0 0 0 0 0 
node 1 3 1 3
node 2 2 1 1
node 3 1 1 1
node 4 2 0 2
gene 1 1 4 -0.0886365 0 1 -0.0886365 1
gene 2 2 4 0.579299 0 2 0.579299 1
gene 3 3 4 3.29259 0 3 3.29259 1
genomeend 7

/* Organism #8 Fitness: 3.0585 Error: 2.25114 */
genomestart 8
trait 1 0.1 0 0 0 0 0 0 0 
trait 2 0.2 0 0 0 0 0 0 0 
trait 3 0.3 0 0 0 0 0 0 0 
node 1 3 1 3
node 2 2 1 1
node 3 1 1 1
node 4 2 0 2
gene 2 1 4 -2.95695 0 1 -2.95695 1
gene 2 2 4 0.495419 0 2 0.495419 1
gene 1 3 4 2.27444 0 3 2.27444 1
genomeend 8

/* Organism #9 Fitness: 3.99982 Error: 2.00005 */
genomestart 9
trait 1 0.1 0 0 0 0 0 0 0 
trait 2 0.2 0 0 0 0 0 0 0 
trait 3 0.32798 0.0594175 0.0392182 0 0.0103195 0 0 0 
node 1 1 1 3
node 2 2 1 1
node 3 2 1 1
node 4 2 0 2
gene 1 1 4 -2.87805 0 1 -2.87805 1
gene 2 2 4 0.79431 0 2 0.79431 1
gene 3 3 4 0.17065 0 3 0.17065 1
genomeend 9

/* Organism #10 Fitness: 3.87522 Error: 2.03144 */
genomestart 10
trait 1 0.1 0 0 0 0 0 0 0 
trait 2 0.2 0 0 0 0 0 0 0 
trait 3 0.3 0 0 0 0 0 0 0 
node 1 1 1 3
node 2 2 1 1
node 3 3 1 1
node 4 3 0 2
gene 1 1 4 -1.87693 0 1 -1.87693 1
gene 2 2 4 0.245026 0 2 0.245026 1
gene 2 3 4 2.49341 0 3 2.49341 1
genomeend 10

/* Organism #11 Fitness: 4.88818 Error: 1.78908 */
genomestart 11
trait 1 0.1 0 0 0 0 0 0 0 
trait 2 0.2 0 0 0 0 0 0 0 
trait 3 0.3 0 0 0 0 0 0 0 
node 1 3 1 3
node 2 2 1 1
node 3 3 1 1
node 4 3 0 2
gene 1 1 4 0.267913 0 1 0.267913 1
gene 1 2 4 1.99313 0 2 1.99313 1
gene 1 3 4 4.10028 0 3 4.10028 1
genomeend 11

/* Organism #12 Fitness: 5.14159 Error: 1.73249 */
genomestart 12
trait 1 0.1 0 0 0 0 0 0 0 
trait 2 0.2 0 0 0 0 0 0 0 
trait 3 0.3 0 0 0 0 0 0 0 
node 1 1 1 3
node 2 2 1 1
node 3 3 1 1
node 4 3 0 2
gene 3 1 4 0.204558 0 1 0.204558 1
gene 2 2 4 2.65521 0 2 2.65521 1
gene 2 3 4 4.83284 0 3 4.83284 1
genomeend 12

/* Organism #13 Fitness: 4.00017 Error: 1.99996 */
genomestart 13
trait 1 0.1 0 0 0 0 0 0 0 
trait 2 0.2 0 0 0 0 0 0 0 
trait 3 0.3 0 0 0 0 0 0 0 
node 1 1 1 3
node 2 2 1 1
node 3 3 1 1
node 4 3 0 2
gene 1 1 4 -1.59679 0 1 -1.59679 1
gene 2 2 4 -0.0491531 0 2 -0.0491531 1
gene 2 3 4 0.0851896 0 3 0.0851896 1
genomeend 13

/* Organism #14 Fitness: 7.57599 Error: 1.24755 */
genomestart 14
trait 1 0.1 0 0 0 0 0 0 0 
trait 2 0.2 0 0 0 0 0 0 0 
trait 3 0.3 0 0 0 0 0 0 0 
node 1 2 1 3
node 2 1 1 1
node 3 1 1 1
node 4 2 0 2
gene 2 1 4 -1.60523 0 1 -1.60523 1
gene 2 2 4 2.68573 0 2 2.68573 1
gene 2 3 4 -1.31202 0 3 -1.31202 1
genomeend 14

/* Organism #15 Fitness: 8.80689 Error: 1.03236 */
genomestart 15
trait 1 0.1 0 0 0 0 0 0 0 
trait 2 0.2 0 0 0 0 0 0 0 
trait 3 0.31399 0.0297088 0.0196091 0 0.00515977 0 0 0 
node 1 3 1 3
node 2 2 1 1
node 3 3 1 1
node 4 3 0 2
gene 1 1 4 -1.48896 0 1 -1.48896 1
gene 2 2 4 2.42554 0 2 2.42554 1
gene 1 3 4 2.26074 0 3 2.26074 1
genomeend 15

/* Organism #16 Fitness: 8.91986 Error: 1.01339 */
genomestart 16
trait 1 0.1 0 0 0 0 0 0 0 
trait 2 0.2 0 0 0 0 0 0 0 
trait 3 0.3 0 0 0 0 0 0 0 
node 1 3 1 3
node 2 1 1 1
node 3 3 1 1
node 4 2 0 2
gene 2 1 4 -1.23017 0 1 -1.23017 1
gene 2 2 4 2.14279 0 2 2.14279 1
gene 1 3 4 4.90994 0 3 4.90994 1
genomeend 16

/* Organism #17 Fitness: 4.6797 Error: 1.83674 */
genomestart 17
trait 1 0.1 0 0 0 0 0 0 0 
trait 2 0.2 0 0 0 0 0 0 0 
trait 3 0.3 0 0 0 0 0 0 0 
node 1 1 1 3
node 2 2 1 1
node 3 2 1 1
node 4 2 0 2
gene 2 1 4 0.0495575 0 1 0.0495575 1
gene 2 2 4 0.984409 0 2 0.984409 1
gene 3 3 4 0.149493 0 3 0.149493 1
genomeend 17

/* Organism #18 Fitness: 8.97762 Error: 1.00373 */
genomestart 18
trait 1 0.1 0 0 0 0 0 0 0 
trait 2 0.2 0 0 0 0 0 0 0 
trait 3 0.31399 0.0297088 0.0196091 0 0.00515977 0 0 0 
node 1 2 1 3
node 2 1 1 1
node 3 1 1 1
node 4 2 0 2
gene 1 1 4 -1.37186 0 1 -1.37186 1
gene 2 2 4 -2.72481 0 2 -2.72481 1
gene 3 3 4 2.80105 0 3 2.80105 1
genomeend 18

/* Organism #19 Fitness: 4.00185 Error: 1.99954 */
genomestart 19
trait 1 0.1 0 0 0 0 0 0 0 
trait 2 0.2 0 0 0 0 0 0 0 
trait 3 0.35596 0.118835 0.0784365 0 0.0206391 0 0 0 
node 1 1 1 3
node 2 2 1 1
node 3 2 1 1
node 4 1 0 2
gene 1 1 4 -3.52047 0 1 -3.52047 1
gene 2 2 4 1.96079 0 2 1.96079 1
gene 1 3 4 -3.79677 0 3 -3.79677 1
genomeend 19

/* Organism #20 Fitness: 3.99829 Error: 2.00043 */
genomestart 20
trait 1 0.1 0 0 0 0 0 0 0 
trait 2 0.2 0 0 0 0 0 0 0 
trait 3 0.31399 0.0297088 0.0196091 0 0.00515977 0 0 0 
node 1 1 1 3
node 2 2 1 1
node 3 3 1 1
node 4 3 0 2
gene 1 1 4 -1.95047 0 1 -1.95047 1
gene 2 2 4 0.528211 0 2 0.528211 1
gene 1 3 4 0.08355 0 3 0.08355 1
genomeend 20

/* Organism #21 Fitness: 8.93635 Error: 1.01063 */
genomestart 21
trait 1 0.1 0 0 0 0 0 0 0 
trait 2 0.2 0 0 0 0 0 0 0 
trait 3 0.34197 0.0891263 0.0588273 0 0.0154793 0 0 0 
node 1 1 1 3
node 2 2 1 1
node 3 2 1 1
node 4 1 0 2
gene 1 1 4 -1.48896 0 1 -1.48896 1
gene 2 2 4 2.42554 0 2 2.42554 1
gene 1 3 4 -2.74089 0 3 -2.74089 1
genomeend 21

/* Organism #22 Fitness: 8.82458 Error: 1.02938 */
genomestart 22
trait 1 0.1 0 0 0 0 0 0 0 
trait 2 0.2 0 0 0 0 0 0 0 
trait 3 0.3 0 0 0 0 0 0 0 
node 1 2 1 3
node 2 1 1 1
node 3 1 1 1
node 4 2 0 2
gene 1 1 4 -0.718697 0 1 -0.718697 1
gene 2 2 4 2.09141 0 2 2.09141 1
gene 3 3 4 3.4451 0 3 3.4451 1
genomeend 22

/* Organism #23 Fitness: 8.41107 Error: 1.09982 */
genomestart 23
trait 1 0.1 0 0 0 0 0 0 0 
trait 2 0.2 0 0 0 0 0 0 0 
trait 3 0.3 0 0 0 0 0 0 0 
node 1 3 1 3
node 2 2 1 1
node 3 3 1 1
node 4 3 0 2
gene 1 1 4 -1.34189 0 1 -1.34189 1
gene 2 2 4 1.85918 0 2 1.85918 1
gene 2 3 4 2.07883 0 3 2.07883 1
genomeend 23

/* Organism #24 Fitness: 4.0135 Error: 1.99663 */
genomestart 24
trait 1 0.1 0 0 0 0 0 0 0 
trait 2 0.2 0 0 0 0 0 0 0 
trait 3 0.3 0 0 0.559706 0 0.623531 0 0 
node 1 1 1 3
node 2 2 1 1
node 3 3 1 1
node 4 3 0 2
gene 1 1 4 1.15528 0 1 1.15528 1
gene 2 2 4 2.49673 0 2 2.49673 1
gene 2 3 4 5.10771 0 3 5.10771 1
genomeend 24

/* Organism #25 Fitness: 8.62473 Error: 1.06321 */
genomestart 25
trait 1 0.1 0 0 0 0 0 0 0 
trait 2 0.2 0 0 0 0 0 0 0 
trait 3 0.3 0 0 0 0 0 0 0 
node 1 1 1 3
node 2 2 1 1
node 3 3 1 1
node 4 3 0 2
gene 1 1 4 -2.82863 0 1 -2.82863 1
gene 2 2 4 -2.57911 0 2 -2.57911 1
gene 1 3 4 3.37628 0 3 3.37628 1
genomeend 25

/* Organism #26 Fitness: 4.00143 Error: 1.99964 */
genomestart 26
trait 1 0.1 0 0 0 0 0 0 0 
trait 2 0.2 0 0 0 0 0 0 0 
trait 3 0.3 0 0 0 0 0 0 0 
node 1 1 1 3
node 2 2 1 1
node 3 3 1 1
node 4 3 0 2
gene 1 1 4 -2.42402 0 1 -2.42402 1
gene 2 2 4 0.815578 0 2 0.815578 1
gene 1 3 4 6.08615 0 3 6.08615 1
genomeend 26

/* Organism #27 Fitness: 6.89248 Error: 1.37465 */
genomestart 27
trait 1 0.82695 0 0 0 0 0.249895 0.987581 0 
trait 2 0.2 0 0 0 0 0 0 0 
trait 3 0.3 0 0 0 0 0 0 0 
node 1 1 1 3
node 2 2 1 1
node 3 3 1 1
node 4 3 0 2
gene 3 1 4 -2.15113 0 1 -2.15113 1
gene 2 2 4 2.2552 0 2 2.2552 1
gene 1 3 4 4.41133 0 3 4.41133 1
genomeend 27

/* Organism #28 Fitness: 4.00022 Error: 1.99994 */
genomestart 28
trait 1 0.1 0 0 0 0 0 0 0 
trait 2 0.2 0 0 0 0 0 0 0 
trait 3 0.3 0 0 0 0 0 0 0 
node 1 1 1 3
node 2 2 1 1
node 3 2 1 1
node 4 2 0 2
gene 1 1 4 -2.72091 0 1 -2.72091 1
gene 2 2 4 0.741541 0 2 0.741541 1
gene 2 3 4 -0.795306 0 3 -0.795306 1
genomeend 28

/* Organism #29 Fitness: 4 Error: 2 */
genomestart 29
trait 1 0.1 0 0 0 0 0 0 0 
trait 2 0.2 0 0 0 0 0 0 0 
trait 3 0.0541613 0.118835 0 0 0.647773 0 0 0 
node 1 1 1 3
node 2 2 1 1
node 3 2 1 1
node 4 1 0 2
gene 1 1 4 -2.98411 0 1 -2.98411 1
gene 2 2 4 0.133271 0 2 0.133271 1
gene 1 3 4 -4.93319 0 3 -4.93319 1
genomeend 29

/* Organism #30 Fitness: 2.87626 Error: 2.30405 */
genomestart 30
trait 1 0.1 0 0 0 0 0 0 0 
trait 2 0.2 0 0 0 0 0 0 0 
trait 3 0.31399 0.0297088 0.0196091 0 0.00515977 0 0 0 
node 1 3 1 3
node 2 2 1 1
node 3 3 1 1
node 4 3 0 2
gene 1 1 4 0.00849485 0 1 0.00849485 1
gene 2 2 4 1.94434 0 2 1.94434 1
gene 1 3 4 -1.67911 0 3 -1.67911 1
genomeend 30

/* Organism #31 Fitness: 4.03611 Error: 1.99099 */
genomestart 31
trait 1 0.1 0 0 0 0 0 0 0 
trait 2 0.2 0 0 0 0 0 0 0 
trait 3 0.3 0 0 0 0 0 0 0 
node 1 2 1 3
node 2 1 1 1
node 3 1 1 1
node 4 2 0 2
gene 1 1 4 -1.57312 0 1 -1.57312 1
gene 2 2 4 0.635762 0 2 0.635762 1
gene 1 3 4 3.17517 0 3 3.17517 1
genomeend 31

/* Organism #32 Fitness: 3.92445 Error: 2.01898 */
genomestart 32
trait 1 0.1 0 0 0 0 0 0 0 
trait 2 0.2 0 0 0 0 0 0 0 
trait 3 0.32798 0.0594175 0.0392182 0 0.0103195 0 0 0 
node 1 1 1 3
node 2 2 1 1
node 3 3 1 1
node 4 3 0 2
gene 1 1 4 -2.05268 0 1 -2.05268 1
gene 2 2 4 0.271314 0 2 0.271314 1
gene 3 3 4 1.04623 0 3 1.04623 1
genomeend 32

/* Organism #33 Fitness: 4.13383 Error: 1.96682 */
genomestart 33
trait 1 0.1 0 0 0 0 0 0 0 
trait 2 0.2 0 0 0 0 0 0 0 
trait 3 0.3 0 0 0 0 0 0 0 
node 1 2 1 3
node 2 1 1 1
node 3 1 1 1
node 4 2 0 2
gene 1 1 4 -1.35688 0 1 -1.35688 1
gene 2 2 4 -0.432818 0 2 -0.432818 1
gene 3 3 4 2.43994 0 3 2.43994 1
genomeend 33

/* Organism #34 Fitness: 4.00237 Error: 1.99941 */
genomestart 34
trait 1 0.1 0 0 0 0 0 0 0 
trait 2 0.2 0 0 0 0 0 0 0 
trait 3 0.3 0 0 0 0 0 0 0 
node 1 3 1 3
node 2 2 1 1
node 3 1 1 1
node 4 2 0 2
gene 3 1 4 -2.24925 0 1 -2.24925 1
gene 2 2 4 0.745441 0 2 0.745441 1
gene 1 3 4 6.40766 0 3 6.40766 1
genomeend 34

/* Organism #35 Fitness: 7.23553 Error: 1.31011 */
genomestart 35
trait 1 0.1 0 0 0 0 0 0 0 
trait 2 0.2 0 0 0 0 0 0 0 
trait 3 0.3 0 0 0 0 0 0 0 
node 1 3 1 3
node 2 1 1 1
node 3 3 1 1
node 4 2 0 2
gene 2 1 4 -2.00587 0 1 -2.00587 1
gene 2 2 4 -4.52074 0 2 -4.52074 1
gene 1 3 4 2.1683 0 3 2.1683 1
genomeend 35

/* Organism #36 Fitness: 4 Error: 2 */
genomestart 36
trait 1 0.1 0 0 0 0 0 0 0 
trait 2 0.2 0 0 0 0 0 0 0 
trait 3 0.3 0 0 0 0 0 0 0 
node 1 3 1 3
node 2 2 1 1
node 3 1 1 1
node 4 2 0 2
gene 1 1 4 -2.79819 0 1 -2.79819 1
gene 2 2 4 -0.5742 0 2 -0.5742 1
gene 1 3 4 6.26233 0 3 6.26233 1
genomeend 36

/* Organism #37 Fitness: 4.13429 Error: 1.96671 */
genomestart 37
trait 1 0.1 0 0 0 0 0 0 0 
trait 2 0.2 0 0 0 0 0 0 0 
trait 3 0.3 0 0 0 0 0 0 0 
node 1 2 1 3
node 2 1 1 1
node 3 1 1 1
node 4 2 0 2
gene 1 1 4 0.682576 0 1 0.682576 1
gene 2 2 4 1.01371 0 2 1.01371 1
gene 3 3 4 4.02162 0 3 4.02162 1
genomeend 37

/* Organism #38 Fitness: 3.99559 Error: 2.0011 */
genomestart 38
trait 1 0.1 0 0 0 0 0 0 0 
trait 2 0.2 0 0 0 0 0 0 0 
trait 3 0.31399 0.0297088 0.0196091 0 0.00515977 0 0 0 
node 1 1 1 3
node 2 2 1 1
node 3 3 1 1
node 4 3 0 2
gene 1 1 4 -3.93027 0 1 -3.93027 1
gene 2 2 4 2.68576 0 2 2.68576 1
gene 1 3 4 0.08355 0 3 0.08355 1
genomeend 38

/* Organism #39 Fitness: 4.46373 Error: 1.88725 */
genomestart 39
trait 1 0.1 0 0 0 0 0 0 0 
trait 2 0.2 0 0 0 0 0 0 0 
trait 3 0.3 0 0 0 0 0 0 0 
node 1 3 1 3
node 2 2 1 1
node 3 3 1 1
node 4 3 0 2
gene 1 1 4 0.418928 0 1 0.418928 1
gene 1 2 4 6.43876 0 2 6.43876 1
gene 1 3 4 3.17724 0 3 3.17724 1
genomeend 39

/* Organism #40 Fitness: 5.87228 Error: 1.57672 */
genomestart 40
trait 1 0.1 0 0 0 0 0 0 0 
trait 2 0.2 0 0 0 0 0 0 0 
trait 3 0.35596 0.118835 0.0784365 0 0.0206391 0 0 0 
node 1 1 1 3
node 2 2 1 1
node 3 2 1 1
node 4 1 0 2
gene 1 1 4 -3.14442 0 1 -3.14442 1
gene 2 2 4 3.08232 0 2 3.08232 1
gene 1 3 4 -1.36915 0 3 -1.36915 1
genomeend 40

/* Organism #41 Fitness: 6.3166 Error: 1.48672 */
genomestart 41
trait 1 0.1 0 0 0 0 0 0 0 
trait 2 0.2 0 0 0 0 0 0 0 
trait 3 0.3 0 0 0 0 0 0 0 
node 1 2 1 3
node 2 3 1 1
node 3 2 1 1
node 4 1 0 2
node 7 1 0 0
gene 1 1 4 -0.669895 0 1 -0.669895 1
gene 1 2 4 3.48482 0 2 3.48482 0
gene 1 3 4 -1.64984 0 3 -1.64984 1
gene 1 2 7 3.33954 0 8 3.33954 1
gene 1 7 4 1.19882 0 9 1.19882 1
genomeend 41

/* Organism #42 Fitness: 4.09736 Error: 1.97581 */
genomestart 42
trait 1 0.1 0 0 0 0 0 0 0 
trait 2 0.2 0 0 0 0 0 0 0 
trait 3 0.3 0 0 0 0 0 0 0 
node 1 2 1 3
node 2 3 1 1
node 3 2 1 1
node 4 1 0 2
node 7 1 0 0
gene 1 1 4 -1.97008 0 1 -1.97008 1
gene 1 2 4 1.63798 0 2 1.63798 1
gene 1 3 4 -0.703114 0 3 -0.703114 1
gene 1 2 7 0.623797 0 8 0.623797 1
gene 1 7 4 1.8191 0 9 1.8191 1
genomeend 42

/* Organism #43 Fitness: 3.56143 Error: 2.11283 */
genomestart 43
trait 1 0.1 0 0 0 0 0 0 0 
trait 2 0.2 0 0 0 0 0 0 0 
trait 3 0.3 0 0 0 0 0 0 0 
node 1 2 1 3
node 2 3 1 1
node 3 2 1 1
node 4 1 0 2
node 7 1 0 0
gene 1 1 4 -1.72149 0 1 -1.72149 1
gene 1 2 4 2.4346 0 2 2.4346 0
gene 1 3 4 0.151457 0 3 0.151457 1
gene 1 2 7 1.05011 0 8 1.05011 1
gene 1 7 4 1.8911 0 9 1.8911 1
genomeend 43

/* Organism #44 Fitness: 5.05244 Error: 1.75224 */
genomestart 44
trait 1 0.1 0 0 0 0 0 0 0 
trait 2 0.2 0 0 0 0 0 0 0 
trait 3 0.3 0 0 0 0 0 0 0 
node 1 2 1 3
node 2 3 1 1
node 3 2 1 1
node 4 1 0 2
node 7 1 0 0
gene 1 1 4 -0.72385 0 1 -0.72385 1
gene 1 2 4 0.280727 0 2 0.280727 0
gene 1 3 4 2.15481 0 3 2.15481 1
gene 1 2 7 0.255272 0 8 0.255272 1
gene 1 7 4 1.83558 0 9 1.83558 1
genomeend 44

/* Organism #45 Fitness: 6.73644 Error: 1.40454 */
genomestart 45
trait 1 0.1 0 0 0 0 0 0 0 
trait 2 0.2 0 0 0 0 0 0 0 
trait 3 0.3 0 0 0 0 0 0 0 
node 1 2 1 3
node 2 3 1 1
node 3 2 1 1
node 4 1 0 2
node 7 1 0 0
gene 1 1 4 -0.986299 0 1 -0.986299 1
gene 1 2 4 2.07728 0 2 2.07728 0
gene 1 3 4 -0.957676 0 3 -0.957676 1
gene 1 2 7 1.98261 0 8 1.48261 1
gene 1 7 4 1.2149 0 9 0.615492 1
genomeend 45

/* Organism #46 Fitness: 4 Error: 2 */
genomestart 46
trait 1 0.1 0 0 0 0 0 0 0 
trait 2 0.2 0 0 0 0 0 0 0 
trait 3 0.3 0 0 0 0 0 0 0 
node 1 2 1 3
node 2 3 1 1
node 3 2 1 1
node 4 1 0 2
node 7 1 0 0
gene 1 1 4 1.46358 0 1 1.46358 1
gene 1 2 4 4.15432 0 2 4.15432 0
gene 1 3 4 0.205126 0 3 0.205126 1
gene 1 2 7 0.56658 0 8 0.56658 1
gene 1 7 4 3.33054 0 9 3.33054 1
genomeend 46

/* Organism #47 Fitness: 3.60702 Error: 2.10078 */
genomestart 47
trait 1 0.1 0 0 0 0 0 0 0 
trait 2 0.2 0 0 0 0 0 0 0 
trait 3 0.3 0 0 0 0 0 0 0 
node 1 2 1 3
node 2 3 1 1
node 3 2 1 1
node 4 1 0 2
node 7 1 0 0
gene 1 1 4 -1.31385 0 1 -1.31385 1
gene 1 2 4 2.95575 0 2 2.95575 0
gene 1 3 4 -2.20415 0 3 -2.20415 1
gene 1 2 7 -0.285441 0 8 -0.285441 1
gene 1 7 4 1.77599 0 9 1.77599 1
genomeend 47

/* Organism #48 Fitness: 3.9357 Error: 2.01614 */
genomestart 48
trait 1 0.1 0 0 0 0 0 0 0 
trait 2 0.2 0 0 0 0.172038 0 0.354216 0 
trait 3 0.3 0 0 0 0 0 0 0 
node 1 2 1 3
node 2 3 1 1
node 3 2 1 1
node 4 1 0 2
node 7 1 0 0
gene 1 1 4 -2.35967 0 1 -2.35967 1
gene 1 2 4 6.00052 0 2 6.00052 0
gene 3 3 4 1.22402 0 3 1.22402 1
gene 1 2 7 0.105482 0 8 0.105482 1
gene 1 7 4 3.06619 0 9 3.06619 1
genomeend 48

/* Organism #49 Fitness: 4.18873 Error: 1.95336 */
genomestart 49
trait 1 0.1 0 0 0 0 0 0 0 
trait 2 0.2 0 0 0 0 0 0 0 
trait 3 0.3 0 0 0 0 0 0 0 
node 1 2 1 3
node 2 3 1 1
node 3 2 1 1
node 4 1 0 2
node 7 1 0 0
gene 1 1 4 -0.986299 0 1 -0.986299 1
gene 1 2 4 3.88167 0 2 3.88167 0
gene 1 3 4 0.965335 0 3 0.965335 1
gene 1 2 7 0.471295 0 8 0.471295 1
gene 1 7 4 -1.13159 0 9 -1.13159 1
genomeend 49

/* Organism #50 Fitness: 3.99071 Error: 2.00232 */
genomestart 50
trait 1 0.1 0 0 0 0 0 0 0 
trait 2 0.2 0 0 0 0 0 0 0 
trait 3 0.3 0 0 0 0 0 0 0 
node 1 2 1 3
node 2 3 1 1
node 3 2 1 1
node 4 1 0 2
node 7 1 0 0
gene 1 1 4 -1.28432 0 1 -1.28432 1
gene 2 2 4 0.994448 0 2 0.994448 0
gene 1 3 4 0.382002 0 3 0.382002 1
gene 1 2 7 -0.343065 0 8 -0.343065 1
gene 1 7 4 -1.8329 0 9 -1.8329 1
genomeend 50

/* Organism #51 Fitness: 3.68391 Error: 2.08065 */
genomestart 51
trait 1 0.1 0 0 0 0 0 0 0 
trait 2 0.2 0 0 0 0 0 0 0 
trait 3 0.3 0 0 0 0 0 0 0 
node 1 2 1 3
node 2 3 1 1
node 3 2 1 1
node 4 1 0 2
node 7 1 0 0
gene 1 1 4 -0.783964 0 1 -0.783964 1
gene 1 2 4 4.2479 0 2 4.2479 0
gene 1 3 4 -0.266902 0 3 -0.266902 1
gene 1 2 7 1.22942 0 8 1.22942 1
gene 1 7 4 2.93377 0 9 2.93377 1
genomeend 51

/* Organism #52 Fitness: 5.10793 Error: 1.73993 */
genomestart 52
trait 1 0.1 0 0 0 0 0 0 0 
trait 2 0.2 0 0 0 0 0 0 0 
trait 3 0.597004 0.119941 0 0.907731 0 0 0 0 
node 1 1 1 3
node 2 1 1 1
node 3 3 1 1
node 4 2 0 2
node 9 1 0 0
gene 1 1 4 -1.42165 0 1 -1.42165 1
gene 2 2 4 1.65055 0 2 1.65055 1
gene 1 3 4 -0.720335 0 3 -0.720335 0
gene 1 3 9 1 0 12 0 1
gene 1 9 4 -0.720335 0 13 0 1
genomeend 52

/* Organism #53 Fitness: 3.93056 Error: 2.01744 */
genomestart 53
trait 1 0.1 0 0 0 0 0 0 0 
trait 2 0.2 0 0 0 0 0 0 0 
trait 3 0.597004 0.119941 0 0.907731 0 0 0 0 
node 1 1 1 3
node 2 1 1 1
node 3 3 1 1
node 4 2 0 2
node 9 1 0 0
gene 1 1 4 0.539718 0 1 0.539718 1
gene 2 2 4 2.1803 0 2 2.1803 1
gene 1 3 4 1.73299 0 3 1.73299 0
gene 1 3 9 -0.262941 0 12 -0.262941 1
gene 1 9 4 1.03549 0 13 1.03549 1
genomeend 53

/* Organism #54 Fitness: 4.00176 Error: 1.99956 */
genomestart 54
trait 1 0.1 0 0 0 0 0 0 0 
trait 2 0.2 0 0 0 0 0 0 0 
trait 3 0.597004 0.119941 0 0.907731 0 0 0 0 
node 1 1 1 3
node 2 1 1 1
node 3 3 1 1
node 4 2 0 2
node 9 1 0 0
gene 1 1 4 -1.85977 0 1 -1.85977 1
gene 2 2 4 1.46446 0 2 1.46446 1
gene 1 3 4 -0.444736 0 3 -0.444736 0
gene 1 3 9 1.81825 0 12 1.81825 1
gene 1 9 4 -2.34713 0 13 -2.34713 1
genomeend 54

/* Organism #55 Fitness: 3.99745 Error: 2.00064 */
genomestart 55
trait 1 0.1 0 0 0 0 0 0 0 
trait 2 0.2 0 0 0 0 0 0 0 
trait 3 0.597004 0.119941 0 0.907731 0 0 0 0 
node 1 1 1 3
node 2 1 1 1
node 3 3 1 1
node 4 2 0 2
node 9 1 0 0
gene 1 1 4 -0.993997 0 1 -0.993997 1
gene 2 2 4 -0.0894026 0 2 -0.0894026 1
gene 1 3 4 1.17201 0 3 1.17201 0
gene 1 3 9 2.09808 0 12 2.09808 1
gene 1 9 4 -0.214565 0 13 -0.214565 1
genomeend 55

/* Organism #56 Fitness: 1.54127 Error: 2.75852 */
genomestart 56
trait 1 0.1 0 0 0 0 0 0 0 
trait 2 0.2 0 0 0 0 0 0 0 
trait 3 0.597004 0.119941 0 0.907731 0 0 0 0 
node 1 1 1 3
node 2 1 1 1
node 3 3 1 1
node 4 2 0 2
node 9 1 0 0
gene 1 1 4 -3.71767 0 1 -3.71767 1
gene 2 2 4 2.5496 0 2 2.5496 1
gene 1 3 4 -0.285986 0 3 -0.285986 0
gene 1 3 9 1.26056 0 12 1.26056 1
gene 1 9 4 1.6883 0 13 1.6883 1
genomeend 56

/* Organism #57 Fitness: 3.57075 Error: 2.11036 */
genomestart 57
trait 1 0.1 0 0 0 0 0 0 0 
trait 2 0.2 0 0 0 0 0 0 0 
trait 3 0.597004 0.119941 0 0.907731 0 0 0 0 
node 1 1 1 3
node 2 1 1 1
node 3 3 1 1
node 4 2 0 2
node 9 1 0 0
gene 1 1 4 -0.758554 0 1 -0.758554 1
gene 2 2 4 1.86628 0 2 1.86628 1
gene 1 3 4 1.26329 0 3 1.26329 0
gene 1 3 9 -1.01547 0 12 -1.01547 1
gene 1 9 4 -1.46594 0 13 -1.46594 1
genomeend 57

/* Organism #58 Fitness: 4.15848 Error: 1.96077 */
genomestart 58
trait 1 0.1 0 0 0 0 0 0 0 
trait 2 0.2 0 0 0 0 0 0 0 
trait 3 0.597004 0.119941 0 0.907731 0 0 0 0 
node 1 1 1 3
node 2 1 1 1
node 3 3 1 1
node 4 2 0 2
node 9 1 0 0
gene 1 1 4 -2.39185 0 1 -2.39185 1
gene 2 2 4 2.6447 0 2 2.6447 1
gene 1 3 4 -0.720335 0 3 -0.720335 0
gene 1 3 9 3.4533 0 12 3.4533 1
gene 1 9 4 1.76425 0 13 1.76425 1
genomeend 58

/* Organism #59 Fitness: 3.99318 Error: 2.00171 */
genomestart 59
trait 1 0.1 0 0 0 0 0 0 0 
trait 2 0.2 0 0 0 0 0 0 0 
trait 3 0.597004 0.119941 0 0.907731 0 0 0 0 
node 1 3 1 3
node 2 1 1 1
node 3 3 1 1
node 4 2 0 2
node 9 1 0 0
gene 1 1 4 -2.9376 0 1 -2.9376 1
gene 2 2 4 1.65055 0 2 1.65055 1
gene 1 3 4 0.259969 0 3 0.259969 0
gene 1 3 9 -1.23448 0 12 -1.23448 1
gene 1 9 4 -2.90811 0 13 -2.90811 1
genomeend 59

/* Organism #60 Fitness: 3.98498 Error: 2.00376 */
genomestart 60
trait 1 0.1 0 0 0 0 0 0 0 
trait 2 0.2 0 0 0 0 0 0 0 
trait 3 0.597004 0.119941 0 0.907731 0 0 0 0 
node 1 1 1 3
node 2 1 1 1
node 3 3 1 1
node 4 2 0 2
node 9 1 0 0
gene 1 1 4 -1.48124 0 1 -1.48124 1
gene 2 2 4 3.42069 0 2 3.42069 1
gene 1 3 4 -2.77635 0 3 -2.77635 0
gene 1 3 9 -0.474658 0 12 -0.474658 1
gene 1 9 4 -1.66026 0 13 -1.66026 1
genomeend 60

/* Organism #61 Fitness: 5.10793 Error: 1.73993 */
genomestart 61
trait 1 0.1 0 0 0 0 0 0 0 
trait 2 0.2 0 0 0 0 0 0 0 
trait 3 0.597004 0.119941 0 0.907731 0 0 0 0 
node 1 1 1 3
node 2 1 1 1
node 3 3 1 1
node 4 2 0 2
node 9 1 0 0
gene 1 1 4 -1.42165 0 1 -1.42165 1
gene 2 2 4 1.65055 0 2 1.65055 1
gene 1 3 4 -0.720335 0 3 -0.720335 0
gene 1 3 9 1 0 12 0 1
gene 1 9 4 -0.720335 0 13 0 1
genomeend 61

/* Organism #62 Fitness: 4.06468 Error: 1.98389 */
genomestart 62
trait 1 0.1 0 0 0 0 0 0 0 
trait 2 0.2 0 0 0 0 0 0 0 
trait 3 0.597004 0.119941 0 0.907731 0 0 0 0 
node 1 1 1 3
node 2 1 1 1
node 3 3 1 1
node 4 2 0 2
node 9 1 0 0
gene 1 1 4 -1.37874 0 1 -1.37874 1
gene 2 2 4 1.97399 0 2 1.97399 1
gene 1 3 4 -0.720335 0 3 -0.720335 0
gene 1 3 9 -1.88234 0 12 -1.88234 1
gene 1 9 4 1.39713 0 13 1.39713 1
genomeend 62

/* Organism #63 Fitness: 4.00323 Error: 1.99919 */
genomestart 63
trait 1 0.1 0 0 0 0 0 0 0 
trait 2 0.2 0 0 0 0 0 0 0 
trait 3 0.597004 0.119941 0 0.907731 0 0 0 0 
node 1 1 1 3
node 2 1 1 1
node 3 3 1 1
node 4 2 0 2
node 9 1 0 0
gene 1 1 4 -0.735822 0 1 -0.735822 1
gene 2 2 4 0.0803768 0 2 0.0803768 1
gene 1 3 4 1.2984 0 3 1.2984 0
gene 1 3 9 2.04895 0 12 2.04895 1
gene 1 9 4 -1.09747 0 13 -1.09747 1
genomeend 63

/* Organism #64 Fitness: 2.25382 Error: 2.49873 */
genomestart 64
trait 1 0.1 0 0 0 0 0 0 0 
trait 2 0.2 0 0 0 0 0 0 0 
trait 3 0.597004 0.119941 0 0.907731 0 0 0 0 
node 1 1 1 3
node 2 1 1 1
node 3 3 1 1
node 4 2 0 2
node 9 1 0 0
gene 1 1 4 -2.21678 0 1 -2.21678 1
gene 2 2 4 2.75147 0 2 2.75147 1
gene 1 3 4 -0.526598 0 3 -0.526598 0
gene 1 3 9 -0.611217 0 12 -0.611217 1
gene 1 9 4 -1.20977 0 13 -1.20977 1
genomeend 64

/* Organism #65 Fitness: 5.8289 Error: 1.58569 */
genomestart 65
trait 1 0.1 0 0 0 0 0 0 0 
trait 2 0.2 0 0 0 0 0 0 0 
trait 3 0.597004 0.119941 0 0.907731 0 0 0 0 
node 1 1 1 3
node 2 1 1 1
node 3 3 1 1
node 4 2 0 2
node 9 1 0 0
gene 1 1 4 -2.00324 0 1 -2.00324 1
gene 2 2 4 3.33307 0 2 3.33307 1
gene 1 3 4 -2.47692 0 3 -2.47692 0
gene 1 3 9 3.30134 0 12 3.30134 1
gene 2 9 4 -1.2868 0 13 -1.2868 1
genomeend 65

/* Organism #66 Fitness: 4.00168 Error: 1.99958 */
genomestart 66
trait 1 0.1 0 0 0 0 0 0 0 
trait 2 0.2 0 0 0 0 0 0 0 
trait 3 0.597004 0.119941 0 0.907731 0 0 0 0 
node 1 1 1 3
node 2 1 1 1
node 3 3 1 1
node 4 2 0 2
node 9 1 0 0
gene 1 1 4 -1.42165 0 1 -1.42165 1
gene 2 2 4 -0.0373654 0 2 -0.0373654 1
gene 1 3 4 0.857205 0 3 0.857205 0
gene 1 3 9 1 0 12 1 1
gene 1 9 4 0.330485 0 13 0.330485 1
genomeend 66

/* Organism #67 Fitness: 1.20638 Error: 2.90165 */
genomestart 67
trait 1 0.1 0 0 0 0 0 0 0 
trait 2 0.2 0 0 0 0 0 0 0 
trait 3 0.32798 0.0594175 0.0392182 0 0.0103195 0 0 0 
node 1 1 1 3
node 2 2 1 1
node 3 2 1 1
node 4 1 0 2
node 10 1 0 0
gene 2 1 4 -1.18582 0 1 -1.18582 1
gene 2 2 4 2.82225 0 2 2.82225 0
gene 1 3 4 -1.36353 0 3 -1.36353 1
gene 2 2 10 2.62365 0 14 2.62365 1
gene 2 10 4 3.42711 0 15 3.42711 1
genomeend 67

/* Organism #68 Fitness: 3.99999 Error: 2 */
genomestart 68
trait 1 0.1 0 0 0 0 0 0 0 
trait 2 0.2 0 0 0 0 0 0 0 
trait 3 0.32798 0.0594175 0.0392182 0 0.0103195 0 0 0 
node 1 1 1 3
node 2 2 1 1
node 3 2 1 1
node 4 1 0 2
node 10 1 0 0
gene 2 1 4 -2.10769 0 1 -2.10769 1
gene 2 2 4 2.17078 0 2 2.17078 0
gene 1 3 4 -0.619525 0 3 -0.619525 1
gene 2 2 10 1.53332 0 14 1.53332 1
gene 2 10 4 -1.141 0 15 -1.141 1
genomeend 68

/* Organism #69 Fitness: 4.00002 Error: 1.99999 */
genomestart 69
trait 1 0.1 0 0 0 0 0 0 0 
trait 2 0.2 0 0 0 0 0 0 0 
trait 3 0.32798 0.0594175 0.0392182 0 0.0103195 0 0 0 
node 1 1 1 3
node 2 2 1 1
node 3 2 1 1
node 4 1 0 2
node 10 1 0 0
gene 2 1 4 -2.23919 0 1 -2.23919 1
gene 2 2 4 4.0291 0 2 4.0291 0
gene 1 3 4 -0.929317 0 3 -0.929317 1
gene 2 2 10 0.207762 0 14 0.207762 1
gene 2 10 4 0.164649 0 15 0.164649 1
genomeend 69

/* Species #2 : (Size 22) (AF 4.58613) (Age 3)  */


/* Organism #70 Fitness: 3.99999 Error: 2 */
genomestart 70
trait 1 0.1 0 0 0 0 0 0 0 
trait 2 0.2 0 0 0.860985 0 0.872171 0 0 
trait 3 0.3 0 0 0 0 0 0 0 
node 1 2 1 3
node 2 3 1 1
node 3 2 1 1
node 4 1 0 2
node 7 1 0 0
gene 1 1 4 -2.21617 0 1 -2.21617 1
gene 1 2 4 0.0431781 0 2 0.0431781 0
gene 1 3 4 -1.42015 0 3 -1.42015 1
gene 1 2 7 1 0 8 1 1
gene 1 7 4 -0.903443 0 9 -0.903443 1
genomeend 70

/* Organism #71 Fitness: 5.31522 Error: 1.69452 */
genomestart 71
trait 1 0.1 0 0 0 0 0 0 0 
trait 2 0.2 0 0 0 0 0 0 0 
trait 3 0.3 0 0 0 0 0 0 0 
node 1 2 1 3
node 2 3 1 1
node 3 2 1 1
node 4 1 0 2
node 7 1 0 0
gene 1 1 4 -0.500351 0 1 -0.500351 1
gene 1 2 4 1.19882 0 2 1.19882 0
gene 1 3 4 -0.636057 0 3 -0.636057 1
gene 1 2 7 1 0 8 0 1
gene 1 7 4 0.630415 0 9 0.630415 1
genomeend 71

/* Organism #72 Fitness: 4.33144 Error: 1.91879 */
genomestart 72
trait 1 0.1 0 0 0 0 0 0 0 
trait 2 0.2 0 0 0 0 0 0 0 
trait 3 0.3 0 0 0 0 0 0 0 
node 1 2 1 3
node 2 3 1 1
node 3 2 1 1
node 4 1 0 2
node 7 1 0 0
gene 1 1 4 -1.39394 0 1 -1.39394 1
gene 1 2 4 1.55614 0 2 1.55614 0
gene 1 3 4 -0.540711 0 3 -0.540711 1
gene 1 2 7 0.0675065 0 8 -0.432494 1
gene 1 7 4 1.87502 0 9 1.27561 1
gene 2 3 7 0.893294 0 20 0.893294 1
genomeend 72

/* Organism #73 Fitness: 4.32839 Error: 1.91952 */
genomestart 73
trait 1 0.1 0 0 0 0 0.293032 0 0 
trait 2 0.2 0 0 0.430492 0 0.436086 0 0 
trait 3 0.3 0 0 0 0 0 0 0 
node 1 2 1 3
node 2 3 1 1
node 3 2 1 1
node 4 1 0 2
node 7 1 0 0
gene 1 1 4 -0.0673909 0 1 -0.0673909 1
gene 1 2 4 3.90371 0 2 3.90371 0
gene 1 3 4 -2.41517 0 3 -2.41517 1
gene 1 2 7 0.930989 0 8 0.930989 1
gene 1 7 4 1.08224 0 9 1.08224 1
genomeend 73

/* Organism #74 Fitness: 3.89998 Error: 2.02516 */
genomestart 74
trait 1 0.1 0 0 0 0 0 0 0 
trait 2 0.2 0 0 0 0 0 0 0 
trait 3 0.3 0 0 0 0 0 0 0 
node 1 2 1 3
node 2 3 1 1
node 3 2 1 1
node 4 1 0 2
node 7 1 0 0
gene 1 1 4 -0.658744 0 1 -0.658744 1
gene 1 2 4 1.19882 0 2 1.19882 1
gene 1 3 4 -1.64984 0 3 -1.64984 1
gene 1 2 7 1 0 8 0 1
gene 1 7 4 1.19882 0 9 0 1
genomeend 74

/* Organism #75 Fitness: 4.05868 Error: 1.98538 */
genomestart 75
trait 1 0.1 0 0 0 0 0 0 0 
trait 2 0.2 0 0 0 0 0 0 0 
trait 3 0.3 0 0 0 0 0 0 0 
node 1 2 1 3
node 2 3 1 1
node 3 2 1 1
node 4 1 0 2
node 7 1 0 0
gene 1 1 4 1.79555 0 1 1.79555 1
gene 1 2 4 -0.380115 0 2 -0.380115 0
gene 1 3 4 -2.87607 0 3 -2.87607 1
gene 1 2 7 -0.201506 0 8 -0.201506 1
gene 1 7 4 0.705135 0 9 0.705135 1
genomeend 75

/* Organism #76 Fitness: 3.99921 Error: 2.0002 */
genomestart 76
trait 1 0.1 0 0 0 0 0 0 0 
trait 2 0.2 0 0 0 0 0 0 0 
trait 3 0.3 0 0 0 0 0 0 0 
node 1 2 1 3
node 2 3 1 1
node 3 2 1 1
node 4 1 0 2
node 7 1 0 0
gene 1 1 4 -2.19255 0 1 -2.19255 1
gene 1 2 4 -1.61774 0 2 -1.61774 0
gene 1 3 4 0.630094 0 3 0.630094 1
gene 1 2 7 -1.10026 0 8 -1.10026 1
gene 1 7 4 -0.251039 0 9 -0.251039 1
genomeend 76

/* Organism #77 Fitness: 4 Error: 2 */
genomestart 77
trait 1 0.1 0 0 0 0 0 0 0 
trait 2 0.2 0 0 0.430492 0 0.436086 0 0 
trait 3 0.3 0 0 0 0 0 0 0 
node 1 2 1 3
node 2 3 1 1
node 3 2 1 1
node 4 1 0 2
node 7 1 0 0
gene 1 1 4 -2.68667 0 1 -2.68667 1
gene 1 2 4 2.19335 0 2 2.19335 0
gene 1 3 4 -2.25938 0 3 -2.25938 1
gene 1 2 7 2.54489 0 8 2.54489 1
gene 1 7 4 -0.410598 0 9 -0.410598 1
genomeend 77

/* Organism #78 Fitness: 4 Error: 2 */
genomestart 78
trait 1 0.1 0 0 0 0 0 0 0 
trait 2 0.2 0 0 0 0 0 0 0 
trait 3 0.3 0 0 0 0 0 0 0 
node 1 2 1 3
node 2 3 1 1
node 3 2 1 1
node 4 1 0 2
node 7 1 0 0
gene 1 1 4 -3.05669 0 1 -3.05669 1
gene 1 2 4 0.672789 0 2 0.672789 0
gene 1 3 4 -0.105615 0 3 -0.105615 1
gene 1 2 7 -0.790881 0 8 -0.790881 1
gene 1 7 4 0.733075 0 9 0.733075 1
genomeend 78

/* Organism #79 Fitness: 6.25325 Error: 1.49935 */
genomestart 79
trait 1 0.1 0 0 0 0 0 0 0 
trait 2 0.2 0 0 0 0 0 0 0 
trait 3 0.3 0 0 0 0 0 0 0 
node 1 2 1 3
node 2 3 1 1
node 3 2 1 1
node 4 1 0 2
node 7 1 0 0
gene 1 1 4 -0.658744 0 1 -0.658744 1
gene 1 2 4 1.19882 0 2 1.19882 0
gene 1 3 4 -1.64984 0 3 -1.64984 1
gene 1 2 7 1 0 8 0 1
gene 1 7 4 1.19882 0 9 0 1
genomeend 79

/* Organism #80 Fitness: 6.25325 Error: 1.49935 */
genomestart 80
trait 1 0.1 0 0 0 0 0 0 0 
trait 2 0.2 0 0 0.860985 0 0.872171 0 0 
trait 3 0.3 0 0 0 0 0 0 0 
node 1 2 1 3
node 2 3 1 1
node 3 2 1 1
node 4 2 0 2
node 7 1 0 0
gene 3 1 4 -0.658744 0 1 -0.658744 1
gene 1 2 4 1.19882 0 2 1.19882 0
gene 1 3 4 -1.64984 0 3 -1.64984 1
gene 1 2 7 1 0 8 0 1
gene 1 7 4 1.19882 0 9 0 1
genomeend 80

/* Organism #81 Fitness: 4 Error: 2 */
genomestart 81
trait 1 0.1 0 0 0 0 0 0 0 
trait 2 0.2 0 0 0 0 0 0 0 
trait 3 0.3 0 0 0 0 0 0 0 
node 1 2 1 3
node 2 3 1 1
node 3 2 1 1
node 4 1 0 2
node 7 1 0 0
gene 1 1 4 -2.57621 0 1 -2.57621 1
gene 1 2 4 1.74769 0 2 1.74769 0
gene 1 3 4 -3.16822 0 3 -3.16822 1
gene 1 2 7 2.78333 0 8 2.78333 1
gene 1 7 4 -1.25275 0 9 -1.25275 1
genomeend 81

/* Organism #82 Fitness: 3.98699 Error: 2.00325 */
genomestart 82
trait 1 0.1 0 0 0 0 0 0 0 
trait 2 0.2 0 0 0 0 0 0 0 
trait 3 0.3 0 0 0 0 0 0 0 
node 1 2 1 3
node 2 3 1 1
node 3 2 1 1
node 4 1 0 2
node 7 1 0 0
gene 1 1 4 0.837497 0 1 0.837497 1
gene 1 2 4 1.3763 0 2 1.3763 0
gene 1 3 4 -0.220746 0 3 -0.220746 1
gene 1 2 7 1.4314 0 8 1.4314 1
gene 1 7 4 0.871673 0 9 0.871673 1
genomeend 82

/* Organism #83 Fitness: 7.24869 Error: 1.30766 */
genomestart 83
trait 1 0.1 0 0 0 0 0 0 0 
trait 2 0.2 0 0 0 0 0 0 0 
trait 3 0.3 0 0 0 0 0 0 0 
node 1 2 1 3
node 2 3 1 1
node 3 2 1 1
node 4 1 0 2
node 7 1 0 0
gene 1 1 4 0.181517 0 1 0.181517 1
gene 1 2 4 0.0748308 0 2 0.0748308 0
gene 1 3 4 -1.08855 0 3 -1.08855 1
gene 1 2 7 -1.51737 0 8 -1.51737 1
gene 1 7 4 3.76809 0 9 3.76809 1
genomeend 83

/* Organism #84 Fitness: 3.55633 Error: 2.11418 */
genomestart 84
trait 1 0.1 0 0 0 0 0 0 0 
trait 2 0.2 0 0 0 0 0 0 0 
trait 3 0.3 0 0 0 0 0 0 0 
node 1 2 1 3
node 2 3 1 1
node 3 1 1 1
node 4 1 0 2
node 7 1 0 0
gene 1 1 4 0.286843 0 1 0.286843 1
gene 1 2 4 3.20868 0 2 3.20868 0
gene 1 3 4 -2.43954 0 3 -2.43954 1
gene 1 2 7 -2.43262 0 8 -2.43262 1
gene 1 7 4 3.32221 0 9 3.32221 1
genomeend 84

/* Organism #85 Fitness: 4.58548 Error: 1.85863 */
genomestart 85
trait 1 0.1 0 0 0 0 0 0 0 
trait 2 0.2 0 0 0 0 0 0 0 
trait 3 0.3 0 0 0 0 0 0 0 
node 1 2 1 3
node 2 3 1 1
node 3 2 1 1
node 4 1 0 2
node 7 1 0 0
gene 1 1 4 -0.313751 0 1 -0.313751 1
gene 1 2 4 0.790287 0 2 0.790287 0
gene 2 3 4 -2.23033 0 3 -2.23033 1
gene 1 2 7 0.710795 0 8 0.710795 1
gene 1 7 4 1.33432 0 9 1.33432 1
gene 2 3 7 1.70179 0 17 1.70179 1
genomeend 85

/* Organism #86 Fitness: 3.99951 Error: 2.00012 */
genomestart 86
trait 1 0.1 0 0 0 0 0 0 0 
trait 2 0.2 0 0 0.430492 0 0.436086 0 0 
trait 3 0.3 0 0 0 0 0 0 0 
node 1 2 1 3
node 2 3 1 1
node 3 2 1 1
node 4 1 0 2
node 7 1 0 0
gene 1 1 4 1.39003 0 1 1.39003 1
gene 1 2 4 0.62551 0 2 0.62551 0
gene 1 3 4 -2.98077 0 3 -2.98077 1
gene 1 2 7 -0.657033 0 8 -0.657033 1
gene 1 7 4 0.251582 0 9 0.251582 1
genomeend 86

/* Organism #87 Fitness: 4.67322 Error: 1.83824 */
genomestart 87
trait 1 0.1 0 0 0 0 0 0 0 
trait 2 0.2 0 0 0 0 0 0 0 
trait 3 0.3 0 0 0 0 0 0 0 
node 1 2 1 3
node 2 3 1 1
node 3 2 1 1
node 4 1 0 2
node 7 1 0 0
gene 1 1 4 0.0363438 0 1 0.0363438 1
gene 1 2 4 0.550247 0 2 0.550247 1
gene 1 3 4 -4.04538 0 3 -4.04538 1
gene 1 2 7 1.33118 0 8 1.33118 1
gene 3 7 4 0.586267 0 9 0.586267 1
genomeend 87

/* Organism #88 Fitness: 4.00019 Error: 1.99995 */
genomestart 88
trait 1 0.1 0 0 0 0 0 0 0 
trait 2 0.2 0 0 0 0 0 0 0 
trait 3 0.3 0 0.956677 0 0 0 0.0446536 0.109872 
node 1 2 1 3
node 2 3 1 1
node 3 2 1 1
node 4 1 0 2
node 7 1 0 0
gene 1 1 4 -2.87563 0 1 -2.87563 1
gene 1 2 4 -0.615208 0 2 -0.615208 0
gene 1 3 4 -0.670059 0 3 -0.670059 1
gene 1 2 7 1.68308 0 8 1.68308 1
gene 1 7 4 0.88853 0 9 0.88853 1
genomeend 88

/* Organism #89 Fitness: 6.2766 Error: 1.49469 */
genomestart 89
trait 1 0.1 0 0 0 0 0 0 0 
trait 2 0.2 0 0 0 0 0 0 0 
trait 3 0.3 0 0 0 0 0 0 0 
node 1 2 1 3
node 2 3 1 1
node 3 2 1 1
node 4 1 0 2
node 7 1 0 0
gene 1 1 4 -0.658744 0 1 -0.658744 1
gene 1 2 4 1.19882 0 2 1.19882 0
gene 1 3 4 0.205126 0 3 0.205126 1
gene 1 2 7 2.1431 0 8 2.1431 1
gene 1 7 4 1.19882 0 9 0 1
gene 2 3 7 0.893294 0 20 0 1
genomeend 89

/* Organism #90 Fitness: 4.13103 Error: 1.96751 */
genomestart 90
trait 1 0.1 0 0 0 0 0 0 0 
trait 2 0.2 0 0 0 0 0 0 0 
trait 3 0.3 0 0 0 0 0 0 0 
node 1 2 1 3
node 2 3 1 1
node 3 2 1 1
node 4 1 0 2
node 7 1 0 0
gene 1 1 4 -0.347417 0 1 -0.347417 1
gene 1 2 4 3.58294 0 2 3.58294 0
gene 1 3 4 -3.68959 0 3 -3.68959 1
gene 1 2 7 3.43493 0 8 3.43493 1
gene 1 7 4 2.06971 0 9 2.06971 1
genomeend 90

/* Organism #91 Fitness: 3.99748 Error: 2.00063 */
genomestart 91
trait 1 0.1 0 0 0 0 0 0 0 
trait 2 0.2 0 0 0 0 0 0 0 
trait 3 0.3 0 0 0 0 0 0 0 
node 1 2 1 3
node 2 3 1 1
node 3 2 1 1
node 4 1 0 2
node 7 1 0 0
gene 1 1 4 0.459092 0 1 0.459092 1
gene 1 2 4 0.399162 0 2 0.399162 0
gene 1 3 4 -0.514074 0 3 -0.514074 1
gene 1 2 7 0.598419 0 8 0.598419 1
gene 1 7 4 3.06949 0 9 3.06949 1
genomeend 91

/* Species #3 : (Size 26) (AF 4.29057) (Age 2)  */


/* Organism #92 Fitness: 4 Error: 2 */
genomestart 92
trait 1 0.1 0 0 0 0 0 0 0 
trait 2 0.2 0 0 0 0 0 0 0 
trait 3 0.597004 0.119941 0 0.907731 0 0 0 0 
node 1 1 1 3
node 2 1 1 1
node 3 3 1 1
node 4 2 0 2
node 9 1 0 0
gene 1 1 4 -3.68141 0 1 -3.68141 1
gene 2 2 4 -0.828751 0 2 -0.828751 1
gene 1 3 4 0.0125346 0 3 0.0125346 0
gene 1 3 9 3.18126 0 12 3.18126 1
gene 1 9 4 0.704363 0 13 0.704363 1
genomeend 92

/* Organism #93 Fitness: 4.00003 Error: 1.99999 */
genomestart 93
trait 1 0.1 0 0 0 0 0 0 0 
trait 2 0.2 0 0 0 0 0 0 0 
trait 3 0.597004 0.119941 0 0.907731 0 0 0 0 
node 1 1 1 3
node 2 1 1 1
node 3 3 1 1
node 4 2 0 2
node 9 1 0 0
gene 1 1 4 -1.42165 0 1 -1.42165 1
gene 2 2 4 0.525276 0 2 0.525276 1
gene 1 3 4 -1.80901 0 3 -1.80901 0
gene 1 3 9 1.06963 0 12 1.06963 1
gene 1 9 4 -2.91408 0 13 -2.91408 1
genomeend 93

/* Organism #94 Fitness: 4 Error: 2 */
genomestart 94
trait 1 0.1 0 0 0 0 0 0 0 
trait 2 0.2 0 0 0 0 0 0 0 
trait 3 0.597004 0.119941 0 0.907731 0 0 0 0 
node 1 1 1 3
node 2 1 1 1
node 3 3 1 1
node 4 2 0 2
node 9 1 0 0
gene 1 1 4 -3.71627 0 1 -3.71627 1
gene 2 2 4 0.382312 0 2 0.382312 1
gene 1 3 4 -2.16163 0 3 -2.16163 0
gene 1 3 9 1.40832 0 12 1.40832 1
gene 1 9 4 -0.720335 0 13 -0.720335 1
genomeend 94

/* Organism #95 Fitness: 3.98077 Error: 2.00481 */
genomestart 95
trait 1 0.1 0 0 0 0 0 0 0 
trait 2 0.2 0 0 0 0 0 0 0 
trait 3 0.597004 0.119941 0 0.907731 0 0 0 0 
node 1 1 1 3
node 2 1 1 1
node 3 3 1 1
node 4 2 0 2
node 9 1 0 0
gene 1 1 4 -2.663 0 1 -2.663 1
gene 2 2 4 1.38343 0 2 1.38343 1
gene 1 3 4 -1.30973 0 3 -1.30973 0
gene 1 3 9 1.86499 0 12 1.86499 1
gene 1 9 4 0.321383 0 13 0.321383 1
genomeend 95

/* Organism #96 Fitness: 4.00009 Error: 1.99998 */
genomestart 96
trait 1 0.1 0 0 0 0 0 0 0 
trait 2 0.2 0 0 0 0 0 0 0 
trait 3 0.597004 0.119941 0 0.907731 0 0 0 0 
node 1 1 1 3
node 2 1 1 1
node 3 3 1 1
node 4 2 0 2
node 9 1 0 0
gene 1 1 4 1.14305 0 1 1.14305 1
gene 2 2 4 1.65055 0 2 1.65055 1
gene 1 3 4 -2.91732 0 3 -2.91732 0
gene 1 3 9 0.0561199 0 12 0.0561199 1
gene 1 9 4 1.71172 0 13 1.71172 1
genomeend 96

/* Organism #97 Fitness: 3.94138 Error: 2.01471 */
genomestart 97
trait 1 0.1 0 0 0 0 0 0 0 
trait 2 0.2 0 0 0 0 0 0 0 
trait 3 0.597004 0.119941 0 0.907731 0 0 0 0 
node 1 1 1 3
node 2 1 1 1
node 3 3 1 1
node 4 2 0 2
node 9 1 0 0
gene 1 1 4 -3.79371 0 1 -3.79371 1
gene 2 2 4 2.28969 0 2 2.28969 1
gene 1 3 4 -2.19415 0 3 -2.19415 0
gene 1 3 9 1.56106 0 12 1.56106 1
gene 1 9 4 0.692679 0 13 0.692679 1
genomeend 97

/* Organism #98 Fitness: 4 Error: 2 */
genomestart 98
trait 1 0.1 0 0 0 0 0 0 0 
trait 2 0.676196 0 0 0 0 0 0.992887 0 
trait 3 0.597004 0.119941 0 0.907731 0 0 0 0 
node 1 1 1 3
node 2 1 1 1
node 3 3 1 1
node 4 2 0 2
node 9 1 0 0
gene 1 1 4 -3.12265 0 1 -3.12265 1
gene 2 2 4 -0.541616 0 2 -0.541616 1
gene 1 3 4 -2.42606 0 3 -2.42606 0
gene 1 3 9 -0.492415 0 12 -0.492415 1
gene 1 9 4 -2.57044 0 13 -2.57044 1
genomeend 98

/* Organism #99 Fitness: 4 Error: 2 */
genomestart 99
trait 1 0.1 0 0 0 0 0 0 0 
trait 2 0.2 0 0 0 0 0 0 0 
trait 3 0.597004 0.119941 0 0.907731 0 0 0 0 
node 1 1 1 3
node 2 1 1 1
node 3 3 1 1
node 4 2 0 2
node 9 1 0 0
gene 1 1 4 -3.34619 0 1 -3.34619 1
gene 2 2 4 -0.517149 0 2 -0.517149 1
gene 1 3 4 1.16532 0 3 1.16532 0
gene 1 3 9 -0.674102 0 12 -0.674102 1
gene 1 9 4 -3.12418 0 13 -3.12418 1
genomeend 99

/* Organism #100 Fitness: 3.51411 Error: 2.12541 */
genomestart 100
trait 1 0.1 0 0 0 0 0 0 0 
trait 2 0.2 0 0 0 0 0 0 0 
trait 3 0.597004 0.119941 0 0.907731 0 0 0 0 
node 1 1 1 3
node 2 1 1 1
node 3 3 1 1
node 4 2 0 2
node 9 1 0 0
gene 1 1 4 -0.482061 0 1 -0.482061 1
gene 2 2 4 -0.12605 0 2 -0.12605 1
gene 1 3 4 0.477965 0 3 0.477965 0
gene 1 3 9 0.930735 0 12 0.930735 1
gene 1 9 4 1.3831 0 13 1.3831 1
genomeend 100

/* Organism #101 Fitness: 4.00002 Error: 1.99999 */
genomestart 101
trait 1 0.1 0 0 0 0 0 0 0 
trait 2 0.2 0 0 0 0 0 0 0 
trait 3 0.597004 0.119941 0 0.907731 0 0 0 0 
node 1 1 1 3
node 2 1 1 1
node 3 3 1 1
node 4 2 0 2
node 9 1 0 0
gene 1 1 4 -3.76477 0 1 -3.76477 1
gene 2 2 4 1.65055 0 2 1.65055 1
gene 1 3 4 -0.017306 0 3 -0.017306 0
gene 1 3 9 1.39304 0 12 1.39304 1
gene 1 9 4 -0.632493 0 13 -0.632493 1
genomeend 101

/* Organism #102 Fitness: 5.24556 Error: 1.70968 */
genomestart 102
trait 1 0.1 0 0 0 0 0 0 0 
trait 2 0.2 0 0 0 0 0 0 0 
trait 3 0.597004 0.119941 0 0.907731 0 0 0 0 
node 1 1 1 3
node 2 1 1 1
node 3 3 1 1
node 4 2 0 2
node 9 1 0 0
gene 1 1 4 -0.922227 0 1 -0.922227 1
gene 2 2 4 1.65055 0 2 1.65055 1
gene 1 3 4 -2.45764 0 3 -2.45764 0
gene 1 3 9 1 0 12 1 1
gene 1 9 4 -1.8093 0 13 -1.8093 1
genomeend 102

/* Organism #103 Fitness: 6.51985 Error: 1.4466 */
genomestart 103
trait 1 0.1 0 0 0 0 0 0 0 
trait 2 0.2 0 0 0 0 0 0 0 
trait 3 0.597004 0.119941 0 0.907731 0 0 0 0 
node 1 1 1 3
node 2 1 1 1
node 3 3 1 1
node 4 2 0 2
node 9 1 0 0
gene 1 1 4 -1.42165 0 1 -1.42165 1
gene 2 2 4 1.65055 0 2 1.65055 1
gene 1 3 4 -0.720335 0 3 -0.720335 0
gene 1 3 9 1 0 12 0 1
gene 1 9 4 -0.720335 0 13 0 1
gene 2 1 9 -0.798353 0 21 -0.798353 1
genomeend 103

/* Organism #104 Fitness: 3.99665 Error: 2.00084 */
genomestart 104
trait 1 0.1 0 0 0 0 0 0 0 
trait 2 0.2 0 0 0 0 0 0 0 
trait 3 0.597004 0.119941 0 0.907731 0 0 0 0 
node 1 1 1 3
node 2 1 1 1
node 3 3 1 1
node 4 2 0 2
node 9 1 0 0
gene 1 1 4 0.0589427 0 1 0.0589427 1
gene 2 2 4 -0.0701495 0 2 -0.0701495 1
gene 1 3 4 0.425526 0 3 0.425526 0
gene 1 3 9 1.70188 0 12 1.70188 1
gene 1 9 4 -2.49237 0 13 -2.49237 1
genomeend 104

/* Organism #105 Fitness: 4.0061 Error: 1.99848 */
genomestart 105
trait 1 0.1 0 0 0 0 0 0 0 
trait 2 0.2 0 0 0 0 0 0 0 
trait 3 0.597004 0.119941 0 0.907731 0 0 0 0 
node 1 1 1 3
node 2 1 1 1
node 3 3 1 1
node 4 2 0 2
node 9 1 0 0
gene 1 1 4 -1.42165 0 1 -1.42165 1
gene 2 2 4 0.357856 0 2 0.357856 1
gene 1 3 4 -0.233445 0 3 -0.233445 0
gene 1 3 9 1 0 12 1 1
gene 1 9 4 1.66652 0 13 1.66652 1
genomeend 105

/* Organism #106 Fitness: 3.99964 Error: 2.00009 */
genomestart 106
trait 1 0.1 0 0 0 0 0 0 0 
trait 2 0.2 0 0 0 0 0 0 0 
trait 3 0.597004 0.119941 0 0.907731 0 0 0 0 
node 1 1 1 3
node 2 1 1 1
node 3 3 1 1
node 4 2 0 2
node 9 1 0 0
gene 1 1 4 -2.4169 0 1 -2.4169 1
gene 2 2 4 0.740868 0 2 0.740868 1
gene 1 3 4 -1.5636 0 3 -1.5636 0
gene 1 3 9 -0.98684 0 12 -0.98684 1
gene 1 9 4 -0.183802 0 13 -0.183802 1
genomeend 106

/* Organism #107 Fitness: 3.05022 Error: 2.25351 */
genomestart 107
trait 1 0.1 0 0 0 0 0 0 0 
trait 2 0.2 0 0 0 0 0 0 0 
trait 3 0.597004 0.119941 0 0.907731 0 0 0 0 
node 1 1 1 3
node 2 1 1 1
node 3 3 1 1
node 4 2 0 2
node 9 1 0 0
gene 1 1 4 0.200685 0 1 0.200685 1
gene 2 2 4 1.65055 0 2 1.65055 1
gene 1 3 4 -0.720335 0 3 -0.720335 0
gene 1 3 9 -1.20001 0 12 -1.20001 1
gene 1 9 4 1.3214 0 13 1.3214 1
genomeend 107

/* Organism #108 Fitness: 4.19376 Error: 1.95213 */
genomestart 108
trait 1 0.1 0 0 0 0 0 0 0 
trait 2 0.2 0 0 0 0 0 0 0 
trait 3 0.597004 0.119941 0 0.907731 0 0 0 0 
node 1 1 1 3
node 2 1 1 1
node 3 3 1 1
node 4 2 0 2
node 9 1 0 0
gene 1 1 4 -1.42165 0 1 -1.42165 1
gene 2 2 4 1.65055 0 2 1.65055 1
gene 1 3 4 -0.720335 0 3 -0.720335 0
gene 1 3 9 1 0 12 0 1
gene 1 9 4 -0.720335 0 13 0 1
gene 2 2 9 0.358224 0 22 0.358224 1
genomeend 108

/* Organism #109 Fitness: 4.00054 Error: 1.99987 */
genomestart 109
trait 1 0.1 0 0 0 0 0 0 0 
trait 2 0.2 0 0 0 0 0 0 0 
trait 3 0.597004 0.119941 0 0.907731 0 0 0 0 
node 1 1 1 3
node 2 1 1 1
node 3 3 1 1
node 4 2 0 2
node 9 1 0 0
gene 1 1 4 0.678666 0 1 0.678666 1
gene 2 2 4 0.366215 0 2 0.366215 1
gene 1 3 4 -1.29558 0 3 -1.29558 0
gene 1 3 9 1.37727 0 12 1.37727 1
gene 1 9 4 2.18685 0 13 2.18685 1
genomeend 109

/* Organism #110 Fitness: 6.51985 Error: 1.4466 */
genomestart 110
trait 1 0.1 0 0 0 0 0 0 0 
trait 2 0.2 0 0 0 0 0 0 0 
trait 3 0.597004 0.119941 0 0.907731 0 0 0 0 
node 1 1 1 3
node 2 1 1 1
node 3 3 1 1
node 4 2 0 2
node 9 1 0 0
gene 1 1 4 -1.42165 0 1 -1.42165 1
gene 2 2 4 1.65055 0 2 1.65055 1
gene 1 3 4 -0.720335 0 3 -0.720335 0
gene 1 3 9 1 0 12 0 1
gene 1 9 4 -0.720335 0 13 0 1
gene 2 1 9 -0.798353 0 21 0 1
genomeend 110

/* Organism #111 Fitness: 7.39291 Error: 1.28101 */
genomestart 111
trait 1 0.1 0 0 0 0 0 0 0 
trait 2 0.2 0 0 0 0 0 0 0 
trait 3 0.597004 0.119941 0 0.907731 0 0 0 0 
node 1 1 1 3
node 2 1 1 1
node 3 1 1 1
node 4 2 0 2
node 9 1 0 0
gene 1 1 4 0.212537 0 1 0.212537 1
gene 2 2 4 2.65936 0 2 2.65936 1
gene 1 3 4 -2.96797 0 3 -2.96797 0
gene 1 3 9 -1.02532 0 12 -1.02532 1
gene 1 9 4 -2.60298 0 13 -2.60298 1
genomeend 111

/* Organism #112 Fitness: 4.27672 Error: 1.93198 */
genomestart 112
trait 1 0.1 0 0 0 0 0 0 0 
trait 2 0.2 0 0 0 0 0 0 0 
trait 3 0.597004 1 0.009769 0.934663 0 0 0 0 
node 1 1 1 3
node 2 1 1 1
node 3 3 1 1
node 4 2 0 2
node 9 1 0 0
gene 1 1 4 -0.57916 0 1 -0.57916 1
gene 2 2 4 1.65055 0 2 1.65055 1
gene 1 3 4 -1.80898 0 3 -1.80898 0
gene 3 3 9 1.84691 0 12 1.84691 1
gene 1 9 4 -0.627452 0 13 -0.627452 1
genomeend 112

/* Organism #113 Fitness: 3.17409 Error: 2.2184 */
genomestart 113
trait 1 0.1 0 0 0 0 0 0 0 
trait 2 0.2 0 0 0 0 0 0 0 
trait 3 0.597004 0.119941 0 0.907731 0 0 0 0 
node 1 1 1 3
node 2 3 1 1
node 3 3 1 1
node 4 2 0 2
node 9 1 0 0
gene 1 1 4 -1.37139 0 1 -1.37139 1
gene 2 2 4 1.19367 0 2 1.19367 1
gene 1 3 4 -1.6183 0 3 -1.6183 0
gene 1 3 9 -0.662248 0 12 -0.662248 1
gene 1 9 4 -0.9211 0 13 -0.9211 1
genomeend 113

/* Organism #114 Fitness: 3.54717 Error: 2.11661 */
genomestart 114
trait 1 0.1 0 0 0 0 0 0 0 
trait 2 0.2 0 0 0 0 0 0 0 
trait 3 0.597004 0.119941 0 0.907731 0 0 0 0 
node 1 1 1 3
node 2 1 1 1
node 3 3 1 1
node 4 2 0 2
node 9 1 0 0
gene 1 1 4 -0.717416 0 1 -0.717416 1
gene 2 2 4 1.08234 0 2 1.08234 1
gene 1 3 4 -2.83231 0 3 -2.83231 0
gene 1 3 9 -0.969056 0 12 -0.969056 1
gene 1 9 4 -0.338156 0 13 -0.338156 1
genomeend 114

/* Organism #115 Fitness: 3.99999 Error: 2 */
genomestart 115
trait 1 0.1 0 0 0 0 0 0 0 
trait 2 0.2 0 0 0 0 0 0 0 
trait 3 0.597004 0.119941 0 0.907731 0 0 0 0 
node 1 1 1 3
node 2 3 1 1
node 3 3 1 1
node 4 2 0 2
node 9 1 0 0
gene 1 1 4 -1.99404 0 1 -1.99404 1
gene 2 2 4 0.0622533 0 2 0.0622533 1
gene 1 3 4 -0.720335 0 3 -0.720335 0
gene 1 3 9 -0.11038 0 12 -0.11038 1
gene 1 9 4 -0.720335 0 13 -0.720335 1
genomeend 115

/* Organism #116 Fitness: 4.19376 Error: 1.95213 */
genomestart 116
trait 1 0.1 0 0 0 0 0 0 0 
trait 2 0.2 0 0 0 0 0 0 0 
trait 3 0.597004 0.119941 0 0.907731 0 0 0 0 
node 1 1 1 3
node 2 1 1 1
node 3 3 1 1
node 4 2 0 2
node 9 1 0 0
gene 1 1 4 -1.42165 0 1 -1.42165 1
gene 2 2 4 1.65055 0 2 1.65055 1
gene 1 3 4 -0.720335 0 3 -0.720335 0
gene 1 3 9 1 0 12 0 1
gene 1 9 4 -0.720335 0 13 0 1
gene 2 2 9 0.358224 0 22 0 1
genomeend 116

/* Organism #117 Fitness: 4.00168 Error: 1.99958 */
genomestart 117
trait 1 0.1 0 0 0 0 0 0 0 
trait 2 0.2 0 0 0 0 0 0 0 
trait 3 0.597004 0.119941 0 0.907731 0 0 0 0 
node 1 1 1 3
node 2 1 1 1
node 3 3 1 1
node 4 2 0 2
node 9 1 0 0
gene 1 1 4 0.527583 0 1 0.527583 1
gene 2 2 4 0.0142409 0 2 0.0142409 1
gene 1 3 4 0.64629 0 3 0.64629 0
gene 1 3 9 1.54817 0 12 1.54817 1
gene 1 9 4 -3.14379 0 13 -3.14379 1
genomeend 117

/* Species #4 : (Size 31) (AF 3.997) (Age 2)  */


/* Organism #118 Fitness: 4.10185 Error: 1.9747 */
genomestart 118
trait 1 0.1 0 0 0 0 0 0 0 
trait 2 0.2 0 0 0 0 0 0 0 
trait 3 0.32798 0.0594175 0.0392182 0 0.0103195 0 0 0 
node 1 1 1 3
node 2 2 1 1
node 3 2 1 1
node 4 1 0 2
node 10 1 0 0
gene 2 1 4 -0.26612 0 1 -0.26612 1
gene 2 2 4 1.93891 0 2 1.93891 0
gene 1 3 4 -2.74089 0 3 -2.74089 1
gene 2 2 10 1 0 14 0 1
gene 2 10 4 1.93891 0 15 0 1
genomeend 118

/* Organism #119 Fitness: 4.10185 Error: 1.9747 */
genomestart 119
trait 1 0.1 0 0 0 0 0 0 0 
trait 2 0.2 0 0 0 0 0 0 0 
trait 3 0.32798 0.0594175 0.0392182 0 0.0103195 0 0 0 
node 1 1 1 3
node 2 2 1 1
node 3 2 1 1
node 4 1 0 2
node 10 1 0 0
gene 3 1 4 -0.26612 0 1 -0.26612 1
gene 2 2 4 1.93891 0 2 1.93891 0
gene 1 3 4 -2.74089 0 3 -2.74089 1
gene 2 2 10 1 0 14 0 1
gene 2 10 4 1.93891 0 15 0 1
genomeend 119

/* Organism #120 Fitness: 3.93062 Error: 2.01742 */
genomestart 120
trait 1 0.1 0 0 0 0 0 0 0 
trait 2 0.2 0 0 0 0 0 0 0 
trait 3 0.32798 0.0594175 0.0392182 0 0.0103195 0 0 0 
node 1 1 1 3
node 2 2 1 1
node 3 2 1 1
node 4 1 0 2
node 10 1 0 0
gene 2 1 4 1.73983 0 1 1.73983 1
gene 2 2 4 1.40415 0 2 1.40415 0
gene 1 3 4 -1.99758 0 3 -1.99758 1
gene 2 2 10 0.0274185 0 14 0.0274185 1
gene 2 10 4 0.423838 0 15 0.423838 1
genomeend 120

/* Organism #121 Fitness: 4.10185 Error: 1.9747 */
genomestart 121
trait 1 0.1 0 0 0 0 0 0 0 
trait 2 0.2 0 0 0 0 0 0 0 
trait 3 0.32798 0.0594175 0.0392182 0 0.0103195 0 0 0 
node 1 1 1 3
node 2 2 1 1
node 3 2 1 1
node 4 1 0 2
node 10 1 0 0
gene 2 1 4 -0.26612 0 1 -0.26612 1
gene 2 2 4 1.93891 0 2 1.93891 0
gene 1 3 4 -2.74089 0 3 -2.74089 1
gene 2 2 10 1 0 14 0 1
gene 2 10 4 1.93891 0 15 0 1
genomeend 121

/* Organism #122 Fitness: 4.10185 Error: 1.9747 */
genomestart 122
trait 1 0.1 0 0 0 0 0 0 0 
trait 2 0.2 0 0 0 0 0 0 0 
trait 3 0.32798 0.0594175 0.0392182 0 0.0103195 0 0 0 
node 1 1 1 3
node 2 2 1 1
node 3 2 1 1
node 4 1 0 2
node 10 1 0 0
gene 2 1 4 -0.26612 0 1 -0.26612 1
gene 2 2 4 1.93891 0 2 1.93891 0
gene 1 3 4 -2.74089 0 3 -2.74089 1
gene 2 2 10 1 0 14 0 1
gene 2 10 4 1.93891 0 15 0 1
genomeend 122

/* Organism #123 Fitness: 4.45574 Error: 1.88914 */
genomestart 123
trait 1 0.1 0 0 0 0 0 0 0 
trait 2 0.2 0 0 0 0 0 0 0 
trait 3 0.32798 0.0594175 0.0392182 0 0.0103195 0 0 0 
node 1 1 1 3
node 2 2 1 1
node 3 2 1 1
node 4 1 0 2
node 10 1 0 0
gene 2 1 4 0.238592 0 1 0.238592 1
gene 2 2 4 3.3482 0 2 3.3482 0
gene 1 3 4 -3.97764 0 3 -3.97764 1
gene 2 2 10 -0.472013 0 14 -0.472013 1
gene 2 10 4 -0.257159 0 15 -0.257159 1
genomeend 123

/* Organism #124 Fitness: 3.26134 Error: 2.19408 */
genomestart 124
trait 1 0.1 0 0 0 0 0 0 0 
trait 2 0.2 0 0 0 0 0 0 0 
trait 3 0.32798 0.0594175 0.0392182 0 0.0103195 0 0 0 
node 1 1 1 3
node 2 2 1 1
node 3 3 1 1
node 4 1 0 2
node 10 1 0 0
gene 2 1 4 -2.14259 0 1 -2.14259 1
gene 2 2 4 0.497812 0 2 0.497812 0
gene 1 3 4 -3.54339 0 3 -3.54339 1
gene 2 2 10 -0.72684 0 14 -0.72684 1
gene 2 10 4 3.70705 0 15 3.70705 1
genomeend 124

/* Organism #125 Fitness: 4.10185 Error: 1.9747 */
genomestart 125
trait 1 0.1 0 0 0 0 0 0 0 
trait 2 0.2 0 0 0 0 0 0 0 
trait 3 0.32798 0.0594175 0.0392182 0 0.0103195 0 0 0 
node 1 1 1 3
node 2 2 1 1
node 3 2 1 1
node 4 1 0 2
node 10 1 0 0
gene 2 1 4 -0.26612 0 1 -0.26612 1
gene 2 2 4 1.93891 0 2 1.93891 0
gene 1 3 4 -2.74089 0 3 -2.74089 1
gene 2 2 10 1 0 14 0 1
gene 2 10 4 1.93891 0 15 0 1
genomeend 125

/* Organism #126 Fitness: 6.5569 Error: 1.43936 */
genomestart 126
trait 1 0.1 0 0 0 0 0 0 0 
trait 2 0.2 0 0 0 0 0 0 0 
trait 3 0.32798 0.0594175 0.0392182 0 0.0103195 0 0 0 
node 1 1 1 3
node 2 2 1 1
node 3 2 1 1
node 4 1 0 2
node 10 1 0 0
gene 2 1 4 -1.1636 0 1 -1.1636 1
gene 2 2 4 0.0676894 0 2 0.0676894 0
gene 1 3 4 -0.815239 0 3 -0.815239 1
gene 2 2 10 1.87848 0 14 1.87848 1
gene 2 10 4 1.69845 0 15 1.69845 1
genomeend 126

/* Organism #127 Fitness: 3.9447 Error: 2.01387 */
genomestart 127
trait 1 0.1 0 0 0 0 0 0 0 
trait 2 0.2 0 0 0 0 0 0 0 
trait 3 0.32798 0.0594175 0.0392182 0 0.0103195 0 0 0 
node 1 1 1 3
node 2 2 1 1
node 3 2 1 1
node 4 1 0 2
node 10 1 0 0
gene 2 1 4 -0.26612 0 1 -0.26612 1
gene 2 2 4 4.00918 0 2 4.00918 0
gene 1 3 4 -3.8474 0 3 -3.8474 1
gene 2 2 10 0.532164 0 14 0.532164 1
gene 2 10 4 3.49464 0 15 3.49464 1
genomeend 127

/* Organism #128 Fitness: 3.99941 Error: 2.00015 */
genomestart 128
trait 1 0.1 0 0 0 0 0 0 0 
trait 2 0.2 0 0 0 0 0 0 0 
trait 3 0.32798 0.0594175 0.0392182 0 0.0103195 0 0 0 
node 1 1 1 3
node 2 2 1 1
node 3 2 1 1
node 4 1 0 2
node 10 1 0 0
gene 2 1 4 1.51827 0 1 1.51827 1
gene 2 2 4 1.52542 0 2 1.52542 0
gene 1 3 4 -1.871 0 3 -1.871 1
gene 2 2 10 1.04051 0 14 1.04051 1
gene 2 10 4 4.28757 0 15 4.28757 1
genomeend 128

/* Organism #129 Fitness: 1.11492 Error: 2.9441 */
genomestart 129
trait 1 0.1 0 0 0 0 0 0 0 
trait 2 0.2 0 0 0 0 0 0 0 
trait 3 0.32798 0.0594175 0.0392182 0 0.0103195 0 0 0 
node 1 1 1 3
node 2 2 1 1
node 3 2 1 1
node 4 1 0 2
node 10 1 0 0
gene 2 1 4 1.81853 0 1 1.81853 1
gene 2 2 4 4.21667 0 2 4.21667 0
gene 1 3 4 -4.78201 0 3 -4.78201 1
gene 2 2 10 0.588991 0 14 0.588991 1
gene 2 10 4 3.75197 0 15 3.75197 1
genomeend 129

/* Organism #130 Fitness: 4.10185 Error: 1.9747 */
genomestart 130
trait 1 0.1 0 0 0 0 0 0 0 
trait 2 0.2 0 0 0 0 0 0 0 
trait 3 0.32798 0.0594175 0.0392182 0 0.0103195 0 0 0 
node 1 1 1 3
node 2 2 1 1
node 3 2 1 1
node 4 1 0 2
node 10 1 0 0
gene 2 1 4 -0.26612 0 1 -0.26612 1
gene 2 2 4 1.93891 0 2 1.93891 0
gene 1 3 4 -2.74089 0 3 -2.74089 1
gene 2 2 10 1 0 14 0 1
gene 2 10 4 1.93891 0 15 0 1
genomeend 130

/* Organism #131 Fitness: 3.98832 Error: 2.00292 */
genomestart 131
trait 1 0.1 0 0 0 0 0 0 0 
trait 2 0.2 0 0 0 0 0 0 0 
trait 3 0.32798 0.0594175 0.0392182 0 0.0103195 0 0 0 
node 1 1 1 3
node 2 2 1 1
node 3 2 1 1
node 4 1 0 2
node 10 1 0 0
gene 2 1 4 -2.73473 0 1 -2.73473 1
gene 2 2 4 -0.169958 0 2 -0.169958 0
gene 1 3 4 -4.20479 0 3 -4.20479 1
gene 2 2 10 -0.168135 0 14 -0.168135 1
gene 2 10 4 3.12111 0 15 3.12111 1
genomeend 131

/* Organism #132 Fitness: 4.10185 Error: 1.9747 */
genomestart 132
trait 1 0.1 0 0 0 0 0 0 0 
trait 2 0.2 0 0 0 0 0 0 0 
trait 3 0.32798 0.0594175 0.0392182 0 0.0103195 0 0 0 
node 1 1 1 3
node 2 2 1 1
node 3 2 1 1
node 4 1 0 2
node 10 1 0 0
gene 2 1 4 -0.26612 0 1 -0.26612 1
gene 2 2 4 1.93891 0 2 1.93891 0
gene 1 3 4 -2.74089 0 3 -2.74089 1
gene 2 2 10 1 0 14 0 1
gene 2 10 4 1.93891 0 15 0 1
genomeend 132

/* Organism #133 Fitness: 4.10185 Error: 1.9747 */
genomestart 133
trait 1 0.1 0 0 0 0 0 0 0 
trait 2 0.2 0 0 0 0 0 0 0 
trait 3 0.32798 0.0594175 0.0392182 0 0.0103195 0 0 0 
node 1 1 1 3
node 2 2 1 1
node 3 2 1 1
node 4 1 0 2
node 10 1 0 0
gene 2 1 4 -0.26612 0 1 -0.26612 1
gene 2 2 4 1.93891 0 2 1.93891 0
gene 1 3 4 -2.74089 0 3 -2.74089 1
gene 2 2 10 1 0 14 0 1
gene 2 10 4 1.93891 0 15 0 1
genomeend 133

/* Organism #134 Fitness: 5.10132 Error: 1.74139 */
genomestart 134
trait 1 0.1 0 0 0 0 0 0 0 
trait 2 0.2 0 0 0 0 0 0 0 
trait 3 0.32798 0.0594175 0.0392182 0 0.0103195 0 0 0 
node 1 1 1 3
node 2 2 1 1
node 3 2 1 1
node 4 1 0 2
node 10 1 0 0
gene 2 1 4 -1.32141 0 1 -1.32141 1
gene 2 2 4 0.712801 0 2 0.712801 0
gene 1 3 4 -4.66142 0 3 -4.66142 1
gene 2 2 10 1.06604 0 14 1.06604 1
gene 2 10 4 3.07015 0 15 3.07015 1
genomeend 134

/* Organism #135 Fitness: 4.10185 Error: 1.9747 */
genomestart 135
trait 1 0.1 0 0 0 0 0 0 0 
trait 2 0.2 0 0 0 0 0 0 0 
trait 3 0.32798 0.0594175 0.0392182 0 0.0103195 0 0 0 
node 1 1 1 3
node 2 2 1 1
node 3 2 1 1
node 4 1 0 2
node 10 1 0 0
gene 2 1 4 -0.26612 0 1 -0.26612 1
gene 2 2 4 1.93891 0 2 1.93891 0
gene 1 3 4 -2.74089 0 3 -2.74089 1
gene 2 2 10 1 0 14 0 1
gene 2 10 4 1.93891 0 15 0 1
genomeend 135

/* Organism #136 Fitness: 4.10185 Error: 1.9747 */
genomestart 136
trait 1 0.1 0 0 0 0 0 0 0 
trait 2 0.2 0 0 0 0 0 0 0 
trait 3 0.32798 0.0594175 0.0392182 0 0.0103195 0 0 0 
node 1 1 1 3
node 2 2 1 1
node 3 2 1 1
node 4 1 0 2
node 10 1 0 0
gene 2 1 4 -0.26612 0 1 -0.26612 1
gene 2 2 4 1.93891 0 2 1.93891 0
gene 1 3 4 -2.74089 0 3 -2.74089 1
gene 2 2 10 1 0 14 0 1
gene 1 10 4 1.93891 0 15 0 1
genomeend 136

/* Organism #137 Fitness: 7.63954 Error: 1.23603 */
genomestart 137
trait 1 0.1 0 0 0 0 0 0 0 
trait 2 0.2 0 0 0 0 0 0 0 
trait 3 0.32798 0.0594175 0.0392182 0 0.0103195 0 0 0 
node 1 1 1 3
node 2 2 1 1
node 3 2 1 1
node 4 1 0 2
node 10 1 0 0
node 11 1 0 0
gene 2 1 4 -0.26612 0 1 -0.26612 1
gene 2 2 4 1.93891 0 2 1.93891 0
gene 1 3 4 -2.74089 0 3 -2.74089 0
gene 2 2 10 1 0 14 0 1
gene 2 10 4 1.93891 0 15 0 1
gene 1 3 11 1 0 18 0 1
gene 1 11 4 -2.74089 0 19 0 1
genomeend 137

/* Organism #138 Fitness: 4.10185 Error: 1.9747 */
genomestart 138
trait 1 0.1 0 0 0 0 0 0 0 
trait 2 0.2 0 0 0 0 0 0 0 
trait 3 0.32798 0.0594175 0.0392182 0 0.0103195 0 0 0 
node 1 1 1 3
node 2 2 1 1
node 3 2 1 1
node 4 1 0 2
node 10 1 0 0
gene 2 1 4 -0.26612 0 1 -0.26612 1
gene 2 2 4 1.93891 0 2 1.93891 0
gene 1 3 4 -2.74089 0 3 -2.74089 1
gene 2 2 10 1 0 14 0 1
gene 2 10 4 1.93891 0 15 0 1
genomeend 138

/* Organism #139 Fitness: 4.03498 Error: 1.99127 */
genomestart 139
trait 1 0.1 0 0 0 0 0 0 0 
trait 2 0.2 0 0 0 0 0 0 0 
trait 3 0.32798 0.0594175 0.0392182 0 0.0103195 0 0 0 
node 1 1 1 3
node 2 2 1 1
node 3 2 1 1
node 4 1 0 2
node 10 1 0 0
gene 2 1 4 0.634796 0 1 0.634796 1
gene 2 2 4 4.26917 0 2 4.26917 0
gene 1 3 4 -4.406 0 3 -4.406 1
gene 2 2 10 1.63743 0 14 1.63743 1
gene 2 10 4 0.144035 0 15 0.144035 1
genomeend 139

/* Organism #140 Fitness: 3.86928 Error: 2.03295 */
genomestart 140
trait 1 0.1 0 0 0 0 0 0 0 
trait 2 0.2 0 0 0 0 0 0 0 
trait 3 0.32798 0.0594175 0.0392182 0 0.0103195 0 0 0 
node 1 1 1 3
node 2 2 1 1
node 3 2 1 1
node 4 1 0 2
node 10 1 0 0
gene 2 1 4 -1.063 0 1 -1.063 1
gene 2 2 4 4.11563 0 2 4.11563 0
gene 1 3 4 -3.66054 0 3 -3.66054 1
gene 2 2 10 0.915242 0 14 0.915242 1
gene 2 10 4 4.1242 0 15 4.1242 1
genomeend 140

/* Organism #141 Fitness: 3.91519 Error: 2.02132 */
genomestart 141
trait 1 0.1 0 0 0 0 0 0 0 
trait 2 0.2 0 0 0 0 0 0 0 
trait 3 0.32798 0.0594175 0.0392182 0 0.0103195 0 0 0 
node 1 1 1 3
node 2 2 1 1
node 3 2 1 1
node 4 1 0 2
node 10 1 0 0
gene 2 1 4 2.01494 0 1 2.01494 1
gene 2 2 4 1.36098 0 2 1.36098 0
gene 2 3 4 -2.74089 0 3 -2.74089 1
gene 2 2 10 2.1743 0 14 2.1743 1
gene 2 10 4 -1.25906 0 15 -1.25906 1
genomeend 141

/* Organism #142 Fitness: 2.96621 Error: 2.27773 */
genomestart 142
trait 1 0.1 0 0 0 0 0 0 0 
trait 2 0.2 0 0 0 0 0 0 0 
trait 3 0.32798 0.0594175 0.0392182 0 0.0103195 0 0 0 
node 1 1 1 3
node 2 2 1 1
node 3 2 1 1
node 4 1 0 2
node 10 1 0 0
gene 2 1 4 0.661903 0 1 0.661903 1
gene 2 2 4 0.325549 0 2 0.325549 0
gene 1 3 4 -1.42963 0 3 -1.42963 1
gene 2 2 10 3.28606 0 14 3.28606 1
gene 2 10 4 1.91591 0 15 1.91591 1
genomeend 142

/* Organism #143 Fitness: 2.21498 Error: 2.51172 */
genomestart 143
trait 1 0.1 0 0 0 0 0 0 0 
trait 2 0.2 0 0 0 0 0 0 0 
trait 3 0.32798 0.0594175 0.0392182 0 0.0103195 0 0 0 
node 1 1 1 3
node 2 2 1 1
node 3 2 1 1
node 4 1 0 2
node 10 1 0 0
gene 2 1 4 -1.48415 0 1 -1.48415 1
gene 1 2 4 2.14605 0 2 2.14605 0
gene 1 3 4 -5.21249 0 3 -5.21249 1
gene 2 2 10 -0.282855 0 14 -0.282855 1
gene 2 10 4 3.00783 0 15 3.00783 1
genomeend 143

/* Organism #144 Fitness: 3.99996 Error: 2.00001 */
genomestart 144
trait 1 0.1 0 0 0 0 0 0 0 
trait 2 0.2 0 0 0 0 0 0 0 
trait 3 0.32798 0.0594175 0.0392182 0 0.0103195 0 0 0 
node 1 1 1 3
node 2 2 1 1
node 3 2 1 1
node 4 1 0 2
node 10 1 0 0
gene 2 1 4 -2.08264 0 1 -2.08264 1
gene 2 2 4 -0.352151 0 2 -0.352151 0
gene 1 3 4 -4.08946 0 3 -4.08946 1
gene 2 2 10 -0.206101 0 14 -0.206101 1
gene 2 10 4 0.178429 0 15 0.178429 1
genomeend 144

/* Organism #145 Fitness: 4.10185 Error: 1.9747 */
genomestart 145
trait 1 0.1 0 0 0 0 0 0 0 
trait 2 0.2 0 0 0 0 0 0 0 
trait 3 0.32798 0.0594175 0.0392182 0 0.0103195 0 0 0 
node 1 1 1 3
node 2 2 1 1
node 3 2 1 1
node 4 1 0 2
node 10 1 0 0
gene 2 1 4 -0.26612 0 1 -0.26612 1
gene 2 2 4 1.93891 0 2 1.93891 0
gene 1 3 4 -2.74089 0 3 -2.74089 1
gene 2 2 10 1 0 14 0 1
gene 2 10 4 1.93891 0 15 0 1
genomeend 145

/* Organism #146 Fitness: 4.10015 Error: 1.97512 */
genomestart 146
trait 1 0.1 0 0 0 0 0 0 0 
trait 2 0.2 0 0 0 0 0 0 0 
trait 3 0.32798 0.0594175 0.0392182 0 0.0103195 0 0 0 
node 1 1 1 3
node 2 2 1 1
node 3 2 1 1
node 4 1 0 2
node 10 1 0 0
gene 2 1 4 -0.227854 0 1 -0.227854 1
gene 2 2 4 1.56542 0 2 1.56542 0
gene 1 3 4 -4.19556 0 3 -4.19556 1
gene 2 2 10 0.802207 0 14 0.802207 1
gene 2 10 4 1.94124 0 15 1.94124 1
genomeend 146

/* Organism #147 Fitness: 1.59918 Error: 2.73541 */
genomestart 147
trait 1 0.1 0 0 0 0 0 0 0 
trait 2 0.2 0 0 0 0 0 0 0 
trait 3 0.32798 0.0594175 0.0392182 0 0.0103195 0 0 0 
node 1 1 1 3
node 2 2 1 1
node 3 2 1 1
node 4 1 0 2
node 10 1 0 0
gene 2 1 4 -0.26612 0 1 -0.26612 1
gene 2 2 4 1.93891 0 2 1.93891 0
gene 1 3 4 -3.09224 0 3 -3.09224 1
gene 2 2 10 -0.80603 0 14 -0.80603 1
gene 2 10 4 2.18156 0 15 2.18156 1
genomeend 147

/* Organism #148 Fitness: 3.99185 Error: 2.00204 */
genomestart 148
trait 1 0.1 0 0 0 0 0 0 0 
trait 2 0.2 0 0 0 0 0 0 0 
trait 3 0.32798 0.0594175 0.0392182 0 0.0103195 0 0 0 
node 1 1 1 3
node 2 2 1 1
node 3 2 1 1
node 4 1 0 2
node 10 1 0 0
gene 2 1 4 0.423454 0 1 0.423454 1
gene 2 2 4 0.600043 0 2 0.600043 0
gene 1 3 4 -3.31581 0 3 -3.31581 1
gene 2 2 10 1.44422 0 14 1.44422 1
gene 2 10 4 -0.00823613 0 15 -0.00823613 1
genomeend 148

/* Species #5 : (Size 1) (AF 6.43087) (Age 1)  */


/* Organism #149 Fitness: 6.43087 Error: 1.46408 */
genomestart 149
trait 1 0.1 0 0 0 0 0 0 0 
trait 2 0.2 0 0 0 0 0 0 0 
trait 3 0.3 0 0 0 0 0 0 0 
node 1 1 1 3
node 2 2 1 1
node 3 3 1 1
node 4 3 0 2
node 11 1 0 0
gene 1 1 4 -1.16366 0 1 -1.16366 1
gene 2 2 4 -2.92169 0 2 -2.92169 1
gene 1 3 4 2.26074 0 3 2.26074 0
gene 1 3 11 1 0 18 0 1
gene 1 11 4 2.26074 0 19 0 1
genomeend 149
