
/* Species #1 : (Size 13) (AF 7.62166) (Age 16)  */


/* Organism #0 Fitness: 9 Error: 1 */
genomestart 0
trait 1 0.1 0 0 0 0 0 0 0 
trait 2 0.2 0 0 0 0 0 0 0 
trait 3 0.374992 0.234282 0.000612785 0.0341622 0.000161243 0.0149772 0 0.0184595 
node 1 3 1 3
node 2 2 1 1
node 3 3 1 1
node 4 3 0 2
gene 1 1 4 -3.17155 0 1 -3.17155 1
gene 1 2 4 6.71165 0 2 6.71165 1
gene 1 3 4 7.65469 0 3 7.65469 1
genomeend 0

/* Organism #1 Fitness: 8.99995 Error: 1.00001 */
genomestart 1
trait 1 0.1 0 0 0 0 0 0 0 
trait 2 0.2 0 0 0 0 0 0 0 
trait 3 0.374992 0.234282 0.000612785 0.0341622 0.000161243 0.0149772 0 0.0184595 
node 1 3 1 3
node 2 2 1 1
node 3 3 1 1
node 4 3 0 2
gene 1 1 4 -2.38021 0 1 -2.38021 1
gene 1 2 4 5.61643 0 2 5.61643 1
gene 1 3 4 8 0 3 8 1
genomeend 1

/* Organism #2 Fitness: 8.99915 Error: 1.00014 */
genomestart 2
trait 1 0.1 0 0 0 0 0 0 0 
trait 2 0.2 0 0 0 0 0 0 0 
trait 3 0.374992 0.234282 0.000612785 0.0341622 0.000161243 0.0149772 0 0.0184595 
node 1 3 1 3
node 2 2 1 1
node 3 3 1 1
node 4 3 0 2
gene 1 1 4 -3.63789 0 1 -3.63789 1
gene 1 2 4 5.4371 0 2 5.4371 1
gene 1 3 4 7.31479 0 3 7.31479 1
genomeend 2

/* Organism #3 Fitness: 8.99486 Error: 1.00086 */
genomestart 3
trait 1 0.1 0 0 0 0 0 0 0 
trait 2 0.2 0 0 0 0 0 0 0 
trait 3 0.374992 0.234282 0.000612785 0.0341622 0.000161243 0.0149772 0 0.0184595 
node 1 3 1 3
node 2 2 1 1
node 3 3 1 1
node 4 3 0 2
gene 1 1 4 -3.81995 0 1 -3.81995 1
gene 1 2 4 5.67163 0 2 5.67163 1
gene 1 3 4 5.28165 0 3 5.28165 1
genomeend 3

/* Organism #4 Fitness: 9 Error: 1 */
genomestart 4
trait 1 0.1 0 0 0 0 0 0 0 
trait 2 0.2 0 0 0 0 0 0 0 
trait 3 0.374992 0.234282 0.000612785 0.0341622 0.000161243 0.0149772 0 0.0184595 
node 1 3 1 3
node 2 2 1 1
node 3 3 1 1
node 4 3 0 2
gene 1 1 4 -3.17155 0 1 -3.17155 1
gene 1 2 4 6.71165 0 2 6.71165 1
gene 1 3 4 7.65469 0 3 7.65469 1
genomeend 4

/* Organism #5 Fitness: 8.92905 Error: 1.01185 */
genomestart 5
trait 1 0.1 0 0 0 0 0 0 0 
trait 2 0.2 0 0 0 0 0 0 0 
trait 3 1 0.234282 0.000612785 0.0341622 0.000161243 0.392624 0 0.0184595 
node 1 3 1 3
node 2 2 1 1
node 3 3 1 1
node 4 3 0 2
gene 1 1 4 -1.19389 0 1 -1.19389 1
gene 1 2 4 8 0 2 8 1
gene 1 3 4 2.14731 0 3 2.14731 1
genomeend 5

/* Organism #6 Fitness: 1.21351 Error: 2.89841 */
genomestart 6
trait 1 0.1 0 0 0 0 0 0 0 
trait 2 0.2 0 0 0 0 0 0 0 
trait 3 0.374992 0.234282 0.000612785 0.0341622 0.000161243 0.0149772 0 0.0184595 
node 1 3 1 3
node 2 3 1 1
node 3 3 1 1
node 4 3 0 2
gene 3 1 4 -2.79675 0 1 -2.79675 1
gene 1 2 4 2.18919 0 2 2.18919 1
gene 1 3 4 1.1913 0 3 1.1913 1
genomeend 6

/* Organism #7 Fitness: 4 Error: 2 */
genomestart 7
trait 1 0.1 0 0 0 0 0 0 0 
trait 2 0.2 0 0 0 0 0 0 0 
trait 3 0.374992 0.234282 0.000612785 0.0341622 0.000161243 0.0149772 0 0.0184595 
node 1 3 1 3
node 2 2 1 1
node 3 3 1 1
node 4 3 0 2
gene 1 1 4 -3.46895 0 1 -3.46895 1
gene 1 2 4 -1.6313 0 2 -1.6313 1
gene 1 3 4 8 0 3 8 1
genomeend 7

/* Organism #8 Fitness: 8.97659 Error: 1.0039 */
genomestart 8
trait 1 0.1 0 0 0 0 0 0 0 
trait 2 0.2 0 0 0 0 0 0 0 
trait 3 0.374992 0.234282 0.000612785 0.0341622 0.000161243 0.0149772 0 0.0184595 
node 1 3 1 3
node 2 2 1 1
node 3 3 1 1
node 4 3 0 2
gene 1 1 4 -1.12539 0 1 -1.12539 1
gene 1 2 4 8 0 2 8 1
gene 1 3 4 8 0 3 8 1
genomeend 8

/* Organism #9 Fitness: 8.99983 Error: 1.00003 */
genomestart 9
trait 1 0.1 0 0 0 0 0 0 0 
trait 2 0.2 0 0 0 0 0 0 0 
trait 3 0.374992 0.234282 0.000612785 0.0341622 0.000161243 0.0149772 0 0.0184595 
node 1 3 1 3
node 2 2 1 1
node 3 3 1 1
node 4 3 0 2
gene 1 1 4 -2.12343 0 1 -2.12343 1
gene 1 2 4 6.63164 0 2 6.63164 1
gene 1 3 4 8 0 3 8 1
genomeend 9

/* Organism #10 Fitness: 9 Error: 1 */
genomestart 10
trait 1 0.1 0 0 0 0 0 0 0 
trait 2 0.2 0 0 0 0 0 0 0 
trait 3 0.374992 0.234282 0.000612785 0.0341622 0.000161243 0.0149772 0 0.0184595 
node 1 3 1 3
node 2 2 1 1
node 3 3 1 1
node 4 3 0 2
gene 1 1 4 -3.17155 0 1 -3.17155 1
gene 1 2 4 6.71165 0 2 6.71165 1
gene 1 3 4 7.65469 0 3 7.65469 1
genomeend 10

/* Organism #11 Fitness: 8.98781 Error: 1.00203 */
genomestart 11
trait 1 0.1 0 0 0 0 0 0 0 
trait 2 0.2 0 0 0 0 0 0 0 
trait 3 0.374992 0.234282 0.000612785 0.0341622 0.000161243 0.0149772 0 0.0184595 
node 1 3 1 3
node 2 2 1 1
node 3 3 1 1
node 4 3 0 2
gene 1 1 4 -1.25843 0 1 -1.25843 1
gene 1 2 4 8 0 2 8 1
gene 1 3 4 8 0 3 8 1
genomeend 11

/* Organism #12 Fitness: 3.9809 Error: 2.00478 */
genomestart 12
trait 1 0.1 0 0 0 0 0 0 0 
trait 2 0.2 0 0 0 0 0 0 0 
trait 3 0.374992 0.234282 0.000612785 0.0341622 0.000161243 0.0149772 0 0.0184595 
node 1 3 1 3
node 2 2 1 1
node 3 3 1 1
node 4 3 0 2
gene 1 1 4 -1.08141 0 1 -1.08141 1
gene 1 2 4 6.14728 0 2 6.14728 1
gene 1 3 4 -0.88152 0 3 -0.88152 1
genomeend 12

/* Species #2 : (Size 8) (AF 7.54919) (Age 14)  */


/* Organism #13 Fitness: 8.8448 Error: 1.02598 */
genomestart 13
trait 1 0.1 0 0 0 0 0 0 0 
trait 2 0.2 0 0 0 0 0 0.394889 0.337953 
trait 3 0.3 0 0 0 0 0 0 0 
node 1 2 1 3
node 2 3 1 1
node 3 2 1 1
node 4 1 0 2
node 7 2 0 0
node 12 1 0 0
gene 1 1 4 -2.36207 0 1 -2.36207 1
gene 1 2 4 2.39331 0 2 2.39331 0
gene 1 3 4 1.14183 0 3 1.14183 0
gene 1 2 7 2.8784 0 8 2.8784 1
gene 1 7 4 3.50632 0 9 3.50632 1
gene 2 3 7 1.03464 0 20 1.03464 1
gene 1 3 12 3.4934 0 23 3.4934 1
gene 1 12 4 -0.370781 0 24 -0.370781 1
gene 1 7 12 -1.16843 0 46 -1.16843 1
gene 3 1 12 0.582093 0 69 0.582093 1
genomeend 13

/* Organism #14 Fitness: 8.85274 Error: 1.02464 */
genomestart 14
trait 1 0 0 0.334228 0 0.0778516 0 0 0.415754 
trait 2 0.2 0 0 0 0 0 0.345528 0.295709 
trait 3 0.3 0 0 0 0 0 0 0 
node 1 2 1 3
node 2 3 1 1
node 3 2 1 1
node 4 1 0 2
node 7 2 0 0
node 12 1 0 0
gene 1 1 4 -2.36207 0 1 -2.36207 1
gene 1 2 4 2.39331 0 2 2.39331 0
gene 1 3 4 -0.74815 0 3 -0.74815 0
gene 1 2 7 2.8784 0 8 2.8784 1
gene 1 7 4 3.50632 0 9 3.50632 1
gene 2 3 7 1.43289 0 20 1.43289 1
gene 1 3 12 3.4934 0 23 3.4934 1
gene 3 12 4 -0.370781 0 24 -0.370781 1
gene 1 7 12 -0.328592 0 46 -0.328592 1
gene 3 1 12 0.582093 0 69 0.582093 1
genomeend 14

/* Organism #15 Fitness: 8.05995 Error: 1.16099 */
genomestart 15
trait 1 0.41734 0 0.334228 0 0.0778516 0 0.104357 0.415754 
trait 2 0.2 0 0 0 0 0 0.345528 0.295709 
trait 3 0.3 0 0 0 0 0 0 0 
node 1 2 1 3
node 2 3 1 1
node 3 2 1 1
node 4 1 0 2
node 7 2 0 0
node 12 1 0 0
gene 1 1 4 -3.72482 0 1 -3.72482 1
gene 1 2 4 1.10936 0 2 1.10936 0
gene 1 3 4 1.7234 0 3 1.7234 0
gene 1 2 7 0.971078 0 8 0.971078 1
gene 1 7 4 4.68233 0 9 4.68233 1
gene 2 3 7 3.36021 0 20 3.36021 1
gene 1 3 12 4.43665 0 23 4.43665 1
gene 3 12 4 1.08974 0 24 1.08974 1
gene 1 7 12 0.148078 0 46 0.148078 1
gene 3 1 12 0.582093 0 69 0.582093 1
genomeend 15

/* Organism #16 Fitness: 8.8448 Error: 1.02598 */
genomestart 16
trait 1 0.41734 0 0.334228 0 0.0778516 0 0.104357 0.415754 
trait 2 0.2 0 0 0 0 0 0.345528 0.295709 
trait 3 0.3 0 0 0 0 0 0 0 
node 1 2 1 3
node 2 3 1 1
node 3 2 1 1
node 4 1 0 2
node 7 2 0 0
node 12 1 0 0
gene 1 1 4 -2.36207 0 1 -2.36207 1
gene 1 2 4 2.39331 0 2 2.39331 0
gene 1 3 4 -0.74815 0 3 -0.74815 0
gene 1 2 7 2.8784 0 8 2.8784 1
gene 1 7 4 3.50632 0 9 3.50632 1
gene 2 3 7 1.03464 0 20 1.03464 1
gene 1 3 12 3.4934 0 23 3.4934 1
gene 3 12 4 -0.370781 0 24 -0.370781 1
gene 1 7 12 -1.16843 0 46 -1.16843 1
gene 3 1 12 0.582093 0 69 0.582093 1
genomeend 16

/* Organism #17 Fitness: 8.88377 Error: 1.01943 */
genomestart 17
trait 1 0.41734 0 0.334228 0 0.0778516 0 0.104357 0.415754 
trait 2 0.2 0 0 0 0 0 0.345528 0.295709 
trait 3 0.3 0 0 0 0 0 0 0 
node 1 2 1 3
node 2 3 1 1
node 3 2 1 1
node 4 1 0 2
node 7 2 0 0
node 12 1 0 0
gene 1 1 4 -2.36207 0 1 -2.36207 1
gene 1 2 4 2.29044 0 2 2.29044 0
gene 1 3 4 0.19684 0 3 0.19684 1
gene 1 2 7 1.5854 0 8 1.5854 1
gene 1 7 4 3.50632 0 9 3.50632 1
gene 2 3 7 1.23377 0 20 1.23377 1
gene 1 3 12 3.4934 0 23 3.4934 1
gene 3 12 4 -0.370781 0 24 -0.370781 1
gene 1 7 12 -0.748513 0 46 -0.748513 1
gene 3 1 12 0.582093 0 69 0.582093 1
genomeend 17

/* Organism #18 Fitness: 4.00032 Error: 1.99992 */
genomestart 18
trait 1 0.1 0 0 0 0 0 0 0 
trait 2 0.2 0 0 0 0 0 0.394889 0.337953 
trait 3 0.3 0 0 0 0 0 0 0 
node 1 2 1 3
node 2 3 1 1
node 3 2 1 1
node 4 1 0 2
node 7 2 0 0
node 12 1 0 0
gene 1 1 4 -0.944021 0 1 -0.944021 1
gene 1 2 4 3.64782 0 2 3.64782 0
gene 1 3 4 -0.266263 0 3 -0.266263 0
gene 1 2 7 4.49979 0 8 4.49979 1
gene 1 7 4 3.50632 0 9 3.50632 1
gene 2 3 7 1.55265 0 20 1.55265 1
gene 1 3 12 5.00072 0 23 5.00072 1
gene 1 12 4 1.54938 0 24 1.54938 1
gene 1 7 12 -2.27403 0 46 -2.27403 1
gene 3 1 12 1.31994 0 69 1.31994 1
genomeend 18

/* Organism #19 Fitness: 8.87185 Error: 1.02144 */
genomestart 19
trait 1 0.1 0 0 0 0 0 0 0 
trait 2 0.2 0 0 0 0 0 0.394889 0.337953 
trait 3 0.3 0 0 0 0 0 0 0 
node 1 2 1 3
node 2 3 1 1
node 3 2 1 1
node 4 1 0 2
node 7 2 0 0
node 12 1 0 0
node 40 1 0 0
gene 1 1 4 -2.36207 0 1 -2.36207 1
gene 1 2 4 2.39331 0 2 2.39331 0
gene 1 3 4 1.14183 0 3 1.14183 0
gene 1 2 7 2.8784 0 8 2.8784 1
gene 1 7 4 3.50632 0 9 3.50632 1
gene 2 3 7 1.03464 0 20 1.03464 1
gene 1 3 12 3.4934 0 23 3.4934 1
gene 1 12 4 -0.370781 0 24 -0.370781 0
gene 1 7 12 -1.16843 0 46 -1.16843 1
gene 3 1 12 0.582093 0 69 0.582093 1
gene 1 12 40 1 0 131 0 1
gene 1 40 4 -0.370781 0 132 0 1
genomeend 19

/* Organism #20 Fitness: 4.03527 Error: 1.9912 */
genomestart 20
trait 1 0.41734 0 0.334228 0 0.0778516 0 0.104357 0.415754 
trait 2 0.2 0 0 0 0 0 0.320847 0.274587 
trait 3 0.3 0 0 0 0 0 0 0 
node 1 2 1 3
node 2 3 1 1
node 3 2 1 1
node 4 1 0 2
node 7 1 0 0
node 12 1 0 0
gene 1 1 4 -1.62204 0 1 -1.62204 1
gene 1 2 4 1.50216 0 2 1.50216 0
gene 1 3 4 -0.948214 0 3 -0.948214 0
gene 1 2 7 1.62627 0 8 1.62627 1
gene 1 7 4 4.81055 0 9 4.81055 1
gene 2 3 7 0.330794 0 20 0.330794 1
gene 1 3 12 3.3468 0 23 3.3468 1
gene 3 12 4 1.25133 0 24 1.25133 1
gene 1 7 12 3.48474 0 46 3.48474 1
gene 3 1 12 -2.10972 0 69 -2.10972 1
genomeend 20

/* Species #3 : (Size 9) (AF 6.34482) (Age 13)  */


/* Organism #21 Fitness: 8.85724 Error: 1.02389 */
genomestart 21
trait 1 0.1 0 0 0 0 0 0 0 
trait 2 0.2 0 0 0 0 0 0 0 
trait 3 0.597004 0.339956 0.00244225 0.914464 0 0 0 0 
node 1 1 1 3
node 2 1 1 1
node 3 1 1 1
node 4 2 0 2
node 9 1 0 0
gene 1 1 4 0.660329 0 1 0.660329 1
gene 2 2 4 2.90714 0 2 2.90714 1
gene 1 3 4 1.17046 0 3 1.17046 1
gene 3 3 9 -0.819751 0 12 -0.819751 1
gene 1 9 4 -2.83069 0 13 -2.83069 1
genomeend 21

/* Organism #22 Fitness: 7.00533 Error: 1.35324 */
genomestart 22
trait 1 0.1 0 0 0 0 0 0 0 
trait 2 0.2 0 0 0 0 0 0 0 
trait 3 0.597004 0.339956 0.00244225 0.914464 0 0 0 0 
node 1 1 1 3
node 2 1 1 1
node 3 1 1 1
node 4 2 0 2
node 9 1 0 0
gene 1 1 4 0.259407 0 1 0.259407 1
gene 2 2 4 3.14383 0 2 3.14383 1
gene 1 3 4 -1.85111 0 3 -1.85111 0
gene 3 3 9 -0.615423 0 12 -0.615423 1
gene 1 9 4 -2.9101 0 13 -2.9101 1
genomeend 22

/* Organism #23 Fitness: 4.19084 Error: 1.95285 */
genomestart 23
trait 1 0.1 0 0 0 0 0 0 0 
trait 2 0.2 0 0 0 0 0 0 0 
trait 3 0.597004 0.339956 0.00244225 0.914464 0 0 0 0 
node 1 1 1 3
node 2 1 1 1
node 3 1 1 1
node 4 2 0 2
node 9 1 0 0
gene 1 1 4 0.259407 0 1 0.259407 1
gene 2 2 4 3.14383 0 2 3.14383 1
gene 1 3 4 -1.85111 0 3 -1.85111 1
gene 3 3 9 -0.615423 0 12 -0.615423 1
gene 1 9 4 -2.9101 0 13 -2.9101 1
gene 2 1 9 0.496383 0 133 0.496383 1
genomeend 23

/* Organism #24 Fitness: 8.91247 Error: 1.01462 */
genomestart 24
trait 1 0.1 0 0 0 0 0 0 0 
trait 2 0.2 0 0 0 0 0 0 0 
trait 3 0.597004 0.339956 0.00244225 0.914464 0 0 0 0 
node 1 1 1 3
node 2 1 1 1
node 3 1 1 1
node 4 2 0 2
node 9 1 0 0
gene 1 1 4 0.998004 0 1 0.998004 1
gene 2 2 4 2.53147 0 2 2.53147 1
gene 1 3 4 0.0918044 0 3 0.0918044 0
gene 3 3 9 -1.27187 0 12 -1.27187 1
gene 1 9 4 -4.04083 0 13 -4.04083 1
genomeend 24

/* Organism #25 Fitness: 7.00533 Error: 1.35324 */
genomestart 25
trait 1 0.1 0 0 0 0 0 0 0 
trait 2 0.2 0 0 0 0 0 0 0 
trait 3 0.597004 0.339956 0.00244225 0.914464 0 0 0 0 
node 1 1 1 3
node 2 1 1 1
node 3 1 1 1
node 4 2 0 2
node 9 1 0 0
gene 1 1 4 0.259407 0 1 0.259407 1
gene 2 2 4 3.14383 0 2 3.14383 1
gene 1 3 4 -1.85111 0 3 -1.85111 0
gene 3 3 9 -0.615423 0 12 -0.615423 1
gene 1 9 4 -2.9101 0 13 -2.9101 1
genomeend 25

/* Organism #26 Fitness: 4.13061 Error: 1.96761 */
genomestart 26
trait 1 0.1 0 0 0 0 0 0 0 
trait 2 0.2 0 0 0 0 0 0 0 
trait 3 0.597004 0.339956 0.00244225 0.914464 0 0 0 0 
node 1 1 1 3
node 2 1 1 1
node 3 1 1 1
node 4 2 0 2
node 9 1 0 0
gene 1 1 4 -1.70628 0 1 -1.70628 1
gene 2 2 4 4.42028 0 2 4.42028 1
gene 1 3 4 1.02723 0 3 1.02723 1
gene 3 3 9 -2.81691 0 12 -2.81691 1
gene 1 9 4 -2.84021 0 13 -2.84021 1
genomeend 26

/* Organism #27 Fitness: 4.00505 Error: 1.99874 */
genomestart 27
trait 1 0.1 0 0 0 0 0 0 0 
trait 2 0.2 0 0 0 0 0 0 0 
trait 3 0.597004 0.339956 0.00244225 0.914464 0 0 0 0 
node 1 1 1 3
node 2 1 1 1
node 3 1 1 1
node 4 2 0 2
node 9 1 0 0
gene 1 1 4 0.993115 0 1 0.993115 1
gene 2 2 4 2.36158 0 2 2.36158 1
gene 1 3 4 0.159996 0 3 0.159996 1
gene 3 3 9 0.383548 0 12 0.383548 1
gene 1 9 4 -0.396629 0 13 -0.396629 1
genomeend 27

/* Organism #28 Fitness: 8.98799 Error: 1.002 */
genomestart 28
trait 1 0.1 0 0 0 0 0 0 0 
trait 2 0.2 0 0 0 0 0 0 0 
trait 3 0.597004 0.339956 0.00244225 0.914464 0 0 0 0 
node 1 1 1 3
node 2 1 1 1
node 3 1 1 1
node 4 2 0 2
node 9 1 0 0
gene 1 1 4 -0.980217 0 1 -0.980217 1
gene 2 2 4 5.1054 0 2 5.1054 1
gene 1 3 4 2.24313 0 3 2.24313 1
gene 3 3 9 -2.59332 0 12 -2.59332 1
gene 1 9 4 -3.68789 0 13 -3.68789 1
genomeend 28

/* Organism #29 Fitness: 4.00852 Error: 1.99787 */
genomestart 29
trait 1 0.1 0 0 0 0 0 0 0 
trait 2 0.2 0 0 0 0 0 0 0 
trait 3 0.597004 0.339956 0.00244225 0.914464 0 0 0 0 
node 1 1 1 3
node 2 1 1 1
node 3 1 1 1
node 4 2 0 2
node 9 1 0 0
gene 1 1 4 1.84813 0 1 1.84813 1
gene 2 2 4 1.05519 0 2 1.05519 1
gene 1 3 4 0.164186 0 3 0.164186 1
gene 3 3 9 -0.932302 0 12 -0.932302 1
gene 1 9 4 -1.21039 0 13 -1.21039 1
genomeend 29

/* Species #4 : (Size 11) (AF 7.66097) (Age 13)  */


/* Organism #30 Fitness: 8.99946 Error: 1.00009 */
genomestart 30
trait 1 0.444058 0 0.165489 0 0 0 0.220504 0.470088 
trait 2 0.2 0 0 0 0 0 0 0 
trait 3 0.32798 0.0148544 0.696143 0 0.00257989 0 0.632938 0 
node 1 1 1 3
node 2 2 1 1
node 3 2 1 1
node 4 1 0 2
node 10 1 0 0
node 11 1 0 0
gene 2 1 4 -1.93374 0 1 -1.93374 1
gene 2 2 4 4.28423 0 2 4.28423 1
gene 1 3 4 -6.52536 0 3 -6.52536 1
gene 2 2 10 3.40517 0 14 3.40517 1
gene 2 10 4 0.0716397 0 15 0.0716397 1
gene 1 3 11 0.336724 0 18 0.336724 1
gene 1 11 4 -1.03157 0 19 -1.03157 1
genomeend 30

/* Organism #31 Fitness: 4 Error: 2 */
genomestart 31
trait 1 0.444058 0 0.165489 0 0 0 0.220504 0.470088 
trait 2 0.2 0 0 0 0 0 0 0 
trait 3 0.32798 0.0148544 0.696143 0 0.00257989 0 0.632938 0 
node 1 1 1 3
node 2 2 1 1
node 3 2 1 1
node 4 1 0 2
node 10 1 0 0
node 11 1 0 0
gene 2 1 4 -3.34069 0 1 -3.34069 1
gene 2 2 4 -1.09079 0 2 -1.09079 1
gene 1 3 4 0.211085 0 3 0.211085 1
gene 2 2 10 1.21419 0 14 1.21419 1
gene 2 10 4 -0.316057 0 15 -0.316057 1
gene 1 3 11 0.336724 0 18 0.336724 1
gene 1 11 4 -2.32084 0 19 -2.32084 1
genomeend 31

/* Organism #32 Fitness: 4.14138 Error: 1.96496 */
genomestart 32
trait 1 0.272029 0.04601 0.165489 0 0 0 0.309471 0.470088 
trait 2 0.2 0 0 0 0 0 0 0 
trait 3 0.32798 0.0148544 0.696143 0 0.00257989 0 0.632938 0 
node 1 1 1 3
node 2 2 1 1
node 3 2 1 1
node 4 1 0 2
node 10 1 0 0
node 11 1 0 0
gene 2 1 4 1.25634 0 1 1.25634 1
gene 2 2 4 3.54685 0 2 3.54685 1
gene 1 3 4 -6.44088 0 3 -6.44088 1
gene 2 2 10 1.87843 0 14 1.87843 1
gene 2 10 4 2.8503 0 15 2.8503 1
gene 1 3 11 1.20357 0 18 1.20357 1
gene 1 11 4 -4.01634 0 19 -4.01634 1
genomeend 32

/* Organism #33 Fitness: 8.99984 Error: 1.00003 */
genomestart 33
trait 1 0.358043 0.023005 0.165489 0 0 0 0.264988 0.470088 
trait 2 0.2 0 0 0 0 0 0 0 
trait 3 0.32798 0.0148544 0.696143 0 0.00257989 0 0.632938 0 
node 1 1 1 3
node 2 2 1 1
node 3 2 1 1
node 4 1 0 2
node 10 1 0 0
node 11 1 0 0
gene 2 1 4 -0.719848 0 1 -0.719848 1
gene 2 2 4 5.26796 0 2 5.26796 1
gene 2 3 4 -7.77014 0 3 -7.77014 1
gene 2 2 10 3.71848 0 14 3.71848 1
gene 2 10 4 1.69737 0 15 1.69737 1
gene 1 3 11 1.76818 0 18 1.76818 1
gene 1 11 4 -4.52283 0 19 -4.52283 1
genomeend 33

/* Organism #34 Fitness: 4.14745 Error: 1.96347 */
genomestart 34
trait 1 0.444058 0 0.165489 0 0 0 0.220504 0.470088 
trait 2 0.2 0 0 0 0 0 0 0 
trait 3 0.32798 0.0148544 0.696143 0 0.00257989 0 0.632938 0 
node 1 1 1 3
node 2 2 1 1
node 3 2 1 1
node 4 1 0 2
node 10 1 0 0
node 11 1 0 0
gene 2 1 4 -2.56875 0 1 -2.56875 1
gene 2 2 4 2.6909 0 2 2.6909 1
gene 1 3 4 -7.10937 0 3 -7.10937 1
gene 3 2 10 4.86917 0 14 4.86917 1
gene 2 10 4 -0.215039 0 15 -0.215039 1
gene 1 3 11 0.775971 0 18 0.775971 1
gene 1 11 4 -1.1433 0 19 -1.1433 1
genomeend 34

/* Organism #35 Fitness: 8.9992 Error: 1.00013 */
genomestart 35
trait 1 0.444058 0 0.165489 0 0 0 0.220504 0.470088 
trait 2 0.2 0 0 0 0 0 0 0 
trait 3 0.32798 0.0148544 0.696143 0 0.00257989 0 0.632938 0 
node 1 1 1 3
node 2 2 1 1
node 3 2 1 1
node 4 1 0 2
node 10 1 0 0
node 11 1 0 0
gene 2 1 4 -1.18568 0 1 -1.18568 1
gene 2 2 4 5.72558 0 2 5.72558 1
gene 1 3 4 -8 0 3 -8 1
gene 2 2 10 1.89441 0 14 1.89441 1
gene 2 10 4 -1.48774 0 15 -1.48774 1
gene 1 3 11 -0.648112 0 18 -0.648112 1
gene 1 11 4 -2.47985 0 19 -2.47985 1
genomeend 35

/* Organism #36 Fitness: 8.99864 Error: 1.00023 */
genomestart 36
trait 1 0.358043 0.023005 0.165489 0 0 0 0.264988 0.470088 
trait 2 0.2 0 0 0 0 0 0 0 
trait 3 0.32798 0.0148544 0.696143 0 0.00257989 0 0.632938 0 
node 1 1 1 3
node 2 2 1 1
node 3 2 1 1
node 4 1 0 2
node 10 1 0 0
node 11 1 0 0
gene 2 1 4 -1.55081 0 1 -1.55081 1
gene 2 2 4 3.68233 0 2 3.68233 1
gene 1 3 4 -6.20534 0 3 -6.20534 1
gene 2 2 10 3.08876 0 14 3.08876 1
gene 2 10 4 0.633084 0 15 0.633084 1
gene 1 3 11 0.270304 0 18 0.270304 1
gene 1 11 4 -2.09532 0 19 -2.09532 1
genomeend 36

/* Organism #37 Fitness: 8.99996 Error: 1.00001 */
genomestart 37
trait 1 0.444058 0 0.165489 0 0 0 0.220504 0.470088 
trait 2 0.2 0 0 0 0 0 0 0 
trait 3 0 0 0.696143 0 0.767078 0 0 0 
node 1 1 1 3
node 2 2 1 1
node 3 2 1 1
node 4 1 0 2
node 10 1 0 0
node 11 1 0 0
gene 2 1 4 -2.39362 0 1 -2.39362 1
gene 2 2 4 6.28837 0 2 6.28837 1
gene 1 3 4 -6.8184 0 3 -6.8184 1
gene 2 2 10 2.80894 0 14 2.80894 1
gene 2 10 4 0.49594 0 15 0.49594 1
gene 1 3 11 1.01858 0 18 1.01858 1
gene 1 11 4 -3.88875 0 19 -3.88875 1
genomeend 37

/* Organism #38 Fitness: 8.99694 Error: 1.00051 */
genomestart 38
trait 1 0.272029 0.04601 0.165489 0 0 0 0.309471 0.470088 
trait 2 0.2 0 0 0 0 0 0 0 
trait 3 0.32798 0.0148544 0.696143 0 0.00257989 0 0.632938 0 
node 1 1 1 3
node 2 2 1 1
node 3 2 1 1
node 4 1 0 2
node 10 1 0 0
node 11 1 0 0
gene 2 1 4 -0.0753203 0 1 -0.0753203 1
gene 2 2 4 4.28819 0 2 4.28819 1
gene 1 3 4 -7.1767 0 3 -7.1767 1
gene 2 2 10 1.41149 0 14 1.41149 1
gene 2 10 4 2.11372 0 15 2.11372 1
gene 1 3 11 0.754798 0 18 0.754798 1
gene 1 11 4 -5.04254 0 19 -5.04254 1
genomeend 38

/* Organism #39 Fitness: 8.99017 Error: 1.00164 */
genomestart 39
trait 1 0.358043 0.023005 0.165489 0 0 0 0.264988 0.470088 
trait 2 0.2 0 0 0 0 0 0 0 
trait 3 0.32798 0.0148544 0.696143 0 0.00257989 0 0.632938 0 
node 1 1 1 3
node 2 2 1 1
node 3 2 1 1
node 4 1 0 2
node 10 1 0 0
node 11 1 0 0
gene 2 1 4 1.39879 0 1 1.39879 1
gene 2 2 4 3.0295 0 2 3.0295 1
gene 1 3 4 -8 0 3 -8 1
gene 2 2 10 1.94186 0 14 1.94186 1
gene 2 10 4 1.18532 0 15 1.18532 1
gene 1 3 11 1.91462 0 18 1.91462 1
gene 1 11 4 -6.58978 0 19 -6.58978 1
genomeend 39

/* Organism #40 Fitness: 8.99765 Error: 1.00039 */
genomestart 40
trait 1 0.272029 0.04601 0.165489 0 0 0 0.309471 0.470088 
trait 2 0.2 0 0 0 0 0 0 0 
trait 3 0.349724 0 0.696143 0 0.00257989 0 1 0 
node 1 1 1 3
node 2 2 1 1
node 3 2 1 1
node 4 1 0 2
node 10 1 0 0
node 11 1 0 0
gene 2 1 4 -1.79966 0 1 -1.79966 1
gene 2 2 4 2.14237 0 2 2.14237 1
gene 1 3 4 -4.04336 0 3 -4.04336 1
gene 2 2 10 3.08662 0 14 3.08662 1
gene 2 10 4 3.59672 0 15 3.59672 1
gene 1 3 11 1.94258 0 18 1.94258 1
gene 1 11 4 -4.68292 0 19 -4.68292 1
genomeend 40

/* Species #5 : (Size 11) (AF 6.48654) (Age 12)  */


/* Organism #41 Fitness: 8.99998 Error: 1 */
genomestart 41
trait 1 0.1 0 0 0 0 0 0 0 
trait 2 0.2 0 0 0 0 0 0 0 
trait 3 0.3 0 0 0 0 0 0 0 
node 1 1 1 3
node 2 2 1 1
node 3 3 1 1
node 4 3 0 2
node 11 1 0 0
gene 1 1 4 -3.74178 0 1 -3.74178 1
gene 2 2 4 -5.46928 0 2 -5.46928 1
gene 1 3 4 4.31118 0 3 4.31118 1
gene 1 3 11 2.16561 0 18 2.16561 1
gene 1 11 4 2.12767 0 19 2.12767 1
gene 3 2 11 1.63984 0 61 1.63984 1
gene 3 1 11 -1.34737 0 76 -1.34737 1
genomeend 41

/* Organism #42 Fitness: 1.002 Error: 2.999 */
genomestart 42
trait 1 0.1 0 0 0 0 0 0 0 
trait 2 0.2 0 0 0 0 0 0 0 
trait 3 0.3 0 0 0 0 0 0 0 
node 1 2 1 3
node 2 2 1 1
node 3 3 1 1
node 4 3 0 2
node 11 1 0 0
gene 1 1 4 -4.39088 0 1 -4.39088 1
gene 2 2 4 2.28568 0 2 2.28568 1
gene 1 3 4 2.57406 0 3 2.57406 1
gene 1 3 11 3.19217 0 18 3.19217 1
gene 1 11 4 5.75188 0 19 5.75188 1
gene 3 2 11 1.0765 0 61 1.0765 1
gene 3 1 11 -3.71491 0 76 -3.71491 1
genomeend 42

/* Organism #43 Fitness: 8.98907 Error: 1.00182 */
genomestart 43
trait 1 0.1 0 0 0 0 0 0 0 
trait 2 0.2 0 0 0 0 0 0 0 
trait 3 0.3 0 0 0 0 0 0 0 
node 1 2 1 3
node 2 2 1 1
node 3 3 1 1
node 4 3 0 2
node 11 1 0 0
gene 1 1 4 -5.87289 0 1 -5.87289 1
gene 2 2 4 -6.99462 0 2 -6.99462 1
gene 1 3 4 3.21776 0 3 3.21776 1
gene 3 3 11 3.73806 0 18 3.73806 1
gene 1 11 4 4.33146 0 19 4.33146 1
gene 3 2 11 3.69172 0 61 3.69172 1
gene 3 1 11 -3.27157 0 76 -3.27157 1
genomeend 43

/* Organism #44 Fitness: 4.00033 Error: 1.99992 */
genomestart 44
trait 1 0.1 0 0 0 0 0 0 0 
trait 2 0.2 0 0 0 0 0 0 0 
trait 3 0.3 0 0 0 0 0 0 0 
node 1 1 1 3
node 2 2 1 1
node 3 3 1 1
node 4 3 0 2
node 11 1 0 0
gene 1 1 4 -7.62676 0 1 -7.62676 1
gene 2 2 4 -8 0 2 -8 1
gene 1 3 4 5.71606 0 3 5.71606 1
gene 1 3 11 2.10972 0 18 2.10972 1
gene 1 11 4 4.41516 0 19 4.41516 1
gene 3 2 11 4.11259 0 61 4.11259 1
gene 3 1 11 -3.6551 0 76 -3.6551 1
genomeend 44

/* Organism #45 Fitness: 4.05799 Error: 1.98555 */
genomestart 45
trait 1 0.1 0 0 0 0 0 0 0 
trait 2 0.2 0 0 0 0 0 0 0 
trait 3 0.3 0 0 0 0 0 0 0 
node 1 2 1 3
node 2 2 1 1
node 3 3 1 1
node 4 3 0 2
node 11 1 0 0
gene 1 1 4 -2.7458 0 1 -2.7458 1
gene 2 2 4 -2.47798 0 2 -2.47798 1
gene 1 3 4 1.35972 0 3 1.35972 1
gene 1 3 11 2.29917 0 18 2.29917 1
gene 1 11 4 4.85236 0 19 4.85236 1
gene 3 2 11 2.50107 0 61 2.50107 1
gene 3 1 11 -2.11817 0 76 -2.11817 1
genomeend 45

/* Organism #46 Fitness: 8.99981 Error: 1.00003 */
genomestart 46
trait 1 0.1 0 0 0 0 0 0 0 
trait 2 0.2 0 0 0 0 0 0 0 
trait 3 0.3 0 0 0 0 0 0 0 
node 1 2 1 3
node 2 2 1 1
node 3 3 1 1
node 4 3 0 2
node 11 1 0 0
gene 1 1 4 -4.80629 0 1 -4.80629 1
gene 2 2 4 -5.74132 0 2 -5.74132 1
gene 1 3 4 3.00089 0 3 3.00089 1
gene 1 3 11 2.219 0 18 2.219 1
gene 1 11 4 4.28988 0 19 4.28988 1
gene 3 2 11 2.28652 0 61 2.28652 1
gene 3 1 11 -1.74353 0 76 -1.74353 1
genomeend 46

/* Organism #47 Fitness: 4.25079 Error: 1.93825 */
genomestart 47
trait 1 0.1 0 0 0 0 0 0 0 
trait 2 0.2 0 0 0 0 0 0 0 
trait 3 0.3 0 0 0 0 0 0 0 
node 1 1 1 3
node 2 2 1 1
node 3 3 1 1
node 4 1 0 2
node 11 1 0 0
gene 1 1 4 0.529135 0 1 0.529135 1
gene 2 2 4 -6.09348 0 2 -6.09348 1
gene 1 3 4 3.23535 0 3 3.23535 1
gene 1 3 11 1.42855 0 18 1.42855 1
gene 1 11 4 3.48417 0 19 3.48417 1
gene 3 2 11 -0.605971 0 61 -0.605971 1
gene 3 1 11 -1.04097 0 76 -1.04097 1
genomeend 47

/* Organism #48 Fitness: 8.9982 Error: 1.0003 */
genomestart 48
trait 1 0.1 0 0 0 0 0 0 0 
trait 2 0.2 0 0 0 0 0 0 0 
trait 3 0.3 0 0 0 0 0 0 0 
node 1 1 1 3
node 2 2 1 1
node 3 3 1 1
node 4 3 0 2
node 11 1 0 0
gene 1 1 4 -6.21671 0 1 -6.21671 1
gene 2 2 4 -8 0 2 -8 1
gene 1 3 4 3.19318 0 3 3.19318 1
gene 1 3 11 5.49935 0 18 5.49935 1
gene 1 11 4 4.67044 0 19 4.67044 1
gene 3 2 11 1.68637 0 61 1.68637 1
gene 3 1 11 -3.27157 0 76 -3.27157 1
genomeend 48

/* Organism #49 Fitness: 8.99965 Error: 1.00006 */
genomestart 49
trait 1 0.1 0 0 0 0 0 0 0 
trait 2 0.2 0 0 0 0 0 0 0 
trait 3 0.3 0 0 0 0 0 0 0 
node 1 2 1 3
node 2 2 1 1
node 3 3 1 1
node 4 3 0 2
node 11 1 0 0
gene 1 1 4 -3.74073 0 1 -3.74073 1
gene 2 2 4 -4.97865 0 2 -4.97865 1
gene 1 3 4 3.5476 0 3 3.5476 1
gene 1 3 11 1.43277 0 18 1.43277 1
gene 1 11 4 3.18799 0 19 3.18799 1
gene 3 2 11 1.26058 0 61 1.26058 1
gene 3 1 11 -0.78143 0 76 -0.78143 1
genomeend 49

/* Organism #50 Fitness: 4.05421 Error: 1.98649 */
genomestart 50
trait 1 0.1 0 0 0 0 0 0 0 
trait 2 0.2 0 0 0 0 0 0 0 
trait 3 0.3 0 0 0 0 0 0 0 
node 1 1 1 3
node 2 2 1 1
node 3 3 1 1
node 4 3 0 2
node 11 1 0 0
gene 1 1 4 -3.73969 0 1 -3.73969 1
gene 2 2 4 -5.46928 0 2 -5.46928 1
gene 1 3 4 2.78402 0 3 2.78402 1
gene 1 3 11 0.699936 0 18 0.699936 1
gene 1 11 4 2.12767 0 19 2.12767 1
gene 3 2 11 0.881321 0 61 0.881321 1
gene 3 1 11 -1.34737 0 76 -1.34737 1
genomeend 50

/* Organism #51 Fitness: 8.99995 Error: 1.00001 */
genomestart 51
trait 1 0.1 0 0 0 0 0 0 0 
trait 2 0.2 0 0 0 0 0 0 0 
trait 3 0.3 0 0 0 0 0 0 0 
node 1 2 1 3
node 2 1 1 1
node 3 3 1 1
node 4 3 0 2
node 11 1 0 0
gene 1 1 4 -3.9261 0 1 -3.9261 1
gene 2 2 4 -5.1249 0 2 -5.1249 1
gene 1 3 4 5.78882 0 3 5.78882 1
gene 1 3 11 3.11537 0 18 3.11537 1
gene 1 11 4 1.32188 0 19 1.32188 1
gene 3 2 11 -0.408799 0 61 -0.408799 1
gene 3 1 11 -3.21815 0 76 -3.21815 1
genomeend 51

/* Species #7 : (Size 9) (AF 4.76238) (Age 11)  */


/* Organism #52 Fitness: 8.95346 Error: 1.00777 */
genomestart 52
trait 1 0.1 0 0 0 0 0 0 0 
trait 2 0.125178 0.963083 0 0.92361 0 0 0.454622 0 
trait 3 0.32798 0.0594175 0.0392182 0 0.0103195 0 0 0 
node 1 1 1 3
node 2 2 1 1
node 3 2 1 1
node 4 1 0 2
node 10 1 0 0
node 13 1 0 0
gene 2 1 4 -1.50788 0 1 -1.50788 1
gene 2 2 4 0.99155 0 2 0.99155 0
gene 1 3 4 -4.74886 0 3 -4.74886 1
gene 2 2 10 -2.28147 0 14 -2.28147 1
gene 2 10 4 3.81644 0 15 3.81644 0
gene 2 10 13 -1.65565 0 26 -1.65565 1
gene 3 13 4 5.03635 0 27 5.03635 1
genomeend 52

/* Organism #53 Fitness: 4.39738 Error: 1.90301 */
genomestart 53
trait 1 0.1 0 0 0 0 0 0 0 
trait 2 0.137589 0.481542 0 0.461805 0 0 0.227311 0 
trait 3 0.32798 0.0594175 0.0392182 0 0.0103195 0 0 0 
node 1 1 1 3
node 2 2 1 1
node 3 2 1 1
node 4 1 0 2
node 10 1 0 0
node 13 1 0 0
gene 2 1 4 -1.61445 0 1 -1.61445 1
gene 1 2 4 1.42528 0 2 1.42528 0
gene 1 3 4 -1.78612 0 3 -1.78612 1
gene 2 2 10 -0.231254 0 14 -0.231254 1
gene 2 10 4 -1.87706 0 15 -1.87706 0
gene 2 10 13 -1.186 0 26 -1.186 1
gene 3 13 4 5.9683 0 27 5.9683 1
genomeend 53

/* Organism #54 Fitness: 4.14331 Error: 1.96449 */
genomestart 54
trait 1 0.1 0 0 0 0 0 0 0 
trait 2 0.125178 0.963083 0 0.92361 0 0 0.454622 0 
trait 3 0.32798 0.0594175 0.0392182 0 0.0103195 0 0 0 
node 1 1 1 3
node 2 2 1 1
node 3 2 1 1
node 4 1 0 2
node 10 1 0 0
node 13 1 0 0
gene 2 1 4 -0.26909 0 1 -0.26909 1
gene 2 2 4 -0.563979 0 2 -0.563979 0
gene 1 3 4 -5.5504 0 3 -5.5504 1
gene 2 2 10 -2.45645 0 14 -2.45645 1
gene 2 10 4 3.88188 0 15 3.88188 0
gene 2 10 13 -0.77322 0 26 -0.77322 1
gene 3 13 4 7.24438 0 27 7.24438 1
genomeend 54

/* Organism #55 Fitness: 4.12595 Error: 1.96876 */
genomestart 55
trait 1 0.1 0 0 0 0 0 0 0 
trait 2 0.15 0 0 0 0 0 0 0 
trait 3 0.32798 0.0594175 0.0392182 0 0.0103195 0 0 0 
node 1 1 1 3
node 2 2 1 1
node 3 2 1 1
node 4 1 0 2
node 10 1 0 0
node 13 1 0 0
node 41 1 0 0
gene 2 1 4 0.287928 0 1 0.287928 1
gene 2 2 4 1.42528 0 2 1.42528 0
gene 1 3 4 -2.69913 0 3 -2.69913 1
gene 2 2 10 -0.951374 0 14 -0.951374 1
gene 2 10 4 3.54898 0 15 3.54898 0
gene 2 10 13 0.75936 0 26 0.75936 0
gene 2 13 4 3.51739 0 27 3.51739 1
gene 2 10 41 1 0 134 0 1
gene 2 41 13 0.75936 0 135 0 1
genomeend 55

/* Organism #56 Fitness: 4.39083 Error: 1.90457 */
genomestart 56
trait 1 0.1 0 0 0 0 0 0 0 
trait 2 0.137589 0.481542 0 0.461805 0 0 0.227311 0 
trait 3 0.32798 0.0594175 0.0392182 0 0.0103195 0 0 0 
node 1 1 1 3
node 2 2 1 1
node 3 2 1 1
node 4 1 0 2
node 10 1 0 0
node 13 1 0 0
gene 2 1 4 -0.609974 0 1 -0.609974 1
gene 2 2 4 1.20841 0 2 1.20841 0
gene 1 3 4 -3.724 0 3 -3.724 1
gene 2 2 10 -1.61642 0 14 -1.61642 1
gene 2 10 4 3.68271 0 15 3.68271 0
gene 2 10 13 -0.448144 0 26 -0.448144 1
gene 2 13 4 4.27687 0 27 4.27687 1
genomeend 56

/* Organism #57 Fitness: 3.97405 Error: 2.0065 */
genomestart 57
trait 1 0.1 0 0 0 0 0 0 0 
trait 2 0.137589 0.481542 0 0.461805 0 0 0.227311 0 
trait 3 0.32798 0.0594175 0.0392182 0 0.0103195 0 0 0 
node 1 1 1 3
node 2 2 1 1
node 3 2 1 1
node 4 1 0 2
node 10 1 0 0
node 13 1 0 0
gene 2 1 4 -1.56615 0 1 -1.56615 1
gene 2 2 4 0.13205 0 2 0.13205 1
gene 1 3 4 -5.444 0 3 -5.444 1
gene 2 2 10 -0.277552 0 14 -0.277552 1
gene 2 10 4 1.63197 0 15 1.63197 1
gene 2 10 13 -2.25995 0 26 -2.25995 1
gene 2 13 4 3.22239 0 27 3.22239 1
genomeend 57

/* Organism #58 Fitness: 2.65777 Error: 2.36973 */
genomestart 58
trait 1 0.1 0 0 0 0 0 0 0 
trait 2 0.137589 0.481542 0 0.461805 0 0 0.227311 0 
trait 3 0.32798 0.0594175 0.0392182 0 0.0103195 0 0 0 
node 1 1 1 3
node 2 2 1 1
node 3 2 1 1
node 4 1 0 2
node 10 1 0 0
node 13 1 0 0
gene 2 1 4 -1.68455 0 1 -1.68455 1
gene 2 2 4 0.99155 0 2 0.99155 0
gene 1 3 4 -2.69913 0 3 -2.69913 1
gene 2 2 10 -3.32615 0 14 -3.32615 1
gene 2 10 4 0.372282 0 15 0.372282 0
gene 2 10 13 0.75936 0 26 0.75936 1
gene 3 13 4 3.58094 0 27 3.58094 1
genomeend 58

/* Organism #59 Fitness: 6.90237 Error: 1.37276 */
genomestart 59
trait 1 0.1 0 0 0 0 0 0 0 
trait 2 0.125178 0.963083 0 0.92361 0 0 0.454622 0 
trait 3 0.32798 0.0594175 0.0392182 0 0.0103195 0 0 0 
node 1 1 1 3
node 2 2 1 1
node 3 2 1 1
node 4 1 0 2
node 10 1 0 0
node 13 1 0 0
gene 2 1 4 -2.21411 0 1 -2.21411 1
gene 2 2 4 2.90307 0 2 2.90307 0
gene 1 3 4 -5.41724 0 3 -5.41724 1
gene 2 2 10 -2.99656 0 14 -2.99656 1
gene 2 10 4 3.2563 0 15 3.2563 0
gene 2 10 13 -0.718123 0 26 -0.718123 1
gene 3 13 4 4.64047 0 27 4.64047 1
genomeend 59

/* Organism #60 Fitness: 3.31627 Error: 2.17894 */
genomestart 60
trait 1 0.1 0 0 0 0 0 0 0 
trait 2 0.137589 0.481542 0 0.461805 0 0 0.227311 0 
trait 3 0.32798 0.0594175 0.0392182 0 0.0103195 0 0 0 
node 1 1 1 3
node 2 2 1 1
node 3 2 1 1
node 4 1 0 2
node 10 1 0 0
node 13 1 0 0
gene 2 1 4 -0.609974 0 1 -0.609974 1
gene 2 2 4 1.20841 0 2 1.20841 0
gene 1 3 4 -3.724 0 3 -3.724 1
gene 2 2 10 -1.61642 0 14 -1.61642 1
gene 2 10 4 3.68271 0 15 3.68271 0
gene 2 10 13 -0.448144 0 26 -0.448144 1
gene 3 13 4 4.27687 0 27 4.27687 1
gene 1 1 13 0.663154 0 136 0.663154 1
genomeend 60

/* Species #8 : (Size 10) (AF 5.83524) (Age 10)  */


/* Organism #61 Fitness: 8.9698 Error: 1.00504 */
genomestart 61
trait 1 0.025 0 0 0 0 0 0.130759 0.0246837 
trait 2 0.2 0 0 0 0 0 0 0 
trait 3 0.32798 0.0594175 0.0392182 0 0.0103195 0 0 0 
node 1 1 1 3
node 2 2 1 1
node 3 2 1 1
node 4 1 0 2
node 10 1 0 0
node 15 1 0 0
gene 2 1 4 -1.72147 0 1 -1.72147 1
gene 2 2 4 2.30086 0 2 2.30086 1
gene 1 3 4 1.26561 0 3 1.26561 0
gene 2 2 10 0.926939 0 14 0.926939 1
gene 2 10 4 5.60542 0 15 5.60542 1
gene 1 3 15 -1.99156 0 32 -1.99156 1
gene 1 15 4 -5.6583 0 33 -5.6583 1
genomeend 61

/* Organism #62 Fitness: 8.95457 Error: 1.00758 */
genomestart 62
trait 1 0.025 0 0 0 0 0 0.130759 0.0246837 
trait 2 0.2 0 0 0 0 0 0 0 
trait 3 0.32798 0.0594175 0.0392182 0 0.0103195 0 0 0 
node 1 1 1 3
node 2 2 1 1
node 3 2 1 1
node 4 1 0 2
node 10 1 0 0
node 15 1 0 0
gene 2 1 4 -1.16183 0 1 -1.16183 1
gene 2 2 4 2.94005 0 2 2.94005 1
gene 1 3 4 1.72554 0 3 1.72554 0
gene 2 2 10 0.740541 0 14 0.740541 1
gene 2 10 4 5.59179 0 15 5.59179 1
gene 1 3 15 -2.09143 0 32 -2.09143 1
gene 1 15 4 -5.26553 0 33 -5.26553 1
genomeend 62

/* Organism #63 Fitness: 8.2437 Error: 1.12882 */
genomestart 63
trait 1 0.025 0 0 0 0 0 0.130759 0.0246837 
trait 2 0.2 0 0 0 0 0 0 0 
trait 3 0.32798 0.0594175 0.0392182 0 0.0103195 0 0 0 
node 1 1 1 3
node 2 2 1 1
node 3 2 1 1
node 4 1 0 2
node 10 1 0 0
node 15 1 0 0
gene 2 1 4 -2.71692 0 1 -2.71692 1
gene 2 2 4 4.14164 0 2 4.14164 1
gene 1 3 4 1.50968 0 3 1.50968 0
gene 2 2 10 1.82012 0 14 1.82012 1
gene 2 10 4 6.2102 0 15 6.2102 1
gene 1 3 15 -3.94216 0 32 -3.94216 1
gene 1 15 4 -5.7356 0 33 -5.7356 1
genomeend 63

/* Organism #64 Fitness: 4.00001 Error: 2 */
genomestart 64
trait 1 0.025 0 0 0 0 0 0.130759 0.0246837 
trait 2 0.2 0 0 0 0 0 0 0 
trait 3 0.32798 0.0594175 0.0392182 0 0.0103195 0 0 0 
node 1 1 1 3
node 2 2 1 1
node 3 2 1 1
node 4 1 0 2
node 10 1 0 0
node 15 1 0 0
gene 2 1 4 1.70899 0 1 1.70899 1
gene 2 2 4 2.66805 0 2 2.66805 1
gene 1 3 4 1.10832 0 3 1.10832 0
gene 2 2 10 1.36351 0 14 1.36351 1
gene 2 10 4 7.37479 0 15 7.37479 1
gene 1 3 15 -2.82115 0 32 -2.82115 1
gene 1 15 4 -5.71108 0 33 -5.71108 1
genomeend 64

/* Organism #65 Fitness: 3.64424 Error: 2.09101 */
genomestart 65
trait 1 0.025 0 0 0 0 0 0.130759 0.0246837 
trait 2 0.2 0 0 0 0 0 0 0 
trait 3 0.32798 0.0594175 0.0392182 0 0.0103195 0 0 0 
node 1 2 1 3
node 2 2 1 1
node 3 1 1 1
node 4 1 0 2
node 10 1 0 0
node 15 1 0 0
gene 2 1 4 -0.879501 0 1 -0.879501 1
gene 2 2 4 3.68585 0 2 3.68585 1
gene 1 3 4 0.50777 0 3 0.50777 0
gene 2 2 10 -0.96746 0 14 -0.96746 1
gene 2 10 4 8 0 15 8 1
gene 1 3 15 -3.10302 0 32 -3.10302 1
gene 1 15 4 -4.99538 0 33 -4.99538 1
genomeend 65

/* Organism #66 Fitness: 8.91416 Error: 1.01434 */
genomestart 66
trait 1 0.025 0 0 0 0 0 0.130759 0.0246837 
trait 2 0.2 0 0 0 0 0 0 0 
trait 3 0.32798 0.0594175 0.0392182 0 0.0103195 0 0 0 
node 1 2 1 3
node 2 2 1 1
node 3 2 1 1
node 4 1 0 2
node 10 1 0 0
node 15 1 0 0
gene 2 1 4 -0.733282 0 1 -0.733282 1
gene 2 2 4 1.60487 0 2 1.60487 1
gene 1 3 4 -2.16341 0 3 -2.16341 0
gene 2 2 10 1.6359 0 14 1.6359 1
gene 2 10 4 7.74847 0 15 7.74847 1
gene 1 3 15 -4.18417 0 32 -4.18417 1
gene 1 15 4 -8 0 33 -8 1
genomeend 66

/* Organism #67 Fitness: 3.91787 Error: 2.02064 */
genomestart 67
trait 1 0.025 0 0 0 0 0 0.130759 0.0246837 
trait 2 0.2 0 0 0 0 0 0 0 
trait 3 0.32798 0.0594175 0.0392182 0 0.0103195 0 0 0 
node 1 1 1 3
node 2 2 1 1
node 3 2 1 1
node 4 1 0 2
node 10 1 0 0
node 15 1 0 0
gene 2 1 4 -3.52811 0 1 -3.52811 1
gene 2 2 4 3.28524 0 2 3.28524 1
gene 1 3 4 2.1927 0 3 2.1927 0
gene 2 2 10 0.74135 0 14 0.74135 1
gene 2 10 4 3.7515 0 15 3.7515 1
gene 1 3 15 -2.73657 0 32 -2.73657 1
gene 1 15 4 -5.26553 0 33 -5.26553 1
genomeend 67

/* Organism #68 Fitness: 4.00081 Error: 1.9998 */
genomestart 68
trait 1 0.025 0 0 0 0 0 0.130759 0.0246837 
trait 2 0.2 0 0 0 0 0 0 0 
trait 3 0.32798 0.0594175 0.0392182 0 0.0103195 0 0 0 
node 1 2 1 3
node 2 2 1 1
node 3 2 1 1
node 4 1 0 2
node 10 1 0 0
node 15 1 0 0
gene 2 1 4 -0.983164 0 1 -0.983164 1
gene 2 2 4 -0.297342 0 2 -0.297342 1
gene 1 3 4 -2.1654 0 3 -2.1654 0
gene 2 2 10 3.93924 0 14 3.93924 1
gene 2 10 4 8 0 15 8 1
gene 1 3 15 -3.2641 0 32 -3.2641 1
gene 1 15 4 -5.47164 0 33 -5.47164 1
gene 1 15 10 0.307736 0 122 0.307736 1
genomeend 68

/* Organism #69 Fitness: 4 Error: 2 */
genomestart 69
trait 1 0.025 0 0 0 0 0 0.130759 0.0246837 
trait 2 0.2 0 0 0 0 0 0 0 
trait 3 0.32798 0.0594175 0.0392182 0 0.0103195 0 0 0 
node 1 2 1 3
node 2 2 1 1
node 3 2 1 1
node 4 1 0 2
node 10 1 0 0
node 15 1 0 0
gene 2 1 4 -3.18101 0 1 -3.18101 1
gene 2 2 4 -1.28583 0 2 -1.28583 1
gene 1 3 4 -1.27778 0 3 -1.27778 0
gene 2 2 10 2.29093 0 14 2.29093 1
gene 2 10 4 -0.035539 0 15 -0.035539 1
gene 1 3 15 -2.88511 0 32 -2.88511 1
gene 1 15 4 -6.08051 0 33 -6.08051 1
gene 1 15 10 0.659561 0 122 0.659561 1
genomeend 69

/* Organism #70 Fitness: 3.70721 Error: 2.07459 */
genomestart 70
trait 1 0.025 0 0 0 0 0 0.130759 0.0246837 
trait 2 0.2 0 0 0 0 0 0 0 
trait 3 0.32798 0.0594175 0.0392182 0 0.0103195 0 0 0 
node 1 1 1 3
node 2 2 1 1
node 3 2 1 1
node 4 1 0 2
node 10 1 0 0
node 15 1 0 0
gene 2 1 4 -1.72147 0 1 -1.72147 1
gene 2 2 4 4.08347 0 2 4.08347 1
gene 1 3 4 0.873325 0 3 0.873325 0
gene 1 2 10 -1.2658 0 14 -1.2658 1
gene 2 10 4 4.46392 0 15 4.46392 1
gene 1 3 15 -1.99156 0 32 -1.99156 1
gene 1 15 4 -7.87439 0 33 -7.87439 1
genomeend 70

/* Species #9 : (Size 14) (AF 5.50772) (Age 8)  */


/* Organism #71 Fitness: 8.99908 Error: 1.00015 */
genomestart 71
trait 1 0.1 0 0 0 0 0 0 0 
trait 2 0.100526 0 0 0 0 0 0 0 
trait 3 0.3 0 0 0 0 0 0 0 
node 1 3 1 3
node 2 2 1 1
node 3 3 1 1
node 4 3 0 2
node 21 1 0 0
gene 1 1 4 -1.82577 0 1 -1.82577 1
gene 1 2 4 3.88086 0 2 3.88086 1
gene 1 3 4 1.79517 0 3 1.79517 0
gene 1 3 21 2.96256 0 57 2.96256 1
gene 1 21 4 5.14117 0 58 5.14117 1
gene 1 1 21 -1.17198 0 79 -1.17198 1
gene 3 2 21 0.473831 0 123 0.473831 1
genomeend 71

/* Organism #72 Fitness: 4.00001 Error: 2 */
genomestart 72
trait 1 0.1 0 0 0 0 0 0 0 
trait 2 0.0673675 0 0 0 0 0 0 0 
trait 3 0.3 0 0 0 0 0 0 0 
node 1 3 1 3
node 2 2 1 1
node 3 3 1 1
node 4 3 0 2
node 21 1 0 0
gene 1 1 4 -1.2565 0 1 -1.2565 1
gene 1 2 4 3.88086 0 2 3.88086 1
gene 1 3 4 2.42538 0 3 2.42538 0
gene 1 3 21 0.00405499 0 57 0.00405499 1
gene 1 21 4 5.14117 0 58 5.14117 1
gene 1 1 21 -1.17198 0 79 -1.17198 1
genomeend 72

/* Organism #73 Fitness: 4.00932 Error: 1.99767 */
genomestart 73
trait 1 0.1 0 0 0 0 0 0 0 
trait 2 0.100526 0 0 0 0 0 0 0 
trait 3 0.3 0 0 0 0 0 0 0 
node 1 3 1 3
node 2 2 1 1
node 3 3 1 1
node 4 3 0 2
node 21 1 0 0
gene 1 1 4 -1.6093 0 1 -1.6093 1
gene 1 2 4 -1.76624 0 2 -1.76624 1
gene 1 3 4 1.79517 0 3 1.79517 0
gene 1 3 21 1.68345 0 57 1.68345 1
gene 1 21 4 7.24324 0 58 7.24324 1
gene 1 1 21 -1.17198 0 79 -1.17198 1
gene 3 2 21 -0.402146 0 123 -0.402146 1
genomeend 73

/* Organism #74 Fitness: 6.14551 Error: 1.52099 */
genomestart 74
trait 1 0.1 0 0 0 0 0 0 0 
trait 2 0.2 0 0 0 0 0 0 0 
trait 3 0.3 0 0 0 0 0 0 0 
node 1 3 1 3
node 2 2 1 1
node 3 3 1 1
node 4 3 0 2
node 21 1 0 0
gene 1 1 4 -1.82577 0 1 -1.82577 1
gene 1 2 4 1.79438 0 2 1.79438 1
gene 3 3 4 -0.97783 0 3 -0.97783 0
gene 1 3 21 2.06125 0 57 2.06125 1
gene 1 21 4 4.83712 0 58 4.83712 1
gene 1 1 21 -1.18003 0 79 -1.18003 1
genomeend 74

/* Organism #75 Fitness: 8.9999 Error: 1.00002 */
genomestart 75
trait 1 0.1 0 0 0 0 0 0 0 
trait 2 0.150263 0 0 0 0 0 0 0 
trait 3 0.3 0 0 0 0 0 0 0 
node 1 3 1 3
node 2 2 1 1
node 3 3 1 1
node 4 3 0 2
node 21 1 0 0
gene 1 1 4 -2.2457 0 1 -2.2457 1
gene 1 2 4 3.16008 0 2 3.16008 1
gene 1 3 4 4.28046 0 3 4.28046 0
gene 2 3 21 3.97509 0 57 3.97509 1
gene 1 21 4 7.52883 0 58 7.52883 1
gene 1 1 21 -1.33335 0 79 -1.33335 1
gene 3 2 21 2.11584 0 123 2.11584 1
genomeend 75

/* Organism #76 Fitness: 4.52839 Error: 1.872 */
genomestart 76
trait 1 0.1 0 0 0 0 0 0 0 
trait 2 0.100526 0 0 0 0 0 0 0 
trait 3 0.3 0 0 0 0 0 0 0 
node 1 3 1 3
node 2 2 1 1
node 3 3 1 1
node 4 3 0 2
node 21 1 0 0
gene 1 1 4 -4.15894 0 1 -4.15894 1
gene 1 2 4 4.68614 0 2 4.68614 1
gene 1 3 4 3.95818 0 3 3.95818 0
gene 1 3 21 1.86184 0 57 1.86184 1
gene 1 21 4 4.38196 0 58 4.38196 1
gene 1 1 21 0.668646 0 79 0.668646 1
gene 3 2 21 -1.40938 0 123 -1.40938 1
genomeend 76

/* Organism #77 Fitness: 4.16977 Error: 1.958 */
genomestart 77
trait 1 0.1 0 0 0 0 0 0 0 
trait 2 0.100526 0 0 0 0 0 0 0 
trait 3 0.3 0 0.210925 0 0 0 0 0.892968 
node 1 3 1 3
node 2 2 1 1
node 3 3 1 1
node 4 3 0 2
node 21 1 0 0
gene 1 1 4 0.605662 0 1 0.605662 1
gene 1 2 4 1.64594 0 2 1.64594 1
gene 1 3 4 -0.665447 0 3 -0.665447 0
gene 1 3 21 2.27799 0 57 2.27799 1
gene 1 21 4 3.24969 0 58 3.24969 1
gene 1 1 21 -2.66284 0 79 -2.66284 1
gene 3 2 21 2.46133 0 123 2.46133 1
genomeend 77

/* Organism #78 Fitness: 8.99904 Error: 1.00016 */
genomestart 78
trait 1 0.1 0 0 0 0 0 0 0 
trait 2 0.0839466 0 0 0 0 0 0 0 
trait 3 0.3 0 0 0 0 0 0 0 
node 1 3 1 3
node 2 2 1 1
node 3 3 1 1
node 4 3 0 2
node 21 1 0 0
gene 1 1 4 -1.82577 0 1 -1.82577 1
gene 1 2 4 3.88086 0 2 3.88086 1
gene 1 3 4 1.79517 0 3 1.79517 0
gene 1 3 21 1.48135 0 57 1.48135 1
gene 1 21 4 5.14117 0 58 5.14117 1
gene 1 1 21 -1.17198 0 79 -1.17198 1
gene 3 2 21 0.473831 0 123 0.473831 1
genomeend 78

/* Organism #79 Fitness: 4.00154 Error: 1.99962 */
genomestart 79
trait 1 0.1 0 0 0 0 0 0 0 
trait 2 0.100526 0 0 0 0 0 0 0 
trait 3 0.3 0 0 0 0 0 0 0 
node 1 3 1 3
node 2 2 1 1
node 3 3 1 1
node 4 3 0 2
node 21 1 0 0
gene 1 1 4 -0.0571788 0 1 -0.0571788 1
gene 1 2 4 6.37413 0 2 6.37413 1
gene 1 3 4 -0.619243 0 3 -0.619243 0
gene 1 3 21 1.57041 0 57 1.57041 1
gene 1 21 4 4.38739 0 58 4.38739 1
gene 1 1 21 -3.50586 0 79 -3.50586 1
gene 3 2 21 0.800401 0 123 0.800401 1
genomeend 79

/* Organism #80 Fitness: 2.25725 Error: 2.49758 */
genomestart 80
trait 1 0.1 0 0 0 0 0 0 0 
trait 2 0.2 0 0 0 0 0 0 0 
trait 3 0.3 0 0 0 0 0 0 0 
node 1 3 1 3
node 2 2 1 1
node 3 3 1 1
node 4 3 0 2
node 21 1 0 0
gene 1 1 4 1.91347 0 1 1.91347 1
gene 1 2 4 -1.91576 0 2 -1.91576 1
gene 1 3 4 3.16374 0 3 3.16374 0
gene 1 3 21 2.89271 0 57 2.89271 1
gene 1 21 4 5.09214 0 58 5.09214 1
gene 1 1 21 -1.44237 0 79 -1.44237 1
genomeend 80

/* Organism #81 Fitness: 4 Error: 2 */
genomestart 81
trait 1 0.1 0 0 0 0 0 0 0 
trait 2 0.0839466 0 0 0 0 0 0 0 
trait 3 0 0.275808 0.0237022 0 0 0 0 0 
node 1 3 1 3
node 2 2 1 1
node 3 3 1 1
node 4 3 0 2
node 21 1 0 0
gene 1 1 4 1.98907 0 1 1.98907 1
gene 1 2 4 3.21442 0 2 3.21442 1
gene 1 3 4 4.95448 0 3 4.95448 1
gene 1 3 21 2.9274 0 57 2.9274 1
gene 1 21 4 7.52291 0 58 7.52291 1
gene 1 1 21 0.874232 0 79 0.874232 1
gene 3 2 21 0.473831 0 123 0.473831 1
genomeend 81

/* Organism #82 Fitness: 4 Error: 2 */
genomestart 82
trait 1 0.1 0 0 0 0 0 0 0 
trait 2 0.150263 0 0 0 0 0 0 0 
trait 3 0.3 0 0 0 0 0 0 0 
node 1 3 1 3
node 2 2 1 1
node 3 3 1 1
node 4 3 0 2
node 21 1 0 0
gene 1 1 4 -1.91601 0 1 -1.91601 1
gene 1 2 4 2.41863 0 2 2.41863 1
gene 1 3 4 5.40607 0 3 5.40607 0
gene 1 3 21 5.27278 0 57 5.27278 1
gene 1 21 4 5.17741 0 58 5.17741 1
gene 1 1 21 1.29858 0 79 1.29858 1
gene 3 2 21 -0.627662 0 123 -0.627662 1
genomeend 82

/* Organism #83 Fitness: 8.99891 Error: 1.00018 */
genomestart 83
trait 1 0.1 0 0 0 0 0 0 0 
trait 2 0.0673675 0 0 0 0 0 0 0 
trait 3 0.3 0 0 0 0 0 0 0 
node 1 3 1 3
node 2 2 1 1
node 3 3 1 1
node 4 3 0 2
node 21 1 0 0
gene 1 1 4 -1.82577 0 1 -1.82577 1
gene 1 2 4 3.88086 0 2 3.88086 1
gene 1 3 4 5.40607 0 3 5.40607 0
gene 1 3 21 1.48135 0 57 1.48135 1
gene 1 21 4 5.14117 0 58 5.14117 1
gene 1 1 21 -1.17198 0 79 -1.17198 1
gene 1 2 21 -0.493503 0 139 -0.493503 1
genomeend 83

/* Organism #84 Fitness: 3.99935 Error: 2.00016 */
genomestart 84
trait 1 0.1 0 0 0 0 0 0 0 
trait 2 0.150263 0 0 0 0 0 0 0 
trait 3 0.3 0 0 0 0 0 0 0 
node 1 3 1 3
node 2 2 1 1
node 3 3 1 1
node 4 3 0 2
node 21 1 0 0
gene 1 1 4 -4.25135 0 1 -4.25135 1
gene 1 2 4 6.01702 0 2 6.01702 1
gene 1 3 4 7.59213 0 3 7.59213 0
gene 1 3 21 2.22834 0 57 2.22834 1
gene 1 21 4 5.74949 0 58 5.74949 1
gene 1 1 21 -2.99477 0 79 -2.99477 1
gene 3 2 21 1.5974 0 123 1.5974 1
genomeend 84

/* Species #10 : (Size 8) (AF 5.2378) (Age 8)  */


/* Organism #85 Fitness: 8.2516 Error: 1.12744 */
genomestart 85
trait 1 0.1 0 0 0 0 0 0 0 
trait 2 0.2 0 0 0.430492 0 0.436086 0 0 
trait 3 0.3 0 0 0 0 0 0 0 
node 1 2 1 3
node 2 3 1 1
node 3 2 1 1
node 4 2 0 2
node 7 1 0 0
gene 3 1 4 -1.27014 0 1 -1.27014 1
gene 1 2 4 -1.20359 0 2 -1.20359 0
gene 1 3 4 -0.973668 0 3 -0.973668 1
gene 1 2 7 0.738312 0 8 0.738312 1
gene 1 7 4 2.01267 0 9 2.01267 1
gene 2 3 7 0.907376 0 101 0.907376 1
gene 1 1 7 -0.142123 0 107 -0.142123 1
genomeend 85

/* Organism #86 Fitness: 7.37258 Error: 1.28475 */
genomestart 86
trait 1 0.1 0 0 0 0 0 0 0 
trait 2 0.2 0 0 0.430492 0 0.436086 0 0 
trait 3 0.3 0 0 0 0 0 0 0 
node 1 2 1 3
node 2 3 1 1
node 3 2 1 1
node 4 2 0 2
node 7 1 0 0
gene 3 1 4 -0.43984 0 1 -0.43984 1
gene 1 2 4 0.791977 0 2 0.791977 0
gene 1 3 4 1.61788 0 3 1.61788 1
gene 1 2 7 1.33287 0 8 1.33287 1
gene 1 7 4 2.05158 0 9 2.05158 1
gene 2 3 7 1.716 0 101 1.716 1
gene 1 1 7 -0.398846 0 107 -0.398846 1
genomeend 86

/* Organism #87 Fitness: 4 Error: 2 */
genomestart 87
trait 1 0.1 0 0 0 0 0 0 0 
trait 2 0.2 0 0 0.430492 0 0.436086 0 0 
trait 3 0.3 0 0 0 0 0 0 0 
node 1 2 1 3
node 2 3 1 1
node 3 2 1 1
node 4 2 0 2
node 7 1 0 0
gene 3 1 4 -4.61812 0 1 -4.61812 1
gene 1 2 4 -0.591907 0 2 -0.591907 0
gene 1 3 4 1.72748 0 3 1.72748 1
gene 1 2 7 -0.95749 0 8 -0.95749 1
gene 1 7 4 1.34163 0 9 1.34163 1
gene 2 3 7 -1.85427 0 101 -1.85427 1
gene 1 1 7 -0.0873329 0 107 -0.0873329 1
genomeend 87

/* Organism #88 Fitness: 4 Error: 2 */
genomestart 88
trait 1 0.1 0 0 0 0 0 0 0 
trait 2 0.2 0 0 0.430492 0 0.436086 0 0 
trait 3 0.3 0 0 0 0 0 0 0 
node 1 2 1 3
node 2 3 1 1
node 3 2 1 1
node 4 2 0 2
node 7 1 0 0
gene 3 1 4 -1.71924 0 1 -1.71924 1
gene 1 2 4 0.426747 0 2 0.426747 0
gene 1 3 4 0.263378 0 3 0.263378 1
gene 1 2 7 0.516095 0 8 0.516095 1
gene 1 7 4 -2.32931 0 9 -2.32931 1
gene 2 3 7 1.22169 0 101 1.22169 1
gene 1 1 7 0.968751 0 107 0.968751 1
genomeend 88

/* Organism #89 Fitness: 4.53758 Error: 1.86984 */
genomestart 89
trait 1 0.1 0 0 0 0 0 0 0 
trait 2 0.2 0 0 0.430492 0 0.436086 0 0 
trait 3 0.3 0 0 0 0 0 0 0 
node 1 2 1 3
node 2 3 1 1
node 3 2 1 1
node 4 2 0 2
node 7 1 0 0
gene 3 1 4 -0.360069 0 1 -0.360069 1
gene 1 2 4 -1.43926 0 2 -1.43926 0
gene 1 3 4 2.24678 0 3 2.24678 1
gene 1 2 7 3.19049 0 8 3.19049 1
gene 1 7 4 1.6694 0 9 1.6694 1
gene 2 3 7 -0.5284 0 101 -0.5284 1
gene 1 1 7 -0.0448531 0 107 -0.0448531 1
genomeend 89

/* Organism #90 Fitness: 5.74065 Error: 1.60404 */
genomestart 90
trait 1 0.1 0 0 0 0 0 0 0 
trait 2 0.2 0 0 0.430492 0 0.436086 0 0 
trait 3 0.3 0 0 0 0 0 0 0 
node 1 2 1 3
node 2 3 1 1
node 3 2 1 1
node 4 2 0 2
node 7 1 0 0
gene 3 1 4 -2.18999 0 1 -2.18999 1
gene 1 2 4 -1.37569 0 2 -1.37569 0
gene 1 3 4 2.24678 0 3 2.24678 1
gene 1 2 7 1.13958 0 8 1.13958 1
gene 1 7 4 -0.446188 0 9 -0.446188 1
gene 2 3 7 -0.5284 0 101 -0.5284 1
gene 1 1 7 -0.0448531 0 107 -0.0448531 1
genomeend 90

/* Organism #91 Fitness: 4 Error: 2 */
genomestart 91
trait 1 0.1 0 0 0 0 0 0 0 
trait 2 0.2 0 0 0.430492 0 0.436086 0 0 
trait 3 0.3 0 0 0 0 0 0 0 
node 1 2 1 3
node 2 3 1 1
node 3 2 1 1
node 4 2 0 2
node 7 1 0 0
gene 3 1 4 -3.54076 0 1 -3.54076 1
gene 1 2 4 -2.86566 0 2 -2.86566 0
gene 1 3 4 -2.53219 0 3 -2.53219 1
gene 1 2 7 0.421707 0 8 0.421707 1
gene 1 7 4 1.02998 0 9 1.02998 1
gene 2 3 7 0.832252 0 101 0.832252 1
gene 1 1 7 -2.16702 0 107 -2.16702 1
genomeend 91

/* Organism #92 Fitness: 4.00001 Error: 2 */
genomestart 92
trait 1 0.1 0 0 0 0 0 0 0 
trait 2 0.2 0 0 0.430492 0 0.436086 0 0 
trait 3 0.3 0 0 0 0 0 0 0 
node 1 2 1 3
node 2 3 1 1
node 3 2 1 1
node 4 2 0 2
node 7 1 0 0
gene 3 1 4 -3.27684 0 1 -3.27684 1
gene 1 2 4 -0.763944 0 2 -0.763944 0
gene 1 3 4 2.24678 0 3 2.24678 1
gene 3 2 7 -0.197493 0 8 -0.197493 1
gene 1 7 4 1.1752 0 9 1.1752 1
gene 2 3 7 -1.81916 0 101 -1.81916 1
gene 1 1 7 -0.0448531 0 107 -0.0448531 1
genomeend 92

/* Species #11 : (Size 12) (AF 5.81429) (Age 7)  */


/* Organism #93 Fitness: 8.99996 Error: 1.00001 */
genomestart 93
trait 1 0.1 0 0 0 0 0 0 0 
trait 2 0.23251 0 0.451242 0 0.280654 0 0 0 
trait 3 0.3 0 0 0 0.373816 0 0.32422 0.335464 
node 1 2 1 3
node 2 2 1 1
node 3 3 1 1
node 4 3 0 2
node 11 1 0 0
node 26 1 0 0
gene 1 1 4 -5.45168 0 1 -5.45168 1
gene 2 2 4 -1.74208 0 2 -1.74208 1
gene 1 3 4 4.47947 0 3 4.47947 1
gene 1 3 11 0.504859 0 18 0.504859 1
gene 2 11 4 3.82765 0 19 3.82765 1
gene 3 2 11 0.575924 0 29 0.575924 0
gene 2 1 11 1.10559 0 62 1.10559 1
gene 3 2 26 2.55022 0 74 2.55022 1
gene 3 26 11 -2.223 0 75 -2.223 1
genomeend 93

/* Organism #94 Fitness: 6.77038 Error: 1.398 */
genomestart 94
trait 1 0.1 0 0 0 0 0 0 0 
trait 2 0.224382 0 0.338432 0 0.210491 0 0 0 
trait 3 0.3 0 0 0 0.280362 0 0.243165 0.251598 
node 1 2 1 3
node 2 2 1 1
node 3 3 1 1
node 4 3 0 2
node 11 1 0 0
node 26 1 0 0
gene 1 1 4 -4.10884 0 1 -4.10884 1
gene 2 2 4 -3.85296 0 2 -3.85296 1
gene 1 3 4 3.06742 0 3 3.06742 1
gene 1 3 11 3.08853 0 18 3.08853 1
gene 1 11 4 4.02409 0 19 4.02409 1
gene 3 2 11 1.69158 0 29 1.69158 1
gene 2 1 11 2.82346 0 62 2.82346 1
gene 3 2 26 2.83071 0 74 2.83071 1
gene 3 26 11 -3.24547 0 75 -3.24547 1
genomeend 94

/* Organism #95 Fitness: 3.81417 Error: 2.04701 */
genomestart 95
trait 1 0.1 0 0 0 0 0 0 0 
trait 2 0.216255 0 0.225621 0 0.140327 0 0 0 
trait 3 0.3 0 0 0 0.186908 0 0.16211 0.167732 
node 1 2 1 3
node 2 2 1 1
node 3 3 1 1
node 4 3 0 2
node 11 1 0 0
node 26 1 0 0
gene 1 1 4 -3.6817 0 1 -3.6817 1
gene 2 2 4 2.48276 0 2 2.48276 1
gene 1 3 4 2.98205 0 3 2.98205 1
gene 1 3 11 1.04712 0 18 1.04712 1
gene 1 11 4 1.37465 0 19 1.37465 1
gene 3 2 11 -1.61354 0 29 -1.61354 1
gene 2 1 11 -0.329574 0 62 -0.329574 1
gene 1 2 26 -0.980461 0 74 -0.980461 1
gene 3 26 11 -0.285186 0 75 -0.285186 1
genomeend 95

/* Organism #96 Fitness: 6.7064 Error: 1.41033 */
genomestart 96
trait 1 0.1 0 0 0 0 0 0 0 
trait 2 0.216255 0 0.225621 0 0.140327 0 0 0 
trait 3 0.3 0 0 0 0.186908 0 0.16211 0.167732 
node 1 2 1 3
node 2 2 1 1
node 3 3 1 1
node 4 3 0 2
node 11 1 0 0
node 26 1 0 0
gene 1 1 4 -2.71497 0 1 -2.71497 1
gene 2 2 4 -1.6723 0 2 -1.6723 1
gene 1 3 4 0.86102 0 3 0.86102 1
gene 1 3 11 -0.397429 0 18 -0.397429 1
gene 1 11 4 1.94815 0 19 1.94815 1
gene 3 2 11 -0.599211 0 29 -0.599211 1
gene 2 1 11 1.78285 0 62 1.78285 1
gene 3 2 26 1.58835 0 74 1.58835 1
gene 3 26 11 0.205585 0 75 0.205585 1
genomeend 96

/* Organism #97 Fitness: 6.72516 Error: 1.40671 */
genomestart 97
trait 1 0.1 0 0 0 0 0 0 0 
trait 2 0.224382 0 0.338432 0 0.210491 0 0 0 
trait 3 0.3 0 0 0 0.280362 0 0.243165 0.251598 
node 1 2 1 3
node 2 2 1 1
node 3 3 1 1
node 4 3 0 2
node 11 1 0 0
node 26 1 0 0
gene 1 1 4 -6.55537 0 1 -6.55537 1
gene 2 2 4 -2.85309 0 2 -2.85309 1
gene 1 3 4 5.2356 0 3 5.2356 1
gene 1 3 11 0.627968 0 18 0.627968 1
gene 1 11 4 4.09618 0 19 4.09618 1
gene 3 2 11 -3.39496 0 29 -3.39496 0
gene 2 1 11 1.89457 0 62 1.89457 1
gene 3 2 26 3.36699 0 74 3.36699 1
gene 3 26 11 1.00625 0 75 1.00625 1
genomeend 97

/* Organism #98 Fitness: 5.53472 Error: 1.6474 */
genomestart 98
trait 1 0.1 0 0 0 0 0 0 0 
trait 2 0.216255 0 0.225621 0 0.140327 0 0 0 
trait 3 0.3 0 0 0 0.186908 0 0.16211 0.167732 
node 1 2 1 3
node 2 2 1 1
node 3 3 1 1
node 4 3 0 2
node 11 1 0 0
node 26 1 0 0
gene 1 1 4 -1.81818 0 1 -1.81818 1
gene 2 2 4 -5.24647 0 2 -5.24647 1
gene 1 3 4 3.58557 0 3 3.58557 1
gene 1 3 11 2.31208 0 18 2.31208 1
gene 1 11 4 1.94171 0 19 1.94171 1
gene 3 2 11 -3.58123 0 29 -3.58123 1
gene 2 1 11 0.871018 0 62 0.871018 1
gene 3 2 26 -0.846015 0 74 -0.846015 1
gene 3 26 11 2.14733 0 75 2.14733 1
genomeend 98

/* Organism #99 Fitness: 4.19909 Error: 1.95083 */
genomestart 99
trait 1 0.1 0 0 0 0 0 0 0 
trait 2 0.216255 0 0.225621 0 0.140327 0 0 0 
trait 3 0.3 0 0 0 0.186908 0 0.16211 0.167732 
node 1 2 1 3
node 2 2 1 1
node 3 3 1 1
node 4 3 0 2
node 11 1 0 0
node 26 1 0 0
gene 1 1 4 -3.93819 0 1 -3.93819 1
gene 2 2 4 -3.01585 0 2 -3.01585 1
gene 1 3 4 2.71151 0 3 2.71151 1
gene 1 3 11 0.870075 0 18 0.870075 1
gene 1 11 4 2.6815 0 19 2.6815 1
gene 3 2 11 -2.02837 0 29 -2.02837 1
gene 2 1 11 -2.12707 0 62 -2.12707 1
gene 3 2 26 1.10777 0 74 1.10777 1
gene 3 26 11 2.03039 0 75 2.03039 1
genomeend 99

/* Organism #100 Fitness: 1.01298 Error: 2.99353 */
genomestart 100
trait 1 0.1 0 0 0 0 0 0 0 
trait 2 0.224382 0 0.338432 0 0.210491 0 0 0 
trait 3 0.3 0 0 0 0.280362 0 0.243165 0.251598 
node 1 2 1 3
node 2 2 1 1
node 3 3 1 1
node 4 3 0 2
node 11 1 0 0
node 26 1 0 0
gene 1 1 4 -2.74338 0 1 -2.74338 1
gene 2 2 4 -4.54911 0 2 -4.54911 1
gene 1 3 4 3.53852 0 3 3.53852 1
gene 1 3 11 -1.52241 0 18 -1.52241 1
gene 1 11 4 4.79678 0 19 4.79678 1
gene 3 2 11 -0.444615 0 29 -0.444615 0
gene 2 1 11 2.98904 0 62 2.98904 1
gene 3 2 26 2.29936 0 74 2.29936 1
gene 3 26 11 -0.344573 0 75 -0.344573 1
genomeend 100

/* Organism #101 Fitness: 4.01374 Error: 1.99657 */
genomestart 101
trait 1 0.1 0 0 0 0 0 0 0 
trait 2 0.216255 0 0.225621 0 0.140327 0 0 0 
trait 3 0.3 0 0 0 0.186908 0 0.16211 0.167732 
node 1 2 1 3
node 2 2 1 1
node 3 3 1 1
node 4 3 0 2
node 11 1 0 0
node 26 1 0 0
node 43 1 0 0
gene 1 1 4 -3.9897 0 1 -3.9897 1
gene 2 2 4 -4.16236 0 2 -4.16236 0
gene 1 3 4 2.98205 0 3 2.98205 1
gene 1 3 11 1.04712 0 18 1.04712 1
gene 1 11 4 1.94815 0 19 1.94815 1
gene 3 2 11 -1.54227 0 29 -1.54227 1
gene 2 1 11 0.140188 0 62 0.140188 1
gene 3 2 26 1.31498 0 74 1.31498 1
gene 3 26 11 -0.272417 0 75 -0.272417 1
gene 2 2 43 1 0 140 0 1
gene 2 43 4 -4.16236 0 141 0 1
genomeend 101

/* Organism #102 Fitness: 9 Error: 1 */
genomestart 102
trait 1 0.1 0 0 0 0 0 0 0 
trait 2 0.224382 0 0.338432 0 0.210491 0 0 0 
trait 3 0.3 0 0 0 0.280362 0 0.243165 0.251598 
node 1 2 1 3
node 2 2 1 1
node 3 3 1 1
node 4 3 0 2
node 11 1 0 0
node 26 1 0 0
gene 1 1 4 -5.78434 0 1 -5.78434 1
gene 2 2 4 -3.93607 0 2 -3.93607 1
gene 1 3 4 5.24294 0 3 5.24294 1
gene 1 3 11 2.94887 0 18 2.94887 1
gene 2 11 4 5.55775 0 19 5.55775 1
gene 3 2 11 -2.60316 0 29 -2.60316 0
gene 2 1 11 -0.142037 0 62 -0.142037 1
gene 3 2 26 0.67525 0 74 0.67525 1
gene 3 26 11 -4.17703 0 75 -4.17703 1
genomeend 102

/* Organism #103 Fitness: 8.99489 Error: 1.00085 */
genomestart 103
trait 1 0.1 0 0 0 0 0 0 0 
trait 2 0.23251 0 0.451242 0 0.280654 0 0 0 
trait 3 0.3 0 0 0 0.373816 0 0.32422 0.335464 
node 1 2 1 3
node 2 2 1 1
node 3 3 1 1
node 4 3 0 2
node 11 1 0 0
node 26 1 0 0
gene 1 1 4 -3.80475 0 1 -3.80475 1
gene 2 2 4 -1.99579 0 2 -1.99579 1
gene 1 3 4 4.35443 0 3 4.35443 1
gene 1 3 11 2.0584 0 18 2.0584 1
gene 2 11 4 5.77819 0 19 5.77819 1
gene 3 2 11 -1.40069 0 29 -1.40069 0
gene 2 1 11 -0.552667 0 62 -0.552667 1
gene 3 2 26 1.76793 0 74 1.76793 1
gene 3 26 11 -2.77707 0 75 -2.77707 1
genomeend 103

/* Organism #104 Fitness: 4.00003 Error: 1.99999 */
genomestart 104
trait 1 0.1 0 0 0 0 0 0 0 
trait 2 0.216255 0 0.225621 0 0.140327 0 0 0 
trait 3 0.3 0 0 0 0.186908 0 0.16211 0.167732 
node 1 2 1 3
node 2 2 1 1
node 3 3 1 1
node 4 3 0 2
node 11 1 0 0
node 26 3 0 0
gene 1 1 4 -4.75429 0 1 -4.75429 1
gene 2 2 4 -5.72503 0 2 -5.72503 1
gene 1 3 4 2.18279 0 3 2.18279 1
gene 1 3 11 1.208 0 18 1.208 1
gene 1 11 4 3.66898 0 19 3.66898 1
gene 3 2 11 -1.346 0 29 -1.346 1
gene 2 1 11 -1.89426 0 62 -1.89426 1
gene 3 2 26 0.465731 0 74 0.465731 1
gene 3 26 11 0.192298 0 75 0.192298 1
genomeend 104

/* Species #12 : (Size 9) (AF 5.47551) (Age 7)  */


/* Organism #105 Fitness: 8.95756 Error: 1.00708 */
genomestart 105
trait 1 0.1 0 0 0 0 0 0 0 
trait 2 0.2 0 0 0 0 0 0 0 
trait 3 0.3 0 0 0 0 0 0 0 
node 1 2 1 3
node 2 2 1 1
node 3 3 1 1
node 4 3 0 2
node 11 1 0 0
gene 1 1 4 -3.58831 0 1 -3.58831 1
gene 2 2 4 0.676669 0 2 0.676669 1
gene 1 3 4 1.45332 0 3 1.45332 0
gene 1 3 11 2.92136 0 18 2.92136 1
gene 1 11 4 4.88818 0 19 4.88818 1
gene 3 2 11 0.36093 0 29 0.36093 1
genomeend 105

/* Organism #106 Fitness: 4.2741 Error: 1.93261 */
genomestart 106
trait 1 0.1 0 0 0 0 0 0 0 
trait 2 0.2 0 0 0 0 0 0 0 
trait 3 0.3 0 0 0 0 0 0 0 
node 1 2 1 3
node 2 2 1 1
node 3 3 1 1
node 4 3 0 2
node 11 1 0 0
gene 1 1 4 -1.98738 0 1 -1.98738 1
gene 2 2 4 0.623197 0 2 0.623197 1
gene 1 3 4 2.23867 0 3 2.23867 0
gene 1 3 11 2.49157 0 18 2.49157 1
gene 1 11 4 5.04193 0 19 5.04193 1
gene 3 2 11 2.17815 0 29 2.17815 1
genomeend 106

/* Organism #107 Fitness: 4.00718 Error: 1.99821 */
genomestart 107
trait 1 0.1 0 0 0 0 0 0 0 
trait 2 0.2 0 0 0 0 0 0 0 
trait 3 0.3 0 0 0 0 0 0 0 
node 1 2 1 3
node 2 2 1 1
node 3 3 1 1
node 4 3 0 2
node 11 1 0 0
gene 1 1 4 -3.58831 0 1 -3.58831 1
gene 2 2 4 0.676669 0 2 0.676669 1
gene 1 3 4 1.45332 0 3 1.45332 0
gene 1 3 11 2.92136 0 18 2.92136 1
gene 1 11 4 4.88818 0 19 4.88818 1
gene 3 2 11 0.36093 0 29 0.36093 1
gene 3 1 11 0.701396 0 142 0.701396 1
genomeend 107

/* Organism #108 Fitness: 8.94569 Error: 1.00907 */
genomestart 108
trait 1 0.1 0 0 0 0 0 0 0 
trait 2 0.2 0 0 0 0 0 0 0 
trait 3 0.3 0 0 0 0 0 0 0 
node 1 2 1 3
node 2 2 1 1
node 3 3 1 1
node 4 3 0 2
node 11 1 0 0
gene 3 1 4 -3.29373 0 1 -3.29373 1
gene 2 2 4 0.10384 0 2 0.10384 1
gene 1 3 4 2.0557 0 3 2.0557 0
gene 1 3 11 2.99102 0 18 2.99102 1
gene 1 11 4 4.54047 0 19 4.54047 1
gene 3 2 11 0.861074 0 29 0.861074 1
genomeend 108

/* Organism #109 Fitness: 4 Error: 2 */
genomestart 109
trait 1 0.1 0 0 0 0 0 0 0 
trait 2 0.2 0 0 0 0 0 0 0 
trait 3 0.3 0 0 0 0 0 0 0 
node 1 2 1 3
node 2 2 1 1
node 3 3 1 1
node 4 3 0 2
node 11 1 0 0
gene 1 1 4 -2.7444 0 1 -2.7444 1
gene 2 2 4 -1.80862 0 2 -1.80862 1
gene 1 3 4 3.8481 0 3 3.8481 0
gene 1 3 11 2.4018 0 18 2.4018 1
gene 1 11 4 -2.2724 0 19 -2.2724 1
gene 3 2 11 0.360203 0 29 0.360203 1
genomeend 109

/* Organism #110 Fitness: 8.98688 Error: 1.00219 */
genomestart 110
trait 1 0.1 0 0 0 0 0 0 0 
trait 2 0.2 0 0 0 0 0 0.348263 0.620461 
trait 3 0.3 0 0 0 0 0 0 0 
node 1 2 1 3
node 2 2 1 1
node 3 3 1 1
node 4 3 0 2
node 11 1 0 0
gene 1 1 4 -4.63412 0 1 -4.63412 1
gene 2 2 4 1.0865 0 2 1.0865 1
gene 1 3 4 1.12532 0 3 1.12532 0
gene 1 3 11 1.42282 0 18 1.42282 1
gene 1 11 4 6.77647 0 19 6.77647 1
gene 3 2 11 1.25987 0 29 1.25987 1
genomeend 110

/* Organism #111 Fitness: 4.21955 Error: 1.94585 */
genomestart 111
trait 1 0.1 0 0 0 0 0 0 0 
trait 2 0.2 0 0 0 0 0 0 0 
trait 3 0.3 0 0 0 0 0 0 0 
node 1 2 1 3
node 2 2 1 1
node 3 3 1 1
node 4 3 0 2
node 11 1 0 0
gene 1 1 4 -0.579322 0 1 -0.579322 1
gene 2 2 4 -1.0922 0 2 -1.0922 1
gene 1 3 4 1.45332 0 3 1.45332 0
gene 1 3 11 -1.63122 0 18 -1.63122 1
gene 1 11 4 -2.3109 0 19 -2.3109 1
gene 3 2 11 1.89732 0 29 1.89732 1
genomeend 111

/* Organism #112 Fitness: 1.88849 Error: 2.62578 */
genomestart 112
trait 1 0.1 0 0 0 0 0 0 0 
trait 2 0.2 0 0 0 0 0 0 0 
trait 3 0.3 0 0 0 0 0 0 0 
node 1 2 1 3
node 2 2 1 1
node 3 3 1 1
node 4 3 0 2
node 11 1 0 0
gene 3 1 4 -0.531572 0 1 -0.531572 1
gene 2 2 4 0.371129 0 2 0.371129 1
gene 1 3 4 3.82757 0 3 3.82757 0
gene 1 3 11 2.99917 0 18 2.99917 1
gene 1 11 4 2.16483 0 19 2.16483 1
gene 3 2 11 -2.05404 0 29 -2.05404 1
genomeend 112

/* Organism #113 Fitness: 4.00012 Error: 1.99997 */
genomestart 113
trait 1 0.1 0 0 0 0 0 0 0 
trait 2 0.2 0 0 0 0 0 0 0 
trait 3 0.3 0 0 0 0 0 0 0 
node 1 2 1 3
node 2 2 1 1
node 3 3 1 1
node 4 3 0 2
node 11 1 0 0
node 44 1 0 0
gene 3 1 4 -2.99915 0 1 -2.99915 1
gene 2 2 4 -0.468989 0 2 -0.468989 1
gene 1 3 4 2.65809 0 3 2.65809 0
gene 1 3 11 3.06069 0 18 3.06069 0
gene 1 11 4 4.19276 0 19 4.19276 1
gene 3 2 11 1.36122 0 29 1.36122 1
gene 1 3 44 1 0 143 0 1
gene 1 44 11 3.06069 0 144 0 1
genomeend 113

/* Species #13 : (Size 12) (AF 6.29177) (Age 6)  */


/* Organism #114 Fitness: 8.97411 Error: 1.00432 */
genomestart 114
trait 1 0.1 0 0 0 0 0 0 0 
trait 2 0.2 0 0 0 0 0 0 0 
trait 3 0.3 0 0 0 0 0 0 0 
node 1 2 1 3
node 2 3 1 1
node 3 2 1 1
node 4 1 0 2
node 7 1 0 0
node 12 1 0 0
gene 1 1 4 -1.2961 0 1 -1.2961 1
gene 1 2 4 2.33376 0 2 2.33376 1
gene 1 3 4 1.29626 0 3 1.29626 0
gene 1 2 7 4.28648 0 8 4.28648 1
gene 1 7 4 2.06205 0 9 2.06205 1
gene 2 3 7 2.55283 0 20 2.55283 1
gene 1 3 12 3.28371 0 23 3.28371 1
gene 1 12 4 0.490375 0 24 0.490375 1
gene 3 1 12 -1.50666 0 83 -1.50666 1
gene 1 1 7 -0.715296 0 128 -0.715296 1
genomeend 114

/* Organism #115 Fitness: 8.90787 Error: 1.01539 */
genomestart 115
trait 1 0.1 0 0 0 0 0 0 0 
trait 2 0.2 0 0 0 0 0 0 0 
trait 3 0.3 0 0 0 0 0 0 0 
node 1 2 1 3
node 2 3 1 1
node 3 2 1 1
node 4 1 0 2
node 7 1 0 0
node 12 1 0 0
gene 1 1 4 -0.938801 0 1 -0.938801 1
gene 1 2 4 3.9696 0 2 3.9696 0
gene 1 3 4 2.76259 0 3 2.76259 1
gene 1 2 7 4.07857 0 8 4.07857 1
gene 1 7 4 3.28491 0 9 3.28491 1
gene 2 3 7 3.44502 0 20 3.44502 1
gene 1 3 12 5.38715 0 23 5.38715 1
gene 1 12 4 0.551554 0 24 0.551554 1
gene 3 1 12 -2.25236 0 83 -2.25236 1
gene 1 1 7 -0.715296 0 128 -0.715296 1
genomeend 115

/* Organism #116 Fitness: 4.78561 Error: 1.8124 */
genomestart 116
trait 1 0.1 0 0 0 0 0 0 0 
trait 2 0.2 0 0 0 0 0 0 0 
trait 3 0.3 0 0 0 0 0 0 0 
node 1 2 1 3
node 2 3 1 1
node 3 2 1 1
node 4 1 0 2
node 7 1 0 0
node 12 1 0 0
gene 1 1 4 -2.27967 0 1 -2.27967 1
gene 1 2 4 3.16836 0 2 3.16836 0
gene 1 3 4 1.55527 0 3 1.55527 0
gene 1 2 7 2.72772 0 8 2.72772 1
gene 1 7 4 5.15436 0 9 5.15436 1
gene 2 3 7 1.54667 0 20 1.54667 1
gene 1 3 12 4.10609 0 23 4.10609 1
gene 1 12 4 0.0652895 0 24 0.0652895 1
gene 3 1 12 -1.26476 0 83 -1.26476 1
genomeend 116

/* Organism #117 Fitness: 5.22406 Error: 1.71438 */
genomestart 117
trait 1 0.1 0 0 0 0 0 0 0 
trait 2 0.2 0 0 0 0 0 0 0 
trait 3 0.3 0 0 0 0 0 0 0 
node 1 2 1 3
node 2 3 1 1
node 3 2 1 1
node 4 1 0 2
node 7 1 0 0
node 12 1 0 0
gene 1 1 4 -2.27967 0 1 -2.27967 1
gene 1 2 4 2.75106 0 2 2.75106 1
gene 1 3 4 1.29626 0 3 1.29626 0
gene 1 2 7 3.5071 0 8 3.5071 1
gene 1 7 4 2.06205 0 9 2.06205 1
gene 2 3 7 1.54667 0 20 1.54667 1
gene 1 3 12 3.28371 0 23 3.28371 1
gene 1 12 4 0.0652895 0 24 0.0652895 1
gene 3 1 12 -1.50666 0 83 -1.50666 1
gene 1 1 7 -0.715296 0 128 -0.715296 1
genomeend 117

/* Organism #118 Fitness: 4.00477 Error: 1.99881 */
genomestart 118
trait 1 0.1 0 0 0 0 0 0 0 
trait 2 0.2 0 0 0 0 0 0 0 
trait 3 0.3 0 0 0 0 0 0 0 
node 1 2 1 3
node 2 3 1 1
node 3 2 1 1
node 4 1 0 2
node 7 1 0 0
node 12 1 0 0
gene 1 1 4 0.431616 0 1 0.431616 1
gene 1 2 4 1.92233 0 2 1.92233 0
gene 1 3 4 2.3826 0 3 2.3826 0
gene 1 2 7 5.52739 0 8 5.52739 1
gene 1 7 4 1.43271 0 9 1.43271 1
gene 2 3 7 -0.214088 0 20 -0.214088 1
gene 1 3 12 1.04282 0 23 1.04282 1
gene 1 12 4 0.18834 0 24 0.18834 1
gene 3 1 12 -1.91166 0 83 -1.91166 1
gene 1 1 7 -2.60822 0 128 -2.60822 1
genomeend 118

/* Organism #119 Fitness: 8.34289 Error: 1.11159 */
genomestart 119
trait 1 0.1 0 0 0 0 0 0 0 
trait 2 0.2 0 0 0 0 0 0 0 
trait 3 0.3 0 0 0 0 0 0 0 
node 1 2 1 3
node 2 3 1 1
node 3 2 1 1
node 4 1 0 2
node 7 1 0 0
node 12 1 0 0
gene 1 1 4 -3.35094 0 1 -3.35094 1
gene 1 2 4 2.27863 0 2 2.27863 0
gene 1 3 4 -0.110616 0 3 -0.110616 1
gene 1 2 7 3.60622 0 8 3.60622 1
gene 1 7 4 5.85928 0 9 5.85928 1
gene 2 3 7 1.27882 0 20 1.27882 1
gene 1 3 12 1.70291 0 23 1.70291 1
gene 1 12 4 -2.46525 0 24 -2.46525 1
gene 3 1 12 -2.96434 0 83 -2.96434 1
genomeend 119

/* Organism #120 Fitness: 5.01862 Error: 1.75977 */
genomestart 120
trait 1 0.1 0 0 0 0 0 0 0 
trait 2 0.2 0 0 0 0 0 0 0 
trait 3 0.3 0 0 0 0 0 0 0 
node 1 2 1 3
node 2 3 1 1
node 3 2 1 1
node 4 1 0 2
node 7 1 0 0
node 12 1 0 0
gene 1 1 4 -0.821952 0 1 -0.821952 1
gene 1 2 4 3.2874 0 2 3.2874 1
gene 1 3 4 0.0874047 0 3 0.0874047 0
gene 1 2 7 4.6154 0 8 4.6154 1
gene 1 7 4 0.712841 0 9 0.712841 1
gene 2 3 7 3.23637 0 20 3.23637 1
gene 1 3 12 -0.235098 0 23 -0.235098 1
gene 1 12 4 0.546931 0 24 0.546931 1
gene 3 1 12 -0.532895 0 83 -0.532895 1
gene 1 1 7 0.0741634 0 128 0.0741634 1
genomeend 120

/* Organism #121 Fitness: 5.06075 Error: 1.75039 */
genomestart 121
trait 1 0.1 0 0 0 0 0 0 0 
trait 2 0.2 0 0 0 0 0 0 0 
trait 3 0.3 0 0 0 0 0 0 0 
node 1 2 1 3
node 2 3 1 1
node 3 2 1 1
node 4 1 0 2
node 7 1 0 0
node 12 1 0 0
gene 1 1 4 -2.17329 0 1 -2.17329 1
gene 1 2 4 -0.360167 0 2 -0.360167 1
gene 1 3 4 3.62694 0 3 3.62694 0
gene 1 2 7 1.68759 0 8 1.68759 1
gene 1 7 4 1.95344 0 9 1.95344 1
gene 2 3 7 1.64499 0 20 1.64499 1
gene 1 3 12 -2.39107 0 23 -2.39107 1
gene 1 12 4 1.43881 0 24 1.43881 1
gene 3 1 12 -1.97679 0 83 -1.97679 1
gene 2 12 7 -0.290266 0 129 -0.290266 1
genomeend 121

/* Organism #122 Fitness: 3.99984 Error: 2.00004 */
genomestart 122
trait 1 0.1 0 0 0 0 0 0 0 
trait 2 0.2 0 0 0 0 0 0 0 
trait 3 0.3 0 0 0 0 0 0 0 
node 1 2 1 3
node 2 3 1 1
node 3 2 1 1
node 4 1 0 2
node 7 1 0 0
node 12 1 0 0
gene 1 1 4 -2.79715 0 1 -2.79715 1
gene 1 2 4 4.18306 0 2 4.18306 1
gene 1 3 4 2.84133 0 3 2.84133 0
gene 1 2 7 3.7237 0 8 3.7237 1
gene 1 7 4 2.53027 0 9 2.53027 1
gene 2 3 7 2.46503 0 20 2.46503 1
gene 1 3 12 3.19238 0 23 3.19238 1
gene 1 12 4 -2.26259 0 24 -2.26259 1
gene 3 1 12 -0.807601 0 83 -0.807601 1
gene 2 12 7 -0.900877 0 129 -0.900877 1
genomeend 122

/* Organism #123 Fitness: 4 Error: 2 */
genomestart 123
trait 1 0.1 0 0 0 0 0 0 0 
trait 2 0.2 0 0 0 0 0 0 0 
trait 3 0.3 0 0 0 0 0 0 0 
node 1 2 1 3
node 2 3 1 1
node 3 2 1 1
node 4 1 0 2
node 7 1 0 0
node 12 1 0 0
gene 1 1 4 -3.26323 0 1 -3.26323 1
gene 1 2 4 4.85646 0 2 4.85646 0
gene 1 3 4 0.527326 0 3 0.527326 1
gene 1 2 7 4.44672 0 8 4.44672 1
gene 1 7 4 -0.680811 0 9 -0.680811 1
gene 2 3 7 2.00059 0 20 2.00059 1
gene 1 3 12 4.79373 0 23 4.79373 1
gene 1 12 4 -0.359796 0 24 -0.359796 1
gene 3 1 12 -1.58426 0 83 -1.58426 1
genomeend 123

/* Organism #124 Fitness: 8.79001 Error: 1.0352 */
genomestart 124
trait 1 0.1 0 0 0 0 0 0 0 
trait 2 0.2 0 0 0 0 0 0 0 
trait 3 0.3 0 0 0 0 0 0 0 
node 1 2 1 3
node 2 3 1 1
node 3 2 1 1
node 4 1 0 2
node 7 1 0 0
node 12 1 0 0
gene 1 1 4 -3.26323 0 1 -3.26323 1
gene 1 2 4 2.75106 0 2 2.75106 0
gene 1 3 4 1.55527 0 3 1.55527 0
gene 1 2 7 2.72772 0 8 2.72772 1
gene 1 7 4 5.15436 0 9 5.15436 1
gene 2 3 7 0.540514 0 20 0.540514 1
gene 1 3 12 4.92846 0 23 4.92846 1
gene 1 12 4 -0.359796 0 24 -0.359796 1
gene 3 1 12 -1.26476 0 83 -1.26476 1
genomeend 124

/* Organism #125 Fitness: 8.39273 Error: 1.10298 */
genomestart 125
trait 1 0 0 0 0 0 0.336061 0.0188511 0 
trait 2 0.2 0 0 0 0 0 0 0 
trait 3 0.3 0 0 0 0 0 0 0 
node 1 2 1 3
node 2 3 1 1
node 3 2 1 1
node 4 1 0 2
node 7 1 0 0
node 12 1 0 0
gene 1 1 4 -2.16292 0 1 -2.16292 1
gene 1 2 4 3.06454 0 2 3.06454 1
gene 1 3 4 2.08512 0 3 2.08512 0
gene 1 2 7 5.04352 0 8 5.04352 1
gene 1 7 4 2.66903 0 9 2.66903 1
gene 2 3 7 4.70661 0 20 4.70661 1
gene 1 3 12 1.76521 0 23 1.76521 1
gene 1 12 4 1.7534 0 24 1.7534 1
gene 3 1 12 0.784243 0 83 0.784243 1
gene 1 1 7 -1.23698 0 128 -1.23698 1
genomeend 125

/* Species #14 : (Size 7) (AF 4.1969) (Age 6)  */


/* Organism #126 Fitness: 6.43379 Error: 1.46351 */
genomestart 126
trait 1 0.1 0 0 0.471037 0.406594 0 0.0512033 0 
trait 2 0.2 0 0 0 0 0 0 0 
trait 3 0.3 0 0 0 0 0 0 0 
node 1 2 1 3
node 2 2 1 1
node 3 3 1 1
node 4 3 0 2
node 11 1 0 0
node 28 1 0 0
gene 2 1 4 0.0765478 0 1 0.0765478 1
gene 2 2 4 -1.04765 0 2 -1.04765 1
gene 1 3 4 0.522218 0 3 0.522218 0
gene 1 3 11 -1.01145 0 18 -1.01145 1
gene 1 11 4 -3.16098 0 19 -3.16098 0
gene 3 2 11 -0.199848 0 29 -0.199848 1
gene 1 11 28 1.2187 0 86 1.2187 1
gene 1 28 4 1.54103 0 87 1.54103 1
genomeend 126

/* Organism #127 Fitness: 4.02887 Error: 1.9928 */
genomestart 127
trait 1 0.1 0 0 0.471037 0.406594 0 0.0512033 0 
trait 2 0.2 0 0 0 0 0 0 0 
trait 3 0.3 0 0 0 0 0 0 0 
node 1 2 1 3
node 2 2 1 1
node 3 3 1 1
node 4 3 0 2
node 11 1 0 0
node 28 1 0 0
gene 2 1 4 -1.46916 0 1 -1.46916 1
gene 2 2 4 -3.45985 0 2 -3.45985 1
gene 1 3 4 2.60475 0 3 2.60475 0
gene 1 3 11 0.356008 0 18 0.356008 1
gene 1 11 4 -4.48714 0 19 -4.48714 0
gene 3 2 11 1.12039 0 29 1.12039 1
gene 1 11 28 1.32629 0 86 1.32629 1
gene 1 28 4 0.898197 0 87 0.898197 1
genomeend 127

/* Organism #128 Fitness: 4.00016 Error: 1.99996 */
genomestart 128
trait 1 0.1 0 0 0.471037 0.406594 0 0.0512033 0 
trait 2 0.2 0 0 0 0 0 0 0 
trait 3 0.3 0 0 0 0 0 0 0 
node 1 2 1 3
node 2 2 1 1
node 3 3 1 1
node 4 3 0 2
node 11 1 0 0
node 28 1 0 0
gene 2 1 4 1.57543 0 1 1.57543 1
gene 2 2 4 -0.807342 0 2 -0.807342 1
gene 1 3 4 0.662751 0 3 0.662751 0
gene 1 3 11 -1.91528 0 18 -1.91528 1
gene 1 11 4 -4.0162 0 19 -4.0162 0
gene 3 2 11 -1.65365 0 29 -1.65365 1
gene 1 11 28 -0.194863 0 86 -0.194863 1
gene 1 28 4 0.373521 0 87 0.373521 1
genomeend 128

/* Organism #129 Fitness: 4 Error: 2 */
genomestart 129
trait 1 0.1 0 0 0.471037 0.406594 0 0.0512033 0 
trait 2 0.2 0 0 0 0 0 0 0 
trait 3 0.3 0 0 0 0 0 0 0 
node 1 2 1 3
node 2 2 1 1
node 3 3 1 1
node 4 3 0 2
node 11 1 0 0
node 28 1 0 0
gene 2 1 4 1.75862 0 1 1.75862 1
gene 2 2 4 -1.6153 0 2 -1.6153 1
gene 1 3 4 2.83423 0 3 2.83423 0
gene 1 3 11 0.254362 0 18 0.254362 1
gene 1 11 4 -0.932168 0 19 -0.932168 0
gene 3 2 11 -2.47603 0 29 -2.47603 1
gene 1 11 28 2.7342 0 86 2.7342 1
gene 1 28 4 3.4747 0 87 3.4747 1
genomeend 129

/* Organism #130 Fitness: 2.91553 Error: 2.29251 */
genomestart 130
trait 1 0.1 0 0 0.471037 0.406594 0 0.0512033 0 
trait 2 0.2 0 0 0 0 0 0 0 
trait 3 0.3 0 0 0 0 0 0 0 
node 1 2 1 3
node 2 2 1 1
node 3 3 1 1
node 4 3 0 2
node 11 1 0 0
node 28 1 0 0
gene 2 1 4 0.0765478 0 1 0.0765478 1
gene 2 2 4 -1.04765 0 2 -1.04765 1
gene 1 3 4 0.522218 0 3 0.522218 0
gene 1 3 11 -1.01145 0 18 -1.01145 1
gene 1 11 4 -3.16098 0 19 -3.16098 0
gene 3 2 11 -0.199848 0 29 -0.199848 1
gene 1 11 28 1.2187 0 86 1.2187 1
gene 1 28 4 1.54103 0 87 1.54103 1
gene 2 1 28 -0.788486 0 145 -0.788486 1
genomeend 130

/* Organism #131 Fitness: 3.99998 Error: 2 */
genomestart 131
trait 1 0.1 0 0 0.471037 0.406594 0 0.0512033 0 
trait 2 0.2 0 0 0 0 0 0 0 
trait 3 0.3 0 0 0 0 0 0 0 
node 1 2 1 3
node 2 2 1 1
node 3 3 1 1
node 4 3 0 2
node 11 1 0 0
node 28 1 0 0
gene 2 1 4 0.327798 0 1 0.327798 1
gene 2 2 4 -0.443008 0 2 -0.443008 1
gene 1 3 4 0.98064 0 3 0.98064 0
gene 1 3 11 0.0261068 0 18 0.0261068 1
gene 1 11 4 -4.00889 0 19 -4.00889 0
gene 3 2 11 -0.143981 0 29 -0.143981 1
gene 1 11 28 1.2187 0 86 1.2187 1
gene 1 28 4 -2.30967 0 87 -2.30967 1
genomeend 131

/* Organism #132 Fitness: 3.99999 Error: 2 */
genomestart 132
trait 1 0.1 0 0 0 0 0 0 0 
trait 2 0.2 0 0 0 0 0 0 0 
trait 3 0.3 0 0 0 0 0 0 0 
node 1 2 1 3
node 2 2 1 1
node 3 3 1 1
node 4 3 0 2
node 11 1 0 0
node 28 1 0 0
gene 2 1 4 1.39857 0 1 1.39857 1
gene 2 2 4 1.17896 0 2 1.17896 1
gene 1 3 4 -1.68014 0 3 -1.68014 0
gene 1 3 11 -1.49538 0 18 -1.49538 1
gene 1 11 4 -2.0696 0 19 -2.0696 0
gene 3 2 11 1.62202 0 29 1.62202 1
gene 1 11 28 0.0830568 0 86 0.0830568 1
gene 1 28 4 0.0145065 0 87 0.0145065 1
genomeend 132

/* Species #15 : (Size 10) (AF 6.85317) (Age 5)  */


/* Organism #133 Fitness: 8.47305 Error: 1.08915 */
genomestart 133
trait 1 0.1 0 0 0 0 0 0 0 
trait 2 0.2 0 0 0 0 0 0 0 
trait 3 0.3 0 0 0 0 0 0 0 
node 1 2 1 3
node 2 3 1 1
node 3 2 1 1
node 4 1 0 2
node 7 1 0 0
node 12 1 0 0
node 29 1 0 0
gene 1 1 4 1.18942 0 1 1.18942 1
gene 1 2 4 4.5028 0 2 4.5028 0
gene 1 3 4 -0.86482 0 3 -0.86482 0
gene 1 2 7 -4.75979 0 8 -4.75979 1
gene 1 7 4 1.24148 0 9 1.24148 1
gene 2 3 7 0.200638 0 20 0.200638 1
gene 1 3 12 -0.752091 0 23 -0.752091 1
gene 1 12 4 0.474086 0 24 0.474086 0
gene 1 7 12 -2.5637 0 46 -2.5637 1
gene 1 12 29 -0.446674 0 91 -0.446674 1
gene 1 29 4 -3.20088 0 92 -3.20088 1
genomeend 133

/* Organism #134 Fitness: 8.34962 Error: 1.11043 */
genomestart 134
trait 1 0.1 0 0 0 0 0 0 0 
trait 2 0.2 0 0 0 0 0 0 0 
trait 3 0.3 0 0 0 0 0 0 0 
node 1 2 1 3
node 2 3 1 1
node 3 2 1 1
node 4 1 0 2
node 7 1 0 0
node 12 1 0 0
node 29 1 0 0
gene 1 1 4 1.18942 0 1 1.18942 1
gene 1 2 4 3.14947 0 2 3.14947 0
gene 1 3 4 -1.79928 0 3 -1.79928 0
gene 1 2 7 -4.75979 0 8 -4.75979 1
gene 1 7 4 0.111015 0 9 0.111015 1
gene 2 3 7 0.200638 0 20 0.200638 1
gene 1 3 12 -1.56471 0 23 -1.56471 1
gene 1 12 4 0.474086 0 24 0.474086 0
gene 1 7 12 -4.28588 0 46 -4.28588 1
gene 1 12 29 -1.02219 0 91 -1.02219 1
gene 1 29 4 -3.20088 0 92 -3.20088 1
genomeend 134

/* Organism #135 Fitness: 5.37726 Error: 1.68111 */
genomestart 135
trait 1 0.1 0 0 0 0 0 0 0 
trait 2 0.2 0 0 0 0 0 0 0 
trait 3 0.3 0 0 0 0 0 0 0 
node 1 2 1 3
node 2 3 1 1
node 3 2 1 1
node 4 1 0 2
node 7 1 0 0
node 12 1 0 0
node 29 1 0 0
gene 1 1 4 -0.380037 0 1 -0.380037 1
gene 1 2 4 2.3871 0 2 2.3871 0
gene 1 3 4 0.224485 0 3 0.224485 0
gene 1 2 7 -1.77428 0 8 -1.77428 1
gene 1 7 4 -1.32653 0 9 -1.32653 1
gene 2 3 7 -0.651167 0 20 -0.651167 1
gene 1 3 12 -0.636217 0 23 -0.636217 1
gene 1 12 4 0.474086 0 24 0.474086 1
gene 1 7 12 -1.97921 0 46 -1.97921 1
gene 1 12 29 -3.08059 0 91 -3.08059 1
gene 1 29 4 -1.08142 0 92 -1.08142 1
genomeend 135

/* Organism #136 Fitness: 9.2417 Error: 0.959984 */
/* ##------$ WINNER 136 SPECIES #15 $------## */
genomestart 136
trait 1 0.1 0 0 0 0 0 0 0 
trait 2 0.2 0 0 0 0 0 0 0 
trait 3 0.3 0 0 0 0 0 0 0 
node 1 2 1 3
node 2 3 1 1
node 3 2 1 1
node 4 1 0 2
node 7 1 0 0
node 12 1 0 0
node 29 1 0 0
gene 1 1 4 1.18942 0 1 1.18942 1
gene 1 2 4 3.82614 0 2 3.82614 0
gene 1 3 4 -1.33205 0 3 -1.33205 0
gene 1 2 7 -4.43399 0 8 -4.43399 1
gene 1 7 4 0.676248 0 9 0.676248 1
gene 2 3 7 0.200638 0 20 0.200638 1
gene 1 3 12 -1.1584 0 23 -1.1584 1
gene 1 12 4 0.474086 0 24 0.474086 0
gene 1 7 12 -3.42479 0 46 -3.42479 1
gene 1 12 29 -0.73443 0 91 -0.73443 1
gene 1 29 4 -3.20088 0 92 -3.20088 1
genomeend 136

/* Organism #137 Fitness: 4 Error: 2 */
genomestart 137
trait 1 0.1 0 0 0 0 0 0 0 
trait 2 0.2 0 0 0 0 0 0 0 
trait 3 0.3 0 0 0 0 0 0 0 
node 1 2 1 3
node 2 3 1 1
node 3 2 1 1
node 4 1 0 2
node 7 1 0 0
node 12 1 0 0
node 29 1 0 0
gene 1 1 4 -1.80687 0 1 -1.80687 1
gene 1 2 4 3.36578 0 2 3.36578 0
gene 1 3 4 -2.20111 0 3 -2.20111 0
gene 1 2 7 -7.06934 0 8 -7.06934 1
gene 1 7 4 0.379818 0 9 0.379818 1
gene 2 3 7 -1.56059 0 20 -1.56059 1
gene 1 3 12 -0.752091 0 23 -0.752091 1
gene 1 12 4 0.474086 0 24 0.474086 0
gene 1 7 12 -0.520185 0 46 -0.520185 1
gene 1 12 29 1.96294 0 91 1.96294 1
gene 1 29 4 -3.0012 0 92 -3.0012 1
genomeend 137

/* Organism #138 Fitness: 3.99998 Error: 2.00001 */
genomestart 138
trait 1 0.1 0 0 0 0 0 0 0 
trait 2 0.2 0 0 0 0 0 0 0 
trait 3 0.3 0 0 0 0 0 0 0 
node 1 2 1 3
node 2 3 1 1
node 3 2 1 1
node 4 1 0 2
node 7 1 0 0
node 12 1 0 0
node 29 1 0 0
gene 1 1 4 2.80771 0 1 2.80771 1
gene 1 2 4 -2.3354 0 2 -2.3354 0
gene 1 3 4 -2.75362 0 3 -2.75362 0
gene 1 2 7 -2.85644 0 8 -2.85644 1
gene 1 7 4 1.58738 0 9 1.58738 1
gene 2 3 7 -0.560929 0 20 -0.560929 1
gene 1 3 12 2.47617 0 23 2.47617 1
gene 1 12 4 1.42292 0 24 1.42292 0
gene 1 7 12 1.46502 0 46 1.46502 1
gene 1 12 29 -0.446674 0 91 -0.446674 1
gene 1 29 4 -1.57793 0 92 -1.57793 1
genomeend 138

/* Organism #139 Fitness: 5.21049 Error: 1.71735 */
genomestart 139
trait 1 0.1 0 0 0 0 0 0 0 
trait 2 0.2 0 0 0 0 0 0 0 
trait 3 0.3 0 0 0 0 0 0 0 
node 1 2 1 3
node 2 3 1 1
node 3 2 1 1
node 4 1 0 2
node 7 1 0 0
node 12 1 0 0
node 29 1 0 0
gene 1 1 4 -0.458989 0 1 -0.458989 1
gene 1 2 4 2.48616 0 2 2.48616 0
gene 1 3 4 -2.26239 0 3 -2.26239 0
gene 1 2 7 -4.59848 0 8 -4.59848 1
gene 1 7 4 1.33589 0 9 1.33589 1
gene 2 3 7 -0.571391 0 20 -0.571391 1
gene 1 3 12 -1.38036 0 23 -1.38036 1
gene 1 12 4 1.01958 0 24 1.01958 1
gene 1 7 12 -2.37166 0 46 -2.37166 1
gene 1 12 29 -1.08865 0 91 -1.08865 1
gene 1 29 4 -3.73612 0 92 -3.73612 1
genomeend 139

/* Organism #140 Fitness: 8.38548 Error: 1.10423 */
genomestart 140
trait 1 0.1 0 0 0 0 0 0 0 
trait 2 0.2 0 0 0 0 0 0 0 
trait 3 0.3 0 0 0 0 0 0 0 
node 1 2 1 3
node 2 3 1 1
node 3 2 1 1
node 4 1 0 2
node 7 1 0 0
node 12 1 0 0
node 29 1 0 0
gene 1 1 4 1.18942 0 1 1.18942 1
gene 1 2 4 3.14947 0 2 3.14947 0
gene 1 3 4 -1.79928 0 3 -1.79928 0
gene 1 2 7 -4.10819 0 8 -4.10819 1
gene 1 7 4 0.111015 0 9 0.111015 1
gene 2 3 7 0.200638 0 20 0.200638 1
gene 1 3 12 -1.56471 0 23 -1.56471 1
gene 1 12 4 0.474086 0 24 0.474086 1
gene 1 7 12 -4.28588 0 46 -4.28588 1
gene 1 12 29 -1.02219 0 91 -1.02219 1
gene 1 29 4 -3.20088 0 92 -3.20088 1
genomeend 140

/* Organism #141 Fitness: 7.10365 Error: 1.33473 */
genomestart 141
trait 1 0.1 0 0 0 0 0 0 0 
trait 2 0.2 0 0 0 0 0 0 0 
trait 3 0.3 0 0 0 0 0 0 0 
node 1 2 1 3
node 2 3 1 1
node 3 2 1 1
node 4 1 0 2
node 7 1 0 0
node 12 1 0 0
node 29 1 0 0
gene 1 1 4 2.60609 0 1 2.60609 1
gene 1 2 4 3.45628 0 2 3.45628 0
gene 1 3 4 1.07017 0 3 1.07017 0
gene 1 2 7 -3.75181 0 8 -3.75181 1
gene 1 7 4 -1.15174 0 9 -1.15174 1
gene 2 3 7 -1.46075 0 20 -1.46075 1
gene 1 3 12 -0.618201 0 23 -0.618201 1
gene 1 12 4 0.138486 0 24 0.138486 0
gene 1 7 12 -2.4525 0 46 -2.4525 1
gene 1 12 29 -2.68726 0 91 -2.68726 1
gene 1 29 4 -4.40915 0 92 -4.40915 1
genomeend 141

/* Organism #142 Fitness: 8.39045 Error: 1.10337 */
genomestart 142
trait 1 0.1 0 0 0 0 0 0 0 
trait 2 0.2 0 0 0 0 0 0 0 
trait 3 0.3 0 0 0 0 0 0 0 
node 1 2 1 3
node 2 3 1 1
node 3 2 1 1
node 4 1 0 2
node 7 1 0 0
node 12 1 0 0
node 29 1 0 0
gene 1 1 4 1.18942 0 1 1.18942 1
gene 1 2 4 3.14947 0 2 3.14947 0
gene 1 3 4 -1.79928 0 3 -1.79928 0
gene 1 2 7 -4.10819 0 8 -4.10819 1
gene 1 7 4 0.111015 0 9 0.111015 1
gene 2 3 7 0.200638 0 20 0.200638 1
gene 1 3 12 -1.56471 0 23 -1.56471 1
gene 1 12 4 0.474086 0 24 0.474086 1
gene 1 7 12 -4.28588 0 46 -4.28588 1
gene 1 12 29 -1.02219 0 91 -1.02219 1
gene 1 29 4 -3.20088 0 92 -3.20088 1
gene 2 7 29 -0.695945 0 146 -0.695945 1
genomeend 142

/* Species #16 : (Size 6) (AF 3.95151) (Age 3)  */


/* Organism #143 Fitness: 4.02197 Error: 1.99451 */
genomestart 143
trait 1 0.1 0 0 0 0 0 0 0 
trait 2 0.15 0 0 0 0 0.412883 0 0 
trait 3 0.32798 0.0594175 0.0392182 0 0.0103195 0 0 0 
node 1 1 1 3
node 2 2 1 1
node 3 3 1 1
node 4 1 0 2
node 10 1 0 0
node 13 1 0 0
node 31 1 0 0
gene 2 1 4 0.287928 0 1 0.287928 1
gene 2 2 4 2.21618 0 2 2.21618 0
gene 1 3 4 -2.60342 0 3 -2.60342 1
gene 2 2 10 -2.44007 0 14 -2.44007 1
gene 2 10 4 5.87477 0 15 5.87477 0
gene 2 10 13 -0.361245 0 26 -0.361245 0
gene 2 13 4 -1.46984 0 27 -1.46984 1
gene 2 10 31 1.97352 0 97 1.97352 1
gene 2 31 13 0.67576 0 98 0.67576 1
gene 3 3 13 -1.55673 0 110 -1.55673 1
genomeend 143

/* Organism #144 Fitness: 3.6433 Error: 2.09126 */
genomestart 144
trait 1 0.1 0 0 0 0 0 0 0 
trait 2 0.15 0 0 0 0 0.412883 0 0 
trait 3 0.32798 0.0594175 0.0392182 0 0.0103195 0 0 0 
node 1 1 1 3
node 2 2 1 1
node 3 3 1 1
node 4 1 0 2
node 10 1 0 0
node 13 1 0 0
node 31 1 0 0
gene 2 1 4 0.362344 0 1 0.362344 1
gene 2 2 4 2.11909 0 2 2.11909 0
gene 1 3 4 -0.353091 0 3 -0.353091 1
gene 2 2 10 -2.23092 0 14 -2.23092 1
gene 2 10 4 4.64845 0 15 4.64845 0
gene 2 10 13 -1.90388 0 26 -1.90388 0
gene 2 13 4 0.549396 0 27 0.549396 1
gene 2 10 31 2.16505 0 97 2.16505 1
gene 2 31 13 -0.751774 0 98 -0.751774 1
gene 3 3 13 0.724652 0 110 0.724652 1
genomeend 144

/* Organism #145 Fitness: 4.00112 Error: 1.99972 */
genomestart 145
trait 1 0.1 0 0 0 0 0 0 0 
trait 2 0.15 0 0 0 0 0.412883 0 0 
trait 3 0.32798 0.0594175 0.0392182 0 0.0103195 0 0 0 
node 1 1 1 3
node 2 2 1 1
node 3 3 1 1
node 4 1 0 2
node 10 1 0 0
node 13 1 0 0
node 31 1 0 0
gene 2 1 4 -3.99149 0 1 -3.99149 1
gene 2 2 4 3.1704 0 2 3.1704 0
gene 1 3 4 0.966989 0 3 0.966989 1
gene 2 2 10 -0.394772 0 14 -0.394772 1
gene 2 10 4 3.95546 0 15 3.95546 0
gene 2 10 13 -1.74939 0 26 -1.74939 0
gene 2 13 4 2.72422 0 27 2.72422 1
gene 2 10 31 -2.07521 0 97 -2.07521 1
gene 2 31 13 1.66222 0 98 1.66222 1
gene 3 3 13 -1.39308 0 110 -1.39308 1
genomeend 145

/* Organism #146 Fitness: 4 Error: 2 */
genomestart 146
trait 1 0.1 0 0 0 0 0 0 0 
trait 2 0.15 0 0 0 0 0.412883 0 0 
trait 3 0.32798 0.0594175 0.0392182 0 0.0103195 0 0 0 
node 1 1 1 3
node 2 2 1 1
node 3 3 1 1
node 4 1 0 2
node 10 1 0 0
node 13 1 0 0
node 31 1 0 0
gene 2 1 4 -3.37019 0 1 -3.37019 1
gene 2 2 4 3.73534 0 2 3.73534 0
gene 1 3 4 -0.658996 0 3 -0.658996 1
gene 2 2 10 -0.674359 0 14 -0.674359 1
gene 2 10 4 5.06615 0 15 5.06615 0
gene 2 10 13 1.2612 0 26 1.2612 0
gene 2 13 4 -0.982145 0 27 -0.982145 1
gene 2 10 31 3.2292 0 97 3.2292 1
gene 2 31 13 0.765238 0 98 0.765238 1
gene 3 3 13 -1.95344 0 110 -1.95344 1
genomeend 146

/* Organism #147 Fitness: 3.99961 Error: 2.0001 */
genomestart 147
trait 1 0.1 0 0 0 0 0 0 0 
trait 2 0.15 0 0 0 0 0.412883 0 0 
trait 3 0.32798 0.0594175 0.0392182 0 0.0103195 0 0 0 
node 1 1 1 3
node 2 2 1 1
node 3 3 1 1
node 4 1 0 2
node 10 1 0 0
node 13 1 0 0
node 31 1 0 0
gene 2 1 4 -2.96202 0 1 -2.96202 1
gene 2 2 4 4.63193 0 2 4.63193 0
gene 1 3 4 -1.81347 0 3 -1.81347 1
gene 2 2 10 -1.0795 0 14 -1.0795 1
gene 2 10 4 6.68513 0 15 6.68513 0
gene 2 10 13 0.947313 0 26 0.947313 0
gene 2 13 4 1.5603 0 27 1.5603 1
gene 2 10 31 3.43937 0 97 3.43937 1
gene 2 31 13 1.67241 0 98 1.67241 1
gene 3 3 13 0.263078 0 110 0.263078 1
genomeend 147

/* Organism #148 Fitness: 4.04308 Error: 1.98926 */
genomestart 148
trait 1 0.1 0 0 0 0 0 0 0 
trait 2 0.15 0 0 0 0 0.412883 0 0 
trait 3 0.32798 0.0594175 0.0392182 0 0.0103195 0 0 0 
node 1 1 1 3
node 2 2 1 1
node 3 3 1 1
node 4 1 0 2
node 10 1 0 0
node 13 1 0 0
node 31 1 0 0
gene 2 1 4 1.95536 0 1 1.95536 1
gene 2 2 4 3.15502 0 2 3.15502 0
gene 1 3 4 -1.24728 0 3 -1.24728 1
gene 2 2 10 -2.44007 0 14 -2.44007 1
gene 2 10 4 8 0 15 8 0
gene 2 10 13 -0.82708 0 26 -0.82708 0
gene 2 13 4 -1.59106 0 27 -1.59106 1
gene 2 10 31 1.40695 0 97 1.40695 1
gene 2 31 13 0.67576 0 98 0.67576 1
gene 3 3 13 -0.0945564 0 110 -0.0945564 1
genomeend 148

/* Species #17 : (Size 1) (AF 8.98879) (Age 1)  */


/* Organism #149 Fitness: 8.98879 Error: 1.00187 */
genomestart 149
trait 1 0.1 0 0 0 0 0 0 0 
trait 2 0.133684 0 0 0 0 0 0 0 
trait 3 0.3 0 0 0 0 0 0 0 
node 1 3 1 3
node 2 2 1 1
node 3 3 1 1
node 4 3 0 2
node 21 1 0 0
node 42 1 0 0
gene 1 1 4 -1.82577 0 1 -1.82577 1
gene 1 2 4 3.88086 0 2 3.88086 1
gene 1 3 4 5.40607 0 3 5.40607 0
gene 1 3 21 1.48135 0 57 1.48135 0
gene 1 21 4 5.14117 0 58 5.14117 1
gene 1 1 21 -1.17198 0 79 -1.17198 1
gene 1 3 42 1 0 137 0 1
gene 1 42 21 1.48135 0 138 0 1
genomeend 149
