
/* Species #1 : (Size 14) (AF 7.92774) (Age 15)  */


/* Organism #0 Fitness: 9 Error: 1 */
genomestart 0
trait 1 0.1 0 0 0 0 0 0 0 
trait 2 0.2 0 0 0 0 0 0 0 
trait 3 0.374992 0.234282 0.000612785 0.0341622 0.000161243 0.0149772 0 0.0184595 
node 1 3 1 3
node 2 2 1 1
node 3 3 1 1
node 4 3 0 2
gene 1 1 4 -3.17155 0 1 -3.17155 1
gene 1 2 4 6.71165 0 2 6.71165 1
gene 1 3 4 7.65469 0 3 7.65469 1
genomeend 0

/* Organism #1 Fitness: 5.47445 Error: 1.66025 */
genomestart 1
trait 1 0.1 0 0 0 0 0 0 0 
trait 2 0.2 0 0 0 0 0 0 0 
trait 3 0.403114 0.322138 0.000842579 0.046973 0.000221709 0.0205936 0 0.0253818 
node 1 3 1 3
node 2 2 1 1
node 3 3 1 1
node 4 1 0 2
gene 1 1 4 -4.3822 0 1 -4.3822 1
gene 1 2 4 4.24734 0 2 4.24734 1
gene 1 3 4 6.35923 0 3 6.35923 1
genomeend 1

/* Organism #2 Fitness: 4.15376 Error: 1.96192 */
genomestart 2
trait 1 0.1 0 0 0 0 0 0 0 
trait 2 0.2 0 0 0 0 0 0 0 
trait 3 0.374992 0.234282 0.000612785 0.0341622 0.000161243 0.0149772 0 0.0184595 
node 1 3 1 3
node 2 2 1 1
node 3 3 1 1
node 4 3 0 2
node 37 1 0 0
gene 1 1 4 -3.17155 0 1 -3.17155 1
gene 1 2 4 6.71165 0 2 6.71165 1
gene 1 3 4 7.65469 0 3 7.65469 0
gene 1 3 37 1 0 119 0 1
gene 1 37 4 7.65469 0 120 0 1
genomeend 2

/* Organism #3 Fitness: 8.99987 Error: 1.00002 */
genomestart 3
trait 1 0.1 0 0 0 0 0 0 0 
trait 2 0.2 0 0 0 0 0 0 0 
trait 3 0.403114 0.322138 0.000842579 0.046973 0.000221709 0.0205936 0 0.0253818 
node 1 3 1 3
node 2 2 1 1
node 3 3 1 1
node 4 2 0 2
gene 1 1 4 -2.17909 0 1 -2.17909 1
gene 1 2 4 7.45713 0 2 7.45713 1
gene 1 3 4 6.10537 0 3 6.10537 1
genomeend 3

/* Organism #4 Fitness: 9 Error: 1 */
genomestart 4
trait 1 0.1 0 0 0 0 0 0 0 
trait 2 0.2 0 0 0 0 0 0 0 
trait 3 0.374992 0.234282 0.000612785 0.0341622 0.000161243 0.0149772 0 0.0184595 
node 1 3 1 3
node 2 2 1 1
node 3 3 1 1
node 4 3 0 2
gene 1 1 4 -3.17155 0 1 -3.17155 1
gene 1 2 4 6.71165 0 2 6.71165 1
gene 1 3 4 7.65469 0 3 7.65469 1
genomeend 4

/* Organism #5 Fitness: 8.71895 Error: 1.04721 */
genomestart 5
trait 1 0.1 0 0 0 0 0 0 0 
trait 2 0.2 0 0 0 0 0 0 0 
trait 3 0.403114 0.322138 0.000842579 0.046973 0.000221709 0.0205936 0 0.0253818 
node 1 3 1 3
node 2 2 1 1
node 3 3 1 1
node 4 3 0 2
gene 1 1 4 -4.43828 0 1 -4.43828 1
gene 1 2 4 5.04846 0 2 5.04846 1
gene 1 3 4 8 0 3 8 1
genomeend 5

/* Organism #6 Fitness: 8.99197 Error: 1.00134 */
genomestart 6
trait 1 0.1 0 0 0 0 0 0 0 
trait 2 0.2 0 0 0 0 0 0 0 
trait 3 0.374992 0.234282 0.000612785 0.0341622 0.000161243 0.0149772 0 0.0184595 
node 1 3 1 3
node 2 2 1 1
node 3 3 1 1
node 4 3 0 2
gene 1 1 4 -1.34323 0 1 -1.34323 1
gene 1 2 4 7.74135 0 2 7.74135 1
gene 1 3 4 8 0 3 8 1
genomeend 6

/* Organism #7 Fitness: 8.99999 Error: 1 */
genomestart 7
trait 1 0.1 0 0 0 0 0 0 0 
trait 2 0.2 0 0 0 0 0 0 0 
trait 3 0.431236 0.409994 0.00107237 0.0597838 0.000282175 0.02621 0 0.0323041 
node 1 3 1 3
node 2 2 1 1
node 3 3 1 1
node 4 3 0 2
gene 1 1 4 -2.96827 0 1 -2.96827 1
gene 1 2 4 6.31457 0 2 6.31457 1
gene 1 3 4 5.93804 0 3 5.93804 1
genomeend 7

/* Organism #8 Fitness: 8.99903 Error: 1.00016 */
genomestart 8
trait 1 0.1 0 0 0 0 0 0 0 
trait 2 0.2 0 0 0 0 0 0 0 
trait 3 0.374992 0.234282 0.000612785 0.0341622 0.000161243 0.0149772 0 0.0184595 
node 1 3 1 3
node 2 2 1 1
node 3 3 1 1
node 4 3 0 2
gene 1 1 4 -5.39467 0 1 -5.39467 1
gene 1 2 4 7.92471 0 2 7.92471 1
gene 1 3 4 7.17287 0 3 7.17287 1
genomeend 8

/* Organism #9 Fitness: 9 Error: 1 */
genomestart 9
trait 1 0.1 0 0 0 0 0 0 0 
trait 2 0.2 0 0 0 0 0 0 0 
trait 3 0.374992 0.234282 0.000612785 0.0341622 0.000161243 0.0149772 0 0.0184595 
node 1 3 1 3
node 2 2 1 1
node 3 3 1 1
node 4 3 0 2
gene 1 1 4 -3.17155 0 1 -3.17155 1
gene 1 2 4 6.71165 0 2 6.71165 1
gene 1 3 4 7.65469 0 3 7.65469 1
genomeend 9

/* Organism #10 Fitness: 6.24558 Error: 1.50088 */
genomestart 10
trait 1 0.1 0 0.57626 0 0 0 0 0 
trait 2 0.2 0 0 0 0 0 0 0 
trait 3 0.403114 0.322138 0.000842579 0.046973 0.000221709 0.0205936 0 0.0253818 
node 1 3 1 3
node 2 2 1 1
node 3 3 1 1
node 4 3 0 2
gene 1 1 4 -4.57307 0 1 -4.57307 1
gene 1 2 4 4.57236 0 2 4.57236 1
gene 1 3 4 8 0 3 8 1
genomeend 10

/* Organism #11 Fitness: 5.47419 Error: 1.6603 */
genomestart 11
trait 1 0.1 0 0 0 0 0 0 0 
trait 2 0 0.0823558 0 0.228515 0 0.589488 0.445204 0 
trait 3 0.431236 0.409994 0.00107237 0.0597838 0.000282175 0.02621 0 0.0323041 
node 1 3 1 3
node 2 2 1 1
node 3 3 1 1
node 4 3 0 2
gene 1 1 4 -4.75518 0 1 -4.75518 1
gene 1 2 4 4.62503 0 2 4.62503 1
gene 1 3 4 -0.930914 0 3 -0.930914 1
genomeend 11

/* Organism #12 Fitness: 8.93062 Error: 1.01159 */
genomestart 12
trait 1 0.1 0 0 0 0 0 0 0 
trait 2 0.2 0 0 0 0 0 0 0 
trait 3 0.403114 0.322138 0.000842579 0.046973 0.000221709 0.0205936 0 0.0253818 
node 1 3 1 3
node 2 2 1 1
node 3 3 1 1
node 4 3 0 2
gene 1 1 4 -5.26642 0 1 -5.26642 1
gene 1 2 4 6.16939 0 2 6.16939 1
gene 1 3 4 8 0 3 8 1
genomeend 12

/* Organism #13 Fitness: 8.99995 Error: 1.00001 */
genomestart 13
trait 1 0.1 0 0 0 0 0 0 0 
trait 2 0.2 0 0 0 0 0 0 0 
trait 3 0.431236 0.409994 0.00107237 0.0597838 0.000282175 0.02621 0 0.0323041 
node 1 3 1 3
node 2 2 1 1
node 3 3 1 1
node 4 3 0 2
gene 1 1 4 -2.38803 0 1 -2.38803 1
gene 1 2 4 5.78914 0 2 5.78914 1
gene 1 3 4 8 0 3 8 1
genomeend 13

/* Species #2 : (Size 10) (AF 4.55317) (Age 13)  */


/* Organism #14 Fitness: 8.8448 Error: 1.02598 */
genomestart 14
trait 1 0.1 0 0 0 0 0 0 0 
trait 2 0.2 0 0 0 0 0 0.394889 0.337953 
trait 3 0.3 0 0 0 0 0 0 0 
node 1 2 1 3
node 2 3 1 1
node 3 2 1 1
node 4 1 0 2
node 7 2 0 0
node 12 1 0 0
gene 1 1 4 -2.36207 0 1 -2.36207 1
gene 1 2 4 2.39331 0 2 2.39331 0
gene 1 3 4 1.14183 0 3 1.14183 0
gene 1 2 7 2.8784 0 8 2.8784 1
gene 1 7 4 3.50632 0 9 3.50632 1
gene 2 3 7 1.03464 0 20 1.03464 1
gene 1 3 12 3.4934 0 23 3.4934 1
gene 1 12 4 -0.370781 0 24 -0.370781 1
gene 1 7 12 -1.16843 0 46 -1.16843 1
gene 3 1 12 0.582093 0 69 0.582093 1
genomeend 14

/* Organism #15 Fitness: 6.27328 Error: 1.49535 */
genomestart 15
trait 1 0.1 0 0 0 0 0 0 0 
trait 2 0.2 0 0 0 0 0 0.345528 0.295709 
trait 3 0.3 0 0 0 0 0 0 0 
node 1 2 1 3
node 2 3 1 1
node 3 2 1 1
node 4 1 0 2
node 7 1 0 0
node 12 1 0 0
gene 1 1 4 -3.58349 0 1 -3.58349 1
gene 1 2 4 -0.102634 0 2 -0.102634 0
gene 1 3 4 1.47352 0 3 1.47352 0
gene 1 2 7 1.3509 0 8 1.3509 1
gene 1 7 4 3.90691 0 9 3.90691 1
gene 2 3 7 -0.673383 0 20 -0.673383 1
gene 1 3 12 1.27859 0 23 1.27859 1
gene 1 12 4 -1.88479 0 24 -1.88479 1
gene 1 7 12 1.78518 0 46 1.78518 1
gene 3 1 12 -2.10972 0 69 -2.10972 1
genomeend 15

/* Organism #16 Fitness: 4.00001 Error: 2 */
genomestart 16
trait 1 0.1 0 0 0 0 0 0 0 
trait 2 0.2 0 0 0 0 0 0.296167 0.253465 
trait 3 0.3 0 0 0 0 0 0 0 
node 1 2 1 3
node 2 3 1 1
node 3 2 1 1
node 4 1 0 2
node 7 2 0 0
node 12 1 0 0
gene 1 1 4 -3.06369 0 1 -3.06369 1
gene 1 2 4 -0.103973 0 2 -0.103973 0
gene 1 3 4 -0.598554 0 3 -0.598554 0
gene 1 2 7 -1.5061 0 8 -1.5061 1
gene 1 7 4 3.78058 0 9 3.78058 1
gene 2 3 7 3.90054 0 20 3.90054 1
gene 1 3 12 1.99077 0 23 1.99077 1
gene 1 12 4 -1.28016 0 24 -1.28016 1
gene 1 7 12 1.40564 0 46 1.40564 1
gene 3 1 12 1.52578 0 69 1.52578 1
genomeend 16

/* Organism #17 Fitness: 4.22477 Error: 1.94458 */
genomestart 17
trait 1 0.1 0 0 0 0 0 0 0 
trait 2 0.2 0 0 0 0 0 0.394889 0.337953 
trait 3 0.3 0 0 0 0 0 0 0 
node 1 2 1 3
node 2 3 1 1
node 3 2 1 1
node 4 1 0 2
node 7 2 0 0
node 12 1 0 0
gene 1 1 4 -1.28472 0 1 -1.28472 1
gene 1 2 4 4.87938 0 2 4.87938 0
gene 1 3 4 1.14183 0 3 1.14183 0
gene 1 2 7 1.49711 0 8 1.49711 1
gene 1 7 4 4.12785 0 9 4.12785 1
gene 2 3 7 1.35646 0 20 1.35646 1
gene 1 3 12 5.52651 0 23 5.52651 1
gene 1 12 4 -2.62881 0 24 -2.62881 1
gene 1 7 12 -0.186329 0 46 -0.186329 1
gene 3 1 12 -0.391199 0 69 -0.391199 1
genomeend 17

/* Organism #18 Fitness: 7.20323 Error: 1.31612 */
genomestart 18
trait 1 0.73468 0 0.668455 0 0.155703 0 0.208713 0.831509 
trait 2 0.2 0 0 0 0 0 0.296167 0.253465 
trait 3 0.3 0 0 0 0 0 0 0 
node 1 2 1 3
node 2 3 1 1
node 3 2 1 1
node 4 1 0 2
node 7 2 0 0
node 12 1 0 0
gene 1 1 4 -2.36207 0 1 -2.36207 1
gene 1 2 4 2.18757 0 2 2.18757 0
gene 1 3 4 -0.74815 0 3 -0.74815 0
gene 1 2 7 0.292386 0 8 0.292386 1
gene 1 7 4 3.50632 0 9 3.50632 1
gene 2 3 7 1.43289 0 20 1.43289 1
gene 1 3 12 3.4934 0 23 3.4934 1
gene 3 12 4 -0.370781 0 24 -0.370781 1
gene 1 7 12 -0.328592 0 46 -0.328592 1
gene 3 1 12 0.582093 0 69 0.582093 1
genomeend 18

/* Organism #19 Fitness: 3.23147 Error: 2.20237 */
genomestart 19
trait 1 0.1 0 0 0 0 0 0 0 
trait 2 0.2 0 0 0 0 0 0.345528 0.295709 
trait 3 0.3 0 0 0 0 0 0 0 
node 1 2 1 3
node 2 3 1 1
node 3 2 1 1
node 4 1 0 2
node 7 2 0 0
node 12 1 0 0
gene 1 1 4 0.00720069 0 1 0.00720069 1
gene 1 2 4 -0.125419 0 2 -0.125419 0
gene 1 3 4 1.18118 0 3 1.18118 0
gene 1 2 7 2.89392 0 8 2.89392 1
gene 1 7 4 3.50632 0 9 3.50632 1
gene 2 3 7 -1.08445 0 20 -1.08445 1
gene 1 3 12 1.24222 0 23 1.24222 1
gene 1 12 4 1.89415 0 24 1.89415 1
gene 1 7 12 0.395293 0 46 0.395293 1
gene 3 1 12 -1.62253 0 69 -1.62253 1
genomeend 19

/* Organism #20 Fitness: 2.52168 Error: 2.41202 */
genomestart 20
trait 1 0.1 0 0 0 0 0 0 0 
trait 2 0.2 0 0 0 0 0 0.296167 0.253465 
trait 3 0.3 0 0 0 0 0 0 0 
node 1 2 1 3
node 2 3 1 1
node 3 2 1 1
node 4 1 0 2
node 7 2 0 0
node 12 1 0 0
gene 1 1 4 -1.82412 0 1 -1.82412 1
gene 1 2 4 0.0812954 0 2 0.0812954 0
gene 1 3 4 -3.22853 0 3 -3.22853 0
gene 1 2 7 -2.1998 0 8 -2.1998 1
gene 1 7 4 3.50632 0 9 3.50632 1
gene 2 3 7 -0.714329 0 20 -0.714329 1
gene 1 3 12 4.49974 0 23 4.49974 1
gene 3 12 4 0.597791 0 24 0.597791 1
gene 1 7 12 -2.02537 0 46 -2.02537 1
gene 3 1 12 -0.697546 0 69 -0.697546 1
genomeend 20

/* Organism #21 Fitness: 3.95844 Error: 2.01042 */
genomestart 21
trait 1 0.1 0 0 0 0 0 0 0 
trait 2 0.2 0 0 0 0 0 0.345528 0.295709 
trait 3 0.3 0 0 0 0 0 0 0 
node 1 2 1 3
node 2 3 1 1
node 3 2 1 1
node 4 1 0 2
node 7 1 0 0
node 12 1 0 0
gene 1 1 4 -1.91922 0 1 -1.91922 1
gene 1 2 4 2.39331 0 2 2.39331 0
gene 1 3 4 1.47419 0 3 1.47419 0
gene 1 2 7 1.79363 0 8 1.79363 1
gene 1 7 4 1.51781 0 9 1.51781 1
gene 2 3 7 0.863729 0 20 0.863729 1
gene 1 3 12 -1.74758 0 23 -1.74758 1
gene 1 12 4 -1.45445 0 24 -1.45445 1
gene 1 7 12 -0.215094 0 46 -0.215094 1
gene 3 1 12 0.582093 0 69 0.582093 1
genomeend 21

/* Organism #22 Fitness: 1.27942 Error: 2.86889 */
genomestart 22
trait 1 0.1 0 0 0 0 0 0 0 
trait 2 0.2 0 0 0 0 0 0.394889 0.337953 
trait 3 0.3 0 0 0 0 0 0 0 
node 1 2 1 3
node 2 3 1 1
node 3 2 1 1
node 4 1 0 2
node 7 2 0 0
node 12 1 0 0
gene 1 1 4 -0.690197 0 1 -0.690197 1
gene 1 2 4 3.48503 0 2 3.48503 0
gene 1 3 4 0.571208 0 3 0.571208 0
gene 1 2 7 4.17639 0 8 4.17639 1
gene 1 7 4 2.27543 0 9 2.27543 1
gene 2 3 7 -1.1844 0 20 -1.1844 1
gene 1 3 12 5.74644 0 23 5.74644 1
gene 1 12 4 0.229886 0 24 0.229886 1
gene 1 7 12 0.50845 0 46 0.50845 1
gene 3 1 12 1.53833 0 69 1.53833 1
genomeend 22

/* Organism #23 Fitness: 3.99458 Error: 2.00136 */
genomestart 23
trait 1 0.1 0 0 0 0 0 0 0 
trait 2 0.2 0 0 0 0 0 0.296167 0.253465 
trait 3 0.3 0 0 0 0 0 0 0 
node 1 2 1 3
node 2 3 1 1
node 3 2 1 1
node 4 1 0 2
node 7 1 0 0
node 12 1 0 0
gene 1 1 4 1.36184 0 1 1.36184 1
gene 1 2 4 -0.151516 0 2 -0.151516 1
gene 1 3 4 1.58066 0 3 1.58066 0
gene 1 2 7 -0.564518 0 8 -0.564518 1
gene 1 7 4 2.27743 0 9 2.27743 1
gene 2 3 7 2.51514 0 20 2.51514 1
gene 1 3 12 5.80032 0 23 5.80032 1
gene 1 12 4 -0.167315 0 24 -0.167315 1
gene 1 7 12 -2.02032 0 46 -2.02032 1
gene 3 1 12 -0.669098 0 69 -0.669098 1
genomeend 23

/* Species #3 : (Size 9) (AF 5.13153) (Age 12)  */


/* Organism #24 Fitness: 8.85724 Error: 1.02389 */
genomestart 24
trait 1 0.1 0 0 0 0 0 0 0 
trait 2 0.2 0 0 0 0 0 0 0 
trait 3 0.597004 0.339956 0.00244225 0.914464 0 0 0 0 
node 1 1 1 3
node 2 1 1 1
node 3 1 1 1
node 4 2 0 2
node 9 1 0 0
gene 1 1 4 0.660329 0 1 0.660329 1
gene 2 2 4 2.90714 0 2 2.90714 1
gene 1 3 4 1.17046 0 3 1.17046 1
gene 3 3 9 -0.819751 0 12 -0.819751 1
gene 1 9 4 -2.83069 0 13 -2.83069 1
genomeend 24

/* Organism #25 Fitness: 4.14371 Error: 1.96439 */
genomestart 25
trait 1 0.1 0 0 0 0 0 0 0 
trait 2 0.2 0 0 0 0 0 0 0 
trait 3 0.597004 0.339956 0.00244225 0.914464 0 0 0 0 
node 1 1 1 3
node 2 1 1 1
node 3 1 1 1
node 4 2 0 2
node 9 1 0 0
gene 1 1 4 2.51547 0 1 2.51547 1
gene 2 2 4 3.31428 0 2 3.31428 1
gene 1 3 4 0.279401 0 3 0.279401 1
gene 3 3 9 -0.577921 0 12 -0.577921 1
gene 1 9 4 -3.69114 0 13 -3.69114 1
genomeend 25

/* Organism #26 Fitness: 3.99898 Error: 2.00026 */
genomestart 26
trait 1 0.1 0 0 0 0 0 0 0 
trait 2 0.2 0 0 0 0 0 0 0 
trait 3 0.597004 0.339956 0.00244225 0.914464 0 0 0 0 
node 1 1 1 3
node 2 1 1 1
node 3 1 1 1
node 4 2 0 2
node 9 2 0 0
gene 1 1 4 3.08812 0 1 3.08812 1
gene 2 2 4 -0.334935 0 2 -0.334935 1
gene 1 3 4 1.71946 0 3 1.71946 1
gene 3 3 9 0.96653 0 12 0.96653 1
gene 1 9 4 -2.2549 0 13 -2.2549 1
genomeend 26

/* Organism #27 Fitness: 4.00754 Error: 1.99812 */
genomestart 27
trait 1 0.1 0 0 0 0 0 0 0 
trait 2 0.2 0 0 0 0 0 0 0 
trait 3 0.597004 0.339956 0.00244225 0.914464 0 0 0 0 
node 1 1 1 3
node 2 1 1 1
node 3 1 1 1
node 4 2 0 2
node 9 1 0 0
gene 1 1 4 -1.21629 0 1 -1.21629 1
gene 2 2 4 -0.285169 0 2 -0.285169 1
gene 1 3 4 -0.0856245 0 3 -0.0856245 0
gene 3 3 9 -2.80214 0 12 -2.80214 1
gene 1 9 4 -3.90912 0 13 -3.90912 1
genomeend 27

/* Organism #28 Fitness: 7.00533 Error: 1.35324 */
genomestart 28
trait 1 0.1 0 0 0 0 0 0 0 
trait 2 0.2 0 0 0 0 0 0 0 
trait 3 0.597004 0.339956 0.00244225 0.914464 0 0 0 0 
node 1 1 1 3
node 2 1 1 1
node 3 1 1 1
node 4 2 0 2
node 9 1 0 0
gene 1 1 4 0.259407 0 1 0.259407 1
gene 2 2 4 3.14383 0 2 3.14383 1
gene 1 3 4 -1.85111 0 3 -1.85111 0
gene 3 3 9 -0.615423 0 12 -0.615423 1
gene 1 9 4 -2.9101 0 13 -2.9101 1
genomeend 28

/* Organism #29 Fitness: 3.46032 Error: 2.13981 */
genomestart 29
trait 1 0.1 0 0 0 0 0 0 0 
trait 2 0.2 0 0 0 0 0 0 0 
trait 3 0.597004 0.339956 0.00244225 0.914464 0 0 0 0 
node 1 1 1 3
node 2 1 1 1
node 3 1 1 1
node 4 2 0 2
node 9 1 0 0
gene 1 1 4 -1.12986 0 1 -1.12986 1
gene 2 2 4 2.90714 0 2 2.90714 1
gene 1 3 4 0.062136 0 3 0.062136 1
gene 3 3 9 -0.819751 0 12 -0.819751 1
gene 1 9 4 -2.83069 0 13 -2.83069 1
genomeend 29

/* Organism #30 Fitness: 4.23648 Error: 1.94173 */
genomestart 30
trait 1 0.1 0 0 0 0 0 0 0 
trait 2 0.2 0 0 0 0 0 0 0 
trait 3 0.597004 0.339956 0.00244225 0.914464 0 0 0 0 
node 1 1 1 3
node 2 1 1 1
node 3 1 1 1
node 4 2 0 2
node 9 1 0 0
gene 1 1 4 0.0622612 0 1 0.0622612 1
gene 2 2 4 5.16696 0 2 5.16696 1
gene 1 3 4 -0.1902 0 3 -0.1902 0
gene 3 3 9 -0.0930264 0 12 -0.0930264 1
gene 1 9 4 -0.482545 0 13 -0.482545 1
genomeend 30

/* Organism #31 Fitness: 4.01038 Error: 1.99741 */
genomestart 31
trait 1 0.1 0 0 0 0 0 0 0 
trait 2 0.2 0 0 0 0 0 0 0 
trait 3 0.597004 0.339956 0.00244225 0.914464 0 0 0 0 
node 1 1 1 3
node 2 1 1 1
node 3 1 1 1
node 4 2 0 2
node 9 1 0 0
gene 1 1 4 2.61958 0 1 2.61958 1
gene 2 2 4 0.751916 0 2 0.751916 1
gene 1 3 4 -0.963566 0 3 -0.963566 0
gene 3 3 9 -0.10112 0 12 -0.10112 1
gene 1 9 4 -2.9101 0 13 -2.9101 1
genomeend 31

/* Organism #32 Fitness: 6.46381 Error: 1.4576 */
genomestart 32
trait 1 0.1 0 0 0 0 0 0 0 
trait 2 0.2 0 0 0 0 0 0 0 
trait 3 0.597004 0.339956 0.00244225 0.914464 0 0 0 0 
node 1 1 1 3
node 2 1 1 1
node 3 1 1 1
node 4 2 0 2
node 9 1 0 0
gene 1 1 4 0.660329 0 1 0.660329 1
gene 2 2 4 4.5018 0 2 4.5018 1
gene 1 3 4 2.14338 0 3 2.14338 0
gene 3 3 9 -1.71492 0 12 -1.71492 1
gene 1 9 4 -1.4513 0 13 -1.4513 1
genomeend 32

/* Species #4 : (Size 12) (AF 6.51641) (Age 12)  */


/* Organism #33 Fitness: 8.99946 Error: 1.00009 */
genomestart 33
trait 1 0.444058 0 0.165489 0 0 0 0.220504 0.470088 
trait 2 0.2 0 0 0 0 0 0 0 
trait 3 0.32798 0.0148544 0.696143 0 0.00257989 0 0.632938 0 
node 1 1 1 3
node 2 2 1 1
node 3 2 1 1
node 4 1 0 2
node 10 1 0 0
node 11 1 0 0
gene 2 1 4 -1.93374 0 1 -1.93374 1
gene 2 2 4 4.28423 0 2 4.28423 1
gene 1 3 4 -6.52536 0 3 -6.52536 1
gene 2 2 10 3.40517 0 14 3.40517 1
gene 2 10 4 0.0716397 0 15 0.0716397 1
gene 1 3 11 0.336724 0 18 0.336724 1
gene 1 11 4 -1.03157 0 19 -1.03157 1
genomeend 33

/* Organism #34 Fitness: 4.00501 Error: 1.99875 */
genomestart 34
trait 1 0.1 0.09202 0.165489 0 0 0 0.398437 0.470088 
trait 2 0.2 0 0 0 0 0 0 0 
trait 3 0.32798 0.0148544 0.696143 0 0.00257989 0 0.632938 0 
node 1 1 1 3
node 2 2 1 1
node 3 2 1 1
node 4 1 0 2
node 10 1 0 0
node 11 1 0 0
gene 2 1 4 -0.402015 0 1 -0.402015 1
gene 2 2 4 1.87663 0 2 1.87663 1
gene 1 3 4 -5.24527 0 3 -5.24527 1
gene 2 2 10 2.13951 0 14 2.13951 1
gene 2 10 4 2.31742 0 15 2.31742 1
gene 1 3 11 0.0710424 0 18 0.0710424 1
gene 1 11 4 -5.28657 0 19 -5.28657 1
gene 1 10 11 0.735669 0 121 0.735669 1
genomeend 34

/* Organism #35 Fitness: 3.8052 Error: 2.04931 */
genomestart 35
trait 1 0.1 0.09202 0.165489 0 0 0 0.398437 0.470088 
trait 2 0.2 0 0 0 0 0 0 0 
trait 3 0.32798 0.0148544 0.696143 0 0.00257989 0 0.632938 0 
node 1 1 1 3
node 2 2 1 1
node 3 2 1 1
node 4 1 0 2
node 10 1 0 0
node 11 1 0 0
gene 2 1 4 1.04497 0 1 1.04497 1
gene 2 2 4 -1.46559 0 2 -1.46559 1
gene 1 3 4 -2.78087 0 3 -2.78087 1
gene 2 2 10 -1.80357 0 14 -1.80357 1
gene 2 10 4 1.87502 0 15 1.87502 1
gene 1 3 11 1.21337 0 18 1.21337 1
gene 1 11 4 -5.16679 0 19 -5.16679 1
genomeend 35

/* Organism #36 Fitness: 8.81751 Error: 1.03057 */
genomestart 36
trait 1 0.272029 0.04601 0.165489 0 0 0 0.309471 0.470088 
trait 2 0.2 0 0 0 0 0 0 0 
trait 3 0.32798 0.0148544 0.696143 0 0.00257989 0 0.632938 0 
node 1 1 1 3
node 2 2 1 1
node 3 2 1 1
node 4 2 0 2
node 10 1 0 0
node 11 1 0 0
gene 2 1 4 0.385245 0 1 0.385245 1
gene 2 2 4 1.946 0 2 1.946 1
gene 1 3 4 -4.24874 0 3 -4.24874 1
gene 2 2 10 5.10056 0 14 5.10056 1
gene 2 10 4 3.47376 0 15 3.47376 1
gene 1 3 11 0.189174 0 18 0.189174 1
gene 1 11 4 -5.64826 0 19 -5.64826 1
genomeend 36

/* Organism #37 Fitness: 4.31851 Error: 1.9219 */
genomestart 37
trait 1 0.272029 0.04601 0.165489 0 0 0 0.309471 0.470088 
trait 2 0.2 0 0 0 0 0 0 0 
trait 3 0.32798 0.0148544 0.696143 0 0.00257989 0 0.632938 0 
node 1 1 1 3
node 2 2 1 1
node 3 2 1 1
node 4 1 0 2
node 10 1 0 0
node 11 1 0 0
gene 2 1 4 -1.93374 0 1 -1.93374 1
gene 2 2 4 1.87663 0 2 1.87663 1
gene 1 3 4 -5.24527 0 3 -5.24527 1
gene 2 2 10 3.40517 0 14 3.40517 1
gene 2 10 4 0.0716397 0 15 0.0716397 1
gene 1 3 11 0.0710424 0 18 0.0710424 1
gene 1 11 4 -1.03157 0 19 -1.03157 1
genomeend 37

/* Organism #38 Fitness: 8.70799 Error: 1.04907 */
genomestart 38
trait 1 0.444058 0 0.165489 0 0 0 0.220504 0.470088 
trait 2 0.2 0 0 0 0 0 0 0 
trait 3 0.32798 0.0148544 0.696143 0 0.00257989 0 0.632938 0 
node 1 1 1 3
node 2 2 1 1
node 3 2 1 1
node 4 1 0 2
node 10 1 0 0
node 11 1 0 0
gene 2 1 4 1.01614 0 1 1.01614 1
gene 2 2 4 3.83346 0 2 3.83346 1
gene 1 3 4 -5.90846 0 3 -5.90846 1
gene 2 2 10 1.44395 0 14 1.44395 1
gene 2 10 4 -1.76578 0 15 -1.76578 1
gene 1 3 11 -1.70151 0 18 -1.70151 1
gene 1 11 4 -1.4705 0 19 -1.4705 1
genomeend 38

/* Organism #39 Fitness: 8.9966 Error: 1.00057 */
genomestart 39
trait 1 0.272029 0.04601 0.165489 0 0 0 0.309471 0.470088 
trait 2 0.2 0 0 0 0 0 0 0 
trait 3 0.32798 0.0148544 0.696143 0 0.00257989 0 0.632938 0 
node 1 1 1 3
node 2 2 1 1
node 3 2 1 1
node 4 1 0 2
node 10 1 0 0
node 11 1 0 0
gene 2 1 4 -1.16788 0 1 -1.16788 1
gene 2 2 4 3.08043 0 2 3.08043 1
gene 1 3 4 -5.88531 0 3 -5.88531 1
gene 2 2 10 2.77234 0 14 2.77234 1
gene 2 10 4 1.19453 0 15 1.19453 1
gene 1 3 11 0.203883 0 18 0.203883 1
gene 1 11 4 -3.15907 0 19 -3.15907 1
genomeend 39

/* Organism #40 Fitness: 8.97496 Error: 1.00418 */
genomestart 40
trait 1 0.272029 0.04601 0.165489 0 0 0 0.309471 0.470088 
trait 2 0.2 0 0 0 0 0 0 0 
trait 3 0.32798 0.0148544 0.696143 0 0.00257989 0 0.632938 0 
node 1 1 1 3
node 2 2 1 1
node 3 2 1 1
node 4 1 0 2
node 10 1 0 0
node 11 1 0 0
gene 2 1 4 -1.99763 0 1 -1.99763 1
gene 2 2 4 2.15928 0 2 2.15928 1
gene 1 3 4 -4.36411 0 3 -4.36411 1
gene 2 2 10 3.59834 0 14 3.59834 1
gene 2 10 4 1.88648 0 15 1.88648 1
gene 1 3 11 1.16306 0 18 1.16306 1
gene 1 11 4 -1.86747 0 19 -1.86747 1
genomeend 40

/* Organism #41 Fitness: 4.00005 Error: 1.99999 */
genomestart 41
trait 1 0.272029 0.04601 0.165489 0 0 0 0.309471 0.470088 
trait 2 0.2 0 0 0 0 0 0 0 
trait 3 0.32798 0.0148544 0.696143 0 0.00257989 0 0.632938 0 
node 1 1 1 3
node 2 2 1 1
node 3 2 1 1
node 4 1 0 2
node 10 1 0 0
node 11 1 0 0
gene 2 1 4 -2.49623 0 1 -2.49623 1
gene 2 2 4 3.78752 0 2 3.78752 1
gene 1 3 4 -0.702492 0 3 -0.702492 1
gene 2 2 10 1.63831 0 14 1.63831 1
gene 2 10 4 2.31742 0 15 2.31742 1
gene 1 3 11 -2.16881 0 18 -2.16881 1
gene 1 11 4 -1.55717 0 19 -1.55717 1
genomeend 41

/* Organism #42 Fitness: 7.57324 Error: 1.24805 */
genomestart 42
trait 1 0.1 0.09202 0.165489 0 0 0 0.398437 0.470088 
trait 2 0.2 0 0 0 0 0 0 0 
trait 3 0.32798 0.0148544 0.696143 0 0.00257989 0 0.632938 0 
node 1 1 1 3
node 2 2 1 1
node 3 1 1 1
node 4 1 0 2
node 10 1 0 0
node 11 1 0 0
gene 2 1 4 0.187906 0 1 0.187906 1
gene 2 2 4 1.13947 0 2 1.13947 1
gene 1 3 4 -3.74735 0 3 -3.74735 1
gene 2 2 10 1.50353 0 14 1.50353 1
gene 2 10 4 2.14016 0 15 2.14016 1
gene 1 3 11 -1.18081 0 18 -1.18081 1
gene 1 11 4 -5.82029 0 19 -5.82029 1
genomeend 42

/* Organism #43 Fitness: 1 Error: 3 */
genomestart 43
trait 1 0.272029 0.04601 0.165489 0 0 0 0.309471 0.470088 
trait 2 0.2 0 0 0 0 0 0 0 
trait 3 0.32798 0.0148544 0.696143 0 0.00257989 0 0.632938 0 
node 1 1 1 3
node 2 2 1 1
node 3 2 1 1
node 4 1 0 2
node 10 1 0 0
node 11 1 0 0
gene 2 1 4 1.61015 0 1 1.61015 1
gene 2 2 4 6.75068 0 2 6.75068 1
gene 1 3 4 -4.7451 0 3 -4.7451 1
gene 2 2 10 0.70754 0 14 0.70754 1
gene 2 10 4 4.81686 0 15 4.81686 1
gene 1 3 11 1.91511 0 18 1.91511 1
gene 1 11 4 -1.97713 0 19 -1.97713 1
genomeend 43

/* Organism #44 Fitness: 8.99844 Error: 1.00026 */
genomestart 44
trait 1 0.444058 0 0.165489 0 0 0 0.220504 0.470088 
trait 2 0.2 0 0 0 0 0 0 0 
trait 3 0.32798 0.0148544 0.696143 0 0.00257989 0 0.632938 0 
node 1 1 1 3
node 2 2 1 1
node 3 2 1 1
node 4 1 0 2
node 10 1 0 0
node 11 1 0 0
gene 2 1 4 -0.392776 0 1 -0.392776 1
gene 2 2 4 2.23862 0 2 2.23862 1
gene 1 3 4 -8 0 3 -8 1
gene 2 2 10 3.73239 0 14 3.73239 1
gene 2 10 4 2.93819 0 15 2.93819 1
gene 1 3 11 -1.19257 0 18 -1.19257 1
gene 1 11 4 -6.11184 0 19 -6.11184 1
genomeend 44

/* Species #5 : (Size 13) (AF 6.09322) (Age 11)  */


/* Organism #45 Fitness: 8.99998 Error: 1 */
genomestart 45
trait 1 0.1 0 0 0 0 0 0 0 
trait 2 0.2 0 0 0 0 0 0 0 
trait 3 0.3 0 0 0 0 0 0 0 
node 1 1 1 3
node 2 2 1 1
node 3 3 1 1
node 4 3 0 2
node 11 1 0 0
gene 1 1 4 -3.74178 0 1 -3.74178 1
gene 2 2 4 -5.46928 0 2 -5.46928 1
gene 1 3 4 4.31118 0 3 4.31118 1
gene 1 3 11 2.16561 0 18 2.16561 1
gene 1 11 4 2.12767 0 19 2.12767 1
gene 3 2 11 1.63984 0 61 1.63984 1
gene 3 1 11 -1.34737 0 76 -1.34737 1
genomeend 45

/* Organism #46 Fitness: 3.98264 Error: 2.00434 */
genomestart 46
trait 1 0.1 0 0 0 0 0 0 0 
trait 2 0.2 0 0 0 0 0 0 0 
trait 3 0.3 0 0 0 0 0 0 0 
node 1 1 1 3
node 2 2 1 1
node 3 3 1 1
node 4 3 0 2
node 11 1 0 0
gene 1 1 4 2.16965 0 1 2.16965 1
gene 2 2 4 -5.1106 0 2 -5.1106 1
gene 1 3 4 3.05465 0 3 3.05465 1
gene 1 3 11 -1.2845 0 18 -1.2845 1
gene 1 11 4 -1.39532 0 19 -1.39532 1
gene 3 2 11 -0.270671 0 61 -0.270671 1
gene 3 1 11 1.64547 0 76 1.64547 1
genomeend 46

/* Organism #47 Fitness: 8.79722 Error: 1.03399 */
genomestart 47
trait 1 0.1 0 0 0 0 0 0 0 
trait 2 0.2 0 0 0 0 0 0 0 
trait 3 0.3 0 0 0 0 0 0 0 
node 1 1 1 3
node 2 2 1 1
node 3 3 1 1
node 4 3 0 2
node 11 1 0 0
gene 1 1 4 -5.81051 0 1 -5.81051 1
gene 2 2 4 -6.21592 0 2 -6.21592 1
gene 1 3 4 6.49058 0 3 6.49058 1
gene 1 3 11 1.45597 0 18 1.45597 1
gene 1 11 4 -1.04429 0 19 -1.04429 1
gene 3 2 11 1.42731 0 61 1.42731 1
gene 3 1 11 -3.07692 0 76 -3.07692 1
genomeend 47

/* Organism #48 Fitness: 8.60862 Error: 1.06595 */
genomestart 48
trait 1 0.1 0 0 0 0 0 0 0 
trait 2 0.2 0 0 0 0 0 0 0 
trait 3 0.3 0 0 0 0 0 0 0 
node 1 1 1 3
node 2 2 1 1
node 3 3 1 1
node 4 3 0 2
node 11 1 0 0
node 37 1 0 0
gene 1 1 4 -3.74178 0 1 -3.74178 1
gene 2 2 4 -5.46928 0 2 -5.46928 1
gene 1 3 4 4.31118 0 3 4.31118 0
gene 1 3 11 -0.556995 0 18 -0.556995 1
gene 1 11 4 2.12767 0 19 2.12767 1
gene 3 2 11 2.34879 0 61 2.34879 1
gene 3 1 11 -0.920803 0 76 -0.920803 1
gene 1 3 37 1 0 119 0 1
gene 1 37 4 4.31118 0 120 0 1
genomeend 48

/* Organism #49 Fitness: 4.45645 Error: 1.88897 */
genomestart 49
trait 1 0.1 0 0 0 0 0 0 0 
trait 2 0.2 0 0 0 0 0 0 0 
trait 3 0 0 0 0 0.466728 0 0 0 
node 1 1 1 3
node 2 2 1 1
node 3 3 1 1
node 4 3 0 2
node 11 1 0 0
gene 1 1 4 -2.6731 0 1 -2.6731 1
gene 2 2 4 -3.7838 0 2 -3.7838 1
gene 1 3 4 3.40298 0 3 3.40298 1
gene 1 3 11 0.804305 0 18 0.804305 1
gene 1 11 4 3.47397 0 19 3.47397 1
gene 3 2 11 1.99431 0 61 1.99431 1
gene 3 1 11 -1.13409 0 76 -1.13409 1
genomeend 49

/* Organism #50 Fitness: 8.6636 Error: 1.0566 */
genomestart 50
trait 1 0.1 0 0 0 0 0 0 0 
trait 2 0.2 0 0 0 0 0 0 0 
trait 3 0.3 0 0 0 0 0 0 0 
node 1 1 1 3
node 2 2 1 1
node 3 3 1 1
node 4 3 0 2
node 11 1 0 0
gene 1 1 4 -2.74996 0 1 -2.74996 1
gene 2 2 4 -3.53157 0 2 -3.53157 1
gene 1 3 4 2.13829 0 3 2.13829 1
gene 1 3 11 1.43277 0 18 1.43277 1
gene 1 11 4 2.27798 0 19 2.27798 1
gene 3 2 11 -0.212196 0 61 -0.212196 1
gene 3 1 11 0.623975 0 76 0.623975 1
genomeend 50

/* Organism #51 Fitness: 8.98379 Error: 1.0027 */
genomestart 51
trait 1 0.1 0 0 0 0 0 0 0 
trait 2 0.2 0 0 0 0 0 0 0 
trait 3 0.3 0 0 0 0 0 0 0 
node 1 2 1 3
node 2 2 1 1
node 3 3 1 1
node 4 3 0 2
node 11 1 0 0
gene 1 1 4 -3.73969 0 1 -3.73969 1
gene 2 2 4 -4.48802 0 2 -4.48802 1
gene 1 3 4 2.78402 0 3 2.78402 1
gene 1 3 11 0.699936 0 18 0.699936 1
gene 1 11 4 4.24831 0 19 4.24831 1
gene 3 2 11 0.881321 0 61 0.881321 1
gene 3 1 11 -0.215484 0 76 -0.215484 1
genomeend 51

/* Organism #52 Fitness: 7.00166 Error: 1.35394 */
genomestart 52
trait 1 0.1 0 0 0 0 0 0 0 
trait 2 0.2 0 0 0 0 0 0 0 
trait 3 0.3 0 0 0 0 0 0 0 
node 1 1 1 3
node 2 2 1 1
node 3 3 1 1
node 4 3 0 2
node 11 1 0 0
gene 1 1 4 -0.160349 0 1 -0.160349 1
gene 2 2 4 -1.67496 0 2 -1.67496 1
gene 1 3 4 2.91217 0 3 2.91217 1
gene 1 3 11 0.713486 0 18 0.713486 1
gene 1 11 4 2.47965 0 19 2.47965 1
gene 3 2 11 4.33971 0 61 4.33971 1
gene 3 1 11 -3.16677 0 76 -3.16677 1
genomeend 52

/* Organism #53 Fitness: 1.6884 Error: 2.70061 */
genomestart 53
trait 1 0.1 0 0 0 0 0 0 0 
trait 2 0.2 0 0 0 0 0 0 0 
trait 3 0.3 0 0 0 0 0 0 0 
node 1 2 1 3
node 2 2 1 1
node 3 3 1 1
node 4 3 0 2
node 11 1 0 0
gene 1 1 4 -3.73969 0 1 -3.73969 1
gene 2 2 4 -2.41405 0 2 -2.41405 1
gene 1 3 4 5.26818 0 3 5.26818 1
gene 1 3 11 3.02473 0 18 3.02473 1
gene 1 11 4 5.98107 0 19 5.98107 1
gene 3 2 11 2.79161 0 61 2.79161 1
gene 3 1 11 1.08499 0 76 1.08499 1
genomeend 53

/* Organism #54 Fitness: 3.99509 Error: 2.00123 */
genomestart 54
trait 1 0.1 0 0 0 0 0 0 0 
trait 2 0.2 0 0 0 0 0 0 0 
trait 3 0.3 0 0 0 0 0 0 0 
node 1 1 1 3
node 2 2 1 1
node 3 3 1 1
node 4 3 0 2
node 11 1 0 0
gene 1 1 4 0.299685 0 1 0.299685 1
gene 2 2 4 -6.21616 0 2 -6.21616 1
gene 1 3 4 2.42978 0 3 2.42978 1
gene 1 3 11 3.17744 0 18 3.17744 1
gene 1 11 4 2.12767 0 19 2.12767 1
gene 3 2 11 2.13342 0 61 2.13342 1
gene 3 1 11 0.565193 0 76 0.565193 1
genomeend 54

/* Organism #55 Fitness: 4.04268 Error: 1.98936 */
genomestart 55
trait 1 0.1 0 0 0 0 0 0 0 
trait 2 0.2 0 0 0 0 0 0 0 
trait 3 0.3 0 0 0 0 0 0 0 
node 1 1 1 3
node 2 2 1 1
node 3 3 1 1
node 4 3 0 2
node 11 1 0 0
gene 1 1 4 -5.3258 0 1 -5.3258 1
gene 2 2 4 -3.39167 0 2 -3.39167 1
gene 1 3 4 2.821 0 3 2.821 1
gene 1 3 11 3.55238 0 18 3.55238 1
gene 1 11 4 1.58443 0 19 1.58443 1
gene 3 2 11 1.63984 0 61 1.63984 1
gene 3 1 11 -0.823549 0 76 -0.823549 1
genomeend 55

/* Organism #56 Fitness: 1.00269 Error: 2.99865 */
genomestart 56
trait 1 0.1 0 0.667448 0 0 0 0 0 
trait 2 0.2 0 0 0 0 0 0 0 
trait 3 0.3 0 0 0 0 0 0 0 
node 1 1 1 3
node 2 2 1 1
node 3 3 1 1
node 4 3 0 2
node 11 1 0 0
gene 1 1 4 -1.27142 0 1 -1.27142 1
gene 2 2 4 -1.32383 0 2 -1.32383 1
gene 1 3 4 1.94224 0 3 1.94224 1
gene 1 3 11 0.373047 0 18 0.373047 1
gene 1 11 4 3.65869 0 19 3.65869 1
gene 3 2 11 -1.86273 0 61 -1.86273 1
gene 3 1 11 1.52868 0 76 1.52868 1
genomeend 56

/* Organism #57 Fitness: 8.98907 Error: 1.00182 */
genomestart 57
trait 1 0.1 0 0 0 0 0 0 0 
trait 2 0.2 0 0 0 0 0 0 0 
trait 3 0.3 0 0 0 0 0 0 0 
node 1 2 1 3
node 2 2 1 1
node 3 3 1 1
node 4 3 0 2
node 11 1 0 0
gene 1 1 4 -5.87289 0 1 -5.87289 1
gene 2 2 4 -6.99462 0 2 -6.99462 1
gene 1 3 4 3.21776 0 3 3.21776 1
gene 1 3 11 3.73806 0 18 3.73806 1
gene 1 11 4 4.33146 0 19 4.33146 1
gene 3 2 11 3.69172 0 61 3.69172 1
gene 3 1 11 -3.27157 0 76 -3.27157 1
genomeend 57

/* Species #7 : (Size 8) (AF 5.20602) (Age 10)  */


/* Organism #58 Fitness: 8.4893 Error: 1.08636 */
genomestart 58
trait 1 0.1 0 0 0 0 0 0 0 
trait 2 0.15 0 0 0 0 0 0 0 
trait 3 0.32798 0.0594175 0.0392182 0 0.0103195 0 0 0 
node 1 1 1 3
node 2 2 1 1
node 3 2 1 1
node 4 1 0 2
node 10 1 0 0
node 13 1 0 0
gene 2 1 4 0.287928 0 1 0.287928 1
gene 2 2 4 1.42528 0 2 1.42528 0
gene 1 3 4 -2.69913 0 3 -2.69913 1
gene 2 2 10 -0.951374 0 14 -0.951374 1
gene 2 10 4 3.54898 0 15 3.54898 0
gene 2 10 13 0.75936 0 26 0.75936 1
gene 2 13 4 3.51739 0 27 3.51739 1
genomeend 58

/* Organism #59 Fitness: 4.15483 Error: 1.96166 */
genomestart 59
trait 1 0.1 0 0 0 0 0 0 0 
trait 2 0.15 0 0 0 0 0 0 0 
trait 3 0.32798 0.954808 0.740998 0 0.367364 0 0.156484 0 
node 1 1 1 3
node 2 2 1 1
node 3 2 1 1
node 4 1 0 2
node 10 1 0 0
node 13 1 0 0
gene 2 1 4 -0.0624767 0 1 -0.0624767 1
gene 2 2 4 3.0221 0 2 3.0221 0
gene 1 3 4 -3.32788 0 3 -3.32788 1
gene 2 2 10 -0.964046 0 14 -0.964046 1
gene 2 10 4 1.93108 0 15 1.93108 0
gene 2 10 13 -0.727307 0 26 -0.727307 1
gene 2 13 4 4.79141 0 27 4.79141 1
genomeend 59

/* Organism #60 Fitness: 4.05026 Error: 1.98747 */
genomestart 60
trait 1 0.1 0 0 0 0 0 0 0 
trait 2 0.15 0 0 0 0 0 0 0 
trait 3 0.32798 0.0594175 0.0392182 0 0.0103195 0 0 0 
node 1 1 1 3
node 2 2 1 1
node 3 2 1 1
node 4 1 0 2
node 10 1 0 0
node 13 1 0 0
gene 2 1 4 -2.18072 0 1 -2.18072 1
gene 2 2 4 1.29418 0 2 1.29418 1
gene 1 3 4 -1.68208 0 3 -1.68208 1
gene 2 2 10 1.84586 0 14 1.84586 1
gene 2 10 4 1.53455 0 15 1.53455 0
gene 2 10 13 -2.0223 0 26 -2.0223 1
gene 2 13 4 1.35286 0 27 1.35286 1
genomeend 60

/* Organism #61 Fitness: 4.00003 Error: 1.99999 */
genomestart 61
trait 1 0.1 0 0 0 0 0 0 0 
trait 2 0.15 0 0 0 0 0 0 0 
trait 3 0.32798 0.0594175 0.0392182 0 0.0103195 0 0 0 
node 1 1 1 3
node 2 2 1 1
node 3 2 1 1
node 4 1 0 2
node 10 1 0 0
node 13 1 0 0
gene 2 1 4 -2.11419 0 1 -2.11419 1
gene 2 2 4 0.152398 0 2 0.152398 1
gene 1 3 4 -3.2839 0 3 -3.2839 1
gene 3 2 10 0.657097 0 14 0.657097 1
gene 2 10 4 3.65637 0 15 3.65637 0
gene 2 10 13 -0.323523 0 26 -0.323523 1
gene 2 13 4 -2.32606 0 27 -2.32606 1
genomeend 61

/* Organism #62 Fitness: 4.00182 Error: 1.99955 */
genomestart 62
trait 1 0.1 0 0 0 0 0 0 0 
trait 2 0.15 0 0 0 0 0 0 0 
trait 3 0.32798 0.0594175 0.0392182 0 0.0103195 0 0 0 
node 1 1 1 3
node 2 2 1 1
node 3 2 1 1
node 4 1 0 2
node 10 1 0 0
node 13 1 0 0
gene 2 1 4 -1.04537 0 1 -1.04537 1
gene 2 2 4 -0.980348 0 2 -0.980348 0
gene 1 3 4 -1.19355 0 3 -1.19355 1
gene 3 2 10 1.06696 0 14 1.06696 1
gene 2 10 4 -0.00491153 0 15 -0.00491153 0
gene 2 10 13 -2.23707 0 26 -2.23707 1
gene 2 13 4 -4.17396 0 27 -4.17396 1
genomeend 62

/* Organism #63 Fitness: 3.99609 Error: 2.00098 */
genomestart 63
trait 1 0.1 0 0 0 0 0 0 0 
trait 2 0.15 0 0 0 0 0 0 0 
trait 3 0.32798 0.0594175 0.0392182 0 0.0103195 0 0 0 
node 1 1 1 3
node 2 2 1 1
node 3 2 1 1
node 4 1 0 2
node 10 1 0 0
node 13 1 0 0
gene 2 1 4 -1.53784 0 1 -1.53784 1
gene 2 2 4 -1.06249 0 2 -1.06249 1
gene 1 3 4 -4.57334 0 3 -4.57334 1
gene 2 2 10 2.03573 0 14 2.03573 1
gene 2 10 4 4.17501 0 15 4.17501 0
gene 2 10 13 -0.847491 0 26 -0.847491 1
gene 2 13 4 1.19006 0 27 1.19006 1
genomeend 63

/* Organism #64 Fitness: 4.00241 Error: 1.9994 */
genomestart 64
trait 1 0.1 0 0 0 0 0 0 0 
trait 2 0.15 0 0 0 0 0 0 0 
trait 3 0.32798 0.0594175 0.0392182 0 0.0103195 0 0 0 
node 1 1 1 3
node 2 2 1 1
node 3 2 1 1
node 4 1 0 2
node 10 1 0 0
node 13 1 0 0
gene 2 1 4 -2.07827 0 1 -2.07827 1
gene 2 2 4 0.716425 0 2 0.716425 1
gene 1 3 4 -2.63846 0 3 -2.63846 1
gene 3 2 10 -1.77537 0 14 -1.77537 1
gene 2 10 4 0.920193 0 15 0.920193 0
gene 2 10 13 -0.532512 0 26 -0.532512 1
gene 2 13 4 -0.270193 0 27 -0.270193 1
genomeend 64

/* Organism #65 Fitness: 8.95346 Error: 1.00777 */
genomestart 65
trait 1 0.1 0 0 0 0 0 0 0 
trait 2 0.125178 0.963083 0 0.92361 0 0 0.454622 0 
trait 3 0.32798 0.0594175 0.0392182 0 0.0103195 0 0 0 
node 1 1 1 3
node 2 2 1 1
node 3 2 1 1
node 4 1 0 2
node 10 1 0 0
node 13 1 0 0
gene 2 1 4 -1.50788 0 1 -1.50788 1
gene 2 2 4 0.99155 0 2 0.99155 0
gene 1 3 4 -4.74886 0 3 -4.74886 1
gene 2 2 10 -2.28147 0 14 -2.28147 1
gene 2 10 4 3.81644 0 15 3.81644 0
gene 2 10 13 -1.65565 0 26 -1.65565 1
gene 3 13 4 5.03635 0 27 5.03635 1
genomeend 65

/* Species #8 : (Size 10) (AF 5.78179) (Age 9)  */


/* Organism #66 Fitness: 8.9698 Error: 1.00504 */
genomestart 66
trait 1 0.025 0 0 0 0 0 0.130759 0.0246837 
trait 2 0.2 0 0 0 0 0 0 0 
trait 3 0.32798 0.0594175 0.0392182 0 0.0103195 0 0 0 
node 1 1 1 3
node 2 2 1 1
node 3 2 1 1
node 4 1 0 2
node 10 1 0 0
node 15 1 0 0
gene 2 1 4 -1.72147 0 1 -1.72147 1
gene 2 2 4 2.30086 0 2 2.30086 1
gene 1 3 4 1.26561 0 3 1.26561 0
gene 2 2 10 0.926939 0 14 0.926939 1
gene 2 10 4 5.60542 0 15 5.60542 1
gene 1 3 15 -1.99156 0 32 -1.99156 1
gene 1 15 4 -5.6583 0 33 -5.6583 1
genomeend 66

/* Organism #67 Fitness: 6.32189 Error: 1.48566 */
genomestart 67
trait 1 0.025 0 0 0 0 0 0.130759 0.0246837 
trait 2 0 0 0 0.729831 0 0.169524 0 0 
trait 3 0.32798 0.0594175 0.0392182 0 0.0103195 0 0 0 
node 1 1 1 3
node 2 2 1 1
node 3 2 1 1
node 4 1 0 2
node 10 1 0 0
node 15 1 0 0
gene 2 1 4 -0.483993 0 1 -0.483993 1
gene 2 2 4 2.85401 0 2 2.85401 1
gene 1 3 4 0.733893 0 3 0.733893 0
gene 2 2 10 0.696061 0 14 0.696061 1
gene 2 10 4 4.65997 0 15 4.65997 1
gene 1 3 15 -0.59466 0 32 -0.59466 1
gene 1 15 4 -3.71575 0 33 -3.71575 1
genomeend 67

/* Organism #68 Fitness: 3.82715 Error: 2.04369 */
genomestart 68
trait 1 0.025 0 0 0 0 0 0.130759 0.0246837 
trait 2 0.2 0 0 0 0 0 0 0 
trait 3 0 0 0 0 0.750247 0.553613 0 0 
node 1 1 1 3
node 2 2 1 1
node 3 2 1 1
node 4 1 0 2
node 10 1 0 0
node 15 1 0 0
gene 2 1 4 -1.84926 0 1 -1.84926 1
gene 2 2 4 1.81953 0 2 1.81953 1
gene 1 3 4 1.14921 0 3 1.14921 0
gene 2 2 10 -0.109893 0 14 -0.109893 1
gene 2 10 4 -1.62247 0 15 -1.62247 1
gene 2 3 15 -2.88202 0 32 -2.88202 1
gene 1 15 4 -7.04598 0 33 -7.04598 1
genomeend 68

/* Organism #69 Fitness: 4.04008 Error: 1.99001 */
genomestart 69
trait 1 0.025 0 0 0 0 0 0.130759 0.0246837 
trait 2 0.2 0 0 0 0 0 0 0 
trait 3 0.32798 0.0594175 0.0392182 0 0.0103195 0 0 0 
node 1 1 1 3
node 2 2 1 1
node 3 2 1 1
node 4 1 0 2
node 10 1 0 0
node 15 1 0 0
gene 2 1 4 -0.483993 0 1 -0.483993 1
gene 2 2 4 2.95106 0 2 2.95106 1
gene 1 3 4 0.97307 0 3 0.97307 0
gene 2 2 10 0.809888 0 14 0.809888 1
gene 2 10 4 3.47821 0 15 3.47821 1
gene 1 3 15 0.820483 0 32 0.820483 1
gene 1 15 4 -5.0708 0 33 -5.0708 1
genomeend 69

/* Organism #70 Fitness: 4.12901 Error: 1.968 */
genomestart 70
trait 1 0.025 0 0 0 0 0 0.130759 0.0246837 
trait 2 0.2 0 0 0 0 0 0 0 
trait 3 0.32798 0.0594175 0.0392182 0 0.0103195 0 0 0 
node 1 1 1 3
node 2 2 1 1
node 3 2 1 1
node 4 1 0 2
node 10 1 0 0
node 15 1 0 0
gene 2 1 4 -0.0686293 0 1 -0.0686293 1
gene 2 2 4 3.47293 0 2 3.47293 1
gene 1 3 4 -0.881996 0 3 -0.881996 0
gene 2 2 10 3.0697 0 14 3.0697 1
gene 2 10 4 2.18942 0 15 2.18942 1
gene 1 3 15 -0.169564 0 32 -0.169564 1
gene 1 15 4 -5.6763 0 33 -5.6763 1
genomeend 70

/* Organism #71 Fitness: 7.78106 Error: 1.21055 */
genomestart 71
trait 1 0.025 0 0 0 0 0 0.130759 0.0246837 
trait 2 0.2 0 0 0 0 0 0 0 
trait 3 0.32798 0.0594175 0.0392182 0 0.0103195 0 0 0 
node 1 2 1 3
node 2 2 1 1
node 3 2 1 1
node 4 1 0 2
node 10 1 0 0
node 15 1 0 0
gene 2 1 4 -2.90143 0 1 -2.90143 1
gene 2 2 4 1.37852 0 2 1.37852 1
gene 1 3 4 -0.186063 0 3 -0.186063 0
gene 2 2 10 2.10943 0 14 2.10943 1
gene 2 10 4 6.36212 0 15 6.36212 1
gene 1 3 15 -2.23882 0 32 -2.23882 1
gene 1 15 4 -6.77128 0 33 -6.77128 1
gene 1 15 10 0.659561 0 122 0.659561 1
genomeend 71

/* Organism #72 Fitness: 7.39299 Error: 1.28099 */
genomestart 72
trait 1 0.025 0 0 0 0 0 0.130759 0.0246837 
trait 2 0.2 0 0 0.458018 0 0 0.229709 0.12371 
trait 3 0.32798 0.0594175 0.0392182 0 0.0103195 0 0 0 
node 1 2 1 3
node 2 2 1 1
node 3 2 1 1
node 4 1 0 2
node 10 1 0 0
node 15 1 0 0
gene 2 1 4 -1.64523 0 1 -1.64523 1
gene 2 2 4 0.973418 0 2 0.973418 1
gene 1 3 4 -0.0427967 0 3 -0.0427967 0
gene 2 2 10 3.82151 0 14 3.82151 1
gene 2 10 4 0.277685 0 15 0.277685 1
gene 1 3 15 -0.816088 0 32 -0.816088 1
gene 1 15 4 2.10778 0 33 2.10778 1
genomeend 72

/* Organism #73 Fitness: 3.25934 Error: 2.19464 */
genomestart 73
trait 1 0.025 0 0 0 0 0 0.130759 0.0246837 
trait 2 0.2 0 0 0 0 0 0 0 
trait 3 0.32798 0.0594175 0.0392182 0 0.0103195 0 0 0 
node 1 1 1 3
node 2 2 1 1
node 3 2 1 1
node 4 2 0 2
node 10 1 0 0
node 15 1 0 0
gene 2 1 4 -2.25946 0 1 -2.25946 1
gene 2 2 4 -1.38325 0 2 -1.38325 1
gene 1 3 4 -2.55621 0 3 -2.55621 0
gene 2 2 10 3.82581 0 14 3.82581 1
gene 2 10 4 5.71902 0 15 5.71902 1
gene 1 3 15 -0.614075 0 32 -0.614075 1
gene 1 15 4 -6.77128 0 33 -6.77128 1
genomeend 73

/* Organism #74 Fitness: 7.69258 Error: 1.22645 */
genomestart 74
trait 1 0.025 0 0 0 0 0 0.130759 0.0246837 
trait 2 0.2 0 0 0 0 0 0 0 
trait 3 0.32798 0.0594175 0.0392182 0 0.0103195 0 0 0 
node 1 1 1 3
node 2 2 1 1
node 3 2 1 1
node 4 1 0 2
node 10 1 0 0
node 15 1 0 0
gene 2 1 4 -0.602196 0 1 -0.602196 1
gene 2 2 4 3.57923 0 2 3.57923 1
gene 1 3 4 2.18546 0 3 2.18546 0
gene 2 2 10 0.554144 0 14 0.554144 1
gene 2 10 4 5.57816 0 15 5.57816 1
gene 1 3 15 -2.1913 0 32 -2.1913 1
gene 1 15 4 -4.87276 0 33 -4.87276 1
genomeend 74

/* Organism #75 Fitness: 4.40403 Error: 1.90142 */
genomestart 75
trait 1 0.025 0 0 0 0 0 0.130759 0.0246837 
trait 2 0.2 0 0 0 0 0 0 0 
trait 3 0.32798 0.0594175 0.0392182 0 0.0103195 0 0 0 
node 1 2 1 3
node 2 2 1 1
node 3 2 1 1
node 4 1 0 2
node 10 1 0 0
node 15 1 0 0
gene 2 1 4 -3.05178 0 1 -3.05178 1
gene 2 2 4 2.39936 0 2 2.39936 1
gene 1 3 4 -2.28479 0 3 -2.28479 0
gene 2 2 10 2.79364 0 14 2.79364 1
gene 2 10 4 5.20495 0 15 5.20495 1
gene 1 3 15 -2.28196 0 32 -2.28196 1
gene 1 15 4 -4.82112 0 33 -4.82112 1
genomeend 75

/* Species #9 : (Size 11) (AF 8.06589) (Age 7)  */


/* Organism #76 Fitness: 8.99892 Error: 1.00018 */
genomestart 76
trait 1 0.1 0 0 0 0 0 0 0 
trait 2 0.2 0 0 0 0 0 0 0 
trait 3 0.3 0 0 0 0 0 0 0 
node 1 3 1 3
node 2 2 1 1
node 3 3 1 1
node 4 3 0 2
node 21 1 0 0
gene 1 1 4 -1.82577 0 1 -1.82577 1
gene 1 2 4 3.88086 0 2 3.88086 1
gene 1 3 4 5.40607 0 3 5.40607 0
gene 1 3 21 1.48135 0 57 1.48135 1
gene 1 21 4 5.14117 0 58 5.14117 1
gene 1 1 21 -1.17198 0 79 -1.17198 1
genomeend 76

/* Organism #77 Fitness: 4 Error: 2 */
genomestart 77
trait 1 0.1 0 0 0 0 0 0 0 
trait 2 0.0673675 0 0 0 0 0 0 0 
trait 3 0.3 0 0 0 0 0 0 0 
node 1 3 1 3
node 2 2 1 1
node 3 2 1 1
node 4 3 0 2
node 21 1 0 0
gene 1 1 4 0.273956 0 1 0.273956 1
gene 1 2 4 1.82785 0 2 1.82785 1
gene 1 3 4 5.22704 0 3 5.22704 0
gene 1 3 21 3.46966 0 57 3.46966 1
gene 1 21 4 3.00971 0 58 3.00971 1
gene 1 1 21 1.07083 0 79 1.07083 1
genomeend 77

/* Organism #78 Fitness: 8.88214 Error: 1.01971 */
genomestart 78
trait 1 0.1 0 0 0 0 0 0 0 
trait 2 0.133684 0 0 0 0 0 0 0 
trait 3 0.3 0 0 0 0 0 0 0 
node 1 3 1 3
node 2 2 1 1
node 3 3 1 1
node 4 3 0 2
node 21 1 0 0
gene 1 1 4 -2.95894 0 1 -2.95894 1
gene 1 2 4 3.75232 0 2 3.75232 1
gene 1 3 4 1.79517 0 3 1.79517 1
gene 1 3 21 5.27639 0 57 5.27639 1
gene 1 21 4 5.14117 0 58 5.14117 1
gene 1 1 21 -3.55075 0 79 -3.55075 1
genomeend 78

/* Organism #79 Fitness: 8.99908 Error: 1.00015 */
genomestart 79
trait 1 0.1 0 0 0 0 0 0 0 
trait 2 0.100526 0 0 0 0 0 0 0 
trait 3 0.3 0 0 0 0 0 0 0 
node 1 3 1 3
node 2 2 1 1
node 3 3 1 1
node 4 3 0 2
node 21 1 0 0
gene 1 1 4 -1.82577 0 1 -1.82577 1
gene 1 2 4 3.88086 0 2 3.88086 1
gene 1 3 4 1.79517 0 3 1.79517 0
gene 1 3 21 2.96256 0 57 2.96256 1
gene 1 21 4 5.14117 0 58 5.14117 1
gene 1 1 21 -1.17198 0 79 -1.17198 1
gene 3 2 21 0.473831 0 123 0.473831 1
genomeend 79

/* Organism #80 Fitness: 8.9486 Error: 1.00858 */
genomestart 80
trait 1 0.1 0 0 0 0 0 0 0 
trait 2 0.166842 0 0 0 0 0 0 0 
trait 3 0.3 0 0 0 0 0 0 0 
node 1 3 1 3
node 2 2 1 1
node 3 3 1 1
node 4 3 0 2
node 21 1 0 0
gene 1 1 4 -2.95894 0 1 -2.95894 1
gene 1 2 4 3.92089 0 2 3.92089 1
gene 1 3 4 3.34674 0 3 3.34674 0
gene 1 3 21 2.72641 0 57 2.72641 1
gene 1 21 4 7.16873 0 58 7.16873 1
gene 1 1 21 -1.60469 0 79 -1.60469 1
genomeend 80

/* Organism #81 Fitness: 8.95567 Error: 1.0074 */
genomestart 81
trait 1 0.1 0 0 0 0 0 0 0 
trait 2 0.133684 0 0 0 0 0 0 0 
trait 3 0.3 0 0 0 0 0 0 0 
node 1 3 1 3
node 2 2 1 1
node 3 3 1 1
node 4 3 0 2
node 21 1 0 0
gene 1 1 4 -2.95894 0 1 -2.95894 1
gene 1 2 4 3.95399 0 2 3.95399 1
gene 1 3 4 1.79517 0 3 1.79517 1
gene 1 3 21 2.96256 0 57 2.96256 1
gene 1 21 4 5.14117 0 58 5.14117 1
gene 1 1 21 -2.79064 0 79 -2.79064 1
gene 3 2 21 0.473831 0 123 0 1
genomeend 81

/* Organism #82 Fitness: 3.99836 Error: 2.00041 */
genomestart 82
trait 1 0.1 0 0 0 0 0 0 0 
trait 2 0.100526 0 0 0 0 0 0 0 
trait 3 0.3 0 0 0 0 0 0 0 
node 1 3 1 3
node 2 2 1 1
node 3 1 1 1
node 4 3 0 2
node 21 1 0 0
gene 1 1 4 -2.95894 0 1 -2.95894 1
gene 1 2 4 3.88086 0 2 3.88086 1
gene 1 3 4 5.40607 0 3 5.40607 0
gene 1 3 21 1.48135 0 57 1.48135 1
gene 1 21 4 5.14117 0 58 5.14117 1
gene 1 1 21 -2.79064 0 79 -2.79064 1
genomeend 82

/* Organism #83 Fitness: 8.95566 Error: 1.0074 */
genomestart 83
trait 1 0.1 0 0 0 0 0 0 0 
trait 2 0.133684 0 0 0 0 0 0 0 
trait 3 0.3 0 0 0 0 0 0 0 
node 1 3 1 3
node 2 2 1 1
node 3 3 1 1
node 4 3 0 2
node 21 1 0 0
gene 1 1 4 -2.95894 0 1 -2.95894 1
gene 1 2 4 3.95399 0 2 3.95399 1
gene 1 3 4 1.79517 0 3 1.79517 1
gene 1 3 21 2.96256 0 57 2.96256 1
gene 1 21 4 5.14117 0 58 5.14117 1
gene 1 1 21 -2.79064 0 79 -2.79064 1
genomeend 83

/* Organism #84 Fitness: 8.9937 Error: 1.00105 */
genomestart 84
trait 1 0.1 0 0 0 0 0 0 0 
trait 2 0.166842 0 0 0 0 0 0 0 
trait 3 0.3 0 0 0 0 0 0 0 
node 1 3 1 3
node 2 2 1 1
node 3 3 1 1
node 4 3 0 2
node 21 1 0 0
gene 1 1 4 -2.39235 0 1 -2.39235 1
gene 1 2 4 3.91742 0 2 3.91742 1
gene 1 3 4 3.60062 0 3 3.60062 0
gene 1 3 21 2.22196 0 57 2.22196 1
gene 1 21 4 5.14117 0 58 5.14117 1
gene 1 1 21 -1.98131 0 79 -1.98131 1
genomeend 84

/* Organism #85 Fitness: 8.9937 Error: 1.00105 */
genomestart 85
trait 1 0.1 0 0 0 0 0 0 0 
trait 2 0.166842 0 0 0 0 0 0 0 
trait 3 0.3 0 0 0 0 0 0 0 
node 1 3 1 3
node 2 2 1 1
node 3 3 1 1
node 4 3 0 2
node 21 1 0 0
gene 1 1 4 -2.39235 0 1 -2.39235 1
gene 1 2 4 3.91742 0 2 3.91742 1
gene 1 3 4 3.60062 0 3 3.60062 0
gene 1 3 21 2.22196 0 57 2.22196 1
gene 1 21 4 5.14117 0 58 5.14117 1
gene 1 1 21 -1.98131 0 79 -1.98131 1
genomeend 85

/* Organism #86 Fitness: 8.99892 Error: 1.00018 */
genomestart 86
trait 1 0.1 0 0 0 0 0 0 0 
trait 2 0.0673675 0 0 0 0 0 0 0 
trait 3 0.3 0 0 0 0 0 0 0 
node 1 3 1 3
node 2 2 1 1
node 3 3 1 1
node 4 3 0 2
node 21 1 0 0
gene 1 1 4 -1.82577 0 1 -1.82577 1
gene 1 2 4 3.88086 0 2 3.88086 1
gene 1 3 4 5.40607 0 3 5.40607 0
gene 1 3 21 1.48135 0 57 1.48135 1
gene 1 21 4 5.14117 0 58 5.14117 1
gene 1 1 21 -1.17198 0 79 -1.17198 1
genomeend 86

/* Species #10 : (Size 9) (AF 4.74449) (Age 7)  */


/* Organism #87 Fitness: 8.2516 Error: 1.12744 */
genomestart 87
trait 1 0.1 0 0 0 0 0 0 0 
trait 2 0.2 0 0 0.430492 0 0.436086 0 0 
trait 3 0.3 0 0 0 0 0 0 0 
node 1 2 1 3
node 2 3 1 1
node 3 2 1 1
node 4 2 0 2
node 7 1 0 0
gene 3 1 4 -1.27014 0 1 -1.27014 1
gene 1 2 4 -1.20359 0 2 -1.20359 0
gene 1 3 4 -0.973668 0 3 -0.973668 1
gene 1 2 7 0.738312 0 8 0.738312 1
gene 1 7 4 2.01267 0 9 2.01267 1
gene 2 3 7 0.907376 0 101 0.907376 1
gene 1 1 7 -0.142123 0 107 -0.142123 1
genomeend 87

/* Organism #88 Fitness: 4 Error: 2 */
genomestart 88
trait 1 0.1 0 0 0 0 0 0 0 
trait 2 0.2 0 0 0.430492 0 0.436086 0 0 
trait 3 0.3 0 0 0 0 0 0 0 
node 1 2 1 3
node 2 3 1 1
node 3 2 1 1
node 4 2 0 2
node 7 1 0 0
gene 3 1 4 0.561412 0 1 0.561412 1
gene 1 2 4 -2.38148 0 2 -2.38148 0
gene 1 3 4 -3.22352 0 3 -3.22352 1
gene 1 2 7 2.07053 0 8 2.07053 1
gene 1 7 4 2.99987 0 9 2.99987 1
gene 2 3 7 2.71616 0 101 2.71616 1
gene 1 1 7 0.367737 0 107 0.367737 1
genomeend 88

/* Organism #89 Fitness: 4.3526 Error: 1.91371 */
genomestart 89
trait 1 0.1 0 0 0 0 0 0 0 
trait 2 0.2 0 0 0.430492 0 0.436086 0 0 
trait 3 0.3 0 0 0 0 0 0 0 
node 1 2 1 3
node 2 3 1 1
node 3 2 1 1
node 4 2 0 2
node 7 1 0 0
node 38 1 0 0
gene 3 1 4 -1.27014 0 1 -1.27014 1
gene 1 2 4 -1.20359 0 2 -1.20359 0
gene 1 3 4 -0.973668 0 3 -0.973668 1
gene 1 2 7 0.738312 0 8 0.738312 1
gene 1 7 4 2.01267 0 9 2.01267 0
gene 2 3 7 0.907376 0 101 0.907376 1
gene 1 1 7 -0.142123 0 107 -0.142123 1
gene 1 7 38 1 0 124 0 1
gene 1 38 4 2.01267 0 125 0 1
genomeend 89

/* Organism #90 Fitness: 3.66165 Error: 2.08646 */
genomestart 90
trait 1 0.1 0 0 0 0 0 0 0 
trait 2 0.2 0 0 0.430492 0 0.436086 0 0 
trait 3 0.3 0 0 0 0 0 0 0 
node 1 2 1 3
node 2 3 1 1
node 3 2 1 1
node 4 2 0 2
node 7 1 0 0
gene 3 1 4 -0.39449 0 1 -0.39449 1
gene 1 2 4 0.406666 0 2 0.406666 0
gene 1 3 4 0.0712585 0 3 0.0712585 1
gene 1 2 7 -0.2187 0 8 -0.2187 1
gene 1 7 4 0.558762 0 9 0.558762 1
gene 2 3 7 1.5752 0 101 1.5752 1
gene 1 1 7 -0.142123 0 107 -0.142123 1
genomeend 90

/* Organism #91 Fitness: 3.99977 Error: 2.00006 */
genomestart 91
trait 1 0.1 0 0 0 0 0 0 0 
trait 2 0.2 0 0 0.430492 0 0.436086 0 0 
trait 3 0.3 0 0 0 0 0 0 0 
node 1 2 1 3
node 2 3 1 1
node 3 2 1 1
node 4 2 0 2
node 7 1 0 0
gene 3 1 4 -2.77951 0 1 -2.77951 1
gene 1 2 4 1.11554 0 2 1.11554 0
gene 1 3 4 -0.16909 0 3 -0.16909 1
gene 1 2 7 -1.05576 0 8 -1.05576 1
gene 1 7 4 1.69023 0 9 1.69023 1
gene 2 3 7 -0.824276 0 101 -0.824276 1
gene 3 1 7 -0.0212237 0 107 -0.0212237 1
genomeend 91

/* Organism #92 Fitness: 5.74065 Error: 1.60404 */
genomestart 92
trait 1 0.1 0 0 0 0 0 0 0 
trait 2 0.2 0 0 0.430492 0 0.436086 0 0 
trait 3 0.3 0 0 0 0 0 0 0 
node 1 2 1 3
node 2 3 1 1
node 3 2 1 1
node 4 2 0 2
node 7 1 0 0
gene 3 1 4 -2.18999 0 1 -2.18999 1
gene 1 2 4 -1.37569 0 2 -1.37569 0
gene 1 3 4 2.24678 0 3 2.24678 1
gene 1 2 7 1.13958 0 8 1.13958 1
gene 1 7 4 -0.446188 0 9 -0.446188 1
gene 2 3 7 -0.5284 0 101 -0.5284 1
gene 1 1 7 -0.0448531 0 107 -0.0448531 1
genomeend 92

/* Organism #93 Fitness: 4.00078 Error: 1.99981 */
genomestart 93
trait 1 0.1 0 0 0 0 0 0 0 
trait 2 0.2 0 0 0.430492 0 0.436086 0 0 
trait 3 0.3 0 0 0 0 0 0 0 
node 1 2 1 3
node 2 3 1 1
node 3 2 1 1
node 4 2 0 2
node 7 1 0 0
gene 3 1 4 -0.905495 0 1 -0.905495 1
gene 1 2 4 -0.507796 0 2 -0.507796 0
gene 1 3 4 -1.24689 0 3 -1.24689 1
gene 1 2 7 -0.600474 0 8 -0.600474 1
gene 1 7 4 0.802369 0 9 0.802369 1
gene 2 3 7 1.66347 0 101 1.66347 1
gene 1 1 7 -1.60162 0 107 -1.60162 1
genomeend 93

/* Organism #94 Fitness: 3.9323 Error: 2.017 */
genomestart 94
trait 1 0.1 0 0 0 0 0 0 0 
trait 2 0.2 0 0 0.430492 0 0.436086 0 0 
trait 3 0.3 0 0 0 0 0 0 0 
node 1 2 1 3
node 2 3 1 1
node 3 2 1 1
node 4 2 0 2
node 7 1 0 0
gene 3 1 4 -0.248616 0 1 -0.248616 1
gene 1 2 4 -2.56882 0 2 -2.56882 0
gene 1 3 4 -3.31602 0 3 -3.31602 1
gene 1 2 7 1.88531 0 8 1.88531 1
gene 1 7 4 2.74122 0 9 2.74122 1
gene 2 3 7 -0.923687 0 101 -0.923687 1
gene 1 1 7 0.775407 0 107 0.775407 1
genomeend 94

/* Organism #95 Fitness: 4.76104 Error: 1.81802 */
genomestart 95
trait 1 0.1 0 0 0 0 0 0 0 
trait 2 0.2 0 0 0.430492 0 0.436086 0 0 
trait 3 0.3 0 0 0 0 0 0 0 
node 1 2 1 3
node 2 3 1 1
node 3 2 1 1
node 4 2 0 2
node 7 1 0 0
node 39 1 0 0
gene 3 1 4 -1.27014 0 1 -1.27014 1
gene 1 2 4 -1.20359 0 2 -1.20359 0
gene 1 3 4 -0.973668 0 3 -0.973668 1
gene 1 2 7 0.738312 0 8 0.738312 0
gene 1 7 4 2.01267 0 9 2.01267 1
gene 2 3 7 0.907376 0 101 0.907376 1
gene 1 1 7 -0.142123 0 107 -0.142123 1
gene 1 2 39 1 0 126 0 1
gene 1 39 7 0.738312 0 127 0 1
genomeend 95

/* Species #11 : (Size 9) (AF 6.53806) (Age 6)  */


/* Organism #96 Fitness: 8.99996 Error: 1.00001 */
genomestart 96
trait 1 0.1 0 0 0 0 0 0 0 
trait 2 0.23251 0 0.451242 0 0.280654 0 0 0 
trait 3 0.3 0 0 0 0.373816 0 0.32422 0.335464 
node 1 2 1 3
node 2 2 1 1
node 3 3 1 1
node 4 3 0 2
node 11 1 0 0
node 26 1 0 0
gene 1 1 4 -5.45168 0 1 -5.45168 1
gene 2 2 4 -1.74208 0 2 -1.74208 1
gene 1 3 4 4.47947 0 3 4.47947 1
gene 1 3 11 0.504859 0 18 0.504859 1
gene 2 11 4 3.82765 0 19 3.82765 1
gene 3 2 11 0.575924 0 29 0.575924 0
gene 2 1 11 1.10559 0 62 1.10559 1
gene 3 2 26 2.55022 0 74 2.55022 1
gene 3 26 11 -2.223 0 75 -2.223 1
genomeend 96

/* Organism #97 Fitness: 4 Error: 2 */
genomestart 97
trait 1 0.1 0 0 0 0 0 0 0 
trait 2 0.23251 0 0.451242 0 0.280654 0 0 0 
trait 3 0.3 0 0 0 0.373816 0 0.32422 0.335464 
node 1 2 1 3
node 2 2 1 1
node 3 3 1 1
node 4 3 0 2
node 11 1 0 0
node 26 1 0 0
gene 1 1 4 -6.31437 0 1 -6.31437 1
gene 2 2 4 -0.645002 0 2 -0.645002 1
gene 1 3 4 2.22271 0 3 2.22271 1
gene 1 3 11 -1.19232 0 18 -1.19232 1
gene 2 11 4 1.81326 0 19 1.81326 1
gene 3 2 11 1.58138 0 29 1.58138 0
gene 2 1 11 -1.19351 0 62 -1.19351 1
gene 3 2 26 1.59236 0 74 1.59236 1
gene 3 26 11 -3.04749 0 75 -3.04749 1
genomeend 97

/* Organism #98 Fitness: 3.84168 Error: 2.03998 */
genomestart 98
trait 1 0.1 0 0 0 0 0 0 0 
trait 2 0.208127 0 0.112811 0 0.0701636 0 0 0 
trait 3 0.3 0 0 0 0.0934541 0 0.081055 0.0838659 
node 1 2 1 3
node 2 2 1 1
node 3 3 1 1
node 4 3 0 2
node 11 1 0 0
node 26 1 0 0
gene 1 1 4 -4.48973 0 1 -4.48973 1
gene 2 2 4 0.707454 0 2 0.707454 1
gene 1 3 4 3.20468 0 3 3.20468 1
gene 1 3 11 0.748578 0 18 0.748578 1
gene 1 11 4 -0.0922972 0 19 -0.0922972 1
gene 3 2 11 -2.69149 0 29 -2.69149 0
gene 2 1 11 -0.388037 0 62 -0.388037 1
gene 3 2 26 -0.236615 0 74 -0.236615 1
gene 3 26 11 -0.988847 0 75 -0.988847 1
genomeend 98

/* Organism #99 Fitness: 8.58099 Error: 1.07067 */
genomestart 99
trait 1 0.1 0 0 0 0 0 0 0 
trait 2 0.2 0 0 0 0 0 0 0 
trait 3 0.3 0 0 0 0 0 0 0 
node 1 1 1 3
node 2 2 1 1
node 3 3 1 1
node 4 3 0 2
node 11 1 0 0
node 26 1 0 0
gene 1 1 4 -1.90399 0 1 -1.90399 1
gene 2 2 4 1.52163 0 2 1.52163 1
gene 1 3 4 2.76583 0 3 2.76583 1
gene 1 3 11 -0.814293 0 18 -0.814293 1
gene 1 11 4 1.35351 0 19 1.35351 1
gene 3 2 11 -1.23297 0 29 -1.23297 0
gene 2 1 11 2.45492 0 62 2.45492 1
gene 3 2 26 1.3965 0 74 1.3965 1
gene 3 26 11 -0.325194 0 75 -0.325194 1
genomeend 99

/* Organism #100 Fitness: 7.50191 Error: 1.26104 */
genomestart 100
trait 1 0.1 0 0 0 0 0 0 0 
trait 2 0.216255 0 0.225621 0 0.140327 0 0 0 
trait 3 0.3 0 0 0 0.186908 0 0.16211 0.167732 
node 1 2 1 3
node 2 2 1 1
node 3 3 1 1
node 4 3 0 2
node 11 1 0 0
node 26 1 0 0
gene 1 1 4 -0.706083 0 1 -0.706083 1
gene 2 2 4 -1.85383 0 2 -1.85383 1
gene 1 3 4 2.74426 0 3 2.74426 1
gene 1 3 11 -0.201052 0 18 -0.201052 1
gene 1 11 4 -0.485708 0 19 -0.485708 1
gene 3 2 11 -3.06505 0 29 -3.06505 0
gene 2 1 11 0.534589 0 62 0.534589 1
gene 3 2 26 -0.248962 0 74 -0.248962 1
gene 3 26 11 -0.0960328 0 75 -0.0960328 1
genomeend 100

/* Organism #101 Fitness: 8.93904 Error: 1.01018 */
genomestart 101
trait 1 0.1 0 0 0 0 0 0 0 
trait 2 0.216255 0 0.225621 0 0.140327 0 0 0 
trait 3 0.3 0 0 0 0.186908 0 0.16211 0.167732 
node 1 2 1 3
node 2 2 1 1
node 3 3 1 1
node 4 3 0 2
node 11 1 0 0
node 26 1 0 0
gene 1 1 4 -3.9897 0 1 -3.9897 1
gene 2 2 4 -4.16236 0 2 -4.16236 1
gene 1 3 4 2.98205 0 3 2.98205 1
gene 1 3 11 1.04712 0 18 1.04712 1
gene 1 11 4 1.94815 0 19 1.94815 1
gene 3 2 11 -1.54227 0 29 -1.54227 1
gene 2 1 11 0.140188 0 62 0.140188 1
gene 3 2 26 1.31498 0 74 1.31498 1
gene 3 26 11 -0.272417 0 75 -0.272417 1
genomeend 101

/* Organism #102 Fitness: 7.39069 Error: 1.28142 */
genomestart 102
trait 1 0.1 0 0 0 0 0 0 0 
trait 2 0.2 0 0 0 0 0 0 0 
trait 3 0.3 0 0 0 0 0 0 0 
node 1 1 1 3
node 2 2 1 1
node 3 3 1 1
node 4 3 0 2
node 11 1 0 0
node 26 1 0 0
gene 1 1 4 -0.681184 0 1 -0.681184 1
gene 2 2 4 0.903661 0 2 0.903661 1
gene 1 3 4 2.42482 0 3 2.42482 1
gene 1 3 11 3.19006 0 18 3.19006 1
gene 1 11 4 -0.078301 0 19 -0.078301 1
gene 3 2 11 -1.54822 0 29 -1.54822 0
gene 2 1 11 1.2658 0 62 1.2658 1
gene 3 2 26 1.69476 0 74 1.69476 1
gene 3 26 11 -2.94132 0 75 -2.94132 1
genomeend 102

/* Organism #103 Fitness: 1.18912 Error: 2.90953 */
genomestart 103
trait 1 0.1 0 0 0 0 0 0 0 
trait 2 0.208127 0 0.112811 0 0.0701636 0 0 0 
trait 3 0.3 0 0 0 0.0934541 0 0.081055 0.0838659 
node 1 2 1 3
node 2 2 1 1
node 3 3 1 1
node 4 3 0 2
node 11 1 0 0
node 26 1 0 0
gene 1 1 4 -4.33753 0 1 -4.33753 1
gene 2 2 4 -3.02526 0 2 -3.02526 1
gene 1 3 4 2.46734 0 3 2.46734 1
gene 1 3 11 1.8485 0 18 1.8485 1
gene 1 11 4 5.49422 0 19 5.49422 1
gene 3 2 11 -2.13208 0 29 -2.13208 0
gene 2 1 11 1.18026 0 62 1.18026 1
gene 3 2 26 3.6857 0 74 3.6857 1
gene 3 26 11 -1.43654 0 75 -1.43654 1
genomeend 103

/* Organism #104 Fitness: 8.39912 Error: 1.10188 */
genomestart 104
trait 1 0.1 0 0 0 0 0 0 0 
trait 2 0.2 0 0 0 0 0 0 0 
trait 3 0.3 0 0 0 0 0 0 0 
node 1 1 1 3
node 2 2 1 1
node 3 3 1 1
node 4 2 0 2
node 11 1 0 0
node 26 1 0 0
gene 1 1 4 -0.68486 0 1 -0.68486 1
gene 2 2 4 1.0165 0 2 1.0165 1
gene 1 3 4 -0.331815 0 3 -0.331815 1
gene 1 3 11 0.957603 0 18 0.957603 1
gene 1 11 4 2.37028 0 19 2.37028 1
gene 3 2 11 -4.43688 0 29 -4.43688 0
gene 2 1 11 -1.12511 0 62 -1.12511 1
gene 3 2 26 2.67952 0 74 2.67952 1
gene 3 26 11 0.770486 0 75 0.770486 1
genomeend 104

/* Species #12 : (Size 9) (AF 5.56359) (Age 6)  */


/* Organism #105 Fitness: 8.95756 Error: 1.00708 */
genomestart 105
trait 1 0.1 0 0 0 0 0 0 0 
trait 2 0.2 0 0 0 0 0 0 0 
trait 3 0.3 0 0 0 0 0 0 0 
node 1 2 1 3
node 2 2 1 1
node 3 3 1 1
node 4 3 0 2
node 11 1 0 0
gene 1 1 4 -3.58831 0 1 -3.58831 1
gene 2 2 4 0.676669 0 2 0.676669 1
gene 1 3 4 1.45332 0 3 1.45332 0
gene 1 3 11 2.92136 0 18 2.92136 1
gene 1 11 4 4.88818 0 19 4.88818 1
gene 3 2 11 0.36093 0 29 0.36093 1
genomeend 105

/* Organism #106 Fitness: 3.41589 Error: 2.15179 */
genomestart 106
trait 1 0.1 0 0 0 0 0 0 0 
trait 2 0.2 0 0 0 0 0 0 0 
trait 3 0.3 0 0 0 0 0 0 0 
node 1 2 1 3
node 2 2 1 1
node 3 3 1 1
node 4 3 0 2
node 11 1 0 0
gene 1 1 4 -5.63504 0 1 -5.63504 1
gene 2 2 4 2.84166 0 2 2.84166 1
gene 1 3 4 -0.0149237 0 3 -0.0149237 0
gene 1 3 11 4.36295 0 18 4.36295 1
gene 1 11 4 4.39052 0 19 4.39052 1
gene 3 2 11 0.18669 0 29 0.18669 1
genomeend 106

/* Organism #107 Fitness: 8.90979 Error: 1.01507 */
genomestart 107
trait 1 0.1 0 0 0 0 0 0 0 
trait 2 0.2 0 0 0 0 0 0 0 
trait 3 0.3 0 0 0 0 0 0 0 
node 1 2 1 3
node 2 2 1 1
node 3 3 1 1
node 4 3 0 2
node 11 1 0 0
gene 3 1 4 -2.99915 0 1 -2.99915 1
gene 2 2 4 -0.468989 0 2 -0.468989 1
gene 1 3 4 2.65809 0 3 2.65809 0
gene 1 3 11 3.06069 0 18 3.06069 1
gene 1 11 4 4.19276 0 19 4.19276 1
gene 3 2 11 1.36122 0 29 1.36122 1
genomeend 107

/* Organism #108 Fitness: 4.05546 Error: 1.98618 */
genomestart 108
trait 1 0.1 0 0 0 0 0 0 0 
trait 2 0.2 0 0 0 0 0 0 0 
trait 3 0.3 0 0 0 0 0 0 0 
node 1 2 1 3
node 2 2 1 1
node 3 3 1 1
node 4 3 0 2
node 11 1 0 0
gene 1 1 4 -4.71685 0 1 -4.71685 1
gene 2 2 4 0.832615 0 2 0.832615 1
gene 1 3 4 0.828371 0 3 0.828371 0
gene 1 3 11 1.35126 0 18 1.35126 1
gene 1 11 4 3.95128 0 19 3.95128 1
gene 3 2 11 -1.14263 0 29 -1.14263 1
genomeend 108

/* Organism #109 Fitness: 3.99999 Error: 2 */
genomestart 109
trait 1 0.1 0 0 0.879944 0.0219952 0 0.907295 0.626999 
trait 2 0.2 0 0 0 0 0 0 0 
trait 3 0.3 0 0 0 0 0 0 0 
node 1 2 1 3
node 2 2 1 1
node 3 3 1 1
node 4 3 0 2
node 11 1 0 0
gene 1 1 4 -5.71422 0 1 -5.71422 1
gene 2 2 4 0.676669 0 2 0.676669 1
gene 1 3 4 3.51826 0 3 3.51826 0
gene 1 3 11 2.92136 0 18 2.92136 1
gene 1 11 4 3.42508 0 19 3.42508 1
gene 3 2 11 1.22254 0 29 1.22254 1
genomeend 109

/* Organism #110 Fitness: 4.00938 Error: 1.99766 */
genomestart 110
trait 1 0.1 0 0 0 0.0219952 0 0 0 
trait 2 0.2 0 0 0 0 0 0 0 
trait 3 0.3 0 0 0 0 0 0 0 
node 1 2 1 3
node 2 2 1 1
node 3 3 1 1
node 4 3 0 2
node 11 1 0 0
gene 3 1 4 -6.16304 0 1 -6.16304 1
gene 2 2 4 0.265371 0 2 0.265371 1
gene 1 3 4 5.74998 0 3 5.74998 1
gene 1 3 11 4.81058 0 18 4.81058 1
gene 1 11 4 4.66826 0 19 4.66826 1
gene 3 2 11 3.27239 0 29 3.27239 1
genomeend 110

/* Organism #111 Fitness: 8.89695 Error: 1.01722 */
genomestart 111
trait 1 0.1 0 0 0 0 0 0 0 
trait 2 0.2 0 0 0 0 0 0 0 
trait 3 0.3 0 0 0 0 0 0 0 
node 1 2 1 3
node 2 2 1 1
node 3 3 1 1
node 4 3 0 2
node 11 1 0 0
gene 1 1 4 -3.06698 0 1 -3.06698 1
gene 2 2 4 0.459397 0 2 0.459397 1
gene 1 3 4 3.20383 0 3 3.20383 0
gene 1 3 11 4.32553 0 18 4.32553 1
gene 1 11 4 4.46633 0 19 4.46633 1
gene 3 2 11 2.41308 0 29 2.41308 1
genomeend 111

/* Organism #112 Fitness: 3.82608 Error: 2.04396 */
genomestart 112
trait 1 0.1 0 0 0 0 0 0 0 
trait 2 0.2 0 0 0 0 0 0 0 
trait 3 0.3 0 0 0 0 0 0 0 
node 1 2 1 3
node 2 2 1 1
node 3 3 1 1
node 4 3 0 2
node 11 1 0 0
gene 1 1 4 -3.58831 0 1 -3.58831 1
gene 2 2 4 -4.01963 0 2 -4.01963 1
gene 1 3 4 3.41044 0 3 3.41044 0
gene 1 3 11 -0.521106 0 18 -0.521106 1
gene 1 11 4 5.92739 0 19 5.92739 1
gene 3 2 11 1.15789 0 29 1.15789 1
genomeend 112

/* Organism #113 Fitness: 4.0012 Error: 1.9997 */
genomestart 113
trait 1 0.1 0 0 0 0.0439904 0 0 0 
trait 2 0.2 0 0 0 0 0 0 0 
trait 3 0.3 0 0 0 0 0 0 0 
node 1 2 1 3
node 2 2 1 1
node 3 3 1 1
node 4 3 0 2
node 11 1 0 0
gene 1 1 4 -4.24984 0 1 -4.24984 1
gene 2 2 4 3.88247 0 2 3.88247 1
gene 1 3 4 4.95428 0 3 4.95428 0
gene 1 3 11 1.58172 0 18 1.58172 1
gene 1 11 4 2.60367 0 19 2.60367 1
gene 3 2 11 2.50828 0 29 2.50828 1
genomeend 113

/* Species #13 : (Size 10) (AF 6.60769) (Age 5)  */


/* Organism #114 Fitness: 8.80333 Error: 1.03296 */
genomestart 114
trait 1 0.1 0 0 0 0 0 0 0 
trait 2 0.2 0 0 0 0 0 0 0 
trait 3 0.3 0 0 0 0 0 0 0 
node 1 2 1 3
node 2 3 1 1
node 3 2 1 1
node 4 1 0 2
node 7 1 0 0
node 12 1 0 0
gene 1 1 4 -3.26323 0 1 -3.26323 1
gene 1 2 4 3.16836 0 2 3.16836 0
gene 1 3 4 1.81428 0 3 1.81428 1
gene 1 2 7 2.72772 0 8 2.72772 1
gene 1 7 4 5.15436 0 9 5.15436 1
gene 2 3 7 0.540514 0 20 0.540514 1
gene 1 3 12 4.92846 0 23 4.92846 1
gene 1 12 4 -0.359796 0 24 -0.359796 1
gene 3 1 12 -1.26476 0 83 -1.26476 1
genomeend 114

/* Organism #115 Fitness: 4.00724 Error: 1.99819 */
genomestart 115
trait 1 0.1 0 0 0 0 0 0 0 
trait 2 0.2 0 0 0 0 0 0 0 
trait 3 0.3 0 0 0 0 0 0 0 
node 1 2 1 3
node 2 3 1 1
node 3 2 1 1
node 4 1 0 2
node 7 1 0 0
node 12 1 0 0
gene 1 1 4 -1.2961 0 1 -1.2961 1
gene 1 2 4 2.33376 0 2 2.33376 0
gene 1 3 4 1.81428 0 3 1.81428 0
gene 1 2 7 4.28648 0 8 4.28648 1
gene 1 7 4 5.15436 0 9 5.15436 1
gene 2 3 7 2.55283 0 20 2.55283 1
gene 1 3 12 3.28371 0 23 3.28371 1
gene 1 12 4 0.490375 0 24 0.490375 1
gene 3 1 12 -1.26476 0 83 -1.26476 1
genomeend 115

/* Organism #116 Fitness: 8.97411 Error: 1.00432 */
genomestart 116
trait 1 0.1 0 0 0 0 0 0 0 
trait 2 0.2 0 0 0 0 0 0 0 
trait 3 0.3 0 0 0 0 0 0 0 
node 1 2 1 3
node 2 3 1 1
node 3 2 1 1
node 4 1 0 2
node 7 1 0 0
node 12 1 0 0
gene 1 1 4 -1.2961 0 1 -1.2961 1
gene 1 2 4 2.33376 0 2 2.33376 1
gene 1 3 4 1.29626 0 3 1.29626 0
gene 1 2 7 4.28648 0 8 4.28648 1
gene 1 7 4 2.06205 0 9 2.06205 1
gene 2 3 7 2.55283 0 20 2.55283 1
gene 1 3 12 3.28371 0 23 3.28371 1
gene 1 12 4 0.490375 0 24 0.490375 1
gene 3 1 12 -1.50666 0 83 -1.50666 1
gene 1 1 7 -0.715296 0 128 -0.715296 1
genomeend 116

/* Organism #117 Fitness: 4.02488 Error: 1.99379 */
genomestart 117
trait 1 0.1 0 0 0 0 0 0 0 
trait 2 0.2 0 0 0 0 0 0 0 
trait 3 0.3 0 0 0 0 0 0 0 
node 1 2 1 3
node 2 3 1 1
node 3 2 1 1
node 4 1 0 2
node 7 1 0 0
node 12 1 0 0
gene 1 1 4 -4.30653 0 1 -4.30653 1
gene 1 2 4 -3.64318 0 2 -3.64318 1
gene 1 3 4 0.581746 0 3 0.581746 0
gene 1 2 7 -1.90722 0 8 -1.90722 1
gene 1 7 4 3.27591 0 9 3.27591 1
gene 2 3 7 2.14165 0 20 2.14165 1
gene 1 3 12 -0.841062 0 23 -0.841062 1
gene 1 12 4 2.6896 0 24 2.6896 1
gene 3 1 12 -1.31496 0 83 -1.31496 1
genomeend 117

/* Organism #118 Fitness: 4 Error: 2 */
genomestart 118
trait 1 0.1 0 0 0 0 0 0 0 
trait 2 0.2 0 0 0 0 0 0 0 
trait 3 0.3 0 0 0 0 0 0 0 
node 1 2 1 3
node 2 3 1 1
node 3 2 1 1
node 4 1 0 2
node 7 1 0 0
node 12 1 0 0
gene 1 1 4 -1.23808 0 1 -1.23808 1
gene 1 2 4 2.32824 0 2 2.32824 0
gene 1 3 4 2.58 0 3 2.58 1
gene 1 2 7 1.45862 0 8 1.45862 1
gene 1 7 4 6.48679 0 9 6.48679 1
gene 2 3 7 -1.21248 0 20 -1.21248 1
gene 1 3 12 1.72631 0 23 1.72631 1
gene 1 12 4 1.39301 0 24 1.39301 1
gene 3 1 12 -0.048769 0 83 -0.048769 1
genomeend 118

/* Organism #119 Fitness: 7.75304 Error: 1.21557 */
genomestart 119
trait 1 0.1 0 0 0 0 0 0 0 
trait 2 0.2 0 0 0 0 0 0 0 
trait 3 0.3 0 0 0 0 0 0 0 
node 1 2 1 3
node 2 3 1 1
node 3 2 1 1
node 4 1 0 2
node 7 1 0 0
node 12 1 0 0
gene 1 1 4 -1.2961 0 1 -1.2961 1
gene 1 2 4 2.33376 0 2 2.33376 1
gene 1 3 4 1.29626 0 3 1.29626 0
gene 1 2 7 4.28648 0 8 4.28648 1
gene 1 7 4 2.06205 0 9 2.06205 1
gene 2 3 7 2.55283 0 20 2.55283 1
gene 1 3 12 3.28371 0 23 3.28371 1
gene 1 12 4 0.490375 0 24 0.490375 1
gene 3 1 12 -1.50666 0 83 -1.50666 1
genomeend 119

/* Organism #120 Fitness: 8.47877 Error: 1.08817 */
genomestart 120
trait 1 0.1 0 0 0 0 0 0 0 
trait 2 0.2 0 0 0 0 0 0 0 
trait 3 0.3 0 0 0 0 0 0 0 
node 1 2 1 3
node 2 3 1 1
node 3 2 1 1
node 4 1 0 2
node 7 1 0 0
node 12 1 0 0
gene 1 1 4 -2.27967 0 1 -2.27967 1
gene 1 2 4 2.75106 0 2 2.75106 1
gene 1 3 4 1.55527 0 3 1.55527 0
gene 1 2 7 3.5071 0 8 3.5071 1
gene 1 7 4 3.6082 0 9 3.6082 1
gene 2 3 7 1.54667 0 20 1.54667 1
gene 1 3 12 4.10609 0 23 4.10609 1
gene 1 12 4 0.0652895 0 24 0.0652895 1
gene 3 1 12 -1.38571 0 83 -1.38571 1
gene 2 12 7 -0.900877 0 129 -0.900877 1
genomeend 120

/* Organism #121 Fitness: 8.39664 Error: 1.1023 */
genomestart 121
trait 1 0.1 0 0 0 0 0 0 0 
trait 2 0.2 0 0 0 0 0 0 0 
trait 3 0.3 0 0 0 0 0 0 0 
node 1 2 1 3
node 2 3 1 1
node 3 2 1 1
node 4 1 0 2
node 7 1 0 0
node 12 1 0 0
gene 1 1 4 -2.94011 0 1 -2.94011 1
gene 1 2 4 0.536733 0 2 0.536733 0
gene 1 3 4 -0.0853008 0 3 -0.0853008 0
gene 1 2 7 1.07579 0 8 1.07579 1
gene 1 7 4 5.73416 0 9 5.73416 1
gene 2 3 7 4.27879 0 20 4.27879 1
gene 1 3 12 4.54151 0 23 4.54151 1
gene 1 12 4 -1.48172 0 24 -1.48172 1
gene 3 1 12 -0.224853 0 83 -0.224853 1
genomeend 121

/* Organism #122 Fitness: 3.99845 Error: 2.00039 */
genomestart 122
trait 1 0.1 0 0 0 0 0 0 0 
trait 2 0.2 0 0 0 0 0 0 0 
trait 3 0.3 0 0 0 0 0 0 0 
node 1 2 1 3
node 2 3 1 1
node 3 2 1 1
node 4 1 0 2
node 7 1 0 0
node 12 1 0 0
gene 1 1 4 -4.9183 0 1 -4.9183 1
gene 1 2 4 0.735176 0 2 0.735176 0
gene 1 3 4 0.777187 0 3 0.777187 1
gene 1 2 7 0.0916423 0 8 0.0916423 1
gene 1 7 4 4.78723 0 9 4.78723 1
gene 2 3 7 1.34821 0 20 1.34821 1
gene 1 3 12 -1.64851 0 23 -1.64851 1
gene 1 12 4 0.54529 0 24 0.54529 1
gene 3 1 12 -1.64664 0 83 -1.64664 1
genomeend 122

/* Organism #123 Fitness: 7.64041 Error: 1.23587 */
genomestart 123
trait 1 0.1 0 0 0 0 0 0 0 
trait 2 0.2 0 0 0 0 0 0 0 
trait 3 0.3 0 0 0 0 0 0 0 
node 1 2 1 3
node 2 3 1 1
node 3 2 1 1
node 4 1 0 2
node 7 1 0 0
node 12 1 0 0
gene 1 1 4 -1.2961 0 1 -1.2961 1
gene 1 2 4 2.33376 0 2 2.33376 0
gene 1 3 4 1.29626 0 3 1.29626 0
gene 1 2 7 4.28648 0 8 4.28648 1
gene 1 7 4 2.06205 0 9 2.06205 1
gene 2 3 7 2.55283 0 20 2.55283 1
gene 1 3 12 3.28371 0 23 3.28371 1
gene 1 12 4 0.490375 0 24 0.490375 1
gene 3 1 12 -1.50666 0 83 -1.50666 1
gene 3 7 12 0.833169 0 130 0.833169 1
genomeend 123

/* Species #14 : (Size 7) (AF 4.44105) (Age 5)  */


/* Organism #124 Fitness: 4.53431 Error: 1.87061 */
genomestart 124
trait 1 0.1 0 0 0 0 0 0 0 
trait 2 0.2 0 0 0 0 0 0 0 
trait 3 0.3 0 0 0 0 0 0 0 
node 1 2 1 3
node 2 2 1 1
node 3 3 1 1
node 4 3 0 2
node 11 1 0 0
node 28 1 0 0
gene 2 1 4 0.0292827 0 1 0.0292827 1
gene 2 2 4 -0.848572 0 2 -0.848572 1
gene 1 3 4 0.599571 0 3 0.599571 0
gene 1 3 11 -1.68478 0 18 -1.68478 1
gene 1 11 4 -2.20676 0 19 -2.20676 0
gene 3 2 11 0.516424 0 29 0.516424 1
gene 1 11 28 0.903076 0 86 0.903076 1
gene 1 28 4 -0.617556 0 87 -0.617556 1
genomeend 124

/* Organism #125 Fitness: 4.06531 Error: 1.98374 */
genomestart 125
trait 1 0.1 0 0 0.471037 0.406594 0 0.0512033 0 
trait 2 0.2 0 0 0 0 0 0 0 
trait 3 0.3 0 0 0 0 0 0 0 
node 1 2 1 3
node 2 2 1 1
node 3 3 1 1
node 4 3 0 2
node 11 1 0 0
node 28 1 0 0
gene 2 1 4 1.73321 0 1 1.73321 1
gene 2 2 4 -3.13742 0 2 -3.13742 1
gene 1 3 4 1.17183 0 3 1.17183 0
gene 1 3 11 -2.63525 0 18 -2.63525 1
gene 1 11 4 -6.23375 0 19 -6.23375 0
gene 3 2 11 0.863693 0 29 0.863693 1
gene 1 11 28 1.00018 0 86 1.00018 1
gene 1 28 4 -1.00792 0 87 -1.00792 1
genomeend 125

/* Organism #126 Fitness: 4 Error: 2 */
genomestart 126
trait 1 0.1 0 0 0.471037 0.406594 0 0.0512033 0 
trait 2 0.2 0 0 0 0 0 0 0 
trait 3 0.3 0 0 0 0 0 0 0 
node 1 2 1 3
node 2 2 1 1
node 3 3 1 1
node 4 3 0 2
node 11 1 0 0
node 28 1 0 0
gene 2 1 4 -2.49916 0 1 -2.49916 1
gene 2 2 4 -2.33514 0 2 -2.33514 1
gene 1 3 4 0.388455 0 3 0.388455 0
gene 1 3 11 -1.28774 0 18 -1.28774 1
gene 3 11 4 -3.70121 0 19 -3.70121 0
gene 3 2 11 -2.21846 0 29 -2.21846 1
gene 1 11 28 0.903076 0 86 0.903076 1
gene 1 28 4 -0.104127 0 87 -0.104127 1
genomeend 126

/* Organism #127 Fitness: 4.05849 Error: 1.98543 */
genomestart 127
trait 1 0.1 0 0 0.942075 0.813188 0 0.102407 0 
trait 2 0.2 0 0 0 0 0 0 0 
trait 3 0.3 0 0 0 0 0 0 0 
node 1 2 1 3
node 2 2 1 1
node 3 3 1 1
node 4 3 0 2
node 11 1 0 0
node 28 1 0 0
gene 2 1 4 -0.925831 0 1 -0.925831 1
gene 2 2 4 0.330955 0 2 0.330955 1
gene 1 3 4 -1.86828 0 3 -1.86828 0
gene 1 3 11 1.06307 0 18 1.06307 1
gene 1 11 4 -6.40746 0 19 -6.40746 0
gene 3 2 11 1.51773 0 29 1.51773 1
gene 1 11 28 0.444874 0 86 0.444874 1
gene 1 28 4 2.32113 0 87 2.32113 1
genomeend 127

/* Organism #128 Fitness: 4.01075 Error: 1.99732 */
genomestart 128
trait 1 0.1 0 0 0.471037 0.406594 0 0.0512033 0 
trait 2 0.2 0 0 0 0 0 0 0 
trait 3 0.3 0 0 0 0 0 0 0 
node 1 2 1 3
node 2 2 1 1
node 3 3 1 1
node 4 3 0 2
node 11 1 0 0
node 28 1 0 0
gene 2 1 4 1.14225 0 1 1.14225 1
gene 2 2 4 -3.66381 0 2 -3.66381 1
gene 1 3 4 0.2544 0 3 0.2544 0
gene 1 3 11 -1.86988 0 18 -1.86988 1
gene 1 11 4 -3.69332 0 19 -3.69332 0
gene 3 2 11 -0.501339 0 29 -0.501339 1
gene 1 11 28 2.49182 0 86 2.49182 1
gene 1 28 4 -0.165865 0 87 -0.165865 1
genomeend 128

/* Organism #129 Fitness: 6.43379 Error: 1.46351 */
genomestart 129
trait 1 0.1 0 0 0.471037 0.406594 0 0.0512033 0 
trait 2 0.2 0 0 0 0 0 0 0 
trait 3 0.3 0 0 0 0 0 0 0 
node 1 2 1 3
node 2 2 1 1
node 3 3 1 1
node 4 3 0 2
node 11 1 0 0
node 28 1 0 0
gene 2 1 4 0.0765478 0 1 0.0765478 1
gene 2 2 4 -1.04765 0 2 -1.04765 1
gene 1 3 4 0.522218 0 3 0.522218 0
gene 1 3 11 -1.01145 0 18 -1.01145 1
gene 1 11 4 -3.16098 0 19 -3.16098 0
gene 3 2 11 -0.199848 0 29 -0.199848 1
gene 1 11 28 1.2187 0 86 1.2187 1
gene 1 28 4 1.54103 0 87 1.54103 1
genomeend 129

/* Organism #130 Fitness: 3.9847 Error: 2.00383 */
genomestart 130
trait 1 0.1 0 0 0.471037 0.406594 0 0.0512033 0 
trait 2 0.2 0 0 0 0 0 0 0 
trait 3 0.3 0 0 0 0 0 0 0 
node 1 2 1 3
node 2 2 1 1
node 3 3 1 1
node 4 3 0 2
node 11 1 0 0
node 28 1 0 0
gene 2 1 4 -1.67191 0 1 -1.67191 1
gene 2 2 4 0.771944 0 2 0.771944 1
gene 1 3 4 0.204749 0 3 0.204749 0
gene 1 3 11 0.850344 0 18 0.850344 1
gene 1 11 4 -5.00083 0 19 -5.00083 0
gene 3 2 11 -1.46793 0 29 -1.46793 1
gene 1 11 28 0.924252 0 86 0.924252 1
gene 1 28 4 3.84417 0 87 3.84417 1
genomeend 130

/* Species #15 : (Size 11) (AF 5.25181) (Age 4)  */


/* Organism #131 Fitness: 8.38548 Error: 1.10423 */
genomestart 131
trait 1 0.1 0 0 0 0 0 0 0 
trait 2 0.2 0 0 0 0 0 0 0 
trait 3 0.3 0 0 0 0 0 0 0 
node 1 2 1 3
node 2 3 1 1
node 3 2 1 1
node 4 1 0 2
node 7 1 0 0
node 12 1 0 0
node 29 1 0 0
gene 1 1 4 1.18942 0 1 1.18942 1
gene 1 2 4 3.14947 0 2 3.14947 0
gene 1 3 4 -1.79928 0 3 -1.79928 0
gene 1 2 7 -4.10819 0 8 -4.10819 1
gene 1 7 4 0.111015 0 9 0.111015 1
gene 2 3 7 0.200638 0 20 0.200638 1
gene 1 3 12 -1.56471 0 23 -1.56471 1
gene 1 12 4 0.474086 0 24 0.474086 1
gene 1 7 12 -4.28588 0 46 -4.28588 1
gene 1 12 29 -1.02219 0 91 -1.02219 1
gene 1 29 4 -3.20088 0 92 -3.20088 1
genomeend 131

/* Organism #132 Fitness: 8.38548 Error: 1.10423 */
genomestart 132
trait 1 0.1 0 0 0 0 0 0 0 
trait 2 0.2 0 0 0 0 0 0 0 
trait 3 0.3 0 0 0 0 0 0 0 
node 1 2 1 3
node 2 3 1 1
node 3 2 1 1
node 4 1 0 2
node 7 1 0 0
node 12 1 0 0
node 29 1 0 0
gene 1 1 4 1.18942 0 1 1.18942 1
gene 1 2 4 3.14947 0 2 3.14947 0
gene 1 3 4 -1.79928 0 3 -1.79928 0
gene 1 2 7 -4.10819 0 8 -4.10819 1
gene 1 7 4 0.111015 0 9 0.111015 1
gene 2 3 7 0.200638 0 20 0.200638 1
gene 1 3 12 -1.56471 0 23 -1.56471 1
gene 1 12 4 0.474086 0 24 0.474086 1
gene 1 7 12 -4.28588 0 46 -4.28588 1
gene 1 12 29 -1.02219 0 91 -1.02219 1
gene 1 29 4 -3.20088 0 92 -3.20088 1
genomeend 132

/* Organism #133 Fitness: 8.47305 Error: 1.08915 */
genomestart 133
trait 1 0.1 0 0 0 0 0 0 0 
trait 2 0.2 0 0 0 0 0 0 0 
trait 3 0.3 0 0 0 0 0 0 0 
node 1 2 1 3
node 2 3 1 1
node 3 2 1 1
node 4 1 0 2
node 7 1 0 0
node 12 1 0 0
node 29 1 0 0
gene 1 1 4 1.18942 0 1 1.18942 1
gene 1 2 4 4.5028 0 2 4.5028 0
gene 1 3 4 -0.86482 0 3 -0.86482 0
gene 1 2 7 -4.75979 0 8 -4.75979 1
gene 1 7 4 1.24148 0 9 1.24148 1
gene 2 3 7 0.200638 0 20 0.200638 1
gene 1 3 12 -0.752091 0 23 -0.752091 1
gene 1 12 4 0.474086 0 24 0.474086 0
gene 1 7 12 -2.5637 0 46 -2.5637 1
gene 1 12 29 -0.446674 0 91 -0.446674 1
gene 1 29 4 -3.20088 0 92 -3.20088 1
genomeend 133

/* Organism #134 Fitness: 2.87698 Error: 2.30383 */
genomestart 134
trait 1 0.1 0 0 0 0 0 0 0 
trait 2 0.2 0 0 0 0 0 0 0 
trait 3 0.3 0 0 0 0 0 0 0 
node 1 2 1 3
node 2 3 1 1
node 3 2 1 1
node 4 1 0 2
node 7 1 0 0
node 12 1 0 0
node 29 1 0 0
gene 1 1 4 -1.78328 0 1 -1.78328 1
gene 1 2 4 7.08058 0 2 7.08058 0
gene 1 3 4 1.10351 0 3 1.10351 0
gene 1 2 7 0.96678 0 8 0.96678 1
gene 1 7 4 3.98457 0 9 3.98457 1
gene 2 3 7 0.0956744 0 20 0.0956744 1
gene 1 3 12 -0.981283 0 23 -0.981283 1
gene 1 12 4 0.686869 0 24 0.686869 0
gene 1 7 12 0.292053 0 46 0.292053 1
gene 1 12 29 -0.653993 0 91 -0.653993 1
gene 1 29 4 -1.95157 0 92 -1.95157 1
genomeend 134

/* Organism #135 Fitness: 4 Error: 2 */
genomestart 135
trait 1 0.1 0 0 0 0 0 0 0 
trait 2 0.2 0 0 0 0 0 0 0 
trait 3 0.3 0 0 0 0 0 0 0 
node 1 2 1 3
node 2 3 1 1
node 3 2 1 1
node 4 1 0 2
node 7 1 0 0
node 12 1 0 0
node 29 1 0 0
gene 1 1 4 -1.15355 0 1 -1.15355 1
gene 1 2 4 1.99883 0 2 1.99883 0
gene 1 3 4 -0.992943 0 3 -0.992943 0
gene 1 2 7 -3.18623 0 8 -3.18623 1
gene 1 7 4 -0.493339 0 9 -0.493339 1
gene 2 3 7 0.590141 0 20 0.590141 1
gene 1 3 12 0.115844 0 23 0.115844 1
gene 1 12 4 -1.65423 0 24 -1.65423 1
gene 1 7 12 -3.89208 0 46 -3.89208 1
gene 1 12 29 1.54444 0 91 1.54444 1
gene 1 29 4 -4.82729 0 92 -4.82729 1
genomeend 135

/* Organism #136 Fitness: 5.13215 Error: 1.73457 */
genomestart 136
trait 1 0.1 0 0 0 0 0 0 0 
trait 2 0.2 0 0 0 0 0 0 0 
trait 3 0.3 0 0 0 0 0 0 0 
node 1 2 1 3
node 2 3 1 1
node 3 2 1 1
node 4 1 0 2
node 7 1 0 0
node 12 1 0 0
node 29 1 0 0
gene 1 1 4 -0.170998 0 1 -0.170998 1
gene 1 2 4 3.58991 0 2 3.58991 1
gene 1 3 4 -1.59216 0 3 -1.59216 0
gene 3 2 7 -2.81361 0 8 -2.81361 1
gene 1 7 4 0.913215 0 9 0.913215 1
gene 2 3 7 0.738173 0 20 0.738173 1
gene 1 3 12 -1.06312 0 23 -1.06312 1
gene 1 12 4 2.19432 0 24 2.19432 0
gene 1 7 12 -1.00237 0 46 -1.00237 1
gene 1 12 29 -1.4887 0 91 -1.4887 1
gene 1 29 4 -1.41487 0 92 -1.41487 1
genomeend 136

/* Organism #137 Fitness: 7.47052 Error: 1.26677 */
genomestart 137
trait 1 0.1 0 0 0 0 0 0 0 
trait 2 0.2 0 0 0 0 0 0 0 
trait 3 0.3 0 0 0 0 0 0 0 
node 1 2 1 3
node 2 3 1 1
node 3 2 1 1
node 4 1 0 2
node 7 1 0 0
node 12 1 0 0
node 29 1 0 0
gene 1 1 4 1.32595 0 1 1.32595 1
gene 1 2 4 4.5028 0 2 4.5028 0
gene 1 3 4 -1.79928 0 3 -1.79928 0
gene 1 2 7 -4.10819 0 8 -4.10819 1
gene 1 7 4 0.111015 0 9 0.111015 1
gene 2 3 7 0.28032 0 20 0.28032 1
gene 1 3 12 -0.752091 0 23 -0.752091 1
gene 1 12 4 -0.66939 0 24 -0.66939 0
gene 1 7 12 -4.28588 0 46 -4.28588 1
gene 1 12 29 -1.02219 0 91 -1.02219 1
gene 1 29 4 -3.20088 0 92 -3.20088 1
genomeend 137

/* Organism #138 Fitness: 3.95698 Error: 2.01078 */
genomestart 138
trait 1 0.1 0 0 0 0 0 0 0 
trait 2 0.2 0 0 0 0 0 0 0 
trait 3 0.3 0 0 0 0 0 0 0 
node 1 2 1 3
node 2 3 1 1
node 3 2 1 1
node 4 1 0 2
node 7 1 0 0
node 12 1 0 0
node 29 1 0 0
gene 1 1 4 2.04863 0 1 2.04863 1
gene 1 2 4 5.44263 0 2 5.44263 0
gene 1 3 4 -2.23007 0 3 -2.23007 0
gene 1 2 7 -5.04931 0 8 -5.04931 1
gene 2 7 4 -0.571224 0 9 -0.571224 1
gene 2 3 7 -0.434754 0 20 -0.434754 1
gene 1 3 12 -3.90217 0 23 -3.90217 1
gene 1 12 4 0.699235 0 24 0.699235 1
gene 1 7 12 -1.84942 0 46 -1.84942 1
gene 1 12 29 2.22962 0 91 2.22962 1
gene 1 29 4 -5.52166 0 92 -5.52166 1
genomeend 138

/* Organism #139 Fitness: 4.00023 Error: 1.99994 */
genomestart 139
trait 1 0.1 0 0 0 0 0 0 0 
trait 2 0.2 0 0 0 0 0 0 0 
trait 3 0.3 0 0.0491839 0 0 0 0 0 
node 1 2 1 3
node 2 2 1 1
node 3 2 1 1
node 4 1 0 2
node 7 1 0 0
node 12 1 0 0
node 29 1 0 0
gene 1 1 4 0.843855 0 1 0.843855 1
gene 1 2 4 5.12509 0 2 5.12509 0
gene 1 3 4 -1.79928 0 3 -1.79928 0
gene 1 2 7 0.355944 0 8 0.355944 1
gene 1 7 4 3.85477 0 9 3.85477 1
gene 2 3 7 1.30931 0 20 1.30931 1
gene 1 3 12 -0.5276 0 23 -0.5276 1
gene 1 12 4 -3.39899 0 24 -3.39899 0
gene 1 7 12 -5.38076 0 46 -5.38076 1
gene 1 12 29 -0.839216 0 91 -0.839216 1
gene 1 29 4 -1.57534 0 92 -1.57534 1
genomeend 139

/* Organism #140 Fitness: 4 Error: 2 */
genomestart 140
trait 1 0.1 0 0 0 0 0 0 0 
trait 2 0.2 0 0 0 0 0 0 0 
trait 3 0.3 0 0 0 0 0 0 0 
node 1 2 1 3
node 2 3 1 1
node 3 2 1 1
node 4 1 0 2
node 7 1 0 0
node 12 1 0 0
node 29 1 0 0
gene 1 1 4 1.51244 0 1 1.51244 1
gene 1 2 4 5.35412 0 2 5.35412 0
gene 1 3 4 -2.3631 0 3 -2.3631 0
gene 1 2 7 1.10836 0 8 1.10836 1
gene 1 7 4 2.53621 0 9 2.53621 1
gene 2 3 7 -0.509187 0 20 -0.509187 1
gene 1 3 12 -0.448251 0 23 -0.448251 1
gene 1 12 4 0.672801 0 24 0.672801 0
gene 1 7 12 -1.33168 0 46 -1.33168 1
gene 1 12 29 -1.39798 0 91 -1.39798 1
gene 1 29 4 2.44959 0 92 2.44959 1
gene 2 1 7 0.693232 0 118 0.693232 1
genomeend 140

/* Organism #141 Fitness: 1.08905 Error: 2.95643 */
genomestart 141
trait 1 0.1 0 0 0 0 0 0 0 
trait 2 0.2 0 0 0 0 0 0 0 
trait 3 0.3 0 0 0 0 0 0 0 
node 1 2 1 3
node 2 3 1 1
node 3 2 1 1
node 4 1 0 2
node 7 1 0 0
node 12 1 0 0
node 29 1 0 0
gene 1 1 4 -0.730847 0 1 -0.730847 1
gene 1 2 4 3.92967 0 2 3.92967 0
gene 1 3 4 -1.82967 0 3 -1.82967 0
gene 1 2 7 -5.8043 0 8 -5.8043 1
gene 1 7 4 2.65266 0 9 2.65266 1
gene 2 3 7 -1.34714 0 20 -1.34714 1
gene 1 3 12 -0.410221 0 23 -0.410221 1
gene 1 12 4 -1.48062 0 24 -1.48062 0
gene 1 7 12 -1.40014 0 46 -1.40014 1
gene 1 12 29 0.901837 0 91 0.901837 1
gene 1 29 4 -2.37272 0 92 -2.37272 1
gene 2 1 7 1.27955 0 118 1.27955 1
genomeend 141

/* Species #16 : (Size 8) (AF 4.00789) (Age 2)  */


/* Organism #142 Fitness: 4.00382 Error: 1.99905 */
genomestart 142
trait 1 0.1 0 0 0 0 0 0 0 
trait 2 0.15 0 0 0 0 0.412883 0 0 
trait 3 0.32798 0.0594175 0.0392182 0 0.0103195 0 0 0 
node 1 1 1 3
node 2 2 1 1
node 3 3 1 1
node 4 1 0 2
node 10 1 0 0
node 13 1 0 0
node 31 1 0 0
gene 2 1 4 0.287928 0 1 0.287928 1
gene 2 2 4 1.42528 0 2 1.42528 0
gene 1 3 4 -2.60342 0 3 -2.60342 1
gene 2 2 10 -1.3683 0 14 -1.3683 1
gene 2 10 4 4.32794 0 15 4.32794 0
gene 2 10 13 0.963023 0 26 0.963023 0
gene 2 13 4 3.03119 0 27 3.03119 1
gene 2 10 31 1 0 97 0 1
gene 2 31 13 0.963023 0 98 0 1
gene 3 3 13 0.724652 0 110 0.724652 1
genomeend 142

/* Organism #143 Fitness: 4.00382 Error: 1.99905 */
genomestart 143
trait 1 0.1 0 0 0 0 0 0 0 
trait 2 0.15 0 0 0 0 0.412883 0 0 
trait 3 0.32798 0.0594175 0.0392182 0 0.0103195 0 0 0 
node 1 1 1 3
node 2 2 1 1
node 3 3 1 1
node 4 1 0 2
node 10 1 0 0
node 13 1 0 0
node 31 1 0 0
gene 2 1 4 0.287928 0 1 0.287928 1
gene 2 2 4 1.42528 0 2 1.42528 0
gene 1 3 4 -2.60342 0 3 -2.60342 1
gene 2 2 10 -1.3683 0 14 -1.3683 1
gene 2 10 4 4.32794 0 15 4.32794 0
gene 2 10 13 0.963023 0 26 0.963023 0
gene 2 13 4 3.03119 0 27 3.03119 1
gene 2 10 31 1 0 97 0 1
gene 2 31 13 0.963023 0 98 0 1
gene 3 3 13 0.724652 0 110 0.724652 1
genomeend 143

/* Organism #144 Fitness: 4.00382 Error: 1.99905 */
genomestart 144
trait 1 0.1 0 0 0 0 0 0 0 
trait 2 0.15 0 0 0 0 0.412883 0 0 
trait 3 0.32798 0.0594175 0.0392182 0 0.0103195 0 0 0 
node 1 1 1 3
node 2 2 1 1
node 3 3 1 1
node 4 1 0 2
node 10 1 0 0
node 13 1 0 0
node 31 1 0 0
gene 2 1 4 0.287928 0 1 0.287928 1
gene 2 2 4 1.42528 0 2 1.42528 0
gene 1 3 4 -2.60342 0 3 -2.60342 1
gene 2 2 10 -1.3683 0 14 -1.3683 1
gene 2 10 4 4.32794 0 15 4.32794 0
gene 2 10 13 0.963023 0 26 0.963023 0
gene 2 13 4 3.03119 0 27 3.03119 1
gene 2 10 31 1 0 97 0 1
gene 2 31 13 0.963023 0 98 0 1
gene 3 3 13 0.724652 0 110 0.724652 1
genomeend 144

/* Organism #145 Fitness: 4 Error: 2 */
genomestart 145
trait 1 0.1 0 0 0 0 0 0 0 
trait 2 0.15 0 0 0 0 0.412883 0 0 
trait 3 0.32798 0.0594175 0.0392182 0 0.0103195 0 0 0 
node 1 1 1 3
node 2 2 1 1
node 3 3 1 1
node 4 1 0 2
node 10 1 0 0
node 13 1 0 0
node 31 1 0 0
gene 2 1 4 1.58923 0 1 1.58923 1
gene 2 2 4 1.42528 0 2 1.42528 0
gene 1 3 4 -3.46487 0 3 -3.46487 1
gene 2 2 10 0.867461 0 14 0.867461 1
gene 2 10 4 4.32794 0 15 4.32794 0
gene 2 10 13 1.25343 0 26 1.25343 0
gene 2 13 4 4.07027 0 27 4.07027 1
gene 2 10 31 2.9125 0 97 2.9125 1
gene 2 31 13 1.74623 0 98 1.74623 1
gene 3 3 13 2.42166 0 110 2.42166 1
genomeend 145

/* Organism #146 Fitness: 4.01049 Error: 1.99738 */
genomestart 146
trait 1 0.1 0 0 0 0 0 0 0 
trait 2 0.15 0 0 0 0 0.412883 0 0 
trait 3 0.32798 0.0594175 0.0392182 0 0.0103195 0 0 0 
node 1 1 1 3
node 2 2 1 1
node 3 3 1 1
node 4 1 0 2
node 10 1 0 0
node 13 1 0 0
node 31 1 0 0
gene 2 1 4 -1.97078 0 1 -1.97078 1
gene 2 2 4 -0.893401 0 2 -0.893401 0
gene 1 3 4 -2.19857 0 3 -2.19857 1
gene 2 2 10 -1.54909 0 14 -1.54909 1
gene 2 10 4 2.44258 0 15 2.44258 0
gene 2 10 13 -0.897184 0 26 -0.897184 0
gene 2 13 4 4.94044 0 27 4.94044 1
gene 2 10 31 2.72261 0 97 2.72261 1
gene 2 31 13 2.00325 0 98 2.00325 1
gene 3 3 13 0.0793209 0 110 0.0793209 1
genomeend 146

/* Organism #147 Fitness: 4.01541 Error: 1.99615 */
genomestart 147
trait 1 0.1 0 0 0 0 0 0 0 
trait 2 0.15 0 0 0 0 0.412883 0 0 
trait 3 0.32798 0.0594175 0.0392182 0 0.0103195 0 0 0 
node 1 1 1 3
node 2 2 1 1
node 3 3 1 1
node 4 1 0 2
node 10 1 0 0
node 13 1 0 0
node 31 1 0 0
gene 2 1 4 -1.57018 0 1 -1.57018 1
gene 2 2 4 3.73534 0 2 3.73534 0
gene 1 3 4 -2.60342 0 3 -2.60342 1
gene 2 2 10 -1.22622 0 14 -1.22622 1
gene 2 10 4 5.87768 0 15 5.87768 0
gene 2 10 13 -1.02092 0 26 -1.02092 0
gene 2 13 4 1.86873 0 27 1.86873 1
gene 2 10 31 1.09969 0 97 1.09969 1
gene 2 31 13 -0.392569 0 98 -0.392569 1
gene 3 3 13 0.724652 0 110 0.724652 1
genomeend 147

/* Organism #148 Fitness: 4.02197 Error: 1.99451 */
genomestart 148
trait 1 0.1 0 0 0 0 0 0 0 
trait 2 0.15 0 0 0 0 0.412883 0 0 
trait 3 0.32798 0.0594175 0.0392182 0 0.0103195 0 0 0 
node 1 1 1 3
node 2 2 1 1
node 3 3 1 1
node 4 1 0 2
node 10 1 0 0
node 13 1 0 0
node 31 1 0 0
gene 2 1 4 0.287928 0 1 0.287928 1
gene 2 2 4 2.21618 0 2 2.21618 0
gene 1 3 4 -2.60342 0 3 -2.60342 1
gene 2 2 10 -2.44007 0 14 -2.44007 1
gene 2 10 4 5.87477 0 15 5.87477 0
gene 2 10 13 -0.361245 0 26 -0.361245 0
gene 2 13 4 -1.46984 0 27 -1.46984 1
gene 2 10 31 1.97352 0 97 1.97352 1
gene 2 31 13 0.67576 0 98 0.67576 1
gene 3 3 13 -1.55673 0 110 -1.55673 1
genomeend 148

/* Organism #149 Fitness: 4.00382 Error: 1.99905 */
genomestart 149
trait 1 0.1 0 0 0 0 0 0 0 
trait 2 0.15 0 0 0 0 0.412883 0 0 
trait 3 0.32798 0.0594175 0.0392182 0 0.0103195 0 0 0 
node 1 1 1 3
node 2 2 1 1
node 3 3 1 1
node 4 1 0 2
node 10 1 0 0
node 13 1 0 0
node 31 1 0 0
gene 2 1 4 0.287928 0 1 0.287928 1
gene 2 2 4 1.42528 0 2 1.42528 0
gene 1 3 4 -2.60342 0 3 -2.60342 1
gene 2 2 10 -1.3683 0 14 -1.3683 1
gene 2 10 4 4.32794 0 15 4.32794 0
gene 2 10 13 0.963023 0 26 0.963023 0
gene 2 13 4 3.03119 0 27 3.03119 1
gene 2 10 31 1 0 97 0 1
gene 2 31 13 0.963023 0 98 0 1
gene 3 3 13 0.724652 0 110 0.724652 1
genomeend 149
