
/* Species #1 : (Size 150) (AF 1413.75) (Age 11)  */


/* Organism #0 Fitness: 826 Error: 0 */
genomestart 0
trait 1 0.1 0.0321693 0.0164492 0 0.00219599 0.0447313 0 0 
trait 2 0.340706 0.0368534 0.0598263 0.00327748 0 0.00111077 0 0.086226 
trait 3 0.3 0 0 0 0 0 0 0 
node 1 1 1 1
node 2 1 1 1
node 3 2 1 1
node 4 3 1 1
node 5 3 1 1
node 6 2 1 1
node 7 3 1 3
node 8 1 0 2
gene 3 1 8 -1.65635 0 1 -1.65635 1
gene 2 2 8 0.233875 0 2 0.233875 1
gene 3 3 8 -6.63356 0 3 -6.63356 1
gene 2 4 8 -6.24348 0 4 -6.24348 1
gene 1 5 8 4.17854 0 5 4.17854 1
gene 1 6 8 2.17672 0 6 2.17672 1
gene 1 7 8 0.131264 0 7 0.131264 1
genomeend 0

/* Organism #1 Fitness: 207 Error: 0 */
genomestart 1
trait 1 0.1 0.048254 0.0246738 0 0.00329399 0.0589147 0 0 
trait 2 0.520353 0.0184267 0.0915556 0.0316353 0.168148 0.000555383 0 0.207966 
trait 3 0.3 0 0 0 0 0 0 0 
node 1 1 1 1
node 2 3 1 1
node 3 3 1 1
node 4 1 1 1
node 5 1 1 1
node 6 1 1 1
node 7 1 1 3
node 8 3 0 2
gene 3 1 8 -0.723924 0 1 -0.723924 1
gene 2 2 8 1.0206 0 2 1.0206 1
gene 3 3 8 -4.39498 0 3 -4.39498 1
gene 2 4 8 -3.59824 0 4 -3.59824 1
gene 3 5 8 4.05994 0 5 4.05994 1
gene 1 6 8 1.64558 0 6 1.64558 1
gene 1 7 8 -0.406262 0 7 -0.406262 1
genomeend 1

/* Organism #2 Fitness: 193 Error: 0 */
genomestart 2
trait 1 0.09375 0.0697002 0.0356399 0 0.00475799 0.0857354 0 0 
trait 2 0.372677 0.00823159 0.179479 0 0 0 0 0.0215565 
trait 3 0.3 0 0 0 0 0 0 0 
node 1 3 1 1
node 2 1 1 1
node 3 2 1 1
node 4 2 1 1
node 5 3 1 1
node 6 2 1 1
node 7 2 1 3
node 8 3 0 2
gene 3 1 8 2.9839 0 1 2.9839 1
gene 3 2 8 0.407538 0 2 0.407538 1
gene 3 3 8 -2.4038 0 3 -2.4038 1
gene 2 4 8 -6.57409 0 4 -6.57409 1
gene 1 5 8 3.48699 0 5 3.48699 1
gene 1 6 8 0.981681 0 6 0.981681 1
gene 1 7 8 -0.913818 0 7 -0.913818 1
genomeend 2

/* Organism #3 Fitness: 12 Error: 0 */
genomestart 3
trait 1 0.550479 0.0294886 0.497498 0.880688 0.888277 0 0 0 
trait 2 0.31803 0.0276401 0.0598263 0.00245811 0 0.000833074 0 0.0646695 
trait 3 0.3 0 0 0 0 0 0 0 
node 1 1 1 1
node 2 1 1 1
node 3 2 1 1
node 4 3 1 1
node 5 3 1 1
node 6 2 1 1
node 7 3 1 3
node 8 1 0 2
gene 2 1 8 -0.814801 0 1 -0.814801 1
gene 2 2 8 -0.202546 0 2 -0.202546 1
gene 3 3 8 -4.58425 0 3 -4.58425 1
gene 2 4 8 -5.456 0 4 -5.456 1
gene 1 5 8 -1.86033 0 5 -1.86033 1
gene 1 6 8 0.9873 0 6 0.9873 1
gene 1 7 8 1.40897 0 7 1.40897 1
genomeend 3

/* Organism #4 Fitness: 5 Error: 0 */
genomestart 4
trait 1 0.0921875 0.072381 0.0370107 0 0.00494098 0.0940996 0 0 
trait 2 0.384015 0.0123474 0.179479 0 0 0 0 0.0323347 
trait 3 0.3 0 0 0 0 0 0 0 
node 1 3 1 1
node 2 1 1 1
node 3 2 1 1
node 4 2 1 1
node 5 3 1 1
node 6 2 1 1
node 7 2 1 3
node 8 3 0 2
gene 1 1 8 1.09678 0 1 1.09678 1
gene 1 2 8 1.89936 0 2 1.89936 1
gene 2 3 8 -3.77827 0 3 -3.77827 1
gene 2 4 8 -1.12877 0 4 -1.12877 1
gene 1 5 8 3.29202 0 5 3.29202 1
gene 1 6 8 -1.24093 0 6 -1.24093 1
gene 1 7 8 -2.84395 0 7 -2.84395 1
genomeend 4

/* Organism #5 Fitness: 33 Error: 0 */
genomestart 5
trait 1 0.0984375 0.0294886 0.0150784 0 0.00201299 0.0437312 0 0 
trait 2 0.352045 0.0409692 0.0598263 0.00327748 0 0.00111077 0 0.0970042 
trait 3 0.3 0 0 0 0 0 0 0 
node 1 1 1 1
node 2 1 1 1
node 3 2 1 1
node 4 3 1 1
node 5 3 1 1
node 6 2 1 1
node 7 3 1 3
node 8 1 0 2
gene 2 1 8 -0.535443 0 1 -0.535443 1
gene 2 2 8 1.58287 0 2 1.58287 1
gene 3 3 8 -2.98452 0 3 -2.98452 1
gene 2 4 8 -2.60778 0 4 -2.60778 1
gene 3 5 8 2.14335 0 5 2.14335 1
gene 1 6 8 3.63771 0 6 3.63771 1
gene 1 7 8 1.85944 0 7 1.85944 1
genomeend 5

/* Organism #6 Fitness: 160 Error: 0 */
genomestart 6
trait 1 0.0984375 0.167937 0.0315276 0 0.00420899 0.102372 0.0404787 0 
trait 2 0.320353 0.0164632 0.0897395 0 0 0 0 0.043113 
trait 3 0.313015 0 0 0 0.0260154 0.0118673 0 0 
node 1 3 1 1
node 2 1 1 1
node 3 2 1 1
node 4 2 1 1
node 5 3 1 1
node 6 2 1 1
node 7 2 1 3
node 8 3 0 2
gene 3 1 8 0.549956 0 1 0.549956 1
gene 3 2 8 0.867643 0 2 0.867643 1
gene 1 3 8 -2.7852 0 3 -2.7852 1
gene 2 4 8 -3.12778 0 4 -3.12778 1
gene 2 5 8 4.07169 0 5 4.07169 1
gene 1 6 8 1.77183 0 6 1.77183 1
gene 1 7 8 -0.333678 0 7 -0.333678 1
genomeend 6

/* Organism #7 Fitness: 129 Error: 0 */
genomestart 7
trait 1 0.1 0.0348501 0.01782 0 0.00237899 0.058005 0 0 
trait 2 0.296515 0.0133291 0.0747829 0.000819371 0 0.000277691 0 0.0323347 
trait 3 0.3 0 0 0 0 0 0 0 
node 1 1 1 1
node 2 1 1 1
node 3 2 1 1
node 4 3 1 1
node 5 3 1 1
node 6 2 1 1
node 7 3 1 3
node 8 1 0 2
gene 2 1 8 0.000198606 0 1 0.000198606 1
gene 2 2 8 1.01913 0 2 1.01913 1
gene 3 3 8 -3.57473 0 3 -3.57473 1
gene 2 4 8 -4.7573 0 4 -4.7573 1
gene 1 5 8 2.71178 0 5 2.71178 1
gene 1 6 8 2.54935 0 6 2.54935 1
gene 1 7 8 0.247822 0 7 0.247822 1
genomeend 7

/* Organism #8 Fitness: 164 Error: 0 */
genomestart 8
trait 1 0.096875 0.167937 0.0315276 0 0.00420899 0.0802802 0.0404787 0 
trait 2 0.346515 0.0133291 0.134609 0.000819371 0 0.000277691 0 0.0323347 
trait 3 0.306507 0 0 0 0.0130077 0.00593363 0 0 
node 1 1 1 1
node 2 1 1 1
node 3 2 1 1
node 4 3 1 1
node 5 3 1 1
node 6 2 1 1
node 7 3 1 3
node 8 1 0 2
gene 3 1 8 -0.567424 0 1 -0.567424 1
gene 2 2 8 0.816281 0 2 0.816281 1
gene 3 3 8 -3.48183 0 3 -3.48183 1
gene 2 4 8 -4.99067 0 4 -4.99067 1
gene 1 5 8 5.14816 0 5 5.14816 1
gene 1 6 8 2.35336 0 6 2.35336 1
gene 1 7 8 -0.448479 0 7 -0.448479 1
genomeend 8

/* Organism #9 Fitness: 36 Error: 0 */
genomestart 9
trait 1 0.1 0.372452 0.0274153 0 0.00365999 0.0907805 0.121436 0 
trait 2 0.310177 0.00921335 0.104696 0.000819371 0 0.000277691 0 0.0215565 
trait 3 0.306507 0 0 0 0.0130077 0.00593363 0 0 
node 1 1 1 1
node 2 1 1 1
node 3 2 1 1
node 4 3 1 1
node 5 3 1 1
node 6 2 1 1
node 7 3 1 3
node 8 1 0 2
gene 3 1 8 0.0160194 0 1 0.0160194 1
gene 2 2 8 1.43527 0 2 1.43527 1
gene 2 3 8 -2.95284 0 3 -2.95284 1
gene 2 4 8 -4.27123 0 4 -4.27123 1
gene 1 5 8 6.18785 0 5 6.18785 1
gene 2 6 8 4.87558 0 6 4.87558 1
gene 1 7 8 1.96906 0 7 1.96906 1
genomeend 9

/* Organism #10 Fitness: 29 Error: 0 */
genomestart 10
trait 1 0 0.154533 0 0 0.671279 0.717089 0.124335 0 
trait 2 0.309015 0.0133291 0.0897395 0.000819371 0 0.000277691 0 0.0323347 
trait 3 0.306507 0 0 0 0.0130077 0.00593363 0 0 
node 1 1 1 1
node 2 1 1 1
node 3 2 1 1
node 4 3 1 1
node 5 3 1 1
node 6 2 1 1
node 7 3 1 3
node 8 1 0 2
gene 3 1 8 1.23081 0 1 1.23081 1
gene 2 2 8 -0.446265 0 2 -0.446265 1
gene 3 3 8 -0.772732 0 3 -0.772732 1
gene 2 4 8 -4.7573 0 4 -4.7573 1
gene 1 5 8 1.88913 0 5 1.88913 1
gene 1 6 8 3.81733 0 6 3.81733 1
gene 1 7 8 1.61898 0 7 1.61898 1
genomeend 10

/* Organism #11 Fitness: 13 Error: 0 */
genomestart 11
trait 1 0.1 0.247408 0.01782 0 0.00237899 0.0670056 0.0809574 0 
trait 2 1 0.00921335 0.0747829 0 0 0.000277691 0 0.907054 
trait 3 0.3 0 0 0 0 0 0 0 
node 1 1 1 1
node 2 1 1 1
node 3 2 1 1
node 4 3 1 1
node 5 3 1 1
node 6 2 1 1
node 7 3 1 3
node 8 3 0 2
gene 3 1 8 0.152512 0 1 0.152512 1
gene 2 2 8 -1.97925 0 2 -1.97925 1
gene 3 3 8 -5.06835 0 3 -5.06835 1
gene 1 4 8 0.758401 0 4 0.758401 1
gene 2 5 8 0.362649 0 5 0.362649 1
gene 1 6 8 1.7728 0 6 1.7728 1
gene 1 7 8 -1.88894 0 7 -1.88894 1
genomeend 11

/* Organism #12 Fitness: 42 Error: 0 */
genomestart 12
trait 1 0.09375 0.279577 0.0342692 0 0.00457499 0.112555 0.0809574 0 
trait 2 0.323838 0.00411579 0.134609 0 0 0 0 0.0107782 
trait 3 0.306507 0 0 0 0.0130077 0.00593363 0 0 
node 1 3 1 1
node 2 1 1 1
node 3 2 1 1
node 4 2 1 1
node 5 3 1 1
node 6 2 1 1
node 7 2 1 3
node 8 3 0 2
gene 3 1 8 0.749002 0 1 0.749002 1
gene 1 2 8 0.633964 0 2 0.633964 1
gene 2 3 8 0.32078 0 3 0.32078 1
gene 2 4 8 -1.9025 0 4 -1.9025 1
gene 2 5 8 3.66575 0 5 3.66575 1
gene 1 6 8 0.80573 0 6 0.80573 1
gene 1 7 8 -3.04116 0 7 -3.04116 1
genomeend 12

/* Organism #13 Fitness: 71 Error: 0 */
genomestart 13
trait 1 0.0984375 0.0321693 0.0164492 0 0.00219599 0.0475951 0 0 
trait 2 0.374721 0.0501826 0.0598263 0.00409685 0 0.00138846 0 0.118561 
trait 3 0.3 0 0 0 0 0 0 0 
node 1 1 1 1
node 2 1 1 1
node 3 2 1 1
node 4 3 1 1
node 5 3 1 1
node 6 2 1 1
node 7 3 1 3
node 8 1 0 2
gene 3 1 8 -0.849918 0 1 -0.849918 1
gene 2 2 8 -0.951251 0 2 -0.951251 1
gene 3 3 8 -3.12086 0 3 -3.12086 1
gene 2 4 8 -2.00523 0 4 -2.00523 1
gene 1 5 8 5.04541 0 5 5.04541 1
gene 1 6 8 0.643907 0 6 0.643907 1
gene 1 7 8 -0.926205 0 7 -0.926205 1
genomeend 13

/* Organism #14 Fitness: 47 Error: 0 */
genomestart 14
trait 1 0.096875 0.0616579 0.0315276 0 0.00420899 0.108918 0 0 
trait 2 0.317263 0.0184267 0.134609 0.122232 0 0.000555383 0 0.043113 
trait 3 0.275515 0 0.0211341 0.0206483 0.0260154 0.0118673 0 0.0169891 
node 1 1 1 1
node 2 2 1 1
node 3 2 1 1
node 4 3 1 1
node 5 2 1 1
node 6 1 1 1
node 7 2 1 3
node 8 1 0 2
gene 3 1 8 -1.658 0 1 -1.658 1
gene 2 2 8 3.02005 0 2 3.02005 1
gene 3 3 8 -3.11677 0 3 -3.11677 1
gene 2 4 8 -2.4156 0 4 -2.4156 1
gene 2 5 8 1.96267 0 5 1.96267 1
gene 1 6 8 1.25916 0 6 1.25916 1
gene 1 7 8 1.68609 0 7 1.68609 1
genomeend 14

/* Organism #15 Fitness: 74 Error: 0 */
genomestart 15
trait 1 0.1 0.0428925 0.0219323 0 0.00292799 0.0503685 0 0 
trait 2 0.310177 0.00921335 0.104696 0.000819371 0 0.000277691 0 0.0215565 
trait 3 0.2625 0 0.0211341 0.0206483 0 0 0 0.0169891 
node 1 3 1 1
node 2 1 1 1
node 3 2 1 1
node 4 2 1 1
node 5 3 1 1
node 6 2 1 1
node 7 2 1 3
node 8 3 0 2
gene 2 1 8 -0.25838 0 1 -0.25838 1
gene 2 2 8 1.80679 0 2 1.80679 1
gene 3 3 8 -4.27856 0 3 -4.27856 1
gene 2 4 8 -5.88629 0 4 -5.88629 1
gene 3 5 8 3.90743 0 5 3.90743 1
gene 1 6 8 2.54935 0 6 2.54935 1
gene 1 7 8 -2.74624 0 7 -2.74624 1
genomeend 15

/* Organism #16 Fitness: 5 Error: 0 */
genomestart 16
trait 1 0.1 0.0375309 0.0191907 0 0.00256199 0.061869 0 0 
trait 2 0.319191 0.0225425 0.0747829 0.00163874 0 0.000555383 0 0.0538912 
trait 3 0.3 0 0 0 0 0 0 0 
node 1 2 1 1
node 2 1 1 1
node 3 2 1 1
node 4 3 1 1
node 5 2 1 1
node 6 2 1 1
node 7 1 1 3
node 8 2 0 2
gene 3 1 8 0.656492 0 1 0.656492 1
gene 3 2 8 1.64148 0 2 1.64148 1
gene 3 3 8 0.25646 0 3 0.25646 1
gene 2 4 8 -6.15747 0 4 -6.15747 1
gene 1 5 8 -0.835107 0 5 -0.835107 1
gene 3 6 8 -0.410072 0 6 -0.410072 1
gene 1 7 8 -2.25961 0 7 -2.25961 1
genomeend 16

/* Organism #17 Fitness: 127 Error: 0 */
genomestart 17
trait 1 0.1 0.0321693 0.0164492 0 0.00219599 0.0447313 0 0 
trait 2 0.340706 0.0368534 0.0598263 0.00327748 0 0.00111077 0 0.086226 
trait 3 0.3 0 0 0 0 0 0 0 
node 1 1 1 1
node 2 1 1 1
node 3 2 1 1
node 4 3 1 1
node 5 3 1 1
node 6 2 1 1
node 7 3 1 3
node 8 1 0 2
gene 3 1 8 0.830765 0 1 0.830765 1
gene 2 2 8 2.18499 0 2 2.18499 1
gene 3 3 8 -0.127419 0 3 -0.127419 1
gene 2 4 8 -5.23795 0 4 -5.23795 1
gene 1 5 8 5.67848 0 5 5.67848 1
gene 1 6 8 1.73908 0 6 1.73908 1
gene 1 7 8 -2.16296 0 7 -2.16296 1
genomeend 17

/* Organism #18 Fitness: 30 Error: 0 */
genomestart 18
trait 1 0.1 0.0321693 0.0164492 0 0.00219599 0.0447313 0 0 
trait 2 0.340706 0.0368534 0.0598263 0.00327748 0 0.00111077 0 0.086226 
trait 3 0.3 0 0 0 0 0 0 0 
node 1 1 1 1
node 2 1 1 1
node 3 2 1 1
node 4 3 1 1
node 5 3 1 1
node 6 2 1 1
node 7 3 1 3
node 8 1 0 2
gene 3 1 8 -2.09585 0 1 -2.09585 1
gene 2 2 8 -0.551994 0 2 -0.551994 1
gene 3 3 8 -7.8515 0 3 -7.8515 1
gene 2 4 8 -5.12584 0 4 -5.12584 1
gene 1 5 8 2.57002 0 5 2.57002 1
gene 1 6 8 2.11419 0 6 2.11419 1
gene 1 7 8 -0.114929 0 7 -0.114929 1
genomeend 18

/* Organism #19 Fitness: 22 Error: 0 */
genomestart 19
trait 1 0.096875 0.048254 0.0246738 0 0.00329399 0.0576873 0 0 
trait 2 0.322677 0.00921335 0.119653 0.000819371 0 0.000277691 0 0.0215565 
trait 3 0.2625 0 0.0211341 0.0206483 0 0 0 0.0169891 
node 1 1 1 1
node 2 1 1 1
node 3 2 1 1
node 4 3 1 1
node 5 3 1 1
node 6 2 1 1
node 7 3 1 3
node 8 3 0 2
gene 2 1 8 0.392116 0 1 0.392116 1
gene 2 2 8 -1.99231 0 2 -1.99231 1
gene 3 3 8 -4.75917 0 3 -4.75917 1
gene 2 4 8 -5.82828 0 4 -5.82828 1
gene 1 5 8 0.664739 0 5 0.664739 1
gene 2 6 8 1.36853 0 6 1.36853 1
gene 2 7 8 -1.18536 0 7 -1.18536 1
genomeend 19

/* Organism #20 Fitness: 5 Error: 0 */
genomestart 20
trait 1 0.1 0.0750618 0.0383815 0 0.00512398 0.0934633 0 0 
trait 2 0.395353 0.0164632 0.179479 0 0 0 0 0.043113 
trait 3 0.3 0 0 0 0 0 0 0 
node 1 3 1 1
node 2 1 1 1
node 3 2 1 1
node 4 2 1 1
node 5 3 1 1
node 6 2 1 1
node 7 2 1 3
node 8 3 0 2
gene 3 1 8 0.495366 0 1 0.495366 1
gene 3 2 8 -0.352937 0 2 -0.352937 1
gene 2 3 8 -3.13713 0 3 -3.13713 1
gene 2 4 8 -1.08012 0 4 -1.08012 1
gene 1 5 8 2.50802 0 5 2.50802 1
gene 1 6 8 -0.898076 0 6 -0.898076 1
gene 1 7 8 0.373348 0 7 0.373348 1
genomeend 20

/* Organism #21 Fitness: 5 Error: 0 */
genomestart 21
trait 1 0.09375 0.279577 0.0342692 0 0.00457499 0.112555 0.0809574 0 
trait 2 0.323838 0.00411579 0.134609 0 0 0 0 0.0107782 
trait 3 0.306507 0 0 0 0.0130077 0.00593363 0 0 
node 1 1 1 1
node 2 2 1 1
node 3 2 1 1
node 4 3 1 1
node 5 2 1 1
node 6 1 1 1
node 7 2 1 3
node 8 1 0 2
gene 2 1 8 2.27334 0 1 2.27334 1
gene 1 2 8 -0.575011 0 2 -0.575011 1
gene 2 3 8 -1.93808 0 3 -1.93808 1
gene 1 4 8 -4.30778 0 4 -4.30778 1
gene 2 5 8 3.99928 0 5 3.99928 1
gene 2 6 8 -2.03539 0 6 -2.03539 1
gene 1 7 8 -2.16999 0 7 -2.16999 1
genomeend 21

/* Organism #22 Fitness: 40 Error: 0 */
genomestart 22
trait 1 0.1 0.266173 0.0274153 0 0.00365999 0.074825 0.0809574 0 
trait 2 0.320353 0.0184267 0.0897395 0.00163874 0 0.000555383 0 0.043113 
trait 3 0.313015 0 0 0 0.0260154 0.0118673 0 0 
node 1 1 1 1
node 2 1 1 1
node 3 2 1 1
node 4 3 1 1
node 5 3 1 1
node 6 2 1 1
node 7 3 1 3
node 8 1 0 2
gene 3 1 8 -1.60236 0 1 -1.60236 1
gene 2 2 8 -1.93772 0 2 -1.93772 1
gene 1 3 8 -4.81056 0 3 -4.81056 1
gene 2 4 8 2.38 0 4 2.38 1
gene 1 5 8 3.7174 0 5 3.7174 1
gene 1 6 8 4.28313 0 6 4.28313 1
gene 1 7 8 -0.448479 0 7 -0.448479 1
genomeend 22

/* Organism #23 Fitness: 101 Error: 0 */
genomestart 23
trait 1 0.0875 0.0643387 0.0328984 0 0.00439199 0.0780074 0 0 
trait 2 0.35 0 0.179479 0 0 0 0 0 
trait 3 0.3 0 0 0 0 0 0 0 
node 1 1 1 1
node 2 1 1 1
node 3 2 1 1
node 4 3 1 1
node 5 3 1 1
node 6 2 1 1
node 7 3 1 3
node 8 1 0 2
gene 3 1 8 1.80806 0 1 1.80806 1
gene 2 2 8 -2.3366 0 2 -2.3366 1
gene 3 3 8 -7.55598 0 3 -7.55598 1
gene 2 4 8 -6.40192 0 4 -6.40192 1
gene 2 5 8 8 0 5 8 1
gene 2 6 8 0.943797 0 6 0.943797 1
gene 2 7 8 -1.95909 0 7 -1.95909 1
genomeend 23

/* Organism #24 Fitness: 5 Error: 0 */
genomestart 24
trait 1 0.096875 0.0643387 0.0328984 0 0.00439199 0.0931447 0 0 
trait 2 0.352439 0.0266583 0.149566 0.122232 0 0.000555383 0 0.0646695 
trait 3 0.306507 0 0 0 0.0130077 0.00593363 0 0 
node 1 3 1 1
node 2 1 1 1
node 3 2 1 1
node 4 2 1 1
node 5 3 1 1
node 6 2 1 1
node 7 2 1 3
node 8 3 0 2
gene 3 1 8 2.06171 0 1 2.06171 1
gene 2 2 8 3.50873 0 2 3.50873 1
gene 2 3 8 -5.98536 0 3 -5.98536 1
gene 2 4 8 -0.912101 0 4 -0.912101 1
gene 1 5 8 3.95419 0 5 3.95419 1
gene 1 6 8 -1.1957 0 6 -1.1957 1
gene 3 7 8 -0.0662836 0 7 -0.0662836 1
genomeend 24

/* Organism #25 Fitness: 34 Error: 0 */
genomestart 25
trait 1 0.0921875 0.0589771 0.0301569 0 0.00402599 0.0780526 0 0 
trait 2 0.39303 0.0266583 0.149566 0.00163874 0 0.000555383 0 0.0646695 
trait 3 0.3 0 0 0 0 0 0 0 
node 1 3 1 1
node 2 1 1 1
node 3 2 1 1
node 4 2 1 1
node 5 3 1 1
node 6 2 1 1
node 7 2 1 3
node 8 3 0 2
gene 3 1 8 2.20208 0 1 2.20208 1
gene 3 2 8 -0.636099 0 2 -0.636099 1
gene 3 3 8 -4.70669 0 3 -4.70669 1
gene 2 4 8 -3.17922 0 4 -3.17922 1
gene 1 5 8 2.00149 0 5 2.00149 1
gene 1 6 8 2.98091 0 6 2.98091 1
gene 1 7 8 -1.51809 0 7 -1.51809 1
genomeend 25

/* Organism #26 Fitness: 78 Error: 0 */
genomestart 26
trait 1 0.1 0.0375309 0.0191907 0 0.00256199 0.0630963 0 0 
trait 2 0.297677 0.00823159 0.0897395 0 0 0 0 0.0215565 
trait 3 0.3 0 0 0 0 0 0 0 
node 1 3 1 1
node 2 1 1 1
node 3 2 1 1
node 4 2 1 1
node 5 3 1 1
node 6 2 1 1
node 7 2 1 3
node 8 3 0 2
gene 3 1 8 -2.90825 0 1 -2.90825 1
gene 3 2 8 3.01079 0 2 3.01079 1
gene 3 3 8 -3.75296 0 3 -3.75296 1
gene 2 4 8 1.16676 0 4 1.16676 1
gene 3 5 8 6.97949 0 5 6.97949 1
gene 1 6 8 2.1167 0 6 2.1167 1
gene 1 7 8 -1.43495 0 7 -1.43495 1
genomeend 26

/* Organism #27 Fitness: 31 Error: 0 */
genomestart 27
trait 1 0.096875 0.274216 0.0315276 0 0.00420899 0.0978722 0.0809574 0 
trait 2 0.336338 0.00411579 0.149566 0 0 0 0 0.0107782 
trait 3 0.3 0 0 0 0 0 0 0 
node 1 1 1 1
node 2 2 1 1
node 3 2 1 1
node 4 3 1 1
node 5 2 1 1
node 6 1 1 1
node 7 2 1 3
node 8 1 0 2
node 30 1 0 0
gene 3 1 8 -0.481708 0 1 -0.481708 1
gene 2 2 8 2.05426 0 2 2.05426 1
gene 2 3 8 -4.56322 0 3 -4.56322 1
gene 2 4 8 -3.93397 0 4 -3.93397 0
gene 1 5 8 2.70266 0 5 2.70266 1
gene 2 6 8 2.62582 0 6 2.62582 1
gene 1 7 8 -0.371938 0 7 -0.371938 1
gene 2 4 30 1 0 50 0 1
gene 2 30 8 -3.93397 0 51 0 1
genomeend 27

/* Organism #28 Fitness: 46 Error: 0 */
genomestart 28
trait 1 0.09375 0.0857849 0.0438645 0 0.00585598 0.106465 0 0 
trait 2 0.420353 0.0164632 0.209392 0.667383 0 0 0 0 
trait 3 0.3 0 0 0 0 0 0 0 
node 1 1 1 1
node 2 2 1 1
node 3 2 1 1
node 4 3 1 1
node 5 2 1 1
node 6 1 1 1
node 7 2 1 3
node 8 1 0 2
gene 1 1 8 1.44852 0 1 1.44852 1
gene 2 2 8 3.3403 0 2 3.3403 1
gene 3 3 8 0.966746 0 3 0.966746 1
gene 3 4 8 -3.07641 0 4 -3.07641 1
gene 1 5 8 5.69611 0 5 5.69611 1
gene 1 6 8 3.83141 0 6 3.83141 1
gene 1 7 8 -0.999439 0 7 -0.999439 1
genomeend 28

/* Organism #29 Fitness: 43 Error: 0 */
genomestart 29
trait 1 0.096875 0.0562964 0.0287861 0 0.00384299 0.0840075 0 0 
trait 2 0.335177 0.00823159 0.134609 0 0 0 0 0.0215565 
trait 3 0.3 0 0 0 0 0 0 0 
node 1 1 1 1
node 2 2 1 1
node 3 2 1 1
node 4 3 1 1
node 5 2 1 1
node 6 1 1 1
node 7 2 1 3
node 8 1 0 2
gene 1 1 8 3.35464 0 1 3.35464 1
gene 3 2 8 -1.12842 0 2 -1.12842 1
gene 3 3 8 -4.98054 0 3 -4.98054 1
gene 2 4 8 2.443 0 4 2.443 1
gene 1 5 8 3.85978 0 5 3.85978 1
gene 3 6 8 1.91911 0 6 1.91911 1
gene 1 7 8 -0.062058 0 7 -0.062058 1
genomeend 29

/* Organism #30 Fitness: 32 Error: 0 */
genomestart 30
trait 1 0.0953125 0.0562964 0.0287861 0 0.445654 0.0975083 0.990087 0.802238 
trait 2 0.301277 0.0307741 0.0747829 0.122232 0 0.000555383 0 0.0754477 
trait 3 0.313015 0.281679 0.223246 0 0.0260154 0.0118673 0.175768 0.33681 
node 1 1 1 1
node 2 2 1 1
node 3 2 1 1
node 4 3 1 1
node 5 2 1 1
node 6 1 1 1
node 7 2 1 3
node 8 1 0 2
gene 3 1 8 1.91153 0 1 1.91153 1
gene 1 2 8 3.6698 0 2 3.6698 1
gene 2 3 8 -4.33034 0 3 -4.33034 1
gene 2 4 8 -1.18282 0 4 -1.18282 1
gene 2 5 8 1.02444 0 5 1.02444 1
gene 3 6 8 2.42591 0 6 2.42591 1
gene 1 7 8 -1.19353 0 7 -1.19353 1
genomeend 30

/* Organism #31 Fitness: 83 Error: 0 */
genomestart 31
trait 1 0.1 0.0509348 0.0260446 0 0.00347699 0.0652333 0 0 
trait 2 0.345353 0.0174449 0.119653 0.000819371 0 0.000277691 0 0.043113 
trait 3 0.3 0 0 0 0 0 0 0 
node 1 1 1 1
node 2 1 1 1
node 3 2 1 1
node 4 3 1 1
node 5 3 1 1
node 6 2 1 1
node 7 3 1 3
node 8 1 0 2
gene 2 1 8 -1.78738 0 1 -1.78738 1
gene 3 2 8 0.838511 0 2 0.838511 1
gene 2 3 8 -4.58502 0 3 -4.58502 1
gene 2 4 8 -2.05501 0 4 -2.05501 1
gene 1 5 8 2.15492 0 5 2.15492 1
gene 1 6 8 0.844943 0 6 0.844943 1
gene 1 7 8 1.73217 0 7 1.73217 1
genomeend 31

/* Organism #32 Fitness: 149 Error: 0 */
genomestart 32
trait 1 0.0890625 0.0643387 0.0328984 0 0.00439199 0.0943721 0 0 
trait 2 0.38053 0.0266583 0.134609 0.00163874 0 0.000555383 0 0.0646695 
trait 3 0.306507 0 0 0 0.0130077 0.00593363 0 0 
node 1 1 1 1
node 2 2 1 1
node 3 2 1 1
node 4 3 1 1
node 5 2 1 1
node 6 1 1 1
node 7 2 1 3
node 8 1 0 2
gene 2 1 8 0.796007 0 1 0.796007 1
gene 1 2 8 1.3933 0 2 1.3933 1
gene 3 3 8 -3.13187 0 3 -3.13187 1
gene 2 4 8 -3.43182 0 4 -3.43182 1
gene 1 5 8 3.14784 0 5 3.14784 1
gene 1 6 8 1.27744 0 6 1.27744 1
gene 2 7 8 -0.755691 0 7 -0.755691 1
genomeend 32

/* Organism #33 Fitness: 41 Error: 0 */
genomestart 33
trait 1 0.090625 0.0750618 0.0383815 0 0.00512398 0.0983727 0 0 
trait 2 0.348838 0.00411579 0.164522 0 0 0 0 0.0107782 
trait 3 0.269007 0 0.0211341 0.0206483 0.0130077 0.00593363 0 0.0169891 
node 1 1 1 1
node 2 2 1 1
node 3 2 1 1
node 4 3 1 1
node 5 2 1 1
node 6 1 1 1
node 7 2 1 3
node 8 1 0 2
gene 2 1 8 -1.42423 0 1 -1.42423 1
gene 1 2 8 0.790938 0 2 0.790938 1
gene 3 3 8 -4.34723 0 3 -4.34723 1
gene 2 4 8 -4.46525 0 4 -4.46525 1
gene 2 5 8 5.53773 0 5 5.53773 1
gene 2 6 8 0.744355 0 6 0.744355 1
gene 2 7 8 -1.10193 0 7 -1.10193 1
genomeend 33

/* Organism #34 Fitness: 159 Error: 0 */
genomestart 34
trait 1 0.0859375 0.0750618 0.0383815 0 0.00512398 0.106555 0 0 
trait 2 0.360177 0.00823159 0.164522 0 0 0 0 0.0215565 
trait 3 0.411559 0 0.480073 0 0.0130077 0.462094 0 0 
node 1 1 1 1
node 2 2 1 1
node 3 2 1 1
node 4 3 1 1
node 5 2 1 1
node 6 1 1 1
node 7 2 1 3
node 8 1 0 2
gene 2 1 8 1.22014 0 1 1.22014 1
gene 1 2 8 1.48525 0 2 1.48525 1
gene 3 3 8 -3.68999 0 3 -3.68999 1
gene 2 4 8 -3.89543 0 4 -3.89543 1
gene 1 5 8 2.53812 0 5 2.53812 1
gene 1 6 8 1.45221 0 6 1.45221 1
gene 2 7 8 -0.754991 0 7 -0.754991 1
genomeend 34

/* Organism #35 Fitness: 52 Error: 0 */
genomestart 35
trait 1 0.0953125 0.0589771 0.0301569 0 0.00402599 0.0784618 0 0 
trait 2 0.414545 0.0399874 0.134609 0.00245811 0 0.000833074 0 0.0970042 
trait 3 0.3 0 0 0 0 0 0 0 
node 1 1 1 1
node 2 2 1 1
node 3 2 1 1
node 4 3 1 1
node 5 2 1 1
node 6 1 1 1
node 7 2 1 3
node 8 1 0 2
gene 1 1 8 -0.53046 0 1 -0.53046 1
gene 2 2 8 2.54872 0 2 2.54872 1
gene 3 3 8 -0.658362 0 3 -0.658362 1
gene 2 4 8 -5.159 0 4 -5.159 1
gene 3 5 8 2.5796 0 5 2.5796 1
gene 1 6 8 1.45151 0 6 1.45151 1
gene 1 7 8 0.483063 0 7 0.483063 1
genomeend 35

/* Organism #36 Fitness: 33 Error: 0 */
genomestart 36
trait 1 0.096875 0.263493 0.0260446 0 0.00347699 0.0938715 0.0809574 0 
trait 2 0.311338 0.00411579 0.119653 0 0 0 0 0.0107782 
trait 3 0.3 0 0 0 0 0 0 0 
node 1 3 1 1
node 2 1 1 1
node 3 2 1 1
node 4 2 1 1
node 5 3 1 1
node 6 2 1 1
node 7 2 1 3
node 8 3 0 2
gene 3 1 8 1.83016 0 1 1.83016 1
gene 1 2 8 2.05426 0 2 2.05426 1
gene 3 3 8 -1.79094 0 3 -1.79094 1
gene 1 4 8 -3.234 0 4 -3.234 1
gene 1 5 8 -1.56986 0 5 -1.56986 1
gene 3 6 8 3.6886 0 6 3.6886 1
gene 1 7 8 -0.394469 0 7 -0.394469 1
genomeend 36

/* Organism #37 Fitness: 47 Error: 0 */
genomestart 37
trait 1 0.096875 0.0536156 0.0274153 0 0.00365999 0.101008 0 0 
trait 2 0.295353 0.0164632 0.0598263 0 0 0 0 0.043113 
trait 3 0.313015 0 0 0 0.0260154 0.0118673 0 0 
node 1 3 1 1
node 2 1 1 1
node 3 2 1 1
node 4 2 1 1
node 5 3 1 1
node 6 2 1 1
node 7 2 1 3
node 8 3 0 2
gene 3 1 8 1.57198 0 1 1.57198 1
gene 3 2 8 -0.719093 0 2 -0.719093 1
gene 3 3 8 -3.68826 0 3 -3.68826 1
gene 2 4 8 -1.48782 0 4 -1.48782 1
gene 2 5 8 6.49961 0 5 6.49961 1
gene 3 6 8 4.10612 0 6 4.10612 1
gene 1 7 8 -1.71887 0 7 -1.71887 1
genomeend 37

/* Organism #38 Fitness: 50 Error: 0 */
genomestart 38
trait 1 0.1 0.0536156 0.0274153 0 0.00365999 0.0690973 0 0 
trait 2 0.36803 0.0266583 0.119653 0.00163874 0 0.000555383 0 0.0646695 
trait 3 0.3 0 0 0 0 0 0 0 
node 1 1 1 1
node 2 1 1 1
node 3 2 1 1
node 4 3 1 1
node 5 3 1 1
node 6 2 1 1
node 7 3 1 3
node 8 1 0 2
gene 3 1 8 -0.672587 0 1 -0.672587 1
gene 3 2 8 0.642724 0 2 0.642724 1
gene 2 3 8 -4.44818 0 3 -4.44818 1
gene 2 4 8 -3.90692 0 4 -3.90692 1
gene 1 5 8 5.65109 0 5 5.65109 1
gene 1 6 8 3.75839 0 6 3.75839 1
gene 1 7 8 1.11252 0 7 1.11252 1
genomeend 38

/* Organism #39 Fitness: 10 Error: 0 */
genomestart 39
trait 1 0.0921875 0.048254 0.0246738 0 0.00329399 0.0675061 0 0 
trait 2 0.379368 0.0317558 0.119653 0.00245811 0 0.000833074 0 0.0754477 
trait 3 0.3 0 0 0 0 0 0 0 
node 1 3 1 1
node 2 3 1 1
node 3 3 1 1
node 4 1 1 1
node 5 3 1 1
node 6 3 1 1
node 7 1 1 3
node 8 3 0 2
gene 3 1 8 -2.7268 0 1 -2.7268 1
gene 1 2 8 3.42234 0 2 3.42234 1
gene 3 3 8 -4.96494 0 3 -4.96494 1
gene 2 4 8 -2.22095 0 4 -2.22095 1
gene 3 5 8 5.53824 0 5 5.53824 1
gene 1 6 8 0.219754 0 6 0.219754 1
gene 1 7 8 1.76121 0 7 1.76121 1
genomeend 39

/* Organism #40 Fitness: 97 Error: 0 */
genomestart 40
trait 1 0.09375 0.0509348 0.0260446 0 0.00347699 0.0869165 0 0 
trait 2 0.316101 0.0225425 0.119653 0.122232 0 0.000555383 0 0.0538912 
trait 3 0.306507 0 0 0 0.0130077 0.00593363 0 0 
node 1 3 1 1
node 2 1 1 1
node 3 2 1 1
node 4 2 1 1
node 5 3 1 1
node 6 2 1 1
node 7 2 1 3
node 8 3 0 2
gene 3 1 8 0.600046 0 1 0.600046 1
gene 3 2 8 1.41415 0 2 1.41415 1
gene 3 3 8 -4.12776 0 3 -4.12776 1
gene 2 4 8 -3.58008 0 4 -3.58008 1
gene 1 5 8 2.70266 0 5 2.70266 1
gene 1 6 8 2.02475 0 6 2.02475 1
gene 3 7 8 -0.879539 0 7 -0.879539 1
genomeend 40

/* Organism #41 Fitness: 70 Error: 0 */
genomestart 41
trait 1 0.1 0.276896 0.0328984 0 0.00439199 0.1001 0.0809574 0 
trait 2 0.347677 0.00823159 0.149566 0 0 0 0 0.0215565 
trait 3 0.3 0 0 0 0 0 0 0 
node 1 3 1 1
node 2 1 1 1
node 3 2 1 1
node 4 2 1 1
node 5 3 1 1
node 6 2 1 1
node 7 2 1 3
node 8 3 0 2
gene 3 1 8 -0.481708 0 1 -0.481708 1
gene 3 2 8 0.760566 0 2 0.760566 1
gene 2 3 8 -2.2628 0 3 -2.2628 1
gene 2 4 8 -3.23737 0 4 -3.23737 1
gene 2 5 8 5.65701 0 5 5.65701 1
gene 1 6 8 1.20272 0 6 1.20272 1
gene 1 7 8 -0.566587 0 7 -0.566587 1
genomeend 41

/* Organism #42 Fitness: 216 Error: 0 */
genomestart 42
trait 1 0.1 0.0455732 0.023303 0 0.00311099 0.0542324 0 0 
trait 2 0.332853 0.0184267 0.104696 0.00163874 0 0.000555383 0 0.043113 
trait 3 0.2625 0 0.0211341 0.0206483 0 0 0 0.0169891 
node 1 1 1 1
node 2 1 1 1
node 3 2 1 1
node 4 3 1 1
node 5 3 1 1
node 6 2 1 1
node 7 3 1 3
node 8 1 0 2
gene 3 1 8 -1.33049 0 1 -1.33049 1
gene 2 2 8 0.26146 0 2 0.26146 1
gene 3 3 8 -4.03292 0 3 -4.03292 1
gene 2 4 8 -5.86323 0 4 -5.86323 1
gene 3 5 8 4.04298 0 5 4.04298 1
gene 1 6 8 1.67992 0 6 1.67992 1
gene 1 7 8 -0.350251 0 7 -0.350251 1
genomeend 42

/* Organism #43 Fitness: 5 Error: 0 */
genomestart 43
trait 1 0.09375 0.0402117 0.0205615 0 0.00274499 0.0526412 0 0 
trait 2 0.310177 0.00921335 0.104696 0.000819371 0 0.000277691 0 0.0215565 
trait 3 0.3 0 0 0 0 0 0 0 
node 1 1 1 1
node 2 1 1 1
node 3 2 1 1
node 4 3 1 1
node 5 3 1 1
node 6 2 1 1
node 7 3 1 3
node 8 1 0 2
gene 3 1 8 2.71905 0 1 2.71905 1
gene 2 2 8 -1.12687 0 2 -1.12687 1
gene 3 3 8 -7.92235 0 3 -7.92235 1
gene 2 4 8 -7.12157 0 4 -7.12157 1
gene 1 5 8 2.22501 0 5 2.22501 1
gene 1 6 8 -0.712184 0 6 -0.712184 1
gene 2 7 8 -2.2009 0 7 -2.2009 1
genomeend 43

/* Organism #44 Fitness: 301 Error: 0 */
genomestart 44
trait 1 0.0984375 0.0321693 0.0164492 0 0.00219599 0.0475951 0 0 
trait 2 0.374721 0.0501826 0.0598263 0.00409685 0 0.00138846 0 0.118561 
trait 3 0.3 0 0 0 0 0 0 0 
node 1 1 1 1
node 2 1 1 1
node 3 2 1 1
node 4 3 1 1
node 5 3 1 1
node 6 2 1 1
node 7 3 1 3
node 8 1 0 2
gene 3 1 8 -1.2784 0 1 -1.2784 1
gene 2 2 8 0.579693 0 2 0.579693 1
gene 3 3 8 -5.58648 0 3 -5.58648 1
gene 2 4 8 -4.97862 0 4 -4.97862 1
gene 1 5 8 4.20916 0 5 4.20916 1
gene 1 6 8 1.88958 0 6 1.88958 1
gene 1 7 8 -0.123147 0 7 -0.123147 1
genomeend 44

/* Organism #45 Fitness: 139 Error: 0 */
genomestart 45
trait 1 0.0953125 0.0536156 0.0274153 0 0.00365999 0.0670517 0 0 
trait 2 0.369191 0.0225425 0.134609 0.00163874 0 0.000555383 0 0.0538912 
trait 3 0.2625 0 0.0211341 0.0206483 0 0 0 0.0169891 
node 1 3 1 1
node 2 1 1 1
node 3 2 1 1
node 4 2 1 1
node 5 3 1 1
node 6 2 1 1
node 7 2 1 3
node 8 3 0 2
gene 3 1 8 0.866181 0 1 0.866181 1
gene 1 2 8 2.15263 0 2 2.15263 1
gene 3 3 8 -2.54836 0 3 -2.54836 1
gene 2 4 8 -2.55899 0 4 -2.55899 1
gene 1 5 8 3.50186 0 5 3.50186 1
gene 1 6 8 1.74916 0 6 1.74916 1
gene 2 7 8 -0.677343 0 7 -0.677343 1
genomeend 45

/* Organism #46 Fitness: 90 Error: 0 */
genomestart 46
trait 1 0.096875 0.0643387 0.0328984 0 0.00439199 0.0931447 0 0 
trait 2 0.352439 0.0266583 0.149566 0.122232 0 0.000555383 0 0.0646695 
trait 3 0.306507 0 0 0 0.0130077 0.00593363 0 0 
node 1 3 1 1
node 2 1 1 1
node 3 2 1 1
node 4 2 1 1
node 5 3 1 1
node 6 2 1 1
node 7 2 1 3
node 8 3 0 2
gene 3 1 8 1.03715 0 1 1.03715 1
gene 3 2 8 1.34603 0 2 1.34603 1
gene 3 3 8 -5.54765 0 3 -5.54765 1
gene 2 4 8 -0.884301 0 4 -0.884301 1
gene 1 5 8 4.17107 0 5 4.17107 1
gene 1 6 8 1.88529 0 6 1.88529 1
gene 1 7 8 0.772527 0 7 0.772527 1
genomeend 46

/* Organism #47 Fitness: 24 Error: 0 */
genomestart 47
trait 1 0.0890625 0.0643387 0.0328984 0 0.00439199 0.0943721 0 0 
trait 2 0.339939 0.0266583 0.134609 0.122232 0 0.000555383 0 0.0646695 
trait 3 0.306507 0.281679 0.223246 0 0.0130077 0.00593363 0.175768 0.33681 
node 1 1 1 1
node 2 2 1 1
node 3 2 1 1
node 4 3 1 1
node 5 2 1 1
node 6 1 1 1
node 7 2 1 3
node 8 1 0 2
gene 3 1 8 2.11308 0 1 2.11308 1
gene 1 2 8 1.45552 0 2 1.45552 1
gene 2 3 8 -5.74495 0 3 -5.74495 1
gene 2 4 8 -6.28336 0 4 -6.28336 1
gene 2 5 8 1.24909 0 5 1.24909 1
gene 3 6 8 2.42627 0 6 2.42627 1
gene 2 7 8 -2.49202 0 7 -2.49202 1
genomeend 47

/* Organism #48 Fitness: 49 Error: 0 */
genomestart 48
trait 1 0.1 0.258131 0.023303 0 0.00311099 0.0849162 0.0809574 0 
trait 2 0.298838 0.00411579 0.104696 0 0 0 0 0.0107782 
trait 3 0.3 0 0 0 0 0 0 0 
node 1 3 1 1
node 2 1 1 1
node 3 2 1 1
node 4 2 1 1
node 5 3 1 1
node 6 2 1 1
node 7 2 1 3
node 8 3 0 2
gene 3 1 8 1.4378 0 1 1.4378 1
gene 3 2 8 -2.37176 0 2 -2.37176 1
gene 3 3 8 -4.85096 0 3 -4.85096 1
gene 1 4 8 -3.28146 0 4 -3.28146 1
gene 2 5 8 5.65701 0 5 5.65701 1
gene 2 6 8 3.78259 0 6 3.78259 1
gene 1 7 8 -0.54757 0 7 -0.54757 1
genomeend 48

/* Organism #49 Fitness: 43 Error: 0 */
genomestart 49
trait 1 0.0859375 0.0670195 0.0342692 0 0.00457499 0.0896446 0 0 
trait 2 0.361338 0.00411579 0.179479 0 0 0 0 0.0107782 
trait 3 0.3 0 0 0 0 0 0 0 
node 1 1 1 1
node 2 2 1 1
node 3 2 1 1
node 4 3 1 1
node 5 2 1 1
node 6 1 1 1
node 7 2 1 3
node 8 1 0 2
gene 1 1 8 2.76636 0 1 2.76636 1
gene 1 2 8 4.03063 0 2 4.03063 1
gene 3 3 8 -0.821761 0 3 -0.821761 1
gene 2 4 8 -2.21971 0 4 -2.21971 1
gene 1 5 8 4.29378 0 5 4.29378 1
gene 1 6 8 0.667553 0 6 0.667553 1
gene 1 7 8 -0.710267 0 7 -0.710267 1
genomeend 49

/* Organism #50 Fitness: 5 Error: 0 */
genomestart 50
trait 1 0.0875 0.0804234 0.041123 0 0.00548998 0.118374 0 0 
trait 2 0.347677 0.00823159 0.149566 0 0 0 0 0.0215565 
trait 3 0.313015 0 0 0 0.0260154 0.0118673 0 0 
node 1 1 1 1
node 2 2 1 1
node 3 2 1 1
node 4 3 1 1
node 5 2 1 1
node 6 1 1 1
node 7 2 1 3
node 8 1 0 2
gene 2 1 8 -0.897333 0 1 -0.897333 1
gene 1 2 8 0.911353 0 2 0.911353 1
gene 3 3 8 -3.8084 0 3 -3.8084 1
gene 2 4 8 -4.90069 0 4 -4.90069 1
gene 2 5 8 2.4698 0 5 2.4698 1
gene 1 6 8 -0.0831759 0 6 -0.0831759 1
gene 2 7 8 -2.1025 0 7 -2.1025 1
genomeend 50

/* Organism #51 Fitness: 32 Error: 0 */
genomestart 51
trait 1 0.0890625 0.0562964 0.0287861 0 0.00384299 0.0750069 0 0 
trait 2 0.381691 0.0225425 0.149566 0.00163874 0 0.000555383 0 0.0538912 
trait 3 0.3 0 0 0 0 0 0 0 
node 1 3 1 1
node 2 3 1 1
node 3 3 1 1
node 4 1 1 1
node 5 3 1 1
node 6 3 1 1
node 7 1 1 3
node 8 3 0 2
gene 3 1 8 0.928741 0 1 0.928741 1
gene 1 2 8 1.76466 0 2 1.76466 1
gene 2 3 8 -2.83241 0 3 -2.83241 1
gene 2 4 8 -3.3955 0 4 -3.3955 1
gene 3 5 8 1.86888 0 5 1.86888 1
gene 1 6 8 3.64672 0 6 3.64672 1
gene 2 7 8 1.29004 0 7 1.29004 1
genomeend 51

/* Organism #52 Fitness: 211 Error: 0 */
genomestart 52
trait 1 0.096875 0.0402117 0.0205615 0 0.00274499 0.0649147 0 0 
trait 2 0.302439 0.0276401 0.0897395 0.123051 0 0.000833074 0 0.0646695 
trait 3 0.306507 0 0 0 0.0130077 0.00593363 0 0 
node 1 1 1 1
node 2 2 1 1
node 3 2 1 1
node 4 3 1 1
node 5 2 1 1
node 6 1 1 1
node 7 2 1 3
node 8 1 0 2
gene 2 1 8 0.300122 0 1 0.300122 1
gene 2 2 8 2.43505 0 2 2.43505 1
gene 3 3 8 -4.42399 0 3 -4.42399 1
gene 2 4 8 -4.84518 0 4 -4.84518 1
gene 1 5 8 3.75675 0 5 3.75675 1
gene 1 6 8 2.28705 0 6 2.28705 1
gene 1 7 8 -0.559044 0 7 -0.559044 1
genomeend 52

/* Organism #53 Fitness: 124 Error: 0 */
genomestart 53
trait 1 0.0875 0.0616579 0.0315276 0 0.00420899 0.0810984 0 0 
trait 2 0.360177 0.00921335 0.164522 0.000819371 0 0.000277691 0 0.0215565 
trait 3 0.3 0 0 0 0 0 0 0 
node 1 1 1 1
node 2 2 1 1
node 3 2 1 1
node 4 3 1 1
node 5 2 1 1
node 6 1 1 1
node 7 2 1 3
node 8 1 0 2
gene 1 1 8 1.87692 0 1 1.87692 1
gene 1 2 8 1.2852 0 2 1.2852 1
gene 3 3 8 -2.65148 0 3 -2.65148 1
gene 2 4 8 -3.93397 0 4 -3.93397 1
gene 2 5 8 4.06573 0 5 4.06573 1
gene 1 6 8 2.47018 0 6 2.47018 1
gene 2 7 8 -0.27234 0 7 -0.27234 1
genomeend 53

/* Organism #54 Fitness: 16 Error: 0 */
genomestart 54
trait 1 0.09375 0.0562964 0.0287861 0 0.00384299 0.0815528 0 0 
trait 2 0.344191 0.0225425 0.104696 0.00163874 0 0.000555383 0 0.0538912 
trait 3 0.306507 0 0 0 0.0130077 0.00593363 0 0 
node 1 1 1 1
node 2 2 1 1
node 3 2 1 1
node 4 3 1 1
node 5 2 1 1
node 6 1 1 1
node 7 2 1 3
node 8 1 0 2
gene 2 1 8 0.725833 0 1 0.725833 1
gene 2 2 8 0.233875 0 2 0.233875 1
gene 3 3 8 -6.07498 0 3 -6.07498 1
gene 2 4 8 -1.08086 0 4 -1.08086 1
gene 2 5 8 -0.789381 0 5 -0.789381 1
gene 1 6 8 0.92118 0 6 0.92118 1
gene 1 7 8 1.29266 0 7 1.29266 1
genomeend 54

/* Organism #55 Fitness: 177 Error: 0 */
genomestart 55
trait 1 0.096875 0.162575 0.0287861 0 0.00384299 0.0844166 0.0404787 0 
trait 2 0.313777 0.0317558 0.0897395 0.123051 0 0.000833074 0 0.0754477 
trait 3 0.313015 0.281679 0.223246 0 0.0260154 0.0118673 0.175768 0.33681 
node 1 1 1 1
node 2 2 1 1
node 3 2 1 1
node 4 3 1 1
node 5 2 1 1
node 6 1 1 1
node 7 2 1 3
node 8 1 0 2
gene 3 1 8 -0.567424 0 1 -0.567424 1
gene 1 2 8 1.1751 0 2 1.1751 1
gene 1 3 8 -4.49708 0 3 -4.49708 1
gene 2 4 8 -4.85122 0 4 -4.85122 1
gene 1 5 8 5.14816 0 5 5.14816 1
gene 1 6 8 2.35336 0 6 2.35336 1
gene 1 7 8 -0.448479 0 7 -0.448479 1
genomeend 55

/* Organism #56 Fitness: 32 Error: 0 */
genomestart 56
trait 1 0.1 0.266173 0.0274153 0 0.00365999 0.074825 0.0809574 0 
trait 2 0.320353 0.0184267 0.0897395 0.00163874 0 0.000555383 0 0.043113 
trait 3 0.313015 0 0 0 0.0260154 0.0118673 0 0 
node 1 1 1 1
node 2 1 1 1
node 3 2 1 1
node 4 3 1 1
node 5 3 1 1
node 6 2 1 1
node 7 3 1 3
node 8 1 0 2
gene 3 1 8 0.843272 0 1 0.843272 1
gene 2 2 8 -0.972666 0 2 -0.972666 1
gene 1 3 8 -2.42055 0 3 -2.42055 1
gene 2 4 8 -4.85233 0 4 -4.85233 1
gene 1 5 8 3.71806 0 5 3.71806 1
gene 1 6 8 3.66677 0 6 3.66677 1
gene 1 7 8 1.42817 0 7 1.42817 1
genomeend 56

/* Organism #57 Fitness: 25 Error: 0 */
genomestart 57
trait 1 0.1 0.048254 0.0246738 0 0.00329399 0.0589147 0 0 
trait 2 0.520353 0.0184267 0.0915556 0.0316353 0.168148 0.000555383 0 0.207966 
trait 3 0.3 0 0 0 0 0 0 0 
node 1 1 1 1
node 2 1 1 1
node 3 2 1 1
node 4 3 1 1
node 5 3 1 1
node 6 2 1 1
node 7 3 1 3
node 8 1 0 2
gene 3 1 8 -3.15108 0 1 -3.15108 1
gene 2 2 8 2.32509 0 2 2.32509 1
gene 3 3 8 -1.46787 0 3 -1.46787 1
gene 2 4 8 -6.24348 0 4 -6.24348 1
gene 1 5 8 1.75249 0 5 1.75249 1
gene 1 6 8 1.11444 0 6 1.11444 1
gene 1 7 8 -1.72274 0 7 -1.72274 1
genomeend 57

/* Organism #58 Fitness: 100001 Error: 0 */
/* ##------$ WINNER 58 SPECIES #1 $------## */
genomestart 58
trait 1 0.096875 0.268854 0.0287861 0 0.00384299 0.100372 0.0809574 0 
trait 2 0.303601 0.0225425 0.104696 0.122232 0 0.000555383 0 0.0538912 
trait 3 0.306507 0.281679 0.223246 0 0.0130077 0.00593363 0.175768 0.33681 
node 1 3 1 1
node 2 1 1 1
node 3 2 1 1
node 4 2 1 1
node 5 3 1 1
node 6 2 1 1
node 7 2 1 3
node 8 3 0 2
gene 3 1 8 -2.58576 0 1 -2.58576 1
gene 1 2 8 -0.593787 0 2 -0.593787 1
gene 2 3 8 -6.61147 0 3 -6.61147 1
gene 2 4 8 -4.35753 0 4 -4.35753 1
gene 2 5 8 4.264 0 5 4.264 1
gene 2 6 8 0.740687 0 6 0.740687 1
gene 3 7 8 0.0392987 0 7 0.0392987 1
genomeend 58

/* Organism #59 Fitness: 6 Error: 0 */
genomestart 59
trait 1 0.0984375 0.0402117 0.0205615 0 0.00274499 0.0690059 0 0 
trait 2 0.295353 0.0174449 0.0598263 0.000819371 0 0.000277691 0 0.043113 
trait 3 0.306507 0 0 0 0.0130077 0.00593363 0 0 
node 1 3 1 1
node 2 1 1 1
node 3 2 1 1
node 4 2 1 1
node 5 3 1 1
node 6 2 1 1
node 7 2 1 3
node 8 3 0 2
gene 2 1 8 1.48685 0 1 1.48685 1
gene 3 2 8 -2.24579 0 2 -2.24579 1
gene 3 3 8 -5.16652 0 3 -5.16652 1
gene 2 4 8 -2.34818 0 4 -2.34818 1
gene 2 5 8 -0.76527 0 5 -0.76527 1
gene 1 6 8 0.279824 0 6 0.279824 1
gene 1 7 8 0.714772 0 7 0.714772 1
genomeend 59

/* Organism #60 Fitness: 5 Error: 0 */
genomestart 60
trait 1 0.0921875 0.167937 0.0315276 0 0.00420899 0.0847804 0.0404787 0 
trait 2 0.346515 0.0133291 0.134609 0.000819371 0 0.000277691 0 0.0323347 
trait 3 0.306507 0 0 0 0.0130077 0.00593363 0 0 
node 1 1 1 1
node 2 1 1 1
node 3 2 1 1
node 4 3 1 1
node 5 3 1 1
node 6 2 1 1
node 7 3 1 3
node 8 1 0 2
gene 3 1 8 -0.567424 0 1 -0.567424 1
gene 1 2 8 3.62907 0 2 3.62907 1
gene 3 3 8 -5.6719 0 3 -5.6719 1
gene 2 4 8 -3.94492 0 4 -3.94492 1
gene 1 5 8 4.69915 0 5 4.69915 1
gene 1 6 8 0.404828 0 6 0.404828 1
gene 1 7 8 -0.636576 0 7 -0.636576 1
genomeend 60

/* Organism #61 Fitness: 5 Error: 0 */
genomestart 61
trait 1 0.096875 0.167937 0.0315276 0 0.00420899 0.0819166 0.0404787 0 
trait 2 0.346515 0.0133291 0.134609 0.000819371 0 0.000277691 0 0.0323347 
trait 3 0.306507 0 0 0 0.0130077 0.00593363 0 0 
node 1 1 1 1
node 2 1 1 1
node 3 2 1 1
node 4 3 1 1
node 5 3 1 1
node 6 2 1 1
node 7 3 1 3
node 8 1 0 2
gene 1 1 8 0.437194 0 1 0.437194 1
gene 3 2 8 -0.159202 0 2 -0.159202 1
gene 2 3 8 -5.67302 0 3 -5.67302 1
gene 2 4 8 -4.85999 0 4 -4.85999 1
gene 1 5 8 3.23933 0 5 3.23933 1
gene 1 6 8 0.408026 0 6 0.408026 1
gene 1 7 8 -2.42475 0 7 -2.42475 1
genomeend 61

/* Organism #62 Fitness: 6 Error: 0 */
genomestart 62
trait 1 0.09375 0.0697002 0.0356399 0 0.00475799 0.0890083 0 0 
trait 2 0.372677 0.00823159 0.179479 0 0 0 0 0.0215565 
trait 3 0.3 0 0 0 0 0 0 0 
node 1 1 1 1
node 2 2 1 1
node 3 2 1 1
node 4 3 1 1
node 5 2 1 1
node 6 1 1 1
node 7 2 1 3
node 8 1 0 2
gene 1 1 8 3.253 0 1 3.253 1
gene 1 2 8 1.72434 0 2 1.72434 1
gene 3 3 8 -2.52457 0 3 -2.52457 1
gene 2 4 8 -5.08771 0 4 -5.08771 1
gene 1 5 8 -1.45629 0 5 -1.45629 1
gene 1 6 8 0.911375 0 6 0.911375 1
gene 1 7 8 -0.420123 0 7 -0.420123 1
genomeend 62

/* Organism #63 Fitness: 260 Error: 0 */
genomestart 63
trait 1 0.096875 0.167937 0.0315276 0 0.00420899 0.0819166 0.0404787 0 
trait 2 0.346515 0.0133291 0.134609 0.000819371 0 0.000277691 0 0.0323347 
trait 3 0.306507 0 0 0 0.0130077 0.00593363 0 0 
node 1 1 1 1
node 2 1 1 1
node 3 2 1 1
node 4 3 1 1
node 5 3 1 1
node 6 2 1 1
node 7 3 1 3
node 8 1 0 2
gene 3 1 8 0.654748 0 1 0.654748 1
gene 2 2 8 0.788423 0 2 0.788423 1
gene 1 3 8 -3.37994 0 3 -3.37994 1
gene 2 4 8 -4.46232 0 4 -4.46232 1
gene 1 5 8 3.92541 0 5 3.92541 1
gene 1 6 8 1.77804 0 6 1.77804 1
gene 1 7 8 -0.410209 0 7 -0.410209 1
genomeend 63

/* Organism #64 Fitness: 63 Error: 0 */
genomestart 64
trait 1 0.09375 0.0536156 0.0274153 0 0.00365999 0.0928261 0 0 
trait 2 0.309525 0.0368534 0.119653 0.244464 0 0.00111077 0 0.086226 
trait 3 0.313015 0 0 0 0.0260154 0.0118673 0 0 
node 1 1 1 1
node 2 2 1 1
node 3 2 1 1
node 4 3 1 1
node 5 2 1 1
node 6 1 1 1
node 7 2 1 3
node 8 1 0 2
gene 3 1 8 0.378937 0 1 0.378937 1
gene 2 2 8 2.36745 0 2 2.36745 1
gene 3 3 8 -2.95714 0 3 -2.95714 1
gene 2 4 8 -2.1986 0 4 -2.1986 1
gene 1 5 8 5.75836 0 5 5.75836 1
gene 1 6 8 1.04235 0 6 1.04235 1
gene 3 7 8 -0.680449 0 7 -0.680449 1
genomeend 64

/* Organism #65 Fitness: 35 Error: 0 */
genomestart 65
trait 1 0.096875 0.263493 0.0260446 0 0.00347699 0.0938715 0.0809574 0 
trait 2 0.311338 0.00411579 0.119653 0 0 0 0 0.0107782 
trait 3 0.3 0 0 0 0 0 0 0 
node 1 3 1 1
node 2 1 1 1
node 3 2 1 1
node 4 2 1 1
node 5 3 1 1
node 6 2 1 1
node 7 2 1 3
node 8 3 0 2
gene 3 1 8 -0.097945 0 1 -0.097945 1
gene 2 2 8 1.65886 0 2 1.65886 1
gene 2 3 8 -0.594491 0 3 -0.594491 1
gene 2 4 8 -4.3239 0 4 -4.3239 1
gene 2 5 8 6.60751 0 5 6.60751 1
gene 2 6 8 3.91595 0 6 3.91595 1
gene 1 7 8 0.61242 0 7 0.61242 1
genomeend 65

/* Organism #66 Fitness: 28 Error: 0 */
genomestart 66
trait 1 0.090625 0.0750618 0.0383815 0 0.00512398 0.092236 0 0 
trait 2 0.385177 0.00823159 0.194435 0 0 0 0 0.0215565 
trait 3 0.3 0 0 0 0 0 0 0 
node 1 1 1 1
node 2 2 1 1
node 3 2 1 1
node 4 3 1 1
node 5 2 1 1
node 6 1 1 1
node 7 2 1 3
node 8 1 0 2
gene 1 1 8 0.454439 0 1 0.454439 1
gene 2 2 8 1.72893 0 2 1.72893 1
gene 3 3 8 -3.2487 0 3 -3.2487 1
gene 2 4 8 -1.18709 0 4 -1.18709 1
gene 1 5 8 0.673007 0 5 0.673007 1
gene 1 6 8 3.82963 0 6 3.82963 1
gene 2 7 8 2.49373 0 7 2.49373 1
genomeend 66

/* Organism #67 Fitness: 59 Error: 0 */
genomestart 67
trait 1 0.09375 0.181341 0.0383815 0 0.00512398 0.111055 0.0404787 0 
trait 2 0.346515 0.0123474 0.134609 0 0 0 0 0.0323347 
trait 3 0.313015 0 0 0 0.0260154 0.0118673 0 0 
node 1 3 1 1
node 2 1 1 1
node 3 2 1 1
node 4 2 1 1
node 5 3 1 1
node 6 2 1 1
node 7 2 1 3
node 8 3 0 2
gene 3 1 8 -1.18143 0 1 -1.18143 1
gene 1 2 8 2.09869 0 2 2.09869 1
gene 3 3 8 -2.00743 0 3 -2.00743 1
gene 2 4 8 -5.20319 0 4 -5.20319 1
gene 2 5 8 2.83937 0 5 2.83937 1
gene 1 6 8 3.74021 0 6 3.74021 1
gene 2 7 8 0.412315 0 7 0.412315 1
genomeend 67

/* Organism #68 Fitness: 195 Error: 0 */
genomestart 68
trait 1 0.0875 0.0589771 0.0301569 0 0.00402599 0.0776435 0 0 
trait 2 0.370353 0.0184267 0.149566 0.00163874 0 0.000555383 0 0.043113 
trait 3 1 0 0 0 0 0 0 0 
node 1 1 1 1
node 2 2 1 1
node 3 2 1 1
node 4 3 1 1
node 5 2 1 1
node 6 1 1 1
node 7 2 1 3
node 8 1 0 2
gene 1 1 8 0.0290433 0 1 0.0290433 1
gene 1 2 8 1.2852 0 2 1.2852 1
gene 3 3 8 -5.14908 0 3 -5.14908 1
gene 2 4 8 -4.86484 0 4 -4.86484 1
gene 2 5 8 4.06573 0 5 4.06573 1
gene 1 6 8 2.11861 0 6 2.11861 1
gene 2 7 8 -0.27234 0 7 -0.27234 1
genomeend 68

/* Organism #69 Fitness: 49 Error: 0 */
genomestart 69
trait 1 0.1 0.0160847 0.0082246 0 0.001098 0.0272751 0 0 
trait 2 0.270353 0.0184267 0.0299132 0.00163874 0 0.000555383 0 0.043113 
trait 3 0.3 0 0 0 0 0 0 0 
node 1 1 1 1
node 2 1 1 1
node 3 2 1 1
node 4 3 1 1
node 5 3 1 1
node 6 2 1 1
node 7 3 1 3
node 8 3 0 2
gene 3 1 8 1.34165 0 1 1.34165 1
gene 2 2 8 -0.371048 0 2 -0.371048 1
gene 3 3 8 -3.20026 0 3 -3.20026 1
gene 2 4 8 -3.37481 0 4 -3.37481 1
gene 1 5 8 3.91127 0 5 3.91127 1
gene 1 6 8 4.062 0 6 4.062 1
gene 1 7 8 -0.988418 0 7 -0.988418 1
genomeend 69

/* Organism #70 Fitness: 5 Error: 0 */
genomestart 70
trait 1 0.090625 0.0670195 0.0342692 0 0.00457499 0.0781893 0 0 
trait 2 0.35 0 0.179479 0 0 0 0 0 
trait 3 0.2625 0 0.0211341 0.0206483 0 0 0 0.0169891 
node 1 1 1 1
node 2 1 1 1
node 3 2 1 1
node 4 3 1 1
node 5 3 1 1
node 6 2 1 1
node 7 3 1 3
node 8 1 0 2
gene 3 1 8 1.95771 0 1 1.95771 1
gene 2 2 8 1.05806 0 2 1.05806 1
gene 3 3 8 -3.30027 0 3 -3.30027 1
gene 2 4 8 -4.03963 0 4 -4.03963 1
gene 2 5 8 4.81936 0 5 4.81936 1
gene 2 6 8 -1.13318 0 6 -1.13318 1
gene 2 7 8 -2.17206 0 7 -2.17206 1
genomeend 70

/* Organism #71 Fitness: 5 Error: 0 */
genomestart 71
trait 1 0.09375 0.0455732 0.023303 0 0.00311099 0.0611874 0 0 
trait 2 0.35553 0.0276401 0.104696 0.00245811 0 0.000833074 0 0.0646695 
trait 3 0.3 0 0 0 0 0 0 0 
node 1 1 1 1
node 2 2 1 1
node 3 2 1 1
node 4 3 1 1
node 5 2 1 1
node 6 1 1 1
node 7 2 1 3
node 8 1 0 2
gene 1 1 8 -1.0555 0 1 -1.0555 1
gene 2 2 8 0.0129905 0 2 0.0129905 1
gene 3 3 8 -6.64532 0 3 -6.64532 1
gene 2 4 8 -8 0 4 -8 1
gene 2 5 8 3.85851 0 5 3.85851 1
gene 1 6 8 -0.100303 0 6 -0.100303 1
gene 1 7 8 -1.27347 0 7 -1.27347 1
genomeend 71

/* Organism #72 Fitness: 55 Error: 0 */
genomestart 72
trait 1 0.084375 0.0697002 0.0356399 0 0.00475799 0.0947359 0 0 
trait 2 0.372677 0.00823159 0.179479 0 0 0 0 0.0215565 
trait 3 0.3 0 0 0 0 0 0 0 
node 1 1 1 1
node 2 2 1 1
node 3 2 1 1
node 4 3 1 1
node 5 2 1 1
node 6 1 1 1
node 7 2 1 3
node 8 1 0 2
gene 1 1 8 3.7206 0 1 3.7206 1
gene 1 2 8 2.16917 0 2 2.16917 1
gene 3 3 8 2.30477 0 3 2.30477 1
gene 2 4 8 -3.47421 0 4 -3.47421 1
gene 1 5 8 0.137401 0 5 0.137401 1
gene 3 6 8 2.07624 0 6 2.07624 1
gene 2 7 8 -0.359973 0 7 -0.359973 1
genomeend 72

/* Organism #73 Fitness: 33 Error: 0 */
genomestart 73
trait 1 0.096875 0.268854 0.0287861 0 0.00384299 0.100372 0.0809574 0 
trait 2 0.303601 0.0225425 0.104696 0.122232 0 0.000555383 0 0.0538912 
trait 3 0.306507 0.281679 0.223246 0 0.0130077 0.00593363 0.175768 0.33681 
node 1 3 1 1
node 2 1 1 1
node 3 2 1 1
node 4 2 1 1
node 5 3 1 1
node 6 2 1 1
node 7 2 1 3
node 8 3 0 2
gene 3 1 8 1.07775 0 1 1.07775 1
gene 1 2 8 2.2203 0 2 2.2203 1
gene 2 3 8 -2.35456 0 3 -2.35456 1
gene 2 4 8 -3.96942 0 4 -3.96942 1
gene 2 5 8 3.71563 0 5 3.71563 1
gene 1 6 8 4.29008 0 6 4.29008 1
gene 1 7 8 1.51416 0 7 1.51416 1
genomeend 73

/* Organism #74 Fitness: 154 Error: 0 */
genomestart 74
trait 1 0.1 0.478731 0.0274153 0 0.00365999 0.106736 0.161915 0 
trait 2 0.3 0 0.119653 0 0 0 0 0 
trait 3 0.3 0 0 0 0 0 0 0 
node 1 3 1 1
node 2 1 1 1
node 3 2 1 1
node 4 2 1 1
node 5 3 1 1
node 6 2 1 1
node 7 2 1 3
node 8 3 0 2
gene 3 1 8 -1.46491 0 1 -1.46491 1
gene 2 2 8 1.24761 0 2 1.24761 1
gene 2 3 8 -4.22778 0 3 -4.22778 1
gene 1 4 8 -4.4136 0 4 -4.4136 1
gene 2 5 8 4.4641 0 5 4.4641 1
gene 2 6 8 2.52671 0 6 2.52671 1
gene 1 7 8 0.223203 0 7 0.223203 1
genomeend 74

/* Organism #75 Fitness: 31 Error: 0 */
genomestart 75
trait 1 0.096875 0.165256 0.0301569 0 0.00402599 0.0923717 0.0404787 0 
trait 2 0.334015 0.0123474 0.119653 0 0 0 0 0.0323347 
trait 3 0.306507 0 0 0 0.0130077 0.00593363 0 0 
node 1 3 1 1
node 2 1 1 1
node 3 2 1 1
node 4 2 1 1
node 5 3 1 1
node 6 2 1 1
node 7 2 1 3
node 8 3 0 2
gene 3 1 8 -0.164239 0 1 -0.164239 1
gene 3 2 8 3.72332 0 2 3.72332 1
gene 1 3 8 -5.20062 0 3 -5.20062 1
gene 2 4 8 -2.49312 0 4 -2.49312 1
gene 1 5 8 1.12701 0 5 1.12701 1
gene 1 6 8 3.61552 0 6 3.61552 1
gene 1 7 8 1.33766 0 7 1.33766 1
genomeend 75

/* Organism #76 Fitness: 61 Error: 0 */
genomestart 76
trait 1 0.0890625 0.0562964 0.0287861 0 0.00384299 0.0741887 0 0 
trait 2 0.381691 0.0225425 0.149566 0.00163874 0 0.000555383 0 0.0538912 
trait 3 0.3 0 0 0 0 0 0 0 
node 1 1 1 1
node 2 1 1 1
node 3 2 1 1
node 4 3 1 1
node 5 3 1 1
node 6 2 1 1
node 7 3 1 3
node 8 1 0 2
gene 3 1 8 1.94484 0 1 1.94484 1
gene 2 2 8 1.21452 0 2 1.21452 1
gene 3 3 8 -2.54836 0 3 -2.54836 1
gene 2 4 8 -3.2859 0 4 -3.2859 1
gene 1 5 8 2.00514 0 5 2.00514 1
gene 2 6 8 0.852368 0 6 0.852368 1
gene 2 7 8 1.1758 0 7 1.1758 1
genomeend 76

/* Organism #77 Fitness: 5 Error: 0 */
genomestart 77
trait 1 0.1 0.0643387 0.0328984 0 0.00439199 0.073098 0 0 
trait 2 0.7 0 0.123285 0.0599932 0.336295 0 0 0.329706 
trait 3 0.3 0 0 0 0 0 0 0 
node 1 1 1 1
node 2 3 1 1
node 3 3 1 1
node 4 1 1 1
node 5 1 1 1
node 6 1 1 1
node 7 1 1 3
node 8 3 0 2
gene 3 1 8 0.208503 0 1 0.208503 1
gene 2 2 8 -1.65391 0 2 -1.65391 1
gene 3 3 8 -2.67572 0 3 -2.67572 1
gene 2 4 8 0.688887 0 4 0.688887 1
gene 3 5 8 2.55977 0 5 2.55977 1
gene 1 6 8 -0.933732 0 6 -0.933732 1
gene 1 7 8 -0.943788 0 7 -0.943788 1
genomeend 77

/* Organism #78 Fitness: 31 Error: 0 */
genomestart 78
trait 1 0.0921875 0.0428925 0.0219323 0 0.00292799 0.0610055 0 0 
trait 2 0.321515 0.0133291 0.104696 0.000819371 0 0.000277691 0 0.0323347 
trait 3 0.3 0 0 0 0 0 0 0 
node 1 1 1 1
node 2 1 1 1
node 3 2 1 1
node 4 3 1 1
node 5 3 1 1
node 6 2 1 1
node 7 3 1 3
node 8 3 0 2
gene 1 1 8 -2.28863 0 1 -2.28863 1
gene 2 2 8 -1.83679 0 2 -1.83679 1
gene 3 3 8 1.73604 0 3 1.73604 1
gene 2 4 8 -3.4862 0 4 -3.4862 1
gene 1 5 8 3.60643 0 5 3.60643 1
gene 3 6 8 2.19127 0 6 2.19127 1
gene 1 7 8 0.421836 0 7 0.421836 1
genomeend 78

/* Organism #79 Fitness: 6 Error: 0 */
genomestart 79
trait 1 0.096875 0.0616579 0.0315276 0 0.00420899 0.0847804 0 0 
trait 2 0.359015 0.0123474 0.149566 0 0 0 0 0.0323347 
trait 3 0.3 0 0 0 0 0 0 0 
node 1 1 1 1
node 2 2 1 1
node 3 2 1 1
node 4 3 1 1
node 5 2 1 1
node 6 1 1 1
node 7 2 1 3
node 8 1 0 2
gene 1 1 8 2.27316 0 1 2.27316 1
gene 2 2 8 0.523279 0 2 0.523279 1
gene 3 3 8 -0.956081 0 3 -0.956081 1
gene 2 4 8 -4.53049 0 4 -4.53049 1
gene 1 5 8 0.193073 0 5 0.193073 1
gene 1 6 8 -2.40523 0 6 -2.40523 1
gene 1 7 8 0.375739 0 7 0.375739 1
genomeend 79

/* Organism #80 Fitness: 80 Error: 0 */
genomestart 80
trait 1 0.09375 0.048254 0.0246738 0 0.00329399 0.0646423 0 0 
trait 2 0.345353 0.0184267 0.119653 0.00163874 0 0.000555383 0 0.043113 
trait 3 0.3 0 0 0 0 0 0 0 
node 1 1 1 1
node 2 1 1 1
node 3 2 1 1
node 4 3 1 1
node 5 3 1 1
node 6 2 1 1
node 7 3 1 3
node 8 1 0 2
gene 1 1 8 0.535614 0 1 0.535614 1
gene 2 2 8 -1.81967 0 2 -1.81967 1
gene 3 3 8 -2.12158 0 3 -2.12158 1
gene 1 4 8 -3.82293 0 4 -3.82293 1
gene 1 5 8 4.17854 0 5 4.17854 1
gene 1 6 8 0.906702 0 6 0.906702 1
gene 1 7 8 0.553851 0 7 0.553851 1
genomeend 80

/* Organism #81 Fitness: 120 Error: 0 */
genomestart 81
trait 1 0.09375 0.0536156 0.0274153 0 0.00365999 0.0928261 0 0 
trait 2 0.309525 0.0368534 0.119653 0.244464 0 0.00111077 0 0.086226 
trait 3 0.313015 0 0 0 0.0260154 0.0118673 0 0 
node 1 1 1 1
node 2 2 1 1
node 3 2 1 1
node 4 3 1 1
node 5 2 1 1
node 6 1 1 1
node 7 2 1 3
node 8 1 0 2
gene 3 1 8 0.600046 0 1 0.600046 1
gene 2 2 8 3.85097 0 2 3.85097 1
gene 3 3 8 -5.27324 0 3 -5.27324 1
gene 2 4 8 -3.58008 0 4 -3.58008 1
gene 1 5 8 4.80172 0 5 4.80172 1
gene 1 6 8 2.02475 0 6 2.02475 1
gene 3 7 8 -0.879539 0 7 -0.879539 1
genomeend 81

/* Organism #82 Fitness: 56 Error: 0 */
genomestart 82
trait 1 0.09375 0.170618 0.0328984 0 0.00439199 0.09069 0.0404787 0 
trait 2 0.357853 0.0174449 0.134609 0.000819371 0 0.000277691 0 0.043113 
trait 3 0.306507 0 0 0 0.0130077 0.00593363 0 0 
node 1 3 1 1
node 2 1 1 1
node 3 2 1 1
node 4 2 1 1
node 5 3 1 1
node 6 2 1 1
node 7 2 1 3
node 8 3 0 2
gene 3 1 8 0.86178 0 1 0.86178 1
gene 2 2 8 3.44063 0 2 3.44063 1
gene 1 3 8 -5.64396 0 3 -5.64396 1
gene 1 4 8 -3.85419 0 4 -3.85419 1
gene 2 5 8 1.79428 0 5 1.79428 1
gene 1 6 8 2.58531 0 6 2.58531 1
gene 1 7 8 0.961078 0 7 0.961078 1
genomeend 82

/* Organism #83 Fitness: 209 Error: 0 */
genomestart 83
trait 1 0.0984375 0.0536156 0.0274153 0 0.00365999 0.0719611 0 0 
trait 2 0.402045 0.0399874 0.119653 0.00245811 0 0.000833074 0 0.0970042 
trait 3 0.3 0 0 0 0 0 0 0 
node 1 3 1 1
node 2 1 1 1
node 3 2 1 1
node 4 2 1 1
node 5 3 1 1
node 6 2 1 1
node 7 2 1 3
node 8 3 0 2
gene 3 1 8 -0.599283 0 1 -0.599283 1
gene 2 2 8 0.843038 0 2 0.843038 1
gene 2 3 8 -3.4011 0 3 -3.4011 1
gene 2 4 8 -3.47556 0 4 -3.47556 1
gene 3 5 8 3.67323 0 5 3.67323 1
gene 1 6 8 1.40258 0 6 1.40258 1
gene 1 7 8 -0.374748 0 7 -0.374748 1
genomeend 83

/* Organism #84 Fitness: 81 Error: 0 */
genomestart 84
trait 1 0.1 0.282258 0.0356399 0 0.00475799 0.103736 0.0809574 0 
trait 2 0.345353 0.0164632 0.119653 0 0 0 0 0.043113 
trait 3 0.313015 0 0 0 0.0260154 0.0118673 0 0 
node 1 3 1 1
node 2 1 1 1
node 3 2 1 1
node 4 2 1 1
node 5 3 1 1
node 6 2 1 1
node 7 2 1 3
node 8 3 0 2
gene 3 1 8 -0.867343 0 1 -0.867343 1
gene 2 2 8 2.13956 0 2 2.13956 1
gene 1 3 8 -3.74711 0 3 -3.74711 1
gene 2 4 8 -2.2836 0 4 -2.2836 1
gene 1 5 8 2.37482 0 5 2.37482 1
gene 1 6 8 1.29139 0 6 1.29139 1
gene 1 7 8 -1.39595 0 7 -1.39595 1
genomeend 84

/* Organism #85 Fitness: 6 Error: 0 */
genomestart 85
trait 1 0.096875 0.0509348 0.0260446 0 0.00347699 0.0652333 0 0 
trait 2 0.356691 0.0225425 0.119653 0.00163874 0 0.000555383 0 0.0538912 
trait 3 0.3 0 0 0 0 0 0 0 
node 1 3 1 1
node 2 1 1 1
node 3 2 1 1
node 4 2 1 1
node 5 3 1 1
node 6 2 1 1
node 7 2 1 3
node 8 3 0 2
gene 3 1 8 -1.0282 0 1 -1.0282 1
gene 3 2 8 1.68056 0 2 1.68056 1
gene 3 3 8 -5.05769 0 3 -5.05769 1
gene 2 4 8 -3.56989 0 4 -3.56989 1
gene 1 5 8 3.13012 0 5 3.13012 1
gene 1 6 8 -0.600001 0 6 -0.600001 1
gene 1 7 8 1.73887 0 7 1.73887 1
genomeend 85

/* Organism #86 Fitness: 5 Error: 0 */
genomestart 86
trait 1 0.090625 0.0750618 0.0383815 0 0.00512398 0.0983727 0 0 
trait 2 0.348838 0.00411579 0.164522 0 0 0 0 0.0107782 
trait 3 0.269007 0 0.0211341 0.0206483 0.0130077 0.00593363 0 0.0169891 
node 1 1 1 1
node 2 1 1 1
node 3 2 1 1
node 4 3 1 1
node 5 3 1 1
node 6 1 1 1
node 7 3 1 3
node 8 3 0 2
gene 2 1 8 1.74049 0 1 1.74049 1
gene 1 2 8 0.874453 0 2 0.874453 1
gene 3 3 8 -1.8172 0 3 -1.8172 1
gene 2 4 8 -2.15973 0 4 -2.15973 1
gene 2 5 8 2.02579 0 5 2.02579 1
gene 2 6 8 -1.40421 0 6 -1.40421 1
gene 2 7 8 0.909572 0 7 0.909572 1
genomeend 86

/* Organism #87 Fitness: 110 Error: 0 */
genomestart 87
trait 1 0.1 0.0509348 0.0260446 0 0.00347699 0.0713701 0 0 
trait 2 0.311338 0.00411579 0.119653 0 0 0 0 0.0107782 
trait 3 0.2625 0 0.0211341 0.0206483 0 0 0 0.0169891 
node 1 3 1 1
node 2 1 1 1
node 3 2 1 1
node 4 2 1 1
node 5 3 1 1
node 6 2 1 1
node 7 2 1 3
node 8 3 0 2
gene 3 1 8 -1.00462 0 1 -1.00462 1
gene 3 2 8 -0.0754375 0 2 -0.0754375 1
gene 2 3 8 -1.43228 0 3 -1.43228 1
gene 2 4 8 -4.7573 0 4 -4.7573 1
gene 3 5 8 3.90743 0 5 3.90743 1
gene 1 6 8 1.18312 0 6 1.18312 1
gene 1 7 8 -0.831765 0 7 -0.831765 1
genomeend 87

/* Organism #88 Fitness: 67 Error: 0 */
genomestart 88
trait 1 0.096875 0.0589771 0.0301569 0 0.00402599 0.0755979 0 0 
trait 2 0.38053 0.0266583 0.134609 0.00163874 0 0.000555383 0 0.0646695 
trait 3 0.3 0 0 0 0 0 0 0 
node 1 1 1 1
node 2 1 1 1
node 3 2 1 1
node 4 3 1 1
node 5 3 1 1
node 6 2 1 1
node 7 3 1 3
node 8 1 0 2
gene 3 1 8 -0.250553 0 1 -0.250553 1
gene 2 2 8 3.50549 0 2 3.50549 1
gene 3 3 8 -4.96146 0 3 -4.96146 1
gene 3 4 8 -5.10579 0 4 -5.10579 1
gene 1 5 8 4.36046 0 5 4.36046 1
gene 1 6 8 4.40135 0 6 4.40135 1
gene 1 7 8 1.70387 0 7 1.70387 1
genomeend 88

/* Organism #89 Fitness: 148 Error: 0 */
genomestart 89
trait 1 0.090625 0.0750618 0.0383815 0 0.00512398 0.0983727 0 0 
trait 2 0.348838 0.00411579 0.164522 0 0 0 0 0.0107782 
trait 3 0.269007 0 0.0211341 0.0206483 0.0130077 0.00593363 0 0.0169891 
node 1 1 1 1
node 2 1 1 1
node 3 2 1 1
node 4 3 1 1
node 5 3 1 1
node 6 2 1 1
node 7 3 1 3
node 8 3 0 2
gene 2 1 8 0.624504 0 1 0.624504 1
gene 1 2 8 0.412958 0 2 0.412958 1
gene 3 3 8 -3.19943 0 3 -3.19943 1
gene 2 4 8 -4.65971 0 4 -4.65971 1
gene 2 5 8 3.63313 0 5 3.63313 1
gene 2 6 8 0.873585 0 6 0.873585 1
gene 2 7 8 -0.763743 0 7 -0.763743 1
genomeend 89

/* Organism #90 Fitness: 12 Error: 0 */
genomestart 90
trait 1 0.1 0.0321693 0.0164492 0 0.00219599 0.0447313 0 0 
trait 2 0.340706 0.0368534 0.0598263 0.00327748 0 0.00111077 0 0.086226 
trait 3 0.3 0 0 0 0 0 0 0 
node 1 1 1 1
node 2 1 1 1
node 3 2 1 1
node 4 3 1 1
node 5 3 1 1
node 6 2 1 1
node 7 3 1 3
node 8 1 0 2
node 31 1 0 0
gene 3 1 8 -1.65635 0 1 -1.65635 1
gene 2 2 8 0.233875 0 2 0.233875 1
gene 3 3 8 -6.63356 0 3 -6.63356 1
gene 2 4 8 -6.24348 0 4 -6.24348 1
gene 1 5 8 4.17854 0 5 4.17854 1
gene 1 6 8 2.17672 0 6 2.17672 0
gene 1 7 8 0.131264 0 7 0.131264 1
gene 1 6 31 1 0 52 0 1
gene 1 31 8 2.17672 0 53 0 1
genomeend 90

/* Organism #91 Fitness: 158 Error: 0 */
genomestart 91
trait 1 0.0921875 0.0536156 0.0274153 0 0.00365999 0.0821891 0 0 
trait 2 0.360292 0.045085 0.104696 0.123871 0 0.00111077 0 0.107782 
trait 3 0.306507 0.281679 0.223246 0 0.0130077 0.00593363 0.175768 0.33681 
node 1 1 1 1
node 2 2 1 1
node 3 2 1 1
node 4 3 1 1
node 5 2 1 1
node 6 1 1 1
node 7 2 1 3
node 8 1 0 2
gene 3 1 8 0.367486 0 1 0.367486 1
gene 1 2 8 1.66386 0 2 1.66386 1
gene 2 3 8 -3.72025 0 3 -3.72025 1
gene 2 4 8 -3.7051 0 4 -3.7051 1
gene 2 5 8 3.04276 0 5 3.04276 1
gene 1 6 8 1.903 0 6 1.903 1
gene 2 7 8 -0.3204 0 7 -0.3204 1
genomeend 91

/* Organism #92 Fitness: 164 Error: 0 */
genomestart 92
trait 1 0.09375 0.0509348 0.0260446 0 0.00347699 0.0713701 0 0 
trait 2 0.323838 0.00411579 0.134609 0 0 0 0 0.0107782 
trait 3 0.3 0 0 0 0 0 0 0 
node 1 3 1 1
node 2 1 1 1
node 3 2 1 1
node 4 2 1 1
node 5 3 1 1
node 6 2 1 1
node 7 2 1 3
node 8 3 0 2
gene 3 1 8 -0.897647 0 1 -0.897647 1
gene 3 2 8 -0.213766 0 2 -0.213766 1
gene 3 3 8 -3.16312 0 3 -3.16312 1
gene 2 4 8 -6.89793 0 4 -6.89793 1
gene 2 5 8 3.95293 0 5 3.95293 1
gene 1 6 8 2.0605 0 6 2.0605 1
gene 2 7 8 -0.675943 0 7 -0.675943 1
genomeend 92

/* Organism #93 Fitness: 156 Error: 0 */
genomestart 93
trait 1 0.1 0.266173 0.0274153 0 0.00365999 0.074825 0.0809574 0 
trait 2 0.320353 0.0184267 0.0897395 0.00163874 0 0.000555383 0 0.043113 
trait 3 0.313015 0 0 0 0.0260154 0.0118673 0 0 
node 1 1 1 1
node 2 1 1 1
node 3 2 1 1
node 4 3 1 1
node 5 3 1 1
node 6 2 1 1
node 7 3 1 3
node 8 1 0 2
gene 3 1 8 -2.23448 0 1 -2.23448 1
gene 2 2 8 1.2148 0 2 1.2148 1
gene 1 3 8 -6.36452 0 3 -6.36452 1
gene 2 4 8 -7.38267 0 4 -7.38267 1
gene 1 5 8 6.91023 0 5 6.91023 1
gene 1 6 8 3.14316 0 6 3.14316 1
gene 1 7 8 -0.600812 0 7 -0.600812 1
genomeend 93

/* Organism #94 Fitness: 6 Error: 0 */
genomestart 94
trait 1 0.1 0.0428925 0.0219323 0 0.00292799 0.0790066 0 0 
trait 2 0.297677 0.00823159 0.0897395 0 0 0 0 0.0215565 
trait 3 0.3 0 0 0 0 0 0 0 
node 1 2 1 1
node 2 1 1 1
node 3 2 1 1
node 4 3 1 1
node 5 2 1 1
node 6 2 1 1
node 7 1 1 3
node 8 2 0 2
gene 2 1 8 -0.57201 0 1 -0.57201 1
gene 3 2 8 -0.539439 0 2 -0.539439 1
gene 3 3 8 -4.29097 0 3 -4.29097 1
gene 3 4 8 -7.09867 0 4 -7.09867 1
gene 1 5 8 0.276328 0 5 0.276328 1
gene 3 6 8 -0.822725 0 6 -0.822725 1
gene 1 7 8 1.41884 0 7 1.41884 1
genomeend 94

/* Organism #95 Fitness: 51 Error: 0 */
genomestart 95
trait 1 0.0984375 0.0616579 0.0315276 0 0.00420899 0.113009 0 0 
trait 2 0.310177 0.00823159 0.104696 0 0 0 0 0.0215565 
trait 3 0.275515 0 0.0211341 0.0206483 0.0260154 0.0118673 0 0.0169891 
node 1 1 1 1
node 2 1 1 1
node 3 1 1 1
node 4 1 1 1
node 5 1 1 1
node 6 2 1 1
node 7 3 1 3
node 8 2 0 2
gene 3 1 8 -2.41445 0 1 -2.41445 1
gene 3 2 8 1.74444 0 2 1.74444 1
gene 3 3 8 -4.89446 0 3 -4.89446 1
gene 2 4 8 -3.26203 0 4 -3.26203 1
gene 2 5 8 6.05792 0 5 6.05792 1
gene 2 6 8 3.56711 0 6 3.56711 1
gene 1 7 8 -2.1755 0 7 -2.1755 1
genomeend 95

/* Organism #96 Fitness: 6 Error: 0 */
genomestart 96
trait 1 0.096875 0.0536156 0.0274153 0 0.00365999 0.101008 0 0 
trait 2 0.295353 0.0164632 0.0598263 0 0 0 0 0.043113 
trait 3 0.313015 0 0 0 0.0260154 0.0118673 0 0 
node 1 3 1 1
node 2 1 1 1
node 3 2 1 1
node 4 2 1 1
node 5 3 1 1
node 6 2 1 1
node 7 2 1 3
node 8 3 0 2
gene 3 1 8 -0.094584 0 1 -0.094584 1
gene 3 2 8 0.0712189 0 2 0.0712189 1
gene 3 3 8 -5.15788 0 3 -5.15788 1
gene 2 4 8 -4.67267 0 4 -4.67267 1
gene 2 5 8 1.6529 0 5 1.6529 1
gene 3 6 8 -0.0383994 0 6 -0.0383994 1
gene 1 7 8 1.1989 0 7 1.1989 1
genomeend 96

/* Organism #97 Fitness: 103 Error: 0 */
genomestart 97
trait 1 0.090625 0.0562964 0.0287861 0 0.00384299 0.0852348 0 0 
trait 2 0.339939 0.0276401 0.134609 0.123051 0 0.000833074 0 0.0646695 
trait 3 0.306507 0 0 0 0.0130077 0.00593363 0 0 
node 1 1 1 1
node 2 2 1 1
node 3 2 1 1
node 4 3 1 1
node 5 2 1 1
node 6 1 1 1
node 7 2 1 3
node 8 1 0 2
gene 3 1 8 2.20846 0 1 2.20846 1
gene 2 2 8 4.46819 0 2 4.46819 1
gene 3 3 8 -4.38095 0 3 -4.38095 1
gene 2 4 8 -6.41975 0 4 -6.41975 1
gene 2 5 8 5.52532 0 5 5.52532 1
gene 1 6 8 4.21457 0 6 4.21457 1
gene 3 7 8 -1.34878 0 7 -1.34878 1
genomeend 97

/* Organism #98 Fitness: 5 Error: 0 */
genomestart 98
trait 1 0.090625 0.0670195 0.0342692 0 0.00457499 0.0826896 0 0 
trait 2 0.361338 0.00411579 0.179479 0 0 0 0 0.0107782 
trait 3 0.3 0 0 0 0 0 0 0 
node 1 1 1 1
node 2 2 1 1
node 3 2 1 1
node 4 3 1 1
node 5 2 1 1
node 6 1 1 1
node 7 2 1 3
node 8 1 0 2
gene 3 1 8 -0.998532 0 1 -0.998532 1
gene 3 2 8 2.22716 0 2 2.22716 1
gene 2 3 8 -2.62223 0 3 -2.62223 1
gene 2 4 8 -8 0 4 -8 1
gene 1 5 8 6.34043 0 5 6.34043 1
gene 1 6 8 -0.389476 0 6 -0.389476 1
gene 1 7 8 -0.306574 0 7 -0.306574 1
genomeend 98

/* Organism #99 Fitness: 127 Error: 0 */
genomestart 99
trait 1 0.09375 0.0697002 0.0356399 0 0.00475799 0.0857354 0 0 
trait 2 0.372677 0.00823159 0.179479 0 0 0 0 0.0215565 
trait 3 0.3 0 0 0 0 0 0 0 
node 1 3 1 1
node 2 1 1 1
node 3 2 1 1
node 4 2 1 1
node 5 3 1 1
node 6 2 1 1
node 7 2 1 3
node 8 3 0 2
gene 3 1 8 0.7068 0 1 0.7068 1
gene 3 2 8 0.176309 0 2 0.176309 1
gene 3 3 8 -3.48183 0 3 -3.48183 1
gene 2 4 8 -4.59946 0 4 -4.59946 1
gene 1 5 8 4.76707 0 5 4.76707 1
gene 1 6 8 1.08276 0 6 1.08276 1
gene 1 7 8 -0.484127 0 7 -0.484127 1
genomeend 99

/* Organism #100 Fitness: 51 Error: 0 */
genomestart 100
trait 1 0.09375 0.0857849 0.0438645 0 0.00585598 0.106465 0 0 
trait 2 0.420353 0.0164632 0.209392 0 0 0 0 0.043113 
trait 3 0.3 0 0 0 0 0 0 0 
node 1 1 1 1
node 2 2 1 1
node 3 2 1 1
node 4 3 1 1
node 5 2 1 1
node 6 1 1 1
node 7 2 1 3
node 8 1 0 2
gene 1 1 8 -0.335226 0 1 -0.335226 1
gene 2 2 8 2.50135 0 2 2.50135 1
gene 3 3 8 0.770887 0 3 0.770887 1
gene 3 4 8 -3.07641 0 4 -3.07641 1
gene 1 5 8 5.48063 0 5 5.48063 1
gene 1 6 8 3.40895 0 6 3.40895 1
gene 1 7 8 -0.0119449 0 7 -0.0119449 1
genomeend 100

/* Organism #101 Fitness: 62 Error: 0 */
genomestart 101
trait 1 0.09375 0.048254 0.0246738 0 0.00329399 0.0621876 0 0 
trait 2 0.345353 0.0184267 0.119653 0.00163874 0 0.000555383 0 0.043113 
trait 3 0.3 0.0478785 0 0 0 0 0 0 
node 1 1 1 1
node 2 2 1 1
node 3 2 1 1
node 4 3 1 1
node 5 2 1 1
node 6 1 1 1
node 7 2 1 3
node 8 1 0 2
gene 3 1 8 -2.76618 0 1 -2.76618 1
gene 2 2 8 1.9399 0 2 1.9399 1
gene 2 3 8 -2.916 0 3 -2.916 1
gene 2 4 8 -8 0 4 -8 1
gene 1 5 8 5.47692 0 5 5.47692 1
gene 1 6 8 1.91224 0 6 1.91224 1
gene 1 7 8 0.872095 0 7 0.872095 1
genomeend 101

/* Organism #102 Fitness: 41 Error: 0 */
genomestart 102
trait 1 0.1 0.0589771 0.0301569 0 0.00402599 0.0637336 0 0 
trait 2 0.325 0 0.149566 0 0 0 0 0 
trait 3 0.225 0 0.0422682 0.0412966 0 0 0 0.0339783 
node 1 3 1 1
node 2 1 1 1
node 3 2 1 1
node 4 2 1 1
node 5 3 1 1
node 6 2 1 1
node 7 2 1 3
node 8 3 0 2
gene 3 1 8 0.790306 0 1 0.790306 1
gene 2 2 8 1.5011 0 2 1.5011 1
gene 2 3 8 -0.948655 0 3 -0.948655 1
gene 2 4 8 -4.40463 0 4 -4.40463 1
gene 3 5 8 5.59221 0 5 5.59221 1
gene 1 6 8 1.75514 0 6 1.75514 1
gene 1 7 8 1.21333 0 7 1.21333 1
genomeend 102

/* Organism #103 Fitness: 32 Error: 0 */
genomestart 103
trait 1 0.096875 0.0321693 0.0164492 0 0.00219599 0.050459 0 0 
trait 2 0.408736 0.0635117 0.0598263 0.00491622 0 0.00166615 0 0.150895 
trait 3 0.3 0 0 0 0 0 0 0 
node 1 3 1 1
node 2 3 1 1
node 3 3 1 1
node 4 1 1 1
node 5 3 1 1
node 6 3 1 1
node 7 1 1 3
node 8 3 0 2
gene 3 1 8 0.0946362 0 1 0.0946362 1
gene 2 2 8 -1.14197 0 2 -1.14197 1
gene 3 3 8 -3.44106 0 3 -3.44106 1
gene 2 4 8 -2.39901 0 4 -2.39901 1
gene 3 5 8 1.81278 0 5 1.81278 1
gene 1 6 8 3.61776 0 6 3.61776 1
gene 1 7 8 1.45108 0 7 1.45108 1
genomeend 103

/* Organism #104 Fitness: 83 Error: 0 */
genomestart 104
trait 1 0.1 0.282258 0.0356399 0 0.00475799 0.103736 0.0809574 0 
trait 2 0.345353 0.0164632 0.119653 0 0 0 0 0.043113 
trait 3 0.313015 0 0 0 0.0260154 0.0118673 0 0 
node 1 3 1 1
node 2 1 1 1
node 3 2 1 1
node 4 2 1 1
node 5 3 1 1
node 6 2 1 1
node 7 2 1 3
node 8 3 0 2
gene 3 1 8 -0.66653 0 1 -0.66653 1
gene 2 2 8 2.40079 0 2 2.40079 1
gene 1 3 8 1.40205 0 3 1.40205 1
gene 2 4 8 -3.12778 0 4 -3.12778 1
gene 1 5 8 1.8371 0 5 1.8371 1
gene 1 6 8 1.24901 0 6 1.24901 1
gene 1 7 8 -1.40202 0 7 -1.40202 1
genomeend 104

/* Organism #105 Fitness: 64 Error: 0 */
genomestart 105
trait 1 0.090625 0.048254 0.0246738 0 0.00329399 0.0703699 0 0 
trait 2 0.413383 0.045085 0.119653 0.00327748 0 0.00111077 0 0.107782 
trait 3 0.3 0 0 0 0 0 0 0 
node 1 3 1 1
node 2 3 1 1
node 3 3 1 1
node 4 1 1 1
node 5 3 1 1
node 6 3 1 1
node 7 1 1 3
node 8 3 0 2
gene 3 1 8 -0.0424424 0 1 -0.0424424 1
gene 1 2 8 0.377135 0 2 0.377135 1
gene 3 3 8 -1.43016 0 3 -1.43016 1
gene 2 4 8 -2.68361 0 4 -2.68361 1
gene 1 5 8 2.50262 0 5 2.50262 1
gene 1 6 8 2.68472 0 6 2.68472 1
gene 2 7 8 -0.128634 0 7 -0.128634 1
genomeend 105

/* Organism #106 Fitness: 5 Error: 0 */
genomestart 106
trait 1 0.1 0.0428925 0.0219323 0 0.00292799 0.0790066 0 0 
trait 2 0.297677 0.00823159 0.0897395 0 0 0 0 0.0215565 
trait 3 0.3 0 0 0 0 0 0 0 
node 1 2 1 1
node 2 1 1 1
node 3 2 1 1
node 4 3 1 1
node 5 2 1 1
node 6 2 1 1
node 7 1 1 3
node 8 2 0 2
gene 2 1 8 1.40732 0 1 1.40732 1
gene 3 2 8 -1.28008 0 2 -1.28008 1
gene 3 3 8 -5.63284 0 3 -5.63284 1
gene 2 4 8 -5.2987 0 4 -5.2987 1
gene 1 5 8 0.644851 0 5 0.644851 1
gene 3 6 8 -0.122542 0 6 -0.122542 1
gene 1 7 8 -1.281 0 7 -1.281 1
genomeend 106

/* Organism #107 Fitness: 142 Error: 0 */
genomestart 107
trait 1 0.0875 0.0804234 0.041123 0 0.00548998 0.118374 0 0 
trait 2 0.347677 0.00823159 0.149566 0 0 0 0 0.0215565 
trait 3 0.313015 0 0 0 0.0260154 0.0118673 0 0 
node 1 1 1 1
node 2 2 1 1
node 3 2 1 1
node 4 3 1 1
node 5 2 1 1
node 6 1 1 1
node 7 2 1 3
node 8 1 0 2
gene 2 1 8 0.725833 0 1 0.725833 1
gene 1 2 8 0.633964 0 2 0.633964 1
gene 3 3 8 -3.71538 0 3 -3.71538 1
gene 2 4 8 -4.30465 0 4 -4.30465 1
gene 2 5 8 2.79382 0 5 2.79382 1
gene 1 6 8 0.80573 0 6 0.80573 1
gene 2 7 8 -0.834039 0 7 -0.834039 1
genomeend 107

/* Organism #108 Fitness: 114 Error: 0 */
genomestart 108
trait 1 0.096875 0.263493 0.0260446 0 0.00347699 0.0938715 0.0809574 0 
trait 2 0.311338 0.00411579 0.119653 0 0 0 0 0.0107782 
trait 3 0.3 0 0 0 0 0 0 0 
node 1 3 1 1
node 2 1 1 1
node 3 2 1 1
node 4 2 1 1
node 5 3 1 1
node 6 2 1 1
node 7 2 1 3
node 8 3 0 2
gene 1 1 8 1.87692 0 1 1.87692 1
gene 2 2 8 2.05426 0 2 2.05426 1
gene 3 3 8 -4.12776 0 3 -4.12776 1
gene 2 4 8 -3.93397 0 4 -3.93397 1
gene 1 5 8 2.70266 0 5 2.70266 1
gene 2 6 8 2.62582 0 6 2.62582 1
gene 1 7 8 -0.468308 0 7 -0.468308 1
genomeend 108

/* Organism #109 Fitness: 100 Error: 0 */
genomestart 109
trait 1 0.1 0.266173 0.0274153 0 0.00365999 0.074825 0.0809574 0 
trait 2 0.320353 0.0184267 0.0897395 0.00163874 0 0.000555383 0 0.043113 
trait 3 0.313015 0 0 0 0.0260154 0.0118673 0 0 
node 1 1 1 1
node 2 1 1 1
node 3 2 1 1
node 4 3 1 1
node 5 3 1 1
node 6 2 1 1
node 7 3 1 3
node 8 1 0 2
gene 3 1 8 0.602186 0 1 0.602186 1
gene 2 2 8 -1.4746 0 2 -1.4746 1
gene 1 3 8 -6.68829 0 3 -6.68829 1
gene 2 4 8 -4.71822 0 4 -4.71822 1
gene 1 5 8 6.69916 0 5 6.69916 1
gene 1 6 8 3.77753 0 6 3.77753 1
gene 1 7 8 -0.373143 0 7 -0.373143 1
genomeend 109

/* Organism #110 Fitness: 5 Error: 0 */
genomestart 110
trait 1 0.090625 0.048254 0.0246738 0 0.00329399 0.0703699 0 0 
trait 2 0.413383 0.045085 0.119653 0.00327748 0 0.00111077 0 0.107782 
trait 3 0.3 0 0 0 0 0 0 0 
node 1 3 1 1
node 2 3 1 1
node 3 3 1 1
node 4 1 1 1
node 5 3 1 1
node 6 3 1 1
node 7 1 1 3
node 8 1 0 2
gene 3 1 8 1.07857 0 1 1.07857 1
gene 1 2 8 1.66778 0 2 1.66778 1
gene 3 3 8 -2.65483 0 3 -2.65483 1
gene 2 4 8 -2.41676 0 4 -2.41676 1
gene 1 5 8 3.50186 0 5 3.50186 1
gene 1 6 8 0.179834 0 6 0.179834 1
gene 2 7 8 -1.18268 0 7 -1.18268 1
genomeend 110

/* Organism #111 Fitness: 66 Error: 0 */
genomestart 111
trait 1 0.084375 0.0697002 0.0356399 0 0.00475799 0.0947359 0 0 
trait 2 0.372677 0.00823159 0.179479 0 0 0 0 0.0215565 
trait 3 0.3 0 0 0 0 0 0 0 
node 1 1 1 1
node 2 2 1 1
node 3 2 1 1
node 4 3 1 1
node 5 2 1 1
node 6 1 1 1
node 7 2 1 3
node 8 1 0 2
gene 1 1 8 0.300996 0 1 0.300996 1
gene 1 2 8 4.6809 0 2 4.6809 1
gene 3 3 8 -4.31407 0 3 -4.31407 1
gene 2 4 8 -2.54594 0 4 -2.54594 1
gene 1 5 8 3.05869 0 5 3.05869 1
gene 3 6 8 1.26423 0 6 1.26423 1
gene 2 7 8 -2.53886 0 7 -2.53886 1
genomeend 111

/* Organism #112 Fitness: 147 Error: 0 */
genomestart 112
trait 1 0.1 0.175979 0.0356399 0 0.00475799 0.114374 0.0404787 0 
trait 2 0.335177 0.00823159 0.134609 0 0 0 0 0.0215565 
trait 3 0.275515 0 0.0211341 0.0206483 0.0260154 0.0118673 0 0.0169891 
node 1 1 1 1
node 2 1 1 1
node 3 1 1 1
node 4 1 1 1
node 5 1 1 1
node 6 2 1 1
node 7 3 1 3
node 8 2 0 2
gene 3 1 8 0.137744 0 1 0.137744 1
gene 2 2 8 2.17143 0 2 2.17143 1
gene 1 3 8 -3.65535 0 3 -3.65535 1
gene 2 4 8 -4.08965 0 4 -4.08965 1
gene 2 5 8 3.70763 0 5 3.70763 1
gene 1 6 8 1.93945 0 6 1.93945 1
gene 1 7 8 -0.836396 0 7 -0.836396 1
genomeend 112

/* Organism #113 Fitness: 49 Error: 0 */
genomestart 113
trait 1 0.084375 0.0697002 0.0356399 0 0.00475799 0.0947359 0 0 
trait 2 0.372677 0.00823159 0.179479 0 0 0 0 0.0215565 
trait 3 0.3 0 0 0 0 0 0 0 
node 1 1 1 1
node 2 2 1 1
node 3 2 1 1
node 4 3 1 1
node 5 2 1 1
node 6 1 1 1
node 7 2 1 3
node 8 1 0 2
gene 1 1 8 0.0255061 0 1 0.0255061 1
gene 1 2 8 2.1105 0 2 2.1105 1
gene 3 3 8 1.67435 0 3 1.67435 1
gene 2 4 8 -5.28013 0 4 -5.28013 1
gene 1 5 8 3.89746 0 5 3.89746 1
gene 3 6 8 2.7374 0 6 2.7374 1
gene 2 7 8 -0.821363 0 7 -0.821363 1
genomeend 113

/* Organism #114 Fitness: 5 Error: 0 */
genomestart 114
trait 1 0.096875 0.0509348 0.0260446 0 0.00347699 0.0652333 0 0 
trait 2 0.356691 0.0225425 0.119653 0.00163874 0 0.000555383 0 0.0538912 
trait 3 0.3 0 0 0 0 0 0 0 
node 1 3 1 1
node 2 1 1 1
node 3 2 1 1
node 4 2 1 1
node 5 3 1 1
node 6 2 1 1
node 7 2 1 3
node 8 3 0 2
gene 3 1 8 1.98778 0 1 1.98778 1
gene 2 2 8 2.43443 0 2 2.43443 1
gene 3 3 8 -3.29286 0 3 -3.29286 1
gene 2 4 8 -0.415359 0 4 -0.415359 1
gene 1 5 8 2.26821 0 5 2.26821 1
gene 1 6 8 -1.63924 0 6 -1.63924 1
gene 1 7 8 1.97289 0 7 1.97289 1
genomeend 114

/* Organism #115 Fitness: 41 Error: 0 */
genomestart 115
trait 1 0.096875 0.0375309 0.0191907 0 0.00256199 0.0590052 0 0 
trait 2 0.309015 0.0133291 0.0897395 0.000819371 0 0.000277691 0 0.0323347 
trait 3 0.3 0 0 0 0 0 0 0 
node 1 3 1 1
node 2 1 1 1
node 3 2 1 1
node 4 2 1 1
node 5 3 1 1
node 6 2 1 1
node 7 2 1 3
node 8 3 0 2
gene 2 1 8 0.000198606 0 1 0.000198606 1
gene 2 2 8 0.70282 0 2 0.70282 1
gene 3 3 8 -6.04036 0 3 -6.04036 1
gene 2 4 8 -1.35709 0 4 -1.35709 1
gene 1 5 8 2.20766 0 5 2.20766 1
gene 1 6 8 3.79954 0 6 3.79954 1
gene 1 7 8 -0.151108 0 7 -0.151108 1
genomeend 115

/* Organism #116 Fitness: 225 Error: 0 */
genomestart 116
trait 1 0.0984375 0.024127 0.0123369 0 0.00164699 0.038867 0 0 
trait 2 0.339545 0.0409692 0.0448697 0.00327748 0 0.00111077 0 0.0970042 
trait 3 0.3 0 0 0 0 0 0 0 
node 1 1 1 1
node 2 1 1 1
node 3 2 1 1
node 4 3 1 1
node 5 3 1 1
node 6 2 1 1
node 7 3 1 3
node 8 3 0 2
gene 3 1 8 -0.900454 0 1 -0.900454 1
gene 2 2 8 0.925511 0 2 0.925511 1
gene 3 3 8 -3.68761 0 3 -3.68761 1
gene 2 4 8 -3.71375 0 4 -3.71375 1
gene 1 5 8 3.60643 0 5 3.60643 1
gene 1 6 8 1.60243 0 6 1.60243 1
gene 1 7 8 -0.331078 0 7 -0.331078 1
genomeend 116

/* Organism #117 Fitness: 126 Error: 0 */
genomestart 117
trait 1 0.096875 0.0670195 0.0342692 0 0.00457499 0.0757346 0 0 
trait 2 0.525 0 0.151382 0.0299966 0.168148 0 0 0.164853 
trait 3 0.2625 0 0.0211341 0.0206483 0 0 0 0.0169891 
node 1 1 1 1
node 2 1 1 1
node 3 2 1 1
node 4 3 1 1
node 5 3 1 1
node 6 2 1 1
node 7 3 1 3
node 8 3 0 2
gene 3 1 8 0.523174 0 1 0.523174 1
gene 2 2 8 0.191952 0 2 0.191952 1
gene 3 3 8 -2.68348 0 3 -2.68348 1
gene 2 4 8 -5.01477 0 4 -5.01477 1
gene 2 5 8 4.47243 0 5 4.47243 1
gene 1 6 8 1.11444 0 6 1.11444 1
gene 1 7 8 -0.943788 0 7 -0.943788 1
genomeend 117

/* Organism #118 Fitness: 148 Error: 0 */
genomestart 118
trait 1 0.09375 0.0616579 0.0315276 0 0.00420899 0.0741434 0 0 
trait 2 0.3375 0 0.164522 0 0 0 0 0 
trait 3 0.2625 0 0.0211341 0.0206483 0 0 0 0.0169891 
node 1 3 1 1
node 2 1 1 1
node 3 2 1 1
node 4 2 1 1
node 5 3 1 1
node 6 2 1 1
node 7 2 1 3
node 8 3 0 2
gene 3 1 8 0.436148 0 1 0.436148 1
gene 2 2 8 1.48858 0 2 1.48858 1
gene 3 3 8 -2.04188 0 3 -2.04188 1
gene 2 4 8 -4.70847 0 4 -4.70847 1
gene 1 5 8 3.30504 0 5 3.30504 1
gene 1 6 8 1.82665 0 6 1.82665 1
gene 1 7 8 -0.650037 0 7 -0.650037 1
genomeend 118

/* Organism #119 Fitness: 217 Error: 0 */
genomestart 119
trait 1 0.096875 0.0321693 0.0164492 0 0.00219599 0.050459 0 0 
trait 2 0.408736 0.0635117 0.0598263 0.00491622 0 0.00166615 0 0.150895 
trait 3 0.3 0 0 0 0 0 0 0 
node 1 3 1 1
node 2 3 1 1
node 3 3 1 1
node 4 1 1 1
node 5 3 1 1
node 6 3 1 1
node 7 1 1 3
node 8 3 0 2
gene 3 1 8 -0.900454 0 1 -0.900454 1
gene 2 2 8 0.925511 0 2 0.925511 1
gene 3 3 8 -4.5394 0 3 -4.5394 1
gene 2 4 8 -3.71375 0 4 -3.71375 1
gene 3 5 8 4.23979 0 5 4.23979 1
gene 1 6 8 1.60243 0 6 1.60243 1
gene 1 7 8 -0.377557 0 7 -0.377557 1
genomeend 119

/* Organism #120 Fitness: 100001 Error: 0 */
/* ##------$ WINNER 120 SPECIES #1 $------## */
genomestart 120
trait 1 0.0984375 0.0375309 0.0191907 0 0.00256199 0.0647328 0 0 
trait 2 0.353206 0.0358716 0.0747829 0.00245811 0 0.000833074 0 0.086226 
trait 3 0.3 0 0 0 0 0 0 0 
node 1 3 1 1
node 2 3 1 1
node 3 3 1 1
node 4 1 1 1
node 5 3 1 1
node 6 3 1 1
node 7 1 1 3
node 8 3 0 2
gene 3 1 8 -2.18739 0 1 -2.18739 1
gene 2 2 8 -0.987668 0 2 -0.987668 1
gene 3 3 8 -4.5394 0 3 -4.5394 1
gene 2 4 8 -5.7607 0 4 -5.7607 1
gene 1 5 8 2.4446 0 5 2.4446 1
gene 1 6 8 1.38065 0 6 1.38065 1
gene 1 7 8 1.59329 0 7 1.59329 1
genomeend 120

/* Organism #121 Fitness: 5 Error: 0 */
genomestart 121
trait 1 0.096875 0.0697002 0.0356399 0 0.00475799 0.101691 0 0 
trait 2 0.3375 0 0.164522 0 0 0 0 0 
trait 3 0.231507 0 0.0422682 0.0412966 0.0130077 0.00593363 0 0.0339783 
node 1 2 1 1
node 2 1 1 1
node 3 2 1 1
node 4 3 1 1
node 5 3 1 1
node 6 2 1 1
node 7 3 1 3
node 8 3 0 2
gene 3 1 8 -0.434686 0 1 -0.434686 1
gene 2 2 8 0.0351761 0 2 0.0351761 1
gene 2 3 8 -3.53058 0 3 -3.53058 1
gene 2 4 8 -3.95776 0 4 -3.95776 1
gene 2 5 8 5.94575 0 5 5.94575 1
gene 2 6 8 0.184269 0 6 0.184269 1
gene 1 7 8 -3.35824 0 7 -3.35824 1
genomeend 121

/* Organism #122 Fitness: 5 Error: 0 */
genomestart 122
trait 1 0.1 0.0321693 0.0164492 0 0.00219599 0.0447313 0 0 
trait 2 0.340706 0.0368534 0.0598263 0.00327748 0 0.00111077 0 0.086226 
trait 3 0.3 0 0 0 0 0 0 0 
node 1 1 1 1
node 2 1 1 1
node 3 2 1 1
node 4 3 1 1
node 5 3 1 1
node 6 2 1 1
node 7 3 1 3
node 8 1 0 2
gene 3 1 8 0.787716 0 1 0.787716 1
gene 2 2 8 -1.53022 0 2 -1.53022 1
gene 3 3 8 -8 0 3 -8 1
gene 2 4 8 -5.75287 0 4 -5.75287 1
gene 1 5 8 0.597217 0 5 0.597217 1
gene 1 6 8 -0.204309 0 6 -0.204309 1
gene 1 7 8 -1.71419 0 7 -1.71419 1
genomeend 122

/* Organism #123 Fitness: 5 Error: 0 */
genomestart 123
trait 1 0.0875 0.0697002 0.0356399 0 0.00475799 0.0980089 0 0 
trait 2 0.359015 0.0133291 0.149566 0.000819371 0 0.000277691 0 0.0323347 
trait 3 0.306507 0 0 0 0.0130077 0.00593363 0 0 
node 1 1 1 1
node 2 2 1 1
node 3 2 1 1
node 4 3 1 1
node 5 2 1 1
node 6 1 1 1
node 7 2 1 3
node 8 1 0 2
gene 1 1 8 -0.639946 0 1 -0.639946 1
gene 1 2 8 2.0452 0 2 2.0452 1
gene 3 3 8 -2.41033 0 3 -2.41033 1
gene 2 4 8 -3.52935 0 4 -3.52935 1
gene 2 5 8 -2.46993 0 5 -2.46993 1
gene 1 6 8 -0.729903 0 6 -0.729903 1
gene 2 7 8 -1.03583 0 7 -1.03583 1
genomeend 123

/* Organism #124 Fitness: 5 Error: 0 */
genomestart 124
trait 1 0.0875 0.0804234 0.041123 0 0.00548998 0.118374 0 0 
trait 2 0.347677 0.00823159 0.149566 0 0 0 0 0.0215565 
trait 3 0.313015 0 0 0 0.0260154 0.0118673 0 0 
node 1 1 1 1
node 2 2 1 1
node 3 2 1 1
node 4 3 1 1
node 5 2 1 1
node 6 1 1 1
node 7 2 1 3
node 8 1 0 2
gene 2 1 8 -0.377451 0 1 -0.377451 1
gene 1 2 8 0.718081 0 2 0.718081 1
gene 3 3 8 -5.32732 0 3 -5.32732 1
gene 2 4 8 -2.59897 0 4 -2.59897 1
gene 2 5 8 3.169 0 5 3.169 1
gene 1 6 8 0.432497 0 6 0.432497 1
gene 2 7 8 -2.17941 0 7 -2.17941 1
genomeend 124

/* Organism #125 Fitness: 90 Error: 0 */
genomestart 125
trait 1 0.09375 0.0589771 0.0301569 0 0.00402599 0.0940082 0 0 
trait 2 0.307202 0.045085 0.0897395 0.244464 0 0.00111077 0 0.107782 
trait 3 0.313015 0.563359 0.446492 0 0.0260154 0.0118673 0.351536 0.673619 
node 1 1 1 1
node 2 2 1 1
node 3 2 1 1
node 4 3 1 1
node 5 2 1 1
node 6 1 1 1
node 7 2 1 3
node 8 1 0 2
gene 3 1 8 -2.21946 0 1 -2.21946 1
gene 1 2 8 -0.0435116 0 2 -0.0435116 1
gene 2 3 8 -5.81352 0 3 -5.81352 1
gene 2 4 8 -2.47352 0 4 -2.47352 1
gene 2 5 8 4.60532 0 5 4.60532 1
gene 1 6 8 4.27518 0 6 4.27518 1
gene 3 7 8 0.932897 0 7 0.932897 1
genomeend 125

/* Organism #126 Fitness: 60 Error: 0 */
genomestart 126
trait 1 0.1 0.0428925 0.0219323 0 0.00292799 0.0503685 0 0 
trait 2 0.310177 0.00921335 0.104696 0.000819371 0 0.000277691 0 0.0215565 
trait 3 0.2625 0 0.0211341 0.0206483 0 0 0 0.0169891 
node 1 3 1 1
node 2 1 1 1
node 3 2 1 1
node 4 2 1 1
node 5 3 1 1
node 6 2 1 1
node 7 2 1 3
node 8 3 0 2
gene 2 1 8 -2.05744 0 1 -2.05744 1
gene 2 2 8 2.73241 0 2 2.73241 1
gene 3 3 8 -2.74562 0 3 -2.74562 1
gene 2 4 8 -5.06942 0 4 -5.06942 1
gene 1 5 8 1.17632 0 5 1.17632 1
gene 1 6 8 2.45337 0 6 2.45337 1
gene 1 7 8 0.199727 0 7 0.199727 1
genomeend 126

/* Organism #127 Fitness: 39 Error: 0 */
genomestart 127
trait 1 0.09375 0.0857849 0.0438645 0 0.00585598 0.106465 0 0 
trait 2 0.420353 0.0164632 0.209392 0 0 0 0 0.043113 
trait 3 0.3 0 0 0 0 0 0 0 
node 1 1 1 1
node 2 2 1 1
node 3 2 1 1
node 4 3 1 1
node 5 2 1 1
node 6 1 1 1
node 7 2 1 3
node 8 1 0 2
gene 1 1 8 0.0290954 0 1 0.0290954 1
gene 2 2 8 0.463184 0 2 0.463184 1
gene 3 3 8 0.736849 0 3 0.736849 1
gene 3 4 8 -2.11704 0 4 -2.11704 1
gene 1 5 8 1.26083 0 5 1.26083 1
gene 1 6 8 1.26148 0 6 1.26148 1
gene 1 7 8 -1.8719 0 7 -1.8719 1
genomeend 127

/* Organism #128 Fitness: 49 Error: 0 */
genomestart 128
trait 1 0.1 0.266173 0.0274153 0 0.00365999 0.074825 0.0809574 0 
trait 2 0.320353 0.0184267 0.0897395 0.00163874 0 0.000555383 0 0.043113 
trait 3 0.313015 0 0 0 0.0260154 0.0118673 0 0 
node 1 1 1 1
node 2 1 1 1
node 3 2 1 1
node 4 3 1 1
node 5 3 1 1
node 6 2 1 1
node 7 3 1 3
node 8 1 0 2
gene 3 1 8 -1.57975 0 1 -1.57975 1
gene 2 2 8 -0.698422 0 2 -0.698422 1
gene 1 3 8 -5.95351 0 3 -5.95351 1
gene 2 4 8 -4.94842 0 4 -4.94842 1
gene 1 5 8 5.14816 0 5 5.14816 1
gene 1 6 8 4.3468 0 6 4.3468 1
gene 1 7 8 -0.731036 0 7 -0.731036 1
genomeend 128

/* Organism #129 Fitness: 21 Error: 0 */
genomestart 129
trait 1 0.1 0.149171 0.0219323 0 0.00292799 0.0597781 0.0404787 0 
trait 2 0.33053 0.0276401 0.0747829 0.00245811 0 0.000833074 0 0.0646695 
trait 3 0.306507 0 0 0 0.0130077 0.00593363 0 0 
node 1 1 1 1
node 2 1 1 1
node 3 2 1 1
node 4 3 1 1
node 5 3 1 1
node 6 2 1 1
node 7 3 1 3
node 8 1 0 2
gene 3 1 8 -1.12927 0 1 -1.12927 1
gene 2 2 8 -1.63745 0 2 -1.63745 1
gene 1 3 8 -5.7815 0 3 -5.7815 1
gene 2 4 8 -2.5924 0 4 -2.5924 1
gene 1 5 8 3.94021 0 5 3.94021 1
gene 1 6 8 0.237027 0 6 0.237027 1
gene 1 7 8 2.38403 0 7 2.38403 1
genomeend 129

/* Organism #130 Fitness: 5 Error: 0 */
genomestart 130
trait 1 0.09375 0.048254 0.0246738 0 0.00329399 0.0621876 0 0 
trait 2 0.345353 0.0184267 0.119653 0.00163874 0 0.000555383 0 0.043113 
trait 3 0.3 0 0 0 0 0 0 0 
node 1 1 1 1
node 2 1 1 1
node 3 2 1 1
node 4 3 1 1
node 5 3 1 1
node 6 2 1 1
node 7 3 1 3
node 8 1 0 2
gene 3 1 8 2.17571 0 1 2.17571 1
gene 2 2 8 0.953334 0 2 0.953334 1
gene 2 3 8 -4.39977 0 3 -4.39977 1
gene 2 4 8 -5.5418 0 4 -5.5418 1
gene 3 5 8 1.31114 0 5 1.31114 1
gene 1 6 8 -2.34779 0 6 -2.34779 1
gene 2 7 8 -2.34198 0 7 -2.34198 1
genomeend 130

/* Organism #131 Fitness: 42 Error: 0 */
genomestart 131
trait 1 0.0921875 0.0509348 0.0260446 0 0.00347699 0.0697336 0 0 
trait 2 0.356691 0.0225425 0.119653 0.00163874 0 0.000555383 0 0.0538912 
trait 3 0.3 0 0 0 0 0 0 0 
node 1 1 1 1
node 2 3 1 1
node 3 2 1 1
node 4 3 1 1
node 5 3 1 1
node 6 2 1 1
node 7 3 1 3
node 8 1 0 2
gene 3 1 8 1.93784 0 1 1.93784 1
gene 1 2 8 0.836968 0 2 0.836968 1
gene 3 3 8 -4.19226 0 3 -4.19226 1
gene 2 4 8 -2.77529 0 4 -2.77529 1
gene 1 5 8 1.05194 0 5 1.05194 1
gene 3 6 8 3.98267 0 6 3.98267 1
gene 1 7 8 -0.205811 0 7 -0.205811 1
genomeend 131

/* Organism #132 Fitness: 80 Error: 0 */
genomestart 132
trait 1 0.1 0.0428925 0.0219323 0 0.00292799 0.0790066 0 0 
trait 2 0.297677 0.00823159 0.0897395 0 0 0 0 0.0215565 
trait 3 0.3 0 0 0 0 0 0 0 
node 1 2 1 1
node 2 1 1 1
node 3 2 1 1
node 4 3 1 1
node 5 2 1 1
node 6 2 1 1
node 7 2 1 3
node 8 2 0 2
gene 2 1 8 2.22116 0 1 2.22116 1
gene 3 2 8 1.19776 0 2 1.19776 1
gene 3 3 8 -3.98672 0 3 -3.98672 1
gene 2 4 8 -4.16097 0 4 -4.16097 1
gene 1 5 8 4.04218 0 5 4.04218 1
gene 3 6 8 1.2088 0 6 1.2088 1
gene 1 7 8 -1.91786 0 7 -1.91786 1
genomeend 132

/* Organism #133 Fitness: 5 Error: 0 */
genomestart 133
trait 1 0.1 0.282258 0.0356399 0 0.00475799 0.103736 0.0809574 0 
trait 2 0.345353 0.0164632 0.119653 0 0 0 0 0.043113 
trait 3 0.313015 0 0 0 0.0260154 0.0118673 0 0 
node 1 3 1 1
node 2 1 1 1
node 3 2 1 1
node 4 2 1 1
node 5 3 1 1
node 6 2 1 1
node 7 2 1 3
node 8 3 0 2
gene 3 1 8 -1.12564 0 1 -1.12564 1
gene 2 2 8 3.79329 0 2 3.79329 1
gene 1 3 8 -0.886435 0 3 -0.886435 1
gene 2 4 8 -2.67281 0 4 -2.67281 1
gene 1 5 8 4.80244 0 5 4.80244 1
gene 1 6 8 -0.0901066 0 6 -0.0901066 1
gene 1 7 8 -2.66415 0 7 -2.66415 1
genomeend 133

/* Organism #134 Fitness: 156 Error: 0 */
genomestart 134
trait 1 0.096875 0.0509348 0.0260446 0 0.00347699 0.0615513 0 0 
trait 2 0.345353 0.0184267 0.119653 0.00163874 0 0.000555383 0 0.043113 
trait 3 0.2625 0 0.0211341 0.0206483 0 0 0 0.0169891 
node 1 1 1 1
node 2 1 1 1
node 3 2 1 1
node 4 3 1 1
node 5 3 1 1
node 6 2 1 1
node 7 3 1 3
node 8 3 0 2
gene 3 1 8 -3.7101 0 1 -3.7101 1
gene 2 2 8 2.20935 0 2 2.20935 1
gene 3 3 8 -8 0 3 -8 1
gene 2 4 8 -6.27743 0 4 -6.27743 1
gene 2 5 8 6.07025 0 5 6.07025 1
gene 1 6 8 1.75625 0 6 1.75625 1
gene 2 7 8 -0.142251 0 7 -0.142251 1
genomeend 134

/* Organism #135 Fitness: 826 Error: 0 */
genomestart 135
trait 1 0.1 0.0321693 0.0164492 0 0.00219599 0.0447313 0 0 
trait 2 0.340706 0.0368534 0.0598263 0.00327748 0 0.00111077 0 0.086226 
trait 3 0.3 0 0 0 0 0 0 0 
node 1 1 1 1
node 2 1 1 1
node 3 2 1 1
node 4 3 1 1
node 5 3 1 1
node 6 2 1 1
node 7 3 1 3
node 8 1 0 2
gene 3 1 8 -1.65635 0 1 -1.65635 1
gene 2 2 8 0.233875 0 2 0.233875 1
gene 3 3 8 -6.63356 0 3 -6.63356 1
gene 2 4 8 -6.24348 0 4 -6.24348 1
gene 1 5 8 4.17854 0 5 4.17854 1
gene 1 6 8 2.17672 0 6 2.17672 1
gene 1 7 8 0.131264 0 7 0.131264 1
genomeend 135

/* Organism #136 Fitness: 42 Error: 0 */
genomestart 136
trait 1 0.0984375 0.0348501 0.368899 0 0.810768 0 0 0 
trait 2 0.353206 0.0358716 0.0747829 0.00245811 0 0.000833074 0 0.086226 
trait 3 0.3 0 0 0 0 0 0 0 
node 1 3 1 1
node 2 3 1 1
node 3 3 1 1
node 4 1 1 1
node 5 3 1 1
node 6 3 1 1
node 7 1 1 3
node 8 3 0 2
gene 3 1 8 -3.12815 0 1 -3.12815 1
gene 3 2 8 -0.881774 0 2 -0.881774 1
gene 3 3 8 -5.14168 0 3 -5.14168 1
gene 2 4 8 -2.8595 0 4 -2.8595 1
gene 3 5 8 5.63112 0 5 5.63112 1
gene 1 6 8 2.80195 0 6 2.80195 1
gene 1 7 8 -2.65762 0 7 -2.65762 1
genomeend 136

/* Organism #137 Fitness: 5 Error: 0 */
genomestart 137
trait 1 0.1 0.0589771 0.0301569 0 0.00402599 0.086235 0 0 
trait 2 0.346515 0.0123474 0.134609 0 0 0 0 0.0323347 
trait 3 0.3 0 0 0 0 0 0 0 
node 1 2 1 1
node 2 1 1 1
node 3 2 1 1
node 4 3 1 1
node 5 2 1 1
node 6 2 1 1
node 7 1 1 3
node 8 2 0 2
gene 2 1 8 -0.7024 0 1 -0.7024 1
gene 3 2 8 0.756957 0 2 0.756957 1
gene 3 3 8 -3.65243 0 3 -3.65243 1
gene 2 4 8 -0.762535 0 4 -0.762535 1
gene 1 5 8 0.148778 0 5 0.148778 1
gene 1 6 8 -0.888834 0 6 -0.888834 1
gene 1 7 8 1.61705 0 7 1.61705 1
genomeend 137

/* Organism #138 Fitness: 6 Error: 0 */
genomestart 138
trait 1 0.0984375 0.0428925 0.0219323 0 0.00292799 0.0728699 0 0 
trait 2 0.31803 0.0266583 0.0598263 0.00163874 0 0.000555383 0 0.0646695 
trait 3 0.306507 0 0 0 0.0130077 0.00593363 0 0 
node 1 1 1 1
node 2 1 1 1
node 3 2 1 1
node 4 3 1 1
node 5 3 1 1
node 6 2 1 1
node 7 3 1 3
node 8 1 0 2
gene 3 1 8 0.905283 0 1 0.905283 1
gene 2 2 8 0.233875 0 2 0.233875 1
gene 3 3 8 -8 0 3 -8 1
gene 2 4 8 -6.24348 0 4 -6.24348 1
gene 2 5 8 4.5702 0 5 4.5702 1
gene 3 6 8 1.01338 0 6 1.01338 1
gene 1 7 8 -2.27538 0 7 -2.27538 1
genomeend 138

/* Organism #139 Fitness: 74 Error: 0 */
genomestart 139
trait 1 0.096875 0.0428925 0.0219323 0 0.00292799 0.0655058 0 0 
trait 2 0.301277 0.0317558 0.0747829 0.123051 0 0.000833074 0 0.0754477 
trait 3 0.306507 0 1 0 0.127802 0 0.0393565 0.33681 
node 1 1 1 1
node 2 2 1 1
node 3 2 1 1
node 4 3 1 1
node 5 2 1 1
node 6 1 1 1
node 7 2 1 3
node 8 1 0 2
gene 2 1 8 2.23961 0 1 2.23961 1
gene 2 2 8 -1.08213 0 2 -1.08213 1
gene 3 3 8 -2.89262 0 3 -2.89262 1
gene 2 4 8 -6.06595 0 4 -6.06595 1
gene 1 5 8 3.48895 0 5 3.48895 1
gene 1 6 8 1.9544 0 6 1.9544 1
gene 3 7 8 1.65778 0 7 1.65778 1
genomeend 139

/* Organism #140 Fitness: 162 Error: 0 */
genomestart 140
trait 1 0.0875 0.0643387 0.0328984 0 0.00439199 0.0788256 0 0 
trait 2 0.35 0 0.179479 0 0 0 0 0 
trait 3 0.3 0 0 0 0 0 0 0 
node 1 1 1 1
node 2 1 1 1
node 3 2 1 1
node 4 3 1 1
node 5 3 1 1
node 6 2 1 1
node 7 3 1 3
node 8 1 0 2
gene 3 1 8 0.0374659 0 1 0.0374659 1
gene 2 2 8 0.675052 0 2 0.675052 1
gene 3 3 8 -6.29296 0 3 -6.29296 1
gene 2 4 8 -5.33182 0 4 -5.33182 1
gene 2 5 8 8 0 5 8 1
gene 1 6 8 2.10999 0 6 2.10999 1
gene 2 7 8 -0.675943 0 7 -0.675943 1
genomeend 140

/* Organism #141 Fitness: 139 Error: 0 */
genomestart 141
trait 1 0.1 0.0536156 0.0274153 0 0.00365999 0.0760523 0 0 
trait 2 0.498838 0.00411579 0.106512 0.0299966 0.168148 0 0 0.175631 
trait 3 0.3 0 0 0 0 0 0 0 
node 1 2 1 1
node 2 1 1 1
node 3 2 1 1
node 4 3 1 1
node 5 2 1 1
node 6 2 1 1
node 7 1 1 3
node 8 2 0 2
gene 3 1 8 0.208503 0 1 0.208503 1
gene 2 2 8 1.80733 0 2 1.80733 1
gene 3 3 8 -3.42859 0 3 -3.42859 1
gene 2 4 8 -4.7573 0 4 -4.7573 1
gene 1 5 8 1.88913 0 5 1.88913 1
gene 3 6 8 0.942413 0 6 0.942413 1
gene 1 7 8 -0.943788 0 7 -0.943788 1
genomeend 141

/* Organism #142 Fitness: 57 Error: 0 */
genomestart 142
trait 1 0.1 0.0294886 0.0150784 0 0.00201299 0.0408673 0 0 
trait 2 0.31803 0.0276401 0.0598263 0.00245811 0 0.000833074 0 0.0646695 
trait 3 0.3 0 0 0 0 0 0 0 
node 1 1 1 1
node 2 1 1 1
node 3 2 1 1
node 4 3 1 1
node 5 3 1 1
node 6 2 1 1
node 7 3 1 3
node 8 1 0 2
gene 3 1 8 -1.07976 0 1 -1.07976 1
gene 2 2 8 1.25345 0 2 1.25345 1
gene 3 3 8 0.092239 0 3 0.092239 1
gene 2 4 8 -4.61624 0 4 -4.61624 1
gene 1 5 8 1.48506 0 5 1.48506 1
gene 1 6 8 1.1892 0 6 1.1892 1
gene 1 7 8 0.22968 0 7 0.22968 1
genomeend 142

/* Organism #143 Fitness: 13 Error: 0 */
genomestart 143
trait 1 0.090625 0.0536156 0.0274153 0 0.00365999 0.0793252 0 0 
trait 2 0.346515 0.0133291 0.134609 0.000819371 0 0.000277691 0 0.0323347 
trait 3 0.3 0 0 0 0 0 0 0 
node 1 1 1 1
node 2 2 1 1
node 3 2 1 1
node 4 3 1 1
node 5 2 1 1
node 6 1 1 1
node 7 2 1 3
node 8 1 0 2
gene 1 1 8 0.146518 0 1 0.146518 1
gene 1 2 8 0.890655 0 2 0.890655 1
gene 3 3 8 -4.63842 0 3 -4.63842 1
gene 2 4 8 0.54025 0 4 0.54025 1
gene 2 5 8 -2.33855 0 5 -2.33855 1
gene 3 6 8 3.66631 0 6 3.66631 1
gene 2 7 8 -2.38927 0 7 -2.38927 1
genomeend 143

/* Organism #144 Fitness: 66 Error: 0 */
genomestart 144
trait 1 0.09375 0.0697002 0.0356399 0 0.00475799 0.0857354 0 0 
trait 2 0.372677 0.00823159 0.179479 0 0 0 0 0.0215565 
trait 3 0.3 0 0 0 0 0 0 0 
node 1 3 1 1
node 2 1 1 1
node 3 3 1 1
node 4 2 1 1
node 5 3 1 1
node 6 2 1 1
node 7 2 1 3
node 8 3 0 2
gene 3 1 8 1.26308 0 1 1.26308 1
gene 3 2 8 0.89901 0 2 0.89901 1
gene 2 3 8 -4.86193 0 3 -4.86193 1
gene 2 4 8 -1.6457 0 4 -1.6457 1
gene 1 5 8 7.69952 0 5 7.69952 1
gene 2 6 8 2.17991 0 6 2.17991 1
gene 2 7 8 -1.77378 0 7 -1.77378 1
genomeend 144

/* Organism #145 Fitness: 108 Error: 0 */
genomestart 145
trait 1 0.1 0.0160847 0.0082246 0 0.001098 0.0272751 0 0 
trait 2 0.270353 0.0184267 0.0299132 0.00163874 0 0.000555383 0 0.043113 
trait 3 0.3 0 0 0 0 0 0 0 
node 1 1 1 1
node 2 1 1 1
node 3 2 1 1
node 4 3 1 1
node 5 3 1 1
node 6 2 1 1
node 7 3 1 3
node 8 3 0 2
gene 3 1 8 1.14383 0 1 1.14383 1
gene 2 2 8 1.08121 0 2 1.08121 1
gene 3 3 8 -1.47592 0 3 -1.47592 1
gene 2 4 8 -5.07255 0 4 -5.07255 1
gene 1 5 8 1.63571 0 5 1.63571 1
gene 1 6 8 1.13047 0 6 1.13047 1
gene 1 7 8 -0.263998 0 7 -0.263998 1
genomeend 145

/* Organism #146 Fitness: 88 Error: 0 */
genomestart 146
trait 1 0.0875 0.0643387 0.0328984 0 0.00439199 0.0788256 0 0 
trait 2 0.35 0 0.179479 0 0 0 0 0 
trait 3 0.3 0 0 0 0 0 0 0 
node 1 1 1 1
node 2 1 1 1
node 3 2 1 1
node 4 3 1 1
node 5 3 1 1
node 6 2 1 1
node 7 3 1 3
node 8 1 0 2
gene 3 1 8 1.58228 0 1 1.58228 1
gene 3 2 8 -2.71682 0 2 -2.71682 1
gene 2 3 8 -2.98462 0 3 -2.98462 1
gene 2 4 8 -6.1503 0 4 -6.1503 1
gene 2 5 8 6.29593 0 5 6.29593 1
gene 1 6 8 4.14428 0 6 4.14428 1
gene 2 7 8 1.05229 0 7 1.05229 1
genomeend 146

/* Organism #147 Fitness: 358 Error: 0 */
genomestart 147
trait 1 0.096875 0.0428925 0.0219323 0 0.00292799 0.0757337 0 0 
trait 2 0.352045 0.0399874 0.0598263 0.00245811 0 0.000833074 0 0.0970042 
trait 3 0.306507 0 0 0 0.0130077 0.00593363 0 0 
node 1 3 1 1
node 2 1 1 1
node 3 2 1 1
node 4 2 1 1
node 5 3 1 1
node 6 2 1 1
node 7 2 1 3
node 8 3 0 2
gene 3 1 8 0.0609165 0 1 0.0609165 1
gene 2 2 8 -0.205069 0 2 -0.205069 1
gene 3 3 8 -4.42376 0 3 -4.42376 1
gene 2 4 8 -5.66896 0 4 -5.66896 1
gene 2 5 8 5.38976 0 5 5.38976 1
gene 3 6 8 1.9891 0 6 1.9891 1
gene 1 7 8 -0.224679 0 7 -0.224679 1
genomeend 147

/* Organism #148 Fitness: 32 Error: 0 */
genomestart 148
trait 1 0.1 0.282258 0.0356399 0 0.00475799 0.103736 0.0809574 0 
trait 2 0.345353 0.0164632 0.119653 0 0 0 0 0.043113 
trait 3 0.313015 0 0 0 0.0260154 0.0118673 0 0 
node 1 3 1 1
node 2 1 1 1
node 3 2 1 1
node 4 2 1 1
node 5 3 1 1
node 6 2 1 1
node 7 2 1 3
node 8 3 0 2
gene 3 1 8 0.0246644 0 1 0.0246644 1
gene 2 2 8 2.40079 0 2 2.40079 1
gene 1 3 8 -1.65462 0 3 -1.65462 1
gene 2 4 8 -2.13906 0 4 -2.13906 1
gene 1 5 8 -0.225319 0 5 -0.225319 1
gene 1 6 8 2.09526 0 6 2.09526 1
gene 1 7 8 -0.91175 0 7 -0.91175 1
genomeend 148

/* Organism #149 Fitness: 102 Error: 0 */
genomestart 149
trait 1 0.090625 0.0589771 0.0301569 0 0.00402599 0.0858259 0 0 
trait 2 0.338777 0.0317558 0.119653 0.123051 0 0.000833074 0 0.0754477 
trait 3 0.306507 0.281679 0.223246 0 0.0130077 0.00593363 0.175768 0.33681 
node 1 1 1 1
node 2 2 1 1
node 3 2 1 1
node 4 3 1 1
node 5 2 1 1
node 6 1 1 1
node 7 2 1 3
node 8 1 0 2
gene 3 1 8 -1.65402 0 1 -1.65402 1
gene 1 2 8 1.26153 0 2 1.26153 1
gene 3 3 8 -4.15025 0 3 -4.15025 1
gene 2 4 8 -7.22638 0 4 -7.22638 1
gene 2 5 8 2.76387 0 5 2.76387 1
gene 1 6 8 1.20214 0 6 1.20214 1
gene 3 7 8 0.711403 0 7 0.711403 1
genomeend 149
