
/* Species #1 : (Size 3) (AF 50.3333) (Age 8)  */


/* Organism #0 Fitness: 142 Error: 0 */
genomestart 0
trait 1 0.1 0 0 0 0 0 0 0 
trait 2 0.2 0 0 0 0 0 0 0 
trait 3 0.3 0.240683 0 0 0.114771 0 0 0 
node 1 2 1 3
node 2 3 1 1
node 3 1 1 1
node 4 3 1 1
node 5 1 1 1
node 6 2 0 2
node 7 3 0 2
node 21 1 0 0
node 25 2 0 0
gene 1 1 6 1.31501 0 1 1.31501 1
gene 1 2 6 -0.586769 0 2 -0.586769 1
gene 3 3 6 -1.41431 0 3 -1.41431 1
gene 3 4 6 -2.68798 0 4 -2.68798 1
gene 1 5 6 0.434207 0 5 0.434207 1
gene 3 1 7 -2.16357 0 6 -2.16357 1
gene 3 2 7 -2.11473 0 7 -2.11473 1
gene 1 3 7 -1.23309 0 8 -1.23309 1
gene 2 4 7 0.974817 0 9 0.974817 0
gene 2 5 7 1.6523 0 10 1.6523 1
gene 2 4 21 0.69869 0 45 0.69869 1
gene 2 21 7 1.24234 0 46 1.24234 1
gene 1 2 25 -0.513358 0 53 -0.513358 1
gene 1 25 6 -0.47335 0 54 -0.47335 1
genomeend 0

/* Organism #1 Fitness: 2 Error: 0 */
genomestart 1
trait 1 0.1 0 0 0 0 0 0 0 
trait 2 0.2 0 0 0 0 0 0 0 
trait 3 0.3 0.240683 0 0 0.114771 0 0 0 
node 1 2 1 3
node 2 3 1 1
node 3 1 1 1
node 4 3 1 1
node 5 1 1 1
node 6 2 0 2
node 7 3 0 2
node 21 1 0 0
gene 1 1 6 -0.153192 0 1 -0.153192 1
gene 1 2 6 -2.94478 0 2 -2.94478 0
gene 3 3 6 -0.151878 0 3 -0.151878 1
gene 1 4 6 -0.791828 0 4 -0.791828 1
gene 1 5 6 1.40095 0 5 1.40095 1
gene 3 1 7 -2.00092 0 6 -2.00092 1
gene 3 2 7 -1.26443 0 7 -1.26443 1
gene 1 3 7 -0.142346 0 8 -0.142346 1
gene 2 4 7 -0.749357 0 9 -0.749357 0
gene 2 5 7 0.294619 0 10 0.294619 1
gene 2 4 21 5.8104 0 45 5.8104 1
gene 2 21 7 -1.85464 0 46 -1.85464 1
genomeend 1

/* Organism #2 Fitness: 7 Error: 0 */
genomestart 2
trait 1 0.1 0 0 0 0 0 0 0 
trait 2 0.2 0 0 0 0 0 0 0 
trait 3 0.3 0.240683 0 0 0.114771 0 0 0 
node 1 2 1 3
node 2 3 1 1
node 3 1 1 1
node 4 3 1 1
node 5 1 1 1
node 6 2 0 2
node 7 3 0 2
node 21 1 0 0
gene 1 1 6 -0.747455 0 1 -0.747455 1
gene 1 2 6 -1.54022 0 2 -1.54022 1
gene 3 3 6 -0.529455 0 3 -0.529455 1
gene 3 4 6 -1.28113 0 4 -1.28113 1
gene 1 5 6 1.84867 0 5 1.84867 1
gene 3 1 7 -3.65548 0 6 -3.65548 1
gene 3 2 7 -1.27771 0 7 -1.27771 1
gene 1 3 7 1.72101 0 8 1.72101 1
gene 2 4 7 -0.536639 0 9 -0.536639 0
gene 2 5 7 4.00815 0 10 4.00815 1
gene 2 4 21 2.07457 0 45 2.07457 1
gene 2 21 7 1.06204 0 46 1.06204 1
genomeend 2

/* Species #2 : (Size 106) (AF 994.085) (Age 4)  */


/* Organism #3 Fitness: 16 Error: 0 */
genomestart 3
trait 1 0.1 0 0 0 0 0 0 0 
trait 2 0.289439 0 0 0.0137502 0.0579521 0 0 0 
trait 3 0.3 0.0818507 0 0.013017 0 0 0 0.086372 
node 1 2 1 3
node 2 1 1 1
node 3 3 1 1
node 4 1 1 1
node 5 1 1 1
node 6 3 0 2
node 7 3 0 2
node 19 1 0 0
node 28 1 0 0
gene 3 1 6 1.6894 0 1 1.6894 1
gene 2 2 6 -0.240927 0 2 -0.240927 1
gene 3 3 6 -2.42943 0 3 -2.42943 1
gene 2 4 6 0.455596 0 4 0.455596 1
gene 2 5 6 -0.510093 0 5 -0.510093 0
gene 3 1 7 -0.216873 0 6 -0.216873 1
gene 3 2 7 -0.87463 0 7 -0.87463 0
gene 3 3 7 -3.86067 0 8 -3.86067 1
gene 2 4 7 0.0245032 0 9 0.0245032 1
gene 3 5 7 -2.0203 0 10 -2.0203 1
gene 2 5 19 1.56683 0 38 1.56683 0
gene 2 19 6 2.14642 0 39 2.14642 1
gene 3 6 7 -0.88634 0 44 -0.88634 1
gene 3 3 28 2.29899 0 59 2.29899 1
gene 3 28 6 2.84836 0 60 2.84836 1
genomeend 3

/* Organism #4 Fitness: 25 Error: 0 */
genomestart 4
trait 1 0.1 0 0 0 0 0 0 0 
trait 2 0.334159 0 0 0.0206252 0.0869282 0 0 0 
trait 3 0.3 0.0892916 0 0.0142003 0 0 0 0.094224 
node 1 3 1 3
node 2 3 1 1
node 3 2 1 1
node 4 2 1 1
node 5 3 1 1
node 6 3 0 2
node 7 2 0 2
node 19 1 0 0
node 28 1 0 0
gene 3 1 6 1.85005 0 1 1.85005 1
gene 2 2 6 4.75403 0 2 4.75403 1
gene 1 3 6 -1.65126 0 3 -1.65126 0
gene 2 4 6 -2.30358 0 4 -2.30358 1
gene 2 5 6 0.664722 0 5 0.664722 0
gene 1 1 7 2.03499 0 6 2.03499 1
gene 1 2 7 2.06063 0 7 2.06063 0
gene 2 3 7 1.588 0 8 1.588 1
gene 3 4 7 -0.9312 0 9 -0.9312 1
gene 3 5 7 3.04771 0 10 3.04771 1
gene 2 5 19 -1.56526 0 38 -1.56526 1
gene 2 19 6 -1.83613 0 39 -1.83613 1
gene 3 6 7 -2.59447 0 44 -2.59447 1
gene 3 3 28 -2.32506 0 59 -2.32506 1
gene 3 28 6 -3.44856 0 60 -3.44856 1
genomeend 4

/* Organism #5 Fitness: 42 Error: 0 */
genomestart 5
trait 1 0.1 0 0 0 0 0 0 0 
trait 2 0.378878 0 0 0.0275003 0.115904 0 0 0 
trait 3 0.3 0.0892916 0 0.0142003 0 0 0 0.094224 
node 1 3 1 3
node 2 3 1 1
node 3 3 1 1
node 4 2 1 1
node 5 3 1 1
node 6 3 0 2
node 7 2 0 2
node 19 1 0 0
node 28 1 0 0
gene 3 1 6 2.0016 0 1 2.0016 1
gene 3 2 6 0.502383 0 2 0.502383 1
gene 3 3 6 1.19149 0 3 1.19149 0
gene 2 4 6 -3.52669 0 4 -3.52669 1
gene 2 5 6 -1.46513 0 5 -1.46513 1
gene 1 1 7 -1.30388 0 6 -1.30388 1
gene 1 2 7 -1.0207 0 7 -1.0207 1
gene 3 3 7 -1.5119 0 8 -1.5119 1
gene 2 4 7 2.54369 0 9 2.54369 1
gene 3 5 7 1.4715 0 10 1.4715 1
gene 2 5 19 -0.399422 0 38 -0.399422 1
gene 2 19 6 -1.50957 0 39 -1.50957 1
gene 3 6 7 1.18882 0 44 1.18882 1
gene 3 3 28 2.08435 0 59 2.08435 1
gene 3 28 6 -2.68838 0 60 -2.68838 1
genomeend 5

/* Organism #6 Fitness: 18 Error: 0 */
genomestart 6
trait 1 0.1 0 0 0 0 0 0 0 
trait 2 0.24472 0 0 0.00687508 0.0289761 0 0 0 
trait 3 0.3 0.0669687 0 0.0106502 0 0 0 0.070668 
node 1 2 1 3
node 2 2 1 1
node 3 2 1 1
node 4 1 1 1
node 5 1 1 1
node 6 3 0 2
node 7 1 0 2
node 19 1 0 0
gene 3 1 6 -1.7593 0 1 -1.7593 1
gene 2 2 6 0.210732 0 2 0.210732 1
gene 3 3 6 -1.15046 0 3 -1.15046 0
gene 2 4 6 -1.05328 0 4 -1.05328 1
gene 2 5 6 -1.96376 0 5 -1.96376 0
gene 1 1 7 -1.71882 0 6 -1.71882 1
gene 3 2 7 1.16924 0 7 1.16924 1
gene 3 3 7 0.491417 0 8 0.491417 1
gene 2 4 7 -0.990422 0 9 -0.990422 1
gene 3 5 7 0.334479 0 10 0.334479 1
gene 2 5 19 3.43983 0 38 3.43983 0
gene 2 19 6 -1.21906 0 39 -1.21906 1
gene 3 6 7 -1.68296 0 44 -1.68296 1
genomeend 6

/* Organism #7 Fitness: 42 Error: 0 */
genomestart 7
trait 1 0.1 0 0 0 0 0 0 0 
trait 2 0.378878 0 0 0.0275003 0.115904 0 0 0 
trait 3 0.3 0.0892916 0 0.0142003 0 0 0 0.094224 
node 1 2 1 3
node 2 2 1 1
node 3 2 1 1
node 4 1 1 1
node 5 1 1 1
node 6 3 0 2
node 7 1 0 2
node 19 1 0 0
node 28 1 0 0
node 30 1 0 0
gene 3 1 6 1.37539 0 1 1.37539 1
gene 3 2 6 0.337809 0 2 0.337809 1
gene 3 3 6 -1.23772 0 3 -1.23772 0
gene 2 4 6 -1.11121 0 4 -1.11121 1
gene 2 5 6 -2.6419 0 5 -2.6419 0
gene 1 1 7 -1.6062 0 6 -1.6062 1
gene 3 2 7 0.666441 0 7 0.666441 1
gene 3 3 7 -0.646498 0 8 -0.646498 1
gene 2 4 7 1.20088 0 9 1.20088 1
gene 3 5 7 1.74528 0 10 1.74528 1
gene 2 5 19 3.2492 0 38 3.2492 1
gene 2 19 6 -0.149496 0 39 0 0
gene 3 6 7 -0.354465 0 44 -0.354465 1
gene 3 3 28 1 0 59 0 1
gene 3 28 6 -1.23772 0 60 0 1
gene 2 19 30 1 0 68 0 1
gene 2 30 6 -0.149496 0 69 0 1
genomeend 7

/* Organism #8 Fitness: 11 Error: 0 */
genomestart 8
trait 1 0.1 0 0 0 0 0 0 0 
trait 2 0.378878 0 0 0.0275003 0.115904 0 0 0 
trait 3 0.3 0.0892916 0 0.0142003 0 0 0 0.094224 
node 1 2 1 3
node 2 2 1 1
node 3 2 1 1
node 4 1 1 1
node 5 1 1 1
node 6 3 0 2
node 7 1 0 2
node 19 1 0 0
node 28 1 0 0
node 30 1 0 0
gene 3 1 6 3.67985 0 1 3.67985 1
gene 3 2 6 -0.498643 0 2 -0.498643 1
gene 3 3 6 -0.307715 0 3 -0.307715 0
gene 2 4 6 -2.19847 0 4 -2.19847 1
gene 2 5 6 -4.12384 0 5 -4.12384 0
gene 1 1 7 -2.63241 0 6 -2.63241 1
gene 3 2 7 -0.261833 0 7 -0.261833 1
gene 3 3 7 1.46517 0 8 1.46517 1
gene 2 4 7 1.8038 0 9 1.8038 1
gene 1 5 7 3.42951 0 10 3.42951 1
gene 2 5 19 1.03598 0 38 1.03598 1
gene 2 19 6 -1.65854 0 39 -1.65854 0
gene 3 6 7 -1.33205 0 44 -1.33205 1
gene 3 3 28 -0.855237 0 59 -0.855237 1
gene 3 28 6 -1.23772 0 60 -1.23772 1
gene 2 19 30 1 0 68 1 1
gene 2 30 6 -0.286988 0 69 -0.286988 1
genomeend 8

/* Organism #9 Fitness: 2 Error: 0 */
genomestart 9
trait 1 0.1 0 0 0 0 0 0 0 
trait 2 0.378878 0 0 0.0275003 0.115904 0 0 0 
trait 3 0.3 0.0892916 0 0.0142003 0 0 0 0.094224 
node 1 2 1 3
node 2 2 1 1
node 3 2 1 1
node 4 1 1 1
node 5 1 1 1
node 6 3 0 2
node 7 1 0 2
node 19 1 0 0
node 28 1 0 0
node 30 1 0 0
gene 3 1 6 3.47336 0 1 3.47336 1
gene 3 2 6 2.13183 0 2 2.13183 1
gene 3 3 6 -3.58947 0 3 -3.58947 0
gene 2 4 6 0.103563 0 4 0.103563 1
gene 2 5 6 -3.2743 0 5 -3.2743 0
gene 1 1 7 -2.48545 0 6 -2.48545 1
gene 3 2 7 2.91009 0 7 2.91009 1
gene 3 3 7 -0.904309 0 8 -0.904309 1
gene 2 4 7 0.609323 0 9 0.609323 1
gene 3 5 7 3.7007 0 10 3.7007 1
gene 2 5 19 4.40351 0 38 4.40351 1
gene 2 19 6 0.313014 0 39 0.313014 0
gene 3 6 7 -0.758145 0 44 -0.758145 1
gene 3 3 28 1.52221 0 59 1.52221 1
gene 3 28 6 -1.23772 0 60 -1.23772 1
gene 2 19 30 1 0 68 1 1
gene 2 30 6 -0.149496 0 69 -0.149496 1
genomeend 9

/* Organism #10 Fitness: 17 Error: 0 */
genomestart 10
trait 1 0.1 0 0 0 0 0 0 0 
trait 2 0.378878 0 0 0.0275003 0.115904 0 0 0 
trait 3 0.3 0.0892916 0 0.0142003 0 0 0 0.094224 
node 1 2 1 3
node 2 2 1 1
node 3 2 1 1
node 4 1 1 1
node 5 1 1 1
node 6 3 0 2
node 7 1 0 2
node 19 1 0 0
node 28 1 0 0
node 30 1 0 0
gene 3 1 6 2.24592 0 1 2.24592 1
gene 3 2 6 -1.77701 0 2 -1.77701 1
gene 3 3 6 -0.557454 0 3 -0.557454 0
gene 2 4 6 1.06986 0 4 1.06986 1
gene 2 5 6 -1.72174 0 5 -1.72174 0
gene 1 1 7 0.830149 0 6 0.830149 1
gene 3 2 7 -0.281053 0 7 -0.281053 1
gene 3 3 7 0.494628 0 8 0.494628 1
gene 2 4 7 -0.792832 0 9 -0.792832 1
gene 3 5 7 -0.286077 0 10 -0.286077 1
gene 2 5 19 0.885082 0 38 0.885082 1
gene 2 19 6 1.59774 0 39 1.59774 0
gene 3 6 7 1.28679 0 44 1.28679 1
gene 3 3 28 1.77728 0 59 1.77728 1
gene 3 28 6 -1.72477 0 60 -1.72477 1
gene 2 19 30 -0.323284 0 68 -0.323284 1
gene 2 30 6 -0.114177 0 69 -0.114177 1
genomeend 10

/* Organism #11 Fitness: 20 Error: 0 */
genomestart 11
trait 1 0.1 0 0 0 0 0 0 0 
trait 2 0.378878 0.0367722 0 0.0286263 0 0 0 0 
trait 3 0.3 0.0892916 0 0.0142003 0 0 0 0.094224 
node 1 2 1 3
node 2 2 1 1
node 3 2 1 1
node 4 1 1 1
node 5 1 1 1
node 6 3 0 2
node 7 1 0 2
node 19 1 0 0
node 28 1 0 0
node 30 1 0 0
gene 3 1 6 -0.928192 0 1 -0.928192 1
gene 3 2 6 -1.85454 0 2 -1.85454 1
gene 3 3 6 -1.23257 0 3 -1.23257 0
gene 2 4 6 -2.07572 0 4 -2.07572 1
gene 2 5 6 -2.20273 0 5 -2.20273 0
gene 1 1 7 -3.05319 0 6 -3.05319 1
gene 3 2 7 -0.0754717 0 7 -0.0754717 1
gene 3 3 7 -0.499153 0 8 -0.499153 1
gene 2 4 7 1.31693 0 9 1.31693 1
gene 3 5 7 1.68609 0 10 1.68609 1
gene 2 5 19 2.45666 0 38 2.45666 1
gene 2 19 6 -0.68694 0 39 -0.68694 0
gene 3 6 7 0.0495053 0 44 0.0495053 1
gene 3 3 28 -1.40518 0 59 -1.40518 1
gene 3 28 6 -1.88482 0 60 -1.88482 1
gene 2 19 30 1.21716 0 68 1.21716 1
gene 2 30 6 1.0012 0 69 1.0012 1
genomeend 11

/* Organism #12 Fitness: 6 Error: 0 */
genomestart 12
trait 1 0.1 0 0 0 0 0 0 0 
trait 2 0.378878 0 0 0.0275003 0.115904 0 0 0 
trait 3 0.3 0.0892916 0 0.0142003 0 0 0 0.094224 
node 1 2 1 3
node 2 2 1 1
node 3 2 1 1
node 4 1 1 1
node 5 1 1 1
node 6 3 0 2
node 7 1 0 2
node 19 1 0 0
node 28 1 0 0
node 30 1 0 0
gene 3 1 6 1.37539 0 1 1.37539 1
gene 3 2 6 -1.65035 0 2 -1.65035 1
gene 3 3 6 0.655618 0 3 0.655618 0
gene 2 4 6 -1.11121 0 4 -1.11121 1
gene 2 5 6 -2.89951 0 5 -2.89951 0
gene 1 1 7 1.4083 0 6 1.4083 1
gene 3 2 7 1.97824 0 7 1.97824 1
gene 3 3 7 1.27447 0 8 1.27447 1
gene 2 4 7 2.50238 0 9 2.50238 1
gene 2 5 7 0.54665 0 10 0.54665 1
gene 2 5 19 3.78117 0 38 3.78117 1
gene 2 19 6 -0.269286 0 39 -0.269286 0
gene 3 6 7 -0.354465 0 44 -0.354465 1
gene 3 3 28 1 0 59 1 1
gene 3 28 6 1.57011 0 60 1.57011 1
gene 2 19 30 1.39828 0 68 1.39828 1
gene 2 30 6 -1.60312 0 69 -1.60312 1
genomeend 12

/* Organism #13 Fitness: 17 Error: 0 */
genomestart 13
trait 1 0.1 0 0 0 0 0 0 0 
trait 2 0.378878 0 0 0.0275003 0.115904 0 0 0 
trait 3 0 0 0 0.0142003 0 0 0.891533 0.094224 
node 1 2 1 3
node 2 2 1 1
node 3 2 1 1
node 4 1 1 1
node 5 1 1 1
node 6 3 0 2
node 7 1 0 2
node 19 1 0 0
node 28 1 0 0
node 30 1 0 0
gene 3 1 6 0.813799 0 1 0.813799 1
gene 3 2 6 -0.772218 0 2 -0.772218 1
gene 3 3 6 1.1776 0 3 1.1776 0
gene 2 4 6 1.10216 0 4 1.10216 1
gene 2 5 6 -0.352234 0 5 -0.352234 0
gene 1 1 7 -3.41387 0 6 -3.41387 1
gene 3 2 7 -1.71841 0 7 -1.71841 1
gene 3 3 7 0.692401 0 8 0.692401 1
gene 2 4 7 1.11379 0 9 1.11379 1
gene 3 5 7 0.998823 0 10 0.998823 1
gene 2 5 19 1.08374 0 38 1.08374 1
gene 2 19 6 -1.91695 0 39 -1.91695 0
gene 3 6 7 -1.38364 0 44 -1.38364 1
gene 3 3 28 3.37956 0 59 3.37956 1
gene 3 28 6 2.26441 0 60 2.26441 1
gene 2 19 30 2.10866 0 68 2.10866 1
gene 2 30 6 0.365939 0 69 0.365939 1
genomeend 13

/* Organism #14 Fitness: 12 Error: 0 */
genomestart 14
trait 1 0.1 0 0 0 0 0 0 0 
trait 2 0.378878 0 0 0.0275003 0.115904 0 0 0 
trait 3 0.3 0.0892916 0 0.0142003 0 0 0 0.094224 
node 1 2 1 3
node 2 2 1 1
node 3 2 1 1
node 4 1 1 1
node 5 1 1 1
node 6 3 0 2
node 7 1 0 2
node 19 1 0 0
node 28 1 0 0
node 30 1 0 0
gene 3 1 6 1.37539 0 1 1.37539 1
gene 3 2 6 -1.70538 0 2 -1.70538 1
gene 3 3 6 -2.47872 0 3 -2.47872 0
gene 2 4 6 -0.103351 0 4 -0.103351 1
gene 2 5 6 -0.534835 0 5 -0.534835 0
gene 1 1 7 -3.65138 0 6 -3.65138 1
gene 3 2 7 -0.717329 0 7 -0.717329 1
gene 3 3 7 -0.660449 0 8 -0.660449 1
gene 2 4 7 0.243044 0 9 0.243044 1
gene 3 5 7 3.31245 0 10 3.31245 1
gene 2 5 19 4.80454 0 38 4.80454 1
gene 2 19 6 -0.916099 0 39 -0.916099 0
gene 3 6 7 -1.38815 0 44 -1.38815 1
gene 3 3 28 -0.180327 0 59 -0.180327 1
gene 3 28 6 1.09138 0 60 1.09138 1
gene 2 19 30 1 0 68 1 1
gene 2 30 6 0.996751 0 69 0.996751 1
genomeend 14

/* Organism #15 Fitness: 9 Error: 0 */
genomestart 15
trait 1 0.1 0 0 0 0 0 0 0 
trait 2 0 0 0 0.68772 0.115904 0.166876 0 0.849778 
trait 3 0.3 0.0892916 0 0.0142003 0 0 0 0.094224 
node 1 2 1 3
node 2 2 1 1
node 3 2 1 1
node 4 1 1 1
node 5 1 1 1
node 6 3 0 2
node 7 1 0 2
node 19 1 0 0
node 28 1 0 0
node 30 1 0 0
gene 3 1 6 -0.673294 0 1 -0.673294 1
gene 3 2 6 1.67882 0 2 1.67882 1
gene 3 3 6 -2.69412 0 3 -2.69412 0
gene 2 4 6 -1.61148 0 4 -1.61148 1
gene 2 5 6 -2.66109 0 5 -2.66109 0
gene 1 1 7 0.584316 0 6 0.584316 1
gene 3 2 7 2.99601 0 7 2.99601 1
gene 3 3 7 -0.468835 0 8 -0.468835 1
gene 2 4 7 2.46333 0 9 2.46333 1
gene 3 5 7 2.17023 0 10 2.17023 1
gene 2 5 19 4.89485 0 38 4.89485 1
gene 2 19 6 0.258146 0 39 0.258146 0
gene 3 6 7 -0.972912 0 44 -0.972912 1
gene 3 3 28 1.84242 0 59 1.84242 1
gene 3 28 6 -1.23772 0 60 -1.23772 1
gene 2 19 30 -2.23711 0 68 -2.23711 1
gene 2 30 6 -0.149496 0 69 -0.149496 1
genomeend 15

/* Organism #16 Fitness: 12 Error: 0 */
genomestart 16
trait 1 0.1 0 0 0 0 0 0 0 
trait 2 0.378878 0 0 0.0275003 0.115904 0 0 0 
trait 3 0.3 0.0892916 0 0.0142003 0 0 0 0.094224 
node 1 2 1 3
node 2 2 1 1
node 3 2 1 1
node 4 1 1 1
node 5 1 1 1
node 6 3 0 2
node 7 1 0 2
node 19 1 0 0
node 28 1 0 0
node 30 1 0 0
gene 3 1 6 -0.734124 0 1 -0.734124 1
gene 3 2 6 -0.823145 0 2 -0.823145 1
gene 3 3 6 -1.90952 0 3 -1.90952 0
gene 2 4 6 1.75361 0 4 1.75361 1
gene 2 5 6 -2.42256 0 5 -2.42256 0
gene 1 1 7 -0.837038 0 6 -0.837038 1
gene 3 2 7 2.00856 0 7 2.00856 1
gene 3 3 7 -0.484311 0 8 -0.484311 1
gene 2 4 7 0.520791 0 9 0.520791 1
gene 3 5 7 1.74528 0 10 1.74528 1
gene 2 5 19 5.4023 0 38 5.4023 1
gene 2 19 6 -0.577309 0 39 -0.577309 0
gene 3 6 7 1.83982 0 44 1.83982 1
gene 3 3 28 -0.594247 0 59 -0.594247 1
gene 3 28 6 0.782947 0 60 0.782947 1
gene 2 19 30 1 0 68 1 1
gene 2 30 6 -1.68123 0 69 -1.68123 1
genomeend 16

/* Organism #17 Fitness: 11 Error: 0 */
genomestart 17
trait 1 0.1 0 0 0 0 0 0 0 
trait 2 0.378878 0 0 0.0275003 0.115904 0 0 0 
trait 3 0.3 0.0892916 0 0.0142003 0 0 0 0.094224 
node 1 2 1 3
node 2 2 1 1
node 3 2 1 1
node 4 1 1 1
node 5 1 1 1
node 6 3 0 2
node 7 1 0 2
node 19 1 0 0
node 28 1 0 0
node 30 1 0 0
gene 3 1 6 3.1486 0 1 3.1486 1
gene 3 2 6 -1.85375 0 2 -1.85375 1
gene 3 3 6 -1.41634 0 3 -1.41634 0
gene 2 4 6 -0.667785 0 4 -0.667785 1
gene 2 5 6 -4.66431 0 5 -4.66431 0
gene 1 1 7 -2.33325 0 6 -2.33325 1
gene 3 2 7 0.108718 0 7 0.108718 1
gene 3 3 7 0.870681 0 8 0.870681 1
gene 2 4 7 2.4016 0 9 2.4016 1
gene 3 5 7 -0.214256 0 10 -0.214256 1
gene 2 5 19 5.53349 0 38 5.53349 1
gene 2 19 6 0.825743 0 39 0.825743 0
gene 3 6 7 -1.01985 0 44 -1.01985 1
gene 3 3 28 2.17489 0 59 2.17489 1
gene 3 28 6 1.73261 0 60 1.73261 1
gene 2 19 30 3.03006 0 68 3.03006 1
gene 2 30 6 -0.149496 0 69 -0.149496 1
genomeend 17

/* Organism #18 Fitness: 9 Error: 0 */
genomestart 18
trait 1 0.1 0 0 0 0 0 0 0 
trait 2 0.378878 0 0 0.0275003 0.115904 0 0 0 
trait 3 0.3 0.0892916 0 0.0142003 0 0 0 0.094224 
node 1 2 1 3
node 2 2 1 1
node 3 2 1 1
node 4 1 1 1
node 5 1 1 1
node 6 3 0 2
node 7 1 0 2
node 19 1 0 0
node 28 1 0 0
node 30 1 0 0
gene 3 1 6 3.31285 0 1 3.31285 1
gene 3 2 6 0.637305 0 2 0.637305 1
gene 3 3 6 -2.16991 0 3 -2.16991 0
gene 2 4 6 -2.62488 0 4 -2.62488 1
gene 2 5 6 -3.41091 0 5 -3.41091 0
gene 1 1 7 -3.87118 0 6 -3.87118 1
gene 3 2 7 2.5277 0 7 2.5277 1
gene 3 3 7 -0.476439 0 8 -0.476439 1
gene 2 4 7 -0.468691 0 9 -0.468691 1
gene 3 5 7 1.08649 0 10 1.08649 1
gene 2 5 19 1.00159 0 38 1.00159 1
gene 2 19 6 1.73801 0 39 1.73801 0
gene 3 6 7 1.75859 0 44 1.75859 1
gene 3 3 28 0.279099 0 59 0.279099 1
gene 3 28 6 -1.15556 0 60 -1.15556 1
gene 2 19 30 1.51977 0 68 1.51977 1
gene 2 30 6 -0.658454 0 69 -0.658454 1
genomeend 18

/* Organism #19 Fitness: 7 Error: 0 */
genomestart 19
trait 1 0.1 0 0 0 0 0 0 0 
trait 2 0.378878 0 0 0.0275003 0.115904 0 0 0 
trait 3 0.3 0.0892916 0 0.0142003 0 0 0 0.094224 
node 1 2 1 3
node 2 2 1 1
node 3 2 1 1
node 4 1 1 1
node 5 1 1 1
node 6 3 0 2
node 7 1 0 2
node 19 1 0 0
node 28 1 0 0
node 30 1 0 0
gene 3 1 6 2.42392 0 1 2.42392 1
gene 3 2 6 2.25127 0 2 2.25127 1
gene 3 3 6 1.19796 0 3 1.19796 0
gene 2 4 6 -2.39962 0 4 -2.39962 1
gene 2 5 6 -3.88716 0 5 -3.88716 0
gene 1 1 7 -2.63315 0 6 -2.63315 1
gene 3 2 7 2.84029 0 7 2.84029 1
gene 3 3 7 1.28365 0 8 1.28365 1
gene 2 4 7 2.51891 0 9 2.51891 1
gene 3 5 7 -0.118848 0 10 -0.118848 1
gene 2 5 19 1.40826 0 38 1.40826 1
gene 2 19 6 1.66919 0 39 1.66919 0
gene 3 6 7 -2.06254 0 44 -2.06254 1
gene 3 3 28 2.71508 0 59 2.71508 1
gene 3 28 6 -1.38892 0 60 -1.38892 1
gene 2 19 30 1 0 68 1 1
gene 2 30 6 0.193074 0 69 0.193074 1
genomeend 19

/* Organism #20 Fitness: 3 Error: 0 */
genomestart 20
trait 1 0.1 0 0 0 0 0 0 0 
trait 2 0.378878 0 0 0.0275003 0.115904 0 0 0 
trait 3 0.3 0.0892916 0 0.0142003 0 0 0 0.094224 
node 1 2 1 3
node 2 2 1 1
node 3 2 1 1
node 4 1 1 1
node 5 1 1 1
node 6 3 0 2
node 7 1 0 2
node 19 1 0 0
node 28 1 0 0
node 30 1 0 0
gene 3 1 6 -1.0168 0 1 -1.0168 1
gene 3 2 6 -0.801475 0 2 -0.801475 1
gene 3 3 6 -0.883363 0 3 -0.883363 0
gene 2 4 6 1.74329 0 4 1.74329 1
gene 2 5 6 -3.80427 0 5 -3.80427 0
gene 1 1 7 -0.250757 0 6 -0.250757 1
gene 3 2 7 0.443598 0 7 0.443598 1
gene 3 3 7 -0.954365 0 8 -0.954365 1
gene 2 4 7 -0.985695 0 9 -0.985695 1
gene 3 5 7 3.66171 0 10 3.66171 1
gene 3 5 19 1.06902 0 38 1.06902 1
gene 2 19 6 -0.149496 0 39 -0.149496 0
gene 3 6 7 -1.35882 0 44 -1.35882 1
gene 3 3 28 -1.18514 0 59 -1.18514 1
gene 3 28 6 -3.35826 0 60 -3.35826 1
gene 2 19 30 1.021 0 68 1.021 1
gene 2 30 6 2.05508 0 69 2.05508 1
genomeend 20

/* Organism #21 Fitness: 15 Error: 0 */
genomestart 21
trait 1 0.1 0 0 0 0 0 0 0 
trait 2 0.378878 0 0 0.0275003 0.115904 0 0 0 
trait 3 0.3 0.0892916 0 0.0142003 0 0 0 0.094224 
node 1 2 1 3
node 2 2 1 1
node 3 2 1 1
node 4 1 1 1
node 5 1 1 1
node 6 3 0 2
node 7 1 0 2
node 19 1 0 0
node 28 1 0 0
node 30 1 0 0
gene 3 1 6 1.43687 0 1 1.43687 1
gene 3 2 6 0.337809 0 2 0.337809 1
gene 3 3 6 -2.34317 0 3 -2.34317 0
gene 2 4 6 0.725975 0 4 0.725975 1
gene 2 5 6 -0.746976 0 5 -0.746976 0
gene 1 1 7 -1.6062 0 6 -1.6062 1
gene 3 2 7 3.02075 0 7 3.02075 1
gene 3 3 7 -2.33573 0 8 -2.33573 1
gene 2 4 7 -1.15779 0 9 -1.15779 1
gene 3 5 7 0.54058 0 10 0.54058 1
gene 2 5 19 3.2492 0 38 3.2492 1
gene 2 19 6 -0.0449063 0 39 -0.0449063 0
gene 3 6 7 -0.354465 0 44 -0.354465 1
gene 3 3 28 0.631687 0 59 0.631687 1
gene 3 28 6 -1.98347 0 60 -1.98347 1
gene 2 19 30 -1.40066 0 68 -1.40066 1
gene 2 30 6 2.23437 0 69 2.23437 1
genomeend 21

/* Organism #22 Fitness: 11 Error: 0 */
genomestart 22
trait 1 0.1 0 0 0 0 0 0 0 
trait 2 0.378878 0 0 0.0275003 0.115904 0 0 0 
trait 3 0.3 0.0892916 0 0.0142003 0 0 0 0.094224 
node 1 2 1 3
node 2 2 1 1
node 3 2 1 1
node 4 1 1 1
node 5 1 1 1
node 6 3 0 2
node 7 1 0 2
node 19 1 0 0
node 28 1 0 0
node 30 1 0 0
gene 3 1 6 -0.41617 0 1 -0.41617 1
gene 3 2 6 1.57259 0 2 1.57259 1
gene 3 3 6 -0.154692 0 3 -0.154692 0
gene 2 4 6 -2.22283 0 4 -2.22283 1
gene 2 5 6 -1.16616 0 5 -1.16616 0
gene 1 1 7 -2.88117 0 6 -2.88117 1
gene 3 2 7 2.01919 0 7 2.01919 1
gene 3 3 7 0.674091 0 8 0.674091 1
gene 2 4 7 1.4212 0 9 1.4212 1
gene 3 5 7 2.90164 0 10 2.90164 1
gene 2 5 19 4.95586 0 38 4.95586 1
gene 2 19 6 0.524708 0 39 0.524708 0
gene 3 6 7 -1.43915 0 44 -1.43915 1
gene 3 3 28 2.48685 0 59 2.48685 1
gene 3 28 6 -1.57732 0 60 -1.57732 1
gene 2 19 30 1 0 68 1 1
gene 2 30 6 0.988835 0 69 0.988835 1
genomeend 22

/* Organism #23 Fitness: 6 Error: 0 */
genomestart 23
trait 1 0.1 0 0 0 0 0 0 0 
trait 2 0.378878 0 0 0.0275003 0.115904 0 0 0 
trait 3 0.3 0.0892916 0 0.0142003 0 0 0 0.094224 
node 1 2 1 3
node 2 2 1 1
node 3 2 1 1
node 4 1 1 1
node 5 1 1 1
node 6 3 0 2
node 7 1 0 2
node 19 1 0 0
node 28 1 0 0
node 30 1 0 0
gene 3 1 6 2.66934 0 1 2.66934 1
gene 3 2 6 -1.31732 0 2 -1.31732 1
gene 3 3 6 -0.595751 0 3 -0.595751 0
gene 2 4 6 -0.981572 0 4 -0.981572 1
gene 2 5 6 -3.7622 0 5 -3.7622 0
gene 1 1 7 0.502934 0 6 0.502934 1
gene 3 2 7 1.41705 0 7 1.41705 1
gene 1 3 7 -2.52783 0 8 -2.52783 1
gene 2 4 7 -0.884131 0 9 -0.884131 1
gene 3 5 7 1.23349 0 10 1.23349 1
gene 2 5 19 3.77841 0 38 3.77841 1
gene 2 19 6 -0.149496 0 39 -0.149496 0
gene 3 6 7 0.0930999 0 44 0.0930999 1
gene 3 3 28 1.53978 0 59 1.53978 1
gene 3 28 6 -2.32637 0 60 -2.32637 1
gene 2 19 30 1.76171 0 68 1.76171 1
gene 2 30 6 -1.21562 0 69 -1.21562 1
genomeend 23

/* Organism #24 Fitness: 13 Error: 0 */
genomestart 24
trait 1 0.1 0 0 0 0 0 0 0 
trait 2 0.378878 0 0 0.0275003 0.115904 0 0 0 
trait 3 0.3 0.0892916 0 0.0142003 0 0 0 0.094224 
node 1 2 1 3
node 2 2 1 1
node 3 2 1 1
node 4 1 1 1
node 5 1 1 1
node 6 3 0 2
node 7 1 0 2
node 19 1 0 0
node 28 1 0 0
node 30 1 0 0
gene 3 1 6 3.54518 0 1 3.54518 1
gene 3 2 6 0.337809 0 2 0.337809 1
gene 3 3 6 -0.711255 0 3 -0.711255 0
gene 2 4 6 -3.36857 0 4 -3.36857 1
gene 2 5 6 -2.75046 0 5 -2.75046 0
gene 1 1 7 -1.6751 0 6 -1.6751 1
gene 3 2 7 -1.44628 0 7 -1.44628 1
gene 3 3 7 -2.205 0 8 -2.205 1
gene 2 4 7 1.15216 0 9 1.15216 1
gene 3 5 7 0.904231 0 10 0.904231 1
gene 2 5 19 3.2492 0 38 3.2492 1
gene 2 19 6 -0.45449 0 39 -0.45449 0
gene 3 6 7 -0.914138 0 44 -0.914138 1
gene 3 3 28 2.06307 0 59 2.06307 1
gene 3 28 6 -0.538368 0 60 -0.538368 1
gene 2 19 30 -2.27538 0 68 -2.27538 1
gene 2 30 6 -0.0709662 0 69 -0.0709662 1
genomeend 24

/* Organism #25 Fitness: 80 Error: 0 */
genomestart 25
trait 1 0.1 0 0 0 0 0 0 0 
trait 2 0.378878 0 0 0.0275003 0.115904 0 0 0 
trait 3 0.3 0.0892916 0 0.0142003 0 0 0 0.094224 
node 1 2 1 3
node 2 2 1 1
node 3 2 1 1
node 4 1 1 1
node 5 1 1 1
node 6 3 0 2
node 7 1 0 2
node 19 1 0 0
node 28 1 0 0
node 30 1 0 0
gene 3 1 6 1.37539 0 1 1.37539 1
gene 3 2 6 0.337809 0 2 0.337809 1
gene 3 3 6 -1.23772 0 3 -1.23772 0
gene 2 4 6 -1.11121 0 4 -1.11121 1
gene 2 5 6 -2.6419 0 5 -2.6419 0
gene 1 1 7 -1.6062 0 6 -1.6062 1
gene 3 2 7 0.666441 0 7 0.666441 1
gene 3 3 7 -0.646498 0 8 -0.646498 1
gene 2 4 7 1.20088 0 9 1.20088 1
gene 3 5 7 1.74528 0 10 1.74528 1
gene 2 5 19 3.2492 0 38 3.2492 1
gene 2 19 6 -0.149496 0 39 0 0
gene 3 6 7 -0.354465 0 44 -0.354465 1
gene 3 3 28 1 0 59 0 1
gene 3 28 6 -1.23772 0 60 0 1
gene 2 19 30 1 0 68 0 1
gene 2 30 6 -0.149496 0 69 0 1
genomeend 25

/* Organism #26 Fitness: 8 Error: 0 */
genomestart 26
trait 1 0.1 0 0 0 0 0 0 0 
trait 2 0.378878 0 0 0.0275003 0.115904 0 0 0 
trait 3 0.3 0.0892916 0 0.0142003 0 0 0 0.094224 
node 1 2 1 3
node 2 2 1 1
node 3 2 1 1
node 4 1 1 1
node 5 1 1 1
node 6 3 0 2
node 7 1 0 2
node 19 1 0 0
node 28 1 0 0
node 30 1 0 0
gene 3 1 6 1.63728 0 1 1.63728 1
gene 3 2 6 -0.670148 0 2 -0.670148 1
gene 3 3 6 -1.15857 0 3 -1.15857 0
gene 2 4 6 -2.33335 0 4 -2.33335 1
gene 2 5 6 -5.05457 0 5 -5.05457 0
gene 1 1 7 -3.34213 0 6 -3.34213 1
gene 3 2 7 2.31807 0 7 2.31807 1
gene 3 3 7 -1.73481 0 8 -1.73481 1
gene 2 4 7 0.713206 0 9 0.713206 1
gene 3 5 7 2.93548 0 10 2.93548 1
gene 2 5 19 0.88214 0 38 0.88214 1
gene 2 19 6 -1.53241 0 39 -1.53241 0
gene 3 6 7 0.995766 0 44 0.995766 1
gene 3 3 28 2.8808 0 59 2.8808 1
gene 3 28 6 -0.205293 0 60 -0.205293 1
gene 2 19 30 -0.973356 0 68 -0.973356 1
gene 2 30 6 -2.22448 0 69 -2.22448 1
genomeend 26

/* Organism #27 Fitness: 12 Error: 0 */
genomestart 27
trait 1 0.1 0 0 0 0 0 0 0 
trait 2 0.378878 0 0 0.0275003 0.115904 0 0 0 
trait 3 0.3 0.0892916 0 0.0142003 0 0 0 0.094224 
node 1 2 1 3
node 2 2 1 1
node 3 2 1 1
node 4 1 1 1
node 5 1 1 1
node 6 3 0 2
node 7 1 0 2
node 19 1 0 0
node 28 1 0 0
node 30 1 0 0
gene 3 1 6 -1.10337 0 1 -1.10337 1
gene 3 2 6 0.422484 0 2 0.422484 1
gene 3 3 6 -2.725 0 3 -2.725 0
gene 2 4 6 -3.17991 0 4 -3.17991 1
gene 2 5 6 -3.68815 0 5 -3.68815 0
gene 1 1 7 -1.43122 0 6 -1.43122 1
gene 3 2 7 2.61794 0 7 2.61794 1
gene 3 3 7 1.10831 0 8 1.10831 1
gene 2 4 7 -0.290548 0 9 -0.290548 1
gene 3 5 7 0.201567 0 10 0.201567 1
gene 2 5 19 2.9817 0 38 2.9817 1
gene 2 19 6 0.361264 0 39 0.361264 0
gene 3 6 7 0.53841 0 44 0.53841 1
gene 3 3 28 -1.02376 0 59 -1.02376 1
gene 3 28 6 -1.23772 0 60 -1.23772 1
gene 2 19 30 -0.886643 0 68 -0.886643 1
gene 2 30 6 -2.29032 0 69 -2.29032 1
genomeend 27

/* Organism #28 Fitness: 2 Error: 0 */
genomestart 28
trait 1 0.1 0 0 0 0 0 0 0 
trait 2 0.378878 0 0 0.0275003 0.115904 0 0 0 
trait 3 0.3 0.0892916 0 0.0142003 0 0 0 0.094224 
node 1 2 1 3
node 2 2 1 1
node 3 2 1 1
node 4 1 1 1
node 5 1 1 1
node 6 3 0 2
node 7 1 0 2
node 19 1 0 0
node 28 1 0 0
node 30 1 0 0
gene 3 1 6 0.604672 0 1 0.604672 1
gene 3 2 6 2.66553 0 2 2.66553 1
gene 3 3 6 0.970862 0 3 0.970862 0
gene 2 4 6 0.26991 0 4 0.26991 1
gene 2 5 6 -4.72439 0 5 -4.72439 0
gene 1 1 7 -2.03867 0 6 -2.03867 1
gene 3 2 7 1.89485 0 7 1.89485 1
gene 3 3 7 -1.62719 0 8 -1.62719 1
gene 2 4 7 -0.710659 0 9 -0.710659 1
gene 3 5 7 0.708119 0 10 0.708119 1
gene 2 5 19 3.79097 0 38 3.79097 1
gene 2 19 6 -1.26697 0 39 -1.26697 0
gene 3 6 7 -0.52032 0 44 -0.52032 1
gene 3 3 28 2.238 0 59 2.238 1
gene 3 28 6 -2.52313 0 60 -2.52313 1
gene 2 19 30 1.71945 0 68 1.71945 1
gene 2 30 6 -0.149496 0 69 -0.149496 1
genomeend 28

/* Organism #29 Fitness: 9 Error: 0 */
genomestart 29
trait 1 0.1 0 0 0 0 0 0 0 
trait 2 0.378878 0 0 0.0275003 0.115904 0 0 0 
trait 3 0.3 0.0892916 0 0.0142003 0 0 0 0.094224 
node 1 2 1 3
node 2 3 1 1
node 3 2 1 1
node 4 1 1 1
node 5 1 1 1
node 6 3 0 2
node 7 1 0 2
node 19 1 0 0
node 28 1 0 0
node 30 1 0 0
gene 3 1 6 3.10554 0 1 3.10554 1
gene 3 2 6 -0.620391 0 2 -0.620391 1
gene 3 3 6 -3.18088 0 3 -3.18088 0
gene 2 4 6 -0.176121 0 4 -0.176121 1
gene 2 5 6 -2.49675 0 5 -2.49675 0
gene 1 1 7 -4.05372 0 6 -4.05372 1
gene 3 2 7 -1.12084 0 7 -1.12084 1
gene 3 3 7 0.39874 0 8 0.39874 1
gene 2 4 7 3.0118 0 9 3.0118 1
gene 3 5 7 3.50036 0 10 3.50036 1
gene 2 5 19 5.72779 0 38 5.72779 1
gene 2 19 6 -0.359552 0 39 -0.359552 0
gene 3 6 7 -1.53176 0 44 -1.53176 1
gene 3 3 28 -0.0426954 0 59 -0.0426954 1
gene 3 28 6 -1.23772 0 60 -1.23772 1
gene 2 19 30 1.25367 0 68 1.25367 1
gene 2 30 6 1.78176 0 69 1.78176 1
genomeend 29

/* Organism #30 Fitness: 6 Error: 0 */
genomestart 30
trait 1 0.1 0 0 0 0 0 0 0 
trait 2 0.378878 0 0 0.0275003 0.115904 0 0 0 
trait 3 0.3 0.0892916 0 0.0142003 0 0 0 0.094224 
node 1 2 1 3
node 2 2 1 1
node 3 2 1 1
node 4 1 1 1
node 5 1 1 1
node 6 3 0 2
node 7 1 0 2
node 19 1 0 0
node 28 1 0 0
node 30 1 0 0
gene 3 1 6 -0.193221 0 1 -0.193221 1
gene 3 2 6 2.26163 0 2 2.26163 1
gene 3 3 6 -0.822419 0 3 -0.822419 0
gene 2 4 6 -0.43169 0 4 -0.43169 1
gene 2 5 6 -3.66096 0 5 -3.66096 0
gene 1 1 7 -0.151656 0 6 -0.151656 1
gene 3 2 7 0.666441 0 7 0.666441 1
gene 3 3 7 1.93767 0 8 1.93767 1
gene 2 4 7 2.32596 0 9 2.32596 1
gene 3 5 7 1.93812 0 10 1.93812 1
gene 2 5 19 1.47341 0 38 1.47341 1
gene 2 19 6 -0.149496 0 39 -0.149496 0
gene 3 6 7 2.47249 0 44 2.47249 1
gene 3 3 28 -0.189754 0 59 -0.189754 1
gene 3 28 6 -1.47471 0 60 -1.47471 1
gene 2 19 30 -1.03789 0 68 -1.03789 1
gene 2 30 6 0.620555 0 69 0.620555 1
genomeend 30

/* Organism #31 Fitness: 237 Error: 0 */
genomestart 31
trait 1 0.1 0 0 0 0 0 0 0 
trait 2 0.378878 0 0 0.0275003 0.115904 0 0 0 
trait 3 0.3 0.0892916 0 0.0142003 0 0 0 0.094224 
node 1 2 1 3
node 2 2 1 1
node 3 2 1 1
node 4 1 1 1
node 5 1 1 1
node 6 3 0 2
node 7 1 0 2
node 19 1 0 0
node 28 1 0 0
node 30 1 0 0
gene 3 1 6 1.37539 0 1 1.37539 1
gene 3 2 6 0.337809 0 2 0.337809 1
gene 3 3 6 -1.23772 0 3 -1.23772 0
gene 2 4 6 -1.11121 0 4 -1.11121 1
gene 2 5 6 -2.6419 0 5 -2.6419 0
gene 1 1 7 -1.6062 0 6 -1.6062 1
gene 3 2 7 0.666441 0 7 0.666441 1
gene 3 3 7 -0.646498 0 8 -0.646498 1
gene 2 4 7 1.20088 0 9 1.20088 1
gene 3 5 7 1.74528 0 10 1.74528 1
gene 2 5 19 3.2492 0 38 3.2492 1
gene 2 19 6 -0.149496 0 39 0 0
gene 3 6 7 -0.354465 0 44 -0.354465 1
gene 3 3 28 1 0 59 0 1
gene 3 28 6 -1.23772 0 60 0 1
gene 2 19 30 1 0 68 0 1
gene 2 30 6 -0.149496 0 69 0 1
genomeend 31

/* Organism #32 Fitness: 14 Error: 0 */
genomestart 32
trait 1 0.1 0 0 0 0 0 0 0 
trait 2 0.378878 0 0 0.0275003 0.115904 0 0 0 
trait 3 0.3 0.0892916 0 0.0142003 0 0 0 0.094224 
node 1 2 1 3
node 2 2 1 1
node 3 2 1 1
node 4 1 1 1
node 5 1 1 1
node 6 3 0 2
node 7 1 0 2
node 19 1 0 0
node 28 1 0 0
node 30 1 0 0
gene 3 1 6 2.70659 0 1 2.70659 1
gene 3 2 6 1.58617 0 2 1.58617 1
gene 3 3 6 -3.16392 0 3 -3.16392 0
gene 2 4 6 -1.8564 0 4 -1.8564 1
gene 2 5 6 -3.86468 0 5 -3.86468 0
gene 1 1 7 -0.960427 0 6 -0.960427 1
gene 3 2 7 -1.51921 0 7 -1.51921 1
gene 3 3 7 -2.93398 0 8 -2.93398 1
gene 2 4 7 2.29378 0 9 2.29378 1
gene 3 5 7 2.92954 0 10 2.92954 1
gene 2 5 19 3.54609 0 38 3.54609 1
gene 2 19 6 -2.09977 0 39 -2.09977 0
gene 3 6 7 -1.3359 0 44 -1.3359 1
gene 3 3 28 -0.0242297 0 59 -0.0242297 1
gene 3 28 6 -1.9476 0 60 -1.9476 1
gene 2 19 30 0.406588 0 68 0.406588 1
gene 2 30 6 -0.149496 0 69 -0.149496 1
genomeend 32

/* Organism #33 Fitness: 5 Error: 0 */
genomestart 33
trait 1 0.1 0 0 0 0 0 0 0 
trait 2 0.378878 0 0 0.0275003 0.115904 0 0 0 
trait 3 0.3 0.0892916 0 0.0142003 0 0 0 0.094224 
node 1 2 1 3
node 2 2 1 1
node 3 2 1 1
node 4 1 1 1
node 5 1 1 1
node 6 3 0 2
node 7 1 0 2
node 19 1 0 0
node 28 1 0 0
node 30 1 0 0
gene 3 1 6 1.37539 0 1 1.37539 1
gene 3 2 6 -0.136804 0 2 -0.136804 1
gene 3 3 6 0.00448851 0 3 0.00448851 0
gene 2 4 6 0.823163 0 4 0.823163 1
gene 2 5 6 -2.3068 0 5 -2.3068 0
gene 1 1 7 -2.13452 0 6 -2.13452 1
gene 3 2 7 0.719072 0 7 0.719072 1
gene 3 3 7 -3.10503 0 8 -3.10503 1
gene 2 4 7 0.991367 0 9 0.991367 1
gene 3 5 7 -0.575822 0 10 -0.575822 1
gene 2 5 19 5.44212 0 38 5.44212 1
gene 2 19 6 -0.603118 0 39 -0.603118 0
gene 3 6 7 0.566241 0 44 0.566241 1
gene 3 3 28 -1.41202 0 59 -1.41202 1
gene 3 28 6 0.875488 0 60 0.875488 1
gene 2 19 30 3.40782 0 68 3.40782 1
gene 2 30 6 -0.773263 0 69 -0.773263 1
genomeend 33

/* Organism #34 Fitness: 7 Error: 0 */
genomestart 34
trait 1 0.1 0 0 0 0 0 0 0 
trait 2 0.378878 0 0 0.0275003 0.115904 0 0 0 
trait 3 0.3 0.0892916 0 0.0142003 0 0 0 0.094224 
node 1 2 1 3
node 2 2 1 1
node 3 2 1 1
node 4 1 1 1
node 5 1 1 1
node 6 3 0 2
node 7 1 0 2
node 19 1 0 0
node 28 1 0 0
node 30 1 0 0
gene 3 1 6 1.63726 0 1 1.63726 1
gene 3 2 6 -1.12512 0 2 -1.12512 1
gene 3 3 6 1.01798 0 3 1.01798 0
gene 2 4 6 0.117562 0 4 0.117562 1
gene 2 5 6 -4.16165 0 5 -4.16165 0
gene 1 1 7 -2.57941 0 6 -2.57941 1
gene 3 2 7 -0.938857 0 7 -0.938857 1
gene 3 3 7 -1.26209 0 8 -1.26209 1
gene 2 4 7 1.27519 0 9 1.27519 1
gene 3 5 7 1.7145 0 10 1.7145 1
gene 2 5 19 2.22979 0 38 2.22979 1
gene 2 19 6 -2.44583 0 39 -2.44583 0
gene 3 6 7 -0.219458 0 44 -0.219458 1
gene 3 3 28 2.38772 0 59 2.38772 1
gene 3 28 6 -0.744705 0 60 -0.744705 1
gene 2 19 30 2.39735 0 68 2.39735 1
gene 2 30 6 2.40088 0 69 2.40088 1
genomeend 34

/* Organism #35 Fitness: 14 Error: 0 */
genomestart 35
trait 1 0.1 0 0 0 0 0 0 0 
trait 2 0.378878 0 0 0.0275003 0.115904 0 0 0 
trait 3 0.3 0.0892916 0 0.0142003 0 0 0 0.094224 
node 1 2 1 3
node 2 2 1 1
node 3 2 1 1
node 4 1 1 1
node 5 1 1 1
node 6 3 0 2
node 7 1 0 2
node 19 1 0 0
node 28 1 0 0
node 30 1 0 0
gene 3 1 6 -2.35198 0 1 -2.35198 1
gene 3 2 6 -1.16806 0 2 -1.16806 1
gene 3 3 6 -1.31959 0 3 -1.31959 0
gene 2 4 6 0.43686 0 4 0.43686 1
gene 2 5 6 -3.57297 0 5 -3.57297 0
gene 1 1 7 0.929669 0 6 0.929669 1
gene 3 2 7 -1.13929 0 7 -1.13929 1
gene 3 3 7 0.0943045 0 8 0.0943045 1
gene 2 4 7 -0.240019 0 9 -0.240019 1
gene 3 5 7 3.05217 0 10 3.05217 1
gene 2 5 19 4.17026 0 38 4.17026 1
gene 2 19 6 -0.149496 0 39 -0.149496 0
gene 3 6 7 -0.354465 0 44 -0.354465 1
gene 3 3 28 3.11013 0 59 3.11013 1
gene 3 28 6 -1.23772 0 60 -1.23772 1
gene 2 19 30 0.974922 0 68 0.974922 1
gene 2 30 6 -0.8321 0 69 -0.8321 1
genomeend 35

/* Organism #36 Fitness: 7 Error: 0 */
genomestart 36
trait 1 0.1 0 0 0 0 0 0 0 
trait 2 0.378878 0 0 0.0275003 0.115904 0 0 0 
trait 3 0.3 0.0892916 0 0.0142003 0 0 0 0.094224 
node 1 2 1 3
node 2 2 1 1
node 3 2 1 1
node 4 1 1 1
node 5 1 1 1
node 6 3 0 2
node 7 1 0 2
node 19 1 0 0
node 28 1 0 0
node 30 1 0 0
gene 3 1 6 1.62938 0 1 1.62938 1
gene 3 2 6 0.08696 0 2 0.08696 1
gene 3 3 6 0.444737 0 3 0.444737 0
gene 2 4 6 0.457691 0 4 0.457691 1
gene 2 5 6 -0.304813 0 5 -0.304813 0
gene 1 1 7 -0.162389 0 6 -0.162389 1
gene 3 2 7 -1.80408 0 7 -1.80408 1
gene 3 3 7 0.090536 0 8 0.090536 1
gene 2 4 7 1.7228 0 9 1.7228 1
gene 3 5 7 4.04198 0 10 4.04198 1
gene 2 5 19 5.46124 0 38 5.46124 1
gene 2 19 6 0.969149 0 39 0.969149 0
gene 3 6 7 -2.62562 0 44 -2.62562 1
gene 3 3 28 -1.22354 0 59 -1.22354 1
gene 3 28 6 -1.23772 0 60 -1.23772 1
gene 2 19 30 -0.280745 0 68 -0.280745 1
gene 2 30 6 0.296678 0 69 0.296678 1
genomeend 36

/* Organism #37 Fitness: 12 Error: 0 */
genomestart 37
trait 1 0.1 0 0 0 0 0 0 0 
trait 2 0.378878 0 0 0.0275003 0.115904 0 0 0 
trait 3 0.3 0.0892916 0 0.0142003 0 0 0 0.094224 
node 1 2 1 3
node 2 2 1 1
node 3 2 1 1
node 4 1 1 1
node 5 1 1 1
node 6 3 0 2
node 7 1 0 2
node 19 1 0 0
node 28 1 0 0
node 30 1 0 0
gene 3 1 6 3.69777 0 1 3.69777 1
gene 3 2 6 1.11593 0 2 1.11593 1
gene 3 3 6 -1.72618 0 3 -1.72618 0
gene 2 4 6 -0.345706 0 4 -0.345706 1
gene 2 5 6 0.911609 0 5 0.911609 0
gene 1 1 7 -1.79475 0 6 -1.79475 1
gene 3 2 7 -1.16892 0 7 -1.16892 1
gene 3 3 7 -2.27603 0 8 -2.27603 1
gene 2 4 7 -2.17707 0 9 -2.17707 1
gene 3 5 7 4.18191 0 10 4.18191 1
gene 2 5 19 1.77205 0 38 1.77205 1
gene 2 19 6 -0.911431 0 39 -0.911431 0
gene 3 6 7 -1.30532 0 44 -1.30532 1
gene 3 3 28 -0.572257 0 59 -0.572257 1
gene 3 28 6 -2.77097 0 60 -2.77097 1
gene 2 19 30 -0.774989 0 68 -0.774989 1
gene 2 30 6 -0.149496 0 69 -0.149496 1
genomeend 37

/* Organism #38 Fitness: 10 Error: 0 */
genomestart 38
trait 1 0.1 0 0 0 0 0 0 0 
trait 2 0.378878 0 0 0.0275003 0.115904 0 0 0 
trait 3 0.3 0.0892916 0 0.0142003 0 0 0 0.094224 
node 1 2 1 3
node 2 2 1 1
node 3 2 1 1
node 4 1 1 1
node 5 1 1 1
node 6 3 0 2
node 7 1 0 2
node 19 1 0 0
node 28 1 0 0
node 30 1 0 0
gene 3 1 6 0.0134178 0 1 0.0134178 1
gene 3 2 6 1.59787 0 2 1.59787 1
gene 3 3 6 0.408885 0 3 0.408885 0
gene 2 4 6 -0.298661 0 4 -0.298661 1
gene 2 5 6 -2.36232 0 5 -2.36232 0
gene 1 1 7 -2.82694 0 6 -2.82694 1
gene 3 2 7 -0.58162 0 7 -0.58162 1
gene 3 3 7 -1.05142 0 8 -1.05142 1
gene 2 4 7 2.93974 0 9 2.93974 1
gene 3 5 7 1.23585 0 10 1.23585 1
gene 2 5 19 -0.757138 0 38 -0.757138 1
gene 2 19 6 -1.91628 0 39 -1.91628 0
gene 3 6 7 -1.93622 0 44 -1.93622 1
gene 3 3 28 1.46899 0 59 1.46899 1
gene 3 28 6 -0.348255 0 60 -0.348255 1
gene 2 19 30 0.415062 0 68 0.415062 1
gene 2 30 6 -0.392803 0 69 -0.392803 1
genomeend 38

/* Organism #39 Fitness: 304 Error: 0 */
genomestart 39
trait 1 0.1 0 0 0 0 0 0 0 
trait 2 0.378878 0 0 0.0275003 0.115904 0 0 0 
trait 3 0.3 0.0892916 0 0.0142003 0 0 0 0.094224 
node 1 2 1 3
node 2 2 1 1
node 3 2 1 1
node 4 1 1 1
node 5 1 1 1
node 6 3 0 2
node 7 1 0 2
node 19 1 0 0
node 28 1 0 0
node 30 1 0 0
gene 3 1 6 1.16338 0 1 1.16338 1
gene 3 2 6 0.684473 0 2 0.684473 1
gene 3 3 6 -1.35129 0 3 -1.35129 0
gene 2 4 6 -0.643143 0 4 -0.643143 1
gene 2 5 6 -2.67527 0 5 -2.67527 0
gene 1 1 7 -0.45349 0 6 -0.45349 1
gene 3 2 7 0.311311 0 7 0.311311 1
gene 3 3 7 1.21318 0 8 1.21318 1
gene 2 4 7 -0.187386 0 9 -0.187386 1
gene 3 5 7 2.98001 0 10 2.98001 1
gene 2 5 19 2.8147 0 38 2.8147 1
gene 2 19 6 -1.69526 0 39 -1.69526 0
gene 3 6 7 0.458649 0 44 0.458649 1
gene 3 3 28 -0.231782 0 59 -0.231782 1
gene 3 28 6 -1.23772 0 60 -1.23772 1
gene 2 19 30 3.47826 0 68 3.47826 1
gene 2 30 6 1.80766 0 69 1.80766 1
genomeend 39

/* Organism #40 Fitness: 6 Error: 0 */
genomestart 40
trait 1 0.1 0 0 0 0 0 0 0 
trait 2 0.378878 0 0 0.0275003 0.115904 0 0 0 
trait 3 0.3 0.0892916 0 0.0142003 0 0 0 0.094224 
node 1 2 1 3
node 2 2 1 1
node 3 1 1 1
node 4 1 1 1
node 5 1 1 1
node 6 3 0 2
node 7 1 0 2
node 19 1 0 0
node 28 1 0 0
node 30 1 0 0
gene 3 1 6 1.52847 0 1 1.52847 1
gene 3 2 6 -0.593077 0 2 -0.593077 1
gene 3 3 6 0.0564612 0 3 0.0564612 0
gene 2 4 6 -2.9173 0 4 -2.9173 1
gene 2 5 6 -0.299918 0 5 -0.299918 0
gene 1 1 7 -0.97192 0 6 -0.97192 1
gene 3 2 7 0.342725 0 7 0.342725 1
gene 3 3 7 0.29199 0 8 0.29199 1
gene 2 4 7 2.86902 0 9 2.86902 1
gene 3 5 7 0.849617 0 10 0.849617 1
gene 2 5 19 2.59444 0 38 2.59444 1
gene 2 19 6 0.341852 0 39 0.341852 0
gene 3 6 7 1.40201 0 44 1.40201 1
gene 3 3 28 2.23254 0 59 2.23254 1
gene 3 28 6 -1.23772 0 60 -1.23772 1
gene 2 19 30 0.482822 0 68 0.482822 1
gene 2 30 6 -0.149496 0 69 -0.149496 1
genomeend 40

/* Organism #41 Fitness: 10 Error: 0 */
genomestart 41
trait 1 0.1 0 0 0 0 0 0 0 
trait 2 0.378878 0 0 0.0275003 0.115904 0 0 0 
trait 3 0.3 0.0892916 0 0.0142003 0 0 0 0.094224 
node 1 2 1 3
node 2 2 1 1
node 3 2 1 1
node 4 1 1 1
node 5 1 1 1
node 6 3 0 2
node 7 1 0 2
node 19 1 0 0
node 28 1 0 0
node 30 1 0 0
gene 3 1 6 2.68087 0 1 2.68087 1
gene 3 2 6 -1.46759 0 2 -1.46759 1
gene 3 3 6 -1.11194 0 3 -1.11194 0
gene 2 4 6 -3.18217 0 4 -3.18217 1
gene 2 5 6 -4.94725 0 5 -4.94725 0
gene 2 1 7 -2.71182 0 6 -2.71182 1
gene 3 2 7 -0.492978 0 7 -0.492978 1
gene 3 3 7 -2.21373 0 8 -2.21373 1
gene 2 4 7 2.8495 0 9 2.8495 1
gene 3 5 7 0.646836 0 10 0.646836 1
gene 2 5 19 3.29522 0 38 3.29522 1
gene 2 19 6 -2.53453 0 39 -2.53453 0
gene 3 6 7 -1.8862 0 44 -1.8862 1
gene 3 3 28 -0.155317 0 59 -0.155317 1
gene 3 28 6 -3.55246 0 60 -3.55246 1
gene 2 19 30 1 0 68 1 1
gene 2 30 6 -1.50504 0 69 -1.50504 1
genomeend 41

/* Organism #42 Fitness: 698 Error: 0 */
genomestart 42
trait 1 0.1 0 0 0 0 0 0 0 
trait 2 0.378878 0 0 0.0275003 0.115904 0 0 0 
trait 3 0.3 0.0892916 0 0.0142003 0 0 0 0.094224 
node 1 2 1 3
node 2 2 1 1
node 3 2 1 1
node 4 1 1 1
node 5 1 1 1
node 6 3 0 2
node 7 1 0 2
node 19 1 0 0
node 28 1 0 0
node 30 1 0 0
gene 3 1 6 1.37539 0 1 1.37539 1
gene 3 2 6 0.337809 0 2 0.337809 1
gene 3 3 6 -1.23772 0 3 -1.23772 0
gene 2 4 6 -1.11121 0 4 -1.11121 1
gene 2 5 6 -2.6419 0 5 -2.6419 0
gene 1 1 7 -1.6062 0 6 -1.6062 1
gene 3 2 7 0.666441 0 7 0.666441 1
gene 3 3 7 -0.646498 0 8 -0.646498 1
gene 2 4 7 1.20088 0 9 1.20088 1
gene 3 5 7 1.74528 0 10 1.74528 1
gene 2 5 19 3.2492 0 38 3.2492 1
gene 2 19 6 -0.149496 0 39 0 0
gene 3 6 7 -0.354465 0 44 -0.354465 1
gene 3 3 28 1 0 59 0 1
gene 3 28 6 -1.23772 0 60 0 1
gene 2 19 30 1 0 68 0 1
gene 2 30 6 -0.149496 0 69 0 1
genomeend 42

/* Organism #43 Fitness: 7 Error: 0 */
genomestart 43
trait 1 0.1 0 0 0 0 0 0 0 
trait 2 0.378878 0 0 0.0275003 0.115904 0 0 0 
trait 3 0.3 0.0892916 0 0.0142003 0 0 0 0.094224 
node 1 2 1 3
node 2 2 1 1
node 3 2 1 1
node 4 1 1 1
node 5 1 1 1
node 6 3 0 2
node 7 1 0 2
node 19 1 0 0
node 28 1 0 0
node 30 1 0 0
gene 3 1 6 1.37539 0 1 1.37539 1
gene 3 2 6 -0.985571 0 2 -0.985571 1
gene 3 3 6 -2.43287 0 3 -2.43287 0
gene 2 4 6 -1.72898 0 4 -1.72898 1
gene 2 5 6 -1.82758 0 5 -1.82758 0
gene 1 1 7 -2.6631 0 6 -2.6631 1
gene 3 2 7 1.5829 0 7 1.5829 1
gene 3 3 7 -0.554384 0 8 -0.554384 1
gene 2 4 7 -0.940918 0 9 -0.940918 1
gene 3 5 7 1.74528 0 10 1.74528 1
gene 2 5 19 0.866532 0 38 0.866532 1
gene 2 19 6 0.0499003 0 39 0.0499003 0
gene 3 6 7 -1.39177 0 44 -1.39177 1
gene 3 3 28 1 0 59 1 1
gene 3 28 6 -0.324324 0 60 -0.324324 1
gene 2 19 30 3.27426 0 68 3.27426 1
gene 2 30 6 -1.85894 0 69 -1.85894 1
genomeend 43

/* Organism #44 Fitness: 5 Error: 0 */
genomestart 44
trait 1 0.1 0 0 0 0 0 0 0 
trait 2 0.378878 0 0 0.0275003 0.115904 0 0 0 
trait 3 0.3 0.0892916 0 0.0142003 0 0 0 0.094224 
node 1 2 1 3
node 2 2 1 1
node 3 2 1 1
node 4 1 1 1
node 5 1 1 1
node 6 3 0 2
node 7 1 0 2
node 19 1 0 0
node 28 1 0 0
node 30 1 0 0
gene 3 1 6 -0.738375 0 1 -0.738375 1
gene 3 2 6 1.03012 0 2 1.03012 1
gene 3 3 6 -0.236181 0 3 -0.236181 0
gene 2 4 6 0.502742 0 4 0.502742 1
gene 2 5 6 -2.01766 0 5 -2.01766 0
gene 1 1 7 -1.03865 0 6 -1.03865 1
gene 3 2 7 2.3292 0 7 2.3292 1
gene 3 3 7 0.265783 0 8 0.265783 1
gene 2 4 7 -0.184363 0 9 -0.184363 1
gene 3 5 7 -0.345765 0 10 -0.345765 1
gene 2 5 19 3.76697 0 38 3.76697 1
gene 2 19 6 -2.03759 0 39 -2.03759 0
gene 3 6 7 -0.260169 0 44 -0.260169 1
gene 3 3 28 -1.46257 0 59 -1.46257 1
gene 3 28 6 0.387599 0 60 0.387599 1
gene 2 19 30 1.87941 0 68 1.87941 1
gene 2 30 6 -0.149496 0 69 -0.149496 1
genomeend 44

/* Organism #45 Fitness: 25 Error: 0 */
genomestart 45
trait 1 0.1 0 0 0 0 0 0 0 
trait 2 0.378878 0 0 0.0275003 0.115904 0 0 0 
trait 3 0.3 0.0892916 0 0.0142003 0 0 0 0.094224 
node 1 2 1 3
node 2 2 1 1
node 3 2 1 1
node 4 1 1 1
node 5 1 1 1
node 6 3 0 2
node 7 1 0 2
node 19 1 0 0
node 28 1 0 0
node 30 1 0 0
gene 3 1 6 0.935129 0 1 0.935129 1
gene 3 2 6 -0.1189 0 2 -0.1189 1
gene 3 3 6 -2.95418 0 3 -2.95418 0
gene 2 4 6 -0.369487 0 4 -0.369487 1
gene 2 5 6 -1.1816 0 5 -1.1816 0
gene 1 1 7 0.160796 0 6 0.160796 1
gene 3 2 7 -0.969991 0 7 -0.969991 1
gene 3 3 7 -1.99335 0 8 -1.99335 1
gene 2 4 7 2.00186 0 9 2.00186 1
gene 3 5 7 3.59596 0 10 3.59596 1
gene 2 5 19 5.37483 0 38 5.37483 1
gene 2 19 6 1.48547 0 39 1.48547 0
gene 3 6 7 1.87799 0 44 1.87799 1
gene 3 3 28 3.13261 0 59 3.13261 1
gene 3 28 6 0.0313145 0 60 0.0313145 1
gene 2 19 30 -1.37126 0 68 -1.37126 1
gene 2 30 6 -0.149496 0 69 -0.149496 1
genomeend 45

/* Organism #46 Fitness: 2 Error: 0 */
genomestart 46
trait 1 0.1 0 0 0 0 0 0 0 
trait 2 0.378878 0 0 0.0275003 0.115904 0 0 0 
trait 3 0.3 0.0892916 0 0.0142003 0 0 0 0.094224 
node 1 2 1 3
node 2 2 1 1
node 3 2 1 1
node 4 1 1 1
node 5 1 1 1
node 6 3 0 2
node 7 1 0 2
node 19 1 0 0
node 28 1 0 0
node 30 1 0 0
gene 3 1 6 0.349118 0 1 0.349118 1
gene 3 2 6 -0.597433 0 2 -0.597433 1
gene 3 3 6 0.173679 0 3 0.173679 0
gene 2 4 6 -3.10771 0 4 -3.10771 1
gene 2 5 6 -1.90019 0 5 -1.90019 0
gene 1 1 7 -3.5881 0 6 -3.5881 1
gene 3 2 7 -1.54696 0 7 -1.54696 1
gene 3 3 7 -2.65973 0 8 -2.65973 1
gene 2 4 7 3.28287 0 9 3.28287 1
gene 3 5 7 3.46448 0 10 3.46448 1
gene 2 5 19 3.46783 0 38 3.46783 1
gene 2 19 6 -1.27961 0 39 -1.27961 0
gene 3 6 7 -0.945618 0 44 -0.945618 1
gene 3 3 28 1.18052 0 59 1.18052 1
gene 3 28 6 -1.23772 0 60 -1.23772 1
gene 2 19 30 1 0 68 1 1
gene 2 30 6 0.921159 0 69 0.921159 1
genomeend 46

/* Organism #47 Fitness: 9 Error: 0 */
genomestart 47
trait 1 0.1 0 0 0 0 0 0 0 
trait 2 0.378878 0 0 0.0275003 0.115904 0 0 0 
trait 3 0.3 0.0892916 0 0.0142003 0 0 0 0.094224 
node 1 2 1 3
node 2 2 1 1
node 3 2 1 1
node 4 1 1 1
node 5 1 1 1
node 6 3 0 2
node 7 1 0 2
node 19 1 0 0
node 28 1 0 0
node 30 1 0 0
gene 3 1 6 -0.547679 0 1 -0.547679 1
gene 3 2 6 1.83278 0 2 1.83278 1
gene 3 3 6 -2.75006 0 3 -2.75006 0
gene 2 4 6 -3.34958 0 4 -3.34958 1
gene 2 5 6 -3.89495 0 5 -3.89495 0
gene 1 1 7 -1.92703 0 6 -1.92703 1
gene 3 2 7 0.924357 0 7 0.924357 1
gene 3 3 7 1.49466 0 8 1.49466 1
gene 2 4 7 2.64313 0 9 2.64313 1
gene 3 5 7 0.242951 0 10 0.242951 1
gene 2 5 19 2.83286 0 38 2.83286 1
gene 2 19 6 1.36452 0 39 1.36452 0
gene 3 6 7 -1.32265 0 44 -1.32265 1
gene 3 3 28 0.385935 0 59 0.385935 1
gene 3 28 6 -0.365743 0 60 -0.365743 1
gene 2 19 30 0.149674 0 68 0.149674 1
gene 2 30 6 -0.149496 0 69 -0.149496 1
genomeend 47

/* Organism #48 Fitness: 13 Error: 0 */
genomestart 48
trait 1 0.1 0 0 0 0 0 0 0 
trait 2 0.378878 0 0 0.0275003 0.115904 0 0 0 
trait 3 0.3 0.0892916 0 0.0142003 0 0 0 0.094224 
node 1 2 1 3
node 2 2 1 1
node 3 2 1 1
node 4 1 1 1
node 5 1 1 1
node 6 3 0 2
node 7 1 0 2
node 19 1 0 0
node 28 1 0 0
node 30 1 0 0
gene 3 1 6 -1.9828 0 1 -1.9828 1
gene 3 2 6 -0.434 0 2 -0.434 1
gene 3 3 6 -1.74963 0 3 -1.74963 0
gene 2 4 6 -3.16319 0 4 -3.16319 1
gene 2 5 6 -1.68581 0 5 -1.68581 0
gene 1 1 7 -1.6062 0 6 -1.6062 1
gene 3 2 7 0.666441 0 7 0.666441 1
gene 3 3 7 -2.48233 0 8 -2.48233 1
gene 2 4 7 -0.35986 0 9 -0.35986 1
gene 3 5 7 1.74528 0 10 1.74528 1
gene 2 5 19 2.73655 0 38 2.73655 1
gene 2 19 6 2.35746 0 39 2.35746 0
gene 3 6 7 -2.44474 0 44 -2.44474 1
gene 3 3 28 -0.928775 0 59 -0.928775 1
gene 3 28 6 -2.25185 0 60 -2.25185 1
gene 2 19 30 1 0 68 1 1
gene 2 30 6 1.04698 0 69 1.04698 1
genomeend 48

/* Organism #49 Fitness: 3 Error: 0 */
genomestart 49
trait 1 0.1 0 0 0 0 0 0 0 
trait 2 0.378878 0 0 0.0275003 0.115904 0 0 0 
trait 3 0.3 0.0892916 0 0.0142003 0 0 0 0.094224 
node 1 2 1 3
node 2 2 1 1
node 3 2 1 1
node 4 1 1 1
node 5 1 1 1
node 6 3 0 2
node 7 1 0 2
node 19 1 0 0
node 28 1 0 0
node 30 1 0 0
gene 3 1 6 -0.544295 0 1 -0.544295 1
gene 3 2 6 -0.488643 0 2 -0.488643 1
gene 3 3 6 -0.65442 0 3 -0.65442 0
gene 2 4 6 -0.890263 0 4 -0.890263 1
gene 2 5 6 -2.26552 0 5 -2.26552 0
gene 1 1 7 -0.33571 0 6 -0.33571 1
gene 3 2 7 1.26643 0 7 1.26643 1
gene 3 3 7 0.568168 0 8 0.568168 1
gene 2 4 7 2.16526 0 9 2.16526 1
gene 3 5 7 -0.0546937 0 10 -0.0546937 1
gene 2 5 19 5.34049 0 38 5.34049 1
gene 2 19 6 -0.644807 0 39 -0.644807 0
gene 3 6 7 -0.669198 0 44 -0.669198 1
gene 3 3 28 1.92515 0 59 1.92515 1
gene 3 28 6 -1.23772 0 60 -1.23772 1
gene 2 19 30 2.85894 0 68 2.85894 1
gene 2 30 6 -1.56561 0 69 -1.56561 1
genomeend 49

/* Organism #50 Fitness: 2 Error: 0 */
genomestart 50
trait 1 0.1 0 0 0 0 0 0 0 
trait 2 0.378878 0 0 0.0275003 0.115904 0 0 0 
trait 3 0.3 0.0892916 0 0.0142003 0 0 0 0.094224 
node 1 2 1 3
node 2 2 1 1
node 3 2 1 1
node 4 1 1 1
node 5 1 1 1
node 6 3 0 2
node 7 1 0 2
node 19 1 0 0
node 28 1 0 0
node 30 1 0 0
gene 3 1 6 1.37539 0 1 1.37539 1
gene 3 2 6 0.337809 0 2 0.337809 1
gene 3 3 6 -1.23772 0 3 -1.23772 0
gene 2 4 6 -1.11121 0 4 -1.11121 1
gene 2 5 6 -2.6419 0 5 -2.6419 0
gene 1 1 7 -1.6062 0 6 -1.6062 1
gene 3 2 7 0.666441 0 7 0.666441 1
gene 3 3 7 -0.646498 0 8 -0.646498 1
gene 2 4 7 1.20088 0 9 1.20088 1
gene 3 5 7 1.74528 0 10 1.74528 1
gene 2 5 19 3.2492 0 38 3.2492 1
gene 2 19 6 -0.149496 0 39 0 0
gene 3 6 7 -0.354465 0 44 -0.354465 1
gene 3 3 28 1 0 59 0 1
gene 3 28 6 -1.23772 0 60 0 1
gene 2 19 30 1 0 68 0 1
gene 2 30 6 -0.149496 0 69 0 1
genomeend 50

/* Organism #51 Fitness: 12 Error: 0 */
genomestart 51
trait 1 0.1 0 0 0 0 0 0 0 
trait 2 0.378878 0 0 0.0275003 0.115904 0 0 0 
trait 3 0.3 0.0892916 0 0.0142003 0 0 0 0.094224 
node 1 2 1 3
node 2 2 1 1
node 3 2 1 1
node 4 1 1 1
node 5 1 1 1
node 6 3 0 2
node 7 1 0 2
node 19 1 0 0
node 28 1 0 0
node 30 1 0 0
gene 3 1 6 -0.835879 0 1 -0.835879 1
gene 3 2 6 1.22533 0 2 1.22533 1
gene 3 3 6 -2.46707 0 3 -2.46707 0
gene 2 4 6 -1.8136 0 4 -1.8136 1
gene 2 5 6 -4.62158 0 5 -4.62158 0
gene 1 1 7 -3.70594 0 6 -3.70594 1
gene 3 2 7 2.88537 0 7 2.88537 1
gene 3 3 7 -2.57665 0 8 -2.57665 1
gene 2 4 7 2.88121 0 9 2.88121 1
gene 3 5 7 3.59506 0 10 3.59506 1
gene 2 5 19 5.39152 0 38 5.39152 1
gene 2 19 6 -1.66098 0 39 -1.66098 0
gene 3 6 7 -0.984342 0 44 -0.984342 1
gene 3 3 28 -0.739859 0 59 -0.739859 1
gene 3 28 6 -1.23772 0 60 -1.23772 1
gene 2 19 30 1.66333 0 68 1.66333 1
gene 2 30 6 -1.07159 0 69 -1.07159 1
genomeend 51

/* Organism #52 Fitness: 7 Error: 0 */
genomestart 52
trait 1 0.1 0 0 0 0 0 0 0 
trait 2 0.378878 0 0 0.0275003 0.115904 0 0 0 
trait 3 0.3 0.0892916 0 0.0142003 0 0 0 0.094224 
node 1 2 1 3
node 2 2 1 1
node 3 2 1 1
node 4 1 1 1
node 5 1 1 1
node 6 3 0 2
node 7 1 0 2
node 19 1 0 0
node 28 1 0 0
node 30 1 0 0
gene 3 1 6 1.37539 0 1 1.37539 1
gene 3 2 6 0.337809 0 2 0.337809 1
gene 3 3 6 -1.23772 0 3 -1.23772 0
gene 2 4 6 -1.11121 0 4 -1.11121 1
gene 2 5 6 -2.6419 0 5 -2.6419 0
gene 1 1 7 -1.6062 0 6 -1.6062 1
gene 3 2 7 0.666441 0 7 0.666441 1
gene 3 3 7 -0.646498 0 8 -0.646498 1
gene 2 4 7 1.20088 0 9 1.20088 1
gene 3 5 7 1.74528 0 10 1.74528 1
gene 2 5 19 3.2492 0 38 3.2492 1
gene 2 19 6 -0.149496 0 39 0 0
gene 3 6 7 -0.354465 0 44 -0.354465 1
gene 3 3 28 1 0 59 0 1
gene 3 28 6 -1.23772 0 60 0 1
gene 2 19 30 1 0 68 0 1
gene 2 30 6 -0.149496 0 69 0 1
genomeend 52

/* Organism #53 Fitness: 3 Error: 0 */
genomestart 53
trait 1 0.1 0 0 0 0 0 0 0 
trait 2 0.378878 0 0 0.0275003 0.115904 0 0 0 
trait 3 0.3 0.0892916 0 0.0142003 0 0 0 0.094224 
node 1 2 1 3
node 2 1 1 1
node 3 2 1 1
node 4 1 1 1
node 5 1 1 1
node 6 3 0 2
node 7 1 0 2
node 19 1 0 0
node 28 1 0 0
node 30 1 0 0
gene 3 1 6 2.39536 0 1 2.39536 1
gene 3 2 6 -1.98029 0 2 -1.98029 1
gene 3 3 6 -2.61998 0 3 -2.61998 0
gene 2 4 6 -2.26925 0 4 -2.26925 1
gene 2 5 6 -4.77368 0 5 -4.77368 0
gene 1 1 7 -1.35836 0 6 -1.35836 1
gene 3 2 7 0.666441 0 7 0.666441 1
gene 3 3 7 -0.646498 0 8 -0.646498 1
gene 2 4 7 -1.92825 0 9 -1.92825 1
gene 3 5 7 1.98385 0 10 1.98385 1
gene 2 5 19 3.2415 0 38 3.2415 1
gene 2 19 6 -0.589637 0 39 -0.589637 0
gene 3 6 7 -2.14915 0 44 -2.14915 1
gene 3 3 28 0.697555 0 59 0.697555 1
gene 3 28 6 -1.55093 0 60 -1.55093 1
gene 2 19 30 3.40608 0 68 3.40608 1
gene 2 30 6 0.791087 0 69 0.791087 1
genomeend 53

/* Organism #54 Fitness: 5 Error: 0 */
genomestart 54
trait 1 0.1 0 0 0 0 0 0 0 
trait 2 0.378878 0 0 0.0275003 0.115904 0 0 0 
trait 3 0.3 0.0892916 0 0.0142003 0 0 0 0.094224 
node 1 2 1 3
node 2 2 1 1
node 3 2 1 1
node 4 1 1 1
node 5 1 1 1
node 6 3 0 2
node 7 1 0 2
node 19 1 0 0
node 28 1 0 0
node 30 1 0 0
gene 3 1 6 0.791668 0 1 0.791668 1
gene 3 2 6 0.0472827 0 2 0.0472827 1
gene 3 3 6 -0.508622 0 3 -0.508622 0
gene 2 4 6 -1.1125 0 4 -1.1125 1
gene 2 5 6 -1.03856 0 5 -1.03856 0
gene 1 1 7 -2.1216 0 6 -2.1216 1
gene 3 2 7 1.80299 0 7 1.80299 1
gene 3 3 7 0.259066 0 8 0.259066 1
gene 2 4 7 0.776508 0 9 0.776508 1
gene 3 5 7 2.35982 0 10 2.35982 1
gene 2 5 19 3.14416 0 38 3.14416 1
gene 2 19 6 0.376802 0 39 0.376802 0
gene 3 6 7 -2.7392 0 44 -2.7392 1
gene 3 3 28 0.206926 0 59 0.206926 1
gene 3 28 6 -1.23772 0 60 -1.23772 1
gene 2 19 30 -2.1114 0 68 -2.1114 1
gene 2 30 6 -0.149496 0 69 -0.149496 1
genomeend 54

/* Organism #55 Fitness: 84 Error: 0 */
genomestart 55
trait 1 0.1 0 0 0 0 0 0 0 
trait 2 0.378878 0 0 0.0275003 0.115904 0 0 0 
trait 3 0.3 0.0892916 0 0.0142003 0 0 0 0.094224 
node 1 2 1 3
node 2 2 1 1
node 3 2 1 1
node 4 1 1 1
node 5 1 1 1
node 6 3 0 2
node 7 1 0 2
node 19 1 0 0
node 28 1 0 0
node 30 1 0 0
gene 3 1 6 0.291246 0 1 0.291246 1
gene 3 2 6 -1.04884 0 2 -1.04884 1
gene 3 3 6 -3.35311 0 3 -3.35311 0
gene 2 4 6 -1.30296 0 4 -1.30296 1
gene 2 5 6 -0.505998 0 5 -0.505998 0
gene 1 1 7 0.0116672 0 6 0.0116672 1
gene 3 2 7 -1.64135 0 7 -1.64135 1
gene 3 3 7 -1.89603 0 8 -1.89603 1
gene 2 4 7 2.96746 0 9 2.96746 1
gene 3 5 7 1.35969 0 10 1.35969 1
gene 2 5 19 5.51471 0 38 5.51471 1
gene 2 19 6 -0.81253 0 39 -0.81253 0
gene 3 6 7 0.94082 0 44 0.94082 1
gene 3 3 28 3.17845 0 59 3.17845 1
gene 3 28 6 0.748518 0 60 0.748518 1
gene 2 19 30 1 0 68 1 1
gene 2 30 6 2.04111 0 69 2.04111 1
genomeend 55

/* Organism #56 Fitness: 17 Error: 0 */
genomestart 56
trait 1 0.1 0 0 0 0 0 0 0 
trait 2 0.378878 0 0 0.0275003 0.115904 0 0 0 
trait 3 0.3 0.0892916 0 0.0142003 0 0 0 0.094224 
node 1 2 1 3
node 2 2 1 1
node 3 2 1 1
node 4 1 1 1
node 5 1 1 1
node 6 3 0 2
node 7 1 0 2
node 19 2 0 0
node 28 1 0 0
node 30 1 0 0
gene 3 1 6 0.098099 0 1 0.098099 1
gene 3 2 6 0.424368 0 2 0.424368 1
gene 3 3 6 -0.465056 0 3 -0.465056 0
gene 2 4 6 -2.31809 0 4 -2.31809 1
gene 2 5 6 -4.80859 0 5 -4.80859 0
gene 1 1 7 0.710428 0 6 0.710428 1
gene 3 2 7 2.95619 0 7 2.95619 1
gene 3 3 7 1.72695 0 8 1.72695 1
gene 2 4 7 -0.166673 0 9 -0.166673 1
gene 3 5 7 1.70871 0 10 1.70871 1
gene 2 5 19 4.33716 0 38 4.33716 1
gene 2 19 6 -0.982612 0 39 -0.982612 0
gene 3 6 7 0.3417 0 44 0.3417 1
gene 3 3 28 -1.34461 0 59 -1.34461 1
gene 3 28 6 -1.23772 0 60 -1.23772 1
gene 2 19 30 1 0 68 1 1
gene 2 30 6 1.50529 0 69 1.50529 1
genomeend 56

/* Organism #57 Fitness: 14 Error: 0 */
genomestart 57
trait 1 0.1 0 0 0 0 0 0 0 
trait 2 0.378878 0 0 0.0275003 0.115904 0 0 0 
trait 3 0.3 0.0892916 0 0.0142003 0 0 0 0.094224 
node 1 2 1 3
node 2 2 1 1
node 3 2 1 1
node 4 1 1 1
node 5 1 1 1
node 6 3 0 2
node 7 1 0 2
node 19 1 0 0
node 28 1 0 0
node 30 1 0 0
gene 3 1 6 0.0710498 0 1 0.0710498 1
gene 3 2 6 0.908661 0 2 0.908661 1
gene 3 3 6 -2.51514 0 3 -2.51514 0
gene 2 4 6 -1.67497 0 4 -1.67497 1
gene 2 5 6 -1.39669 0 5 -1.39669 0
gene 1 1 7 -1.6062 0 6 -1.6062 1
gene 3 2 7 0.666441 0 7 0.666441 1
gene 3 3 7 -0.336499 0 8 -0.336499 1
gene 2 4 7 3.25419 0 9 3.25419 1
gene 3 5 7 4.12987 0 10 4.12987 1
gene 2 5 19 3.23847 0 38 3.23847 1
gene 2 19 6 0.880748 0 39 0.880748 0
gene 3 6 7 -2.23589 0 44 -2.23589 1
gene 3 3 28 1.78614 0 59 1.78614 1
gene 3 28 6 -1.23772 0 60 -1.23772 1
gene 2 19 30 2.66797 0 68 2.66797 1
gene 2 30 6 -1.01999 0 69 -1.01999 1
genomeend 57

/* Organism #58 Fitness: 3 Error: 0 */
genomestart 58
trait 1 0.1 0 0 0 0 0 0 0 
trait 2 0.378878 0 0 0.0275003 0.115904 0 0 0 
trait 3 0.3 0.0892916 0 0.0142003 0 0 0 0.094224 
node 1 2 1 3
node 2 2 1 1
node 3 2 1 1
node 4 1 1 1
node 5 1 1 1
node 6 2 0 2
node 7 1 0 2
node 19 1 0 0
node 28 1 0 0
node 30 1 0 0
gene 3 1 6 2.05215 0 1 2.05215 1
gene 3 2 6 -0.175499 0 2 -0.175499 1
gene 3 3 6 -1.83875 0 3 -1.83875 0
gene 2 4 6 0.865593 0 4 0.865593 1
gene 2 5 6 -3.9975 0 5 -3.9975 0
gene 1 1 7 -1.64749 0 6 -1.64749 1
gene 3 2 7 1.34202 0 7 1.34202 1
gene 3 3 7 -0.478994 0 8 -0.478994 1
gene 2 4 7 2.00571 0 9 2.00571 1
gene 3 5 7 -0.0910445 0 10 -0.0910445 1
gene 2 5 19 3.28756 0 38 3.28756 1
gene 2 19 6 -2.29535 0 39 -2.29535 0
gene 3 6 7 1.70679 0 44 1.70679 1
gene 3 3 28 1.34522 0 59 1.34522 1
gene 3 28 6 -0.216926 0 60 -0.216926 1
gene 2 19 30 2.77441 0 68 2.77441 1
gene 2 30 6 -0.149496 0 69 -0.149496 1
genomeend 58

/* Organism #59 Fitness: 11 Error: 0 */
genomestart 59
trait 1 0.1 0 0 0.327065 0.151567 0 0 0.490192 
trait 2 0.378878 0 0 0.0275003 0.115904 0 0 0 
trait 3 0.3 0.0892916 0 0.0142003 0 0 0 0.094224 
node 1 2 1 3
node 2 2 1 1
node 3 2 1 1
node 4 1 1 1
node 5 1 1 1
node 6 3 0 2
node 7 1 0 2
node 19 1 0 0
node 28 1 0 0
node 30 1 0 0
gene 3 1 6 1.48893 0 1 1.48893 1
gene 3 2 6 -0.147778 0 2 -0.147778 1
gene 3 3 6 -1.82093 0 3 -1.82093 0
gene 2 4 6 -0.555182 0 4 -0.555182 1
gene 2 5 6 0.567207 0 5 0.567207 0
gene 1 1 7 -1.51266 0 6 -1.51266 1
gene 3 2 7 -0.764801 0 7 -0.764801 1
gene 3 3 7 -0.652367 0 8 -0.652367 1
gene 2 4 7 -1.42571 0 9 -1.42571 1
gene 3 5 7 0.378924 0 10 0.378924 1
gene 2 5 19 2.6678 0 38 2.6678 1
gene 2 19 6 0.783235 0 39 0.783235 0
gene 3 6 7 -0.48084 0 44 -0.48084 1
gene 3 3 28 1 0 59 1 1
gene 3 28 6 0.486919 0 60 0.486919 1
gene 2 19 30 -0.297511 0 68 -0.297511 1
gene 2 30 6 -0.575263 0 69 -0.575263 1
genomeend 59

/* Organism #60 Fitness: 14 Error: 0 */
genomestart 60
trait 1 0.1 0 0 0 0 0 0 0 
trait 2 0.378878 0 0 0.0275003 0.115904 0 0 0 
trait 3 0.3 0.0892916 0 0.0142003 0 0 0 0.094224 
node 1 2 1 3
node 2 2 1 1
node 3 1 1 1
node 4 1 1 1
node 5 1 1 1
node 6 3 0 2
node 7 1 0 2
node 19 1 0 0
node 28 1 0 0
node 30 1 0 0
gene 3 1 6 2.93511 0 1 2.93511 1
gene 3 2 6 2.02391 0 2 2.02391 1
gene 3 3 6 0.447035 0 3 0.447035 0
gene 2 4 6 1.06047 0 4 1.06047 1
gene 2 5 6 -2.6419 0 5 -2.6419 0
gene 1 1 7 -0.211247 0 6 -0.211247 1
gene 3 2 7 -0.661456 0 7 -0.661456 1
gene 3 3 7 -1.39597 0 8 -1.39597 1
gene 2 4 7 2.91034 0 9 2.91034 1
gene 3 5 7 0.765656 0 10 0.765656 1
gene 2 5 19 -0.980717 0 38 -0.980717 1
gene 2 19 6 -0.736897 0 39 -0.736897 0
gene 3 6 7 1.09186 0 44 1.09186 1
gene 3 3 28 0.566392 0 59 0.566392 1
gene 3 28 6 -0.594439 0 60 -0.594439 1
gene 2 19 30 -0.0331351 0 68 -0.0331351 1
gene 2 30 6 2.27665 0 69 2.27665 1
genomeend 60

/* Organism #61 Fitness: 4 Error: 0 */
genomestart 61
trait 1 0.1 0 0 0 0 0 0 0 
trait 2 0.378878 0 0 0.0275003 0.115904 0 0 0 
trait 3 0.3 0.0892916 0 0.0142003 0 0 0 0.094224 
node 1 2 1 3
node 2 2 1 1
node 3 2 1 1
node 4 1 1 1
node 5 1 1 1
node 6 3 0 2
node 7 1 0 2
node 19 1 0 0
node 28 1 0 0
node 30 1 0 0
gene 3 1 6 -1.08991 0 1 -1.08991 1
gene 3 2 6 0.337809 0 2 0.337809 1
gene 3 3 6 -2.48541 0 3 -2.48541 0
gene 2 4 6 2.40294 0 4 2.40294 1
gene 2 5 6 -0.614517 0 5 -0.614517 0
gene 1 1 7 -0.546783 0 6 -0.546783 1
gene 3 2 7 1.06052 0 7 1.06052 1
gene 3 3 7 0.344344 0 8 0.344344 1
gene 2 4 7 1.99795 0 9 1.99795 1
gene 3 5 7 -1.58292 0 10 -1.58292 1
gene 2 5 19 -0.849482 0 38 -0.849482 1
gene 2 19 6 0.703448 0 39 0.703448 0
gene 3 6 7 -2.3582 0 44 -2.3582 1
gene 3 3 28 2.23763 0 59 2.23763 1
gene 3 28 6 -0.122913 0 60 -0.122913 1
gene 2 19 30 3.02513 0 68 3.02513 1
gene 2 30 6 0.212092 0 69 0.212092 1
genomeend 61

/* Organism #62 Fitness: 15 Error: 0 */
genomestart 62
trait 1 0.1 0 0 0 0 0 0 0 
trait 2 0.378878 0 0 0.0275003 0.872454 0.558044 0 0.941719 
trait 3 0.3 0.0892916 0 0.0142003 0 0 0 0.094224 
node 1 2 1 3
node 2 2 1 1
node 3 2 1 1
node 4 1 1 1
node 5 1 1 1
node 6 3 0 2
node 7 1 0 2
node 19 1 0 0
node 28 1 0 0
node 30 1 0 0
gene 3 1 6 2.45459 0 1 2.45459 1
gene 3 2 6 2.26002 0 2 2.26002 1
gene 3 3 6 -1.23772 0 3 -1.23772 0
gene 2 4 6 -1.13619 0 4 -1.13619 1
gene 2 5 6 -1.16727 0 5 -1.16727 0
gene 1 1 7 -1.6062 0 6 -1.6062 1
gene 3 2 7 2.72038 0 7 2.72038 1
gene 3 3 7 -0.646498 0 8 -0.646498 1
gene 2 4 7 1.20088 0 9 1.20088 1
gene 3 5 7 4.07461 0 10 4.07461 1
gene 2 5 19 2.64718 0 38 2.64718 1
gene 2 19 6 1.73628 0 39 1.73628 0
gene 3 6 7 -0.354465 0 44 -0.354465 1
gene 3 3 28 1.02033 0 59 1.02033 1
gene 3 28 6 0.115022 0 60 0.115022 1
gene 2 19 30 0.452225 0 68 0.452225 1
gene 2 30 6 0.0114242 0 69 0.0114242 1
genomeend 62

/* Organism #63 Fitness: 553 Error: 0 */
genomestart 63
trait 1 0.1 0 0 0 0 0 0 0 
trait 2 0.378878 0 0 0.0275003 0.115904 0 0 0 
trait 3 0.3 0.0892916 0 0.0142003 0 0 0 0.094224 
node 1 2 1 3
node 2 2 1 1
node 3 2 1 1
node 4 1 1 1
node 5 1 1 1
node 6 3 0 2
node 7 1 0 2
node 19 1 0 0
node 28 1 0 0
node 30 1 0 0
gene 3 1 6 1.37539 0 1 1.37539 1
gene 3 2 6 0.337809 0 2 0.337809 1
gene 3 3 6 -1.23772 0 3 -1.23772 0
gene 2 4 6 -1.11121 0 4 -1.11121 1
gene 2 5 6 -2.6419 0 5 -2.6419 0
gene 1 1 7 -1.6062 0 6 -1.6062 1
gene 3 2 7 0.666441 0 7 0.666441 1
gene 3 3 7 -0.646498 0 8 -0.646498 1
gene 2 4 7 1.20088 0 9 1.20088 1
gene 3 5 7 1.74528 0 10 1.74528 1
gene 2 5 19 3.2492 0 38 3.2492 1
gene 2 19 6 -0.149496 0 39 0 0
gene 3 6 7 -0.354465 0 44 -0.354465 1
gene 3 3 28 1 0 59 0 1
gene 3 28 6 -1.23772 0 60 0 1
gene 2 19 30 1 0 68 0 1
gene 2 30 6 -0.149496 0 69 0 1
genomeend 63

/* Organism #64 Fitness: 8 Error: 0 */
genomestart 64
trait 1 0.1 0 0 0 0 0 0 0 
trait 2 0.378878 0 0 0.0275003 0.115904 0 0 0 
trait 3 0.3 0.0892916 0 0.0142003 0 0 0 0.094224 
node 1 2 1 3
node 2 2 1 1
node 3 2 1 1
node 4 1 1 1
node 5 1 1 1
node 6 3 0 2
node 7 1 0 2
node 19 1 0 0
node 28 1 0 0
node 30 1 0 0
gene 3 1 6 -0.506793 0 1 -0.506793 1
gene 3 2 6 0.758731 0 2 0.758731 1
gene 3 3 6 -2.36172 0 3 -2.36172 0
gene 2 4 6 0.497722 0 4 0.497722 1
gene 2 5 6 -1.59597 0 5 -1.59597 0
gene 1 1 7 -3.18979 0 6 -3.18979 1
gene 3 2 7 0.948001 0 7 0.948001 1
gene 3 3 7 -0.0477535 0 8 -0.0477535 1
gene 2 4 7 0.184322 0 9 0.184322 1
gene 3 5 7 1.78118 0 10 1.78118 1
gene 2 5 19 2.31491 0 38 2.31491 1
gene 2 19 6 0.484516 0 39 0.484516 0
gene 3 6 7 -2.02328 0 44 -2.02328 1
gene 3 3 28 -1.09629 0 59 -1.09629 1
gene 3 28 6 -1.23772 0 60 -1.23772 1
gene 2 19 30 2.19686 0 68 2.19686 1
gene 2 30 6 1.8138 0 69 1.8138 1
genomeend 64

/* Organism #65 Fitness: 9 Error: 0 */
genomestart 65
trait 1 0.1 0 0 0 0 0 0 0 
trait 2 0.378878 0 0 0.0275003 0.115904 0 0 0 
trait 3 0.3 0.0892916 0 0.0142003 0 0 0 0.094224 
node 1 2 1 3
node 2 2 1 1
node 3 2 1 1
node 4 1 1 1
node 5 1 1 1
node 6 3 0 2
node 7 1 0 2
node 19 1 0 0
node 28 1 0 0
node 30 1 0 0
gene 3 1 6 3.86026 0 1 3.86026 1
gene 3 2 6 1.66482 0 2 1.66482 1
gene 3 3 6 0.333422 0 3 0.333422 0
gene 2 4 6 -3.03125 0 4 -3.03125 1
gene 2 5 6 -2.5758 0 5 -2.5758 0
gene 1 1 7 -1.6062 0 6 -1.6062 1
gene 3 2 7 0.703097 0 7 0.703097 1
gene 3 3 7 1.60303 0 8 1.60303 1
gene 2 4 7 3.58259 0 9 3.58259 1
gene 3 5 7 0.797097 0 10 0.797097 1
gene 2 5 19 5.30706 0 38 5.30706 1
gene 2 19 6 1.65636 0 39 1.65636 0
gene 3 6 7 -1.97463 0 44 -1.97463 1
gene 3 3 28 -0.0307675 0 59 -0.0307675 1
gene 3 28 6 -1.55694 0 60 -1.55694 1
gene 2 19 30 -1.80452 0 68 -1.80452 1
gene 2 30 6 -0.0458699 0 69 -0.0458699 1
genomeend 65

/* Organism #66 Fitness: 883 Error: 0 */
genomestart 66
trait 1 0.1 0 0 0 0 0 0 0 
trait 2 0.378878 0 0 0.0275003 0.115904 0 0 0 
trait 3 0.421668 0.0892916 0 0.0142003 0 0 0 0.094224 
node 1 2 1 3
node 2 2 1 1
node 3 2 1 1
node 4 1 1 1
node 5 1 1 1
node 6 3 0 2
node 7 1 0 2
node 19 1 0 0
node 28 1 0 0
node 30 1 0 0
gene 3 1 6 1.37539 0 1 1.37539 1
gene 3 2 6 0.337809 0 2 0.337809 1
gene 3 3 6 -1.23772 0 3 -1.23772 0
gene 2 4 6 -1.11121 0 4 -1.11121 1
gene 3 5 6 -2.6419 0 5 -2.6419 0
gene 1 1 7 -1.6062 0 6 -1.6062 1
gene 3 2 7 0.666441 0 7 0.666441 1
gene 3 3 7 -0.646498 0 8 -0.646498 1
gene 2 4 7 1.20088 0 9 1.20088 1
gene 3 5 7 1.74528 0 10 1.74528 1
gene 2 5 19 3.2492 0 38 3.2492 1
gene 2 19 6 -0.149496 0 39 0 0
gene 3 6 7 -0.354465 0 44 -0.354465 1
gene 3 3 28 1 0 59 0 1
gene 3 28 6 -1.23772 0 60 0 1
gene 2 19 30 1 0 68 0 1
gene 2 30 6 -0.149496 0 69 0 1
genomeend 66

/* Organism #67 Fitness: 86 Error: 0 */
genomestart 67
trait 1 0.1 0 0 0 0 0 0 0 
trait 2 0.378878 0 0 0.0275003 0.115904 0 0 0 
trait 3 0.3 0.0892916 0 0.0142003 0 0 0 0.094224 
node 1 2 1 3
node 2 2 1 1
node 3 2 1 1
node 4 1 1 1
node 5 1 1 1
node 6 3 0 2
node 7 1 0 2
node 19 1 0 0
node 28 1 0 0
node 30 1 0 0
gene 3 1 6 1.67943 0 1 1.67943 1
gene 3 2 6 -1.30199 0 2 -1.30199 1
gene 3 3 6 -3.31503 0 3 -3.31503 0
gene 2 4 6 -1.80056 0 4 -1.80056 1
gene 2 5 6 -2.54307 0 5 -2.54307 0
gene 1 1 7 -2.26426 0 6 -2.26426 1
gene 3 2 7 -0.98073 0 7 -0.98073 1
gene 3 3 7 -2.95733 0 8 -2.95733 1
gene 2 4 7 2.63747 0 9 2.63747 1
gene 3 5 7 0.310854 0 10 0.310854 1
gene 2 5 19 1.79165 0 38 1.79165 1
gene 2 19 6 -0.124257 0 39 -0.124257 0
gene 3 6 7 -2.47593 0 44 -2.47593 1
gene 3 3 28 3.2897 0 59 3.2897 1
gene 3 28 6 -1.23772 0 60 -1.23772 1
gene 2 19 30 1 0 68 1 1
gene 2 30 6 -0.149496 0 69 -0.149496 1
genomeend 67

/* Organism #68 Fitness: 2 Error: 0 */
genomestart 68
trait 1 0.1 0 0 0 0 0 0 0 
trait 2 0.378878 0 0 0.0275003 0.115904 0 0 0 
trait 3 0.3 0.0892916 0 0.0142003 0 0 0 0.094224 
node 1 2 1 3
node 2 2 1 1
node 3 2 1 1
node 4 1 1 1
node 5 1 1 1
node 6 3 0 2
node 7 1 0 2
node 19 1 0 0
node 28 1 0 0
node 30 1 0 0
gene 3 1 6 0.0365144 0 1 0.0365144 1
gene 3 2 6 0.160587 0 2 0.160587 1
gene 3 3 6 -2.02994 0 3 -2.02994 0
gene 2 4 6 -2.66507 0 4 -2.66507 1
gene 2 5 6 -2.30317 0 5 -2.30317 0
gene 1 1 7 -1.96952 0 6 -1.96952 1
gene 3 2 7 -1.03833 0 7 -1.03833 1
gene 3 3 7 -1.18621 0 8 -1.18621 1
gene 2 4 7 -0.639208 0 9 -0.639208 1
gene 3 5 7 -0.352729 0 10 -0.352729 1
gene 2 5 19 5.25202 0 38 5.25202 1
gene 2 19 6 -0.335153 0 39 -0.335153 0
gene 3 6 7 1.08679 0 44 1.08679 1
gene 3 3 28 -1.48656 0 59 -1.48656 1
gene 3 28 6 1.231 0 60 1.231 1
gene 2 19 30 0.145056 0 68 0.145056 1
gene 2 30 6 -1.41988 0 69 -1.41988 1
genomeend 68

/* Organism #69 Fitness: 339 Error: 0 */
genomestart 69
trait 1 0.1 0 0 0 0 0 0 0 
trait 2 0.378878 0 0 0.0275003 0.115904 0 0 0 
trait 3 0.3 0.0892916 0 0.0142003 0 0 0 0.094224 
node 1 2 1 3
node 2 2 1 1
node 3 2 1 1
node 4 1 1 1
node 5 1 1 1
node 6 3 0 2
node 7 1 0 2
node 19 1 0 0
node 28 1 0 0
node 30 1 0 0
gene 3 1 6 1.37539 0 1 1.37539 1
gene 3 2 6 0.337809 0 2 0.337809 1
gene 3 3 6 -1.23772 0 3 -1.23772 0
gene 2 4 6 -1.11121 0 4 -1.11121 1
gene 2 5 6 -2.6419 0 5 -2.6419 0
gene 1 1 7 -1.6062 0 6 -1.6062 1
gene 3 2 7 0.666441 0 7 0.666441 1
gene 3 3 7 -0.646498 0 8 -0.646498 1
gene 2 4 7 1.20088 0 9 1.20088 1
gene 3 5 7 1.74528 0 10 1.74528 1
gene 2 5 19 3.2492 0 38 3.2492 1
gene 2 19 6 -0.149496 0 39 0 0
gene 3 6 7 -0.354465 0 44 -0.354465 1
gene 3 3 28 1 0 59 0 1
gene 3 28 6 -1.23772 0 60 0 1
gene 2 19 30 1 0 68 0 1
gene 2 30 6 -0.149496 0 69 0 1
genomeend 69

/* Organism #70 Fitness: 112 Error: 0 */
genomestart 70
trait 1 0.1 0 0 0 0 0 0 0 
trait 2 0.378878 0 0 0.0275003 0.115904 0 0 0 
trait 3 0.192311 0 0 0 0 0.775146 0 0.094224 
node 1 2 1 3
node 2 2 1 1
node 3 2 1 1
node 4 1 1 1
node 5 1 1 1
node 6 3 0 2
node 7 1 0 2
node 19 1 0 0
node 28 1 0 0
node 30 1 0 0
gene 3 1 6 1.37539 0 1 1.37539 1
gene 3 2 6 0.337809 0 2 0.337809 1
gene 3 3 6 -1.23772 0 3 -1.23772 0
gene 2 4 6 -1.11121 0 4 -1.11121 1
gene 2 5 6 -2.6419 0 5 -2.6419 0
gene 1 1 7 -1.6062 0 6 -1.6062 1
gene 3 2 7 0.666441 0 7 0.666441 1
gene 3 3 7 -0.646498 0 8 -0.646498 1
gene 2 4 7 1.20088 0 9 1.20088 1
gene 3 5 7 1.74528 0 10 1.74528 1
gene 2 5 19 3.2492 0 38 3.2492 1
gene 2 19 6 -0.149496 0 39 0 0
gene 3 6 7 -0.354465 0 44 -0.354465 1
gene 3 3 28 1 0 59 0 1
gene 3 28 6 -1.23772 0 60 0 1
gene 2 19 30 1 0 68 0 1
gene 2 30 6 -0.149496 0 69 0 1
genomeend 70

/* Organism #71 Fitness: 22 Error: 0 */
genomestart 71
trait 1 0.1 0 0 0 0 0 0 0 
trait 2 0.378878 0 0 0.0275003 0.115904 0 0 0 
trait 3 0.3 0.0892916 0 0.0142003 0 0 0 0.094224 
node 1 2 1 3
node 2 2 1 1
node 3 2 1 1
node 4 1 1 1
node 5 1 1 1
node 6 3 0 2
node 7 1 0 2
node 19 1 0 0
node 28 1 0 0
node 30 1 0 0
gene 3 1 6 0.494058 0 1 0.494058 1
gene 3 2 6 -1.07338 0 2 -1.07338 1
gene 3 3 6 0.9604 0 3 0.9604 0
gene 2 4 6 0.627111 0 4 0.627111 1
gene 2 5 6 -4.35072 0 5 -4.35072 0
gene 1 1 7 -4.07285 0 6 -4.07285 1
gene 3 2 7 0.108228 0 7 0.108228 1
gene 3 3 7 -2.86924 0 8 -2.86924 1
gene 2 4 7 2.02138 0 9 2.02138 1
gene 3 5 7 2.61913 0 10 2.61913 1
gene 2 5 19 2.59333 0 38 2.59333 1
gene 2 19 6 1.90577 0 39 1.90577 0
gene 3 6 7 1.91694 0 44 1.91694 1
gene 3 3 28 2.53599 0 59 2.53599 1
gene 3 28 6 0.856476 0 60 0.856476 1
gene 2 19 30 -0.887214 0 68 -0.887214 1
gene 2 30 6 0.534756 0 69 0.534756 1
genomeend 71

/* Organism #72 Fitness: 50 Error: 0 */
genomestart 72
trait 1 0.1 0 0 0 0 0 0 0 
trait 2 0.378878 0 0 0.0275003 0.115904 0 0 0 
trait 3 0.3 0.0892916 0 0.0142003 0 0 0 0 
node 1 2 1 3
node 2 2 1 1
node 3 2 1 1
node 4 1 1 1
node 5 1 1 1
node 6 3 0 2
node 7 1 0 2
node 19 2 0 0
node 28 1 0 0
node 30 1 0 0
gene 3 1 6 2.82038 0 1 2.82038 1
gene 3 2 6 -0.952176 0 2 -0.952176 1
gene 3 3 6 -1.22012 0 3 -1.22012 0
gene 2 4 6 -3.22991 0 4 -3.22991 1
gene 2 5 6 -0.258418 0 5 -0.258418 0
gene 1 1 7 -1.33929 0 6 -1.33929 1
gene 3 2 7 2.05266 0 7 2.05266 1
gene 3 3 7 0.683632 0 8 0.683632 1
gene 2 4 7 0.618933 0 9 0.618933 1
gene 3 5 7 3.84962 0 10 3.84962 1
gene 2 5 19 3.45569 0 38 3.45569 1
gene 2 19 6 -1.63158 0 39 -1.63158 0
gene 3 6 7 1.50345 0 44 1.50345 1
gene 3 3 28 3.33232 0 59 3.33232 1
gene 3 28 6 -2.45627 0 60 -2.45627 1
gene 2 19 30 1.26428 0 68 1.26428 1
gene 2 30 6 1.20711 0 69 1.20711 1
genomeend 72

/* Organism #73 Fitness: 8 Error: 0 */
genomestart 73
trait 1 0.1 0 0 0 0 0 0 0 
trait 2 0.378878 0 0 0.0275003 0.115904 0 0 0 
trait 3 0.3 0.0892916 0 0.0142003 0 0 0 0.094224 
node 1 2 1 3
node 2 2 1 1
node 3 2 1 1
node 4 1 1 1
node 5 1 1 1
node 6 3 0 2
node 7 1 0 2
node 19 1 0 0
node 28 1 0 0
node 30 1 0 0
gene 3 1 6 -0.994206 0 1 -0.994206 1
gene 3 2 6 1.51706 0 2 1.51706 1
gene 3 3 6 -0.183459 0 3 -0.183459 0
gene 2 4 6 -1.92932 0 4 -1.92932 1
gene 2 5 6 -0.796838 0 5 -0.796838 0
gene 1 1 7 -0.729463 0 6 -0.729463 1
gene 3 2 7 0.520762 0 7 0.520762 1
gene 3 3 7 -2.85383 0 8 -2.85383 1
gene 2 4 7 -0.419675 0 9 -0.419675 1
gene 3 5 7 1.25735 0 10 1.25735 1
gene 2 5 19 3.30259 0 38 3.30259 1
gene 2 19 6 -1.05571 0 39 -1.05571 0
gene 3 6 7 -2.48114 0 44 -2.48114 1
gene 3 3 28 3.31164 0 59 3.31164 1
gene 3 28 6 -1.23772 0 60 -1.23772 1
gene 2 19 30 1 0 68 1 1
gene 2 30 6 -1.54525 0 69 -1.54525 1
genomeend 73

/* Organism #74 Fitness: 18 Error: 0 */
genomestart 74
trait 1 0.1 0 0 0 0 0 0 0 
trait 2 0.378878 0 0 0.0275003 0.115904 0 0 0 
trait 3 0.3 0.0892916 0 0.0142003 0 0 0 0.094224 
node 1 2 1 3
node 2 2 1 1
node 3 2 1 1
node 4 1 1 1
node 5 1 1 1
node 6 3 0 2
node 7 1 0 2
node 19 1 0 0
node 28 1 0 0
node 30 1 0 0
gene 3 1 6 2.75262 0 1 2.75262 1
gene 3 2 6 1.62851 0 2 1.62851 1
gene 3 3 6 0.113191 0 3 0.113191 0
gene 2 4 6 -0.300327 0 4 -0.300327 1
gene 2 5 6 -1.31477 0 5 -1.31477 0
gene 1 1 7 1.55071 0 6 1.55071 1
gene 3 2 7 -0.684774 0 7 -0.684774 1
gene 3 3 7 -2.50901 0 8 -2.50901 1
gene 2 4 7 1.20088 0 9 1.20088 1
gene 3 5 7 -1.84104 0 10 -1.84104 1
gene 2 5 19 1.77069 0 38 1.77069 1
gene 2 19 6 1.24401 0 39 1.24401 0
gene 3 6 7 -2.20067 0 44 -2.20067 1
gene 3 3 28 -1.11055 0 59 -1.11055 1
gene 3 28 6 1.09449 0 60 1.09449 1
gene 2 19 30 1.65344 0 68 1.65344 1
gene 2 30 6 -0.149496 0 69 -0.149496 1
genomeend 74

/* Organism #75 Fitness: 197 Error: 0 */
genomestart 75
trait 1 0.1 0 0 0 0 0 0 0 
trait 2 0.378878 0 0 0.0275003 0.115904 0 0 0 
trait 3 0.3 0.0892916 0 0.0142003 0 0 0 0.094224 
node 1 2 1 3
node 2 2 1 1
node 3 2 1 1
node 4 1 1 1
node 5 1 1 1
node 6 3 0 2
node 7 1 0 2
node 19 1 0 0
node 28 1 0 0
node 30 1 0 0
gene 3 1 6 1.37539 0 1 1.37539 1
gene 3 2 6 0.337809 0 2 0.337809 1
gene 3 3 6 -1.23772 0 3 -1.23772 0
gene 2 4 6 -1.11121 0 4 -1.11121 1
gene 2 5 6 -2.6419 0 5 -2.6419 0
gene 1 1 7 -1.6062 0 6 -1.6062 1
gene 3 2 7 0.666441 0 7 0.666441 1
gene 3 3 7 -0.646498 0 8 -0.646498 1
gene 2 4 7 1.20088 0 9 1.20088 1
gene 3 5 7 1.74528 0 10 1.74528 1
gene 2 5 19 3.2492 0 38 3.2492 1
gene 2 19 6 -0.149496 0 39 0 0
gene 3 6 7 -0.354465 0 44 -0.354465 1
gene 3 3 28 1 0 59 0 1
gene 3 28 6 -1.23772 0 60 0 1
gene 2 19 30 1 0 68 0 1
gene 2 30 6 -0.149496 0 69 0 1
genomeend 75

/* Organism #76 Fitness: 186 Error: 0 */
genomestart 76
trait 1 0.1 0 0 0 0 0 0 0 
trait 2 0.378878 0 0 0.0275003 0.115904 0 0 0 
trait 3 0.3 0.0892916 0 0 0 0 0.148422 0 
node 1 2 1 3
node 2 2 1 1
node 3 2 1 1
node 4 1 1 1
node 5 1 1 1
node 6 3 0 2
node 7 1 0 2
node 19 1 0 0
node 28 1 0 0
node 30 1 0 0
gene 3 1 6 -1.4703 0 1 -1.4703 1
gene 3 2 6 1.76385 0 2 1.76385 1
gene 3 3 6 -0.347029 0 3 -0.347029 0
gene 2 4 6 -1.11121 0 4 -1.11121 1
gene 2 5 6 -2.6419 0 5 -2.6419 0
gene 1 1 7 -1.6062 0 6 -1.6062 1
gene 3 2 7 -1.32236 0 7 -1.32236 1
gene 3 3 7 1.03535 0 8 1.03535 1
gene 2 4 7 -0.202296 0 9 -0.202296 1
gene 3 5 7 2.26057 0 10 2.26057 1
gene 2 5 19 -2.09328 0 38 -2.09328 1
gene 2 19 6 -0.627663 0 39 -0.627663 0
gene 3 6 7 2.14847 0 44 2.14847 1
gene 3 3 28 0.00231086 0 59 0.00231086 1
gene 3 28 6 0.134313 0 60 0.134313 1
gene 2 19 30 0.617939 0 68 0.617939 1
gene 2 30 6 -0.509472 0 69 -0.509472 1
genomeend 76

/* Organism #77 Fitness: 12 Error: 0 */
genomestart 77
trait 1 0.1 0 0 0 0 0 0 0 
trait 2 0.378878 0 0 0.0275003 0.115904 0 0 0 
trait 3 0.3 0.0892916 0 0.0142003 0 0 0 0.094224 
node 1 2 1 3
node 2 2 1 1
node 3 2 1 1
node 4 1 1 1
node 5 1 1 1
node 6 3 0 2
node 7 1 0 2
node 19 1 0 0
node 28 1 0 0
node 30 1 0 0
gene 3 1 6 3.05119 0 1 3.05119 1
gene 3 2 6 0.00496608 0 2 0.00496608 1
gene 3 3 6 -0.393054 0 3 -0.393054 0
gene 2 4 6 -2.07976 0 4 -2.07976 1
gene 2 5 6 -1.50457 0 5 -1.50457 0
gene 1 1 7 0.178074 0 6 0.178074 1
gene 3 2 7 -1.41325 0 7 -1.41325 1
gene 3 3 7 -0.872794 0 8 -0.872794 1
gene 2 4 7 0.162946 0 9 0.162946 1
gene 3 5 7 3.33041 0 10 3.33041 1
gene 2 5 19 5.74151 0 38 5.74151 1
gene 2 19 6 -0.508198 0 39 -0.508198 0
gene 3 6 7 -1.62975 0 44 -1.62975 1
gene 3 3 28 -0.241177 0 59 -0.241177 1
gene 3 28 6 0.705162 0 60 0.705162 1
gene 2 19 30 -0.755656 0 68 -0.755656 1
gene 2 30 6 1.29384 0 69 1.29384 1
genomeend 77

/* Organism #78 Fitness: 6 Error: 0 */
genomestart 78
trait 1 0.1 0 0 0 0 0 0 0 
trait 2 0.378878 0 0 0.0275003 0.115904 0 0 0 
trait 3 0.3 0.0892916 0 0.0142003 0 0 0 0.094224 
node 1 2 1 3
node 2 2 1 1
node 3 2 1 1
node 4 1 1 1
node 5 1 1 1
node 6 3 0 2
node 7 1 0 2
node 19 1 0 0
node 28 1 0 0
node 30 1 0 0
gene 3 1 6 -0.263362 0 1 -0.263362 1
gene 3 2 6 -0.491805 0 2 -0.491805 1
gene 3 3 6 0.413533 0 3 0.413533 0
gene 2 4 6 -0.966008 0 4 -0.966008 1
gene 2 5 6 0.155817 0 5 0.155817 0
gene 1 1 7 -0.4763 0 6 -0.4763 1
gene 3 2 7 2.35012 0 7 2.35012 1
gene 3 3 7 -1.25675 0 8 -1.25675 1
gene 2 4 7 0.57476 0 9 0.57476 1
gene 3 5 7 2.1244 0 10 2.1244 1
gene 2 5 19 4.41554 0 38 4.41554 1
gene 2 19 6 0.566997 0 39 0.566997 0
gene 3 6 7 0.888472 0 44 0.888472 1
gene 3 3 28 3.16005 0 59 3.16005 1
gene 3 28 6 -1.21767 0 60 -1.21767 1
gene 2 19 30 -1.13571 0 68 -1.13571 1
gene 2 30 6 -0.694711 0 69 -0.694711 1
genomeend 78

/* Organism #79 Fitness: 11 Error: 0 */
genomestart 79
trait 1 0.1 0 0 0 0 0 0 0 
trait 2 0.378878 0 0 0.0275003 0.115904 0 0 0 
trait 3 0.3 0.0892916 0 0.0142003 0 0 0 0.094224 
node 1 2 1 3
node 2 2 1 1
node 3 2 1 1
node 4 1 1 1
node 5 1 1 1
node 6 3 0 2
node 7 1 0 2
node 19 1 0 0
node 28 1 0 0
node 30 1 0 0
gene 3 1 6 1.37539 0 1 1.37539 1
gene 3 2 6 2.71115 0 2 2.71115 1
gene 3 3 6 -0.356427 0 3 -0.356427 0
gene 2 4 6 -0.755946 0 4 -0.755946 1
gene 2 5 6 2.48505 0 5 2.48505 0
gene 1 1 7 -1.6062 0 6 -1.6062 1
gene 3 2 7 1.35454 0 7 1.35454 1
gene 3 3 7 -0.646498 0 8 -0.646498 1
gene 2 4 7 -1.16923 0 9 -1.16923 1
gene 3 5 7 2.36817 0 10 2.36817 1
gene 2 5 19 3.2492 0 38 3.2492 1
gene 2 19 6 -0.149496 0 39 -0.149496 0
gene 3 6 7 -1.61167 0 44 -1.61167 1
gene 3 3 28 3.14632 0 59 3.14632 1
gene 3 28 6 -1.79321 0 60 -1.79321 1
gene 2 19 30 -0.10037 0 68 -0.10037 1
gene 2 30 6 2.19047 0 69 2.19047 1
genomeend 79

/* Organism #80 Fitness: 4 Error: 0 */
genomestart 80
trait 1 0.1 0 0 0 0 0 0 0 
trait 2 0.378878 0 0 0.0275003 0.115904 0 0 0 
trait 3 0.3 0.0892916 0 0.0142003 0 0 0 0.094224 
node 1 2 1 3
node 2 2 1 1
node 3 2 1 1
node 4 1 1 1
node 5 1 1 1
node 6 3 0 2
node 7 1 0 2
node 19 1 0 0
node 28 1 0 0
node 30 1 0 0
gene 3 1 6 0.803462 0 1 0.803462 1
gene 3 2 6 -0.489571 0 2 -0.489571 1
gene 3 3 6 -1.67321 0 3 -1.67321 0
gene 2 4 6 0.919805 0 4 0.919805 1
gene 2 5 6 -0.821878 0 5 -0.821878 0
gene 1 1 7 -0.988784 0 6 -0.988784 1
gene 3 2 7 1.39333 0 7 1.39333 1
gene 3 3 7 -2.88562 0 8 -2.88562 1
gene 2 4 7 0.594117 0 9 0.594117 1
gene 3 5 7 2.88885 0 10 2.88885 1
gene 2 5 19 4.63671 0 38 4.63671 1
gene 2 19 6 -0.0829193 0 39 -0.0829193 0
gene 3 6 7 -1.65698 0 44 -1.65698 1
gene 3 3 28 2.75514 0 59 2.75514 1
gene 3 28 6 1.2443 0 60 1.2443 1
gene 2 19 30 0.0435099 0 68 0.0435099 1
gene 2 30 6 -2.56554 0 69 -2.56554 1
genomeend 80

/* Organism #81 Fitness: 14 Error: 0 */
genomestart 81
trait 1 0.1 0 0 0 0 0 0 0 
trait 2 0.378878 0 0 0.0275003 0.115904 0 0 0 
trait 3 0.3 0.0892916 0 0.0142003 0 0 0 0.094224 
node 1 2 1 3
node 2 2 1 1
node 3 2 1 1
node 4 1 1 1
node 5 1 1 1
node 6 3 0 2
node 7 1 0 2
node 19 1 0 0
node 28 1 0 0
node 30 1 0 0
gene 3 1 6 1.60865 0 1 1.60865 1
gene 3 2 6 -1.35441 0 2 -1.35441 1
gene 3 3 6 0.215061 0 3 0.215061 0
gene 2 4 6 -0.831971 0 4 -0.831971 1
gene 2 5 6 -0.83999 0 5 -0.83999 0
gene 1 1 7 -3.0976 0 6 -3.0976 1
gene 3 2 7 0.82457 0 7 0.82457 1
gene 3 3 7 1.47739 0 8 1.47739 1
gene 2 4 7 2.29601 0 9 2.29601 1
gene 3 5 7 1.23372 0 10 1.23372 1
gene 2 5 19 5.46806 0 38 5.46806 1
gene 2 19 6 -1.69944 0 39 -1.69944 0
gene 3 6 7 2.13105 0 44 2.13105 1
gene 3 3 28 0.736026 0 59 0.736026 1
gene 3 28 6 -1.23772 0 60 -1.23772 1
gene 2 19 30 1 0 68 1 1
gene 2 30 6 -0.149496 0 69 -0.149496 1
genomeend 81

/* Organism #82 Fitness: 55 Error: 0 */
genomestart 82
trait 1 0.1 0.414489 0 0 0 0 0 0.355088 
trait 2 0.378878 0 0 0.0275003 0.115904 0 0 0 
trait 3 0.3 0.0892916 0 0.0142003 0 0 0 0.094224 
node 1 2 1 3
node 2 2 1 1
node 3 2 1 1
node 4 1 1 1
node 5 1 1 1
node 6 3 0 2
node 7 1 0 2
node 19 1 0 0
node 28 1 0 0
node 30 1 0 0
gene 3 1 6 3.00269 0 1 3.00269 1
gene 3 2 6 -1.7716 0 2 -1.7716 1
gene 3 3 6 -2.51448 0 3 -2.51448 0
gene 2 4 6 -1.20093 0 4 -1.20093 1
gene 2 5 6 -2.43957 0 5 -2.43957 0
gene 1 1 7 -1.9382 0 6 -1.9382 1
gene 3 2 7 1.05607 0 7 1.05607 1
gene 3 3 7 -2.33093 0 8 -2.33093 1
gene 2 4 7 2.40596 0 9 2.40596 1
gene 3 5 7 2.87927 0 10 2.87927 1
gene 2 5 19 2.91022 0 38 2.91022 1
gene 2 19 6 -0.0607955 0 39 -0.0607955 0
gene 3 6 7 -2.37916 0 44 -2.37916 1
gene 3 3 28 1.23193 0 59 1.23193 1
gene 3 28 6 -0.616164 0 60 -0.616164 1
gene 2 19 30 3.0015 0 68 3.0015 1
gene 2 30 6 -0.718978 0 69 -0.718978 1
genomeend 82

/* Organism #83 Fitness: 111 Error: 0 */
genomestart 83
trait 1 0.1 0 0 0 0 0 0 0 
trait 2 0.378878 0 0 0.0275003 0.115904 0 0 0 
trait 3 0.3 0.0892916 0 0.0142003 0 0 0 0.094224 
node 1 2 1 3
node 2 2 1 1
node 3 2 1 1
node 4 1 1 1
node 5 1 1 1
node 6 3 0 2
node 7 1 0 2
node 19 1 0 0
node 28 1 0 0
node 30 1 0 0
gene 3 1 6 1.37539 0 1 1.37539 1
gene 3 2 6 0.337809 0 2 0.337809 1
gene 3 3 6 -1.23772 0 3 -1.23772 0
gene 2 4 6 -1.11121 0 4 -1.11121 1
gene 2 5 6 -2.6419 0 5 -2.6419 0
gene 1 1 7 -1.6062 0 6 -1.6062 1
gene 3 2 7 0.666441 0 7 0.666441 1
gene 3 3 7 -0.646498 0 8 -0.646498 1
gene 2 4 7 1.20088 0 9 1.20088 1
gene 3 5 7 1.74528 0 10 1.74528 1
gene 2 5 19 3.2492 0 38 3.2492 1
gene 2 19 6 -0.149496 0 39 0 0
gene 3 6 7 -0.354465 0 44 -0.354465 1
gene 3 3 28 1 0 59 0 1
gene 3 28 6 -1.23772 0 60 0 1
gene 2 19 30 1 0 68 0 1
gene 2 30 6 -0.149496 0 69 0 1
genomeend 83

/* Organism #84 Fitness: 11 Error: 0 */
genomestart 84
trait 1 0.1 0 0 0 0 0 0 0 
trait 2 0.378878 0 0 0.0275003 0.115904 0 0 0 
trait 3 0.3 0.0892916 0 0.0142003 0 0 0 0.094224 
node 1 2 1 3
node 2 2 1 1
node 3 2 1 1
node 4 1 1 1
node 5 1 1 1
node 6 3 0 2
node 7 1 0 2
node 19 1 0 0
node 28 1 0 0
node 30 1 0 0
gene 3 1 6 2.57275 0 1 2.57275 1
gene 3 2 6 2.38667 0 2 2.38667 1
gene 3 3 6 -0.600705 0 3 -0.600705 0
gene 2 4 6 -0.587707 0 4 -0.587707 1
gene 2 5 6 -0.682125 0 5 -0.682125 0
gene 1 1 7 -3.96935 0 6 -3.96935 1
gene 3 2 7 -0.402083 0 7 -0.402083 1
gene 3 3 7 -1.02023 0 8 -1.02023 1
gene 2 4 7 0.285682 0 9 0.285682 1
gene 3 5 7 0.312821 0 10 0.312821 1
gene 2 5 19 3.13197 0 38 3.13197 1
gene 2 19 6 -1.77801 0 39 -1.77801 0
gene 3 6 7 0.0976578 0 44 0.0976578 1
gene 3 3 28 0.175299 0 59 0.175299 1
gene 3 28 6 -1.23772 0 60 -1.23772 1
gene 2 19 30 1 0 68 1 1
gene 2 30 6 1.01757 0 69 1.01757 1
genomeend 84

/* Organism #85 Fitness: 17 Error: 0 */
genomestart 85
trait 1 0.1 0 0 0 0 0 0 0 
trait 2 0.378878 0 0 0.0275003 0.115904 0 0 0 
trait 3 0.3 0.0892916 0 0.0142003 0 0 0 0.094224 
node 1 2 1 3
node 2 2 1 1
node 3 2 1 1
node 4 1 1 1
node 5 1 1 1
node 6 3 0 2
node 7 1 0 2
node 19 1 0 0
node 28 1 0 0
node 30 1 0 0
gene 3 1 6 2.23717 0 1 2.23717 1
gene 3 2 6 -1.74835 0 2 -1.74835 1
gene 3 3 6 1.02282 0 3 1.02282 0
gene 2 4 6 -2.887 0 4 -2.887 1
gene 2 5 6 -0.23344 0 5 -0.23344 0
gene 1 1 7 0.409746 0 6 0.409746 1
gene 3 2 7 0.871793 0 7 0.871793 1
gene 3 3 7 1.19665 0 8 1.19665 1
gene 2 4 7 1.60392 0 9 1.60392 1
gene 3 5 7 2.87184 0 10 2.87184 1
gene 2 5 19 3.43228 0 38 3.43228 1
gene 2 19 6 -1.59502 0 39 -1.59502 0
gene 3 6 7 -1.79858 0 44 -1.79858 1
gene 3 3 28 0.458198 0 59 0.458198 1
gene 3 28 6 0.747154 0 60 0.747154 1
gene 2 19 30 1 0 68 1 1
gene 2 30 6 -0.149496 0 69 -0.149496 1
genomeend 85

/* Organism #86 Fitness: 3 Error: 0 */
genomestart 86
trait 1 0.1 0 0 0 0 0 0 0 
trait 2 0.378878 0 0 0.0275003 0.115904 0 0 0 
trait 3 0.3 0.0892916 0 0.0142003 0 0 0 0.094224 
node 1 2 1 3
node 2 2 1 1
node 3 2 1 1
node 4 1 1 1
node 5 1 1 1
node 6 1 0 2
node 7 1 0 2
node 19 1 0 0
node 28 1 0 0
node 30 1 0 0
gene 3 1 6 3.27324 0 1 3.27324 1
gene 3 2 6 1.14021 0 2 1.14021 1
gene 3 3 6 -0.126834 0 3 -0.126834 0
gene 2 4 6 -3.31815 0 4 -3.31815 1
gene 2 5 6 -0.413015 0 5 -0.413015 0
gene 1 1 7 -3.97895 0 6 -3.97895 1
gene 3 2 7 2.69778 0 7 2.69778 1
gene 3 3 7 1.11295 0 8 1.11295 1
gene 2 4 7 -0.233759 0 9 -0.233759 1
gene 3 5 7 1.96662 0 10 1.96662 1
gene 2 5 19 4.86009 0 38 4.86009 1
gene 2 19 6 0.645504 0 39 0.645504 0
gene 3 6 7 1.06743 0 44 1.06743 1
gene 3 3 28 0.923677 0 59 0.923677 1
gene 3 28 6 0.869936 0 60 0.869936 1
gene 2 19 30 -0.270009 0 68 -0.270009 1
gene 2 30 6 1.15619 0 69 1.15619 1
genomeend 86

/* Organism #87 Fitness: 12 Error: 0 */
genomestart 87
trait 1 0.1 0 0 0 0 0 0 0 
trait 2 0.378878 0 0 0.0275003 0.115904 0 0 0 
trait 3 0.3 0.0892916 0 0.0142003 0 0 0 0.094224 
node 1 2 1 3
node 2 2 1 1
node 3 2 1 1
node 4 1 1 1
node 5 1 1 1
node 6 3 0 2
node 7 1 0 2
node 19 1 0 0
node 28 1 0 0
node 30 1 0 0
gene 3 1 6 0.664326 0 1 0.664326 1
gene 3 2 6 -1.13253 0 2 -1.13253 1
gene 3 3 6 1.16237 0 3 1.16237 0
gene 2 4 6 -2.3523 0 4 -2.3523 1
gene 2 5 6 -2.96967 0 5 -2.96967 0
gene 1 1 7 -1.62993 0 6 -1.62993 1
gene 3 2 7 -0.830739 0 7 -0.830739 1
gene 3 3 7 -1.24677 0 8 -1.24677 1
gene 2 4 7 2.21614 0 9 2.21614 1
gene 3 5 7 3.90201 0 10 3.90201 1
gene 2 5 19 4.24256 0 38 4.24256 1
gene 2 19 6 -0.204575 0 39 -0.204575 0
gene 3 6 7 1.48732 0 44 1.48732 1
gene 3 3 28 1.07473 0 59 1.07473 1
gene 3 28 6 -1.23772 0 60 -1.23772 1
gene 2 19 30 -1.22112 0 68 -1.22112 1
gene 2 30 6 0.219813 0 69 0.219813 1
genomeend 87

/* Organism #88 Fitness: 11 Error: 0 */
genomestart 88
trait 1 0.1 0 0 0 0 0 0 0 
trait 2 0.378878 0 0 0.0275003 0.115904 0 0 0 
trait 3 0.3 0.0892916 0 0.0142003 0 0 0 0.094224 
node 1 2 1 3
node 2 2 1 1
node 3 2 1 1
node 4 1 1 1
node 5 1 1 1
node 6 3 0 2
node 7 1 0 2
node 19 1 0 0
node 28 1 0 0
node 30 1 0 0
gene 3 1 6 0.81966 0 1 0.81966 1
gene 3 2 6 -0.864698 0 2 -0.864698 1
gene 3 3 6 -0.952557 0 3 -0.952557 0
gene 2 4 6 -0.72246 0 4 -0.72246 1
gene 2 5 6 0.905425 0 5 0.905425 0
gene 1 1 7 -2.02237 0 6 -2.02237 1
gene 3 2 7 -1.2842 0 7 -1.2842 1
gene 3 3 7 -0.498266 0 8 -0.498266 1
gene 2 4 7 3.13816 0 9 3.13816 1
gene 3 5 7 -2.21969 0 10 -2.21969 1
gene 2 5 19 5.48575 0 38 5.48575 1
gene 2 19 6 -0.149496 0 39 -0.149496 0
gene 3 6 7 2.12611 0 44 2.12611 1
gene 3 3 28 -0.101496 0 59 -0.101496 1
gene 3 28 6 -2.88652 0 60 -2.88652 1
gene 2 19 30 0.0827897 0 68 0.0827897 1
gene 2 30 6 -0.554936 0 69 -0.554936 1
genomeend 88

/* Organism #89 Fitness: 37 Error: 0 */
genomestart 89
trait 1 0.1 0 0 0 0 0 0 0 
trait 2 0.378878 0 0 0.0275003 0.115904 0 0 0 
trait 3 0.3 0.0892916 0 0.0142003 0 0 0 0.094224 
node 1 2 1 3
node 2 2 1 1
node 3 2 1 1
node 4 1 1 1
node 5 1 1 1
node 6 3 0 2
node 7 1 0 2
node 19 1 0 0
node 28 1 0 0
node 30 1 0 0
gene 3 1 6 1.37539 0 1 1.37539 1
gene 3 2 6 0.337809 0 2 0.337809 1
gene 3 3 6 -1.23772 0 3 -1.23772 0
gene 2 4 6 -1.11121 0 4 -1.11121 1
gene 2 5 6 -2.6419 0 5 -2.6419 0
gene 1 1 7 -1.6062 0 6 -1.6062 1
gene 3 2 7 0.666441 0 7 0.666441 1
gene 3 3 7 -0.646498 0 8 -0.646498 1
gene 2 4 7 1.20088 0 9 1.20088 1
gene 3 5 7 1.74528 0 10 1.74528 1
gene 2 5 19 3.2492 0 38 3.2492 1
gene 2 19 6 -0.149496 0 39 0 0
gene 3 6 7 -0.354465 0 44 -0.354465 1
gene 3 3 28 1 0 59 0 1
gene 3 28 6 -1.23772 0 60 0 1
gene 2 19 30 1 0 68 0 1
gene 2 30 6 -0.149496 0 69 0 1
genomeend 89

/* Organism #90 Fitness: 13 Error: 0 */
genomestart 90
trait 1 0.1 0 0 0 0 0 0 0 
trait 2 0.378878 0 0 0.0275003 0.115904 0 0 0 
trait 3 0.3 0.0892916 0 0.0142003 0 0 0 0.0847625 
node 1 2 1 3
node 2 2 1 1
node 3 2 1 1
node 4 1 1 1
node 5 1 1 1
node 6 3 0 2
node 7 1 0 2
node 19 1 0 0
node 28 1 0 0
node 30 1 0 0
gene 3 1 6 3.23611 0 1 3.23611 1
gene 3 2 6 -0.495687 0 2 -0.495687 1
gene 3 3 6 -3.46456 0 3 -3.46456 0
gene 2 4 6 -2.88845 0 4 -2.88845 1
gene 2 5 6 -3.21034 0 5 -3.21034 0
gene 1 1 7 -1.93691 0 6 -1.93691 1
gene 3 2 7 2.28199 0 7 2.28199 1
gene 3 3 7 0.306496 0 8 0.306496 1
gene 2 4 7 1.62379 0 9 1.62379 1
gene 3 5 7 3.79301 0 10 3.79301 1
gene 2 5 19 1.41802 0 38 1.41802 1
gene 2 19 6 -1.89345 0 39 -1.89345 0
gene 3 6 7 -1.73507 0 44 -1.73507 1
gene 3 3 28 -0.88667 0 59 -0.88667 1
gene 3 28 6 1.00222 0 60 1.00222 1
gene 2 19 30 0.857499 0 68 0.857499 1
gene 2 30 6 1.55397 0 69 1.55397 1
genomeend 90

/* Organism #91 Fitness: 9 Error: 0 */
genomestart 91
trait 1 0.1 0 0 0 0 0 0 0 
trait 2 0.378878 0 0 0.0275003 0.115904 0 0 0 
trait 3 0.3 0.0892916 0 0.0142003 0 0 0 0.094224 
node 1 2 1 3
node 2 2 1 1
node 3 2 1 1
node 4 1 1 1
node 5 1 1 1
node 6 3 0 2
node 7 1 0 2
node 19 1 0 0
node 28 1 0 0
node 30 1 0 0
gene 3 1 6 1.76542 0 1 1.76542 1
gene 3 2 6 -0.346996 0 2 -0.346996 1
gene 3 3 6 -1.3092 0 3 -1.3092 0
gene 2 4 6 -0.0375129 0 4 -0.0375129 1
gene 2 5 6 -1.4257 0 5 -1.4257 0
gene 1 1 7 -1.18654 0 6 -1.18654 1
gene 3 2 7 2.32664 0 7 2.32664 1
gene 3 3 7 -2.44848 0 8 -2.44848 1
gene 2 4 7 1.18956 0 9 1.18956 1
gene 3 5 7 -1.75856 0 10 -1.75856 1
gene 2 5 19 4.38775 0 38 4.38775 1
gene 2 19 6 -2.04865 0 39 -2.04865 0
gene 3 6 7 -2.22553 0 44 -2.22553 1
gene 3 3 28 1 0 59 1 1
gene 3 28 6 -0.49967 0 60 -0.49967 1
gene 2 19 30 -1.34489 0 68 -1.34489 1
gene 2 30 6 -1.59474 0 69 -1.59474 1
genomeend 91

/* Organism #92 Fitness: 1 Error: 0 */
genomestart 92
trait 1 0.1 0 0 0 0 0 0 0 
trait 2 0.378878 0 0 0.0275003 0.115904 0 0 0 
trait 3 0.3 0.0892916 0 0.0142003 0 0 0 0.094224 
node 1 2 1 3
node 2 2 1 1
node 3 2 1 1
node 4 1 1 1
node 5 1 1 1
node 6 3 0 2
node 7 1 0 2
node 19 1 0 0
node 28 2 0 0
node 30 1 0 0
gene 3 1 6 0.66922 0 1 0.66922 1
gene 3 2 6 0.337809 0 2 0.337809 1
gene 3 3 6 -1.23772 0 3 -1.23772 0
gene 2 4 6 0.905904 0 4 0.905904 1
gene 2 5 6 -0.779897 0 5 -0.779897 0
gene 1 1 7 -2.41346 0 6 -2.41346 1
gene 3 2 7 0.666441 0 7 0.666441 1
gene 3 3 7 0.443112 0 8 0.443112 1
gene 2 4 7 2.86277 0 9 2.86277 1
gene 3 5 7 1.74528 0 10 1.74528 1
gene 2 5 19 0.82156 0 38 0.82156 1
gene 2 19 6 -0.847258 0 39 -0.847258 0
gene 3 6 7 -0.071527 0 44 -0.071527 1
gene 3 3 28 2.07569 0 59 2.07569 1
gene 3 28 6 1.06151 0 60 1.06151 1
gene 2 19 30 1.3212 0 68 1.3212 1
gene 2 30 6 1.95825 0 69 1.95825 1
genomeend 92

/* Organism #93 Fitness: 31 Error: 0 */
genomestart 93
trait 1 0.1 0 0 0 0 0 0 0 
trait 2 0.378878 0 0 0.0275003 0.115904 0 0 0 
trait 3 0.3 0.0892916 0 0.0142003 0 0 0 0.094224 
node 1 2 1 3
node 2 2 1 1
node 3 2 1 1
node 4 1 1 1
node 5 1 1 1
node 6 3 0 2
node 7 1 0 2
node 19 1 0 0
node 28 1 0 0
node 30 1 0 0
gene 3 1 6 -0.817366 0 1 -0.817366 1
gene 3 2 6 2.4276 0 2 2.4276 1
gene 3 3 6 0.419155 0 3 0.419155 0
gene 2 4 6 -2.79043 0 4 -2.79043 1
gene 2 5 6 -3.03555 0 5 -3.03555 0
gene 1 1 7 -3.72877 0 6 -3.72877 1
gene 3 2 7 -0.735238 0 7 -0.735238 1
gene 3 3 7 -1.77932 0 8 -1.77932 1
gene 2 4 7 2.14457 0 9 2.14457 1
gene 3 5 7 -0.299154 0 10 -0.299154 1
gene 2 5 19 5.01976 0 38 5.01976 1
gene 2 19 6 2.30009 0 39 2.30009 0
gene 3 6 7 -0.424091 0 44 -0.424091 1
gene 3 3 28 -1.20756 0 59 -1.20756 1
gene 3 28 6 -1.23772 0 60 -1.23772 1
gene 2 19 30 2.05374 0 68 2.05374 1
gene 2 30 6 -0.149496 0 69 -0.149496 1
genomeend 93

/* Organism #94 Fitness: 14 Error: 0 */
genomestart 94
trait 1 0.1 0 0 0 0 0 0 0 
trait 2 0.378878 0 0 0.0275003 0.115904 0 0 0 
trait 3 0.3 0.0892916 0 0.0142003 0 0 0 0.094224 
node 1 2 1 3
node 2 2 1 1
node 3 2 1 1
node 4 3 1 1
node 5 1 1 1
node 6 3 0 2
node 7 1 0 2
node 19 1 0 0
node 28 1 0 0
node 30 1 0 0
gene 3 1 6 2.2111 0 1 2.2111 1
gene 3 2 6 0.730231 0 2 0.730231 1
gene 3 3 6 -3.22845 0 3 -3.22845 0
gene 2 4 6 -1.80535 0 4 -1.80535 1
gene 2 5 6 -4.98888 0 5 -4.98888 0
gene 1 1 7 -1.97415 0 6 -1.97415 1
gene 3 2 7 -0.605526 0 7 -0.605526 1
gene 3 3 7 1.79532 0 8 1.79532 1
gene 2 4 7 3.2227 0 9 3.2227 1
gene 3 5 7 3.10712 0 10 3.10712 1
gene 2 5 19 3.39864 0 38 3.39864 1
gene 2 19 6 -1.19199 0 39 -1.19199 0
gene 3 6 7 -1.03175 0 44 -1.03175 1
gene 3 3 28 1.62102 0 59 1.62102 1
gene 3 28 6 0.655265 0 60 0.655265 1
gene 2 19 30 -0.753584 0 68 -0.753584 1
gene 2 30 6 -1.20951 0 69 -1.20951 1
genomeend 94

/* Organism #95 Fitness: 24 Error: 0 */
genomestart 95
trait 1 0.1 0 0 0 0 0 0 0 
trait 2 0.378878 0 0 0.0275003 0.115904 0 0 0 
trait 3 0.3 0.0892916 0 0.0142003 0 0 0 0.094224 
node 1 2 1 3
node 2 2 1 1
node 3 2 1 1
node 4 1 1 1
node 5 1 1 1
node 6 3 0 2
node 7 1 0 2
node 19 1 0 0
node 28 1 0 0
node 30 1 0 0
gene 3 1 6 3.83657 0 1 3.83657 1
gene 3 2 6 -1.38057 0 2 -1.38057 1
gene 3 3 6 0.184672 0 3 0.184672 0
gene 2 4 6 -2.71489 0 4 -2.71489 1
gene 2 5 6 -0.59591 0 5 -0.59591 0
gene 1 1 7 -2.20666 0 6 -2.20666 1
gene 3 2 7 1.5175 0 7 1.5175 1
gene 3 3 7 -1.04168 0 8 -1.04168 1
gene 2 4 7 1.18419 0 9 1.18419 1
gene 3 5 7 3.42174 0 10 3.42174 1
gene 2 5 19 1.77246 0 38 1.77246 1
gene 2 19 6 1.64334 0 39 1.64334 0
gene 3 6 7 -1.45849 0 44 -1.45849 1
gene 3 3 28 -0.133611 0 59 -0.133611 1
gene 3 28 6 0.746943 0 60 0.746943 1
gene 2 19 30 2.58629 0 68 2.58629 1
gene 2 30 6 0.831472 0 69 0.831472 1
genomeend 95

/* Organism #96 Fitness: 9 Error: 0 */
genomestart 96
trait 1 0.1 0 0 0 0 0 0 0 
trait 2 0.378878 0 0.124088 0.0275003 0.889597 0 0.509942 0 
trait 3 0.3 0.0892916 0 0.0142003 0 0 0 0.094224 
node 1 2 1 3
node 2 2 1 1
node 3 2 1 1
node 4 1 1 1
node 5 1 1 1
node 6 3 0 2
node 7 1 0 2
node 19 1 0 0
node 28 1 0 0
node 30 1 0 0
gene 3 1 6 -0.322097 0 1 -0.322097 1
gene 3 2 6 -1.26837 0 2 -1.26837 1
gene 3 3 6 -1.24744 0 3 -1.24744 0
gene 2 4 6 -0.0194137 0 4 -0.0194137 1
gene 2 5 6 1.15061 0 5 1.15061 0
gene 1 1 7 0.18364 0 6 0.18364 1
gene 3 2 7 0.666441 0 7 0.666441 1
gene 3 3 7 0.735005 0 8 0.735005 1
gene 2 4 7 1.04452 0 9 1.04452 1
gene 3 5 7 2.66116 0 10 2.66116 1
gene 2 5 19 2.48751 0 38 2.48751 1
gene 2 19 6 -0.149496 0 39 -0.149496 0
gene 3 6 7 -0.354465 0 44 -0.354465 1
gene 3 3 28 1.59304 0 59 1.59304 1
gene 3 28 6 -0.191574 0 60 -0.191574 1
gene 2 19 30 2.12652 0 68 2.12652 1
gene 2 30 6 -2.0371 0 69 -2.0371 1
genomeend 96

/* Organism #97 Fitness: 100001 Error: 0 */
/* ##------$ WINNER 97 SPECIES #2 $------## */
genomestart 97
trait 1 0.1 0 0 0 0 0 0 0 
trait 2 0.378878 0 0 0.0275003 0.115904 0 0 0 
trait 3 0.3 0.0892916 0 0.0142003 0 0 0 0.094224 
node 1 2 1 3
node 2 2 1 1
node 3 2 1 1
node 4 1 1 1
node 5 1 1 1
node 6 3 0 2
node 7 1 0 2
node 19 1 0 0
node 28 1 0 0
node 30 1 0 0
gene 3 1 6 1.37539 0 1 1.37539 1
gene 3 2 6 -1.57603 0 2 -1.57603 1
gene 3 3 6 -3.33701 0 3 -3.33701 0
gene 2 4 6 -1.11121 0 4 -1.11121 1
gene 2 5 6 -3.44628 0 5 -3.44628 0
gene 1 1 7 -1.62828 0 6 -1.62828 1
gene 3 2 7 1.14648 0 7 1.14648 1
gene 3 3 7 1.673 0 8 1.673 1
gene 2 4 7 3.01619 0 9 3.01619 1
gene 3 5 7 3.97228 0 10 3.97228 1
gene 2 5 19 4.14959 0 38 4.14959 1
gene 2 19 6 -1.16224 0 39 -1.16224 0
gene 3 6 7 -0.354465 0 44 -0.354465 1
gene 3 3 28 -0.725841 0 59 -0.725841 1
gene 3 28 6 0.862587 0 60 0.862587 1
gene 2 19 30 2.1013 0 68 2.1013 1
gene 2 30 6 1.98989 0 69 1.98989 1
genomeend 97

/* Organism #98 Fitness: 157 Error: 0 */
genomestart 98
trait 1 0.1 0 0 0 0 0 0 0 
trait 2 0.378878 0 0 0.0275003 0.115904 0 0 0 
trait 3 0.3 0.0892916 0 0.0142003 0 0 0 0.094224 
node 1 2 1 3
node 2 2 1 1
node 3 2 1 1
node 4 1 1 1
node 5 1 1 1
node 6 3 0 2
node 7 1 0 2
node 19 1 0 0
node 28 1 0 0
node 30 1 0 0
gene 3 1 6 3.56067 0 1 3.56067 1
gene 3 2 6 0.0941072 0 2 0.0941072 1
gene 3 3 6 -1.63913 0 3 -1.63913 0
gene 2 4 6 -1.43564 0 4 -1.43564 1
gene 2 5 6 -1.86765 0 5 -1.86765 0
gene 1 1 7 -1.74115 0 6 -1.74115 1
gene 3 2 7 -1.80923 0 7 -1.80923 1
gene 3 3 7 1.4894 0 8 1.4894 1
gene 2 4 7 2.31231 0 9 2.31231 1
gene 3 5 7 4.05924 0 10 4.05924 1
gene 2 5 19 5.16609 0 38 5.16609 1
gene 2 19 6 -0.331558 0 39 -0.331558 0
gene 3 6 7 -0.354465 0 44 -0.354465 1
gene 3 3 28 0.266713 0 59 0.266713 1
gene 3 28 6 -1.45986 0 60 -1.45986 1
gene 2 19 30 1 0 68 1 1
gene 2 30 6 -0.149496 0 69 -0.149496 1
genomeend 98

/* Organism #99 Fitness: 48 Error: 0 */
genomestart 99
trait 1 0.1 0 0 0 0 0 0 0 
trait 2 0.378878 0 0 0.0275003 0.115904 0 0 0 
trait 3 0.3 0.0892916 0 0.0142003 0 0 0 0.094224 
node 1 2 1 3
node 2 2 1 1
node 3 2 1 1
node 4 1 1 1
node 5 1 1 1
node 6 3 0 2
node 7 1 0 2
node 19 1 0 0
node 28 1 0 0
node 30 1 0 0
gene 3 1 6 1.16726 0 1 1.16726 1
gene 3 2 6 1.39069 0 2 1.39069 1
gene 3 3 6 0.548442 0 3 0.548442 0
gene 2 4 6 0.897089 0 4 0.897089 1
gene 2 5 6 -2.96247 0 5 -2.96247 0
gene 3 1 7 -0.243832 0 6 -0.243832 1
gene 3 2 7 -0.026626 0 7 -0.026626 1
gene 3 3 7 -1.80394 0 8 -1.80394 1
gene 2 4 7 0.00818726 0 9 0.00818726 1
gene 3 5 7 3.87841 0 10 3.87841 1
gene 2 5 19 4.20233 0 38 4.20233 1
gene 2 19 6 -1.93909 0 39 -1.93909 0
gene 3 6 7 0.721537 0 44 0.721537 1
gene 3 3 28 1.99478 0 59 1.99478 1
gene 3 28 6 -1.23772 0 60 -1.23772 1
gene 2 19 30 -1.29915 0 68 -1.29915 1
gene 2 30 6 -1.67625 0 69 -1.67625 1
genomeend 99

/* Organism #100 Fitness: 14 Error: 0 */
genomestart 100
trait 1 0.1 0 0 0 0 0 0 0 
trait 2 0.378878 0 0 0.0275003 0.115904 0 0 0 
trait 3 0.3 0.0892916 0 0.0142003 0 0 0 0.094224 
node 1 2 1 3
node 2 2 1 1
node 3 2 1 1
node 4 1 1 1
node 5 1 1 1
node 6 3 0 2
node 7 1 0 2
node 19 1 0 0
node 28 1 0 0
node 30 1 0 0
gene 3 1 6 -0.505154 0 1 -0.505154 1
gene 3 2 6 0.41245 0 2 0.41245 1
gene 3 3 6 -0.507198 0 3 -0.507198 0
gene 2 4 6 -1.66811 0 4 -1.66811 1
gene 2 5 6 -3.34575 0 5 -3.34575 0
gene 1 1 7 -3.81937 0 6 -3.81937 1
gene 3 2 7 2.58199 0 7 2.58199 1
gene 3 3 7 -0.371116 0 8 -0.371116 1
gene 2 4 7 -1.12702 0 9 -1.12702 1
gene 3 5 7 1.51356 0 10 1.51356 1
gene 2 5 19 1.59684 0 38 1.59684 1
gene 2 19 6 -1.08075 0 39 -1.08075 0
gene 3 6 7 -1.58514 0 44 -1.58514 1
gene 3 3 28 -1.37539 0 59 -1.37539 1
gene 3 28 6 -0.820564 0 60 -0.820564 1
gene 2 19 30 0.24192 0 68 0.24192 1
gene 2 30 6 -0.275244 0 69 -0.275244 1
genomeend 100

/* Organism #101 Fitness: 41 Error: 0 */
genomestart 101
trait 1 0.1 0 0 0 0 0 0 0 
trait 2 0.378878 0 0 0.0275003 0.115904 0 0 0 
trait 3 0.3 0.0892916 0 0.0142003 0 0 0 0.094224 
node 1 2 1 3
node 2 2 1 1
node 3 2 1 1
node 4 1 1 1
node 5 1 1 1
node 6 3 0 2
node 7 1 0 2
node 19 1 0 0
node 28 1 0 0
node 30 1 0 0
gene 3 1 6 -0.944538 0 1 -0.944538 1
gene 3 2 6 2.3166 0 2 2.3166 1
gene 3 3 6 1.19214 0 3 1.19214 0
gene 2 4 6 -0.613309 0 4 -0.613309 1
gene 2 5 6 -1.98673 0 5 -1.98673 0
gene 1 1 7 -3.85985 0 6 -3.85985 1
gene 3 2 7 2.84576 0 7 2.84576 1
gene 3 3 7 -2.58996 0 8 -2.58996 1
gene 2 4 7 3.38648 0 9 3.38648 1
gene 3 5 7 3.93346 0 10 3.93346 1
gene 2 5 19 0.945753 0 38 0.945753 1
gene 2 19 6 1.16986 0 39 1.16986 0
gene 3 6 7 1.22491 0 44 1.22491 1
gene 3 3 28 -0.18455 0 59 -0.18455 1
gene 3 28 6 -0.373854 0 60 -0.373854 1
gene 2 19 30 1 0 68 1 1
gene 2 30 6 1.57372 0 69 1.57372 1
genomeend 101

/* Organism #102 Fitness: 10 Error: 0 */
genomestart 102
trait 1 0.1 0 0 0 0 0 0 0 
trait 2 0.378878 0 0 0.0275003 0.115904 0 0 0 
trait 3 0.3 0.0892916 0 0.0142003 0 0 0 0.094224 
node 1 2 1 3
node 2 2 1 1
node 3 2 1 1
node 4 1 1 1
node 5 1 1 1
node 6 3 0 2
node 7 1 0 2
node 19 1 0 0
node 28 1 0 0
node 30 1 0 0
gene 3 1 6 1.37539 0 1 1.37539 1
gene 3 2 6 -1.91028 0 2 -1.91028 1
gene 3 3 6 -1.1731 0 3 -1.1731 0
gene 2 4 6 1.49425 0 4 1.49425 1
gene 2 5 6 -2.6419 0 5 -2.6419 0
gene 1 1 7 -2.59168 0 6 -2.59168 1
gene 3 2 7 1.63264 0 7 1.63264 1
gene 3 3 7 1.11604 0 8 1.11604 1
gene 2 4 7 0.0312596 0 9 0.0312596 1
gene 3 5 7 0.38014 0 10 0.38014 1
gene 2 5 19 0.857192 0 38 0.857192 1
gene 2 19 6 0.325528 0 39 0.325528 0
gene 3 6 7 -1.84522 0 44 -1.84522 1
gene 3 3 28 2.34053 0 59 2.34053 1
gene 3 28 6 0.816459 0 60 0.816459 1
gene 2 19 30 1.52268 0 68 1.52268 1
gene 2 30 6 -0.714399 0 69 -0.714399 1
genomeend 102

/* Organism #103 Fitness: 166 Error: 0 */
genomestart 103
trait 1 0.1 0 0 0 0 0 0 0 
trait 2 0.378878 0 0 0.0275003 0.115904 0 0 0 
trait 3 0.3 0.0892916 0 0.0142003 0 0 0 0.094224 
node 1 2 1 3
node 2 2 1 1
node 3 2 1 1
node 4 1 1 1
node 5 1 1 1
node 6 3 0 2
node 7 1 0 2
node 19 1 0 0
node 28 1 0 0
node 30 1 0 0
gene 3 1 6 0.453853 0 1 0.453853 1
gene 3 2 6 0.837122 0 2 0.837122 1
gene 3 3 6 -3.66289 0 3 -3.66289 0
gene 2 4 6 -2.82023 0 4 -2.82023 1
gene 2 5 6 -2.51079 0 5 -2.51079 0
gene 1 1 7 -0.921467 0 6 -0.921467 1
gene 3 2 7 0.906132 0 7 0.906132 1
gene 3 3 7 -1.16656 0 8 -1.16656 1
gene 2 4 7 0.622645 0 9 0.622645 1
gene 3 5 7 3.82934 0 10 3.82934 1
gene 2 5 19 2.61947 0 38 2.61947 1
gene 2 19 6 1.07864 0 39 1.07864 0
gene 3 6 7 -2.22413 0 44 -2.22413 1
gene 3 3 28 -0.476759 0 59 -0.476759 1
gene 3 28 6 0.478725 0 60 0.478725 1
gene 2 19 30 0.57733 0 68 0.57733 1
gene 2 30 6 0.9389 0 69 0.9389 1
genomeend 103

/* Organism #104 Fitness: 2 Error: 0 */
genomestart 104
trait 1 0.1 0 0 0 0 0 0 0 
trait 2 0.378878 0 0 0.0275003 0.115904 0 0 0 
trait 3 0.3 0.0892916 0 0.0142003 0 0 0 0.094224 
node 1 2 1 3
node 2 1 1 1
node 3 2 1 1
node 4 1 1 1
node 5 1 1 1
node 6 3 0 2
node 7 1 0 2
node 19 1 0 0
node 28 1 0 0
node 30 1 0 0
gene 3 1 6 -2.47739 0 1 -2.47739 1
gene 3 2 6 2.03743 0 2 2.03743 1
gene 3 3 6 0.20419 0 3 0.20419 0
gene 2 4 6 -1.11121 0 4 -1.11121 1
gene 2 5 6 -0.590458 0 5 -0.590458 0
gene 1 1 7 -2.2813 0 6 -2.2813 1
gene 3 2 7 2.0559 0 7 2.0559 1
gene 3 3 7 -2.58907 0 8 -2.58907 1
gene 2 4 7 1.76806 0 9 1.76806 1
gene 3 5 7 -0.825465 0 10 -0.825465 1
gene 2 5 19 -0.0605065 0 38 -0.0605065 1
gene 2 19 6 -1.16149 0 39 -1.16149 0
gene 3 6 7 -2.74062 0 44 -2.74062 1
gene 3 3 28 3.19922 0 59 3.19922 1
gene 3 28 6 -0.36873 0 60 -0.36873 1
gene 2 19 30 1 0 68 1 1
gene 2 30 6 0.390587 0 69 0.390587 1
genomeend 104

/* Organism #105 Fitness: 8 Error: 0 */
genomestart 105
trait 1 0.1 0 0 0 0 0 0 0 
trait 2 0.378878 0 0 0.0275003 0.115904 0 0 0 
trait 3 0.3 0.0892916 0 0.0142003 0 0 0 0.094224 
node 1 2 1 3
node 2 2 1 1
node 3 2 1 1
node 4 1 1 1
node 5 1 1 1
node 6 3 0 2
node 7 1 0 2
node 19 1 0 0
node 28 1 0 0
node 30 1 0 0
gene 3 1 6 -0.43244 0 1 -0.43244 1
gene 3 2 6 -0.347208 0 2 -0.347208 1
gene 3 3 6 -1.36082 0 3 -1.36082 0
gene 2 4 6 -0.103258 0 4 -0.103258 1
gene 2 5 6 -4.91475 0 5 -4.91475 0
gene 1 1 7 -3.28238 0 6 -3.28238 1
gene 3 2 7 -0.571417 0 7 -0.571417 1
gene 3 3 7 -0.709222 0 8 -0.709222 1
gene 2 4 7 0.311746 0 9 0.311746 1
gene 3 5 7 0.596053 0 10 0.596053 1
gene 2 5 19 5.28022 0 38 5.28022 1
gene 2 19 6 2.29489 0 39 2.29489 0
gene 3 6 7 0.661337 0 44 0.661337 1
gene 3 3 28 -0.163393 0 59 -0.163393 1
gene 3 28 6 -1.23772 0 60 -1.23772 1
gene 2 19 30 1 0 68 1 1
gene 2 30 6 -0.91367 0 69 -0.91367 1
genomeend 105

/* Organism #106 Fitness: 12 Error: 0 */
genomestart 106
trait 1 0.1 0 0 0 0 0 0 0 
trait 2 0.378878 0 0 0.0275003 0.115904 0 0 0 
trait 3 0.3 0.0892916 0 0.0142003 0 0 0 0.094224 
node 1 2 1 3
node 2 2 1 1
node 3 2 1 1
node 4 1 1 1
node 5 1 1 1
node 6 3 0 2
node 7 1 0 2
node 19 1 0 0
node 28 1 0 0
node 30 1 0 0
gene 3 1 6 0.0320997 0 1 0.0320997 1
gene 3 2 6 0.269362 0 2 0.269362 1
gene 3 3 6 -0.169076 0 3 -0.169076 0
gene 2 4 6 -3.00377 0 4 -3.00377 1
gene 2 5 6 -1.96605 0 5 -1.96605 0
gene 1 1 7 -3.13806 0 6 -3.13806 1
gene 3 2 7 2.48403 0 7 2.48403 1
gene 3 3 7 1.34934 0 8 1.34934 1
gene 2 4 7 -1.21378 0 9 -1.21378 1
gene 3 5 7 4.01677 0 10 4.01677 1
gene 2 5 19 1.67981 0 38 1.67981 1
gene 2 19 6 -2.40921 0 39 -2.40921 0
gene 3 6 7 -2.2843 0 44 -2.2843 1
gene 3 3 28 1.3576 0 59 1.3576 1
gene 3 28 6 -1.23772 0 60 -1.23772 1
gene 2 19 30 0.711202 0 68 0.711202 1
gene 2 30 6 -0.149496 0 69 -0.149496 1
genomeend 106

/* Organism #107 Fitness: 3 Error: 0 */
genomestart 107
trait 1 0.1 0 0 0 0 0 0 0 
trait 2 0.378878 0 0 0.0275003 0.115904 0 0 0 
trait 3 0.3 0.0892916 0 0.0142003 0 0 0 0.094224 
node 1 2 1 3
node 2 2 1 1
node 3 2 1 1
node 4 1 1 1
node 5 1 1 1
node 6 3 0 2
node 7 1 0 2
node 19 1 0 0
node 28 1 0 0
node 30 1 0 0
gene 3 1 6 1.60715 0 1 1.60715 1
gene 3 2 6 0.63489 0 2 0.63489 1
gene 3 3 6 -2.31055 0 3 -2.31055 0
gene 2 4 6 -0.888683 0 4 -0.888683 1
gene 2 5 6 -2.38042 0 5 -2.38042 0
gene 1 1 7 -0.802861 0 6 -0.802861 1
gene 3 2 7 1.86694 0 7 1.86694 1
gene 3 3 7 -1.68368 0 8 -1.68368 1
gene 2 4 7 -1.2481 0 9 -1.2481 1
gene 3 5 7 3.62971 0 10 3.62971 1
gene 2 5 19 0.816211 0 38 0.816211 1
gene 2 19 6 1.69978 0 39 1.69978 0
gene 3 6 7 -0.302268 0 44 -0.302268 1
gene 3 3 28 0.370574 0 59 0.370574 1
gene 3 28 6 -1.23772 0 60 -1.23772 1
gene 2 19 30 0.745627 0 68 0.745627 1
gene 2 30 6 -0.149496 0 69 -0.149496 1
genomeend 107

/* Organism #108 Fitness: 13 Error: 0 */
genomestart 108
trait 1 0.1 0 0 0 0 0 0 0 
trait 2 0.378878 0 0 0.0275003 0.115904 0 0 0 
trait 3 0.3 0.0892916 0 0.0142003 0 0 0 0.094224 
node 1 2 1 3
node 2 2 1 1
node 3 2 1 1
node 4 1 1 1
node 5 1 1 1
node 6 3 0 2
node 7 1 0 2
node 19 1 0 0
node 28 1 0 0
node 30 1 0 0
gene 3 1 6 1.89301 0 1 1.89301 1
gene 3 2 6 1.25929 0 2 1.25929 1
gene 3 3 6 -1.13607 0 3 -1.13607 0
gene 2 4 6 -1.7308 0 4 -1.7308 1
gene 2 5 6 -1.53589 0 5 -1.53589 0
gene 1 1 7 -2.98816 0 6 -2.98816 1
gene 3 2 7 0.277934 0 7 0.277934 1
gene 3 3 7 -0.646498 0 8 -0.646498 1
gene 2 4 7 2.9118 0 9 2.9118 1
gene 3 5 7 -2.00425 0 10 -2.00425 1
gene 2 5 19 5.31548 0 38 5.31548 1
gene 2 19 6 2.25562 0 39 2.25562 0
gene 3 6 7 1.20346 0 44 1.20346 1
gene 3 3 28 0.206321 0 59 0.206321 1
gene 3 28 6 -0.194804 0 60 -0.194804 1
gene 2 19 30 -0.359487 0 68 -0.359487 1
gene 2 30 6 1.52687 0 69 1.52687 1
genomeend 108

/* Species #4 : (Size 9) (AF 44.2222) (Age 4)  */


/* Organism #109 Fitness: 160 Error: 0 */
genomestart 109
trait 1 0.1 0 0 0 0 0 0 0 
trait 2 0.2 0 0 0 0 0 0 0 
trait 3 0.3 0.119056 0 0.0189338 0 0 0 0.125632 
node 1 2 1 3
node 2 1 1 1
node 3 3 1 1
node 4 1 1 1
node 5 3 1 1
node 6 3 0 2
node 7 3 0 2
node 17 1 0 0
gene 1 1 6 -0.685223 0 1 -0.685223 1
gene 2 2 6 0.572749 0 2 0.572749 1
gene 1 3 6 1.63879 0 3 1.63879 1
gene 2 4 6 1.07656 0 4 1.07656 1
gene 1 5 6 -2.39737 0 5 -2.39737 1
gene 2 1 7 -1.39347 0 6 -1.39347 1
