
/* Species #32 : (Size 11) (AF 162.275) (Age 35)  */


/* Organism #0 Fitness: 761.736 Error: 0 */
genomestart 0
trait 1 0.332422 0.485617 0.194575 0 0 0 0.131702 0.053126 
trait 2 0.0191406 0 0 0 0 0 0.0596922 0 
trait 3 0.309459 0 0.0175549 0.384674 0.0689713 0.362498 0.400818 0.260709 
node 1 1 1 3
node 2 1 1 1
node 3 3 1 1
node 4 2 1 1
node 5 2 1 1
node 6 2 1 1
node 7 1 1 1
node 8 1 1 1
node 9 3 1 1
node 10 2 1 1
node 11 2 1 1
node 12 1 1 1
node 13 3 1 1
node 14 1 1 1
node 15 2 1 1
node 16 2 1 1
node 17 1 1 1
node 18 1 1 1
node 19 1 1 1
node 20 2 1 1
node 21 3 1 1
node 22 2 1 1
node 23 3 1 1
node 24 3 1 1
node 25 1 0 2
node 26 3 0 2
node 47 3 0 0
node 138 1 0 0
node 155 1 0 0
node 244 1 0 0
gene 1 1 25 5.10126 0 1 5.10126 1
gene 3 2 25 -1.03011 0 2 -1.03011 1
gene 1 3 25 -6.22594 0 3 -6.22594 1
gene 3 4 25 0.818056 0 4 0.818056 1
gene 3 5 25 1.52562 0 5 1.52562 1
gene 3 6 25 7.52514 0 6 7.52514 1
gene 1 7 25 -5.12234 0 7 -5.12234 1
gene 1 8 25 7.63494 0 8 7.63494 1
gene 3 9 25 0.510693 0 9 0.510693 1
gene 3 10 25 -1.85679 0 10 -1.85679 1
gene 2 11 25 -3.14034 0 11 -3.14034 1
gene 1 12 25 5.29619 0 12 5.29619 1
gene 3 13 25 1.23837 0 13 1.23837 1
gene 2 14 25 -3.76404 0 14 -3.76404 1
gene 1 15 25 3.84414 0 15 3.84414 1
gene 2 16 25 5.24958 0 16 5.24958 1
gene 3 17 25 4.66867 0 17 4.66867 1
gene 3 18 25 3.48027 0 18 3.48027 1
gene 3 19 25 1.31923 0 19 1.31923 1
gene 2 20 25 6.05296 0 20 6.05296 1
gene 1 21 25 -2.21355 0 21 -2.21355 1
gene 1 22 25 4.19514 0 22 4.19514 1
gene 2 23 25 1.13053 0 23 1.13053 1
gene 3 24 25 -0.0473549 0 24 -0.0473549 1
gene 3 1 26 -7.9682 0 25 -7.9682 1
gene 2 2 26 -7.63901 0 26 -7.63901 1
gene 2 3 26 -1.81623 0 27 -1.81623 1
gene 3 4 26 -7.70049 0 28 -7.70049 1
gene 2 5 26 4.45455 0 29 4.45455 1
gene 2 6 26 6.92023 0 30 6.92023 1
gene 3 7 26 -4.24938 0 31 -4.24938 1
gene 1 8 26 -1.55499 0 32 -1.55499 1
gene 2 9 26 5.88321 0 33 5.88321 1
gene 2 10 26 2.07737 0 34 2.07737 1
gene 1 11 26 -0.0753398 0 35 -0.0753398 1
gene 2 12 26 5.3372 0 36 5.3372 1
gene 1 13 26 -2.08713 0 37 -2.08713 1
gene 3 14 26 -3.54632 0 38 -3.54632 1
gene 3 15 26 -1.76242 0 39 -1.76242 0
gene 3 16 26 -7.09213 0 40 -7.09213 1
gene 3 17 26 4.32482 0 41 4.32482 1
gene 2 18 26 -4.03144 0 42 -4.03144 1
gene 2 19 26 -1.63652 0 43 -1.63652 1
gene 2 20 26 -2.03813 0 44 -2.03813 1
gene 2 21 26 2.84314 0 45 2.84314 1
gene 1 22 26 0.680819 0 46 0.680819 1
gene 1 23 26 -0.0229136 0 47 -0.0229136 1
gene 3 24 26 0.740049 0 48 0.740049 1
gene 3 25 26 -2.50959 0 69 -2.50959 1
gene 2 11 47 0.29714 0 112 0.29714 1
gene 2 47 25 1.91109 0 113 1.91109 1
gene 3 22 47 -3.03337 0 145 -3.03337 1
gene 3 20 47 0.175429 0 200 0.175429 1
gene 3 1 47 -0.543131 0 215 -0.543131 1
gene 1 6 47 2.70559 0 319 2.70559 1
gene 2 47 138 0.828432 0 422 -0.109068 1
gene 2 138 25 1.79868 0 423 0.137161 1
gene 1 21 138 -0.0995898 0 459 -0.0995898 1
gene 3 5 155 1.67467 0 484 1.20592 0
gene 3 155 25 -0.163701 0 485 -0.893036 1
gene 2 7 155 0.531566 0 549 0.531566 1
gene 2 14 155 -0.851078 0 593 -0.851078 1
gene 3 15 244 1 0 765 0 1
gene 3 244 26 -1.76242 0 766 0 1
gene 1 138 26 -0.905101 0 879 -0.905101 1
gene 3 22 155 -0.830042 0 907 -0.830042 1
genomeend 0

/* Organism #1 Fitness: 2.67176 Error: 0 */
genomestart 1
trait 1 0.332422 0.521045 0 0.190246 0.623674 0.262833 0.131702 0.887398 
trait 2 0.0232422 0 0 0 0 0 0.0596922 0 
trait 3 0.309459 0 0.0175549 0.384674 0.0689713 0.362498 0.400818 0.260709 
node 1 1 1 3
node 2 1 1 1
node 3 3 1 1
node 4 2 1 1
node 5 2 1 1
node 6 2 1 1
node 7 1 1 1
node 8 1 1 1
node 9 3 1 1
node 10 2 1 1
node 11 2 1 1
node 12 1 1 1
node 13 3 1 1
node 14 1 1 1
node 15 2 1 1
node 16 2 1 1
node 17 1 1 1
node 18 1 1 1
node 19 1 1 1
node 20 2 1 1
node 21 3 1 1
node 22 2 1 1
node 23 3 1 1
node 24 3 1 1
node 25 1 0 2
node 26 3 0 2
node 47 3 0 0
node 138 1 0 0
node 155 1 0 0
node 244 1 0 0
gene 1 1 25 6.85298 0 1 6.85298 1
gene 3 2 25 -1.90027 0 2 -1.90027 1
gene 1 3 25 -4.01039 0 3 -4.01039 1
gene 3 4 25 -1.06272 0 4 -1.06272 1
gene 3 5 25 0.79954 0 5 0.79954 1
gene 3 6 25 6.83205 0 6 6.83205 1
gene 1 7 25 -3.81534 0 7 -3.81534 1
gene 1 8 25 7.76482 0 8 7.76482 1
gene 3 9 25 0.146344 0 9 0.146344 1
gene 3 10 25 -2.27494 0 10 -2.27494 1
gene 2 11 25 -2.65646 0 11 -2.65646 1
gene 1 12 25 5.48828 0 12 5.48828 1
gene 3 13 25 5.8418 0 13 5.8418 1
gene 2 14 25 -5.68217 0 14 -5.68217 1
gene 1 15 25 1.62037 0 15 1.62037 1
gene 2 16 25 6.75133 0 16 6.75133 1
gene 3 17 25 2.20473 0 17 2.20473 1
gene 3 18 25 5.23003 0 18 5.23003 1
gene 3 19 25 -1.03205 0 19 -1.03205 1
gene 2 20 25 6.89334 0 20 6.89334 1
gene 1 21 25 -1.81764 0 21 -1.81764 1
gene 1 22 25 1.25233 0 22 1.25233 1
gene 2 23 25 0.827315 0 23 0.827315 1
gene 3 24 25 2.0564 0 24 2.0564 1
gene 3 1 26 -6.73849 0 25 -6.73849 1
gene 2 2 26 -8 0 26 -8 1
gene 2 3 26 -2.36623 0 27 -2.36623 1
gene 3 4 26 -6.49214 0 28 -6.49214 1
gene 2 5 26 -1.17377 0 29 -1.17377 1
gene 2 6 26 7.72447 0 30 7.72447 1
gene 3 7 26 -3.81766 0 31 -3.81766 1
gene 1 8 26 1.13655 0 32 1.13655 1
gene 2 9 26 8 0 33 8 1
gene 2 10 26 1.7188 0 34 1.7188 1
gene 1 11 26 -0.142907 0 35 -0.142907 1
gene 2 12 26 3.56566 0 36 3.56566 1
gene 1 13 26 -2.97304 0 37 -2.97304 1
gene 3 14 26 -2.12414 0 38 -2.12414 1
gene 3 15 26 0.0752018 0 39 0.0752018 0
gene 3 16 26 1.51723 0 40 1.51723 1
gene 3 17 26 4.38583 0 41 4.38583 1
gene 2 18 26 0.463345 0 42 0.463345 1
gene 2 19 26 -1.63652 0 43 -1.63652 1
gene 2 20 26 -0.095426 0 44 -0.095426 1
gene 2 21 26 2.73838 0 45 2.73838 1
gene 1 22 26 1.84219 0 46 1.84219 1
gene 1 23 26 -2.28992 0 47 -2.28992 1
gene 3 24 26 1.62566 0 48 1.62566 1
gene 3 25 26 -2.50959 0 69 -2.50959 1
gene 2 11 47 -3.99541 0 112 -3.99541 1
gene 2 47 25 0.656789 0 113 0.656789 1
gene 3 22 47 -5.37746 0 145 -5.37746 1
gene 3 20 47 3.16013 0 200 3.16013 1
gene 3 1 47 0.602984 0 215 0.602984 1
gene 1 6 47 2.06658 0 319 2.06658 1
gene 2 47 138 -1.24977 0 422 -1.24977 1
gene 2 138 25 1.9076 0 423 1.9076 1
gene 1 21 138 1.68644 0 459 1.68644 1
gene 3 5 155 -0.601173 0 484 -0.601173 0
gene 3 155 25 0.387175 0 485 0.387175 1
gene 2 7 155 0.531566 0 549 0.531566 1
gene 2 14 155 -3.18142 0 593 -3.18142 1
gene 3 15 244 -0.817195 0 765 -0.817195 1
gene 3 244 26 0.134618 0 766 0.134618 1
gene 1 138 26 -1.63006 0 879 -1.63006 1
gene 3 22 155 1.40816 0 907 1.40816 1
genomeend 1

/* Organism #2 Fitness: 31.2076 Error: 0 */
genomestart 2
trait 1 0.332422 0.485617 0.194575 0 0 0 0.131702 0.053126 
trait 2 0.0150391 0 0 0 0 0 0.0596922 0 
trait 3 0.309459 0 0.0175549 0.384674 0.0689713 0.362498 0.400818 0.260709 
node 1 1 1 3
node 2 1 1 1
node 3 3 1 1
node 4 2 1 1
node 5 2 1 1
node 6 2 1 1
node 7 1 1 1
node 8 1 1 1
node 9 3 1 1
node 10 2 1 1
node 11 2 1 1
node 12 1 1 1
node 13 3 1 1
node 14 1 1 1
node 15 2 1 1
node 16 2 1 1
node 17 2 1 1
node 18 1 1 1
node 19 1 1 1
node 20 2 1 1
node 21 3 1 1
node 22 2 1 1
node 23 3 1 1
node 24 3 1 1
node 25 1 0 2
node 26 3 0 2
node 47 3 0 0
node 138 1 0 0
node 155 1 0 0
node 244 1 0 0
gene 1 1 25 7.10388 0 1 7.10388 1
gene 3 2 25 -1.04738 0 2 -1.04738 1
gene 1 3 25 -7.24007 0 3 -7.24007 1
gene 3 4 25 1.49862 0 4 1.49862 1
gene 3 5 25 -0.886599 0 5 -0.886599 1
gene 3 6 25 5.3707 0 6 5.3707 1
gene 1 7 25 -6.45055 0 7 -6.45055 1
gene 1 8 25 8 0 8 8 1
gene 3 9 25 -0.593033 0 9 -0.593033 1
gene 3 10 25 -1.16678 0 10 -1.16678 1
gene 2 11 25 -4.69026 0 11 -4.69026 1
gene 1 12 25 3.62651 0 12 3.62651 1
gene 3 13 25 -0.139637 0 13 -0.139637 1
gene 2 14 25 -2.13692 0 14 -2.13692 1
gene 1 15 25 5.52295 0 15 5.52295 1
gene 2 16 25 3.57799 0 16 3.57799 1
gene 3 17 25 5.44137 0 17 5.44137 1
gene 3 18 25 1.13869 0 18 1.13869 1
gene 3 19 25 -0.867519 0 19 -0.867519 1
gene 2 20 25 3.93792 0 20 3.93792 1
gene 1 21 25 -1.91606 0 21 -1.91606 1
gene 1 22 25 3.03441 0 22 3.03441 1
gene 2 23 25 2.97399 0 23 2.97399 1
gene 3 24 25 -0.838942 0 24 -0.838942 1
gene 3 1 26 -6.81767 0 25 -6.81767 1
gene 2 2 26 -8 0 26 -8 1
gene 2 3 26 -3.16035 0 27 -3.16035 1
gene 3 4 26 -6.87278 0 28 -6.87278 1
gene 2 5 26 2.43426 0 29 2.43426 1
gene 2 6 26 8 0 30 8 1
gene 3 7 26 -4.44382 0 31 -4.44382 1
gene 1 8 26 -3.26529 0 32 -3.26529 1
gene 2 9 26 6.36961 0 33 6.36961 1
gene 2 10 26 0.306171 0 34 0.306171 1
gene 1 11 26 2.16678 0 35 2.16678 1
gene 2 12 26 7.63458 0 36 7.63458 1
gene 1 13 26 -2.08269 0 37 -2.08269 1
gene 3 14 26 -3.72093 0 38 -3.72093 1
gene 3 15 26 -4.06348 0 39 -4.06348 0
gene 3 16 26 -6.13337 0 40 -6.13337 1
gene 3 17 26 6.30752 0 41 6.30752 1
gene 2 18 26 -2.06976 0 42 -2.06976 1
gene 2 19 26 -0.166151 0 43 -0.166151 1
gene 2 20 26 -4.00856 0 44 -4.00856 1
gene 2 21 26 4.05666 0 45 4.05666 1
gene 1 22 26 -0.922545 0 46 -0.922545 1
gene 1 23 26 -0.461787 0 47 -0.461787 1
gene 3 24 26 -1.27756 0 48 -1.27756 1
gene 3 25 26 -1.99647 0 69 -1.99647 1
gene 2 11 47 1.77579 0 112 1.77579 1
gene 2 47 25 2.47826 0 113 2.47826 1
gene 3 22 47 -2.61249 0 145 -2.61249 1
gene 3 20 47 0.561723 0 200 0.561723 1
gene 3 1 47 1.44653 0 215 1.44653 1
gene 1 6 47 2.70559 0 319 2.70559 1
gene 2 47 138 2.13831 0 422 2.13831 1
gene 2 138 25 0.70082 0 423 0.70082 1
gene 1 21 138 1.51138 0 459 1.51138 1
gene 3 5 155 3.26043 0 484 3.26043 0
gene 3 155 25 0.600653 0 485 0.600653 1
gene 2 7 155 -2.21658 0 549 -2.21658 1
gene 2 14 155 0.137464 0 593 0.137464 1
gene 3 15 244 1.77187 0 765 1.77187 1
gene 3 244 26 -1.76242 0 766 -1.76242 1
gene 1 138 26 -2.97919 0 879 -2.97919 1
gene 3 22 155 -0.830042 0 907 -0.830042 1
genomeend 2

/* Organism #3 Fitness: 10.6204 Error: 0 */
genomestart 3
trait 1 0.332422 0.485617 0.194575 0 0 0 0.131702 0.053126 
trait 2 0.0150391 0 0 0 0 0 0.0596922 0 
trait 3 0.309459 0 0.0175549 0.384674 0.0689713 0.362498 0.400818 0.260709 
node 1 1 1 3
node 2 1 1 1
node 3 3 1 1
node 4 2 1 1
node 5 2 1 1
node 6 2 1 1
node 7 1 1 1
node 8 1 1 1
node 9 3 1 1
node 10 2 1 1
node 11 2 1 1
node 12 1 1 1
node 13 3 1 1
node 14 1 1 1
node 15 2 1 1
node 16 2 1 1
node 17 1 1 1
node 18 1 1 1
node 19 1 1 1
node 20 2 1 1
node 21 3 1 1
node 22 2 1 1
node 23 3 1 1
node 24 3 1 1
node 25 1 0 2
node 26 3 0 2
node 47 3 0 0
node 138 1 0 0
node 155 1 0 0
node 244 1 0 0
gene 1 1 25 7.05935 0 1 7.05935 1
gene 3 2 25 0.563703 0 2 0.563703 1
gene 1 3 25 -8 0 3 -8 1
gene 3 4 25 -0.686138 0 4 -0.686138 1
gene 3 5 25 3.017 0 5 3.017 1
gene 3 6 25 7.22721 0 6 7.22721 1
gene 1 7 25 -5.34206 0 7 -5.34206 1
gene 1 8 25 6.51257 0 8 6.51257 1
gene 3 9 25 2.36576 0 9 2.36576 1
gene 3 10 25 -3.62465 0 10 -3.62465 1
gene 2 11 25 -3.93691 0 11 -3.93691 1
gene 1 12 25 5.14871 0 12 5.14871 1
gene 3 13 25 3.1669 0 13 3.1669 1
gene 2 14 25 -5.13274 0 14 -5.13274 1
gene 1 15 25 1.50597 0 15 1.50597 1
gene 2 16 25 6.57213 0 16 6.57213 1
gene 3 17 25 4.73824 0 17 4.73824 1
gene 3 18 25 5.95573 0 18 5.95573 1
gene 3 19 25 1.77265 0 19 1.77265 1
gene 2 20 25 6.48122 0 20 6.48122 1
gene 1 21 25 -1.5413 0 21 -1.5413 1
gene 1 22 25 4.06727 0 22 4.06727 1
gene 2 23 25 0.235915 0 23 0.235915 1
gene 3 24 25 -1.63236 0 24 -1.63236 1
gene 3 1 26 -8 0 25 -8 1
gene 2 2 26 -7.46751 0 26 -7.46751 1
gene 2 3 26 -1.03914 0 27 -1.03914 1
gene 3 4 26 -8 0 28 -8 1
gene 2 5 26 2.40292 0 29 2.40292 1
gene 2 6 26 8 0 30 8 1
gene 3 7 26 -3.70707 0 31 -3.70707 1
gene 1 8 26 -1.01525 0 32 -1.01525 1
gene 2 9 26 6.17263 0 33 6.17263 1
gene 2 10 26 0.550899 0 34 0.550899 1
gene 1 11 26 1.14855 0 35 1.14855 1
gene 2 12 26 4.55998 0 36 4.55998 1
gene 1 13 26 -2.30356 0 37 -2.30356 1
gene 3 14 26 -4.62218 0 38 -4.62218 1
gene 3 15 26 -1.53641 0 39 -1.53641 0
gene 3 16 26 -5.31646 0 40 -5.31646 1
gene 3 17 26 6.62614 0 41 6.62614 1
gene 2 18 26 -2.98664 0 42 -2.98664 1
gene 2 19 26 -2.55998 0 43 -2.55998 1
gene 2 20 26 -3.74943 0 44 -3.74943 1
gene 2 21 26 1.40912 0 45 1.40912 1
gene 1 22 26 -1.01091 0 46 -1.01091 1
gene 1 23 26 -1.07036 0 47 -1.07036 1
gene 3 24 26 0.339094 0 48 0.339094 1
gene 3 25 26 -0.558972 0 69 -0.558972 1
gene 2 11 47 1.32317 0 112 1.32317 1
gene 2 47 25 -0.39059 0 113 -0.39059 1
gene 3 22 47 -4.80275 0 145 -4.80275 1
gene 3 20 47 -0.0420965 0 200 -0.0420965 1
gene 3 1 47 -0.543131 0 215 -0.543131 1
gene 1 6 47 1.3786 0 319 1.3786 1
gene 2 47 138 -0.682038 0 422 -0.682038 1
gene 2 138 25 1.639 0 423 1.639 1
gene 1 21 138 2.0107 0 459 2.0107 1
gene 3 5 155 1.67467 0 484 1.67467 0
gene 3 155 25 -0.533503 0 485 -0.533503 1
gene 2 7 155 0.531566 0 549 0.531566 1
gene 2 14 155 -1.15293 0 593 -1.15293 1
gene 3 15 244 2.00525 0 765 2.00525 1
gene 3 244 26 -1.71853 0 766 -1.71853 1
gene 1 138 26 0.654764 0 879 0.654764 1
gene 3 22 155 -2.6048 0 907 -2.6048 1
genomeend 3

/* Organism #4 Fitness: 798.788 Error: 0 */
genomestart 4
trait 1 0.332422 0.485617 0.194575 0 0 0 0.131702 0.053126 
trait 2 0.0191406 0 0 0 0 0 0.0596922 0 
trait 3 0.309459 0 0.0175549 0.384674 0.0689713 0.362498 0.400818 0.260709 
node 1 1 1 3
node 2 1 1 1
node 3 3 1 1
node 4 2 1 1
node 5 2 1 1
node 6 2 1 1
node 7 1 1 1
node 8 1 1 1
node 9 3 1 1
node 10 2 1 1
node 11 2 1 1
node 12 1 1 1
node 13 3 1 1
node 14 1 1 1
node 15 2 1 1
node 16 2 1 1
node 17 1 1 1
node 18 1 1 1
node 19 1 1 1
node 20 2 1 1
node 21 3 1 1
node 22 2 1 1
node 23 3 1 1
node 24 3 1 1
node 25 1 0 2
node 26 3 0 2
node 47 3 0 0
node 138 1 0 0
node 155 1 0 0
node 244 1 0 0
node 292 1 0 0
gene 1 1 25 4.9624 0 1 4.9624 1
gene 3 2 25 -1.46613 0 2 -1.46613 1
gene 1 3 25 -5.60524 0 3 -5.60524 1
gene 3 4 25 -0.0503415 0 4 -0.0503415 1
gene 3 5 25 1.05384 0 5 1.05384 1
gene 3 6 25 6.64147 0 6 6.64147 1
gene 1 7 25 -5.59498 0 7 -5.59498 1
gene 1 8 25 7.4952 0 8 7.4952 1
gene 3 9 25 -0.185828 0 9 -0.185828 1
gene 3 10 25 -1.83771 0 10 -1.83771 1
gene 2 11 25 -3.41954 0 11 -3.41954 1
gene 1 12 25 5.98491 0 12 5.98491 1
gene 3 13 25 2.44225 0 13 2.44225 1
gene 2 14 25 -4.18115 0 14 -4.18115 1
gene 1 15 25 2.9597 0 15 2.9597 1
gene 2 16 25 5.85702 0 16 5.85702 1
gene 3 17 25 4.16589 0 17 4.16589 1
gene 3 18 25 2.63847 0 18 2.63847 1
gene 3 19 25 0.391142 0 19 0.391142 1
gene 2 20 25 5.83514 0 20 5.83514 1
gene 1 21 25 -2.64966 0 21 -2.64966 1
gene 1 22 25 2.9895 0 22 2.9895 1
gene 2 23 25 0.978924 0 23 0.978924 1
gene 3 24 25 0.568122 0 24 0.568122 1
gene 3 1 26 -7.9841 0 25 -7.9841 1
gene 2 2 26 -7.8195 0 26 -7.8195 1
gene 2 3 26 -2.09123 0 27 -2.09123 1
gene 3 4 26 -7.32886 0 28 -7.32886 1
gene 2 5 26 5.6529 0 29 5.6529 1
gene 2 6 26 7.46011 0 30 7.46011 1
gene 3 7 26 -4.70646 0 31 -4.70646 1
gene 1 8 26 -0.779567 0 32 -0.779567 1
gene 2 9 26 5.1225 0 33 5.1225 1
gene 2 10 26 1.6947 0 34 1.6947 1
gene 1 11 26 0.804272 0 35 0.804272 1
gene 2 12 26 5.55121 0 36 5.55121 1
gene 1 13 26 -1.09834 0 37 -1.09834 1
gene 3 14 26 -4.42021 0 38 -4.42021 1
gene 3 15 26 -0.84361 0 39 -0.84361 0
gene 3 16 26 -7.54607 0 40 -7.54607 1
gene 3 17 26 5.25007 0 41 5.25007 1
gene 2 18 26 -3.01228 0 42 -3.01228 1
gene 2 19 26 -1.99235 0 43 -1.99235 1
gene 2 20 26 -0.857028 0 44 -0.857028 1
gene 2 21 26 3.02212 0 45 3.02212 1
gene 1 22 26 0.321798 0 46 0.321798 1
gene 1 23 26 -1.09812 0 47 -1.09812 1
gene 3 24 26 1.37175 0 48 1.37175 1
gene 3 25 26 -2.60635 0 69 -2.60635 1
gene 2 11 47 -0.877616 0 112 -0.877616 1
gene 2 47 25 1.46453 0 113 1.46453 1
gene 3 22 47 -3.15711 0 145 -3.15711 1
gene 3 20 47 1.30663 0 200 1.30663 1
gene 3 1 47 -0.302907 0 215 -0.302907 1
gene 1 6 47 1.62085 0 319 1.62085 1
gene 2 47 138 0.0883085 0 422 -0.380442 1
gene 2 138 25 0.200452 0 423 -0.630307 1
gene 1 21 138 -0.0995898 0 459 -0.0995898 1
gene 3 5 155 1.67467 0 484 1.44029 1
gene 3 155 25 1.09443 0 485 0.729767 1
gene 2 7 155 0.531566 0 549 0.531566 1
gene 2 14 155 -1.64028 0 593 -1.64028 1
gene 3 15 244 1 0 765 0.5 1
gene 3 244 26 -1.25426 0 766 -0.373049 1
gene 1 138 26 -1.26758 0 879 -1.26758 1
gene 3 22 155 -0.830042 0 907 -0.830042 1
gene 3 5 292 1 0 939 0 1
gene 3 292 155 1.67467 0 940 0 1
genomeend 4

/* Organism #5 Fitness: 3.73676 Error: 0 */
genomestart 5
trait 1 0.332422 0.485617 0.194575 0 0 0 0.131702 0.053126 
trait 2 0.0273438 0 0 0 0 0 0.0596922 0 
trait 3 0.309459 0 0.0175549 0.384674 0.0689713 0.362498 0.400818 0.260709 
node 1 1 1 3
node 2 1 1 1
node 3 3 1 1
node 4 2 1 1
node 5 2 1 1
node 6 2 1 1
node 7 1 1 1
node 8 1 1 1
node 9 3 1 1
node 10 2 1 1
node 11 2 1 1
node 12 1 1 1
node 13 3 1 1
node 14 1 1 1
node 15 2 1 1
node 16 2 1 1
node 17 1 1 1
node 18 1 1 1
node 19 1 1 1
node 20 2 1 1
node 21 3 1 1
node 22 2 1 1
node 23 3 1 1
node 24 3 1 1
node 25 1 0 2
node 26 3 0 2
node 47 3 0 0
node 138 1 0 0
node 155 1 0 0
node 244 1 0 0
gene 1 1 25 2.94722 0 1 2.94722 1
gene 3 2 25 -1.02295 0 2 -1.02295 1
gene 1 3 25 -6.22036 0 3 -6.22036 1
gene 3 4 25 0.696502 0 4 0.696502 1
gene 3 5 25 -0.914762 0 5 -0.914762 1
gene 3 6 25 8 0 6 8 1
gene 1 7 25 -7.22207 0 7 -7.22207 1
gene 1 8 25 8 0 8 8 1
gene 3 9 25 -1.61985 0 9 -1.61985 1
gene 3 10 25 -1.50915 0 10 -1.50915 1
gene 2 11 25 -2.06063 0 11 -2.06063 1
gene 1 12 25 5.90907 0 12 5.90907 1
gene 3 13 25 -0.316919 0 13 -0.316919 1
gene 2 14 25 -1.95209 0 14 -1.95209 1
gene 1 15 25 2.06215 0 15 2.06215 1
gene 2 16 25 5.9651 0 16 5.9651 1
gene 3 17 25 5.15211 0 17 5.15211 1
gene 3 18 25 3.0717 0 18 3.0717 1
gene 3 19 25 -0.83003 0 19 -0.83003 1
gene 2 20 25 5.91755 0 20 5.91755 1
gene 1 21 25 -3.94436 0 21 -3.94436 1
gene 1 22 25 3.52467 0 22 3.52467 1
gene 2 23 25 0.729491 0 23 0.729491 1
gene 3 24 25 0.99194 0 24 0.99194 1
gene 3 1 26 -6.13851 0 25 -6.13851 1
gene 2 2 26 -7.64254 0 26 -7.64254 1
gene 2 3 26 -1.93233 0 27 -1.93233 1
gene 3 4 26 -8 0 28 -8 1
gene 2 5 26 5.5331 0 29 5.5331 1
gene 2 6 26 4.52281 0 30 4.52281 1
gene 3 7 26 -5.54852 0 31 -5.54852 1
gene 1 8 26 -1.26283 0 32 -1.26283 1
gene 2 9 26 4.05916 0 33 4.05916 1
gene 2 10 26 4.33052 0 34 4.33052 1
gene 1 11 26 -2.07812 0 35 -2.07812 1
gene 2 12 26 7.4629 0 36 7.4629 1
gene 1 13 26 -3.11755 0 37 -3.11755 1
gene 3 14 26 -4.15248 0 38 -4.15248 1
gene 3 15 26 -3.39959 0 39 -3.39959 0
gene 3 16 26 -6.57313 0 40 -6.57313 1
gene 3 17 26 6.14472 0 41 6.14472 1
gene 2 18 26 -2.53349 0 42 -2.53349 1
gene 2 19 26 0.409861 0 43 0.409861 1
gene 2 20 26 -0.912112 0 44 -0.912112 1
gene 2 21 26 2.54244 0 45 2.54244 1
gene 1 22 26 -0.80359 0 46 -0.80359 1
gene 1 23 26 -1.97485 0 47 -1.97485 1
gene 3 24 26 0.579253 0 48 0.579253 1
gene 3 25 26 -2.49621 0 69 -2.49621 1
gene 2 11 47 2.43281 0 112 2.43281 1
gene 2 47 25 0.351969 0 113 0.351969 1
gene 3 22 47 -1.90975 0 145 -1.90975 1
gene 3 20 47 -0.384658 0 200 -0.384658 1
gene 3 1 47 -2.58763 0 215 -2.58763 1
gene 1 6 47 2.87166 0 319 2.87166 1
gene 2 47 138 0.61145 0 422 0.61145 1
gene 2 138 25 -0.020389 0 423 -0.020389 1
gene 1 21 138 -0.0995898 0 459 -0.0995898 1
gene 3 5 155 1.67467 0 484 1.67467 1
gene 3 155 25 0.692132 0 485 0.692132 1
gene 2 7 155 0.531566 0 549 0.531566 1
gene 2 14 155 -1.58777 0 593 -1.58777 1
gene 3 15 244 1.51209 0 765 1.51209 1
gene 3 244 26 -0.343268 0 766 -0.343268 1
gene 1 138 26 -0.486598 0 879 -0.486598 1
gene 3 22 155 -1.01586 0 907 -1.01586 1
genomeend 5

/* Organism #6 Fitness: 2.60853 Error: 0 */
genomestart 6
trait 1 0.332422 0.485617 0.194575 0 0 0 0.131702 0.053126 
trait 2 0.0273438 0 0 0 0 0 0.0596922 0 
trait 3 0.309459 0 0.0175549 0.384674 0.0689713 0.362498 0.400818 0.260709 
node 1 1 1 3
node 2 1 1 1
node 3 3 1 1
node 4 2 1 1
node 5 2 1 1
node 6 2 1 1
node 7 1 1 1
node 8 1 1 1
node 9 3 1 1
node 10 2 1 1
node 11 2 1 1
node 12 1 1 1
node 13 3 1 1
node 14 1 1 1
node 15 2 1 1
node 16 2 1 1
node 17 1 1 1
node 18 1 1 1
node 19 1 1 1
node 20 2 1 1
node 21 3 1 1
node 22 2 1 1
node 23 3 1 1
node 24 3 1 1
node 25 1 0 2
node 26 3 0 2
node 47 3 0 0
node 138 1 0 0
node 155 1 0 0
node 244 1 0 0
gene 1 1 25 2.73417 0 1 2.73417 1
gene 3 2 25 1.00327 0 2 1.00327 1
gene 1 3 25 -6.51742 0 3 -6.51742 1
gene 3 4 25 0.222303 0 4 0.222303 1
gene 3 5 25 0.690454 0 5 0.690454 1
gene 3 6 25 7.11796 0 6 7.11796 1
gene 1 7 25 -5.07149 0 7 -5.07149 1
gene 1 8 25 8 0 8 8 1
gene 3 9 25 1.50101 0 9 1.50101 1
gene 3 10 25 -3.98767 0 10 -3.98767 1
gene 2 11 25 -0.968837 0 11 -0.968837 1
gene 1 12 25 3.93047 0 12 3.93047 1
gene 3 13 25 2.83259 0 13 2.83259 1
gene 2 14 25 -4.31213 0 14 -4.31213 1
gene 1 15 25 3.84414 0 15 3.84414 1
gene 2 16 25 -1.49107 0 16 -1.49107 1
gene 3 17 25 0.0732755 0 17 0.0732755 1
gene 3 18 25 3.72279 0 18 3.72279 1
gene 3 19 25 -0.272203 0 19 -0.272203 1
gene 2 20 25 4.11739 0 20 4.11739 1
gene 1 21 25 -3.88159 0 21 -3.88159 1
gene 1 22 25 0.375361 0 22 0.375361 1
gene 2 23 25 1.87727 0 23 1.87727 1
gene 3 24 25 -0.0473549 0 24 -0.0473549 1
gene 3 1 26 1.06392 0 25 1.06392 1
gene 2 2 26 -8 0 26 -8 1
gene 2 3 26 -1.53864 0 27 -1.53864 1
gene 3 4 26 -8 0 28 -8 1
gene 2 5 26 5.76108 0 29 5.76108 1
gene 2 6 26 6.70639 0 30 6.70639 1
gene 3 7 26 -4.24938 0 31 -4.24938 1
gene 1 8 26 1.21699 0 32 1.21699 1
gene 2 9 26 5.66988 0 33 5.66988 1
gene 2 10 26 -0.842097 0 34 -0.842097 1
gene 1 11 26 0.750266 0 35 0.750266 1
gene 2 12 26 0.99902 0 36 0.99902 1
gene 1 13 26 -3.85666 0 37 -3.85666 1
gene 3 14 26 -4.23429 0 38 -4.23429 1
gene 3 15 26 -2.73916 0 39 -2.73916 0
gene 3 16 26 -5.96599 0 40 -5.96599 1
gene 3 17 26 5.09187 0 41 5.09187 1
gene 2 18 26 -1.96045 0 42 -1.96045 1
gene 2 19 26 -0.232854 0 43 -0.232854 1
gene 2 20 26 -2.39743 0 44 -2.39743 1
gene 2 21 26 -1.986 0 45 -1.986 1
gene 1 22 26 -1.02616 0 46 -1.02616 1
gene 1 23 26 1.0133 0 47 1.0133 1
gene 3 24 26 -1.73821 0 48 -1.73821 1
gene 3 25 26 -3.85393 0 69 -3.85393 1
gene 2 11 47 2.00016 0 112 2.00016 1
gene 2 47 25 2.40092 0 113 2.40092 1
gene 3 22 47 -4.90623 0 145 -4.90623 1
gene 3 20 47 0.175429 0 200 0.175429 1
gene 3 1 47 1.80029 0 215 1.80029 1
gene 1 6 47 2.18683 0 319 2.18683 1
gene 2 47 138 -0.118318 0 422 -0.118318 1
gene 2 138 25 1.79868 0 423 1.79868 1
gene 1 21 138 -0.0995898 0 459 -0.0995898 1
gene 3 5 155 2.17179 0 484 2.17179 1
gene 3 155 25 -0.467105 0 485 -0.467105 1
gene 2 7 155 -1.03424 0 549 -1.03424 1
gene 2 14 155 2.35486 0 593 2.35486 1
gene 3 15 244 -0.551266 0 765 -0.551266 1
gene 3 244 26 -3.63076 0 766 -3.63076 1
gene 1 138 26 0.743088 0 879 0.743088 1
gene 3 22 155 -0.830042 0 907 -0.830042 1
genomeend 6

/* Organism #7 Fitness: 78.913 Error: 0 */
genomestart 7
trait 1 0.332422 0.485617 0.194575 0 0 0 0.131702 0.053126 
trait 2 0.0232422 0 0 0 0 0 0.0596922 0 
trait 3 0.309459 0 0.0175549 0.384674 0.0689713 0.362498 0.400818 0.260709 
node 1 1 1 3
node 2 1 1 1
node 3 3 1 1
node 4 2 1 1
node 5 2 1 1
node 6 2 1 1
node 7 1 1 1
node 8 1 1 1
node 9 3 1 1
node 10 2 1 1
node 11 2 1 1
node 12 1 1 1
node 13 3 1 1
node 14 1 1 1
node 15 2 1 1
node 16 2 1 1
node 17 1 1 1
node 18 1 1 1
node 19 1 1 1
node 20 2 1 1
node 21 3 1 1
node 22 2 1 1
node 23 3 1 1
node 24 3 1 1
node 25 1 0 2
node 26 3 0 2
node 47 3 0 0
node 138 1 0 0
node 155 1 0 0
node 244 1 0 0
gene 1 1 25 5.00744 0 1 5.00744 1
gene 3 2 25 0.0948345 0 2 0.0948345 1
gene 1 3 25 -6.87677 0 3 -6.87677 1
gene 3 4 25 2.03332 0 4 2.03332 1
gene 3 5 25 -0.152643 0 5 -0.152643 1
gene 3 6 25 5.5177 0 6 5.5177 1
gene 1 7 25 -4.88428 0 7 -4.88428 1
gene 1 8 25 8 0 8 8 1
gene 3 9 25 -0.38709 0 9 -0.38709 1
gene 3 10 25 -2.91835 0 10 -2.91835 1
gene 2 11 25 -0.77032 0 11 -0.77032 1
gene 1 12 25 2.877 0 12 2.877 1
gene 3 13 25 2.33268 0 13 2.33268 1
gene 2 14 25 -4.88262 0 14 -4.88262 1
gene 1 15 25 2.23142 0 15 2.23142 1
gene 2 16 25 7.64345 0 16 7.64345 1
gene 3 17 25 4.4639 0 17 4.4639 1
gene 3 18 25 3.29967 0 18 3.29967 1
gene 3 19 25 0.651264 0 19 0.651264 1
gene 2 20 25 5.42899 0 20 5.42899 1
gene 1 21 25 -4.07679 0 21 -4.07679 1
gene 1 22 25 4.44298 0 22 4.44298 1
gene 2 23 25 1.20628 0 23 1.20628 1
gene 3 24 25 1.043 0 24 1.043 1
gene 3 1 26 -8 0 25 -8 1
gene 2 2 26 -7.92818 0 26 -7.92818 1
gene 2 3 26 -0.696526 0 27 -0.696526 1
gene 3 4 26 -7.80857 0 28 -7.80857 1
gene 2 5 26 4.10282 0 29 4.10282 1
gene 2 6 26 8 0 30 8 1
gene 3 7 26 -3.12405 0 31 -3.12405 1
gene 1 8 26 -1.85422 0 32 -1.85422 1
gene 2 9 26 5.18072 0 33 5.18072 1
gene 2 10 26 0.464991 0 34 0.464991 1
gene 1 11 26 -0.698243 0 35 -0.698243 1
gene 2 12 26 3.11516 0 36 3.11516 1
gene 1 13 26 -3.30681 0 37 -3.30681 1
gene 3 14 26 -5.4934 0 38 -5.4934 1
gene 3 15 26 -1.87575 0 39 -1.87575 0
gene 3 16 26 -4.66402 0 40 -4.66402 1
gene 3 17 26 6.69598 0 41 6.69598 1
gene 2 18 26 -6.2512 0 42 -6.2512 1
gene 2 19 26 0.427684 0 43 0.427684 1
gene 2 20 26 -3.66722 0 44 -3.66722 1
gene 2 21 26 4.27454 0 45 4.27454 1
gene 1 22 26 1.34758 0 46 1.34758 1
gene 1 23 26 2.10275 0 47 2.10275 1
gene 3 24 26 1.27796 0 48 1.27796 1
gene 3 25 26 -0.868791 0 69 -0.868791 1
gene 2 11 47 0.674869 0 112 0.674869 1
gene 2 47 25 -0.388555 0 113 -0.388555 1
gene 3 22 47 -4.58617 0 145 -4.58617 1
gene 3 20 47 1.29692 0 200 1.29692 1
gene 3 1 47 -2.33138 0 215 -2.33138 1
gene 1 6 47 -0.0683435 0 319 -0.0683435 1
gene 2 47 138 0.828432 0 422 0.828432 1
gene 2 138 25 0.30163 0 423 0.30163 1
gene 1 21 138 -0.0995898 0 459 -0.0995898 1
gene 3 5 155 1.67467 0 484 1.67467 1
gene 3 155 25 -0.163701 0 485 -0.163701 1
gene 2 7 155 0.248534 0 549 0.248534 1
gene 2 14 155 -1.83583 0 593 -1.83583 1
gene 3 15 244 -1.32002 0 765 -1.32002 1
gene 3 244 26 -1.18269 0 766 -1.18269 1
gene 1 138 26 -2.40134 0 879 -2.40134 1
gene 3 22 155 -0.830042 0 907 -0.830042 1
genomeend 7

/* Organism #8 Fitness: 63.1687 Error: 0 */
genomestart 8
trait 1 0.332422 0.485617 0.194575 0 0 0 0.131702 0.053126 
trait 2 0.0109375 0 0 0 0 0 0.0596922 0 
trait 3 0.309459 0 0.0175549 0.384674 0.0689713 0.362498 0.400818 0.260709 
node 1 1 1 3
node 2 1 1 1
node 3 3 1 1
node 4 2 1 1
node 5 2 1 1
node 6 2 1 1
node 7 1 1 1
node 8 1 1 1
node 9 3 1 1
node 10 2 1 1
node 11 2 1 1
node 12 1 1 1
node 13 3 1 1
node 14 1 1 1
node 15 2 1 1
node 16 2 1 1
node 17 1 1 1
node 18 1 1 1
node 19 1 1 1
node 20 2 1 1
node 21 3 1 1
node 22 2 1 1
node 23 3 1 1
node 24 3 1 1
node 25 1 0 2
node 26 3 0 2
node 47 3 0 0
node 138 1 0 0
node 155 1 0 0
node 244 1 0 0
node 292 1 0 0
gene 1 1 25 4.26987 0 1 4.26987 1
gene 3 2 25 -0.822011 0 2 -0.822011 1
gene 1 3 25 -7.63363 0 3 -7.63363 1
gene 3 4 25 -0.0837318 0 4 -0.0837318 1
gene 3 5 25 2.78146 0 5 2.78146 1
gene 3 6 25 5.76205 0 6 5.76205 1
gene 1 7 25 -2.72496 0 7 -2.72496 1
gene 1 8 25 8 0 8 8 1
gene 3 9 25 -0.577066 0 9 -0.577066 1
gene 3 10 25 -2.42216 0 10 -2.42216 1
gene 2 11 25 -5.43334 0 11 -5.43334 1
gene 1 12 25 5.53803 0 12 5.53803 1
gene 3 13 25 -1.16389 0 13 -1.16389 1
gene 2 14 25 -5.20267 0 14 -5.20267 1
gene 1 15 25 2.85275 0 15 2.85275 1
gene 2 16 25 5.79983 0 16 5.79983 1
gene 3 17 25 5.36492 0 17 5.36492 1
gene 3 18 25 5.03705 0 18 5.03705 1
gene 3 19 25 3.11188 0 19 3.11188 1
gene 2 20 25 4.75404 0 20 4.75404 1
gene 1 21 25 -0.28785 0 21 -0.28785 1
gene 1 22 25 3.84362 0 22 3.84362 1
gene 2 23 25 2.54036 0 23 2.54036 1
gene 3 24 25 1.50941 0 24 1.50941 1
gene 3 1 26 -7.02013 0 25 -7.02013 1
gene 2 2 26 -6.84919 0 26 -6.84919 1
gene 2 3 26 0.255168 0 27 0.255168 1
gene 3 4 26 -8 0 28 -8 1
gene 2 5 26 3.88053 0 29 3.88053 1
gene 2 6 26 7.93331 0 30 7.93331 1
gene 3 7 26 -4.00299 0 31 -4.00299 1
gene 1 8 26 -2.69927 0 32 -2.69927 1
gene 2 9 26 7.89624 0 33 7.89624 1
gene 2 10 26 3.89749 0 34 3.89749 1
gene 1 11 26 1.7757 0 35 1.7757 1
gene 2 12 26 4.68585 0 36 4.68585 1
gene 1 13 26 -0.315774 0 37 -0.315774 1
gene 3 14 26 -5.88106 0 38 -5.88106 1
gene 3 15 26 0.355828 0 39 0.355828 0
gene 3 16 26 -7.02072 0 40 -7.02072 1
gene 3 17 26 5.33611 0 41 5.33611 1
gene 2 18 26 -4.93538 0 42 -4.93538 1
gene 2 19 26 -1.91137 0 43 -1.91137 1
gene 2 20 26 -2.85621 0 44 -2.85621 1
gene 2 21 26 0.477195 0 45 0.477195 1
gene 1 22 26 1.90268 0 46 1.90268 1
gene 1 23 26 -0.194483 0 47 -0.194483 1
gene 3 24 26 0.846649 0 48 0.846649 1
gene 3 25 26 -4.41923 0 69 -4.41923 1
gene 2 11 47 2.78445 0 112 2.78445 1
gene 2 47 25 -0.24589 0 113 -0.24589 1
gene 3 22 47 -4.86832 0 145 -4.86832 1
gene 3 20 47 0.317854 0 200 0.317854 1
gene 3 1 47 0.976498 0 215 0.976498 1
gene 1 6 47 2.35608 0 319 2.35608 1
gene 2 47 138 0.456113 0 422 0.456113 1
gene 2 138 25 1.79868 0 423 1.79868 1
gene 1 21 138 -0.0995898 0 459 -0.0995898 1
gene 3 5 155 1.19552 0 484 1.19552 0
gene 3 155 25 -1.0162 0 485 -1.0162 1
gene 2 7 155 -0.795996 0 549 -0.795996 1
gene 2 14 155 -0.851078 0 593 -0.851078 1
gene 3 15 244 1.33047 0 765 1.33047 1
gene 3 244 26 -1.76242 0 766 -1.76242 1
gene 1 138 26 1.04129 0 879 1.04129 1
gene 3 22 155 -1.30551 0 907 -1.30551 1
gene 3 5 292 1 0 939 1 1
gene 3 292 155 1.21338 0 940 1.21338 1
genomeend 8

/* Organism #9 Fitness: 1.02023 Error: 0 */
genomestart 9
trait 1 0.332422 0.485617 0.194575 0 0 0 0.131702 0.053126 
trait 2 0.0273438 0 0 0 0 0 0.0596922 0 
trait 3 0.309459 0 0.0175549 0.384674 0.0689713 0.362498 0.400818 0.260709 
node 1 1 1 3
node 2 1 1 1
node 3 3 1 1
node 4 2 1 1
node 5 2 1 1
node 6 2 1 1
node 7 1 1 1
node 8 1 1 1
node 9 3 1 1
node 10 2 1 1
node 11 2 1 1
node 12 1 1 1
node 13 3 1 1
node 14 1 1 1
node 15 2 1 1
node 16 2 1 1
node 17 1 1 1
node 18 1 1 1
node 19 1 1 1
node 20 2 1 1
node 21 3 1 1
node 22 2 1 1
node 23 3 1 1
node 24 3 1 1
node 25 1 0 2
node 26 3 0 2
node 47 3 0 0
node 138 1 0 0
node 155 1 0 0
node 244 1 0 0
gene 1 1 25 -2.13861 0 1 -2.13861 1
gene 3 2 25 1.14119 0 2 1.14119 1
gene 1 3 25 -5.53777 0 3 -5.53777 1
gene 3 4 25 -2.18205 0 4 -2.18205 1
gene 3 5 25 2.69192 0 5 2.69192 1
gene 3 6 25 5.7578 0 6 5.7578 1
gene 1 7 25 -4.8506 0 7 -4.8506 1
gene 1 8 25 0.265577 0 8 0.265577 1
gene 3 9 25 0.683614 0 9 0.683614 1
gene 3 10 25 -2.8347 0 10 -2.8347 1
gene 2 11 25 -6.05732 0 11 -6.05732 1
gene 1 12 25 4.93411 0 12 4.93411 1
gene 3 13 25 2.2111 0 13 2.2111 1
gene 2 14 25 -6.19862 0 14 -6.19862 1
gene 1 15 25 4.74883 0 15 4.74883 1
gene 2 16 25 2.83489 0 16 2.83489 1
gene 3 17 25 1.31227 0 17 1.31227 1
gene 3 18 25 -0.37381 0 18 -0.37381 1
gene 3 19 25 -1.33542 0 19 -1.33542 1
gene 2 20 25 6.05296 0 20 6.05296 1
gene 1 21 25 -3.08577 0 21 -3.08577 1
gene 1 22 25 0.978476 0 22 0.978476 1
gene 2 23 25 -0.261154 0 23 -0.261154 1
gene 3 24 25 2.1827 0 24 2.1827 1
gene 3 1 26 -8 0 25 -8 1
gene 2 2 26 -6.141 0 26 -6.141 1
gene 2 3 26 -0.508729 0 27 -0.508729 1
gene 3 4 26 -8 0 28 -8 1
gene 2 5 26 7.79533 0 29 7.79533 1
gene 2 6 26 8 0 30 8 1
gene 3 7 26 0.969863 0 31 0.969863 1
gene 1 8 26 -1.83949 0 32 -1.83949 1
gene 2 9 26 3.89648 0 33 3.89648 1
gene 2 10 26 -0.800135 0 34 -0.800135 1
gene 1 11 26 0.899653 0 35 0.899653 1
gene 2 12 26 -2.24149 0 36 -2.24149 1
gene 1 13 26 -2.04043 0 37 -2.04043 1
gene 3 14 26 -3.23141 0 38 -3.23141 1
gene 3 15 26 -1.92158 0 39 -1.92158 0
gene 3 16 26 -5.4556 0 40 -5.4556 1
gene 3 17 26 -0.763106 0 41 -0.763106 1
gene 2 18 26 0.404336 0 42 0.404336 1
gene 2 19 26 -0.857417 0 43 -0.857417 1
gene 2 20 26 2.66714 0 44 2.66714 1
gene 2 21 26 2.84314 0 45 2.84314 1
gene 1 22 26 0.689187 0 46 0.689187 1
gene 1 23 26 -3.03849 0 47 -3.03849 1
gene 3 24 26 -0.287578 0 48 -0.287578 1
gene 3 25 26 -0.335072 0 69 -0.335072 1
gene 2 11 47 -0.738309 0 112 -0.738309 1
gene 2 47 25 -1.07978 0 113 -1.07978 1
gene 3 22 47 -2.46908 0 145 -2.46908 1
gene 3 20 47 0.175429 0 200 0.175429 1
gene 3 1 47 -0.0626829 0 215 -0.0626829 1
gene 1 6 47 2.87019 0 319 2.87019 1
gene 2 47 138 -1.15167 0 422 -1.15167 1
gene 2 138 25 2.31844 0 423 2.31844 1
gene 1 21 138 -1.84547 0 459 -1.84547 1
gene 3 5 155 1.93584 0 484 1.93584 1
gene 3 155 25 -2.19741 0 485 -2.19741 1
gene 2 7 155 -1.2269 0 549 -1.2269 1
gene 2 14 155 -4.50946 0 593 -4.50946 1
gene 3 15 244 -2.33357 0 765 -2.33357 1
gene 3 244 26 2.006 0 766 2.006 1
gene 1 138 26 -0.905101 0 879 -0.905101 1
gene 3 22 155 -2.74886 0 907 -2.74886 1
genomeend 9

/* Organism #10 Fitness: 58.1956 Error: 0 */
genomestart 10
trait 1 0.332422 0.485617 0.194575 0 0 0 0.131702 0.053126 
trait 2 0.0273438 0 0 0 0 0 0.0596922 0 
trait 3 0.309459 0 0.0175549 0.384674 0.0689713 0.362498 0.400818 0.260709 
node 1 1 1 3
node 2 1 1 1
node 3 3 1 1
node 4 2 1 1
node 5 2 1 1
node 6 2 1 1
node 7 1 1 1
node 8 1 1 1
node 9 3 1 1
node 10 2 1 1
node 11 2 1 1
node 12 1 1 1
node 13 3 1 1
node 14 1 1 1
node 15 2 1 1
node 16 2 1 1
node 17 1 1 1
node 18 1 1 1
node 19 1 1 1
node 20 2 1 1
node 21 3 1 1
node 22 2 1 1
node 23 3 1 1
node 24 3 1 1
node 25 1 0 2
node 26 3 0 2
node 47 3 0 0
node 138 1 0 0
node 155 1 0 0
node 244 1 0 0
gene 1 1 25 7.14567 0 1 7.14567 1
gene 3 2 25 -2.21848 0 2 -2.21848 1
gene 1 3 25 -7.396 0 3 -7.396 1
gene 3 4 25 2.09549 0 4 2.09549 1
gene 3 5 25 1.72042 0 5 1.72042 1
gene 3 6 25 7.74498 0 6 7.74498 1
gene 1 7 25 -3.75146 0 7 -3.75146 1
gene 1 8 25 6.27661 0 8 6.27661 1
gene 3 9 25 -1.66641 0 9 -1.66641 1
gene 3 10 25 -0.0866908 0 10 -0.0866908 1
gene 2 11 25 -4.8004 0 11 -4.8004 1
gene 1 12 25 6.26252 0 12 6.26252 1
gene 3 13 25 0.243166 0 13 0.243166 1
gene 2 14 25 -2.98448 0 14 -2.98448 1
gene 1 15 25 2.02837 0 15 2.02837 1
gene 2 16 25 2.92257 0 16 2.92257 1
gene 3 17 25 7.00566 0 17 7.00566 1
gene 3 18 25 3.03147 0 18 3.03147 1
gene 3 19 25 3.31324 0 19 3.31324 1
gene 2 20 25 3.82485 0 20 3.82485 1
gene 1 21 25 -2.70946 0 21 -2.70946 1
gene 1 22 25 5.9894 0 22 5.9894 1
gene 2 23 25 0.619745 0 23 0.619745 1
gene 3 24 25 2.05705 0 24 2.05705 1
gene 3 1 26 -5.84608 0 25 -5.84608 1
gene 2 2 26 -6.05974 0 26 -6.05974 1
gene 2 3 26 0.309497 0 27 0.309497 1
gene 3 4 26 -7.56634 0 28 -7.56634 1
gene 2 5 26 6.13965 0 29 6.13965 1
gene 2 6 26 5.07234 0 30 5.07234 1
gene 3 7 26 -2.32775 0 31 -2.32775 1
gene 1 8 26 -3.78944 0 32 -3.78944 1
gene 2 9 26 6.13307 0 33 6.13307 1
gene 2 10 26 2.18904 0 34 2.18904 1
gene 1 11 26 1.25809 0 35 1.25809 1
gene 2 12 26 5.24613 0 36 5.24613 1
gene 1 13 26 -3.27106 0 37 -3.27106 1
gene 3 14 26 -5.38099 0 38 -5.38099 1
gene 3 15 26 -2.98083 0 39 -2.98083 1
gene 3 16 26 -7.71744 0 40 -7.71744 1
gene 3 17 26 3.55913 0 41 3.55913 1
gene 2 18 26 -5.37565 0 42 -5.37565 1
gene 2 19 26 -1.59382 0 43 -1.59382 1
gene 2 20 26 -3.41252 0 44 -3.41252 1
gene 2 21 26 2.59708 0 45 2.59708 1
gene 1 22 26 -1.32954 0 46 -1.32954 1
gene 1 23 26 1.54464 0 47 1.54464 1
gene 3 24 26 3.10919 0 48 3.10919 1
gene 3 25 26 -0.781609 0 69 -0.781609 1
gene 2 11 47 1.67615 0 112 1.67615 1
gene 2 47 25 0.0781501 0 113 0.0781501 1
gene 3 22 47 -4.17129 0 145 -4.17129 1
gene 3 20 47 0.80627 0 200 0.80627 1
gene 3 1 47 -0.401936 0 215 -0.401936 1
gene 1 6 47 3.57555 0 319 3.57555 1
gene 2 47 138 -0.0515815 0 422 -0.0515815 1
gene 2 138 25 -0.243954 0 423 -0.243954 1
gene 1 21 138 1.17102 0 459 1.17102 1
gene 3 5 155 -0.168133 0 484 -0.168133 1
gene 3 155 25 -0.163701 0 485 -0.163701 1
gene 2 7 155 -1.95611 0 549 -1.95611 1
gene 2 14 155 -0.851078 0 593 -0.851078 1
gene 3 15 244 -0.0095601 0 765 -0.0095601 1
gene 3 244 26 -0.974258 0 766 -0.974258 1
gene 1 138 26 -0.629115 0 879 -0.629115 1
gene 3 22 155 -0.132956 0 907 -0.132956 1
genomeend 10

/* Species #40 : (Size 16) (AF 245.268) (Age 30)  */


/* Organism #11 Fitness: 637.754 Error: 0 */
genomestart 11
trait 1 0.332422 0.485617 0.194575 0 0 0 0.131702 0.053126 
trait 2 0.175 0 0 0.053676 0 0.245247 0.0447691 0 
trait 3 0.309459 0 0.0702194 0.485099 0.055177 0.289998 0.382481 0.260709 
node 1 1 1 3
node 2 1 1 1
node 3 3 1 1
node 4 2 1 1
node 5 2 1 1
node 6 2 1 1
node 7 1 1 1
node 8 1 1 1
node 9 3 1 1
node 10 2 1 1
node 11 2 1 1
node 12 1 1 1
node 13 3 1 1
node 14 1 1 1
node 15 2 1 1
node 16 2 1 1
node 17 1 1 1
node 18 1 1 1
node 19 1 1 1
node 20 2 1 1
node 21 3 1 1
node 22 2 1 1
node 23 3 1 1
node 24 3 1 1
node 25 1 0 2
node 26 3 0 2
node 47 3 0 0
node 164 1 0 0
node 168 1 0 0
node 214 1 0 0
node 253 1 0 0
node 289 1 0 0
gene 1 1 25 6.51751 0 1 6.51751 1
gene 3 2 25 -1.17557 0 2 -1.17557 1
gene 1 3 25 -7.80206 0 3 -7.80206 1
gene 3 4 25 -1.98603 0 4 -1.98603 0
gene 3 5 25 1.9341 0 5 1.9341 1
gene 3 6 25 8 0 6 8 1
gene 1 7 25 -6.87076 0 7 -6.87076 1
gene 1 8 25 7.5052 0 8 7.5052 1
gene 3 9 25 -3.38219 0 9 -3.38219 1
gene 3 10 25 -1.24589 0 10 -1.24589 1
gene 2 11 25 -1.53491 0 11 -1.53491 1
gene 1 12 25 4.54967 0 12 4.54967 1
gene 3 13 25 5.18898 0 13 5.18898 1
gene 2 14 25 -4.83028 0 14 -4.83028 1
gene 1 15 25 4.43122 0 15 4.43122 1
gene 2 16 25 3.21459 0 16 3.21459 1
gene 3 17 25 4.69183 0 17 4.69183 1
gene 3 18 25 1.88243 0 18 1.88243 1
gene 3 19 25 2.05207 0 19 2.05207 1
gene 3 20 25 4.85553 0 20 4.85553 1
gene 1 21 25 -4.98636 0 21 -4.98636 1
gene 1 22 25 5.23413 0 22 5.23413 1
gene 2 23 25 -0.177356 0 23 -0.177356 1
gene 3 24 25 0.345344 0 24 0.345344 1
gene 3 1 26 -7.59246 0 25 -7.59246 1
gene 2 2 26 -7.80418 0 26 -7.80418 1
gene 2 3 26 -1.83719 0 27 -1.83719 1
gene 3 4 26 -7.0955 0 28 -7.0955 1
gene 2 5 26 0.964905 0 29 0.964905 1
gene 2 6 26 3.9247 0 30 3.9247 1
gene 3 7 26 -5.52872 0 31 -5.52872 1
gene 1 8 26 0.20441 0 32 0.20441 1
gene 2 9 26 5.90234 0 33 5.90234 1
gene 2 10 26 0.26655 0 34 0.26655 1
gene 1 11 26 -0.337623 0 35 -0.337623 1
gene 2 12 26 4.56692 0 36 4.56692 1
gene 1 13 26 -0.257795 0 37 -0.257795 0
gene 3 14 26 -5.53542 0 38 -5.53542 1
gene 3 15 26 -1.91397 0 39 -1.91397 1
gene 3 16 26 -5.88155 0 40 -5.88155 0
gene 3 17 26 7.247 0 41 7.247 1
gene 2 18 26 -1.565 0 42 -1.565 1
gene 2 19 26 -2.27872 0 43 -2.27872 1
gene 2 20 26 -2.47365 0 44 -2.47365 0
gene 2 21 26 1.42936 0 45 1.42936 1
gene 1 22 26 1.10947 0 46 1.10947 1
gene 1 23 26 0.481375 0 47 0.481375 1
gene 3 24 26 2.57186 0 48 2.57186 1
gene 3 25 26 -2.76475 0 69 -2.76475 1
gene 2 11 47 0.857214 0 112 0.857214 1
gene 2 47 25 1.68962 0 113 1.68962 1
gene 3 22 47 -1.59601 0 145 -1.59601 1
gene 3 20 47 -0.114963 0 200 -0.114963 1
gene 3 1 47 0.805939 0 215 0.805939 1
gene 1 6 47 1.94768 0 319 1.94768 1
gene 3 4 47 -0.846361 0 424 -0.846361 1
gene 3 14 47 -0.348822 0 464 -0.348822 1
gene 2 20 164 1.98924 0 506 1.98924 1
gene 2 164 26 -2.57036 0 507 -0.278927 1
gene 3 16 168 0.733001 0 519 0.233001 1
gene 3 168 26 -4.97156 0 520 -0.780625 1
gene 1 7 168 0.241436 0 618 0.241436 1
gene 3 4 214 1 0 658 0 0
gene 3 214 25 -1.71944 0 659 0 1
gene 1 25 164 -0.854373 0 768 -0.854373 1
gene 1 13 253 1 0 801 0 1
gene 1 253 26 -0.257795 0 802 0 1
gene 3 4 289 1 0 926 0 1
gene 3 289 214 1 0 927 0 1
genomeend 11

/* Organism #12 Fitness: 651.461 Error: 0 */
genomestart 12
trait 1 0.332422 0.485617 0.194575 0 0 0 0.131702 0.053126 
trait 2 0.175 0 0 0.053676 0 0.245247 0.0447691 0 
trait 3 0.309459 0 0.0702194 0.485099 0.055177 0.289998 0.382481 0.260709 
node 1 1 1 3
node 2 1 1 1
node 3 3 1 1
node 4 2 1 1
node 5 2 1 1
node 6 2 1 1
node 7 1 1 1
node 8 1 1 1
node 9 3 1 1
node 10 2 1 1
node 11 2 1 1
node 12 1 1 1
node 13 3 1 1
node 14 1 1 1
node 15 2 1 1
node 16 2 1 1
node 17 1 1 1
node 18 1 1 1
node 19 1 1 1
node 20 2 1 1
node 21 3 1 1
node 22 2 1 1
node 23 3 1 1
node 24 3 1 1
node 25 1 0 2
node 26 3 0 2
node 47 3 0 0
node 164 1 0 0
node 168 1 0 0
node 214 1 0 0
node 253 1 0 0
node 289 1 0 0
gene 1 1 25 6.51751 0 1 6.51751 1
gene 3 2 25 -1.17557 0 2 -1.17557 1
gene 1 3 25 -7.80206 0 3 -7.80206 1
gene 3 4 25 -1.98603 0 4 -1.98603 0
gene 3 5 25 1.9341 0 5 1.9341 1
gene 3 6 25 8 0 6 8 1
gene 1 7 25 -6.87076 0 7 -6.87076 1
gene 1 8 25 7.5052 0 8 7.5052 1
gene 3 9 25 -3.38219 0 9 -3.38219 1
gene 3 10 25 -1.24589 0 10 -1.24589 1
gene 2 11 25 -1.53491 0 11 -1.53491 1
gene 1 12 25 4.54967 0 12 4.54967 1
gene 3 13 25 5.18898 0 13 5.18898 1
gene 2 14 25 -4.83028 0 14 -4.83028 1
gene 1 15 25 4.43122 0 15 4.43122 1
gene 2 16 25 3.21459 0 16 3.21459 1
gene 3 17 25 4.69183 0 17 4.69183 1
gene 3 18 25 1.88243 0 18 1.88243 1
gene 3 19 25 2.05207 0 19 2.05207 1
gene 3 20 25 4.85553 0 20 4.85553 1
gene 1 21 25 -4.98636 0 21 -4.98636 1
gene 1 22 25 5.23413 0 22 5.23413 1
gene 2 23 25 -0.177356 0 23 -0.177356 1
gene 3 24 25 0.345344 0 24 0.345344 1
gene 3 1 26 -7.59246 0 25 -7.59246 1
gene 2 2 26 -7.80418 0 26 -7.80418 1
gene 2 3 26 -1.83719 0 27 -1.83719 1
gene 3 4 26 -7.0955 0 28 -7.0955 1
gene 2 5 26 0.964905 0 29 0.964905 1
gene 2 6 26 3.9247 0 30 3.9247 1
gene 3 7 26 -5.52872 0 31 -5.52872 1
gene 1 8 26 0.20441 0 32 0.20441 1
gene 2 9 26 5.90234 0 33 5.90234 1
gene 2 10 26 0.26655 0 34 0.26655 1
gene 1 11 26 -0.337623 0 35 -0.337623 1
gene 2 12 26 4.56692 0 36 4.56692 1
gene 1 13 26 -0.257795 0 37 -0.257795 0
gene 3 14 26 -5.53542 0 38 -5.53542 1
gene 3 15 26 -1.91397 0 39 -1.91397 1
gene 3 16 26 -5.88155 0 40 -5.88155 0
gene 3 17 26 7.247 0 41 7.247 1
gene 2 18 26 -1.565 0 42 -1.565 1
gene 2 19 26 -2.27872 0 43 -2.27872 1
gene 2 20 26 -2.47365 0 44 -2.47365 0
gene 2 21 26 1.42936 0 45 1.42936 1
gene 1 22 26 1.10947 0 46 1.10947 1
gene 1 23 26 0.481375 0 47 0.481375 1
gene 3 24 26 2.57186 0 48 2.57186 1
gene 3 25 26 -2.76475 0 69 -2.76475 1
gene 2 11 47 0.857214 0 112 0.857214 1
gene 2 47 25 1.68962 0 113 1.68962 1
gene 3 22 47 -1.59601 0 145 -1.59601 1
gene 3 20 47 -0.114963 0 200 -0.114963 1
gene 3 1 47 0.805939 0 215 0.805939 1
gene 1 6 47 1.94768 0 319 1.94768 1
gene 3 4 47 -0.846361 0 424 -0.846361 1
gene 3 14 47 -0.348822 0 464 -0.348822 1
gene 2 20 164 1.98924 0 506 1.98924 1
gene 2 164 26 -2.57036 0 507 -0.278927 1
gene 3 16 168 0.733001 0 519 0.233001 1
gene 3 168 26 -4.97156 0 520 -0.780625 1
gene 1 7 168 0.241436 0 618 0.241436 1
gene 3 4 214 1 0 658 0 0
gene 3 214 25 -1.71944 0 659 0 1
gene 1 25 164 -0.854373 0 768 -0.854373 1
gene 1 13 253 1 0 801 0 1
gene 1 253 26 -0.257795 0 802 0 1
gene 3 4 289 1 0 926 0 1
gene 3 289 214 1 0 927 0 1
gene 3 20 253 0.737995 0 972 0.737995 1
genomeend 12

/* Organism #13 Fitness: 4.58318 Error: 0 */
genomestart 13
trait 1 0.332422 0.485617 0.194575 0 0 0 0.131702 0.053126 
trait 2 0.175 0 0 0.053676 0 0.245247 0.0447691 0 
trait 3 0.309459 0 0.0351097 0.485099 0.302715 0.313762 0.385714 0.275049 
node 1 1 1 3
node 2 1 1 1
node 3 3 1 1
node 4 2 1 1
node 5 2 1 1
node 6 2 1 1
node 7 1 1 1
node 8 1 1 1
node 9 3 1 1
node 10 2 1 1
node 11 2 1 1
node 12 1 1 1
node 13 3 1 1
node 14 1 1 1
node 15 2 1 1
node 16 2 1 1
node 17 1 1 1
node 18 1 1 1
node 19 1 1 1
node 20 2 1 1
node 21 3 1 1
node 22 2 1 1
node 23 3 1 1
node 24 3 1 1
node 25 1 0 2
node 26 3 0 2
node 47 3 0 0
node 164 1 0 0
node 168 1 0 0
node 214 1 0 0
node 253 1 0 0
node 289 1 0 0
gene 1 1 25 7.22408 0 1 7.22408 1
gene 3 2 25 -0.53616 0 2 -0.53616 1
gene 1 3 25 2.07107 0 3 2.07107 1
gene 3 4 25 -0.452739 0 4 -0.452739 0
gene 3 5 25 1.64489 0 5 1.64489 1
gene 3 6 25 7.13327 0 6 7.13327 1
gene 1 7 25 -8 0 7 -8 1
gene 1 8 25 8 0 8 8 1
gene 3 9 25 -3.38219 0 9 -3.38219 1
gene 3 10 25 -0.836408 0 10 -0.836408 1
gene 2 11 25 1.06581 0 11 1.06581 1
gene 1 12 25 5.31144 0 12 5.31144 1
gene 3 13 25 -0.710452 0 13 -0.710452 1
gene 2 14 25 -3.34427 0 14 -3.34427 1
gene 1 15 25 6.39693 0 15 6.39693 1
gene 2 16 25 3.25916 0 16 3.25916 1
gene 3 17 25 2.43455 0 17 2.43455 1
gene 3 18 25 -0.551005 0 18 -0.551005 1
gene 3 19 25 -0.513464 0 19 -0.513464 1
gene 3 20 25 4.11856 0 20 4.11856 1
gene 1 21 25 -5.9199 0 21 -5.9199 1
gene 1 22 25 -2.0062 0 22 -2.0062 1
gene 2 23 25 1.8818 0 23 1.8818 1
gene 3 24 25 0.695049 0 24 0.695049 1
gene 3 1 26 -8 0 25 -8 1
gene 2 2 26 -7.79526 0 26 -7.79526 1
gene 2 3 26 -2.44381 0 27 -2.44381 1
gene 3 4 26 -4.6381 0 28 -4.6381 1
gene 2 5 26 -0.0415922 0 29 -0.0415922 1
gene 2 6 26 2.28127 0 30 2.28127 1
gene 3 7 26 -4.75899 0 31 -4.75899 1
gene 1 8 26 -1.97406 0 32 -1.97406 1
gene 2 9 26 2.1469 0 33 2.1469 1
gene 2 10 26 0.0204798 0 34 0.0204798 1
gene 1 11 26 1.59111 0 35 1.59111 1
gene 2 12 26 7.05102 0 36 7.05102 1
gene 1 13 26 -0.278898 0 37 -0.278898 0
gene 3 14 26 -2.4759 0 38 -2.4759 1
gene 3 15 26 -3.09902 0 39 -3.09902 1
gene 3 16 26 -6.33572 0 40 -6.33572 0
gene 3 17 26 7.93976 0 41 7.93976 1
gene 2 18 26 -1.09838 0 42 -1.09838 1
gene 2 19 26 -1.7412 0 43 -1.7412 1
gene 2 20 26 -0.857753 0 44 -0.857753 0
gene 2 21 26 1.24159 0 45 1.24159 1
gene 1 22 26 1.82833 0 46 1.82833 1
gene 1 23 26 1.23509 0 47 1.23509 1
gene 3 24 26 2.52222 0 48 2.52222 1
gene 3 25 26 -2.76475 0 69 -2.76475 1
gene 2 11 47 1.73842 0 112 1.73842 1
gene 2 47 25 1.30789 0 113 1.30789 1
gene 3 22 47 -1.19251 0 145 -1.19251 1
gene 3 20 47 1.19497 0 200 1.19497 1
gene 3 1 47 0.966141 0 215 0.966141 1
gene 1 6 47 4.25169 0 319 4.25169 1
gene 3 4 47 -2.75629 0 424 -2.75629 1
gene 3 14 47 -1.4869 0 464 -1.4869 1
gene 2 20 164 1.64155 0 506 1.64155 1
gene 2 164 26 -0.239088 0 507 -0.239088 1
gene 3 16 168 -1.32956 0 519 -1.32956 1
gene 3 168 26 -5.58824 0 520 -5.58824 1
gene 1 7 168 -1.02195 0 618 -1.02195 1
gene 3 4 214 -1.18113 0 658 -1.18113 0
gene 3 214 25 0.0168205 0 659 0.0168205 1
gene 1 25 164 0.516522 0 768 0.516522 1
gene 1 13 253 3.10897 0 801 3.10897 1
gene 1 253 26 -2.53606 0 802 -2.53606 1
gene 3 4 289 1.3033 0 926 1.3033 1
gene 3 289 214 1 0 927 1 1
genomeend 13

/* Organism #14 Fitness: 32.1956 Error: 0 */
genomestart 14
trait 1 0.332422 0.485617 0.194575 0 0 0 0.131702 0.053126 
trait 2 0.175 0 0 0.053676 0 0.245247 0.0447691 0 
trait 3 0.309459 0 0 0.485099 0.550254 0.337526 0.388946 0.289389 
node 1 1 1 3
node 2 1 1 1
node 3 3 1 1
node 4 2 1 1
node 5 2 1 1
node 6 2 1 1
node 7 1 1 1
node 8 1 1 1
node 9 3 1 1
node 10 2 1 1
node 11 2 1 1
node 12 1 1 1
node 13 3 1 1
node 14 1 1 1
node 15 2 1 1
node 16 2 1 1
node 17 1 1 1
node 18 1 1 1
node 19 1 1 1
node 20 2 1 1
node 21 3 1 1
node 22 2 1 1
node 23 3 1 1
node 24 3 1 1
node 25 1 0 2
node 26 3 0 2
node 47 3 0 0
node 164 1 0 0
node 168 1 0 0
node 214 1 0 0
node 253 1 0 0
node 289 1 0 0
gene 1 1 25 6.04363 0 1 6.04363 1
gene 3 2 25 0.840842 0 2 0.840842 1
gene 1 3 25 -5.76185 0 3 -5.76185 1
gene 3 4 25 -0.265514 0 4 -0.265514 0
gene 3 5 25 1.58758 0 5 1.58758 1
gene 3 6 25 6.78546 0 6 6.78546 1
gene 1 7 25 -6.16881 0 7 -6.16881 1
gene 1 8 25 7.98705 0 8 7.98705 1
gene 3 9 25 -0.727703 0 9 -0.727703 1
gene 3 10 25 -1.58712 0 10 -1.58712 1
gene 2 11 25 -1.09404 0 11 -1.09404 1
gene 1 12 25 2.09084 0 12 2.09084 1
gene 3 13 25 1.17202 0 13 1.17202 1
gene 2 14 25 -2.97991 0 14 -2.97991 1
gene 1 15 25 5.18562 0 15 5.18562 1
gene 2 16 25 3.21459 0 16 3.21459 1
gene 3 17 25 2.26892 0 17 2.26892 1
gene 3 18 25 4.28231 0 18 4.28231 1
gene 3 19 25 1.89906 0 19 1.89906 1
gene 3 20 25 6.53586 0 20 6.53586 1
gene 1 21 25 -2.95771 0 21 -2.95771 1
gene 1 22 25 7.18764 0 22 7.18764 1
gene 2 23 25 2.27524 0 23 2.27524 1
gene 3 24 25 0.202121 0 24 0.202121 1
gene 3 1 26 -5.44462 0 25 -5.44462 1
gene 2 2 26 -8 0 26 -8 1
gene 2 3 26 0.224176 0 27 0.224176 1
gene 3 4 26 -5.83012 0 28 -5.83012 1
gene 2 5 26 2.23723 0 29 2.23723 1
gene 2 6 26 2.31195 0 30 2.31195 1
gene 3 7 26 1.73128 0 31 1.73128 1
gene 1 8 26 2.3062 0 32 2.3062 1
gene 2 9 26 4.83722 0 33 4.83722 1
gene 2 10 26 0.928048 0 34 0.928048 1
gene 1 11 26 -0.226197 0 35 -0.226197 1
gene 2 12 26 3.56443 0 36 3.56443 1
gene 1 13 26 1.79143 0 37 1.79143 0
gene 3 14 26 -5.53542 0 38 -5.53542 1
gene 3 15 26 -4.11138 0 39 -4.11138 1
gene 3 16 26 0.00841643 0 40 0.00841643 0
gene 3 17 26 7.47483 0 41 7.47483 1
gene 2 18 26 -3.01469 0 42 -3.01469 1
gene 2 19 26 1.13284 0 43 1.13284 1
gene 2 20 26 -2.92295 0 44 -2.92295 0
gene 2 21 26 0.179939 0 45 0.179939 1
gene 1 22 26 -0.678149 0 46 -0.678149 1
gene 1 23 26 -1.05205 0 47 -1.05205 1
gene 3 24 26 -0.409742 0 48 -0.409742 1
gene 3 25 26 0.816459 0 69 0.816459 1
gene 2 11 47 0.406576 0 112 0.406576 1
gene 2 47 25 0.860419 0 113 0.860419 1
gene 3 22 47 -3.30264 0 145 -3.30264 1
gene 3 20 47 -2.39873 0 200 -2.39873 1
gene 3 1 47 0.416629 0 215 0.416629 1
gene 1 6 47 1.12609 0 319 1.12609 1
gene 3 4 47 -0.00294049 0 424 -0.00294049 1
gene 3 14 47 -0.0723063 0 464 -0.0723063 1
gene 2 20 164 2.55885 0 506 2.55885 1
gene 2 164 26 -1.46963 0 507 -1.46963 1
gene 3 16 168 1.17096 0 519 1.17096 1
gene 3 168 26 -0.194079 0 520 -0.194079 1
gene 1 7 168 -1.85891 0 618 -1.85891 1
gene 3 4 214 0.241447 0 658 0.241447 0
gene 3 214 25 -1.71944 0 659 -1.71944 1
gene 1 25 164 1.33328 0 768 1.33328 1
gene 1 13 253 1.73147 0 801 1.73147 1
gene 1 253 26 -1.62555 0 802 -1.62555 1
gene 3 4 289 -0.145751 0 926 -0.145751 1
gene 3 289 214 2.51903 0 927 2.51903 1
genomeend 14

/* Organism #15 Fitness: 17.2984 Error: 0 */
genomestart 15
trait 1 0.332422 0.485617 0.194575 0 0 0 0.131702 0.053126 
trait 2 0.175 0 0 0.053676 0 0.245247 0.0447691 0 
trait 3 0.309459 0 0.0702194 0.485099 0.055177 0.289998 0.382481 0.260709 
node 1 1 1 3
node 2 1 1 1
node 3 3 1 1
node 4 2 1 1
node 5 2 1 1
node 6 2 1 1
node 7 1 1 1
node 8 1 1 1
node 9 3 1 1
node 10 2 1 1
node 11 2 1 1
node 12 1 1 1
node 13 3 1 1
node 14 1 1 1
node 15 2 1 1
node 16 2 1 1
node 17 1 1 1
node 18 1 1 1
node 19 1 1 1
node 20 2 1 1
node 21 3 1 1
node 22 2 1 1
node 23 3 1 1
node 24 3 1 1
node 25 1 0 2
node 26 3 0 2
node 47 3 0 0
node 164 1 0 0
node 168 1 0 0
node 214 1 0 0
node 253 1 0 0
node 289 1 0 0
gene 1 1 25 4.06523 0 1 4.06523 1
gene 3 2 25 1.15257 0 2 1.15257 1
gene 1 3 25 -7.45914 0 3 -7.45914 1
gene 3 4 25 0.326696 0 4 0.326696 0
gene 3 5 25 3.26604 0 5 3.26604 1
gene 3 6 25 6.33636 0 6 6.33636 1
gene 1 7 25 -8 0 7 -8 1
gene 1 8 25 8 0 8 8 1
gene 3 9 25 -1.61599 0 9 -1.61599 1
gene 3 10 25 -2.81011 0 10 -2.81011 1
gene 2 11 25 -3.43474 0 11 -3.43474 1
gene 1 12 25 6.59556 0 12 6.59556 1
gene 3 13 25 5.07769 0 13 5.07769 1
gene 2 14 25 -6.73622 0 14 -6.73622 1
gene 1 15 25 6.45782 0 15 6.45782 1
gene 2 16 25 3.3677 0 16 3.3677 1
gene 3 17 25 2.33591 0 17 2.33591 1
gene 3 18 25 1.23377 0 18 1.23377 1
gene 3 19 25 0.0154565 0 19 0.0154565 1
gene 3 20 25 4.54677 0 20 4.54677 1
gene 1 21 25 -3.69404 0 21 -3.69404 1
gene 1 22 25 6.77406 0 22 6.77406 1
gene 2 23 25 -1.92284 0 23 -1.92284 1
gene 3 24 25 2.39025 0 24 2.39025 1
gene 3 1 26 -7.14926 0 25 -7.14926 1
gene 2 2 26 -8 0 26 -8 1
gene 2 3 26 -2.71593 0 27 -2.71593 1
gene 3 4 26 -7.10621 0 28 -7.10621 1
gene 2 5 26 3.14692 0 29 3.14692 1
gene 2 6 26 5.14199 0 30 5.14199 1
gene 3 7 26 -4.6835 0 31 -4.6835 1
gene 1 8 26 1.97462 0 32 1.97462 1
gene 2 9 26 4.89154 0 33 4.89154 1
gene 2 10 26 -1.99365 0 34 -1.99365 1
gene 1 11 26 2.0094 0 35 2.0094 1
gene 2 12 26 4.47021 0 36 4.47021 1
gene 1 13 26 -2.49435 0 37 -2.49435 0
gene 3 14 26 -7.47117 0 38 -7.47117 1
gene 3 15 26 -1.03906 0 39 -1.03906 1
gene 3 16 26 -3.42432 0 40 -3.42432 0
gene 3 17 26 6.17299 0 41 6.17299 1
gene 2 18 26 -1.67441 0 42 -1.67441 1
gene 2 19 26 -3.7476 0 43 -3.7476 1
gene 2 20 26 -4.20727 0 44 -4.20727 0
gene 2 21 26 -0.207596 0 45 -0.207596 1
gene 1 22 26 0.475313 0 46 0.475313 1
gene 1 23 26 0.599987 0 47 0.599987 1
gene 3 24 26 5.0587 0 48 5.0587 1
gene 3 25 26 -0.588234 0 69 -0.588234 1
gene 2 11 47 0.457529 0 112 0.457529 1
gene 2 47 25 3.35741 0 113 3.35741 1
gene 3 22 47 -2.12747 0 145 -2.12747 1
gene 3 20 47 2.00852 0 200 2.00852 1
gene 3 1 47 1.94219 0 215 1.94219 1
gene 1 6 47 0.328109 0 319 0.328109 1
gene 3 4 47 -3.27998 0 424 -3.27998 1
gene 3 14 47 -0.348822 0 464 -0.348822 1
gene 2 20 164 1.89607 0 506 1.89607 1
gene 2 164 26 -2.57036 0 507 -2.57036 1
gene 3 16 168 1.19499 0 519 1.19499 1
gene 3 168 26 -1.72646 0 520 -1.72646 1
gene 1 7 168 0.241436 0 618 0.241436 1
gene 3 4 214 1 0 658 1 0
gene 3 214 25 -3.45024 0 659 -3.45024 1
gene 1 25 164 -0.850383 0 768 -0.850383 1
gene 1 13 253 -2.45679 0 801 -2.45679 1
gene 1 253 26 -0.257795 0 802 -0.257795 1
gene 3 4 289 3.18634 0 926 3.18634 1
gene 3 289 214 1.11683 0 927 1.11683 1
genomeend 15

/* Organism #16 Fitness: 633.932 Error: 0 */
genomestart 16
trait 1 0.332422 0.485617 0.194575 0 0 0 0.131702 0.053126 
trait 2 0.175 0 0 0.053676 0 0.245247 0.0447691 0 
trait 3 0.309459 0 0.0702194 0.485099 0.055177 0.289998 0.382481 0.260709 
node 1 1 1 3
node 2 1 1 1
node 3 3 1 1
node 4 2 1 1
node 5 2 1 1
node 6 2 1 1
node 7 1 1 1
node 8 1 1 1
node 9 3 1 1
node 10 2 1 1
node 11 2 1 1
node 12 1 1 1
node 13 3 1 1
node 14 1 1 1
node 15 2 1 1
node 16 2 1 1
node 17 1 1 1
node 18 1 1 1
node 19 1 1 1
node 20 2 1 1
node 21 3 1 1
node 22 2 1 1
node 23 3 1 1
node 24 3 1 1
node 25 1 0 2
node 26 3 0 2
node 47 3 0 0
node 164 1 0 0
node 168 1 0 0
node 214 1 0 0
node 253 1 0 0
node 289 1 0 0
gene 1 1 25 6.51751 0 1 6.51751 1
gene 3 2 25 -1.17557 0 2 -1.17557 1
gene 1 3 25 -7.80206 0 3 -7.80206 1
gene 3 4 25 -1.98603 0 4 -1.98603 0
gene 3 5 25 1.9341 0 5 1.9341 1
gene 3 6 25 8 0 6 8 1
gene 1 7 25 -6.87076 0 7 -6.87076 1
gene 1 8 25 7.5052 0 8 7.5052 1
gene 3 9 25 -3.38219 0 9 -3.38219 1
gene 3 10 25 -1.24589 0 10 -1.24589 1
gene 2 11 25 -1.53491 0 11 -1.53491 1
gene 1 12 25 4.54967 0 12 4.54967 1
gene 3 13 25 5.18898 0 13 5.18898 1
gene 2 14 25 -4.83028 0 14 -4.83028 1
gene 1 15 25 4.43122 0 15 4.43122 1
gene 2 16 25 3.21459 0 16 3.21459 1
gene 3 17 25 4.69183 0 17 4.69183 1
gene 3 18 25 1.88243 0 18 1.88243 1
gene 3 19 25 2.05207 0 19 2.05207 1
gene 3 20 25 4.85553 0 20 4.85553 1
gene 1 21 25 -4.98636 0 21 -4.98636 1
gene 1 22 25 5.23413 0 22 5.23413 1
gene 2 23 25 -0.177356 0 23 -0.177356 1
gene 3 24 25 0.345344 0 24 0.345344 1
gene 3 1 26 -7.59246 0 25 -7.59246 1
gene 2 2 26 -7.80418 0 26 -7.80418 1
gene 2 3 26 -1.83719 0 27 -1.83719 1
gene 3 4 26 -7.0955 0 28 -7.0955 1
gene 2 5 26 0.964905 0 29 0.964905 1
gene 2 6 26 3.9247 0 30 3.9247 1
gene 3 7 26 -5.52872 0 31 -5.52872 1
gene 1 8 26 0.20441 0 32 0.20441 1
gene 2 9 26 5.90234 0 33 5.90234 1
gene 2 10 26 0.26655 0 34 0.26655 1
gene 1 11 26 -0.337623 0 35 -0.337623 1
gene 2 12 26 4.56692 0 36 4.56692 1
gene 1 13 26 -0.257795 0 37 -0.257795 0
gene 3 14 26 -5.53542 0 38 -5.53542 1
gene 3 15 26 -1.91397 0 39 -1.91397 1
gene 3 16 26 -5.88155 0 40 -5.88155 0
gene 3 17 26 7.247 0 41 7.247 1
gene 2 18 26 -1.565 0 42 -1.565 1
gene 2 19 26 -2.27872 0 43 -2.27872 1
gene 2 20 26 -2.47365 0 44 -2.47365 0
gene 2 21 26 1.42936 0 45 1.42936 1
gene 1 22 26 1.10947 0 46 1.10947 1
gene 1 23 26 0.481375 0 47 0.481375 1
gene 3 24 26 2.57186 0 48 2.57186 1
gene 3 25 26 -2.76475 0 69 -2.76475 1
gene 2 11 47 0.857214 0 112 0.857214 1
gene 2 47 25 1.68962 0 113 1.68962 1
gene 3 22 47 -1.59601 0 145 -1.59601 1
gene 3 20 47 -0.114963 0 200 -0.114963 1
gene 3 1 47 0.805939 0 215 0.805939 1
gene 1 6 47 1.94768 0 319 1.94768 1
gene 3 4 47 -0.846361 0 424 -0.846361 1
gene 3 14 47 -0.348822 0 464 -0.348822 1
gene 2 20 164 1.98924 0 506 1.98924 1
gene 2 164 26 -2.57036 0 507 -0.278927 1
gene 3 16 168 0.733001 0 519 0.233001 1
gene 3 168 26 -4.97156 0 520 -0.780625 1
gene 1 7 168 0.241436 0 618 0.241436 1
gene 3 4 214 1 0 658 0 0
gene 3 214 25 -1.71944 0 659 0 1
gene 1 25 164 -0.854373 0 768 -0.854373 1
gene 1 13 253 1 0 801 0 1
gene 1 253 26 -0.257795 0 802 0 1
gene 3 4 289 1 0 926 0 1
gene 3 289 214 1 0 927 0 1
genomeend 16

/* Organism #17 Fitness: 11.3023 Error: 0 */
genomestart 17
trait 1 0.332422 0.485617 0.194575 0 0 0 0.131702 0.053126 
trait 2 0.175 0 0 0.053676 0 0.245247 0.0447691 0 
trait 3 0.309459 0 0.0702194 0.485099 0.055177 0.289998 0.382481 0.260709 
node 1 1 1 3
node 2 1 1 1
node 3 3 1 1
node 4 2 1 1
node 5 2 1 1
node 6 2 1 1
node 7 1 1 1
node 8 1 1 1
node 9 3 1 1
node 10 2 1 1
node 11 2 1 1
node 12 1 1 1
node 13 3 1 1
node 14 1 1 1
node 15 2 1 1
node 16 2 1 1
node 17 1 1 1
node 18 1 1 1
node 19 1 1 1
node 20 2 1 1
node 21 3 1 1
node 22 2 1 1
node 23 3 1 1
node 24 3 1 1
node 25 1 0 2
node 26 3 0 2
node 47 3 0 0
node 164 1 0 0
node 168 1 0 0
node 214 1 0 0
node 253 1 0 0
node 289 1 0 0
gene 1 1 25 5.9153 0 1 5.9153 1
gene 3 2 25 -1.03058 0 2 -1.03058 1
gene 1 3 25 -8 0 3 -8 1
gene 3 4 25 -2.32135 0 4 -2.32135 0
gene 3 5 25 3.96325 0 5 3.96325 1
gene 3 6 25 5.74884 0 6 5.74884 1
gene 1 7 25 -6.02576 0 7 -6.02576 1
gene 1 8 25 6.86535 0 8 6.86535 1
gene 3 9 25 -1.40474 0 9 -1.40474 1
gene 3 10 25 -3.02245 0 10 -3.02245 1
gene 2 11 25 -3.59141 0 11 -3.59141 1
gene 1 12 25 2.75373 0 12 2.75373 1
gene 3 13 25 6.52864 0 13 6.52864 1
gene 2 14 25 -6.04879 0 14 -6.04879 1
gene 1 15 25 5.52762 0 15 5.52762 1
gene 2 16 25 0.761692 0 16 0.761692 1
gene 3 17 25 5.72168 0 17 5.72168 1
gene 3 18 25 3.32735 0 18 3.32735 1
gene 3 19 25 1.17302 0 19 1.17302 1
gene 3 20 25 5.82904 0 20 5.82904 1
gene 1 21 25 -6.68065 0 21 -6.68065 1
gene 1 22 25 4.00494 0 22 4.00494 1
gene 2 23 25 -0.783762 0 23 -0.783762 1
gene 3 24 25 -1.56832 0 24 -1.56832 1
gene 3 1 26 -6.04336 0 25 -6.04336 1
gene 2 2 26 -8 0 26 -8 1
gene 2 3 26 -2.2381 0 27 -2.2381 1
gene 3 4 26 -5.50031 0 28 -5.50031 1
gene 2 5 26 -1.23422 0 29 -1.23422 1
gene 2 6 26 5.85165 0 30 5.85165 1
gene 3 7 26 -5.46233 0 31 -5.46233 1
gene 1 8 26 2.06034 0 32 2.06034 1
gene 2 9 26 3.77756 0 33 3.77756 1
gene 2 10 26 2.55668 0 34 2.55668 1
gene 1 11 26 -0.620776 0 35 -0.620776 1
gene 2 12 26 3.05276 0 36 3.05276 1
gene 1 13 26 -2.60243 0 37 -2.60243 0
gene 3 14 26 -5.58412 0 38 -5.58412 1
gene 3 15 26 -2.12525 0 39 -2.12525 1
gene 3 16 26 -5.40164 0 40 -5.40164 0
gene 3 17 26 7.43922 0 41 7.43922 1
gene 2 18 26 -3.83074 0 42 -3.83074 1
gene 2 19 26 -1.88428 0 43 -1.88428 1
gene 2 20 26 -4.46559 0 44 -4.46559 0
gene 2 21 26 0.464168 0 45 0.464168 1
gene 1 22 26 0.450451 0 46 0.450451 1
gene 1 23 26 0.170697 0 47 0.170697 1
gene 3 24 26 2.32899 0 48 2.32899 1
gene 3 25 26 -3.04575 0 69 -3.04575 1
gene 2 11 47 0.097012 0 112 0.097012 1
gene 2 47 25 -0.640115 0 113 -0.640115 1
gene 3 22 47 -3.21398 0 145 -3.21398 1
gene 3 20 47 1.33366 0 200 1.33366 1
gene 3 1 47 0.626432 0 215 0.626432 1
gene 1 6 47 2.39788 0 319 2.39788 1
gene 3 4 47 -2.67153 0 424 -2.67153 1
gene 3 14 47 1.75736 0 464 1.75736 1
gene 2 20 164 1.98924 0 506 1.98924 1
gene 2 164 26 -4.81894 0 507 -4.81894 1
gene 3 16 168 2.50448 0 519 2.50448 1
gene 3 168 26 0.889454 0 520 0.889454 1
gene 1 7 168 1.21405 0 618 1.21405 1
gene 3 4 214 3.06968 0 658 3.06968 0
gene 3 214 25 -3.51516 0 659 -3.51516 1
gene 1 25 164 2.24593 0 768 2.24593 1
gene 1 13 253 1 0 801 1 1
gene 1 253 26 -1.82497 0 802 -1.82497 1
gene 3 4 289 0.387197 0 926 0.387197 1
gene 3 289 214 1.24928 0 927 1.24928 1
genomeend 17

/* Organism #18 Fitness: 177.917 Error: 0 */
genomestart 18
trait 1 0.332422 0.485617 0.194575 0 0 0 0.131702 0.053126 
trait 2 0.175 0 0 0.053676 0 0.245247 0.0447691 0 
trait 3 0.309459 0 0 0.485099 0.550254 0.337526 0.388946 0.289389 
node 1 1 1 3
node 2 1 1 1
node 3 3 1 1
node 4 2 1 1
node 5 2 1 1
node 6 2 1 1
node 7 1 1 1
node 8 1 1 1
node 9 3 1 1
node 10 2 1 1
node 11 2 1 1
node 12 1 1 1
node 13 3 1 1
node 14 1 1 1
node 15 2 1 1
node 16 2 1 1
node 17 1 1 1
node 18 1 1 1
node 19 1 1 1
node 20 2 1 1
node 21 3 1 1
node 22 2 1 1
node 23 3 1 1
node 24 3 1 1
node 25 1 0 2
node 26 3 0 2
node 47 3 0 0
node 164 1 0 0
node 168 1 0 0
node 214 1 0 0
node 253 1 0 0
node 289 1 0 0
gene 1 1 25 7.39869 0 1 7.39869 1
gene 3 2 25 1.00877 0 2 1.00877 1
gene 1 3 25 -6.10948 0 3 -6.10948 1
gene 3 4 25 -1.18117 0 4 -1.18117 0
gene 3 5 25 -0.130899 0 5 -0.130899 1
gene 3 6 25 8 0 6 8 1
gene 1 7 25 -7.21033 0 7 -7.21033 1
gene 1 8 25 8 0 8 8 1
gene 3 9 25 -2.79264 0 9 -2.79264 1
gene 3 10 25 -0.616113 0 10 -0.616113 1
gene 2 11 25 -1.7245 0 11 -1.7245 1
gene 1 12 25 2.07611 0 12 2.07611 1
gene 3 13 25 3.89077 0 13 3.89077 1
gene 2 14 25 -4.78079 0 14 -4.78079 1
gene 1 15 25 3.41791 0 15 3.41791 1
gene 2 16 25 3.84159 0 16 3.84159 1
gene 3 17 25 7.00196 0 17 7.00196 1
gene 3 18 25 2.91455 0 18 2.91455 1
gene 3 19 25 3.29775 0 19 3.29775 1
gene 3 20 25 6.6278 0 20 6.6278 1
gene 1 21 25 -6.74806 0 21 -6.74806 1
gene 1 22 25 3.35795 0 22 3.35795 1
gene 2 23 25 0.0794422 0 23 0.0794422 1
gene 3 24 25 0.697118 0 24 0.697118 1
gene 3 1 26 -8 0 25 -8 1
gene 2 2 26 -8 0 26 -8 1
gene 2 3 26 -0.881242 0 27 -0.881242 1
gene 3 4 26 -6.84766 0 28 -6.84766 1
gene 2 5 26 2.96093 0 29 2.96093 1
gene 2 6 26 3.04359 0 30 3.04359 1
gene 3 7 26 -5.86008 0 31 -5.86008 1
gene 1 8 26 -1.7212 0 32 -1.7212 1
gene 2 9 26 5.68951 0 33 5.68951 1
gene 2 10 26 2.57748 0 34 2.57748 1
gene 1 11 26 1.7825 0 35 1.7825 1
gene 2 12 26 5.27947 0 36 5.27947 1
gene 1 13 26 -1.18591 0 37 -1.18591 0
gene 3 14 26 -3.81625 0 38 -3.81625 1
gene 3 15 26 0.333912 0 39 0.333912 1
gene 3 16 26 -7.47243 0 40 -7.47243 0
gene 3 17 26 7.22144 0 41 7.22144 1
gene 2 18 26 -1.99123 0 42 -1.99123 1
gene 2 19 26 -0.780637 0 43 -0.780637 1
gene 2 20 26 -1.5814 0 44 -1.5814 0
gene 2 21 26 -1.06065 0 45 -1.06065 1
gene 1 22 26 -1.23296 0 46 -1.23296 1
gene 1 23 26 -1.06418 0 47 -1.06418 1
gene 3 24 26 2.64395 0 48 2.64395 1
gene 3 25 26 -1.40645 0 69 -1.40645 1
gene 2 11 47 -0.640913 0 112 -0.640913 1
gene 2 47 25 -0.446312 0 113 -0.446312 1
gene 3 22 47 -2.63302 0 145 -2.63302 1
gene 3 20 47 -1.74099 0 200 -1.74099 1
gene 3 1 47 0.860765 0 215 0.860765 1
gene 1 6 47 1.45838 0 319 1.45838 1
gene 3 4 47 -0.551251 0 424 -0.551251 1
gene 3 14 47 1.30459 0 464 1.30459 1
gene 2 20 164 -0.937947 0 506 -0.937947 1
gene 2 164 26 -2.30152 0 507 -2.30152 1
gene 3 16 168 2.74706 0 519 2.74706 1
gene 3 168 26 -4.42049 0 520 -4.42049 1
gene 1 7 168 -1.5781 0 618 -1.5781 1
gene 3 4 214 -0.81431 0 658 -0.81431 0
gene 3 214 25 0.810236 0 659 0.810236 1
gene 1 25 164 -0.854373 0 768 -0.854373 1
gene 1 13 253 1.86094 0 801 1.86094 1
gene 1 253 26 -0.257795 0 802 -0.257795 1
gene 3 4 289 -0.613131 0 926 -0.613131 1
gene 3 289 214 2.74377 0 927 2.74377 1
genomeend 18

/* Organism #19 Fitness: 22.3937 Error: 0 */
genomestart 19
trait 1 0.332422 0.485617 0.194575 0 0 0 0.131702 0.053126 
trait 2 0.175 0 0 0.053676 0 0.245247 0.0447691 0 
trait 3 0.309459 0 0.0702194 0.485099 0.055177 0.289998 0.382481 0.260709 
node 1 1 1 3
node 2 1 1 1
node 3 3 1 1
node 4 2 1 1
node 5 2 1 1
node 6 2 1 1
node 7 1 1 1
node 8 1 1 1
node 9 3 1 1
node 10 2 1 1
node 11 2 1 1
node 12 1 1 1
node 13 3 1 1
node 14 1 1 1
node 15 2 1 1
node 16 2 1 1
node 17 1 1 1
node 18 1 1 1
node 19 1 1 1
node 20 2 1 1
node 21 3 1 1
node 22 2 1 1
node 23 3 1 1
node 24 3 1 1
node 25 1 0 2
node 26 3 0 2
node 47 3 0 0
node 164 1 0 0
node 168 1 0 0
node 214 1 0 0
node 253 1 0 0
node 289 1 0 0
gene 1 1 25 7.39263 0 1 7.39263 1
gene 3 2 25 0.652968 0 2 0.652968 1
gene 1 3 25 -8 0 3 -8 1
gene 3 4 25 -3.99985 0 4 -3.99985 0
gene 3 5 25 4.08861 0 5 4.08861 1
gene 3 6 25 8 0 6 8 1
gene 1 7 25 -5.49187 0 7 -5.49187 1
gene 1 8 25 6.93489 0 8 6.93489 1
gene 3 9 25 -5.62262 0 9 -5.62262 1
gene 3 10 25 -0.527082 0 10 -0.527082 1
gene 2 11 25 -1.07541 0 11 -1.07541 1
gene 1 12 25 4.14158 0 12 4.14158 1
gene 3 13 25 4.42485 0 13 4.42485 1
gene 2 14 25 -4.84909 0 14 -4.84909 1
gene 1 15 25 2.84985 0 15 2.84985 1
gene 2 16 25 2.29454 0 16 2.29454 1
gene 3 17 25 6.5613 0 17 6.5613 1
gene 3 18 25 0.940698 0 18 0.940698 1
gene 3 19 25 3.81679 0 19 3.81679 1
gene 3 20 25 4.40175 0 20 4.40175 1
gene 1 21 25 -6.0516 0 21 -6.0516 1
gene 1 22 25 3.94931 0 22 3.94931 1
gene 2 23 25 -1.85901 0 23 -1.85901 1
gene 3 24 25 -0.915146 0 24 -0.915146 1
gene 3 1 26 -8 0 25 -8 1
gene 2 2 26 -6.92466 0 26 -6.92466 1
gene 2 3 26 -1.1258 0 27 -1.1258 1
gene 3 4 26 -8 0 28 -8 1
gene 2 5 26 2.32933 0 29 2.32933 1
gene 2 6 26 4.65609 0 30 4.65609 1
gene 3 7 26 -3.53188 0 31 -3.53188 1
gene 1 8 26 1.8527 0 32 1.8527 1
gene 2 9 26 4.63379 0 33 4.63379 1
gene 2 10 26 0.474486 0 34 0.474486 1
gene 1 11 26 -1.46797 0 35 -1.46797 1
gene 2 12 26 2.90507 0 36 2.90507 1
gene 1 13 26 0.372888 0 37 0.372888 0
gene 3 14 26 -7.24491 0 38 -7.24491 1
gene 3 15 26 -3.63822 0 39 -3.63822 1
gene 3 16 26 -7.94831 0 40 -7.94831 0
gene 3 17 26 6.79055 0 41 6.79055 1
gene 2 18 26 -2.82861 0 42 -2.82861 1
gene 2 19 26 0.10636 0 43 0.10636 1
gene 2 20 26 -1.83791 0 44 -1.83791 0
gene 2 21 26 3.09449 0 45 3.09449 1
gene 1 22 26 2.54912 0 46 2.54912 1
gene 1 23 26 0.674807 0 47 0.674807 1
gene 3 24 26 0.17631 0 48 0.17631 1
gene 3 25 26 -1.11677 0 69 -1.11677 1
gene 2 11 47 -0.497373 0 112 -0.497373 1
gene 2 47 25 2.95788 0 113 2.95788 1
gene 3 22 47 -3.87932 0 145 -3.87932 1
gene 3 20 47 -0.22346 0 200 -0.22346 1
gene 3 1 47 -1.39657 0 215 -1.39657 1
gene 1 6 47 0.999055 0 319 0.999055 1
gene 3 4 47 0.0793829 0 424 0.0793829 1
gene 3 14 47 -0.422544 0 464 -0.422544 1
gene 2 20 164 1.98924 0 506 1.98924 1
gene 2 164 26 -3.36121 0 507 -3.36121 1
gene 3 16 168 2.2871 0 519 2.2871 1
gene 3 168 26 -6.30897 0 520 -6.30897 1
gene 1 7 168 -0.0444219 0 618 -0.0444219 1
gene 3 4 214 1 0 658 1 0
gene 3 214 25 -1.71944 0 659 -1.71944 1
gene 1 25 164 -0.3928 0 768 -0.3928 1
gene 1 13 253 1 0 801 1 1
gene 1 253 26 -0.257795 0 802 -0.257795 1
gene 3 4 289 1 0 926 1 1
gene 3 289 214 -1.02711 0 927 -1.02711 1
genomeend 19

/* Organism #20 Fitness: 7.01059 Error: 0 */
genomestart 20
trait 1 1 0.141947 0 0 0 0.412992 0.131702 0.053126 
trait 2 0.175 0 0 0.053676 0 0.245247 0.0447691 0 
trait 3 0.309459 0 0 0.485099 0.550254 0.337526 0.388946 0.289389 
node 1 1 1 3
node 2 1 1 1
node 3 3 1 1
node 4 2 1 1
node 5 2 1 1
node 6 2 1 1
node 7 1 1 1
node 8 1 1 1
node 9 3 1 1
node 10 2 1 1
node 11 2 1 1
node 12 1 1 1
node 13 3 1 1
node 14 1 1 1
node 15 2 1 1
node 16 2 1 1
node 17 1 1 1
node 18 1 1 1
node 19 1 1 1
node 20 2 1 1
node 21 3 1 1
node 22 2 1 1
node 23 3 1 1
node 24 3 1 1
node 25 1 0 2
node 26 3 0 2
node 47 3 0 0
node 164 1 0 0
node 168 1 0 0
node 214 1 0 0
node 253 1 0 0
node 289 1 0 0
gene 1 1 25 7.39957 0 1 7.39957 1
gene 3 2 25 -3.20722 0 2 -3.20722 1
gene 1 3 25 -8 0 3 -8 1
gene 3 4 25 -0.201264 0 4 -0.201264 0
gene 3 5 25 2.34543 0 5 2.34543 1
gene 3 6 25 8 0 6 8 1
gene 1 7 25 -7.6412 0 7 -7.6412 1
gene 1 8 25 8 0 8 8 1
gene 3 9 25 -5.01245 0 9 -5.01245 1
gene 3 10 25 -3.51913 0 10 -3.51913 1
gene 2 11 25 -0.0337707 0 11 -0.0337707 1
gene 1 12 25 2.10494 0 12 2.10494 1
gene 3 13 25 3.23304 0 13 3.23304 1
gene 2 14 25 -5.52845 0 14 -5.52845 1
gene 1 15 25 1.93761 0 15 1.93761 1
gene 2 16 25 0.825461 0 16 0.825461 1
gene 3 17 25 4.00839 0 17 4.00839 1
gene 3 18 25 4.1768 0 18 4.1768 1
gene 3 19 25 4.32647 0 19 4.32647 1
gene 3 20 25 3.83104 0 20 3.83104 1
gene 1 21 25 -7.35008 0 21 -7.35008 1
gene 1 22 25 6.37954 0 22 6.37954 1
gene 2 23 25 -1.26879 0 23 -1.26879 1
gene 3 24 25 0.272936 0 24 0.272936 1
gene 3 1 26 -5.87919 0 25 -5.87919 1
gene 2 2 26 -8 0 26 -8 1
gene 2 3 26 -1.67071 0 27 -1.67071 1
gene 3 4 26 -5.14699 0 28 -5.14699 1
gene 2 5 26 -1.17435 0 29 -1.17435 1
gene 2 6 26 4.26994 0 30 4.26994 1
gene 3 7 26 -3.50642 0 31 -3.50642 1
gene 1 8 26 -1.34174 0 32 -1.34174 1
gene 2 9 26 6.00076 0 33 6.00076 1
gene 2 10 26 1.67965 0 34 1.67965 1
gene 1 11 26 -2.79242 0 35 -2.79242 1
gene 2 12 26 6.29168 0 36 6.29168 1
gene 1 13 26 -2.38856 0 37 -2.38856 0
gene 3 14 26 -6.02972 0 38 -6.02972 1
gene 3 15 26 -2.53807 0 39 -2.53807 1
gene 3 16 26 -4.63445 0 40 -4.63445 0
gene 3 17 26 5.72199 0 41 5.72199 1
gene 2 18 26 -1.83194 0 42 -1.83194 1
gene 2 19 26 -4.64638 0 43 -4.64638 1
gene 2 20 26 -0.743492 0 44 -0.743492 0
gene 2 21 26 3.35964 0 45 3.35964 1
gene 1 22 26 -0.568069 0 46 -0.568069 1
gene 1 23 26 2.0609 0 47 2.0609 1
gene 3 24 26 0.557463 0 48 0.557463 1
gene 3 25 26 -2.86303 0 69 -2.86303 1
gene 2 11 47 -1.36532 0 112 -1.36532 1
gene 2 47 25 0.906215 0 113 0.906215 1
gene 3 22 47 -2.64863 0 145 -2.64863 1
gene 3 20 47 1.62925 0 200 1.62925 1
gene 3 1 47 0.34492 0 215 0.34492 1
gene 1 6 47 -0.453486 0 319 -0.453486 1
gene 3 4 47 -0.943184 0 424 -0.943184 1
gene 3 14 47 -0.348822 0 464 -0.348822 1
gene 2 20 164 1.98924 0 506 1.98924 1
gene 2 164 26 -1.42305 0 507 -1.42305 1
gene 3 16 168 -1.35933 0 519 -1.35933 1
gene 3 168 26 -7.38351 0 520 -7.38351 1
gene 1 7 168 -0.153415 0 618 -0.153415 1
gene 3 4 214 1 0 658 1 0
gene 3 214 25 1.15099 0 659 1.15099 1
gene 1 25 164 1.05216 0 768 1.05216 1
gene 1 13 253 0.467729 0 801 0.467729 1
gene 1 253 26 0.664904 0 802 0.664904 1
gene 3 4 289 1.35517 0 926 1.35517 1
gene 3 289 214 1 0 927 1 1
genomeend 20

/* Organism #21 Fitness: 608.506 Error: 0 */
genomestart 21
trait 1 0.332422 0.485617 0.194575 0 0 0 0.131702 0.053126 
trait 2 0.175 0 0 0.053676 0 0.245247 0.0447691 0 
trait 3 0.309459 0 0.0351097 0.485099 0.302715 0.313762 0.385714 0.275049 
node 1 1 1 3
node 2 1 1 1
node 3 3 1 1
node 4 2 1 1
node 5 2 1 1
node 6 2 1 1
node 7 1 1 1
node 8 1 1 1
node 9 3 1 1
node 10 2 1 1
node 11 2 1 1
node 12 1 1 1
node 13 3 1 1
node 14 1 1 1
node 15 2 1 1
node 16 2 1 1
node 17 1 1 1
node 18 1 1 1
node 19 1 1 1
node 20 2 1 1
node 21 3 1 1
node 22 2 1 1
node 23 3 1 1
node 24 3 1 1
node 25 1 0 2
node 26 3 0 2
node 47 3 0 0
node 164 1 0 0
node 168 1 0 0
node 214 1 0 0
node 253 1 0 0
node 289 1 0 0
gene 1 1 25 6.51751 0 1 6.51751 1
gene 3 2 25 -1.17557 0 2 -1.17557 1
gene 1 3 25 -7.80206 0 3 -7.80206 1
gene 3 4 25 -1.98603 0 4 -1.98603 0
gene 3 5 25 1.9341 0 5 1.9341 1
gene 3 6 25 8 0 6 8 1
gene 1 7 25 -6.87076 0 7 -6.87076 1
gene 1 8 25 7.5052 0 8 7.5052 1
gene 3 9 25 -3.38219 0 9 -3.38219 1
gene 3 10 25 -1.24589 0 10 -1.24589 1
gene 2 11 25 -1.53491 0 11 -1.53491 1
gene 1 12 25 4.54967 0 12 4.54967 1
gene 3 13 25 5.18898 0 13 5.18898 1
gene 2 14 25 -4.83028 0 14 -4.83028 1
gene 1 15 25 4.43122 0 15 4.43122 1
gene 2 16 25 3.21459 0 16 3.21459 1
gene 3 17 25 4.69183 0 17 4.69183 1
gene 3 18 25 1.88243 0 18 1.88243 1
gene 3 19 25 2.05207 0 19 2.05207 1
gene 3 20 25 4.85553 0 20 4.85553 1
gene 1 21 25 -4.98636 0 21 -4.98636 1
gene 1 22 25 5.23413 0 22 5.23413 1
gene 2 23 25 -0.177356 0 23 -0.177356 1
gene 3 24 25 0.345344 0 24 0.345344 1
gene 3 1 26 -7.59246 0 25 -7.59246 1
gene 2 2 26 -7.80418 0 26 -7.80418 1
gene 2 3 26 -1.83719 0 27 -1.83719 1
gene 3 4 26 -7.0955 0 28 -7.0955 1
gene 2 5 26 0.964905 0 29 0.964905 1
gene 2 6 26 3.9247 0 30 3.9247 1
gene 3 7 26 -5.52872 0 31 -5.52872 1
gene 1 8 26 0.20441 0 32 0.20441 1
gene 2 9 26 5.90234 0 33 5.90234 1
gene 2 10 26 0.26655 0 34 0.26655 1
gene 1 11 26 -0.337623 0 35 -0.337623 1
gene 2 12 26 4.56692 0 36 4.56692 1
gene 1 13 26 -0.257795 0 37 -0.257795 0
gene 3 14 26 -5.53542 0 38 -5.53542 1
gene 3 15 26 -1.91397 0 39 -1.91397 1
gene 3 16 26 -5.88155 0 40 -5.88155 0
gene 3 17 26 7.247 0 41 7.247 1
gene 2 18 26 -1.565 0 42 -1.565 1
gene 2 19 26 -2.27872 0 43 -2.27872 1
gene 2 20 26 -2.47365 0 44 -2.47365 0
gene 2 21 26 1.42936 0 45 1.42936 1
gene 1 22 26 1.10947 0 46 1.10947 1
gene 1 23 26 0.481375 0 47 0.481375 1
gene 3 24 26 2.57186 0 48 2.57186 1
gene 3 25 26 -2.76475 0 69 -2.76475 1
gene 2 11 47 0.857214 0 112 0.857214 1
gene 2 47 25 1.68962 0 113 1.68962 1
gene 3 22 47 -1.59601 0 145 -1.59601 1
gene 3 20 47 -0.114963 0 200 -0.114963 1
gene 3 1 47 0.805939 0 215 0.805939 1
gene 1 6 47 1.94768 0 319 1.94768 1
gene 3 4 47 -0.846361 0 424 -0.846361 1
gene 3 14 47 -0.348822 0 464 -0.348822 1
gene 2 20 164 1.98924 0 506 1.98924 1
gene 2 164 26 -2.57036 0 507 -0.278927 1
gene 3 16 168 0.733001 0 519 0.233001 1
gene 3 168 26 -4.97156 0 520 -0.780625 1
gene 1 7 168 0.241436 0 618 0.241436 1
gene 3 4 214 1 0 658 0 0
gene 3 214 25 -1.71944 0 659 0 1
gene 1 25 164 -0.854373 0 768 -0.854373 1
gene 1 13 253 1 0 801 0 1
gene 1 253 26 -0.257795 0 802 0 1
gene 3 4 289 1 0 926 0 1
gene 3 289 214 1 0 927 0 1
gene 3 10 47 0.544322 0 973 0.544322 1
genomeend 21

/* Organism #22 Fitness: 31.0782 Error: 0 */
genomestart 22
trait 1 0.332422 0.485617 0.194575 0 0 0 0.131702 0.053126 
trait 2 0.175 0 0 0.053676 0 0.245247 0.0447691 0 
trait 3 0.309459 0 0.0351097 0.485099 0.302715 0.313762 0.385714 0.275049 
node 1 1 1 3
node 2 1 1 1
node 3 3 1 1
node 4 2 1 1
node 5 2 1 1
node 6 2 1 1
node 7 1 1 1
node 8 1 1 1
node 9 3 1 1
node 10 2 1 1
node 11 2 1 1
node 12 1 1 1
node 13 3 1 1
node 14 1 1 1
node 15 2 1 1
node 16 2 1 1
node 17 1 1 1
node 18 1 1 1
node 19 1 1 1
node 20 2 1 1
node 21 3 1 1
node 22 2 1 1
node 23 3 1 1
node 24 3 1 1
node 25 1 0 2
node 26 3 0 2
node 47 3 0 0
node 164 1 0 0
node 168 1 0 0
node 214 1 0 0
node 253 1 0 0
node 289 1 0 0
gene 1 1 25 6.71698 0 1 6.71698 1
gene 3 2 25 -1.61457 0 2 -1.61457 1
gene 1 3 25 -7.4566 0 3 -7.4566 1
gene 3 4 25 1.29048 0 4 1.29048 0
gene 3 5 25 1.35147 0 5 1.35147 1
gene 3 6 25 6.70594 0 6 6.70594 1
gene 1 7 25 -8 0 7 -8 1
gene 1 8 25 2.14161 0 8 2.14161 1
gene 3 9 25 -2.0829 0 9 -2.0829 1
gene 3 10 25 -1.94459 0 10 -1.94459 1
gene 2 11 25 -1.72394 0 11 -1.72394 1
gene 1 12 25 4.54967 0 12 4.54967 1
gene 3 13 25 2.40452 0 13 2.40452 1
gene 2 14 25 -5.67586 0 14 -5.67586 1
gene 1 15 25 2.46795 0 15 2.46795 1
gene 2 16 25 5.17914 0 16 5.17914 1
gene 3 17 25 4.69183 0 17 4.69183 1
gene 3 18 25 0.200713 0 18 0.200713 1
gene 3 19 25 2.30544 0 19 2.30544 1
gene 3 20 25 4.85553 0 20 4.85553 1
gene 1 21 25 1.66385 0 21 1.66385 1
gene 1 22 25 6.08204 0 22 6.08204 1
gene 2 23 25 -1.23695 0 23 -1.23695 1
gene 3 24 25 2.34251 0 24 2.34251 1
gene 3 1 26 -7.59246 0 25 -7.59246 1
gene 2 2 26 -7.66989 0 26 -7.66989 1
gene 2 3 26 2.29728 0 27 2.29728 1
gene 3 4 26 -7.43102 0 28 -7.43102 1
gene 2 5 26 -0.252129 0 29 -0.252129 1
gene 2 6 26 3.60101 0 30 3.60101 1
gene 3 7 26 -4.12854 0 31 -4.12854 1
gene 1 8 26 2.35037 0 32 2.35037 1
gene 2 9 26 5.40229 0 33 5.40229 1
gene 2 10 26 1.8079 0 34 1.8079 1
gene 1 11 26 2.02237 0 35 2.02237 1
gene 2 12 26 4.56692 0 36 4.56692 1
gene 1 13 26 -1.99667 0 37 -1.99667 0
gene 3 14 26 -5.53542 0 38 -5.53542 1
gene 3 15 26 -2.01439 0 39 -2.01439 1
gene 3 16 26 -4.69499 0 40 -4.69499 0
gene 3 17 26 -2.43594 0 41 -2.43594 1
gene 2 18 26 1.5376 0 42 1.5376 1
gene 2 19 26 -2.81535 0 43 -2.81535 1
gene 2 20 26 -2.47365 0 44 -2.47365 0
gene 2 21 26 0.143454 0 45 0.143454 1
gene 1 22 26 1.10947 0 46 1.10947 1
gene 1 23 26 2.96076 0 47 2.96076 1
gene 3 24 26 -2.01175 0 48 -2.01175 1
gene 3 25 26 -1.12384 0 69 -1.12384 1
gene 2 11 47 0.7882 0 112 0.7882 1
gene 2 47 25 0.424067 0 113 0.424067 1
gene 3 22 47 1.3773 0 145 1.3773 1
gene 3 20 47 1.13721 0 200 1.13721 1
gene 3 1 47 -1.94976 0 215 -1.94976 1
gene 1 6 47 1.13511 0 319 1.13511 1
gene 3 4 47 -0.846361 0 424 -0.846361 1
gene 3 14 47 -0.348822 0 464 -0.348822 1
gene 2 20 164 -0.189659 0 506 -0.189659 1
gene 2 164 26 -1.47721 0 507 -1.47721 1
gene 3 16 168 2.15415 0 519 2.15415 1
gene 3 168 26 -5.95814 0 520 -5.95814 1
gene 1 7 168 -0.948196 0 618 -0.948196 1
gene 3 4 214 -0.676257 0 658 -0.676257 0
gene 3 214 25 -1.27293 0 659 -1.27293 1
gene 1 25 164 -0.854373 0 768 -0.854373 1
gene 1 13 253 1.62156 0 801 1.62156 1
gene 1 253 26 -2.12532 0 802 -2.12532 1
gene 3 4 289 -0.558444 0 926 -0.558444 1
gene 3 289 214 -0.899748 0 927 -0.899748 1
genomeend 22

/* Organism #23 Fitness: 139.76 Error: 0 */
genomestart 23
trait 1 0.332422 0.485617 0.194575 0 0 0 0.131702 0.053126 
trait 2 0.175 0 0 0.053676 0 0.245247 0.0447691 0 
trait 3 0.309459 0 0.0702194 0.485099 0.055177 0.289998 0.382481 0.260709 
node 1 1 1 3
node 2 1 1 1
node 3 3 1 1
node 4 2 1 1
node 5 2 1 1
node 6 2 1 1
node 7 1 1 1
node 8 1 1 1
node 9 3 1 1
node 10 2 1 1
node 11 2 1 1
node 12 1 1 1
node 13 3 1 1
node 14 1 1 1
node 15 2 1 1
node 16 2 1 1
node 17 1 1 1
node 18 1 1 1
node 19 1 1 1
node 20 2 1 1
node 21 3 1 1
node 22 2 1 1
node 23 3 1 1
node 24 3 1 1
node 25 1 0 2
node 26 3 0 2
node 47 3 0 0
node 164 1 0 0
node 168 1 0 0
node 214 1 0 0
node 253 1 0 0
node 289 1 0 0
gene 1 1 25 6.15156 0 1 6.15156 1
gene 3 2 25 0.20636 0 2 0.20636 1
gene 1 3 25 -7.52734 0 3 -7.52734 1
gene 3 4 25 -3.71129 0 4 -3.71129 0
gene 3 5 25 0.347098 0 5 0.347098 1
gene 3 6 25 8 0 6 8 1
gene 1 7 25 -7.45593 0 7 -7.45593 1
gene 1 8 25 6.5872 0 8 6.5872 1
gene 3 9 25 -3.53998 0 9 -3.53998 1
gene 3 10 25 -1.24623 0 10 -1.24623 1
gene 2 11 25 -2.63523 0 11 -2.63523 1
gene 1 12 25 2.19039 0 12 2.19039 1
gene 3 13 25 7.40699 0 13 7.40699 1
gene 2 14 25 -4.6227 0 14 -4.6227 1
gene 1 15 25 6.44779 0 15 6.44779 1
gene 2 16 25 2.20459 0 16 2.20459 1
gene 3 17 25 5.80592 0 17 5.80592 1
gene 3 18 25 1.79711 0 18 1.79711 1
gene 3 19 25 3.47479 0 19 3.47479 1
gene 3 20 25 7.12418 0 20 7.12418 1
gene 1 21 25 -4.20465 0 21 -4.20465 1
gene 1 22 25 3.80858 0 22 3.80858 1
gene 2 23 25 -1.5216 0 23 -1.5216 1
gene 3 24 25 1.95781 0 24 1.95781 1
gene 3 1 26 -6.03576 0 25 -6.03576 1
gene 2 2 26 -5.32396 0 26 -5.32396 1
gene 2 3 26 -2.08842 0 27 -2.08842 1
gene 3 4 26 -8 0 28 -8 1
gene 2 5 26 3.38937 0 29 3.38937 1
gene 2 6 26 1.55031 0 30 1.55031 1
gene 3 7 26 -4.81691 0 31 -4.81691 1
gene 1 8 26 1.96842 0 32 1.96842 1
gene 2 9 26 5.07791 0 33 5.07791 1
gene 2 10 26 1.88882 0 34 1.88882 1
gene 1 11 26 -2.46688 0 35 -2.46688 1
gene 2 12 26 4.26113 0 36 4.26113 1
gene 1 13 26 -0.613747 0 37 -0.613747 0
gene 3 14 26 -8 0 38 -8 1
gene 3 15 26 -1.95515 0 39 -1.95515 1
gene 3 16 26 -3.76477 0 40 -3.76477 0
gene 3 17 26 8 0 41 8 1
gene 2 18 26 -1.944 0 42 -1.944 1
gene 2 19 26 -3.12474 0 43 -3.12474 1
gene 2 20 26 -1.21227 0 44 -1.21227 0
gene 2 21 26 2.54765 0 45 2.54765 1
gene 1 22 26 2.94417 0 46 2.94417 1
gene 1 23 26 1.29991 0 47 1.29991 1
gene 3 24 26 2.99922 0 48 2.99922 1
gene 3 25 26 -4.16035 0 69 -4.16035 1
gene 2 11 47 1.43309 0 112 1.43309 1
gene 2 47 25 0.365938 0 113 0.365938 1
gene 3 22 47 -0.868563 0 145 -0.868563 1
gene 3 20 47 1.80315 0 200 1.80315 1
gene 3 1 47 -1.04079 0 215 -1.04079 1
gene 1 6 47 4.06939 0 319 4.06939 1
gene 3 4 47 -1.46311 0 424 -1.46311 1
gene 3 14 47 -2.01234 0 464 -2.01234 1
gene 2 20 164 3.27618 0 506 3.27618 1
gene 2 164 26 -2.57036 0 507 -2.57036 1
gene 3 16 168 0.733001 0 519 0.733001 1
gene 3 168 26 -4.93926 0 520 -4.93926 1
gene 1 7 168 2.11946 0 618 2.11946 1
gene 3 4 214 1 0 658 1 0
gene 3 214 25 2.11044 0 659 2.11044 1
gene 1 25 164 -0.854373 0 768 -0.854373 1
gene 1 13 253 1.78121 0 801 1.78121 1
gene 1 253 26 -0.257795 0 802 -0.257795 1
gene 3 4 289 1.17277 0 926 1.17277 1
gene 3 289 214 1.07787 0 927 1.07787 1
genomeend 23

/* Organism #24 Fitness: 675.714 Error: 0 */
genomestart 24
trait 1 0.332422 0.485617 0.194575 0 0 0 0.131702 0.053126 
trait 2 0.175 0 0 0.053676 0 0.245247 0.0447691 0 
trait 3 0.309459 0 0.0351097 0.485099 0.302715 0.313762 0.385714 0.275049 
node 1 1 1 3
node 2 1 1 1
node 3 3 1 1
node 4 2 1 1
node 5 2 1 1
node 6 2 1 1
node 7 1 1 1
node 8 1 1 1
node 9 3 1 1
node 10 2 1 1
node 11 2 1 1
node 12 1 1 1
node 13 3 1 1
node 14 1 1 1
node 15 2 1 1
node 16 2 1 1
node 17 1 1 1
node 18 1 1 1
node 19 1 1 1
node 20 2 1 1
node 21 3 1 1
node 22 2 1 1
node 23 3 1 1
node 24 3 1 1
node 25 1 0 2
node 26 3 0 2
node 47 3 0 0
node 164 1 0 0
node 168 1 0 0
node 214 1 0 0
node 253 1 0 0
node 289 1 0 0
gene 1 1 25 6.51751 0 1 6.51751 1
gene 3 2 25 -1.17557 0 2 -1.17557 1
gene 1 3 25 -7.80206 0 3 -7.80206 1
gene 3 4 25 -1.98603 0 4 -1.98603 0
gene 3 5 25 1.9341 0 5 1.9341 1
gene 3 6 25 8 0 6 8 1
gene 1 7 25 -6.87076 0 7 -6.87076 1
gene 1 8 25 7.5052 0 8 7.5052 1
gene 3 9 25 -3.38219 0 9 -3.38219 1
gene 3 10 25 -1.24589 0 10 -1.24589 1
gene 2 11 25 -1.53491 0 11 -1.53491 1
gene 1 12 25 4.54967 0 12 4.54967 1
gene 3 13 25 5.18898 0 13 5.18898 1
gene 2 14 25 -4.83028 0 14 -4.83028 1
gene 1 15 25 4.43122 0 15 4.43122 1
gene 2 16 25 3.21459 0 16 3.21459 1
gene 3 17 25 4.69183 0 17 4.69183 1
gene 3 18 25 1.88243 0 18 1.88243 1
gene 3 19 25 2.05207 0 19 2.05207 1
gene 3 20 25 4.85553 0 20 4.85553 1
gene 1 21 25 -4.98636 0 21 -4.98636 1
gene 1 22 25 5.23413 0 22 5.23413 1
gene 2 23 25 -0.177356 0 23 -0.177356 1
gene 3 24 25 0.345344 0 24 0.345344 1
gene 3 1 26 -7.59246 0 25 -7.59246 1
gene 2 2 26 -7.80418 0 26 -7.80418 1
gene 2 3 26 -1.83719 0 27 -1.83719 1
gene 3 4 26 -7.0955 0 28 -7.0955 1
gene 2 5 26 0.964905 0 29 0.964905 1
gene 2 6 26 3.9247 0 30 3.9247 1
gene 3 7 26 -5.52872 0 31 -5.52872 1
gene 1 8 26 0.20441 0 32 0.20441 1
gene 2 9 26 5.90234 0 33 5.90234 1
gene 2 10 26 0.26655 0 34 0.26655 1
gene 1 11 26 -0.337623 0 35 -0.337623 1
gene 2 12 26 4.56692 0 36 4.56692 1
gene 1 13 26 -0.257795 0 37 -0.257795 0
gene 3 14 26 -5.53542 0 38 -5.53542 1
gene 3 15 26 -1.91397 0 39 -1.91397 1
gene 3 16 26 -5.88155 0 40 -5.88155 0
gene 3 17 26 7.247 0 41 7.247 1
gene 2 18 26 -1.565 0 42 -1.565 1
gene 2 19 26 -2.27872 0 43 -2.27872 1
gene 2 20 26 -2.47365 0 44 -2.47365 0
gene 2 21 26 1.42936 0 45 1.42936 1
gene 1 22 26 1.10947 0 46 1.10947 1
gene 1 23 26 0.481375 0 47 0.481375 1
gene 3 24 26 2.57186 0 48 2.57186 1
gene 3 25 26 -2.76475 0 69 -2.76475 1
gene 2 11 47 0.857214 0 112 0.857214 1
gene 2 47 25 1.68962 0 113 1.68962 1
gene 3 22 47 -1.59601 0 145 -1.59601 1
gene 3 20 47 -0.114963 0 200 -0.114963 1
gene 3 1 47 0.805939 0 215 0.805939 1
gene 1 6 47 1.94768 0 319 1.94768 1
gene 3 4 47 -0.846361 0 424 -0.846361 1
gene 3 14 47 -0.348822 0 464 -0.348822 1
gene 2 20 164 1.98924 0 506 1.98924 1
gene 2 164 26 -2.57036 0 507 -0.278927 1
gene 3 16 168 0.733001 0 519 0.233001 1
gene 3 168 26 -4.97156 0 520 -0.780625 1
gene 1 7 168 0.241436 0 618 0.241436 1
gene 3 4 214 1 0 658 0 0
gene 3 214 25 -1.71944 0 659 0 1
gene 1 25 164 -0.854373 0 768 -0.854373 1
gene 1 13 253 1 0 801 0 1
gene 1 253 26 -0.257795 0 802 0 1
gene 3 4 289 1 0 926 0 1
gene 3 289 214 1 0 927 0 1
gene 1 3 164 -0.909024 0 974 -0.909024 1
genomeend 24

/* Organism #25 Fitness: 29.5629 Error: 0 */
genomestart 25
trait 1 0.332422 0.485617 0.194575 0 0 0 0.131702 0.053126 
trait 2 0.175 0 0 0.053676 0 0.245247 0.0447691 0 
trait 3 0.309459 0 0.0351097 0.485099 0.302715 0.313762 0.385714 0.275049 
node 1 1 1 3
node 2 1 1 1
node 3 3 1 1
node 4 2 1 1
node 5 2 1 1
node 6 2 1 1
node 7 1 1 1
node 8 1 1 1
node 9 3 1 1
node 10 2 1 1
node 11 2 1 1
node 12 1 1 1
node 13 3 1 1
node 14 1 1 1
node 15 2 1 1
node 16 2 1 1
node 17 1 1 1
node 18 1 1 1
node 19 1 1 1
node 20 2 1 1
node 21 3 1 1
node 22 2 1 1
node 23 3 1 1
node 24 3 1 1
node 25 1 0 2
node 26 3 0 2
node 47 3 0 0
node 164 1 0 0
node 168 1 0 0
node 214 1 0 0
node 253 1 0 0
node 289 1 0 0
gene 1 1 25 8 0 1 8 1
gene 3 2 25 -3.54888 0 2 -3.54888 1
gene 1 3 25 -8 0 3 -8 1
gene 3 4 25 -2.94901 0 4 -2.94901 0
gene 3 5 25 0.717097 0 5 0.717097 1
gene 3 6 25 7.03448 0 6 7.03448 1
gene 1 7 25 -8 0 7 -8 1
gene 1 8 25 7.41401 0 8 7.41401 1
gene 3 9 25 -4.76555 0 9 -4.76555 1
gene 3 10 25 1.09276 0 10 1.09276 1
gene 2 11 25 0.274507 0 11 0.274507 1
gene 1 12 25 6.80183 0 12 6.80183 1
gene 3 13 25 4.60573 0 13 4.60573 1
gene 2 14 25 -4.80291 0 14 -4.80291 1
gene 1 15 25 4.80271 0 15 4.80271 1
gene 2 16 25 5.14507 0 16 5.14507 1
gene 3 17 25 2.29309 0 17 2.29309 1
gene 3 18 25 0.497368 0 18 0.497368 1
gene 3 19 25 2.10442 0 19 2.10442 1
gene 3 20 25 2.56188 0 20 2.56188 1
gene 1 21 25 -5.44752 0 21 -5.44752 1
gene 1 22 25 6.99323 0 22 6.99323 1
gene 2 23 25 0.616695 0 23 0.616695 1
gene 3 24 25 0.0378968 0 24 0.0378968 1
gene 3 1 26 -8 0 25 -8 1
gene 2 2 26 -8 0 26 -8 1
gene 2 3 26 -2.05828 0 27 -2.05828 1
gene 3 4 26 -6.2606 0 28 -6.2606 1
gene 2 5 26 1.79212 0 29 1.79212 1
gene 2 6 26 1.92328 0 30 1.92328 1
gene 3 7 26 -7.34451 0 31 -7.34451 1
gene 1 8 26 -2.07265 0 32 -2.07265 1
gene 2 9 26 8 0 33 8 1
gene 2 10 26 1.55132 0 34 1.55132 1
gene 1 11 26 0.244388 0 35 0.244388 1
gene 2 12 26 4.76255 0 36 4.76255 1
gene 1 13 26 -1.98737 0 37 -1.98737 0
gene 3 14 26 -4.30109 0 38 -4.30109 1
gene 3 15 26 -2.55022 0 39 -2.55022 1
gene 3 16 26 -4.77672 0 40 -4.77672 0
gene 3 17 26 8 0 41 8 1
gene 2 18 26 -2.60003 0 42 -2.60003 1
gene 2 19 26 -3.247 0 43 -3.247 1
gene 2 20 26 -3.47297 0 44 -3.47297 0
gene 2 21 26 1.67385 0 45 1.67385 1
gene 1 22 26 -0.512525 0 46 -0.512525 1
gene 1 23 26 0.514216 0 47 0.514216 1
gene 3 24 26 4.77694 0 48 4.77694 1
gene 3 25 26 -1.75642 0 69 -1.75642 1
gene 2 11 47 3.35374 0 112 3.35374 1
gene 2 47 25 -0.505402 0 113 -0.505402 1
gene 3 22 47 0.845266 0 145 0.845266 1
gene 3 20 47 -0.226373 0 200 -0.226373 1
gene 3 1 47 0.436456 0 215 0.436456 1
gene 1 6 47 2.84348 0 319 2.84348 1
gene 3 4 47 -0.247756 0 424 -0.247756 1
gene 3 14 47 -0.348822 0 464 -0.348822 1
gene 2 20 164 1.98924 0 506 1.98924 1
gene 2 164 26 2.3107 0 507 2.3107 1
gene 3 16 168 -1.50505 0 519 -1.50505 1
gene 3 168 26 -4.97156 0 520 -4.97156 1
gene 1 7 168 0.241436 0 618 0.241436 1
gene 3 4 214 1.79666 0 658 1.79666 0
gene 3 214 25 -1.99017 0 659 -1.99017 1
gene 1 25 164 -0.854373 0 768 -0.854373 1
gene 1 13 253 1 0 801 1 1
gene 1 253 26 -1.32643 0 802 -1.32643 1
gene 3 4 289 -1.69192 0 926 -1.69192 1
gene 3 289 214 1 0 927 1 1
genomeend 25

/* Organism #26 Fitness: 40.615 Error: 0 */
genomestart 26
trait 1 0.332422 0.485617 0.194575 0 0 0 0.131702 0.053126 
trait 2 0.175 0 0 0.053676 0 0.245247 0.0447691 0 
trait 3 0.309459 0 0.0351097 0.485099 0.302715 0.313762 0.385714 0.275049 
node 1 1 1 3
node 2 1 1 1
node 3 3 1 1
node 4 2 1 1
node 5 2 1 1
node 6 2 1 1
node 7 1 1 1
node 8 1 1 1
node 9 3 1 1
node 10 2 1 1
node 11 2 1 1
node 12 1 1 1
node 13 3 1 1
node 14 1 1 1
node 15 2 1 1
node 16 2 1 1
node 17 1 1 1
node 18 1 1 1
node 19 1 1 1
node 20 2 1 1
node 21 3 1 1
node 22 2 1 1
node 23 3 1 1
node 24 3 1 1
node 25 1 0 2
node 26 3 0 2
node 47 3 0 0
node 164 1 0 0
node 168 1 0 0
node 214 1 0 0
node 253 1 0 0
node 289 1 0 0
gene 1 1 25 6.66211 0 1 6.66211 1
gene 3 2 25 -0.941182 0 2 -0.941182 1
gene 1 3 25 -6.83275 0 3 -6.83275 1
gene 3 4 25 -0.614183 0 4 -0.614183 0
gene 3 5 25 4.19869 0 5 4.19869 1
gene 3 6 25 7.4058 0 6 7.4058 1
gene 1 7 25 -8 0 7 -8 1
gene 1 8 25 8 0 8 8 1
gene 3 9 25 -5.11568 0 9 -5.11568 1
gene 3 10 25 -3.32178 0 10 -3.32178 1
gene 2 11 25 -2.11315 0 11 -2.11315 1
gene 1 12 25 6.69967 0 12 6.69967 1
gene 3 13 25 7.29966 0 13 7.29966 1
gene 2 14 25 -3.21141 0 14 -3.21141 1
gene 1 15 25 4.02929 0 15 4.02929 1
gene 2 16 25 2.03672 0 16 2.03672 1
gene 3 17 25 2.67846 0 17 2.67846 1
gene 3 18 25 1.56037 0 18 1.56037 1
gene 3 19 25 1.9522 0 19 1.9522 1
gene 3 20 25 3.82109 0 20 3.82109 1
gene 1 21 25 -5.24383 0 21 -5.24383 1
gene 1 22 25 3.37701 0 22 3.37701 1
gene 2 23 25 -0.944695 0 23 -0.944695 1
gene 3 24 25 0.0539705 0 24 0.0539705 1
gene 3 1 26 -8 0 25 -8 1
gene 2 2 26 -8 0 26 -8 1
gene 2 3 26 -0.962995 0 27 -0.962995 1
gene 3 4 26 -8 0 28 -8 1
gene 2 5 26 3.00108 0 29 3.00108 1
gene 2 6 26 2.70265 0 30 2.70265 1
gene 3 7 26 -3.90614 0 31 -3.90614 1
gene 1 8 26 -1.56839 0 32 -1.56839 1
gene 2 9 26 4.87536 0 33 4.87536 1
gene 2 10 26 -1.37463 0 34 -1.37463 1
gene 1 11 26 -2.22417 0 35 -2.22417 1
gene 2 12 26 5.41523 0 36 5.41523 1
gene 1 13 26 -0.63927 0 37 -0.63927 0
gene 3 14 26 -4.14355 0 38 -4.14355 1
gene 3 15 26 -2.97038 0 39 -2.97038 1
gene 3 16 26 -7.20024 0 40 -7.20024 0
gene 3 17 26 4.98717 0 41 4.98717 1
gene 2 18 26 -3.32395 0 42 -3.32395 1
gene 2 19 26 -0.516339 0 43 -0.516339 1
gene 2 20 26 -2.79178 0 44 -2.79178 0
gene 2 21 26 -0.15195 0 45 -0.15195 1
gene 1 22 26 1.31254 0 46 1.31254 1
gene 1 23 26 1.40493 0 47 1.40493 1
gene 3 24 26 2.63503 0 48 2.63503 1
gene 3 25 26 -0.380621 0 69 -0.380621 1
gene 2 11 47 0.0396092 0 112 0.0396092 1
gene 2 47 25 2.6704 0 113 2.6704 1
gene 3 22 47 -2.34434 0 145 -2.34434 1
gene 3 20 47 -0.573778 0 200 -0.573778 1
gene 3 1 47 1.00364 0 215 1.00364 1
gene 1 6 47 4.15419 0 319 4.15419 1
gene 3 4 47 -1.67123 0 424 -1.67123 1
gene 3 14 47 0.708993 0 464 0.708993 1
gene 2 20 164 4.34132 0 506 4.34132 1
gene 2 164 26 -2.42968 0 507 -2.42968 1
gene 3 16 168 2.88223 0 519 2.88223 1
gene 3 168 26 -4.97156 0 520 -4.97156 1
gene 1 7 168 -0.227205 0 618 -0.227205 1
gene 3 4 214 0.469972 0 658 0.469972 0
gene 3 214 25 1.82049 0 659 1.82049 1
gene 1 25 164 -2.38137 0 768 -2.38137 1
gene 1 13 253 1 0 801 1 1
gene 1 253 26 -0.889352 0 802 -0.889352 1
gene 3 4 289 -1.70605 0 926 -1.70605 1
gene 3 289 214 0.163143 0 927 0.163143 1
genomeend 26

/* Species #51 : (Size 1) (AF 4.77577) (Age 25)  */


/* Organism #27 Fitness: 4.99894 Error: 0 */
genomestart 27
trait 1 0.332422 0.485617 0.194575 0 0 0 0.131702 0.053126 
trait 2 0.175 0 0.420197 0 0.111905 0 0.0970859 0 
trait 3 0.38863 0.162917 0.263701 0.477025 0.055177 0.665165 0.768431 0.260709 
node 1 1 1 3
node 2 1 1 1
node 3 3 1 1
node 4 2 1 1
node 5 2 1 1
node 6 2 1 1
node 7 1 1 1
node 8 1 1 1
node 9 3 1 1
node 10 2 1 1
node 11 2 1 1
node 12 1 1 1
node 13 3 1 1
node 14 1 1 1
node 15 2 1 1
node 16 2 1 1
node 17 1 1 1
node 18 1 1 1
node 19 1 1 1
node 20 2 1 1
node 21 3 1 1
node 22 2 1 1
node 23 3 1 1
node 24 3 1 1
node 25 1 0 2
node 26 3 0 2
node 47 3 0 0
node 192 1 0 0
node 230 1 0 0
node 242 1 0 0
node 261 1 0 0
node 299 1 0 0
gene 1 1 25 -1.61631 0 1 -1.61631 1
gene 3 2 25 -3.80647 0 2 -3.80647 1
gene 1 3 25 -5.49352 0 3 -5.49352 1
gene 3 4 25 4.96355 0 4 4.96355 1
gene 3 5 25 3.76538 0 5 3.76538 1
gene 3 6 25 -1.07912 0 6 -1.07912 0
gene 1 7 25 -0.947964 0 7 -0.947964 1
gene 1 8 25 -5.64965 0 8 -5.64965 1
gene 3 9 25 -0.417624 0 9 -0.417624 1
gene 3 10 25 -4.83308 0 10 -4.83308 0
gene 2 11 25 4.64131 0 11 4.64131 0
gene 1 12 25 2.61368 0 12 2.61368 1
gene 3 13 25 0.142718 0 13 0.142718 1
gene 2 14 25 -0.696894 0 14 -0.696894 1
gene 1 15 25 1.61649 0 15 1.61649 1
gene 2 16 25 5.42369 0 16 5.42369 1
gene 3 17 25 1.86681 0 17 1.86681 1
gene 3 18 25 -1.7294 0 18 -1.7294 1
gene 3 19 25 -0.476628 0 19 -0.476628 1
gene 3 20 25 -1.95698 0 20 -1.95698 1
gene 1 21 25 -1.80167 0 21 -1.80167 1
gene 1 22 25 -1.29188 0 22 -1.29188 1
gene 2 23 25 -6.61701 0 23 -6.61701 0
gene 3 24 25 -1.08055 0 24 -1.08055 1
gene 3 1 26 1.94268 0 25 1.94268 1
gene 2 2 26 -5.60901 0 26 -5.60901 1
gene 2 3 26 -0.327101 0 27 -0.327101 1
gene 3 4 26 -4.35039 0 28 -4.35039 1
gene 2 5 26 0.157154 0 29 0.157154 1
gene 2 6 26 4.40943 0 30 4.40943 1
gene 3 7 26 -3.50639 0 31 -3.50639 1
gene 1 8 26 -1.31483 0 32 -1.31483 1
gene 2 9 26 3.77646 0 33 3.77646 1
gene 2 10 26 -2.88418 0 34 -2.88418 1
gene 1 11 26 -0.737769 0 35 -0.737769 1
gene 3 12 26 1.23802 0 36 1.23802 1
gene 1 13 26 -4.47211 0 37 -4.47211 0
gene 3 14 26 -5.56559 0 38 -5.56559 1
gene 3 15 26 6.06903 0 39 6.06903 1
gene 3 16 26 -2.88282 0 40 -2.88282 1
gene 3 17 26 -1.12251 0 41 -1.12251 1
gene 2 18 26 -2.21316 0 42 -2.21316 0
gene 2 19 26 2.55463 0 43 2.55463 1
gene 2 20 26 2.79692 0 44 2.79692 1
gene 2 21 26 7.64682 0 45 7.64682 1
gene 1 22 26 1.05179 0 46 1.05179 1
gene 1 23 26 1.3671 0 47 1.3671 1
gene 3 24 26 0.340767 0 48 0.340767 1
gene 3 25 26 2.21501 0 69 2.21501 1
gene 2 11 47 5.87313 0 112 5.87313 1
gene 2 47 25 2.25127 0 113 2.25127 1
gene 3 22 47 -4.25579 0 145 -4.25579 1
gene 3 20 47 -1.48787 0 200 -1.48787 1
gene 3 1 47 -0.538787 0 215 -0.538787 1
gene 1 6 47 4.06478 0 319 4.06478 1
gene 3 4 47 1.78051 0 424 1.78051 1
gene 3 14 47 -0.24816 0 464 -0.24816 1
gene 3 17 47 1.00329 0 479 1.00329 1
gene 2 19 47 -2.70345 0 510 -2.70345 1
gene 3 47 26 -2.6434 0 537 -2.6434 1
gene 2 18 192 -1.24509 0 590 -1.24509 1
gene 2 192 26 0.0212427 0 591 0.0212427 1
gene 2 5 192 0.431151 0 621 0.431151 1
gene 2 9 47 -1.1764 0 665 -1.1764 1
gene 1 13 230 -0.761619 0 710 -0.761619 1
gene 1 230 26 -0.0716564 0 711 -0.0716564 1
gene 3 10 242 -4.85955 0 756 -4.85955 1
gene 3 242 25 1.06772 0 757 1.06772 1
gene 3 6 261 -2.76754 0 824 -2.76754 1
gene 3 261 25 0.868881 0 825 0.868881 1
gene 2 23 299 0.818711 0 959 0.818711 1
gene 2 299 25 1.11488 0 960 1.11488 1
genomeend 27

/* Species #57 : (Size 11) (AF 161.894) (Age 22)  */


/* Organism #28 Fitness: 448.728 Error: 0 */
genomestart 28
trait 1 0.666211 0.440364 0.194575 0.304485 0.159067 0 0.131702 0.053126 
trait 2 0.175 0 0.420197 0 0.111905 0 0.0970859 0 
trait 3 0.309459 0 0.0702194 0.485099 0.055177 0.289998 0.382481 0.260709 
node 1 1 1 3
node 2 1 1 1
node 3 3 1 1
node 4 2 1 1
node 5 2 1 1
node 6 2 1 1
node 7 1 1 1
node 8 1 1 1
node 9 3 1 1
node 10 2 1 1
node 11 2 1 1
node 12 1 1 1
node 13 3 1 1
node 14 1 1 1
node 15 2 1 1
node 16 2 1 1
node 17 1 1 1
node 18 1 1 1
node 19 1 1 1
node 20 2 1 1
node 21 3 1 1
node 22 2 1 1
node 23 3 1 1
node 24 3 1 1
node 25 1 0 2
node 26 3 0 2
node 47 3 0 0
node 192 1 0 0
node 196 1 0 0
node 215 1 0 0
node 227 1 0 0
gene 1 1 25 7.23778 0 1 7.23778 1
gene 3 2 25 0.154242 0 2 0.154242 1
gene 1 3 25 -8 0 3 -8 1
gene 3 4 25 -4.16627 0 4 -4.16627 1
gene 3 5 25 1.30176 0 5 1.30176 1
gene 3 6 25 7.39451 0 6 7.39451 1
gene 1 7 25 -7.51144 0 7 -7.51144 1
gene 1 8 25 7.7526 0 8 7.7526 1
gene 3 9 25 -1.85504 0 9 -1.85504 1
gene 3 10 25 -0.123337 0 10 -0.123337 1
gene 2 11 25 -2.87302 0 11 -2.87302 0
gene 1 12 25 3.05912 0 12 3.05912 1
gene 3 13 25 3.05941 0 13 3.05941 1
gene 2 14 25 -3.9309 0 14 -3.9309 1
gene 1 15 25 4.36202 0 15 4.36202 1
gene 2 16 25 3.948 0 16 3.948 1
gene 3 17 25 2.84303 0 17 2.84303 1
gene 1 18 25 2.95883 0 18 2.95883 1
gene 3 19 25 0.986035 0 19 0.986035 1
gene 3 20 25 3.70619 0 20 3.70619 0
gene 1 21 25 -4.39125 0 21 -4.39125 1
gene 1 22 25 5.27686 0 22 5.27686 1
gene 2 23 25 -0.681967 0 23 -0.681967 1
gene 3 24 25 1.91158 0 24 1.91158 1
gene 3 1 26 -6.60484 0 25 -6.60484 1
gene 2 2 26 -7.83546 0 26 -7.83546 1
gene 2 3 26 0.557773 0 27 0.557773 1
gene 3 4 26 -7.75254 0 28 -7.75254 1
gene 2 5 26 2.95612 0 29 2.95612 0
gene 2 6 26 3.84758 0 30 3.84758 1
gene 3 7 26 -7.22406 0 31 -7.22406 1
gene 1 8 26 -1.56845 0 32 -1.56845 1
gene 2 9 26 6.11294 0 33 6.11294 1
gene 2 10 26 1.87277 0 34 1.87277 1
gene 1 11 26 0.23227 0 35 0.23227 1
gene 2 12 26 5.14169 0 36 5.14169 1
gene 1 13 26 0.297015 0 37 0.297015 1
gene 3 14 26 -4.52242 0 38 -4.52242 1
gene 3 15 26 -2.71223 0 39 -2.71223 1
gene 3 16 26 -5.83655 0 40 -5.83655 1
gene 3 17 26 6.50279 0 41 6.50279 1
gene 2 18 26 -4.46999 0 42 -4.46999 0
gene 2 19 26 -3.67935 0 43 -3.67935 1
gene 2 20 26 -1.71571 0 44 -1.71571 1
gene 2 21 26 4.66113 0 45 4.66113 1
gene 1 22 26 0.381595 0 46 0.381595 1
gene 1 23 26 -2.55643 0 47 -2.55643 1
gene 3 24 26 1.33217 0 48 1.33217 1
gene 3 25 26 -3.17233 0 69 -3.17233 1
gene 2 11 47 0.814507 0 112 0.814507 1
gene 2 47 25 0.861023 0 113 0.861023 1
gene 3 22 47 -1.00548 0 145 -1.00548 1
gene 3 20 47 -0.455647 0 200 -0.455647 1
gene 3 1 47 0.983588 0 215 0.983588 1
gene 1 6 47 0.847795 0 319 0.847795 1
gene 3 4 47 0.558861 0 424 0.558861 0
gene 3 14 47 0.251848 0 464 0.251848 1
gene 3 17 47 1.16132 0 479 1.16132 1
gene 2 19 47 1.56356 0 510 1.56356 1
gene 3 47 26 2.64876 0 537 2.64876 1
gene 2 18 192 -0.43189 0 590 -0.68189 1
gene 2 192 26 -1.01842 0 591 -0.332558 1
gene 3 4 196 0.399125 0 601 0.149125 1
gene 3 196 47 0.9928 0 602 1.03364 1
gene 3 20 196 0.331825 0 630 0.331825 1
gene 1 13 196 -0.472344 0 637 -0.472344 1
gene 3 20 215 1 0 662 0.5 1
gene 3 215 25 3.55568 0 663 1.77784 1
gene 1 22 227 1 0 691 0 1
gene 1 227 26 0.795718 0 692 0 1
gene 2 15 215 0.334371 0 846 0.334371 1
gene 3 14 227 -0.847081 0 899 -0.847081 1
gene 3 47 215 -0.62377 0 911 -0.62377 1
gene 2 4 227 -0.480382 0 929 -0.480382 1
genomeend 28

/* Organism #29 Fitness: 4.68302 Error: 0 */
genomestart 29
trait 1 0.666211 0.440364 0.194575 0.304485 0.159067 0 0.131702 0.053126 
trait 2 0.175 0 0.420197 0 0.111905 0 0.0970859 0 
trait 3 0.309459 0 0.0702194 0.485099 0.055177 0.289998 0.382481 0.260709 
node 1 1 1 3
node 2 1 1 1
node 3 3 1 1
node 4 2 1 1
node 5 2 1 1
node 6 2 1 1
node 7 1 1 1
node 8 1 1 1
node 9 3 1 1
node 10 2 1 1
node 11 2 1 1
node 12 1 1 1
node 13 3 1 1
node 14 1 1 1
node 15 2 1 1
node 16 2 1 1
node 17 1 1 1
node 18 1 1 1
node 19 1 1 1
node 20 2 1 1
node 21 3 1 1
node 22 2 1 1
node 23 3 1 1
node 24 3 1 1
node 25 1 0 2
node 26 3 0 2
node 47 3 0 0
node 192 1 0 0
node 196 1 0 0
node 215 1 0 0
node 227 1 0 0
gene 1 1 25 2.47677 0 1 2.47677 1
gene 3 2 25 -0.644575 0 2 -0.644575 1
gene 1 3 25 1.47762 0 3 1.47762 1
gene 3 4 25 -4.04838 0 4 -4.04838 1
gene 3 5 25 1.30176 0 5 1.30176 1
gene 3 6 25 8 0 6 8 1
gene 1 7 25 -7.06054 0 7 -7.06054 1
gene 1 8 25 8 0 8 8 1
gene 3 9 25 -4.34781 0 9 -4.34781 1
gene 3 10 25 -1.42684 0 10 -1.42684 1
gene 2 11 25 -4.8558 0 11 -4.8558 0
gene 1 12 25 1.05136 0 12 1.05136 1
gene 3 13 25 1.13888 0 13 1.13888 1
gene 2 14 25 -4.37759 0 14 -4.37759 1
gene 1 15 25 5.95539 0 15 5.95539 1
gene 2 16 25 -1.57182 0 16 -1.57182 1
gene 3 17 25 3.17414 0 17 3.17414 1
gene 1 18 25 2.95883 0 18 2.95883 1
gene 3 19 25 0.986035 0 19 0.986035 1
gene 3 20 25 3.32711 0 20 3.32711 0
gene 1 21 25 -6.33077 0 21 -6.33077 1
gene 1 22 25 3.63052 0 22 3.63052 1
gene 2 23 25 0.670337 0 23 0.670337 1
gene 3 24 25 3.52976 0 24 3.52976 1
gene 3 1 26 -8 0 25 -8 1
gene 2 2 26 -7.83546 0 26 -7.83546 1
gene 2 3 26 -2.12348 0 27 -2.12348 1
gene 3 4 26 2.40401 0 28 2.40401 1
gene 2 5 26 4.01459 0 29 4.01459 0
gene 2 6 26 2.54808 0 30 2.54808 1
gene 3 7 26 -8 0 31 -8 1
gene 1 8 26 -1.5849 0 32 -1.5849 1
gene 2 9 26 3.70806 0 33 3.70806 1
gene 2 10 26 0.42027 0 34 0.42027 1
gene 1 11 26 -0.516694 0 35 -0.516694 1
gene 2 12 26 7.51898 0 36 7.51898 1
gene 1 13 26 2.5034 0 37 2.5034 1
gene 3 14 26 0.687146 0 38 0.687146 1
gene 3 15 26 -4.57008 0 39 -4.57008 1
gene 3 16 26 -0.711264 0 40 -0.711264 1
gene 3 17 26 7.55368 0 41 7.55368 1
gene 2 18 26 -2.11049 0 42 -2.11049 0
gene 2 19 26 -2.99089 0 43 -2.99089 1
gene 2 20 26 -1.25741 0 44 -1.25741 1
gene 2 21 26 6.77682 0 45 6.77682 1
gene 1 22 26 -1.87242 0 46 -1.87242 1
gene 1 23 26 -5.00152 0 47 -5.00152 1
gene 3 24 26 0.812139 0 48 0.812139 1
gene 3 25 26 -1.57076 0 69 -1.57076 1
gene 2 11 47 0.814507 0 112 0.814507 1
gene 2 47 25 1.40538 0 113 1.40538 1
gene 3 22 47 -0.281279 0 145 -0.281279 1
gene 3 20 47 0.713534 0 200 0.713534 1
gene 3 1 47 0.251968 0 215 0.251968 1
gene 1 6 47 -0.181894 0 319 -0.181894 1
gene 3 4 47 1.62622 0 424 1.62622 0
gene 3 14 47 2.53116 0 464 2.53116 1
gene 3 17 47 -0.627702 0 479 -0.627702 1
gene 2 19 47 -0.436939 0 510 -0.436939 1
gene 3 47 26 2.64876 0 537 2.64876 1
gene 2 18 192 1.50367 0 590 1.50367 1
gene 2 192 26 0.0591523 0 591 0.0591523 1
gene 3 4 196 2.17795 0 601 2.17795 1
gene 3 196 47 -1.01229 0 602 -1.01229 1
gene 3 20 196 2.03007 0 630 2.03007 1
gene 1 13 196 2.08566 0 637 2.08566 1
gene 3 20 215 1 0 662 1 1
gene 3 215 25 2.25256 0 663 2.25256 1
gene 1 22 227 1.52668 0 691 1.52668 1
gene 1 227 26 -1.58036 0 692 -1.58036 1
gene 2 15 215 0.509807 0 846 0.509807 1
gene 3 14 227 -2.36278 0 899 -2.36278 1
gene 3 47 215 -1.12568 0 911 -1.12568 1
gene 2 4 227 0.281265 0 929 0.281265 1
genomeend 29

/* Organism #30 Fitness: 17.4231 Error: 0 */
genomestart 30
trait 1 0.666211 0.440364 0.194575 0.304485 0.159067 0 0.131702 0.053126 
trait 2 0.175 0 0.420197 0 0.111905 0 0.0970859 0 
trait 3 0.309459 0 0.0702194 0.485099 0.055177 0.289998 0.382481 0.260709 
node 1 1 1 3
node 2 1 1 1
node 3 3 1 1
node 4 2 1 1
node 5 2 1 1
node 6 2 1 1
node 7 1 1 1
node 8 1 1 1
node 9 3 1 1
node 10 2 1 1
node 11 2 1 1
node 12 1 1 1
node 13 3 1 1
node 14 1 1 1
node 15 2 1 1
node 16 2 1 1
node 17 1 1 1
node 18 1 1 1
node 19 1 1 1
node 20 2 1 1
node 21 3 1 1
node 22 2 1 1
node 23 3 1 1
node 24 3 1 1
node 25 1 0 2
node 26 3 0 2
node 47 3 0 0
node 192 1 0 0
node 196 1 0 0
node 215 1 0 0
node 227 1 0 0
gene 1 1 25 8 0 1 8 1
gene 3 2 25 0.94238 0 2 0.94238 1
gene 1 3 25 -6.0968 0 3 -6.0968 1
gene 3 4 25 -5.95145 0 4 -5.95145 1
gene 3 5 25 -0.150198 0 5 -0.150198 1
gene 3 6 25 8 0 6 8 1
gene 1 7 25 -7.42017 0 7 -7.42017 1
gene 1 8 25 7.7526 0 8 7.7526 1
gene 3 9 25 1.05409 0 9 1.05409 1
gene 3 10 25 -1.64599 0 10 -1.64599 1
gene 2 11 25 -3.86866 0 11 -3.86866 0
gene 1 12 25 3.70799 0 12 3.70799 1
gene 3 13 25 3.05941 0 13 3.05941 1
gene 2 14 25 -4.66215 0 14 -4.66215 1
gene 1 15 25 4.7605 0 15 4.7605 1
gene 2 16 25 5.51922 0 16 5.51922 1
gene 3 17 25 4.28695 0 17 4.28695 1
gene 1 18 25 1.13001 0 18 1.13001 1
gene 3 19 25 0.520449 0 19 0.520449 1
gene 3 20 25 5.99338 0 20 5.99338 0
gene 1 21 25 -5.76457 0 21 -5.76457 1
gene 1 22 25 2.12112 0 22 2.12112 1
gene 2 23 25 -0.681967 0 23 -0.681967 1
gene 3 24 25 3.48584 0 24 3.48584 1
gene 3 1 26 -7.47406 0 25 -7.47406 1
gene 2 2 26 1.10351 0 26 1.10351 1
gene 2 3 26 1.79546 0 27 1.79546 1
gene 3 4 26 -6.69658 0 28 -6.69658 1
gene 2 5 26 2.00174 0 29 2.00174 0
gene 2 6 26 2.43286 0 30 2.43286 1
gene 3 7 26 0.676574 0 31 0.676574 1
gene 1 8 26 -3.87419 0 32 -3.87419 1
gene 2 9 26 -2.24461 0 33 -2.24461 1
gene 2 10 26 -0.5236 0 34 -0.5236 1
gene 1 11 26 -2.0462 0 35 -2.0462 1
gene 2 12 26 5.28775 0 36 5.28775 1
gene 1 13 26 0.0434742 0 37 0.0434742 1
gene 3 14 26 -2.6927 0 38 -2.6927 1
gene 3 15 26 -0.542033 0 39 -0.542033 1
gene 3 16 26 -3.71752 0 40 -3.71752 1
gene 3 17 26 7.20165 0 41 7.20165 1
gene 2 18 26 -3.06467 0 42 -3.06467 0
gene 2 19 26 -1.29207 0 43 -1.29207 1
gene 2 20 26 -2.83024 0 44 -2.83024 1
gene 2 21 26 5.47945 0 45 5.47945 1
gene 1 22 26 2.27874 0 46 2.27874 1
gene 1 23 26 -1.63421 0 47 -1.63421 1
gene 3 24 26 1.83745 0 48 1.83745 1
gene 3 25 26 -3.17233 0 69 -3.17233 1
gene 2 11 47 0.52403 0 112 0.52403 1
gene 2 47 25 -0.581043 0 113 -0.581043 1
gene 3 22 47 -2.22218 0 145 -2.22218 1
gene 3 20 47 1.36291 0 200 1.36291 1
gene 3 1 47 -0.587257 0 215 -0.587257 1
gene 1 6 47 -0.749251 0 319 -0.749251 1
gene 3 4 47 0.717139 0 424 0.717139 0
gene 3 14 47 -1.2992 0 464 -1.2992 1
gene 3 17 47 0.824874 0 479 0.824874 1
gene 2 19 47 2.19287 0 510 2.19287 1
gene 3 47 26 2.64876 0 537 2.64876 1
gene 2 18 192 -0.416643 0 590 -0.416643 1
gene 2 192 26 0.181189 0 591 0.181189 1
gene 3 4 196 2.14197 0 601 2.14197 1
gene 3 196 47 -0.396762 0 602 -0.396762 1
gene 3 20 196 0.295696 0 630 0.295696 1
gene 1 13 196 1.7564 0 637 1.7564 1
gene 3 20 215 0.386534 0 662 0.386534 1
gene 3 215 25 3.32191 0 663 3.32191 1
gene 1 22 227 0.580633 0 691 0.580633 1
gene 1 227 26 0.795718 0 692 0.795718 1
gene 2 15 215 0.334371 0 846 0.334371 1
gene 3 14 227 -2.79218 0 899 -2.79218 1
gene 3 47 215 -2.23282 0 911 -2.23282 1
gene 2 4 227 -2.34692 0 929 -2.34692 1
genomeend 30

/* Organism #31 Fitness: 8.06361 Error: 0 */
genomestart 31
trait 1 0.666211 0.440364 0.194575 0.304485 0.159067 0 0.131702 0.053126 
trait 2 0.175 0 0.420197 0 0.111905 0 0.0970859 0 
trait 3 0.309459 0 0.0702194 0.485099 0.055177 0.289998 0.382481 0.260709 
node 1 1 1 3
node 2 1 1 1
node 3 3 1 1
node 4 2 1 1
node 5 2 1 1
node 6 2 1 1
