
/* Species #31 : (Size 4) (AF 16.9306) (Age 26)  */


/* Organism #0 Fitness: 16.2006 Error: 0 */
genomestart 0
trait 1 0.1 0 0.131482 0 0 0 0 0 
trait 2 0.2 0.355277 0 0 0 0 0 0 
trait 3 0.134879 0 0 0.570855 0 0 0.584304 0 
node 1 1 1 3
node 2 3 1 1
node 3 3 1 1
node 4 2 1 1
node 5 1 1 1
node 6 3 1 1
node 7 3 1 1
node 8 3 1 1
node 9 2 1 1
node 10 3 1 1
node 11 1 1 1
node 12 1 1 1
node 13 3 1 1
node 14 1 1 1
node 15 3 1 1
node 16 3 1 1
node 17 2 1 1
node 18 1 1 1
node 19 2 1 1
node 20 1 1 1
node 21 1 1 1
node 22 2 1 1
node 23 3 1 1
node 24 3 1 1
node 25 2 0 2
node 26 3 0 2
node 43 1 0 0
node 61 1 0 0
node 114 1 0 0
node 128 1 0 0
gene 2 1 25 0.522522 0 1 0.522522 1
gene 1 2 25 4.48205 0 2 4.48205 1
gene 3 3 25 -6.81806 0 3 -6.81806 1
gene 2 4 25 -1.57369 0 4 -1.57369 1
gene 3 5 25 1.42114 0 5 1.42114 1
gene 2 6 25 3.44849 0 6 3.44849 1
gene 3 7 25 -3.79729 0 7 -3.79729 1
gene 2 8 25 -2.09811 0 8 -2.09811 1
gene 2 9 25 -2.52124 0 9 -2.52124 1
gene 2 10 25 -1.90811 0 10 -1.90811 1
gene 1 11 25 -6.48856 0 11 -6.48856 1
gene 3 12 25 -0.605656 0 12 -0.605656 1
gene 1 13 25 2.15627 0 13 2.15627 1
gene 3 14 25 6.96782 0 14 6.96782 1
gene 1 15 25 -1.43752 0 15 -1.43752 1
gene 2 16 25 -4.87962 0 16 -4.87962 1
gene 2 17 25 1.13824 0 17 1.13824 1
gene 1 18 25 4.67309 0 18 4.67309 1
gene 2 19 25 -0.531168 0 19 -0.531168 1
gene 3 20 25 1.89247 0 20 1.89247 1
gene 1 21 25 3.18902 0 21 3.18902 1
gene 3 22 25 8 0 22 8 1
gene 3 23 25 -4.18671 0 23 -4.18671 1
gene 2 24 25 0.402873 0 24 0.402873 1
gene 3 1 26 -0.765086 0 25 -0.765086 1
gene 2 2 26 0.205782 0 26 0.205782 1
gene 1 3 26 8 0 27 8 1
gene 2 4 26 -1.12191 0 28 -1.12191 1
gene 1 5 26 -0.970246 0 29 -0.970246 1
gene 3 6 26 0.998355 0 30 0.998355 1
gene 2 7 26 -1.85908 0 31 -1.85908 1
gene 3 8 26 -3.47849 0 32 -3.47849 1
gene 2 9 26 -2.12816 0 33 -2.12816 1
gene 3 10 26 1.60304 0 34 1.60304 1
gene 3 11 26 7.24102 0 35 7.24102 1
gene 1 12 26 -1.30761 0 36 -1.30761 1
gene 1 13 26 4.13301 0 37 4.13301 1
gene 2 14 26 3.10574 0 38 3.10574 1
gene 2 15 26 -6.75245 0 39 -6.75245 0
gene 1 16 26 2.09014 0 40 2.09014 1
gene 2 17 26 8 0 41 8 1
gene 3 18 26 -1.18483 0 42 -1.18483 1
gene 3 19 26 -0.434429 0 43 -0.434429 1
gene 2 20 26 1.64301 0 44 1.64301 1
gene 2 21 26 -0.454402 0 45 -0.454402 1
gene 2 22 26 -0.372345 0 46 -0.372345 1
gene 2 23 26 1.6566 0 47 1.6566 1
gene 2 24 26 -0.167908 0 48 -0.167908 1
gene 3 20 43 1.33735 0 84 1.33735 1
gene 3 43 25 0.169569 0 85 0.169569 0
gene 1 4 43 4.07482 0 95 4.07482 1
gene 1 5 61 0.982324 0 151 0.982324 1
gene 1 61 26 4.28986 0 152 4.28986 1
gene 3 19 114 3.31436 0 338 3.31436 1
gene 3 114 26 2.34316 0 339 2.34316 1
gene 3 43 128 4.76453 0 389 4.76453 1
gene 3 128 25 0.773515 0 390 0.773515 1
gene 1 2 61 -1.07541 0 580 -1.07541 1
genomeend 0

/* Organism #1 Fitness: 35.3741 Error: 0 */
genomestart 1
trait 1 0.1 0 0.131482 0 0 0 0 0 
trait 2 0.2 0.355277 0 0 0 0 0 0 
trait 3 0.134879 0 0 0.570855 0 0 0.584304 0 
node 1 1 1 3
node 2 3 1 1
node 3 3 1 1
node 4 2 1 1
node 5 1 1 1
node 6 3 1 1
node 7 3 1 1
node 8 3 1 1
node 9 2 1 1
node 10 3 1 1
node 11 1 1 1
node 12 1 1 1
node 13 3 1 1
node 14 1 1 1
node 15 3 1 1
node 16 3 1 1
node 17 2 1 1
node 18 1 1 1
node 19 2 1 1
node 20 1 1 1
node 21 1 1 1
node 22 2 1 1
node 23 3 1 1
node 24 3 1 1
node 25 2 0 2
node 26 3 0 2
node 43 1 0 0
node 61 1 0 0
node 114 1 0 0
node 128 1 0 0
gene 2 1 25 2.72287 0 1 2.72287 1
gene 1 2 25 4.81672 0 2 4.81672 1
gene 3 3 25 -6.42924 0 3 -6.42924 1
gene 2 4 25 -1.90548 0 4 -1.90548 1
gene 3 5 25 1.20498 0 5 1.20498 1
gene 2 6 25 4.78648 0 6 4.78648 1
gene 3 7 25 -0.0646236 0 7 -0.0646236 1
gene 2 8 25 -4.16418 0 8 -4.16418 1
gene 2 9 25 -1.19943 0 9 -1.19943 1
gene 2 10 25 6.82684 0 10 6.82684 1
gene 1 11 25 -6.55581 0 11 -6.55581 1
gene 3 12 25 -1.21222 0 12 -1.21222 1
gene 1 13 25 2.34444 0 13 2.34444 1
gene 3 14 25 8 0 14 8 1
gene 1 15 25 -1.0613 0 15 -1.0613 1
gene 2 16 25 -5.77357 0 16 -5.77357 1
gene 2 17 25 -5.30529 0 17 -5.30529 1
gene 1 18 25 4.556 0 18 4.556 1
gene 2 19 25 1.01329 0 19 1.01329 1
gene 3 20 25 8 0 20 8 1
gene 1 21 25 0.534149 0 21 0.534149 1
gene 3 22 25 8 0 22 8 1
gene 3 23 25 -2.82955 0 23 -2.82955 1
gene 2 24 25 0.601479 0 24 0.601479 1
gene 3 1 26 3.093 0 25 3.093 1
gene 2 2 26 2.41103 0 26 2.41103 1
gene 1 3 26 8 0 27 8 1
gene 2 4 26 0.941946 0 28 0.941946 1
gene 1 5 26 0.947412 0 29 0.947412 1
gene 3 6 26 -0.262292 0 30 -0.262292 1
gene 2 7 26 -3.70579 0 31 -3.70579 1
gene 3 8 26 -2.67319 0 32 -2.67319 1
gene 2 9 26 -2.74024 0 33 -2.74024 1
gene 3 10 26 4.24263 0 34 4.24263 1
gene 3 11 26 8 0 35 8 1
gene 1 12 26 -3.37988 0 36 -3.37988 1
gene 1 13 26 1.16334 0 37 1.16334 1
gene 2 14 26 1.27928 0 38 1.27928 1
gene 2 15 26 -8 0 39 -8 0
gene 1 16 26 0.268626 0 40 0.268626 1
gene 2 17 26 6.04694 0 41 6.04694 1
gene 3 18 26 1.73503 0 42 1.73503 1
gene 3 19 26 0.73064 0 43 0.73064 1
gene 2 20 26 -3.14626 0 44 -3.14626 1
gene 2 21 26 3.54442 0 45 3.54442 1
gene 2 22 26 3.19654 0 46 3.19654 1
gene 2 23 26 1.2006 0 47 1.2006 1
gene 2 24 26 2.12106 0 48 2.12106 1
gene 3 20 43 0.118913 0 84 0.118913 1
gene 3 43 25 3.45743 0 85 3.45743 0
gene 1 4 43 -1.39155 0 95 -1.39155 1
gene 1 5 61 0.0268662 0 151 0.0268662 1
gene 1 61 26 3.28631 0 152 3.28631 1
gene 3 19 114 -0.357169 0 338 -0.357169 1
gene 3 114 26 1.86937 0 339 1.86937 1
gene 3 43 128 2.3574 0 389 2.3574 1
gene 3 128 25 -1.75916 0 390 -1.75916 1
gene 1 2 61 6.78642 0 580 6.78642 1
genomeend 1

/* Organism #2 Fitness: 16.1478 Error: 0 */
genomestart 2
trait 1 0.1 0 0.131482 0 0 0 0 0 
trait 2 0.2 0.355277 0 0 0 0 0 0 
trait 3 0.134879 0 0 0.570855 0 0 0.584304 0 
node 1 1 1 3
node 2 3 1 1
node 3 3 1 1
node 4 2 1 1
node 5 1 1 1
node 6 3 1 1
node 7 3 1 1
node 8 3 1 1
node 9 2 1 1
node 10 3 1 1
node 11 1 1 1
node 12 1 1 1
node 13 3 1 1
node 14 1 1 1
node 15 3 1 1
node 16 3 1 1
node 17 2 1 1
node 18 1 1 1
node 19 2 1 1
node 20 3 1 1
node 21 1 1 1
node 22 2 1 1
node 23 3 1 1
node 24 3 1 1
node 25 2 0 2
node 26 3 0 2
node 43 1 0 0
node 61 1 0 0
node 114 1 0 0
node 128 1 0 0
gene 2 1 25 2.88513 0 1 2.88513 1
gene 1 2 25 6.91058 0 2 6.91058 1
gene 3 3 25 0.800816 0 3 0.800816 1
gene 2 4 25 -2.44545 0 4 -2.44545 1
gene 3 5 25 -0.785622 0 5 -0.785622 1
gene 2 6 25 0.829046 0 6 0.829046 1
gene 3 7 25 -2.78331 0 7 -2.78331 1
gene 2 8 25 0.878865 0 8 0.878865 1
gene 2 9 25 3.22576 0 9 3.22576 1
gene 2 10 25 4.45301 0 10 4.45301 1
gene 1 11 25 -7.05698 0 11 -7.05698 1
gene 3 12 25 -0.700629 0 12 -0.700629 1
gene 1 13 25 3.26018 0 13 3.26018 1
gene 3 14 25 4.71029 0 14 4.71029 1
gene 1 15 25 -5.44268 0 15 -5.44268 1
gene 2 16 25 -0.356923 0 16 -0.356923 1
gene 2 17 25 -4.77613 0 17 -4.77613 1
gene 1 18 25 4.82019 0 18 4.82019 1
gene 2 19 25 -0.283004 0 19 -0.283004 1
gene 3 20 25 -2.47294 0 20 -2.47294 1
gene 1 21 25 2.83438 0 21 2.83438 1
gene 3 22 25 4.47025 0 22 4.47025 1
gene 3 23 25 0.330556 0 23 0.330556 1
gene 2 24 25 1.92584 0 24 1.92584 1
gene 3 1 26 2.28003 0 25 2.28003 1
gene 2 2 26 3.17236 0 26 3.17236 1
gene 1 3 26 8 0 27 8 1
gene 2 4 26 1.93879 0 28 1.93879 1
gene 1 5 26 -0.891159 0 29 -0.891159 1
gene 3 6 26 4.75652 0 30 4.75652 1
gene 2 7 26 3.08477 0 31 3.08477 1
gene 3 8 26 -1.28316 0 32 -1.28316 1
gene 2 9 26 -1.69795 0 33 -1.69795 1
gene 3 10 26 6.64845 0 34 6.64845 1
gene 3 11 26 5.33516 0 35 5.33516 1
gene 1 12 26 -0.65206 0 36 -0.65206 1
gene 1 13 26 0.82474 0 37 0.82474 1
gene 2 14 26 -1.6763 0 38 -1.6763 1
gene 2 15 26 -5.26674 0 39 -5.26674 0
gene 1 16 26 1.89349 0 40 1.89349 1
gene 2 17 26 7.71682 0 41 7.71682 1
gene 3 18 26 -5.41519 0 42 -5.41519 1
gene 3 19 26 -0.294562 0 43 -0.294562 1
gene 2 20 26 -2.43491 0 44 -2.43491 1
gene 2 21 26 1.96094 0 45 1.96094 1
gene 2 22 26 -1.49057 0 46 -1.49057 1
gene 2 23 26 0.0403728 0 47 0.0403728 1
gene 2 24 26 0.297292 0 48 0.297292 1
gene 3 20 43 -3.66787 0 84 -3.66787 1
gene 3 43 25 2.81083 0 85 2.81083 0
gene 1 4 43 -2.48708 0 95 -2.48708 1
gene 1 5 61 2.05596 0 151 2.05596 1
gene 1 61 26 5.22576 0 152 5.22576 1
gene 3 19 114 6.18175 0 338 6.18175 1
gene 3 114 26 -0.387052 0 339 -0.387052 1
gene 3 43 128 -1.97364 0 389 -1.97364 1
gene 3 128 25 -1.84975 0 390 -1.84975 1
gene 1 2 61 2.90899 0 580 2.90899 1
genomeend 2

/* Organism #3 Fitness: 0 Error: 0 */
genomestart 3
trait 1 0.1 0 0.131482 0 0 0 0 0 
trait 2 0.2 0.355277 0 0 0 0 0 0 
trait 3 0.134879 0 0 0.570855 0 0 0.584304 0 
node 1 1 1 3
node 2 3 1 1
node 3 3 1 1
node 4 2 1 1
node 5 1 1 1
node 6 3 1 1
node 7 3 1 1
node 8 3 1 1
node 9 2 1 1
node 10 3 1 1
node 11 1 1 1
node 12 1 1 1
node 13 3 1 1
node 14 1 1 1
node 15 3 1 1
node 16 3 1 1
node 17 2 1 1
node 18 1 1 1
node 19 2 1 1
node 20 1 1 1
node 21 1 1 1
node 22 2 1 1
node 23 3 1 1
node 24 3 1 1
node 25 2 0 2
node 26 3 0 2
node 43 1 0 0
node 61 1 0 0
node 114 1 0 0
node 128 1 0 0
gene 2 1 25 -1.66337 0 1 -1.66337 1
gene 1 2 25 6.77844 0 2 6.77844 1
gene 3 3 25 -4.57685 0 3 -4.57685 1
gene 2 4 25 -2.23762 0 4 -2.23762 1
gene 3 5 25 3.50331 0 5 3.50331 1
gene 2 6 25 4.19248 0 6 4.19248 1
gene 3 7 25 0.736906 0 7 0.736906 1
gene 2 8 25 -1.6637 0 8 -1.6637 1
gene 2 9 25 -1.19034 0 9 -1.19034 1
gene 2 10 25 4.45054 0 10 4.45054 1
gene 1 11 25 -7.31243 0 11 -7.31243 1
gene 3 12 25 -0.251552 0 12 -0.251552 1
gene 1 13 25 2.32678 0 13 2.32678 1
gene 3 14 25 6.95623 0 14 6.95623 1
gene 1 15 25 1.67806 0 15 1.67806 1
gene 2 16 25 -3.93935 0 16 -3.93935 1
gene 2 17 25 -5.13637 0 17 -5.13637 1
gene 1 18 25 0.0866663 0 18 0.0866663 1
gene 2 19 25 -2.1587 0 19 -2.1587 1
gene 3 20 25 6.87994 0 20 6.87994 1
gene 1 21 25 4.88366 0 21 4.88366 1
gene 3 22 25 6.74384 0 22 6.74384 1
gene 3 23 25 -3.38124 0 23 -3.38124 1
gene 2 24 25 4.99565 0 24 4.99565 1
gene 3 1 26 0.733853 0 25 0.733853 1
gene 2 2 26 2.34937 0 26 2.34937 1
gene 1 3 26 6.10239 0 27 6.10239 1
gene 2 4 26 0.243562 0 28 0.243562 1
gene 1 5 26 -2.09583 0 29 -2.09583 1
gene 3 6 26 1.84131 0 30 1.84131 1
gene 2 7 26 -3.07035 0 31 -3.07035 1
gene 3 8 26 -0.412161 0 32 -0.412161 1
gene 2 9 26 -2.7505 0 33 -2.7505 1
gene 3 10 26 2.05757 0 34 2.05757 1
gene 3 11 26 6.61771 0 35 6.61771 1
gene 1 12 26 1.03317 0 36 1.03317 1
gene 1 13 26 2.92706 0 37 2.92706 1
gene 2 14 26 0.543155 0 38 0.543155 1
gene 2 15 26 -7.44668 0 39 -7.44668 0
gene 1 16 26 1.64581 0 40 1.64581 1
gene 2 17 26 8 0 41 8 1
gene 3 18 26 1.23765 0 42 1.23765 1
gene 3 19 26 -0.027715 0 43 -0.027715 1
gene 2 20 26 -5.4693 0 44 -5.4693 1
gene 2 21 26 -0.569517 0 45 -0.569517 1
gene 2 22 26 2.97356 0 46 2.97356 1
gene 2 23 26 1.7029 0 47 1.7029 1
gene 2 24 26 0.767241 0 48 0.767241 1
gene 3 20 43 -1.98489 0 84 -1.98489 1
gene 3 43 25 2.28351 0 85 2.28351 0
gene 1 4 43 0.389199 0 95 0.389199 1
gene 1 5 61 -2.48382 0 151 -2.48382 1
gene 1 61 26 5.61729 0 152 5.61729 1
gene 3 19 114 6.56992 0 338 6.56992 1
gene 3 114 26 -0.623452 0 339 -0.623452 1
gene 3 43 128 2.11089 0 389 2.11089 1
gene 3 128 25 2.0723 0 390 2.0723 1
gene 1 2 61 7.17624 0 580 7.17624 1
genomeend 3

/* Species #35 : (Size 20) (AF 72.1332) (Age 16)  */


/* Organism #4 Fitness: 593.527 Error: 0 */
genomestart 4
trait 1 0.0140625 0 0 0 0 0 0.766355 0.236574 
trait 2 0.2 0 0 0 0.108593 0 0.218725 0 
trait 3 0.3 0 0 0 0 0 0 0 
node 1 1 1 3
node 2 3 1 1
node 3 3 1 1
node 4 1 1 1
node 5 2 1 1
node 6 2 1 1
node 7 3 1 1
node 8 1 1 1
node 9 3 1 1
node 10 2 1 1
node 11 1 1 1
node 12 3 1 1
node 13 1 1 1
node 14 1 1 1
node 15 1 1 1
node 16 3 1 1
node 17 2 1 1
node 18 1 1 1
node 19 1 1 1
node 20 1 1 1
node 21 3 1 1
node 22 1 1 1
node 23 3 1 1
node 24 2 1 1
node 25 3 0 2
node 26 1 0 2
node 40 1 0 0
node 84 1 0 0
node 146 1 0 0
gene 2 1 25 2.35896 0 1 2.35896 1
gene 3 2 25 -2.01024 0 2 -2.01024 1
gene 1 3 25 -2.04798 0 3 -2.04798 1
gene 3 4 25 -3.19115 0 4 -3.19115 1
gene 3 5 25 -0.740842 0 5 -0.740842 1
gene 2 6 25 0.493812 0 6 0.493812 1
gene 1 7 25 -0.508623 0 7 -0.508623 1
gene 3 8 25 5.52721 0 8 5.52721 1
gene 2 9 25 3.49977 0 9 3.49977 1
gene 2 10 25 8 0 10 8 1
gene 3 11 25 -0.505573 0 11 -0.505573 1
gene 3 12 25 5.07474 0 12 5.07474 1
gene 3 13 25 4.39821 0 13 4.39821 1
gene 2 14 25 1.68152 0 14 1.68152 1
gene 2 15 25 2.1118 0 15 2.1118 1
gene 3 16 25 -1.01264 0 16 -1.01264 1
gene 1 17 25 -0.77045 0 17 -0.77045 1
gene 1 18 25 2.17169 0 18 2.17169 1
gene 3 19 25 -1.64276 0 19 -1.64276 1
gene 3 20 25 3.48644 0 20 3.48644 1
gene 2 21 25 -2.37385 0 21 -2.37385 1
gene 1 22 25 1.05517 0 22 1.05517 1
gene 1 23 25 -4.7691 0 23 -4.7691 1
gene 1 24 25 -2.66133 0 24 -2.66133 1
gene 2 1 26 0.230439 0 25 0.230439 1
gene 1 2 26 -5.21483 0 26 -5.21483 1
gene 1 3 26 0.256669 0 27 0.256669 0
gene 1 4 26 1.18799 0 28 1.18799 1
gene 2 5 26 1.352 0 29 1.352 1
gene 2 6 26 0.739736 0 30 0.739736 1
gene 3 7 26 -0.132436 0 31 -0.132436 1
gene 2 8 26 -0.909975 0 32 -0.909975 1
gene 2 9 26 3.24326 0 33 3.24326 1
gene 1 10 26 -0.524148 0 34 -0.524148 1
gene 2 11 26 3.47778 0 35 3.47778 1
gene 3 12 26 -0.0618284 0 36 -0.0618284 1
gene 3 13 26 -2.04984 0 37 -2.04984 1
gene 2 14 26 1.84408 0 38 1.84408 1
gene 1 15 26 1.01475 0 39 1.01475 0
gene 1 16 26 0.128447 0 40 0.128447 1
gene 1 17 26 2.31248 0 41 2.31248 1
gene 1 18 26 0.751178 0 42 0.751178 1
gene 3 19 26 -0.964855 0 43 -0.964855 1
gene 2 20 26 -4.67506 0 44 -4.67506 0
gene 1 21 26 2.0764 0 45 2.0764 0
gene 2 22 26 -3.42326 0 46 -3.42326 1
gene 1 23 26 0.328938 0 47 0.328938 1
gene 2 24 26 0.95685 0 48 0.95685 1
gene 2 20 40 -2.31912 0 78 -2.31912 1
gene 2 40 26 -6.0118 0 79 -6.0118 1
gene 3 16 40 4.12466 0 92 4.12466 1
gene 2 18 40 -3.49048 0 208 -3.49048 1
gene 1 21 84 5.4353 0 230 5.4353 1
gene 1 84 26 3.29424 0 231 3.29424 1
gene 1 84 25 3.00929 0 287 3.00929 1
gene 1 10 146 1.04 0 452 0.227503 1
gene 1 146 26 -0.682698 0 453 0 1
gene 1 3 146 -0.827776 0 467 -0.827776 1
genomeend 4

/* Organism #5 Fitness: 42.7063 Error: 0 */
genomestart 5
trait 1 0.0140625 0 0 0 0 0 0.766355 0.236574 
trait 2 0.2 0 0 0 0.108593 0 0.218725 0 
trait 3 0.3 0 0 0 0 0 0 0 
node 1 1 1 3
node 2 3 1 1
node 3 3 1 1
node 4 1 1 1
node 5 2 1 1
node 6 2 1 1
node 7 3 1 1
node 8 1 1 1
node 9 3 1 1
node 10 2 1 1
node 11 1 1 1
node 12 3 1 1
node 13 1 1 1
node 14 1 1 1
node 15 1 1 1
node 16 3 1 1
node 17 2 1 1
node 18 1 1 1
node 19 1 1 1
node 20 1 1 1
node 21 3 1 1
node 22 1 1 1
node 23 3 1 1
node 24 2 1 1
node 25 3 0 2
node 26 1 0 2
node 40 1 0 0
node 84 1 0 0
node 146 1 0 0
gene 2 1 25 2.74254 0 1 2.74254 1
gene 3 2 25 -1.17485 0 2 -1.17485 1
gene 1 3 25 -3.79918 0 3 -3.79918 1
gene 3 4 25 -5.54765 0 4 -5.54765 1
gene 3 5 25 0.671447 0 5 0.671447 1
gene 2 6 25 0.215391 0 6 0.215391 1
gene 1 7 25 0.886734 0 7 0.886734 1
gene 3 8 25 4.56789 0 8 4.56789 1
gene 2 9 25 4.42051 0 9 4.42051 1
gene 2 10 25 8 0 10 8 1
gene 3 11 25 1.26463 0 11 1.26463 1
gene 3 12 25 6.28141 0 12 6.28141 1
gene 3 13 25 2.95729 0 13 2.95729 1
gene 2 14 25 0.525636 0 14 0.525636 1
gene 2 15 25 -0.329751 0 15 -0.329751 1
gene 3 16 25 -0.969781 0 16 -0.969781 1
gene 1 17 25 -3.07115 0 17 -3.07115 1
gene 1 18 25 2.09319 0 18 2.09319 1
gene 3 19 25 -2.37314 0 19 -2.37314 1
gene 3 20 25 3.6783 0 20 3.6783 1
gene 2 21 25 -3.78274 0 21 -3.78274 1
gene 1 22 25 1.24664 0 22 1.24664 1
gene 1 23 25 -2.63972 0 23 -2.63972 1
gene 1 24 25 -4.17649 0 24 -4.17649 1
gene 2 1 26 -1.78783 0 25 -1.78783 1
gene 1 2 26 -4.15982 0 26 -4.15982 1
gene 1 3 26 0.931795 0 27 0.931795 0
gene 1 4 26 1.77393 0 28 1.77393 1
gene 2 5 26 2.79289 0 29 2.79289 1
gene 2 6 26 2.09127 0 30 2.09127 1
gene 3 7 26 0.84371 0 31 0.84371 1
gene 2 8 26 0.166954 0 32 0.166954 1
gene 2 9 26 5.38779 0 33 5.38779 1
gene 1 10 26 0.635424 0 34 0.635424 1
gene 2 11 26 5.03606 0 35 5.03606 1
gene 3 12 26 1.92403 0 36 1.92403 1
gene 3 13 26 -3.10323 0 37 -3.10323 1
gene 2 14 26 2.71834 0 38 2.71834 1
gene 1 15 26 3.13848 0 39 3.13848 0
gene 1 16 26 0.456407 0 40 0.456407 1
gene 1 17 26 0.848049 0 41 0.848049 1
gene 1 18 26 1.37642 0 42 1.37642 1
gene 3 19 26 0.899507 0 43 0.899507 1
gene 2 20 26 -2.3132 0 44 -2.3132 0
gene 1 21 26 4.24183 0 45 4.24183 1
gene 2 22 26 -5.0838 0 46 -5.0838 1
gene 1 23 26 1.07392 0 47 1.07392 1
gene 2 24 26 -0.116096 0 48 -0.116096 1
gene 2 20 40 -1.27368 0 78 -1.27368 1
gene 2 40 26 -7.72928 0 79 -7.72928 1
gene 3 16 40 -2.37446 0 92 -2.37446 1
gene 2 18 40 -3.49048 0 208 -3.49048 1
gene 1 21 84 5.4353 0 230 5.4353 1
gene 1 84 26 3.66025 0 231 3.66025 1
gene 1 84 25 3.21137 0 287 3.21137 1
gene 1 10 146 2.90262 0 452 2.90262 1
gene 1 146 26 -0.0358004 0 453 -0.0358004 1
gene 1 3 146 -0.827776 0 467 -0.827776 1
genomeend 5

/* Organism #6 Fitness: 205.327 Error: 0 */
genomestart 6
trait 1 0.0140625 0 0 0 0 0 0.766355 0.236574 
trait 2 0.2 0 0 0 0.108593 0 0.218725 0 
trait 3 0.3 0 0 0 0 0 0 0 
node 1 1 1 3
node 2 3 1 1
node 3 3 1 1
node 4 1 1 1
node 5 2 1 1
node 6 2 1 1
node 7 3 1 1
node 8 1 1 1
node 9 3 1 1
node 10 2 1 1
node 11 1 1 1
node 12 3 1 1
node 13 1 1 1
node 14 1 1 1
node 15 1 1 1
node 16 3 1 1
node 17 2 1 1
node 18 1 1 1
node 19 1 1 1
node 20 1 1 1
node 21 3 1 1
node 22 1 1 1
node 23 3 1 1
node 24 2 1 1
node 25 3 0 2
node 26 1 0 2
node 40 1 0 0
node 84 1 0 0
node 146 1 0 0
gene 2 1 25 2.4041 0 1 2.4041 1
gene 3 2 25 -2.00097 0 2 -2.00097 1
gene 1 3 25 -1.9309 0 3 -1.9309 1
gene 3 4 25 -3.36044 0 4 -3.36044 1
gene 3 5 25 -0.623746 0 5 -0.623746 1
gene 2 6 25 0.73585 0 6 0.73585 1
gene 1 7 25 -0.690504 0 7 -0.690504 1
gene 3 8 25 5.66605 0 8 5.66605 1
gene 2 9 25 3.10679 0 9 3.10679 1
gene 2 10 25 7.99086 0 10 7.99086 1
gene 3 11 25 -0.447867 0 11 -0.447867 1
gene 3 12 25 5.27669 0 12 5.27669 1
gene 3 13 25 4.20736 0 13 4.20736 1
gene 2 14 25 2.31783 0 14 2.31783 1
gene 2 15 25 2.29174 0 15 2.29174 1
gene 3 16 25 -0.933086 0 16 -0.933086 1
gene 1 17 25 -0.871749 0 17 -0.871749 1
gene 1 18 25 2.2103 0 18 2.2103 1
gene 3 19 25 -2.05833 0 19 -2.05833 1
gene 3 20 25 3.07503 0 20 3.07503 1
gene 2 21 25 -2.59001 0 21 -2.59001 1
gene 1 22 25 0.703735 0 22 0.703735 1
gene 1 23 25 -4.70301 0 23 -4.70301 1
gene 1 24 25 -2.77519 0 24 -2.77519 1
gene 2 1 26 0.00425595 0 25 0.00425595 1
gene 1 2 26 -4.95178 0 26 -4.95178 1
gene 1 3 26 0.621969 0 27 0.621969 1
gene 1 4 26 1.35813 0 28 1.35813 1
gene 2 5 26 1.4171 0 29 1.4171 1
gene 2 6 26 0.16554 0 30 0.16554 1
gene 3 7 26 0.0122416 0 31 0.0122416 1
gene 2 8 26 -1.20802 0 32 -1.20802 1
gene 2 9 26 2.9693 0 33 2.9693 1
gene 1 10 26 -0.37189 0 34 -0.37189 1
gene 2 11 26 2.28927 0 35 2.28927 1
gene 3 12 26 -0.594926 0 36 -0.594926 1
gene 3 13 26 -1.37897 0 37 -1.37897 1
gene 2 14 26 1.78968 0 38 1.78968 1
gene 1 15 26 0.399175 0 39 0.399175 0
gene 1 16 26 -0.293788 0 40 -0.293788 1
gene 1 17 26 2.31982 0 41 2.31982 1
gene 1 18 26 0.920916 0 42 0.920916 1
gene 3 19 26 -0.355668 0 43 -0.355668 1
gene 2 20 26 -5.05745 0 44 -5.05745 0
gene 1 21 26 1.49949 0 45 1.49949 0
gene 2 22 26 -4.00837 0 46 -4.00837 1
gene 1 23 26 0.15515 0 47 0.15515 1
gene 2 24 26 1.51286 0 48 1.51286 1
gene 2 20 40 -1.98644 0 78 -1.98644 1
gene 2 40 26 -4.98984 0 79 -4.98984 1
gene 3 16 40 4.43627 0 92 4.43627 1
gene 2 18 40 -3.70048 0 208 -3.70048 1
gene 1 21 84 6.07648 0 230 6.07648 1
gene 1 84 26 3.37885 0 231 3.37885 1
gene 1 84 25 1.89274 0 287 1.89274 1
gene 1 10 146 0.0775178 0 452 -0.531857 1
gene 1 146 26 -0.688579 0 453 -0.176555 1
gene 1 3 146 -0.599245 0 467 -0.599245 1
genomeend 6

/* Organism #7 Fitness: 0 Error: 0 */
genomestart 7
trait 1 0.0140625 0 0 0 0 0 0.766355 0.236574 
trait 2 0.2 0 0 0 0.108593 0 0.218725 0 
trait 3 0.3 0 0 0 0 0 0 0 
node 1 1 1 3
node 2 3 1 1
node 3 3 1 1
node 4 1 1 1
node 5 2 1 1
node 6 2 1 1
node 7 3 1 1
node 8 1 1 1
node 9 3 1 1
node 10 2 1 1
node 11 1 1 1
node 12 3 1 1
node 13 1 1 1
node 14 1 1 1
node 15 1 1 1
node 16 3 1 1
node 17 2 1 1
node 18 1 1 1
node 19 1 1 1
node 20 1 1 1
node 21 3 1 1
node 22 1 1 1
node 23 3 1 1
node 24 2 1 1
node 25 3 0 2
node 26 1 0 2
node 40 1 0 0
node 84 1 0 0
node 146 1 0 0
gene 2 1 25 0.626802 0 1 0.626802 1
gene 3 2 25 -0.315773 0 2 -0.315773 1
gene 1 3 25 -2.60948 0 3 -2.60948 1
gene 3 4 25 -3.09723 0 4 -3.09723 1
gene 3 5 25 -1.05099 0 5 -1.05099 1
gene 2 6 25 -0.398559 0 6 -0.398559 1
gene 1 7 25 -3.10118 0 7 -3.10118 1
gene 3 8 25 4.45416 0 8 4.45416 1
gene 2 9 25 5.05741 0 9 5.05741 1
gene 2 10 25 7.51618 0 10 7.51618 1
gene 3 11 25 1.71293 0 11 1.71293 1
gene 3 12 25 4.27779 0 12 4.27779 1
gene 3 13 25 5.11489 0 13 5.11489 1
gene 2 14 25 1.33232 0 14 1.33232 1
gene 2 15 25 3.04778 0 15 3.04778 1
gene 3 16 25 -3.16519 0 16 -3.16519 1
gene 1 17 25 -2.14271 0 17 -2.14271 1
gene 1 18 25 2.83079 0 18 2.83079 1
gene 3 19 25 -4.07137 0 19 -4.07137 1
gene 3 20 25 5.41109 0 20 5.41109 1
gene 2 21 25 -4.22357 0 21 -4.22357 1
gene 1 22 25 -0.901574 0 22 -0.901574 1
gene 1 23 25 -6.39064 0 23 -6.39064 1
gene 1 24 25 -0.85319 0 24 -0.85319 1
gene 2 1 26 2.47256 0 25 2.47256 1
gene 1 2 26 -5.12004 0 26 -5.12004 1
gene 1 3 26 1.12276 0 27 1.12276 0
gene 1 4 26 1.79354 0 28 1.79354 1
gene 2 5 26 2.86238 0 29 2.86238 1
gene 2 6 26 1.31146 0 30 1.31146 1
gene 3 7 26 0.940597 0 31 0.940597 1
gene 2 8 26 -2.73564 0 32 -2.73564 1
gene 2 9 26 3.74604 0 33 3.74604 1
gene 1 10 26 -1.69132 0 34 -1.69132 1
gene 2 11 26 0.759169 0 35 0.759169 1
gene 3 12 26 -1.04576 0 36 -1.04576 1
gene 3 13 26 -3.48243 0 37 -3.48243 1
gene 2 14 26 -0.136056 0 38 -0.136056 1
gene 1 15 26 0.499036 0 39 0.499036 0
gene 1 16 26 -0.485765 0 40 -0.485765 1
gene 1 17 26 2.54948 0 41 2.54948 1
gene 1 18 26 0.258055 0 42 0.258055 1
gene 3 19 26 0.503855 0 43 0.503855 1
gene 1 20 26 -6.32133 0 44 -6.32133 0
gene 1 21 26 3.41489 0 45 3.41489 0
gene 2 22 26 -5.02017 0 46 -5.02017 1
gene 1 23 26 0.691038 0 47 0.691038 1
gene 2 24 26 2.24073 0 48 2.24073 1
gene 2 20 40 -3.68302 0 78 -3.68302 1
gene 2 40 26 -1.11029 0 79 -1.11029 1
gene 3 16 40 5.58656 0 92 5.58656 1
gene 2 18 40 -5.71029 0 208 -5.71029 1
gene 1 21 84 -0.820166 0 230 -0.820166 1
gene 1 84 26 4.90549 0 231 4.90549 1
gene 1 84 25 2.17979 0 287 2.17979 1
gene 1 10 146 0.769112 0 452 0.769112 1
gene 1 146 26 1.11468 0 453 1.11468 1
gene 1 3 146 -0.599245 0 467 -0.599245 1
genomeend 7

/* Organism #8 Fitness: 34.0962 Error: 0 */
genomestart 8
trait 1 0.0140625 0 0 0 0 0 0.766355 0.236574 
trait 2 0.2 0 0 0 0.108593 0 0.218725 0 
trait 3 0.3 0 0 0 0 0 0 0 
node 1 1 1 3
node 2 3 1 1
node 3 3 1 1
node 4 1 1 1
node 5 2 1 1
node 6 2 1 1
node 7 3 1 1
node 8 1 1 1
node 9 3 1 1
node 10 2 1 1
node 11 1 1 1
node 12 3 1 1
node 13 1 1 1
node 14 1 1 1
node 15 1 1 1
node 16 3 1 1
node 17 2 1 1
node 18 1 1 1
node 19 1 1 1
node 20 1 1 1
node 21 3 1 1
node 22 1 1 1
node 23 3 1 1
node 24 1 1 1
node 25 3 0 2
node 26 1 0 2
node 40 1 0 0
node 84 1 0 0
node 146 1 0 0
gene 2 1 25 4.82388 0 1 4.82388 1
gene 3 2 25 -2.71625 0 2 -2.71625 1
gene 1 3 25 -2.39948 0 3 -2.39948 1
gene 3 4 25 -2.38077 0 4 -2.38077 1
gene 3 5 25 -0.598508 0 5 -0.598508 1
gene 2 6 25 1.41705 0 6 1.41705 1
gene 1 7 25 1.13308 0 7 1.13308 1
gene 3 8 25 7.74476 0 8 7.74476 1
gene 2 9 25 2.06773 0 9 2.06773 1
gene 2 10 25 5.7942 0 10 5.7942 1
gene 3 11 25 -1.7931 0 11 -1.7931 1
gene 3 12 25 5.91328 0 12 5.91328 1
gene 3 13 25 4.90251 0 13 4.90251 1
gene 2 14 25 5.23355 0 14 5.23355 1
gene 2 15 25 0.472825 0 15 0.472825 1
gene 3 16 25 0.0851974 0 16 0.0851974 1
gene 1 17 25 -2.52623 0 17 -2.52623 1
gene 1 18 25 0.100104 0 18 0.100104 1
gene 3 19 25 -1.4026 0 19 -1.4026 1
gene 3 20 25 0.954743 0 20 0.954743 1
gene 2 21 25 -0.0412633 0 21 -0.0412633 1
gene 1 22 25 1.85048 0 22 1.85048 1
gene 1 23 25 -5.20116 0 23 -5.20116 1
gene 1 24 25 -2.31786 0 24 -2.31786 1
gene 2 1 26 2.5539 0 25 2.5539 1
gene 1 2 26 -5.41295 0 26 -5.41295 1
gene 1 3 26 -0.175262 0 27 -0.175262 0
gene 1 4 26 3.2072 0 28 3.2072 1
gene 2 5 26 2.32671 0 29 2.32671 1
gene 2 6 26 2.86427 0 30 2.86427 1
gene 3 7 26 -1.72909 0 31 -1.72909 1
gene 2 8 26 -1.74072 0 32 -1.74072 1
gene 2 9 26 5.0021 0 33 5.0021 1
gene 1 10 26 -2.27785 0 34 -2.27785 1
gene 2 11 26 4.82132 0 35 4.82132 1
gene 3 12 26 -0.475722 0 36 -0.475722 1
gene 3 13 26 1.38943 0 37 1.38943 1
gene 2 14 26 3.77426 0 38 3.77426 1
gene 1 15 26 0.656741 0 39 0.656741 0
gene 1 16 26 -1.39006 0 40 -1.39006 1
gene 1 17 26 2.38958 0 41 2.38958 1
gene 1 18 26 0.855098 0 42 0.855098 1
gene 3 19 26 -0.845863 0 43 -0.845863 1
gene 1 20 26 -3.28284 0 44 -3.28284 0
gene 1 21 26 -0.912129 0 45 -0.912129 0
gene 2 22 26 -2.15048 0 46 -2.15048 1
gene 1 23 26 -0.555335 0 47 -0.555335 1
gene 2 24 26 -0.333909 0 48 -0.333909 1
gene 2 20 40 -2.99925 0 78 -2.99925 1
gene 2 40 26 -1.44054 0 79 -1.44054 1
gene 3 16 40 -1.47952 0 92 -1.47952 1
gene 2 18 40 -1.89197 0 208 -1.89197 1
gene 1 21 84 5.4353 0 230 5.4353 1
gene 1 84 26 -1.55288 0 231 -1.55288 1
gene 1 84 25 2.40918 0 287 2.40918 1
gene 1 10 146 -1.57599 0 452 -1.57599 1
gene 1 146 26 -2.57146 0 453 -2.57146 1
gene 1 3 146 -0.641377 0 467 -0.641377 1
genomeend 8

/* Organism #9 Fitness: 0 Error: 0 */
genomestart 9
trait 1 0.0140625 0 0 0 0 0 0.766355 0.236574 
trait 2 0.2 0 0 0 0.108593 0 0.218725 0 
trait 3 0.3 0 0 0 0 0 0 0 
node 1 1 1 3
node 2 3 1 1
node 3 3 1 1
node 4 1 1 1
node 5 2 1 1
node 6 2 1 1
node 7 3 1 1
node 8 1 1 1
node 9 3 1 1
node 10 2 1 1
node 11 1 1 1
node 12 3 1 1
node 13 1 1 1
node 14 1 1 1
node 15 1 1 1
node 16 3 1 1
node 17 2 1 1
node 18 1 1 1
node 19 1 1 1
node 20 1 1 1
node 21 3 1 1
node 22 1 1 1
node 23 3 1 1
node 24 1 1 1
node 25 3 0 2
node 26 1 0 2
node 40 1 0 0
node 84 1 0 0
node 146 1 0 0
gene 2 1 25 2.35896 0 1 2.35896 1
gene 3 2 25 -1.30281 0 2 -1.30281 1
gene 1 3 25 -4.00205 0 3 -4.00205 1
gene 3 4 25 -4.10367 0 4 -4.10367 1
gene 3 5 25 -1.99357 0 5 -1.99357 1
gene 2 6 25 -0.965079 0 6 -0.965079 1
gene 1 7 25 0.318372 0 7 0.318372 1
gene 3 8 25 4.65197 0 8 4.65197 1
gene 2 9 25 5.86379 0 9 5.86379 1
gene 2 10 25 8 0 10 8 1
gene 3 11 25 1.89354 0 11 1.89354 1
gene 3 12 25 5.07474 0 12 5.07474 1
gene 3 13 25 2.04981 0 13 2.04981 1
gene 2 14 25 -2.23247 0 14 -2.23247 1
gene 2 15 25 2.1118 0 15 2.1118 1
gene 3 16 25 1.01693 0 16 1.01693 1
gene 1 17 25 -1.40774 0 17 -1.40774 1
gene 1 18 25 1.0601 0 18 1.0601 1
gene 3 19 25 0.0235419 0 19 0.0235419 1
gene 3 20 25 5.47518 0 20 5.47518 1
gene 2 21 25 -1.87794 0 21 -1.87794 1
gene 1 22 25 2.58226 0 22 2.58226 1
gene 1 23 25 -3.5484 0 23 -3.5484 1
gene 1 24 25 -2.7112 0 24 -2.7112 1
gene 2 1 26 2.36143 0 25 2.36143 1
gene 1 2 26 -5.21483 0 26 -5.21483 1
gene 1 3 26 2.72367 0 27 2.72367 0
gene 1 4 26 2.88021 0 28 2.88021 1
gene 2 5 26 1.45734 0 29 1.45734 1
gene 2 6 26 1.68717 0 30 1.68717 1
gene 3 7 26 -0.93675 0 31 -0.93675 1
gene 2 8 26 -0.783498 0 32 -0.783498 1
gene 2 9 26 1.12191 0 33 1.12191 1
gene 1 10 26 0.718862 0 34 0.718862 1
gene 2 11 26 4.38176 0 35 4.38176 1
gene 3 12 26 0.535994 0 36 0.535994 1
gene 3 13 26 -0.26641 0 37 -0.26641 1
gene 2 14 26 2.13189 0 38 2.13189 1
gene 1 15 26 3.00092 0 39 3.00092 0
gene 1 16 26 0.128447 0 40 0.128447 1
gene 1 17 26 -0.0767438 0 41 -0.0767438 1
gene 1 18 26 -0.574142 0 42 -0.574142 1
gene 3 19 26 0.148155 0 43 0.148155 1
gene 1 20 26 -3.46894 0 44 -3.46894 0
gene 1 21 26 1.73168 0 45 1.73168 0
gene 2 22 26 -3.84062 0 46 -3.84062 1
gene 1 23 26 0.328938 0 47 0.328938 1
gene 2 24 26 1.49508 0 48 1.49508 1
gene 2 20 40 -1.73459 0 78 -1.73459 1
gene 2 40 26 -4.4272 0 79 -4.4272 1
gene 3 16 40 2.64062 0 92 2.64062 1
gene 2 18 40 -0.778769 0 208 -0.778769 1
gene 1 21 84 -0.995859 0 230 -0.995859 1
gene 1 84 26 4.15025 0 231 4.15025 1
gene 1 84 25 3.41837 0 287 3.41837 1
gene 1 10 146 3.0565 0 452 3.0565 1
gene 1 146 26 0.979175 0 453 0.979175 1
gene 1 3 146 1.43633 0 467 1.43633 1
genomeend 9

/* Organism #10 Fitness: 0 Error: 0 */
genomestart 10
trait 1 0.0140625 0 0 0 0 0 0.766355 0.236574 
trait 2 0.2 0 0 0 0.108593 0 0.218725 0 
trait 3 0.3 0 0 0 0 0 0 0 
node 1 1 1 3
node 2 3 1 1
node 3 3 1 1
node 4 1 1 1
node 5 2 1 1
node 6 2 1 1
node 7 3 1 1
node 8 1 1 1
node 9 3 1 1
node 10 2 1 1
node 11 1 1 1
node 12 3 1 1
node 13 1 1 1
node 14 1 1 1
node 15 1 1 1
node 16 3 1 1
node 17 2 1 1
node 18 1 1 1
node 19 1 1 1
node 20 1 1 1
node 21 3 1 1
node 22 1 1 1
node 23 3 1 1
node 24 1 1 1
node 25 3 0 2
node 26 1 0 2
node 40 1 0 0
node 84 1 0 0
node 146 1 0 0
gene 2 1 25 1.56943 0 1 1.56943 1
gene 3 2 25 -2.01024 0 2 -2.01024 1
gene 1 3 25 -0.718716 0 3 -0.718716 1
gene 3 4 25 -2.29391 0 4 -2.29391 1
gene 3 5 25 -1.17592 0 5 -1.17592 1
gene 2 6 25 1.85065 0 6 1.85065 1
gene 1 7 25 1.01185 0 7 1.01185 1
gene 3 8 25 7.30203 0 8 7.30203 1
gene 2 9 25 2.38601 0 9 2.38601 1
gene 2 10 25 8 0 10 8 1
gene 3 11 25 -1.5441 0 11 -1.5441 1
gene 3 12 25 3.93858 0 12 3.93858 1
gene 3 13 25 4.39821 0 13 4.39821 1
gene 2 14 25 2.634 0 14 2.634 1
gene 2 15 25 3.94349 0 15 3.94349 1
gene 3 16 25 1.19007 0 16 1.19007 1
gene 1 17 25 -1.083 0 17 -1.083 1
gene 1 18 25 4.17023 0 18 4.17023 1
gene 3 19 25 -0.975504 0 19 -0.975504 1
gene 3 20 25 2.68125 0 20 2.68125 1
gene 2 21 25 -2.37385 0 21 -2.37385 1
gene 1 22 25 0.636253 0 22 0.636253 1
gene 1 23 25 -4.04277 0 23 -4.04277 1
gene 1 24 25 -2.69183 0 24 -2.69183 1
gene 2 1 26 2.66615 0 25 2.66615 1
gene 1 2 26 -4.80435 0 26 -4.80435 1
gene 1 3 26 1.57093 0 27 1.57093 0
gene 1 4 26 -0.280652 0 28 -0.280652 1
gene 2 5 26 0.576812 0 29 0.576812 1
gene 2 6 26 -0.29307 0 30 -0.29307 1
gene 3 7 26 -1.65979 0 31 -1.65979 1
gene 2 8 26 0.219914 0 32 0.219914 1
gene 2 9 26 3.24326 0 33 3.24326 1
gene 1 10 26 -0.524148 0 34 -0.524148 1
gene 2 11 26 3.47778 0 35 3.47778 1
gene 3 12 26 0.116007 0 36 0.116007 1
gene 3 13 26 -4.19104 0 37 -4.19104 1
gene 2 14 26 0.803215 0 38 0.803215 1
gene 1 15 26 -0.0751126 0 39 -0.0751126 0
gene 1 16 26 0.128447 0 40 0.128447 1
gene 1 17 26 4.72633 0 41 4.72633 1
gene 1 18 26 1.66415 0 42 1.66415 1
gene 3 19 26 -3.25383 0 43 -3.25383 1
gene 1 20 26 -4.67506 0 44 -4.67506 0
gene 1 21 26 -0.307625 0 45 -0.307625 0
gene 2 22 26 -5.5617 0 46 -5.5617 1
gene 1 23 26 -1.8314 0 47 -1.8314 1
gene 2 24 26 -0.818633 0 48 -0.818633 1
gene 2 20 40 -1.46922 0 78 -1.46922 1
gene 2 40 26 -4.43193 0 79 -4.43193 1
gene 3 16 40 4.53728 0 92 4.53728 1
gene 2 18 40 0.737834 0 208 0.737834 1
gene 1 21 84 5.4353 0 230 5.4353 1
gene 1 84 26 3.643 0 231 3.643 1
gene 1 84 25 2.61801 0 287 2.61801 1
gene 1 10 146 0.502276 0 452 0.502276 1
gene 1 146 26 -1.19858 0 453 -1.19858 1
gene 1 3 146 0.616977 0 467 0.616977 1
genomeend 10

/* Organism #11 Fitness: 0 Error: 0 */
genomestart 11
trait 1 0.0140625 0 0 0 0 0 0.766355 0.236574 
trait 2 0.2 0 0 0 0.108593 0 0.218725 0 
trait 3 0.3 0 0 0 0 0 0 0 
node 1 1 1 3
node 2 3 1 1
node 3 3 1 1
node 4 1 1 1
node 5 2 1 1
node 6 2 1 1
node 7 3 1 1
node 8 1 1 1
node 9 3 1 1
node 10 2 1 1
node 11 1 1 1
node 12 3 1 1
node 13 1 1 1
node 14 1 1 1
node 15 1 1 1
node 16 3 1 1
node 17 2 1 1
node 18 1 1 1
node 19 1 1 1
node 20 1 1 1
node 21 3 1 1
node 22 1 1 1
node 23 3 1 1
node 24 1 1 1
node 25 3 0 2
node 26 1 0 2
node 40 1 0 0
node 84 1 0 0
node 146 1 0 0
gene 2 1 25 0.556663 0 1 0.556663 1
gene 3 2 25 -1.85582 0 2 -1.85582 1
gene 1 3 25 -3.60217 0 3 -3.60217 1
gene 3 4 25 -1.46194 0 4 -1.46194 1
gene 3 5 25 0.889307 0 5 0.889307 1
gene 2 6 25 -0.527991 0 6 -0.527991 1
gene 1 7 25 -2.48999 0 7 -2.48999 1
gene 3 8 25 3.13525 0 8 3.13525 1
gene 2 9 25 -2.06065 0 9 -2.06065 1
gene 2 10 25 8 0 10 8 1
gene 3 11 25 -2.42618 0 11 -2.42618 1
gene 3 12 25 0.218669 0 12 0.218669 1
gene 3 13 25 4.17548 0 13 4.17548 1
gene 2 14 25 0.00289862 0 14 0.00289862 1
gene 2 15 25 0.416984 0 15 0.416984 1
gene 3 16 25 1.01089 0 16 1.01089 1
gene 1 17 25 0.529921 0 17 0.529921 1
gene 1 18 25 2.17169 0 18 2.17169 1
gene 3 19 25 -4.05568 0 19 -4.05568 1
gene 3 20 25 5.44598 0 20 5.44598 1
gene 2 21 25 -3.10998 0 21 -3.10998 1
gene 1 22 25 0.821713 0 22 0.821713 1
gene 1 23 25 -2.76905 0 23 -2.76905 1
gene 1 24 25 -0.679875 0 24 -0.679875 1
gene 2 1 26 0.0194869 0 25 0.0194869 1
gene 1 2 26 -4.94475 0 26 -4.94475 1
gene 1 3 26 1.77442 0 27 1.77442 0
gene 1 4 26 -0.0859723 0 28 -0.0859723 1
gene 2 5 26 3.64055 0 29 3.64055 1
gene 2 6 26 2.03672 0 30 2.03672 1
gene 3 7 26 -0.132436 0 31 -0.132436 1
gene 2 8 26 2.00146 0 32 2.00146 1
gene 2 9 26 1.33467 0 33 1.33467 1
gene 1 10 26 1.45796 0 34 1.45796 1
gene 2 11 26 2.3788 0 35 2.3788 1
gene 3 12 26 0.498594 0 36 0.498594 1
gene 3 13 26 -0.025226 0 37 -0.025226 1
gene 2 14 26 3.09684 0 38 3.09684 1
gene 1 15 26 0.377949 0 39 0.377949 0
gene 1 16 26 2.36584 0 40 2.36584 1
gene 1 17 26 0.116079 0 41 0.116079 1
gene 1 18 26 1.19116 0 42 1.19116 1
gene 3 19 26 1.22196 0 43 1.22196 1
gene 1 20 26 -0.159633 0 44 -0.159633 0
gene 1 21 26 2.0764 0 45 2.0764 0
gene 2 22 26 -1.90937 0 46 -1.90937 1
gene 1 23 26 -1.11368 0 47 -1.11368 1
gene 2 24 26 0.590495 0 48 0.590495 1
gene 2 20 40 -4.36294 0 78 -4.36294 1
gene 2 40 26 -4.95279 0 79 -4.95279 1
gene 3 16 40 5.99612 0 92 5.99612 1
gene 2 18 40 -3.70778 0 208 -3.70778 1
gene 1 21 84 4.1053 0 230 4.1053 1
gene 1 84 26 1.08465 0 231 1.08465 1
gene 1 84 25 -1.03597 0 287 -1.03597 1
gene 1 10 146 1.56008 0 452 1.56008 1
gene 1 146 26 -0.931993 0 453 -0.931993 1
gene 1 3 146 -2.11724 0 467 -2.11724 1
genomeend 11

/* Organism #12 Fitness: 396.589 Error: 0 */
genomestart 12
trait 1 0.0140625 0 0 0 0 0 0.766355 0.236574 
trait 2 0.2 0 0 0 0.108593 0 0.218725 0 
trait 3 0.3 0 0 0 0 0 0 0 
node 1 1 1 3
node 2 3 1 1
node 3 3 1 1
node 4 1 1 1
node 5 2 1 1
node 6 2 1 1
node 7 3 1 1
node 8 1 1 1
node 9 3 1 1
node 10 2 1 1
node 11 1 1 1
node 12 3 1 1
node 13 1 1 1
node 14 1 1 1
node 15 1 1 1
node 16 3 1 1
node 17 2 1 1
node 18 1 1 1
node 19 1 1 1
node 20 1 1 1
node 21 3 1 1
node 22 1 1 1
node 23 3 1 1
node 24 1 1 1
node 25 3 0 2
node 26 1 0 2
node 40 1 0 0
node 84 1 0 0
node 146 1 0 0
gene 2 1 25 2.35896 0 1 2.35896 1
gene 3 2 25 -2.01024 0 2 -2.01024 1
gene 1 3 25 -2.04798 0 3 -2.04798 1
gene 3 4 25 -3.19115 0 4 -3.19115 1
gene 3 5 25 -0.740842 0 5 -0.740842 1
gene 2 6 25 0.493812 0 6 0.493812 1
gene 1 7 25 -0.508623 0 7 -0.508623 1
gene 3 8 25 5.52721 0 8 5.52721 1
gene 2 9 25 3.49977 0 9 3.49977 1
gene 2 10 25 8 0 10 8 1
gene 3 11 25 -0.505573 0 11 -0.505573 1
gene 3 12 25 5.07474 0 12 5.07474 1
gene 3 13 25 4.39821 0 13 4.39821 1
gene 2 14 25 1.68152 0 14 1.68152 1
gene 2 15 25 2.1118 0 15 2.1118 1
gene 3 16 25 -1.01264 0 16 -1.01264 1
gene 1 17 25 -0.77045 0 17 -0.77045 1
gene 1 18 25 2.17169 0 18 2.17169 1
gene 3 19 25 -1.64276 0 19 -1.64276 1
gene 3 20 25 3.48644 0 20 3.48644 1
gene 2 21 25 -2.37385 0 21 -2.37385 1
gene 1 22 25 1.05517 0 22 1.05517 1
gene 1 23 25 -4.7691 0 23 -4.7691 1
gene 1 24 25 -2.66133 0 24 -2.66133 1
gene 2 1 26 0.230439 0 25 0.230439 1
gene 1 2 26 -5.21483 0 26 -5.21483 1
gene 1 3 26 0.256669 0 27 0.256669 0
gene 1 4 26 1.18799 0 28 1.18799 1
gene 2 5 26 1.352 0 29 1.352 1
gene 2 6 26 0.739736 0 30 0.739736 1
gene 3 7 26 -0.132436 0 31 -0.132436 1
gene 2 8 26 -0.909975 0 32 -0.909975 1
gene 2 9 26 3.24326 0 33 3.24326 1
gene 1 10 26 -0.524148 0 34 -0.524148 1
gene 2 11 26 3.47778 0 35 3.47778 1
gene 3 12 26 -0.0618284 0 36 -0.0618284 1
gene 3 13 26 -2.04984 0 37 -2.04984 1
gene 2 14 26 1.84408 0 38 1.84408 1
gene 1 15 26 1.01475 0 39 1.01475 0
gene 1 16 26 0.128447 0 40 0.128447 1
gene 1 17 26 2.31248 0 41 2.31248 1
gene 1 18 26 0.751178 0 42 0.751178 1
gene 3 19 26 -0.964855 0 43 -0.964855 1
gene 1 20 26 -4.67506 0 44 -4.67506 0
gene 1 21 26 2.0764 0 45 2.0764 0
gene 2 22 26 -3.42326 0 46 -3.42326 1
gene 1 23 26 0.328938 0 47 0.328938 1
gene 2 24 26 0.95685 0 48 0.95685 1
gene 2 20 40 -2.31912 0 78 -2.31912 1
gene 2 40 26 -6.0118 0 79 -6.0118 1
gene 3 16 40 4.12466 0 92 4.12466 1
gene 2 18 40 -3.49048 0 208 -3.49048 1
gene 1 21 84 5.4353 0 230 5.4353 1
gene 1 84 26 3.29424 0 231 3.29424 1
gene 1 84 25 3.00929 0 287 3.00929 1
gene 1 10 146 1.04 0 452 0.227503 1
gene 1 146 26 -0.682698 0 453 0 1
gene 1 3 146 -0.827776 0 467 -0.827776 1
genomeend 12

/* Organism #13 Fitness: 49.1535 Error: 0 */
genomestart 13
trait 1 0.0140625 0 0 0 0 0 0.766355 0.236574 
trait 2 0.2 0 0 0 0.108593 0 0.218725 0 
trait 3 0.3 0 0 0 0 0 0 0 
node 1 1 1 3
node 2 3 1 1
node 3 3 1 1
node 4 1 1 1
node 5 2 1 1
node 6 2 1 1
node 7 3 1 1
node 8 1 1 1
node 9 3 1 1
node 10 2 1 1
node 11 1 1 1
node 12 3 1 1
node 13 1 1 1
node 14 1 1 1
node 15 1 1 1
node 16 3 1 1
node 17 2 1 1
node 18 1 1 1
node 19 1 1 1
node 20 1 1 1
node 21 3 1 1
node 22 1 1 1
node 23 3 1 1
node 24 1 1 1
node 25 3 0 2
node 26 1 0 2
node 40 1 0 0
node 84 1 0 0
node 146 1 0 0
gene 2 1 25 -0.0665672 0 1 -0.0665672 1
gene 3 2 25 -0.285944 0 2 -0.285944 1
gene 1 3 25 -4.20973 0 3 -4.20973 1
gene 3 4 25 -2.07929 0 4 -2.07929 1
gene 3 5 25 0.937079 0 5 0.937079 1
gene 2 6 25 0.353627 0 6 0.353627 1
gene 1 7 25 0.863559 0 7 0.863559 1
gene 3 8 25 6.20608 0 8 6.20608 1
gene 2 9 25 4.96318 0 9 4.96318 1
gene 2 10 25 6.31313 0 10 6.31313 1
gene 3 11 25 -1.54579 0 11 -1.54579 1
gene 3 12 25 6.04302 0 12 6.04302 1
gene 3 13 25 6.23154 0 13 6.23154 1
gene 2 14 25 -0.677605 0 14 -0.677605 1
gene 2 15 25 0.272391 0 15 0.272391 1
gene 3 16 25 -1.79904 0 16 -1.79904 1
gene 1 17 25 -3.06702 0 17 -3.06702 1
gene 1 18 25 3.03477 0 18 3.03477 1
gene 3 19 25 -2.20914 0 19 -2.20914 1
gene 3 20 25 1.55683 0 20 1.55683 1
gene 2 21 25 -3.63544 0 21 -3.63544 1
gene 1 22 25 0.260826 0 22 0.260826 1
gene 1 23 25 -4.78222 0 23 -4.78222 1
gene 1 24 25 -3.78807 0 24 -3.78807 1
gene 2 1 26 2.40816 0 25 2.40816 1
gene 1 2 26 -7.30147 0 26 -7.30147 1
gene 1 3 26 2.84795 0 27 2.84795 0
gene 1 4 26 0.515042 0 28 0.515042 1
gene 2 5 26 3.71465 0 29 3.71465 1
gene 2 6 26 2.73978 0 30 2.73978 1
gene 3 7 26 -1.83639 0 31 -1.83639 1
gene 2 8 26 -0.303178 0 32 -0.303178 1
gene 2 9 26 5.60223 0 33 5.60223 1
gene 1 10 26 -2.58666 0 34 -2.58666 1
gene 2 11 26 1.20651 0 35 1.20651 1
gene 3 12 26 1.85886 0 36 1.85886 1
gene 3 13 26 -1.27537 0 37 -1.27537 1
gene 2 14 26 0.289737 0 38 0.289737 1
gene 1 15 26 2.41094 0 39 2.41094 0
gene 1 16 26 -1.41979 0 40 -1.41979 1
gene 1 17 26 -0.0632426 0 41 -0.0632426 1
gene 1 18 26 -0.0980821 0 42 -0.0980821 1
gene 3 19 26 -2.70263 0 43 -2.70263 1
gene 2 20 26 -7.16321 0 44 -7.16321 0
gene 1 21 26 0.750791 0 45 0.750791 0
gene 2 22 26 -4.53648 0 46 -4.53648 1
gene 1 23 26 2.3417 0 47 2.3417 1
gene 2 24 26 2.36542 0 48 2.36542 1
gene 2 20 40 -2.00333 0 78 -2.00333 1
gene 2 40 26 -7.1804 0 79 -7.1804 1
gene 3 16 40 5.74472 0 92 5.74472 1
gene 2 18 40 0.857834 0 208 0.857834 1
gene 1 21 84 6.71765 0 230 6.71765 1
gene 1 84 26 3.46347 0 231 3.46347 1
gene 1 84 25 0.435963 0 287 0.435963 1
gene 1 10 146 -0.413448 0 452 -0.413448 1
gene 1 146 26 0.780166 0 453 0.780166 1
gene 1 3 146 -0.370714 0 467 -0.370714 1
genomeend 13

/* Organism #14 Fitness: 25.3104 Error: 0 */
genomestart 14
trait 1 0.0140625 0 0 0 0 0 0.766355 0.236574 
trait 2 0.2 0 0.429141 0 0.108593 0 0.218725 0.0542212 
trait 3 0.3 0 0 0 0 0 0 0 
node 1 1 1 3
node 2 3 1 1
node 3 3 1 1
node 4 1 1 1
node 5 2 1 1
node 6 2 1 1
node 7 3 1 1
node 8 1 1 1
node 9 3 1 1
node 10 2 1 1
node 11 1 1 1
node 12 3 1 1
node 13 1 1 1
node 14 1 1 1
node 15 1 1 1
node 16 3 1 1
node 17 2 1 1
node 18 1 1 1
node 19 1 1 1
node 20 1 1 1
node 21 3 1 1
node 22 1 1 1
node 23 3 1 1
node 24 2 1 1
node 25 3 0 2
node 26 1 0 2
node 40 1 0 0
node 84 1 0 0
node 146 1 0 0
gene 2 1 25 3.41128 0 1 3.41128 1
gene 3 2 25 -2.43026 0 2 -2.43026 1
gene 1 3 25 -4.20729 0 3 -4.20729 1
gene 3 4 25 -4.48684 0 4 -4.48684 1
gene 3 5 25 -2.69367 0 5 -2.69367 1
gene 2 6 25 2.29657 0 6 2.29657 1
gene 1 7 25 1.34329 0 7 1.34329 1
gene 3 8 25 7.52455 0 8 7.52455 1
gene 2 9 25 1.1878 0 9 1.1878 1
gene 2 10 25 8 0 10 8 1
gene 3 11 25 0.165754 0 11 0.165754 1
gene 3 12 25 3.99848 0 12 3.99848 1
gene 3 13 25 2.94308 0 13 2.94308 1
gene 2 14 25 0.918379 0 14 0.918379 1
gene 2 15 25 2.99897 0 15 2.99897 1
gene 3 16 25 -0.556662 0 16 -0.556662 1
gene 1 17 25 -2.57433 0 17 -2.57433 1
gene 1 18 25 2.35479 0 18 2.35479 1
gene 3 19 25 -1.86173 0 19 -1.86173 1
gene 3 20 25 4.6825 0 20 4.6825 1
gene 2 21 25 -0.567818 0 21 -0.567818 1
gene 1 22 25 -1.3135 0 22 -1.3135 1
gene 1 23 25 -6.51756 0 23 -6.51756 1
gene 1 24 25 -1.23877 0 24 -1.23877 1
gene 2 1 26 1.73706 0 25 1.73706 1
gene 1 2 26 -4.68111 0 26 -4.68111 1
gene 1 3 26 2.323 0 27 2.323 0
gene 1 4 26 0.563125 0 28 0.563125 1
gene 2 5 26 -0.568835 0 29 -0.568835 1
gene 2 6 26 1.98051 0 30 1.98051 1
gene 3 7 26 -0.28458 0 31 -0.28458 1
gene 2 8 26 -0.149765 0 32 -0.149765 1
gene 2 9 26 2.6048 0 33 2.6048 1
gene 1 10 26 1.29916 0 34 1.29916 1
gene 2 11 26 5.34411 0 35 5.34411 1
gene 3 12 26 -0.406836 0 36 -0.406836 1
gene 3 13 26 -4.43813 0 37 -4.43813 1
gene 2 14 26 1.95051 0 38 1.95051 1
gene 1 15 26 1.30115 0 39 1.30115 0
gene 1 16 26 -1.84964 0 40 -1.84964 1
gene 1 17 26 4.52796 0 41 4.52796 1
gene 1 18 26 -0.519542 0 42 -0.519542 1
gene 3 19 26 1.22151 0 43 1.22151 1
gene 2 20 26 -5.32116 0 44 -5.32116 0
gene 1 21 26 1.60393 0 45 1.60393 0
gene 2 22 26 -3.87654 0 46 -3.87654 1
gene 1 23 26 0.235176 0 47 0.235176 1
gene 2 24 26 -1.115 0 48 -1.115 1
gene 2 20 40 -0.130734 0 78 -0.130734 1
gene 2 40 26 -6.0118 0 79 -6.0118 1
gene 3 16 40 -1.69068 0 92 -1.69068 1
gene 2 18 40 1.37705 0 208 1.37705 1
gene 1 21 84 6.84373 0 230 6.84373 1
gene 1 84 26 4.49989 0 231 4.49989 1
gene 1 84 25 2.95106 0 287 2.95106 1
gene 1 10 146 0.528492 0 452 0.528492 1
gene 1 146 26 0.568495 0 453 0.568495 1
gene 1 3 146 -0.290294 0 467 -0.290294 1
genomeend 14

/* Organism #15 Fitness: 0 Error: 0 */
genomestart 15
trait 1 0.0140625 0 0 0 0 0 0.766355 0.236574 
trait 2 0.2 0 0 0 0.108593 0 0.218725 0 
trait 3 0.3 0 0 0 0 0 0 0 
node 1 1 1 3
node 2 3 1 1
node 3 3 1 1
node 4 1 1 1
node 5 2 1 1
node 6 2 1 1
node 7 3 1 1
node 8 1 1 1
node 9 3 1 1
node 10 2 1 1
node 11 1 1 1
node 12 3 1 1
node 13 1 1 1
node 14 1 1 1
node 15 1 1 1
node 16 3 1 1
node 17 2 1 1
node 18 1 1 1
node 19 1 1 1
node 20 1 1 1
node 21 3 1 1
node 22 1 1 1
node 23 3 1 1
node 24 2 1 1
node 25 3 0 2
node 26 1 0 2
node 40 1 0 0
node 84 1 0 0
node 146 1 0 0
gene 2 1 25 1.46246 0 1 1.46246 1
gene 3 2 25 -1.93344 0 2 -1.93344 1
gene 1 3 25 0.365843 0 3 0.365843 1
gene 3 4 25 -4.34819 0 4 -4.34819 1
gene 3 5 25 0.30638 0 5 0.30638 1
gene 2 6 25 1.17639 0 6 1.17639 1
gene 1 7 25 -1.33638 0 7 -1.33638 1
gene 3 8 25 5.40617 0 8 5.40617 1
gene 2 9 25 4.15521 0 9 4.15521 1
gene 2 10 25 6.74523 0 10 6.74523 1
gene 3 11 25 2.23291 0 11 2.23291 1
gene 3 12 25 1.79645 0 12 1.79645 1
gene 3 13 25 1.27832 0 13 1.27832 1
gene 2 14 25 4.65972 0 14 4.65972 1
gene 2 15 25 0.71872 0 15 0.71872 1
gene 3 16 25 -0.338113 0 16 -0.338113 1
gene 1 17 25 -0.795223 0 17 -0.795223 1
gene 1 18 25 1.48033 0 18 1.48033 1
gene 3 19 25 -3.50829 0 19 -3.50829 1
gene 3 20 25 1.64962 0 20 1.64962 1
gene 2 21 25 -2.47702 0 21 -2.47702 1
gene 1 22 25 -1.83603 0 22 -1.83603 1
gene 1 23 25 -4.45894 0 23 -4.45894 1
gene 1 24 25 0.252772 0 24 0.252772 1
gene 2 1 26 1.02545 0 25 1.02545 1
gene 1 2 26 -4.75062 0 26 -4.75062 1
gene 1 3 26 2.29896 0 27 2.29896 0
gene 1 4 26 1.4588 0 28 1.4588 1
gene 2 5 26 2.14657 0 29 2.14657 1
gene 2 6 26 -0.785829 0 30 -0.785829 1
gene 3 7 26 0.130953 0 31 0.130953 1
gene 2 8 26 -1.56148 0 32 -1.56148 1
gene 2 9 26 2.15304 0 33 2.15304 1
gene 1 10 26 0.876312 0 34 0.876312 1
gene 2 11 26 -0.94834 0 35 -0.94834 1
gene 3 12 26 -1.99232 0 36 -1.99232 1
gene 3 13 26 -2.2309 0 37 -2.2309 1
gene 2 14 26 0.500457 0 38 0.500457 1
gene 1 15 26 -0.216399 0 39 -0.216399 0
gene 1 16 26 0.43699 0 40 0.43699 1
gene 1 17 26 -2.30013 0 41 -2.30013 1
gene 1 18 26 -2.24435 0 42 -2.24435 1
gene 3 19 26 -1.81258 0 43 -1.81258 1
gene 2 20 26 -4.67506 0 44 -4.67506 0
gene 1 21 26 0.193665 0 45 0.193665 0
gene 2 22 26 2.47628 0 46 2.47628 1
gene 1 23 26 -0.33974 0 47 -0.33974 1
gene 2 24 26 -0.311501 0 48 -0.311501 1
gene 2 20 40 -2.31912 0 78 -2.31912 1
gene 2 40 26 -0.296389 0 79 -0.296389 1
gene 3 16 40 0.444212 0 92 0.444212 1
gene 2 18 40 -3.49048 0 208 -3.49048 1
gene 1 21 84 6.8585 0 230 6.8585 1
gene 1 84 26 2.05597 0 231 2.05597 1
gene 1 84 25 0.115143 0 287 0.115143 1
gene 1 10 146 3.24349 0 452 3.24349 1
gene 1 146 26 -0.69446 0 453 -0.69446 1
gene 1 3 146 -2.41278 0 467 -2.41278 1
genomeend 15

/* Organism #16 Fitness: 0 Error: 0 */
genomestart 16
trait 1 0.0140625 0 0 0 0 0 0.766355 0.236574 
trait 2 0.2 0 0 0 0.108593 0 0.218725 0 
trait 3 0.3 0 0 0 0 0 0 0 
node 1 1 1 3
node 2 3 1 1
node 3 3 1 1
node 4 1 1 1
node 5 2 1 1
node 6 2 1 1
node 7 3 1 1
node 8 1 1 1
node 9 3 1 1
node 10 2 1 1
node 11 1 1 1
node 12 3 1 1
node 13 1 1 1
node 14 1 1 1
node 15 1 1 1
node 16 3 1 1
node 17 2 1 1
node 18 1 1 1
node 19 1 1 1
node 20 1 1 1
node 21 3 1 1
node 22 1 1 1
node 23 3 1 1
node 24 2 1 1
node 25 3 0 2
node 26 1 0 2
node 40 1 0 0
node 84 1 0 0
node 146 1 0 0
gene 2 1 25 3.04027 0 1 3.04027 1
gene 3 2 25 -1.39816 0 2 -1.39816 1
gene 1 3 25 -1.75976 0 3 -1.75976 1
gene 3 4 25 -2.06563 0 4 -2.06563 1
gene 3 5 25 1.06594 0 5 1.06594 1
gene 2 6 25 -1.23762 0 6 -1.23762 1
gene 1 7 25 -0.428852 0 7 -0.428852 1
gene 3 8 25 6.4529 0 8 6.4529 1
gene 2 9 25 2.7365 0 9 2.7365 1
gene 2 10 25 6.12308 0 10 6.12308 1
gene 3 11 25 -2.93079 0 11 -2.93079 1
gene 3 12 25 6.42162 0 12 6.42162 1
gene 3 13 25 3.61355 0 13 3.61355 1
gene 2 14 25 0.149859 0 14 0.149859 1
gene 2 15 25 3.23941 0 15 3.23941 1
gene 3 16 25 -2.06737 0 16 -2.06737 1
gene 1 17 25 1.01715 0 17 1.01715 1
gene 1 18 25 0.730942 0 18 0.730942 1
gene 3 19 25 0.324201 0 19 0.324201 1
gene 3 20 25 3.47725 0 20 3.47725 1
gene 2 21 25 -4.07532 0 21 -4.07532 1
gene 1 22 25 -0.739888 0 22 -0.739888 1
gene 1 23 25 -2.55594 0 23 -2.55594 1
gene 1 24 25 -0.26142 0 24 -0.26142 1
gene 2 1 26 1.04173 0 25 1.04173 1
gene 1 2 26 -6.83594 0 26 -6.83594 1
gene 1 3 26 -1.36923 0 27 -1.36923 0
gene 1 4 26 2.57009 0 28 2.57009 1
gene 2 5 26 -0.439255 0 29 -0.439255 1
gene 2 6 26 2.34421 0 30 2.34421 1
gene 3 7 26 -0.679637 0 31 -0.679637 1
gene 2 8 26 -1.03119 0 32 -1.03119 1
gene 2 9 26 2.7926 0 33 2.7926 1
gene 1 10 26 0.644169 0 34 0.644169 1
gene 2 11 26 3.14056 0 35 3.14056 1
gene 3 12 26 -0.993017 0 36 -0.993017 1
gene 3 13 26 -2.14698 0 37 -2.14698 1
gene 2 14 26 4.12492 0 38 4.12492 1
gene 1 15 26 -0.787943 0 39 -0.787943 0
gene 1 16 26 2.4046 0 40 2.4046 1
gene 1 17 26 2.70888 0 41 2.70888 1
gene 1 18 26 1.09466 0 42 1.09466 1
gene 3 19 26 -1.48503 0 43 -1.48503 1
gene 2 20 26 -4.02855 0 44 -4.02855 0
gene 1 21 26 2.89891 0 45 2.89891 0
gene 2 22 26 -2.62295 0 46 -2.62295 1
gene 1 23 26 -0.240293 0 47 -0.240293 1
gene 2 24 26 0.611465 0 48 0.611465 1
gene 2 20 40 -2.31912 0 78 -2.31912 1
gene 2 40 26 -5.64102 0 79 -5.64102 1
gene 3 16 40 0.82919 0 92 0.82919 1
gene 2 18 40 -2.14111 0 208 -2.14111 1
gene 1 21 84 5.4353 0 230 5.4353 1
gene 1 84 26 -1.97453 0 231 -1.97453 1
gene 1 84 25 -2.4571 0 287 -2.4571 1
gene 1 10 146 0.282596 0 452 0.282596 1
gene 1 146 26 -1.54311 0 453 -1.54311 1
gene 1 3 146 -1.21509 0 467 -1.21509 1
genomeend 16

/* Organism #17 Fitness: 0 Error: 0 */
genomestart 17
trait 1 0.0140625 0 0 0 0 0 0.766355 0.236574 
trait 2 0.2 0 0 0 0.108593 0 0.218725 0 
trait 3 0.3 0 0 0 0 0 0 0 
node 1 1 1 3
node 2 3 1 1
node 3 3 1 1
node 4 1 1 1
node 5 2 1 1
node 6 2 1 1
node 7 3 1 1
node 8 1 1 1
node 9 3 1 1
node 10 2 1 1
node 11 1 1 1
node 12 3 1 1
node 13 1 1 1
node 14 1 1 1
node 15 1 1 1
node 16 3 1 1
node 17 2 1 1
node 18 1 1 1
node 19 1 1 1
node 20 1 1 1
node 21 3 1 1
node 22 1 1 1
node 23 3 1 1
node 24 2 1 1
node 25 3 0 2
node 26 1 0 2
node 40 1 0 0
node 84 1 0 0
node 146 1 0 0
gene 2 1 25 4.93177 0 1 4.93177 1
gene 3 2 25 -0.353649 0 2 -0.353649 1
gene 1 3 25 -1.81382 0 3 -1.81382 1
gene 3 4 25 0.0284072 0 4 0.0284072 1
gene 3 5 25 1.04624 0 5 1.04624 1
gene 2 6 25 0.977887 0 6 0.977887 1
gene 1 7 25 1.08571 0 7 1.08571 1
gene 3 8 25 1.597 0 8 1.597 1
gene 2 9 25 0.234739 0 9 0.234739 1
gene 2 10 25 7.98173 0 10 7.98173 1
gene 3 11 25 -0.39016 0 11 -0.39016 1
gene 3 12 25 0.612296 0 12 0.612296 1
gene 3 13 25 3.06834 0 13 3.06834 1
gene 2 14 25 1.713 0 14 1.713 1
gene 2 15 25 4.76319 0 15 4.76319 1
gene 3 16 25 0.848776 0 16 0.848776 1
gene 1 17 25 0.52736 0 17 0.52736 1
gene 1 18 25 3.81806 0 18 3.81806 1
gene 3 19 25 -2.80667 0 19 -2.80667 1
gene 3 20 25 4.22266 0 20 4.22266 1
gene 2 21 25 -0.609784 0 21 -0.609784 1
gene 1 22 25 -1.24102 0 22 -1.24102 1
gene 1 23 25 1.30122 0 23 1.30122 1
gene 1 24 25 -1.69502 0 24 -1.69502 1
gene 2 1 26 -1.9709 0 25 -1.9709 1
gene 1 2 26 -1.87473 0 26 -1.87473 1
gene 1 3 26 3.17372 0 27 3.17372 0
gene 1 4 26 1.11268 0 28 1.11268 1
gene 2 5 26 3.28853 0 29 3.28853 1
gene 2 6 26 -0.6802 0 30 -0.6802 1
gene 3 7 26 -2.29513 0 31 -2.29513 1
gene 2 8 26 -3.13973 0 32 -3.13973 1
gene 2 9 26 1.54942 0 33 1.54942 1
gene 1 10 26 0.791201 0 34 0.791201 1
gene 2 11 26 1.14705 0 35 1.14705 1
gene 3 12 26 -0.208718 0 36 -0.208718 1
gene 3 13 26 -0.708091 0 37 -0.708091 1
gene 2 14 26 -0.939913 0 38 -0.939913 1
gene 1 15 26 -1.9078 0 39 -1.9078 0
gene 1 16 26 -2.37822 0 40 -2.37822 1
gene 1 17 26 2.19069 0 41 2.19069 1
gene 1 18 26 0.210871 0 42 0.210871 1
gene 3 19 26 -1.30426 0 43 -1.30426 1
gene 2 20 26 -5.6127 0 44 -5.6127 0
gene 1 21 26 0.456447 0 45 0.456447 0
gene 2 22 26 -2.36434 0 46 -2.36434 1
gene 1 23 26 -0.0186382 0 47 -0.0186382 1
gene 2 24 26 0.297184 0 48 0.297184 1
gene 2 20 40 -1.65376 0 78 -1.65376 1
gene 2 40 26 -3.96788 0 79 -3.96788 1
gene 3 16 40 4.14684 0 92 4.14684 1
gene 2 18 40 -1.48766 0 208 -1.48766 1
gene 1 21 84 4.92025 0 230 4.92025 1
gene 1 84 26 3.79494 0 231 3.79494 1
gene 1 84 25 -0.783913 0 287 -0.783913 1
gene 1 10 146 -0.884968 0 452 -0.884968 1
gene 1 146 26 -2.75999 0 453 -2.75999 1
gene 1 3 146 1.58518 0 467 1.58518 1
genomeend 17

/* Organism #18 Fitness: 0 Error: 0 */
genomestart 18
trait 1 0.0140625 0 0 0 0 0 0.766355 0.236574 
trait 2 0.2 0 0 0 0.108593 0 0.218725 0 
trait 3 0.3 0 0 0 0 0 0 0 
node 1 1 1 3
node 2 3 1 1
node 3 3 1 1
node 4 1 1 1
node 5 2 1 1
node 6 2 1 1
node 7 3 1 1
node 8 1 1 1
node 9 3 1 1
node 10 2 1 1
node 11 1 1 1
node 12 3 1 1
node 13 1 1 1
node 14 1 1 1
node 15 1 1 1
node 16 3 1 1
node 17 2 1 1
node 18 1 1 1
node 19 1 1 1
node 20 1 1 1
node 21 3 1 1
node 22 1 1 1
node 23 3 1 1
node 24 2 1 1
node 25 3 0 2
node 26 1 0 2
node 40 1 0 0
node 84 1 0 0
node 146 1 0 0
gene 2 1 25 2.7868 0 1 2.7868 1
gene 3 2 25 -1.8919 0 2 -1.8919 1
gene 1 3 25 0.0287004 0 3 0.0287004 1
gene 3 4 25 0.173012 0 4 0.173012 1
gene 3 5 25 0.290253 0 5 0.290253 1
gene 2 6 25 -0.319344 0 6 -0.319344 1
gene 1 7 25 -0.508623 0 7 -0.508623 1
gene 3 8 25 3.85035 0 8 3.85035 1
gene 2 9 25 0.825574 0 9 0.825574 1
gene 2 10 25 6.17774 0 10 6.17774 1
gene 3 11 25 1.37124 0 11 1.37124 1
gene 3 12 25 3.53428 0 12 3.53428 1
gene 3 13 25 2.7261 0 13 2.7261 1
gene 2 14 25 2.84907 0 14 2.84907 1
gene 2 15 25 2.47167 0 15 2.47167 1
gene 3 16 25 1.13518 0 16 1.13518 1
gene 1 17 25 2.44694 0 17 2.44694 1
gene 1 18 25 3.67907 0 18 3.67907 1
gene 3 19 25 -3.31368 0 19 -3.31368 1
gene 3 20 25 3.79665 0 20 3.79665 1
gene 2 21 25 -0.779327 0 21 -0.779327 1
gene 1 22 25 1.94411 0 22 1.94411 1
gene 1 23 25 -6.64819 0 23 -6.64819 1
gene 1 24 25 -4.67115 0 24 -4.67115 1
gene 2 1 26 -0.156407 0 25 -0.156407 1
gene 1 2 26 -4.68874 0 26 -4.68874 1
gene 1 3 26 0.987268 0 27 0.987268 0
gene 1 4 26 1.13578 0 28 1.13578 1
gene 2 5 26 0.0799545 0 29 0.0799545 1
gene 2 6 26 2.83668 0 30 2.83668 1
gene 3 7 26 -1.72002 0 31 -1.72002 1
gene 2 8 26 0.129906 0 32 0.129906 1
gene 2 9 26 2.2041 0 33 2.2041 1
gene 1 10 26 -2.66591 0 34 -2.66591 1
gene 2 11 26 1.10075 0 35 1.10075 1
gene 3 12 26 -1.48043 0 36 -1.48043 1
gene 3 13 26 0.316704 0 37 0.316704 1
gene 2 14 26 0.463909 0 38 0.463909 1
gene 1 15 26 -0.216399 0 39 -0.216399 0
gene 1 16 26 -0.760519 0 40 -0.760519 1
gene 1 17 26 2.00023 0 41 2.00023 1
gene 1 18 26 0.751178 0 42 0.751178 1
gene 3 19 26 2.28818 0 43 2.28818 1
gene 2 20 26 -6.83972 0 44 -6.83972 0
gene 1 21 26 3.81462 0 45 3.81462 0
gene 2 22 26 -2.82047 0 46 -2.82047 1
gene 1 23 26 -1.91687 0 47 -1.91687 1
gene 2 24 26 -1.15989 0 48 -1.15989 1
gene 2 20 40 -0.351001 0 78 -0.351001 1
gene 2 40 26 0.314702 0 79 0.314702 1
gene 3 16 40 0.285615 0 92 0.285615 1
gene 2 18 40 -5.90531 0 208 -5.90531 1
gene 1 21 84 2.03413 0 230 2.03413 1
gene 1 84 26 3.29424 0 231 3.29424 1
gene 1 84 25 0.9229 0 287 0.9229 1
gene 1 10 146 -1.27115 0 452 -1.27115 1
gene 1 146 26 1.20601 0 453 1.20601 1
gene 1 3 146 -0.370714 0 467 -0.370714 1
genomeend 18

/* Organism #19 Fitness: 53.994 Error: 0 */
genomestart 19
trait 1 0.0140625 0 0 0 0 0 0.766355 0.236574 
trait 2 0.2 0 0 0 0.108593 0 0.218725 0 
trait 3 0.3 0 0 0 0 0 0 0 
node 1 1 1 3
node 2 3 1 1
node 3 3 1 1
node 4 1 1 1
node 5 2 1 1
node 6 2 1 1
node 7 3 1 1
node 8 1 1 1
node 9 3 1 1
node 10 2 1 1
node 11 1 1 1
node 12 3 1 1
node 13 1 1 1
node 14 1 1 1
node 15 1 1 1
node 16 3 1 1
node 17 2 1 1
node 18 1 1 1
node 19 1 1 1
node 20 1 1 1
node 21 3 1 1
node 22 1 1 1
node 23 3 1 1
node 24 1 1 1
node 25 3 0 2
node 26 1 0 2
node 40 1 0 0
node 84 1 0 0
node 146 1 0 0
gene 2 1 25 0.253792 0 1 0.253792 1
gene 3 2 25 -1.12091 0 2 -1.12091 1
gene 1 3 25 -1.53392 0 3 -1.53392 1
gene 3 4 25 -2.42517 0 4 -2.42517 1
gene 3 5 25 -1.30441 0 5 -1.30441 1
gene 2 6 25 2.66014 0 6 2.66014 1
gene 1 7 25 -2.33673 0 7 -2.33673 1
gene 3 8 25 6.59681 0 8 6.59681 1
gene 2 9 25 0.733146 0 9 0.733146 1
gene 2 10 25 8 0 10 8 1
gene 3 11 25 -2.5233 0 11 -2.5233 1
gene 3 12 25 4.68753 0 12 4.68753 1
gene 3 13 25 5.17471 0 13 5.17471 1
gene 2 14 25 4.78796 0 14 4.78796 1
gene 2 15 25 0.62547 0 15 0.62547 1
gene 3 16 25 -1.04829 0 16 -1.04829 1
gene 3 17 25 -0.180077 0 17 -0.180077 1
gene 1 18 25 2.16072 0 18 2.16072 1
gene 3 19 25 -0.306338 0 19 -0.306338 1
gene 3 20 25 4.81405 0 20 4.81405 1
gene 2 21 25 -3.07498 0 21 -3.07498 1
gene 1 22 25 -0.65015 0 22 -0.65015 1
gene 1 23 25 -6.46497 0 23 -6.46497 1
gene 1 24 25 -4.13648 0 24 -4.13648 1
gene 2 1 26 -0.266274 0 25 -0.266274 1
gene 1 2 26 -3.15724 0 26 -3.15724 1
gene 1 3 26 0.623597 0 27 0.623597 0
gene 1 4 26 -0.555241 0 28 -0.555241 1
gene 2 5 26 3.16593 0 29 3.16593 1
gene 2 6 26 0.704891 0 30 0.704891 1
gene 3 7 26 1.90791 0 31 1.90791 1
gene 2 8 26 -1.74333 0 32 -1.74333 1
gene 2 9 26 4.12241 0 33 4.12241 1
gene 1 10 26 -1.65445 0 34 -1.65445 1
gene 2 11 26 1.13732 0 35 1.13732 1
gene 3 12 26 1.2856 0 36 1.2856 1
gene 3 13 26 -1.36207 0 37 -1.36207 1
gene 2 14 26 1.04768 0 38 1.04768 1
gene 1 15 26 -1.69579 0 39 -1.69579 0
gene 1 16 26 0.286788 0 40 0.286788 1
gene 1 17 26 0.0870147 0 41 0.0870147 1
gene 1 18 26 0.287787 0 42 0.287787 1
gene 3 19 26 0.70175 0 43 0.70175 1
gene 1 20 26 -4.7612 0 44 -4.7612 0
gene 1 21 26 0.368342 0 45 0.368342 1
gene 2 22 26 -5.16267 0 46 -5.16267 1
gene 1 23 26 -0.607876 0 47 -0.607876 1
gene 2 24 26 2.85646 0 48 2.85646 1
gene 2 20 40 -1.40914 0 78 -1.40914 1
gene 2 40 26 -4.73119 0 79 -4.73119 1
gene 3 16 40 5.87045 0 92 5.87045 1
gene 2 18 40 -6.19209 0 208 -6.19209 1
gene 1 21 84 6.07648 0 230 6.07648 1
gene 1 84 26 3.37885 0 231 3.37885 1
gene 1 84 25 1.59652 0 287 1.59652 1
gene 1 10 146 0.0775178 0 452 0.0775178 1
gene 1 146 26 -2.19978 0 453 -2.19978 1
gene 1 3 146 -1.17856 0 467 -1.17856 1
genomeend 19

/* Organism #20 Fitness: 0 Error: 0 */
genomestart 20
trait 1 0.0140625 0 0 0 0 0 0.766355 0.236574 
trait 2 0.2 0 0 0 0.108593 0 0.218725 0 
trait 3 0.3 0 0 0 0 0 0 0 
node 1 1 1 3
node 2 3 1 1
node 3 3 1 1
node 4 1 1 1
node 5 2 1 1
node 6 2 1 1
node 7 3 1 1
node 8 1 1 1
node 9 3 1 1
node 10 2 1 1
node 11 1 1 1
node 12 3 1 1
node 13 1 1 1
node 14 1 1 1
node 15 1 1 1
node 16 3 1 1
node 17 2 1 1
node 18 1 1 1
node 19 1 1 1
node 20 1 1 1
node 21 3 1 1
node 22 1 1 1
node 23 3 1 1
node 24 2 1 1
node 25 3 0 2
node 26 1 0 2
node 40 1 0 0
node 84 1 0 0
node 146 1 0 0
gene 2 1 25 1.83166 0 1 1.83166 1
gene 3 2 25 0.0997777 0 2 0.0997777 1
gene 1 3 25 -1.84645 0 3 -1.84645 1
gene 3 4 25 -4.85359 0 4 -4.85359 1
gene 3 5 25 1.85031 0 5 1.85031 1
gene 2 6 25 0.493812 0 6 0.493812 1
gene 1 7 25 -0.604352 0 7 -0.604352 1
gene 3 8 25 5.05967 0 8 5.05967 1
gene 2 9 25 -1.09798 0 9 -1.09798 1
gene 2 10 25 8 0 10 8 1
gene 3 11 25 -0.724433 0 11 -0.724433 1
gene 3 12 25 5.27939 0 12 5.27939 1
gene 3 13 25 2.21091 0 13 2.21091 1
gene 2 14 25 3.64768 0 14 3.64768 1
gene 2 15 25 2.1118 0 15 2.1118 1
gene 3 16 25 -1.62472 0 16 -1.62472 1
gene 1 17 25 0.633191 0 17 0.633191 1
gene 1 18 25 4.2083 0 18 4.2083 1
gene 3 19 25 -3.85541 0 19 -3.85541 1
gene 3 20 25 3.48644 0 20 3.48644 1
gene 2 21 25 1.21092 0 21 1.21092 1
gene 1 22 25 -2.4753 0 22 -2.4753 1
gene 1 23 25 -0.925566 0 23 -0.925566 1
gene 1 24 25 -1.00814 0 24 -1.00814 1
gene 2 1 26 1.62277 0 25 1.62277 1
gene 1 2 26 -7.52457 0 26 -7.52457 1
gene 1 3 26 0.594957 0 27 0.594957 0
gene 1 4 26 3.65727 0 28 3.65727 1
gene 2 5 26 1.61838 0 29 1.61838 1
gene 2 6 26 0.739736 0 30 0.739736 1
gene 3 7 26 -2.18638 0 31 -2.18638 1
gene 2 8 26 -3.1356 0 32 -3.1356 1
gene 2 9 26 1.94012 0 33 1.94012 1
gene 1 10 26 1.46385 0 34 1.46385 1
gene 2 11 26 0.942648 0 35 0.942648 1
gene 3 12 26 0.0174041 0 36 0.0174041 1
gene 3 13 26 -0.0363589 0 37 -0.0363589 1
gene 2 14 26 -0.182534 0 38 -0.182534 1
gene 1 15 26 1.53909 0 39 1.53909 0
gene 1 16 26 -0.976178 0 40 -0.976178 1
gene 1 17 26 0.382377 0 41 0.382377 1
gene 1 18 26 1.4708 0 42 1.4708 1
gene 3 19 26 0.177838 0 43 0.177838 1
gene 2 20 26 -7.16711 0 44 -7.16711 0
gene 1 21 26 -0.0520211 0 45 -0.0520211 0
gene 2 22 26 -1.14076 0 46 -1.14076 1
gene 1 23 26 -2.07901 0 47 -2.07901 1
gene 2 24 26 -1.19428 0 48 -1.19428 1
gene 2 20 40 2.03548 0 78 2.03548 1
gene 2 40 26 -4.56709 0 79 -4.56709 1
gene 3 16 40 3.07372 0 92 3.07372 1
gene 2 18 40 -1.42538 0 208 -1.42538 1
gene 1 21 84 7.39779 0 230 7.39779 1
gene 1 84 26 4.96292 0 231 4.96292 1
gene 1 84 25 2.67245 0 287 2.67245 1
gene 1 10 146 -1.04976 0 452 -1.04976 1
gene 1 146 26 1.05449 0 453 1.05449 1
gene 1 3 146 2.37406 0 467 2.37406 1
genomeend 20

/* Organism #21 Fitness: 41.9614 Error: 0 */
genomestart 21
trait 1 0.0140625 0 0 0 0 0 0.766355 0.236574 
trait 2 0.2 0 0 0 0.108593 0 0.218725 0 
trait 3 0.3 0 0 0 0 0 0 0 
node 1 1 1 3
node 2 3 1 1
node 3 3 1 1
node 4 1 1 1
node 5 2 1 1
node 6 2 1 1
node 7 3 1 1
node 8 1 1 1
node 9 2 1 1
node 10 2 1 1
node 11 1 1 1
node 12 3 1 1
node 13 1 1 1
node 14 1 1 1
node 15 1 1 1
node 16 3 1 1
node 17 2 1 1
node 18 1 1 1
node 19 1 1 1
node 20 1 1 1
node 21 3 1 1
node 22 1 1 1
node 23 3 1 1
node 24 1 1 1
node 25 3 0 2
node 26 1 0 2
node 40 1 0 0
node 84 1 0 0
node 146 1 0 0
gene 2 1 25 0.736569 0 1 0.736569 1
gene 3 2 25 0.791067 0 2 0.791067 1
gene 1 3 25 -3.17588 0 3 -3.17588 1
gene 3 4 25 -0.717672 0 4 -0.717672 1
gene 3 5 25 -3.1957 0 5 -3.1957 1
gene 2 6 25 2.82273 0 6 2.82273 1
gene 1 7 25 0.789964 0 7 0.789964 1
gene 3 8 25 6.11618 0 8 6.11618 1
gene 2 9 25 3.3965 0 9 3.3965 1
gene 2 10 25 8 0 10 8 1
gene 3 11 25 -0.505573 0 11 -0.505573 1
gene 3 12 25 2.80818 0 12 2.80818 1
gene 3 13 25 5.89712 0 13 5.89712 1
gene 2 14 25 0.971361 0 14 0.971361 1
gene 2 15 25 1.61782 0 15 1.61782 1
gene 3 16 25 -1.01264 0 16 -1.01264 1
gene 1 17 25 -0.521389 0 17 -0.521389 1
gene 1 18 25 3.37793 0 18 3.37793 1
gene 3 19 25 -0.782506 0 19 -0.782506 1
gene 3 20 25 3.73063 0 20 3.73063 1
gene 2 21 25 -1.26308 0 21 -1.26308 1
gene 1 22 25 0.664627 0 22 0.664627 1
gene 1 23 25 -4.7691 0 23 -4.7691 1
gene 1 24 25 -1.15281 0 24 -1.15281 1
gene 2 1 26 0.230439 0 25 0.230439 1
gene 1 2 26 -5.12785 0 26 -5.12785 1
gene 1 3 26 -0.882597 0 27 -0.882597 0
gene 1 4 26 -1.98731 0 28 -1.98731 1
gene 2 5 26 -0.322972 0 29 -0.322972 1
gene 2 6 26 1.03681 0 30 1.03681 1
gene 3 7 26 -0.132436 0 31 -0.132436 1
gene 2 8 26 -2.44666 0 32 -2.44666 1
gene 2 9 26 0.88761 0 33 0.88761 1
gene 1 10 26 0.940114 0 34 0.940114 1
gene 2 11 26 5.87207 0 35 5.87207 1
gene 3 12 26 1.07071 0 36 1.07071 1
gene 3 13 26 -2.0419 0 37 -2.0419 1
gene 2 14 26 1.52501 0 38 1.52501 1
gene 1 15 26 -0.154918 0 39 -0.154918 0
gene 1 16 26 2.24719 0 40 2.24719 1
gene 1 17 26 1.80332 0 41 1.80332 1
gene 1 18 26 0.567264 0 42 0.567264 1
gene 3 19 26 -0.0552987 0 43 -0.0552987 1
gene 1 20 26 -2.99005 0 44 -2.99005 0
gene 1 21 26 -0.98161 0 45 -0.98161 0
gene 2 22 26 -3.00606 0 46 -3.00606 1
gene 1 23 26 1.70643 0 47 1.70643 1
gene 2 24 26 2.56838 0 48 2.56838 1
gene 2 20 40 0.00646001 0 78 0.00646001 1
gene 2 40 26 -4.13193 0 79 -4.13193 1
gene 3 16 40 3.60604 0 92 3.60604 1
gene 2 18 40 -3.49048 0 208 -3.49048 1
gene 1 21 84 4.16299 0 230 4.16299 1
gene 1 84 26 3.29424 0 231 3.29424 1
gene 1 84 25 3.90525 0 287 3.90525 1
gene 1 10 146 -0.299682 0 452 -0.299682 1
gene 1 146 26 -0.202105 0 453 -0.202105 1
gene 1 3 146 0.294701 0 467 0.294701 1
genomeend 21

/* Organism #22 Fitness: 0 Error: 0 */
genomestart 22
trait 1 0.0140625 0 0 0 0 0 0.766355 0.236574 
trait 2 0.2 0 0 0 0.108593 0 0.218725 0 
trait 3 0.3 0 0 0 0 0 0 0 
node 1 1 1 3
node 2 3 1 1
node 3 3 1 1
node 4 1 1 1
node 5 2 1 1
node 6 2 1 1
node 7 3 1 1
node 8 1 1 1
node 9 3 1 1
node 10 2 1 1
node 11 1 1 1
node 12 3 1 1
node 13 1 1 1
node 14 1 1 1
node 15 1 1 1
node 16 3 1 1
node 17 2 1 1
node 18 1 1 1
node 19 1 1 1
node 20 1 1 1
node 21 3 1 1
node 22 1 1 1
node 23 3 1 1
node 24 2 1 1
node 25 3 0 2
node 26 1 0 2
node 40 1 0 0
node 84 1 0 0
node 146 1 0 0
gene 2 1 25 1.98171 0 1 1.98171 1
gene 3 2 25 0.184753 0 2 0.184753 1
gene 1 3 25 -3.02573 0 3 -3.02573 1
gene 3 4 25 -3.46685 0 4 -3.46685 1
gene 3 5 25 1.84978 0 5 1.84978 1
gene 2 6 25 2.39584 0 6 2.39584 1
gene 1 7 25 1.40597 0 7 1.40597 1
gene 3 8 25 7.45643 0 8 7.45643 1
gene 2 9 25 2.20809 0 9 2.20809 1
gene 2 10 25 6.36368 0 10 6.36368 1
gene 3 11 25 1.51638 0 11 1.51638 1
gene 3 12 25 7.58336 0 12 7.58336 1
gene 3 13 25 1.71671 0 13 1.71671 1
gene 2 14 25 3.69483 0 14 3.69483 1
gene 2 15 25 0.678535 0 15 0.678535 1
gene 3 16 25 0.310636 0 16 0.310636 1
gene 1 17 25 -2.39098 0 17 -2.39098 1
gene 1 18 25 3.91454 0 18 3.91454 1
gene 3 19 25 -0.187918 0 19 -0.187918 1
gene 3 20 25 0.626832 0 20 0.626832 1
gene 2 21 25 -4.73767 0 21 -4.73767 1
gene 1 22 25 -1.53157 0 22 -1.53157 1
gene 1 23 25 -6.36467 0 23 -6.36467 1
gene 1 24 25 -4.57132 0 24 -4.57132 1
gene 2 1 26 0.980942 0 25 0.980942 1
gene 1 2 26 -6.81162 0 26 -6.81162 1
gene 1 3 26 0.926536 0 27 0.926536 0
gene 1 4 26 2.49434 0 28 2.49434 1
gene 2 5 26 0.430277 0 29 0.430277 1
gene 2 6 26 0.675906 0 30 0.675906 1
gene 3 7 26 -1.76935 0 31 -1.76935 1
gene 2 8 26 -0.0861795 0 32 -0.0861795 1
gene 2 9 26 1.01547 0 33 1.01547 1
gene 1 10 26 -2.56666 0 34 -2.56666 1
gene 2 11 26 -0.313329 0 35 -0.313329 1
gene 3 12 26 1.03454 0 36 1.03454 1
gene 3 13 26 -0.280263 0 37 -0.280263 1
gene 2 14 26 -0.373094 0 38 -0.373094 1
gene 1 15 26 1.28114 0 39 1.28114 0
gene 1 16 26 -0.421097 0 40 -0.421097 1
gene 1 17 26 4.524 0 41 4.524 1
gene 1 18 26 0.62734 0 42 0.62734 1
gene 3 19 26 -0.746829 0 43 -0.746829 1
gene 2 20 26 -3.04356 0 44 -3.04356 1
gene 1 21 26 1.30521 0 45 1.30521 0
gene 2 22 26 -4.30276 0 46 -4.30276 1
gene 1 23 26 -1.20876 0 47 -1.20876 1
gene 2 24 26 1.48505 0 48 1.48505 1
gene 2 20 40 -1.65376 0 78 -1.65376 1
gene 2 40 26 -3.96788 0 79 -3.96788 1
gene 3 16 40 5.47445 0 92 5.47445 1
gene 2 18 40 1.72693 0 208 1.72693 1
gene 1 21 84 2.38984 0 230 2.38984 1
gene 1 84 26 4.7307 0 231 4.7307 1
gene 1 84 25 0.776197 0 287 0.776197 1
gene 1 10 146 -2.47059 0 452 -2.47059 1
gene 1 146 26 -0.69446 0 453 -0.69446 1
gene 1 3 146 -0.950305 0 467 -0.950305 1
genomeend 22

/* Organism #23 Fitness: 0 Error: 0 */
genomestart 23
trait 1 0.0140625 0 0 0 0 0 0.766355 0.236574 
trait 2 0.2 0 0 0 0.108593 0 0.218725 0 
trait 3 0.3 0 0 0 0 0 0 0 
node 1 1 1 3
node 2 3 1 1
node 3 3 1 1
node 4 1 1 1
node 5 2 1 1
node 6 2 1 1
node 7 3 1 1
node 8 1 1 1
node 9 3 1 1
node 10 2 1 1
node 11 1 1 1
node 12 3 1 1
node 13 1 1 1
node 14 1 1 1
node 15 1 1 1
node 16 3 1 1
node 17 2 1 1
node 18 1 1 1
node 19 1 1 1
node 20 1 1 1
node 21 3 1 1
node 22 1 1 1
node 23 3 1 1
node 24 2 1 1
node 25 3 0 2
node 26 1 0 2
node 40 1 0 0
node 84 1 0 0
node 146 1 0 0
gene 2 1 25 1.36164 0 1 1.36164 1
gene 3 2 25 -2.01024 0 2 -2.01024 1
gene 1 3 25 -1.3183 0 3 -1.3183 1
gene 3 4 25 -5.23636 0 4 -5.23636 1
gene 3 5 25 -0.740842 0 5 -0.740842 1
gene 2 6 25 2.50537 0 6 2.50537 1
gene 1 7 25 -1.57484 0 7 -1.57484 1
gene 3 8 25 3.42923 0 8 3.42923 1
gene 2 9 25 1.64125 0 9 1.64125 1
gene 2 10 25 5.65436 0 10 5.65436 1
gene 3 11 25 -2.05969 0 11 -2.05969 1
gene 3 12 25 -1.66357 0 12 -1.66357 1
gene 3 13 25 4.43289 0 13 4.43289 1
gene 2 14 25 -0.519176 0 14 -0.519176 1
gene 2 15 25 2.1118 0 15 2.1118 1
gene 3 16 25 -1.59048 0 16 -1.59048 1
gene 1 17 25 0.012496 0 17 0.012496 1
gene 1 18 25 3.98523 0 18 3.98523 1
gene 3 19 25 -1.64276 0 19 -1.64276 1
gene 3 20 25 1.5626 0 20 1.5626 1
gene 2 21 25 -3.73608 0 21 -3.73608 1
gene 1 22 25 -0.0825157 0 22 -0.0825157 1
gene 1 23 25 -5.93009 0 23 -5.93009 1
gene 1 24 25 -0.935762 0 24 -0.935762 1
gene 2 1 26 -0.385378 0 25 -0.385378 1
gene 1 2 26 -3.07304 0 26 -3.07304 1
gene 1 3 26 -2.28236 0 27 -2.28236 0
gene 1 4 26 1.18799 0 28 1.18799 1
gene 2 5 26 1.352 0 29 1.352 1
gene 2 6 26 0.720536 0 30 0.720536 1
gene 3 7 26 -2.04925 0 31 -2.04925 1
gene 2 8 26 0.767679 0 32 0.767679 1
gene 2 9 26 -1.72964 0 33 -1.72964 1
gene 1 10 26 0.366937 0 34 0.366937 1
gene 2 11 26 1.20718 0 35 1.20718 1
gene 3 12 26 -0.0618284 0 36 -0.0618284 1
gene 3 13 26 -0.43501 0 37 -0.43501 1
gene 2 14 26 0.292788 0 38 0.292788 1
gene 1 15 26 1.01475 0 39 1.01475 0
gene 1 16 26 0.128447 0 40 0.128447 1
gene 1 17 26 0.930553 0 41 0.930553 1
gene 1 18 26 0.275395 0 42 0.275395 1
gene 3 19 26 0.769404 0 43 0.769404 1
gene 2 20 26 -6.97253 0 44 -6.97253 0
gene 1 21 26 4.33708 0 45 4.33708 0
gene 2 22 26 -5.0346 0 46 -5.0346 1
gene 1 23 26 0.927303 0 47 0.927303 1
gene 2 24 26 1.94836 0 48 1.94836 1
gene 2 20 40 1.1175 0 78 1.1175 1
gene 2 40 26 -6.0118 0 79 -6.0118 1
gene 3 16 40 3.30513 0 92 3.30513 1
gene 2 18 40 -2.30884 0 208 -2.30884 1
gene 1 21 84 5.4353 0 230 5.4353 1
gene 1 84 26 4.65857 0 231 4.65857 1
gene 1 84 25 4.58076 0 287 4.58076 1
gene 1 10 146 -1.17349 0 452 -1.17349 1
gene 1 146 26 -0.250508 0 453 -0.250508 1
gene 1 3 146 -1.83768 0 467 -1.83768 1
genomeend 23

/* Species #38 : (Size 23) (AF 214.126) (Age 15)  */


/* Organism #24 Fitness: 937.968 Error: 0 */
genomestart 24
trait 1 0.0140625 0 0 0 0 0 0.766355 0.236574 
trait 2 0.2 0 0.356131 0 0.0542967 0.469365 0.218725 0 
trait 3 0.3 0 0 0 0 0 0 0 
node 1 1 1 3
node 2 3 1 1
node 3 3 1 1
node 4 1 1 1
node 5 2 1 1
node 6 2 1 1
node 7 3 1 1
node 8 1 1 1
node 9 3 1 1
node 10 2 1 1
node 11 1 1 1
node 12 3 1 1
node 13 1 1 1
node 14 1 1 1
node 15 1 1 1
node 16 3 1 1
node 17 2 1 1
node 18 1 1 1
node 19 1 1 1
node 20 1 1 1
node 21 3 1 1
node 22 1 1 1
node 23 3 1 1
node 24 2 1 1
node 25 3 0 2
node 26 1 0 2
node 40 1 0 0
node 84 1 0 0
node 145 1 0 0
node 206 1 0 0
gene 2 1 25 2.38145 0 1 2.38145 1
gene 3 2 25 -2.00468 0 2 -2.00468 1
gene 1 3 25 -2.12498 0 3 -2.12498 1
gene 3 4 25 -3.15745 0 4 -3.15745 1
gene 3 5 25 -0.740842 0 5 -0.740842 1
gene 2 6 25 0.85204 0 6 0.85204 1
gene 1 7 25 -0.650992 0 7 -0.650992 0
gene 3 8 25 5.88046 0 8 5.88046 1
gene 2 9 25 3.14537 0 9 3.14537 1
gene 2 10 25 8 0 10 8 1
gene 3 11 25 -0.717373 0 11 -0.717373 1
gene 3 12 25 4.33878 0 12 4.33878 1
gene 3 13 25 4.88668 0 13 4.88668 1
gene 2 14 25 1.9912 0 14 1.9912 1
gene 2 15 25 2.1016 0 15 2.1016 1
gene 3 16 25 -1.13397 0 16 -1.13397 1
gene 1 17 25 -0.77045 0 17 -0.77045 1
gene 1 18 25 2.15466 0 18 2.15466 1
gene 3 19 25 -1.63369 0 19 -1.63369 1
gene 3 20 25 3.46323 0 20 3.46323 1
gene 2 21 25 -2.21019 0 21 -2.21019 1
gene 1 22 25 0.982202 0 22 0.982202 1
gene 1 23 25 -4.77976 0 23 -4.77976 1
gene 1 24 25 -2.69182 0 24 -2.69182 1
gene 2 1 26 0.293746 0 25 0.293746 1
gene 1 2 26 -5.24098 0 26 -5.24098 1
gene 1 3 26 0.193835 0 27 0.193835 1
gene 1 4 26 1.71548 0 28 1.71548 1
gene 2 5 26 1.28473 0 29 1.28473 1
gene 2 6 26 0.739736 0 30 0.739736 1
gene 3 7 26 -0.0735129 0 31 -0.0735129 1
gene 2 8 26 -1.13385 0 32 -1.13385 1
gene 2 9 26 3.02358 0 33 3.02358 1
gene 1 10 26 -0.365598 0 34 -0.365598 1
gene 2 11 26 3.38813 0 35 3.38813 1
gene 3 12 26 0.314542 0 36 0.314542 0
gene 3 13 26 -2.18239 0 37 -2.18239 1
gene 2 14 26 1.7011 0 38 1.7011 1
gene 1 15 26 0.897026 0 39 0.897026 0
gene 1 16 26 -0.173637 0 40 -0.173637 1
gene 1 17 26 2.49674 0 41 2.49674 1
gene 1 18 26 0.636218 0 42 0.636218 1
gene 3 19 26 -1.42321 0 43 -1.42321 1
gene 2 20 26 -4.41328 0 44 -4.41328 0
gene 1 21 26 2.17451 0 45 2.17451 0
gene 2 22 26 -3.42326 0 46 -3.42326 1
gene 1 23 26 0.392406 0 47 0.392406 1
gene 2 24 26 1.05854 0 48 1.05854 1
gene 2 20 40 -2.54321 0 78 -2.54321 0
gene 2 40 26 -5.87564 0 79 -5.87564 1
gene 3 16 40 4.27363 0 92 4.27363 1
gene 2 18 40 -3.49048 0 208 -3.49048 1
gene 1 21 84 5.29317 0 230 5.29317 1
gene 1 84 26 3.29445 0 231 3.29445 1
gene 1 84 25 2.92732 0 287 2.92732 1
gene 2 20 145 1 0 450 0 1
gene 2 145 40 -2.27355 0 451 0 1
gene 3 7 145 0.383036 0 476 0.383036 1
gene 3 1 40 -0.211183 0 496 -0.211183 1
gene 1 2 40 0.89578 0 538 0.89578 1
gene 1 7 84 0.347961 0 551 0.347961 1
gene 2 18 84 -0.460834 0 623 -0.460834 1
gene 2 9 40 0.406616 0 628 0.406616 1
gene 1 7 206 1 0 649 0 1
gene 1 206 25 -0.650992 0 650 0 1
genomeend 24

/* Organism #25 Fitness: 0 Error: 0 */
genomestart 25
trait 1 0.0140625 0.047823 0 0.303816 0 0 0.766355 0.118287 
trait 2 0.2 0 0.356131 0 0.0542967 0.469365 0.218725 0 
trait 3 0.3 0 0 0 0 0 0 0 
node 1 1 1 3
node 2 3 1 1
node 3 3 1 1
node 4 1 1 1
node 5 2 1 1
node 6 2 1 1
node 7 3 1 1
node 8 1 1 1
node 9 3 1 1
node 10 2 1 1
node 11 1 1 1
node 12 3 1 1
node 13 1 1 1
node 14 1 1 1
node 15 1 1 1
node 16 3 1 1
node 17 2 1 1
node 18 1 1 1
node 19 1 1 1
node 20 1 1 1
node 21 3 1 1
node 22 1 1 1
node 23 3 1 1
node 24 2 1 1
node 25 3 0 2
node 26 1 0 2
node 40 1 0 0
node 84 1 0 0
node 145 1 0 0
node 206 1 0 0
gene 2 1 25 2.94307 0 1 2.94307 1
gene 3 2 25 -2.00468 0 2 -2.00468 1
gene 1 3 25 -2.02138 0 3 -2.02138 1
gene 3 4 25 -3.52955 0 4 -3.52955 1
gene 3 5 25 -2.85798 0 5 -2.85798 1
gene 2 6 25 -1.96498 0 6 -1.96498 1
gene 1 7 25 0.446022 0 7 0.446022 0
gene 3 8 25 5.88046 0 8 5.88046 1
gene 2 9 25 3.14537 0 9 3.14537 1
gene 2 10 25 5.98838 0 10 5.98838 1
gene 3 11 25 0.155031 0 11 0.155031 1
gene 3 12 25 2.6825 0 12 2.6825 1
gene 3 13 25 1.05203 0 13 1.05203 1
gene 2 14 25 1.90679 0 14 1.90679 1
gene 2 15 25 -2.32113 0 15 -2.32113 1
gene 3 16 25 -0.821441 0 16 -0.821441 1
gene 1 17 25 -2.63941 0 17 -2.63941 1
gene 1 18 25 2.0833 0 18 2.0833 1
gene 3 19 25 -2.03874 0 19 -2.03874 1
gene 3 20 25 2.28963 0 20 2.28963 1
gene 2 21 25 -1.77629 0 21 -1.77629 1
gene 1 22 25 2.99309 0 22 2.99309 1
gene 1 23 25 2.39138 0 23 2.39138 1
gene 1 24 25 0.872236 0 24 0.872236 1
gene 2 1 26 0.308838 0 25 0.308838 1
gene 1 2 26 1.26823 0 26 1.26823 1
gene 1 3 26 0.193835 0 27 0.193835 1
gene 1 4 26 1.71548 0 28 1.71548 1
gene 2 5 26 -1.17613 0 29 -1.17613 1
gene 2 6 26 2.44959 0 30 2.44959 1
gene 3 7 26 0.811509 0 31 0.811509 1
gene 2 8 26 1.76326 0 32 1.76326 1
gene 2 9 26 1.13119 0 33 1.13119 1
gene 1 10 26 0.644607 0 34 0.644607 1
gene 2 11 26 5.16053 0 35 5.16053 1
gene 3 12 26 -0.534927 0 36 -0.534927 1
gene 3 13 26 -1.76275 0 37 -1.76275 1
gene 2 14 26 0.148203 0 38 0.148203 1
gene 1 15 26 -1.47777 0 39 -1.47777 1
gene 1 16 26 -0.790275 0 40 -0.790275 1
gene 1 17 26 2.49674 0 41 2.49674 1
gene 1 18 26 -0.631212 0 42 -0.631212 1
gene 3 19 26 -1.20505 0 43 -1.20505 1
gene 2 20 26 -2.75833 0 44 -2.75833 0
gene 1 21 26 0.201534 0 45 0.201534 1
gene 2 22 26 -5.08919 0 46 -5.08919 1
gene 1 23 26 -1.36066 0 47 -1.36066 1
gene 2 24 26 -0.0961664 0 48 -0.0961664 1
gene 2 20 40 -1.42379 0 78 -1.42379 0
gene 2 40 26 -5.87564 0 79 -5.87564 1
gene 3 16 40 2.82403 0 92 2.82403 1
gene 2 18 40 -5.75542 0 208 -5.75542 1
gene 1 21 84 4.17638 0 230 4.17638 1
gene 1 84 26 3.69096 0 231 3.69096 1
gene 1 84 25 2.92732 0 287 2.92732 1
gene 2 20 145 0.334887 0 450 0.334887 1
gene 2 145 40 -0.731059 0 451 -0.731059 1
gene 3 7 145 1.79932 0 476 1.79932 1
gene 3 1 40 -0.882914 0 496 -0.882914 1
gene 1 2 40 0.588698 0 538 0.588698 1
gene 1 7 84 -1.05068 0 551 -1.05068 1
gene 2 18 84 -0.50344 0 623 -0.50344 1
gene 2 9 40 -0.0956232 0 628 -0.0956232 1
gene 1 7 206 -0.408729 0 649 -0.408729 1
gene 1 206 25 0.621285 0 650 0.621285 1
genomeend 25

/* Organism #26 Fitness: 0 Error: 0 */
genomestart 26
trait 1 0.0140625 0.047823 0 0.303816 0 0 0.766355 0.118287 
trait 2 0.2 0 0.356131 0 0.0542967 0.469365 0.218725 0 
trait 3 0.3 0 0 0 0 0 0 0 
node 1 1 1 3
node 2 3 1 1
node 3 3 1 1
node 4 1 1 1
node 5 2 1 1
node 6 2 1 1
node 7 3 1 1
node 8 1 1 1
node 9 3 1 1
node 10 2 1 1
node 11 1 1 1
node 12 3 1 1
node 13 1 1 1
node 14 1 1 1
node 15 1 1 1
node 16 3 1 1
node 17 2 1 1
node 18 1 1 1
node 19 1 1 1
node 20 1 1 1
node 21 3 1 1
node 22 1 1 1
node 23 3 1 1
node 24 2 1 1
node 25 3 0 2
node 26 1 0 2
node 40 1 0 0
node 84 1 0 0
node 145 1 0 0
node 206 1 0 0
gene 2 1 25 4.02509 0 1 4.02509 1
gene 3 2 25 0.823041 0 2 0.823041 1
gene 1 3 25 -4.10962 0 3 -4.10962 1
gene 3 4 25 -1.99373 0 4 -1.99373 1
gene 3 5 25 1.33215 0 5 1.33215 1
gene 2 6 25 0.0223598 0 6 0.0223598 1
gene 1 7 25 0.684615 0 7 0.684615 0
gene 3 8 25 6.46247 0 8 6.46247 1
gene 2 9 25 1.09439 0 9 1.09439 1
gene 2 10 25 8 0 10 8 1
gene 3 11 25 -2.69334 0 11 -2.69334 1
gene 3 12 25 5.71776 0 12 5.71776 1
gene 3 13 25 5.60819 0 13 5.60819 1
gene 2 14 25 3.42499 0 14 3.42499 1
gene 2 15 25 -2.29722 0 15 -2.29722 1
gene 3 16 25 -0.972452 0 16 -0.972452 1
gene 1 17 25 -0.77045 0 17 -0.77045 1
gene 1 18 25 -1.98289 0 18 -1.98289 1
gene 3 19 25 -1.63369 0 19 -1.63369 1
gene 3 20 25 2.71626 0 20 2.71626 1
gene 2 21 25 -3.07599 0 21 -3.07599 1
gene 1 22 25 0.982202 0 22 0.982202 1
gene 1 23 25 -5.06532 0 23 -5.06532 1
gene 1 24 25 -3.99516 0 24 -3.99516 1
gene 2 1 26 0.760362 0 25 0.760362 1
gene 1 2 26 -4.40208 0 26 -4.40208 1
gene 1 3 26 0.00542965 0 27 0.00542965 1
gene 1 4 26 1.17686 0 28 1.17686 1
gene 2 5 26 1.81077 0 29 1.81077 1
gene 2 6 26 2.39626 0 30 2.39626 1
gene 3 7 26 2.10422 0 31 2.10422 1
gene 2 8 26 -0.121089 0 32 -0.121089 1
gene 2 9 26 1.31839 0 33 1.31839 1
gene 1 10 26 -0.365598 0 34 -0.365598 1
gene 2 11 26 1.38937 0 35 1.38937 1
gene 3 12 26 2.26238 0 36 2.26238 0
gene 3 13 26 -1.01115 0 37 -1.01115 1
gene 2 14 26 2.09627 0 38 2.09627 1
gene 1 15 26 0.897026 0 39 0.897026 0
gene 1 16 26 -0.0319555 0 40 -0.0319555 1
gene 1 17 26 4.28899 0 41 4.28899 1
gene 1 18 26 2.76556 0 42 2.76556 1
gene 3 19 26 -1.45515 0 43 -1.45515 1
gene 2 20 26 -4.41328 0 44 -4.41328 0
gene 1 21 26 0.0425849 0 45 0.0425849 0
gene 2 22 26 -3.4836 0 46 -3.4836 1
gene 1 23 26 0.560686 0 47 0.560686 1
gene 2 24 26 1.05854 0 48 1.05854 1
gene 2 20 40 1.85489 0 78 1.85489 0
gene 2 40 26 -0.880748 0 79 -0.880748 1
gene 3 16 40 6.37035 0 92 6.37035 1
gene 2 18 40 -2.12188 0 208 -2.12188 1
gene 1 21 84 6.87628 0 230 6.87628 1
gene 1 84 26 -0.525795 0 231 -0.525795 1
gene 1 84 25 -2.00001 0 287 -2.00001 1
gene 2 20 145 1.47237 0 450 1.47237 1
gene 2 145 40 -2.28177 0 451 -2.28177 1
gene 3 7 145 2.49965 0 476 2.49965 1
gene 3 1 40 -1.72672 0 496 -1.72672 1
gene 1 2 40 0.89578 0 538 0.89578 1
gene 1 7 84 2.58818 0 551 2.58818 1
gene 2 18 84 1.86589 0 623 1.86589 1
gene 2 9 40 0.406616 0 628 0.406616 1
gene 1 7 206 1.29578 0 649 1.29578 1
gene 1 206 25 -0.650992 0 650 -0.650992 1
genomeend 26

/* Organism #27 Fitness: 0 Error: 0 */
genomestart 27
trait 1 0.0140625 0.047823 0 0.303816 0 0 0.766355 0.118287 
trait 2 0.2 0 0.356131 0 0.0542967 0.469365 0.218725 0 
trait 3 0.3 0 0 0 0 0 0 0 
node 1 1 1 3
node 2 3 1 1
node 3 3 1 1
node 4 1 1 1
node 5 2 1 1
node 6 2 1 1
node 7 3 1 1
node 8 1 1 1
node 9 3 1 1
node 10 2 1 1
node 11 1 1 1
node 12 3 1 1
node 13 1 1 1
node 14 1 1 1
node 15 1 1 1
node 16 3 1 1
node 17 2 1 1
node 18 1 1 1
node 19 1 1 1
node 20 1 1 1
node 21 3 1 1
node 22 1 1 1
node 23 3 1 1
node 24 2 1 1
node 25 3 0 2
node 26 1 0 2
node 40 1 0 0
node 84 1 0 0
node 145 1 0 0
node 206 1 0 0
gene 2 1 25 0.265841 0 1 0.265841 1
gene 3 2 25 -0.425786 0 2 -0.425786 1
gene 1 3 25 -2.0703 0 3 -2.0703 1
gene 3 4 25 -4.54269 0 4 -4.54269 1
gene 3 5 25 -1.84431 0 5 -1.84431 1
gene 2 6 25 0.667134 0 6 0.667134 1
gene 1 7 25 -0.30346 0 7 -0.30346 0
gene 3 8 25 5.47177 0 8 5.47177 1
gene 2 9 25 0.969442 0 9 0.969442 1
gene 2 10 25 7.56678 0 10 7.56678 1
gene 3 11 25 -2.27319 0 11 -2.27319 1
gene 3 12 25 5.73724 0 12 5.73724 1
gene 3 13 25 2.45765 0 13 2.45765 1
gene 2 14 25 2.53416 0 14 2.53416 1
gene 2 15 25 4.27887 0 15 4.27887 1
gene 3 16 25 -0.912146 0 16 -0.912146 1
gene 1 17 25 -2.6693 0 17 -2.6693 1
gene 1 18 25 2.12393 0 18 2.12393 1
gene 3 19 25 -0.862053 0 19 -0.862053 1
gene 3 20 25 2.0142 0 20 2.0142 1
gene 2 21 25 -3.68657 0 21 -3.68657 1
gene 1 22 25 1.12659 0 22 1.12659 1
gene 1 23 25 -6.1381 0 23 -6.1381 1
gene 1 24 25 -3.6397 0 24 -3.6397 1
gene 2 1 26 -0.703705 0 25 -0.703705 1
gene 1 2 26 -7.1132 0 26 -7.1132 1
gene 1 3 26 0.063075 0 27 0.063075 1
gene 1 4 26 3.05463 0 28 3.05463 1
gene 2 5 26 3.58063 0 29 3.58063 1
gene 2 6 26 -0.701753 0 30 -0.701753 1
gene 3 7 26 -1.47373 0 31 -1.47373 1
gene 2 8 26 1.05362 0 32 1.05362 1
gene 2 9 26 4.01199 0 33 4.01199 1
gene 1 10 26 0.506819 0 34 0.506819 1
gene 2 11 26 4.85831 0 35 4.85831 1
gene 3 12 26 -1.98989 0 36 -1.98989 0
gene 1 13 26 -4.67303 0 37 -4.67303 1
gene 2 14 26 2.4055 0 38 2.4055 1
gene 1 15 26 -0.575121 0 39 -0.575121 0
gene 1 16 26 1.79623 0 40 1.79623 1
gene 1 17 26 2.47554 0 41 2.47554 1
gene 1 18 26 1.02172 0 42 1.02172 1
gene 3 19 26 -3.06505 0 43 -3.06505 1
gene 2 20 26 -4.43385 0 44 -4.43385 0
gene 1 21 26 1.42492 0 45 1.42492 0
gene 2 22 26 -1.03347 0 46 -1.03347 1
gene 1 23 26 2.17966 0 47 2.17966 1
gene 2 24 26 0.899637 0 48 0.899637 1
gene 2 20 40 -2.11945 0 78 -2.11945 0
gene 2 40 26 -7.23334 0 79 -7.23334 1
gene 3 16 40 1.82335 0 92 1.82335 1
gene 2 18 40 -3.37066 0 208 -3.37066 1
gene 1 21 84 6.37279 0 230 6.37279 1
gene 1 84 26 4.26385 0 231 4.26385 1
gene 1 84 25 5.25866 0 287 5.25866 1
gene 2 20 145 1 0 450 1 1
gene 2 145 40 -3.99255 0 451 -3.99255 1
gene 3 7 145 2.5258 0 476 2.5258 1
gene 3 1 40 0.452025 0 496 0.452025 1
gene 1 2 40 1.51274 0 538 1.51274 1
gene 1 7 84 0.347961 0 551 0.347961 1
gene 2 18 84 0.56672 0 623 0.56672 1
gene 2 9 40 1.84274 0 628 1.84274 1
gene 1 7 206 1 0 649 1 1
gene 1 206 25 -0.650992 0 650 -0.650992 1
genomeend 27

/* Organism #28 Fitness: 0 Error: 0 */
genomestart 28
trait 1 0.0140625 0 0 0 0 0 0.766355 0.236574 
trait 2 0.2 0 0.356131 0 0.0542967 0.469365 0.218725 0 
trait 3 0 0 0 0.320458 0 0 0 0 
node 1 1 1 3
node 2 3 1 1
node 3 3 1 1
node 4 1 1 1
node 5 2 1 1
node 6 2 1 1
node 7 3 1 1
node 8 1 1 1
node 9 3 1 1
node 10 2 1 1
node 11 1 1 1
node 12 3 1 1
node 13 1 1 1
node 14 1 1 1
node 15 1 1 1
node 16 3 1 1
node 17 2 1 1
node 18 1 1 1
node 19 1 1 1
node 20 1 1 1
node 21 3 1 1
node 22 1 1 1
node 23 3 1 1
node 24 2 1 1
node 25 3 0 2
node 26 1 0 2
node 40 1 0 0
node 84 1 0 0
node 145 1 0 0
node 206 1 0 0
gene 2 1 25 1.1764 0 1 1.1764 1
gene 3 2 25 0.235282 0 2 0.235282 1
gene 1 3 25 -4.45211 0 3 -4.45211 1
gene 3 4 25 -1.51077 0 4 -1.51077 1
gene 3 5 25 0.531479 0 5 0.531479 1
gene 2 6 25 2.52664 0 6 2.52664 1
gene 1 7 25 -0.95479 0 7 -0.95479 0
gene 3 8 25 3.7497 0 8 3.7497 1
gene 2 9 25 5.28293 0 9 5.28293 1
gene 2 10 25 1.74959 0 10 1.74959 1
gene 3 11 25 -1.28494 0 11 -1.28494 1
gene 3 12 25 1.85932 0 12 1.85932 1
gene 3 13 25 4.75634 0 13 4.75634 1
gene 2 14 25 0.38071 0 14 0.38071 1
gene 2 15 25 2.22697 0 15 2.22697 1
gene 3 16 25 -1.01717 0 16 -1.01717 1
gene 1 17 25 -2.37749 0 17 -2.37749 1
gene 1 18 25 0.293903 0 18 0.293903 1
gene 3 19 25 2.36762 0 19 2.36762 1
gene 3 20 25 3.3652 0 20 3.3652 1
gene 2 21 25 -2.21019 0 21 -2.21019 1
gene 1 22 25 0.982202 0 22 0.982202 1
gene 1 23 25 1.30014 0 23 1.30014 1
gene 1 24 25 -1.81553 0 24 -1.81553 1
gene 2 1 26 1.44242 0 25 1.44242 1
gene 1 2 26 -6.77783 0 26 -6.77783 1
gene 1 3 26 0.193835 0 27 0.193835 1
gene 1 4 26 -2.34216 0 28 -2.34216 1
gene 2 5 26 1.28473 0 29 1.28473 1
gene 2 6 26 -1.39672 0 30 -1.39672 1
gene 3 7 26 -0.884437 0 31 -0.884437 1
gene 2 8 26 -3.00982 0 32 -3.00982 1
gene 2 9 26 1.19177 0 33 1.19177 1
gene 1 10 26 -0.505582 0 34 -0.505582 1
gene 2 11 26 5.43208 0 35 5.43208 1
gene 3 12 26 0.21924 0 36 0.21924 0
gene 3 13 26 -3.88844 0 37 -3.88844 1
gene 2 14 26 -0.107085 0 38 -0.107085 1
gene 1 15 26 1.05342 0 39 1.05342 0
gene 1 16 26 -0.173637 0 40 -0.173637 1
gene 1 17 26 0.243424 0 41 0.243424 1
gene 1 18 26 0.819191 0 42 0.819191 1
gene 3 19 26 0.642099 0 43 0.642099 1
gene 2 20 26 -4.41328 0 44 -4.41328 0
gene 1 21 26 3.04454 0 45 3.04454 0
gene 2 22 26 -1.98856 0 46 -1.98856 1
gene 1 23 26 -0.0404249 0 47 -0.0404249 1
gene 2 24 26 3.03001 0 48 3.03001 1
gene 2 20 40 -1.1987 0 78 -1.1987 0
gene 2 40 26 -4.95607 0 79 -4.95607 1
gene 3 16 40 5.06832 0 92 5.06832 1
gene 2 18 40 -0.194231 0 208 -0.194231 1
gene 1 21 84 5.29317 0 230 5.29317 1
gene 1 84 26 5.61294 0 231 5.61294 1
gene 1 84 25 3.58621 0 287 3.58621 1
gene 2 20 145 1.60532 0 450 1.60532 1
gene 2 145 40 -3.46818 0 451 -3.46818 1
gene 3 7 145 1.14415 0 476 1.14415 1
gene 3 1 40 -1.85813 0 496 -1.85813 1
gene 1 2 40 -1.28043 0 538 -1.28043 1
gene 1 7 84 1.40623 0 551 1.40623 1
gene 2 18 84 1.33057 0 623 1.33057 1
gene 2 9 40 0.76242 0 628 0.76242 1
gene 1 7 206 2.08327 0 649 2.08327 1
gene 1 206 25 1.3284 0 650 1.3284 1
genomeend 28

/* Organism #29 Fitness: 0 Error: 0 */
genomestart 29
trait 1 0 0 0 0.607631 0 0.397823 0 0 
trait 2 0.2 0 0.356131 0 0.0542967 0.469365 0.218725 0 
trait 3 0.3 0 0 0 0 0 0 0 
node 1 1 1 3
node 2 3 1 1
node 3 3 1 1
node 4 1 1 1
node 5 2 1 1
node 6 2 1 1
node 7 3 1 1
node 8 1 1 1
node 9 3 1 1
node 10 2 1 1
node 11 1 1 1
node 12 3 1 1
node 13 1 1 1
node 14 1 1 1
node 15 1 1 1
node 16 3 1 1
node 17 2 1 1
node 18 1 1 1
node 19 1 1 1
node 20 1 1 1
node 21 3 1 1
node 22 1 1 1
node 23 3 1 1
node 24 2 1 1
node 25 3 0 2
node 26 1 0 2
node 40 1 0 0
node 84 1 0 0
node 145 1 0 0
gene 2 1 25 0.406201 0 1 0.406201 1
gene 3 2 25 0.124607 0 2 0.124607 1
gene 1 3 25 -1.86434 0 3 -1.86434 1
gene 3 4 25 -3.15745 0 4 -3.15745 1
gene 3 5 25 -2.3703 0 5 -2.3703 1
gene 2 6 25 2.82821 0 6 2.82821 1
gene 1 7 25 1.15937 0 7 1.15937 1
gene 3 8 25 6.51023 0 8 6.51023 1
gene 2 9 25 3.76203 0 9 3.76203 1
gene 2 10 25 7.36024 0 10 7.36024 1
gene 3 11 25 -1.11862 0 11 -1.11862 1
gene 3 12 25 2.62163 0 12 2.62163 1
gene 3 13 25 2.81105 0 13 2.81105 1
gene 2 14 25 3.41956 0 14 3.41956 1
gene 2 15 25 2.14798 0 15 2.14798 1
gene 3 16 25 -3.2373 0 16 -3.2373 1
gene 1 17 25 -0.615628 0 17 -0.615628 1
gene 1 18 25 2.38129 0 18 2.38129 1
gene 3 19 25 0.80959 0 19 0.80959 1
gene 3 20 25 1.33528 0 20 1.33528 1
gene 2 21 25 -0.439462 0 21 -0.439462 1
gene 1 22 25 0.982202 0 22 0.982202 1
gene 1 23 25 -3.67742 0 23 -3.67742 1
gene 1 24 25 -1.50832 0 24 -1.50832 1
gene 2 1 26 1.67306 0 25 1.67306 1
gene 1 2 26 2.30194 0 26 2.30194 1
gene 1 3 26 -1.3806 0 27 -1.3806 1
gene 1 4 26 1.99138 0 28 1.99138 1
gene 2 5 26 2.25123 0 29 2.25123 1
gene 2 6 26 2.02008 0 30 2.02008 1
gene 3 7 26 -1.61958 0 31 -1.61958 1
gene 2 8 26 1.23893 0 32 1.23893 1
gene 2 9 26 5.51179 0 33 5.51179 1
gene 1 10 26 2.15823 0 34 2.15823 1
gene 2 11 26 1.67251 0 35 1.67251 1
gene 3 12 26 -0.716125 0 36 -0.716125 0
gene 3 13 26 -4.26193 0 37 -4.26193 1
gene 2 14 26 0.0284819 0 38 0.0284819 1
gene 1 15 26 1.33667 0 39 1.33667 0
gene 1 16 26 1.32366 0 40 1.32366 1
gene 1 17 26 2.01142 0 41 2.01142 1
gene 1 18 26 0.941184 0 42 0.941184 1
gene 3 19 26 -1.24984 0 43 -1.24984 1
gene 2 20 26 -2.16618 0 44 -2.16618 0
gene 1 21 26 1.96276 0 45 1.96276 0
gene 2 22 26 -1.56681 0 46 -1.56681 1
gene 1 23 26 1.70361 0 47 1.70361 1
gene 2 24 26 3.4666 0 48 3.4666 1
gene 2 20 40 -2.54321 0 78 -2.54321 0
gene 2 40 26 -7.88761 0 79 -7.88761 1
gene 3 16 40 6.46362 0 92 6.46362 1
gene 2 18 40 -4.99168 0 208 -4.99168 1
gene 1 21 84 5.29317 0 230 5.29317 1
gene 1 84 26 4.26219 0 231 4.26219 1
gene 1 84 25 2.92732 0 287 2.92732 1
gene 2 20 145 0.737587 0 450 0.737587 1
gene 2 145 40 -3.60383 0 451 -3.60383 1
gene 3 7 145 -0.30388 0 476 -0.30388 1
gene 3 1 40 -0.211183 0 496 -0.211183 1
gene 1 2 40 -0.164912 0 538 -0.164912 1
gene 1 7 84 -1.47672 0 551 -1.47672 1
gene 2 18 84 1.98541 0 623 1.98541 1
gene 2 9 40 -1.25771 0 628 -1.25771 1
genomeend 29

/* Organism #30 Fitness: 944.295 Error: 0 */
genomestart 30
trait 1 0.0140625 0.0956461 0 0.607631 0 0 0.766355 0 
trait 2 0.2 0 0.356131 0 0.0542967 0.469365 0.218725 0 
trait 3 0.3 0 0 0 0 0 0 0 
node 1 1 1 3
node 2 3 1 1
node 3 3 1 1
node 4 1 1 1
node 5 2 1 1
node 6 2 1 1
node 7 3 1 1
node 8 1 1 1
node 9 3 1 1
node 10 2 1 1
node 11 1 1 1
node 12 3 1 1
node 13 1 1 1
node 14 1 1 1
node 15 1 1 1
node 16 3 1 1
node 17 2 1 1
node 18 1 1 1
node 19 1 1 1
node 20 1 1 1
node 21 3 1 1
node 22 1 1 1
node 23 3 1 1
node 24 2 1 1
node 25 3 0 2
node 26 1 0 2
node 40 1 0 0
node 84 1 0 0
node 145 1 0 0
gene 2 1 25 2.38145 0 1 2.38145 1
gene 3 2 25 -2.00468 0 2 -2.00468 1
gene 1 3 25 -2.12498 0 3 -2.12498 1
gene 3 4 25 -3.15745 0 4 -3.15745 1
gene 3 5 25 -0.740842 0 5 -0.740842 1
gene 2 6 25 0.85204 0 6 0.85204 1
gene 1 7 25 -0.650992 0 7 -0.650992 1
gene 3 8 25 5.88046 0 8 5.88046 1
gene 2 9 25 3.14537 0 9 3.14537 1
gene 2 10 25 8 0 10 8 1
gene 3 11 25 -0.717373 0 11 -0.717373 1
gene 3 12 25 4.33878 0 12 4.33878 1
gene 3 13 25 4.88668 0 13 4.88668 1
gene 2 14 25 1.9912 0 14 1.9912 1
gene 2 15 25 2.1016 0 15 2.1016 1
gene 3 16 25 -1.13397 0 16 -1.13397 1
gene 1 17 25 -0.77045 0 17 -0.77045 1
gene 1 18 25 2.15466 0 18 2.15466 1
gene 3 19 25 -1.63369 0 19 -1.63369 1
gene 3 20 25 3.46323 0 20 3.46323 1
gene 2 21 25 -2.21019 0 21 -2.21019 1
gene 1 22 25 0.982202 0 22 0.982202 1
gene 1 23 25 -4.77976 0 23 -4.77976 1
gene 1 24 25 -2.69182 0 24 -2.69182 1
gene 2 1 26 0.293746 0 25 0.293746 1
gene 1 2 26 -5.24098 0 26 -5.24098 1
gene 1 3 26 0.193835 0 27 0.193835 1
gene 1 4 26 1.71548 0 28 1.71548 1
gene 2 5 26 1.28473 0 29 1.28473 1
gene 2 6 26 0.739736 0 30 0.739736 1
gene 3 7 26 -0.0735129 0 31 -0.0735129 1
gene 2 8 26 -1.13385 0 32 -1.13385 1
gene 2 9 26 3.02358 0 33 3.02358 1
gene 1 10 26 -0.365598 0 34 -0.365598 1
gene 2 11 26 3.38813 0 35 3.38813 1
gene 3 12 26 0.314542 0 36 0.314542 0
gene 3 13 26 -2.18239 0 37 -2.18239 1
gene 2 14 26 1.7011 0 38 1.7011 1
gene 1 15 26 0.897026 0 39 0.897026 0
gene 1 16 26 -0.173637 0 40 -0.173637 1
gene 1 17 26 2.49674 0 41 2.49674 1
gene 1 18 26 0.636218 0 42 0.636218 1
gene 3 19 26 -1.42321 0 43 -1.42321 1
gene 2 20 26 -4.41328 0 44 -4.41328 0
gene 1 21 26 2.17451 0 45 2.17451 0
gene 2 22 26 -3.42326 0 46 -3.42326 1
gene 1 23 26 0.392406 0 47 0.392406 1
gene 2 24 26 1.05854 0 48 1.05854 1
gene 2 20 40 -2.54321 0 78 -2.54321 0
gene 2 40 26 -5.87564 0 79 -5.87564 1
gene 3 16 40 4.27363 0 92 4.27363 1
gene 2 18 40 -3.49048 0 208 -3.49048 1
gene 1 21 84 5.29317 0 230 5.29317 1
gene 1 84 26 3.29445 0 231 3.29445 1
gene 1 84 25 2.92732 0 287 2.92732 1
gene 2 20 145 1 0 450 0 1
gene 2 145 40 -2.27355 0 451 0 1
gene 3 7 145 0.383036 0 476 0.383036 1
gene 3 1 40 -0.211183 0 496 -0.211183 1
gene 1 2 40 0.89578 0 538 0.89578 1
gene 1 7 84 0.347961 0 551 0.347961 1
gene 2 18 84 -0.460834 0 623 -0.460834 1
gene 2 9 40 0.406616 0 628 0.406616 1
genomeend 30

/* Organism #31 Fitness: 0 Error: 0 */
genomestart 31
trait 1 0.0140625 0.047823 0 0.303816 0 0 0.766355 0.118287 
trait 2 0.2 0 0.356131 0 0.0542967 0.469365 0.218725 0 
trait 3 0.3 0 0 0 0 0 0 0 
node 1 1 1 3
node 2 3 1 1
node 3 3 1 1
node 4 1 1 1
node 5 2 1 1
node 6 2 1 1
node 7 3 1 1
node 8 1 1 1
node 9 3 1 1
node 10 2 1 1
node 11 1 1 1
node 12 3 1 1
node 13 1 1 1
node 14 1 1 1
node 15 1 1 1
node 16 3 1 1
node 17 2 1 1
node 18 1 1 1
node 19 1 1 1
node 20 1 1 1
node 21 3 1 1
node 22 1 1 1
node 23 3 1 1
node 24 2 1 1
node 25 3 0 2
node 26 1 0 2
node 40 1 0 0
node 84 1 0 0
node 145 1 0 0
gene 2 1 25 3.97109 0 1 3.97109 1
gene 3 2 25 -0.306629 0 2 -0.306629 1
gene 1 3 25 -2.12498 0 3 -2.12498 1
gene 3 4 25 -2.02823 0 4 -2.02823 1
gene 3 5 25 -2.78508 0 5 -2.78508 1
gene 2 6 25 0.85204 0 6 0.85204 1
gene 1 7 25 0.87937 0 7 0.87937 1
gene 3 8 25 5.39849 0 8 5.39849 1
gene 2 9 25 2.99064 0 9 2.99064 1
gene 2 10 25 8 0 10 8 1
gene 3 11 25 -2.28796 0 11 -2.28796 1
gene 3 12 25 3.29787 0 12 3.29787 1
gene 3 13 25 7.22295 0 13 7.22295 1
gene 2 14 25 2.89313 0 14 2.89313 1
gene 2 15 25 1.09568 0 15 1.09568 1
gene 3 16 25 -0.783949 0 16 -0.783949 1
gene 1 17 25 -0.77045 0 17 -0.77045 1
gene 1 18 25 1.85085 0 18 1.85085 1
gene 3 19 25 -0.178694 0 19 -0.178694 1
gene 3 20 25 5.51456 0 20 5.51456 1
gene 2 21 25 -2.03559 0 21 -2.03559 1
gene 1 22 25 1.90342 0 22 1.90342 1
gene 1 23 25 -4.23047 0 23 -4.23047 1
gene 1 24 25 -3.05835 0 24 -3.05835 1
gene 2 1 26 -2.05694 0 25 -2.05694 1
gene 1 2 26 -6.33682 0 26 -6.33682 1
gene 1 3 26 2.57114 0 27 2.57114 1
gene 1 4 26 4.11554 0 28 4.11554 1
gene 2 5 26 1.28473 0 29 1.28473 1
gene 2 6 26 1.33919 0 30 1.33919 1
gene 3 7 26 1.53763 0 31 1.53763 1
gene 2 8 26 -1.13385 0 32 -1.13385 1
gene 2 9 26 1.61941 0 33 1.61941 1
gene 1 10 26 -1.73676 0 34 -1.73676 1
gene 2 11 26 1.15476 0 35 1.15476 1
gene 3 12 26 1.56484 0 36 1.56484 0
gene 3 13 26 -3.641 0 37 -3.641 1
gene 2 14 26 3.58978 0 38 3.58978 1
gene 1 15 26 0.374541 0 39 0.374541 0
gene 1 16 26 -0.158883 0 40 -0.158883 1
gene 1 17 26 1.42682 0 41 1.42682 1
gene 1 18 26 0.258568 0 42 0.258568 1
gene 3 19 26 -2.54482 0 43 -2.54482 1
gene 2 20 26 -5.40859 0 44 -5.40859 0
gene 1 21 26 -0.781596 0 45 -0.781596 0
gene 2 22 26 -1.84711 0 46 -1.84711 1
gene 1 23 26 -0.836584 0 47 -0.836584 1
gene 2 24 26 -0.153841 0 48 -0.153841 1
gene 2 20 40 -2.34166 0 78 -2.34166 1
gene 2 40 26 -6.20277 0 79 -6.20277 1
gene 3 16 40 4.35554 0 92 4.35554 1
gene 2 18 40 -4.99194 0 208 -4.99194 1
gene 1 21 84 5.80019 0 230 5.80019 1
gene 1 84 26 3.14657 0 231 3.14657 1
gene 1 84 25 2.92732 0 287 2.92732 1
gene 2 20 145 3.28572 0 450 3.28572 1
gene 2 145 40 -0.729229 0 451 -0.729229 1
gene 3 7 145 0.998385 0 476 0.998385 1
gene 3 1 40 -0.704426 0 496 -0.704426 1
gene 1 2 40 2.3338 0 538 2.3338 1
gene 1 7 84 2.28012 0 551 2.28012 1
gene 2 18 84 -0.460834 0 623 -0.460834 1
gene 2 9 40 -0.750882 0 628 -0.750882 1
genomeend 31

/* Organism #32 Fitness: 18.8999 Error: 0 */
genomestart 32
trait 1 0.0140625 0.047823 0 0.303816 0 0 0.766355 0.118287 
trait 2 0.2 0 0.356131 0 0.0542967 0.469365 0.218725 0 
trait 3 0.3 0 0 0 0 0 0 0 
node 1 1 1 3
node 2 3 1 1
node 3 3 1 1
node 4 1 1 1
node 5 2 1 1
node 6 2 1 1
node 7 3 1 1
node 8 1 1 1
node 9 3 1 1
node 10 2 1 1
node 11 1 1 1
node 12 3 1 1
node 13 1 1 1
node 14 1 1 1
node 15 1 1 1
node 16 3 1 1
node 17 2 1 1
node 18 1 1 1
node 19 1 1 1
node 20 1 1 1
node 21 3 1 1
node 22 1 1 1
node 23 3 1 1
node 24 2 1 1
node 25 3 0 2
node 26 1 0 2
node 40 1 0 0
node 84 1 0 0
node 145 1 0 0
gene 2 1 25 3.69662 0 1 3.69662 1
gene 3 2 25 -2.29648 0 2 -2.29648 1
gene 1 3 25 -1.59606 0 3 -1.59606 1
gene 3 4 25 -4.72889 0 4 -4.72889 1
gene 3 5 25 -1.15388 0 5 -1.15388 1
gene 2 6 25 1.55365 0 6 1.55365 1
gene 1 7 25 -0.415136 0 7 -0.415136 1
gene 3 8 25 5.21606 0 8 5.21606 1
gene 2 9 25 2.28978 0 9 2.28978 1
gene 2 10 25 8 0 10 8 1
gene 3 11 25 -2.05551 0 11 -2.05551 1
gene 3 12 25 2.81341 0 12 2.81341 1
gene 3 13 25 2.58592 0 13 2.58592 1
gene 2 14 25 4.10221 0 14 4.10221 1
gene 2 15 25 -0.0736992 0 15 -0.0736992 1
gene 3 16 25 -0.353031 0 16 -0.353031 1
gene 1 17 25 -0.537902 0 17 -0.537902 1
gene 1 18 25 4.55938 0 18 4.55938 1
gene 3 19 25 0.100076 0 19 0.100076 1
gene 3 20 25 1.55417 0 20 1.55417 1
gene 2 21 25 -2.2181 0 21 -2.2181 1
gene 1 22 25 0.269738 0 22 0.269738 1
gene 1 23 25 -5.76152 0 23 -5.76152 1
gene 1 24 25 -4.03052 0 24 -4.03052 1
gene 2 1 26 -0.42694 0 25 -0.42694 1
gene 1 2 26 -3.54283 0 26 -3.54283 1
gene 1 3 26 1.50993 0 27 1.50993 1
gene 1 4 26 1.10324 0 28 1.10324 1
gene 2 5 26 0.266243 0 29 0.266243 1
gene 2 6 26 2.90975 0 30 2.90975 1
gene 3 7 26 0.551235 0 31 0.551235 1
gene 2 8 26 -2.02678 0 32 -2.02678 1
gene 2 9 26 1.0267 0 33 1.0267 1
gene 1 10 26 -0.691248 0 34 -0.691248 1
gene 2 11 26 3.51615 0 35 3.51615 1
gene 3 12 26 -0.392085 0 36 -0.392085 0
gene 3 13 26 -4.13143 0 37 -4.13143 1
gene 2 14 26 3.0054 0 38 3.0054 1
gene 1 15 26 1.81801 0 39 1.81801 0
gene 1 16 26 -0.672644 0 40 -0.672644 1
gene 1 17 26 3.3679 0 41 3.3679 1
gene 1 18 26 -1.63763 0 42 -1.63763 1
gene 3 19 26 0.712667 0 43 0.712667 1
gene 2 20 26 -4.40595 0 44 -4.40595 0
gene 1 21 26 3.27647 0 45 3.27647 0
gene 2 22 26 -2.32477 0 46 -2.32477 1
gene 1 23 26 0.923954 0 47 0.923954 1
gene 2 24 26 0.403538 0 48 0.403538 1
gene 2 20 40 -2.11576 0 78 -2.11576 0
gene 2 40 26 -6.41086 0 79 -6.41086 1
gene 3 16 40 5.04063 0 92 5.04063 1
gene 2 18 40 -3.49048 0 208 -3.49048 1
gene 1 21 84 5.06247 0 230 5.06247 1
gene 1 84 26 1.98832 0 231 1.98832 1
gene 1 84 25 2.92732 0 287 2.92732 1
gene 2 20 145 0.81608 0 450 0.81608 1
gene 2 145 40 -1.05907 0 451 -1.05907 1
gene 3 7 145 2.24091 0 476 2.24091 1
gene 3 1 40 1.95826 0 496 1.95826 1
gene 1 2 40 3.38926 0 538 3.38926 1
gene 1 7 84 0.347961 0 551 0.347961 1
gene 2 18 84 -0.67818 0 623 -0.67818 1
gene 2 9 40 0.75941 0 628 0.75941 1
genomeend 32

/* Organism #33 Fitness: 0 Error: 0 */
genomestart 33
trait 1 0.0140625 0.047823 0 0.303816 0 0 0.766355 0.118287 
trait 2 0.2 0 0.356131 0 0.0542967 0.469365 0.218725 0 
trait 3 0.3 0 0 0 0 0 0 0 
node 1 1 1 3
node 2 3 1 1
node 3 3 1 1
node 4 1 1 1
node 5 2 1 1
node 6 2 1 1
node 7 3 1 1
node 8 1 1 1
node 9 3 1 1
node 10 2 1 1
node 11 1 1 1
node 12 3 1 1
node 13 1 1 1
node 14 1 1 1
node 15 1 1 1
node 16 3 1 1
node 17 2 1 1
node 18 1 1 1
node 19 1 1 1
node 20 1 1 1
node 21 3 1 1
node 22 1 1 1
node 23 3 1 1
node 24 2 1 1
node 25 3 0 2
node 26 1 0 2
node 40 1 0 0
node 84 1 0 0
node 145 1 0 0
gene 2 1 25 3.82488 0 1 3.82488 1
gene 3 2 25 -3.13815 0 2 -3.13815 1
gene 1 3 25 -0.909546 0 3 -0.909546 1
gene 3 4 25 -0.941473 0 4 -0.941473 1
gene 3 5 25 -2.63392 0 5 -2.63392 1
gene 2 6 25 1.08079 0 6 1.08079 1
gene 1 7 25 -0.90192 0 7 -0.90192 1
gene 3 8 25 8 0 8 8 1
gene 2 9 25 3.54527 0 9 3.54527 1
gene 2 10 25 1.38535 0 10 1.38535 1
gene 3 11 25 -0.0277761 0 11 -0.0277761 1
gene 3 12 25 0.212313 0 12 0.212313 1
gene 3 13 25 2.93559 0 13 2.93559 1
gene 2 14 25 3.59117 0 14 3.59117 1
gene 2 15 25 4.58655 0 15 4.58655 1
gene 3 16 25 -2.90933 0 16 -2.90933 1
gene 1 17 25 -0.188582 0 17 -0.188582 1
gene 1 18 25 2.84587 0 18 2.84587 1
gene 3 19 25 -0.185479 0 19 -0.185479 1
gene 3 20 25 -0.791313 0 20 -0.791313 1
gene 2 21 25 0.0734015 0 21 0.0734015 1
gene 1 22 25 1.41216 0 22 1.41216 1
gene 1 23 25 -4.19981 0 23 -4.19981 1
gene 1 24 25 -2.69182 0 24 -2.69182 1
gene 2 1 26 0.293746 0 25 0.293746 1
gene 1 2 26 -3.26196 0 26 -3.26196 1
gene 1 3 26 0.372128 0 27 0.372128 1
gene 1 4 26 -0.115166 0 28 -0.115166 1
gene 2 5 26 2.49949 0 29 2.49949 1
gene 2 6 26 -1.74464 0 30 -1.74464 1
gene 3 7 26 -0.0735129 0 31 -0.0735129 1
gene 2 8 26 -0.930456 0 32 -0.930456 1
gene 2 9 26 0.860296 0 33 0.860296 1
gene 1 10 26 -0.365598 0 34 -0.365598 1
gene 2 11 26 5.79265 0 35 5.79265 1
gene 3 12 26 -0.207442 0 36 -0.207442 0
gene 3 13 26 0.14806 0 37 0.14806 1
gene 2 14 26 2.28194 0 38 2.28194 1
gene 1 15 26 0.773604 0 39 0.773604 0
gene 1 16 26 1.18443 0 40 1.18443 1
gene 1 17 26 3.16688 0 41 3.16688 1
gene 1 18 26 -1.24922 0 42 -1.24922 1
gene 3 19 26 -1.42321 0 43 -1.42321 1
gene 2 20 26 1.29648 0 44 1.29648 0
gene 1 21 26 2.17451 0 45 2.17451 0
gene 2 22 26 -2.35031 0 46 -2.35031 1
gene 1 23 26 2.17559 0 47 2.17559 1
gene 2 24 26 2.93199 0 48 2.93199 1
gene 2 20 40 -4.67829 0 78 -4.67829 1
gene 2 40 26 -5.87564 0 79 -5.87564 1
gene 3 16 40 2.28802 0 92 2.28802 1
gene 2 18 40 -1.34104 0 208 -1.34104 1
gene 1 21 84 0.330102 0 230 0.330102 1
gene 1 84 26 5.40202 0 231 5.40202 1
gene 1 84 25 1.45068 0 287 1.45068 1
gene 2 20 145 -1.21606 0 450 -1.21606 1
gene 2 145 40 -1.30485 0 451 -1.30485 1
gene 3 7 145 1.80433 0 476 1.80433 1
gene 3 1 40 -0.0306138 0 496 -0.0306138 1
gene 1 2 40 2.19321 0 538 2.19321 1
gene 1 7 84 -1.16856 0 551 -1.16856 1
gene 2 18 84 1.17325 0 623 1.17325 1
gene 2 9 40 1.60467 0 628 1.60467 1
genomeend 33

/* Organism #34 Fitness: 0 Error: 0 */
genomestart 34
trait 1 0.0140625 0 0 0 0 0 0.766355 0.236574 
trait 2 0.2 0 0.356131 0 0.0542967 0.469365 0.218725 0 
trait 3 0.3 0 0 0 0 0 0 0 
node 1 1 1 3
node 2 3 1 1
node 3 3 1 1
node 4 1 1 1
node 5 2 1 1
node 6 2 1 1
node 7 3 1 1
node 8 1 1 1
node 9 3 1 1
node 10 2 1 1
node 11 1 1 1
node 12 3 1 1
node 13 1 1 1
node 14 1 1 1
node 15 1 1 1
node 16 3 1 1
node 17 2 1 1
node 18 1 1 1
node 19 1 1 1
node 20 1 1 1
node 21 3 1 1
node 22 1 1 1
node 23 3 1 1
node 24 2 1 1
node 25 3 0 2
node 26 1 0 2
node 40 1 0 0
node 84 1 0 0
node 145 1 0 0
node 206 1 0 0
gene 2 1 25 2.49076 0 1 2.49076 1
gene 3 2 25 0.0497465 0 2 0.0497465 1
gene 1 3 25 -0.269582 0 3 -0.269582 1
gene 3 4 25 -4.50409 0 4 -4.50409 1
gene 3 5 25 -2.98052 0 5 -2.98052 1
gene 2 6 25 -1.19108 0 6 -1.19108 1
gene 1 7 25 -2.73164 0 7 -2.73164 0
gene 3 8 25 6.42103 0 8 6.42103 1
gene 2 9 25 3.59427 0 9 3.59427 1
gene 2 10 25 8 0 10 8 1
gene 3 11 25 1.39841 0 11 1.39841 1
gene 3 12 25 2.57359 0 12 2.57359 1
gene 3 13 25 7.20421 0 13 7.20421 1
gene 2 14 25 4.19838 0 14 4.19838 1
gene 2 15 25 4.38353 0 15 4.38353 1
gene 3 16 25 -1.16692 0 16 -1.16692 1
gene 1 17 25 -1.70925 0 17 -1.70925 1
gene 1 18 25 1.77122 0 18 1.77122 1
gene 3 19 25 0.430207 0 19 0.430207 1
gene 3 20 25 1.63069 0 20 1.63069 1
gene 2 21 25 -2.53057 0 21 -2.53057 1
gene 1 22 25 0.565708 0 22 0.565708 1
gene 1 23 25 -3.97575 0 23 -3.97575 1
gene 1 24 25 -5.07339 0 24 -5.07339 1
gene 2 1 26 1.40391 0 25 1.40391 1
gene 1 2 26 -5.88528 0 26 -5.88528 1
gene 1 3 26 -1.69285 0 27 -1.69285 1
gene 1 4 26 1.47351 0 28 1.47351 1
gene 2 5 26 -0.919223 0 29 -0.919223 1
gene 2 6 26 0.0136467 0 30 0.0136467 1
gene 3 7 26 1.2115 0 31 1.2115 1
gene 2 8 26 -3.46689 0 32 -3.46689 1
gene 2 9 26 2.53377 0 33 2.53377 1
gene 1 10 26 2.07418 0 34 2.07418 1
gene 2 11 26 2.00399 0 35 2.00399 1
gene 3 12 26 -1.93629 0 36 -1.93629 0
gene 3 13 26 0.112559 0 37 0.112559 1
gene 2 14 26 1.88471 0 38 1.88471 1
gene 1 15 26 1.63091 0 39 1.63091 0
gene 1 16 26 -0.777664 0 40 -0.777664 1
gene 1 17 26 1.21839 0 41 1.21839 1
gene 1 18 26 0.259639 0 42 0.259639 1
gene 3 19 26 -2.87306 0 43 -2.87306 1
gene 2 20 26 -6.41853 0 44 -6.41853 0
gene 1 21 26 1.3209 0 45 1.3209 0
gene 2 22 26 -3.29846 0 46 -3.29846 1
gene 1 23 26 1.68296 0 47 1.68296 1
gene 2 24 26 3.32174 0 48 3.32174 1
gene 2 20 40 -4.42588 0 78 -4.42588 0
gene 2 40 26 -7.16224 0 79 -7.16224 1
gene 3 16 40 5.66818 0 92 5.66818 1
gene 2 18 40 -3.0084 0 208 -3.0084 1
gene 1 21 84 7.61645 0 230 7.61645 1
gene 1 84 26 0.846367 0 231 0.846367 1
gene 1 84 25 2.92732 0 287 2.92732 1
gene 2 20 145 1 0 450 1 1
gene 2 145 40 -2.27355 0 451 -2.27355 1
gene 3 7 145 -2.05079 0 476 -2.05079 1
gene 3 1 40 -2.02122 0 496 -2.02122 1
gene 1 2 40 1.72579 0 538 1.72579 1
gene 1 7 84 -0.736814 0 551 -0.736814 1
gene 2 18 84 1.21889 0 623 1.21889 1
gene 2 9 40 0.406616 0 628 0.406616 1
gene 1 7 206 1 0 649 1 1
gene 1 206 25 1.65528 0 650 1.65528 1
genomeend 34

/* Organism #35 Fitness: 107.381 Error: 0 */
genomestart 35
trait 1 0.0140625 0.0956461 0 0.607631 0 0 0.766355 0 
trait 2 0.2 0 0.356131 0 0.0542967 0.469365 0.218725 0 
trait 3 0.3 0 0 0 0 0 0 0 
node 1 1 1 3
node 2 3 1 1
node 3 3 1 1
node 4 1 1 1
node 5 2 1 1
node 6 2 1 1
node 7 2 1 1
node 8 1 1 1
node 9 3 1 1
node 10 2 1 1
node 11 1 1 1
node 12 3 1 1
node 13 1 1 1
node 14 1 1 1
node 15 1 1 1
node 16 3 1 1
node 17 2 1 1
node 18 1 1 1
node 19 1 1 1
node 20 1 1 1
node 21 3 1 1
node 22 1 1 1
node 23 3 1 1
node 24 2 1 1
node 25 3 0 2
node 26 1 0 2
node 40 1 0 0
node 84 1 0 0
node 145 1 0 0
gene 2 1 25 2.38752 0 1 2.38752 1
gene 3 2 25 -2.20547 0 2 -2.20547 1
gene 1 3 25 -2.77925 0 3 -2.77925 1
gene 3 4 25 -4.68157 0 4 -4.68157 1
gene 3 5 25 -0.761785 0 5 -0.761785 1
gene 2 6 25 0.575315 0 6 0.575315 1
gene 1 7 25 -0.0371014 0 7 -0.0371014 1
gene 3 8 25 5.64779 0 8 5.64779 1
gene 2 9 25 4.69682 0 9 4.69682 1
gene 2 10 25 8 0 10 8 1
gene 3 11 25 -2.91072 0 11 -2.91072 1
gene 3 12 25 4.04544 0 12 4.04544 1
gene 3 13 25 5.52879 0 13 5.52879 1
gene 2 14 25 0.703109 0 14 0.703109 1
gene 1 15 25 3.40903 0 15 3.40903 1
gene 3 16 25 -0.912652 0 16 -0.912652 1
gene 1 17 25 -1.44129 0 17 -1.44129 1
gene 1 18 25 4.05287 0 18 4.05287 1
gene 3 19 25 0.0441066 0 19 0.0441066 1
gene 3 20 25 2.51126 0 20 2.51126 1
gene 2 21 25 -0.532405 0 21 -0.532405 1
gene 1 22 25 2.39579 0 22 2.39579 1
gene 1 23 25 -3.76992 0 23 -3.76992 1
gene 1 24 25 -3.77868 0 24 -3.77868 1
gene 2 1 26 -1.56707 0 25 -1.56707 1
gene 1 2 26 -3.271 0 26 -3.271 1
gene 1 3 26 -0.708726 0 27 -0.708726 1
gene 1 4 26 0.244445 0 28 0.244445 1
gene 2 5 26 -0.977318 0 29 -0.977318 1
gene 2 6 26 1.94306 0 30 1.94306 1
gene 3 7 26 -1.31293 0 31 -1.31293 1
gene 2 8 26 0.563859 0 32 0.563859 1
gene 2 9 26 2.54642 0 33 2.54642 1
gene 1 10 26 -1.5708 0 34 -1.5708 1
