
/* Species #241 : (Size 13) (AF 46.8751) (Age 27)  */


/* Organism #0 Fitness: 195.936 Error: 0 */
genomestart 0
trait 1 1 1 0 0.215414 0.0782647 0.152984 0.270353 0.127238 
trait 2 0 0.959183 0 0.654548 1 0.573576 0.599192 0.969198 
trait 3 0.511214 0.117429 0 0.326972 0.451124 0.404619 0.567564 0.102175 
node 1 1 1 3
node 2 1 1 1
node 3 1 1 1
node 4 3 1 1
node 5 2 1 1
node 6 2 1 1
node 7 3 1 1
node 8 1 1 1
node 9 3 1 1
node 10 2 1 1
node 11 1 1 1
node 12 3 1 1
node 13 3 1 1
node 14 2 1 1
node 15 1 1 1
node 16 2 1 1
node 17 2 1 1
node 18 1 1 1
node 19 1 1 1
node 20 3 1 1
node 21 3 1 1
node 22 3 1 1
node 23 3 1 1
node 24 2 1 1
node 25 2 0 2
node 26 3 0 2
node 37 1 0 0
node 69 2 0 0
node 186 1 0 0
node 218 1 0 0
node 223 3 0 0
node 296 1 0 0
node 346 1 0 0
node 382 1 0 0
node 386 1 0 0
node 449 1 0 0
node 537 1 0 0
node 591 1 0 0
node 605 1 0 0
node 631 1 0 0
node 634 1 0 0
node 667 1 0 0
node 713 1 0 0
node 765 1 0 0
node 795 1 0 0
gene 2 1 25 2.28746 0 1 2.28746 1
gene 1 2 25 5.37793 0 2 5.37793 1
gene 3 3 25 -1.45729 0 3 -1.45729 1
gene 3 4 25 -1.71066 0 4 -1.71066 0
gene 3 5 25 1.63122 0 5 1.63122 1
gene 3 6 25 4.31418 0 6 4.31418 1
gene 1 7 25 -2.39129 0 7 -2.39129 1
gene 1 8 25 0.0185616 0 8 0.0185616 1
gene 1 9 25 -3.63323 0 9 -3.63323 1
gene 2 10 25 4.21249 0 10 4.21249 1
gene 3 11 25 -3.06531 0 11 -3.06531 1
gene 1 12 25 8 0 12 8 1
gene 1 13 25 2.07176 0 13 2.07176 1
gene 1 14 25 -5.01532 0 14 -5.01532 1
gene 3 15 25 7.88863 0 15 7.88863 1
gene 1 16 25 2.24468 0 16 2.24468 0
gene 1 17 25 -0.658978 0 17 -0.658978 0
gene 1 18 25 2.63138 0 18 2.63138 1
gene 3 19 25 -4.57923 0 19 -4.57923 1
gene 1 20 25 -0.095246 0 20 -0.095246 1
gene 3 21 25 0.888747 0 21 0.888747 1
gene 3 22 25 1.59873 0 22 1.59873 1
gene 3 23 25 1.48739 0 23 1.48739 1
gene 3 24 25 0.299567 0 24 0.299567 1
gene 3 1 26 -0.383277 0 25 -0.383277 1
gene 1 2 26 -7.52976 0 26 -7.52976 1
gene 3 3 26 -5.87676 0 27 -5.87676 0
gene 2 4 26 -2.57977 0 28 -2.57977 1
gene 1 5 26 -0.303708 0 29 -0.303708 0
gene 1 6 26 4.34764 0 30 4.34764 1
gene 1 7 26 2.49563 0 31 2.49563 1
gene 3 8 26 3.16721 0 32 3.16721 1
gene 3 9 26 -1.85768 0 33 -1.85768 1
gene 1 10 26 1.55337 0 34 1.55337 1
gene 1 11 26 0.380324 0 35 0.380324 1
gene 2 12 26 3.52433 0 36 3.52433 1
gene 2 13 26 -0.254812 0 37 -0.254812 1
gene 2 14 26 -3.2029 0 38 -3.2029 1
gene 3 15 26 -0.48781 0 39 -0.48781 1
gene 2 16 26 0.740922 0 40 0.740922 1
gene 1 17 26 2.76102 0 41 2.76102 1
gene 3 18 26 0.846446 0 42 0.846446 0
gene 3 19 26 3.44245 0 43 3.44245 1
gene 2 20 26 -2.58422 0 44 -2.58422 1
gene 3 21 26 1.04607 0 45 1.04607 1
gene 2 22 26 -1.96374 0 46 -1.96374 0
gene 3 23 26 2.4884 0 47 2.4884 0
gene 2 24 26 0.277144 0 48 0.277144 1
gene 3 4 37 -0.939953 0 73 -0.939953 0
gene 3 37 25 -3.19501 0 74 -3.19501 1
gene 2 14 37 3.41537 0 110 3.41537 1
gene 2 20 69 2.1044 0 175 2.1044 1
gene 2 69 26 -3.59011 0 176 -3.59011 1
gene 3 18 69 3.90073 0 190 3.90073 1
gene 1 69 37 -1.28823 0 463 -1.28823 1
gene 3 69 25 -2.58978 0 503 -2.58978 1
gene 2 16 69 -3.70603 0 572 -3.70603 1
gene 1 11 69 -2.47051 0 581 -2.47051 1
gene 2 4 186 -1.33598 0 612 -1.33598 1
gene 2 186 26 2.19768 0 613 2.19768 1
gene 2 2 69 -1.22101 0 677 -1.22101 1
gene 2 19 186 1.16628 0 720 1.16628 0
gene 3 4 218 3.58598 0 737 3.58598 1
gene 3 218 37 -1.93965 0 738 -1.93965 1
gene 2 19 223 -0.717545 0 752 -0.717545 1
gene 1 223 186 1.78431 0 753 1.78431 0
gene 1 15 37 1.35365 0 992 1.35365 0
gene 3 23 296 -0.666915 0 1006 -0.666915 1
gene 3 296 26 0.915411 0 1007 0.915411 1
gene 2 186 218 1.14331 0 1049 1.14331 1
gene 1 5 223 -1.06867 0 1077 -1.06867 1
gene 2 14 218 -2.31393 0 1172 -2.31393 0
gene 3 218 346 1.63095 0 1189 1.63095 1
gene 3 346 37 -1.39613 0 1190 -1.39613 1
gene 3 17 186 -1.20625 0 1294 -1.20625 0
gene 1 17 382 -0.634775 0 1314 -0.634775 1
gene 1 382 25 0.306647 0 1315 0.306647 0
gene 2 22 386 3.16956 0 1331 3.16956 1
gene 2 386 26 0.402372 0 1332 0.402372 1
gene 2 346 296 -0.920275 0 1431 -0.920275 1
gene 3 15 382 -0.760623 0 1485 -0.760623 1
gene 2 1 346 0.348474 0 1511 0.348474 1
gene 2 14 449 1 0 1571 0 1
gene 2 449 218 -2.31393 0 1572 0 1
gene 2 2 223 0.363871 0 1802 0.363871 1
gene 1 9 296 0.754333 0 1826 0.754333 1
gene 2 22 37 -0.716638 0 1858 -0.716638 1
gene 3 17 537 1 0 1896 0 1
gene 3 537 186 -1.20625 0 1897 0 1
gene 3 296 382 -0.626987 0 2021 -0.626987 1
gene 1 19 386 -0.972263 0 2068 -0.972263 1
gene 3 17 591 1 0 2087 0 1
gene 3 591 537 1 0 2088 0 1
gene 1 386 218 -0.163464 0 2114 -0.163464 1
gene 1 223 605 1 0 2133 0 1
gene 1 605 186 1.78431 0 2134 0 1
gene 2 18 223 -0.208909 0 2225 -0.208909 1
gene 1 19 631 1 0 2229 0 1
gene 1 631 386 -0.972263 0 2230 0 0
gene 3 3 634 1 0 2241 0 1
gene 3 634 26 -5.87676 0 2242 0 1
gene 2 69 382 0.577421 0 2261 0.577421 1
gene 3 186 69 -0.17745 0 2313 -0.17745 1
gene 3 18 667 1 0 2375 0 1
gene 3 667 26 0.846446 0 2376 0 1
gene 3 5 591 -0.217251 0 2473 -0.217251 1
gene 2 26 382 0.663119 0 2494 0.663119 1
gene 1 605 26 -0.375437 0 2510 -0.375437 1
gene 2 591 25 -0.364501 0 2545 -0.364501 1
gene 1 15 713 1 0 2555 0 1
gene 1 713 37 1.35365 0 2556 0 1
gene 3 449 346 -0.526811 0 2575 -0.526811 1
gene 1 22 186 -0.904013 0 2596 -0.904013 1
gene 2 12 69 0.13446 0 2615 0.13446 1
gene 1 382 765 1 0 2752 0 1
gene 1 765 25 0.306647 0 2753 0 1
gene 1 631 795 1 0 2848 0 1
gene 1 795 386 -0.972263 0 2849 0 1
gene 3 3 765 0.820707 0 2978 0.820707 1
genomeend 0

/* Organism #1 Fitness: 6.99688 Error: 0 */
genomestart 1
trait 1 1 1 0 0.215414 0.0782647 0.152984 0.270353 0.127238 
trait 2 0 0.853841 0 0.827274 1 0.786788 0.51007 0.508901 
trait 3 0.511214 0.117429 0 0.326972 0.451124 0.404619 0.567564 0.102175 
node 1 1 1 3
node 2 1 1 1
node 3 1 1 1
node 4 3 1 1
node 5 2 1 1
node 6 2 1 1
node 7 3 1 1
node 8 1 1 1
node 9 3 1 1
node 10 2 1 1
node 11 1 1 1
node 12 3 1 1
node 13 3 1 1
node 14 2 1 1
node 15 1 1 1
node 16 2 1 1
node 17 2 1 1
node 18 1 1 1
node 19 1 1 1
node 20 3 1 1
node 21 3 1 1
node 22 3 1 1
node 23 3 1 1
node 24 2 1 1
node 25 2 0 2
node 26 3 0 2
node 37 1 0 0
node 69 2 0 0
node 186 1 0 0
node 218 1 0 0
node 223 3 0 0
node 296 1 0 0
node 346 1 0 0
node 382 1 0 0
node 386 1 0 0
node 449 1 0 0
node 537 1 0 0
node 591 1 0 0
node 605 1 0 0
node 631 1 0 0
node 634 1 0 0
node 667 1 0 0
node 713 1 0 0
node 765 1 0 0
node 795 1 0 0
gene 2 1 25 0.384079 0 1 0.384079 1
gene 1 2 25 5.37793 0 2 5.37793 1
gene 3 3 25 -1.45729 0 3 -1.45729 1
gene 3 4 25 -2.14964 0 4 -2.14964 0
gene 3 5 25 0.127076 0 5 0.127076 1
gene 3 6 25 3.44455 0 6 3.44455 1
gene 1 7 25 -3.12177 0 7 -3.12177 1
gene 1 8 25 1.51747 0 8 1.51747 1
gene 1 9 25 -3.75495 0 9 -3.75495 1
gene 2 10 25 5.79877 0 10 5.79877 1
gene 3 11 25 -1.17708 0 11 -1.17708 1
gene 1 12 25 7.96794 0 12 7.96794 1
gene 1 13 25 0.559446 0 13 0.559446 1
gene 1 14 25 -6.75083 0 14 -6.75083 1
gene 3 15 25 7.5362 0 15 7.5362 1
gene 1 16 25 4.16008 0 16 4.16008 0
gene 1 17 25 -0.658978 0 17 -0.658978 0
gene 1 18 25 2.05843 0 18 2.05843 1
gene 3 19 25 -6.62434 0 19 -6.62434 1
gene 1 20 25 1.08188 0 20 1.08188 1
gene 3 21 25 0.888747 0 21 0.888747 1
gene 3 22 25 1.59873 0 22 1.59873 1
gene 3 23 25 -0.97653 0 23 -0.97653 1
gene 3 24 25 1.80809 0 24 1.80809 1
gene 3 1 26 0.461102 0 25 0.461102 1
gene 1 2 26 -1.49164 0 26 -1.49164 1
gene 3 3 26 -5.16588 0 27 -5.16588 0
gene 2 4 26 -1.16942 0 28 -1.16942 1
gene 1 5 26 1.15742 0 29 1.15742 0
gene 1 6 26 4.34764 0 30 4.34764 1
gene 1 7 26 0.474915 0 31 0.474915 1
gene 3 8 26 2.273 0 32 2.273 1
gene 3 9 26 -1.00714 0 33 -1.00714 1
gene 1 10 26 -0.482871 0 34 -0.482871 1
gene 1 11 26 0.00993356 0 35 0.00993356 1
gene 2 12 26 2.09196 0 36 2.09196 1
gene 2 13 26 -0.254812 0 37 -0.254812 1
gene 2 14 26 -2.74007 0 38 -2.74007 1
gene 3 15 26 -0.30023 0 39 -0.30023 1
gene 2 16 26 2.54803 0 40 2.54803 1
gene 1 17 26 4.33076 0 41 4.33076 1
gene 3 18 26 2.32279 0 42 2.32279 0
gene 3 19 26 1.88345 0 43 1.88345 1
gene 2 20 26 -3.41422 0 44 -3.41422 1
gene 3 21 26 2.07094 0 45 2.07094 1
gene 2 22 26 2.49604 0 46 2.49604 0
gene 3 23 26 4.64731 0 47 4.64731 0
gene 2 24 26 0.655951 0 48 0.655951 1
gene 3 4 37 -1.06011 0 73 -1.06011 0
gene 3 37 25 -3.19501 0 74 -3.19501 1
gene 2 14 37 5.8176 0 110 5.8176 1
gene 2 20 69 -1.51289 0 175 -1.51289 1
gene 2 69 26 -4.77881 0 176 -4.77881 1
gene 3 18 69 -1.39359 0 190 -1.39359 1
gene 1 69 37 -0.152153 0 463 -0.152153 1
gene 3 69 25 -3.85033 0 503 -3.85033 1
gene 2 16 69 -4.46467 0 572 -4.46467 1
gene 1 11 69 -2.12927 0 581 -2.12927 1
gene 2 4 186 -1.41869 0 612 -1.41869 1
gene 2 186 26 1.74556 0 613 1.74556 1
gene 2 2 69 -0.986311 0 677 -0.986311 1
gene 2 19 186 1.20826 0 720 1.20826 0
gene 3 4 218 1.19386 0 737 1.19386 1
gene 3 218 37 -0.395781 0 738 -0.395781 1
gene 2 19 223 1.31593 0 752 1.31593 1
gene 1 223 186 0.41345 0 753 0.41345 0
gene 1 15 37 -0.988398 0 992 -0.988398 0
gene 3 23 296 -1.22619 0 1006 -1.22619 1
gene 3 296 26 1.46172 0 1007 1.46172 1
gene 2 186 218 1.14331 0 1049 1.14331 1
gene 1 5 223 -3.04533 0 1077 -3.04533 1
gene 2 14 218 -0.517119 0 1172 -0.517119 0
gene 3 218 346 -0.55559 0 1189 -0.55559 1
gene 3 346 37 -1.39613 0 1190 -1.39613 1
gene 3 17 186 -1.02453 0 1294 -1.02453 0
gene 1 17 382 -2.77683 0 1314 -2.77683 1
gene 1 382 25 0.888515 0 1315 0.888515 0
gene 2 22 386 3.16956 0 1331 3.16956 1
gene 2 386 26 -1.53266 0 1332 -1.53266 1
gene 2 346 296 -0.160575 0 1431 -0.160575 1
gene 3 15 382 -1.51831 0 1485 -1.51831 1
gene 2 1 346 -1.42887 0 1511 -1.42887 1
gene 2 14 449 1.78614 0 1571 1.78614 1
gene 2 449 218 -2.31393 0 1572 -2.31393 1
gene 2 2 223 0.363871 0 1802 0.363871 1
gene 1 9 296 1.67783 0 1826 1.67783 1
gene 2 22 37 2.49339 0 1858 2.49339 1
gene 3 17 537 1.98693 0 1896 1.98693 1
gene 3 537 186 -3.45161 0 1897 -3.45161 1
gene 3 296 382 -2.18736 0 2021 -2.18736 1
gene 1 19 386 1.29279 0 2068 1.29279 1
gene 3 17 591 1 0 2087 1 1
gene 3 591 537 1.82843 0 2088 1.82843 1
gene 1 386 218 -1.91166 0 2114 -1.91166 1
gene 1 223 605 0.732061 0 2133 0.732061 1
gene 1 605 186 0.863192 0 2134 0.863192 1
gene 2 18 223 -0.287496 0 2225 -0.287496 1
gene 1 19 631 -0.228753 0 2229 -0.228753 1
gene 1 631 386 -3.40314 0 2230 -3.40314 0
gene 3 3 634 2.73128 0 2241 2.73128 1
gene 3 634 26 -5.49709 0 2242 -5.49709 1
gene 2 69 382 0.224698 0 2261 0.224698 1
gene 3 186 69 -0.947238 0 2313 -0.947238 1
gene 3 18 667 -0.849758 0 2375 -0.849758 1
gene 3 667 26 0.581316 0 2376 0.581316 1
gene 3 5 591 1.37508 0 2473 1.37508 1
gene 2 26 382 -1.65853 0 2494 -1.65853 1
gene 1 605 26 -1.56215 0 2510 -1.56215 1
gene 2 591 25 0.265866 0 2545 0.265866 1
gene 1 15 713 3.18526 0 2555 3.18526 1
gene 1 713 37 2.96476 0 2556 2.96476 1
gene 3 449 346 1.63878 0 2575 1.63878 1
gene 1 22 186 -0.27758 0 2596 -0.27758 1
gene 2 12 69 0.367684 0 2615 0.367684 1
gene 1 382 765 1.0507 0 2752 1.0507 1
gene 1 765 25 -0.94198 0 2753 -0.94198 1
gene 1 631 795 3.25049 0 2848 3.25049 1
gene 1 795 386 -1.52194 0 2849 -1.52194 1
gene 3 3 765 -0.633126 0 2978 -0.633126 1
genomeend 1

/* Organism #2 Fitness: 47.2506 Error: 0 */
genomestart 2
trait 1 1 1 0 0.215414 0.0782647 0.152984 0.270353 0.127238 
trait 2 0 0.959183 0 0.654548 1 0.573576 0.599192 0.969198 
trait 3 0.511214 0.117429 0 0.326972 0.451124 0.404619 0.567564 0.102175 
node 1 1 1 3
node 2 1 1 1
node 3 1 1 1
node 4 3 1 1
node 5 2 1 1
node 6 2 1 1
node 7 3 1 1
node 8 1 1 1
node 9 3 1 1
node 10 2 1 1
node 11 1 1 1
node 12 3 1 1
node 13 3 1 1
node 14 2 1 1
node 15 1 1 1
node 16 2 1 1
node 17 2 1 1
node 18 1 1 1
node 19 1 1 1
node 20 3 1 1
node 21 3 1 1
node 22 3 1 1
node 23 3 1 1
node 24 2 1 1
node 25 2 0 2
node 26 3 0 2
node 37 1 0 0
node 69 2 0 0
node 186 1 0 0
node 218 1 0 0
node 223 3 0 0
node 296 1 0 0
node 346 1 0 0
node 382 1 0 0
node 386 1 0 0
node 449 1 0 0
node 537 1 0 0
node 591 1 0 0
node 605 1 0 0
node 631 1 0 0
node 634 1 0 0
node 667 1 0 0
node 713 1 0 0
node 765 1 0 0
node 795 1 0 0
gene 2 1 25 -0.842319 0 1 -0.842319 1
gene 1 2 25 4.82426 0 2 4.82426 1
gene 3 3 25 -1.98744 0 3 -1.98744 1
gene 3 4 25 -1.71066 0 4 -1.71066 0
gene 3 5 25 1.0763 0 5 1.0763 1
gene 3 6 25 4.72902 0 6 4.72902 1
gene 1 7 25 -3.29642 0 7 -3.29642 1
gene 1 8 25 -1.06212 0 8 -1.06212 1
gene 1 9 25 -3.26588 0 9 -3.26588 1
gene 2 10 25 4.21249 0 10 4.21249 1
gene 3 11 25 -2.01588 0 11 -2.01588 1
gene 1 12 25 8 0 12 8 1
gene 1 13 25 2.09799 0 13 2.09799 1
gene 1 14 25 -5.80393 0 14 -5.80393 1
gene 3 15 25 8 0 15 8 1
gene 1 16 25 2.24468 0 16 2.24468 0
gene 1 17 25 -2.21869 0 17 -2.21869 0
gene 1 18 25 2.1298 0 18 2.1298 1
gene 3 19 25 -6.5989 0 19 -6.5989 1
gene 1 20 25 -2.5213 0 20 -2.5213 1
gene 3 21 25 0.888747 0 21 0.888747 1
gene 3 22 25 2.31299 0 22 2.31299 1
gene 3 23 25 1.67496 0 23 1.67496 1
gene 3 24 25 1.54789 0 24 1.54789 1
gene 3 1 26 2.45775 0 25 2.45775 1
gene 1 2 26 -7.52976 0 26 -7.52976 1
gene 3 3 26 -8 0 27 -8 0
gene 2 4 26 -2.04872 0 28 -2.04872 1
gene 1 5 26 -0.292683 0 29 -0.292683 0
gene 1 6 26 6.10563 0 30 6.10563 1
gene 1 7 26 1.24296 0 31 1.24296 1
gene 3 8 26 5.00458 0 32 5.00458 1
gene 3 9 26 -1.85768 0 33 -1.85768 1
gene 1 10 26 2.52139 0 34 2.52139 1
gene 1 11 26 2.30616 0 35 2.30616 1
gene 2 12 26 1.03021 0 36 1.03021 1
gene 2 13 26 0.332908 0 37 0.332908 1
gene 2 14 26 -5.31466 0 38 -5.31466 1
gene 3 15 26 -1.13472 0 39 -1.13472 1
gene 2 16 26 2.30147 0 40 2.30147 1
gene 1 17 26 1.67224 0 41 1.67224 1
gene 3 18 26 2.87788 0 42 2.87788 0
gene 3 19 26 2.79185 0 43 2.79185 1
gene 2 20 26 -2.64017 0 44 -2.64017 1
gene 3 21 26 2.0822 0 45 2.0822 1
gene 2 22 26 0.428887 0 46 0.428887 0
gene 3 23 26 0.998939 0 47 0.998939 0
gene 2 24 26 2.6635 0 48 2.6635 1
gene 3 4 37 -1.52484 0 73 -1.52484 0
gene 3 37 25 -2.59029 0 74 -2.59029 1
gene 2 14 37 -2.37192 0 110 -2.37192 1
gene 2 20 69 2.1044 0 175 2.1044 1
gene 2 69 26 -1.78877 0 176 -1.78877 1
gene 3 18 69 4.26612 0 190 4.26612 1
gene 1 69 37 -0.98171 0 463 -0.98171 1
gene 3 69 25 -1.00729 0 503 -1.00729 1
gene 2 16 69 -1.34457 0 572 -1.34457 1
gene 1 11 69 2.3951 0 581 2.3951 1
gene 2 4 186 0.878474 0 612 0.878474 1
gene 2 186 26 0.367133 0 613 0.367133 1
gene 2 2 69 -1.72238 0 677 -1.72238 1
gene 2 19 186 1.16628 0 720 1.16628 0
gene 3 4 218 2.98341 0 737 2.98341 1
gene 3 218 37 -2.37574 0 738 -2.37574 1
gene 2 19 223 -0.717545 0 752 -0.717545 1
gene 1 223 186 2.84897 0 753 2.84897 0
gene 1 15 37 0.0739702 0 992 0.0739702 0
gene 3 23 296 -1.84787 0 1006 -1.84787 1
gene 3 296 26 0.535185 0 1007 0.535185 1
gene 2 186 218 -2.02442 0 1049 -2.02442 1
gene 1 5 223 -1.24275 0 1077 -1.24275 1
gene 2 14 218 1.50146 0 1172 1.50146 0
gene 3 218 346 2.16892 0 1189 2.16892 1
gene 3 346 37 -0.961906 0 1190 -0.961906 1
gene 3 17 186 0.0399135 0 1294 0.0399135 0
gene 1 17 382 -0.634775 0 1314 -0.634775 1
gene 1 382 25 1.42478 0 1315 1.42478 0
gene 2 22 386 1.60931 0 1331 1.60931 1
gene 2 386 26 -0.222628 0 1332 -0.222628 1
gene 2 346 296 -0.730131 0 1431 -0.730131 1
gene 3 15 382 -0.760623 0 1485 -0.760623 1
gene 2 1 346 1.07516 0 1511 1.07516 1
gene 2 14 449 3.03366 0 1571 3.03366 1
gene 2 449 218 -2.31393 0 1572 -2.31393 1
gene 2 2 223 1.22438 0 1802 1.22438 1
gene 1 9 296 1.55229 0 1826 1.55229 1
gene 2 22 37 0.731003 0 1858 0.731003 1
gene 3 17 537 -0.408015 0 1896 -0.408015 1
gene 3 537 186 0.828509 0 1897 0.828509 1
gene 3 296 382 1.79659 0 2021 1.79659 1
gene 1 19 386 2.02376 0 2068 2.02376 1
gene 3 17 591 0.869561 0 2087 0.869561 1
gene 3 591 537 -1.2232 0 2088 -1.2232 1
gene 1 386 218 -1.06809 0 2114 -1.06809 1
gene 1 223 605 -1.1108 0 2133 -1.1108 1
gene 1 605 186 -0.505594 0 2134 -0.505594 1
gene 2 18 223 -0.202308 0 2225 -0.202308 1
gene 1 19 631 1.54058 0 2229 1.54058 1
gene 1 631 386 -1.54505 0 2230 -1.54505 0
gene 3 3 634 -1.48346 0 2241 -1.48346 1
gene 3 634 26 -1.797 0 2242 -1.797 1
gene 2 69 382 1.18751 0 2261 1.18751 1
gene 3 186 69 -2.33389 0 2313 -2.33389 1
gene 3 18 667 -0.241762 0 2375 -0.241762 1
gene 3 667 26 -0.0312527 0 2376 -0.0312527 1
gene 3 5 591 -0.527666 0 2473 -0.527666 1
gene 2 26 382 0.613282 0 2494 0.613282 1
gene 1 605 26 0.838664 0 2510 0.838664 1
gene 2 591 25 -0.00104204 0 2545 -0.00104204 1
gene 1 15 713 0.77946 0 2555 0.77946 1
gene 1 713 37 2.32914 0 2556 2.32914 1
gene 3 449 346 1.66901 0 2575 1.66901 1
gene 1 22 186 1.20422 0 2596 1.20422 1
gene 2 12 69 -0.11191 0 2615 -0.11191 1
gene 1 382 765 1.90006 0 2752 1.90006 1
gene 1 765 25 0.736447 0 2753 0.736447 1
gene 1 631 795 -1.38789 0 2848 -1.38789 1
gene 1 795 386 0.749701 0 2849 0.749701 1
gene 3 3 765 0.820707 0 2978 0.820707 1
genomeend 2

/* Organism #3 Fitness: 7.34438 Error: 0 */
genomestart 3
trait 1 1 1 0 0.215414 0.0782647 0.152984 0.270353 0.127238 
trait 2 0 0.959183 0 0.654548 1 0.573576 0.599192 0.969198 
trait 3 0.511214 0.117429 0 0.326972 0.451124 0.404619 0.567564 0.102175 
node 1 1 1 3
node 2 1 1 1
node 3 1 1 1
node 4 3 1 1
node 5 2 1 1
node 6 2 1 1
node 7 3 1 1
node 8 1 1 1
node 9 3 1 1
node 10 2 1 1
node 11 1 1 1
node 12 3 1 1
node 13 3 1 1
node 14 2 1 1
node 15 1 1 1
node 16 2 1 1
node 17 2 1 1
node 18 1 1 1
node 19 1 1 1
node 20 3 1 1
node 21 3 1 1
node 22 3 1 1
node 23 3 1 1
node 24 2 1 1
node 25 2 0 2
node 26 3 0 2
node 37 1 0 0
node 69 2 0 0
node 186 1 0 0
node 218 1 0 0
node 223 3 0 0
node 296 1 0 0
node 346 1 0 0
node 382 1 0 0
node 386 1 0 0
node 449 1 0 0
node 537 1 0 0
node 591 1 0 0
node 605 1 0 0
node 631 1 0 0
node 634 1 0 0
node 667 1 0 0
node 713 1 0 0
node 765 1 0 0
node 795 1 0 0
gene 2 1 25 4.72522 0 1 4.72522 1
gene 1 2 25 3.23522 0 2 3.23522 1
gene 3 3 25 -1.68266 0 3 -1.68266 1
gene 3 4 25 -0.592217 0 4 -0.592217 0
gene 3 5 25 -0.430139 0 5 -0.430139 1
gene 3 6 25 2.59581 0 6 2.59581 1
gene 1 7 25 -2.39129 0 7 -2.39129 1
gene 1 8 25 1.99841 0 8 1.99841 1
gene 1 9 25 -0.696342 0 9 -0.696342 1
gene 2 10 25 5.82115 0 10 5.82115 1
gene 3 11 25 -0.936098 0 11 -0.936098 1
gene 1 12 25 0.396126 0 12 0.396126 1
gene 1 13 25 -0.563101 0 13 -0.563101 1
gene 1 14 25 -3.85544 0 14 -3.85544 1
gene 3 15 25 8 0 15 8 1
gene 1 16 25 1.35117 0 16 1.35117 0
gene 1 17 25 1.73886 0 17 1.73886 0
gene 1 18 25 2.11625 0 18 2.11625 1
gene 3 19 25 -2.10949 0 19 -2.10949 1
gene 1 20 25 -0.68341 0 20 -0.68341 1
gene 3 21 25 0.501519 0 21 0.501519 1
gene 3 22 25 -0.198496 0 22 -0.198496 1
gene 3 23 25 1.55396 0 23 1.55396 1
gene 3 24 25 0.672159 0 24 0.672159 1
gene 3 1 26 -0.271868 0 25 -0.271868 1
gene 1 2 26 -6.12518 0 26 -6.12518 1
gene 3 3 26 -6.01638 0 27 -6.01638 0
gene 2 4 26 -4.12263 0 28 -4.12263 1
gene 1 5 26 -0.140837 0 29 -0.140837 0
gene 1 6 26 2.68021 0 30 2.68021 1
gene 1 7 26 2.49563 0 31 2.49563 1
gene 3 8 26 0.975559 0 32 0.975559 1
gene 3 9 26 -1.06589 0 33 -1.06589 1
gene 1 10 26 1.61024 0 34 1.61024 1
gene 1 11 26 0.380324 0 35 0.380324 1
gene 2 12 26 2.52569 0 36 2.52569 1
gene 2 13 26 -1.70984 0 37 -1.70984 1
gene 2 14 26 1.71339 0 38 1.71339 1
gene 3 15 26 -1.74137 0 39 -1.74137 1
gene 2 16 26 1.51281 0 40 1.51281 1
gene 1 17 26 4.63806 0 41 4.63806 1
gene 3 18 26 2.54465 0 42 2.54465 0
gene 3 19 26 2.81092 0 43 2.81092 1
gene 2 20 26 -0.844116 0 44 -0.844116 1
gene 3 21 26 -1.1838 0 45 -1.1838 1
gene 2 22 26 -1.35657 0 46 -1.35657 0
gene 3 23 26 1.36137 0 47 1.36137 0
gene 2 24 26 1.12138 0 48 1.12138 1
gene 3 4 37 -3.01086 0 73 -3.01086 0
gene 3 37 25 -3.20613 0 74 -3.20613 1
gene 2 14 37 3.6684 0 110 3.6684 1
gene 2 20 69 0.683876 0 175 0.683876 1
gene 2 69 26 -4.19099 0 176 -4.19099 1
gene 3 18 69 0.0706188 0 190 0.0706188 1
gene 1 69 37 0.677448 0 463 0.677448 1
gene 3 69 25 -1.19229 0 503 -1.19229 1
gene 2 16 69 -5.97662 0 572 -5.97662 1
gene 1 11 69 -4.69514 0 581 -4.69514 1
gene 2 4 186 -1.63844 0 612 -1.63844 1
gene 2 186 26 0.530711 0 613 0.530711 1
gene 2 2 69 -1.70658 0 677 -1.70658 1
gene 2 19 186 1.95567 0 720 1.95567 0
gene 3 4 218 -2.27005 0 737 -2.27005 1
gene 3 218 37 -0.719378 0 738 -0.719378 1
gene 2 19 223 -1.91177 0 752 -1.91177 1
gene 1 223 186 4.08429 0 753 4.08429 0
gene 1 15 37 1.38894 0 992 1.38894 0
gene 3 23 296 -1.52208 0 1006 -1.52208 1
gene 3 296 26 -0.557588 0 1007 -0.557588 1
gene 2 186 218 -0.642364 0 1049 -0.642364 1
gene 1 5 223 0.566476 0 1077 0.566476 1
gene 2 14 218 -3.64231 0 1172 -3.64231 0
gene 3 218 346 3.05124 0 1189 3.05124 1
gene 3 346 37 -1.35375 0 1190 -1.35375 1
gene 3 17 186 1.43477 0 1294 1.43477 0
gene 1 17 382 1.78125 0 1314 1.78125 1
gene 1 382 25 -1.689 0 1315 -1.689 0
gene 2 22 386 3.15019 0 1331 3.15019 1
gene 2 386 26 -0.116603 0 1332 -0.116603 1
gene 2 346 296 0.63133 0 1431 0.63133 1
gene 3 15 382 -0.760623 0 1485 -0.760623 1
gene 2 1 346 -0.872816 0 1511 -0.872816 1
gene 2 14 449 0.392885 0 1571 0.392885 1
gene 2 449 218 2.45115 0 1572 2.45115 1
gene 2 2 223 -2.10284 0 1802 -2.10284 1
gene 1 9 296 3.15958 0 1826 3.15958 1
gene 2 22 37 1.16424 0 1858 1.16424 1
gene 3 17 537 1.01428 0 1896 1.01428 1
gene 3 537 186 -1.68001 0 1897 -1.68001 1
gene 3 296 382 -1.59088 0 2021 -1.59088 1
gene 1 19 386 -0.439372 0 2068 -0.439372 1
gene 3 17 591 1 0 2087 1 1
gene 3 591 537 0.272353 0 2088 0.272353 1
gene 1 386 218 1.00225 0 2114 1.00225 1
gene 1 223 605 1.28166 0 2133 1.28166 1
gene 1 605 186 -2.3048 0 2134 -2.3048 1
gene 2 18 223 1.16275 0 2225 1.16275 1
gene 1 19 631 1 0 2229 1 1
gene 1 631 386 1.12531 0 2230 1.12531 0
gene 3 3 634 1 0 2241 1 1
gene 3 634 26 1.12152 0 2242 1.12152 1
gene 2 69 382 1.92035 0 2261 1.92035 1
gene 3 186 69 -0.75486 0 2313 -0.75486 1
gene 3 18 667 0.245234 0 2375 0.245234 1
gene 3 667 26 1.23523 0 2376 1.23523 1
gene 3 5 591 2.22558 0 2473 2.22558 1
gene 2 26 382 0.688624 0 2494 0.688624 1
gene 1 605 26 1.43973 0 2510 1.43973 1
gene 2 591 25 0.477315 0 2545 0.477315 1
gene 1 15 713 1.38519 0 2555 1.38519 1
gene 1 713 37 -1.99688 0 2556 -1.99688 1
gene 3 449 346 -0.514424 0 2575 -0.514424 1
gene 1 22 186 -0.904013 0 2596 -0.904013 1
gene 2 12 69 -1.81159 0 2615 -1.81159 1
gene 1 382 765 0.939326 0 2752 0.939326 1
gene 1 765 25 0.502911 0 2753 0.502911 1
gene 1 631 795 1.40759 0 2848 1.40759 1
gene 1 795 386 -1.8176 0 2849 -1.8176 1
genomeend 3

/* Organism #4 Fitness: 21.5913 Error: 0 */
genomestart 4
trait 1 1 1 0 0.215414 0.0782647 0.152984 0.270353 0.127238 
trait 2 0 0.853841 0 0.827274 1 0.786788 0.51007 0.508901 
trait 3 0.511214 0.117429 0 0.326972 0.451124 0.404619 0.567564 0.102175 
node 1 1 1 3
node 2 1 1 1
node 3 1 1 1
node 4 3 1 1
node 5 2 1 1
node 6 2 1 1
node 7 3 1 1
node 8 1 1 1
node 9 3 1 1
node 10 2 1 1
node 11 1 1 1
node 12 3 1 1
node 13 3 1 1
node 14 2 1 1
node 15 1 1 1
node 16 2 1 1
node 17 2 1 1
node 18 1 1 1
node 19 1 1 1
node 20 3 1 1
node 21 3 1 1
node 22 3 1 1
node 23 3 1 1
node 24 2 1 1
node 25 2 0 2
node 26 3 0 2
node 37 1 0 0
node 69 2 0 0
node 186 1 0 0
node 218 1 0 0
node 223 3 0 0
node 296 1 0 0
node 346 1 0 0
node 382 1 0 0
node 386 1 0 0
node 449 1 0 0
node 537 1 0 0
node 591 1 0 0
node 605 1 0 0
node 631 1 0 0
node 634 1 0 0
node 667 1 0 0
node 713 1 0 0
node 765 1 0 0
node 795 1 0 0
gene 2 1 25 0.463334 0 1 0.463334 1
gene 1 2 25 3.98221 0 2 3.98221 1
gene 3 3 25 0.912366 0 3 0.912366 1
gene 3 4 25 -3.36404 0 4 -3.36404 0
gene 3 5 25 0.439643 0 5 0.439643 1
gene 3 6 25 0.364906 0 6 0.364906 1
gene 1 7 25 -2.39129 0 7 -2.39129 1
gene 1 8 25 -0.0771746 0 8 -0.0771746 1
gene 1 9 25 -3.63323 0 9 -3.63323 1
gene 2 10 25 2.15326 0 10 2.15326 1
gene 3 11 25 -2.38031 0 11 -2.38031 1
gene 1 12 25 8 0 12 8 1
gene 1 13 25 3.21848 0 13 3.21848 1
gene 1 14 25 -3.5199 0 14 -3.5199 1
gene 3 15 25 8 0 15 8 1
gene 1 16 25 3.04262 0 16 3.04262 0
gene 1 17 25 0.997472 0 17 0.997472 0
gene 1 18 25 4.87707 0 18 4.87707 1
gene 3 19 25 -2.3767 0 19 -2.3767 1
gene 1 20 25 -0.095246 0 20 -0.095246 1
gene 3 21 25 -0.612971 0 21 -0.612971 1
gene 3 22 25 1.13469 0 22 1.13469 1
gene 3 23 25 1.77121 0 23 1.77121 1
gene 3 24 25 2.64488 0 24 2.64488 1
gene 3 1 26 -0.383277 0 25 -0.383277 1
gene 1 2 26 -5.06123 0 26 -5.06123 1
gene 3 3 26 -5.87676 0 27 -5.87676 0
gene 2 4 26 -1.18585 0 28 -1.18585 1
gene 1 5 26 -0.158641 0 29 -0.158641 0
gene 1 6 26 2.77694 0 30 2.77694 1
gene 1 7 26 0.461327 0 31 0.461327 1
gene 3 8 26 4.02723 0 32 4.02723 1
gene 3 9 26 -3.80124 0 33 -3.80124 1
gene 1 10 26 1.70795 0 34 1.70795 1
gene 1 11 26 -1.76614 0 35 -1.76614 1
gene 2 12 26 2.66548 0 36 2.66548 1
gene 2 13 26 1.40184 0 37 1.40184 1
gene 2 14 26 -2.26577 0 38 -2.26577 1
gene 3 15 26 -0.281943 0 39 -0.281943 1
gene 2 16 26 2.12907 0 40 2.12907 1
gene 1 17 26 2.90464 0 41 2.90464 1
gene 3 18 26 0.846446 0 42 0.846446 0
gene 3 19 26 3.24949 0 43 3.24949 1
gene 2 20 26 -2.41502 0 44 -2.41502 1
gene 3 21 26 -0.111411 0 45 -0.111411 1
gene 2 22 26 2.37742 0 46 2.37742 0
gene 3 23 26 4.61537 0 47 4.61537 0
gene 2 24 26 -1.78543 0 48 -1.78543 1
gene 3 4 37 0.989981 0 73 0.989981 0
gene 3 37 25 -1.58927 0 74 -1.58927 1
gene 2 14 37 2.83194 0 110 2.83194 1
gene 2 20 69 1.73969 0 175 1.73969 1
gene 2 69 26 -5.00374 0 176 -5.00374 1
gene 3 18 69 5.41475 0 190 5.41475 1
gene 1 69 37 -1.79942 0 463 -1.79942 1
gene 3 69 25 -4.45508 0 503 -4.45508 1
gene 2 16 69 -3.16114 0 572 -3.16114 1
gene 1 11 69 -3.37565 0 581 -3.37565 1
gene 2 4 186 -3.17595 0 612 -3.17595 1
gene 2 186 26 3.19214 0 613 3.19214 1
gene 2 2 69 2.43928 0 677 2.43928 1
gene 2 19 186 1.87504 0 720 1.87504 0
gene 3 4 218 5.24887 0 737 5.24887 1
gene 3 218 37 0.305592 0 738 0.305592 1
gene 2 19 223 -0.607144 0 752 -0.607144 1
gene 1 223 186 4.18914 0 753 4.18914 0
gene 1 15 37 3.84103 0 992 3.84103 0
gene 3 23 296 -0.666915 0 1006 -0.666915 1
gene 3 296 26 1.668 0 1007 1.668 1
gene 2 186 218 1.48297 0 1049 1.48297 1
gene 1 5 223 0.593984 0 1077 0.593984 1
gene 2 14 218 -3.04319 0 1172 -3.04319 0
gene 3 218 346 1.63095 0 1189 1.63095 1
gene 3 346 37 -2.36169 0 1190 -2.36169 1
gene 3 17 186 -1.20625 0 1294 -1.20625 0
gene 1 17 382 1.03439 0 1314 1.03439 1
gene 1 382 25 -1.2576 0 1315 -1.2576 0
gene 2 22 386 2.42862 0 1331 2.42862 1
gene 2 386 26 0.402372 0 1332 0.402372 1
gene 2 346 296 -0.863394 0 1431 -0.863394 1
gene 3 15 382 0.471168 0 1485 0.471168 1
gene 2 1 346 -0.37 0 1511 -0.37 1
gene 2 14 449 1.33621 0 1571 1.33621 1
gene 2 449 218 -0.0440563 0 1572 -0.0440563 1
gene 2 2 223 -0.643677 0 1802 -0.643677 1
gene 1 9 296 1.99221 0 1826 1.99221 1
gene 2 22 37 0.100344 0 1858 0.100344 1
gene 3 17 537 1.63984 0 1896 1.63984 1
gene 3 537 186 0.0552666 0 1897 0.0552666 1
gene 3 296 382 -1.93233 0 2021 -1.93233 1
gene 1 19 386 -2.73804 0 2068 -2.73804 1
gene 3 17 591 0.917884 0 2087 0.917884 1
gene 3 591 537 -0.963104 0 2088 -0.963104 1
gene 1 386 218 1.40817 0 2114 1.40817 1
gene 1 223 605 1.15294 0 2133 1.15294 1
gene 1 605 186 2.60175 0 2134 2.60175 1
gene 2 18 223 -0.678858 0 2225 -0.678858 1
gene 1 19 631 0.902148 0 2229 0.902148 1
gene 1 631 386 -2.68812 0 2230 -2.68812 0
gene 3 3 634 2.07657 0 2241 2.07657 1
gene 3 634 26 -3.71382 0 2242 -3.71382 1
gene 2 69 382 0.00846063 0 2261 0.00846063 1
gene 3 186 69 -2.20134 0 2313 -2.20134 1
gene 3 18 667 -0.649858 0 2375 -0.649858 1
gene 3 667 26 -1.56597 0 2376 -1.56597 1
gene 3 5 591 -1.45756 0 2473 -1.45756 1
gene 2 26 382 0.663119 0 2494 0.663119 1
gene 1 605 26 -1.66383 0 2510 -1.66383 1
gene 2 591 25 0.20014 0 2545 0.20014 1
gene 1 15 713 -1.76698 0 2555 -1.76698 1
gene 1 713 37 0.327733 0 2556 0.327733 1
gene 3 449 346 -3.00549 0 2575 -3.00549 1
gene 1 22 186 1.08983 0 2596 1.08983 1
gene 2 12 69 1.63185 0 2615 1.63185 1
gene 1 382 765 -0.245416 0 2752 -0.245416 1
gene 1 765 25 -1.03481 0 2753 -1.03481 1
gene 1 631 795 1.52339 0 2848 1.52339 1
gene 1 795 386 -0.972263 0 2849 -0.972263 1
genomeend 4

/* Organism #5 Fitness: 2.09972 Error: 0 */
genomestart 5
trait 1 1 1 0 0.215414 0.0782647 0.152984 0.270353 0.127238 
trait 2 0 0.959183 0 0.654548 1 0.573576 0.599192 0.969198 
trait 3 0.511214 0.117429 0 0.326972 0.451124 0.404619 0.567564 0.102175 
node 1 1 1 3
node 2 1 1 1
node 3 1 1 1
node 4 3 1 1
node 5 2 1 1
node 6 2 1 1
node 7 3 1 1
node 8 1 1 1
node 9 3 1 1
node 10 2 1 1
node 11 1 1 1
node 12 3 1 1
node 13 3 1 1
node 14 2 1 1
node 15 1 1 1
node 16 2 1 1
node 17 2 1 1
node 18 1 1 1
node 19 1 1 1
node 20 3 1 1
node 21 3 1 1
node 22 3 1 1
node 23 3 1 1
node 24 2 1 1
node 25 2 0 2
node 26 3 0 2
node 37 1 0 0
node 69 2 0 0
node 186 1 0 0
node 218 1 0 0
node 223 3 0 0
node 296 1 0 0
node 346 1 0 0
node 382 1 0 0
node 386 1 0 0
node 449 1 0 0
node 537 1 0 0
node 591 1 0 0
node 605 1 0 0
node 631 1 0 0
node 634 1 0 0
node 667 1 0 0
node 713 1 0 0
node 765 1 0 0
node 795 1 0 0
gene 2 1 25 2.4113 0 1 2.4113 1
gene 1 2 25 5.46578 0 2 5.46578 1
gene 3 3 25 -2.26322 0 3 -2.26322 1
gene 3 4 25 -2.60934 0 4 -2.60934 0
gene 3 5 25 1.97194 0 5 1.97194 1
gene 3 6 25 6.151 0 6 6.151 1
gene 1 7 25 -4.66329 0 7 -4.66329 1
gene 1 8 25 0.0185616 0 8 0.0185616 1
gene 1 9 25 -2.30644 0 9 -2.30644 1
gene 2 10 25 5.08555 0 10 5.08555 1
gene 3 11 25 -4.03497 0 11 -4.03497 1
gene 1 12 25 8 0 12 8 1
gene 1 13 25 2.07176 0 13 2.07176 1
gene 1 14 25 -6.74039 0 14 -6.74039 1
gene 3 15 25 6.96737 0 15 6.96737 1
gene 1 16 25 2.43907 0 16 2.43907 0
gene 1 17 25 -0.646236 0 17 -0.646236 0
gene 1 18 25 3.467 0 18 3.467 1
gene 3 19 25 -4.07582 0 19 -4.07582 1
gene 1 20 25 -2.4265 0 20 -2.4265 1
gene 3 21 25 2.59208 0 21 2.59208 1
gene 3 22 25 1.37306 0 22 1.37306 1
gene 3 23 25 2.69958 0 23 2.69958 1
gene 3 24 25 -1.70024 0 24 -1.70024 1
gene 3 1 26 -0.383277 0 25 -0.383277 1
gene 1 2 26 -8 0 26 -8 1
gene 3 3 26 1.89978 0 27 1.89978 0
gene 2 4 26 -0.348322 0 28 -0.348322 1
gene 1 5 26 -0.597146 0 29 -0.597146 0
gene 1 6 26 2.59558 0 30 2.59558 1
gene 1 7 26 4.7079 0 31 4.7079 1
gene 3 8 26 4.96512 0 32 4.96512 1
gene 3 9 26 -1.85768 0 33 -1.85768 1
gene 1 10 26 -0.361545 0 34 -0.361545 1
gene 1 11 26 -1.27057 0 35 -1.27057 1
gene 2 12 26 3.66981 0 36 3.66981 1
gene 2 13 26 -1.99031 0 37 -1.99031 1
gene 2 14 26 -4.39584 0 38 -4.39584 1
gene 3 15 26 -1.94584 0 39 -1.94584 1
gene 2 16 26 1.35758 0 40 1.35758 1
gene 1 17 26 -1.76464 0 41 -1.76464 1
gene 3 18 26 1.99532 0 42 1.99532 0
gene 3 19 26 -1.90402 0 43 -1.90402 1
gene 2 20 26 -2.61859 0 44 -2.61859 1
gene 3 21 26 3.31108 0 45 3.31108 1
gene 2 22 26 0.0534599 0 46 0.0534599 0
gene 3 23 26 0.758401 0 47 0.758401 0
gene 2 24 26 2.32679 0 48 2.32679 1
gene 3 4 37 0.371812 0 73 0.371812 0
gene 3 37 25 -3.17525 0 74 -3.17525 1
gene 2 14 37 2.81523 0 110 2.81523 1
gene 2 20 69 2.1044 0 175 2.1044 1
gene 2 69 26 -3.37639 0 176 -3.37639 1
gene 3 18 69 4.58551 0 190 4.58551 1
gene 1 69 37 -1.95747 0 463 -1.95747 1
gene 3 69 25 -2.81208 0 503 -2.81208 1
gene 2 16 69 -1.84138 0 572 -1.84138 1
gene 1 11 69 -2.47051 0 581 -2.47051 1
gene 2 4 186 0.37242 0 612 0.37242 1
gene 2 186 26 -0.28353 0 613 -0.28353 1
gene 2 2 69 0.275762 0 677 0.275762 1
gene 2 19 186 0.198944 0 720 0.198944 0
gene 3 4 218 3.77681 0 737 3.77681 1
gene 3 218 37 2.26404 0 738 2.26404 1
gene 2 19 223 -2.31942 0 752 -2.31942 1
gene 1 223 186 -0.570929 0 753 -0.570929 0
gene 1 15 37 -2.1696 0 992 -2.1696 0
gene 3 23 296 0.280472 0 1006 0.280472 1
gene 3 296 26 1.29619 0 1007 1.29619 1
gene 2 186 218 -0.285238 0 1049 -0.285238 1
gene 1 5 223 -3.35005 0 1077 -3.35005 1
gene 2 14 218 -4.51783 0 1172 -4.51783 0
gene 3 218 346 3.97593 0 1189 3.97593 1
gene 3 346 37 -3.50477 0 1190 -3.50477 1
gene 3 17 186 0.322999 0 1294 0.322999 0
gene 1 17 382 -1.0066 0 1314 -1.0066 1
gene 1 382 25 -0.653553 0 1315 -0.653553 0
gene 2 22 386 4.774 0 1331 4.774 1
gene 2 386 26 0.128241 0 1332 0.128241 1
gene 2 346 296 -0.474389 0 1431 -0.474389 1
gene 3 15 382 -0.760623 0 1485 -0.760623 1
gene 2 1 346 -0.777555 0 1511 -0.777555 1
gene 2 14 449 2.93378 0 1571 2.93378 1
gene 2 449 218 -4.67588 0 1572 -4.67588 1
gene 2 2 223 0.959186 0 1802 0.959186 1
gene 1 9 296 3.05744 0 1826 3.05744 1
gene 2 22 37 -0.924277 0 1858 -0.924277 1
gene 3 17 537 -0.150278 0 1896 -0.150278 1
gene 3 537 186 -1.26355 0 1897 -1.26355 1
gene 3 296 382 0.510104 0 2021 0.510104 1
gene 1 19 386 -2.84314 0 2068 -2.84314 1
gene 3 17 591 2.25541 0 2087 2.25541 1
gene 3 591 537 0.741957 0 2088 0.741957 1
gene 1 386 218 1.40614 0 2114 1.40614 1
gene 1 223 605 3.45412 0 2133 3.45412 1
gene 1 605 186 3.79778 0 2134 3.79778 1
gene 2 18 223 -0.311802 0 2225 -0.311802 1
gene 1 19 631 -0.391993 0 2229 -0.391993 1
gene 1 631 386 -2.1335 0 2230 -2.1335 0
gene 3 3 634 3.29141 0 2241 3.29141 1
gene 3 634 26 -7.08782 0 2242 -7.08782 1
gene 2 69 382 0.201559 0 2261 0.201559 1
gene 3 186 69 1.46681 0 2313 1.46681 1
gene 3 18 667 -1.35178 0 2375 -1.35178 1
gene 3 667 26 -1.61867 0 2376 -1.61867 1
gene 3 5 591 0.618813 0 2473 0.618813 1
gene 2 26 382 0.999568 0 2494 0.999568 1
gene 1 605 26 -1.61982 0 2510 -1.61982 1
gene 2 591 25 -1.65512 0 2545 -1.65512 1
gene 1 15 713 -1.12298 0 2555 -1.12298 1
gene 1 713 37 2.09129 0 2556 2.09129 1
gene 3 449 346 0.920517 0 2575 0.920517 1
gene 1 22 186 -3.14071 0 2596 -3.14071 1
gene 2 12 69 -0.339152 0 2615 -0.339152 1
gene 1 382 765 0.506792 0 2752 0.506792 1
gene 1 765 25 0.306647 0 2753 0.306647 1
gene 1 631 795 -2.4695 0 2848 -2.4695 1
gene 1 795 386 -2.90921 0 2849 -2.90921 1
genomeend 5

/* Organism #6 Fitness: 4.94153 Error: 0 */
genomestart 6
trait 1 1 1 0 0.215414 0.0782647 0.152984 0.270353 0.127238 
trait 2 0 0.959183 0 0.654548 1 0.573576 0.599192 0.969198 
trait 3 0.511214 0.117429 0 0.326972 0.451124 0.404619 0.567564 0.102175 
node 1 1 1 3
node 2 1 1 1
node 3 1 1 1
node 4 3 1 1
node 5 2 1 1
node 6 2 1 1
node 7 3 1 1
node 8 1 1 1
node 9 3 1 1
node 10 2 1 1
node 11 1 1 1
node 12 3 1 1
node 13 3 1 1
node 14 2 1 1
node 15 1 1 1
node 16 2 1 1
node 17 2 1 1
node 18 1 1 1
node 19 1 1 1
node 20 3 1 1
node 21 3 1 1
node 22 3 1 1
node 23 3 1 1
node 24 2 1 1
node 25 2 0 2
node 26 3 0 2
node 37 1 0 0
node 69 2 0 0
node 186 1 0 0
node 218 1 0 0
node 223 3 0 0
node 296 1 0 0
node 346 1 0 0
node 382 1 0 0
node 386 1 0 0
node 449 1 0 0
node 537 1 0 0
node 591 1 0 0
node 605 1 0 0
node 631 1 0 0
node 634 1 0 0
node 667 1 0 0
node 713 1 0 0
node 765 1 0 0
node 795 1 0 0
gene 2 1 25 3.14264 0 1 3.14264 1
gene 1 2 25 5.14238 0 2 5.14238 1
gene 3 3 25 -0.92427 0 3 -0.92427 1
gene 3 4 25 -1.96342 0 4 -1.96342 0
gene 3 5 25 0.203809 0 5 0.203809 1
gene 3 6 25 3.49157 0 6 3.49157 1
gene 1 7 25 -1.28829 0 7 -1.28829 1
gene 1 8 25 0.436818 0 8 0.436818 1
gene 1 9 25 -5.90985 0 9 -5.90985 1
gene 2 10 25 5.82852 0 10 5.82852 1
gene 3 11 25 -1.25419 0 11 -1.25419 1
gene 1 12 25 8 0 12 8 1
gene 1 13 25 3.22944 0 13 3.22944 1
gene 1 14 25 -4.55895 0 14 -4.55895 1
gene 3 15 25 5.52847 0 15 5.52847 1
gene 1 16 25 2.03397 0 16 2.03397 0
gene 1 17 25 0.228209 0 17 0.228209 0
gene 1 18 25 2.20992 0 18 2.20992 1
gene 3 19 25 -6.3253 0 19 -6.3253 1
gene 1 20 25 -1.69032 0 20 -1.69032 1
gene 3 21 25 2.81312 0 21 2.81312 1
gene 3 22 25 0.791076 0 22 0.791076 1
gene 3 23 25 1.76458 0 23 1.76458 1
gene 3 24 25 -0.531209 0 24 -0.531209 1
gene 3 1 26 1.46371 0 25 1.46371 1
gene 1 2 26 -8 0 26 -8 1
gene 3 3 26 -4.74333 0 27 -4.74333 0
gene 2 4 26 -0.928388 0 28 -0.928388 1
gene 1 5 26 -1.88096 0 29 -1.88096 0
gene 1 6 26 3.85412 0 30 3.85412 1
gene 1 7 26 0.233827 0 31 0.233827 1
gene 3 8 26 1.67018 0 32 1.67018 1
gene 3 9 26 -4.06628 0 33 -4.06628 1
gene 1 10 26 1.1482 0 34 1.1482 1
gene 1 11 26 1.79131 0 35 1.79131 1
gene 2 12 26 3.94676 0 36 3.94676 1
gene 2 13 26 -2.7175 0 37 -2.7175 1
gene 2 14 26 -0.711719 0 38 -0.711719 1
gene 3 15 26 -1.92407 0 39 -1.92407 1
gene 2 16 26 2.4603 0 40 2.4603 1
gene 1 17 26 1.07319 0 41 1.07319 1
gene 3 18 26 2.84977 0 42 2.84977 0
gene 3 19 26 3.56973 0 43 3.56973 1
gene 2 20 26 -2.43715 0 44 -2.43715 1
gene 3 21 26 1.75547 0 45 1.75547 1
gene 2 22 26 -3.83502 0 46 -3.83502 0
gene 3 23 26 0.70998 0 47 0.70998 0
gene 2 24 26 1.23238 0 48 1.23238 1
gene 3 4 37 -2.84794 0 73 -2.84794 0
gene 3 37 25 -2.23203 0 74 -2.23203 1
gene 2 14 37 2.14903 0 110 2.14903 1
gene 2 20 69 4.02152 0 175 4.02152 1
gene 2 69 26 -2.46678 0 176 -2.46678 1
gene 3 18 69 2.51872 0 190 2.51872 1
gene 1 69 37 -3.36805 0 463 -3.36805 1
gene 3 69 25 -2.52859 0 503 -2.52859 1
gene 2 16 69 -3.60733 0 572 -3.60733 1
gene 1 11 69 -1.1887 0 581 -1.1887 1
gene 2 4 186 0.672478 0 612 0.672478 1
gene 2 186 26 1.71643 0 613 1.71643 1
gene 2 2 69 -1.29484 0 677 -1.29484 1
gene 2 19 186 0.00638181 0 720 0.00638181 0
gene 3 4 218 2.64159 0 737 2.64159 1
gene 3 218 37 -2.29816 0 738 -2.29816 1
gene 2 19 223 -3.0846 0 752 -3.0846 1
gene 1 223 186 3.84569 0 753 3.84569 0
gene 1 15 37 3.81636 0 992 3.81636 0
gene 3 23 296 -0.0236513 0 1006 -0.0236513 1
gene 3 296 26 -1.01134 0 1007 -1.01134 1
gene 2 186 218 1.09419 0 1049 1.09419 1
gene 1 5 223 -0.504945 0 1077 -0.504945 1
gene 2 14 218 -0.259908 0 1172 -0.259908 0
gene 3 218 346 0.301859 0 1189 0.301859 1
gene 3 346 37 0.172987 0 1190 0.172987 1
gene 3 17 186 0.719262 0 1294 0.719262 0
gene 1 17 382 -0.631516 0 1314 -0.631516 1
gene 1 382 25 -0.36541 0 1315 -0.36541 0
gene 2 22 386 5.4176 0 1331 5.4176 1
gene 2 386 26 -1.04179 0 1332 -1.04179 1
gene 2 346 296 -2.10789 0 1431 -2.10789 1
gene 3 15 382 -0.248883 0 1485 -0.248883 1
gene 2 1 346 0.0923135 0 1511 0.0923135 1
gene 2 14 449 2.32323 0 1571 2.32323 1
gene 2 449 218 -0.201172 0 1572 -0.201172 1
gene 2 2 223 1.35901 0 1802 1.35901 1
gene 1 9 296 -1.36184 0 1826 -1.36184 1
gene 2 22 37 0.717815 0 1858 0.717815 1
gene 3 17 537 -1.40237 0 1896 -1.40237 1
gene 3 537 186 -0.239268 0 1897 -0.239268 1
gene 3 296 382 -2.54045 0 2021 -2.54045 1
gene 1 19 386 -2.66835 0 2068 -2.66835 1
gene 3 17 591 -0.191588 0 2087 -0.191588 1
gene 3 591 537 2.09282 0 2088 2.09282 1
gene 1 386 218 0.156863 0 2114 0.156863 1
gene 1 223 605 2.27379 0 2133 2.27379 1
gene 1 605 186 0.478678 0 2134 0.478678 1
gene 2 18 223 -0.208909 0 2225 -0.208909 1
gene 1 19 631 0.00424564 0 2229 0.00424564 1
gene 1 631 386 -0.972263 0 2230 -0.972263 0
gene 3 3 634 1 0 2241 1 1
gene 3 634 26 -5.87676 0 2242 -5.87676 1
gene 2 69 382 1.51157 0 2261 1.51157 1
gene 3 186 69 -1.54151 0 2313 -1.54151 1
gene 3 18 667 1.34891 0 2375 1.34891 1
gene 3 667 26 0.846446 0 2376 0.846446 1
gene 3 5 591 -0.516108 0 2473 -0.516108 1
gene 2 26 382 -1.226 0 2494 -1.226 1
gene 1 605 26 -0.375437 0 2510 -0.375437 1
gene 2 591 25 0.802714 0 2545 0.802714 1
gene 1 15 713 1.55617 0 2555 1.55617 1
gene 1 713 37 1.25396 0 2556 1.25396 1
gene 3 449 346 -1.57223 0 2575 -1.57223 1
gene 1 22 186 -0.904013 0 2596 -0.904013 1
gene 2 12 69 1.14795 0 2615 1.14795 1
gene 1 382 765 1 0 2752 1 1
gene 1 765 25 0.306647 0 2753 0.306647 1
gene 1 631 795 0.684086 0 2848 0.684086 1
gene 1 795 386 -0.972263 0 2849 -0.972263 1
gene 3 3 765 1.45225 0 2978 1.45225 1
genomeend 6

/* Organism #7 Fitness: 15.4905 Error: 0 */
genomestart 7
trait 1 1 1 0 0.215414 0.0782647 0.152984 0.270353 0.127238 
trait 2 0 0.959183 0 0.654548 1 0.573576 0.599192 0.969198 
trait 3 0.511214 0.117429 0 0.326972 0.451124 0.404619 0.567564 0.102175 
node 1 1 1 3
node 2 1 1 1
node 3 1 1 1
node 4 3 1 1
node 5 2 1 1
node 6 2 1 1
node 7 3 1 1
node 8 1 1 1
node 9 3 1 1
node 10 2 1 1
node 11 1 1 1
node 12 3 1 1
node 13 3 1 1
node 14 2 1 1
node 15 1 1 1
node 16 2 1 1
node 17 2 1 1
node 18 1 1 1
node 19 1 1 1
node 20 3 1 1
node 21 3 1 1
node 22 3 1 1
node 23 3 1 1
node 24 2 1 1
node 25 2 0 2
node 26 3 0 2
node 37 1 0 0
node 69 2 0 0
node 186 1 0 0
node 218 1 0 0
node 223 3 0 0
node 296 1 0 0
node 346 1 0 0
node 382 1 0 0
node 386 1 0 0
node 449 1 0 0
node 537 1 0 0
node 591 1 0 0
node 605 1 0 0
node 631 1 0 0
node 634 1 0 0
node 667 1 0 0
node 713 1 0 0
node 765 1 0 0
node 795 1 0 0
gene 2 1 25 4.52898 0 1 4.52898 1
gene 1 2 25 6.45449 0 2 6.45449 1
gene 3 3 25 -0.953331 0 3 -0.953331 1
gene 3 4 25 -2.475 0 4 -2.475 0
gene 3 5 25 1.08648 0 5 1.08648 1
gene 3 6 25 6.16312 0 6 6.16312 1
gene 1 7 25 -2.2109 0 7 -2.2109 1
gene 1 8 25 -1.6195 0 8 -1.6195 1
gene 1 9 25 -1.98699 0 9 -1.98699 1
gene 2 10 25 2.71657 0 10 2.71657 1
gene 3 11 25 -5.30384 0 11 -5.30384 1
gene 1 12 25 8 0 12 8 1
gene 1 13 25 3.23441 0 13 3.23441 1
gene 1 14 25 -5.28005 0 14 -5.28005 1
gene 3 15 25 8 0 15 8 1
gene 1 16 25 0.171481 0 16 0.171481 0
gene 1 17 25 -0.216203 0 17 -0.216203 1
gene 1 18 25 2.71261 0 18 2.71261 1
gene 3 19 25 -4.37521 0 19 -4.37521 1
gene 1 20 25 -1.86815 0 20 -1.86815 1
gene 3 21 25 2.81571 0 21 2.81571 1
gene 3 22 25 -0.419426 0 22 -0.419426 1
gene 3 23 25 -0.0127735 0 23 -0.0127735 1
gene 3 24 25 0.0305103 0 24 0.0305103 1
gene 3 1 26 0.0376067 0 25 0.0376067 1
gene 1 2 26 -7.03294 0 26 -7.03294 1
gene 3 3 26 -6.22228 0 27 -6.22228 0
gene 2 4 26 -4.11289 0 28 -4.11289 1
gene 1 5 26 -1.26279 0 29 -1.26279 0
gene 1 6 26 2.401 0 30 2.401 1
gene 1 7 26 1.79444 0 31 1.79444 1
gene 3 8 26 3.18164 0 32 3.18164 1
gene 3 9 26 -1.30973 0 33 -1.30973 1
gene 1 10 26 2.47507 0 34 2.47507 1
gene 1 11 26 -1.5235 0 35 -1.5235 1
gene 2 12 26 3.49991 0 36 3.49991 1
gene 2 13 26 1.68594 0 37 1.68594 1
gene 2 14 26 -4.04032 0 38 -4.04032 1
gene 3 15 26 -2.05489 0 39 -2.05489 1
gene 2 16 26 1.9082 0 40 1.9082 1
gene 1 17 26 1.73749 0 41 1.73749 1
gene 3 18 26 2.55998 0 42 2.55998 0
gene 3 19 26 3.90357 0 43 3.90357 1
gene 2 20 26 -2.54648 0 44 -2.54648 1
gene 3 21 26 -0.454093 0 45 -0.454093 1
gene 2 22 26 -2.96453 0 46 -2.96453 1
gene 3 23 26 2.54279 0 47 2.54279 0
gene 2 24 26 0.853091 0 48 0.853091 1
gene 3 4 37 -2.56037 0 73 -2.56037 0
gene 3 37 25 -3.39747 0 74 -3.39747 1
gene 2 14 37 4.27066 0 110 4.27066 1
gene 2 20 69 2.56138 0 175 2.56138 1
gene 2 69 26 -3.04212 0 176 -3.04212 1
gene 3 18 69 5.83817 0 190 5.83817 1
gene 1 69 37 0.767675 0 463 0.767675 1
gene 3 69 25 -4.52199 0 503 -4.52199 1
gene 2 16 69 -1.85878 0 572 -1.85878 1
gene 1 11 69 -0.437272 0 581 -0.437272 1
gene 2 4 186 -0.992424 0 612 -0.992424 1
gene 2 186 26 3.67826 0 613 3.67826 1
gene 2 2 69 -0.830539 0 677 -0.830539 1
gene 2 19 186 1.38955 0 720 1.38955 0
gene 3 4 218 2.62593 0 737 2.62593 1
gene 3 218 37 -3.12324 0 738 -3.12324 1
gene 2 19 223 -2.63597 0 752 -2.63597 1
gene 1 223 186 -0.385103 0 753 -0.385103 0
gene 1 15 37 3.00988 0 992 3.00988 0
gene 3 23 296 -2.94177 0 1006 -2.94177 1
gene 3 296 26 1.53896 0 1007 1.53896 1
gene 2 186 218 2.58008 0 1049 2.58008 1
gene 1 5 223 -2.91484 0 1077 -2.91484 1
gene 2 14 218 -4.49334 0 1172 -4.49334 0
gene 3 218 346 1.56549 0 1189 1.56549 1
gene 3 346 37 0.0388292 0 1190 0.0388292 1
gene 3 17 186 -0.694778 0 1294 -0.694778 0
gene 1 17 382 -2.26728 0 1314 -2.26728 1
gene 1 382 25 0.442766 0 1315 0.442766 0
gene 2 22 386 0.911737 0 1331 0.911737 1
gene 2 386 26 2.16827 0 1332 2.16827 1
gene 2 346 296 -1.91301 0 1431 -1.91301 1
gene 3 15 382 -2.59611 0 1485 -2.59611 1
gene 2 1 346 -0.633875 0 1511 -0.633875 1
gene 2 14 449 -0.102251 0 1571 -0.102251 1
gene 2 449 218 -0.830927 0 1572 -0.830927 1
gene 2 2 223 0.187211 0 1802 0.187211 1
gene 1 9 296 2.57687 0 1826 2.57687 1
gene 2 22 37 0.703824 0 1858 0.703824 1
gene 3 17 537 2.86658 0 1896 2.86658 1
gene 3 537 186 0.463288 0 1897 0.463288 1
gene 3 296 382 1.67841 0 2021 1.67841 1
gene 1 19 386 -1.89604 0 2068 -1.89604 1
gene 3 17 591 0.342354 0 2087 0.342354 1
gene 3 591 537 -0.726865 0 2088 -0.726865 1
gene 1 386 218 1.71614 0 2114 1.71614 1
gene 1 223 605 0.0205121 0 2133 0.0205121 1
gene 1 605 186 1.53584 0 2134 1.53584 1
gene 2 18 223 -1.91801 0 2225 -1.91801 1
gene 1 19 631 -2.0699 0 2229 -2.0699 1
gene 1 631 386 0.243342 0 2230 0.243342 1
gene 3 3 634 1 0 2241 1 1
gene 3 634 26 -6.17587 0 2242 -6.17587 1
gene 2 69 382 0.577421 0 2261 0.577421 1
gene 3 186 69 1.72475 0 2313 1.72475 1
gene 3 18 667 2.70946 0 2375 2.70946 1
gene 3 667 26 0.188946 0 2376 0.188946 1
gene 3 5 591 0.317761 0 2473 0.317761 1
gene 2 26 382 0.663119 0 2494 0.663119 1
gene 1 605 26 -0.375437 0 2510 -0.375437 1
gene 2 591 25 -2.82311 0 2545 -2.82311 1
gene 1 15 713 0.237193 0 2555 0.237193 1
gene 1 713 37 0.931093 0 2556 0.931093 1
gene 3 449 346 -0.526811 0 2575 -0.526811 1
gene 1 22 186 0.158998 0 2596 0.158998 1
gene 2 12 69 -1.87179 0 2615 -1.87179 1
gene 1 382 765 1.98063 0 2752 1.98063 1
gene 1 765 25 1.10939 0 2753 1.10939 1
gene 1 631 795 3.30951 0 2848 3.30951 1
gene 1 795 386 1.29315 0 2849 1.29315 1
gene 3 3 765 0.344857 0 2978 0.344857 1
genomeend 7

/* Organism #8 Fitness: 1.31936 Error: 0 */
genomestart 8
trait 1 1 1 0 0.215414 0.0782647 0.152984 0.270353 0.127238 
trait 2 0 0.959183 0 0.654548 1 0.573576 0.599192 0.969198 
trait 3 0.511214 0.117429 0 0.326972 0.451124 0.404619 0.567564 0.102175 
node 1 1 1 3
node 2 1 1 1
node 3 1 1 1
node 4 3 1 1
node 5 2 1 1
node 6 2 1 1
node 7 3 1 1
node 8 1 1 1
node 9 3 1 1
node 10 2 1 1
node 11 1 1 1
node 12 3 1 1
node 13 3 1 1
node 14 2 1 1
node 15 1 1 1
node 16 2 1 1
node 17 2 1 1
node 18 1 1 1
node 19 1 1 1
node 20 3 1 1
node 21 3 1 1
node 22 3 1 1
node 23 3 1 1
node 24 2 1 1
node 25 2 0 2
node 26 3 0 2
node 37 1 0 0
node 69 2 0 0
node 186 1 0 0
node 218 1 0 0
node 223 3 0 0
node 296 1 0 0
node 346 1 0 0
node 382 1 0 0
node 386 1 0 0
node 449 1 0 0
node 537 1 0 0
node 591 1 0 0
node 605 1 0 0
node 631 1 0 0
node 634 1 0 0
node 667 1 0 0
node 713 1 0 0
node 765 1 0 0
node 795 1 0 0
gene 2 1 25 3.06127 0 1 3.06127 1
gene 1 2 25 5.37793 0 2 5.37793 1
gene 3 3 25 -3.20713 0 3 -3.20713 1
gene 3 4 25 -1.71066 0 4 -1.71066 0
gene 3 5 25 0.133724 0 5 0.133724 1
gene 3 6 25 4.97701 0 6 4.97701 1
gene 1 7 25 -4.70079 0 7 -4.70079 1
gene 1 8 25 -0.445829 0 8 -0.445829 1
gene 1 9 25 -2.64943 0 9 -2.64943 1
gene 2 10 25 2.38992 0 10 2.38992 1
gene 3 11 25 -1.43132 0 11 -1.43132 1
gene 1 12 25 6.03969 0 12 6.03969 1
gene 1 13 25 -1.98929 0 13 -1.98929 1
gene 1 14 25 -1.99369 0 14 -1.99369 1
gene 3 15 25 6.01897 0 15 6.01897 1
gene 1 16 25 2.32356 0 16 2.32356 0
gene 1 17 25 -0.658978 0 17 -0.658978 0
gene 1 18 25 -2.32222 0 18 -2.32222 1
gene 3 19 25 -6.64472 0 19 -6.64472 1
gene 1 20 25 1.50177 0 20 1.50177 1
gene 3 21 25 0.888747 0 21 0.888747 1
gene 3 22 25 1.20054 0 22 1.20054 1
gene 3 23 25 2.14301 0 23 2.14301 1
gene 3 24 25 2.75439 0 24 2.75439 1
gene 3 1 26 -1.86687 0 25 -1.86687 1
gene 1 2 26 -7.52976 0 26 -7.52976 1
gene 3 3 26 -7.46038 0 27 -7.46038 0
gene 2 4 26 1.79391 0 28 1.79391 1
gene 1 5 26 1.9854 0 29 1.9854 0
gene 1 6 26 2.40154 0 30 2.40154 1
gene 1 7 26 3.17859 0 31 3.17859 1
gene 3 8 26 4.63701 0 32 4.63701 1
gene 3 9 26 -1.23445 0 33 -1.23445 1
gene 1 10 26 -1.72678 0 34 -1.72678 1
gene 1 11 26 -0.0542271 0 35 -0.0542271 1
gene 2 12 26 -1.35527 0 36 -1.35527 1
gene 2 13 26 -0.103055 0 37 -0.103055 1
gene 2 14 26 -1.56938 0 38 -1.56938 1
gene 3 15 26 -1.75278 0 39 -1.75278 1
gene 2 16 26 0.740922 0 40 0.740922 1
gene 1 17 26 0.510211 0 41 0.510211 1
gene 3 18 26 2.90822 0 42 2.90822 0
gene 3 19 26 4.86551 0 43 4.86551 1
gene 2 20 26 -2.32399 0 44 -2.32399 1
gene 3 21 26 -0.712172 0 45 -0.712172 1
gene 2 22 26 -3.55921 0 46 -3.55921 0
gene 3 23 26 4.14765 0 47 4.14765 0
gene 2 24 26 0.385243 0 48 0.385243 1
gene 3 4 37 -0.939953 0 73 -0.939953 0
gene 3 37 25 -3.19501 0 74 -3.19501 1
gene 2 14 37 5.90726 0 110 5.90726 1
gene 2 20 69 2.96701 0 175 2.96701 1
gene 2 69 26 -5.29363 0 176 -5.29363 1
gene 3 18 69 3.2305 0 190 3.2305 1
gene 1 69 37 -1.28823 0 463 -1.28823 1
gene 3 69 25 -0.37737 0 503 -0.37737 1
gene 2 16 69 -5.84434 0 572 -5.84434 1
gene 1 11 69 -4.0494 0 581 -4.0494 1
gene 2 4 186 -1.33598 0 612 -1.33598 1
gene 2 186 26 0.826447 0 613 0.826447 1
gene 2 2 69 -1.8755 0 677 -1.8755 1
gene 2 19 186 0.305473 0 720 0.305473 0
gene 3 4 218 4.54596 0 737 4.54596 1
gene 3 218 37 -4.1261 0 738 -4.1261 1
gene 2 19 223 -1.98455 0 752 -1.98455 1
gene 1 223 186 0.648114 0 753 0.648114 0
gene 1 15 37 0.70437 0 992 0.70437 0
gene 3 23 296 2.45803 0 1006 2.45803 1
gene 3 296 26 -0.695967 0 1007 -0.695967 1
gene 2 186 218 -0.48474 0 1049 -0.48474 1
gene 1 5 223 -1.06867 0 1077 -1.06867 1
gene 2 14 218 -0.898825 0 1172 -0.898825 0
gene 3 218 346 3.7136 0 1189 3.7136 1
gene 3 346 37 -2.606 0 1190 -2.606 1
gene 3 17 186 -1.12075 0 1294 -1.12075 0
gene 1 17 382 0.438764 0 1314 0.438764 1
gene 1 382 25 0.470352 0 1315 0.470352 0
gene 2 22 386 3.11906 0 1331 3.11906 1
gene 2 386 26 -0.842027 0 1332 -0.842027 1
gene 2 346 296 -2.7228 0 1431 -2.7228 1
gene 3 15 382 0.864541 0 1485 0.864541 1
gene 2 1 346 0.0466315 0 1511 0.0466315 1
gene 2 14 449 1.19518 0 1571 1.19518 1
gene 2 449 218 -1.30524 0 1572 -1.30524 1
gene 2 2 223 -0.412603 0 1802 -0.412603 1
gene 1 9 296 -1.37015 0 1826 -1.37015 1
gene 2 22 37 -1.57338 0 1858 -1.57338 1
gene 3 17 537 2.24769 0 1896 2.24769 1
gene 3 537 186 -1.20625 0 1897 -1.20625 1
gene 3 296 382 0.943378 0 2021 0.943378 1
gene 1 19 386 -0.770867 0 2068 -0.770867 1
gene 3 17 591 2.42379 0 2087 2.42379 1
gene 3 591 537 1 0 2088 1 1
gene 1 386 218 -0.348563 0 2114 -0.348563 1
gene 1 223 605 1.87044 0 2133 1.87044 1
gene 1 605 186 3.70569 0 2134 3.70569 1
gene 2 18 223 -2.18305 0 2225 -2.18305 1
gene 1 19 631 -0.677981 0 2229 -0.677981 1
gene 1 631 386 -0.990946 0 2230 -0.990946 0
gene 3 3 634 0.391 0 2241 0.391 1
gene 3 634 26 -3.71657 0 2242 -3.71657 1
gene 2 69 382 1.50612 0 2261 1.50612 1
gene 3 186 69 0.652152 0 2313 0.652152 1
gene 3 18 667 1 0 2375 1 1
gene 3 667 26 -0.640018 0 2376 -0.640018 1
gene 3 5 591 -2.07304 0 2473 -2.07304 1
gene 2 26 382 -1.11571 0 2494 -1.11571 1
gene 1 605 26 0.392108 0 2510 0.392108 1
gene 2 591 25 -0.364501 0 2545 -0.364501 1
gene 1 15 713 0.0872827 0 2555 0.0872827 1
gene 1 713 37 0.562855 0 2556 0.562855 1
gene 3 449 346 1.61476 0 2575 1.61476 1
gene 1 22 186 -0.778752 0 2596 -0.778752 1
gene 2 12 69 -0.574658 0 2615 -0.574658 1
gene 1 382 765 1 0 2752 1 1
gene 1 765 25 0.922639 0 2753 0.922639 1
gene 1 631 795 3.4761 0 2848 3.4761 1
gene 1 795 386 0.366619 0 2849 0.366619 1
genomeend 8

/* Organism #9 Fitness: 11.7884 Error: 0 */
genomestart 9
trait 1 1 1 0 0.215414 0.0782647 0.152984 0.270353 0.127238 
trait 2 0 0.853841 0 0.827274 1 0.786788 0.51007 0.508901 
trait 3 0.511214 0.117429 0 0.326972 0.451124 0.404619 0.567564 0.102175 
node 1 1 1 3
node 2 1 1 1
node 3 1 1 1
node 4 3 1 1
node 5 2 1 1
node 6 2 1 1
node 7 3 1 1
node 8 1 1 1
node 9 3 1 1
node 10 2 1 1
node 11 1 1 1
node 12 3 1 1
node 13 3 1 1
node 14 2 1 1
node 15 1 1 1
node 16 2 1 1
node 17 2 1 1
node 18 1 1 1
node 19 1 1 1
node 20 3 1 1
node 21 3 1 1
node 22 3 1 1
node 23 3 1 1
node 24 2 1 1
node 25 2 0 2
node 26 3 0 2
node 37 1 0 0
node 69 2 0 0
node 186 1 0 0
node 218 1 0 0
node 223 3 0 0
node 296 1 0 0
node 346 1 0 0
node 382 1 0 0
node 386 1 0 0
node 449 1 0 0
node 537 1 0 0
node 591 1 0 0
node 605 1 0 0
node 631 1 0 0
node 634 1 0 0
node 667 1 0 0
node 713 1 0 0
node 765 1 0 0
node 795 1 0 0
gene 2 1 25 4.41689 0 1 4.41689 1
gene 1 2 25 3.67874 0 2 3.67874 1
gene 3 3 25 -2.6841 0 3 -2.6841 1
gene 3 4 25 -2.82573 0 4 -2.82573 0
gene 3 5 25 0.100488 0 5 0.100488 1
gene 3 6 25 6.60705 0 6 6.60705 1
gene 1 7 25 -4.02784 0 7 -4.02784 1
gene 1 8 25 2.10543 0 8 2.10543 1
gene 1 9 25 -5.19401 0 9 -5.19401 1
gene 2 10 25 3.3773 0 10 3.3773 1
gene 3 11 25 -4.4671 0 11 -4.4671 1
gene 1 12 25 7.96614 0 12 7.96614 1
gene 1 13 25 3.84366 0 13 3.84366 1
gene 1 14 25 -7.289 0 14 -7.289 1
gene 3 15 25 8 0 15 8 1
gene 1 16 25 2.96977 0 16 2.96977 1
gene 1 17 25 -1.1298 0 17 -1.1298 0
gene 1 18 25 3.62875 0 18 3.62875 1
gene 3 19 25 -4.28151 0 19 -4.28151 1
gene 1 20 25 1.58218 0 20 1.58218 1
gene 3 21 25 2.79912 0 21 2.79912 1
gene 3 22 25 3.00652 0 22 3.00652 1
gene 3 23 25 0.232689 0 23 0.232689 1
gene 3 24 25 -0.341953 0 24 -0.341953 1
gene 3 1 26 -2.67997 0 25 -2.67997 1
gene 1 2 26 -5.78155 0 26 -5.78155 1
gene 3 3 26 -3.56923 0 27 -3.56923 1
gene 2 4 26 -4.91828 0 28 -4.91828 1
gene 1 5 26 -0.705068 0 29 -0.705068 1
gene 1 6 26 2.2735 0 30 2.2735 1
gene 1 7 26 0.909363 0 31 0.909363 1
gene 3 8 26 5.26665 0 32 5.26665 1
gene 3 9 26 0.028176 0 33 0.028176 1
gene 1 10 26 0.00852697 0 34 0.00852697 1
gene 1 11 26 -1.1123 0 35 -1.1123 1
gene 2 12 26 1.19317 0 36 1.19317 1
gene 2 13 26 -0.0348002 0 37 -0.0348002 1
gene 2 14 26 -3.74313 0 38 -3.74313 1
gene 3 15 26 0.209084 0 39 0.209084 1
gene 2 16 26 1.24687 0 40 1.24687 1
gene 1 17 26 3.7139 0 41 3.7139 1
gene 3 18 26 1.61249 0 42 1.61249 0
gene 3 19 26 5.70578 0 43 5.70578 1
gene 2 20 26 -4.54328 0 44 -4.54328 1
gene 3 21 26 0.363227 0 45 0.363227 1
gene 2 22 26 -3.77269 0 46 -3.77269 0
gene 3 23 26 1.46054 0 47 1.46054 0
gene 2 24 26 -0.121104 0 48 -0.121104 1
gene 3 4 37 1.43733 0 73 1.43733 0
gene 3 37 25 -4.85232 0 74 -4.85232 1
gene 2 14 37 1.529 0 110 1.529 1
gene 2 20 69 1.44275 0 175 1.44275 1
gene 2 69 26 -3.3793 0 176 -3.3793 1
gene 3 18 69 3.30678 0 190 3.30678 1
gene 1 69 37 -2.4092 0 463 -2.4092 1
gene 3 69 25 -4.91222 0 503 -4.91222 1
gene 2 16 69 -1.67336 0 572 -1.67336 1
gene 1 11 69 -4.38863 0 581 -4.38863 1
gene 2 4 186 0.900848 0 612 0.900848 1
gene 2 186 26 4.16558 0 613 4.16558 1
gene 2 2 69 0.451129 0 677 0.451129 1
gene 2 19 186 1.39394 0 720 1.39394 0
gene 3 4 218 2.53407 0 737 2.53407 1
gene 3 218 37 -0.314964 0 738 -0.314964 1
gene 2 19 223 1.73982 0 752 1.73982 1
gene 1 223 186 3.44643 0 753 3.44643 0
gene 1 15 37 2.43738 0 992 2.43738 1
gene 3 23 296 1.33739 0 1006 1.33739 1
gene 3 296 26 0.564489 0 1007 0.564489 1
gene 2 186 218 1.79624 0 1049 1.79624 1
gene 1 5 223 0.805216 0 1077 0.805216 1
gene 2 14 218 -2.84714 0 1172 -2.84714 1
gene 3 218 346 0.0606047 0 1189 0.0606047 1
gene 3 346 37 -3.35737 0 1190 -3.35737 1
gene 3 17 186 -2.58219 0 1294 -2.58219 0
gene 1 17 382 -3.10402 0 1314 -3.10402 1
gene 1 382 25 -0.449106 0 1315 -0.449106 1
gene 2 22 386 2.83995 0 1331 2.83995 1
gene 2 386 26 0.281404 0 1332 0.281404 1
gene 2 346 296 0.425673 0 1431 0.425673 1
gene 3 15 382 1.60064 0 1485 1.60064 1
gene 2 1 346 -1.20841 0 1511 -1.20841 1
gene 2 14 449 -1.20904 0 1571 -1.20904 1
gene 2 449 218 -0.0229358 0 1572 -0.0229358 1
gene 2 2 223 1.73282 0 1802 1.73282 1
gene 1 9 296 1.97746 0 1826 1.97746 1
gene 2 22 37 0.0450084 0 1858 0.0450084 1
gene 3 17 537 -1.4621 0 1896 -1.4621 1
gene 3 537 186 0.447622 0 1897 0.447622 1
gene 3 296 382 1.32586 0 2021 1.32586 1
gene 1 19 386 1.50514 0 2068 1.50514 1
gene 3 17 591 1.82639 0 2087 1.82639 1
gene 3 591 537 3.23581 0 2088 3.23581 1
gene 1 386 218 2.17606 0 2114 2.17606 1
gene 1 223 605 3.40006 0 2133 3.40006 1
gene 1 605 186 4.22865 0 2134 4.22865 1
gene 2 18 223 -1.80713 0 2225 -1.80713 1
gene 1 19 631 2.30897 0 2229 2.30897 1
gene 1 631 386 -0.972263 0 2230 -0.972263 0
gene 3 3 634 1.90919 0 2241 1.90919 1
gene 3 634 26 -5.87676 0 2242 -5.87676 1
gene 2 69 382 2.00835 0 2261 2.00835 1
gene 3 186 69 -0.324827 0 2313 -0.324827 1
gene 3 18 667 1 0 2375 1 1
gene 3 667 26 0.325618 0 2376 0.325618 1
gene 3 5 591 0.165736 0 2473 0.165736 1
gene 2 26 382 0.731635 0 2494 0.731635 1
gene 1 605 26 1.02448 0 2510 1.02448 1
gene 2 591 25 -2.10917 0 2545 -2.10917 1
gene 1 15 713 1 0 2555 1 1
gene 1 713 37 3.51103 0 2556 3.51103 1
gene 3 449 346 -0.46373 0 2575 -0.46373 1
gene 1 22 186 -0.664653 0 2596 -0.664653 1
gene 2 12 69 0.389618 0 2615 0.389618 1
gene 1 382 765 1 0 2752 1 1
gene 1 765 25 0.306647 0 2753 0.306647 1
gene 1 631 795 0.256211 0 2848 0.256211 1
gene 1 795 386 -1.19215 0 2849 -1.19215 1
gene 3 3 765 1.86242 0 2978 1.86242 1
genomeend 9

/* Organism #10 Fitness: 13.7389 Error: 0 */
genomestart 10
trait 1 1 1 0 0.215414 0.0782647 0.152984 0.270353 0.127238 
trait 2 0 0.959183 0 0.654548 1 0.573576 0.599192 0.969198 
trait 3 0.511214 0.117429 0 0.326972 0.451124 0.404619 0.567564 0.102175 
node 1 1 1 3
node 2 1 1 1
node 3 1 1 1
node 4 3 1 1
node 5 2 1 1
node 6 2 1 1
node 7 3 1 1
node 8 1 1 1
node 9 3 1 1
node 10 2 1 1
node 11 1 1 1
node 12 3 1 1
node 13 3 1 1
node 14 2 1 1
node 15 1 1 1
node 16 2 1 1
node 17 2 1 1
node 18 1 1 1
node 19 1 1 1
node 20 3 1 1
node 21 3 1 1
node 22 3 1 1
node 23 3 1 1
node 24 2 1 1
node 25 2 0 2
node 26 3 0 2
node 37 1 0 0
node 69 2 0 0
node 186 1 0 0
node 218 1 0 0
node 223 3 0 0
node 296 1 0 0
node 346 1 0 0
node 382 1 0 0
node 386 1 0 0
node 449 1 0 0
node 537 1 0 0
node 591 1 0 0
node 605 1 0 0
node 631 1 0 0
node 634 1 0 0
node 667 1 0 0
node 713 1 0 0
node 765 1 0 0
node 795 1 0 0
gene 2 1 25 2.86837 0 1 2.86837 1
gene 1 2 25 7.83406 0 2 7.83406 1
gene 3 3 25 -3.95354 0 3 -3.95354 1
gene 3 4 25 0.505144 0 4 0.505144 1
gene 3 5 25 -0.848834 0 5 -0.848834 1
gene 3 6 25 2.84626 0 6 2.84626 1
gene 1 7 25 -4.40796 0 7 -4.40796 1
gene 1 8 25 -2.2602 0 8 -2.2602 1
gene 1 9 25 -2.92316 0 9 -2.92316 1
gene 2 10 25 5.21718 0 10 5.21718 1
gene 3 11 25 -3.57317 0 11 -3.57317 1
gene 1 12 25 8 0 12 8 1
gene 1 13 25 1.53263 0 13 1.53263 1
gene 1 14 25 -5.90048 0 14 -5.90048 1
gene 3 15 25 8 0 15 8 1
gene 1 16 25 3.80344 0 16 3.80344 0
gene 1 17 25 1.22087 0 17 1.22087 0
gene 1 18 25 3.09171 0 18 3.09171 1
gene 3 19 25 -3.77069 0 19 -3.77069 1
gene 1 20 25 -1.06265 0 20 -1.06265 1
gene 3 21 25 2.54834 0 21 2.54834 1
gene 3 22 25 0.798291 0 22 0.798291 1
gene 3 23 25 1.35645 0 23 1.35645 1
gene 3 24 25 -0.449096 0 24 -0.449096 1
gene 3 1 26 -1.85277 0 25 -1.85277 1
gene 1 2 26 -5.95978 0 26 -5.95978 1
gene 3 3 26 -7.22665 0 27 -7.22665 0
gene 2 4 26 -0.227295 0 28 -0.227295 1
gene 1 5 26 -2.52838 0 29 -2.52838 1
gene 1 6 26 3.52781 0 30 3.52781 1
gene 1 7 26 4.49157 0 31 4.49157 1
gene 3 8 26 3.89534 0 32 3.89534 1
gene 3 9 26 -2.85025 0 33 -2.85025 1
gene 1 10 26 1.26866 0 34 1.26866 1
gene 1 11 26 1.49565 0 35 1.49565 1
gene 2 12 26 3.65439 0 36 3.65439 1
gene 2 13 26 -0.141763 0 37 -0.141763 1
gene 2 14 26 -4.24301 0 38 -4.24301 1
gene 3 15 26 1.02615 0 39 1.02615 1
gene 2 16 26 1.86403 0 40 1.86403 1
gene 1 17 26 4.80097 0 41 4.80097 1
gene 3 18 26 0.253866 0 42 0.253866 1
gene 3 19 26 2.43851 0 43 2.43851 1
gene 2 20 26 -1.89744 0 44 -1.89744 1
gene 3 21 26 2.73832 0 45 2.73832 1
gene 2 22 26 -3.88863 0 46 -3.88863 0
gene 3 23 26 1.84794 0 47 1.84794 0
gene 2 24 26 0.0743005 0 48 0.0743005 1
gene 3 4 37 -2.12772 0 73 -2.12772 1
gene 3 37 25 -2.51831 0 74 -2.51831 1
gene 2 14 37 4.85314 0 110 4.85314 1
gene 2 20 69 0.784893 0 175 0.784893 1
gene 2 69 26 -3.76201 0 176 -3.76201 1
gene 3 18 69 3.12729 0 190 3.12729 1
gene 1 69 37 -1.84982 0 463 -1.84982 1
gene 3 69 25 -1.25256 0 503 -1.25256 1
gene 2 16 69 -3.09189 0 572 -3.09189 1
gene 1 11 69 -3.57184 0 581 -3.57184 1
gene 2 4 186 -2.79349 0 612 -2.79349 1
gene 2 186 26 4.28714 0 613 4.28714 1
gene 2 2 69 -3.46614 0 677 -3.46614 1
gene 2 19 186 1.71168 0 720 1.71168 1
gene 3 4 218 4.69637 0 737 4.69637 1
gene 3 218 37 0.226983 0 738 0.226983 1
gene 2 19 223 1.73573 0 752 1.73573 1
gene 1 223 186 3.85579 0 753 3.85579 0
gene 1 15 37 1.68285 0 992 1.68285 0
gene 3 23 296 0.178475 0 1006 0.178475 1
gene 3 296 26 2.04309 0 1007 2.04309 1
gene 2 186 218 -0.288667 0 1049 -0.288667 1
gene 1 5 223 -1.72017 0 1077 -1.72017 1
gene 2 14 218 -4.344 0 1172 -4.344 1
gene 3 218 346 -0.109514 0 1189 -0.109514 1
gene 3 346 37 -3.10974 0 1190 -3.10974 1
gene 3 17 186 1.18274 0 1294 1.18274 1
gene 1 17 382 -1.37653 0 1314 -1.37653 1
gene 1 382 25 0.986302 0 1315 0.986302 0
gene 2 22 386 3.64511 0 1331 3.64511 1
gene 2 386 26 -0.571643 0 1332 -0.571643 1
gene 2 346 296 -3.02681 0 1431 -3.02681 1
gene 3 15 382 0.954009 0 1485 0.954009 1
gene 2 1 346 2.50548 0 1511 2.50548 1
gene 2 14 449 -0.14685 0 1571 -0.14685 1
gene 2 449 218 -0.739924 0 1572 -0.739924 1
gene 2 2 223 1.90312 0 1802 1.90312 1
gene 1 9 296 -0.368775 0 1826 -0.368775 1
gene 2 22 37 0.446639 0 1858 0.446639 1
gene 3 17 537 -0.631163 0 1896 -0.631163 1
gene 3 537 186 -1.82025 0 1897 -1.82025 1
gene 3 296 382 1.64865 0 2021 1.64865 1
gene 1 19 386 -3.14988 0 2068 -3.14988 1
gene 3 17 591 -0.702617 0 2087 -0.702617 1
gene 3 591 537 2.36969 0 2088 2.36969 1
gene 1 386 218 -2.05334 0 2114 -2.05334 1
gene 1 223 605 1.48559 0 2133 1.48559 1
gene 1 605 186 -0.495453 0 2134 -0.495453 1
gene 2 18 223 -0.208909 0 2225 -0.208909 1
gene 1 19 631 1 0 2229 1 1
gene 1 631 386 -0.490502 0 2230 -0.490502 1
gene 3 3 634 0.420883 0 2241 0.420883 1
gene 3 634 26 2.28173 0 2242 2.28173 1
gene 2 69 382 1.10102 0 2261 1.10102 1
gene 3 186 69 -0.957719 0 2313 -0.957719 1
gene 3 18 667 2.6788 0 2375 2.6788 1
gene 3 667 26 -1.31794 0 2376 -1.31794 1
gene 3 5 591 -1.78113 0 2473 -1.78113 1
gene 2 26 382 2.90679 0 2494 2.90679 1
gene 1 605 26 -2.35569 0 2510 -2.35569 1
gene 2 591 25 -0.364501 0 2545 -0.364501 1
gene 1 15 713 -0.621226 0 2555 -0.621226 1
gene 1 713 37 1.35365 0 2556 1.35365 1
gene 3 449 346 -2.44835 0 2575 -2.44835 1
gene 1 22 186 -2.63914 0 2596 -2.63914 1
gene 2 12 69 0.411788 0 2615 0.411788 1
gene 1 382 765 -2.14161 0 2752 -2.14161 1
gene 1 765 25 0.306647 0 2753 0.306647 1
gene 1 631 795 2.68695 0 2848 2.68695 1
gene 1 795 386 -2.3673 0 2849 -2.3673 1
gene 3 3 765 0.820707 0 2978 0.820707 1
genomeend 10

/* Organism #11 Fitness: 10.6917 Error: 0 */
genomestart 11
trait 1 1 1 0 0.215414 0.0782647 0.152984 0.270353 0.127238 
trait 2 0 0.853841 0 0.827274 1 0.786788 0.51007 0.508901 
trait 3 0 0.117429 0 1 0 0.527918 0.812208 0.469924 
node 1 1 1 3
node 2 1 1 1
node 3 1 1 1
node 4 3 1 1
node 5 2 1 1
node 6 2 1 1
node 7 3 1 1
node 8 1 1 1
node 9 3 1 1
node 10 2 1 1
node 11 1 1 1
node 12 3 1 1
node 13 3 1 1
node 14 2 1 1
node 15 1 1 1
node 16 2 1 1
node 17 2 1 1
node 18 1 1 1
node 19 1 1 1
node 20 3 1 1
node 21 3 1 1
node 22 3 1 1
node 23 3 1 1
node 24 2 1 1
node 25 2 0 2
node 26 3 0 2
node 37 1 0 0
node 69 2 0 0
node 186 1 0 0
node 218 1 0 0
node 223 3 0 0
node 296 1 0 0
node 346 1 0 0
node 382 1 0 0
node 386 1 0 0
node 449 1 0 0
node 537 1 0 0
node 591 1 0 0
node 605 1 0 0
node 631 1 0 0
node 634 1 0 0
node 667 1 0 0
node 713 1 0 0
node 765 1 0 0
node 795 1 0 0
gene 2 1 25 3.68577 0 1 3.68577 1
gene 1 2 25 6.91794 0 2 6.91794 1
gene 3 3 25 -1.99922 0 3 -1.99922 1
gene 3 4 25 -1.93484 0 4 -1.93484 0
gene 3 5 25 2.38791 0 5 2.38791 1
gene 3 6 25 2.98832 0 6 2.98832 1
gene 1 7 25 -1.55916 0 7 -1.55916 1
gene 1 8 25 1.31605 0 8 1.31605 1
gene 1 9 25 -3.63545 0 9 -3.63545 1
gene 2 10 25 6.08416 0 10 6.08416 1
gene 3 11 25 -4.15664 0 11 -4.15664 1
gene 1 12 25 6.08751 0 12 6.08751 1
gene 1 13 25 4.51781 0 13 4.51781 1
gene 1 14 25 -6.72482 0 14 -6.72482 1
gene 3 15 25 5.78575 0 15 5.78575 1
gene 1 16 25 2.54799 0 16 2.54799 0
gene 1 17 25 0.401142 0 17 0.401142 0
gene 1 18 25 3.10028 0 18 3.10028 1
gene 3 19 25 -3.18446 0 19 -3.18446 1
gene 1 20 25 0.633323 0 20 0.633323 1
gene 3 21 25 -0.280388 0 21 -0.280388 1
gene 3 22 25 0.259669 0 22 0.259669 1
gene 3 23 25 2.36746 0 23 2.36746 1
gene 3 24 25 0.549986 0 24 0.549986 1
gene 3 1 26 -2.43164 0 25 -2.43164 1
gene 1 2 26 -6.76236 0 26 -6.76236 1
gene 3 3 26 -4.03455 0 27 -4.03455 0
gene 2 4 26 -4.42382 0 28 -4.42382 1
gene 1 5 26 -1.76347 0 29 -1.76347 0
gene 1 6 26 6.74556 0 30 6.74556 1
gene 1 7 26 4.29435 0 31 4.29435 1
gene 3 8 26 2.14565 0 32 2.14565 1
gene 3 9 26 -3.64466 0 33 -3.64466 1
gene 1 10 26 -0.636358 0 34 -0.636358 1
gene 1 11 26 -1.23755 0 35 -1.23755 1
gene 2 12 26 5.15614 0 36 5.15614 1
gene 2 13 26 -0.214733 0 37 -0.214733 1
gene 2 14 26 -2.02386 0 38 -2.02386 1
gene 3 15 26 -0.70208 0 39 -0.70208 1
gene 2 16 26 1.86859 0 40 1.86859 1
gene 1 17 26 3.74959 0 41 3.74959 1
gene 3 18 26 -1.21113 0 42 -1.21113 0
gene 3 19 26 3.81396 0 43 3.81396 1
gene 2 20 26 -3.74531 0 44 -3.74531 1
gene 3 21 26 2.02551 0 45 2.02551 1
gene 2 22 26 -1.34725 0 46 -1.34725 0
gene 3 23 26 0.455852 0 47 0.455852 0
gene 2 24 26 1.32684 0 48 1.32684 1
gene 3 4 37 0.325305 0 73 0.325305 0
gene 3 37 25 -4.92447 0 74 -4.92447 1
gene 2 14 37 4.65512 0 110 4.65512 1
gene 2 20 69 1.85623 0 175 1.85623 1
gene 2 69 26 -3.40561 0 176 -3.40561 1
gene 3 18 69 2.30437 0 190 2.30437 1
gene 1 69 37 -2.47368 0 463 -2.47368 1
gene 3 69 25 -2.51911 0 503 -2.51911 1
gene 2 16 69 -5.61391 0 572 -5.61391 1
gene 1 11 69 -0.55375 0 581 -0.55375 1
gene 2 4 186 -2.1287 0 612 -2.1287 1
gene 2 186 26 3.73949 0 613 3.73949 1
gene 2 2 69 -2.62157 0 677 -2.62157 1
gene 2 19 186 -0.510633 0 720 -0.510633 0
gene 3 4 218 3.2286 0 737 3.2286 1
gene 3 218 37 -0.660691 0 738 -0.660691 1
gene 2 19 223 0.643339 0 752 0.643339 1
gene 1 223 186 1.20452 0 753 1.20452 0
gene 1 15 37 -1.05145 0 992 -1.05145 0
gene 3 23 296 -1.8178 0 1006 -1.8178 1
gene 3 296 26 0.578917 0 1007 0.578917 1
gene 2 186 218 3.50288 0 1049 3.50288 1
gene 1 5 223 -1.65787 0 1077 -1.65787 1
gene 2 14 218 -0.469722 0 1172 -0.469722 0
gene 3 218 346 0.299252 0 1189 0.299252 1
gene 3 346 37 0.545553 0 1190 0.545553 1
gene 3 17 186 1.20216 0 1294 1.20216 0
gene 1 17 382 -1.01407 0 1314 -1.01407 1
gene 1 382 25 2.4741 0 1315 2.4741 0
gene 2 22 386 1.83619 0 1331 1.83619 1
gene 2 386 26 0.324107 0 1332 0.324107 1
gene 2 346 296 -1.2182 0 1431 -1.2182 1
gene 3 15 382 -1.48553 0 1485 -1.48553 1
gene 2 1 346 -1.67872 0 1511 -1.67872 1
gene 2 14 449 1.02248 0 1571 1.02248 1
gene 2 449 218 -4.08795 0 1572 -4.08795 1
gene 2 2 223 1.12866 0 1802 1.12866 1
gene 1 9 296 2.20606 0 1826 2.20606 1
gene 2 22 37 0.384766 0 1858 0.384766 1
gene 3 17 537 2.65717 0 1896 2.65717 1
gene 3 537 186 -1.39658 0 1897 -1.39658 1
gene 3 296 382 -1.52213 0 2021 -1.52213 1
gene 1 19 386 -3.34141 0 2068 -3.34141 1
gene 3 17 591 2.25366 0 2087 2.25366 1
gene 3 591 537 -0.283716 0 2088 -0.283716 1
gene 1 386 218 2.1021 0 2114 2.1021 1
gene 1 223 605 0.051207 0 2133 0.051207 1
gene 1 605 186 1.89027 0 2134 1.89027 1
gene 2 18 223 2.27914 0 2225 2.27914 1
gene 1 19 631 -0.0367183 0 2229 -0.0367183 1
gene 1 631 386 -0.972263 0 2230 -0.972263 0
gene 3 3 634 1 0 2241 1 1
gene 3 634 26 -4.76568 0 2242 -4.76568 1
gene 2 69 382 1.69572 0 2261 1.69572 1
gene 3 186 69 0.571386 0 2313 0.571386 1
gene 3 18 667 1 0 2375 1 1
gene 3 667 26 -0.534925 0 2376 -0.534925 1
gene 3 5 591 0.930413 0 2473 0.930413 1
gene 2 26 382 2.10602 0 2494 2.10602 1
gene 1 605 26 -1.18363 0 2510 -1.18363 1
gene 3 591 25 -1.06862 0 2545 -1.06862 1
gene 1 15 713 1 0 2555 1 1
gene 1 713 37 3.59779 0 2556 3.59779 1
gene 3 449 346 2.17855 0 2575 2.17855 1
gene 1 22 186 -0.00732791 0 2596 -0.00732791 1
gene 2 12 69 2.48473 0 2615 2.48473 1
gene 1 382 765 0.569288 0 2752 0.569288 1
gene 1 765 25 -1.19957 0 2753 -1.19957 1
gene 1 631 795 1.24109 0 2848 1.24109 1
gene 1 795 386 1.49197 0 2849 1.49197 1
genomeend 11

/* Organism #12 Fitness: 193.362 Error: 0 */
genomestart 12
trait 1 1 1 0 0.215414 0.0782647 0.152984 0.270353 0.127238 
trait 2 0 0.959183 0 0.654548 1 0.573576 0.599192 0.969198 
trait 3 0.511214 0.117429 0 0.326972 0.451124 0.404619 0.567564 0.102175 
node 1 1 1 3
node 2 1 1 1
node 3 1 1 1
node 4 3 1 1
node 5 2 1 1
node 6 2 1 1
node 7 3 1 1
node 8 1 1 1
node 9 3 1 1
node 10 2 1 1
node 11 1 1 1
node 12 3 1 1
node 13 3 1 1
node 14 2 1 1
node 15 1 1 1
node 16 2 1 1
node 17 2 1 1
node 18 1 1 1
node 19 1 1 1
node 20 3 1 1
node 21 3 1 1
node 22 3 1 1
node 23 3 1 1
node 24 2 1 1
node 25 2 0 2
node 26 3 0 2
node 37 3 0 0
node 69 2 0 0
node 186 1 0 0
node 218 1 0 0
node 223 3 0 0
node 296 1 0 0
node 346 1 0 0
node 382 1 0 0
node 386 1 0 0
node 449 1 0 0
node 537 1 0 0
node 591 1 0 0
node 605 1 0 0
node 631 1 0 0
node 634 1 0 0
node 667 1 0 0
node 713 1 0 0
node 765 1 0 0
node 795 1 0 0
gene 2 1 25 2.28746 0 1 2.28746 1
gene 1 2 25 5.37793 0 2 5.37793 1
gene 3 3 25 -1.45729 0 3 -1.45729 1
gene 3 4 25 -1.71066 0 4 -1.71066 0
gene 3 5 25 1.63122 0 5 1.63122 1
gene 3 6 25 4.31418 0 6 4.31418 1
gene 1 7 25 -2.39129 0 7 -2.39129 1
gene 1 8 25 0.0185616 0 8 0.0185616 1
gene 1 9 25 -3.63323 0 9 -3.63323 1
gene 2 10 25 4.21249 0 10 4.21249 1
gene 3 11 25 -3.06531 0 11 -3.06531 1
gene 1 12 25 8 0 12 8 1
gene 1 13 25 2.07176 0 13 2.07176 1
gene 1 14 25 -5.01532 0 14 -5.01532 1
gene 3 15 25 7.88863 0 15 7.88863 1
gene 1 16 25 2.24468 0 16 2.24468 0
gene 1 17 25 -0.658978 0 17 -0.658978 0
gene 1 18 25 2.63138 0 18 2.63138 1
gene 3 19 25 -4.57923 0 19 -4.57923 1
gene 1 20 25 -0.095246 0 20 -0.095246 1
gene 3 21 25 0.888747 0 21 0.888747 1
gene 3 22 25 1.59873 0 22 1.59873 1
gene 3 23 25 1.48739 0 23 1.48739 1
gene 3 24 25 0.299567 0 24 0.299567 1
gene 3 1 26 -0.383277 0 25 -0.383277 1
gene 1 2 26 -7.52976 0 26 -7.52976 1
gene 3 3 26 -5.87676 0 27 -5.87676 0
gene 2 4 26 -2.57977 0 28 -2.57977 1
gene 1 5 26 -0.303708 0 29 -0.303708 0
gene 1 6 26 4.34764 0 30 4.34764 1
gene 1 7 26 2.49563 0 31 2.49563 1
gene 3 8 26 3.16721 0 32 3.16721 1
gene 3 9 26 -1.85768 0 33 -1.85768 1
gene 1 10 26 1.55337 0 34 1.55337 1
gene 1 11 26 0.380324 0 35 0.380324 1
gene 2 12 26 3.52433 0 36 3.52433 1
gene 2 13 26 -0.254812 0 37 -0.254812 1
gene 2 14 26 -3.2029 0 38 -3.2029 1
gene 3 15 26 -0.48781 0 39 -0.48781 1
gene 2 16 26 0.740922 0 40 0.740922 1
gene 1 17 26 2.76102 0 41 2.76102 1
gene 3 18 26 0.846446 0 42 0.846446 0
gene 3 19 26 3.44245 0 43 3.44245 1
gene 2 20 26 -2.58422 0 44 -2.58422 1
gene 3 21 26 1.04607 0 45 1.04607 1
gene 2 22 26 -1.96374 0 46 -1.96374 0
gene 3 23 26 2.4884 0 47 2.4884 0
gene 2 24 26 0.277144 0 48 0.277144 1
gene 3 4 37 -0.939953 0 73 -0.939953 0
gene 3 37 25 -3.19501 0 74 -3.19501 1
gene 2 14 37 3.41537 0 110 3.41537 1
gene 2 20 69 2.1044 0 175 2.1044 1
gene 2 69 26 -3.59011 0 176 -3.59011 1
gene 3 18 69 3.90073 0 190 3.90073 1
gene 1 69 37 -1.28823 0 463 -1.28823 1
gene 3 69 25 -2.58978 0 503 -2.58978 1
gene 2 16 69 -3.70603 0 572 -3.70603 1
gene 1 11 69 -2.47051 0 581 -2.47051 1
gene 2 4 186 -1.33598 0 612 -1.33598 1
gene 2 186 26 2.19768 0 613 2.19768 1
gene 2 2 69 -1.22101 0 677 -1.22101 1
gene 2 19 186 1.16628 0 720 1.16628 0
gene 3 4 218 3.58598 0 737 3.58598 1
gene 3 218 37 -1.93965 0 738 -1.93965 1
gene 2 19 223 -0.717545 0 752 -0.717545 1
gene 1 223 186 1.78431 0 753 1.78431 0
gene 1 15 37 1.35365 0 992 1.35365 0
gene 3 23 296 -0.666915 0 1006 -0.666915 1
gene 3 296 26 0.915411 0 1007 0.915411 1
gene 2 186 218 1.14331 0 1049 1.14331 1
gene 1 5 223 -1.06867 0 1077 -1.06867 1
gene 2 14 218 -2.31393 0 1172 -2.31393 0
gene 3 218 346 1.63095 0 1189 1.63095 1
gene 3 346 37 -1.39613 0 1190 -1.39613 1
gene 3 17 186 -1.20625 0 1294 -1.20625 0
gene 1 17 382 -0.634775 0 1314 -0.634775 1
gene 1 382 25 0.306647 0 1315 0.306647 0
gene 2 22 386 3.16956 0 1331 3.16956 1
gene 2 386 26 0.402372 0 1332 0.402372 1
gene 2 346 296 -0.920275 0 1431 -0.920275 1
gene 3 15 382 -0.760623 0 1485 -0.760623 1
gene 2 1 346 0.348474 0 1511 0.348474 1
gene 2 14 449 1 0 1571 0 1
gene 2 449 218 -2.31393 0 1572 0 1
gene 2 2 223 0.363871 0 1802 0.363871 1
gene 1 9 296 0.754333 0 1826 0.754333 1
gene 2 22 37 -0.716638 0 1858 -0.716638 1
gene 3 17 537 1 0 1896 0 1
gene 3 537 186 -1.20625 0 1897 0 1
gene 3 296 382 -0.626987 0 2021 -0.626987 1
gene 1 19 386 -0.972263 0 2068 -0.972263 1
gene 3 17 591 1 0 2087 0 1
gene 3 591 537 1 0 2088 0 1
gene 1 386 218 -0.163464 0 2114 -0.163464 1
gene 1 223 605 1 0 2133 0 1
gene 1 605 186 1.78431 0 2134 0 1
gene 2 18 223 -0.208909 0 2225 -0.208909 1
gene 1 19 631 1 0 2229 0 1
gene 1 631 386 -0.972263 0 2230 0 0
gene 3 3 634 1 0 2241 0 1
gene 3 634 26 -5.87676 0 2242 0 1
gene 2 69 382 0.577421 0 2261 0.577421 1
gene 3 186 69 -0.17745 0 2313 -0.17745 1
gene 3 18 667 1 0 2375 0 1
gene 3 667 26 0.846446 0 2376 0 1
gene 3 5 591 -0.217251 0 2473 -0.217251 1
gene 2 26 382 0.663119 0 2494 0.663119 1
gene 1 605 26 -0.375437 0 2510 -0.375437 1
gene 2 591 25 -0.364501 0 2545 -0.364501 1
gene 1 15 713 1 0 2555 0 1
gene 1 713 37 1.35365 0 2556 0 1
gene 3 449 346 -0.526811 0 2575 -0.526811 1
gene 1 22 186 -0.904013 0 2596 -0.904013 1
gene 2 12 69 0.13446 0 2615 0.13446 1
gene 1 382 765 1 0 2752 0 1
gene 1 765 25 0.306647 0 2753 0 1
gene 1 631 795 1 0 2848 0 1
gene 1 795 386 -0.972263 0 2849 0 1
gene 3 3 765 0.820707 0 2978 0.820707 1
genomeend 12

/* Species #244 : (Size 11) (AF 34.8656) (Age 25)  */


/* Organism #13 Fitness: 186.889 Error: 0 */
genomestart 13
trait 1 1 1 0 0.215414 0.0782647 0.152984 0.270353 0.127238 
trait 2 0 0.959183 0 0.654548 1 0.573576 0.599192 0.969198 
trait 3 0.511214 0.117429 0 0.326972 0.451124 0.404619 0.567564 0.102175 
node 1 1 1 3
node 2 1 1 1
node 3 1 1 1
node 4 3 1 1
node 5 2 1 1
node 6 2 1 1
node 7 3 1 1
node 8 1 1 1
node 9 3 1 1
node 10 2 1 1
node 11 1 1 1
node 12 3 1 1
node 13 3 1 1
node 14 2 1 1
node 15 1 1 1
node 16 2 1 1
node 17 2 1 1
node 18 1 1 1
node 19 1 1 1
node 20 3 1 1
node 21 3 1 1
node 22 3 1 1
node 23 3 1 1
node 24 2 1 1
node 25 2 0 2
node 26 3 0 2
node 37 1 0 0
node 69 2 0 0
node 186 1 0 0
node 218 1 0 0
node 223 3 0 0
node 296 1 0 0
node 346 1 0 0
node 382 1 0 0
node 386 1 0 0
node 449 1 0 0
node 537 1 0 0
node 591 1 0 0
node 605 1 0 0
node 631 1 0 0
node 634 1 0 0
node 667 1 0 0
node 713 1 0 0
node 719 1 0 0
node 725 1 0 0
gene 2 1 25 2.28746 0 1 2.28746 1
gene 1 2 25 5.37793 0 2 5.37793 1
gene 3 3 25 -1.45729 0 3 -1.45729 1
gene 3 4 25 -1.71066 0 4 -1.71066 0
gene 3 5 25 1.63122 0 5 1.63122 1
gene 3 6 25 4.31418 0 6 4.31418 1
gene 1 7 25 -2.39129 0 7 -2.39129 1
gene 1 8 25 0.0185616 0 8 0.0185616 1
gene 1 9 25 -3.63323 0 9 -3.63323 1
gene 2 10 25 4.21249 0 10 4.21249 1
gene 3 11 25 -3.06531 0 11 -3.06531 1
gene 1 12 25 8 0 12 8 1
gene 1 13 25 2.07176 0 13 2.07176 1
gene 1 14 25 -5.01532 0 14 -5.01532 1
gene 3 15 25 7.88863 0 15 7.88863 1
gene 1 16 25 2.24468 0 16 2.24468 1
gene 1 17 25 -0.658978 0 17 -0.658978 0
gene 1 18 25 2.63138 0 18 2.63138 1
gene 3 19 25 -4.57923 0 19 -4.57923 1
gene 1 20 25 -0.095246 0 20 -0.095246 1
gene 3 21 25 0.888747 0 21 0.888747 1
gene 3 22 25 1.59873 0 22 1.59873 1
gene 3 23 25 1.48739 0 23 1.48739 1
gene 3 24 25 0.299567 0 24 0.299567 1
gene 3 1 26 -0.383277 0 25 -0.383277 1
gene 1 2 26 -7.52976 0 26 -7.52976 1
gene 3 3 26 -5.87676 0 27 -5.87676 1
gene 2 4 26 -2.57977 0 28 -2.57977 1
gene 1 5 26 -0.303708 0 29 -0.303708 0
gene 1 6 26 4.34764 0 30 4.34764 1
gene 1 7 26 2.49563 0 31 2.49563 1
gene 3 8 26 3.16721 0 32 3.16721 1
gene 3 9 26 -1.85768 0 33 -1.85768 1
gene 1 10 26 1.55337 0 34 1.55337 1
gene 1 11 26 0.380324 0 35 0.380324 1
gene 2 12 26 3.52433 0 36 3.52433 1
gene 2 13 26 -0.254812 0 37 -0.254812 1
gene 2 14 26 -3.2029 0 38 -3.2029 1
gene 3 15 26 -0.48781 0 39 -0.48781 1
gene 2 16 26 0.740922 0 40 0.740922 1
gene 1 17 26 2.76102 0 41 2.76102 1
gene 3 18 26 0.846446 0 42 0.846446 1
gene 3 19 26 3.44245 0 43 3.44245 1
gene 2 20 26 -2.58422 0 44 -2.58422 1
gene 3 21 26 1.04607 0 45 1.04607 1
gene 2 22 26 -1.96374 0 46 -1.96374 0
gene 3 23 26 2.4884 0 47 2.4884 0
gene 2 24 26 0.277144 0 48 0.277144 1
gene 3 4 37 -0.939953 0 73 -0.939953 0
gene 3 37 25 -3.19501 0 74 -3.19501 1
gene 2 14 37 3.41537 0 110 3.41537 1
gene 2 20 69 2.1044 0 175 2.1044 1
gene 2 69 26 -3.59011 0 176 -3.59011 1
gene 3 18 69 3.90073 0 190 3.90073 1
gene 1 69 37 -1.28823 0 463 -1.28823 1
gene 3 69 25 -2.58978 0 503 -2.58978 1
gene 2 16 69 -3.70603 0 572 -3.70603 1
gene 1 11 69 -2.47051 0 581 -2.47051 1
gene 2 4 186 -1.33598 0 612 -1.33598 1
gene 2 186 26 2.19768 0 613 2.19768 1
gene 2 2 69 -1.22101 0 677 -1.22101 1
gene 2 19 186 1.16628 0 720 1.16628 0
gene 3 4 218 3.58598 0 737 3.58598 0
gene 3 218 37 -1.93965 0 738 -1.93965 1
gene 2 19 223 -0.717545 0 752 -0.717545 1
gene 1 223 186 1.78431 0 753 1.78431 0
gene 1 15 37 1.35365 0 992 1.35365 0
gene 3 23 296 -0.666915 0 1006 -0.666915 1
gene 3 296 26 0.915411 0 1007 0.915411 1
gene 2 186 218 1.14331 0 1049 1.14331 1
gene 1 5 223 -1.06867 0 1077 -1.06867 1
gene 2 14 218 -2.31393 0 1172 -2.31393 1
gene 3 218 346 1.63095 0 1189 1.63095 1
gene 3 346 37 -1.39613 0 1190 -1.39613 1
gene 3 17 186 -1.20625 0 1294 -1.20625 0
gene 1 17 382 -0.634775 0 1314 -0.634775 1
gene 1 382 25 0.306647 0 1315 0.306647 1
gene 2 22 386 3.16956 0 1331 3.16956 0
gene 2 386 26 0.402372 0 1332 0.402372 1
gene 2 346 296 -0.920275 0 1431 -0.920275 1
gene 3 15 382 -0.760623 0 1485 -0.760623 1
gene 2 1 346 0.348474 0 1511 0.348474 1
gene 2 14 449 1 0 1571 0 1
gene 2 449 218 -2.31393 0 1572 0 1
gene 2 2 223 0.363871 0 1802 0.363871 1
gene 1 9 296 0.754333 0 1826 0.754333 1
gene 2 22 37 -0.716638 0 1858 -0.716638 1
gene 3 17 537 1 0 1896 0 1
gene 3 537 186 -1.20625 0 1897 0 1
gene 3 296 382 -0.626987 0 2021 -0.626987 1
gene 1 19 386 -0.972263 0 2068 -0.972263 1
gene 3 17 591 1 0 2087 0 1
gene 3 591 537 1 0 2088 0 1
gene 1 386 218 -0.163464 0 2114 -0.163464 1
gene 1 223 605 1 0 2133 0 1
gene 1 605 186 1.78431 0 2134 0 1
gene 2 18 223 -0.208909 0 2225 -0.208909 1
gene 1 19 631 1 0 2229 0 1
gene 1 631 386 -0.972263 0 2230 0 1
gene 3 3 634 1 0 2241 0 1
gene 3 634 26 -5.87676 0 2242 0 1
gene 2 69 382 0.577421 0 2261 0.577421 1
gene 3 186 69 -0.17745 0 2313 -0.17745 1
gene 3 18 667 1 0 2375 0 1
gene 3 667 26 0.846446 0 2376 0 1
gene 3 5 591 -0.217251 0 2473 -0.217251 1
gene 2 26 382 0.663119 0 2494 0.663119 1
gene 1 605 26 -0.375437 0 2510 -0.375437 1
gene 2 591 25 -0.364501 0 2545 -0.364501 1
gene 1 15 713 1 0 2555 0 1
gene 1 713 37 1.35365 0 2556 0 1
gene 3 449 346 -0.526811 0 2575 -0.526811 1
gene 3 13 713 0.338525 0 2594 0.338525 1
gene 1 22 719 1 0 2606 0 1
gene 2 719 386 3.16956 0 2607 0 1
gene 3 719 25 0.56024 0 2617 0.56024 1
gene 3 4 725 1 0 2631 0 1
gene 3 725 218 3.58598 0 2632 0 1
gene 1 23 667 0.292946 0 2759 0.292946 1
genomeend 13

/* Organism #14 Fitness: 54.1694 Error: 0 */
genomestart 14
trait 1 1 1 0 0.215414 0.0782647 0.152984 0.270353 0.127238 
trait 2 0 0.959183 0 0.654548 1 0.573576 0.599192 0.969198 
trait 3 0.511214 0.117429 0 0.326972 0.451124 0.404619 0.567564 0.102175 
node 1 1 1 3
node 2 1 1 1
node 3 1 1 1
node 4 3 1 1
node 5 2 1 1
node 6 2 1 1
node 7 3 1 1
node 8 1 1 1
node 9 3 1 1
node 10 2 1 1
node 11 1 1 1
node 12 3 1 1
node 13 3 1 1
node 14 2 1 1
node 15 1 1 1
node 16 2 1 1
node 17 2 1 1
node 18 1 1 1
node 19 1 1 1
node 20 3 1 1
node 21 3 1 1
node 22 3 1 1
node 23 3 1 1
node 24 2 1 1
node 25 2 0 2
node 26 3 0 2
node 37 1 0 0
node 69 2 0 0
node 186 1 0 0
node 218 1 0 0
node 223 3 0 0
node 296 1 0 0
node 346 1 0 0
node 382 1 0 0
node 386 1 0 0
node 449 1 0 0
node 537 2 0 0
node 591 1 0 0
node 605 1 0 0
node 631 1 0 0
node 634 1 0 0
node 667 1 0 0
node 713 1 0 0
node 719 1 0 0
node 725 1 0 0
gene 2 1 25 6.86792 0 1 6.86792 1
gene 1 2 25 5.2418 0 2 5.2418 1
gene 3 3 25 -3.59199 0 3 -3.59199 1
gene 3 4 25 -0.735245 0 4 -0.735245 0
gene 3 5 25 -1.48433 0 5 -1.48433 1
gene 3 6 25 1.96898 0 6 1.96898 1
gene 1 7 25 -4.75393 0 7 -4.75393 1
gene 1 8 25 -0.274357 0 8 -0.274357 1
gene 1 9 25 -4.01012 0 9 -4.01012 1
gene 2 10 25 0.204314 0 10 0.204314 1
gene 3 11 25 -0.395893 0 11 -0.395893 1
gene 1 12 25 6.0894 0 12 6.0894 1
gene 1 13 25 1.65815 0 13 1.65815 1
gene 1 14 25 -1.36396 0 14 -1.36396 1
gene 3 15 25 6.01246 0 15 6.01246 1
gene 1 16 25 4.26524 0 16 4.26524 1
gene 1 17 25 1.76703 0 17 1.76703 1
gene 1 18 25 2.05471 0 18 2.05471 1
gene 3 19 25 -4.2422 0 19 -4.2422 1
gene 1 20 25 0.00457892 0 20 0.00457892 1
gene 3 21 25 -2.6103 0 21 -2.6103 1
gene 3 22 25 4.07854 0 22 4.07854 1
gene 3 23 25 1.575 0 23 1.575 1
gene 3 24 25 -0.239925 0 24 -0.239925 1
gene 3 1 26 -3.17713 0 25 -3.17713 1
gene 1 2 26 -6.32643 0 26 -6.32643 1
gene 3 3 26 0.890973 0 27 0.890973 1
gene 2 4 26 0.569996 0 28 0.569996 1
gene 1 5 26 -0.221665 0 29 -0.221665 0
gene 1 6 26 0.187419 0 30 0.187419 1
gene 1 7 26 2.49221 0 31 2.49221 1
gene 3 8 26 0.447341 0 32 0.447341 1
gene 3 9 26 -1.53746 0 33 -1.53746 1
gene 1 10 26 -3.36382 0 34 -3.36382 1
gene 1 11 26 -0.339669 0 35 -0.339669 1
gene 2 12 26 5.79206 0 36 5.79206 1
gene 2 13 26 -0.978601 0 37 -0.978601 1
gene 2 14 26 -3.08768 0 38 -3.08768 1
gene 3 15 26 -0.391179 0 39 -0.391179 1
gene 2 16 26 0.113817 0 40 0.113817 1
gene 1 17 26 2.46938 0 41 2.46938 1
gene 3 18 26 1.98614 0 42 1.98614 1
gene 3 19 26 4.7662 0 43 4.7662 1
gene 2 20 26 -2.80359 0 44 -2.80359 1
gene 3 21 26 4.28261 0 45 4.28261 1
gene 2 22 26 0.660592 0 46 0.660592 0
gene 3 23 26 2.57386 0 47 2.57386 0
gene 2 24 26 -2.60894 0 48 -2.60894 1
gene 3 4 37 -5.07066 0 73 -5.07066 0
gene 3 37 25 1.14646 0 74 1.14646 1
gene 2 14 37 -1.02965 0 110 -1.02965 1
gene 2 20 69 1.41432 0 175 1.41432 1
gene 2 69 26 -1.60334 0 176 -1.60334 1
gene 3 18 69 6.45825 0 190 6.45825 1
gene 1 69 37 -1.67176 0 463 -1.67176 1
gene 3 69 25 4.68006 0 503 4.68006 1
gene 2 16 69 -5.00193 0 572 -5.00193 1
gene 1 11 69 0.590563 0 581 0.590563 1
gene 2 4 186 0.298799 0 612 0.298799 1
gene 2 186 26 -0.337705 0 613 -0.337705 1
gene 2 2 69 1.24967 0 677 1.24967 1
gene 2 19 186 4.21187 0 720 4.21187 0
gene 3 4 218 -1.51021 0 737 -1.51021 0
gene 3 218 37 0.530959 0 738 0.530959 1
gene 2 19 223 2.23119 0 752 2.23119 1
gene 1 223 186 5.56614 0 753 5.56614 0
gene 1 15 37 1.84865 0 992 1.84865 1
gene 3 23 296 0.30705 0 1006 0.30705 1
gene 3 296 26 0.185219 0 1007 0.185219 1
gene 2 186 218 -2.90368 0 1049 -2.90368 1
gene 1 5 223 -1.31011 0 1077 -1.31011 1
gene 2 14 218 -2.65483 0 1172 -2.65483 1
gene 3 218 346 0.993192 0 1189 0.993192 1
gene 3 346 37 -2.32299 0 1190 -2.32299 1
gene 3 17 186 -1.45041 0 1294 -1.45041 1
gene 1 17 382 -5.5876 0 1314 -5.5876 1
gene 1 382 25 -3.3569 0 1315 -3.3569 1
gene 2 22 386 0.0473054 0 1331 0.0473054 0
gene 2 386 26 0.332892 0 1332 0.332892 1
gene 2 346 296 0.572644 0 1431 0.572644 1
gene 3 15 382 -6.23815 0 1485 -6.23815 1
gene 2 1 346 -0.679336 0 1511 -0.679336 1
gene 2 14 449 5.40208 0 1571 5.40208 1
gene 2 449 218 -2.05194 0 1572 -2.05194 1
gene 2 2 223 -2.31981 0 1802 -2.31981 1
gene 1 9 296 0.00542153 0 1826 0.00542153 1
gene 2 22 37 -1.94505 0 1858 -1.94505 1
gene 3 17 537 2.39761 0 1896 2.39761 1
gene 3 537 186 -0.805529 0 1897 -0.805529 1
gene 3 296 382 -5.33955 0 2021 -5.33955 1
gene 1 19 386 0.837381 0 2068 0.837381 1
gene 3 17 591 -2.34993 0 2087 -2.34993 1
gene 3 591 537 -4.3957 0 2088 -4.3957 1
gene 1 386 218 2.47297 0 2114 2.47297 1
gene 1 223 605 -4.89121 0 2133 -4.89121 1
gene 1 605 186 -1.82526 0 2134 -1.82526 1
gene 2 18 223 -3.12535 0 2225 -3.12535 1
gene 1 19 631 4.6477 0 2229 4.6477 1
gene 1 631 386 -3.80781 0 2230 -3.80781 1
gene 3 3 634 1.52022 0 2241 1.52022 1
gene 3 634 26 -8 0 2242 -8 1
gene 2 69 382 -2.25302 0 2261 -2.25302 1
gene 3 186 69 -2.18423 0 2313 -2.18423 1
gene 3 18 667 1.07167 0 2375 1.07167 1
gene 3 667 26 0.317687 0 2376 0.317687 1
gene 3 5 591 2.73821 0 2473 2.73821 1
gene 2 26 382 -2.76197 0 2494 -2.76197 1
gene 1 605 26 -2.2416 0 2510 -2.2416 1
gene 2 591 25 2.05017 0 2545 2.05017 1
gene 1 15 713 -0.0467555 0 2555 -0.0467555 1
gene 1 713 37 4.29745 0 2556 4.29745 1
gene 3 449 346 -4.03951 0 2575 -4.03951 1
gene 3 13 713 3.09266 0 2594 3.09266 1
gene 1 22 719 -0.297785 0 2606 -0.297785 1
gene 2 719 386 -0.33126 0 2607 -0.33126 1
gene 3 719 25 2.04706 0 2617 2.04706 1
gene 3 4 725 1.10446 0 2631 1.10446 1
gene 3 725 218 0.659799 0 2632 0.659799 1
gene 1 23 667 -2.71197 0 2759 -2.71197 1
gene 3 186 296 -0.685404 0 2968 -0.685404 1
genomeend 14

/* Organism #15 Fitness: 9.44462 Error: 0 */
genomestart 15
trait 1 1 1 0 0.215414 0.0782647 0.152984 0.270353 0.127238 
trait 2 0 0.959183 0 0.654548 1 0.573576 0.599192 0.969198 
trait 3 0.511214 0.117429 0 0.326972 0.451124 0.404619 0.567564 0.102175 
node 1 1 1 3
node 2 1 1 1
node 3 1 1 1
node 4 3 1 1
node 5 2 1 1
node 6 2 1 1
node 7 3 1 1
node 8 1 1 1
node 9 3 1 1
node 10 2 1 1
node 11 1 1 1
node 12 3 1 1
node 13 3 1 1
node 14 2 1 1
node 15 1 1 1
node 16 2 1 1
node 17 2 1 1
node 18 1 1 1
node 19 1 1 1
node 20 3 1 1
node 21 3 1 1
node 22 3 1 1
node 23 3 1 1
node 24 2 1 1
node 25 2 0 2
node 26 3 0 2
node 37 1 0 0
node 69 2 0 0
node 186 1 0 0
node 218 1 0 0
node 223 3 0 0
node 296 1 0 0
node 346 1 0 0
node 382 1 0 0
node 386 1 0 0
node 449 1 0 0
node 537 2 0 0
node 591 1 0 0
node 605 1 0 0
node 631 1 0 0
node 634 1 0 0
node 667 1 0 0
node 713 1 0 0
node 719 1 0 0
node 725 1 0 0
gene 2 1 25 2.28746 0 1 2.28746 1
gene 1 2 25 5.2418 0 2 5.2418 1
gene 3 3 25 -1.45729 0 3 -1.45729 1
gene 3 4 25 -4.57309 0 4 -4.57309 0
gene 3 5 25 1.63122 0 5 1.63122 1
gene 3 6 25 4.31418 0 6 4.31418 1
gene 1 7 25 -2.39129 0 7 -2.39129 1
gene 1 8 25 1.05457 0 8 1.05457 1
gene 1 9 25 -4.11584 0 9 -4.11584 1
gene 2 10 25 4.21249 0 10 4.21249 1
gene 3 11 25 -0.395893 0 11 -0.395893 1
gene 1 12 25 8 0 12 8 1
gene 1 13 25 3.7187 0 13 3.7187 1
gene 1 14 25 -2.54576 0 14 -2.54576 1
gene 3 15 25 7.88863 0 15 7.88863 1
gene 1 16 25 2.24468 0 16 2.24468 1
gene 1 17 25 1.19081 0 17 1.19081 0
gene 1 18 25 2.06842 0 18 2.06842 1
gene 3 19 25 -3.3024 0 19 -3.3024 1
gene 1 20 25 1.49776 0 20 1.49776 1
gene 3 21 25 0.888747 0 21 0.888747 1
gene 3 22 25 1.59873 0 22 1.59873 1
gene 3 23 25 -0.0431796 0 23 -0.0431796 1
gene 3 24 25 0.299567 0 24 0.299567 1
gene 3 1 26 -3.34574 0 25 -3.34574 1
gene 1 2 26 -8 0 26 -8 1
gene 3 3 26 1.99902 0 27 1.99902 1
gene 2 4 26 2.13235 0 28 2.13235 1
gene 1 5 26 -0.291799 0 29 -0.291799 0
gene 1 6 26 3.26038 0 30 3.26038 1
gene 1 7 26 2.18433 0 31 2.18433 1
gene 3 8 26 3.16721 0 32 3.16721 1
gene 3 9 26 0.930417 0 33 0.930417 1
gene 1 10 26 1.55337 0 34 1.55337 1
gene 1 11 26 0.380324 0 35 0.380324 1
gene 2 12 26 4.95104 0 36 4.95104 1
gene 2 13 26 1.38329 0 37 1.38329 1
gene 2 14 26 -3.2029 0 38 -3.2029 1
gene 3 15 26 -0.48781 0 39 -0.48781 1
gene 2 16 26 0.244071 0 40 0.244071 1
gene 1 17 26 2.76102 0 41 2.76102 1
gene 3 18 26 0.639718 0 42 0.639718 1
gene 3 19 26 3.44245 0 43 3.44245 1
gene 2 20 26 -3.78925 0 44 -3.78925 1
gene 3 21 26 1.04607 0 45 1.04607 1
gene 2 22 26 -1.96374 0 46 -1.96374 0
gene 3 23 26 0.404302 0 47 0.404302 0
gene 2 24 26 -0.751008 0 48 -0.751008 1
gene 3 4 37 -0.939953 0 73 -0.939953 0
gene 3 37 25 -3.19501 0 74 -3.19501 1
gene 2 14 37 0.661351 0 110 0.661351 1
gene 2 20 69 4.61022 0 175 4.61022 1
gene 2 69 26 -3.59011 0 176 -3.59011 1
gene 3 18 69 3.90073 0 190 3.90073 1
gene 1 69 37 -1.67176 0 463 -1.67176 1
gene 3 69 25 -2.58978 0 503 -2.58978 1
gene 2 16 69 -3.70603 0 572 -3.70603 1
gene 1 11 69 -2.47051 0 581 -2.47051 1
gene 2 4 186 1.81801 0 612 1.81801 1
gene 2 186 26 2.19768 0 613 2.19768 1
gene 2 2 69 -1.22101 0 677 -1.22101 1
gene 2 19 186 1.91425 0 720 1.91425 0
gene 3 4 218 3.58598 0 737 3.58598 0
gene 3 218 37 -1.93965 0 738 -1.93965 1
gene 2 19 223 -0.717545 0 752 -0.717545 1
gene 1 223 186 5.56614 0 753 5.56614 0
gene 1 15 37 0.577989 0 992 0.577989 0
gene 3 23 296 -0.666915 0 1006 -0.666915 1
gene 3 296 26 0.915411 0 1007 0.915411 1
gene 2 186 218 -2.90368 0 1049 -2.90368 1
gene 1 5 223 -0.675691 0 1077 -0.675691 1
gene 2 14 218 -2.30111 0 1172 -2.30111 1
gene 3 218 346 1.75211 0 1189 1.75211 1
gene 3 346 37 -1.39613 0 1190 -1.39613 1
gene 3 17 186 -1.20625 0 1294 -1.20625 0
gene 1 17 382 -4.21779 0 1314 -4.21779 1
gene 1 382 25 -4.36915 0 1315 -4.36915 1
gene 2 22 386 1.57882 0 1331 1.57882 0
gene 2 386 26 -2.09583 0 1332 -2.09583 1
gene 2 346 296 -0.920275 0 1431 -0.920275 1
gene 3 15 382 -0.760623 0 1485 -0.760623 1
gene 2 1 346 0.348474 0 1511 0.348474 1
gene 2 14 449 3.51909 0 1571 3.51909 1
gene 2 449 218 -2.31393 0 1572 0 1
gene 2 2 223 0.706687 0 1802 0.706687 1
gene 1 9 296 -0.804053 0 1826 -0.804053 1
gene 2 22 37 -0.716638 0 1858 -0.716638 1
gene 3 17 537 -0.731195 0 1896 -0.731195 1
gene 3 537 186 -2.81407 0 1897 -2.81407 1
gene 3 296 382 -3.04247 0 2021 -3.04247 1
gene 1 19 386 0.648015 0 2068 0.648015 1
gene 3 17 591 1 0 2087 0 1
gene 3 591 537 1 0 2088 0 1
gene 1 386 218 -0.163464 0 2114 -0.163464 1
gene 1 223 605 1 0 2133 0 1
gene 1 605 186 1.78431 0 2134 0 1
gene 2 18 223 -0.208909 0 2225 -0.208909 1
gene 1 19 631 1 0 2229 0 1
gene 1 631 386 -0.972263 0 2230 0 1
gene 3 3 634 1 0 2241 0 1
gene 3 634 26 -5.87676 0 2242 0 1
gene 2 69 382 0.577421 0 2261 0.577421 1
gene 3 186 69 -0.17745 0 2313 -0.17745 1
gene 3 18 667 1 0 2375 0 1
gene 3 667 26 0.846446 0 2376 0 1
gene 3 5 591 -0.217251 0 2473 -0.217251 1
gene 2 26 382 -0.632858 0 2494 -0.632858 1
gene 1 605 26 -0.375437 0 2510 -0.375437 1
gene 2 591 25 0.758201 0 2545 0.758201 1
gene 1 15 713 -0.0467555 0 2555 -0.0467555 1
gene 1 713 37 2.83675 0 2556 2.83675 1
gene 3 449 346 -3.49767 0 2575 -3.49767 1
gene 3 13 713 1.62246 0 2594 1.62246 1
gene 1 22 719 1 0 2606 0 1
gene 2 719 386 3.16956 0 2607 0 1
gene 3 719 25 0.714746 0 2617 0.714746 1
gene 3 4 725 1 0 2631 0 1
gene 3 725 218 3.58598 0 2632 0 1
gene 1 23 667 0.292946 0 2759 0.292946 1
genomeend 15

/* Organism #16 Fitness: 1.04516 Error: 0 */
genomestart 16
trait 1 1 1 0 0.215414 0.0782647 0.152984 0.270353 0.127238 
trait 2 0 0.959183 0 0.654548 1 0.573576 0.599192 0.969198 
trait 3 0.511214 0.117429 0 0.326972 0.451124 0.404619 0.567564 0.102175 
node 1 1 1 3
node 2 1 1 1
node 3 1 1 1
node 4 3 1 1
node 5 2 1 1
node 6 2 1 1
node 7 3 1 1
node 8 1 1 1
node 9 3 1 1
node 10 2 1 1
node 11 1 1 1
node 12 3 1 1
node 13 3 1 1
node 14 2 1 1
node 15 1 1 1
node 16 2 1 1
node 17 2 1 1
node 18 1 1 1
node 19 1 1 1
node 20 3 1 1
node 21 3 1 1
node 22 3 1 1
node 23 3 1 1
node 24 2 1 1
node 25 2 0 2
node 26 3 0 2
node 37 1 0 0
node 69 2 0 0
node 186 1 0 0
node 218 1 0 0
node 223 3 0 0
node 296 1 0 0
node 346 1 0 0
node 382 1 0 0
node 386 1 0 0
node 449 1 0 0
node 537 2 0 0
node 591 1 0 0
node 605 1 0 0
node 631 1 0 0
node 634 1 0 0
node 667 1 0 0
node 713 1 0 0
node 719 1 0 0
node 725 1 0 0
gene 2 1 25 5.04788 0 1 5.04788 1
gene 1 2 25 3.25964 0 2 3.25964 1
gene 3 3 25 -4.92783 0 3 -4.92783 1
gene 3 4 25 -2.45282 0 4 -2.45282 0
gene 3 5 25 -0.191443 0 5 -0.191443 1
gene 3 6 25 -2.05972 0 6 -2.05972 1
gene 1 7 25 -0.153888 0 7 -0.153888 1
gene 1 8 25 -1.17281 0 8 -1.17281 1
gene 1 9 25 -1.23931 0 9 -1.23931 1
gene 2 10 25 2.07223 0 10 2.07223 1
gene 3 11 25 1.26847 0 11 1.26847 1
gene 1 12 25 6.5322 0 12 6.5322 1
gene 1 13 25 3.7187 0 13 3.7187 1
gene 1 14 25 -3.39296 0 14 -3.39296 1
gene 3 15 25 7.87269 0 15 7.87269 1
gene 1 16 25 5.01703 0 16 5.01703 1
gene 1 17 25 1.89531 0 17 1.89531 1
gene 1 18 25 1.85005 0 18 1.85005 1
gene 3 19 25 -5.50402 0 19 -5.50402 1
gene 1 20 25 1.49776 0 20 1.49776 1
gene 3 21 25 -1.81221 0 21 -1.81221 1
gene 3 22 25 2.79161 0 22 2.79161 1
gene 3 23 25 1.91107 0 23 1.91107 1
gene 3 24 25 1.52023 0 24 1.52023 1
gene 3 1 26 -4.54203 0 25 -4.54203 1
gene 1 2 26 -7.9844 0 26 -7.9844 1
gene 3 3 26 2.09175 0 27 2.09175 1
gene 2 4 26 -1.19601 0 28 -1.19601 1
gene 1 5 26 1.73054 0 29 1.73054 0
gene 1 6 26 3.07212 0 30 3.07212 1
gene 1 7 26 -0.117812 0 31 -0.117812 1
gene 3 8 26 0.392176 0 32 0.392176 1
gene 3 9 26 -0.182794 0 33 -0.182794 1
gene 1 10 26 0.0512431 0 34 0.0512431 1
gene 1 11 26 -2.09341 0 35 -2.09341 1
gene 2 12 26 6.21489 0 36 6.21489 1
gene 2 13 26 -1.57721 0 37 -1.57721 1
gene 2 14 26 -4.75295 0 38 -4.75295 1
gene 3 15 26 2.96747 0 39 2.96747 1
gene 2 16 26 2.40458 0 40 2.40458 1
gene 1 17 26 1.42412 0 41 1.42412 1
gene 3 18 26 -0.0365232 0 42 -0.0365232 1
gene 3 19 26 -0.87757 0 43 -0.87757 1
gene 2 20 26 -5.92013 0 44 -5.92013 1
gene 3 21 26 -0.283369 0 45 -0.283369 1
gene 2 22 26 -3.27587 0 46 -3.27587 0
gene 3 23 26 -0.0678169 0 47 -0.0678169 0
gene 2 24 26 -0.751008 0 48 -0.751008 1
gene 3 4 37 -6.59212 0 73 -6.59212 0
gene 3 37 25 -1.8892 0 74 -1.8892 1
gene 2 14 37 1.12479 0 110 1.12479 1
gene 2 20 69 6.30998 0 175 6.30998 1
gene 2 69 26 1.07388 0 176 1.07388 1
gene 3 18 69 1.5567 0 190 1.5567 1
gene 1 69 37 2.32559 0 463 2.32559 1
gene 3 69 25 4.23422 0 503 4.23422 1
gene 2 16 69 1.8427 0 572 1.8427 1
gene 1 11 69 -1.55258 0 581 -1.55258 1
gene 2 4 186 2.16309 0 612 2.16309 1
gene 2 186 26 1.51371 0 613 1.51371 1
gene 2 2 69 0.26481 0 677 0.26481 1
gene 2 19 186 1.91425 0 720 1.91425 0
gene 3 4 218 -0.302855 0 737 -0.302855 0
gene 3 218 37 2.97192 0 738 2.97192 1
gene 2 19 223 5.08946 0 752 5.08946 1
gene 1 223 186 4.75369 0 753 4.75369 0
gene 1 15 37 -1.17797 0 992 -1.17797 1
gene 3 23 296 2.3696 0 1006 2.3696 1
gene 3 296 26 2.9853 0 1007 2.9853 1
gene 2 186 218 -4.45962 0 1049 -4.45962 1
gene 1 5 223 0.0776461 0 1077 0.0776461 1
gene 2 14 218 -0.576978 0 1172 -0.576978 1
gene 3 218 346 1.60753 0 1189 1.60753 1
gene 3 346 37 -1.89222 0 1190 -1.89222 1
gene 3 17 186 -1.92565 0 1294 -1.92565 1
gene 1 17 382 -6.26294 0 1314 -6.26294 1
gene 1 382 25 -4.4146 0 1315 -4.4146 1
gene 2 22 386 2.64981 0 1331 2.64981 0
gene 2 386 26 2.09103 0 1332 2.09103 1
gene 2 346 296 -2.895 0 1431 -2.895 1
gene 3 15 382 0.00927397 0 1485 0.00927397 1
gene 2 1 346 1.56696 0 1511 1.56696 1
gene 2 14 449 1.11636 0 1571 1.11636 1
gene 2 449 218 -4.77528 0 1572 -4.77528 1
gene 2 2 223 1.33582 0 1802 1.33582 1
gene 1 9 296 -1.53637 0 1826 -1.53637 1
gene 2 22 37 -0.99721 0 1858 -0.99721 1
gene 3 17 537 -1.58555 0 1896 -1.58555 1
gene 3 537 186 -1.508 0 1897 -1.508 1
gene 3 296 382 -0.19742 0 2021 -0.19742 1
gene 1 19 386 2.19013 0 2068 2.19013 1
gene 3 17 591 -2.14741 0 2087 -2.14741 1
gene 3 591 537 -2.61593 0 2088 -2.61593 1
gene 1 386 218 1.37947 0 2114 1.37947 1
gene 1 223 605 -4.935 0 2133 -4.935 1
gene 1 605 186 -2.49068 0 2134 -2.49068 1
gene 2 18 223 -0.32653 0 2225 -0.32653 1
gene 1 19 631 2.25291 0 2229 2.25291 1
gene 1 631 386 -3.28168 0 2230 -3.28168 1
gene 3 3 634 1.63352 0 2241 1.63352 1
gene 3 634 26 0.752329 0 2242 0.752329 1
gene 2 69 382 -0.452558 0 2261 -0.452558 1
gene 3 186 69 -2.27399 0 2313 -2.27399 1
gene 3 18 667 4.47388 0 2375 4.47388 1
gene 3 667 26 -0.0559347 0 2376 -0.0559347 1
gene 3 5 591 0.762384 0 2473 0.762384 1
gene 2 26 382 1.12555 0 2494 1.12555 1
gene 1 605 26 2.02533 0 2510 2.02533 1
gene 2 591 25 1.32218 0 2545 1.32218 1
gene 1 15 713 -1.78675 0 2555 -1.78675 1
gene 1 713 37 0.405774 0 2556 0.405774 1
gene 3 449 346 -2.3288 0 2575 -2.3288 1
gene 3 13 713 -1.21032 0 2594 -1.21032 1
gene 1 22 719 0.526506 0 2606 0.526506 1
gene 2 719 386 -1.03365 0 2607 -1.03365 1
gene 3 719 25 -1.51604 0 2617 -1.51604 1
gene 3 4 725 2.53569 0 2631 2.53569 1
gene 3 725 218 2.34875 0 2632 2.34875 1
gene 1 23 667 -1.43373 0 2759 -1.43373 1
gene 3 186 296 -0.294266 0 2968 -0.294266 1
genomeend 16

/* Organism #17 Fitness: 10.7331 Error: 0 */
genomestart 17
trait 1 1 1 0 0.215414 0.0782647 0.152984 0.270353 0.127238 
trait 2 0 0.959183 0 0.654548 1 0.573576 0.599192 0.969198 
trait 3 0.511214 0.117429 0 0.326972 0.451124 0.404619 0.567564 0.102175 
node 1 1 1 3
node 2 1 1 1
node 3 1 1 1
node 4 3 1 1
node 5 2 1 1
node 6 2 1 1
node 7 3 1 1
node 8 1 1 1
node 9 3 1 1
node 10 2 1 1
node 11 1 1 1
node 12 3 1 1
node 13 3 1 1
node 14 2 1 1
node 15 1 1 1
node 16 2 1 1
node 17 2 1 1
node 18 1 1 1
node 19 1 1 1
node 20 3 1 1
node 21 3 1 1
node 22 3 1 1
node 23 3 1 1
node 24 2 1 1
node 25 2 0 2
node 26 3 0 2
node 37 1 0 0
node 69 2 0 0
node 186 1 0 0
node 218 1 0 0
node 223 3 0 0
node 296 1 0 0
node 346 1 0 0
node 382 1 0 0
node 386 1 0 0
node 449 1 0 0
node 537 2 0 0
node 591 1 0 0
node 605 1 0 0
node 631 1 0 0
node 634 1 0 0
node 667 1 0 0
node 713 1 0 0
node 719 1 0 0
node 725 1 0 0
gene 2 1 25 2.28746 0 1 2.28746 1
gene 1 2 25 5.2418 0 2 5.2418 1
gene 3 3 25 -1.45729 0 3 -1.45729 1
gene 3 4 25 -1.71066 0 4 -1.71066 0
gene 3 5 25 1.63122 0 5 1.63122 1
gene 3 6 25 -2.06137 0 6 -2.06137 1
gene 1 7 25 -2.39129 0 7 -2.39129 1
gene 1 8 25 0.0185616 0 8 0.0185616 1
gene 1 9 25 -3.63323 0 9 -3.63323 1
gene 2 10 25 4.21249 0 10 4.21249 1
gene 3 11 25 -0.395893 0 11 -0.395893 1
gene 1 12 25 5.89264 0 12 5.89264 1
gene 1 13 25 3.7187 0 13 3.7187 1
gene 1 14 25 -5.01532 0 14 -5.01532 1
gene 3 15 25 7.88863 0 15 7.88863 1
gene 1 16 25 5.01703 0 16 5.01703 1
gene 1 17 25 -0.658978 0 17 -0.658978 0
gene 1 18 25 2.06842 0 18 2.06842 1
gene 3 19 25 -3.3024 0 19 -3.3024 1
gene 1 20 25 -0.095246 0 20 -0.095246 1
gene 3 21 25 0.888747 0 21 0.888747 1
gene 3 22 25 1.59873 0 22 1.59873 1
gene 3 23 25 -0.0431796 0 23 -0.0431796 1
gene 3 24 25 0.299567 0 24 0.299567 1
gene 3 1 26 -3.34574 0 25 -3.34574 1
gene 1 2 26 -8 0 26 -8 1
gene 3 3 26 1.99902 0 27 1.99902 1
gene 2 4 26 -2.57977 0 28 -2.57977 1
gene 1 5 26 -0.303708 0 29 -0.303708 0
gene 1 6 26 4.34764 0 30 4.34764 1
gene 1 7 26 2.18433 0 31 2.18433 1
gene 3 8 26 0.392176 0 32 0.392176 1
gene 3 9 26 0.930417 0 33 0.930417 1
gene 1 10 26 -1.07716 0 34 -1.07716 1
gene 1 11 26 0.380324 0 35 0.380324 1
gene 2 12 26 3.52433 0 36 3.52433 1
gene 2 13 26 1.38329 0 37 1.38329 1
gene 2 14 26 -2.99209 0 38 -2.99209 1
gene 3 15 26 -0.48781 0 39 -0.48781 1
gene 2 16 26 0.244071 0 40 0.244071 1
gene 1 17 26 0.940378 0 41 0.940378 1
gene 3 18 26 0.639718 0 42 0.639718 1
gene 3 19 26 2.48694 0 43 2.48694 1
gene 2 20 26 -3.78925 0 44 -3.78925 1
gene 3 21 26 4.28261 0 45 4.28261 1
gene 2 22 26 -1.96374 0 46 -1.96374 0
gene 3 23 26 2.4884 0 47 2.4884 0
gene 2 24 26 0.277144 0 48 0.277144 1
gene 3 4 37 -5.07066 0 73 -5.07066 0
gene 3 37 25 -3.19501 0 74 -3.19501 1
gene 2 14 37 0.661351 0 110 0.661351 1
gene 2 20 69 4.61022 0 175 4.61022 1
gene 2 69 26 0.494441 0 176 0.494441 1
gene 3 18 69 5.12517 0 190 5.12517 1
gene 1 69 37 -1.28823 0 463 -1.28823 1
gene 3 69 25 -2.58978 0 503 -2.58978 1
gene 2 16 69 -3.33086 0 572 -3.33086 1
gene 1 11 69 -2.47051 0 581 -2.47051 1
gene 2 4 186 1.81801 0 612 1.81801 1
gene 2 186 26 2.19768 0 613 2.19768 1
gene 2 2 69 -1.22101 0 677 -1.22101 1
gene 2 19 186 1.91425 0 720 1.91425 0
gene 3 4 218 3.58598 0 737 3.58598 0
gene 3 218 37 -1.93965 0 738 -1.93965 1
gene 2 19 223 -0.717545 0 752 -0.717545 1
gene 1 223 186 1.78431 0 753 1.78431 0
gene 1 15 37 1.35365 0 992 1.35365 0
gene 3 23 296 0.603116 0 1006 0.603116 1
gene 3 296 26 4.13349 0 1007 4.13349 1
gene 2 186 218 1.14331 0 1049 1.14331 1
gene 1 5 223 -0.675691 0 1077 -0.675691 1
gene 2 14 218 -2.31393 0 1172 -2.31393 1
gene 3 218 346 1.75211 0 1189 1.75211 1
gene 3 346 37 -1.39613 0 1190 -1.39613 1
gene 3 17 186 -1.20625 0 1294 -1.20625 0
gene 1 17 382 -0.634775 0 1314 -0.634775 1
gene 1 382 25 -4.36915 0 1315 -4.36915 1
gene 2 22 386 3.16956 0 1331 3.16956 0
gene 2 386 26 -2.09583 0 1332 -2.09583 1
gene 2 346 296 -0.920275 0 1431 -0.920275 1
gene 3 15 382 -0.760623 0 1485 -0.760623 1
gene 2 1 346 0.348474 0 1511 0.348474 1
gene 2 14 449 1 0 1571 0 1
gene 2 449 218 -2.31393 0 1572 0 1
gene 2 2 223 0.706687 0 1802 0.706687 1
gene 1 9 296 -0.804053 0 1826 -0.804053 1
gene 2 22 37 -4.38419 0 1858 -4.38419 1
gene 3 17 537 -0.731195 0 1896 -0.731195 1
gene 3 537 186 -2.81407 0 1897 -2.81407 1
gene 3 296 382 -0.626987 0 2021 -0.626987 1
gene 1 19 386 -0.972263 0 2068 -0.972263 1
gene 3 17 591 1 0 2087 0 1
gene 3 591 537 1 0 2088 0 1
gene 1 386 218 -0.163464 0 2114 -0.163464 1
gene 1 223 605 -3.38387 0 2133 -3.38387 1
gene 1 605 186 5.36644 0 2134 5.36644 1
gene 2 18 223 -2.26116 0 2225 -2.26116 1
gene 1 19 631 1 0 2229 0 1
gene 1 631 386 -5.52094 0 2230 -5.52094 1
gene 3 3 634 0.0157768 0 2241 0.0157768 1
gene 3 634 26 -8 0 2242 -8 1
gene 2 69 382 -0.848927 0 2261 -0.848927 1
gene 3 186 69 -0.17745 0 2313 -0.17745 1
gene 3 18 667 2.9441 0 2375 2.9441 1
gene 3 667 26 1.5643 0 2376 1.5643 1
gene 3 5 591 -0.217251 0 2473 -0.217251 1
gene 2 26 382 -0.632858 0 2494 -0.632858 1
gene 1 605 26 -2.02288 0 2510 -2.02288 1
gene 2 591 25 0.758201 0 2545 0.758201 1
gene 1 15 713 1 0 2555 0 1
gene 1 713 37 2.83675 0 2556 2.83675 1
gene 3 449 346 -3.49767 0 2575 -3.49767 1
gene 3 13 713 1.62246 0 2594 1.62246 1
gene 1 22 719 1 0 2606 0 1
gene 2 719 386 0.216539 0 2607 0.216539 1
gene 3 719 25 0.56024 0 2617 0.56024 1
gene 3 4 725 1.10446 0 2631 1.10446 1
gene 3 725 218 3.58598 0 2632 0 1
gene 1 23 667 -0.596038 0 2759 -0.596038 1
gene 3 10 631 -0.976719 0 2994 -0.976719 1
genomeend 17

/* Organism #18 Fitness: 23.2404 Error: 0 */
genomestart 18
trait 1 1 1 0 0.215414 0.0782647 0.152984 0.270353 0.127238 
trait 2 0 0.959183 0 0.654548 1 0.573576 0.599192 0.969198 
trait 3 0.511214 0.117429 0 0.326972 0.451124 0.404619 0.567564 0.102175 
node 1 1 1 3
node 2 1 1 1
node 3 1 1 1
node 4 3 1 1
node 5 2 1 1
node 6 2 1 1
node 7 3 1 1
node 8 1 1 1
node 9 3 1 1
node 10 2 1 1
node 11 1 1 1
node 12 3 1 1
node 13 3 1 1
node 14 2 1 1
node 15 1 1 1
node 16 2 1 1
node 17 2 1 1
node 18 1 1 1
node 19 1 1 1
node 20 3 1 1
node 21 3 1 1
node 22 3 1 1
node 23 3 1 1
node 24 2 1 1
node 25 2 0 2
node 26 3 0 2
node 37 1 0 0
node 69 2 0 0
node 186 1 0 0
node 218 1 0 0
node 223 3 0 0
node 296 1 0 0
node 346 1 0 0
node 382 1 0 0
node 386 1 0 0
node 449 1 0 0
node 537 2 0 0
node 591 1 0 0
node 605 1 0 0
node 631 1 0 0
node 634 1 0 0
node 667 1 0 0
node 713 1 0 0
node 719 1 0 0
node 725 1 0 0
gene 2 1 25 4.50363 0 1 4.50363 1
gene 1 2 25 -0.964319 0 2 -0.964319 1
gene 3 3 25 -5.74797 0 3 -5.74797 1
gene 3 4 25 -6.05151 0 4 -6.05151 0
gene 3 5 25 -0.631653 0 5 -0.631653 1
gene 3 6 25 -2.46378 0 6 -2.46378 1
gene 1 7 25 -1.51404 0 7 -1.51404 1
gene 1 8 25 -0.0882703 0 8 -0.0882703 1
gene 1 9 25 -2.33837 0 9 -2.33837 1
gene 2 10 25 -1.4159 0 10 -1.4159 1
gene 3 11 25 1.44054 0 11 1.44054 1
gene 1 12 25 7.28125 0 12 7.28125 1
gene 1 13 25 5.61728 0 13 5.61728 1
gene 1 14 25 -1.52249 0 14 -1.52249 1
gene 3 15 25 -2.21303 0 15 -2.21303 1
gene 1 16 25 2.62222 0 16 2.62222 1
gene 1 17 25 -1.15608 0 17 -1.15608 1
gene 1 18 25 1.77257 0 18 1.77257 1
gene 3 19 25 -1.80365 0 19 -1.80365 1
gene 1 20 25 1.49776 0 20 1.49776 1
gene 3 21 25 0.244117 0 21 0.244117 1
gene 3 22 25 3.42365 0 22 3.42365 1
gene 3 23 25 -2.41784 0 23 -2.41784 1
gene 3 24 25 3.35585 0 24 3.35585 1
gene 3 1 26 -2.55973 0 25 -2.55973 1
gene 1 2 26 -6.21924 0 26 -6.21924 1
gene 3 3 26 -0.462682 0 27 -0.462682 1
gene 2 4 26 3.9451 0 28 3.9451 1
gene 1 5 26 1.85332 0 29 1.85332 0
gene 1 6 26 4.28698 0 30 4.28698 1
