
/* Species #1509 : (Size 16) (AF 113.046) (Age 20)  */


/* Organism #0 Fitness: 484.991 Error: 0 */
genomestart 0
trait 1 0 0 0.413862 0 0.685362 0.745432 0.174664 0.207925 
trait 2 0.175426 0.00146352 0.619256 0 0.584142 0.0834754 0.105846 0.0836366 
trait 3 0.0916894 0.112261 0.670121 0.879394 0.252918 0.0486583 0.496868 0.128672 
node 1 2 1 3
node 2 1 1 1
node 3 3 1 1
node 4 3 1 1
node 5 2 1 1
node 6 1 1 1
node 7 3 1 1
node 8 2 1 1
node 9 1 1 1
node 10 3 1 1
node 11 1 1 1
node 12 3 1 1
node 13 3 1 1
node 14 3 1 1
node 15 2 1 1
node 16 2 1 1
node 17 3 1 1
node 18 1 1 1
node 19 2 1 1
node 20 3 1 1
node 21 3 1 1
node 22 2 1 1
node 23 1 1 1
node 24 2 1 1
node 25 3 0 2
node 26 1 0 2
node 69 1 0 0
node 193 1 0 0
node 280 1 0 0
node 316 1 0 0
node 343 1 0 0
node 462 1 0 0
node 511 1 0 0
node 547 1 0 0
node 583 1 0 0
node 598 1 0 0
node 607 1 0 0
node 633 1 0 0
node 679 1 0 0
node 753 1 0 0
node 811 1 0 0
node 825 1 0 0
node 829 1 0 0
node 834 1 0 0
node 841 1 0 0
node 863 1 0 0
node 871 1 0 0
node 901 1 0 0
node 902 3 0 0
node 908 1 0 0
node 949 1 0 0
node 969 1 0 0
node 978 1 0 0
node 1021 1 0 0
node 1130 1 0 0
node 1155 1 0 0
node 1165 1 0 0
node 1167 1 0 0
node 1171 1 0 0
node 1178 1 0 0
node 1197 1 0 0
node 1210 1 0 0
node 1239 1 0 0
node 1248 1 0 0
node 1254 1 0 0
node 1292 1 0 0
node 1296 1 0 0
node 1302 1 0 0
node 1313 1 0 0
node 1331 1 0 0
node 1365 1 0 0
node 1378 1 0 0
node 1382 1 0 0
node 1418 1 0 0
node 1429 1 0 0
node 1446 1 0 0
node 1468 3 0 0
node 1483 1 0 0
node 1486 1 0 0
node 1499 1 0 0
node 1517 1 0 0
node 1563 1 0 0
node 1590 1 0 0
node 1603 1 0 0
node 1694 1 0 0
node 1732 1 0 0
node 1744 2 0 0
node 1788 1 0 0
node 1825 1 0 0
node 1842 1 0 0
node 1852 2 0 0
node 1861 1 0 0
node 1874 1 0 0
node 1876 1 0 0
node 1910 1 0 0
node 1943 1 0 0
node 1960 1 0 0
node 2033 1 0 0
node 2044 1 0 0
node 2072 1 0 0
node 2079 1 0 0
node 2082 1 0 0
node 2087 1 0 0
node 2141 1 0 0
node 2175 1 0 0
node 2188 1 0 0
node 2196 2 0 0
node 2238 2 0 0
node 2253 1 0 0
node 2272 2 0 0
node 2323 1 0 0
node 2349 1 0 0
node 2356 1 0 0
node 2426 1 0 0
node 2442 1 0 0
node 2471 1 0 0
node 2476 1 0 0
node 2500 1 0 0
node 2550 1 0 0
node 2569 1 0 0
node 2582 1 0 0
node 2615 1 0 0
node 2658 1 0 0
node 2686 1 0 0
node 2701 1 0 0
node 2737 1 0 0
node 2873 1 0 0
node 2995 1 0 0
node 3085 1 0 0
node 3098 1 0 0
node 3126 1 0 0
node 3209 1 0 0
node 3265 1 0 0
node 3273 1 0 0
node 3313 1 0 0
node 3320 1 0 0
node 3364 1 0 0
node 3417 1 0 0
node 3422 1 0 0
node 3491 1 0 0
gene 1 1 25 -3.12713 0 1 -3.12713 1
gene 2 2 25 -4.08558 0 2 -4.08558 0
gene 1 3 25 1.21505 0 3 1.21505 1
gene 1 4 25 -2.29061 0 4 -2.29061 1
gene 1 5 25 -1.66022 0 5 -1.66022 1
gene 1 6 25 6.83078 0 6 6.83078 1
gene 3 7 25 6.66611 0 7 6.66611 0
gene 3 8 25 7.42327 0 8 7.42327 1
gene 3 9 25 -0.830045 0 9 -0.830045 1
gene 1 10 25 5.35413 0 10 5.35413 1
gene 1 11 25 1.16123 0 11 1.16123 1
gene 2 12 25 4.14435 0 12 4.14435 1
gene 2 13 25 -1.96789 0 13 -1.96789 1
gene 1 14 25 -6.71006 0 14 -6.71006 1
gene 2 15 25 -2.43645 0 15 -2.43645 0
gene 1 16 25 0.476 0 16 0.476 1
gene 3 17 25 -2.9715 0 17 -2.9715 1
gene 3 18 25 5.65565 0 18 5.65565 1
gene 1 19 25 -4.72178 0 19 -4.72178 1
gene 3 20 25 7.17403 0 20 7.17403 1
gene 1 21 25 0.0955685 0 21 0.0955685 1
gene 2 22 25 -0.385017 0 22 -0.385017 1
gene 1 23 25 1.43722 0 23 1.43722 1
gene 1 24 25 1.95014 0 24 1.95014 1
gene 1 1 26 -6.4942 0 25 -6.4942 1
gene 1 2 26 -6.91053 0 26 -6.91053 1
gene 3 3 26 0.131844 0 27 0.131844 1
gene 1 4 26 1.87779 0 28 1.87779 0
gene 2 5 26 4.127 0 29 4.127 0
gene 1 6 26 0.621289 0 30 0.621289 1
gene 2 7 26 2.16311 0 31 2.16311 1
gene 2 8 26 1.62807 0 32 1.62807 1
gene 1 9 26 -0.670903 0 33 -0.670903 1
gene 2 10 26 -1.43492 0 34 -1.43492 1
gene 1 11 26 2.82689 0 35 2.82689 1
gene 3 12 26 2.59152 0 36 2.59152 1
gene 2 13 26 -2.00564 0 37 -2.00564 1
gene 2 14 26 0.606217 0 38 0.606217 1
gene 2 15 26 1.06325 0 39 1.06325 1
gene 2 16 26 -5.98444 0 40 -5.98444 1
gene 2 17 26 1.11686 0 41 1.11686 1
gene 3 18 26 -1.97418 0 42 -1.97418 1
gene 1 19 26 2.45585 0 43 2.45585 1
gene 3 20 26 0.885972 0 44 0.885972 1
gene 2 21 26 0.188109 0 45 0.188109 1
gene 2 22 26 -1.30827 0 46 -1.30827 1
gene 3 23 26 0.346818 0 47 0.346818 1
gene 2 24 26 -1.27964 0 48 -1.27964 1
gene 1 2 69 1.62294 0 187 1.62294 1
gene 1 69 26 -2.24211 0 188 -2.24211 1
gene 3 23 69 -0.438268 0 195 -0.438268 1
gene 3 4 69 0.37109 0 222 0.37109 1
gene 1 11 69 -2.12927 0 347 -2.12927 1
gene 1 16 193 1.88065 0 646 1.88065 1
gene 1 193 25 1.44308 0 647 1.44308 1
gene 2 3 69 -1.7752 0 869 -1.7752 1
gene 2 3 280 0.854941 0 952 0.816489 1
gene 2 280 69 -1.86992 0 953 -1.84908 1
gene 2 15 69 -0.151216 0 1043 -0.151216 1
gene 3 12 69 0.460914 0 1057 0.460914 1
gene 2 5 316 -0.116642 0 1073 -0.198674 1
gene 2 316 26 5.47274 0 1074 5.18845 1
gene 3 20 280 -1.99666 0 1145 -1.99666 1
gene 2 15 343 0.691697 0 1166 0.445603 1
gene 2 343 69 0.739299 0 1167 0.726055 1
gene 3 16 343 0.41628 0 1189 0.41628 1
gene 3 280 316 -0.468299 0 1233 -0.468299 1
gene 3 2 343 -1.36426 0 1538 -1.36426 1
gene 3 13 280 0.836223 0 1544 0.836223 1
gene 3 18 462 0.65604 0 1579 -0.000209952 1
gene 3 462 25 5.4795 0 1580 2.03466 1
gene 3 21 193 -0.0591489 0 1616 -0.0591489 1
gene 1 10 280 -0.785592 0 1752 -0.785592 1
gene 1 4 511 1.18602 0 1762 1.02195 1
gene 1 511 26 0.853069 0 1763 0.652582 1
gene 1 3 343 -0.462191 0 1792 -0.462191 1
gene 3 2 193 1.22962 0 1822 1.22962 1
gene 2 16 316 -1.70112 0 1881 -1.70112 1
gene 2 343 547 1.20424 0 1908 0.773578 1
gene 2 547 69 -1.24112 0 1909 -1.05216 1
gene 2 24 547 0.578944 0 1933 0.578944 1
gene 3 15 511 -2.02334 0 1972 -2.02334 0
gene 1 343 462 -0.967991 0 1982 -0.967991 1
gene 1 24 583 1.85521 0 2035 1.52709 1
gene 1 583 25 2.38834 0 2036 1.75046 1
gene 1 280 583 -2.36158 0 2066 -2.36158 1
gene 2 15 598 0.412988 0 2077 0.197656 1
gene 2 598 26 -0.286527 0 2078 -0.0902586 1
gene 2 15 607 0.554975 0 2106 0.390913 1
gene 2 607 598 1.44584 0 2107 1.11771 1
gene 2 15 633 0.640369 0 2195 0.312244 1
gene 2 633 607 1.83621 0 2196 1.72854 1
gene 3 2 679 1.8812 0 2343 1.45053 1
gene 3 679 343 0.292451 0 2344 0.397857 0
gene 1 5 679 -0.749901 0 2385 -0.749901 1
gene 2 607 25 1.06761 0 2398 1.06761 1
gene 2 511 280 -1.81278 0 2425 -1.81278 1
gene 3 19 583 -1.1309 0 2539 -1.1309 1
gene 2 13 343 -1.13787 0 2558 -1.13787 1
gene 2 193 316 -1.3295 0 2649 -1.3295 1
gene 3 21 753 0.724904 0 2680 0.0686537 1
gene 3 753 193 0.845926 0 2681 0.906674 1
gene 2 753 598 -0.687418 0 2798 -0.687418 1
gene 2 3 811 1.61645 0 2887 1.17895 1
gene 2 811 69 -1.81655 0 2888 -0.785864 1
gene 1 12 547 0.152499 0 2901 0.152499 1
gene 2 13 825 0.119009 0 2940 -0.2848 1
gene 2 825 343 -0.171049 0 2941 0.0988199 1
gene 1 12 829 1.02721 0 2954 0.565782 1
gene 2 829 547 -0.653634 0 2955 -0.818971 1
gene 2 462 607 -0.533104 0 2978 -0.533104 1
gene 3 679 834 0.617052 0 2998 0.23424 1
gene 3 834 343 0.914319 0 2999 1.00069 1
gene 2 511 841 0.991271 0 3016 0.116271 1
gene 2 841 280 -2.4914 0 3017 -2.23445 1
gene 1 1 598 0.27261 0 3035 0.27261 1
gene 2 18 583 -0.165102 0 3081 -0.165102 1
gene 2 193 863 1.63563 0 3089 0.979382 1
gene 2 863 316 1.0803 0 3090 1.12247 1
gene 2 15 871 0.266471 0 3119 -0.171029 1
gene 2 871 25 -2.66875 0 3120 -1.14539 1
gene 1 17 598 -0.788526 0 3134 -0.788526 1
gene 3 18 901 -0.143466 0 3224 -0.580966 1
gene 3 901 25 3.66715 0 3225 1.51835 1
gene 2 2 902 1.25436 0 3228 1.01999 1
gene 2 902 25 -4.62856 0 3229 -2.62319 1
gene 3 11 908 0.0893925 0 3250 -0.238732 1
gene 1 908 25 0.203454 0 3251 0.0956466 1
gene 1 22 69 0.0590675 0 3292 0.0590675 1
gene 2 811 863 -0.769338 0 3322 -0.769338 1
gene 3 908 607 0.561001 0 3335 0.561001 1
gene 1 280 949 0.270928 0 3393 -0.166572 1
gene 1 949 583 0.054377 0 3394 0.402975 1
gene 1 21 863 0.660206 0 3409 0.660206 1
gene 2 547 969 2.95192 0 3458 2.73317 1
gene 2 969 69 -0.0971886 0 3459 0.0994681 1
gene 2 24 978 1.13565 0 3488 0.64346 1
gene 2 978 26 -0.381539 0 3489 -0.169825 1
gene 3 193 841 0.106367 0 3505 0.106367 1
gene 1 4 316 0.395059 0 3529 0.395059 1
gene 1 8 462 -0.463365 0 3542 -0.463365 1
gene 3 511 25 0.0961012 0 3606 0.0961012 1
gene 1 22 1021 1.02544 0 3664 0.533248 1
gene 1 1021 69 -0.773666 0 3665 -0.663392 1
gene 1 13 69 -0.127201 0 3690 -0.127201 1
gene 3 949 825 1.92033 0 3725 1.92033 1
gene 1 10 841 0.722938 0 3734 0.722938 1
gene 2 20 825 -1.16543 0 3748 -1.16543 1
gene 3 1 462 -0.266754 0 3838 -0.266754 1
gene 1 8 908 -0.0872323 0 3881 -0.0872323 1
gene 2 583 829 -1.37594 0 3894 -1.37594 1
gene 3 11 679 -1.07671 0 3978 -1.07671 1
gene 1 978 633 2.05909 0 4061 2.05909 1
gene 2 863 1130 1.36488 0 4107 1.14613 1
gene 2 1130 316 -0.617376 0 4108 -0.553113 1
gene 2 24 1155 0.466093 0 4193 0.137968 1
gene 2 1155 547 0.027697 0 4194 -0.218116 0
gene 3 7 1165 0.860547 0 4220 0.532422 1
gene 3 1165 25 5.58117 0 4221 2.934 1
gene 2 280 1167 1.39209 0 4230 0.892094 1
gene 2 1167 69 -0.272911 0 4231 0.0312614 1
gene 1 280 1171 0.943966 0 4245 0.287716 1
gene 1 1171 949 2.06821 0 4246 1.9112 1
gene 3 607 969 0.423979 0 4263 0.423979 1
gene 3 21 1178 2.57558 0 4271 2.20058 1
gene 3 1178 193 0.301474 0 4272 0.347035 1
gene 2 7 1130 1.28312 0 4287 1.28312 1
gene 2 753 1197 0.262287 0 4323 -0.0453298 1
gene 2 1197 598 -0.683044 0 4324 -0.39081 1
gene 3 1 834 -0.0749511 0 4329 -0.0749511 1
gene 1 10 583 -0.11546 0 4376 -0.11546 1
gene 3 18 1210 0.577351 0 4398 0.0851638 1
gene 3 1210 25 4.67247 0 4399 2.49789 1
gene 2 14 1155 -0.251783 0 4422 -0.251783 1
gene 1 9 1239 1.86181 0 4501 1.53369 1
gene 1 1239 26 0.0301466 0 4502 0.305292 1
gene 2 26 902 -1.25066 0 4518 -1.25066 1
gene 2 511 1248 0.604622 0 4537 -0.0516284 1
gene 2 1248 280 -1.37284 0 4538 -0.345063 1
gene 1 69 1254 0.57485 0 4562 0.246725 1
gene 1 1254 26 -2.54421 0 4563 -1.52733 1
gene 3 5 949 1.34831 0 4649 1.34831 1
gene 3 978 547 -0.45665 0 4667 -0.45665 1
gene 1 908 1292 1.00399 0 4703 0.839926 1
gene 1 1292 25 0.0883784 0 4704 -0.219644 1
gene 2 343 1296 0.663415 0 4718 0.194665 1
gene 2 1296 69 -1.86065 0 4719 -1.49644 1
gene 2 280 1302 -1.12306 0 4742 -1.34181 1
gene 2 1302 1167 0.377077 0 4743 -0.279173 1
gene 3 18 1313 1.05783 0 4783 0.729703 0
gene 3 1313 901 0.627774 0 4784 -0.0548429 1
gene 3 14 834 1.22288 0 4822 1.22288 1
gene 3 12 343 0.261154 0 4826 0.261154 1
gene 1 4 1331 1.57521 0 4844 1.07521 1
gene 1 1331 25 -2.39693 0 4845 -1.52509 1
gene 3 4 811 -0.563561 0 4969 -0.563561 1
gene 2 24 1365 1.88811 0 4997 1.72405 1
gene 2 1365 978 0.0102731 0 4998 -0.297344 1
gene 1 1254 1313 1.04323 0 5012 1.04323 1
gene 3 1365 1130 -1.17602 0 5040 -1.17602 1
gene 2 902 1378 1.40553 0 5052 0.905528 1
gene 2 1378 25 -4.91779 0 5053 -3.47186 1
gene 3 679 1382 0.302289 0 5065 -0.135211 1
gene 3 1382 834 1.02675 0 5066 0.698625 1
gene 2 679 1167 0.0481776 0 5099 0.0481776 1
gene 2 24 1418 1 0 5216 0 1
gene 2 1418 1155 -2.03826 0 5217 -2.12029 1
gene 3 343 26 0.131536 0 5228 0.131536 1
gene 1 949 1429 1.64967 0 5251 1.219 1
gene 3 1429 583 -0.996559 0 5252 -0.0669648 0
gene 2 280 26 0.0341779 0 5295 0.0341779 1
gene 3 1178 316 -0.298744 0 5311 -0.298744 1
gene 3 6 1210 0.516529 0 5321 0.516529 1
gene 1 4 1446 0.743835 0 5332 0.243835 1
gene 1 1446 26 1.99581 0 5333 1.25788 1
gene 2 1167 26 0.730468 0 5379 0.730468 1
gene 2 598 1468 1.69625 0 5413 1.19625 1
gene 2 1468 26 -1.2315 0 5414 -1.08724 1
gene 1 633 871 0.494669 0 5439 0.494669 1
gene 1 280 1483 1.12165 0 5463 0.660229 1
gene 1 1483 583 -1.13683 0 5464 -0.476982 1
gene 2 343 1486 0.547002 0 5473 0.218877 1
gene 2 1486 547 1.61158 0 5474 1.14035 1
gene 1 280 1499 0.935216 0 5509 0.360997 1
gene 1 1499 1171 -0.0488348 0 5510 -0.212897 1
gene 2 863 1331 -2.04274 0 5528 -2.04274 1
gene 2 753 69 0.404608 0 5600 0.404608 1
gene 1 69 1517 1.49249 0 5612 1.05499 1
gene 1 1517 1254 0.459804 0 5613 0.295742 1
gene 3 583 26 1.44158 0 5676 1.44158 1
gene 3 583 1155 1.12565 0 5729 1.12565 1
gene 3 24 1563 1.23376 0 5786 0.659542 1
gene 2 1563 978 2.72355 0 5787 2.39543 1
gene 2 4 1429 0.558401 0 5884 0.558401 1
gene 1 753 841 -0.497107 0 5910 -0.497107 1
gene 2 753 1590 0.549298 0 5921 -0.200702 1
gene 2 1590 1197 0.986656 0 5922 0.658531 1
gene 2 547 1603 0.408082 0 5976 -0.091918 1
gene 2 1603 969 1.58692 0 5977 1.25879 1
gene 2 1517 1590 1.59954 0 6059 1.59954 1
gene 3 1499 1382 -1.74673 0 6156 -1.74673 1
gene 1 1021 462 0.252386 0 6179 0.252386 1
gene 1 24 1296 -0.303727 0 6218 -0.303727 1
gene 3 7 1694 0.64018 0 6307 0.257368 1
gene 3 1694 25 5.73308 0 6308 2.89682 1
gene 2 1499 902 -1.64311 0 6381 -1.64311 1
gene 2 679 1331 0.171853 0 6403 0.171853 1
gene 2 1499 1603 -0.462101 0 6444 -0.462101 1
gene 2 1483 1468 -0.241266 0 6483 -0.241266 1
gene 3 949 1732 -0.0840144 0 6496 -0.584014 1
gene 3 1732 825 0.194367 0 6497 -0.0515442 1
gene 2 598 1744 1.66723 0 6540 1.09301 1
gene 2 1744 1468 1.23455 0 6541 0.359554 1
gene 3 1331 901 -0.122662 0 6561 -0.122662 1
gene 2 978 1603 -0.910846 0 6648 -0.910846 1
gene 2 462 1788 1.48838 0 6709 1.26963 1
gene 2 1788 607 -0.449912 0 6710 -0.238627 1
gene 3 753 1788 -0.78197 0 6757 -0.78197 1
gene 2 1165 1563 -0.475547 0 6788 -0.475547 1
gene 2 2 1446 1.0752 0 6830 1.0752 1
gene 1 633 1825 1.60162 0 6876 1.294 1
gene 1 1825 871 0.440956 0 6877 0.248661 1
gene 2 1248 1842 0.0162748 0 6936 -0.475913 1
gene 2 1842 280 -1.90162 0 6937 -1.5162 1
gene 1 12 1852 1.28512 0 6971 0.628866 1
gene 1 1852 69 0.0770371 0 6972 -0.0242064 1
gene 1 1825 1603 0.697817 0 6990 0.697817 1
gene 2 24 1861 1.6784 0 7001 1.35027 1
gene 2 1861 1563 1.29414 0 7002 1.07539 1
gene 1 15 1418 -0.462045 0 7056 -0.462045 1
gene 2 753 1874 2.31073 0 7067 2.14667 1
gene 2 1874 598 1.00361 0 7068 1.19539 1
gene 2 13 1876 0.27737 0 7080 -0.0507549 1
gene 2 1876 343 -0.40943 0 7081 -0.139561 1
gene 1 1874 1197 0.923441 0 7196 0.923441 1
gene 3 18 1910 0.0429174 0 7212 -0.285208 1
gene 3 1910 1313 0.52634 0 7213 0.198215 1
gene 3 69 871 -0.43939 0 7291 -0.43939 1
gene 2 1197 1943 1.33087 0 7344 0.674624 1
gene 2 1943 598 -1.38524 0 7345 -1.21744 0
gene 1 1825 1842 0.37042 0 7369 0.37042 1
gene 1 10 1563 -0.30879 0 7381 -0.30879 1
gene 3 316 1296 -0.148711 0 7397 -0.148711 1
gene 1 10 1960 0.297018 0 7433 -0.140482 1
gene 1 1960 1563 -1.74164 0 7434 -1.14972 1
gene 3 1021 1331 -0.516073 0 7452 -0.516073 1
gene 1 1130 1313 -0.922847 0 7659 -0.922847 1
gene 3 1178 2033 1.1252 0 7722 0.625203 1
gene 3 2033 316 0.0912503 0 7723 0.139006 1
gene 1 1825 2044 1.35725 0 7762 0.943189 1
gene 1 2044 871 0.0836687 0 7763 -0.420862 1
gene 2 3 841 0.762011 0 7790 0.762011 1
gene 2 1874 1861 -0.550131 0 7851 -0.550131 1
gene 1 193 2072 1.18831 0 7869 0.573075 1
gene 1 2072 25 2.77882 0 7870 2.10696 1
gene 3 1313 2079 0.838655 0 7890 0.455842 1
gene 3 2079 901 1.52383 0 7891 1.19571 1
gene 1 4 2082 1.01737 0 7901 0.579872 1
gene 1 2082 26 1.81506 0 7902 0.971718 1
gene 3 511 2087 2.08838 0 7928 1.65088 1
gene 3 2087 25 1.18169 0 7929 0.822636 1
gene 2 3 679 0.560768 0 7970 0.560768 1
gene 3 969 1239 0.131009 0 8121 0.131009 1
gene 2 6 1563 -0.266045 0 8132 -0.266045 0
gene 1 1254 2141 1.27495 0 8145 0.524952 1
gene 1 2141 1313 1.80384 0 8146 1.4351 1
gene 3 6 1517 -0.374502 0 8164 -0.374502 1
gene 3 1910 2079 -0.460902 0 8177 -0.460902 1
gene 1 1960 2175 0.979526 0 8259 0.487339 0
gene 1 2175 1563 -0.840168 0 8260 -0.466692 1
gene 2 949 1486 0.605155 0 8304 0.605155 1
gene 2 20 2188 2.3286 0 8322 1.8911 1
gene 2 2188 825 0.875418 0 8323 1.12145 1
gene 3 14 2196 0.834267 0 8343 0.0686422 1
gene 3 2196 834 -0.158251 0 8344 -0.566394 1
gene 1 2196 1842 0.1245 0 8371 0.1245 1
gene 2 12 1483 0.641203 0 8393 0.641203 1
gene 2 607 1852 0.626535 0 8399 0.626535 1
gene 1 1331 2238 0.774508 0 8524 0.118258 1
gene 1 2238 25 -2.49406 0 8525 -1.34977 1
gene 1 24 1446 0.452966 0 8533 0.452966 1
gene 3 21 1292 0.194812 0 8562 0.194812 1
gene 2 607 2253 1.25146 0 8578 0.376457 1
gene 2 2253 25 1.07873 0 8579 0.839757 1
gene 2 19 1210 0.857627 0 8635 0.857627 0
gene 2 829 1155 0.410331 0 8650 0.410331 1
gene 3 978 2272 0.892734 0 8672 0.455234 1
gene 3 2272 547 -1.52274 0 8673 -1.41623 1
gene 3 193 2323 1.23245 0 8884 0.794949 1
gene 3 2323 841 0.190658 0 8885 -0.0691725 1
gene 1 1418 25 1.08164 0 8931 1.08164 1
gene 3 583 1021 0.955411 0 8945 0.955411 1
gene 2 1842 2349 1.04268 0 9004 0.605175 1
gene 2 2349 280 -0.689185 0 9005 -0.11106 1
gene 2 343 2356 1.8894 0 9023 1.4519 1
gene 2 2356 1486 0.386938 0 9024 -0.0505618 1
gene 1 1861 1248 -0.714353 0 9105 -0.714353 1
gene 2 978 1292 -1.29914 0 9228 -1.29914 1
gene 3 679 1210 -0.627088 0 9248 -0.627088 1
gene 3 22 1694 0.773226 0 9284 0.773226 1
gene 2 753 2426 0.21736 0 9317 -0.22014 1
gene 2 2426 1874 0.91947 0 9318 0.296703 1
gene 2 511 2442 0.0558472 0 9374 -0.272278 1
gene 2 2442 1248 -0.0122236 0 9375 -0.449724 1
gene 3 21 2471 0.780857 0 9497 0.124607 1
gene 3 2471 753 1.05236 0 9498 0.724236 1
gene 3 1483 1486 0.764458 0 9530 0.764458 1
gene 2 8 2476 2.35406 0 9545 2.04645 1
gene 2 2476 26 0.356636 0 9546 0.131557 1
gene 2 1365 1563 0.360499 0 9617 0.360499 1
gene 1 4 2500 1.01845 0 9632 0.58779 1
gene 1 2500 2082 -0.854418 0 9633 -1.16204 1
gene 3 1378 1197 0.199987 0 9760 0.199987 1
gene 3 1563 1248 -0.575257 0 9770 -0.575257 1
gene 1 1486 2044 0.150529 0 9822 0.150529 1
gene 2 2188 2550 0.270011 0 9840 -0.112801 1
gene 2 2550 825 -0.838024 0 9841 -0.46898 1
gene 1 1499 2569 1.26093 0 9902 0.850769 1
gene 1 2569 1171 -0.499401 0 9903 -0.443117 1
gene 2 753 2582 -0.692688 0 9939 -1.02081 1
gene 2 2582 69 0.373095 0 9940 0.209866 1
gene 2 5 2500 0.555324 0 9961 0.555324 1
gene 1 3 2471 0.314635 0 10089 0.314635 1
gene 3 13 2615 0.711535 0 10105 0.0552851 1
gene 3 2615 280 -1.18845 0 10106 -1.35411 1
gene 1 69 1943 -0.667309 0 10143 -0.667309 1
gene 3 1603 1130 -0.252127 0 10166 -0.252127 1
gene 2 6 2658 0.814404 0 10262 0.0644037 1
gene 2 2658 1563 1.24993 0 10263 1.15648 1
gene 3 8 825 -1.05355 0 10278 -1.05355 1
gene 1 7 2615 0.734896 0 10374 0.734896 1
gene 3 2082 1021 0.146531 0 10384 0.146531 1
gene 3 679 2686 0.779225 0 10414 0.4511 1
gene 3 2686 343 0.185948 0 10415 0.334012 1
gene 3 6 2701 2.28675 0 10462 1.95863 1
gene 3 2701 1210 1.11245 0 10463 0.834917 1
gene 1 1254 871 -0.94496 0 10577 -0.94496 1
gene 3 1732 2737 0.619162 0 10590 0.291037 1
gene 3 2737 825 0.00740928 0 10591 -0.238502 1
gene 3 1210 1167 -0.188122 0 10675 -0.188122 1
gene 3 1563 2323 -0.557138 0 10696 -0.557138 1
gene 1 2 2082 -0.728203 0 10768 -0.728203 1
gene 1 9 2471 0.154587 0 10818 0.154587 1
gene 2 2686 2471 -0.576859 0 10948 -0.576859 1
gene 1 1197 25 -0.254608 0 10979 -0.254608 1
gene 2 13 1296 -1.46541 0 10997 -1.46541 1
gene 1 1468 1292 -0.299899 0 11012 -0.299899 1
gene 2 19 2873 2.38392 0 11151 1.94642 1
gene 2 2873 1210 0.590748 0 11152 0.644873 1
gene 2 2175 1021 -0.423788 0 11264 -0.423788 1
gene 2 811 547 -0.455668 0 11380 -0.455668 1
gene 3 1382 1171 0.0539789 0 11396 0.0539789 1
gene 2 1744 1296 -0.510924 0 11410 -0.510924 1
gene 2 1468 2356 -0.728793 0 11486 -0.728793 1
gene 1 1874 871 0.642096 0 11502 0.642096 1
gene 2 17 2582 0.570697 0 11611 0.570697 1
gene 2 2356 2995 1 0 11682 0.125 1
gene 2 2995 1486 0.391139 0 11683 0.259725 1
gene 2 1590 1239 -0.521437 0 11728 -0.521437 1
gene 1 1446 1302 -0.457793 0 11983 -0.457793 1
gene 2 2582 2737 0.569992 0 12010 0.569992 1
gene 3 679 3085 1 0 12064 0.125 0
gene 3 3085 1382 0.709421 0 12065 0.212777 1
gene 2 1943 25 0.751067 0 12077 0.751067 1
gene 1 5 3098 0.541016 0 12100 -0.115234 1
gene 1 3098 679 -0.960448 0 12101 -0.37189 1
gene 1 1960 3126 1 0 12215 0.25 1
gene 1 3126 2175 1.58273 0 12216 0 1
gene 1 1590 1302 0.721261 0 12241 0.721261 1
gene 3 2196 2550 0.24067 0 12291 0.24067 1
gene 2 2582 2349 0.397734 0 12306 0.397734 1
gene 1 15 1302 -0.892976 0 12492 -0.892976 1
gene 1 1874 3209 1 0 12551 0 1
gene 1 3209 1197 0.923441 0 12552 0 1
gene 1 1874 2476 -0.356341 0 12575 -0.356341 1
gene 3 633 2033 -0.660835 0 12596 -0.660835 1
gene 1 2082 841 0.347767 0 12625 0.347767 1
gene 2 1248 3265 1 0 12788 0 1
gene 2 3265 1842 0.0162748 0 12789 0 1
gene 1 4 3273 1 0 12811 0 1
gene 1 3273 26 1.87779 0 12812 0 1
gene 1 2196 2995 0.0276962 0 12891 0.0276962 1
gene 3 908 462 0.763247 0 12956 0.763247 1
gene 3 69 3313 1 0 12967 0 1
gene 3 3313 871 -0.43939 0 12968 0 1
gene 2 1155 3320 1 0 12991 0 1
gene 2 3320 547 0.027697 0 12992 0 1
gene 3 1429 1910 0.0227428 0 13009 0.0227428 1
gene 3 1429 1210 -0.12965 0 13015 -0.12965 1
gene 3 19 1178 0.825719 0 13067 0.825719 1
gene 3 2658 3265 0.693861 0 13124 0.693861 1
gene 3 2196 25 0.733511 0 13168 0.733511 1
gene 1 10 3364 1 0 13191 0 1
gene 1 3364 280 -0.785592 0 13192 0 1
gene 2 902 3209 -0.294201 0 13209 -0.294201 1
gene 3 978 1155 0.937955 0 13318 0.937955 1
gene 2 1483 1694 0.324458 0 13346 0.324458 1
gene 2 6 3417 1 0 13379 0 1
gene 2 3417 1563 -0.266045 0 13380 0 1
gene 2 1943 3422 1 0 13399 0 1
gene 2 3422 598 -1.38524 0 13400 0 0
gene 3 1744 1210 0.338191 0 13507 0.338191 1
gene 1 1365 2087 -0.328885 0 13623 -0.328885 1
gene 2 3422 3491 1 0 13645 0 1
gene 2 3491 598 -1.38524 0 13646 0 1
genomeend 0

/* Organism #1 Fitness: 7.36242 Error: 0 */
genomestart 1
trait 1 0 0 0.413862 0 0.685362 0.745432 0.174664 0.207925 
trait 2 0.175426 0.00146352 0.619256 0 0.584142 0.0834754 0.105846 0.0836366 
trait 3 0.0916894 0.112261 0.670121 0.879394 0.252918 0.0486583 0.496868 0.128672 
node 1 2 1 3
node 2 1 1 1
node 3 3 1 1
node 4 3 1 1
node 5 2 1 1
node 6 1 1 1
node 7 3 1 1
node 8 2 1 1
node 9 1 1 1
node 10 3 1 1
node 11 1 1 1
node 12 3 1 1
node 13 3 1 1
node 14 3 1 1
node 15 2 1 1
node 16 2 1 1
node 17 3 1 1
node 18 1 1 1
node 19 2 1 1
node 20 3 1 1
node 21 3 1 1
node 22 2 1 1
node 23 1 1 1
node 24 2 1 1
node 25 3 0 2
node 26 1 0 2
node 69 1 0 0
node 193 1 0 0
node 280 1 0 0
node 316 1 0 0
node 343 1 0 0
node 462 1 0 0
node 511 1 0 0
node 547 1 0 0
node 583 1 0 0
node 598 1 0 0
node 607 1 0 0
node 633 1 0 0
node 679 1 0 0
node 753 1 0 0
node 811 1 0 0
node 825 1 0 0
node 829 1 0 0
node 834 1 0 0
node 841 1 0 0
node 863 1 0 0
node 871 1 0 0
node 901 1 0 0
node 902 3 0 0
node 908 1 0 0
node 949 1 0 0
node 969 1 0 0
node 978 1 0 0
node 1021 1 0 0
node 1130 1 0 0
node 1155 1 0 0
node 1165 1 0 0
node 1167 1 0 0
node 1171 1 0 0
node 1178 1 0 0
node 1197 1 0 0
node 1210 1 0 0
node 1239 1 0 0
node 1248 1 0 0
node 1254 1 0 0
node 1292 1 0 0
node 1296 1 0 0
node 1302 1 0 0
node 1313 1 0 0
node 1331 1 0 0
node 1365 1 0 0
node 1378 1 0 0
node 1382 1 0 0
node 1418 1 0 0
node 1429 1 0 0
node 1446 1 0 0
node 1468 3 0 0
node 1483 1 0 0
node 1486 1 0 0
node 1499 1 0 0
node 1517 1 0 0
node 1563 1 0 0
node 1590 1 0 0
node 1603 1 0 0
node 1694 1 0 0
node 1732 1 0 0
node 1744 2 0 0
node 1788 1 0 0
node 1825 1 0 0
node 1842 1 0 0
node 1852 2 0 0
node 1861 1 0 0
node 1874 1 0 0
node 1876 1 0 0
node 1910 1 0 0
node 1943 1 0 0
node 1960 1 0 0
node 2033 1 0 0
node 2044 1 0 0
node 2072 1 0 0
node 2079 1 0 0
node 2082 1 0 0
node 2087 1 0 0
node 2141 1 0 0
node 2175 1 0 0
node 2188 1 0 0
node 2196 2 0 0
node 2238 2 0 0
node 2253 1 0 0
node 2272 2 0 0
node 2323 1 0 0
node 2349 1 0 0
node 2356 1 0 0
node 2426 1 0 0
node 2442 1 0 0
node 2471 1 0 0
node 2476 1 0 0
node 2500 1 0 0
node 2550 1 0 0
node 2569 1 0 0
node 2582 1 0 0
node 2615 1 0 0
node 2658 1 0 0
node 2686 1 0 0
node 2701 1 0 0
node 2737 1 0 0
node 2873 1 0 0
node 2995 1 0 0
node 3085 1 0 0
node 3098 1 0 0
node 3126 1 0 0
node 3209 1 0 0
node 3265 1 0 0
node 3273 1 0 0
node 3313 1 0 0
node 3320 1 0 0
node 3364 1 0 0
node 3417 1 0 0
node 3422 1 0 0
node 3491 1 0 0
gene 1 1 25 -3.18553 0 1 -3.18553 1
gene 2 2 25 -2.00028 0 2 -2.00028 0
gene 1 3 25 2.6824 0 3 2.6824 1
gene 1 4 25 -4.55711 0 4 -4.55711 1
gene 1 5 25 0.269479 0 5 0.269479 1
gene 1 6 25 6.65399 0 6 6.65399 1
gene 3 7 25 6.90244 0 7 6.90244 1
gene 3 8 25 8 0 8 8 1
gene 3 9 25 -2.0227 0 9 -2.0227 1
gene 1 10 25 4.67055 0 10 4.67055 1
gene 1 11 25 -0.168587 0 11 -0.168587 1
gene 2 12 25 5.12185 0 12 5.12185 1
gene 2 13 25 -4.36142 0 13 -4.36142 1
gene 1 14 25 -6.73013 0 14 -6.73013 1
gene 2 15 25 -0.21415 0 15 -0.21415 0
gene 1 16 25 -0.191846 0 16 -0.191846 1
gene 3 17 25 -3.46343 0 17 -3.46343 1
gene 3 18 25 4.97097 0 18 4.97097 1
gene 1 19 25 -3.15596 0 19 -3.15596 1
gene 3 20 25 5.15465 0 20 5.15465 1
gene 1 21 25 1.04689 0 21 1.04689 1
gene 2 22 25 -1.76027 0 22 -1.76027 1
gene 1 23 25 1.22613 0 23 1.22613 1
gene 1 24 25 1.7643 0 24 1.7643 1
gene 1 1 26 -8 0 25 -8 1
gene 1 2 26 -8 0 26 -8 1
gene 3 3 26 -0.814246 0 27 -0.814246 1
gene 1 4 26 2.09102 0 28 2.09102 0
gene 2 5 26 4.76765 0 29 4.76765 0
gene 1 6 26 -0.662515 0 30 -0.662515 1
gene 2 7 26 2.77217 0 31 2.77217 1
gene 2 8 26 3.78004 0 32 3.78004 1
gene 1 9 26 -1.16207 0 33 -1.16207 1
gene 2 10 26 -2.44063 0 34 -2.44063 1
gene 1 11 26 2.20246 0 35 2.20246 1
gene 3 12 26 3.94275 0 36 3.94275 1
gene 2 13 26 -3.66285 0 37 -3.66285 1
gene 2 14 26 0.608133 0 38 0.608133 1
gene 2 15 26 3.39735 0 39 3.39735 1
gene 2 16 26 -7.90745 0 40 -7.90745 1
gene 2 17 26 -0.0876736 0 41 -0.0876736 1
gene 3 18 26 -3.40264 0 42 -3.40264 1
gene 1 19 26 4.52248 0 43 4.52248 1
gene 3 20 26 -0.488934 0 44 -0.488934 1
gene 2 21 26 1.71904 0 45 1.71904 1
gene 2 22 26 -2.84707 0 46 -2.84707 1
gene 3 23 26 -1.87196 0 47 -1.87196 1
gene 2 24 26 0.148645 0 48 0.148645 1
gene 1 2 69 0.372642 0 187 0.372642 1
gene 1 69 26 -2.29123 0 188 -2.29123 1
gene 3 23 69 0.146098 0 195 0.146098 1
gene 3 4 69 0.356132 0 222 0.356132 1
gene 1 11 69 -1.76835 0 347 -1.76835 1
gene 1 16 193 3.25421 0 646 3.25421 1
gene 1 193 25 2.71538 0 647 2.71538 1
gene 2 3 69 -0.326984 0 869 -0.326984 1
gene 2 3 280 0.697132 0 952 0.697132 1
gene 2 280 69 -0.188398 0 953 -0.188398 1
gene 2 15 69 0.0798775 0 1043 0.0798775 1
gene 3 12 69 1.76058 0 1057 1.76058 1
gene 2 5 316 0.0644236 0 1073 0.0644236 1
gene 2 316 26 5.56602 0 1074 5.56602 1
gene 3 20 280 -2.96115 0 1145 -2.96115 1
gene 2 15 343 2.86291 0 1166 2.86291 1
gene 2 343 69 -1.33668 0 1167 -1.33668 1
gene 3 16 343 1.01367 0 1189 1.01367 1
gene 3 280 316 -0.253372 0 1233 -0.253372 1
gene 3 2 343 0.600835 0 1538 0.600835 1
gene 3 13 280 0.599044 0 1544 0.599044 1
gene 3 18 462 -0.412356 0 1579 -0.412356 1
gene 3 462 25 3.75065 0 1580 3.75065 1
gene 3 21 193 0.102567 0 1616 0.102567 1
gene 1 10 280 -0.74029 0 1752 -0.74029 1
gene 1 4 511 2.30968 0 1762 2.30968 1
gene 1 511 26 -1.41406 0 1763 -1.41406 1
gene 1 3 343 -0.0499945 0 1792 -0.0499945 1
gene 3 2 193 1.49345 0 1822 1.49345 1
gene 2 16 316 -3.12804 0 1881 -3.12804 1
gene 2 343 547 0.266214 0 1908 0.266214 1
gene 2 547 69 1.12641 0 1909 1.12641 1
gene 2 24 547 -1.47101 0 1933 -1.47101 1
gene 3 15 511 -3.37457 0 1972 -3.37457 0
gene 1 343 462 1.10442 0 1982 1.10442 1
gene 1 24 583 0.961452 0 2035 0.961452 1
gene 1 583 25 4.19648 0 2036 4.19648 1
gene 1 280 583 -4.15125 0 2066 -4.15125 1
gene 2 15 598 -0.752673 0 2077 -0.752673 1
gene 2 598 26 1.44505 0 2078 1.44505 1
gene 2 15 607 -0.942547 0 2106 -0.942547 1
gene 2 607 598 0.41759 0 2107 0.41759 1
gene 2 15 633 -0.692403 0 2195 -0.692403 1
gene 2 633 607 0.789534 0 2196 0.789534 1
gene 3 2 679 2.21427 0 2343 2.21427 1
gene 3 679 343 -1.43645 0 2344 -1.43645 1
gene 1 5 679 -1.67728 0 2385 -1.67728 1
gene 2 607 25 0.224852 0 2398 0.224852 1
gene 2 511 280 -3.1881 0 2425 -3.1881 1
gene 3 19 583 -3.49392 0 2539 -3.49392 1
gene 2 13 343 -0.164036 0 2558 -0.164036 1
gene 2 193 316 -3.63826 0 2649 -3.63826 1
gene 3 21 753 0.544507 0 2680 0.544507 1
gene 3 753 193 1.79185 0 2681 1.79185 1
gene 2 753 598 -1.48029 0 2798 -1.48029 1
gene 2 3 811 2.72182 0 2887 2.72182 1
gene 2 811 69 -3.68496 0 2888 -3.68496 1
gene 1 12 547 0.973565 0 2901 0.973565 1
gene 2 13 825 1.597 0 2940 1.597 1
gene 2 825 343 0.484936 0 2941 0.484936 1
gene 1 12 829 3.18315 0 2954 3.18315 1
gene 2 829 547 -1.46178 0 2955 -1.46178 1
gene 2 462 607 -1.81423 0 2978 -1.81423 1
gene 3 679 834 0.136845 0 2998 0.136845 1
gene 3 834 343 2.29181 0 2999 2.29181 1
gene 2 511 841 0.851344 0 3016 0.851344 1
gene 2 841 280 -3.3482 0 3017 -3.3482 1
gene 1 1 598 -1.22698 0 3035 -1.22698 1
gene 2 18 583 -0.691485 0 3081 -0.691485 1
gene 2 193 863 1.49127 0 3089 1.49127 1
gene 2 863 316 2.32032 0 3090 2.32032 1
gene 2 15 871 1.15124 0 3119 1.15124 1
gene 2 871 25 -3.59935 0 3120 -3.59935 1
gene 1 17 598 -0.632369 0 3134 -0.632369 1
gene 3 18 901 1.11967 0 3224 1.11967 1
gene 3 901 25 1.24081 0 3225 1.24081 1
gene 2 2 902 3.72411 0 3228 3.72411 1
gene 2 902 25 -7.03681 0 3229 -7.03681 1
gene 3 11 908 0.984418 0 3250 0.984418 1
gene 1 908 25 -1.3273 0 3251 -1.3273 1
gene 1 22 69 0.14531 0 3292 0.14531 1
gene 2 811 863 -2.7265 0 3322 -2.7265 1
gene 3 908 607 -1.25243 0 3335 -1.25243 1
gene 1 280 949 1.42694 0 3393 1.42694 1
gene 1 949 583 0.63135 0 3394 0.63135 1
gene 1 21 863 -0.542368 0 3409 -0.542368 1
gene 2 547 969 2.32083 0 3458 2.32083 1
gene 2 969 69 1.34216 0 3459 1.34216 1
gene 2 24 978 2.55798 0 3488 2.55798 1
gene 2 978 26 -2.25695 0 3489 -2.25695 1
gene 3 193 841 -1.69808 0 3505 -1.69808 1
gene 1 4 316 2.87919 0 3529 2.87919 1
gene 1 8 462 -2.06424 0 3542 -2.06424 1
gene 3 511 25 -0.509515 0 3606 -0.509515 1
gene 1 22 1021 -1.15638 0 3664 -1.15638 1
gene 1 1021 69 0.924235 0 3665 0.924235 1
gene 1 13 69 -1.30403 0 3690 -1.30403 1
gene 3 949 825 -0.517753 0 3725 -0.517753 1
gene 1 10 841 1.40529 0 3734 1.40529 1
gene 2 20 825 -3.45626 0 3748 -3.45626 1
gene 3 1 462 -1.88209 0 3838 -1.88209 1
gene 1 8 908 -2.54097 0 3881 -2.54097 1
gene 2 583 829 -1.75061 0 3894 -1.75061 1
gene 3 11 679 -3.45467 0 3978 -3.45467 1
gene 1 978 633 2.37729 0 4061 2.37729 1
gene 2 863 1130 -0.927174 0 4107 -0.927174 1
gene 2 1130 316 -1.13521 0 4108 -1.13521 1
gene 2 24 1155 -0.0249272 0 4193 -0.0249272 1
gene 2 1155 547 -2.11472 0 4194 -2.11472 1
gene 3 7 1165 3.3523 0 4220 3.3523 1
gene 3 1165 25 7.72235 0 4221 7.72235 1
gene 2 280 1167 2.28398 0 4230 2.28398 1
gene 2 1167 69 1.5514 0 4231 1.5514 1
gene 1 280 1171 1.47304 0 4245 1.47304 1
gene 1 1171 949 1.90124 0 4246 1.90124 1
gene 3 607 969 -0.176193 0 4263 -0.176193 1
gene 3 21 1178 1.12411 0 4271 1.12411 1
gene 3 1178 193 -2.07516 0 4272 -2.07516 1
gene 2 7 1130 2.84198 0 4287 2.84198 1
gene 2 753 1197 2.14269 0 4323 2.14269 1
gene 2 1197 598 1.10878 0 4324 1.10878 1
gene 3 1 834 1.01742 0 4329 1.01742 1
gene 1 10 583 -0.758988 0 4376 -0.758988 1
gene 3 18 1210 0.298044 0 4398 0.298044 1
gene 3 1210 25 6.44584 0 4399 6.44584 1
gene 2 14 1155 -0.647245 0 4422 -0.647245 1
gene 1 9 1239 3.5941 0 4501 3.5941 1
gene 1 1239 26 -2.2855 0 4502 -2.2855 1
gene 2 26 902 -1.94376 0 4518 -1.94376 1
gene 2 511 1248 0.554309 0 4537 0.554309 1
gene 2 1248 280 0.646699 0 4538 0.646699 1
gene 1 69 1254 -1.569 0 4562 -1.569 1
gene 1 1254 26 -4.79306 0 4563 -4.79306 1
gene 3 5 949 3.53561 0 4649 3.53561 1
gene 3 978 547 -2.39647 0 4667 -2.39647 1
gene 1 908 1292 3.07359 0 4703 3.07359 1
gene 1 1292 25 -2.39974 0 4704 -2.39974 1
gene 2 343 1296 2.75089 0 4718 2.75089 1
gene 2 1296 69 -1.80552 0 4719 -1.80552 1
gene 2 280 1302 -2.21671 0 4742 -2.21671 1
gene 2 1302 1167 0.516217 0 4743 0.516217 1
gene 3 18 1313 0.139357 0 4783 0.139357 0
gene 3 1313 901 2.71692 0 4784 2.71692 1
gene 3 14 834 2.35084 0 4822 2.35084 1
gene 3 12 343 -0.00684978 0 4826 -0.00684978 1
gene 1 4 1331 3.13778 0 4844 3.13778 1
gene 1 1331 25 -4.45354 0 4845 -4.45354 1
gene 3 4 811 0.2403 0 4969 0.2403 1
gene 2 24 1365 3.5044 0 4997 3.5044 1
gene 2 1365 978 -0.554725 0 4998 -0.554725 1
gene 1 1254 1313 0.249456 0 5012 0.249456 1
gene 3 1365 1130 -0.692508 0 5040 -0.692508 1
gene 2 902 1378 1.2016 0 5052 1.2016 1
gene 2 1378 25 -3.83866 0 5053 -3.83866 1
gene 3 679 1382 2.74015 0 5065 2.74015 1
gene 3 1382 834 -1.10698 0 5066 -1.10698 1
gene 2 679 1167 0.306496 0 5099 0.306496 1
gene 2 24 1418 2.96965 0 5216 2.96965 1
gene 2 1418 1155 -0.353602 0 5217 -0.353602 1
gene 3 343 26 1.65621 0 5228 1.65621 1
gene 1 949 1429 3.56497 0 5251 3.56497 1
gene 3 1429 583 -0.40038 0 5252 -0.40038 0
gene 2 280 26 1.61431 0 5295 1.61431 1
gene 3 1178 316 -0.493691 0 5311 -0.493691 1
gene 3 6 1210 0.101868 0 5321 0.101868 1
gene 1 4 1446 0.317334 0 5332 0.317334 1
gene 1 1446 26 2.04019 0 5333 2.04019 1
gene 2 1167 26 0.674619 0 5379 0.674619 1
gene 2 598 1468 2.42194 0 5413 2.42194 1
gene 2 1468 26 -0.0594677 0 5414 -0.0594677 1
gene 1 633 871 1.50663 0 5439 1.50663 1
gene 1 280 1483 2.21382 0 5463 2.21382 1
gene 1 1483 583 -1.3154 0 5464 -1.3154 1
gene 2 343 1486 0.737795 0 5473 0.737795 1
gene 2 1486 547 0.239837 0 5474 0.239837 1
gene 1 280 1499 -0.759346 0 5509 -0.759346 1
gene 1 1499 1171 1.84583 0 5510 1.84583 1
gene 2 863 1331 -0.0826389 0 5528 -0.0826389 1
gene 2 753 69 1.63432 0 5600 1.63432 1
gene 1 69 1517 2.70731 0 5612 2.70731 1
gene 1 1517 1254 1.73569 0 5613 1.73569 1
gene 3 583 26 3.20028 0 5676 3.20028 1
gene 3 583 1155 -0.584583 0 5729 -0.584583 1
gene 3 24 1563 0.125747 0 5786 0.125747 1
gene 2 1563 978 4.04465 0 5787 4.04465 1
gene 2 4 1429 0.393203 0 5884 0.393203 1
gene 1 753 841 -2.17027 0 5910 -2.17027 1
gene 2 753 1590 -0.722051 0 5921 -0.722051 1
gene 2 1590 1197 1.25199 0 5922 1.25199 1
gene 2 547 1603 1.40256 0 5976 1.40256 1
gene 2 1603 969 -0.134959 0 5977 -0.134959 1
gene 2 1517 1590 1.43028 0 6059 1.43028 1
gene 3 1499 1382 -3.24844 0 6156 -3.24844 1
gene 1 1021 462 1.5426 0 6179 1.5426 1
gene 1 24 1296 -1.76075 0 6218 -1.76075 1
gene 3 7 1694 -1.18391 0 6307 -1.18391 1
gene 3 1694 25 4.32056 0 6308 4.32056 1
gene 2 1499 902 -1.6484 0 6381 -1.6484 1
gene 2 679 1331 -1.30855 0 6403 -1.30855 1
gene 2 1499 1603 -1.11786 0 6444 -1.11786 1
gene 2 1483 1468 2.05031 0 6483 2.05031 1
gene 3 949 1732 1.35235 0 6496 1.35235 1
gene 3 1732 825 1.35917 0 6497 1.35917 1
gene 2 598 1744 1.638 0 6540 1.638 1
gene 2 1744 1468 1.04767 0 6541 1.04767 1
gene 3 1331 901 0.837029 0 6561 0.837029 1
gene 2 978 1603 -0.729178 0 6648 -0.729178 1
gene 2 462 1788 3.35437 0 6709 3.35437 1
gene 2 1788 607 -0.308583 0 6710 -0.308583 1
gene 3 753 1788 -1.98746 0 6757 -1.98746 1
gene 2 1165 1563 -2.1566 0 6788 -2.1566 1
gene 2 2 1446 2.06541 0 6830 2.06541 1
gene 1 633 1825 3.73091 0 6876 3.73091 1
gene 1 1825 871 1.40218 0 6877 1.40218 1
gene 2 1248 1842 2.28123 0 6936 2.28123 1
gene 2 1842 280 -3.75022 0 6937 -3.75022 1
gene 1 12 1852 3.07962 0 6971 3.07962 1
gene 1 1852 69 0.389443 0 6972 0.389443 1
gene 1 1825 1603 0.0662637 0 6990 0.0662637 1
gene 2 24 1861 0.511413 0 7001 0.511413 1
gene 2 1861 1563 2.65067 0 7002 2.65067 1
gene 1 15 1418 1.99465 0 7056 1.99465 1
gene 2 753 1874 0.777567 0 7067 0.777567 1
gene 2 1874 598 0.587415 0 7068 0.587415 1
gene 2 13 1876 -0.391626 0 7080 -0.391626 1
gene 2 1876 343 1.5686 0 7081 1.5686 1
gene 1 1874 1197 2.23389 0 7196 2.23389 1
gene 3 18 1910 1.07727 0 7212 1.07727 1
gene 3 1910 1313 1.72466 0 7213 1.72466 1
gene 3 69 871 -2.01268 0 7291 -2.01268 1
gene 2 1197 1943 2.44115 0 7344 2.44115 1
gene 2 1943 598 -3.25562 0 7345 -3.25562 0
gene 1 1825 1842 1.16966 0 7369 1.16966 1
gene 1 10 1563 -2.33763 0 7381 -2.33763 1
gene 3 316 1296 0.525509 0 7397 0.525509 1
gene 1 10 1960 -1.35139 0 7433 -1.35139 1
gene 1 1960 1563 -0.492251 0 7434 -0.492251 1
gene 3 1021 1331 -2.49349 0 7452 -2.49349 1
gene 1 1130 1313 -3.0305 0 7659 -3.0305 1
gene 3 1178 2033 2.90246 0 7722 2.90246 1
gene 3 2033 316 2.39046 0 7723 2.39046 1
gene 1 1825 2044 2.89104 0 7762 2.89104 1
gene 1 2044 871 -0.275155 0 7763 -0.275155 1
gene 2 3 841 0.687514 0 7790 0.687514 1
gene 2 1874 1861 1.27403 0 7851 1.27403 1
gene 1 193 2072 2.4224 0 7869 2.4224 1
gene 1 2072 25 5.27185 0 7870 5.27185 1
gene 3 1313 2079 3.19343 0 7890 3.19343 1
gene 3 2079 901 2.89915 0 7891 2.89915 1
gene 1 4 2082 0.576213 0 7901 0.576213 1
gene 1 2082 26 1.68161 0 7902 1.68161 1
gene 3 511 2087 0.0386227 0 7928 0.0386227 1
gene 3 2087 25 -0.335191 0 7929 -0.335191 1
gene 2 3 679 -0.193318 0 7970 -0.193318 1
gene 3 969 1239 1.19921 0 8121 1.19921 1
gene 2 6 1563 -2.51569 0 8132 -2.51569 0
gene 1 1254 2141 -0.289779 0 8145 -0.289779 1
gene 1 2141 1313 0.595468 0 8146 0.595468 1
gene 3 6 1517 0.310423 0 8164 0.310423 1
gene 3 1910 2079 -1.23517 0 8177 -1.23517 1
gene 1 1960 2175 2.23952 0 8259 2.23952 0
gene 1 2175 1563 0.508706 0 8260 0.508706 1
gene 2 949 1486 2.65249 0 8304 2.65249 1
gene 2 20 2188 0.185802 0 8322 0.185802 1
gene 2 2188 825 1.85141 0 8323 1.85141 1
gene 3 14 2196 -0.272985 0 8343 -0.272985 1
gene 3 2196 834 1.47413 0 8344 1.47413 1
gene 1 2196 1842 0.782058 0 8371 0.782058 1
gene 2 12 1483 0.22162 0 8393 0.22162 1
gene 2 607 1852 1.50131 0 8399 1.50131 1
gene 1 1331 2238 2.74596 0 8524 2.74596 1
gene 1 2238 25 -1.05148 0 8525 -1.05148 1
gene 1 24 1446 2.55006 0 8533 2.55006 1
gene 3 21 1292 2.2493 0 8562 2.2493 1
gene 2 607 2253 0.546383 0 8578 0.546383 1
gene 2 2253 25 1.7376 0 8579 1.7376 1
gene 2 19 1210 1.38889 0 8635 1.38889 1
gene 2 829 1155 -0.994333 0 8650 -0.994333 1
gene 3 978 2272 2.95074 0 8672 2.95074 1
gene 3 2272 547 -3.21106 0 8673 -3.21106 1
gene 3 193 2323 2.57979 0 8884 2.57979 1
gene 3 2323 841 -0.960531 0 8885 -0.960531 1
gene 1 1418 25 -0.428019 0 8931 -0.428019 1
gene 3 583 1021 2.42897 0 8945 2.42897 1
gene 2 1842 2349 2.25358 0 9004 2.25358 1
gene 2 2349 280 -1.31548 0 9005 -1.31548 1
gene 2 343 2356 3.67568 0 9023 3.67568 1
gene 2 2356 1486 1.68112 0 9024 1.68112 1
gene 1 1861 1248 -0.588264 0 9105 -0.588264 1
gene 2 978 1292 -0.0631141 0 9228 -0.0631141 1
gene 3 679 1210 -1.94136 0 9248 -1.94136 1
gene 3 22 1694 0.42171 0 9284 0.42171 1
gene 2 753 2426 1.9724 0 9317 1.9724 1
gene 2 2426 1874 1.86202 0 9318 1.86202 1
gene 2 511 2442 1.20756 0 9374 1.20756 1
gene 2 2442 1248 0.842299 0 9375 0.842299 1
gene 3 21 2471 0.994052 0 9497 0.994052 1
gene 3 2471 753 -0.710436 0 9498 -0.710436 1
gene 3 1483 1486 -0.979407 0 9530 -0.979407 1
gene 2 8 2476 4.62437 0 9545 4.62437 1
gene 2 2476 26 1.71772 0 9546 1.71772 1
gene 2 1365 1563 0.865965 0 9617 0.865965 1
gene 1 4 2500 1.24127 0 9632 1.24127 1
gene 1 2500 2082 -3.05377 0 9633 -3.05377 1
gene 3 1378 1197 0.521218 0 9760 0.521218 1
gene 3 1563 1248 1.63201 0 9770 1.63201 1
gene 1 1486 2044 -2.01528 0 9822 -2.01528 1
gene 2 2188 2550 -1.41355 0 9840 -1.41355 1
gene 2 2550 825 -0.878134 0 9841 -0.878134 1
gene 1 1499 2569 0.715349 0 9902 0.715349 1
gene 1 2569 1171 1.70335 0 9903 1.70335 1
gene 2 753 2582 -0.692688 0 9939 -0.692688 1
gene 2 2582 69 -0.12321 0 9940 -0.12321 1
gene 2 5 2500 1.37286 0 9961 1.37286 1
gene 1 3 2471 0.401564 0 10089 0.401564 1
gene 3 13 2615 0.711535 0 10105 0.711535 1
gene 3 2615 280 -1.58866 0 10106 -1.58866 1
gene 1 69 1943 -0.772228 0 10143 -0.772228 1
gene 3 1603 1130 -1.31688 0 10166 -1.31688 1
gene 2 6 2658 -0.850765 0 10262 -0.850765 1
gene 2 2658 1563 2.04594 0 10263 2.04594 1
gene 3 8 825 -1.05355 0 10278 -1.05355 1
gene 1 7 2615 0.734896 0 10374 0.734896 1
gene 3 2082 1021 -1.06071 0 10384 -1.06071 1
gene 3 679 2686 -0.518366 0 10414 -0.518366 1
gene 3 2686 343 -1.75868 0 10415 -1.75868 1
gene 3 6 2701 0.0292688 0 10462 0.0292688 1
gene 3 2701 1210 -0.894004 0 10463 -0.894004 1
gene 1 1254 871 0.216879 0 10577 0.216879 1
gene 3 1732 2737 0.619162 0 10590 0.619162 1
gene 3 2737 825 0.221861 0 10591 0.221861 1
gene 3 1210 1167 -1.19673 0 10675 -1.19673 1
gene 3 1563 2323 2.3196 0 10696 2.3196 1
gene 1 2 2082 -0.0871677 0 10768 -0.0871677 1
gene 1 9 2471 0.476856 0 10818 0.476856 1
gene 2 2686 2471 -0.576859 0 10948 -0.576859 1
gene 1 1197 25 -0.254608 0 10979 -0.254608 1
gene 2 13 1296 -1.25124 0 10997 -1.25124 1
gene 1 1468 1292 0.787458 0 11012 0.787458 1
gene 2 19 2873 2.38392 0 11151 2.38392 1
gene 2 2873 1210 1.27049 0 11152 1.27049 1
gene 2 2175 1021 -1.25256 0 11264 -1.25256 1
gene 2 811 547 -0.0507309 0 11380 -0.0507309 1
gene 3 1382 1171 0.549272 0 11396 0.549272 1
gene 2 1744 1296 -0.510924 0 11410 -0.510924 1
gene 2 1468 2356 -0.80154 0 11486 -0.80154 1
gene 1 1874 871 0.118023 0 11502 0.118023 1
gene 2 17 2582 -1.78932 0 11611 -1.78932 1
gene 2 2356 2995 -1.3528 0 11682 -1.3528 1
gene 2 2995 1486 1.71045 0 11683 1.71045 1
gene 2 1590 1239 -0.521437 0 11728 -0.521437 1
gene 1 1446 1302 -1.21494 0 11983 -1.21494 1
gene 2 2582 2737 2.4226 0 12010 2.4226 1
gene 3 679 3085 0.183617 0 12064 0.183617 1
gene 3 3085 1382 2.52291 0 12065 2.52291 1
gene 2 1943 25 1.89259 0 12077 1.89259 1
gene 1 5 3098 -0.204094 0 12100 -0.204094 1
gene 1 3098 679 -1.34219 0 12101 -1.34219 1
gene 1 1960 3126 1 0 12215 1 1
gene 1 3126 2175 2.57311 0 12216 2.57311 1
gene 1 1590 1302 0.474704 0 12241 0.474704 1
gene 3 2196 2550 -0.48463 0 12291 -0.48463 1
gene 2 2582 2349 -0.041156 0 12306 -0.041156 1
gene 1 15 1302 -2.82806 0 12492 -2.82806 1
gene 1 1874 3209 1.85491 0 12551 1.85491 1
gene 1 3209 1197 0.923441 0 12552 0.923441 1
gene 1 1874 2476 -1.43037 0 12575 -1.43037 1
gene 3 633 2033 -3.04577 0 12596 -3.04577 1
gene 1 2082 841 -0.75311 0 12625 -0.75311 1
gene 2 1248 3265 0.877762 0 12788 0.877762 1
gene 2 3265 1842 0.932871 0 12789 0.932871 1
gene 1 4 3273 1 0 12811 1 1
gene 1 3273 26 -1.42126 0 12812 -1.42126 1
gene 1 2196 2995 0.0276962 0 12891 0.0276962 1
gene 3 908 462 0.997251 0 12956 0.997251 1
gene 3 69 3313 2.94484 0 12967 2.94484 1
gene 3 3313 871 -0.43939 0 12968 -0.43939 1
gene 2 1155 3320 1 0 12991 1 1
gene 2 3320 547 -1.99868 0 12992 -1.99868 1
gene 3 1429 1910 2.01395 0 13009 2.01395 1
gene 3 1429 1210 -1.62993 0 13015 -1.62993 1
gene 3 19 1178 2.70808 0 13067 2.70808 1
gene 3 2658 3265 0.693861 0 13124 0.693861 1
gene 3 2196 25 0.733511 0 13168 0.733511 1
gene 1 10 3364 1 0 13191 1 1
gene 1 3364 280 -3.18154 0 13192 -3.18154 1
gene 2 902 3209 -0.294201 0 13209 -0.294201 1
gene 3 978 1155 0.937955 0 13318 0.937955 1
gene 2 1483 1694 -2.0836 0 13346 -2.0836 1
gene 2 6 3417 -0.23249 0 13379 -0.23249 1
gene 2 3417 1563 -0.266045 0 13380 -0.266045 1
gene 2 1943 3422 1 0 13399 1 1
gene 2 3422 598 -2.69927 0 13400 -2.69927 1
gene 3 1744 1210 0.338191 0 13507 0.338191 1
gene 1 1365 2087 1.02342 0 13623 1.02342 1
gene 2 3422 3491 1.45202 0 13645 1.45202 1
gene 2 3491 598 -1.38524 0 13646 -1.38524 1
genomeend 1

/* Organism #2 Fitness: 14.8913 Error: 0 */
genomestart 2
trait 1 0 0 0.413862 0 0.685362 0.745432 0.174664 0.207925 
trait 2 0.175426 0.00146352 0.619256 0 0.584142 0.0834754 0.105846 0.0836366 
trait 3 0.0916894 0.112261 0.670121 0.879394 0.252918 0.0486583 0.496868 0.128672 
node 1 2 1 3
node 2 1 1 1
node 3 3 1 1
node 4 3 1 1
node 5 2 1 1
node 6 1 1 1
node 7 3 1 1
node 8 2 1 1
node 9 1 1 1
node 10 3 1 1
node 11 1 1 1
node 12 3 1 1
node 13 3 1 1
node 14 3 1 1
node 15 2 1 1
node 16 2 1 1
node 17 3 1 1
node 18 1 1 1
node 19 2 1 1
node 20 3 1 1
node 21 3 1 1
node 22 2 1 1
node 23 1 1 1
node 24 2 1 1
node 25 3 0 2
node 26 1 0 2
node 69 1 0 0
node 193 1 0 0
node 280 1 0 0
node 316 1 0 0
node 343 1 0 0
node 462 1 0 0
node 511 1 0 0
node 547 1 0 0
node 583 1 0 0
node 598 1 0 0
node 607 1 0 0
node 633 1 0 0
node 679 1 0 0
node 753 1 0 0
node 811 1 0 0
node 825 1 0 0
node 829 1 0 0
node 834 1 0 0
node 841 1 0 0
node 863 1 0 0
node 871 1 0 0
node 901 1 0 0
node 902 3 0 0
node 908 1 0 0
node 949 1 0 0
node 969 1 0 0
node 978 1 0 0
node 1021 1 0 0
node 1130 1 0 0
node 1155 1 0 0
node 1165 1 0 0
node 1167 1 0 0
node 1171 1 0 0
node 1178 1 0 0
node 1197 1 0 0
node 1210 1 0 0
node 1239 1 0 0
node 1248 1 0 0
node 1254 1 0 0
node 1292 1 0 0
node 1296 1 0 0
node 1302 1 0 0
node 1313 1 0 0
node 1331 1 0 0
node 1365 1 0 0
node 1378 1 0 0
node 1382 1 0 0
node 1418 1 0 0
node 1429 1 0 0
node 1446 1 0 0
node 1468 3 0 0
node 1483 1 0 0
node 1486 1 0 0
node 1499 1 0 0
node 1517 1 0 0
node 1563 1 0 0
node 1590 1 0 0
node 1603 1 0 0
node 1694 1 0 0
node 1732 1 0 0
node 1744 2 0 0
node 1788 1 0 0
node 1825 1 0 0
node 1842 1 0 0
node 1852 2 0 0
node 1861 1 0 0
node 1874 1 0 0
node 1876 1 0 0
node 1910 1 0 0
node 1943 1 0 0
node 1960 1 0 0
node 2033 1 0 0
node 2044 1 0 0
node 2072 1 0 0
node 2079 1 0 0
node 2082 1 0 0
node 2087 1 0 0
node 2141 1 0 0
node 2175 1 0 0
node 2188 1 0 0
node 2196 2 0 0
node 2238 2 0 0
node 2253 1 0 0
node 2272 2 0 0
node 2323 1 0 0
node 2349 1 0 0
node 2356 1 0 0
node 2426 1 0 0
node 2442 1 0 0
node 2471 1 0 0
node 2476 1 0 0
node 2500 1 0 0
node 2550 1 0 0
node 2569 1 0 0
node 2582 1 0 0
node 2615 1 0 0
node 2658 1 0 0
node 2686 1 0 0
node 2701 1 0 0
node 2737 1 0 0
node 2873 1 0 0
node 2995 1 0 0
node 3085 1 0 0
node 3098 1 0 0
node 3126 1 0 0
node 3209 1 0 0
node 3265 1 0 0
node 3273 1 0 0
node 3313 1 0 0
node 3320 1 0 0
node 3364 1 0 0
node 3417 1 0 0
node 3422 1 0 0
gene 1 1 25 -4.64617 0 1 -4.64617 1
gene 2 2 25 -5.17645 0 2 -5.17645 0
gene 1 3 25 1.22641 0 3 1.22641 1
gene 1 4 25 -2.74373 0 4 -2.74373 1
gene 1 5 25 -2.80892 0 5 -2.80892 1
gene 1 6 25 5.30517 0 6 5.30517 1
gene 3 7 25 6.48143 0 7 6.48143 0
gene 3 8 25 7.70795 0 8 7.70795 1
gene 3 9 25 -2.76877 0 9 -2.76877 1
gene 1 10 25 2.90198 0 10 2.90198 1
gene 1 11 25 -0.752547 0 11 -0.752547 1
gene 2 12 25 5.85539 0 12 5.85539 1
gene 2 13 25 -4.215 0 13 -4.215 1
gene 1 14 25 -4.8489 0 14 -4.8489 1
gene 2 15 25 -4.16491 0 15 -4.16491 0
gene 1 16 25 2.6384 0 16 2.6384 1
gene 3 17 25 -3.54991 0 17 -3.54991 1
gene 3 18 25 3.32793 0 18 3.32793 1
gene 1 19 25 -3.98939 0 19 -3.98939 1
gene 3 20 25 8 0 20 8 1
gene 1 21 25 -1.55452 0 21 -1.55452 1
gene 2 22 25 -2.42336 0 22 -2.42336 1
gene 1 23 25 3.79496 0 23 3.79496 1
gene 1 24 25 -0.326229 0 24 -0.326229 1
gene 1 1 26 -7.28424 0 25 -7.28424 1
gene 1 2 26 -8 0 26 -8 1
gene 3 3 26 -2.32548 0 27 -2.32548 1
gene 1 4 26 2.11517 0 28 2.11517 0
gene 2 5 26 2.29086 0 29 2.29086 0
gene 1 6 26 1.82853 0 30 1.82853 1
gene 2 7 26 1.27898 0 31 1.27898 1
gene 2 8 26 2.14618 0 32 2.14618 1
gene 1 9 26 -3.12927 0 33 -3.12927 1
gene 2 10 26 -0.654926 0 34 -0.654926 1
gene 1 11 26 3.5797 0 35 3.5797 1
gene 3 12 26 1.9241 0 36 1.9241 1
gene 2 13 26 0.211059 0 37 0.211059 1
gene 2 14 26 2.33843 0 38 2.33843 1
gene 2 15 26 3.50387 0 39 3.50387 1
gene 2 16 26 -4.204 0 40 -4.204 1
gene 2 17 26 2.30955 0 41 2.30955 1
gene 3 18 26 -2.45213 0 42 -2.45213 1
gene 1 19 26 -0.0313706 0 43 -0.0313706 1
gene 3 20 26 -0.31332 0 44 -0.31332 1
gene 2 21 26 1.06311 0 45 1.06311 1
gene 2 22 26 -2.36384 0 46 -2.36384 1
gene 3 23 26 -1.05609 0 47 -1.05609 1
gene 2 24 26 -0.987158 0 48 -0.987158 1
gene 1 2 69 -0.291611 0 187 -0.291611 1
gene 1 69 26 0.0869142 0 188 0.0869142 1
gene 3 23 69 -1.85968 0 195 -1.85968 1
gene 3 4 69 -0.571719 0 222 -0.571719 1
gene 1 11 69 -1.46398 0 347 -1.46398 1
gene 1 16 193 3.58613 0 646 3.58613 1
gene 1 193 25 0.794121 0 647 0.794121 1
gene 2 3 69 -4.16892 0 869 -4.16892 1
gene 2 3 280 2.64356 0 952 2.64356 1
gene 2 280 69 0.182423 0 953 0.182423 1
gene 2 15 69 1.01699 0 1043 1.01699 1
gene 3 12 69 0.994726 0 1057 0.994726 1
gene 2 5 316 -0.124423 0 1073 -0.124423 1
gene 2 316 26 4.97031 0 1074 4.97031 1
gene 3 20 280 0.312288 0 1145 0.312288 1
gene 2 15 343 -1.63555 0 1166 -1.63555 1
gene 2 343 69 1.14322 0 1167 1.14322 1
gene 3 16 343 -0.619435 0 1189 -0.619435 1
gene 3 280 316 -2.04044 0 1233 -2.04044 1
gene 3 2 343 -3.01989 0 1538 -3.01989 1
gene 3 13 280 2.43384 0 1544 2.43384 1
gene 3 18 462 -1.20597 0 1579 -1.20597 1
gene 3 462 25 7.2912 0 1580 7.2912 1
gene 3 21 193 2.30459 0 1616 2.30459 1
gene 1 10 280 -1.88185 0 1752 -1.88185 1
gene 1 4 511 2.34172 0 1762 2.34172 1
gene 1 511 26 1.53147 0 1763 1.53147 1
gene 1 3 343 1.43241 0 1792 1.43241 1
gene 3 2 193 -0.634245 0 1822 -0.634245 1
gene 2 16 316 -2.27357 0 1881 -2.27357 1
gene 2 343 547 2.89226 0 1908 2.89226 1
gene 2 547 69 0.913876 0 1909 0.913876 1
gene 2 24 547 -0.687258 0 1933 -0.687258 1
gene 3 15 511 -2.72058 0 1972 -2.72058 0
gene 1 343 462 -1.83796 0 1982 -1.83796 1
gene 1 24 583 1.23282 0 2035 1.23282 1
gene 1 583 25 2.30709 0 2036 2.30709 1
gene 1 280 583 -1.6688 0 2066 -1.6688 1
gene 2 15 598 -0.466409 0 2077 -0.466409 1
gene 2 598 26 -2.12534 0 2078 -2.12534 1
gene 2 15 607 0.259707 0 2106 0.259707 1
gene 2 607 598 2.83387 0 2107 2.83387 1
gene 2 15 633 -0.019836 0 2195 -0.019836 1
gene 2 633 607 0.551252 0 2196 0.551252 1
gene 3 2 679 1.2528 0 2343 1.2528 1
gene 3 679 343 -1.29749 0 2344 -1.29749 0
gene 1 5 679 1.36876 0 2385 1.36876 1
gene 2 607 25 1.95408 0 2398 1.95408 1
gene 2 511 280 -2.77107 0 2425 -2.77107 1
gene 3 19 583 -0.364823 0 2539 -0.364823 1
gene 2 13 343 -1.7581 0 2558 -1.7581 1
gene 2 193 316 -2.23572 0 2649 -2.23572 1
gene 3 21 753 2.18363 0 2680 2.18363 1
gene 3 753 193 1.19494 0 2681 1.19494 1
gene 2 753 598 1.00486 0 2798 1.00486 1
gene 2 3 811 1.92759 0 2887 1.92759 1
gene 2 811 69 -0.739498 0 2888 -0.739498 1
gene 1 12 547 -0.324631 0 2901 -0.324631 1
gene 2 13 825 0.465952 0 2940 0.465952 1
gene 2 825 343 -2.62707 0 2941 -2.62707 1
gene 1 12 829 2.59242 0 2954 2.59242 1
gene 2 829 547 1.54768 0 2955 1.54768 1
gene 2 462 607 0.470069 0 2978 0.470069 1
gene 3 679 834 2.41176 0 2998 2.41176 1
gene 3 834 343 -0.253224 0 2999 -0.253224 1
gene 2 511 841 -0.928296 0 3016 -0.928296 1
gene 2 841 280 -3.95398 0 3017 -3.95398 1
gene 1 1 598 2.29112 0 3035 2.29112 1
gene 2 18 583 1.78589 0 3081 1.78589 1
gene 2 193 863 3.91384 0 3089 3.91384 1
gene 2 863 316 0.393368 0 3090 0.393368 1
gene 2 15 871 2.5175 0 3119 2.5175 1
gene 2 871 25 -1.78981 0 3120 -1.78981 1
gene 1 17 598 -0.235935 0 3134 -0.235935 1
gene 3 18 901 -1.19332 0 3224 -1.19332 1
gene 3 901 25 6.05927 0 3225 6.05927 1
gene 2 2 902 0.19043 0 3228 0.19043 1
gene 2 902 25 -2.59865 0 3229 -2.59865 1
gene 3 11 908 1.1489 0 3250 1.1489 1
gene 1 908 25 -0.695196 0 3251 -0.695196 1
gene 1 22 69 -0.561104 0 3292 -0.561104 1
gene 2 811 863 -2.86696 0 3322 -2.86696 1
gene 3 908 607 1.28679 0 3335 1.28679 1
gene 1 280 949 -0.11795 0 3393 -0.11795 1
gene 1 949 583 0.0364056 0 3394 0.0364056 1
gene 1 21 863 3.15791 0 3409 3.15791 1
gene 2 547 969 3.0896 0 3458 3.0896 1
gene 2 969 69 0.417907 0 3459 0.417907 1
gene 2 24 978 0.746469 0 3488 0.746469 1
gene 2 978 26 -2.41265 0 3489 -2.41265 1
gene 3 193 841 2.22406 0 3505 2.22406 1
gene 1 4 316 2.61309 0 3529 2.61309 1
gene 1 8 462 1.32886 0 3542 1.32886 1
gene 3 511 25 0.268893 0 3606 0.268893 1
gene 1 22 1021 -0.486403 0 3664 -0.486403 1
gene 1 1021 69 -1.58536 0 3665 -1.58536 1
gene 1 13 69 -1.67791 0 3690 -1.67791 1
gene 3 949 825 2.88653 0 3725 2.88653 1
gene 1 10 841 1.89499 0 3734 1.89499 1
gene 2 20 825 -0.616095 0 3748 -0.616095 1
gene 3 1 462 -1.07093 0 3838 -1.07093 1
gene 1 8 908 1.37137 0 3881 1.37137 1
gene 2 583 829 0.317525 0 3894 0.317525 1
gene 3 11 679 -2.87165 0 3978 -2.87165 1
gene 1 978 633 0.929277 0 4061 0.929277 1
gene 2 863 1130 3.08053 0 4107 3.08053 1
gene 2 1130 316 -1.0971 0 4108 -1.0971 1
gene 2 24 1155 0.145869 0 4193 0.145869 1
gene 2 1155 547 -1.78616 0 4194 -1.78616 0
gene 3 7 1165 -1.12017 0 4220 -1.12017 1
gene 3 1165 25 6.60421 0 4221 6.60421 1
gene 2 280 1167 -0.507762 0 4230 -0.507762 1
gene 2 1167 69 -2.552 0 4231 -2.552 1
gene 1 280 1171 -0.413332 0 4245 -0.413332 1
gene 1 1171 949 0.992262 0 4246 0.992262 1
gene 3 607 969 0.488078 0 4263 0.488078 1
gene 3 21 1178 1.33677 0 4271 1.33677 1
gene 3 1178 193 -0.209285 0 4272 -0.209285 1
gene 2 7 1130 1.4167 0 4287 1.4167 1
gene 2 753 1197 -0.196153 0 4323 -0.196153 1
gene 2 1197 598 -1.78954 0 4324 -1.78954 1
gene 3 1 834 -0.569311 0 4329 -0.569311 1
gene 1 10 583 1.65948 0 4376 1.65948 1
gene 3 18 1210 -0.326263 0 4398 -0.326263 1
gene 3 1210 25 4.78149 0 4399 4.78149 1
gene 2 14 1155 0.00892265 0 4422 0.00892265 1
gene 1 9 1239 1.53309 0 4501 1.53309 1
gene 1 1239 26 -1.9906 0 4502 -1.9906 1
gene 2 26 902 -1.07105 0 4518 -1.07105 1
gene 2 511 1248 -0.767056 0 4537 -0.767056 1
gene 2 1248 280 -3.43159 0 4538 -3.43159 1
gene 1 69 1254 -0.122993 0 4562 -0.122993 1
gene 1 1254 26 -2.47417 0 4563 -2.47417 1
gene 3 5 949 1.12589 0 4649 1.12589 1
gene 3 978 547 -0.542202 0 4667 -0.542202 1
gene 1 908 1292 0.36039 0 4703 0.36039 1
gene 1 1292 25 -0.0315895 0 4704 -0.0315895 1
gene 2 343 1296 -0.0529963 0 4718 -0.0529963 1
gene 2 1296 69 -3.31291 0 4719 -3.31291 1
gene 2 280 1302 -0.296506 0 4742 -0.296506 1
gene 2 1302 1167 1.68615 0 4743 1.68615 1
gene 3 18 1313 1.52163 0 4783 1.52163 0
gene 3 1313 901 0.732913 0 4784 0.732913 1
gene 3 14 834 0.438931 0 4822 0.438931 1
gene 3 12 343 -0.952591 0 4826 -0.952591 1
gene 1 4 1331 -0.235418 0 4844 -0.235418 1
gene 1 1331 25 -0.739193 0 4845 -0.739193 1
gene 3 4 811 0.721616 0 4969 0.721616 1
gene 2 24 1365 2.14165 0 4997 2.14165 1
gene 2 1365 978 1.57088 0 4998 1.57088 1
gene 1 1254 1313 3.17256 0 5012 3.17256 1
gene 3 1365 1130 0.635515 0 5040 0.635515 1
gene 2 902 1378 3.46111 0 5052 3.46111 1
gene 2 1378 25 -4.17121 0 5053 -4.17121 1
gene 3 679 1382 0.405896 0 5065 0.405896 1
gene 3 1382 834 0.114714 0 5066 0.114714 1
gene 2 679 1167 -0.329546 0 5099 -0.329546 1
gene 2 24 1418 -0.817176 0 5216 -0.817176 1
gene 2 1418 1155 0.0337267 0 5217 0.0337267 1
gene 3 343 26 0.136522 0 5228 0.136522 1
gene 1 949 1429 -0.240081 0 5251 -0.240081 1
gene 3 1429 583 0.528434 0 5252 0.528434 0
gene 2 280 26 0.632136 0 5295 0.632136 1
gene 3 1178 316 0.400001 0 5311 0.400001 1
gene 3 6 1210 0.625739 0 5321 0.625739 1
gene 1 4 1446 0.535702 0 5332 0.535702 1
gene 1 1446 26 2.13323 0 5333 2.13323 1
gene 2 1167 26 1.64015 0 5379 1.64015 1
gene 2 598 1468 -0.740428 0 5413 -0.740428 1
gene 2 1468 26 -0.0458798 0 5414 -0.0458798 1
gene 1 633 871 0.089027 0 5439 0.089027 1
gene 1 280 1483 0.513581 0 5463 0.513581 1
gene 1 1483 583 -1.66448 0 5464 -1.66448 1
gene 2 343 1486 2.36152 0 5473 2.36152 1
gene 2 1486 547 0.36232 0 5474 0.36232 1
gene 1 280 1499 -1.31677 0 5509 -1.31677 1
gene 1 1499 1171 -2.47591 0 5510 -2.47591 1
gene 2 863 1331 -1.17224 0 5528 -1.17224 1
gene 2 753 69 0.75285 0 5600 0.75285 1
gene 1 69 1517 -0.666518 0 5612 -0.666518 1
gene 1 1517 1254 -1.79724 0 5613 -1.79724 1
gene 3 583 26 1.10774 0 5676 1.10774 1
gene 3 583 1155 0.507743 0 5729 0.507743 1
gene 3 24 1563 3.64894 0 5786 3.64894 1
gene 2 1563 978 1.12907 0 5787 1.12907 1
gene 2 4 1429 0.108946 0 5884 0.108946 1
gene 1 753 841 -0.456008 0 5910 -0.456008 1
gene 2 753 1590 -0.133746 0 5921 -0.133746 1
gene 2 1590 1197 1.23153 0 5922 1.23153 1
gene 2 547 1603 2.65567 0 5976 2.65567 1
gene 2 1603 969 0.433908 0 5977 0.433908 1
gene 2 1517 1590 -0.504664 0 6059 -0.504664 1
gene 3 1499 1382 0.256058 0 6156 0.256058 1
gene 1 1021 462 -0.46425 0 6179 -0.46425 1
gene 1 24 1296 0.72273 0 6218 0.72273 1
gene 3 7 1694 -0.291378 0 6307 -0.291378 1
gene 3 1694 25 4.57922 0 6308 4.57922 1
gene 2 1499 902 -3.8395 0 6381 -3.8395 1
gene 2 679 1331 -2.14891 0 6403 -2.14891 1
gene 2 1499 1603 -0.165859 0 6444 -0.165859 1
gene 2 1483 1468 1.95215 0 6483 1.95215 1
gene 3 949 1732 1.60811 0 6496 1.60811 1
gene 3 1732 825 -0.310793 0 6497 -0.310793 1
gene 2 598 1744 3.63749 0 6540 3.63749 1
gene 2 1744 1468 1.97345 0 6541 1.97345 1
gene 3 1331 901 -0.907902 0 6561 -0.907902 1
gene 2 978 1603 -3.20566 0 6648 -3.20566 1
gene 2 462 1788 2.51866 0 6709 2.51866 1
gene 2 1788 607 -2.89186 0 6710 -2.89186 1
gene 3 753 1788 -0.924535 0 6757 -0.924535 1
gene 2 1165 1563 0.951633 0 6788 0.951633 1
gene 2 2 1446 0.716799 0 6830 0.716799 1
gene 1 633 1825 3.16751 0 6876 3.16751 1
gene 1 1825 871 -0.398637 0 6877 -0.398637 1
gene 2 1248 1842 1.0358 0 6936 1.0358 1
gene 2 1842 280 -0.758889 0 6937 -0.758889 1
gene 1 12 1852 1.54202 0 6971 1.54202 1
gene 1 1852 69 -1.13177 0 6972 -1.13177 1
gene 1 1825 1603 -0.154319 0 6990 -0.154319 1
gene 2 24 1861 2.00763 0 7001 2.00763 1
gene 2 1861 1563 0.692066 0 7002 0.692066 1
gene 1 15 1418 -2.11974 0 7056 -2.11974 1
gene 2 753 1874 2.11925 0 7067 2.11925 1
gene 2 1874 598 0.0865332 0 7068 0.0865332 1
gene 2 13 1876 1.68517 0 7080 1.68517 1
gene 2 1876 343 -2.61847 0 7081 -2.61847 1
gene 1 1874 1197 0.171173 0 7196 0.171173 1
gene 3 18 1910 -1.29807 0 7212 -1.29807 1
gene 3 1910 1313 0.946316 0 7213 0.946316 1
gene 3 69 871 -2.36562 0 7291 -2.36562 1
gene 2 1197 1943 0.568542 0 7344 0.568542 1
gene 2 1943 598 0.597195 0 7345 0.597195 0
gene 1 1825 1842 -0.638029 0 7369 -0.638029 1
gene 1 10 1563 1.73868 0 7381 1.73868 1
gene 3 316 1296 -0.103262 0 7397 -0.103262 1
gene 1 10 1960 2.42694 0 7433 2.42694 1
gene 1 1960 1563 -3.32233 0 7434 -3.32233 1
gene 3 1021 1331 -2.6911 0 7452 -2.6911 1
gene 1 1130 1313 0.441509 0 7659 0.441509 1
gene 3 1178 2033 -1.32218 0 7722 -1.32218 1
gene 3 2033 316 -1.80574 0 7723 -1.80574 1
gene 1 1825 2044 -0.146042 0 7762 -0.146042 1
gene 1 2044 871 1.08601 0 7763 1.08601 1
gene 2 3 841 -1.72124 0 7790 -1.72124 1
gene 2 1874 1861 -1.02904 0 7851 -1.02904 1
gene 1 193 2072 -1.00387 0 7869 -1.00387 1
gene 1 2072 25 5.05091 0 7870 5.05091 1
gene 3 1313 2079 0.660431 0 7890 0.660431 1
gene 3 2079 901 2.90805 0 7891 2.90805 1
gene 1 4 2082 0.716779 0 7901 0.716779 1
gene 1 2082 26 2.70434 0 7902 2.70434 1
gene 3 511 2087 0.95227 0 7928 0.95227 1
gene 3 2087 25 1.60879 0 7929 1.60879 1
gene 2 3 679 1.26364 0 7970 1.26364 1
gene 3 969 1239 0.199334 0 8121 0.199334 1
gene 2 6 1563 -1.98553 0 8132 -1.98553 0
gene 1 1254 2141 0.556603 0 8145 0.556603 1
gene 1 2141 1313 2.90913 0 8146 2.90913 1
gene 3 6 1517 -0.0756042 0 8164 -0.0756042 1
gene 3 1910 2079 1.41355 0 8177 1.41355 1
gene 1 1960 2175 0.668593 0 8259 0.668593 0
gene 1 2175 1563 -3.01943 0 8260 -3.01943 1
gene 2 949 1486 2.28093 0 8304 2.28093 1
gene 2 20 2188 2.38154 0 8322 2.38154 1
gene 2 2188 825 1.53274 0 8323 1.53274 1
gene 3 14 2196 1.25191 0 8343 1.25191 1
gene 3 2196 834 -1.02744 0 8344 -1.02744 1
gene 1 2196 1842 -1.80334 0 8371 -1.80334 1
gene 2 12 1483 0.620612 0 8393 0.620612 1
gene 2 607 1852 1.6892 0 8399 1.6892 1
gene 1 1331 2238 2.19907 0 8524 2.19907 1
gene 1 2238 25 -4.25152 0 8525 -4.25152 1
gene 1 24 1446 0.330124 0 8533 0.330124 1
gene 3 21 1292 0.845929 0 8562 0.845929 1
gene 2 607 2253 -0.807393 0 8578 -0.807393 1
gene 2 2253 25 2.18891 0 8579 2.18891 1
gene 2 19 1210 2.63281 0 8635 2.63281 0
gene 2 829 1155 -1.30909 0 8650 -1.30909 1
gene 3 978 2272 3.11235 0 8672 3.11235 1
gene 3 2272 547 0.319913 0 8673 0.319913 1
gene 3 193 2323 0.323181 0 8884 0.323181 1
gene 3 2323 841 -0.813202 0 8885 -0.813202 1
gene 1 1418 25 3.25323 0 8931 3.25323 1
gene 3 583 1021 -0.698399 0 8945 -0.698399 1
gene 2 1842 2349 0.78974 0 9004 0.78974 1
gene 2 2349 280 -1.21037 0 9005 -1.21037 1
gene 2 343 2356 2.94253 0 9023 2.94253 1
gene 2 2356 1486 1.995 0 9024 1.995 1
gene 1 1861 1248 0.464688 0 9105 0.464688 1
gene 2 978 1292 -0.16886 0 9228 -0.16886 1
gene 3 679 1210 -2.63015 0 9248 -2.63015 1
gene 3 22 1694 0.203331 0 9284 0.203331 1
gene 2 753 2426 1.45666 0 9317 1.45666 1
gene 2 2426 1874 1.11533 0 9318 1.11533 1
gene 2 511 2442 -0.0934682 0 9374 -0.0934682 1
gene 2 2442 1248 -1.84117 0 9375 -1.84117 1
gene 3 21 2471 -0.59249 0 9497 -0.59249 1
gene 3 2471 753 0.541526 0 9498 0.541526 1
gene 3 1483 1486 0.995972 0 9530 0.995972 1
gene 2 8 2476 1.46876 0 9545 1.46876 1
gene 2 2476 26 -1.25271 0 9546 -1.25271 1
gene 2 1365 1563 -1.97043 0 9617 -1.97043 1
gene 1 4 2500 -1.08712 0 9632 -1.08712 1
gene 1 2500 2082 0.350644 0 9633 0.350644 1
gene 3 1378 1197 2.06475 0 9760 2.06475 1
gene 3 1563 1248 -0.645139 0 9770 -0.645139 1
gene 1 1486 2044 -0.626159 0 9822 -0.626159 1
gene 2 2188 2550 -1.39199 0 9840 -1.39199 1
gene 2 2550 825 1.28661 0 9841 1.28661 1
gene 1 1499 2569 1.26093 0 9902 1.26093 1
gene 1 2569 1171 1.05811 0 9903 1.05811 1
gene 2 753 2582 -0.692688 0 9939 -0.692688 1
gene 2 2582 69 2.4713 0 9940 2.4713 1
gene 2 5 2500 -0.985387 0 9961 -0.985387 1
gene 1 3 2471 -0.859462 0 10089 -0.859462 1
gene 3 13 2615 0.711535 0 10105 0.711535 1
gene 3 2615 280 -1.54538 0 10106 -1.54538 1
gene 1 69 1943 -0.667309 0 10143 -0.667309 1
gene 3 1603 1130 -0.627354 0 10166 -0.627354 1
gene 2 6 2658 0.792711 0 10262 0.792711 1
gene 2 2658 1563 1.24993 0 10263 1.24993 1
gene 3 8 825 -1.45673 0 10278 -1.45673 1
gene 1 7 2615 0.734896 0 10374 0.734896 1
gene 3 2082 1021 -2.21308 0 10384 -2.21308 1
gene 3 679 2686 0.779225 0 10414 0.779225 1
gene 3 2686 343 -0.193988 0 10415 -0.193988 1
gene 3 6 2701 -1.71739 0 10462 -1.71739 1
gene 3 2701 1210 -1.61511 0 10463 -1.61511 1
gene 1 1254 871 -1.77467 0 10577 -1.77467 1
gene 3 1732 2737 1.58972 0 10590 1.58972 1
gene 3 2737 825 -1.34284 0 10591 -1.34284 1
gene 3 1210 1167 -0.188905 0 10675 -0.188905 1
gene 3 1563 2323 -0.557138 0 10696 -0.557138 1
gene 1 2 2082 1.74744 0 10768 1.74744 1
gene 1 9 2471 0.0785598 0 10818 0.0785598 1
gene 2 2686 2471 1.44971 0 10948 1.44971 1
gene 1 1197 25 -1.7148 0 10979 -1.7148 1
gene 2 13 1296 -1.46541 0 10997 -1.46541 1
gene 1 1468 1292 0.796404 0 11012 0.796404 1
gene 2 19 2873 1.74554 0 11151 1.74554 1
gene 2 2873 1210 2.11507 0 11152 2.11507 1
gene 2 2175 1021 -1.28456 0 11264 -1.28456 1
gene 2 811 547 -1.76622 0 11380 -1.76622 1
gene 3 1382 1171 -1.73727 0 11396 -1.73727 1
gene 2 1744 1296 1.25644 0 11410 1.25644 1
gene 2 1468 2356 1.68419 0 11486 1.68419 1
gene 1 1874 871 -2.47211 0 11502 -2.47211 1
gene 2 17 2582 -0.990095 0 11611 -0.990095 1
gene 2 2356 2995 0.384863 0 11682 0.384863 1
gene 2 2995 1486 0.391139 0 11683 0.391139 1
gene 2 1590 1239 -2.35519 0 11728 -2.35519 1
gene 1 1446 1302 0.448109 0 11983 0.448109 1
gene 2 2582 2737 2.09225 0 12010 2.09225 1
gene 3 679 3085 0.791791 0 12064 0.791791 0
gene 3 3085 1382 -1.36556 0 12065 -1.36556 1
gene 2 1943 25 0.751067 0 12077 0.751067 1
gene 1 5 3098 0.541016 0 12100 0.541016 1
gene 1 3098 679 0.154634 0 12101 0.154634 1
gene 1 1960 3126 2.57564 0 12215 2.57564 1
gene 1 3126 2175 2.06445 0 12216 2.06445 1
gene 1 1590 1302 -1.30388 0 12241 -1.30388 1
gene 3 2196 2550 -0.144284 0 12291 -0.144284 1
gene 2 2582 2349 0.397734 0 12306 0.397734 1
gene 1 15 1302 -0.892976 0 12492 -0.892976 1
gene 1 1874 3209 3.09211 0 12551 3.09211 1
gene 1 3209 1197 1.66938 0 12552 1.66938 1
gene 1 1874 2476 0.371605 0 12575 0.371605 1
gene 3 633 2033 -0.660835 0 12596 -0.660835 1
gene 1 2082 841 2.69852 0 12625 2.69852 1
gene 2 1248 3265 0.371186 0 12788 0.371186 1
gene 2 3265 1842 -1.45516 0 12789 -1.45516 1
gene 1 4 3273 2.94487 0 12811 2.94487 1
gene 1 3273 26 2.76029 0 12812 2.76029 1
gene 1 2196 2995 -2.05091 0 12891 -2.05091 1
gene 3 908 462 -1.56119 0 12956 -1.56119 1
gene 3 69 3313 1 0 12967 1 1
gene 3 3313 871 -0.180324 0 12968 -0.180324 1
gene 2 1155 3320 0.824525 0 12991 0.824525 1
gene 2 3320 547 -1.8352 0 12992 -1.8352 1
gene 3 1429 1910 0.0227428 0 13009 0.0227428 1
gene 3 1429 1210 -1.51206 0 13015 -1.51206 1
gene 3 19 1178 -0.270718 0 13067 -0.270718 1
gene 3 2658 3265 0.22311 0 13124 0.22311 1
gene 3 2196 25 -0.271259 0 13168 -0.271259 1
gene 1 10 3364 -1.08098 0 13191 -1.08098 1
gene 1 3364 280 -0.850546 0 13192 -0.850546 1
gene 2 902 3209 1.08877 0 13209 1.08877 1
gene 3 978 1155 0.937955 0 13318 0.937955 1
gene 2 1483 1694 -2.12277 0 13346 -2.12277 1
gene 2 6 3417 1 0 13379 1 1
gene 2 3417 1563 -2.36402 0 13380 -2.36402 1
gene 2 1943 3422 1.39247 0 13399 1.39247 1
gene 2 3422 598 -1.23263 0 13400 -1.23263 1
gene 3 1744 1210 -1.60415 0 13507 -1.60415 1
gene 1 1365 2087 -0.328885 0 13623 -0.328885 1
genomeend 2

/* Organism #3 Fitness: 45.7964 Error: 0 */
genomestart 3
trait 1 0 0 0.413862 0 0.685362 0.745432 0.174664 0.207925 
trait 2 0.175426 0.00146352 0.619256 0 0.584142 0.0834754 0.105846 0.0836366 
trait 3 0.0916894 0.112261 0.670121 0.879394 0.252918 0.0486583 0.496868 0.128672 
node 1 2 1 3
node 2 1 1 1
node 3 3 1 1
node 4 3 1 1
node 5 2 1 1
node 6 1 1 1
node 7 3 1 1
node 8 2 1 1
node 9 1 1 1
node 10 3 1 1
node 11 1 1 1
node 12 3 1 1
node 13 3 1 1
node 14 3 1 1
node 15 2 1 1
node 16 2 1 1
node 17 3 1 1
node 18 1 1 1
node 19 2 1 1
node 20 3 1 1
node 21 3 1 1
node 22 2 1 1
node 23 1 1 1
node 24 2 1 1
node 25 3 0 2
node 26 1 0 2
node 69 1 0 0
node 193 1 0 0
node 280 1 0 0
node 316 1 0 0
node 343 1 0 0
node 462 1 0 0
node 511 1 0 0
node 547 1 0 0
node 583 1 0 0
node 598 1 0 0
node 607 1 0 0
node 633 1 0 0
node 679 1 0 0
node 753 1 0 0
node 811 1 0 0
node 825 1 0 0
node 829 1 0 0
node 834 1 0 0
node 841 1 0 0
node 863 1 0 0
node 871 1 0 0
node 901 1 0 0
node 902 3 0 0
node 908 1 0 0
node 949 1 0 0
node 969 1 0 0
node 978 1 0 0
node 1021 1 0 0
node 1130 1 0 0
node 1155 1 0 0
node 1165 1 0 0
node 1167 1 0 0
node 1171 1 0 0
node 1178 1 0 0
node 1197 1 0 0
node 1210 1 0 0
node 1239 1 0 0
node 1248 1 0 0
node 1254 1 0 0
node 1292 1 0 0
node 1296 1 0 0
node 1302 1 0 0
node 1313 1 0 0
node 1331 1 0 0
node 1365 1 0 0
node 1378 1 0 0
node 1382 1 0 0
node 1418 1 0 0
node 1429 1 0 0
node 1446 1 0 0
node 1468 3 0 0
node 1483 1 0 0
node 1486 1 0 0
node 1499 1 0 0
node 1517 1 0 0
node 1563 1 0 0
node 1590 1 0 0
node 1603 1 0 0
node 1694 1 0 0
node 1732 1 0 0
node 1744 2 0 0
node 1788 1 0 0
node 1825 1 0 0
node 1842 1 0 0
node 1852 2 0 0
node 1861 1 0 0
node 1874 1 0 0
node 1876 1 0 0
node 1910 1 0 0
node 1943 1 0 0
node 1960 1 0 0
node 2033 1 0 0
node 2044 1 0 0
node 2072 1 0 0
node 2079 1 0 0
node 2082 1 0 0
node 2087 1 0 0
node 2141 1 0 0
node 2175 1 0 0
node 2188 1 0 0
node 2196 2 0 0
node 2238 2 0 0
node 2253 1 0 0
node 2272 2 0 0
node 2323 1 0 0
node 2349 1 0 0
node 2356 1 0 0
node 2426 1 0 0
node 2442 1 0 0
node 2471 1 0 0
node 2476 1 0 0
node 2500 1 0 0
node 2550 1 0 0
node 2569 1 0 0
node 2582 1 0 0
node 2615 1 0 0
node 2658 1 0 0
node 2686 1 0 0
node 2701 1 0 0
node 2737 1 0 0
node 2873 1 0 0
node 2995 1 0 0
node 3085 1 0 0
node 3098 1 0 0
node 3126 1 0 0
node 3209 1 0 0
node 3265 1 0 0
node 3273 1 0 0
node 3313 1 0 0
node 3320 1 0 0
node 3364 1 0 0
node 3417 1 0 0
node 3422 1 0 0
node 3491 1 0 0
gene 1 1 25 -2.69192 0 1 -2.69192 1
gene 2 2 25 -3.43133 0 2 -3.43133 0
gene 1 3 25 1.44824 0 3 1.44824 1
gene 1 4 25 -0.0609761 0 4 -0.0609761 1
gene 1 5 25 -1.6401 0 5 -1.6401 1
gene 1 6 25 4.81316 0 6 4.81316 1
gene 3 7 25 4.33759 0 7 4.33759 1
gene 3 8 25 6.76204 0 8 6.76204 1
gene 3 9 25 1.56024 0 9 1.56024 1
gene 1 10 25 4.61408 0 10 4.61408 1
gene 1 11 25 -0.463008 0 11 -0.463008 1
gene 2 12 25 3.5503 0 12 3.5503 1
gene 2 13 25 -3.05079 0 13 -3.05079 1
gene 1 14 25 -5.88595 0 14 -5.88595 1
gene 2 15 25 -1.96623 0 15 -1.96623 0
gene 1 16 25 1.50959 0 16 1.50959 1
gene 3 17 25 -2.31264 0 17 -2.31264 1
gene 3 18 25 6.12068 0 18 6.12068 1
gene 1 19 25 -3.87155 0 19 -3.87155 1
gene 3 20 25 6.60785 0 20 6.60785 1
gene 1 21 25 -1.00995 0 21 -1.00995 1
gene 2 22 25 1.57896 0 22 1.57896 1
gene 1 23 25 2.924 0 23 2.924 1
gene 1 24 25 2.75821 0 24 2.75821 1
gene 1 1 26 -4.27341 0 25 -4.27341 1
gene 1 2 26 -7.38285 0 26 -7.38285 1
gene 3 3 26 1.33422 0 27 1.33422 1
gene 1 4 26 0.516018 0 28 0.516018 0
gene 2 5 26 5.72722 0 29 5.72722 0
gene 1 6 26 -1.83314 0 30 -1.83314 1
gene 2 7 26 4.21341 0 31 4.21341 1
gene 2 8 26 1.98566 0 32 1.98566 1
gene 1 9 26 1.64759 0 33 1.64759 1
gene 2 10 26 0.994219 0 34 0.994219 1
gene 1 11 26 3.58443 0 35 3.58443 1
gene 3 12 26 0.886037 0 36 0.886037 1
gene 2 13 26 -3.99054 0 37 -3.99054 1
gene 2 14 26 1.56891 0 38 1.56891 1
gene 2 15 26 -1.36911 0 39 -1.36911 1
gene 2 16 26 -3.73649 0 40 -3.73649 1
gene 2 17 26 3.50467 0 41 3.50467 1
gene 3 18 26 -1.30233 0 42 -1.30233 1
gene 1 19 26 3.30667 0 43 3.30667 1
gene 3 20 26 1.05222 0 44 1.05222 1
gene 2 21 26 -1.9307 0 45 -1.9307 1
gene 2 22 26 -0.708051 0 46 -0.708051 1
gene 3 23 26 2.65996 0 47 2.65996 1
gene 2 24 26 -3.44217 0 48 -3.44217 1
gene 1 2 69 -0.200468 0 187 -0.200468 1
gene 1 69 26 -1.7867 0 188 -1.7867 1
gene 3 23 69 1.22606 0 195 1.22606 1
gene 3 4 69 -0.237583 0 222 -0.237583 1
gene 1 11 69 0.327192 0 347 0.327192 1
gene 1 16 193 2.42387 0 646 2.42387 1
gene 1 193 25 2.81244 0 647 2.81244 1
gene 2 3 69 -1.17256 0 869 -1.17256 1
gene 2 3 280 1.38469 0 952 1.38469 1
gene 2 280 69 -2.13524 0 953 -2.13524 1
gene 2 15 69 -1.47056 0 1043 -1.47056 1
gene 3 12 69 -0.417569 0 1057 -0.417569 1
gene 2 5 316 0.69751 0 1073 0.69751 1
gene 2 316 26 3.10476 0 1074 3.10476 1
gene 3 20 280 -0.104013 0 1145 -0.104013 1
gene 2 15 343 0.0155481 0 1166 0.0155481 1
gene 2 343 69 0.438296 0 1167 0.438296 1
gene 3 16 343 1.6049 0 1189 1.6049 1
gene 3 280 316 0.168082 0 1233 0.168082 1
gene 3 2 343 0.133889 0 1538 0.133889 1
gene 3 13 280 2.89219 0 1544 2.89219 1
gene 3 18 462 1.87833 0 1579 1.87833 1
gene 3 462 25 3.46491 0 1580 3.46491 1
gene 3 21 193 0.722849 0 1616 0.722849 1
gene 1 10 280 -1.15978 0 1752 -1.15978 1
gene 1 4 511 1.75616 0 1762 1.75616 1
gene 1 511 26 1.25456 0 1763 1.25456 1
gene 1 3 343 -0.363977 0 1792 -0.363977 1
gene 3 2 193 2.54223 0 1822 2.54223 1
gene 2 16 316 -2.46615 0 1881 -2.46615 1
gene 2 343 547 1.03427 0 1908 1.03427 1
gene 2 547 69 -3.03273 0 1909 -3.03273 1
gene 2 24 547 0.124264 0 1933 0.124264 1
gene 3 15 511 -2.35293 0 1972 -2.35293 0
gene 1 343 462 -2.27409 0 1982 -2.27409 1
gene 1 24 583 1.87913 0 2035 1.87913 1
gene 1 583 25 0.164057 0 2036 0.164057 1
gene 1 280 583 -4.73766 0 2066 -4.73766 1
gene 2 15 598 -0.368343 0 2077 -0.368343 1
gene 2 598 26 0.319724 0 2078 0.319724 1
gene 2 15 607 -1.16232 0 2106 -1.16232 1
gene 2 607 598 0.179155 0 2107 0.179155 1
gene 2 15 633 -1.12946 0 2195 -1.12946 1
gene 2 633 607 -0.415144 0 2196 -0.415144 1
gene 3 2 679 1.70897 0 2343 1.70897 1
gene 3 679 343 1.81543 0 2344 1.81543 1
gene 1 5 679 1.22321 0 2385 1.22321 1
gene 2 607 25 2.69299 0 2398 2.69299 1
gene 2 511 280 -2.39608 0 2425 -2.39608 1
gene 3 19 583 -1.08776 0 2539 -1.08776 1
gene 2 13 343 -2.21408 0 2558 -2.21408 1
gene 2 193 316 -0.394067 0 2649 -0.394067 1
gene 3 21 753 -0.513785 0 2680 -0.513785 1
gene 3 753 193 1.8479 0 2681 1.8479 1
gene 2 753 598 -3.03013 0 2798 -3.03013 1
gene 2 3 811 -0.442756 0 2887 -0.442756 1
gene 2 811 69 0.604226 0 2888 0.604226 1
gene 1 12 547 1.02037 0 2901 1.02037 1
gene 2 13 825 -2.1961 0 2940 -2.1961 1
gene 2 825 343 -2.29162 0 2941 -2.29162 1
gene 1 12 829 0.184235 0 2954 0.184235 1
gene 2 829 547 1.11086 0 2955 1.11086 1
gene 2 462 607 -1.66325 0 2978 -1.66325 1
gene 3 679 834 2.68626 0 2998 2.68626 1
gene 3 834 343 1.50075 0 2999 1.50075 1
gene 2 511 841 -0.748331 0 3016 -0.748331 1
gene 2 841 280 -4.10578 0 3017 -4.10578 1
gene 1 1 598 -1.47227 0 3035 -1.47227 1
gene 2 18 583 2.01253 0 3081 2.01253 1
gene 2 193 863 -0.266423 0 3089 -0.266423 1
gene 2 863 316 3.20759 0 3090 3.20759 1
gene 2 15 871 1.77721 0 3119 1.77721 1
gene 2 871 25 -5.04651 0 3120 -5.04651 1
gene 1 17 598 -2.65971 0 3134 -2.65971 1
gene 3 18 901 -0.763337 0 3224 -0.763337 1
gene 3 901 25 5.80793 0 3225 5.80793 1
gene 2 2 902 1.2245 0 3228 1.2245 1
gene 2 902 25 -5.76678 0 3229 -5.76678 1
gene 3 11 908 -2.34513 0 3250 -2.34513 1
gene 1 908 25 -0.535625 0 3251 -0.535625 1
gene 1 22 69 -1.72982 0 3292 -1.72982 1
gene 2 811 863 0.77439 0 3322 0.77439 1
gene 3 908 607 -0.322586 0 3335 -0.322586 1
gene 1 280 949 -0.909939 0 3393 -0.909939 1
gene 1 949 583 1.42071 0 3394 1.42071 1
gene 1 21 863 2.57339 0 3409 2.57339 1
gene 2 547 969 1.15948 0 3458 1.15948 1
gene 2 969 69 1.78337 0 3459 1.78337 1
gene 2 24 978 2.56493 0 3488 2.56493 1
gene 2 978 26 -1.17036 0 3489 -1.17036 1
gene 3 193 841 1.44765 0 3505 1.44765 1
gene 1 4 316 -1.25085 0 3529 -1.25085 1
gene 1 8 462 -0.606221 0 3542 -0.606221 1
gene 3 511 25 -2.3862 0 3606 -2.3862 1
gene 1 22 1021 -0.993488 0 3664 -0.993488 1
gene 1 1021 69 -2.30579 0 3665 -2.30579 1
gene 1 13 69 0.209964 0 3690 0.209964 1
gene 3 949 825 3.79391 0 3725 3.79391 1
gene 1 10 841 -0.0130484 0 3734 -0.0130484 1
gene 2 20 825 0.869273 0 3748 0.869273 1
gene 3 1 462 -1.61219 0 3838 -1.61219 1
gene 1 8 908 -2.28502 0 3881 -2.28502 1
gene 2 583 829 -1.71003 0 3894 -1.71003 1
gene 3 11 679 1.28663 0 3978 1.28663 1
gene 1 978 633 1.47552 0 4061 1.47552 1
gene 2 863 1130 -0.468164 0 4107 -0.468164 1
gene 2 1130 316 1.00267 0 4108 1.00267 1
gene 2 24 1155 -0.412858 0 4193 -0.412858 1
gene 2 1155 547 1.28369 0 4194 1.28369 1
gene 3 7 1165 1.56382 0 4220 1.56382 1
gene 3 1165 25 7.14452 0 4221 7.14452 1
gene 2 280 1167 2.8639 0 4230 2.8639 1
gene 2 1167 69 -1.26609 0 4231 -1.26609 1
gene 1 280 1171 -1.13462 0 4245 -1.13462 1
gene 1 1171 949 0.474637 0 4246 0.474637 1
gene 3 607 969 1.11522 0 4263 1.11522 1
gene 3 21 1178 3.32718 0 4271 3.32718 1
gene 3 1178 193 -2.10219 0 4272 -2.10219 1
gene 2 7 1130 2.6413 0 4287 2.6413 1
gene 2 753 1197 -0.364651 0 4323 -0.364651 1
gene 2 1197 598 1.79159 0 4324 1.79159 1
gene 3 1 834 2.00744 0 4329 2.00744 1
gene 1 10 583 -0.303245 0 4376 -0.303245 1
gene 3 18 1210 1.86827 0 4398 1.86827 1
gene 3 1210 25 3.078 0 4399 3.078 1
gene 2 14 1155 -1.55056 0 4422 -1.55056 1
gene 1 9 1239 0.476418 0 4501 0.476418 1
gene 1 1239 26 -0.349652 0 4502 -0.349652 1
gene 2 26 902 -3.5208 0 4518 -3.5208 1
gene 2 511 1248 0.184228 0 4537 0.184228 1
gene 2 1248 280 -2.63757 0 4538 -2.63757 1
gene 1 69 1254 0.552438 0 4562 0.552438 1
gene 1 1254 26 -2.58496 0 4563 -2.58496 1
gene 3 5 949 -0.23686 0 4649 -0.23686 1
gene 3 978 547 1.4824 0 4667 1.4824 1
gene 1 908 1292 3.35967 0 4703 3.35967 1
gene 1 1292 25 -1.60576 0 4704 -1.60576 1
gene 2 343 1296 1.40384 0 4718 1.40384 1
gene 2 1296 69 -3.04447 0 4719 -3.04447 1
gene 2 280 1302 -2.14645 0 4742 -2.14645 1
gene 2 1302 1167 2.63158 0 4743 2.63158 1
gene 3 18 1313 3.07615 0 4783 3.07615 0
gene 3 1313 901 -0.255766 0 4784 -0.255766 1
gene 3 14 834 1.63135 0 4822 1.63135 1
gene 3 12 343 1.79159 0 4826 1.79159 1
gene 1 4 1331 2.92541 0 4844 2.92541 1
gene 1 1331 25 -3.54669 0 4845 -3.54669 1
gene 3 4 811 -0.0678034 0 4969 -0.0678034 1
gene 2 24 1365 1.88964 0 4997 1.88964 1
gene 2 1365 978 -2.03081 0 4998 -2.03081 1
gene 1 1254 1313 1.23652 0 5012 1.23652 1
gene 3 1365 1130 -2.379 0 5040 -2.379 1
gene 2 902 1378 2.27777 0 5052 2.27777 1
gene 2 1378 25 -6.27913 0 5053 -6.27913 1
gene 3 679 1382 -0.314807 0 5065 -0.314807 1
gene 3 1382 834 1.08687 0 5066 1.08687 1
gene 2 679 1167 -1.01431 0 5099 -1.01431 1
gene 2 24 1418 2.35321 0 5216 2.35321 1
gene 2 1418 1155 -1.72602 0 5217 -1.72602 1
gene 3 343 26 -1.08939 0 5228 -1.08939 1
gene 1 949 1429 3.42377 0 5251 3.42377 1
gene 3 1429 583 0.0366459 0 5252 0.0366459 0
gene 2 280 26 0.102982 0 5295 0.102982 1
gene 3 1178 316 -1.05106 0 5311 -1.05106 1
gene 3 6 1210 -1.56279 0 5321 -1.56279 1
gene 1 4 1446 0.412968 0 5332 0.412968 1
gene 1 1446 26 2.63443 0 5333 2.63443 1
gene 2 1167 26 2.71034 0 5379 2.71034 1
gene 2 598 1468 1.03638 0 5413 1.03638 1
gene 2 1468 26 -3.57188 0 5414 -3.57188 1
gene 1 633 871 0.861398 0 5439 0.861398 1
gene 1 280 1483 0.88886 0 5463 0.88886 1
gene 1 1483 583 -1.13762 0 5464 -1.13762 1
gene 2 343 1486 1.84579 0 5473 1.84579 1
gene 2 1486 547 1.26067 0 5474 1.26067 1
gene 1 280 1499 2.97525 0 5509 2.97525 1
gene 1 1499 1171 -1.0668 0 5510 -1.0668 1
gene 2 863 1331 -1.53263 0 5528 -1.53263 1
gene 2 753 69 -0.938246 0 5600 -0.938246 1
gene 1 69 1517 0.458175 0 5612 0.458175 1
gene 1 1517 1254 0.741746 0 5613 0.741746 1
gene 3 583 26 1.08554 0 5676 1.08554 1
gene 3 583 1155 0.651018 0 5729 0.651018 1
gene 3 24 1563 1.169 0 5786 1.169 1
gene 2 1563 978 4.82018 0 5787 4.82018 1
gene 2 4 1429 2.90225 0 5884 2.90225 1
gene 1 753 841 -1.51132 0 5910 -1.51132 1
gene 2 753 1590 0.958477 0 5921 0.958477 1
gene 2 1590 1197 -0.295846 0 5922 -0.295846 1
gene 2 547 1603 -1.38389 0 5976 -1.38389 1
gene 2 1603 969 2.19202 0 5977 2.19202 1
gene 2 1517 1590 -0.406145 0 6059 -0.406145 1
gene 3 1499 1382 -3.85007 0 6156 -3.85007 1
gene 1 1021 462 1.65462 0 6179 1.65462 1
gene 1 24 1296 -0.975813 0 6218 -0.975813 1
gene 3 7 1694 0.686535 0 6307 0.686535 1
gene 3 1694 25 7.73213 0 6308 7.73213 1
gene 2 1499 902 0.691128 0 6381 0.691128 1
gene 2 679 1331 0.867943 0 6403 0.867943 1
gene 2 1499 1603 0.372614 0 6444 0.372614 1
gene 2 1483 1468 -1.79672 0 6483 -1.79672 1
gene 3 949 1732 -1.28979 0 6496 -1.28979 1
gene 3 1732 825 1.60975 0 6497 1.60975 1
gene 2 598 1744 -0.720522 0 6540 -0.720522 1
gene 2 1744 1468 2.5103 0 6541 2.5103 1
gene 3 1331 901 -1.19353 0 6561 -1.19353 1
gene 2 978 1603 -0.985211 0 6648 -0.985211 1
gene 2 462 1788 2.00873 0 6709 2.00873 1
gene 2 1788 607 1.83604 0 6710 1.83604 1
gene 3 753 1788 0.969543 0 6757 0.969543 1
gene 2 1165 1563 -0.228797 0 6788 -0.228797 1
gene 2 2 1446 0.514981 0 6830 0.514981 1
gene 1 633 1825 2.27882 0 6876 2.27882 1
gene 1 1825 871 2.37557 0 6877 2.37557 1
gene 2 1248 1842 2.17012 0 6936 2.17012 1
gene 2 1842 280 -3.65819 0 6937 -3.65819 1
gene 1 12 1852 1.78269 0 6971 1.78269 1
gene 1 1852 69 0.268146 0 6972 0.268146 1
gene 1 1825 1603 1.93038 0 6990 1.93038 1
gene 2 24 1861 -0.785426 0 7001 -0.785426 1
gene 2 1861 1563 1.00132 0 7002 1.00132 1
gene 1 15 1418 -1.53205 0 7056 -1.53205 1
gene 2 753 1874 3.69863 0 7067 3.69863 1
gene 2 1874 598 -0.416063 0 7068 -0.416063 1
gene 2 13 1876 -0.154155 0 7080 -0.154155 1
gene 2 1876 343 -0.534541 0 7081 -0.534541 1
gene 1 1874 1197 3.05036 0 7196 3.05036 1
gene 3 18 1910 1.76944 0 7212 1.76944 1
gene 3 1910 1313 -0.327558 0 7213 -0.327558 1
gene 3 69 871 -1.46441 0 7291 -1.46441 1
gene 2 1197 1943 1.96854 0 7344 1.96854 1
gene 2 1943 598 -3.07909 0 7345 -3.07909 0
gene 1 1825 1842 -2.09523 0 7369 -2.09523 1
gene 1 10 1563 -0.532031 0 7381 -0.532031 1
gene 3 316 1296 0.292645 0 7397 0.292645 1
gene 1 10 1960 1.67509 0 7433 1.67509 1
gene 1 1960 1563 -4.03521 0 7434 -4.03521 1
gene 3 1021 1331 1.4011 0 7452 1.4011 1
gene 1 1130 1313 -1.27228 0 7659 -1.27228 1
gene 3 1178 2033 -0.408065 0 7722 -0.408065 1
gene 3 2033 316 1.81894 0 7723 1.81894 1
gene 1 1825 2044 0.632087 0 7762 0.632087 1
gene 1 2044 871 -0.0533158 0 7763 -0.0533158 1
gene 2 3 841 1.67671 0 7790 1.67671 1
gene 2 1874 1861 -1.50574 0 7851 -1.50574 1
gene 1 193 2072 -1.0182 0 7869 -1.0182 1
gene 1 2072 25 3.82606 0 7870 3.82606 1
gene 3 1313 2079 1.96522 0 7890 1.96522 1
gene 3 2079 901 0.839296 0 7891 0.839296 1
gene 1 4 2082 -0.189837 0 7901 -0.189837 1
gene 1 2082 26 2.16335 0 7902 2.16335 1
gene 3 511 2087 1.15615 0 7928 1.15615 1
gene 3 2087 25 -0.827459 0 7929 -0.827459 1
gene 2 3 679 -0.195696 0 7970 -0.195696 1
gene 3 969 1239 -0.0970272 0 8121 -0.0970272 1
gene 2 6 1563 -0.404736 0 8132 -0.404736 0
gene 1 1254 2141 -0.357776 0 8145 -0.357776 1
gene 1 2141 1313 1.18353 0 8146 1.18353 1
gene 3 6 1517 -1.09427 0 8164 -1.09427 1
gene 3 1910 2079 -1.61054 0 8177 -1.61054 1
gene 1 1960 2175 1.18048 0 8259 1.18048 0
gene 1 2175 1563 -1.82886 0 8260 -1.82886 1
gene 2 949 1486 1.12202 0 8304 1.12202 1
gene 2 20 2188 1.71965 0 8322 1.71965 1
gene 2 2188 825 0.0812037 0 8323 0.0812037 1
gene 3 14 2196 -0.186588 0 8343 -0.186588 1
gene 3 2196 834 -1.46737 0 8344 -1.46737 1
gene 1 2196 1842 -1.19306 0 8371 -1.19306 1
gene 2 12 1483 0.874108 0 8393 0.874108 1
gene 2 607 1852 2.76458 0 8399 2.76458 1
gene 1 1331 2238 3.15687 0 8524 3.15687 1
gene 1 2238 25 -0.70423 0 8525 -0.70423 1
gene 1 24 1446 -0.547994 0 8533 -0.547994 1
gene 3 21 1292 2.27515 0 8562 2.27515 1
gene 2 607 2253 0.255031 0 8578 0.255031 1
gene 2 2253 25 2.66624 0 8579 2.66624 1
gene 2 19 1210 -1.10014 0 8635 -1.10014 1
gene 2 829 1155 -1.13513 0 8650 -1.13513 1
gene 3 978 2272 0.402758 0 8672 0.402758 1
gene 3 2272 547 -3.87319 0 8673 -3.87319 1
gene 3 193 2323 -1.23426 0 8884 -1.23426 1
gene 3 2323 841 0.434774 0 8885 0.434774 1
gene 1 1418 25 -0.209075 0 8931 -0.209075 1
gene 3 583 1021 1.2059 0 8945 1.2059 1
gene 2 1842 2349 2.23813 0 9004 2.23813 1
gene 2 2349 280 0.0317835 0 9005 0.0317835 1
gene 2 343 2356 1.27339 0 9023 1.27339 1
gene 2 2356 1486 -0.353035 0 9024 -0.353035 1
gene 1 1861 1248 1.50264 0 9105 1.50264 1
gene 2 978 1292 -2.12591 0 9228 -2.12591 1
gene 3 679 1210 -2.60203 0 9248 -2.60203 1
gene 3 22 1694 2.91644 0 9284 2.91644 1
gene 2 753 2426 -2.21761 0 9317 -2.21761 1
gene 2 2426 1874 -0.373122 0 9318 -0.373122 1
gene 2 511 2442 1.39202 0 9374 1.39202 1
gene 2 2442 1248 -1.22444 0 9375 -1.22444 1
gene 3 21 2471 1.16489 0 9497 1.16489 1
gene 3 2471 753 -0.174407 0 9498 -0.174407 1
gene 3 1483 1486 -1.08371 0 9530 -1.08371 1
gene 2 8 2476 2.87237 0 9545 2.87237 1
gene 2 2476 26 0.955267 0 9546 0.955267 1
gene 2 1365 1563 -0.797436 0 9617 -0.797436 1
gene 1 4 2500 0.184716 0 9632 0.184716 1
gene 1 2500 2082 1.5134 0 9633 1.5134 1
gene 3 1378 1197 0.589623 0 9760 0.589623 1
gene 3 1563 1248 -1.53274 0 9770 -1.53274 1
gene 1 1486 2044 -0.464355 0 9822 -0.464355 1
gene 2 2188 2550 0.376125 0 9840 0.376125 1
gene 2 2550 825 -0.874717 0 9841 -0.874717 1
gene 1 1499 2569 1.26093 0 9902 1.26093 1
gene 1 2569 1171 -1.68814 0 9903 -1.68814 1
gene 2 753 2582 0.759002 0 9939 0.759002 1
gene 2 2582 69 0.985187 0 9940 0.985187 1
gene 2 5 2500 0.555324 0 9961 0.555324 1
gene 1 3 2471 0.432768 0 10089 0.432768 1
gene 3 13 2615 -1.72471 0 10105 -1.72471 1
gene 3 2615 280 -0.181513 0 10106 -0.181513 1
gene 1 69 1943 -0.667309 0 10143 -0.667309 1
gene 3 1603 1130 -0.252127 0 10166 -0.252127 1
gene 2 6 2658 1.90274 0 10262 1.90274 1
gene 2 2658 1563 3.73406 0 10263 3.73406 1
gene 3 8 825 0.0548051 0 10278 0.0548051 1
gene 1 7 2615 -1.7584 0 10374 -1.7584 1
gene 3 2082 1021 -0.0371083 0 10384 -0.0371083 1
gene 3 679 2686 -1.0574 0 10414 -1.0574 1
gene 3 2686 343 0.966462 0 10415 0.966462 1
gene 3 6 2701 2.28675 0 10462 2.28675 1
gene 3 2701 1210 1.11245 0 10463 1.11245 1
gene 1 1254 871 -1.75466 0 10577 -1.75466 1
gene 3 1732 2737 -0.164666 0 10590 -0.164666 1
gene 3 2737 825 1.43716 0 10591 1.43716 1
gene 3 1210 1167 -0.188122 0 10675 -0.188122 1
gene 3 1563 2323 -0.557138 0 10696 -0.557138 1
gene 1 2 2082 -0.728203 0 10768 -0.728203 1
gene 1 9 2471 -1.48095 0 10818 -1.48095 1
gene 2 2686 2471 -0.576859 0 10948 -0.576859 1
gene 1 1197 25 -0.254608 0 10979 -0.254608 1
gene 2 13 1296 -1.15283 0 10997 -1.15283 1
gene 1 1468 1292 -2.27085 0 11012 -2.27085 1
gene 2 19 2873 -1.24538 0 11151 -1.24538 1
gene 2 2873 1210 -1.23976 0 11152 -1.23976 1
gene 2 2175 1021 -2.41508 0 11264 -2.41508 1
gene 2 811 547 -0.455668 0 11380 -0.455668 1
gene 3 1382 1171 -1.41767 0 11396 -1.41767 1
gene 2 1744 1296 -0.510924 0 11410 -0.510924 1
gene 2 1468 2356 0.904873 0 11486 0.904873 1
gene 1 1874 871 0.642096 0 11502 0.642096 1
gene 2 17 2582 0.570697 0 11611 0.570697 1
gene 2 2356 2995 -1.25431 0 11682 -1.25431 1
gene 2 2995 1486 -1.64926 0 11683 -1.64926 1
gene 2 1590 1239 -0.521437 0 11728 -0.521437 1
gene 1 1446 1302 -0.457793 0 11983 -0.457793 1
gene 2 2582 2737 -1.63023 0 12010 -1.63023 1
gene 3 679 3085 1 0 12064 1 1
gene 3 3085 1382 1.81441 0 12065 1.81441 1
gene 2 1943 25 0.933607 0 12077 0.933607 1
gene 1 5 3098 0.541016 0 12100 0.541016 1
gene 1 3098 679 1.14497 0 12101 1.14497 1
gene 1 1960 3126 -0.321296 0 12215 -0.321296 1
gene 1 3126 2175 0.526925 0 12216 0.526925 1
gene 1 1590 1302 0.215132 0 12241 0.215132 1
gene 3 2196 2550 0.0520057 0 12291 0.0520057 1
gene 2 2582 2349 -0.258013 0 12306 -0.258013 1
gene 1 15 1302 -1.19155 0 12492 -1.19155 1
gene 1 1874 3209 1.80984 0 12551 1.80984 1
gene 1 3209 1197 -0.222735 0 12552 -0.222735 1
gene 1 1874 2476 -0.663816 0 12575 -0.663816 1
gene 3 633 2033 1.36652 0 12596 1.36652 1
gene 1 2082 841 0.347767 0 12625 0.347767 1
gene 2 1248 3265 1.05154 0 12788 1.05154 1
gene 2 3265 1842 -1.5559 0 12789 -1.5559 1
gene 1 4 3273 1.01082 0 12811 1.01082 1
gene 1 3273 26 3.16034 0 12812 3.16034 1
gene 1 2196 2995 -1.64547 0 12891 -1.64547 1
gene 3 908 462 0.834465 0 12956 0.834465 1
gene 3 69 3313 1 0 12967 1 1
gene 3 3313 871 2.41727 0 12968 2.41727 1
gene 2 1155 3320 1 0 12991 1 1
gene 2 3320 547 -1.40855 0 12992 -1.40855 1
gene 3 1429 1910 0.0227428 0 13009 0.0227428 1
gene 3 1429 1210 2.28977 0 13015 2.28977 1
gene 3 19 1178 -0.91834 0 13067 -0.91834 1
gene 3 2658 3265 0.983704 0 13124 0.983704 1
gene 3 2196 25 3.07209 0 13168 3.07209 1
gene 1 10 3364 1 0 13191 1 1
gene 1 3364 280 -0.785592 0 13192 -0.785592 1
gene 2 902 3209 -0.294201 0 13209 -0.294201 1
gene 3 978 1155 0.937955 0 13318 0.937955 1
gene 2 1483 1694 -1.82272 0 13346 -1.82272 1
gene 2 6 3417 -0.0280118 0 13379 -0.0280118 1
gene 2 3417 1563 0.625208 0 13380 0.625208 1
gene 2 1943 3422 -2.24304 0 13399 -2.24304 1
gene 2 3422 598 -1.65726 0 13400 -1.65726 1
gene 3 1744 1210 -0.295765 0 13507 -0.295765 1
gene 1 1365 2087 -2.34928 0 13623 -2.34928 1
gene 2 3422 3491 0.758827 0 13645 0.758827 1
gene 2 3491 598 -1.44247 0 13646 -1.44247 1
genomeend 3

/* Organism #4 Fitness: 23.2009 Error: 0 */
genomestart 4
trait 1 0 0 0.413862 0 0.685362 0.745432 0.174664 0.207925 
trait 2 0.175426 0.00146352 0.619256 0 0.584142 0.0834754 0.105846 0.0836366 
trait 3 0.0916894 0.112261 0.670121 0.879394 0.252918 0.0486583 0.496868 0.128672 
node 1 2 1 3
node 2 1 1 1
node 3 3 1 1
node 4 3 1 1
node 5 2 1 1
node 6 1 1 1
node 7 3 1 1
node 8 2 1 1
node 9 1 1 1
node 10 3 1 1
node 11 1 1 1
node 12 3 1 1
node 13 3 1 1
node 14 3 1 1
node 15 2 1 1
node 16 2 1 1
node 17 3 1 1
node 18 1 1 1
node 19 2 1 1
node 20 3 1 1
node 21 3 1 1
node 22 2 1 1
node 23 1 1 1
node 24 2 1 1
node 25 3 0 2
node 26 1 0 2
node 69 1 0 0
node 193 1 0 0
node 280 1 0 0
node 316 1 0 0
node 343 1 0 0
node 462 1 0 0
node 511 1 0 0
node 547 1 0 0
node 583 1 0 0
node 598 1 0 0
node 607 1 0 0
node 633 1 0 0
node 679 1 0 0
node 753 1 0 0
node 811 1 0 0
node 825 1 0 0
node 829 1 0 0
node 834 1 0 0
node 841 1 0 0
node 863 1 0 0
node 871 1 0 0
node 901 1 0 0
node 902 3 0 0
node 908 1 0 0
node 949 1 0 0
node 969 1 0 0
node 978 1 0 0
node 1021 1 0 0
node 1130 1 0 0
node 1155 1 0 0
node 1165 1 0 0
node 1167 1 0 0
node 1171 1 0 0
node 1178 1 0 0
node 1197 1 0 0
node 1210 1 0 0
node 1239 1 0 0
node 1248 1 0 0
node 1254 1 0 0
node 1292 1 0 0
node 1296 1 0 0
node 1302 1 0 0
node 1313 1 0 0
node 1331 1 0 0
node 1365 1 0 0
node 1378 1 0 0
node 1382 1 0 0
node 1418 1 0 0
node 1429 1 0 0
node 1446 1 0 0
node 1468 3 0 0
node 1483 1 0 0
node 1486 1 0 0
node 1499 1 0 0
node 1517 1 0 0
node 1563 1 0 0
node 1590 1 0 0
node 1603 1 0 0
node 1694 1 0 0
node 1732 1 0 0
node 1744 2 0 0
node 1788 1 0 0
node 1825 1 0 0
node 1842 1 0 0
node 1852 2 0 0
node 1861 1 0 0
node 1874 1 0 0
node 1876 1 0 0
node 1910 1 0 0
node 1943 1 0 0
node 1960 1 0 0
node 2033 1 0 0
node 2044 1 0 0
node 2072 1 0 0
node 2079 1 0 0
node 2082 1 0 0
node 2087 1 0 0
node 2141 1 0 0
node 2175 1 0 0
node 2188 1 0 0
node 2196 2 0 0
node 2238 2 0 0
node 2253 1 0 0
node 2272 2 0 0
node 2323 1 0 0
node 2349 1 0 0
node 2356 1 0 0
node 2426 1 0 0
node 2442 1 0 0
node 2471 1 0 0
node 2476 1 0 0
node 2500 1 0 0
node 2550 1 0 0
node 2569 1 0 0
node 2582 1 0 0
node 2615 1 0 0
node 2658 1 0 0
node 2686 1 0 0
node 2701 1 0 0
node 2737 1 0 0
node 2873 1 0 0
node 2995 1 0 0
node 3085 1 0 0
node 3098 1 0 0
node 3126 1 0 0
node 3209 1 0 0
node 3265 1 0 0
node 3273 1 0 0
node 3313 1 0 0
node 3320 1 0 0
node 3364 1 0 0
node 3417 1 0 0
node 3422 1 0 0
node 3491 1 0 0
gene 1 1 25 -1.42997 0 1 -1.42997 1
gene 2 2 25 -5.59695 0 2 -5.59695 0
gene 1 3 25 -0.737002 0 3 -0.737002 1
gene 1 4 25 -4.38595 0 4 -4.38595 1
gene 1 5 25 -0.453682 0 5 -0.453682 1
gene 1 6 25 -1.75947 0 6 -1.75947 1
gene 3 7 25 4.59754 0 7 4.59754 1
gene 3 8 25 8 0 8 8 1
gene 3 9 25 -0.907822 0 9 -0.907822 1
gene 1 10 25 7.61374 0 10 7.61374 1
gene 1 11 25 0.693929 0 11 0.693929 1
gene 2 12 25 4.5531 0 12 4.5531 1
gene 2 13 25 -0.0179953 0 13 -0.0179953 1
gene 1 14 25 -6.52165 0 14 -6.52165 1
gene 2 15 25 -0.621868 0 15 -0.621868 0
gene 1 16 25 -0.238508 0 16 -0.238508 1
gene 3 17 25 -0.702519 0 17 -0.702519 1
gene 3 18 25 7.35884 0 18 7.35884 1
gene 1 19 25 -4.72178 0 19 -4.72178 1
gene 3 20 25 6.17853 0 20 6.17853 1
gene 1 21 25 -1.63739 0 21 -1.63739 1
gene 2 22 25 1.24543 0 22 1.24543 1
gene 1 23 25 0.112807 0 23 0.112807 1
gene 1 24 25 2.41281 0 24 2.41281 1
gene 1 1 26 -8 0 25 -8 1
gene 1 2 26 -2.00755 0 26 -2.00755 1
gene 3 3 26 -0.464366 0 27 -0.464366 1
gene 1 4 26 0.763613 0 28 0.763613 0
gene 2 5 26 3.15659 0 29 3.15659 0
gene 1 6 26 -0.239136 0 30 -0.239136 1
gene 2 7 26 2.92651 0 31 2.92651 1
gene 2 8 26 3.36843 0 32 3.36843 1
gene 1 9 26 -2.85231 0 33 -2.85231 1
gene 2 10 26 0.103639 0 34 0.103639 1
gene 1 11 26 -1.90719 0 35 -1.90719 1
gene 3 12 26 0.597706 0 36 0.597706 1
gene 2 13 26 -1.05791 0 37 -1.05791 1
gene 2 14 26 1.77427 0 38 1.77427 1
gene 2 15 26 1.06325 0 39 1.06325 1
gene 2 16 26 1.25522 0 40 1.25522 1
gene 2 17 26 0.0472255 0 41 0.0472255 1
gene 3 18 26 -1.34506 0 42 -1.34506 1
gene 1 19 26 4.94609 0 43 4.94609 1
gene 3 20 26 -0.569109 0 44 -0.569109 1
gene 2 21 26 1.11608 0 45 1.11608 1
gene 2 22 26 0.223501 0 46 0.223501 1
gene 3 23 26 0.402989 0 47 0.402989 1
gene 2 24 26 -1.27964 0 48 -1.27964 1
gene 1 2 69 -0.720133 0 187 -0.720133 1
gene 1 69 26 -2.24211 0 188 -2.24211 1
gene 3 23 69 1.15691 0 195 1.15691 1
gene 3 4 69 0.37109 0 222 0.37109 1
gene 1 11 69 -2.12927 0 347 -2.12927 1
gene 1 16 193 2.04964 0 646 2.04964 1
gene 1 193 25 3.23773 0 647 3.23773 1
gene 2 3 69 -1.7752 0 869 -1.7752 1
gene 2 3 280 0.854941 0 952 0.854941 1
gene 2 280 69 1.07266 0 953 1.07266 1
gene 2 15 69 -0.151216 0 1043 -0.151216 1
gene 3 12 69 2.34352 0 1057 2.34352 1
gene 2 5 316 1.22331 0 1073 1.22331 1
gene 2 316 26 3.63074 0 1074 3.63074 1
gene 3 20 280 -1.86753 0 1145 -1.86753 1
gene 2 15 343 1.57441 0 1166 1.57441 1
gene 2 343 69 0.0979632 0 1167 0.0979632 1
gene 3 16 343 -1.31218 0 1189 -1.31218 1
gene 3 280 316 1.92076 0 1233 1.92076 1
gene 3 2 343 -1.36426 0 1538 -1.36426 1
gene 3 13 280 -0.102703 0 1544 -0.102703 1
gene 3 18 462 2.27147 0 1579 2.27147 1
gene 3 462 25 6.20278 0 1580 6.20278 1
gene 3 21 193 0.995897 0 1616 0.995897 1
gene 1 10 280 1.27833 0 1752 1.27833 1
gene 1 4 511 2.74684 0 1762 2.74684 1
gene 1 511 26 1.65154 0 1763 1.65154 1
gene 1 3 343 1.95704 0 1792 1.95704 1
gene 3 2 193 2.87623 0 1822 2.87623 1
gene 2 16 316 -0.664339 0 1881 -0.664339 1
gene 2 343 547 1.98895 0 1908 1.98895 1
gene 2 547 69 -0.507659 0 1909 -0.507659 1
gene 2 24 547 -0.027697 0 1933 -0.027697 1
gene 3 15 511 -1.76076 0 1972 -1.76076 0
gene 1 343 462 -0.270184 0 1982 -0.270184 1
gene 1 24 583 1.81899 0 2035 1.81899 1
gene 1 583 25 2.22969 0 2036 2.22969 1
gene 1 280 583 -1.14524 0 2066 -1.14524 1
gene 2 15 598 -0.275869 0 2077 -0.275869 1
gene 2 598 26 1.87107 0 2078 1.87107 1
gene 2 15 607 1.31952 0 2106 1.31952 1
gene 2 607 598 1.37001 0 2107 1.37001 1
gene 2 15 633 2.32791 0 2195 2.32791 1
gene 2 633 607 3.77583 0 2196 3.77583 1
gene 3 2 679 1.8812 0 2343 1.8812 1
gene 3 679 343 0.292451 0 2344 0.292451 1
gene 1 5 679 -2.61012 0 2385 -2.61012 1
gene 2 607 25 -0.768338 0 2398 -0.768338 1
gene 2 511 280 -1.55339 0 2425 -1.55339 1
gene 3 19 583 0.888736 0 2539 0.888736 1
gene 2 13 343 -3.1844 0 2558 -3.1844 1
gene 2 193 316 -1.77231 0 2649 -1.77231 1
gene 3 21 753 -0.598962 0 2680 -0.598962 1
gene 3 753 193 -0.413011 0 2681 -0.413011 1
gene 2 753 598 1.20613 0 2798 1.20613 1
gene 2 3 811 4.09801 0 2887 4.09801 1
gene 2 811 69 -1.01643 0 2888 -1.01643 1
gene 1 12 547 -1.8078 0 2901 -1.8078 1
gene 2 13 825 1.0003 0 2940 1.0003 1
gene 2 825 343 1.70973 0 2941 1.70973 1
gene 1 12 829 1.02721 0 2954 1.02721 1
gene 2 829 547 -0.484005 0 2955 -0.484005 1
gene 2 462 607 1.91491 0 2978 1.91491 1
gene 3 679 834 -0.785064 0 2998 -0.785064 1
gene 3 834 343 0.805415 0 2999 0.805415 1
gene 2 511 841 2.32983 0 3016 2.32983 1
gene 2 841 280 -2.6187 0 3017 -2.6187 1
gene 1 1 598 1.47744 0 3035 1.47744 1
gene 2 18 583 -0.881489 0 3081 -0.881489 1
gene 2 193 863 3.48646 0 3089 3.48646 1
gene 2 863 316 2.55951 0 3090 2.55951 1
gene 2 15 871 0.632561 0 3119 0.632561 1
gene 2 871 25 -1.58146 0 3120 -1.58146 1
gene 1 17 598 -0.458159 0 3134 -0.458159 1
gene 3 18 901 -0.108539 0 3224 -0.108539 1
gene 3 901 25 3.66715 0 3225 3.66715 1
gene 2 2 902 -0.370815 0 3228 -0.370815 1
gene 2 902 25 -2.74615 0 3229 -2.74615 1
gene 3 11 908 -1.6564 0 3250 -1.6564 1
gene 1 908 25 -0.0168923 0 3251 -0.0168923 1
gene 1 22 69 -1.82572 0 3292 -1.82572 1
gene 2 811 863 -1.87777 0 3322 -1.87777 1
gene 3 908 607 -0.450299 0 3335 -0.450299 1
gene 1 280 949 -0.0872516 0 3393 -0.0872516 1
gene 1 949 583 -2.0077 0 3394 -2.0077 1
gene 1 21 863 0.660206 0 3409 0.660206 1
gene 2 547 969 1.14092 0 3458 1.14092 1
gene 2 969 69 -1.89475 0 3459 -1.89475 1
gene 2 24 978 -0.123687 0 3488 -0.123687 1
gene 2 978 26 -0.789088 0 3489 -0.789088 1
gene 3 193 841 -0.84557 0 3505 -0.84557 1
gene 1 4 316 -0.479842 0 3529 -0.479842 1
gene 1 8 462 -1.12381 0 3542 -1.12381 1
gene 3 511 25 0.35268 0 3606 0.35268 1
gene 1 22 1021 -0.0399858 0 3664 -0.0399858 1
gene 1 1021 69 -0.695876 0 3665 -0.695876 1
gene 1 13 69 -0.613702 0 3690 -0.613702 1
gene 3 949 825 1.35573 0 3725 1.35573 1
gene 1 10 841 -1.41207 0 3734 -1.41207 1
gene 2 20 825 -0.914118 0 3748 -0.914118 1
gene 3 1 462 0.985989 0 3838 0.985989 1
gene 1 8 908 2.04287 0 3881 2.04287 1
gene 2 583 829 -1.37594 0 3894 -1.37594 1
gene 3 11 679 0.186571 0 3978 0.186571 1
gene 1 978 633 3.34243 0 4061 3.34243 1
gene 2 863 1130 -0.872651 0 4107 -0.872651 1
gene 2 1130 316 -0.617376 0 4108 -0.617376 1
gene 2 24 1155 0.251955 0 4193 0.251955 1
gene 2 1155 547 1.98978 0 4194 1.98978 1
gene 3 7 1165 0.36364 0 4220 0.36364 1
gene 3 1165 25 5.58117 0 4221 5.58117 1
gene 2 280 1167 1.58447 0 4230 1.58447 1
gene 2 1167 69 1.54195 0 4231 1.54195 1
gene 1 280 1171 -0.890675 0 4245 -0.890675 1
gene 1 1171 949 2.06821 0 4246 2.06821 1
gene 3 607 969 0.626651 0 4263 0.626651 1
gene 3 21 1178 3.01773 0 4271 3.01773 1
gene 3 1178 193 2.77072 0 4272 2.77072 1
gene 2 7 1130 0.581503 0 4287 0.581503 1
gene 2 753 1197 -0.775981 0 4323 -0.775981 1
gene 2 1197 598 1.06404 0 4324 1.06404 1
gene 3 1 834 -1.23484 0 4329 -1.23484 1
gene 1 10 583 0.0361315 0 4376 0.0361315 1
gene 3 18 1210 -1.30527 0 4398 -1.30527 1
gene 3 1210 25 6.28204 0 4399 6.28204 1
gene 2 14 1155 -0.649626 0 4422 -0.649626 1
gene 1 9 1239 3.30515 0 4501 3.30515 1
gene 1 1239 26 0.262678 0 4502 0.262678 1
gene 2 26 902 -1.25066 0 4518 -1.25066 1
gene 2 511 1248 -1.76626 0 4537 -1.76626 1
gene 2 1248 280 -1.26917 0 4538 -1.26917 1
gene 1 69 1254 0.297213 0 4562 0.297213 1
gene 1 1254 26 -1.01782 0 4563 -1.01782 1
gene 3 5 949 2.77602 0 4649 2.77602 1
gene 3 978 547 -0.45665 0 4667 -0.45665 1
gene 1 908 1292 -1.53111 0 4703 -1.53111 1
gene 1 1292 25 -0.165679 0 4704 -0.165679 1
gene 2 343 1296 -1.5978 0 4718 -1.5978 1
gene 2 1296 69 -2.12737 0 4719 -2.12737 1
gene 2 280 1302 0.137292 0 4742 0.137292 1
gene 2 1302 1167 -0.739018 0 4743 -0.739018 1
gene 3 18 1313 3.21641 0 4783 3.21641 0
gene 3 1313 901 0.627774 0 4784 0.627774 1
gene 3 14 834 1.93524 0 4822 1.93524 1
gene 3 12 343 1.75725 0 4826 1.75725 1
gene 1 4 1331 -1.17249 0 4844 -1.17249 1
gene 1 1331 25 0.0472747 0 4845 0.0472747 1
gene 3 4 811 -0.753401 0 4969 -0.753401 1
gene 2 24 1365 0.818788 0 4997 0.818788 1
gene 2 1365 978 -1.46319 0 4998 -1.46319 1
gene 1 1254 1313 -0.5041 0 5012 -0.5041 1
gene 3 1365 1130 -1.17602 0 5040 -1.17602 1
gene 2 902 1378 2.25153 0 5052 2.25153 1
gene 2 1378 25 -5.88655 0 5053 -5.88655 1
gene 3 679 1382 2.1592 0 5065 2.1592 1
gene 3 1382 834 2.05364 0 5066 2.05364 1
gene 2 679 1167 -0.421502 0 5099 -0.421502 1
gene 2 24 1418 2.9309 0 5216 2.9309 1
gene 2 1418 1155 -1.39518 0 5217 -1.39518 1
gene 3 343 26 1.56779 0 5228 1.56779 1
gene 1 949 1429 1.68133 0 5251 1.68133 1
gene 3 1429 583 -0.14746 0 5252 -0.14746 0
gene 2 280 26 -2.0781 0 5295 -2.0781 1
gene 3 1178 316 1.30345 0 5311 1.30345 1
gene 3 6 1210 0.561434 0 5321 0.561434 1
gene 1 4 1446 0.108589 0 5332 0.108589 1
gene 1 1446 26 2.82015 0 5333 2.82015 1
gene 2 1167 26 0.730468 0 5379 0.730468 1
gene 2 598 1468 -0.539236 0 5413 -0.539236 1
gene 2 1468 26 -1.6903 0 5414 -1.6903 1
gene 1 633 871 -0.381869 0 5439 -0.381869 1
gene 1 280 1483 -0.60607 0 5463 -0.60607 1
gene 1 1483 583 -1.30776 0 5464 -1.30776 1
gene 2 343 1486 1.91757 0 5473 1.91757 1
gene 2 1486 547 -0.180002 0 5474 -0.180002 1
gene 1 280 1499 -1.45432 0 5509 -1.45432 1
gene 1 1499 1171 1.86418 0 5510 1.86418 1
gene 2 863 1331 -0.542454 0 5528 -0.542454 1
gene 2 753 69 1.37415 0 5600 1.37415 1
gene 1 69 1517 2.88258 0 5612 2.88258 1
gene 1 1517 1254 2.1952 0 5613 2.1952 1
gene 3 583 26 1.432 0 5676 1.432 1
gene 3 583 1155 0.00472153 0 5729 0.00472153 1
gene 3 24 1563 0.318303 0 5786 0.318303 1
gene 2 1563 978 3.08548 0 5787 3.08548 1
gene 2 4 1429 -1.61954 0 5884 -1.61954 1
gene 1 753 841 0.21806 0 5910 0.21806 1
gene 2 753 1590 -0.0692048 0 5921 -0.0692048 1
gene 2 1590 1197 1.7471 0 5922 1.7471 1
gene 2 547 1603 2.19214 0 5976 2.19214 1
gene 2 1603 969 -0.125612 0 5977 -0.125612 1
gene 2 1517 1590 2.46644 0 6059 2.46644 1
gene 3 1499 1382 -0.292743 0 6156 -0.292743 1
gene 1 1021 462 1.95293 0 6179 1.95293 1
gene 1 24 1296 -0.303727 0 6218 -0.303727 1
gene 3 7 1694 -0.182009 0 6307 -0.182009 1
gene 3 1694 25 5.73308 0 6308 5.73308 1
gene 2 1499 902 -0.218385 0 6381 -0.218385 1
gene 2 679 1331 -1.69944 0 6403 -1.69944 1
gene 2 1499 1603 -2.04497 0 6444 -2.04497 1
gene 2 1483 1468 -1.43948 0 6483 -1.43948 1
gene 3 949 1732 0.123546 0 6496 0.123546 1
gene 3 1732 825 -0.606368 0 6497 -0.606368 1
gene 2 598 1744 2.3159 0 6540 2.3159 1
gene 2 1744 1468 2.9035 0 6541 2.9035 1
gene 3 1331 901 -1.66421 0 6561 -1.66421 1
gene 2 978 1603 -2.63166 0 6648 -2.63166 1
gene 2 462 1788 -0.131371 0 6709 -0.131371 1
gene 2 1788 607 -0.688553 0 6710 -0.688553 1
gene 3 753 1788 0.265055 0 6757 0.265055 1
gene 2 1165 1563 -0.910537 0 6788 -0.910537 1
gene 2 2 1446 0.937265 0 6830 0.937265 1
gene 1 633 1825 1.76705 0 6876 1.76705 1
gene 1 1825 871 2.07937 0 6877 2.07937 1
gene 2 1248 1842 -0.472333 0 6936 -0.472333 1
gene 2 1842 280 0.127499 0 6937 0.127499 1
gene 1 12 1852 0.856814 0 6971 0.856814 1
gene 1 1852 69 1.38506 0 6972 1.38506 1
gene 1 1825 1603 0.517879 0 6990 0.517879 1
gene 2 24 1861 2.76561 0 7001 2.76561 1
gene 2 1861 1563 -1.08298 0 7002 -1.08298 1
gene 1 15 1418 1.55116 0 7056 1.55116 1
gene 2 753 1874 2.31073 0 7067 2.31073 1
gene 2 1874 598 0.82639 0 7068 0.82639 1
gene 2 13 1876 -1.58231 0 7080 -1.58231 1
gene 2 1876 343 -2.72703 0 7081 -2.72703 1
gene 1 1874 1197 -1.44974 0 7196 -1.44974 1
gene 3 18 1910 -1.83426 0 7212 -1.83426 1
gene 3 1910 1313 -0.521635 0 7213 -0.521635 1
gene 3 69 871 -0.43939 0 7291 -0.43939 1
gene 2 1197 1943 2.3797 0 7344 2.3797 1
gene 2 1943 598 -1.5073 0 7345 -1.5073 0
gene 1 1825 1842 -1.31372 0 7369 -1.31372 1
gene 1 10 1563 1.227 0 7381 1.227 1
gene 3 316 1296 -0.474399 0 7397 -0.474399 1
gene 1 10 1960 -1.92576 0 7433 -1.92576 1
gene 1 1960 1563 -3.01025 0 7434 -3.01025 1
gene 3 1021 1331 -1.684 0 7452 -1.684 1
gene 1 1130 1313 -1.01154 0 7659 -1.01154 1
gene 3 1178 2033 2.84655 0 7722 2.84655 1
gene 3 2033 316 0.220214 0 7723 0.220214 1
gene 1 1825 2044 0.610706 0 7762 0.610706 1
gene 1 2044 871 -1.12836 0 7763 -1.12836 1
gene 2 3 841 0.762011 0 7790 0.762011 1
gene 2 1874 1861 -1.32141 0 7851 -1.32141 1
gene 1 193 2072 -0.576056 0 7869 -0.576056 1
gene 1 2072 25 4.26272 0 7870 4.26272 1
gene 3 1313 2079 1.97325 0 7890 1.97325 1
gene 3 2079 901 2.45298 0 7891 2.45298 1
gene 1 4 2082 1.01737 0 7901 1.01737 1
gene 1 2082 26 1.81506 0 7902 1.81506 1
gene 3 511 2087 4.43061 0 7928 4.43061 1
gene 3 2087 25 -1.08327 0 7929 -1.08327 1
gene 2 3 679 -1.05081 0 7970 -1.05081 1
gene 3 969 1239 0.131009 0 8121 0.131009 1
gene 2 6 1563 0.967848 0 8132 0.967848 0
gene 1 1254 2141 1.12017 0 8145 1.12017 1
gene 1 2141 1313 2.29713 0 8146 2.29713 1
gene 3 6 1517 -0.374502 0 8164 -0.374502 1
gene 3 1910 2079 -1.76546 0 8177 -1.76546 1
gene 1 1960 2175 -1.10263 0 8259 -1.10263 0
gene 1 2175 1563 2.24218 0 8260 2.24218 1
gene 2 949 1486 -1.9067 0 8304 -1.9067 1
gene 2 20 2188 2.58843 0 8322 2.58843 1
gene 2 2188 825 0.875418 0 8323 0.875418 1
gene 3 14 2196 1.29929 0 8343 1.29929 1
gene 3 2196 834 2.2073 0 8344 2.2073 1
gene 1 2196 1842 0.932065 0 8371 0.932065 1
gene 2 12 1483 -2.47507 0 8393 -2.47507 1
gene 2 607 1852 -1.83024 0 8399 -1.83024 1
gene 1 1331 2238 3.24851 0 8524 3.24851 1
gene 1 2238 25 -2.64978 0 8525 -2.64978 1
gene 1 24 1446 -1.2485 0 8533 -1.2485 1
gene 3 21 1292 -1.76953 0 8562 -1.76953 1
gene 2 607 2253 2.74556 0 8578 2.74556 1
gene 2 2253 25 1.07873 0 8579 1.07873 1
gene 2 19 1210 0.857627 0 8635 0.857627 1
gene 2 829 1155 2.01772 0 8650 2.01772 1
gene 3 978 2272 1.7404 0 8672 1.7404 1
gene 3 2272 547 -1.33712 0 8673 -1.33712 1
gene 3 193 2323 0.241714 0 8884 0.241714 1
gene 3 2323 841 0.335142 0 8885 0.335142 1
gene 1 1418 25 3.57073 0 8931 3.57073 1
gene 3 583 1021 0.66591 0 8945 0.66591 1
gene 2 1842 2349 -0.157305 0 9004 -0.157305 1
gene 2 2349 280 -0.841003 0 9005 -0.841003 1
gene 2 343 2356 3.13028 0 9023 3.13028 1
gene 2 2356 1486 -0.692356 0 9024 -0.692356 1
gene 1 1861 1248 -0.55403 0 9105 -0.55403 1
gene 2 978 1292 -3.64367 0 9228 -3.64367 1
gene 3 679 1210 0.809384 0 9248 0.809384 1
gene 3 22 1694 2.79154 0 9284 2.79154 1
gene 2 753 2426 1.54959 0 9317 1.54959 1
gene 2 2426 1874 2.2044 0 9318 2.2044 1
gene 2 511 2442 0.0558472 0 9374 0.0558472 1
gene 2 2442 1248 -0.0122236 0 9375 -0.0122236 1
gene 3 21 2471 -0.230941 0 9497 -0.230941 1
gene 3 2471 753 1.05236 0 9498 1.05236 1
gene 3 1483 1486 0.764458 0 9530 0.764458 1
